~o
<STREAMINFO> 1 25
<VECSIZE> 25<NULLD><MFCC_D_N_Z_0><DIAGC>
~s "silst"
<MEAN> 25
 -7.531666e+00 2.334345e+00 -1.811254e+00 4.360799e+00 4.024632e+00 3.489585e+00 3.612388e+00 2.548374e+00 1.518933e+00 1.428480e+00 1.735006e+00 3.229993e+00 -1.197478e-01 9.823568e-03 -1.238305e-02 2.281857e-02 2.769320e-02 2.774983e-02 2.316716e-02 7.878924e-03 2.617035e-03 2.320001e-02 2.503699e-02 1.321915e-02 -1.257627e-01
<VARIANCE> 25
 3.193322e+01 3.057867e+01 2.739265e+01 3.064981e+01 3.427267e+01 3.723449e+01 2.979593e+01 3.261544e+01 3.314445e+01 3.817507e+01 2.956557e+01 2.285416e+01 4.789569e-01 7.183487e-01 8.649437e-01 1.046286e+00 1.323358e+00 1.522512e+00 1.572673e+00 1.688178e+00 1.712819e+00 1.686119e+00 1.540820e+00 1.397421e+00 3.688305e-01
<GCONST> 8.859359e+01
~h "@"
<BEGINHMM>
<NUMSTATES> 5
<STATE> 2
<MEAN> 25
 3.126115e+00 -7.811518e-01 -6.706900e-01 -1.263592e+00 -1.180326e+00 -1.991159e+00 -2.358814e+00 -1.245891e+00 7.846878e-01 7.967870e-01 8.858909e-02 -9.557130e-01 1.532074e+00 -4.828233e-01 -4.594389e-02 -5.764997e-01 -7.062290e-01 -3.911359e-01 -7.809720e-01 7.409487e-02 1.238638e-01 -7.630141e-02 -2.519377e-01 -4.742200e-01 1.148695e+00
<VARIANCE> 25
 4.257822e+01 4.981927e+01 5.371203e+01 5.503837e+01 6.400905e+01 7.546221e+01 6.242588e+01 6.320116e+01 6.034038e+01 5.191977e+01 4.579411e+01 3.746147e+01 5.282393e+00 5.833486e+00 5.185738e+00 5.976053e+00 6.275085e+00 7.152866e+00 6.513768e+00 6.950409e+00 6.364666e+00 5.747423e+00 5.081079e+00 4.068181e+00 4.842155e+00
<GCONST> 1.165425e+02
<STATE> 3
<MEAN> 25
 5.021501e+00 -2.068320e+00 -9.895636e-01 -2.238734e+00 -2.130279e+00 -2.751050e+00 -3.620021e+00 -6.986293e-01 1.179638e+00 6.666212e-01 -9.525618e-02 -1.550565e+00 6.634205e-01 -3.691655e-03 1.443787e-01 1.606366e-01 -1.974487e-01 1.011473e-01 -1.298545e-01 8.361678e-02 -5.959500e-02 -1.167824e-01 -2.502251e-01 -1.497226e-01 1.501772e-02
<VARIANCE> 25
 2.777392e+01 4.405108e+01 5.035397e+01 5.315599e+01 6.159887e+01 7.231100e+01 5.930788e+01 6.280372e+01 5.839889e+01 5.661612e+01 4.672986e+01 3.772251e+01 2.749478e+00 4.081569e+00 3.792377e+00 4.910829e+00 4.747085e+00 5.350518e+00 4.920468e+00 5.700908e+00 4.941801e+00 4.519717e+00 4.062550e+00 3.313267e+00 3.314842e+00
<GCONST> 1.119667e+02
<STATE> 4
<MEAN> 25
 4.658431e+00 -1.521831e+00 2.012309e-01 -1.288322e+00 -2.411959e+00 -3.001890e+00 -2.716212e+00 -8.878443e-02 5.514365e-01 6.178617e-01 -2.349699e-01 -1.453745e+00 -1.451113e-01 5.569001e-01 2.412829e-01 6.470893e-01 3.196102e-01 4.354446e-01 3.397341e-01 -1.263122e-01 -1.597220e-01 -9.328663e-02 -1.538685e-01 1.024642e-01 -7.968028e-01
<VARIANCE> 25
 2.544734e+01 4.864962e+01 5.370553e+01 5.321646e+01 6.655490e+01 6.852437e+01 5.873324e+01 6.742067e+01 5.826984e+01 5.647643e+01 4.611987e+01 3.742792e+01 1.359276e+00 2.549938e+00 2.404704e+00 3.018071e+00 3.287087e+00 3.398722e+00 3.260803e+00 3.510891e+00 3.357779e+00 3.080238e+00 2.820549e+00 2.372365e+00 2.109275e+00
<GCONST> 1.063476e+02
<TRANSP> 5
 0.000000e+00 1.000000e+00 0.000000e+00 0.000000e+00 0.000000e+00
 0.000000e+00 2.296669e-01 7.703331e-01 0.000000e+00 0.000000e+00
 0.000000e+00 0.000000e+00 1.194928e-01 8.805072e-01 0.000000e+00
 0.000000e+00 0.000000e+00 0.000000e+00 4.732055e-01 5.267945e-01
 0.000000e+00 0.000000e+00 0.000000e+00 0.000000e+00 0.000000e+00
<ENDHMM>
~h "a"
<BEGINHMM>
<NUMSTATES> 5
<STATE> 2
<MEAN> 25
 4.777044e+00 -7.146714e+00 -4.232640e+00 -4.665627e+00 -2.521504e-01 -9.471696e-01 -3.508773e-01 3.148023e+00 2.391566e+00 -3.424289e-01 -2.450058e+00 -2.942524e+00 2.499004e-01 -1.030155e+00 -6.247955e-01 -4.054292e-01 5.264118e-01 2.435792e-01 2.956300e-01 6.288190e-01 1.538866e-01 -3.907502e-01 -6.623426e-01 -3.706849e-01 7.085125e-01
<VARIANCE> 25
 2.315496e+01 3.959988e+01 4.806274e+01 4.818240e+01 6.752047e+01 7.341905e+01 6.082635e+01 6.401271e+01 5.511060e+01 5.295758e+01 5.145140e+01 4.611987e+01 1.516156e+00 2.777519e+00 2.837159e+00 3.133387e+00 4.021272e+00 4.011032e+00 3.908677e+00 4.522368e+00 3.814711e+00 3.693296e+00 3.618021e+00 3.024188e+00 2.201182e+00
<GCONST> 1.081444e+02
<STATE> 3
<MEAN> 25
 5.046651e+00 -8.434128e+00 -4.896261e+00 -5.143597e+00 7.626105e-01 -7.791326e-01 -1.596265e-01 3.749130e+00 2.413556e+00 -6.936516e-01 -3.736269e+00 -3.648030e+00 -5.057963e-02 5.657883e-01 8.024220e-02 5.608654e-01 1.792945e-01 9.005534e-02 1.187069e-01 -1.959350e-01 -1.658171e-01 -6.308400e-03 -4.501927e-02 2.702441e-01 -7.114493e-01
<VARIANCE> 25
 1.648812e+01 3.617583e+01 4.221506e+01 4.054801e+01 6.102118e+01 6.511540e+01 5.731942e+01 6.021662e+01 5.498130e+01 5.328656e+01 5.178533e+01 4.480393e+01 5.958419e-01 1.656035e+00 1.590908e+00 1.892873e+00 2.466180e+00 2.735271e+00 2.605210e+00 2.817495e+00 2.463746e+00 2.515767e+00 2.437783e+00 2.109124e+00 1.293857e+00
<GCONST> 1.006598e+02
<STATE> 4
<MEAN> 25
 2.877693e+00 -3.396381e+00 -4.247191e+00 -6.899710e-01 1.685871e+00 2.991388e-01 1.363517e+00 2.218613e+00 1.201348e+00 -1.019190e+00 -2.540699e+00 -8.601469e-01 -3.519508e-01 8.362626e-01 4.183514e-01 5.635242e-01 4.784384e-02 1.478401e-01 3.018983e-02 -2.768054e-01 -1.428970e-01 1.152972e-01 2.495066e-01 2.432267e-01 -9.735534e-01
<VARIANCE> 25
 2.440211e+01 3.534119e+01 3.655424e+01 4.161274e+01 4.890154e+01 4.987154e+01 4.286618e+01 4.417179e+01 4.420849e+01 4.428210e+01 4.403918e+01 3.211754e+01 7.822809e-01 1.392700e+00 1.452846e+00 1.742423e+00 2.118191e+00 2.162389e+00 2.261413e+00 2.434911e+00 2.294803e+00 2.254302e+00 2.127869e+00 1.841290e+00 9.191033e-01
<GCONST> 9.738014e+01
<TRANSP> 5
 0.000000e+00 1.000000e+00 0.000000e+00 0.000000e+00 0.000000e+00
 0.000000e+00 4.923594e-01 5.076406e-01 0.000000e+00 0.000000e+00
 0.000000e+00 0.000000e+00 6.079859e-01 3.920141e-01 0.000000e+00
 0.000000e+00 0.000000e+00 0.000000e+00 6.928152e-01 3.071848e-01
 0.000000e+00 0.000000e+00 0.000000e+00 0.000000e+00 0.000000e+00
<ENDHMM>
~h "b"
<BEGINHMM>
<NUMSTATES> 5
<STATE> 2
<MEAN> 25
 4.471526e+00 8.398126e+00 2.630829e+00 4.507337e+00 1.955418e+00 1.554453e+00 -8.120019e-01 -3.107223e+00 -2.758912e+00 -1.896443e+00 -1.483032e+00 -1.601306e+00 1.716644e-01 8.365819e-01 2.207588e-01 4.917791e-01 3.286354e-01 3.200310e-02 1.178761e-01 -2.022396e-01 -1.847868e-01 -2.145967e-01 -1.005050e-01 -3.372105e-02 -3.356267e-01
<VARIANCE> 25
 2.715848e+01 3.690467e+01 3.025440e+01 3.514859e+01 3.321570e+01 3.886256e+01 3.795501e+01 4.021343e+01 3.715891e+01 3.505891e+01 3.056706e+01 2.711917e+01 1.880386e+00 3.135338e+00 2.513329e+00 3.405284e+00 2.794011e+00 3.056275e+00 3.281089e+00 3.051158e+00 3.052205e+00 3.074807e+00 2.851542e+00 2.195045e+00 2.821028e+00
<GCONST> 1.016920e+02
<STATE> 3
<MEAN> 25
 4.988410e+00 7.468379e+00 1.601848e+00 3.387369e+00 1.737258e+00 1.018994e+00 -1.410263e+00 -4.131621e+00 -2.908443e+00 -1.140806e+00 -1.976349e-01 -8.762115e-01 7.249113e-01 -2.058261e+00 -1.189864e+00 -2.090973e+00 -1.119882e+00 -9.942235e-01 -1.485137e+00 -1.481803e-01 8.115627e-01 1.001506e+00 1.197755e+00 -3.564388e-03 2.536418e+00
<VARIANCE> 25
 2.323123e+01 4.314354e+01 3.199597e+01 4.156948e+01 3.440126e+01 4.089730e+01 3.951594e+01 4.046543e+01 3.780594e+01 3.781138e+01 3.554365e+01 2.851597e+01 3.023570e+00 5.139566e+00 4.923951e+00 6.595215e+00 5.158627e+00 6.093834e+00 5.860006e+00 5.593586e+00 6.669431e+00 7.533945e+00 5.333263e+00 4.446298e+00 3.851210e+00
<GCONST> 1.104555e+02
<STATE> 4
<MEAN> 25
 6.394669e+00 1.285486e+00 -4.597760e-01 -1.205705e+00 -1.211461e+00 -1.085820e+00 -5.874261e+00 -2.461728e+00 9.450307e-01 7.539073e-01 2.167466e+00 -2.387401e+00 8.866449e-02 -1.866993e+00 -3.763874e-01 -1.174033e+00 -8.568147e-01 -7.062407e-01 -5.143270e-01 8.508760e-01 8.783374e-01 3.383311e-01 1.867158e-01 -2.754936e-01 1.740630e+00
<VARIANCE> 25
 3.451113e+01 7.111600e+01 6.886879e+01 1.063635e+02 7.897316e+01 1.065590e+02 7.898253e+01 8.964066e+01 8.124438e+01 1.127562e+02 7.667658e+01 6.000885e+01 2.288006e+00 5.874235e+00 5.512755e+00 7.409295e+00 6.676820e+00 8.220071e+00 7.616108e+00 8.344977e+00 8.063719e+00 7.831078e+00 6.853342e+00 6.290689e+00 4.205670e+00
<GCONST> 1.219221e+02
<TRANSP> 5
 0.000000e+00 1.000000e+00 0.000000e+00 0.000000e+00 0.000000e+00
 0.000000e+00 6.394343e-01 3.605656e-01 0.000000e+00 0.000000e+00
 0.000000e+00 0.000000e+00 3.954006e-01 6.045994e-01 0.000000e+00
 0.000000e+00 0.000000e+00 0.000000e+00 5.258565e-01 4.741435e-01
 0.000000e+00 0.000000e+00 0.000000e+00 0.000000e+00 0.000000e+00
<ENDHMM>
~h "c"
<BEGINHMM>
<NUMSTATES> 5
<STATE> 2
<MEAN> 25
 -8.275331e+00 5.403851e+00 5.392967e-01 1.465363e+00 3.400272e+00 -3.768212e-01 2.404494e+00 -4.130208e-01 1.355479e+00 1.427655e-01 1.831935e+00 1.718110e+00 -2.542889e+00 1.670559e-01 -5.046390e-02 -9.338555e-01 3.022620e-01 -1.545494e-02 6.610066e-01 -8.791567e-02 5.175720e-01 1.303972e-01 5.387795e-01 2.645615e-01 1.034532e+00
<VARIANCE> 25
 7.763295e+01 5.068319e+01 5.445672e+01 5.037873e+01 5.119823e+01 6.339108e+01 5.037266e+01 5.617877e+01 5.012118e+01 3.937376e+01 3.817436e+01 2.967546e+01 5.710911e+00 5.037206e+00 5.497444e+00 5.159083e+00 5.428733e+00 5.438099e+00 4.420435e+00 5.165976e+00 4.204760e+00 3.777596e+00 3.397962e+00 2.594247e+00 6.709099e+00
<GCONST> 1.128575e+02
<STATE> 3
<MEAN> 25
 -1.398495e+01 1.324913e+00 5.340982e+00 -2.293694e+00 -3.884636e-01 -2.716948e-01 3.511882e+00 -8.592249e-01 2.239803e+00 -8.773851e-02 3.053108e+00 2.731295e+00 2.195337e+00 -1.736272e+00 1.194208e+00 -4.126411e-02 -2.124559e+00 -1.452265e+00 -8.522904e-01 4.785309e-02 -2.031273e-01 -5.574309e-01 -2.534473e-01 -1.518909e-01 1.847481e+00
<VARIANCE> 25
 6.065521e+01 1.126275e+02 9.827338e+01 6.345316e+01 7.198338e+01 1.033609e+02 5.561404e+01 6.112978e+01 4.280446e+01 4.833431e+01 3.972484e+01 3.365272e+01 1.023552e+01 7.562938e+00 7.692286e+00 5.835816e+00 6.517926e+00 6.864325e+00 5.295717e+00 5.761512e+00 5.076518e+00 4.471367e+00 4.311589e+00 3.156009e+00 3.470755e+00
<GCONST> 1.177429e+02
<STATE> 4
<MEAN> 25
 -1.004229e+00 -2.812973e+00 4.810388e+00 -8.194681e-01 -4.940402e+00 -5.093919e+00 -1.345851e+00 -5.569624e-01 1.261730e+00 -2.275207e+00 3.461440e-01 1.246651e+00 3.778225e+00 -1.066967e+00 -1.166809e+00 -2.045815e-01 -6.646234e-01 -8.902253e-01 -1.001900e+00 1.815373e-01 -3.531942e-01 -1.583966e-01 -6.658476e-01 -7.336752e-01 1.166669e+00
<VARIANCE> 25
 4.256015e+01 6.896922e+01 5.762801e+01 5.073350e+01 6.404350e+01 8.383907e+01 5.975027e+01 6.869337e+01 5.181836e+01 4.395074e+01 4.022842e+01 3.095422e+01 5.337107e+00 9.108485e+00 8.347206e+00 4.832540e+00 7.321591e+00 7.155309e+00 5.954759e+00 6.536373e+00 5.542351e+00 5.925665e+00 5.105048e+00 3.474824e+00 2.334709e+00
<GCONST> 1.160951e+02
<TRANSP> 5
 0.000000e+00 1.000000e+00 0.000000e+00 0.000000e+00 0.000000e+00
 0.000000e+00 7.437215e-01 2.562785e-01 0.000000e+00 0.000000e+00
 0.000000e+00 0.000000e+00 5.644875e-01 4.355125e-01 0.000000e+00
 0.000000e+00 0.000000e+00 0.000000e+00 5.029362e-01 4.970638e-01
 0.000000e+00 0.000000e+00 0.000000e+00 0.000000e+00 0.000000e+00
<ENDHMM>
~h "d"
<BEGINHMM>
<NUMSTATES> 5
<STATE> 2
<MEAN> 25
 3.300009e+00 4.763834e+00 3.976589e+00 6.169697e+00 8.976317e-01 -8.206553e-01 -1.793397e+00 -1.182164e+00 -3.689024e-01 -2.112312e+00 -2.428762e+00 -5.322622e-01 2.156210e-01 9.967844e-02 6.486870e-01 3.843716e-01 -1.379161e-01 -4.802885e-01 -3.501354e-01 -1.563326e-01 -2.073109e-01 -4.497650e-01 1.303582e-01 1.454018e-01 3.945630e-01
<VARIANCE> 25
 3.634317e+01 6.491087e+01 4.143530e+01 5.182331e+01 6.334599e+01 5.717405e+01 5.197333e+01 5.107490e+01 4.508316e+01 4.105215e+01 4.150381e+01 3.196087e+01 3.474367e+00 7.776206e+00 3.806401e+00 5.788123e+00 5.971000e+00 6.153787e+00 5.934257e+00 5.482627e+00 4.860262e+00 4.640789e+00 4.340560e+00 3.562022e+00 6.958634e+00
<GCONST> 1.134469e+02
<STATE> 3
<MEAN> 25
 3.353804e+00 3.162665e-01 5.696517e+00 3.669854e+00 -2.445256e+00 -4.028819e+00 -4.084255e+00 -7.434169e-01 -4.940169e-01 -3.101461e+00 1.235698e-01 1.293435e+00 2.719635e-02 -2.392033e+00 3.040844e-01 -2.077455e+00 -1.994912e+00 -1.413573e+00 -1.105679e+00 9.376111e-01 3.396673e-01 2.689551e-01 1.298415e+00 3.686170e-01 2.820686e+00
<VARIANCE> 25
 2.152377e+01 5.039983e+01 4.340572e+01 5.812267e+01 7.253865e+01 6.647012e+01 6.232884e+01 6.017748e+01 5.796950e+01 4.566645e+01 4.449255e+01 4.036441e+01 2.898926e+00 5.422408e+00 5.509748e+00 5.829604e+00 6.921761e+00 7.439988e+00 7.704726e+00 8.581023e+00 7.191411e+00 6.231238e+00 5.668486e+00 4.398820e+00 4.397652e+00
<GCONST> 1.157114e+02
<STATE> 4
<MEAN> 25
 4.143299e+00 -3.054483e+00 5.682468e+00 -1.104054e-01 -6.429646e+00 -6.400771e+00 -5.894069e+00 2.314373e+00 7.791642e-01 -1.997758e+00 1.721167e+00 2.863432e-01 1.289356e-02 -5.814936e-01 -3.447008e-01 -1.127126e+00 -5.456594e-01 -7.269865e-02 1.994869e-01 4.838713e-01 1.622548e-01 5.480662e-01 1.185170e-01 -4.630515e-01 8.385118e-01
<VARIANCE> 25
 2.173163e+01 4.397240e+01 5.494153e+01 6.802944e+01 8.216993e+01 6.532896e+01 8.169014e+01 9.037695e+01 7.358618e+01 6.407485e+01 5.798033e+01 4.245793e+01 1.294123e+00 2.823543e+00 4.319602e+00 3.968738e+00 5.524802e+00 4.530437e+00 5.085185e+00 5.310636e+00 4.641511e+00 4.018652e+00 4.643598e+00 3.569846e+00 2.749979e+00
<GCONST> 1.121969e+02
<TRANSP> 5
 0.000000e+00 1.000000e+00 0.000000e+00 0.000000e+00 0.000000e+00
 0.000000e+00 5.629073e-01 4.370927e-01 0.000000e+00 0.000000e+00
 0.000000e+00 0.000000e+00 4.208051e-01 5.791949e-01 0.000000e+00
 0.000000e+00 0.000000e+00 0.000000e+00 4.672119e-01 5.327881e-01
 0.000000e+00 0.000000e+00 0.000000e+00 0.000000e+00 0.000000e+00
<ENDHMM>
~h "e"
<BEGINHMM>
<NUMSTATES> 5
<STATE> 2
<MEAN> 25
 2.979891e+00 -4.421609e+00 1.341852e+00 -6.144463e-01 -5.143550e+00 -5.224411e+00 4.409128e-01 3.372435e+00 -8.412066e-02 1.516642e-01 7.063332e-01 -3.792082e-01 5.906646e-01 -1.041422e+00 3.950907e-01 -6.351137e-01 -1.038408e+00 -5.958667e-01 4.995155e-01 8.272413e-01 -4.669603e-01 -8.448711e-02 1.850353e-01 -1.982690e-01 1.291772e+00
<VARIANCE> 25
 3.961353e+01 5.402499e+01 6.170194e+01 5.131762e+01 7.089307e+01 8.562016e+01 6.819611e+01 7.732161e+01 5.767541e+01 4.911692e+01 4.876585e+01 3.551007e+01 3.987105e+00 4.296199e+00 4.632174e+00 4.759592e+00 5.470415e+00 6.196667e+00 5.436928e+00 6.454492e+00 5.099731e+00 4.417051e+00 4.236594e+00 3.219058e+00 4.185143e+00
<GCONST> 1.145376e+02
<STATE> 3
<MEAN> 25
 3.485732e+00 -5.759891e+00 4.136685e+00 -1.297021e+00 -8.387545e+00 -7.464888e+00 1.851572e+00 4.702711e+00 -2.268403e+00 5.778132e-01 1.675595e+00 -1.147632e+00 -1.827046e-01 6.261904e-01 -1.067295e-01 4.019239e-01 4.347883e-01 3.972202e-01 2.337631e-01 -3.249159e-01 5.850255e-03 7.219442e-02 -1.133769e-01 9.276353e-02 -7.494888e-01
<VARIANCE> 25
 2.081714e+01 4.261148e+01 7.060468e+01 5.358704e+01 6.262447e+01 7.938457e+01 7.505322e+01 8.568896e+01 6.470202e+01 4.751420e+01 4.910957e+01 3.375222e+01 9.610053e-01 1.963531e+00 2.097091e+00 2.305933e+00 2.826572e+00 2.815989e+00 2.811900e+00 2.863304e+00 2.852046e+00 2.494321e+00 2.481973e+00 1.908247e+00 1.958999e+00
<GCONST> 1.042585e+02
<STATE> 4
<MEAN> 25
 8.039359e-01 -1.779884e+00 9.740971e-01 9.163961e-01 -3.251452e+00 -2.780557e+00 2.085905e+00 2.018377e+00 -1.690731e-01 8.932199e-01 8.658555e-01 3.860602e-01 -2.265067e-01 4.223420e-01 -1.398273e-01 2.270530e-01 5.626919e-01 3.800058e-01 -4.812197e-02 -2.028037e-01 4.563749e-02 -3.490286e-02 -9.686859e-02 5.889960e-02 -5.442631e-01
<VARIANCE> 25
 3.231331e+01 3.657878e+01 4.390985e+01 4.176585e+01 5.390953e+01 6.014660e+01 4.918037e+01 5.075168e+01 4.652304e+01 3.803327e+01 3.377302e+01 2.733730e+01 6.033474e-01 1.076471e+00 1.090678e+00 1.245059e+00 1.897374e+00 1.848379e+00 1.821406e+00 1.996295e+00 1.903795e+00 1.820775e+00 1.644169e+00 1.438334e+00 6.445541e-01
<GCONST> 9.483368e+01
<TRANSP> 5
 0.000000e+00 1.000000e+00 0.000000e+00 0.000000e+00 0.000000e+00
 0.000000e+00 5.292811e-01 4.707189e-01 0.000000e+00 0.000000e+00
 0.000000e+00 0.000000e+00 6.693610e-01 3.306390e-01 0.000000e+00
 0.000000e+00 0.000000e+00 0.000000e+00 7.212700e-01 2.787300e-01
 0.000000e+00 0.000000e+00 0.000000e+00 0.000000e+00 0.000000e+00
<ENDHMM>
~h "f"
<BEGINHMM>
<NUMSTATES> 5
<STATE> 2
<MEAN> 25
 -4.948185e+00 1.738731e+00 1.384946e+00 5.240396e+00 2.956950e+00 -3.090870e-01 2.304924e+00 8.104280e-02 1.130107e+00 5.128716e-01 1.189542e+00 1.090259e+00 -1.943976e+00 -2.883247e-01 -4.219052e-01 4.226838e-01 7.222899e-01 1.032194e-01 4.263870e-01 2.816630e-01 7.488962e-01 1.876717e-01 2.006396e-01 3.573352e-01 -5.410447e-01
<VARIANCE> 25
 4.803836e+01 2.602439e+01 4.901163e+01 4.883770e+01 4.554220e+01 5.338276e+01 3.828643e+01 4.323352e+01 3.392548e+01 3.132518e+01 2.746291e+01 2.759271e+01 3.635434e+00 2.963640e+00 3.097981e+00 4.211980e+00 4.553474e+00 4.489625e+00 3.532841e+00 3.638154e+00 3.599464e+00 3.091080e+00 2.847106e+00 2.272818e+00 1.812611e+00
<GCONST> 1.050538e+02
<STATE> 3
<MEAN> 25
 -9.129614e+00 -1.403956e+00 1.986028e-01 4.495792e+00 3.422151e+00 -5.287926e-01 2.800856e+00 4.105267e-01 2.420618e+00 1.286781e+00 1.740040e+00 1.968091e+00 7.776467e-01 -6.080584e-01 8.486285e-02 -5.900462e-01 -6.676751e-01 -4.246180e-01 -2.904868e-01 -2.525717e-01 -5.042949e-01 -1.765720e-01 -4.908768e-02 -9.798772e-02 4.615545e-01
<VARIANCE> 25
 3.745832e+01 2.943368e+01 3.983490e+01 4.680099e+01 3.981664e+01 5.458452e+01 3.250181e+01 3.338168e+01 3.312847e+01 2.679139e+01 2.518518e+01 2.301011e+01 4.992697e+00 2.975599e+00 3.481883e+00 3.232033e+00 3.260062e+00 4.099475e+00 3.157695e+00 2.934520e+00 3.359791e+00 2.575506e+00 2.427317e+00 2.169965e+00 2.030997e+00
<GCONST> 1.027730e+02
<STATE> 4
<MEAN> 25
 -3.937579e+00 -3.104182e+00 1.786027e+00 1.139406e+00 1.381180e+00 3.018805e+00 1.264542e-01 -2.324037e+00 1.902246e-02 4.430602e-01 9.500325e-01 8.202816e-01 2.230941e+00 8.652298e-02 3.945495e-01 -1.012618e+00 -1.390381e+00 -4.769154e-01 -8.323243e-01 -4.764891e-01 -9.191200e-01 -2.638972e-01 -5.621102e-02 -5.753793e-01 1.198596e+00
<VARIANCE> 25
 8.339057e+01 7.351521e+01 1.231273e+02 1.165751e+02 8.497982e+01 1.555653e+02 7.320955e+01 6.750748e+01 5.775031e+01 5.178663e+01 3.798901e+01 3.229946e+01 7.286954e+00 6.117734e+00 8.403033e+00 8.630609e+00 7.698501e+00 1.009833e+01 5.297002e+00 5.497651e+00 6.413923e+00 4.641315e+00 4.563665e+00 3.537538e+00 4.085283e+00
<GCONST> 1.207388e+02
<TRANSP> 5
 0.000000e+00 1.000000e+00 0.000000e+00 0.000000e+00 0.000000e+00
 0.000000e+00 6.848522e-01 3.151479e-01 0.000000e+00 0.000000e+00
 0.000000e+00 0.000000e+00 5.446361e-01 4.553639e-01 0.000000e+00
 0.000000e+00 0.000000e+00 0.000000e+00 5.479110e-01 4.520890e-01
 0.000000e+00 0.000000e+00 0.000000e+00 0.000000e+00 0.000000e+00
<ENDHMM>
~h "g"
<BEGINHMM>
<NUMSTATES> 5
<STATE> 2
<MEAN> 25
 2.898118e+00 3.935771e+00 3.177590e+00 3.322978e+00 5.720496e-01 -6.254023e-02 -1.280985e+00 -2.396977e+00 -2.301349e+00 -2.044163e-01 -1.087080e+00 -1.428141e+00 -1.704031e-01 -2.423182e-01 1.057100e-01 1.135115e-01 2.598281e-01 -5.840277e-01 -3.579949e-01 9.840465e-02 -1.276865e-01 6.209124e-04 1.939797e-01 8.030318e-03 4.296935e-01
<VARIANCE> 25
 3.366765e+01 5.413245e+01 4.730594e+01 4.949882e+01 6.661658e+01 6.496300e+01 5.681521e+01 5.413147e+01 5.153363e+01 4.548227e+01 3.864090e+01 3.424139e+01 3.452912e+00 5.916630e+00 4.924421e+00 5.064596e+00 6.667090e+00 6.343532e+00 5.925109e+00 5.283577e+00 5.115510e+00 4.609657e+00 4.054843e+00 3.432698e+00 5.113528e+00
<GCONST> 1.134122e+02
<STATE> 3
<MEAN> 25
 3.218441e+00 1.328991e+00 2.842740e+00 2.175680e+00 3.099561e-03 -3.252889e+00 -3.760203e+00 -9.384791e-01 -2.083424e+00 1.544282e-01 2.396632e-01 -1.479067e+00 1.684716e-02 -1.140540e+00 -2.032310e-01 -1.060177e+00 -6.071795e-01 -8.725144e-01 -5.046141e-01 9.070560e-01 4.926983e-01 1.057624e-01 5.085759e-01 -5.412314e-03 1.371692e+00
<VARIANCE> 25
 2.590115e+01 5.018404e+01 5.595515e+01 5.844538e+01 8.371079e+01 8.128619e+01 7.562631e+01 6.336259e+01 5.595820e+01 5.690258e+01 5.436464e+01 4.096155e+01 2.537897e+00 5.144960e+00 5.343017e+00 5.762478e+00 8.854347e+00 6.590302e+00 6.623311e+00 6.645757e+00 6.051262e+00 5.685413e+00 5.389298e+00 4.306258e+00 3.918389e+00
<GCONST> 1.161798e+02
<STATE> 4
<MEAN> 25
 4.024230e+00 8.399850e-02 2.566737e+00 3.276640e-01 -1.856154e+00 -3.792063e+00 -3.810284e+00 6.775010e-01 -7.262446e-01 -7.402313e-01 1.460178e-01 -1.772584e+00 -1.526821e-01 -4.793362e-01 -3.217832e-01 -6.967613e-01 -1.406097e-01 1.431945e-01 2.860420e-01 4.105309e-01 3.519415e-01 9.279039e-03 -2.099684e-02 2.634173e-02 4.781355e-01
<VARIANCE> 25
 3.119381e+01 6.030858e+01 5.741089e+01 7.542825e+01 8.177472e+01 8.319152e+01 7.637346e+01 7.821690e+01 6.893800e+01 7.588806e+01 6.049436e+01 4.460516e+01 1.602903e+00 3.058836e+00 3.674646e+00 3.597736e+00 4.380593e+00 4.056566e+00 4.120433e+00 4.388189e+00 4.228585e+00 3.780423e+00 3.846875e+00 3.004236e+00 2.011248e+00
<GCONST> 1.117049e+02
<TRANSP> 5
 0.000000e+00 1.000000e+00 0.000000e+00 0.000000e+00 0.000000e+00
 0.000000e+00 4.318560e-01 5.681440e-01 0.000000e+00 0.000000e+00
 0.000000e+00 0.000000e+00 3.745071e-01 6.254929e-01 0.000000e+00
 0.000000e+00 0.000000e+00 0.000000e+00 4.275657e-01 5.724344e-01
 0.000000e+00 0.000000e+00 0.000000e+00 0.000000e+00 0.000000e+00
<ENDHMM>
~h "h"
<BEGINHMM>
<NUMSTATES> 5
<STATE> 2
<MEAN> 25
 9.521726e-01 -3.465963e+00 -1.408470e+00 -2.240652e-01 3.430783e+00 1.657656e+00 3.340963e+00 1.113670e+00 5.177923e-01 -1.114594e+00 -1.810016e+00 4.302032e-02 -6.992011e-01 1.508864e-01 4.747258e-02 6.021605e-01 7.299324e-01 4.194473e-01 5.479376e-01 1.404738e-01 9.911656e-02 -5.717862e-02 7.338174e-02 2.784769e-01 -7.635440e-01
<VARIANCE> 25
 3.458029e+01 4.947298e+01 6.558371e+01 6.109233e+01 1.040503e+02 7.747321e+01 7.319924e+01 6.417863e+01 5.644112e+01 6.330048e+01 5.358678e+01 4.016161e+01 1.786031e+00 3.042572e+00 3.050160e+00 3.133455e+00 4.114622e+00 3.873312e+00 3.860723e+00 3.829420e+00 3.566830e+00 3.597449e+00 3.181023e+00 2.711107e+00 2.116277e+00
<GCONST> 1.098607e+02
<STATE> 3
<MEAN> 25
 -2.168651e-01 -3.228928e+00 -1.485066e+00 6.814509e-01 4.007664e+00 1.816988e+00 3.633793e+00 1.298848e+00 2.233656e-01 -1.278130e+00 -1.609146e+00 4.321427e-01 -4.182065e-01 2.827283e-01 -4.381125e-02 2.776629e-01 1.291126e-01 1.439650e-01 7.328319e-02 -1.875501e-02 3.472647e-02 1.086232e-01 1.220529e-01 1.397308e-01 -7.034776e-01
<VARIANCE> 25
 3.463748e+01 5.277783e+01 6.018198e+01 5.542143e+01 8.680732e+01 6.291956e+01 6.564181e+01 6.030674e+01 5.135638e+01 5.092068e+01 4.804607e+01 3.675227e+01 9.990397e-01 1.677319e+00 1.996662e+00 2.092690e+00 2.763178e+00 2.692024e+00 2.785174e+00 2.786082e+00 2.656077e+00 2.561571e+00 2.390521e+00 2.056636e+00 1.041432e+00
<GCONST> 1.033573e+02
<STATE> 4
<MEAN> 25
 -3.049760e+00 -1.156706e+00 -1.716573e+00 1.776152e+00 3.283515e+00 2.265714e+00 2.531751e+00 1.043368e+00 6.606990e-01 -8.487383e-02 5.997992e-02 1.306436e+00 -7.985377e-02 1.267833e-01 1.500457e-02 2.571005e-02 -5.310516e-02 -2.640504e-02 -5.775308e-02 -4.553510e-02 -2.039083e-02 3.212057e-02 3.113116e-02 1.115567e-02 -2.010317e-01
<VARIANCE> 25
 3.186362e+01 3.486569e+01 3.360946e+01 3.805573e+01 4.010877e+01 3.362195e+01 3.349829e+01 3.445048e+01 3.188352e+01 3.562153e+01 3.254263e+01 2.489271e+01 3.940729e-01 6.623577e-01 8.706781e-01 1.002257e+00 1.287947e+00 1.402187e+00 1.515728e+00 1.621469e+00 1.603540e+00 1.592696e+00 1.477194e+00 1.326469e+00 3.296762e-01
<GCONST> 8.861531e+01
<TRANSP> 5
 0.000000e+00 1.000000e+00 0.000000e+00 0.000000e+00 0.000000e+00
 0.000000e+00 4.598073e-01 5.401928e-01 0.000000e+00 0.000000e+00
 0.000000e+00 0.000000e+00 3.601143e-01 6.398857e-01 0.000000e+00
 0.000000e+00 0.000000e+00 0.000000e+00 8.207461e-01 1.792539e-01
 0.000000e+00 0.000000e+00 0.000000e+00 0.000000e+00 0.000000e+00
<ENDHMM>
~h "i"
<BEGINHMM>
<NUMSTATES> 5
<STATE> 2
<MEAN> 25
 3.285279e-01 7.685111e-01 1.142928e+01 6.988669e-01 -7.051782e+00 -4.397708e+00 -2.621626e+00 -3.600601e+00 -4.381033e+00 -6.258735e-01 2.297093e+00 -1.799549e-01 3.376710e-01 -2.208133e-01 2.309643e+00 -9.585567e-01 -2.030860e+00 -3.226390e-01 -9.291594e-01 -5.020869e-01 -1.142345e+00 1.469378e-01 6.665799e-01 -2.756145e-01 1.167331e+00
<VARIANCE> 25
 3.257829e+01 5.481593e+01 7.350188e+01 7.969283e+01 8.991332e+01 8.574712e+01 6.584489e+01 7.174942e+01 6.368709e+01 5.235164e+01 5.406005e+01 3.936089e+01 4.276025e+00 3.954413e+00 6.495650e+00 6.972549e+00 7.031033e+00 7.365512e+00 6.482578e+00 6.342562e+00 6.161969e+00 5.264032e+00 5.581146e+00 3.866274e+00 2.603476e+00
<GCONST> 1.171080e+02
<STATE> 3
<MEAN> 25
 6.992602e-01 1.053306e+00 1.647727e+01 -1.677208e+00 -1.237745e+01 -4.506001e+00 -4.182982e+00 -3.626407e+00 -7.438945e+00 -3.386686e-01 4.786674e+00 -1.455562e+00 1.124074e-01 3.008278e-01 -3.222704e-01 1.652075e-01 2.258799e-01 1.194817e-01 9.597304e-02 5.281171e-02 2.405942e-01 1.358799e-01 -2.505838e-01 9.162648e-02 -4.505529e-01
<VARIANCE> 25
 1.574737e+01 3.859665e+01 6.627837e+01 7.460549e+01 6.856329e+01 7.929376e+01 5.697806e+01 6.576644e+01 6.490822e+01 6.162301e+01 6.376842e+01 4.224051e+01 9.896922e-01 2.033468e+00 3.050677e+00 3.099454e+00 3.468612e+00 3.504220e+00 3.355632e+00 3.613079e+00 3.291207e+00 2.787337e+00 2.784331e+00 2.206988e+00 1.823683e+00
<GCONST> 1.064569e+02
<STATE> 4
<MEAN> 25
 -3.880805e-02 3.558343e+00 1.040054e+01 6.243735e-01 -5.452621e+00 -2.371277e+00 -3.339478e+00 -4.457363e+00 -3.034242e+00 -6.155510e-02 1.118393e-01 2.308641e-01 -1.357914e-01 1.905441e-01 -1.022065e+00 5.151080e-01 9.282610e-01 3.147434e-01 4.468538e-01 3.156196e-01 4.084916e-01 -6.408648e-02 -2.222688e-01 1.424960e-01 -8.112486e-01
<VARIANCE> 25
 2.190927e+01 4.483048e+01 4.823422e+01 1.033093e+02 7.461871e+01 6.858788e+01 6.431889e+01 5.729655e+01 5.402365e+01 4.770431e+01 4.821756e+01 3.806270e+01 9.402861e-01 1.611618e+00 2.165028e+00 2.539638e+00 2.954609e+00 2.761760e+00 2.829683e+00 2.792570e+00 2.649581e+00 2.508248e+00 2.473244e+00 1.928958e+00 1.163035e+00
<GCONST> 1.033665e+02
<TRANSP> 5
 0.000000e+00 1.000000e+00 0.000000e+00 0.000000e+00 0.000000e+00
 0.000000e+00 5.610811e-01 4.389190e-01 0.000000e+00 0.000000e+00
 0.000000e+00 0.000000e+00 6.614686e-01 3.385314e-01 0.000000e+00
 0.000000e+00 0.000000e+00 0.000000e+00 7.677205e-01 2.322796e-01
 0.000000e+00 0.000000e+00 0.000000e+00 0.000000e+00 0.000000e+00
<ENDHMM>
~h "j"
<BEGINHMM>
<NUMSTATES> 5
<STATE> 2
<MEAN> 25
 -2.927615e+00 7.329474e+00 5.423411e+00 3.843004e+00 2.157675e+00 -1.073718e+00 7.067417e-01 -8.844925e-01 -6.497952e-01 -2.284715e+00 -3.382629e-01 6.255456e-01 -1.489892e+00 4.402693e-01 7.465887e-01 -4.754395e-01 5.848424e-02 -2.079469e-01 1.783484e-01 -4.387457e-01 -1.188645e-02 -5.628000e-02 3.479386e-01 2.181359e-01 7.915304e-01
<VARIANCE> 25
 7.089305e+01 5.259850e+01 5.326044e+01 5.068687e+01 5.873772e+01 5.905591e+01 4.679257e+01 4.313468e+01 4.051478e+01 3.467094e+01 3.243480e+01 2.923335e+01 6.254569e+00 5.393384e+00 4.967102e+00 5.517283e+00 6.359167e+00 6.100629e+00 4.758773e+00 4.329551e+00 4.247871e+00 3.829892e+00 3.521611e+00 2.756300e+00 5.666378e+00
<GCONST> 1.122449e+02
<STATE> 3
<MEAN> 25
 -4.493453e+00 3.583415e+00 1.182138e+01 1.383100e+00 -3.818973e+00 -4.467193e+00 -1.852782e+00 -3.661536e+00 -2.530458e+00 -2.197010e+00 2.392474e+00 2.208793e+00 1.808261e+00 -1.901157e+00 1.033304e+00 -4.725712e-01 -2.703264e+00 -1.894953e+00 -1.599797e+00 5.156790e-02 -5.948805e-01 4.021634e-02 7.958220e-01 2.727292e-01 1.840408e+00
<VARIANCE> 25
 4.616848e+01 8.182185e+01 6.271831e+01 6.423817e+01 7.622921e+01 8.434522e+01 5.932348e+01 5.093523e+01 4.565189e+01 4.613076e+01 3.646926e+01 3.697269e+01 5.995235e+00 6.731761e+00 7.158864e+00 5.977548e+00 8.116860e+00 6.319413e+00 6.233032e+00 6.521426e+00 5.143400e+00 5.498630e+00 4.214124e+00 3.457509e+00 2.503159e+00
<GCONST> 1.161619e+02
<STATE> 4
<MEAN> 25
 1.978766e+00 -1.217345e+00 9.938559e+00 -6.556081e-01 -9.421149e+00 -8.794883e+00 -5.326250e+00 1.055506e+00 -1.843809e+00 -1.089944e+00 3.508279e+00 2.173343e+00 1.000258e+00 -9.927719e-01 -1.485327e+00 -4.401693e-01 2.312291e-01 1.839965e-01 -1.677934e-01 9.949809e-01 7.626865e-01 3.938248e-01 -3.589571e-01 -6.610126e-01 2.710784e-01
<VARIANCE> 25
 1.636481e+01 3.482426e+01 4.369747e+01 6.109108e+01 5.984386e+01 4.851505e+01 6.444048e+01 7.124890e+01 5.202869e+01 5.311234e+01 4.078232e+01 3.595104e+01 1.513306e+00 3.388557e+00 3.053389e+00 2.919954e+00 5.172226e+00 4.074490e+00 4.966617e+00 4.750959e+00 3.625258e+00 3.441537e+00 3.624966e+00 3.222477e+00 1.623425e+00
<GCONST> 1.073002e+02
<TRANSP> 5
 0.000000e+00 1.000000e+00 0.000000e+00 0.000000e+00 0.000000e+00
 0.000000e+00 7.412780e-01 2.587220e-01 0.000000e+00 0.000000e+00
 0.000000e+00 0.000000e+00 6.080039e-01 3.919961e-01 0.000000e+00
 0.000000e+00 0.000000e+00 0.000000e+00 6.476858e-01 3.523142e-01
 0.000000e+00 0.000000e+00 0.000000e+00 0.000000e+00 0.000000e+00
<ENDHMM>
~h "k"
<BEGINHMM>
<NUMSTATES> 5
<STATE> 2
<MEAN> 25
 -3.200034e+00 1.899007e+00 -2.133733e+00 2.401509e+00 3.305904e+00 1.931968e+00 1.654855e+00 6.224792e-01 1.160189e+00 1.787954e+00 1.116081e+00 9.940787e-01 -9.830614e-01 -7.683978e-01 -9.064968e-01 -1.441181e-01 7.924345e-01 -1.529024e-01 4.110152e-02 4.010334e-01 4.112505e-01 4.256721e-01 1.582375e-01 3.198011e-01 2.001432e-01
<VARIANCE> 25
 4.192121e+01 4.384444e+01 5.260387e+01 5.062503e+01 6.368409e+01 6.093276e+01 4.983786e+01 5.028879e+01 4.879920e+01 4.145080e+01 4.032384e+01 3.314467e+01 3.568830e+00 5.394189e+00 5.307404e+00 5.478950e+00 6.377262e+00 6.180682e+00 5.424291e+00 5.123799e+00 5.055169e+00 4.320154e+00 3.994186e+00 3.389766e+00 6.688269e+00
<GCONST> 1.131671e+02
<STATE> 3
<MEAN> 25
 -3.899816e+00 -3.253299e+00 -5.222517e+00 -1.177575e+00 4.648359e+00 5.842072e-01 6.927891e-01 1.490126e+00 1.805593e+00 2.869342e+00 8.001563e-01 9.067022e-01 8.413815e-01 -1.230758e+00 -2.431982e-01 -1.294318e+00 -4.675346e-01 -7.984047e-01 -2.026351e-01 4.696987e-02 -1.986229e-02 -5.787397e-02 -2.088312e-01 -4.795547e-01 2.442186e+00
<VARIANCE> 25
 5.125864e+01 6.292308e+01 9.564747e+01 8.396172e+01 1.161543e+02 1.051670e+02 7.760032e+01 7.396223e+01 7.141852e+01 5.939405e+01 5.098936e+01 4.675134e+01 6.233325e+00 6.485182e+00 7.739323e+00 7.845855e+00 9.883063e+00 8.986480e+00 7.408375e+00 7.191100e+00 7.058830e+00 6.639576e+00 5.705490e+00 5.032053e+00 6.628541e+00
<GCONST> 1.225753e+02
<STATE> 4
<MEAN> 25
 -3.703493e-01 -3.896165e+00 -3.956983e+00 -2.843557e+00 1.551695e+00 -1.297487e+00 8.655168e-01 1.029585e+00 8.958132e-01 1.419133e+00 -2.649528e-01 -5.179112e-01 1.706369e+00 -1.176396e-01 5.825884e-01 -8.448032e-01 -1.360165e+00 -3.350554e-01 -2.011593e-01 -3.771543e-01 -5.585405e-01 -5.923041e-01 -3.210606e-01 -7.206476e-01 1.491176e+00
<VARIANCE> 25
 4.668645e+01 4.999783e+01 6.463844e+01 5.709453e+01 7.333182e+01 7.132116e+01 5.343623e+01 5.814945e+01 5.481596e+01 4.645709e+01 4.393651e+01 3.974000e+01 4.193126e+00 4.453694e+00 5.120046e+00 5.108307e+00 5.900085e+00 5.842300e+00 5.438287e+00 5.455100e+00 5.480576e+00 4.808475e+00 4.588923e+00 3.755846e+00 3.183795e+00
<GCONST> 1.142251e+02
<TRANSP> 5
 0.000000e+00 1.000000e+00 0.000000e+00 0.000000e+00 0.000000e+00
 0.000000e+00 5.478863e-01 4.521137e-01 0.000000e+00 0.000000e+00
 0.000000e+00 0.000000e+00 5.245650e-01 4.754350e-01 0.000000e+00
 0.000000e+00 0.000000e+00 0.000000e+00 3.854047e-01 6.145952e-01
 0.000000e+00 0.000000e+00 0.000000e+00 0.000000e+00 0.000000e+00
<ENDHMM>
~h "l"
<BEGINHMM>
<NUMSTATES> 5
<STATE> 2
<MEAN> 25
 6.425240e+00 -3.366152e+00 -2.022119e+00 -3.692832e+00 -2.195078e+00 -7.955024e-01 -4.710402e+00 -3.708584e+00 3.058303e+00 2.713486e+00 -7.808524e-01 -2.301576e+00 3.038704e-01 -1.574267e-01 -1.287362e-01 -3.742093e-01 -1.649101e-02 1.209187e-01 -6.428784e-01 -3.104637e-01 4.586988e-01 6.226843e-01 -1.313802e-01 -2.527376e-01 6.903426e-02
<VARIANCE> 25
 2.075165e+01 3.581561e+01 4.789644e+01 6.311362e+01 6.183553e+01 8.183357e+01 6.789491e+01 7.896900e+01 5.930193e+01 7.405601e+01 5.271601e+01 3.964687e+01 8.712347e-01 1.956686e+00 2.631232e+00 3.458100e+00 3.683453e+00 4.275514e+00 4.187781e+00 5.329346e+00 3.826503e+00 3.926577e+00 3.509499e+00 3.003700e+00 1.092725e+00
<GCONST> 1.074780e+02
<STATE> 3
<MEAN> 25
 6.665040e+00 -3.666981e+00 -2.656285e+00 -5.452361e+00 -1.754274e+00 1.728120e-01 -5.848939e+00 -3.914548e+00 4.041295e+00 4.251607e+00 -9.720200e-01 -3.092535e+00 -5.630661e-02 -9.413135e-02 -7.204851e-02 -1.969872e-01 2.049541e-01 2.653390e-02 3.887787e-02 4.757857e-01 1.770395e-02 -2.061878e-01 -1.916997e-01 -8.633769e-02 4.929465e-02
<VARIANCE> 25
 1.798157e+01 3.264774e+01 4.448864e+01 6.301059e+01 5.581076e+01 7.895833e+01 6.853156e+01 7.500287e+01 6.007531e+01 7.173380e+01 5.431732e+01 4.102366e+01 4.083243e-01 1.396645e+00 1.735166e+00 2.274030e+00 2.465408e+00 3.026119e+00 3.149004e+00 4.165944e+00 2.786502e+00 2.886825e+00 2.872132e+00 2.169399e+00 6.087333e-01
<GCONST> 1.020866e+02
<STATE> 4
<MEAN> 25
 6.314711e+00 -2.487287e+00 -2.988327e+00 -4.528820e+00 -1.647719e+00 -1.408048e+00 -3.847821e+00 -9.926909e-01 2.912791e+00 7.545229e-01 -1.968816e+00 -2.365896e+00 -2.628914e-01 1.569922e-01 1.694643e-01 2.267464e-01 1.130265e-01 1.065377e-02 4.048756e-01 3.852022e-01 -3.893759e-01 -3.795778e-01 5.572136e-02 1.696626e-01 -2.380231e-01
<VARIANCE> 25
 2.100412e+01 3.980467e+01 5.549492e+01 6.872842e+01 8.448795e+01 9.247498e+01 6.992113e+01 7.648787e+01 5.983933e+01 8.639201e+01 6.143654e+01 4.318016e+01 4.878033e-01 1.393909e+00 1.657054e+00 2.113127e+00 2.436242e+00 2.722560e+00 2.673303e+00 2.991163e+00 2.631653e+00 2.742174e+00 2.574695e+00 1.943811e+00 8.275832e-01
<GCONST> 1.031401e+02
<TRANSP> 5
 0.000000e+00 1.000000e+00 0.000000e+00 0.000000e+00 0.000000e+00
 0.000000e+00 4.155734e-01 5.844265e-01 0.000000e+00 0.000000e+00
 0.000000e+00 0.000000e+00 4.213723e-01 5.786276e-01 0.000000e+00
 0.000000e+00 0.000000e+00 0.000000e+00 5.914494e-01 4.085506e-01
 0.000000e+00 0.000000e+00 0.000000e+00 0.000000e+00 0.000000e+00
<ENDHMM>
~h "m"
<BEGINHMM>
<NUMSTATES> 5
<STATE> 2
<MEAN> 25
 5.954107e+00 2.013053e+00 -1.516188e-01 9.406507e-01 4.849111e-01 2.659963e+00 -1.501888e+00 -4.876434e+00 -3.975751e+00 -2.281741e-01 -6.248841e-01 -1.855045e+00 1.033938e-02 9.513911e-01 8.968200e-01 1.347874e+00 2.497330e-01 3.212914e-01 1.713678e-01 -1.331233e+00 -1.247278e+00 -2.479861e-01 -5.184690e-01 -7.414540e-02 -7.781075e-01
<VARIANCE> 25
 2.164375e+01 3.424326e+01 3.645527e+01 4.354067e+01 3.849139e+01 4.984705e+01 4.374802e+01 4.767381e+01 4.872612e+01 3.890167e+01 3.706200e+01 2.938325e+01 1.157936e+00 2.011725e+00 2.892716e+00 3.452737e+00 2.899839e+00 3.130544e+00 3.413236e+00 3.597109e+00 3.834088e+00 3.068068e+00 3.197422e+00 2.473467e+00 1.623273e+00
<GCONST> 1.025454e+02
<STATE> 3
<MEAN> 25
 5.602113e+00 3.350685e+00 1.994007e+00 3.160815e+00 5.061350e-01 3.225167e+00 -1.121878e+00 -7.448220e+00 -6.516332e+00 -8.409298e-01 -1.891039e+00 -1.884482e+00 5.467479e-02 6.732602e-02 -6.602750e-02 -2.630080e-02 1.783176e-02 1.981279e-01 1.081510e-01 -9.535894e-03 -3.849207e-02 -7.740916e-02 -1.223425e-01 -1.339977e-01 -2.484024e-02
<VARIANCE> 25
 1.845615e+01 3.175673e+01 3.225367e+01 3.446273e+01 3.873945e+01 5.109111e+01 4.824287e+01 5.426401e+01 5.916729e+01 4.518909e+01 3.976168e+01 3.186936e+01 6.012280e-01 1.320820e+00 1.953087e+00 2.219152e+00 1.890123e+00 2.141268e+00 2.089575e+00 2.318150e+00 2.617727e+00 2.108666e+00 2.075717e+00 1.767217e+00 8.842573e-01
<GCONST> 9.692713e+01
<STATE> 4
<MEAN> 25
 5.535640e+00 3.141804e+00 1.660807e-01 1.057406e+00 5.029137e-01 2.796515e+00 -9.181097e-01 -4.201118e+00 -3.762898e+00 -1.004689e+00 -1.809141e+00 -2.378182e+00 6.496723e-02 -5.017015e-01 -7.221726e-01 -8.509884e-01 -1.400182e-01 -5.377202e-02 -8.351135e-03 8.552206e-01 8.353909e-01 1.457965e-01 2.851506e-01 -3.785364e-02 4.244773e-01
<VARIANCE> 25
 2.202240e+01 3.581489e+01 3.894406e+01 4.412431e+01 4.350080e+01 5.272423e+01 4.482912e+01 4.742547e+01 5.163941e+01 3.973271e+01 3.794429e+01 3.129700e+01 7.138562e-01 1.775751e+00 2.567029e+00 3.078581e+00 2.623346e+00 2.707943e+00 2.523953e+00 2.933125e+00 3.421852e+00 2.483078e+00 2.398612e+00 2.173610e+00 1.068805e+00
<GCONST> 1.002969e+02
<TRANSP> 5
 0.000000e+00 1.000000e+00 0.000000e+00 0.000000e+00 0.000000e+00
 0.000000e+00 5.131903e-01 4.868097e-01 0.000000e+00 0.000000e+00
 0.000000e+00 0.000000e+00 4.809130e-01 5.190870e-01 0.000000e+00
 0.000000e+00 0.000000e+00 0.000000e+00 5.964717e-01 4.035283e-01
 0.000000e+00 0.000000e+00 0.000000e+00 0.000000e+00 0.000000e+00
<ENDHMM>
~h "n"
<BEGINHMM>
<NUMSTATES> 5
<STATE> 2
<MEAN> 25
 5.844229e+00 -1.430864e+00 1.788216e+00 1.787042e+00 -1.983799e+00 -1.845439e+00 -2.473064e+00 -7.665980e-01 -7.043071e-01 -9.079749e-01 -3.440794e+00 -1.364740e+00 2.333374e-01 1.850481e+00 7.657971e-01 1.568797e+00 -5.826885e-02 2.852771e-01 -1.470843e-01 -1.668196e+00 -2.501102e-01 8.188928e-02 -5.435624e-01 1.175881e-01 -1.642850e+00
<VARIANCE> 25
 1.487742e+01 3.938328e+01 3.869421e+01 4.021840e+01 5.121648e+01 5.066315e+01 4.550692e+01 6.271912e+01 4.950837e+01 4.828409e+01 4.316106e+01 3.335804e+01 9.391173e-01 2.204437e+00 2.935890e+00 2.954297e+00 4.206985e+00 4.009241e+00 3.854729e+00 4.972367e+00 3.887572e+00 3.625195e+00 3.488169e+00 2.830741e+00 1.320750e+00
<GCONST> 1.044197e+02
<STATE> 3
<MEAN> 25
 5.860186e+00 3.065267e+00 3.289748e+00 4.410017e+00 -2.232406e+00 -1.017519e+00 -2.536118e+00 -4.771936e+00 -1.617545e+00 -7.642378e-01 -4.733257e+00 -1.438071e+00 -1.428310e-01 9.521172e-01 2.004054e-01 4.422479e-01 3.340065e-01 2.516461e-01 1.070300e-01 -3.405546e-01 -2.180665e-01 -5.706476e-02 -2.258854e-02 6.496551e-03 -7.763157e-01
<VARIANCE> 25
 1.341294e+01 2.999751e+01 3.041587e+01 3.395368e+01 5.050798e+01 4.679831e+01 4.009074e+01 4.726405e+01 4.283876e+01 4.863720e+01 4.132150e+01 3.171091e+01 5.579325e-01 1.373739e+00 1.445512e+00 1.579960e+00 2.168653e+00 2.263376e+00 2.253035e+00 2.733024e+00 2.437814e+00 2.239893e+00 2.161442e+00 1.754480e+00 7.142711e-01
<GCONST> 9.568148e+01
<STATE> 4
<MEAN> 25
 2.940395e+00 5.335822e+00 2.987867e+00 5.099439e+00 1.024184e+00 3.611040e-01 -8.891712e-01 -2.730154e+00 -1.660539e+00 -1.152666e+00 -2.803202e+00 -8.627637e-01 -6.037841e-01 -6.936122e-02 -1.059456e-01 -9.793369e-02 3.113290e-01 1.716023e-01 3.095382e-01 4.551125e-01 9.169389e-02 8.902140e-02 3.846792e-01 1.189206e-01 -3.193274e-01
<VARIANCE> 25
 2.376748e+01 3.325220e+01 2.851453e+01 3.297559e+01 4.545141e+01 4.029583e+01 3.744688e+01 4.113401e+01 3.668142e+01 3.688135e+01 3.451306e+01 2.802986e+01 9.619352e-01 1.652514e+00 1.597042e+00 1.827236e+00 2.264068e+00 2.286686e+00 2.303951e+00 2.681322e+00 2.418530e+00 2.357038e+00 2.155674e+00 1.770940e+00 9.601642e-01
<GCONST> 9.644196e+01
<TRANSP> 5
 0.000000e+00 1.000000e+00 0.000000e+00 0.000000e+00 0.000000e+00
 0.000000e+00 5.305495e-01 4.694505e-01 0.000000e+00 0.000000e+00
 0.000000e+00 0.000000e+00 5.387479e-01 4.612521e-01 0.000000e+00
 0.000000e+00 0.000000e+00 0.000000e+00 6.587368e-01 3.412633e-01
 0.000000e+00 0.000000e+00 0.000000e+00 0.000000e+00 0.000000e+00
<ENDHMM>
~h "o"
<BEGINHMM>
<NUMSTATES> 5
<STATE> 2
<MEAN> 25
 5.720784e+00 -5.517585e-01 -5.720673e+00 -7.991026e+00 -1.517504e+00 3.033770e+00 -1.945101e+00 -1.660648e+00 1.199896e+00 1.806446e+00 2.183899e+00 -1.320992e+00 1.081077e+00 -4.515002e-01 -8.798662e-01 -1.846688e+00 -1.510102e-01 1.044413e+00 -5.657151e-02 -2.200395e-01 -1.799137e-01 2.544258e-01 4.976371e-01 -3.873669e-01 1.123678e+00
<VARIANCE> 25
 3.516588e+01 3.786524e+01 4.429839e+01 8.347117e+01 7.097900e+01 9.592815e+01 6.810205e+01 6.153341e+01 6.350104e+01 6.198870e+01 5.479272e+01 4.007287e+01 3.417359e+00 3.182749e+00 3.713271e+00 6.550822e+00 6.089823e+00 6.830800e+00 5.556299e+00 5.164290e+00 5.370750e+00 4.882474e+00 4.436828e+00 3.563089e+00 3.906229e+00
<GCONST> 1.145480e+02
<STATE> 3
<MEAN> 25
 7.461472e+00 -1.281936e+00 -7.417862e+00 -1.113674e+01 -7.954881e-01 6.272415e+00 -1.898129e+00 -2.771374e+00 1.525505e-01 2.504658e+00 3.567351e+00 -1.752859e+00 -1.890193e-01 3.122440e-01 7.661574e-02 7.250638e-01 3.342814e-01 1.450892e-02 2.198165e-01 1.924085e-02 -5.535733e-02 -4.580501e-02 -2.354935e-01 1.236757e-01 -7.241850e-01
<VARIANCE> 25
 2.020369e+01 3.720004e+01 4.017860e+01 7.533234e+01 6.749033e+01 9.421523e+01 6.565448e+01 5.675893e+01 6.425190e+01 6.376132e+01 5.511073e+01 4.294981e+01 9.979420e-01 2.034472e+00 1.788151e+00 4.053195e+00 2.917666e+00 3.947185e+00 3.457455e+00 3.096904e+00 3.764440e+00 3.373819e+00 3.066410e+00 2.691812e+00 1.937093e+00
<GCONST> 1.064696e+02
<STATE> 4
<MEAN> 25
 3.604761e+00 9.727304e-01 -5.431448e+00 -6.081809e+00 -4.433872e-01 3.678285e+00 1.945480e-01 -1.322892e+00 2.608190e-01 1.270877e+00 1.190020e+00 -1.724209e-01 -3.537130e-01 1.606005e-01 3.194286e-01 6.504523e-01 1.645251e-01 -1.716283e-01 1.036579e-01 6.875768e-02 -3.570093e-03 -9.818876e-02 -1.748617e-01 7.348985e-02 -4.656271e-01
<VARIANCE> 25
 3.419413e+01 2.781432e+01 3.049314e+01 6.431874e+01 4.358140e+01 5.830877e+01 4.247678e+01 4.009288e+01 3.954488e+01 4.060653e+01 3.443125e+01 3.165173e+01 5.054370e-01 7.653225e-01 1.058711e+00 1.713456e+00 1.515890e+00 1.842346e+00 1.728675e+00 1.750799e+00 1.874804e+00 1.830910e+00 1.671690e+00 1.494775e+00 4.770401e-01
<GCONST> 9.323075e+01
<TRANSP> 5
 0.000000e+00 1.000000e+00 0.000000e+00 0.000000e+00 0.000000e+00
 0.000000e+00 5.419831e-01 4.580169e-01 0.000000e+00 0.000000e+00
 0.000000e+00 0.000000e+00 6.931194e-01 3.068806e-01 0.000000e+00
 0.000000e+00 0.000000e+00 0.000000e+00 7.894886e-01 2.105114e-01
 0.000000e+00 0.000000e+00 0.000000e+00 0.000000e+00 0.000000e+00
<ENDHMM>
~h "p"
<BEGINHMM>
<NUMSTATES> 5
<STATE> 2
<MEAN> 25
 -2.220080e+00 3.082375e+00 -2.345017e+00 2.510209e+00 2.306306e+00 2.311833e+00 2.153503e+00 6.838128e-01 1.473850e+00 1.654461e+00 1.194858e+00 1.034428e+00 -5.426444e-01 -4.521839e-01 -3.600787e-01 -1.676173e-01 -1.024016e-01 -7.856177e-02 2.012821e-01 4.662506e-02 3.257177e-01 2.605883e-01 3.138808e-01 2.765266e-01 2.285372e-01
<VARIANCE> 25
 4.607785e+01 3.228318e+01 3.713645e+01 3.852517e+01 3.642512e+01 4.287989e+01 3.496397e+01 3.818581e+01 3.755892e+01 3.435940e+01 3.069893e+01 2.627719e+01 4.488744e+00 3.872944e+00 3.412247e+00 4.375724e+00 3.653581e+00 4.285537e+00 3.592392e+00 3.847982e+00 3.790740e+00 3.332063e+00 3.057886e+00 2.614509e+00 7.319284e+00
<GCONST> 1.064657e+02
<STATE> 3
<MEAN> 25
 -4.912458e-01 4.745284e-02 -3.778168e+00 -3.056416e-01 9.166592e-01 1.172225e+00 1.611934e+00 -6.405379e-01 1.551764e+00 1.964410e+00 1.797812e+00 7.622380e-01 2.287477e+00 -1.911125e+00 -8.703874e-01 -2.273932e+00 -8.779312e-01 -1.643682e-01 -7.440892e-01 -6.469706e-01 1.143942e-01 6.372809e-02 1.102663e-01 -1.011701e+00 3.860241e+00
<VARIANCE> 25
 4.122621e+01 3.560874e+01 3.850410e+01 5.210440e+01 4.032244e+01 5.195279e+01 3.864399e+01 4.089837e+01 3.786800e+01 3.346759e+01 3.260318e+01 2.728312e+01 5.905219e+00 5.935327e+00 6.393684e+00 7.475021e+00 6.831721e+00 9.506792e+00 6.235174e+00 6.084941e+00 6.240251e+00 5.916407e+00 5.588737e+00 4.958239e+00 7.168137e+00
<GCONST> 1.139241e+02
<STATE> 4
<MEAN> 25
 5.046742e+00 -3.946188e+00 -6.007082e+00 -4.897758e+00 -4.257786e-01 2.148802e+00 -3.765983e-01 -1.754857e+00 1.901807e+00 1.873787e+00 1.347188e+00 -2.325260e+00 1.366242e+00 -1.086175e+00 -1.637631e-01 -1.012066e+00 -6.251845e-01 -3.090869e-01 -6.450061e-01 2.789048e-02 -1.070171e-02 -2.038477e-01 -3.416611e-01 -7.050699e-01 1.978890e+00
<VARIANCE> 25
 3.895861e+01 4.919714e+01 5.438443e+01 6.722360e+01 5.517304e+01 8.288828e+01 5.299632e+01 4.935139e+01 4.857231e+01 4.641630e+01 4.408546e+01 4.411659e+01 4.670564e+00 5.531405e+00 6.246227e+00 7.132436e+00 6.577810e+00 8.475257e+00 5.803309e+00 5.735566e+00 5.831780e+00 5.254725e+00 5.335304e+00 4.465268e+00 6.342472e+00
<GCONST> 1.163149e+02
<TRANSP> 5
 0.000000e+00 1.000000e+00 0.000000e+00 0.000000e+00 0.000000e+00
 0.000000e+00 5.634371e-01 4.365629e-01 0.000000e+00 0.000000e+00
 0.000000e+00 0.000000e+00 3.855931e-01 6.144070e-01 0.000000e+00
 0.000000e+00 0.000000e+00 0.000000e+00 3.491914e-01 6.508086e-01
 0.000000e+00 0.000000e+00 0.000000e+00 0.000000e+00 0.000000e+00
<ENDHMM>
~h "r"
<BEGINHMM>
<NUMSTATES> 5
<STATE> 2
<MEAN> 25
 4.967495e+00 -4.325114e+00 -2.861026e+00 3.684932e-01 -2.378828e+00 -2.358849e+00 -2.479732e+00 5.672563e-01 3.725253e+00 3.442508e-02 -3.281524e-01 -8.773484e-01 4.459350e-02 -1.158711e-02 2.588430e-01 8.865212e-01 -1.998050e-01 -1.802716e-01 -1.936125e-01 1.227616e-01 1.394278e-01 -2.077959e-01 2.096421e-01 3.147137e-01 -4.622955e-01
<VARIANCE> 25
 2.721518e+01 3.900424e+01 5.024986e+01 4.762372e+01 5.929869e+01 5.925171e+01 5.892241e+01 6.169458e+01 5.847820e+01 5.075344e+01 4.495696e+01 4.002659e+01 2.601929e+00 3.658598e+00 3.627087e+00 4.506330e+00 4.930231e+00 5.114017e+00 4.688943e+00 4.921025e+00 4.548554e+00 4.401948e+00 4.153478e+00 3.754126e+00 3.405076e+00
<GCONST> 1.109306e+02
<STATE> 3
<MEAN> 25
 4.927169e+00 -3.970187e+00 -1.978572e+00 1.882828e+00 -2.611763e+00 -2.731238e+00 -2.752961e+00 7.377030e-01 3.285525e+00 -1.833951e-01 2.853150e-01 -3.231124e-01 -2.252873e-01 2.424481e-01 4.715836e-01 3.673877e-01 7.490702e-02 6.688461e-02 1.046036e-01 1.718241e-02 -4.977601e-01 -3.852191e-02 2.735931e-01 1.787580e-01 -5.020072e-01
<VARIANCE> 25
 2.663419e+01 3.899055e+01 5.250667e+01 4.389912e+01 5.833694e+01 5.669466e+01 5.535891e+01 5.968620e+01 5.549365e+01 4.731684e+01 4.203425e+01 3.635294e+01 2.328462e+00 3.290694e+00 3.580242e+00 3.649818e+00 4.529698e+00 4.561879e+00 4.310408e+00 4.701791e+00 4.214766e+00 4.044259e+00 3.851899e+00 3.486519e+00 2.589464e+00
<GCONST> 1.090756e+02
<STATE> 4
<MEAN> 25
 3.957738e+00 -3.023136e+00 -8.227010e-01 2.264800e+00 -2.070174e+00 -2.541269e+00 -1.758125e+00 8.614656e-01 1.453504e+00 -4.978755e-01 7.380076e-01 -7.230270e-02 -3.361477e-01 4.355544e-01 4.070226e-01 -8.998331e-02 1.850358e-01 2.333598e-01 2.773590e-01 -1.303843e-01 -6.401520e-01 8.097659e-02 1.036029e-01 2.135778e-03 -4.375021e-01
<VARIANCE> 25
 3.298188e+01 4.609754e+01 5.855142e+01 4.573914e+01 6.085074e+01 6.173054e+01 5.612516e+01 6.170714e+01 5.374977e+01 4.649765e+01 4.391439e+01 3.646630e+01 1.606311e+00 2.405620e+00 2.744405e+00 2.524748e+00 3.527997e+00 3.332233e+00 3.230641e+00 3.496239e+00 3.483859e+00 3.018618e+00 2.942193e+00 2.389685e+00 1.713922e+00
<GCONST> 1.057683e+02
<TRANSP> 5
 0.000000e+00 1.000000e+00 0.000000e+00 0.000000e+00 0.000000e+00
 0.000000e+00 3.014925e-01 6.985076e-01 0.000000e+00 0.000000e+00
 0.000000e+00 0.000000e+00 2.084856e-01 7.915145e-01 0.000000e+00
 0.000000e+00 0.000000e+00 0.000000e+00 4.541708e-01 5.458292e-01
 0.000000e+00 0.000000e+00 0.000000e+00 0.000000e+00 0.000000e+00
<ENDHMM>
~h "s"
<BEGINHMM>
<NUMSTATES> 5
<STATE> 2
<MEAN> 25
 -6.606416e+00 4.198333e+00 1.566809e+00 1.369311e+00 4.280096e+00 -2.742227e+00 3.608897e+00 8.891212e-01 8.607445e-01 -6.732255e-01 4.287324e-01 1.250014e+00 -3.532533e+00 1.272694e+00 -9.611961e-02 9.075519e-02 1.297741e+00 -3.918109e-02 1.330511e+00 3.795486e-01 5.108905e-01 -9.877612e-02 8.832211e-01 4.968713e-01 7.272191e-02
<VARIANCE> 25
 6.718796e+01 6.855497e+01 8.397300e+01 5.678981e+01 8.175149e+01 8.424167e+01 6.871199e+01 6.252995e+01 5.411128e+01 4.765111e+01 4.738994e+01 3.468812e+01 3.778501e+00 6.161447e+00 6.925312e+00 5.253771e+00 5.765700e+00 6.068515e+00 5.179395e+00 5.095961e+00 4.428965e+00 4.867986e+00 3.843611e+00 3.027026e+00 1.806399e+00
<GCONST> 1.150007e+02
<STATE> 3
<MEAN> 25
 -1.725164e+01 5.014850e+00 4.611155e-01 2.066362e-01 5.904058e+00 -1.986050e+00 5.997134e+00 1.609251e+00 1.932166e+00 -2.387252e-01 3.149684e+00 2.851874e+00 -1.987244e-01 -4.396573e-01 -6.379141e-02 -8.230178e-02 -2.136192e-01 5.468219e-02 -4.324161e-02 4.307069e-02 7.037164e-02 4.010510e-02 4.697963e-02 1.078037e-01 -3.137860e-01
<VARIANCE> 25
 4.093994e+01 1.000698e+02 1.130558e+02 7.553139e+01 7.895280e+01 9.033406e+01 5.467524e+01 5.591419e+01 4.431942e+01 4.559558e+01 3.618327e+01 3.172826e+01 2.857152e+00 1.913952e+00 2.145567e+00 1.816742e+00 2.156130e+00 2.306830e+00 2.327429e+00 2.458070e+00 2.363733e+00 2.173101e+00 2.009225e+00 1.741372e+00 9.405305e-01
<GCONST> 1.041073e+02
<STATE> 4
<MEAN> 25
 -9.116662e+00 1.511263e+00 1.030186e+00 -1.294763e-01 2.689931e+00 -2.380792e+00 3.242957e+00 8.195521e-01 1.856901e+00 -4.870850e-01 1.114443e+00 2.031502e+00 3.754897e+00 -6.805896e-01 -1.019076e-01 -4.221333e-01 -1.403913e+00 -4.491389e-01 -1.515460e+00 -7.963943e-01 -3.589122e-01 -1.189145e-01 -9.302931e-01 -7.234071e-01 7.349995e-01
<VARIANCE> 25
 7.475764e+01 7.856802e+01 8.463100e+01 5.691663e+01 6.892056e+01 8.530486e+01 5.970636e+01 5.559266e+01 4.590477e+01 4.240836e+01 4.172613e+01 3.146675e+01 5.482683e+00 6.871598e+00 7.152629e+00 5.175989e+00 5.770067e+00 6.250839e+00 5.382926e+00 5.665116e+00 5.031207e+00 4.962657e+00 4.270541e+00 3.430837e+00 3.459780e+00
<GCONST> 1.160325e+02
<TRANSP> 5
 0.000000e+00 1.000000e+00 0.000000e+00 0.000000e+00 0.000000e+00
 0.000000e+00 6.895306e-01 3.104694e-01 0.000000e+00 0.000000e+00
 0.000000e+00 0.000000e+00 7.793031e-01 2.206969e-01 0.000000e+00
 0.000000e+00 0.000000e+00 0.000000e+00 6.305164e-01 3.694836e-01
 0.000000e+00 0.000000e+00 0.000000e+00 0.000000e+00 0.000000e+00
<ENDHMM>
~h "t"
<BEGINHMM>
<NUMSTATES> 5
<STATE> 2
<MEAN> 25
 -2.690069e+00 3.489662e+00 -7.329614e-01 3.315419e+00 1.881509e+00 3.291644e-01 1.493997e+00 3.709137e-01 1.756183e+00 1.245732e+00 9.814555e-01 1.427633e+00 -1.177105e+00 -3.026541e-01 -4.474543e-01 -1.245152e-01 2.962497e-01 9.936469e-02 5.473240e-01 2.614180e-01 4.198440e-01 1.099078e-01 4.415759e-01 3.967398e-01 -3.110999e-01
<VARIANCE> 25
 3.837151e+01 3.027129e+01 3.902885e+01 3.510810e+01 4.168437e+01 4.745341e+01 3.959712e+01 4.086376e+01 4.066291e+01 3.563875e+01 3.447332e+01 2.649964e+01 2.974981e+00 3.952246e+00 3.506821e+00 4.369983e+00 4.237308e+00 5.066109e+00 4.101484e+00 4.050364e+00 3.892200e+00 3.520988e+00 3.277700e+00 2.606042e+00 6.909020e+00
<GCONST> 1.070683e+02
<STATE> 3
<MEAN> 25
 -5.225592e+00 1.316505e-01 -1.948785e+00 4.550923e-01 2.005349e+00 -1.409965e+00 2.641804e+00 5.219392e-01 2.201889e+00 9.427501e-01 1.638537e+00 2.253822e+00 5.469870e-01 -1.650152e+00 -9.598331e-02 -1.871859e+00 -5.942011e-01 -1.237566e+00 -5.716113e-01 -2.406714e-01 3.290352e-01 -2.456337e-01 -1.472130e-01 -3.130115e-01 3.435758e+00
<VARIANCE> 25
 3.636562e+01 4.021833e+01 4.530382e+01 4.555135e+01 4.976249e+01 6.824421e+01 4.556646e+01 4.566635e+01 4.251975e+01 3.952963e+01 3.769181e+01 2.915614e+01 6.032643e+00 5.579557e+00 6.277506e+00 6.265483e+00 7.295441e+00 7.888113e+00 6.987659e+00 6.885414e+00 6.542642e+00 5.726683e+00 5.704492e+00 4.687289e+00 7.458159e+00
<GCONST> 1.151005e+02
<STATE> 4
<MEAN> 25
 -1.182521e+00 -2.311774e+00 -1.192260e+00 -2.891262e+00 -3.741288e-01 -3.453992e+00 -5.466939e-01 -4.206068e-01 2.442490e+00 2.283559e-01 1.383094e-01 3.310466e-01 2.032254e+00 -6.314382e-01 2.846400e-01 -1.184757e+00 -9.382257e-01 -4.332267e-01 -1.479788e+00 -4.061676e-01 -2.828826e-01 -6.356932e-02 -4.287335e-01 -9.161106e-01 2.268833e+00
<VARIANCE> 25
 4.030683e+01 4.390513e+01 5.246507e+01 5.161800e+01 5.808091e+01 6.920679e+01 6.293137e+01 5.396656e+01 5.058057e+01 4.490914e+01 4.338815e+01 3.597095e+01 4.932324e+00 5.479830e+00 7.000211e+00 6.222620e+00 7.011038e+00 8.299141e+00 7.333210e+00 7.089482e+00 6.735015e+00 6.480863e+00 6.134580e+00 4.542812e+00 5.137996e+00
<GCONST> 1.166660e+02
<TRANSP> 5
 0.000000e+00 1.000000e+00 0.000000e+00 0.000000e+00 0.000000e+00
 0.000000e+00 5.912128e-01 4.087872e-01 0.000000e+00 0.000000e+00
 0.000000e+00 0.000000e+00 3.741882e-01 6.258118e-01 0.000000e+00
 0.000000e+00 0.000000e+00 0.000000e+00 2.914042e-01 7.085958e-01
 0.000000e+00 0.000000e+00 0.000000e+00 0.000000e+00 0.000000e+00
<ENDHMM>
~h "u"
<BEGINHMM>
<NUMSTATES> 5
<STATE> 2
<MEAN> 25
 5.980891e+00 3.099489e+00 -1.621580e+00 -4.927994e+00 -2.172417e+00 5.750187e-01 -5.726407e+00 -4.504956e+00 -2.156340e+00 -2.468020e-02 2.584662e+00 9.441841e-02 1.242801e+00 4.115736e-01 -4.357020e-01 -1.398656e+00 -5.804838e-01 8.772790e-01 -8.739704e-01 -8.990836e-01 -7.351401e-01 1.859778e-01 8.653288e-01 9.363458e-02 5.489539e-01
<VARIANCE> 25
 2.943255e+01 4.181565e+01 5.007582e+01 7.768981e+01 6.205244e+01 8.016019e+01 7.598801e+01 6.946930e+01 6.345050e+01 6.886680e+01 5.411470e+01 4.084097e+01 3.126884e+00 3.629158e+00 3.980303e+00 5.708466e+00 5.786135e+00 6.904190e+00 6.259541e+00 5.911855e+00 5.771616e+00 5.739877e+00 4.603236e+00 3.735587e+00 2.861913e+00
<GCONST> 1.147428e+02
<STATE> 3
<MEAN> 25
 7.557464e+00 3.182724e+00 -2.384551e+00 -7.937229e+00 -2.921127e+00 3.912699e+00 -7.016452e+00 -6.520535e+00 -3.012674e+00 4.823099e-01 4.717007e+00 1.458577e-01 -3.208341e-02 8.842015e-02 3.805496e-04 4.324903e-01 2.891814e-01 8.106035e-02 1.835730e-01 5.545620e-02 2.235628e-01 1.856668e-01 -2.588649e-01 -9.193391e-02 -4.250508e-01
<VARIANCE> 25
 1.971465e+01 3.778951e+01 4.525289e+01 7.904613e+01 6.254280e+01 9.374378e+01 7.238376e+01 7.749894e+01 7.010616e+01 7.999159e+01 6.256257e+01 4.504879e+01 9.588042e-01 2.870597e+00 2.318932e+00 4.753882e+00 3.930809e+00 4.483370e+00 4.902189e+00 4.323853e+00 5.008914e+00 4.765657e+00 4.027960e+00 3.551928e+00 2.160558e+00
<GCONST> 1.105665e+02
<STATE> 4
<MEAN> 25
 5.630536e+00 4.988090e+00 -2.232535e+00 -4.775933e+00 -1.268434e+00 1.411350e+00 -4.229410e+00 -4.247751e+00 -3.057391e+00 2.870120e-01 2.398073e+00 9.372822e-01 -5.929764e-01 -1.284854e-02 3.032618e-01 9.268754e-01 3.974346e-01 -1.221443e-01 5.002859e-01 4.138551e-01 3.485608e-01 -6.434437e-02 -4.056768e-01 -5.270355e-02 -6.332668e-01
<VARIANCE> 25
 2.579437e+01 3.646054e+01 4.072483e+01 7.396569e+01 5.013526e+01 6.127555e+01 5.158343e+01 4.795522e+01 5.352969e+01 5.551183e+01 4.211746e+01 3.922042e+01 8.789998e-01 1.451926e+00 1.633699e+00 2.600032e+00 2.384044e+00 2.790539e+00 2.641057e+00 2.621759e+00 2.726743e+00 2.697658e+00 2.580870e+00 2.092579e+00 1.020100e+00
<GCONST> 1.012761e+02
<TRANSP> 5
 0.000000e+00 1.000000e+00 0.000000e+00 0.000000e+00 0.000000e+00
 0.000000e+00 4.704407e-01 5.295593e-01 0.000000e+00 0.000000e+00
 0.000000e+00 0.000000e+00 5.311172e-01 4.688828e-01 0.000000e+00
 0.000000e+00 0.000000e+00 0.000000e+00 7.265419e-01 2.734580e-01
 0.000000e+00 0.000000e+00 0.000000e+00 0.000000e+00 0.000000e+00
<ENDHMM>
~h "v"
<BEGINHMM>
<NUMSTATES> 5
<STATE> 2
<MEAN> 25
 -1.171779e+00 5.879307e-01 8.384663e-02 4.214275e+00 2.344553e+00 6.009004e-01 7.772007e-01 2.842752e+00 3.140455e+00 -1.302865e+00 4.048353e-01 4.753224e-01 -2.486725e+00 6.336700e-01 1.076688e-01 9.664332e-01 7.446269e-01 8.803722e-01 6.300583e-01 3.232352e-01 1.184719e+00 6.625491e-01 4.727216e-01 4.361572e-01 -9.246624e-01
<VARIANCE> 25
 4.602197e+01 3.165587e+01 3.239821e+01 4.776906e+01 2.569485e+01 5.007041e+01 3.296614e+01 3.348424e+01 5.023649e+01 3.186917e+01 2.607437e+01 2.806752e+01 3.345391e+00 3.262594e+00 2.709570e+00 2.896221e+00 3.066037e+00 5.390158e+00 3.522442e+00 4.426729e+00 4.515077e+00 4.497134e+00 3.913264e+00 2.311067e+00 1.422404e+00
<GCONST> 1.042831e+02
<STATE> 3
<MEAN> 25
 -9.074944e+00 1.136343e+00 -5.421659e-01 4.753872e+00 3.409311e+00 9.517567e-01 2.873612e+00 2.720844e+00 3.586762e+00 1.763168e+00 1.809041e+00 1.688847e+00 -1.978718e-01 -2.534047e-01 -2.839879e-01 -3.766623e-02 -9.995052e-02 -9.032549e-02 2.563055e-01 -6.403246e-02 1.349705e-02 2.385033e-01 1.897867e-02 -3.551775e-02 -1.657454e-01
<VARIANCE> 25
 4.530535e+01 2.423736e+01 2.087329e+01 3.817641e+01 2.286626e+01 4.449842e+01 3.103125e+01 3.095021e+01 2.493148e+01 2.956381e+01 2.156157e+01 2.096247e+01 2.382495e+00 1.593070e+00 1.565820e+00 1.538106e+00 1.598011e+00 2.932678e+00 2.065263e+00 2.032423e+00 2.545859e+00 2.074328e+00 1.587024e+00 1.770751e+00 9.508482e-01
<GCONST> 9.397666e+01
<STATE> 4
<MEAN> 25
 -2.507264e+00 3.818666e-01 -3.265865e+00 2.899856e+00 2.164040e+00 -2.117148e-01 1.957870e+00 1.180161e+00 3.296521e+00 1.583230e+00 1.506167e+00 4.772219e-01 3.308817e+00 -8.842121e-01 -1.041943e+00 -1.863638e+00 -1.548300e+00 -8.548550e-01 -6.107275e-01 -5.706944e-01 -4.832925e-01 3.138702e-02 -4.917399e-01 -1.000155e+00 1.841897e+00
<VARIANCE> 25
 6.415208e+01 2.763246e+01 4.035207e+01 5.316384e+01 2.968849e+01 4.840874e+01 3.299287e+01 3.314318e+01 2.904499e+01 2.817308e+01 2.620247e+01 2.533839e+01 4.173486e+00 3.803548e+00 7.824559e+00 4.961250e+00 4.655104e+00 7.094130e+00 4.419129e+00 4.856759e+00 5.816120e+00 3.630201e+00 3.945323e+00 3.994599e+00 2.242316e+00
<GCONST> 1.081732e+02
<TRANSP> 5
 0.000000e+00 1.000000e+00 0.000000e+00 0.000000e+00 0.000000e+00
 0.000000e+00 6.123772e-01 3.876227e-01 0.000000e+00 0.000000e+00
 0.000000e+00 0.000000e+00 6.810109e-01 3.189891e-01 0.000000e+00
 0.000000e+00 0.000000e+00 0.000000e+00 5.810091e-01 4.189908e-01
 0.000000e+00 0.000000e+00 0.000000e+00 0.000000e+00 0.000000e+00
<ENDHMM>
~h "w"
<BEGINHMM>
<NUMSTATES> 5
<STATE> 2
<MEAN> 25
 6.990540e+00 4.375698e+00 -3.771347e+00 -7.380038e+00 -2.724465e+00 1.706057e+00 -1.411146e+00 -1.760962e+00 -1.716298e+00 1.348664e-01 2.036443e+00 -2.292089e-01 1.468048e+00 4.424920e-01 -7.870157e-01 -1.920222e+00 -1.093328e+00 4.249622e-01 -3.122284e-02 -3.481912e-01 -6.228213e-01 -2.051929e-01 6.734983e-01 2.486723e-01 9.060138e-01
<VARIANCE> 25
 4.117210e+01 6.456990e+01 3.987155e+01 7.027000e+01 5.860954e+01 9.105742e+01 5.867861e+01 5.235685e+01 4.902086e+01 4.600987e+01 4.186761e+01 4.058597e+01 3.582904e+00 4.438375e+00 3.322517e+00 4.805879e+00 4.609479e+00 5.778409e+00 4.639680e+00 4.232054e+00 4.031769e+00 4.207618e+00 4.175591e+00 3.989851e+00 4.381811e+00
<GCONST> 1.124602e+02
<STATE> 3
<MEAN> 25
 9.825500e+00 2.308459e+00 -6.876716e+00 -1.468717e+01 -4.952401e+00 6.627123e+00 -1.429198e+00 -2.926751e+00 -2.545509e+00 6.911070e-01 5.361945e+00 3.937445e-01 -1.365963e-01 -1.152029e+00 -4.888714e-01 -3.464117e-01 6.542680e-01 6.275024e-01 -9.764446e-02 -1.652383e-01 5.664669e-01 7.025522e-01 1.416206e-01 -7.605764e-01 7.284141e-01
<VARIANCE> 25
 1.608201e+01 3.181012e+01 3.029967e+01 5.485396e+01 4.468562e+01 7.821210e+01 4.984937e+01 4.424331e+01 4.534738e+01 4.634093e+01 4.307500e+01 3.672733e+01 6.500492e-01 3.255797e+00 1.552887e+00 2.683747e+00 3.256526e+00 3.127911e+00 3.371979e+00 2.887809e+00 3.130092e+00 3.185918e+00 2.861965e+00 3.640973e+00 1.347187e+00
<GCONST> 1.021905e+02
<STATE> 4
<MEAN> 25
 7.516107e+00 -3.694041e+00 -8.025113e+00 -1.134238e+01 7.820629e-01 6.446707e+00 -2.759891e+00 -3.024181e+00 2.181291e+00 3.841589e+00 1.964343e+00 -5.436477e+00 -4.509332e-01 -6.255374e-01 2.573422e-01 1.101594e+00 5.537474e-01 -7.843729e-01 8.517045e-02 5.669945e-01 5.788004e-01 -2.263934e-01 -1.011723e+00 -3.382200e-01 3.213070e-02
<VARIANCE> 25
 1.705107e+01 3.999644e+01 2.975757e+01 5.736394e+01 5.583366e+01 9.054231e+01 6.081803e+01 4.470766e+01 4.920743e+01 5.175271e+01 5.384952e+01 4.194383e+01 5.242944e-01 2.264878e+00 1.358356e+00 2.571671e+00 2.464839e+00 3.064989e+00 2.657769e+00 2.818980e+00 2.747212e+00 2.652570e+00 2.923183e+00 2.969850e+00 1.154377e+00
<GCONST> 1.016652e+02
<TRANSP> 5
 0.000000e+00 1.000000e+00 0.000000e+00 0.000000e+00 0.000000e+00
 0.000000e+00 6.328468e-01 3.671533e-01 0.000000e+00 0.000000e+00
 0.000000e+00 0.000000e+00 6.989038e-01 3.010962e-01 0.000000e+00
 0.000000e+00 0.000000e+00 0.000000e+00 7.280870e-01 2.719131e-01
 0.000000e+00 0.000000e+00 0.000000e+00 0.000000e+00 0.000000e+00
<ENDHMM>
~h "x"
<BEGINHMM>
<NUMSTATES> 5
<STATE> 2
<MEAN> 25
 1.928556e+00 6.397057e+00 1.175901e+01 3.236053e+00 -1.655872e+01 2.823756e+00 -5.154899e+00 -8.677580e+00 -4.417764e+00 -3.724417e+00 5.547998e-01 -4.922710e+00 -3.023861e-01 4.509896e-01 -4.127978e-01 2.556680e-01 6.458959e-01 3.198576e-02 -1.491333e-01 -1.607432e-01 6.155764e-03 1.985571e-01 -1.834664e-01 5.897850e-02 -4.278449e-01
<VARIANCE> 25
 2.069025e+01 1.482573e+01 2.505168e+01 1.582916e+01 4.940227e+01 4.949171e+01 2.889531e+01 2.129624e+01 1.957579e+01 2.176332e+01 1.248512e+01 1.465767e+01 3.245613e-01 4.587277e-01 1.497771e+00 8.354471e-01 2.817872e+00 1.714047e+00 1.446355e+00 8.608351e-01 1.724414e+00 1.750062e+00 1.864036e+00 8.974848e-01 3.438501e-01
<GCONST> 8.380900e+01
<STATE> 3
<MEAN> 25
 1.567780e+00 5.952298e+00 7.652581e-01 3.217459e+00 1.507644e+00 -2.172329e+00 -2.465559e+00 -5.356150e+00 -3.230042e+00 -2.712567e-01 3.261437e-01 2.305775e+00 -6.898518e-01 -3.558082e-01 -7.671013e-02 3.349668e-01 2.160825e-01 -3.838359e-01 7.557003e-02 3.539720e-01 1.057970e-01 1.120935e-01 5.022091e-02 -3.879942e-02 -4.547392e-01
<VARIANCE> 25
 5.260495e+01 1.426106e+01 3.060711e+01 3.280478e+01 1.294574e+01 3.200790e+01 2.460314e+01 3.408529e+01 2.395299e+01 1.546463e+01 1.262113e+01 1.528962e+01 3.163221e-01 3.635065e-01 1.507459e+00 6.572217e-01 9.104701e-01 1.370170e+00 2.056773e+00 1.939308e+00 1.983313e+00 2.383597e+00 1.522090e+00 2.676081e+00 1.912822e-01
<GCONST> 8.415092e+01
<STATE> 4
<MEAN> 25
 -3.715460e+00 4.510168e-01 -1.451419e+00 5.260762e+00 3.310383e+00 3.264659e+00 3.562865e+00 2.602261e-01 3.701231e+00 1.096643e+00 3.584309e+00 5.539508e+00 -1.008730e-01 5.967159e-02 -2.685146e-02 -8.000545e-02 8.092516e-02 -6.129568e-03 5.266656e-02 3.801335e-03 5.211367e-02 -4.380291e-02 9.118338e-03 5.015635e-02 1.924990e-02
<VARIANCE> 25
 1.478634e+01 1.773516e+01 1.111181e+01 1.181425e+01 2.495199e+01 1.124219e+01 2.860543e+01 1.978711e+01 2.024952e+01 1.781316e+01 1.411964e+01 1.271675e+01 3.280958e-01 5.191504e-01 7.702062e-01 8.436140e-01 1.040068e+00 9.192299e-01 1.600701e+00 1.522305e+00 1.332549e+00 1.812808e+00 1.084054e+00 8.151029e-01 1.795707e-01
<GCONST> 7.713293e+01
<TRANSP> 5
 0.000000e+00 1.000000e+00 0.000000e+00 0.000000e+00 0.000000e+00
 0.000000e+00 8.764685e-01 1.235314e-01 0.000000e+00 0.000000e+00
 0.000000e+00 0.000000e+00 8.229719e-01 1.770280e-01 0.000000e+00
 0.000000e+00 0.000000e+00 0.000000e+00 9.399108e-01 6.008922e-02
 0.000000e+00 0.000000e+00 0.000000e+00 0.000000e+00 0.000000e+00
<ENDHMM>
~h "y"
<BEGINHMM>
<NUMSTATES> 5
<STATE> 2
<MEAN> 25
 1.318808e+00 -9.487115e-01 8.856867e+00 -2.766968e+00 -7.351727e+00 -4.164691e+00 -1.869776e+00 1.792946e-01 -2.872068e+00 3.121390e-01 1.633491e+00 2.332408e-01 6.937252e-02 -6.148773e-01 9.178208e-01 -8.498616e-01 -1.287562e+00 -4.901782e-01 1.335006e-01 3.596436e-01 -3.509418e-01 1.729473e-01 5.765059e-01 9.131797e-02 1.038799e+00
<VARIANCE> 25
 2.657595e+01 5.770185e+01 7.595241e+01 8.156827e+01 7.892474e+01 7.173383e+01 7.188473e+01 7.672852e+01 5.950245e+01 5.324349e+01 5.616180e+01 3.947971e+01 2.051389e+00 4.112606e+00 6.354386e+00 4.709650e+00 5.161012e+00 4.770441e+00 5.389532e+00 5.968596e+00 4.574605e+00 4.186551e+00 4.108122e+00 3.010465e+00 2.819852e+00
<GCONST> 1.137455e+02
<STATE> 3
<MEAN> 25
 2.115109e+00 -5.393335e+00 7.987115e+00 -4.922708e+00 -1.058279e+01 -6.460171e+00 8.307329e-01 4.847733e+00 -2.203320e+00 1.325338e-01 2.386324e+00 -2.318870e-01 1.741955e-01 -6.924708e-01 -1.077491e+00 1.017521e-01 7.611365e-01 1.361969e-01 4.670447e-01 7.872755e-01 4.292176e-01 -4.241772e-01 -6.841822e-01 -1.991642e-01 2.001877e-01
<VARIANCE> 25
 1.545112e+01 3.372550e+01 5.100608e+01 4.775958e+01 5.601487e+01 6.267037e+01 6.537318e+01 9.408238e+01 5.026799e+01 4.706590e+01 5.210669e+01 3.319554e+01 3.705423e-01 1.499088e+00 2.611841e+00 1.650321e+00 3.132854e+00 2.084095e+00 2.586804e+00 3.081477e+00 2.705720e+00 2.488541e+00 2.879946e+00 1.824280e+00 4.819856e-01
<GCONST> 9.977479e+01
<STATE> 4
<MEAN> 25
 1.211739e+00 -4.193323e+00 -6.674419e-02 -1.438382e+00 -2.403104e+00 -2.326861e+00 1.741742e+00 2.977507e+00 -3.602323e-01 -1.262179e+00 -6.198596e-01 3.180238e-01 5.548134e-02 -4.953148e-03 -3.775004e-01 9.473841e-02 4.586136e-01 1.887094e-01 -6.896519e-02 -6.142975e-02 9.246959e-02 -6.039548e-02 -2.093128e-01 -7.195243e-02 -1.663404e-01
<VARIANCE> 25
 2.459602e+01 3.363271e+01 3.371458e+01 3.680565e+01 5.378059e+01 4.347794e+01 5.077464e+01 5.836863e+01 3.784315e+01 3.801884e+01 3.897806e+01 2.785317e+01 2.414670e-01 5.780022e-01 1.102258e+00 9.694141e-01 1.745483e+00 1.358340e+00 1.547626e+00 1.633433e+00 1.513759e+00 1.557344e+00 1.548167e+00 1.270743e+00 2.393663e-01
<GCONST> 8.979370e+01
<TRANSP> 5
 0.000000e+00 1.000000e+00 0.000000e+00 0.000000e+00 0.000000e+00
 0.000000e+00 6.810006e-01 3.189994e-01 0.000000e+00 0.000000e+00
 0.000000e+00 0.000000e+00 6.976543e-01 3.023457e-01 0.000000e+00
 0.000000e+00 0.000000e+00 0.000000e+00 7.890045e-01 2.109955e-01
 0.000000e+00 0.000000e+00 0.000000e+00 0.000000e+00 0.000000e+00
<ENDHMM>
~h "z"
<BEGINHMM>
<NUMSTATES> 5
<STATE> 2
<MEAN> 25
 -6.631000e+00 1.148862e+01 4.123124e+00 9.925792e+00 2.517551e-01 -5.397246e+00 3.654480e+00 -5.879504e+00 -8.315886e-01 -4.007500e+00 2.894144e+00 9.662963e-01 -1.037117e+00 4.885151e-01 -1.863368e-01 5.205107e-01 4.961905e-01 -1.497889e-01 4.072433e-01 -1.332117e-01 7.125202e-01 -8.003791e-02 2.234077e-01 2.276880e-02 -3.514303e-02
<VARIANCE> 25
 4.906854e+01 9.207070e+01 5.754830e+01 8.092949e+01 6.836069e+01 9.144427e+01 7.078271e+01 3.980719e+01 7.705296e+01 7.483997e+01 3.827473e+01 3.700035e+01 3.704877e+00 4.851090e+00 4.334480e+00 4.516362e+00 5.977520e+00 6.331702e+00 5.482700e+00 3.519905e+00 5.723283e+00 4.312859e+00 3.884796e+00 2.688629e+00 1.288943e+00
<GCONST> 1.136715e+02
<STATE> 3
<MEAN> 25
 -2.838313e+00 -5.538109e+00 1.315917e+01 5.946109e+00 -1.001768e+00 8.186818e+00 -4.198013e+00 -1.177599e+01 8.371860e-02 -1.857303e+00 4.549899e-01 2.815686e-01 5.270920e-01 -6.064618e-01 -9.958921e-02 -6.877785e-01 -7.071620e-01 -7.339999e-02 -2.450627e-01 1.458255e-01 -3.777130e-02 -1.945684e-02 1.666174e-01 2.874024e-01 4.980049e-01
<VARIANCE> 25
 5.650790e+01 1.157722e+02 1.292423e+02 1.074770e+02 9.167970e+01 1.997485e+02 7.562350e+01 6.552943e+01 5.549195e+01 4.843032e+01 4.390626e+01 5.616702e+01 4.203540e+00 5.007176e+00 1.005243e+01 4.630693e+00 4.774559e+00 9.730239e+00 4.249429e+00 5.229299e+00 5.283191e+00 4.068941e+00 3.806299e+00 3.175864e+00 1.883866e+00
<GCONST> 1.183227e+02
<STATE> 4
<MEAN> 25
 -6.481329e-01 2.195086e+00 7.309967e+00 3.586384e+00 -6.876240e+00 -3.830840e+00 -1.361920e+00 -6.523661e+00 -6.450604e+00 -1.981099e+00 4.437619e+00 3.112162e-01 2.000273e-01 -1.868298e-01 -1.539866e-01 -2.632992e-01 3.918889e-02 -6.338882e-02 -1.777911e-02 3.291371e-01 2.333562e-02 2.671250e-01 -4.009424e-02 9.550104e-02 -1.523139e-02
<VARIANCE> 25
 4.252377e+01 7.374845e+01 1.036871e+02 6.565686e+01 7.004350e+01 4.653466e+01 6.866933e+01 3.632841e+01 7.852589e+01 3.739069e+01 7.660960e+01 3.487083e+01 6.659938e-01 1.259771e+00 1.617972e+00 1.708741e+00 1.880205e+00 1.927077e+00 1.944430e+00 1.895640e+00 1.875383e+00 1.587249e+00 1.632576e+00 1.180624e+00 6.567613e-01
<GCONST> 9.936979e+01
<TRANSP> 5
 0.000000e+00 1.000000e+00 0.000000e+00 0.000000e+00 0.000000e+00
 0.000000e+00 8.231506e-01 1.768493e-01 0.000000e+00 0.000000e+00
 0.000000e+00 0.000000e+00 8.149921e-01 1.850079e-01 0.000000e+00
 0.000000e+00 0.000000e+00 0.000000e+00 7.766084e-01 2.233916e-01
 0.000000e+00 0.000000e+00 0.000000e+00 0.000000e+00 0.000000e+00
<ENDHMM>
~h "@h"
<BEGINHMM>
<NUMSTATES> 5
<STATE> 2
<MEAN> 25
 2.583614e+00 -5.017909e+00 -2.372115e+00 2.545464e-02 -4.391389e+00 5.446845e-01 2.361574e-01 -4.720536e+00 -2.930369e+00 3.099808e+00 -6.286598e+00 -1.039195e+01 -6.240873e-01 6.977222e-01 3.882466e-01 -3.102267e-01 9.918100e-02 5.622983e-01 -5.270447e-01 -5.972539e-01 8.672590e-01 5.169266e-02 3.561027e-01 1.303665e+00 -9.614208e-01
<VARIANCE> 25
 1.025895e+01 3.671412e+01 2.718362e+01 2.843907e+01 2.500696e+01 1.303484e+01 1.174958e+01 4.803665e+01 6.155275e+01 4.568829e+01 1.706097e+01 1.043833e+02 2.830789e-01 1.813906e+00 2.061724e+00 1.402908e+00 2.678429e+00 1.051421e+00 9.087961e-01 4.377563e+00 1.493216e+00 5.630042e+00 1.387700e+00 3.724450e+00 3.094512e-01
<GCONST> 9.148821e+01
<STATE> 3
<MEAN> 25
 1.618958e-01 -1.251316e+01 -5.820078e-01 -1.198153e+01 7.831559e+00 3.585435e+00 1.907003e+00 -3.959332e-01 1.007472e+01 -5.039646e+00 2.900096e+00 -8.857990e+00 -1.030067e-01 -1.293471e-01 -2.374169e-01 -1.520117e-01 3.487646e-01 2.682996e-01 -5.136707e-02 7.903652e-02 -3.126777e-01 1.971440e-01 9.360105e-02 3.247747e-01 -1.775856e-01
<VARIANCE> 25
 4.346664e+00 1.324267e+01 2.401133e+00 1.693050e+01 1.469359e+01 1.044726e+01 7.272816e+00 3.494210e+00 1.279292e+01 1.465217e+01 4.170228e+00 9.392756e+00 1.827646e-01 2.063904e-01 2.974725e-01 1.442256e-01 4.014305e-01 2.359182e-01 2.728835e-01 3.960839e-01 2.899128e-01 7.494311e-01 4.455990e-01 3.678486e-01 9.921767e-02
<GCONST> 5.422157e+01
<STATE> 4
<MEAN> 25
 3.947277e+00 -5.522042e+00 -2.370921e+00 -1.482993e+00 8.346550e+00 5.575929e+00 -5.756839e+00 1.093027e+01 8.519956e+00 -1.152831e+00 -2.519853e+00 -7.646800e+00 5.870242e-02 -1.521554e-02 3.203716e-03 4.015998e-01 2.779551e-01 2.698562e-02 1.137950e-01 2.310136e-01 4.019217e-02 -1.035177e-01 -1.343874e-01 1.521805e-01 -1.239379e-01
<VARIANCE> 25
 3.011759e+01 1.852691e+01 1.765326e+01 4.762254e+01 1.500648e+01 1.780500e+01 5.115451e+01 2.235489e+01 2.691809e+01 1.213946e+01 3.056515e+01 5.736415e+01 1.085376e+00 7.630957e-01 1.786579e+00 8.952371e-01 1.576110e+00 1.488151e+00 2.000848e+00 2.592507e+00 3.686279e+00 1.023946e+00 3.040918e+00 1.748158e+00 1.403006e+00
<GCONST> 9.101140e+01
<TRANSP> 5
 0.000000e+00 1.000000e+00 0.000000e+00 0.000000e+00 0.000000e+00
 0.000000e+00 8.501390e-01 1.498610e-01 0.000000e+00 0.000000e+00
 0.000000e+00 0.000000e+00 9.117213e-01 8.827865e-02 0.000000e+00
 0.000000e+00 0.000000e+00 0.000000e+00 9.350158e-01 6.498424e-02
 0.000000e+00 0.000000e+00 0.000000e+00 0.000000e+00 0.000000e+00
<ENDHMM>
~h "@y"
<BEGINHMM>
<NUMSTATES> 5
<STATE> 2
<MEAN> 25
 1.708972e-09 1.090385e-09 9.580507e-09 -2.513088e-08 5.650978e-09 7.824450e-09 -1.173420e-08 8.080536e-09 -1.223684e-08 -1.003294e-08 -1.228346e-09 7.471072e-09 2.588070e-03 5.406653e-06 1.165406e-03 -2.750418e-04 1.179288e-03 -2.015027e-04 3.669178e-04 -4.334864e-04 -1.182183e-03 -4.313851e-04 -6.009767e-04 -5.740453e-04 3.089256e-03
<VARIANCE> 25
 5.950132e+01 5.523875e+01 6.957190e+01 6.306453e+01 6.882129e+01 6.596412e+01 5.749057e+01 5.935612e+01 5.307150e+01 4.762954e+01 4.650915e+01 3.710306e+01 2.306587e+00 2.816560e+00 2.879318e+00 3.320077e+00 3.620080e+00 3.535859e+00 3.444255e+00 3.604912e+00 3.328778e+00 3.069351e+00 2.973025e+00 2.428180e+00 2.668494e+00
<GCONST> 1.087549e+02
<STATE> 3
<MEAN> 25
 1.708972e-09 1.090385e-09 9.580507e-09 -2.513088e-08 5.650978e-09 7.824450e-09 -1.173420e-08 8.080536e-09 -1.223684e-08 -1.003294e-08 -1.228346e-09 7.471072e-09 2.588070e-03 5.406653e-06 1.165406e-03 -2.750418e-04 1.179288e-03 -2.015027e-04 3.669178e-04 -4.334864e-04 -1.182183e-03 -4.313851e-04 -6.009767e-04 -5.740453e-04 3.089256e-03
<VARIANCE> 25
 5.950132e+01 5.523875e+01 6.957190e+01 6.306453e+01 6.882129e+01 6.596412e+01 5.749057e+01 5.935612e+01 5.307150e+01 4.762954e+01 4.650915e+01 3.710306e+01 2.306587e+00 2.816560e+00 2.879318e+00 3.320077e+00 3.620080e+00 3.535859e+00 3.444255e+00 3.604912e+00 3.328778e+00 3.069351e+00 2.973025e+00 2.428180e+00 2.668494e+00
<GCONST> 1.087549e+02
<STATE> 4
<MEAN> 25
 1.708972e-09 1.090385e-09 9.580507e-09 -2.513088e-08 5.650978e-09 7.824450e-09 -1.173420e-08 8.080536e-09 -1.223684e-08 -1.003294e-08 -1.228346e-09 7.471072e-09 2.588070e-03 5.406653e-06 1.165406e-03 -2.750418e-04 1.179288e-03 -2.015027e-04 3.669178e-04 -4.334864e-04 -1.182183e-03 -4.313851e-04 -6.009767e-04 -5.740453e-04 3.089256e-03
<VARIANCE> 25
 5.950132e+01 5.523875e+01 6.957190e+01 6.306453e+01 6.882129e+01 6.596412e+01 5.749057e+01 5.935612e+01 5.307150e+01 4.762954e+01 4.650915e+01 3.710306e+01 2.306587e+00 2.816560e+00 2.879318e+00 3.320077e+00 3.620080e+00 3.535859e+00 3.444255e+00 3.604912e+00 3.328778e+00 3.069351e+00 2.973025e+00 2.428180e+00 2.668494e+00
<GCONST> 1.087549e+02
<TRANSP> 5
 0.000000e+00 1.000000e+00 0.000000e+00 0.000000e+00 0.000000e+00
 0.000000e+00 6.000000e-01 4.000000e-01 0.000000e+00 0.000000e+00
 0.000000e+00 0.000000e+00 6.000000e-01 4.000000e-01 0.000000e+00
 0.000000e+00 0.000000e+00 0.000000e+00 7.000000e-01 3.000000e-01
 0.000000e+00 0.000000e+00 0.000000e+00 0.000000e+00 0.000000e+00
<ENDHMM>
~h "ai"
<BEGINHMM>
<NUMSTATES> 5
<STATE> 2
<MEAN> 25
 4.004805e+00 -4.431569e+00 4.019217e+00 -9.061397e-01 -7.822668e+00 -7.352602e+00 9.581363e-01 1.018915e+01 -2.659150e+00 -3.186371e+00 3.885207e+00 -2.483990e+00 -1.961908e-01 4.315732e-01 3.438932e-01 2.192153e-01 4.555512e-01 -1.437127e-01 2.586749e-01 -1.859210e-01 -6.548711e-01 4.688989e-01 9.804279e-03 2.933476e-01 -2.723292e-01
<VARIANCE> 25
 8.931592e+00 6.264634e+01 3.101414e+01 1.114512e+01 2.676577e+01 2.780013e+01 3.140823e+01 5.236788e+01 3.488259e+01 2.474620e+01 5.532715e+01 1.932583e+01 3.644872e-01 1.222772e+00 2.763624e+00 1.449909e+00 3.894075e+00 1.425226e+00 1.662485e+00 2.382081e+00 2.609516e+00 1.570483e+00 3.509214e+00 2.295262e+00 5.020012e-01
<GCONST> 9.234998e+01
<STATE> 3
<MEAN> 25
 4.901731e+00 -3.529452e+00 3.172049e-01 1.078399e+00 -1.110298e+00 4.534754e-01 -1.275839e+00 1.483576e+00 7.937454e+00 8.516679e-01 -3.622489e+00 3.082276e-01 -4.341269e-01 7.084051e-01 -8.518280e-01 3.839084e-01 6.030804e-01 3.086241e-01 5.168642e-01 -6.621192e-01 1.446224e+00 5.031240e-01 -4.480719e-01 4.656138e-01 -7.669235e-01
<VARIANCE> 25
 1.882788e+01 2.040952e+01 6.206745e+01 1.841569e+01 2.076627e+01 5.893437e+01 2.791504e+01 1.030593e+02 1.040863e+02 2.105156e+01 7.367375e+01 2.127029e+01 1.080222e+00 2.834137e+00 1.838744e+00 1.700359e+00 2.562325e+00 1.180316e+00 2.512139e+00 1.353529e+00 4.680153e+00 1.733216e+00 2.532853e+00 1.994969e+00 1.467887e+00
<GCONST> 9.774955e+01
<STATE> 4
<MEAN> 25
 -4.441268e+00 2.525284e+00 -6.626698e+00 1.023408e+00 -3.086215e+00 -5.882037e+00 5.011208e+00 6.712991e+00 1.094619e+01 7.393257e+00 1.697990e-01 4.267228e+00 -5.165667e-01 4.458863e-01 -5.053756e-01 -8.180354e-01 -5.662475e-01 7.172275e-02 -3.092397e-01 -6.815927e-01 1.167689e-01 -2.036577e-01 -2.196862e-01 2.952475e-01 -1.032174e+00
<VARIANCE> 25
 2.335260e+01 5.574279e+00 4.750478e+01 3.578048e+01 2.017641e+01 2.386832e+01 2.640440e+01 4.508984e+01 3.892185e+01 2.952844e+01 3.424008e+01 2.373966e+01 2.336873e+00 1.145477e+00 2.194612e+00 2.074110e+00 2.949816e+00 1.519700e+00 4.240834e+00 3.766963e+00 5.472984e+00 4.236525e+00 4.896268e+00 2.238911e+00 1.124243e+00
<GCONST> 9.768732e+01
<TRANSP> 5
 0.000000e+00 1.000000e+00 0.000000e+00 0.000000e+00 0.000000e+00
 0.000000e+00 9.127523e-01 8.724774e-02 0.000000e+00 0.000000e+00
 0.000000e+00 0.000000e+00 8.420621e-01 1.579379e-01 0.000000e+00
 0.000000e+00 0.000000e+00 0.000000e+00 7.804967e-01 2.195033e-01
 0.000000e+00 0.000000e+00 0.000000e+00 0.000000e+00 0.000000e+00
<ENDHMM>
~h "am"
<BEGINHMM>
<NUMSTATES> 5
<STATE> 2
<MEAN> 25
 1.708972e-09 1.090385e-09 9.580507e-09 -2.513088e-08 5.650978e-09 7.824450e-09 -1.173420e-08 8.080536e-09 -1.223684e-08 -1.003294e-08 -1.228346e-09 7.471072e-09 2.588070e-03 5.406653e-06 1.165406e-03 -2.750418e-04 1.179288e-03 -2.015027e-04 3.669178e-04 -4.334864e-04 -1.182183e-03 -4.313851e-04 -6.009767e-04 -5.740453e-04 3.089256e-03
<VARIANCE> 25
 5.950132e+01 5.523875e+01 6.957190e+01 6.306453e+01 6.882129e+01 6.596412e+01 5.749057e+01 5.935612e+01 5.307150e+01 4.762954e+01 4.650915e+01 3.710306e+01 2.306587e+00 2.816560e+00 2.879318e+00 3.320077e+00 3.620080e+00 3.535859e+00 3.444255e+00 3.604912e+00 3.328778e+00 3.069351e+00 2.973025e+00 2.428180e+00 2.668494e+00
<GCONST> 1.087549e+02
<STATE> 3
<MEAN> 25
 1.708972e-09 1.090385e-09 9.580507e-09 -2.513088e-08 5.650978e-09 7.824450e-09 -1.173420e-08 8.080536e-09 -1.223684e-08 -1.003294e-08 -1.228346e-09 7.471072e-09 2.588070e-03 5.406653e-06 1.165406e-03 -2.750418e-04 1.179288e-03 -2.015027e-04 3.669178e-04 -4.334864e-04 -1.182183e-03 -4.313851e-04 -6.009767e-04 -5.740453e-04 3.089256e-03
<VARIANCE> 25
 5.950132e+01 5.523875e+01 6.957190e+01 6.306453e+01 6.882129e+01 6.596412e+01 5.749057e+01 5.935612e+01 5.307150e+01 4.762954e+01 4.650915e+01 3.710306e+01 2.306587e+00 2.816560e+00 2.879318e+00 3.320077e+00 3.620080e+00 3.535859e+00 3.444255e+00 3.604912e+00 3.328778e+00 3.069351e+00 2.973025e+00 2.428180e+00 2.668494e+00
<GCONST> 1.087549e+02
<STATE> 4
<MEAN> 25
 1.708972e-09 1.090385e-09 9.580507e-09 -2.513088e-08 5.650978e-09 7.824450e-09 -1.173420e-08 8.080536e-09 -1.223684e-08 -1.003294e-08 -1.228346e-09 7.471072e-09 2.588070e-03 5.406653e-06 1.165406e-03 -2.750418e-04 1.179288e-03 -2.015027e-04 3.669178e-04 -4.334864e-04 -1.182183e-03 -4.313851e-04 -6.009767e-04 -5.740453e-04 3.089256e-03
<VARIANCE> 25
 5.950132e+01 5.523875e+01 6.957190e+01 6.306453e+01 6.882129e+01 6.596412e+01 5.749057e+01 5.935612e+01 5.307150e+01 4.762954e+01 4.650915e+01 3.710306e+01 2.306587e+00 2.816560e+00 2.879318e+00 3.320077e+00 3.620080e+00 3.535859e+00 3.444255e+00 3.604912e+00 3.328778e+00 3.069351e+00 2.973025e+00 2.428180e+00 2.668494e+00
<GCONST> 1.087549e+02
<TRANSP> 5
 0.000000e+00 1.000000e+00 0.000000e+00 0.000000e+00 0.000000e+00
 0.000000e+00 6.000000e-01 4.000000e-01 0.000000e+00 0.000000e+00
 0.000000e+00 0.000000e+00 6.000000e-01 4.000000e-01 0.000000e+00
 0.000000e+00 0.000000e+00 0.000000e+00 7.000000e-01 3.000000e-01
 0.000000e+00 0.000000e+00 0.000000e+00 0.000000e+00 0.000000e+00
<ENDHMM>
~h "an"
<BEGINHMM>
<NUMSTATES> 5
<STATE> 2
<MEAN> 25
 1.708972e-09 1.090385e-09 9.580507e-09 -2.513088e-08 5.650978e-09 7.824450e-09 -1.173420e-08 8.080536e-09 -1.223684e-08 -1.003294e-08 -1.228346e-09 7.471072e-09 2.588070e-03 5.406653e-06 1.165406e-03 -2.750418e-04 1.179288e-03 -2.015027e-04 3.669178e-04 -4.334864e-04 -1.182183e-03 -4.313851e-04 -6.009767e-04 -5.740453e-04 3.089256e-03
<VARIANCE> 25
 5.950132e+01 5.523875e+01 6.957190e+01 6.306453e+01 6.882129e+01 6.596412e+01 5.749057e+01 5.935612e+01 5.307150e+01 4.762954e+01 4.650915e+01 3.710306e+01 2.306587e+00 2.816560e+00 2.879318e+00 3.320077e+00 3.620080e+00 3.535859e+00 3.444255e+00 3.604912e+00 3.328778e+00 3.069351e+00 2.973025e+00 2.428180e+00 2.668494e+00
<GCONST> 1.087549e+02
<STATE> 3
<MEAN> 25
 1.708972e-09 1.090385e-09 9.580507e-09 -2.513088e-08 5.650978e-09 7.824450e-09 -1.173420e-08 8.080536e-09 -1.223684e-08 -1.003294e-08 -1.228346e-09 7.471072e-09 2.588070e-03 5.406653e-06 1.165406e-03 -2.750418e-04 1.179288e-03 -2.015027e-04 3.669178e-04 -4.334864e-04 -1.182183e-03 -4.313851e-04 -6.009767e-04 -5.740453e-04 3.089256e-03
<VARIANCE> 25
 5.950132e+01 5.523875e+01 6.957190e+01 6.306453e+01 6.882129e+01 6.596412e+01 5.749057e+01 5.935612e+01 5.307150e+01 4.762954e+01 4.650915e+01 3.710306e+01 2.306587e+00 2.816560e+00 2.879318e+00 3.320077e+00 3.620080e+00 3.535859e+00 3.444255e+00 3.604912e+00 3.328778e+00 3.069351e+00 2.973025e+00 2.428180e+00 2.668494e+00
<GCONST> 1.087549e+02
<STATE> 4
<MEAN> 25
 1.708972e-09 1.090385e-09 9.580507e-09 -2.513088e-08 5.650978e-09 7.824450e-09 -1.173420e-08 8.080536e-09 -1.223684e-08 -1.003294e-08 -1.228346e-09 7.471072e-09 2.588070e-03 5.406653e-06 1.165406e-03 -2.750418e-04 1.179288e-03 -2.015027e-04 3.669178e-04 -4.334864e-04 -1.182183e-03 -4.313851e-04 -6.009767e-04 -5.740453e-04 3.089256e-03
<VARIANCE> 25
 5.950132e+01 5.523875e+01 6.957190e+01 6.306453e+01 6.882129e+01 6.596412e+01 5.749057e+01 5.935612e+01 5.307150e+01 4.762954e+01 4.650915e+01 3.710306e+01 2.306587e+00 2.816560e+00 2.879318e+00 3.320077e+00 3.620080e+00 3.535859e+00 3.444255e+00 3.604912e+00 3.328778e+00 3.069351e+00 2.973025e+00 2.428180e+00 2.668494e+00
<GCONST> 1.087549e+02
<TRANSP> 5
 0.000000e+00 1.000000e+00 0.000000e+00 0.000000e+00 0.000000e+00
 0.000000e+00 6.000000e-01 4.000000e-01 0.000000e+00 0.000000e+00
 0.000000e+00 0.000000e+00 6.000000e-01 4.000000e-01 0.000000e+00
 0.000000e+00 0.000000e+00 0.000000e+00 7.000000e-01 3.000000e-01
 0.000000e+00 0.000000e+00 0.000000e+00 0.000000e+00 0.000000e+00
<ENDHMM>
~h "ap"
<BEGINHMM>
<NUMSTATES> 5
<STATE> 2
<MEAN> 25
 1.708972e-09 1.090385e-09 9.580507e-09 -2.513088e-08 5.650978e-09 7.824450e-09 -1.173420e-08 8.080536e-09 -1.223684e-08 -1.003294e-08 -1.228346e-09 7.471072e-09 2.588070e-03 5.406653e-06 1.165406e-03 -2.750418e-04 1.179288e-03 -2.015027e-04 3.669178e-04 -4.334864e-04 -1.182183e-03 -4.313851e-04 -6.009767e-04 -5.740453e-04 3.089256e-03
<VARIANCE> 25
 5.950132e+01 5.523875e+01 6.957190e+01 6.306453e+01 6.882129e+01 6.596412e+01 5.749057e+01 5.935612e+01 5.307150e+01 4.762954e+01 4.650915e+01 3.710306e+01 2.306587e+00 2.816560e+00 2.879318e+00 3.320077e+00 3.620080e+00 3.535859e+00 3.444255e+00 3.604912e+00 3.328778e+00 3.069351e+00 2.973025e+00 2.428180e+00 2.668494e+00
<GCONST> 1.087549e+02
<STATE> 3
<MEAN> 25
 1.708972e-09 1.090385e-09 9.580507e-09 -2.513088e-08 5.650978e-09 7.824450e-09 -1.173420e-08 8.080536e-09 -1.223684e-08 -1.003294e-08 -1.228346e-09 7.471072e-09 2.588070e-03 5.406653e-06 1.165406e-03 -2.750418e-04 1.179288e-03 -2.015027e-04 3.669178e-04 -4.334864e-04 -1.182183e-03 -4.313851e-04 -6.009767e-04 -5.740453e-04 3.089256e-03
<VARIANCE> 25
 5.950132e+01 5.523875e+01 6.957190e+01 6.306453e+01 6.882129e+01 6.596412e+01 5.749057e+01 5.935612e+01 5.307150e+01 4.762954e+01 4.650915e+01 3.710306e+01 2.306587e+00 2.816560e+00 2.879318e+00 3.320077e+00 3.620080e+00 3.535859e+00 3.444255e+00 3.604912e+00 3.328778e+00 3.069351e+00 2.973025e+00 2.428180e+00 2.668494e+00
<GCONST> 1.087549e+02
<STATE> 4
<MEAN> 25
 1.708972e-09 1.090385e-09 9.580507e-09 -2.513088e-08 5.650978e-09 7.824450e-09 -1.173420e-08 8.080536e-09 -1.223684e-08 -1.003294e-08 -1.228346e-09 7.471072e-09 2.588070e-03 5.406653e-06 1.165406e-03 -2.750418e-04 1.179288e-03 -2.015027e-04 3.669178e-04 -4.334864e-04 -1.182183e-03 -4.313851e-04 -6.009767e-04 -5.740453e-04 3.089256e-03
<VARIANCE> 25
 5.950132e+01 5.523875e+01 6.957190e+01 6.306453e+01 6.882129e+01 6.596412e+01 5.749057e+01 5.935612e+01 5.307150e+01 4.762954e+01 4.650915e+01 3.710306e+01 2.306587e+00 2.816560e+00 2.879318e+00 3.320077e+00 3.620080e+00 3.535859e+00 3.444255e+00 3.604912e+00 3.328778e+00 3.069351e+00 2.973025e+00 2.428180e+00 2.668494e+00
<GCONST> 1.087549e+02
<TRANSP> 5
 0.000000e+00 1.000000e+00 0.000000e+00 0.000000e+00 0.000000e+00
 0.000000e+00 6.000000e-01 4.000000e-01 0.000000e+00 0.000000e+00
 0.000000e+00 0.000000e+00 6.000000e-01 4.000000e-01 0.000000e+00
 0.000000e+00 0.000000e+00 0.000000e+00 7.000000e-01 3.000000e-01
 0.000000e+00 0.000000e+00 0.000000e+00 0.000000e+00 0.000000e+00
<ENDHMM>
~h "at"
<BEGINHMM>
<NUMSTATES> 5
<STATE> 2
<MEAN> 25
 1.708972e-09 1.090385e-09 9.580507e-09 -2.513088e-08 5.650978e-09 7.824450e-09 -1.173420e-08 8.080536e-09 -1.223684e-08 -1.003294e-08 -1.228346e-09 7.471072e-09 2.588070e-03 5.406653e-06 1.165406e-03 -2.750418e-04 1.179288e-03 -2.015027e-04 3.669178e-04 -4.334864e-04 -1.182183e-03 -4.313851e-04 -6.009767e-04 -5.740453e-04 3.089256e-03
<VARIANCE> 25
 5.950132e+01 5.523875e+01 6.957190e+01 6.306453e+01 6.882129e+01 6.596412e+01 5.749057e+01 5.935612e+01 5.307150e+01 4.762954e+01 4.650915e+01 3.710306e+01 2.306587e+00 2.816560e+00 2.879318e+00 3.320077e+00 3.620080e+00 3.535859e+00 3.444255e+00 3.604912e+00 3.328778e+00 3.069351e+00 2.973025e+00 2.428180e+00 2.668494e+00
<GCONST> 1.087549e+02
<STATE> 3
<MEAN> 25
 1.708972e-09 1.090385e-09 9.580507e-09 -2.513088e-08 5.650978e-09 7.824450e-09 -1.173420e-08 8.080536e-09 -1.223684e-08 -1.003294e-08 -1.228346e-09 7.471072e-09 2.588070e-03 5.406653e-06 1.165406e-03 -2.750418e-04 1.179288e-03 -2.015027e-04 3.669178e-04 -4.334864e-04 -1.182183e-03 -4.313851e-04 -6.009767e-04 -5.740453e-04 3.089256e-03
<VARIANCE> 25
 5.950132e+01 5.523875e+01 6.957190e+01 6.306453e+01 6.882129e+01 6.596412e+01 5.749057e+01 5.935612e+01 5.307150e+01 4.762954e+01 4.650915e+01 3.710306e+01 2.306587e+00 2.816560e+00 2.879318e+00 3.320077e+00 3.620080e+00 3.535859e+00 3.444255e+00 3.604912e+00 3.328778e+00 3.069351e+00 2.973025e+00 2.428180e+00 2.668494e+00
<GCONST> 1.087549e+02
<STATE> 4
<MEAN> 25
 1.708972e-09 1.090385e-09 9.580507e-09 -2.513088e-08 5.650978e-09 7.824450e-09 -1.173420e-08 8.080536e-09 -1.223684e-08 -1.003294e-08 -1.228346e-09 7.471072e-09 2.588070e-03 5.406653e-06 1.165406e-03 -2.750418e-04 1.179288e-03 -2.015027e-04 3.669178e-04 -4.334864e-04 -1.182183e-03 -4.313851e-04 -6.009767e-04 -5.740453e-04 3.089256e-03
<VARIANCE> 25
 5.950132e+01 5.523875e+01 6.957190e+01 6.306453e+01 6.882129e+01 6.596412e+01 5.749057e+01 5.935612e+01 5.307150e+01 4.762954e+01 4.650915e+01 3.710306e+01 2.306587e+00 2.816560e+00 2.879318e+00 3.320077e+00 3.620080e+00 3.535859e+00 3.444255e+00 3.604912e+00 3.328778e+00 3.069351e+00 2.973025e+00 2.428180e+00 2.668494e+00
<GCONST> 1.087549e+02
<TRANSP> 5
 0.000000e+00 1.000000e+00 0.000000e+00 0.000000e+00 0.000000e+00
 0.000000e+00 6.000000e-01 4.000000e-01 0.000000e+00 0.000000e+00
 0.000000e+00 0.000000e+00 6.000000e-01 4.000000e-01 0.000000e+00
 0.000000e+00 0.000000e+00 0.000000e+00 7.000000e-01 3.000000e-01
 0.000000e+00 0.000000e+00 0.000000e+00 0.000000e+00 0.000000e+00
<ENDHMM>
~h "au"
<BEGINHMM>
<NUMSTATES> 5
<STATE> 2
<MEAN> 25
 1.708972e-09 1.090385e-09 9.580507e-09 -2.513088e-08 5.650978e-09 7.824450e-09 -1.173420e-08 8.080536e-09 -1.223684e-08 -1.003294e-08 -1.228346e-09 7.471072e-09 2.588070e-03 5.406653e-06 1.165406e-03 -2.750418e-04 1.179288e-03 -2.015027e-04 3.669178e-04 -4.334864e-04 -1.182183e-03 -4.313851e-04 -6.009767e-04 -5.740453e-04 3.089256e-03
<VARIANCE> 25
 5.950132e+01 5.523875e+01 6.957190e+01 6.306453e+01 6.882129e+01 6.596412e+01 5.749057e+01 5.935612e+01 5.307150e+01 4.762954e+01 4.650915e+01 3.710306e+01 2.306587e+00 2.816560e+00 2.879318e+00 3.320077e+00 3.620080e+00 3.535859e+00 3.444255e+00 3.604912e+00 3.328778e+00 3.069351e+00 2.973025e+00 2.428180e+00 2.668494e+00
<GCONST> 1.087549e+02
<STATE> 3
<MEAN> 25
 1.708972e-09 1.090385e-09 9.580507e-09 -2.513088e-08 5.650978e-09 7.824450e-09 -1.173420e-08 8.080536e-09 -1.223684e-08 -1.003294e-08 -1.228346e-09 7.471072e-09 2.588070e-03 5.406653e-06 1.165406e-03 -2.750418e-04 1.179288e-03 -2.015027e-04 3.669178e-04 -4.334864e-04 -1.182183e-03 -4.313851e-04 -6.009767e-04 -5.740453e-04 3.089256e-03
<VARIANCE> 25
 5.950132e+01 5.523875e+01 6.957190e+01 6.306453e+01 6.882129e+01 6.596412e+01 5.749057e+01 5.935612e+01 5.307150e+01 4.762954e+01 4.650915e+01 3.710306e+01 2.306587e+00 2.816560e+00 2.879318e+00 3.320077e+00 3.620080e+00 3.535859e+00 3.444255e+00 3.604912e+00 3.328778e+00 3.069351e+00 2.973025e+00 2.428180e+00 2.668494e+00
<GCONST> 1.087549e+02
<STATE> 4
<MEAN> 25
 1.708972e-09 1.090385e-09 9.580507e-09 -2.513088e-08 5.650978e-09 7.824450e-09 -1.173420e-08 8.080536e-09 -1.223684e-08 -1.003294e-08 -1.228346e-09 7.471072e-09 2.588070e-03 5.406653e-06 1.165406e-03 -2.750418e-04 1.179288e-03 -2.015027e-04 3.669178e-04 -4.334864e-04 -1.182183e-03 -4.313851e-04 -6.009767e-04 -5.740453e-04 3.089256e-03
<VARIANCE> 25
 5.950132e+01 5.523875e+01 6.957190e+01 6.306453e+01 6.882129e+01 6.596412e+01 5.749057e+01 5.935612e+01 5.307150e+01 4.762954e+01 4.650915e+01 3.710306e+01 2.306587e+00 2.816560e+00 2.879318e+00 3.320077e+00 3.620080e+00 3.535859e+00 3.444255e+00 3.604912e+00 3.328778e+00 3.069351e+00 2.973025e+00 2.428180e+00 2.668494e+00
<GCONST> 1.087549e+02
<TRANSP> 5
 0.000000e+00 1.000000e+00 0.000000e+00 0.000000e+00 0.000000e+00
 0.000000e+00 6.000000e-01 4.000000e-01 0.000000e+00 0.000000e+00
 0.000000e+00 0.000000e+00 6.000000e-01 4.000000e-01 0.000000e+00
 0.000000e+00 0.000000e+00 0.000000e+00 7.000000e-01 3.000000e-01
 0.000000e+00 0.000000e+00 0.000000e+00 0.000000e+00 0.000000e+00
<ENDHMM>
~h "aw"
<BEGINHMM>
<NUMSTATES> 5
<STATE> 2
<MEAN> 25
 2.439041e+00 -6.487652e+00 -2.248485e+00 -9.307425e+00 -4.852879e+00 3.461194e+00 2.869340e+00 -8.625031e-02 4.322630e+00 6.257195e+00 -2.418546e+00 -3.997507e+00 3.240839e-01 2.202096e-01 -5.753250e-02 -1.184708e+00 1.054387e-01 1.386405e+00 -3.757101e-01 -4.361420e-01 -5.084624e-01 4.690443e-01 4.062961e-01 -2.850398e-01 -8.981621e-02
<VARIANCE> 25
 4.938150e+01 7.614751e+01 7.725726e+01 5.706088e+01 9.295200e+01 7.470238e+01 9.974111e+01 4.318106e+01 6.343605e+01 5.737378e+01 4.935218e+01 2.980637e+01 1.401771e+00 1.926659e+00 2.697343e+00 2.950462e+00 4.190238e+00 3.460857e+00 2.951307e+00 4.453523e+00 3.856413e+00 2.722713e+00 3.146919e+00 3.270221e+00 1.187692e+00
<GCONST> 1.084500e+02
<STATE> 3
<MEAN> 25
 7.020365e+00 1.114411e+00 -3.280674e+00 -1.413925e+01 -4.662794e+00 9.728534e+00 -2.414265e+00 -3.838636e+00 -6.021750e-01 2.172807e+00 2.504658e+00 1.155586e+00 1.771485e-01 9.047267e-01 -5.795896e-02 5.338877e-01 -8.670758e-02 -5.909097e-02 1.353288e-01 -3.045211e-01 -2.160502e-01 -5.248666e-01 1.027034e-01 3.555460e-01 -9.549879e-01
<VARIANCE> 25
 2.510540e+01 3.853691e+01 6.620780e+01 6.897701e+01 5.024012e+01 5.508770e+01 5.671303e+01 2.683306e+01 4.233791e+01 3.913047e+01 4.209550e+01 3.098672e+01 6.362079e-01 1.667758e+00 1.389342e+00 3.183596e+00 2.286837e+00 2.211122e+00 2.624976e+00 2.105229e+00 2.816839e+00 2.380990e+00 1.891585e+00 2.570488e+00 7.571202e-01
<GCONST> 9.917032e+01
<STATE> 4
<MEAN> 25
 -3.657506e+00 1.511862e+00 -2.150148e+00 3.350070e+00 3.140722e+00 5.104906e+00 2.217768e+00 -6.295184e-01 2.722418e-01 -1.578030e-01 1.475820e+00 -3.062388e-01 -4.380167e-01 -6.577027e-02 4.788271e-02 4.567012e-01 3.353120e-01 -2.585064e-01 3.563275e-01 2.234936e-01 -1.231638e-02 1.058388e-01 -7.069171e-02 9.301345e-02 -2.575174e-01
<VARIANCE> 25
 2.004814e+02 4.657474e+01 1.031176e+02 1.311174e+02 1.946767e+02 1.985931e+02 1.358515e+02 7.389077e+01 9.162307e+01 1.207077e+02 1.877198e+02 8.482945e+01 1.210112e+00 1.282586e+00 2.636907e+00 2.805362e+00 4.105259e+00 3.405739e+00 4.081757e+00 4.148817e+00 3.969655e+00 3.247691e+00 4.849697e+00 3.203271e+00 1.475062e+00
<GCONST> 1.169603e+02
<TRANSP> 5
 0.000000e+00 1.000000e+00 0.000000e+00 0.000000e+00 0.000000e+00
 0.000000e+00 7.767206e-01 2.232794e-01 0.000000e+00 0.000000e+00
 0.000000e+00 0.000000e+00 8.409632e-01 1.590368e-01 0.000000e+00
 0.000000e+00 0.000000e+00 0.000000e+00 8.488514e-01 1.511486e-01
 0.000000e+00 0.000000e+00 0.000000e+00 0.000000e+00 0.000000e+00
<ENDHMM>
~h "ay"
<BEGINHMM>
<NUMSTATES> 5
<STATE> 2
<MEAN> 25
 3.421491e+00 -1.038262e+01 -1.315280e+00 -3.468459e+00 -4.361367e+00 -4.757179e+00 4.335145e+00 7.137486e+00 2.500303e+00 -3.754073e+00 -1.594828e+00 -1.607376e+00 -2.018523e-01 1.128933e-01 1.284206e+00 -8.873269e-03 -1.262623e+00 -6.327630e-01 5.684389e-01 2.223443e-01 -6.393666e-01 1.283281e-01 7.204846e-01 3.715420e-01 -7.716387e-02
<VARIANCE> 25
 1.685924e+01 2.243829e+01 5.034101e+01 2.761980e+01 4.269635e+01 4.579227e+01 4.756499e+01 4.761708e+01 4.842444e+01 3.922549e+01 4.392582e+01 3.116553e+01 4.545184e-01 1.575094e+00 2.976881e+00 1.889771e+00 3.238006e+00 2.540333e+00 2.476399e+00 3.345891e+00 2.420834e+00 3.498816e+00 3.027523e+00 1.938183e+00 4.479001e-01
<GCONST> 9.791238e+01
<STATE> 3
<MEAN> 25
 1.538250e+00 -2.037109e+00 9.075304e+00 -3.147376e+00 -1.162904e+01 -5.003245e+00 1.830606e+00 1.047502e+00 -1.312890e+00 3.543572e-01 3.320973e+00 3.534704e-01 -2.353031e-01 1.129959e+00 2.520995e-01 3.823098e-01 3.115661e-01 4.903371e-01 -4.675887e-01 -7.501696e-01 -8.158311e-02 3.147842e-01 -1.118097e-02 3.518467e-01 -1.131244e+00
<VARIANCE> 25
 1.609167e+01 4.164639e+01 6.689919e+01 3.807355e+01 4.336551e+01 5.330438e+01 5.505688e+01 6.720797e+01 4.772462e+01 4.285049e+01 4.648863e+01 2.405231e+01 4.861821e-01 1.006774e+00 3.332500e+00 2.159441e+00 2.732717e+00 2.156874e+00 2.696817e+00 4.204855e+00 3.220852e+00 2.826021e+00 2.512900e+00 1.906955e+00 8.363447e-01
<GCONST> 9.995978e+01
<STATE> 4
<MEAN> 25
 -1.924232e+00 1.891472e+00 8.978339e-01 2.237748e+00 4.197493e-01 1.279343e+00 1.467258e+00 -3.395990e-01 -7.171375e-01 4.651701e-01 4.060873e-01 2.283553e+00 -1.270458e-01 4.121021e-02 -1.765664e-01 1.450710e-01 2.093804e-01 1.337072e-01 -6.599903e-02 2.501160e-03 4.005685e-02 -4.532058e-04 -4.191450e-02 8.117011e-03 -2.591163e-01
<VARIANCE> 25
 1.766589e+01 2.365547e+01 2.509974e+01 2.532802e+01 5.054802e+01 3.098538e+01 3.227265e+01 3.726894e+01 2.793962e+01 2.458121e+01 2.693730e+01 1.774498e+01 2.398326e-01 6.185788e-01 9.368515e-01 9.115072e-01 1.461822e+00 1.371704e+00 1.472147e+00 1.565810e+00 1.549033e+00 1.713846e+00 1.686527e+00 1.258240e+00 3.290615e-01
<GCONST> 8.566947e+01
<TRANSP> 5
 0.000000e+00 1.000000e+00 0.000000e+00 0.000000e+00 0.000000e+00
 0.000000e+00 7.706921e-01 2.293079e-01 0.000000e+00 0.000000e+00
 0.000000e+00 0.000000e+00 8.326257e-01 1.673742e-01 0.000000e+00
 0.000000e+00 0.000000e+00 0.000000e+00 8.781990e-01 1.218010e-01
 0.000000e+00 0.000000e+00 0.000000e+00 0.000000e+00 0.000000e+00
<ENDHMM>
~h "be"
<BEGINHMM>
<NUMSTATES> 5
<STATE> 2
<MEAN> 25
 2.394194e+00 4.154627e-01 -1.918529e+00 -4.012487e+00 -5.628978e+00 -4.809746e+00 6.523978e-01 4.765836e+00 3.008601e+00 -1.145905e+00 -2.695108e+00 -2.594654e+00 -1.757917e-01 -2.537405e-01 -2.453232e-01 -1.385912e-01 4.641600e-02 9.481801e-02 3.472105e-02 -1.734560e-02 -1.109834e-01 -1.243384e-01 -2.491930e-01 -1.725303e-01 -7.226893e-02
<VARIANCE> 25
 2.643613e+01 2.667178e+01 3.715621e+01 2.584863e+01 3.592109e+01 3.987900e+01 2.320256e+01 4.253189e+01 4.812508e+01 4.615320e+01 8.857555e+01 4.116503e+01 8.733265e-01 5.626915e-01 8.752702e-01 1.147317e+00 2.712355e+00 3.888164e+00 2.503057e+00 4.027017e+00 2.174699e+00 2.992831e+00 2.863767e+00 1.671241e+00 2.644745e-01
<GCONST> 9.551040e+01
<STATE> 3
<MEAN> 25
 2.141127e+00 3.389555e+00 3.549522e+00 7.873465e-01 -3.833560e+00 -4.066259e+00 -1.508997e-01 8.968605e-01 6.014458e-01 1.918006e+00 2.833975e+00 2.441384e+00 -1.207687e-01 -1.089452e-01 -1.059241e-01 -5.120254e-03 1.059007e-01 1.092190e-01 1.792328e-01 3.099180e-01 2.443567e-01 -7.114049e-02 -1.235146e-01 1.929018e-02 -6.186038e-02
<VARIANCE> 25
 1.426805e+01 7.434873e+00 1.183032e+01 1.448029e+01 6.154354e+01 5.005425e+01 3.047829e+01 5.626205e+01 2.769484e+01 2.338666e+01 2.587525e+01 1.758600e+01 7.035239e-01 3.814630e-01 7.013903e-01 8.355814e-01 2.654092e+00 2.704001e+00 2.603112e+00 2.634792e+00 2.130464e+00 2.609145e+00 1.689658e+00 1.301766e+00 2.668023e-01
<GCONST> 8.705727e+01
<STATE> 4
<MEAN> 25
 -1.180999e+01 1.064641e+00 -3.194134e+00 8.207494e+00 6.995723e+00 5.848524e-02 7.966841e+00 2.563758e+00 1.147824e+00 -8.100798e-01 -1.551940e-01 4.151352e+00 -1.361815e-02 1.096637e-01 1.493145e-01 1.742779e-01 1.099962e-01 2.601933e-01 1.901067e-01 -9.441038e-02 -2.198771e-01 -2.073267e-01 -1.066805e-01 -1.221414e-01 -4.680576e-02
<VARIANCE> 25
 3.511230e+01 3.096277e+00 2.799949e+00 2.265734e+01 1.720027e+01 1.289092e+01 2.534381e+01 1.824099e+01 2.106795e+01 7.700308e+00 1.400380e+01 1.336655e+01 1.868761e-01 3.244331e-01 3.792634e-01 6.422560e-01 6.360974e-01 6.741508e-01 1.277889e+00 1.128172e+00 7.731715e-01 4.895108e-01 1.216794e+00 1.145283e+00 3.901394e-02
<GCONST> 6.806477e+01
<TRANSP> 5
 0.000000e+00 1.000000e+00 0.000000e+00 0.000000e+00 0.000000e+00
 0.000000e+00 9.423555e-01 5.764453e-02 0.000000e+00 0.000000e+00
 0.000000e+00 0.000000e+00 9.528719e-01 4.712808e-02 0.000000e+00
 0.000000e+00 0.000000e+00 0.000000e+00 7.368049e-01 2.631951e-01
 0.000000e+00 0.000000e+00 0.000000e+00 0.000000e+00 0.000000e+00
<ENDHMM>
~h "br"
<BEGINHMM>
<NUMSTATES> 5
<STATE> 2
<MEAN> 25
 1.708972e-09 1.090385e-09 9.580507e-09 -2.513088e-08 5.650978e-09 7.824450e-09 -1.173420e-08 8.080536e-09 -1.223684e-08 -1.003294e-08 -1.228346e-09 7.471072e-09 2.588070e-03 5.406653e-06 1.165406e-03 -2.750418e-04 1.179288e-03 -2.015027e-04 3.669178e-04 -4.334864e-04 -1.182183e-03 -4.313851e-04 -6.009767e-04 -5.740453e-04 3.089256e-03
<VARIANCE> 25
 5.950132e+01 5.523875e+01 6.957190e+01 6.306453e+01 6.882129e+01 6.596412e+01 5.749057e+01 5.935612e+01 5.307150e+01 4.762954e+01 4.650915e+01 3.710306e+01 2.306587e+00 2.816560e+00 2.879318e+00 3.320077e+00 3.620080e+00 3.535859e+00 3.444255e+00 3.604912e+00 3.328778e+00 3.069351e+00 2.973025e+00 2.428180e+00 2.668494e+00
<GCONST> 1.087549e+02
<STATE> 3
<MEAN> 25
 1.708972e-09 1.090385e-09 9.580507e-09 -2.513088e-08 5.650978e-09 7.824450e-09 -1.173420e-08 8.080536e-09 -1.223684e-08 -1.003294e-08 -1.228346e-09 7.471072e-09 2.588070e-03 5.406653e-06 1.165406e-03 -2.750418e-04 1.179288e-03 -2.015027e-04 3.669178e-04 -4.334864e-04 -1.182183e-03 -4.313851e-04 -6.009767e-04 -5.740453e-04 3.089256e-03
<VARIANCE> 25
 5.950132e+01 5.523875e+01 6.957190e+01 6.306453e+01 6.882129e+01 6.596412e+01 5.749057e+01 5.935612e+01 5.307150e+01 4.762954e+01 4.650915e+01 3.710306e+01 2.306587e+00 2.816560e+00 2.879318e+00 3.320077e+00 3.620080e+00 3.535859e+00 3.444255e+00 3.604912e+00 3.328778e+00 3.069351e+00 2.973025e+00 2.428180e+00 2.668494e+00
<GCONST> 1.087549e+02
<STATE> 4
<MEAN> 25
 1.708972e-09 1.090385e-09 9.580507e-09 -2.513088e-08 5.650978e-09 7.824450e-09 -1.173420e-08 8.080536e-09 -1.223684e-08 -1.003294e-08 -1.228346e-09 7.471072e-09 2.588070e-03 5.406653e-06 1.165406e-03 -2.750418e-04 1.179288e-03 -2.015027e-04 3.669178e-04 -4.334864e-04 -1.182183e-03 -4.313851e-04 -6.009767e-04 -5.740453e-04 3.089256e-03
<VARIANCE> 25
 5.950132e+01 5.523875e+01 6.957190e+01 6.306453e+01 6.882129e+01 6.596412e+01 5.749057e+01 5.935612e+01 5.307150e+01 4.762954e+01 4.650915e+01 3.710306e+01 2.306587e+00 2.816560e+00 2.879318e+00 3.320077e+00 3.620080e+00 3.535859e+00 3.444255e+00 3.604912e+00 3.328778e+00 3.069351e+00 2.973025e+00 2.428180e+00 2.668494e+00
<GCONST> 1.087549e+02
<TRANSP> 5
 0.000000e+00 1.000000e+00 0.000000e+00 0.000000e+00 0.000000e+00
 0.000000e+00 6.000000e-01 4.000000e-01 0.000000e+00 0.000000e+00
 0.000000e+00 0.000000e+00 6.000000e-01 4.000000e-01 0.000000e+00
 0.000000e+00 0.000000e+00 0.000000e+00 7.000000e-01 3.000000e-01
 0.000000e+00 0.000000e+00 0.000000e+00 0.000000e+00 0.000000e+00
<ENDHMM>
~h "bu"
<BEGINHMM>
<NUMSTATES> 5
<STATE> 2
<MEAN> 25
 1.708972e-09 1.090385e-09 9.580507e-09 -2.513088e-08 5.650978e-09 7.824450e-09 -1.173420e-08 8.080536e-09 -1.223684e-08 -1.003294e-08 -1.228346e-09 7.471072e-09 2.588070e-03 5.406653e-06 1.165406e-03 -2.750418e-04 1.179288e-03 -2.015027e-04 3.669178e-04 -4.334864e-04 -1.182183e-03 -4.313851e-04 -6.009767e-04 -5.740453e-04 3.089256e-03
<VARIANCE> 25
 5.950132e+01 5.523875e+01 6.957190e+01 6.306453e+01 6.882129e+01 6.596412e+01 5.749057e+01 5.935612e+01 5.307150e+01 4.762954e+01 4.650915e+01 3.710306e+01 2.306587e+00 2.816560e+00 2.879318e+00 3.320077e+00 3.620080e+00 3.535859e+00 3.444255e+00 3.604912e+00 3.328778e+00 3.069351e+00 2.973025e+00 2.428180e+00 2.668494e+00
<GCONST> 1.087549e+02
<STATE> 3
<MEAN> 25
 1.708972e-09 1.090385e-09 9.580507e-09 -2.513088e-08 5.650978e-09 7.824450e-09 -1.173420e-08 8.080536e-09 -1.223684e-08 -1.003294e-08 -1.228346e-09 7.471072e-09 2.588070e-03 5.406653e-06 1.165406e-03 -2.750418e-04 1.179288e-03 -2.015027e-04 3.669178e-04 -4.334864e-04 -1.182183e-03 -4.313851e-04 -6.009767e-04 -5.740453e-04 3.089256e-03
<VARIANCE> 25
 5.950132e+01 5.523875e+01 6.957190e+01 6.306453e+01 6.882129e+01 6.596412e+01 5.749057e+01 5.935612e+01 5.307150e+01 4.762954e+01 4.650915e+01 3.710306e+01 2.306587e+00 2.816560e+00 2.879318e+00 3.320077e+00 3.620080e+00 3.535859e+00 3.444255e+00 3.604912e+00 3.328778e+00 3.069351e+00 2.973025e+00 2.428180e+00 2.668494e+00
<GCONST> 1.087549e+02
<STATE> 4
<MEAN> 25
 1.708972e-09 1.090385e-09 9.580507e-09 -2.513088e-08 5.650978e-09 7.824450e-09 -1.173420e-08 8.080536e-09 -1.223684e-08 -1.003294e-08 -1.228346e-09 7.471072e-09 2.588070e-03 5.406653e-06 1.165406e-03 -2.750418e-04 1.179288e-03 -2.015027e-04 3.669178e-04 -4.334864e-04 -1.182183e-03 -4.313851e-04 -6.009767e-04 -5.740453e-04 3.089256e-03
<VARIANCE> 25
 5.950132e+01 5.523875e+01 6.957190e+01 6.306453e+01 6.882129e+01 6.596412e+01 5.749057e+01 5.935612e+01 5.307150e+01 4.762954e+01 4.650915e+01 3.710306e+01 2.306587e+00 2.816560e+00 2.879318e+00 3.320077e+00 3.620080e+00 3.535859e+00 3.444255e+00 3.604912e+00 3.328778e+00 3.069351e+00 2.973025e+00 2.428180e+00 2.668494e+00
<GCONST> 1.087549e+02
<TRANSP> 5
 0.000000e+00 1.000000e+00 0.000000e+00 0.000000e+00 0.000000e+00
 0.000000e+00 6.000000e-01 4.000000e-01 0.000000e+00 0.000000e+00
 0.000000e+00 0.000000e+00 6.000000e-01 4.000000e-01 0.000000e+00
 0.000000e+00 0.000000e+00 0.000000e+00 7.000000e-01 3.000000e-01
 0.000000e+00 0.000000e+00 0.000000e+00 0.000000e+00 0.000000e+00
<ENDHMM>
~h "ce"
<BEGINHMM>
<NUMSTATES> 5
<STATE> 2
