BIGRAM: method Katz, cutoff 1
  coef[7]: 0.000000 0.515022 0.653191 0.765255 0.757629 0.864080 0.990000

TRIGRAM: method Katz, cutoff 1
  coef[7]: 0.000000 0.424812 0.572675 0.660350 0.749787 0.813582 0.916994

\data\
ngram 1=10791
ngram 2=12658
ngram 3=9545

\1-grams:
-1.1458	</s>	-0.3143
-4.6972	<a>
-4.9982	<ah>
-4.9982	<aha>
-4.9982	<aku>
-4.9982	<al>
-4.9982	<an>
-4.9982	<anna>
-4.9982	<ap>
-4.9982	<apa>
-4.9982	<bat>
-4.9982	<bawa>
-4.9982	<belar>
-4.9982	<berbage>
-4.9982	<bu>
-4.9982	<bur>
-4.9982	<cerit>
-4.9982	<cuk>
-4.9982	<d>
-4.9982	<da>
-4.9982	<dam>
-4.9982	<danma>
-4.9982	<de>
-4.9982	<dengen>
-4.9982	<det>
-4.9982	<diga>
-4.9982	<digantik>
-4.9982	<dika>
-4.9982	<dila>
-4.9982	<ding>
-4.9982	<dis>
-4.9982	<dizni>
-4.6972	<dok>
-4.9982	<dunia>
-4.9982	<dura>
-3.5211	<e>	-0.0551
-4.9982	<ee>
-4.9982	<eee>
-4.6972	<eh>
-4.2992	<ehem>
-4.9982	<ek>
-4.9982	<enggak>
-2.8023	<eu>	-0.2078
-3.9568	<euh>
-3.3261	<eum>	-0.1082
-4.9982	<eumm>
-4.9982	<eut>
-4.9982	<fasi>
-4.9982	<fung>
-4.6972	<ga>
-4.9982	<heeh>
-4.9982	<heem>
-4.5211	<hem>
-4.9982	<hemm>
-4.9982	<heu>
-4.9982	<hmm>
-4.9982	<iba>
-4.9982	<in>
-4.9982	<ini>
-4.9982	<inte>
-4.9982	<interaks>
-4.9982	<iya>
-4.9982	<jaga>
-4.9982	<jika>
-4.6972	<ka>
-4.9982	<kantu>
-4.9982	<kayak>
-4.6972	<ke>
-4.9982	<kenapa>
-4.9982	<kerjakn>
-4.9982	<kira-kira>
-4.9982	<kita>
-4.9982	<komputil>
-4.9982	<kontro>
-4.9982	<le>
-4.9982	<lib>
-4.9982	<lo>
-3.8521	<m>	-0.0638
-4.9982	<man>
-4.9982	<me>
-4.9982	<mek>
-4.9982	<mem>
-4.9982	<memasuki>
-4.9982	<memi>
-4.9982	<mempe>
-4.9982	<mendaya>
-4.9982	<mendeka>
-4.9982	<mengen>
-4.9982	<menghe>
-4.9982	<meny>
-4.9982	<mintadat>
-4.9982	<misalnya>
-4.9982	<mo>
-4.9982	<murai>
-4.9982	<na>
-4.9982	<nahm>
-4.9982	<nee>
-4.9982	<nem>
-4.9982	<ng>
-4.9982	<nyai>
-4.9982	<nyaran>
-4.9982	<nyer>
-3.8521	<o>	-0.1027
-4.9982	<objek>
-3.1231	<oh>	-0.2434
-4.9982	<ohh>
-4.9982	<oleh>
-4.9982	<p>
-4.9982	<pa>
-4.9982	<pada>
-4.9982	<pat>
-4.9982	<pe>
-4.9982	<pen>
-4.9982	<penu>
-4.9982	<per>
-4.9982	<perusaan>
-4.9982	<radit>
-4.9982	<ru>
-99.9900	<s>	-0.4501
-4.9982	<sa>
-4.9982	<sapa>
-4.9982	<sara>
-4.9982	<satu>
-4.9982	<say>
-4.9982	<saya>
-4.9982	<se>
-4.9982	<seb>
-4.9982	<sen>
-4.9982	<set>
-4.9982	<setele>
-4.9982	<sh>
-4.9982	<si>
-4.9982	<su>
-4.9982	<ta>
-4.9982	<tata>
-4.9982	<teb>
-4.9982	<ter>
-4.9982	<terkonn>
-4.9982	<ti>
-4.9982	<tidak>
-4.9982	<ting>
-4.9982	<tsedia>
-4.9982	<tus>
-4.9982	<u>
-4.9982	<ui>
-4.9982	<ulusan>
-4.9982	<un>
-4.9982	<wira>
-4.9982	<wo>
-4.9982	<ya>
-4.9982	<yak>
-4.9982	<yan>
-4.9982	<yang>
-4.9982	SENT-END
-4.9982	SENT-START
-4.2200	a	-0.0814
-4.9982	aa
-4.9982	aau
-4.9982	abadi
-4.9982	abah
-4.9982	abang
-4.9982	abed
-4.9982	abet
-4.2992	abis
-4.9982	abisin
-4.9982	abisnya
-3.8521	abnormal	-0.1460
-4.2200	aborsi	-0.4648
-4.9982	abrasi
-4.2992	abrasif	-0.2219
-3.9568	abses	-0.1663
-4.9982	absolutnya
-4.9982	abu
-4.9982	abu-abu
-4.9982	abu-abunya
-4.3961	abutment
-4.2200	ac	-0.0816
-4.9982	ac-nya
-4.9982	acak
-4.9982	acap
-4.9982	acar
-4.9982	acara
-4.9982	acaranya
-4.9982	acc
-4.9982	account
-4.3961	acetaminophen	-0.2773
-4.2200	acid	-0.1689
-4.6972	acids
-4.9982	acrolein
-4.9982	acrylonitrile
-4.9982	acungkan
-2.3657	ada	-0.3224
-4.5211	adakah
-4.9982	adakan
-4.9982	adala
-2.3708	adalah	-0.2106
-3.4667	adanya	-0.1199
-4.9982	adaptasi
-4.2200	adapun	-0.0816
-4.9982	adblocker
-3.8842	ade	-0.1109
-4.9982	adegan
-4.5211	adek
-4.6972	adeknya
-3.5510	adik	-0.0490
-4.9982	adik-adik
-4.9982	adikku
-4.5211	adiknya
-4.6972	adiktif	-0.3025
-4.9982	adiku
-3.9982	aditya	-0.2973
-4.2992	administrasi	-0.0959
-4.5211	administrasinya
-4.9982	adminnya
-4.9982	adonannya
-4.9982	adu
-4.1531	aduh	-0.0369
-4.1531	aduk	-0.5854
-4.6972	aedes
-4.9982	aegypti
-4.6972	aerobik
-4.9982	aerosol
-4.9982	affiliate
-3.8842	aftosa	-0.1062
-3.7677	agak	-0.0869
-4.9982	agama
-2.9190	agar	-0.2625
-4.9982	agate
-4.9982	agen
-4.9982	agenda
-4.9982	agus
-4.9982	agustus
-4.9982	ah
-4.6972	aha	-0.3113
-4.9982	ahelah
-3.7677	ahli	-0.1903
-4.9982	ahli-ahli
-4.2992	ahmad	-0.0993
-4.9982	ahsiap
-4.9982	ai
-4.3961	aids
-4.9982	aing
-2.6864	air	-0.5998
-4.6972	airnya
-3.3261	aja	-0.3106
-4.9982	ajah
-4.9982	ajaibnya
-4.9982	ajak
-4.9982	ajang
-4.9982	ajar
-4.9982	ajarin
-4.9982	ajarkan
-4.9982	aji
-4.9982	ajukan
-4.9982	ak
-4.9982	akademik
-4.9982	akademis
-4.9982	akademisi
-4.9982	akal
-2.2193	akan	-0.3551
-4.0439	akar	-0.3690
-4.9982	akbp
-4.2992	akhir	-0.2259
-3.9568	akhir-akhir	-0.3096
-4.9982	akhiri
-3.5358	akhirnya	-0.0293
-3.0439	akibat	-0.1273
-3.7194	akibatnya	-0.1611
-4.9982	akmal
-4.9982	akrab
-4.6972	akrilik
-4.9982	akriliknya
-4.9982	akrolein
-4.9982	akses
-4.9982	aksesibilitas
-4.9982	aksesori
-4.9982	aksi
-4.9982	aksinya
-4.9982	akta
-3.5668	aktif	-0.0941
-4.2200	aktifitas
-4.9982	aktifitasnya
-4.9982	aktifnya
-4.9982	aktinik
-3.3261	aktivitas	-0.3261
-4.9982	aktivitas-aktivitas
-4.9982	aktor
-4.5211	aku
-4.9982	akui
-4.9982	akuisisi
-4.9982	akumulasi
-4.9982	akun
-3.5211	akupunktur	-0.1400
-4.9982	akurasi
-4.9982	akurasinya
-4.5211	akurat
-3.6180	akut	-0.1272
-4.9982	ala
-4.9982	alam
-4.6972	alamat
-4.9982	alamatnya
-2.9048	alami	-0.4134
-4.6972	alangkah	-0.3142
-4.9982	alas
-3.6558	alasan	-0.1758
-4.3961	alasannya	-0.1279
-3.5068	alat	-0.1466
-4.9982	alat-alat
-4.9982	alatnya
-4.9982	alcohol
-3.9568	alergen	-0.2347
-3.4419	alergi	-0.2554
-4.9982	alghi
-4.9982	algoritma
-4.5211	alhamdulillah
-4.0951	alias
-4.9982	alif
-4.9982	alih
-3.5358	aliran	-0.7644
-4.9982	aljabar
-4.9982	alkali
-3.4797	alkohol	-0.2474
-4.9982	all
-4.9982	allah
-4.9982	allicin
-4.9982	allopurinol
-4.9982	almari
-4.9982	almira
-4.9982	almond
-4.2992	alodokter	-0.5833
-4.9982	alokasi
-4.6972	alpha-hydroxy	-0.3143
-4.3961	alpukat
-4.0951	alternatif
-4.9982	aluminium
-4.9982	alumni
-4.9982	alur
-4.9982	alurnya
-4.9982	alzheimer
-4.9982	ama
-4.9982	amalia
-3.7194	aman	-0.2232
-4.9982	aman-amannya
-4.9982	amanah
-4.5211	amat	-0.1505
-4.9982	amatir
-4.9982	amatlah
-4.9982	ambang
-4.9982	ambarawati
-3.9982	ambil	-0.0951
-4.9982	ambilin
-4.9982	ambilnya
-4.9982	ambing
-4.6972	amerika	-0.3143
-4.9982	amin
-4.6972	amino
-4.9982	amiruddin
-4.9982	amit-amit
-4.6972	amonia
-4.9982	amoxilin
-4.9982	ampela
-4.9982	ampere
-4.1531	ampuh	-0.1145
-4.6972	ampun
-3.4184	amputasi	-0.1934
-4.9982	amri
-4.9982	anabolik
-3.2200	anak	-0.2267
-3.6558	anak-anak	-0.0785
-4.9982	anak-anaknya
-4.9982	anakku
-4.5211	anaknya
-4.6972	analgesik
-4.9982	analisa
-4.9982	analisis
-4.9982	analisisnya
-4.9982	analog
-4.9982	anamnesis
-4.9982	anas
-3.8842	anatomi	-0.8116
-4.5211	anbesol	-0.4513
-4.5211	ancaman	-0.4598
-4.9982	ancol
-4.9982	ancur
-4.3961	and	-0.1293
-1.9725	anda	-0.4619
-4.9982	andal
-4.5211	andi	-0.1505
-4.6972	andil	-0.3119
-4.9982	andreas
-4.9982	andrian
-4.0951	aneh	-0.0277
-4.9982	aneh-aneh
-4.9982	anehnya
-3.5358	anemia	-0.1970
-3.9982	anestesi	-0.1587
-4.2992	aneurisma	-0.4114
-4.9982	anget
-4.9982	angga
-4.9982	anggap
-4.6972	anggapan
-4.9982	anggaplah
-4.9982	anggaran
-4.9982	anggarannya
-3.6760	anggota	-0.7894
-4.9982	anggotanya
-3.1721	anggur	-0.3004
-4.5211	angin
-4.9982	angina
-4.0439	angka	-0.1007
-4.9982	angkasa
-4.6972	angkat	-0.3142
-4.9982	angkatan
-4.9982	angkot
-4.9982	angkotnya
-4.9982	angle
-4.9982	ani
-4.9982	anies
-4.9982	anjay
-4.6972	anjing	-0.3105
-4.9982	anjlok
-3.9568	anjuran	-0.2361
-4.9982	anjurannya
-4.9982	ann
-4.9982	annelies
-4.9982	annuloplasty
-4.9982	anonim
-4.2992	anoreksia	-0.1002
-4.9982	antagonists
-4.9982	antar
-3.2992	antara	-0.2173
-3.4797	antaranya	-0.4868
-4.5211	antasida	-0.1505
-4.2200	anti
-4.9982	anti-angina
-4.2200	anti-inflamasi	-0.2789
-4.9982	anti-inflammatory
-4.9982	anti-radang
-3.9982	antibakteri	-0.1746
-3.5510	antibiotik	-0.1210
-4.6972	antidepresan
-4.2992	antidiabetes
-4.9982	antidiare
-4.5211	antihistamin
-4.2200	antiinflamasi
-4.9982	antiinflamasi-nya
-3.8842	antijamur	-0.1967
-4.9982	antikonvulsan
-4.0439	antimikroba	-0.1548
-4.5211	antinyeri
-4.2200	antioksidan	-0.0701
-4.9982	antiradang
-4.3961	antiseptik	-0.1176
-4.6972	antituberkulosis
-4.9982	antivirus
-4.9982	antman
-4.9982	anton
-4.9982	antosiain
-4.5211	antosianin
-4.9982	antri
-4.9982	antrian
-4.5211	anwar
-4.6972	ap
-2.7677	apa	-0.6193
-4.2992	apa-apa	-0.0971
-4.9982	apaan
-3.2739	apabila	-0.1950
-4.9982	apah
-4.9982	apain
-2.6760	apakah	-0.4486
-3.8221	apalagi	-0.0302
-4.9982	apalah
-4.9982	apanya
-4.9982	apapula
-3.7941	apapun	-0.2450
-4.9982	apbd
-3.9568	apel	-0.0486
-4.9982	apendisitis
-4.9982	aphthous
-4.9982	api
-4.9982	apks
-4.9982	aplastik
-4.9982	aplikasi
-4.9982	aplikasi-aplikasi
-4.9982	aplikasinya
-4.9982	apnea
-3.8842	apotek	-0.0765
-4.9982	apotek-apotek
-4.9982	apoteker
-4.9982	apotekernya
-4.3961	apotik	-0.1176
-4.9982	apply
-4.9982	approval
-4.9982	apps
-4.9982	apresiasi
-4.9982	apresiasinya
-4.9982	april
-4.9982	aprons
-4.9982	aqua
-4.9982	ar
-4.0951	arah	-0.1174
-4.9982	arahannya
-4.9982	arahkan
-4.9982	arak-arakan
-4.3961	arang	-0.2922
-4.9982	aras
-3.3080	area	-0.2332
-4.9982	aresenik
-4.9982	argo
-4.9982	arif
-4.9982	arima
-4.9982	aritmatika
-4.2992	aroma	-0.1002
-4.9982	arousing
-4.9982	arsenik
-4.9982	arsitektur
-4.9982	arsitektural
-3.5832	arteri	-0.3872
-4.9982	arteriosclerosis
-4.6972	arteritis
-4.5211	arthritis
-4.9982	arti
-4.9982	artian
-4.9982	artificial
-4.9982	artifisial
-4.5211	artikel
-4.9982	artikelnya
-4.0439	artinya	-0.0490
-4.9982	artis
-4.9982	artisnya
-4.6972	artritis
-4.9982	arus
-4.9982	as
-4.9982	asa
-4.9982	asal
-4.9982	asalmu
-2.8521	asam	-0.6364
-3.9568	asap	-1.0411
-4.5211	asapnya
-4.9982	asean
-4.9982	asem
-4.9982	asep
-4.9982	asesmen
-4.9982	asetaldehida
-4.9982	asetaminofen
-4.9982	asetat
-4.5211	aseton	-0.1808
-4.9982	asgard
-4.9982	asi
-4.6972	asia
-4.9982	asik
-4.9982	asiknya
-4.2200	asin	-0.0496
-4.5211	asing
-4.9982	asisten
-4.9982	asli
-4.9982	aslinya
-3.8521	asma	-0.1563
-4.9982	aspect
-4.6972	aspek
-4.9982	aspek-aspek
-4.9982	aspeknya
-4.9982	aspirasi
-4.1531	aspirin	-0.2411
-4.9982	assalamualaikum
-4.9982	assasin
-4.9982	assembly
-4.9982	assurance
-4.5211	asthenopia
-4.6972	astringen
-4.9982	astronomi
-4.9982	asuhan
-4.9982	asumsi
-4.9982	asumsikan
-3.2906	asupan	-0.4260
-3.6972	asuransi	-0.1691
-4.3961	asuransinya
-4.9982	asus
-4.9982	at
-4.9982	atap
-2.9939	atas	-0.1064
-4.9982	atasan
-4.9982	atasannya
-4.9982	atasi
-4.9982	atasnya
-1.9913	atau	-0.1370
-4.9982	ataukah
-3.8521	ataupun
-4.9982	atenolol
-4.9982	atensi
-4.9982	atention
-4.2992	aterosklerosis	-0.1838
-4.9982	ateu
-4.6972	atlet	-0.2821
-4.9982	ato
-4.9982	atom
-4.9982	atopi
-4.9982	atopik
-4.9982	atorvastatin
-4.9982	atribut
-4.9982	atributnya
-4.9982	atrium
-4.9982	atrofi
-4.2200	atsiri	-0.3099
-4.9982	atur
-3.9982	aturan	-0.0946
-4.9982	aturan-aturan
-4.9982	audience
-4.9982	aufa
-4.9982	aula
-4.9982	australia
-4.9982	autentikasi
-4.9982	auto
-4.5211	autoimun
-4.9982	automatic
-4.9982	avenger
-4.9982	avengers
-4.9982	avrg
-3.4930	awal	-0.1743
-4.9982	awal-awal
-4.9982	awalan
-3.9982	awalnya
-4.9982	awam
-4.9982	awan
-4.9982	awareness
-4.9982	awas
-4.9982	awet
-3.6180	ayah	-0.4924
-4.9982	ayahku
-4.9982	ayahmu
-4.9982	ayahnya
-4.2992	ayam	-0.2175
-4.9982	ayamnya
-4.5211	ayo	-0.1825
-4.9982	ayok
-4.9982	ayrton
-4.9982	ayu
-4.9982	ayuk
-4.9982	ayunda
-4.9982	azam
-4.9982	azis
-4.9982	azitromisin
-4.9982	azulene
-3.8521	b	-0.4484
-4.2200	bab
-4.9982	babat
-3.8842	baca	-0.5093
-4.9982	baca-baca
-4.9982	bacakan
-4.9982	bacanya
-4.9982	backend
-4.9982	background
-4.9982	backpacker
-2.8079	badan	-0.2580
-3.9568	badannya	-0.0425
-4.9982	badminton
-4.9982	bag
-4.9982	bagai
-3.1174	bagaimana	-0.3019
-3.1349	bagi	-0.3792
-4.9982	bagi-bagi
-2.6780	bagian	-0.5775
-4.5211	bagian-bagian
-4.9982	bagianku
-4.9982	bagimana
-4.9982	bagimu
-3.8221	bagus	-0.0632
-4.9982	bagusnya
-4.9982	bahagia
-3.1721	bahan	-0.5476
-4.6972	bahan-bahan
-4.9982	bahannya
-4.5211	bahari	-0.1826
-4.9982	bahas
-4.3961	bahasa
-4.9982	bahasan
-3.9190	bahaya	-0.0068
-4.9982	bahkah
-3.1657	bahkan	-0.0939
-4.1531	bahu	-0.2096
-3.0739	bahwa	-0.1436
-4.9982	bahwasanya
-2.4719	baik	-0.4621
-3.9568	baik-baik	-0.5635
-4.9982	baikan
-3.9190	baiklah	-0.2233
-3.6972	baiknya	-0.2911
-3.9982	baju	-0.0998
-4.5211	bajunya	-0.1505
-4.9982	bak
-4.0951	bakal	-0.1220
-4.9982	bakalan
-4.2992	bakar
-4.9982	bakat
-4.9982	bakatnya
-3.8521	baking	-0.3142
-4.9982	bakso
-3.0344	bakteri	-0.3105
-4.9982	bakteri-bakteri
-4.9982	bakteriologik
-4.9982	bakti
-4.9982	baktinya
-4.9982	baku
-4.9982	balai
-4.9982	balas
-4.9982	bali
-4.6972	balik
-4.9982	baliknya
-4.6972	balita
-4.9982	balitbang
-4.9982	balok
-4.6972	balon
-4.9982	bambang
-4.9982	bambu
-4.9982	ban
-4.9982	band
-4.9982	bandang
-4.9982	bandar
-4.9982	bandara
-4.9982	banding
-4.9982	bandung
-3.6558	banget	-0.1601
-4.9982	bangkai
-4.9982	bangkok
-4.2200	bangun
-4.9982	bangunan-bangunan
-4.9982	bangunin
-4.9982	banjir
-4.9982	bank
-4.9982	bantal
-4.9982	bantalan
-3.8221	bantu	-0.1008
-4.1531	bantuan
-4.2992	bantuannya	-0.1959
-4.9982	bantuin
-4.9982	banu
-2.5298	banyak	-0.2936
-4.6972	banyak-banyak	-0.3141
-4.9982	banyak-banyaknya
-4.9982	banyakan
-4.5211	banyaknya
-4.9982	banyuasin
-4.9982	banyusari
-4.9982	bapa
-2.4719	bapak	-0.2758
-4.9982	bapak-bapak
-4.9982	bapak-ibu
-4.9982	bapaknya
-4.9982	bapanya
-4.9982	bapas
-4.9982	bara
-4.9982	barack
-4.3961	barang
-4.9982	barang-barang
-4.5211	barangkali
-4.9982	barangnya
-4.9982	barat
-4.9982	barata
-4.9982	bareng
-4.9982	bareng-bareng
-4.9982	barengan
-4.9982	baring
-4.9982	baringkan
-4.9982	barley
-4.9982	barnes
-4.9982	barrier
-3.2822	baru	-0.1174
-4.9982	baru-baru
-4.9982	barujari
-4.9982	barulah
-4.9982	barunya
-4.6972	barusan
-4.9982	basa
-4.2200	basah	-0.0773
-4.9982	basahi
-4.9982	basal
-4.9982	basdat
-4.9982	basecamp
-4.9982	based
-4.9982	basi
-4.9982	basic
-4.9982	basis
-4.9982	basjep
-4.9982	baswedan
-4.9982	baswey
-4.9982	batal
-4.9982	batan
-4.5211	batang	-0.1825
-3.7941	batas	-0.1544
-4.5211	batasan
-4.9982	batasan-batasan
-3.9568	batasi	-0.1829
-4.9982	baterai
-4.9982	baterainya
-4.9982	batere
-4.9982	batik
-4.9982	battery
-3.9568	batu	-0.1376
-3.4930	batuk	-0.1955
-4.2992	batuk-batuk
-4.9982	batuk-batuknya
-4.2992	batuknya	-0.1001
-3.8521	bau	-0.5459
-4.9982	baunya
-4.6972	bawa
-4.6972	bawaan
-4.9982	bawaannya
-3.1593	bawah	-0.1936
-4.9982	bawahnya
-4.9982	bawain
-4.9982	bawakan
-4.9982	bawalah
-4.0439	bawang	-0.3140
-4.9982	bawanya
-4.2200	bayam
-4.9982	bayangan
-4.9982	bayangkan
-4.0951	bayar	-0.0965
-4.9982	bayarin
-4.9982	bayarnya
-2.9896	bayi	-0.4318
-4.6972	bb
-4.9982	bbm
-4.9982	bca
-4.3961	bcg	-0.1207
-4.9982	be
-4.9982	bea
-4.9982	beasiswa
-4.9982	beb
-4.2992	beban	-0.0994
-4.9982	bebarengan
-3.6365	bebas	-0.1561
-4.6972	bebat
-4.5211	bebek
-4.9982	beberap
-2.4863	beberapa	-0.5788
-4.9982	bec
-4.9982	becanda-becanda
-4.5211	bed	-0.4599
-4.5211	beda
-4.9982	beda-beda
-3.7194	bedah	-0.3625
-4.9982	bedanya
-4.9982	bedrest
-4.1531	begadang
-4.9982	begah
-3.9190	begini	-0.2829
-2.9568	begitu	-0.2893
-4.9982	behcet
-3.1290	behel	-0.5521
-4.9982	behelnya
-4.6972	bejo
-4.9982	bekal
-4.1531	bekas	-1.9996
-4.9982	bekasi
-3.5832	bekerja	-0.1467
-4.9982	bekerjamasama
-4.9982	bekerjanya
-4.9982	bekerjasama
-4.9982	bekuan
-4.9982	bela
-4.3961	belahan	-0.1250
-4.9982	belajar
-3.5668	belakang	-0.1514
-3.9190	belakangan	-0.7774
-4.9982	belakangnya
-4.9982	belanda
-4.9982	belanja
-4.9982	belanjaannya
-3.2273	belas	-0.2916
-4.9982	belasan
-4.9982	belerang
-4.9982	belfast
-4.3961	beli	-0.1278
-4.0439	beliau
-4.9982	beliin
-4.9982	belikat
-4.9982	belinya
-4.9982	belitung
-4.5211	belok	-0.1825
-4.9982	belom
-3.0159	belum	-0.1974
-4.9982	belut
-3.8842	benang	-0.3271
-3.2500	benar	-0.2416
-3.8521	benar-benar	-0.0328
-4.9982	benaran
-4.9982	benarkah
-4.9982	benarnya
-4.9982	bencana
-3.9568	benda	-0.3406
-4.9982	bendahara
-4.3961	bener	-0.0971
-4.6972	bener-bener
-4.9982	beneran
-4.9982	benerin
-4.9982	benerinnya
-3.2500	bengkak	-0.3061
-4.3961	bengkaknya	-0.2897
-4.9982	bengkelnya
-4.6972	bengkok
-4.9982	bengong
-4.3961	bening	-0.1293
-3.9190	benjolan	-0.0378
-4.9982	benjolannya
-4.9982	bensin
-4.9982	bentar
-4.5211	benteng
-4.9982	bentol
-4.9982	bentol-bentol
-4.6972	bentolnya	-0.3138
-4.9982	bentrok
-3.4071	bentuk	-0.1208
-4.3961	bentuknya
-4.5211	benturan
-4.5211	benzene	-0.1801
-4.9982	benzoat
-4.9982	benzocaine
-4.9982	benzokain
-4.9982	bepergian
-4.9982	ber
-4.9982	ber-ac
-4.9982	ber\302\255konsentrasi
-3.8842	beracun	-0.1805
-3.5211	berada	-0.8718
-4.9982	beradaptasi
-3.9568	beragam	-0.1359
-4.5211	berair
-4.2992	berakhir	-0.0916
-4.9982	berakhirnya
-4.6972	berakibat
-4.9982	beraksi
-4.6972	beraktifitas
-4.1531	beraktivitas
-4.9982	beralasan
-4.9982	beralih
-3.9190	beralkohol	-0.1325
-4.9982	berandalan
-4.9982	berangkat
-4.9982	berangkatnya
-4.9982	berani
-4.9982	beranjak
-4.6972	berantakan
-4.9982	berantem
-3.2423	berapa	-0.4345
-4.9982	berapaan
-4.3961	berapapun
-4.9982	berargumen
-3.3450	berarti	-0.2224
-4.6972	beras
-4.2992	berasa	-0.3912
-4.0951	berasal	-0.3120
-4.9982	berasumsi
-2.7357	berat	-0.7147
-4.5211	berati	-0.1820
-4.5211	beraturan	-0.1505
-4.9982	berawan
-3.1117	berbagai	-0.3334
-4.9982	berbagi
-4.6972	berbahan
-3.4797	berbahaya	-0.1630
-3.6002	berbaring	-0.2806
-4.9982	berbasis
-4.9982	berbatas
-4.6972	berbau
-3.6002	berbeda	-0.2256
-4.1531	berbeda-beda	-0.0690
-4.9982	berbelok
-3.9982	berbentuk	-0.1002
-3.7941	berbicara	-0.2649
-4.9982	berbincang
-4.9982	berbintik-bintik
-4.9982	berbobot
-4.9982	berbuah
-4.9982	berbuat
-4.9982	berbulan
-4.2992	berbulan-bulan
-4.3961	berbulu	-0.1293
-4.9982	berbunyi
-4.9982	berburu
-4.5211	bercak
-4.6972	bercak-bercak
-4.9982	bercampur
-4.9982	bercanda
-4.9982	bercerita
-4.9982	bercermin
-4.9982	bercita
-4.9982	berdahak
-4.0951	berdampak	-0.2755
-3.0951	berdarah	-0.2617
-4.9982	berdasar
-3.6180	berdasarkan	-0.1481
-4.9982	berdatangan
-4.5211	berdaun	-0.4598
-4.5211	berdebar
-4.9982	berdebar-debar
-4.9982	berdegup
-4.9982	berdekatan
-4.9982	berdenging
-4.0439	berdenyut	-0.1339
-4.9982	berdiam
-4.9982	berdiameter
-4.9982	berdiet
-4.0951	berdiri	-0.1901
-4.9982	berdisiplin
-4.5211	berdiskusi	-0.1789
-4.9982	berdoa
-4.9982	berdua
-4.9982	berdurasi
-4.6972	bereaksi
-4.9982	berebut
-4.9982	beredar
-4.9982	berefek
-4.9982	beregerenasi
-4.9982	berelaksasi
-4.9982	berempat
-4.3961	berenang
-4.6972	berencana	-0.3099
-4.9982	berendam
-4.9982	berenergi
-4.9982	berenti
-4.3961	beres	-0.2885
-4.9982	beres-beres
-4.9982	beresiko
-4.9982	beresin
-4.9982	beresolusi
-4.6972	berfikir	-0.3141
-4.9982	berfikiran
-4.5211	berfluoride
-4.6972	berfokus	-0.3112
-4.9982	berfrekuensi
-3.3854	berfungsi	-0.3913
-4.9982	bergabung
-4.5211	berganti	-0.1826
-4.1531	bergantung	-0.5830
-4.9982	bergaya
-3.7941	bergerak	-0.1166
-4.6972	bergerak-gerak
-4.6972	bergeser
-4.9982	bergetar
-4.0439	bergizi	-0.1126
-3.9568	berguna	-0.3398
-4.9982	berhadapan
-4.9982	berhalangan
-4.9982	berharap
-4.9982	berharapnya
-4.5211	berhari-hari
-4.2992	berhasil
-4.9982	berhati
-4.6972	berhati-hati
-3.3354	berhenti	-0.6176
-4.9982	berhentilah
-4.9982	berhitung
-4.9982	berhubung
-3.8521	berhubungan	-0.2419
-3.9982	beri	-0.1540
-4.9982	beribadah
-3.9568	berikan	-0.0412
-2.9413	berikut	-0.7261
-3.6760	berikutnya	-0.3206
-4.9982	berimbas
-4.9982	beringas
-4.9982	beringus
-4.9982	berintegrasi
-4.6972	berinteraksi	-0.3105
-4.0439	berisi	-0.0526
-4.9982	berisik
-3.4419	berisiko	-0.2089
-4.6972	berisitirahat
-3.6180	beristirahat	-0.3361
-4.9982	beristirahatlah
-4.9982	berita
-4.9982	berita-berita
-4.6972	beritahu	-0.3120
-4.9982	beritahukan
-4.9982	berjaga
-3.8521	berjalan	-0.1577
-4.3961	berjalan-jalan	-0.2920
-4.9982	berjalannya
-4.9982	berjam-jam
-4.9982	berjanji
-4.9982	berjarak
-4.9982	berjualan
-4.9982	berjuang
-4.9982	berjudul
-4.9982	berjumlah
-4.9982	berjumpa
-4.9982	berkabar
-4.9982	berkabut
-4.9982	berkadar
-4.9982	berkafein
-3.8521	berkaitan	-1.1423
-4.3961	berkala	-0.2601
-4.9982	berkali-kali
-4.9982	berkarbohidrat
-4.6972	berkat
-4.9982	berkata
-4.9982	berkata-kata
-4.9982	berkecepatan
-4.9982	berkekuatan
-4.9982	berkeliling
-4.9982	berkelompok
-4.9982	berkemah
-4.9982	berkemauan
-3.4071	berkembang	-0.3889
-4.9982	berkembangnya
-4.9982	berkemungkinan
-4.9982	berkenan
-4.9982	berkendara
-4.9982	berkepala
-4.9982	berkepanjangan
-4.9982	berkerak
-4.2200	berkeramas	-0.2717
-4.2992	berkeringat	-0.0680
-4.9982	berkerumun
-4.9982	berkesan
-4.9982	berkfaein
-4.5211	berkhasiat	-0.4555
-4.9982	berkhayal
-4.9982	berkilau
-4.9982	berkinerja
-4.9982	berkirim
-4.3961	berkisar	-0.6292
-4.9982	berkomentar
-4.9982	berkomunikasi
-4.9982	berkonsentrasi
-3.7429	berkonsultasi	-0.4742
-4.9982	berkonsultasilah
-4.9982	berkontradiksi
-4.5211	berkontraksi
-4.5211	berkontribusi
-4.9982	berkontur
-4.9982	berkualitas
-4.9982	berkulit
-4.6972	berkumpul
-3.8221	berkumur	-0.5702
-4.9982	berkumur-kumur
-4.0951	berkumurlah	-0.4497
-4.9982	berkunjung
-3.7429	berkurang	-0.2121
-4.6972	berlabel
-4.6972	berlaku
-4.9982	berlalu
-4.9982	berlangganan
-3.6365	berlangsung	-0.1690
-4.5211	berlanjut
-4.5211	berlari
-4.9982	berlarut-larut
-4.9982	berlatar
-4.9982	berlatih
-3.8521	berlebih	-0.2180
-3.2658	berlebihan	-0.2095
-4.5211	berlemak
-4.9982	berlensa
-4.6972	berlibur
-4.9982	berlilin
-4.9982	berlomba
-3.8842	berlubang	-0.2985
-4.9982	berlumur
-4.6972	bermacam
-4.9982	bermacam-macam
-4.0439	bermain	-0.2589
-4.9982	bermalas-malasan
-4.0439	bermanfaat	-0.2114
-4.9982	bermanifestasi
-4.5211	bermasalah	-0.4561
-4.3961	berminggu-minggu	-0.0971
-3.8221	berminyak	-0.0917
-4.9982	bermotor
-4.9982	bermuatan
-4.9982	bermula
-4.9982	bermunculan
-4.5211	bermutasi
-4.9982	bernada
-4.6972	bernafas
-4.2200	bernama
-4.2200	bernapas	-0.1502
-4.9982	bernapaslah
-4.9982	berniat
-4.9982	bernilai
-4.6972	bernutrisi
-4.9982	bernyanyi
-4.0951	berobat	-0.1694
-4.9982	berolaharaga
-3.3854	berolahraga	-0.3110
-4.9982	beroperasi
-4.9982	berotot
-4.9982	berpakaian
-4.9982	berpartisipasi
-4.9982	berpelat
-4.9982	berpeluang
-4.0951	berpengaruh	-0.2755
-4.9982	berpengawet
-4.9982	berpenyakit
-3.9568	berperan	-0.1993
-4.9982	berperasaan
-4.9982	berperilaku
-4.2992	berpikir	-0.1002
-4.9982	berpikiran
-4.6972	berpindah
-4.9982	berpola
-4.0439	berpotensi	-0.3524
-4.6972	berpuasa
-4.9982	berpusat
-4.1531	berputar	-0.0369
-4.9982	bersahabat
-4.0951	bersama	-0.2748
-4.9982	bersama-sama
-4.2200	bersamaan	-0.1464
-4.9982	bersamurai
-4.9982	bersandar
-4.9982	bersangkutan
-4.6972	bersantan
-4.9982	bersaudara
-4.9982	bersedia
-4.9982	bersedih
-4.6972	bersemangat	-0.3098
-4.6972	bersendawa
-3.9568	bersentuhan	-0.3105
-4.2992	bersepeda	-0.0957
-4.5211	berserat
-4.9982	bersiap-siap
-3.6760	bersifat	-0.1192
-3.7941	bersih	-0.3885
-4.9982	bersih-bersih
-4.9982	bersihin
-4.3961	bersihkan
-4.2992	bersin	-0.4069
-4.9982	bersin-bersin
-4.2992	bersisik	-0.1950
-4.5211	bersoda
-4.9982	berspekulasi
-4.9982	berstamina
-4.9982	berstandar
-4.9982	berstatus
-4.9982	bersudut
-4.6972	bersuhu
-4.9982	bersumber
-4.9982	bersyukur
-4.9982	bertaburan
-3.9982	bertahan	-0.0469
-4.2992	bertahap	-0.0680
-4.9982	bertahun-tahun
-3.9190	bertambah	-0.1480
-4.3961	bertambahnya	-0.6292
-4.9982	bertanggung
-3.8521	bertanya	-0.2056
-4.6972	bertanya-tanya
-4.9982	bertebaran
-4.6972	bertekstur
-4.9982	bertele-tele
-4.9982	bertemu
-4.9982	bertenaga
-4.9982	bertentangan
-4.9982	berteriak
-4.9982	berterima
-4.9982	bertetangga
-4.9982	bertiga
-4.9982	bertindak
-4.5211	bertugas	-0.4555
-3.9982	bertujuan	-0.9956
-4.6972	bertukar
-4.9982	bertuliskan
-4.5211	bertumbuh
-4.9982	berturut
-4.2992	berturut-turut	-0.0680
-3.8521	berubah	-0.5420
-4.9982	berubah-ubah
-4.9982	berubut
-4.9982	berujar
-4.3961	berujung	-0.1262
-4.0951	berukuran	-0.3089
-3.6002	berulang	-0.2634
-4.5211	berumur
-4.9982	berunding
-4.9982	beruntun
-4.9982	beruntung
-4.9982	beruntungnya
-3.6180	berupa	-0.1011
-4.9982	berupaya
-4.9982	berurut
-4.9982	berurutan
-4.0439	berusaha	-0.0484
-3.8221	berusia	-0.1341
-4.5211	bervariasi
-3.4667	berwarna	-0.4919
-4.9982	berwibawa
-4.9982	berwujud
-2.9854	besar	-0.1659
-4.9982	besaran
-4.9982	besaran-besaran
-4.9982	besarku
-4.6972	besarnya
-4.6972	beserta
-3.7677	besi	-0.0540
-3.8521	besok	-0.0651
-4.9982	besok-besoknya
-4.9982	besoknya
-3.8221	beta	-0.8750
-4.9982	beta-blocker
-4.9982	betapa
-4.9982	bethesda
-3.6972	betul	-0.3607
-4.9982	betulin
-4.9982	bewarna
-4.9982	biak
-4.6972	biakan	-0.3143
-4.9982	biang
-3.7941	biar	-0.2094
-4.9982	biarin
-3.9982	biarkan	-0.3167
-4.9982	bias
-3.2739	biasa	-0.3210
-4.6972	biasakan
-4.9982	biasalah
-2.7240	biasanya	-0.1999
-4.0951	biaya	-0.0599
-4.5211	biayanya
-4.6972	bibi
-2.9013	bibir	-0.9256
-4.9982	bibit
-3.8842	bicara	-0.0036
-4.9982	bicarain
-4.6972	bicarakan
-4.9982	bicaranya
-4.5211	bidan
-4.9982	bidang
-4.9982	bidangnya
-4.9982	bigram
-4.3961	bijak
-4.0439	biji	-0.0206
-4.9982	biji-
-4.3961	biji-bijian
-4.9982	bijian
-4.9982	bijinya
-4.9982	bikarbonat
-4.3961	bikin	-0.1271
-2.9048	bila	-0.2661
-3.9190	bilang	-0.1269
-3.9568	bilas	-0.5534
-3.9190	bilateral	-0.2241
-4.3961	bile
-4.6972	bilirubin
-4.9982	bimasakti
-4.9982	bimbingan
-4.9982	bimbingannya
-4.9982	binatang
-4.9982	bincang-bincang
-4.9982	biner
-4.9982	bingkai
-4.2992	bingung
-4.9982	binjai
-4.9982	bintang
-4.5211	bintik
-4.5211	bintik-bintik
-4.9982	bintiknya
-4.6972	biofeedback
-4.9982	biologi
-4.9982	biologis
-4.1531	biopsi	-0.1192
-4.9982	biopsy
-4.9982	bioskop
-4.9982	bipolar
-4.5211	bir
-4.9982	biro
-4.9982	birokrasi
-4.2200	biru	-0.0818
-4.9982	bis
-2.1373	bisa	-0.3718
-4.9982	bisa-bisa
-4.9982	bisakah
-4.9982	bisalah
-4.9982	bisanya
-4.9982	bishop
-4.6972	bising	-0.2821
-4.6972	biskuit
-4.5211	bismuth	-0.4599
-4.9982	bisnis
-4.3961	bisul
-4.9982	bit
-4.9982	bit-bit
-4.9982	bitbucket
-4.2992	bius	-0.1001
-4.9982	bka
-4.9982	bla
-4.9982	black
-4.9982	blackberry
-4.9982	bladder
-4.9982	blepharoplasty
-4.9982	blibli
-4.9982	blighted
-4.9982	blizzard
-4.9982	blm
-4.9982	blockchain
-4.9982	blog
-4.9982	blong
-4.5211	bluelight
-4.9982	blur
-4.9982	blurring
-4.9982	bmkg
-4.9982	bo
-4.9982	board
-4.9982	boba
-4.9982	boba-boba
-4.5211	bobi	-0.1505
-4.9982	bobo
-4.6972	bobot
-4.9982	bobotnya
-4.9982	bocah
-4.5211	bocor
-4.9982	bocornya
-4.9982	bodohnya
-4.5211	bodrek
-4.9982	bodrex
-4.9982	body
-4.5211	boga	-0.4599
-4.9982	bogor
-4.9982	bohong
-4.9982	boi
-4.6972	bokong
-4.9982	boks
-4.5211	bola	-0.4595
-4.9982	bolak-balik
-4.9982	bole
-4.9982	bole-bole
-4.9982	bolee
-3.0739	boleh	-0.2059
-4.9982	boleh-boleh
-4.9982	bolehkah
-4.9982	bolehtahu
-4.5211	bolong
-4.9982	bom
-4.9982	bombastis
-4.9982	bonus
-4.9982	book
-4.9982	booking
-4.9982	bookmyshow
-4.9982	borju
-4.9982	borma
-4.9982	boros
-4.9982	bos
-4.9982	bosan
-4.6972	bosen
-4.9982	bosscha
-4.9982	bot
-4.9982	botnya
-4.5211	botol	-0.1825
-4.9982	bpbd
-3.7941	bpjs	-0.0945
-4.9982	bpkdd
-4.9982	bpnpb
-4.9982	bppv
-4.2200	braces	-0.1395
-4.3961	bracket	-0.2806
-4.9982	bramantyo
-4.9982	branding
-4.9982	breakdown
-4.9982	bri
-4.9982	brightening
-4.9982	brikut
-4.9982	bro
-4.9982	broadcast
-4.6972	brokoli	-0.3057
-4.9982	bromelain
-4.9982	bromo
-4.5211	bronkial	-0.1505
-4.9982	bronkitis
-4.9982	brown
-4.9982	browser
-4.9982	brt
-4.9982	bsc-a
-4.9982	btw
-3.0791	bu	-0.5033
-3.2822	buah	-0.3282
-4.9982	buah-buah
-3.8521	buah-buahan	-0.1288
-4.9982	buahnya
-3.4184	buang	-1.2779
-3.7194	buat	-0.1013
-4.5211	buatan	-0.1505
-4.9982	buatin
-4.3961	buatkan	-0.1293
-4.6972	buatlah
-4.2992	buaya
-4.9982	bubar
-4.5211	bubuk	-0.1826
-4.9982	bubur
-4.6972	buccal
-4.6972	buccinator
-4.9982	bud
-4.9982	budaya
-4.9982	budgetnya
-3.8842	budi	-0.1817
-4.9982	budiman
-4.9982	bujet
-3.9982	buka	-0.3116
-4.9982	bukaan
-4.9982	bukain
-4.9982	bukalapak
-3.2423	bukan	-0.1764
-4.9982	bukankah
-4.1531	bukanlah
-4.6972	bukannya
-4.9982	bukanya
-4.9982	bukit
-4.9982	bukittinggi
-4.9982	buklet
-4.3961	bukti	-0.2920
-4.9982	buku
-4.9982	bukunya
-3.2739	bulan	-0.1669
-4.9982	bulan-bulan
-4.9982	bulanan
-4.9982	bulanannya
-4.6972	bulannya	-0.2821
-4.6972	bulat
-3.8521	bulu	-0.0364
-4.9982	bumbu
-4.9982	bumbunya
-4.9982	bumi
-3.5668	bunda	-0.0906
-4.9982	bundaran
-4.5211	bunga
-4.9982	bunganya
-4.9982	bungkus
-4.9982	bungkusan
-4.9982	bungkusin
-4.9982	bungkuslah
-4.0439	buntu	-0.0744
-4.9982	buntut
-4.9982	bunuh
-4.9982	bunyi
-4.9982	bupati
-4.9982	burger
-4.6972	buru-buru
-4.9982	buruan
-3.5211	buruk	-0.1783
-4.2992	buruknya
-4.9982	burung
-4.9982	bus
-4.9982	business
-4.9982	busuk
-4.9982	busway
-4.6972	buta	-0.3141
-4.9982	butir
-4.3961	butuh
-4.6972	butuhkan
-4.9982	by
-4.9982	bye
-4.9982	byte
-3.6365	c	-0.1681
-4.9982	cabai
-4.9982	cabang
-4.9982	cabut
-4.5211	cacar
-3.9982	cacat	-0.1587
-4.6972	cacing
-4.3961	cadangan	-0.1292
-4.9982	cadel
-3.9568	cahaya	-0.1301
-4.9982	cahayanya
-4.1531	cair	-0.1104
-3.3169	cairan	-0.2000
-4.9982	calon
-4.6972	campak
-4.9982	camping
-4.9982	campur
-4.1531	campuran	-0.1379
-4.1531	campurkan	-0.3790
-4.6972	campurkanlah
-4.9982	can
-4.9982	canal
-4.9982	candela
-4.9982	candi
-4.9982	candida
-4.9982	candu
-4.9982	canggih
-4.9982	canggihnya
-4.9982	cangkir
-4.9982	cangkirnya
-4.9982	canker
-4.9982	cantik
-4.9982	cantiknya
-4.9982	canvas
-4.6972	cap	-0.2821
-4.9982	capa
-4.9982	capcay
-4.9982	cape
-4.9982	capek
-4.6972	cappucino
-4.6972	captropil	-0.3131
-2.7194	cara	-0.4332
-4.6972	cara-cara
-3.8221	caranya	-0.0300
-4.3961	cari
-4.9982	carilah
-4.9982	case
-4.3961	cat	-0.1293
-4.6972	catat
-4.5211	catatan
-4.9982	catet
-4.9982	catur
-4.9982	caturnya
-4.9982	cbt
-4.9982	cece
-4.9982	ceceku
-3.2906	cedera	-0.1833
-4.9982	cegukan
-3.3080	cek	-0.4564
-3.7194	celah	-0.2203
-4.6972	celana
-4.9982	celananya
-4.2200	celcius	-0.4012
-4.5211	celiac
-4.9982	celsius
-4.2200	cemas	-0.1715
-4.9982	cemburu
-4.6972	cemilan	-0.3139
-4.9982	cenderawasih
-3.7429	cenderung	-0.0790
-4.9982	cengeng
-4.0951	cengkeh	-0.0277
-4.9982	center
-4.9982	centered
-4.6972	centers	-0.3143
-4.9982	centi
-4.9982	centimeter
-4.9982	ceo
-3.1988	cepat	-0.2797
-4.9982	cepat-cepat
-4.3961	cepet	-0.1290
-4.9982	cerah
-4.6972	ceramic	-0.3143
-4.9982	cerdas
-4.5211	cerita	-0.4596
-4.9982	ceritain
-4.9982	ceritakan
-4.9982	ceritanya
-4.9982	cermat
-4.9982	cermin
-4.9982	cerminan
-4.2992	cerna
-4.6972	cerutu
-4.9982	cetakan
-4.9982	cewa
-4.9982	cewe
-4.9982	cewek
-4.6972	cgm
-4.1531	chamomile
-4.9982	change
-4.9982	changing
-4.9982	channel
-4.9982	channels
-4.9982	chaos
-4.9982	charada
-4.9982	chat
-4.9982	chatbot
-4.9982	chatbotnya
-4.9982	chatime
-4.9982	chatnya
-4.9982	chatting
-4.3961	check	-0.6294
-4.9982	chef
-4.9982	chefnya
-4.9982	cheilitis
-4.9982	chicken
-4.6972	chikungunya
-4.9982	chlorhexidine
-4.6972	cholesterol
-4.6972	chorda	-0.3143
-4.9982	choricarcinoma
-4.9982	chorionic
-4.9982	ci
-4.9982	cia
-4.9982	cicis
-4.3961	cidera
-4.9982	ciliwung
-3.9982	cincin	-0.1593
-4.9982	cinematic
-4.9982	cinematicnya
-4.9982	cinnamaldehyde
-4.9982	cipali
-4.9982	cipratan
-4.9982	cipto
-4.9982	ciri
-3.8521	ciri-ciri	-1.1586
-4.9982	ciri-cirinya
-4.9982	cirta
-4.9982	cisitu
-4.9982	cita
-4.9982	cita-cita
-4.9982	citra
-4.9982	citra-citra
-4.9982	citranya
-4.9982	cium
-4.9982	ciwalk
-4.9982	clipping
-4.9982	clotrimazole
-4.9982	cloud
-3.9982	cluster	-0.0625
-4.9982	clustering
-4.5211	cm	-0.1505
-4.5211	cn	-0.1827
-4.9982	co
-3.5832	coba	-0.0944
-4.9982	cobain
-4.9982	cobainnya
-3.8521	cobalah	-0.1327
-4.9982	coca-cola
-4.9982	coco
-3.9568	cocok	-0.1790
-4.9982	cod
-4.9982	code
-4.9982	coffee
-3.9190	cokelat	-0.0773
-4.9982	coklat
-4.9982	columbia
-4.9982	com
-4.9982	combantrin
-4.6972	compartement	-0.3143
-4.3961	complete	-0.2601
-4.9982	computer
-4.9982	computing
-4.9982	conductornya
-4.9982	cone
-4.9982	conference
-4.9982	configuration
-4.9982	constraint
-4.9982	contact
-4.9982	contagiosum
-4.9982	container
-4.9982	continua
-4.9982	continuous
-3.9190	contoh	-0.0386
-4.9982	contoh-contoh
-4.9982	contoh-contohnya
-4.9982	contohkan
-3.8842	contohnya	-0.0388
-4.9982	contrast
-4.6972	control	-0.3143
-4.9982	controller
-4.3961	copot	-0.0971
-4.9982	copy
-4.9982	corgi
-4.9982	corner
-4.9982	correction
-4.9982	cowo
-4.9982	cowok
-4.9982	cowoknya
-4.9982	cpr
-4.6972	cradle	-0.3143
-4.9982	craniofacial
-4.9982	crash
-4.0951	craving	-0.0898
-4.9982	crcs
-4.5211	cream
-4.6972	crohn
-4.9982	crown
-4.6972	cruris
-4.9982	css
-4.9982	csw
-3.4071	ct	-0.3141
-4.9982	ct-scan
-4.9982	ctim
-4.9982	cuaca
-4.9982	cuacanya
-4.9982	cubit
-4.9982	cuci
-4.9982	cui
-3.9982	cuka	-0.1587
-4.9982	cukainya
-2.8743	cukup	-0.2610
-4.3961	cukupi	-0.2922
-4.9982	cukupkan
-3.8221	cuma	-0.0639
-4.9982	cuman
-4.9982	cumi
-4.9982	cup
-4.9982	cupu
-4.9982	curah
-4.9982	curang
-4.9982	curiga
-4.9982	custom
-4.9982	customer
-4.9982	customernya
-4.9982	cuti
-4.9982	cuy
-4.9982	cyclosporine
-4.9982	cystic
-4.1531	d	-0.2004
-4.9982	da
-3.6365	dada	-0.1518
-4.9982	dadak
-3.6365	daerah	-0.1471
-4.9982	daerah-daerah
-4.3961	daftar	-0.1278
-4.9982	dagangan
-4.9982	dagangannya
-3.3450	daging	-0.2456
-4.9982	daging-dagingan
-4.9982	dago
-4.2200	dagu	-0.1457
-4.9982	dagung
-4.6972	dah
-4.3961	dahak
-4.6972	dahaknya
-4.1531	dahi
-4.9982	dahsyat
-3.3080	dahulu	-0.3886
-4.9982	daihatsu
-2.2682	dalam	-0.3801
-4.0439	dalamnya	-0.0744
-4.9982	dalangnya
-4.9982	dalem
-4.9982	dali
-4.9982	damkar
-4.5211	damon
-3.9568	dampak	-0.3613
-4.5211	dampaknya
-4.9982	damping
-4.9982	dampingi
-1.7075	dan	-0.1441
-4.6972	dana
-4.9982	dananya
-4.9982	dandanannya
-4.9982	dangkal
-4.9982	daniel
-2.1619	dapat	-0.4522
-4.1531	dapatkan	-0.1432
-4.9982	dapatnya
-4.9982	dapet
-4.9982	dapetin
-4.9982	dapur
-4.9982	dapurnya
-2.4395	darah	-0.4214
-3.7429	darahnya	-0.2607
-2.2847	dari	-0.2791
-4.9982	darimana
-4.9982	darimanapun
-4.9982	daring
-3.5832	daripada	-0.1234
-3.7194	darurat	-0.4052
-3.9982	dasar	-0.1529
-3.9568	dasarnya	-0.0806
-4.6972	data
-4.9982	database
-4.9982	databasenya
-3.6180	datang	-0.2475
-4.9982	datangnya
-4.9982	datanya
-4.6972	datar
-4.9982	datathon
-4.9982	dateng
-4.9982	dateng-dateng
-4.9982	datengin
-4.9982	datengnya
-3.8521	daun	-0.4376
-4.9982	david
-4.9982	davin
-3.9190	daya	-0.7781
-4.9982	dayang
-4.6972	db
-3.6760	dbd	-0.0456
-4.1531	de	-0.3242
-4.9982	deadline
-4.9982	deadlinenya
-4.9982	deadliner
-4.9982	deal
-4.9982	debat
-4.9982	debatnya
-4.9982	debo
-4.3961	debu
-4.9982	deep
-4.9982	definisi
-4.9982	defisiensi
-4.9982	degradasi
-3.8521	deh	-0.2507
-4.1531	dehidrasi	-0.1104
-4.6972	dek
-3.9190	dekat	-0.0792
-4.6972	dekatnya
-4.9982	deket
-4.9982	deket-deket
-4.9982	dekongestan
-4.9982	dekorasi
-4.9982	dela
-3.3961	delapan	-0.3760
-4.9982	delay
-4.9982	delhi
-4.9982	delima
-4.5211	delivery	-0.4568
-4.9982	deliverynya
-4.6972	delusi
-3.0637	demam	-0.2657
-4.2992	demamnya	-0.0990
-4.5211	demi
-3.8521	demikian
-4.9982	demikianlah
-4.9982	demokrasi
-4.9982	demonstrasinya
-4.9982	dempet
-4.9982	denda
-4.9982	dendam
-2.0602	dengan	-0.2344
-4.9982	denganku
-4.9982	denganmu
-4.5211	dengar
-4.9982	dengarkan
-4.9982	denger
-4.9982	denger-denger
-4.9982	dengerin
-4.9982	dengerinnya
-4.9982	dengkul
-4.0951	dengue	-0.0277
-4.9982	denpasar
-4.6972	density	-0.3142
-4.9982	densus
-4.6972	dental
-4.3961	dentasol
-4.6972	dentin
-4.9982	dentistry
-4.2200	denyut	-0.8663
-3.5068	depan	-0.1915
-4.9982	depannya
-4.9982	departemen
-4.9982	departemennya
-4.9982	deployment
-4.9982	depo
-4.9982	depok
-4.0439	depresi	-0.0206
-3.8842	derajat	-0.2808
-4.9982	deras
-4.9982	derau
-4.5211	derita	-0.1801
-3.7941	dermatitis	-0.2749
-4.9982	desa
-4.9982	desain
-4.9982	desainer
-4.9982	desainnya
-4.9982	desember
-4.9982	design
-4.9982	designer
-3.6365	desiliter	-0.4331
-4.6972	desinfektan
-4.9982	desiran
-4.9982	deskripsi
-4.9982	deskripsinya
-4.9982	detail
-4.5211	detak	-0.1822
-4.1531	deteksi	-0.2492
-4.6972	deterjen	-0.3141
-4.3961	detik	-0.1290
-4.9982	detil
-4.9982	detil-detil
-4.9982	developer
-4.6972	deviasi
-4.9982	devina
-4.9982	devops
-3.6972	dewasa	-0.1073
-4.9982	dewi
-4.9982	dexamethasone
-4.6972	dgn
-4.5211	dha	-0.1741
-4.9982	dhe
-2.0061	di	-0.6874
-4.6972	di-testpack
-3.7429	dia	-0.1088
-4.2200	diabaikan	-0.1712
-3.0114	diabetes	-0.3982
-4.2200	diabetik	-0.0788
-4.9982	diabisin
-4.9982	diacak
-4.9982	diacungi
-4.9982	diadakan
-4.9982	diadakannya
-4.9982	diafragma
-4.5211	diagnosa
-3.6180	diagnosis	-0.1123
-4.5211	diagnostik
-4.9982	diagram
-4.9982	diagramnya
-4.9982	diajak
-4.9982	diajakin
-4.9982	diajar
-4.9982	diajarkan
-4.9982	diajukan
-4.0951	diakibatkan	-0.2898
-4.9982	diakses
-4.9982	diaktifkan
-4.9982	diakui
-3.3749	dialami	-0.2034
-4.9982	dialog-dialog
-4.9982	dialokasikan
-4.9982	diam
-4.9982	diamati
-4.0951	diambil	-0.1198
-4.9982	diambilnya
-4.5211	diamkan	-0.1820
-4.2200	diamputasi
-4.6972	dianalisis
-4.9982	diandalkan
-3.7677	dianggap	-0.1825
-4.1531	diangkat	-0.0369
-3.5668	dianjurkan	-0.3122
-4.6972	diantara
-3.9190	diantaranya	-0.6002
-4.9982	dianterin
-4.9982	dianugerahi
-4.9982	dianya
-4.9982	diapain
-4.9982	diaplikasikan
-4.9982	diapresiasi
-4.9982	diarahin
-4.9982	diarahkan
-3.9190	diare	-0.1939
-4.9982	diasesmen
-4.9982	diasumsikan
-4.5211	diatas
-3.8842	diatasi	-0.3100
-4.6972	diatur
-4.9982	diawal
-4.3961	diawali	-0.6256
-4.9982	diawasi
-4.9982	dibaca
-4.3961	dibagi	-0.1283
-4.9982	dibagian
-4.9982	dibagikan
-4.9982	dibahas
-4.9982	dibajak
-4.6972	dibakar
-4.9982	dibalik
-4.9982	dibalut
-4.9982	dibanding
-4.9982	dibandingin
-3.7429	dibandingkan	-0.2073
-4.9982	dibanggakan
-4.9982	dibangun
-4.2992	dibantu
-4.6972	dibarengi
-4.6972	dibasahi
-4.9982	dibasmi
-4.9982	dibatasi
-3.9568	dibawa	-0.2621
-4.9982	dibawah
-4.9982	dibawain
-4.9982	dibawakan
-4.9982	dibayar
-4.9982	dibayarkan
-4.9982	dibebasin
-4.9982	dibebat
-4.9982	dibeberapa
-4.5211	dibedakan
-4.5211	dibeli
-4.9982	dibelinya
-4.6972	dibentuk	-0.3132
-3.9982	diberi	-0.0457
-3.2822	diberikan	-0.1372
-4.9982	diberikannya
-4.9982	diberitahukan
-4.9982	diberlakukan
-4.9982	diberlikan
-4.9982	dibersihin
-3.8842	dibersihkan	-0.0720
-4.9982	dibiarin
-3.8221	dibiarkan	-0.0576
-4.9982	dibicarakan
-4.9982	dibidai
-4.9982	dibikin
-4.9982	dibilang
-4.9982	dibilas
-4.9982	dibius
-4.9982	dibius-bius
-4.9982	dibor
-4.9982	dibroadcast
-3.9982	dibuahi	-0.1468
-4.5211	dibuang
-4.2200	dibuat	-0.0774
-4.9982	dibubarkan
-4.9982	dibujuk
-4.1531	dibuka	-0.1426
-4.9982	dibuktikan
-4.9982	dibungkus
-4.9982	dibuntuti
-4.9982	diburu
-4.9982	diburu-buru
-4.9982	dibutu
-3.7194	dibutuhkan	-0.0941
-4.9982	dibutuhkannya
-4.9982	dicabut
-4.5211	dicampur
-4.9982	dicanangkan
-4.9982	dicapai
-4.9982	dicari
-4.9982	dicatat
-4.0951	dicegah	-0.2799
-4.2200	dicek
-4.9982	dicekoki
-4.6972	dicengkram	-0.3142
-4.9982	diceritain
-4.9982	diceritakan
-4.9982	dichi
-4.9982	dicintai
-4.9982	diciptakan
-4.9982	dick
-4.9982	dicky
-4.9982	dickynya
-4.9982	diclofenac
-4.6972	dicoba	-0.3100
-4.9982	dicobain
-4.9982	dicobakan
-4.9982	dicuci
-4.9982	dicukupkan
-4.9982	diculik
-4.2200	dicurigai
-4.9982	didahului
-4.6972	didalam
-4.9982	didampingi
-4.3961	didapat
-4.0951	didapatkan	-0.1232
-4.9982	didapuk
-4.9982	didasari
-4.9982	didasarkan
-4.9982	didata
-4.9982	didatangi
-4.9982	didefinisikan
-4.9982	didengar
-4.1531	diderita	-0.1099
-4.9982	didesain
-4.9982	dideskripsikan
-4.3961	dideteksi	-0.1291
-4.1531	didiagnosis	-0.0690
-4.9982	didiamkan
-4.9982	didiemin
-4.9982	didinginkan
-4.9982	didiskusikan
-4.9982	didrop
-4.2200	diduga	-0.0788
-4.6972	didukung	-0.3132
-4.9982	dieksresikan
-4.9982	diekstraksi
-4.9982	dielus-elus
-3.6180	diet	-0.0828
-4.9982	dievakuasi
-4.6972	dievaluasi	-0.3125
-4.9982	difilmkan
-4.9982	difokuskan
-4.9982	difoto
-4.9982	difungsikan
-4.9982	digabung
-4.9982	digabungin
-4.9982	digabungkan
-4.9982	digambarin
-4.6972	digandakan	-0.2821
-4.2992	diganti	-0.0964
-4.9982	digantikan
-4.3961	digaruk	-0.1284
-4.9982	digemari
-4.3961	digerakkan
-4.9982	digigit
-4.9982	diginiin
-4.9982	digit
-4.9982	digital
-4.9982	digituin
-4.2992	digoreng	-0.1838
-4.9982	digubris
-3.0488	digunakan	-0.6218
-4.9982	digunakannya
-4.9982	dih
-4.2992	dihabiskan	-0.2141
-4.6972	dihadapi
-4.9982	dihancurkan
-4.5211	diharapkan
-4.9982	diharapkannya
-4.9982	dihargai
-4.6972	diharuskan
-4.1531	dihasilkan	-0.0680
-4.2992	dihentikan	-0.1838
-4.9982	dihidupkan
-4.9982	dihilangkan
-3.9190	dihindari	-0.0492
-4.9982	dihirup
-4.9982	dihitung
-4.9982	dihubungi
-4.9982	diidentifikasi
-4.9982	diikuti
-4.9982	diilangin
-4.3961	diimbangi	-0.2885
-4.9982	diimbau
-4.9982	diimplementasiin
-4.9982	diimplementasikan
-4.9982	diindikasikan
-4.9982	diindonesiakan
-4.9982	diinfokan
-4.9982	diinformasikan
-4.2200	diingat
-4.9982	diingatkan
-4.3961	diinginkan	-0.2601
-4.9982	diinisiasikan
-4.9982	diintegrasiin
-4.2992	diiringi	-0.0964
-4.9982	diisi
-4.9982	diitungin
-4.9982	diizinkan
-4.9982	dijabarkan
-4.2992	dijadikan
-3.9190	dijaga	-0.0452
-4.5211	dijalani
-4.9982	dijalanin
-4.9982	dijalankan
-4.9982	dijalin
-4.9982	dijamin
-4.2992	dijangkau	-0.0991
-4.9982	dijauhi
-4.6972	dijawab	-0.3139
-4.9982	dijelakan
-4.9982	dijelasin
-3.8521	dijelaskan	-0.1875
-4.0439	dijual	-0.9541
-4.9982	dijuluki
-4.9982	dijumpai
-3.4797	dik	-0.8841
-4.9982	dikabarin
-4.9982	dikabulkan
-4.3961	dikaitkan	-0.6256
-4.9982	dikarantina
-3.7941	dikarenakan	-0.0588
-4.9982	dikasi
-4.5211	dikasih	-0.1812
-4.9982	dikatain
-4.0951	dikatakan
-4.9982	dikategoriin
-4.9982	dikegelapan
-4.6972	dikelilingi	-0.3132
-4.9982	dikelola
-4.9982	dikelompokan
-4.9982	dikelompokin
-4.6972	dikelompokkan	-0.3133
-4.9982	dikeluarin
-3.8842	dikeluarkan	-0.3312
-4.5211	dikeluhkan
-4.9982	dikembali
-4.9982	dikembangkan
-4.9982	dikemudikan
-4.9982	dikenakan
-3.6180	dikenal	-0.8987
-4.0951	dikenali	-0.2560
-4.9982	dikenalkan
-4.9982	dikendalikan
-4.9982	dikendarai
-4.9982	dikepung
-4.9982	dikerjain
-4.9982	dikerjakan
-4.9982	dikerok
-3.5510	diketahui	-0.1128
-4.9982	diketakui
-4.3961	dikhawatirkan
-4.9982	dikirim
-4.9982	dikirimkan
-4.3961	dikit
-4.3961	diklaim
-4.9982	diklarifikasi
-4.9982	diklasifikasi
-4.9982	diklat
-4.9982	diklofenac
-4.6972	dikombinasikan	-0.3105
-4.6972	dikompres
-4.9982	dikomunikasikan
-4.5211	dikonsultasikan	-0.1825
-3.5832	dikonsumsi	-0.1226
-4.9982	dikonsumsinya
-4.9982	dikontak
-4.2200	dikontrol	-0.2777
-4.9982	dikonversi
-4.9982	dikonversikan
-4.9982	dikopi
-4.9982	dikoreksi
-4.9982	diksi
-4.6972	dikuadratkan	-0.2821
-4.9982	dikukus
-4.9982	dikumpul
-4.9982	dikumpulin
-4.9982	dikumpulkan
-4.9982	dikumur
-4.9982	dikunci
-4.9982	dikunjungi
-4.6972	dikunyah	-0.2821
-4.9982	dikupas
-4.9982	dikurang
-4.6972	dikurangi
-4.9982	dikurangin
-4.9982	dikurangkan
-4.9982	dilain
-4.9982	dilaksanakan
-4.9982	dilakuakn
-4.9982	dilakuin
-2.7310	dilakukan	-0.4563
-4.6972	dilakukannya
-4.9982	dilakulan
-4.9982	dilalui
-4.9982	dilan
-4.9982	dilanjut
-4.9982	dilanjutin
-4.5211	dilanjutkan
-4.2992	dilansir	-0.0979
-4.9982	dilantin
-4.9982	dilaporkan
-4.5211	dilarang
-4.9982	dilatih
-4.9982	dilebur
-4.9982	dileher
-4.9982	dilekatkan
-4.9982	dilem
-4.5211	dilengkapi
-3.9568	dilepas	-0.0530
-4.5211	dilepaskan
-4.9982	diletakkan
-4.9982	dilewati
-4.9982	dilewatkan
-4.6972	diliat
-3.8221	dilihat	-0.0607
-4.9982	dilihatin
-4.6972	dilindungi	-0.3132
-4.9982	dilonggarkan
-4.9982	diluangkan
-4.9982	diluar
-4.9982	diluncurkan
-4.9982	dilupakan
-4.9982	diluruskan
-4.2200	dimakan
-4.5211	dimaksud
-4.9982	dimaksudkan
-3.8842	dimana	-0.0339
-4.5211	dimanfaatkan	-0.1821
-4.9982	dimanipulasi
-4.9982	dimarahin
-4.9982	dimas
-4.6972	dimasak
-4.9982	dimasukan
-4.9982	dimasuki
-4.9982	dimasukin
-4.6972	dimasukkan
-4.9982	dimasukkin
-4.9982	dimengerti
-4.9982	dimensi
-4.9982	dimiliki
-4.9982	dimilikinya
-4.6972	diminati
-3.8842	diminta	-0.4106
-4.9982	dimintai
-3.5668	diminum	-0.2514
-4.9982	diminumkan
-4.6972	diminumnya
-4.9982	dimodifikasi
-4.9982	dimohon
-4.9982	dimudahkan
-4.0951	dimulai	-0.2017
-4.9982	dimungkinkan
-4.9982	din
-4.9982	dinaikkan
-4.9982	dinamain
-4.9982	dinamakan
-4.9982	dinamik
-4.9982	dinda
-3.8221	dinding	-0.3475
-4.9982	dinding-dinding
-3.3547	dingin	-0.1272
-4.6972	dinginkan
-3.9982	dini	-0.1265
-4.9982	dinikmati
-4.2992	dinilai
-4.6972	dinyatakan
-3.8842	diobati	-0.0781
-4.9982	dioksida
-4.5211	diolah
-4.9982	diomongin
-4.9982	dion
-4.2200	dioperasi	-0.0496
-4.9982	dioptimasi
-4.9982	diorganisir
-4.6972	dipahami
-3.9568	dipakai	-0.1310
-4.9982	dipake
-4.9982	dipakek
-4.9982	dipaketkan
-4.9982	dipaksa
-4.9982	dipaksakan
-4.9982	dipandang
-4.6972	dipanggang
-4.9982	dipanggil
-4.9982	dipanggilnya
-4.6972	dipantau
-4.0439	dipasang	-0.1775
-4.9982	dipasarkan
-4.9982	dipastiin
-4.2992	dipastikan	-0.0998
-4.9982	dipatiukur
-4.9982	dipatuhi
-4.9982	dipause
-4.6972	dipecah
-4.9982	dipecat
-4.9982	dipelihara
-4.9982	dipencet
-4.2200	dipengaruhi	-0.4323
-4.9982	dipenuhi
-4.9982	diperbaharui
-4.5211	diperbaiki
-4.1531	diperbolehkan	-0.2375
-4.9982	diperburuk
-3.7941	dipercaya	-0.4219
-4.9982	dipercepat
-4.9982	dipergunakan
-4.0951	diperhatikan	-0.1690
-3.9190	diperiksa	-0.0916
-4.5211	diperiksakan	-0.1812
-4.9982	diperiksanya
-4.9982	diperintah
-4.6972	diperjelas
-4.9982	diperkaya
-4.9982	diperkenalkan
-4.6972	diperkirakan
-4.9982	diperlakukan
-4.9982	diperluas
-3.5211	diperlukan	-0.2373
-4.9982	dipermasalah
-4.6972	diperoleh
-4.9982	diperpanjang
-4.9982	dipersiapkan
-4.9982	dipersilahkan
-4.9982	dipersilakan
-4.9982	dipertahankan
-4.5211	dipertimbangkan
-4.6972	diperuntukkan
-4.9982	dipesan
-4.9982	dipesen
-3.8842	dipicu	-1.1128
-4.9982	dipijat
-4.9982	dipikir
-4.9982	dipikirkan
-4.9982	dipilih
-4.9982	dipimpin
-4.9982	dipindai
-4.9982	dipinjamkannya
-4.9982	diposisikan
-4.9982	dipotong
-4.9982	dipotong-potong
-4.9982	dipraktikkan
-4.9982	diprediksi
-4.0439	diproduksi	-0.2544
-4.9982	diprogram
-4.6972	diproses
-4.9982	diproyeksikan
-4.9982	dipublikasikan
-4.9982	dipukul
-4.9982	dipulangkan
-4.9982	dipungkiri
-4.9982	diraih
-4.9982	diramalin
-4.9982	diramsakan
-4.6972	dirancang
-4.9982	dirapatkan
-4.9982	dirapihin
-4.0439	dirasa	-0.0528
-4.9982	dirasakah
-3.7677	dirasakan	-0.1127
-4.2200	dirawat	-0.0775
-4.6972	direbus
-4.9982	director
-4.9982	diredakan
-4.9982	direfluks
-4.9982	diregangkan
-4.9982	direkaferi
-4.6972	direkatkan
-4.9982	direkayasa
-4.5211	direkomendasikan
-4.9982	direkrut
-4.9982	direktorat
-4.9982	diremehkan
-4.5211	direncanakan
-4.2200	diresepkan	-0.1788
-4.9982	direspon
-3.0439	diri	-0.5897
-4.9982	dirimu
-4.9982	dirinci
-4.6972	dirinya
-4.9982	dirubah
-4.6972	dirujuk	-0.3128
-4.6972	dirumah
-4.9982	dirusakin
-4.9982	disadari
-4.9982	disajikan
-4.9982	disamakan
-4.5211	disambung	-0.1823
-4.6972	disambungkan	-0.3139
-4.6972	disampaikan
-4.9982	disamping
-4.6972	disana
-4.9982	disangka
-4.9982	disangka-sangka
-4.9982	disapu
-4.9982	disaranin
-3.4071	disarankan	-0.4383
-4.9982	disarankn
-4.9982	disasar
-4.9982	disayat
-4.9982	discard
-4.9982	disclaimer
-4.9982	discoid
-4.5211	disease	-0.1827
-3.0159	disebabkan	-1.0239
-4.9982	disebar
-4.9982	disebarkan
-4.9982	disebuat
-3.3080	disebut	-0.3400
-3.9982	disebutkan	-0.6859
-4.3961	disediakan	-0.1282
-4.9982	disedot
-4.9982	diseduh
-4.9982	disekitar
-4.9982	disekitarnya
-4.9982	disekrup
-4.9982	diselamatin
-4.5211	diselamatkan	-0.1505
-4.9982	diselametin
-4.9982	diselesai
-4.9982	diselesaiin
-4.9982	diselesaikan
-4.9982	diselidiki
-4.9982	diselimuti
-4.9982	diselingi
-4.9982	diselingin
-4.9982	diselipkan
-4.0951	disembuhkan	-0.0592
-4.9982	disemen
-4.9982	disengaja
-4.5211	disentuh	-0.4277
-4.9982	disepakati
-4.9982	disepelekan
-4.9982	diseragamkan
-4.2992	diserap	-0.2145
-3.4797	disertai	-0.3684
-4.9982	disesuaiin
-4.2200	disesuaikan	-0.4296
-4.9982	disetiap
-4.9982	disetrum
-4.9982	disetujui
-4.9982	disewa
-4.9982	disfungsi
-4.9982	disiapkan
-4.9982	disidik
-4.5211	disimpan
-4.9982	disimpen
-4.9982	disimpulkan
-4.6972	disinggung
-4.9982	disingkat
-4.9982	disingkirkan
-4.3961	disini
-4.9982	disinyalir
-4.6972	disiplin
-4.9982	disisipi
-4.6972	disitu
-4.9982	disk
-4.9982	diskon
-4.9982	diskon-diskon
-4.6972	diskusi
-4.9982	diskusi-diskusi
-4.5211	diskusikan	-0.4561
-4.9982	dislipidemia
-4.9982	dislokasi
-4.9982	dismenore
-4.9982	disney
-4.9982	disorder
-3.5668	dispepsia	-0.1283
-4.9982	disponsori
-4.9982	distilasi
-4.9982	distimulasi
-4.9982	distribusi
-4.9982	distributor
-4.9982	distrik
-4.9982	disubmit
-4.9982	disuguhin
-4.9982	disukai
-4.6972	disuntik	-0.3128
-4.9982	disuntikkan
-4.9982	disuru
-4.6972	disuruh
-4.9982	disusui
-4.9982	disusun
-4.6972	ditahan
-4.9982	ditakdirkan
-4.9982	ditaksir
-4.9982	ditakutkan
-3.8521	ditambah	-0.1033
-4.9982	ditambahin
-4.9982	ditambahkan
-4.9982	ditambal
-4.9982	ditambalnya
-4.9982	ditambel
-4.9982	ditampilkan
-4.9982	ditampung
-4.9982	ditanam
-4.9982	ditanamkan
-4.9982	ditanda
-3.7194	ditandai	-1.2750
-4.9982	ditandatangan
-3.4930	ditangani	-0.2651
-4.9982	ditanggapi
-4.9982	ditanggulangi
-4.5211	ditanggung	-0.1816
-4.9982	ditangkal
-4.9982	ditangkap
-4.6972	ditanya	-0.3137
-4.9982	ditanyain
-4.0439	ditanyakan	-0.1108
-4.9982	ditargetkan
-4.9982	ditarik
-4.9982	ditaruh
-4.9982	ditawarkan
-4.6972	ditegakkan
-4.9982	ditegangin
-4.0951	ditekan	-0.0898
-4.6972	diteliti	-0.3125
-4.9982	ditempatin
-4.6972	ditempatkan
-4.9982	ditempel
-4.9982	ditempelkan
-4.9982	ditempuh
-4.6972	ditemui
-3.4667	ditemukan	-0.3357
-4.9982	ditemukannya
-4.9982	ditenangkan
-4.9982	ditengarai
-4.9982	ditentuin
-4.1531	ditentukan	-0.1493
-4.9982	ditentukannya
-4.9982	diterapkan
-4.9982	diterima
-4.9982	diterusin
-4.9982	diteruskan
-4.9982	dites
-4.9982	ditetapkan
-4.6972	ditimbulkan
-4.9982	ditimbulkannya
-4.9982	ditindaklanjuti
-4.9982	ditiruin
-4.9982	ditolak
-4.9982	ditoleransi
-4.9982	ditolongin
-4.9982	ditonjolkan
-4.9982	ditonton
-4.9982	ditopang
-4.9982	ditrain
-4.9982	ditraktir
-4.9982	ditugaskan
-4.6972	ditujukan
-4.9982	ditujunya
-4.9982	ditukar
-4.9982	ditukarkan
-4.5211	ditularkan	-0.1824
-4.9982	ditulis
-4.9982	dituliskan
-4.6972	ditumbuhi	-0.3142
-4.9982	ditunda
-4.9982	ditunda-tunda
-4.9982	ditunggu
-4.3961	ditunjang	-0.6283
-4.9982	ditunjuk
-4.9982	ditunjukkan
-4.9982	diturunin
-3.9982	diturunkan	-0.0976
-4.3961	ditusuk	-0.1262
-4.9982	ditususu
-4.5211	ditutup
-4.9982	ditutupi
-4.6972	diubah
-4.6972	diukur
-4.9982	diulang
-4.6972	diulangi	-0.3112
-4.9982	diumumkan
-4.9982	diunduh
-4.9982	diundur
-4.9982	diunggah
-4.9982	diupdate
-4.5211	diuretik
-4.9982	diurus
-4.9982	diurusnya
-4.9982	diusahakan
-4.9982	diusulkan
-4.9982	divaksin
-4.9982	divalidasi
-4.9982	divertikulitis
-4.9982	diving
-4.9982	divisi
-4.9982	divisi-divisi
-4.9982	divisinya
-4.9982	divonis
-4.9982	diwakili
-4.6972	diwaspadai
-4.3961	diyakini
-4.9982	dki
-4.9982	dkv
-4.1531	dl	-0.3061
-4.9982	dlapan
-4.5211	dll	-0.1505
-4.0439	dna	-0.0525
-4.9982	do
-4.9982	doa
-4.9982	doain
-4.6972	doang
-4.9982	docker
-2.1475	dok	-0.6674
-4.6972	doksaya
-2.2723	dokter	-0.6328
-4.2200	dokternya
-4.9982	dokumen
-4.9982	dokumentasi
-4.9982	dokumentasinya
-4.9982	dolar
-4.9982	dollar
-4.9982	domain
-4.9982	domainnya
-4.9982	dominan
-4.9982	domino
-4.9982	dompet
-4.9982	dompetnya
-4.6972	dong	-0.3112
-4.9982	donk
-4.9982	dont
-4.6972	dopamin
-4.9982	dopaminergik
-4.9982	doraemon
-4.9982	dorongan
-4.9982	dosen
-4.9982	dosennya
-3.7941	dosis	-0.2397
-4.6972	dosisnya
-4.9982	doswal
-4.9982	dot
-4.6972	doxycycline
-4.9982	dp
-4.9982	dpal
-4.9982	dprd
-4.9982	dpt
-4.9982	dr
-4.9982	draf
-4.9982	draft
-4.9982	dragon
-4.9982	drainase
-4.9982	drakor
-4.9982	drama
-4.2992	drastis	-0.1838
-4.9982	drive
-4.9982	drivernya
-4.9982	drop
-4.9982	droplet
-4.9982	drugs
-4.9982	dry
-4.9982	ds
-4.9982	dsdm
-4.9982	dsngan
-4.9982	dst
-4.2200	dtp	-0.0817
-2.5541	dua	-0.6465
-4.9982	dua-delapan
-4.6972	dua-duanya
-4.9982	dua-empat
-4.6972	duanya
-4.9982	duapertiga
-4.9982	duar
-4.9982	dubur
-3.6558	duduk	-0.2697
-4.6972	duduknya
-4.9982	duga
-4.6972	dugaan
-4.9982	duh
-4.9982	duit
-4.9982	duitnya
-4.6972	duka
-4.3961	dukungan	-0.2901
-3.0791	dulu	-0.2339
-4.9982	duluan
-4.9982	dulunya
-4.5211	dunia
-4.9982	duplikat
-4.5211	durasi
-4.9982	durasinya
-4.9982	duri
-4.9982	durian
-4.9982	dwbi
-4.9982	dwimarta
-4.9982	dysgeusia
-4.0951	e	-0.0584
-4.9982	e-commerce
-4.9982	eat
-4.9982	ebook
-4.9982	eceng
-4.9982	edan
-4.9982	edi
-4.9982	edisi
-4.9982	editan
-4.9982	editing
-4.9982	edukasi
-4.9982	edukatif
-4.9982	ef
-3.2578	efek	-0.5274
-4.9982	efeknya
-3.6558	efektif	-0.1412
-4.2200	efektivitas	-0.0803
-4.9982	effort
-4.9982	efisien
-4.9982	egg
-4.6972	eh
-4.6972	ehm
-4.9982	ekologi
-4.9982	ekonomi
-4.9982	ekor
-4.9982	eksak
-4.9982	eksekusi
-4.3961	eksim	-0.3139
-4.9982	eksoserviks
-4.9982	ekspektasi
-4.9982	eksperimen
-4.9982	eksplisit
-4.9982	eksplorasi
-4.9982	eksponen
-4.9982	eksternal
-4.9982	eksteroseptor
-4.9982	ekstra
-4.9982	ekstrajos
-4.9982	ekstraksi
-4.6972	ekstraparu
-4.9982	ekstrem
-4.9982	ekstrim
-3.5832	ektopik	-0.2873
-4.9982	ektropion
-4.6972	elastisitas
-4.9982	elastisitasnya
-4.5211	elektrik
-4.9982	elektronik
-4.9982	elemen
-4.9982	elemen-elemen
-4.9982	elementer
-4.9982	elevator
-4.9982	elisa
-4.9982	ellen
-4.9982	elu
-4.9982	em
-4.6972	email
-3.8842	emang	-0.0357
-4.9982	emangnya
-4.9982	emas
-4.9982	embernya
-3.7677	embrio	-0.0506
-4.9982	embuskan
-4.9982	emm
-4.5211	emosi
-4.3961	emosional
-3.1657	empat	-0.5220
-4.9982	empat-enam
-4.9982	empatan
-4.9982	empatnya
-4.2992	empedu
-4.9982	empuk
-3.6002	enak	-0.2271
-4.9982	enak-enak
-4.5211	enakan	-0.1505
-4.9982	enaknya
-3.3261	enam	-0.4974
-4.9982	enamel
-4.9982	encer
-4.9982	encerkan
-4.9982	endgame
-4.9982	endometriosis
-4.6972	endorfin
-4.9982	endoserviks
-4.9982	endoskop
-4.6972	endoskopi
-4.9982	enem
-3.6002	energi	-0.3441
-4.9982	energik
-4.9982	energinya
-4.2992	engga	-0.2155
-3.5068	enggak	-0.2354
-4.6972	enggan
-4.9982	engineer
-4.9982	engineering
-4.9982	english
-4.9982	enhancement
-4.9982	enrollment
-4.9982	ensof
-4.9982	entah
-4.9982	entar
-4.9982	enteropati
-4.9982	entitas
-4.9982	entity
-4.9982	entropion
-4.9982	entry
-4.2200	enzim	-0.2982
-4.9982	epidural
-4.9982	epilepsi
-4.9982	episode
-4.9982	epitel
-4.9982	epoch
-4.2992	epsom
-4.9982	era
-4.6972	erat
-4.9982	ergonomis
-4.9982	ergotamine
-4.9982	erma
-4.9982	eropa
-4.9982	error
-4.9982	erythematosus
-4.0439	es	-0.2263
-4.9982	escobar
-4.9982	esei
-4.5211	esensial
-4.2992	esofagus	-0.0680
-4.6972	esok	-0.3133
-4.9982	estavet
-4.6972	estetika
-4.9982	estetis
-4.9982	estimasi
-4.5211	estrogen	-0.1505
-4.6972	etanol
-4.9982	etis
-4.9982	etoricoxib
-4.9982	eu
-4.9982	eucalyptol
-4.9982	eugenol
-4.9982	euh
-4.9982	eum
-4.9982	euro
-4.9982	euy
-4.9982	eva
-4.9982	evakuasi
-3.9982	evaluasi	-0.0471
-4.9982	event
-4.9982	evolusi
-4.3961	exertional	-0.2601
-4.9982	exfoliant
-4.9982	exhaustive
-4.9982	experience
-4.9982	expert
-4.5211	extra	-0.1827
-4.9982	f
-4.9982	fa
-4.9982	facebook
-4.9982	facto
-4.9982	fadil
-4.9982	fahri
-4.9982	fair
-4.9982	fajar
-4.9982	fakta
-4.6972	faktanya
-3.2658	faktor	-0.3747
-4.6972	faktor-faktor
-4.6972	faktornya
-4.9982	fakultas
-4.9982	faldi
-3.6972	falopi	-0.2442
-4.9982	falopinya
-4.5211	familial	-0.1827
-4.9982	familiritas
-4.9982	fantasinya
-4.9982	fantastis
-4.5211	farhun
-4.6972	faring
-4.6972	farmasi	-0.3100
-4.2992	fascia	-0.0884
-4.9982	fasciitis
-4.6972	fasciotomy
-3.7429	fase	-0.1303
-4.9982	fase-fase
-4.6972	fasenya
-4.9982	fasia
-4.1531	fasilitas
-4.9982	fasilitas-fasilitas
-4.6972	fasilitasnya
-4.9982	fast
-4.9982	fast-food
-4.1531	fatal	-0.3061
-4.9982	fathur
-4.9982	fatma
-4.9982	favorit
-4.9982	feature
-4.9982	febri
-4.9982	februari
-4.9982	febuxostat
-4.9982	feedback
-4.9982	feel
-4.9982	feeling
-4.9982	felis
-4.9982	felix
-4.9982	fenofibrate
-4.6972	fenol
-4.9982	fenolnya
-4.9982	fenomena
-4.9982	ferarri
-4.9982	ferdi
-4.9982	ferrari
-4.5211	feses
-4.9982	festival
-4.9982	ffaktor
-4.9982	fiber
-4.9982	fibrate
-4.9982	fibrosis
-4.9982	fikiran
-4.9982	fillet
-4.9982	film
-4.9982	film-film
-4.9982	filmnya
-4.9982	filtering
-4.6972	filtral
-4.9982	final
-4.9982	finlandia
-4.9982	fintech
-4.9982	first
-4.9982	fis
-3.3854	fisik	-0.1789
-4.9982	fisika
-4.9982	fisiknya
-4.9982	fisiologis
-4.0951	fisioterapi	-0.0878
-4.9982	fisis
-4.9982	fit
-4.9982	fitosterol
-4.9982	fitur
-4.9982	fitur-fitur
-4.9982	fiturnya
-4.9982	fix
-4.9982	fizi
-4.9982	flavonoid
-4.3961	flek
-4.6972	flek-flek	-0.3135
-4.9982	fleksibel
-4.9982	fleksibilitasnya
-4.9982	floss
-3.9568	flossing	-0.1300
-3.2658	flu	-0.2165
-4.9982	fluktuasi
-4.9982	fluktuatif
-4.9982	flunya
-4.9982	fluoride
-4.9982	fly
-4.2200	fobia	-0.3099
-4.3961	fokus
-3.7429	folat	-0.1269
-4.6972	foliaceus
-4.9982	folic
-4.9982	folikulitis
-4.9982	follow
-3.9982	food	-0.6989
-4.6972	for	-0.3143
-4.9982	ford
-4.9982	form
-4.9982	formal
-4.6972	formaldehyde
-4.9982	format
-4.9982	formatnya
-4.9982	formnya
-4.9982	forsyth
-4.9982	fortenur
-4.9982	forum
-4.9982	forward
-4.0439	foto	-0.2595
-4.9982	foto-foto
-4.9982	fotofobia
-4.9982	fotografi
-4.9982	fotokopi
-4.9982	founder
-4.9982	four
-4.9982	fractional
-4.9982	fraksi
-3.9568	fraktur	-0.0427
-4.9982	frame-frame
-4.0951	frekuensi	-0.1175
-4.9982	frekuensinya
-4.9982	front
-4.6972	frontal
-4.9982	frsnya
-4.9982	fruktosanya
-4.9982	frustasi
-4.9982	frustrasi
-4.5211	full	-0.4599
-4.9982	fumigan
-4.9982	fun
-4.9982	fundamentalnya
-4.9982	funding
-4.9982	fundus
-3.4667	fungsi	-0.1234
-3.9982	fungsinya	-0.1916
-4.2992	fungsional
-4.9982	fungsionalitas
-4.9982	furious
-4.9982	futsal
-4.9982	g
-3.5832	ga	-0.1305
-4.9982	gaada
-4.9982	gaak
-4.9982	gabisa
-4.6972	gaboleh
-4.9982	gabu
-4.9982	gabung
-4.3961	gabungan	-0.1270
-4.9982	gabungin
-4.9982	gabut
-4.2992	gadget	-0.0999
-4.9982	gaenak
-4.2992	gagal	-0.1001
-4.9982	gagasan
-4.9982	gajelas
-4.9982	gaji
-4.9982	gajinya
-3.4541	gak	-0.1236
-4.9982	gakkum
-4.9982	galak
-4.9982	galaksi
-4.9982	galau
-4.9982	galon
-4.9982	gama
-4.6972	gamasalah
-4.9982	gamau
-3.9568	gambar	-0.1394
-4.9982	gambaran
-4.9982	gambarnya
-4.9982	game
-4.9982	gamenya
-4.9982	gameplaynya
-4.9982	games
-4.9982	gaming
-4.9982	gamma
-4.9982	gampang
-4.2992	ganas	-0.0959
-4.9982	ganda
-4.0439	gandum	-0.1805
-4.9982	gang
-2.8107	gangguan	-0.3403
-4.9982	gangren
-4.9982	gangrene
-4.9982	ganja
-4.9982	ganteng
-4.2992	ganti
-4.9982	gantian
-4.9982	gantinya
-4.9982	ganyang
-4.0951	gapapa	-0.1257
-4.9982	gapernah
-4.9982	gara-gara
-3.4419	garam	-0.2513
-4.9982	garem
-4.9982	garingan
-3.7941	garis	-0.3633
-4.6972	garis-garis
-4.9982	garukan
-4.9982	garut
-4.2992	gas
-4.9982	gastritis
-3.9568	gastroenteritis	-0.1090
-4.9982	gastroesofageal
-4.9982	gastrologi
-4.9982	gastrosejauh
-3.6002	gatal	-0.2073
-4.3961	gatal-gatal
-4.9982	gatalnya
-4.6972	gatau
-4.9982	gataunya
-4.9982	gausa
-4.9982	gausah
-4.3961	gawat	-0.6293
-3.6558	gaya	-1.0411
-4.9982	gdp
-4.9982	gebetanmu
-4.9982	gebrakan
-4.9982	gede
-4.9982	gede-gede
-4.9982	gedean
-4.9982	gedein
-4.9982	gedung
-4.9982	geek
-4.9982	gegar
-2.6658	gejala	-0.3833
-3.6365	gejala-gejala	-0.0922
-3.6365	gejalanya	-0.2490
-4.6972	gel	-0.3139
-4.9982	gelajanya
-4.9982	gelanggang
-4.2992	gelap	-0.0916
-3.8842	gelas	-0.5110
-4.9982	geli
-4.9982	gelisah
-4.6972	gelombang
-4.9982	gelut
-4.6972	gembira	-0.2821
-4.9982	gemercik
-4.6972	gemetar
-4.9982	gemetaran
-4.9982	gemfibrozil
-4.9982	gempa
-4.9982	gempar
-4.3961	gemuk
-4.3961	gen	-0.1176
-4.9982	genangan
-4.9982	gencar
-4.9982	gencarnya
-4.9982	gencet
-4.9982	gendut
-4.9982	general
-4.6972	generasi
-4.9982	generik
-3.7677	genetik	-0.0773
-4.3961	genetis
-4.9982	geniohyoid
-4.9982	genital
-4.9982	geofisika
-4.9982	geometrik
-4.9982	geprek
-4.0439	gerak	-0.2355
-4.9982	gerak-gerak
-4.0951	gerakan	-0.0481
-4.9982	gerakannya
-4.9982	gerbang
-4.9982	gerbong
-4.9982	gercep
-4.6972	gerd
-4.9982	gereja
-4.9982	gerhana
-4.9982	gesekan
-4.9982	gesekannya
-4.6972	gestational	-0.3143
-4.9982	gestur
-4.9982	get
-4.3961	getah	-0.6294
-4.9982	ghost
-4.9982	gi
-4.9982	gif
-4.9982	giga
-2.0734	gigi	-0.5297
-4.9982	gigilah
-3.9982	giginya	-0.1746
-4.2992	gigitan	-0.1002
-4.9982	gila
-4.9982	gili
-4.9982	giliran
-3.5211	gimana	-0.2363
-4.6972	ginekolog
-3.9190	gingivitis	-0.1381
-4.6972	gingivostomatitis
-4.9982	gingsul
-4.9982	gingvitis
-4.2200	gini	-0.0496
-4.9982	ginian
-3.6972	ginjal	-0.1172
-4.9982	gio
-4.1531	gips	-0.1382
-4.9982	git
-4.9982	github
-4.9982	gitlab
-3.0791	gitu	-0.3980
-4.6972	gitu-gitu
-4.9982	gituh
-4.9982	gitulah
-3.6180	gizi	-0.1371
-4.9982	gku
-4.3961	glaukoma
-4.9982	gliserol
-4.9982	global
-4.9982	globalnya
-4.9982	glossodynia
-4.9982	glow
-3.8842	glucan	-0.2124
-4.9982	glucose
-4.9982	glukokortikoid
-4.9982	glukometer
-3.9568	glukosa	-0.1236
-4.3961	gluten
-4.9982	go-food
-4.9982	go-jek
-4.9982	goang
-4.9982	god
-4.9982	gofood
-4.9982	gojek
-4.9982	gol
-4.0951	golongan	-0.0598
-4.9982	gombalnya
-4.9982	gonadotropin
-4.9982	gondok
-4.9982	gonzales
-4.9982	google
-4.9982	googling
-4.9982	gopay
-4.9982	goreng
-4.9982	goreng-gorengan
-4.0951	gorengan	-0.0277
-4.9982	gorengnya
-3.7429	gosok	-0.7745
-4.9982	gosokan
-4.2992	gosokkan	-0.2130
-4.9982	gosoklah
-4.9982	goyang
-4.9982	gps
-4.9982	grab
-4.9982	grabfood
-4.2200	grade	-0.8655
-4.9982	graf
-4.9982	grafik
-4.9982	grafis
-4.6972	grafting
-4.6972	gram
-4.9982	gramedia
-4.9982	grand
-4.9982	granola
-4.5211	gratis
-4.6972	gravitasi
-4.9982	gray
-4.9982	grayscale
-4.9982	grebek
-4.9982	greedy
-4.9982	greenstick
-4.9982	grey
-4.9982	griya
-4.9982	grommet
-4.9982	grup
-4.9982	grupnya
-4.9982	gs-nya
-4.5211	gtn
-4.9982	gua
-4.9982	guanya
-4.9982	gubernur
-4.9982	gudan
-4.9982	gudang
-4.9982	gue
-4.9982	gugur
-2.9568	gula	-0.6457
-4.6972	gulanya
-4.9982	gulung
-3.9568	gumpalan	-0.1256
-4.6972	gumpalan-gumpalan
-4.9982	gumpalannya
-3.6760	guna	-0.1207
-3.6180	gunakan	-0.1197
-4.2200	gunakanlah
-4.9982	gunawarman
-4.9982	gundik
-4.9982	guntur
-4.9982	gunung
-4.9982	gurih
-4.9982	guru
-4.9982	guru-guru
-2.5636	gusi	-0.5499
-4.9982	gusu
-4.9982	guys
-4.9982	gym
-4.2992	h	-0.0680
-4.9982	ha
-4.9982	habibi
-4.9982	habibinya
-3.7677	habis	-0.0512
-4.9982	habisin
-4.5211	habiskan
-4.9982	habisnya
-4.9982	hackathon
-4.9982	hackaton
-4.9982	hadapi
-4.9982	hadi
-4.9982	hadiah
-4.9982	hadiahnya
-4.6972	hadir
-4.9982	haduh
-4.9982	hah
-4.9982	haha
-4.9982	hahaha
-4.9982	hahahaha
-4.9982	hai
-3.5510	haid	-0.1588
-4.9982	hailing
-4.6972	hak	-0.3096
-4.9982	hak-haknya
-2.8279	hal	-0.8468
-3.8521	hal-hal	-0.2850
-4.9982	halah
-4.9982	halaman
-4.9982	halamannya
-4.9982	halitosis
-4.9982	hallo
-4.9982	hallowen
-4.5211	halnya
-3.6365	halo	-0.4073
-4.9982	halu
-4.9982	haluluntur
-4.2200	halus
-4.6972	hambatan
-4.9982	hamburan
-4.9982	hamdi
-2.8978	hamil	-0.4204
-4.9982	hamilnya
-4.9982	hampa
-3.5068	hampir	-0.2717
-4.9982	hampiran
-4.9982	hancur
-4.9982	handphone
-4.2992	handuk	-0.1000
-4.9982	handy
-3.5211	hangat	-0.1409
-4.9982	hangus
-4.9982	hank
-4.9982	hans
-4.9982	hansnya
-4.9982	hantaman
-4.9982	hanung
-2.8552	hanya	-0.1402
-4.3961	hanyalah
-4.9982	hape
-4.5211	harap	-0.1823
-4.3961	harapan
-4.9982	harapannya
-4.9982	harapkan
-4.6972	hard	-0.3143
-4.6972	harga
-4.9982	harga-harga
-4.9982	harganya
-2.6365	hari	-0.3449
-4.6972	hari-hari
-4.2200	harian	-0.1454
-4.0951	harinya	-0.0898
-4.9982	harry
-4.9982	hartono
-2.7149	harus	-0.2422
-4.9982	haruskah
-4.9982	haruslah
-3.7429	harusnya	-0.0521
-4.9982	haryono
-3.1409	hasil	-0.4118
-3.7429	hasilnya	-0.0474
-4.9982	hasrat
-3.3169	hati	-0.0917
-4.5211	hati-hati
-4.9982	hatinya
-4.2992	haus	-0.0916
-4.9982	hawa
-4.9982	hawkeye
-4.2200	hcg
-3.4184	hdl	-0.1957
-4.9982	hdl-nya
-4.6972	headache
-4.9982	headaches
-4.9982	headline
-4.9982	health
-4.6972	heart	-0.3143
-3.8842	hebat	-0.1062
-4.9982	hebatnya
-4.9982	heboh
-4.9982	hedon
-4.9982	heh
-4.9982	hehe
-4.9982	hehehehehe
-4.9982	hei
-4.5211	helai	-0.4598
-4.5211	helicobacter	-0.4599
-4.9982	helm
-4.6972	hem
-4.9982	hemat
-4.9982	hembusan
-4.9982	hemicrania
-4.2992	hemoglobin	-0.0680
-4.6972	hemophilia
-4.2992	hendak	-0.1002
-4.9982	hendaknya
-4.9982	henri
-4.9982	henry
-4.9982	henti
-4.6972	hentikan
-4.9982	heparin
-4.5211	hepatitis
-4.2200	heran	-0.3084
-4.9982	herba
-4.2992	herbal
-4.9982	hermawan
-4.9982	heroin
-3.9982	herpes	-0.0472
-4.5211	herpetiform	-0.1505
-4.9982	herpetiformis
-4.9982	heuristik
-4.2200	hewan	-0.1720
-4.9982	hewani
-4.9982	hey
-4.9982	hi
-4.9982	hiasan
-4.9982	hibrid
-4.9982	hiburan
-4.9982	hidangan
-4.9982	hidatidosa
-4.9982	hidayat
-4.3961	hidrogen	-0.3142
-4.6972	hidrokuinon
-3.1721	hidung	-0.2373
-4.6972	hidungnya
-3.2129	hidup	-0.3707
-4.9982	hidupnya
-4.9982	hierarki
-4.9982	hifi
-4.9982	higenitas
-4.9982	high
-4.5211	high-density	-0.4598
-4.9982	high-fidelity
-4.9982	highlight
-4.9982	higienis
-4.9982	hih
-3.8521	hijau	-0.0595
-4.5211	hijaunya
-3.3961	hilang	-0.2955
-4.6972	hilang-hilang
-4.5211	hilangnya
-4.9982	himpunan
-3.3080	hindari	-0.2050
-4.9982	hindarilah
-4.9982	hindarkan
-2.8107	hingga	-0.2544
-4.9982	hiperglikemi
-4.3961	hiperglikemia
-4.6972	hiperkolesterolemia	-0.3098
-4.6972	hiperosmolar
-3.4667	hipertensi	-0.2126
-4.5211	hipertiroid	-0.1782
-4.9982	hipertiroidisme
-4.9982	hipofisis
-4.2200	hipoglikemia
-4.5211	hipotensi
-4.5211	hipotiroidisme	-0.1505
-4.9982	hiraukan
-4.9982	hire
-4.9982	hiruk-pikuk
-4.9982	hirup
-4.9982	hisap
-4.9982	histamin
-4.2992	histerektomi	-0.1001
-4.9982	histogram
-4.9982	histori
-4.9982	historis
-3.3961	hitam	-0.3499
-4.9982	hits
-4.9982	hitung
-4.5211	hitungan
-4.9982	hitz
-4.9982	hiu
-4.2992	hiv	-0.2160
-4.9982	hmif
-4.2200	hmm	-0.1706
-4.9982	hmmm
-4.6972	hobi
-4.9982	hobiku
-4.9982	hobimu
-4.9982	hong
-4.9982	honshu
-4.9982	hoo
-4.9982	hormat
-4.9982	hormati
-3.2992	hormon	-0.2021
-4.0439	hormonal	-0.0782
-4.9982	horor
-4.9982	hosting
-4.9982	hotel
-4.9982	housan
-4.6972	hp
-4.9982	hpl
-3.6760	hpv	-0.1359
-4.9982	hr
-4.9982	hrt
-4.9982	html
-3.6760	hubungan	-1.0061
-4.3961	hubungannya	-0.1255
-4.0951	hubungi	-0.8714
-4.9982	huh
-4.9982	hujan
-4.9982	hujannya
-4.9982	hukum
-4.9982	hukuman
-4.9982	hulk
-4.5211	human	-0.1827
-4.9982	humas
-4.6972	humidifier
-4.9982	hungergames
-4.9982	huruf
-4.9982	huruf-huruf
-4.9982	husk
-4.9982	hut
-4.9982	hutang
-4.9982	hydatidosa
-4.9982	hypercholesterolaemia
-4.6972	hypercholesterolemia	-0.2821
-4.9982	i
-3.8521	ia	-0.1014
-4.2200	ialah	-0.1395
-4.9982	ibarat
-4.9982	ibaratnya
-4.9982	ibs
-2.8521	ibu	-0.2764
-4.9982	ibu-ibu
-4.9982	ibukota
-4.9982	ibuku
-4.9982	ibunya
-3.9568	ibuprofen	-0.1650
-4.9982	ice
-4.9982	id
-4.9982	ida
-4.9982	idap
-4.5211	ide	-0.4482
-3.8221	ideal	-0.2988
-4.6972	idealnya
-4.9982	identification
-4.9982	identifikasi
-4.9982	identitas
-4.9982	identity
-4.9982	idenya
-4.9982	idf
-4.9982	if2211
-4.9982	if50xx
-4.9982	ig
-4.9982	iga
-4.5211	igd
-4.9982	ih
-4.9982	iit
-4.9982	ijazah
-4.9982	ijin
-4.9982	ijo
-3.5358	ikan	-0.2071
-4.5211	ikat
-4.9982	iklan
-4.2992	ikut
-4.9982	ikut-ikut
-4.9982	ikut-ikutan
-4.9982	ikutan
-4.3961	ikuti
-4.9982	ikutilah
-4.9982	ikutnya
-4.9982	ila
-4.9982	ilang
-4.9982	ilegal
-4.9982	ilham
-4.6972	ilmiah
-4.6972	ilmu
-4.9982	ilmu-ilmu
-4.9982	ilmuwan
-4.9982	ilustrasi
-4.9982	ilustrasinya
-4.9982	image
-4.9982	imagine
-4.9982	imaging
-4.9982	imajinasi
-4.9982	imajinasinya
-4.9982	imarano
-4.9982	imbangi
-4.9982	imbasnya
-4.9982	imigrasi
-4.9982	impetigo
-3.3647	implan	-0.5955
-4.3961	implantasi	-0.2915
-4.9982	implementasi
-4.9982	implementasinya
-4.9982	implisit
-4.9982	impuls
-4.2200	imt	-0.0814
-4.3961	imun	-0.2906
-4.5211	imunisasi
-4.5211	imunitas
-3.7677	inap	-0.0232
-4.9982	inapnya
-4.9982	inatentif
-4.6972	inci
-4.2992	incomplete	-0.0680
-4.9982	incredible
-4.9982	indah
-4.5211	indeks	-0.4599
-4.9982	independen
-4.6972	indera	-0.3143
-4.9982	inderamayu
-4.9982	india
-4.9982	indianya
-4.9982	indigo
-4.1531	indikasi
-4.9982	indimi
-4.9982	individu
-4.9982	indomaret
-4.0439	indonesia	-0.0206
-4.9982	indra
-4.9982	indramayu
-4.9982	industri
-2.7576	infeksi	-0.4437
-4.5211	inflamasi
-3.7429	influenza	-0.0173
-4.9982	info
-4.9982	infonya
-4.9982	informal
-3.7941	informasi	-0.1926
-4.6972	informasinya
-4.9982	informatika
-4.9982	informatikanya
-4.9982	infrastruktur
-4.3961	infus	-0.1207
-3.9982	ingat
-4.9982	ingat-ingat
-4.9982	ingatan
-4.5211	ingatkan
-4.9982	inget
-4.9982	inggris
-3.2906	ingin	-0.0914
-4.9982	inginkan
-4.9982	inginku
-4.0439	ingus	-0.0206
-4.6972	ingusnya
-4.9982	inhibitors
-1.9668	ini	-0.3894
-4.9982	ini-ini
-3.7677	inilah	-0.7416
-4.9982	inisiasi
-4.9982	inisiatif
-4.9982	injeksi
-4.9982	inkubasi
-4.9982	inkubator
-4.9982	innovation
-4.9982	inovasi
-4.9982	input
-4.9982	insektisida
-4.9982	insentif
-4.9982	insiden
-4.3961	insomnia
-4.9982	inspirasi
-4.9982	instagram
-4.6972	instalasi	-0.3143
-4.9982	install
-4.2992	instan	-0.3542
-4.9982	institut
-4.9982	institute
-4.6972	instruksi
-3.6180	insulin	-0.0996
-4.9982	insya
-4.9982	insyaallah
-4.9982	intake
-4.9982	intaran
-4.9982	integer
-4.9982	integrasi
-4.9982	integrity
-4.5211	intens
-4.9982	intensif
-4.0951	intensitas	-0.0481
-4.5211	intensitasnya
-4.9982	interaksi
-4.9982	interaksi-interaksi
-4.9982	interaktif
-4.9982	interest
-4.9982	interface
-4.9982	interior
-4.9982	interkom
-4.9982	intern
-4.3961	internal
-4.9982	internasional
-4.9982	international
-4.9982	internet
-4.9982	interproksimal
-4.9982	interupsi
-4.6972	interval
-4.9982	interview
-4.9982	inti
-4.0439	intim	-0.1305
-4.5211	intinya
-4.9982	intipin
-4.6972	intoleransi
-4.9982	intrakranial
-4.9982	intraoral
-4.9982	intrepertasi
-4.9982	introseptor
-4.9982	intuitif
-3.9982	inulin	-0.0150
-4.9982	inulinalodokter
-4.9982	invasive
-4.9982	inventaris
-4.9982	inventarisasi
-4.9982	inventorisnya
-4.9982	inventory
-4.9982	inverse
-4.9982	investasi
-4.9982	investigasi
-4.9982	investor
-4.2200	invisalign
-4.9982	involuntir
-4.9982	iodin
-4.9982	ip
-4.9982	ipa
-4.9982	iphone
-4.9982	iq
-4.9982	iqbal
-4.9982	ir
-4.9982	iri
-4.9982	irisan
-4.2200	iritan	-0.2798
-3.6972	iritasi	-0.2912
-4.6972	iritatif	-0.3098
-4.9982	iron
-4.9982	ironi
-4.9982	iseng
-4.9982	isi
-4.9982	isiin
-4.9982	isilah
-4.6972	isinya
-4.9982	isis
-4.5211	iskemia
-4.9982	iso
-4.9982	isoma
-4.9982	ispa
-4.5211	isteri	-0.4553
-4.9982	isthmus
-3.8842	istilah	-0.1017
-4.9982	istilah-istilah
-3.2992	istirahat	-0.2603
-3.9568	istri	-0.7085
-4.9982	istriku
-4.9982	istrinya
-4.9982	it
-4.9982	itb
-4.9982	item
-4.9982	iterasi
-4.9982	iteratif
-4.9982	itp
-2.3373	itu	-0.1241
-4.9982	itu-itu
-4.9982	ituh
-4.9982	itukan
-4.2200	itulah
-4.9982	itung
-4.9982	itungannya
-4.9982	itunya
-4.9982	iu
-4.9982	iud
-4.9982	ivan
-4.6972	ivf	-0.2821
-2.7729	iya	-0.4820
-4.9982	iya-iya
-4.9982	iyaa
-4.9982	iyah
-4.9982	iyalah
-4.9982	iye
-4.2200	izin	-0.0780
-4.9982	izinkan
-4.9982	izinnya
-4.9982	j
-4.9982	jabatan
-2.6928	jadi	-0.1685
-4.9982	jadiin
-4.9982	jadikan
-4.9982	jadilah
-4.5211	jadinya
-4.5211	jadwal
-4.9982	jadwalkan
-4.9982	jadwalnya
-3.8842	jaga	-0.1171
-4.9982	jaga-jaga
-4.9982	jagalah
-4.9982	jaganya
-4.9982	jago
-4.9982	jagung
-3.5510	jahat	-0.2189
-4.9982	jahatnya
-3.6180	jahe	-0.0637
-4.9982	jahit
-4.3961	jahitan
-4.6972	jajan
-4.2992	jakarta
-4.9982	jaket
-4.6972	jaketnya	-0.3057
-3.7941	jalan	-0.1352
-4.9982	jalan-jalan
-4.9982	jalan-jalannya
-4.9982	jalanan
-4.1531	jalani	-0.0689
-4.9982	jalanin
-4.9982	jalankan
-4.9982	jalannya
-4.9982	jalu
-4.5211	jalur
-4.9982	jalurnya
-3.1174	jam	-0.2111
-4.9982	jam-an
-4.6972	jam-jam
-4.9982	jaman
-4.9982	jambangan
-3.9190	jambu	-0.4406
-4.9982	jamin
-4.9982	jaminan
-4.9982	jamnya
-4.6972	jamu
-3.4419	jamur	-0.1948
-2.9812	jangan	-0.3121
-4.9982	janganlah
-4.9982	janggal
-3.8221	jangka	-0.5771
-4.9982	jangkauan
-3.5068	janin	-0.2879
-4.6972	janinnya
-4.6972	janji	-0.3143
-4.9982	janjian
-3.0114	jantung	-0.4070
-4.9982	jantungnya
-4.9982	januari
-4.0439	jarak	-0.0527
-4.9982	jaraknya
-3.4797	jarang	-0.2601
-4.9982	jarang-jarang
-3.9190	jari	-0.1172
-4.9982	jari-jari
-3.0159	jaringan	-0.3463
-4.6972	jaringan-jaringan
-4.6972	jaringannya	-0.3134
-3.9190	jarum	-0.1652
-4.9982	jarum-jarum
-4.9982	jasa
-4.9982	jasad
-4.9982	jasanya
-4.9982	jason
-4.9982	jatim
-4.9982	jatinegara
-4.9982	jato
-3.9982	jatuh	-0.0925
-4.9982	jatuhi
-4.9982	jatuhnya
-3.8221	jauh	-0.1341
-4.9982	jauh-jauh
-4.9982	jauhi
-4.6972	jauhkan
-4.9982	jawa
-4.5211	jawab
-4.5211	jawaban	-0.1804
-4.1531	jawabannya	-0.0369
-4.9982	jawabnya
-4.9982	jaya
-4.9982	jayapura
-4.9982	jebol
-4.9982	jeda
-4.9982	jejak
-4.9982	jeje
-4.9982	jelajahi
-4.9982	jelang
-3.5668	jelas	-0.1190
-4.9982	jelasin
-4.2992	jelaskan
-4.9982	jelaslah
-4.9982	jelasnya
-4.9982	jelek
-4.9982	jeli
-4.9982	jem
-4.9982	jembatan
-4.6972	jempol	-0.3141
-4.9982	jemput
-4.9982	jemur
-4.9982	jen
-4.9982	jenasah
-4.9982	jenazah
-4.9982	jendela
-4.9982	jendelanya
-4.9982	jenderal
-4.9982	jendral
-4.9982	jenguk
-2.7703	jenis	-0.2474
-4.3961	jenis-jenis
-4.2992	jenisnya
-4.9982	jenius
-4.9982	jenjang
-3.7677	jenuh	-0.1331
-4.9982	jepang
-4.9982	jepit
-4.6972	jerawat
-4.9982	jerit
-4.9982	jerman
-4.6972	jernih
-4.2200	jeroan
-3.6180	jeruk	-0.1395
-4.9982	jessin
-4.9982	jessy
-4.6972	jg
-4.9982	ji
-4.5211	jidat
-2.4419	jika	-0.2924
-4.9982	jinak
-4.9982	jingga
-4.9982	jipeg
-4.9982	jitu
-4.6972	jiwa
-4.9982	jknkis
-4.9982	jo
-4.9982	job
-4.9982	jobdesc
-4.9982	jobdesk
-4.9982	joget
-4.9982	jogging
-4.9982	joging
-4.9982	jogja
-4.9982	joker
-4.9982	joko
-4.9982	jokowi
-4.9982	jones
-4.9982	joni
-4.9982	jorok
-4.9982	josep
-4.6972	joss
-4.9982	jossnya
-4.9982	journal
-4.9982	jual
-4.9982	jualan
-4.9982	jualnya
-4.9982	juanda
-4.9982	juara
-4.9982	judul
-4.9982	judulnya
-2.2303	juga	-0.3038
-4.5211	jujur	-0.1819
-4.9982	juli
-4.9982	juling
-4.9982	julitin
-4.9982	jumat
-4.9982	jumatnya
-4.9982	juminten
-3.3854	jumlah	-0.2382
-4.9982	jumlahkan
-4.2200	jumlahnya	-0.0816
-4.5211	jumpa	-0.1505
-4.6972	jumpai
-4.9982	juni
-4.6972	junk	-0.3142
-4.9982	jurang
-4.6972	juru	-0.3143
-4.9982	jurusan
-4.2200	jus	-0.1824
-4.9982	just
-3.8221	justru	-0.0298
-4.9982	justus
-4.5211	juta
-4.9982	jutaan
-4.1531	k	-0.0605
-4.9982	ka
-4.3961	kabar	-0.1293
-4.9982	kabar-kabarin
-4.9982	kabari
-4.9982	kabarin
-4.9982	kabarmu
-4.5211	kabarnya	-0.1825
-4.9982	kabupaten
-4.3961	kabur
-4.9982	kaca
-3.9568	kacamata	-0.0310
-4.9982	kacamatanya
-3.8221	kacang	-0.1736
-4.0439	kacang-kacangan	-0.0980
-4.9982	kacau
-4.9982	kadaluwarsa
-3.5668	kadang	-0.1018
-3.9982	kadang-kadang	-0.0933
-2.7334	kadar	-0.8893
-4.2992	kadarnya	-0.2258
-4.9982	kader
-4.9982	kaderisasi
-4.9982	kadivnya
-4.9982	kadmium
-4.9982	kadmiun
-4.9982	kado
-4.9982	kafe
-3.9190	kafein	-0.3420
-4.9982	kaga
-4.9982	kaget
-4.9982	kagum
-4.9982	kah
-4.9982	kahfi
-4.5211	kain
-4.9982	kaitan
-4.9982	kaitannya
-4.6972	kak	-0.2821
-4.6972	kakak
-4.9982	kakaktua
-4.9982	kakap
-4.9982	kakas
-4.2200	kakek	-0.4887
-4.9982	kakek-kakek
-3.3169	kaki	-0.2320
-4.9982	kakiku
-4.6972	kakinya
-4.3961	kaku	-0.2837
-4.9982	kala
-4.9982	kalah
-4.9982	kalangan
-4.9982	kalanya
-2.7781	kalau	-0.2877
-4.9982	kalaupun
-4.9982	kaldu
-4.9982	kalender
-3.0391	kali	-0.3844
-4.9982	kalian
-4.9982	kalibaru
-4.9982	kalibr
-4.9982	kalimat
-4.9982	kalimatnya
-4.9982	kalingga
-4.5211	kalinya
-4.6972	kalium
-4.9982	kalkulator
-4.6972	kalkulus
-4.9982	kalkun
-3.2992	kalo	-0.1192
-3.6002	kalori	-0.2292
-4.9982	kalorinya
-4.2200	kalsium	-0.0774
-4.0439	kamar	-0.1748
-4.9982	kamarnya
-4.9982	kambing
-3.8221	kambuh	-0.0963
-4.9982	kame
-4.9982	kamera
-4.9982	kameramen
-4.9982	kamfer
-3.4541	kami	-0.1786
-4.9982	kamil
-4.9982	kamis
-4.9982	kampung
-4.9982	kampungnya
-4.6972	kampus
-3.0026	kamu	-0.1355
-4.9982	kamus
-3.4797	kan	-0.1556
-4.6972	kanak-kanak
-4.9982	kanal
-3.6365	kanan	-0.2687
-4.9982	kanannya
-4.9982	kanban
-4.9982	kandidat
-4.9982	kandidat-kandidat
-4.9982	kandidatnya
-3.8521	kandung	-0.6689
-2.9812	kandungan	-0.2005
-4.6972	kandungannya
-4.9982	kangen
-4.9982	kangguru
-4.9982	kangkung
-2.9048	kanker	-0.3842
-4.9982	kantin
-3.9568	kantong	-0.1957
-4.0439	kantor	-0.1070
-4.9982	kantoran
-4.2992	kantung
-4.9982	kanvas
-4.9982	kaos
-4.9982	kaosnya
-4.9982	kap
-4.9982	kapal
-3.5068	kapan	-0.1697
-4.9982	kapan-kapan
-4.9982	kapanpun
-4.6972	kapas
-4.9982	kapasitas
-4.9982	kaplet
-4.9982	kapnya
-4.9982	kapok
-4.9982	kapolres
-4.6972	kapsul
-4.9982	kapten
-4.9982	kaptropil
-4.9982	kapur
-4.9982	karakter
-4.6972	karakteristik
-4.9982	karakteristiknya
-4.0439	karang	-0.9506
-4.9982	karangan
-4.9982	karaoke
-4.9982	karaokenya
-4.6972	karat
-4.9982	karbo
-3.8221	karbohidrat	-0.0223
-4.0439	karbon	-0.9542
-4.9982	karbonasi
-4.2992	kardiovaskular
-2.4744	karena	-0.2115
-4.3961	karenanya
-4.2992	karet
-4.9982	karetnya
-4.9982	karies
-4.9982	karisma
-4.9982	karna
-4.9982	karoten
-4.9982	karsidi
-3.9568	karsinogen	-0.0934
-4.9982	karsinogenik
-4.6972	karsinoma	-0.3140
-4.0439	kartu	-0.3543
-4.9982	kartun
-4.9982	karung
-4.9982	karya
-4.9982	karya-karya
-4.9982	karyawan
-4.9982	karyawan-karyawan
-4.9982	kas
-4.9982	kasa
-4.2992	kasar
-4.9982	kasat
-4.9982	kasi
-4.9982	kasian
-3.0251	kasih	-0.7286
-4.9982	kasihan
-4.3961	kasir	-0.1291
-4.9982	kasubdit
-4.3961	kasur	-0.2876
-3.4667	kasus	-0.0980
-4.6972	kasus-kasus
-4.6972	kasusnya
-4.1531	kata	-0.0683
-4.9982	kata-kata
-4.9982	kata-katanya
-4.9982	katakan
-4.6972	katakanlah	-0.3143
-4.9982	katalis
-4.2992	katanya
-4.9982	kategori
-4.9982	kategorinya
-4.5211	katekol
-4.9982	kateter
-4.9982	katsu
-3.7429	katup	-0.2552
-4.9982	kau
-4.5211	kaum
-4.9982	kawah
-4.9982	kawan-kawannya
-4.9982	kawasan
-4.0439	kawat	-0.9217
-4.9982	kawatir
-3.4930	kaya	-0.0846
-3.5358	kayak	-0.1371
-4.0439	kayaknya
-3.9568	kayanya	-0.0427
-4.3961	kayu	-0.1207
-3.9982	kb	-0.3167
-4.9982	kbs
-2.4591	ke	-0.5359
-4.9982	ke-empat
-4.9982	ke-enam
-4.9982	ke-lima
-4.9982	keabuan
-3.8221	keadaan	-0.0590
-4.3961	keadaannya	-0.0971
-4.9982	keadilan
-4.9982	keakraban
-4.9982	keamanan
-4.9982	keamanannya
-4.9982	keanggotaan
-4.6972	keasaman
-4.9982	keatas
-4.9982	kebaca
-4.9982	kebagian
-4.9982	kebakaran
-4.9982	kebaktian
-4.9982	kebal
-4.6972	kebalikan	-0.3120
-4.9982	kebanggannya
-4.9982	kebangun
-3.7941	kebanyakan	-0.4144
-4.9982	kebas
-4.9982	kebayang
-4.9982	kebebasan
-4.5211	kebelakangan
-4.9982	kebeneran
-4.9982	kebengkakan
-4.6972	keberadaan
-4.6972	keberapa
-4.9982	keberatan
-4.9982	keberhasilan
-4.9982	keberjalanan
-4.9982	keberjalanannya
-4.9982	keberlangsungan
-3.4930	kebersihan	-0.4492
-4.0951	kebetulan
-3.3647	kebiasaan	-0.2156
-4.9982	kebiasan
-4.9982	kebidanan
-4.9982	kebijakan
-4.6972	kebingungan
-4.9982	kebiruan
-4.5211	kebocoran	-0.1826
-4.9982	kebohongan
-4.9982	kebon
-4.9982	kebudayaan
-4.9982	kebugaran
-4.9982	kebuka
-4.5211	kebun
-4.5211	kebunnya
-4.9982	kebutaan
-3.6002	kebutuhan	-0.1639
-4.9982	kebutuhannya
-4.9982	kecacatan
-4.9982	kecamatan
-4.5211	kecanduan	-0.1826
-4.6972	kecantikan
-4.9982	kecantikanmu
-4.9982	kecapean
-4.6972	kecapekan	-0.3128
-4.0951	kecelakaan	-0.0595
-4.9982	kecelakaannya
-4.0951	kecemasan	-0.0923
-4.5211	kecenderungan
-4.9982	kecepatan
-4.9982	kecerahan
-4.9982	kecerdasan
-3.0739	kecil	-0.2635
-4.5211	kecil-kecil
-4.9982	kecokelatan
-4.9982	kecoklatan
-4.2200	kecuali
-4.9982	kecurigaan
-4.9982	kedalam
-4.5211	kedalaman	-0.4599
-4.9982	kedatangan
-4.2992	kedelai	-0.0680
-4.6972	kedelapan
-4.9982	kedengarannya
-4.3961	kedepan	-0.2601
-4.9982	kedepannya
-4.9982	kedinginan
-4.9982	kediri
-4.5211	kedokteran
-3.3749	kedua	-0.1411
-4.2992	keduanya
-4.9982	kedutan
-4.2992	keempat
-4.1531	keenam
-4.9982	keesokan
-4.9982	kegaduhan
-4.9982	kegagalan
-4.6972	keganasan
-4.9982	kegawatan
-4.6972	kegawatdaruratan
-4.9982	kegedean
-4.5211	kegemukan	-0.1505
-4.9982	kegesek-gesek
-3.9982	kegiatan	-0.0884
-4.9982	kegiatan-kegiatan
-4.9982	kegiatannya
-4.9982	kegugupan
-3.8221	keguguran	-0.0932
-4.9982	kegunaan
-4.9982	kehabisan
-4.6972	kehadiran
-4.9982	kehadirannya
-2.7601	kehamilan	-0.3604
-4.9982	kehamilannya
-4.9982	kehandalan
-4.9982	kehausan
-4.9982	kehebohan
-4.9982	kehidupan
-4.9982	kehidupannya
-4.6972	kehijauan	-0.2821
-3.9190	kehilangan	-0.0389
-4.6972	kehitaman
-4.9982	kehujanan
-4.9982	kehutanan
-4.9982	keindahan
-3.9190	keinginan	-0.3043
-4.9982	keinginannya
-4.9982	keisengan
-4.9982	keisi
-4.9982	keistimewaan
-4.9982	keisya
-4.5211	kejadian
-4.9982	kejadiannya
-4.9982	kejahatan
-4.9982	kejamnya
-4.3961	kejang
-4.9982	kejang-kejang
-4.9982	kejar
-4.9982	kejaran
-4.9982	kejebak
-4.9982	kejelasan
-4.9982	kejepit
-4.5211	kejiwaan
-4.2200	keju	-0.0732
-4.9982	keju-keju
-4.9982	kejujuran
-4.9982	kekalutan
-4.6972	kekambuhan
-4.9982	kekambuhannya
-4.9982	kekasih
-4.9982	kekasihnya
-3.7194	kekebalan	-1.2770
-4.9982	kekeluargaan
-4.9982	kekentalan
-4.2200	kekhawatiran	-0.0771
-4.2200	kekuatan	-0.1504
-4.9982	kekuatannya
-4.9982	kekueangan
-4.9982	kekuningan
-3.5510	kekurangan	-0.3672
-4.9982	kekurangannya
-4.1531	kelahiran	-0.2097
-4.9982	kelahirannya
-3.6365	kelainan	-0.1842
-4.9982	kelalaian
-4.6972	kelamaan
-4.9982	kelamin
-4.9982	kelancaran
-4.9982	kelanjutan
-3.8842	kelapa	-0.1544
-4.6972	kelaparan
-4.9982	kelar
-4.9982	kelarin
-4.0439	kelas	-0.1794
-4.9982	kelasnya
-4.9982	kelayakan
-4.2200	kelebihan	-0.0810
-4.9982	kelebihannya
-3.7429	kelelahan	-0.1308
-4.2992	kelemahan
-4.9982	kelemahannya
-4.9982	kelembapan
-4.9982	kelengkapan
-4.9982	kelengkeng
-3.4930	kelenjar	-0.2696
-4.9982	kelereng
-4.9982	kelewat
-4.9982	kelewatan
-4.9982	keliatan
-4.9982	keliatannya
-4.3961	kelihatan
-4.9982	kelihatannya
-4.9982	keliling
-4.5211	kelima
-4.6972	keliru
-4.6972	kelola	-0.3142
-4.9982	kelolalah
-4.3961	kelompok
-4.9982	kelompoknya
-3.4797	kelopak	-0.3138
-3.2822	keluar	-0.2066
-4.9982	keluar-keluar
-4.9982	keluaran
-3.3961	keluarga	-0.2830
-4.9982	keluargaku
-4.9982	keluarganya
-4.9982	keluarin
-4.3961	keluarkan	-0.2601
-4.5211	keluarnya	-0.1822
-4.9982	kelud
-4.9982	keluguan
-2.9688	keluhan	-0.5406
-4.1531	keluhan-keluhan	-0.1388
-4.0951	keluhannya	-0.1772
-4.9982	kelulusan
-4.6972	kelumpuhan
-3.6002	kelvin	-0.1308
-4.9982	kemacetan
-4.9982	kemah
-4.9982	kemahalan
-4.9982	kemahasiswaan
-4.9982	kemahnya
-4.6972	kemajuan
-4.9982	kemajuannya
-3.7677	kemampuan	-0.2744
-4.6972	kemampuannya	-0.3099
-4.6972	kemana
-4.9982	kemana-mana
-4.9982	kemanusiaan
-4.0951	kemaren
-3.3647	kemarin	-0.0382
-4.9982	kemasalahannya
-4.2200	kemasan	-0.0803
-4.6972	kemasukan
-3.9568	kematian	-0.4226
-3.1061	kembali	-0.2514
-4.9982	kembalikan
-4.9982	kembalinya
-4.2992	kembang
-4.9982	kembangkan
-4.9982	kembar
-4.0439	kembung	-0.0980
-4.9982	kemdikbud
-4.9982	kemeja
-4.9982	kemenangan
-4.9982	kemendikbud
-4.9982	kementerian
-4.9982	kementrian
-3.7941	kemerahan	-0.5638
-4.9982	kemerdekaan
-3.7677	kemih	-0.0627
-4.5211	kemoterapi
-4.9982	kempot
-4.9982	kemudahan
-3.1721	kemudian	-0.1229
-4.9982	kemudikan
-4.9982	kemugkinan
-4.9982	kemunculan
-3.1409	kemungkinan	-0.2031
-4.3961	kemungkinannya
-4.2992	kena
-4.1531	kenaikan	-0.1183
-4.9982	kenakan
-4.9982	kenal
-4.9982	kenalan
-4.2992	kenali	-0.0994
-4.9982	kenalin
-3.4797	kenapa	-0.2817
-4.6972	kenapa-kenapa
-4.6972	kenapa-napa
-4.2200	kencang	-0.0773
-4.9982	kenceng
-4.0951	kencing
-4.9982	kendala
-4.9982	kendalanya
-4.6972	kendali
-4.6972	kendalikan
-4.9982	kendaraan
-4.9982	kendati
-4.1531	kendur	-0.1145
-4.9982	kenikmatan
-4.5211	kening	-0.1741
-4.2992	kental	-0.0680
-4.5211	kentang	-0.1505
-4.9982	kenyal
-4.3961	kenyamanan
-4.9982	kenyamanannya
-4.2992	kenyang	-0.0991
-4.9982	kenyataan
-4.9982	kenyataannya
-4.9982	kenyataanya
-4.9982	keos
-3.5668	kepada	-0.3169
-4.6972	kepadatan
-2.5313	kepala	-0.3675
-4.0951	kepalanya
-4.9982	kepalasakit
-4.0951	keparahan	-0.0583
-4.6972	keparahannya
-4.9982	kepastian
-4.9982	kepatuhan
-4.9982	kepekaan
-4.9982	kepengurusan
-4.9982	kepentingan
-4.5211	kepercayaan	-0.1823
-4.9982	keperluan
-4.9982	kepikiran
-4.9982	keping
-4.9982	kepolisian
-4.9982	kepopulerannya
-4.9982	kepresidenan
-4.9982	kepribadian
-4.9982	kepuasan
-4.9982	kepulan
-4.6972	keputihan
-4.6972	keputusan
-4.9982	kerabat
-4.3961	keracunan	-0.2909
-4.9982	kerahasiaan
-4.9982	kerak
-4.9982	keram
-4.5211	keramaian
-4.9982	keramas
-4.2200	keramik	-0.0818
-4.9982	kerang
-4.9982	kerangka
-3.9190	kerap	-0.0808
-3.5068	keras	-0.2403
-4.9982	keras-keras
-4.1531	kerasa	-0.0669
-4.9982	kerasanya
-4.9982	kerasnya
-4.9982	keratosis
-4.9982	kerawanan
-4.9982	kerbau
-4.9982	kerbaunya
-4.9982	keren
-4.9982	keren-keren
-4.9982	kereta
-4.9982	keretakan
-3.2423	kering	-0.2751
-4.2992	keringat
-4.9982	keringetan
-4.9982	keringin
-4.6972	keringkan
-4.5211	keripik
-4.9982	keriput
-3.7194	kerja	-0.0587
-4.9982	kerjaan
-4.9982	kerjaanmu
-4.6972	kerjaannya
-4.9982	kerjain
-4.9982	kerjakan
-4.9982	kerjanya
-4.9982	kerjasama
-4.2200	kerok	-0.0496
-4.9982	kerongkongam
-3.9568	kerongkongan	-0.3614
-4.6972	kerontokan	-0.3106
-4.6972	keropos
-4.6972	kertas
-4.5211	kerucut
-4.9982	kerugian
-4.9982	kerugiannya
-4.6972	keruh	-0.2821
-4.9982	kerumunan
-4.9982	kerupuk
-3.3080	kerusakan	-0.3477
-4.9982	kerutan
-4.9982	kesabaran
-4.5211	kesadaran
-4.5211	kesakitan
-4.9982	kesaktian
-4.2992	kesalahan
-4.9982	kesan
-4.9982	kesana
-4.9982	kesatuan
-4.9982	kesebelas
-4.9982	kesederhanaan
-4.9982	kesediaan
-4.9982	kesedihannya
-4.9982	keseharian
-4.6972	kesehariannya
-2.8490	kesehatan	-0.3513
-4.9982	kesehatanmu
-4.5211	kesehatannya
-4.3961	keseimbangan
-4.9982	kesejahteraan
-4.9982	kesel
-4.9982	keselamatan
-4.2992	keseluruhan	-0.1838
-4.9982	keseluruhannya
-4.5211	kesembilan
-4.3961	kesembuhan	-0.5972
-4.9982	kesembuhannya
-4.5211	kesempatan	-0.1783
-4.0951	kesemutan	-0.1162
-4.9982	kesepakatan
-4.9982	kesepakatannya
-4.9982	kesepian
-4.9982	kesepuluh
-4.9982	keseragaman
-4.9982	keseringan
-4.9982	kesetiaan
-4.9982	kesiangan
-4.9982	kesiapan
-4.9982	kesiapannya
-4.9982	kesimpan
-4.9982	kesimpulan
-4.3961	kesini
-4.2200	kesuburan	-0.2651
-4.9982	kesukaan
-4.9982	kesuksesan
-3.6558	kesulitan	-0.2217
-4.3961	ketagihan	-0.1270
-3.8842	ketahui	-0.3133
-4.9982	ketakutan
-3.9568	ketat	-0.0530
-4.9982	ketawa
-4.6972	ketegangan
-4.9982	ketelitian
-4.9982	ketempat
-4.9982	ketemu
-4.9982	ketemuan
-4.9982	ketemuannya
-4.6972	ketentuan
-4.9982	ketepatan
-4.9982	keterampilan
-4.6972	keterangan
-4.9982	keterangannya
-4.9982	keterbatasan
-4.9982	ketergantungan
-4.5211	keterlambatan	-0.1826
-4.9982	keterlibatan
-4.9982	ketersediaannya
-4.9982	ketertarikan
-4.2992	ketiak	-0.1838
-4.9982	ketidakefisienan
-4.9982	ketidakmungkinan
-3.8221	ketidaknyamanan	-0.1280
-4.9982	ketidakpastian
-4.9982	ketidakpedulian
-4.9982	ketidakpekaan
-4.9982	ketidakpuasan
-4.6972	ketidakseimbangan
-4.9982	ketiduran
-3.9982	ketiga	-0.0999
-2.7914	ketika	-0.1357
-4.0439	ketimbang	-0.0525
-4.9982	ketimun
-4.9982	ketinggalan
-4.6972	ketinggian
-4.5211	ketoasidosis	-0.4599
-4.9982	ketoconazole
-4.6972	ketombe	-0.3025
-4.9982	keton
-4.9982	ketua
-4.6972	ketuban
-4.2992	ketujuh	-0.0998
-4.9982	ketuker
-3.9982	keturunan	-0.1746
-4.9982	ketut
-4.9982	ketutup
-4.6972	keuangan
-4.9982	keunikan
-4.9982	keuntungan
-4.9982	kevin
-4.9982	kewajiban
-4.6972	kewanitaan	-0.3096
-4.9982	kewirausahaan
-4.9982	key
-4.9982	keyakinan
-4.9982	keyboard
-4.9982	kfc
-4.9982	khan
-4.2992	khas
-4.9982	khasiat
-3.6972	khawatir	-0.0608
-4.9982	khawatirkan
-4.9982	khsusunya
-3.5358	khusus	-0.2621
-3.8842	khususnya	-0.1135
-4.9982	kiamat
-4.9982	kian
-4.9982	kiki
-4.9982	kikil
-4.9982	kikuk
-4.9982	kilo
-4.0439	kilogram	-0.1647
-4.9982	kilometer
-3.4184	kimia	-0.3268
-4.9982	kina
-4.9982	kinerja
-4.9982	kinerja-kinerja
-4.9982	kinerjanya
-4.9982	kinestesi
-4.9982	king
-4.5211	kini	-0.1801
-4.9982	kios
-3.8521	kira	-0.1370
-3.8521	kira-kira	-0.1929
-4.9982	kirain
-4.9982	kirana
-3.5510	kiri	-0.0601
-4.9982	kirim
-4.9982	kirimkan
-4.9982	kirinya
-4.9982	kisaran
-4.9982	kisruh
-4.1531	kista	-0.2374
-4.9982	kistik
-4.9982	kit
-3.0844	kita	-0.1409
-4.9982	kk
-4.5211	klaim
-4.9982	klarifikasi
-4.9982	klasifikasi
-4.6972	klasik
-4.9982	klep
-4.9982	klien
-4.9982	kliennya
-4.9982	klik
-4.9982	klimaks
-4.6972	klinik
-4.6972	klinis
-4.9982	klip
-4.9982	klorheksidin
-4.9982	klorida
-4.9982	kmarin
-4.9982	knapsack
-4.3961	ko
-4.9982	kobe
-4.9982	kocak
-4.9982	kode
-4.9982	kode-kodenya
-4.9982	kodenya
-4.9982	koding
-4.2992	kognitif	-0.0984
-4.9982	koin
-4.9982	koin-koin
-4.9982	koinnya
-3.7677	kok	-0.2452
-4.9982	kokain
-4.9982	kokoh
-4.6972	kol
-3.7429	kolagen	-0.1338
-4.9982	kolam
-4.9982	koleksi
-2.5464	kolesterol	-0.5513
-4.3961	kolesterolnya
-4.9982	koleterol
-4.9982	koletesterol
-4.9982	kolitis
-4.9982	kolkatriol
-4.9982	kolom
-4.9982	kolongnya
-4.9982	kolonial
-4.9982	kolonialisme
-4.9982	kom
-3.7941	koma	-0.2943
-4.9982	kombes
-4.2200	kombinasi	-0.1695
-4.9982	komedi
-4.9982	komentar
-4.9982	komik
-4.9982	kominutif
-4.9982	komite
-4.9982	komitmen
-4.9982	komparatif
-3.1721	kompartemen	-0.5095
-4.9982	kompasdotcom
-4.9982	kompeten
-4.9982	kompetensinya
-4.9982	kompetitif
-4.9982	kompetitor
-4.9982	kompetitormu
-4.9982	komplek
-4.3961	kompleks	-0.1273
-3.4071	komplikasi	-0.1421
-4.9982	komplikasinya
-4.9982	kompol
-3.9190	komponen	-0.1645
-4.9982	komponen-komponen
-4.9982	komposisi
-4.9982	komprehensif
-3.6760	kompres	-0.6169
-4.9982	kompresi
-4.9982	kompreskan
-4.9982	komputasi
-4.2200	komputer	-0.0792
-4.9982	komputerisasi
-4.9982	komulatif
-4.9982	komunikan
-4.9982	komunikasi
-4.9982	komunikasikan
-4.9982	komunikatif
-4.9982	komunitas
-4.9982	komvis
-2.4443	kondisi	-0.4871
-4.5211	kondisi-kondisi
-3.9190	kondisinya	-0.0068
-4.9982	kondom
-4.9982	koneksi
-4.9982	koneksinya
-4.9982	konferensi
-4.9982	konfirmasi
-4.9982	konflik
-4.9982	kong
-4.9982	konka
-4.9982	konsekuensi
-4.9982	konsekuensinya
-4.9982	konseling
-4.3961	konsentrasi
-4.9982	konsep
-4.9982	konsepnya
-4.9982	konseptual
-4.9982	konser
-4.9982	konservasi
-4.9982	konservatif
-4.6972	konsisten
-4.9982	konsistensi
-4.9982	konsistensinya
-4.9982	konspirasi
-4.6972	konstan
-4.9982	konstanta
-4.6972	konstipasi
-4.9982	konstruksi
-4.9982	konsultan
-3.8521	konsultasi	-0.4323
-3.6365	konsultasikan	-0.5831
-4.6972	konsultasikanlah	-0.3105
-4.6972	konsultasinya
-4.9982	konsumen
-3.0344	konsumsi	-0.3550
-4.3961	konsumsilah
-4.9982	konsumsinya
-3.8521	kontak	-0.2465
-4.9982	kontaminasi
-4.9982	konteks
-4.9982	konten
-4.9982	konten-konten
-4.9982	kontennya
-4.9982	kontinen
-4.9982	kontinu
-4.9982	kontrak
-4.9982	kontraksi
-4.9982	kontraktor
-4.3961	kontras	-0.1263
-4.1531	kontrasepsi	-0.0686
-4.9982	kontribusi
-3.7941	kontrol	-0.0882
-4.9982	kontrolnya
-4.9982	kontur
-4.3961	konvensional	-0.0971
-4.9982	konversi
-4.9982	konvulsan
-4.9982	koordinasi
-4.9982	koordinasikan
-4.9982	koordinator
-3.9190	kopi	-0.2142
-4.9982	kopinya
-3.8221	korban	-0.1401
-4.9982	korban-korban
-4.9982	korea
-4.9982	koreksi
-4.9982	koreksilah
-4.3961	koroner	-0.0971
-4.9982	korosi
-4.9982	korporasi
-4.9982	korpus
-4.9982	kortikosteroid
-4.6972	kortisol
-4.9982	korupsi
-4.9982	kos
-4.9982	kosan
-4.2992	kosmetik	-0.1002
-4.9982	kosnultasikan
-4.1531	kosong	-0.1427
-4.9982	kostum
-4.9982	kota
-4.9982	kota-kota
-4.6972	kotak	-0.3142
-4.9982	kotaknya
-4.9982	kotanya
-4.2992	kotor
-4.5211	kotoran
-4.9982	kp
-4.9982	kpk
-4.9982	kpnya
-4.1531	kram	-0.0687
-4.9982	kreatif
-4.9982	kresol
-4.3961	krim	-0.2879
-4.9982	krimnya
-4.9982	kripik
-3.9982	kristal	-0.0988
-4.5211	kristal-kristal
-4.9982	kristian
-4.9982	kriteria
-4.9982	kriteria-kriteria
-4.9982	kritik
-4.5211	kritis	-0.1505
-4.5211	kromium
-3.7941	kromosom	-0.2184
-3.2658	kronis	-0.2676
-4.9982	kronologis
-4.9982	krotonaldehyde
-4.9982	kru
-4.9982	krusial
-4.9982	ktp
-4.9982	ku
-4.9982	kua
-4.9982	kua-ppas
-4.9982	kuah
-4.9982	kualifikasi
-4.2200	kualitas
-4.9982	kualitas-kualitas
-4.9982	kualitasnya
-4.9982	kuantitas
-4.9982	kuantitatif
-4.9982	kuantum
-4.9982	kuantumnya
-4.9982	kuas
-4.9982	kuasa
-3.6180	kuat	-0.1170
-4.9982	kuatir
-4.9982	kubernetes
-4.2992	kubis
-4.9982	kublet
-4.9982	kucek
-4.9982	kucing
-4.9982	kucingnya
-4.5211	kuda	-0.1505
-4.9982	kudis
-4.9982	kuduga
-4.5211	kue	-0.1741
-4.9982	kuesioner
-4.9982	kuhancurkan
-4.9982	kuhasut
-4.9982	kuizo
-4.9982	kukabari
-4.9982	kukira
-4.0951	kuku	-0.1710
-4.5211	kuliah
-4.9982	kuliahan
-2.6993	kulit	-0.3502
-4.9982	kulitalodokter
-4.5211	kulitnya
-4.9982	kultur
-4.2992	kuman	-0.0884
-4.9982	kuman-kuman
-4.9982	kumat
-4.9982	kumpul
-4.3961	kumpulan
-4.9982	kumpulan-kumpulan
-4.9982	kumpulin
-3.6002	kumur	-0.1999
-4.6972	kumur-kumur
-4.9982	kunci
-4.9982	kunciin
-3.9568	kuning	-0.0976
-3.8842	kunjung	-0.1602
-4.9982	kunjungan
-4.9982	kunjungannya
-4.6972	kunjungi
-4.9982	kunyah
-3.8842	kunyit	-0.0394
-4.9982	kuota
-4.9982	kupang
-4.9982	kuping
-4.9982	kupon
-3.0739	kurang	-0.4021
-3.7194	kurangi	-0.2737
-4.9982	kurangin
-4.1531	kurangnya	-0.1512
-4.9982	kurap
-4.2992	kuret
-4.9982	kurikulum
-4.9982	kurintis
-4.9982	kursi
-4.9982	kursus
-4.9982	kurun
-4.3961	kurus
-4.9982	kusampaikan
-4.9982	kusni
-4.9982	kusta
-4.9982	kutek
-4.6972	kutil
-4.9982	kutipan
-4.6972	kutu
-4.9982	l
-4.9982	l-carnitine
-4.9982	la
-4.2200	lab
-4.9982	lab-nya
-4.6972	label
-4.9982	labelnya
-4.5211	labnya
-4.9982	laboratorim
-4.0951	laboratorium
-4.9982	labs
-4.9982	labtek
-4.9982	labu
-4.9982	lactobacillus
-4.9982	laen
-4.9982	laga
-2.8615	lagi	-0.1785
-4.9982	lagian
-4.6972	lagipula
-4.9982	lagu
-4.9982	lagunya
-4.0951	lah	-0.1677
-4.1531	lahir
-4.9982	lahiran
-2.7217	lain	-0.4494
-3.9982	lain-lain	-0.6668
-2.9300	lainnya	-0.3809
-4.9982	laju
-4.9982	lajur
-4.9982	laki
-4.3961	laki-laki
-4.9982	laksamana
-4.9982	laksanakan
-4.9982	laktosa
-4.9982	laku
-4.9982	lakuin
-3.0587	lakukan	-0.2445
-4.5211	lakukanlah
-4.9982	lalai
-3.1174	lalu	-0.1812
-3.0739	lama	-0.1781
-4.9982	lama-kelamaan
-4.6972	lama-lama
-4.9982	lamaku
-4.6972	lamanya
-4.9982	lamaran
-4.6972	lambat
-3.4930	lambung	-0.2347
-4.6972	lambungnya
-4.9982	laminasi
-4.9982	lampau
-4.9982	lampu
-4.9982	lampunya
-4.2992	lancar	-0.3542
-4.9982	lancar-lancar
-4.9982	landasan
-4.9982	langganan
-4.9982	langit
-3.3749	langit-langit	-0.8282
-4.9982	langitnya
-4.9982	langka
-3.6760	langkah	-0.1622
-4.5211	langkah-langkah
-4.9982	langkah-langkahnya
-4.9982	langkahnya
-3.0637	langsung	-0.1861
-3.3647	lanjut	-0.3858
-4.3961	lanjutan
-4.9982	lanjutannya
-4.9982	lanjutin
-4.9982	lanjutkan
-4.5211	lanjutnya	-0.1505
-4.6972	lansia
-4.3961	lantai	-0.1282
-4.9982	lantaran
-3.9190	lantas	-0.1754
-4.9982	lapak
-4.9982	lapan
-4.9982	lapang
-4.9982	lapangan
-4.1531	lapar
-4.9982	laparoscopy
-4.9982	laper
-4.9982	lapis
-3.8521	lapisan	-0.0328
-4.9982	lapor
-4.3961	laporan
-4.9982	laporannnya
-4.9982	laporannya
-4.9982	laporkan
-4.9982	laptop
-4.9982	laptopnya
-4.9982	larangan
-4.9982	large
-4.5211	lari	-0.1505
-4.9982	lari-lari
-4.2200	laring	-0.0808
-3.8521	larut	-0.2906
-4.1531	larutan
-4.6972	larutkan
-4.9982	larutkanlah
-4.9982	las
-4.9982	latar
-4.5211	lateks	-0.1826
-4.9982	lateral
-4.9982	latian
-3.9982	latihan	-0.0881
-4.9982	latihannya
-4.9982	lauknya
-4.9982	laun
-4.9982	laurat
-4.9982	lauril
-4.5211	lauryl	-0.1827
-3.7677	laut	-0.0207
-4.9982	lautnya
-4.9982	lawan
-4.6972	layak
-4.6972	layaknya
-4.9982	layanan
-4.9982	layani
-4.9982	layar
-4.9982	layout
-3.3961	ldl	-0.1953
-4.9982	le
-4.9982	lead
-4.9982	learning
-4.9982	lebam
-4.6972	lebar
-4.9982	lebar-lebar
-4.9982	lebay
-4.9982	lebi
-2.3833	lebih	-0.5443
-4.9982	lecet
-4.9982	ledakan
-4.9982	lee
-4.9982	lega
-4.9982	legal
-4.9982	legendaris
-4.9982	legume
-3.5358	leher	-0.3001
-4.9982	lehernya
-4.9982	leibel
-4.2200	lekas	-0.3097
-4.9982	lekat
-4.9982	leksikonnya
-4.5211	lekukan	-0.1824
-3.7677	lelah	-0.0497
-4.9982	lelawang
-4.9982	lelet
-4.9982	leluasa
-4.9982	lema
-4.9982	lemab
-4.0439	lemah	-0.0206
-3.1006	lemak	-0.3616
-4.9982	lemarano
-4.9982	lemari
-3.5832	lemas	-0.2219
-4.9982	lembab
-4.9982	lembaga
-4.9982	lembang
-4.1531	lembap	-0.3399
-4.9982	lembar
-4.9982	lembur
-3.6972	lembut	-0.2266
-4.3961	lemes
-3.8521	lemon	-0.3158
-4.9982	lempar
-4.9982	len
-3.9982	lendir	-0.0150
-3.8221	lengan	-0.2192
-3.3547	lengkap	-0.1643
-4.9982	lengkapi
-4.1531	lengket	-0.1970
-3.9982	lensa	-0.2991
-4.9982	lensanya
-4.9982	lentur
-4.0439	lepas	-0.1477
-4.9982	lepas-pasang
-4.9982	lepaskan
-4.9982	lepasnya
-4.5211	lepuh	-0.4568
-4.5211	lepuhan	-0.1709
-4.9982	lesser
-4.9982	leste
-4.6972	lesu
-4.6972	lesung
-4.9982	letak
-4.5211	letakkan
-4.6972	letaknya
-4.9982	letusan
-4.6972	leukemia
-4.6972	leukimia
-4.6972	level
-4.9982	levelnya
-4.9982	levomenol
-4.2992	levonorgestrel	-0.0884
-4.0439	lewat	-0.0505
-4.9982	lezat
-4.6972	lho
-4.9982	li
-4.5211	liat
-4.9982	liat-liat
-4.9982	liatnya
-4.9982	libatkan
-4.9982	libu
-4.9982	libur
-4.9982	liburan
-4.9982	lichen
-4.9982	liciknya
-4.9982	licin
-3.0344	lidah	-0.3664
-4.6972	lidocaine
-4.9982	lif
-4.9982	ligamen
-3.8221	lihat	-0.0271
-4.9982	lihatlah
-4.9982	lihatnya
-4.9982	likopen
-4.5211	lilin
-3.0159	lima	-0.4711
-4.9982	limapenglihatan
-4.9982	limb
-4.6972	limbah
-4.9982	limited
-4.9982	limpa
-4.9982	lin
-4.9982	line
-4.6972	lingkaran
-3.9568	lingkungan	-0.0900
-4.0951	lingual
-4.9982	link
-4.6972	lintas
-4.6972	lintingan
-4.6972	linu
-4.9982	lipat
-4.2992	lipatan	-0.1002
-4.3961	lipid	-0.1176
-3.8521	lipoprotein	-0.1905
-4.9982	lipstik
-4.9982	liputan
-4.9982	liputannya
-4.9982	lisensi
-4.9982	list
-4.9982	listrik
-4.0951	liter	-0.2785
-4.9982	literasi
-4.9982	literatur
-3.4797	liur	-0.3090
-4.9982	livina
-4.9982	lix
-4.9982	lk
-4.9982	lkm
-4.9982	lo
-4.9982	loba
-4.5211	lobster
-4.9982	lofi
-4.9982	log
-4.9982	logact
-4.0439	logam	-0.0206
-4.9982	logika
-4.9982	logistik
-4.9982	logo
-4.9982	logonya
-4.9982	loh
-4.2992	lokal
-4.0439	lokasi
-4.9982	lokasinya
-4.9982	loket
-4.9982	loketnya
-4.9982	loki
-4.9982	lolipop
-4.9982	lomba
-4.9982	lomba-lomba
-4.9982	lombanya
-4.9982	lombok
-4.9982	lompat
-4.9982	longgar
-4.9982	longsor
-4.6972	lonjakan
-4.9982	lorong
-4.9982	losi
-4.9982	losles
-4.9982	loss
-4.6972	lotion
-4.9982	louis
-4.9982	low
-4.5211	low-density	-0.4598
-4.9982	low-fidelity
-4.9982	lowongan
-4.9982	loyal
-4.9982	lpj
-4.9982	lpk
-4.9982	lu
-4.6972	luang
-4.9982	luangkan
-3.4419	luar	-0.2792
-4.9982	luarnya
-4.2992	luas
-3.7677	lubang	-0.2271
-4.9982	lubangnya
-4.9982	lubuk
-4.9982	lucu
-4.9982	lucunya
-3.8842	ludah	-0.1642
-3.0488	luka	-0.2050
-4.9982	luka-luka
-4.9982	lukanya
-4.9982	lukisanmu
-4.9982	lulus
-4.9982	lulusnya
-4.6972	luma
-3.9568	lumayan	-0.1415
-4.9982	lumen
-4.9982	lumpuh
-3.8521	lunak	-0.1034
-4.9982	lunaknya
-4.9982	lunasi
-4.9982	lunjuk
-3.6180	lupa	-0.1058
-4.9982	lupakan
-4.6972	lupus
-4.9982	luruh
-4.5211	lurus	-0.1827
-4.3961	lusa	-0.2601
-4.9982	luthfi
-4.9982	luthvia
-3.8521	lutut	-0.2176
-4.6972	lututnya
-4.9982	luwu
-4.9982	m
-4.9982	ma
-4.1531	maaf
-4.9982	maafin
-4.5211	maag
-4.9982	maap
-4.9982	maba
-4.0951	macam
-4.2200	macam-macam	-0.3082
-4.9982	macamnya
-4.9982	macan
-4.9982	macbook
-4.9982	macem
-4.9982	macem-macem
-4.9982	macemnya
-4.9982	macet
-4.9982	macet-macetan
-4.9982	macetnya
-4.9982	machine
-4.9982	mading
-3.7194	madu	-0.0442
-4.9982	madya
-3.6365	mag	-0.0508
-4.9982	magang
-4.9982	mager
-4.9982	magnetic
-4.9982	magnetik
-4.9982	mah
-4.2992	mahal
-4.9982	mahal-mahal
-4.9982	mahasiswa
-4.9982	mahasiswa-mahasiswa
-4.9982	mahasiswanya
-4.9982	mahasiswi
-4.9982	mahkamah
-3.9982	mahkota	-0.1479
-4.6972	main
-4.9982	mainstream
-4.3961	maju
-4.9982	majuk
-4.9982	mak
-2.9568	maka	-0.2274
-4.6972	makai	-0.3140
-4.9982	makalah
-2.5373	makan	-0.3788
-4.9982	makan-makan
-4.9982	makan-makanan
-2.4823	makanan	-0.6276
-4.9982	makanan-makan
-4.0439	makanan-makanan	-0.1688
-4.2200	makanannya	-0.1499
-4.6972	makanlah
-4.2200	makannya	-0.0496
-4.0439	makanya	-0.2334
-4.6972	makarel	-0.2821
-4.6972	makasi
-4.3961	makasih	-0.2911
-4.9982	makassar
-4.9982	make
-4.9982	makhluk
-3.8221	makin	-0.0950
-4.9982	makna
-4.9982	maknanya
-4.9982	maksa-maksa
-4.9982	maksakan
-4.9982	maksilofasial
-4.1531	maksimal	-0.1104
-4.9982	maksimalkan
-4.9982	maksimum
-4.9982	maksud
-4.9982	maksudku
-4.3961	maksudnya
-4.9982	malabsorbsi
-3.9568	malah
-4.9982	malahan
-3.1988	malam	-0.4949
-4.9982	malam-malam
-4.9982	malamnya
-4.9982	malang
-4.5211	malanutrisi
-4.5211	malaria
-4.5211	malas
-4.5211	malem
-4.9982	malemnya
-4.9982	males
-4.9982	maling
-4.9982	mall
-4.6972	malnutrisi
-4.9982	maloklusi
-4.9982	malu
-4.9982	malunya
-4.9982	mama
-4.9982	mamanya
-4.9982	mammografi
-4.9982	mampat
-4.9982	mampir
-3.7429	mampu	-0.1091
-4.9982	man
-3.3354	mana	-0.2291
-4.9982	mana-mana
-4.9982	manager
-4.6972	manajemen
-4.9982	manakala
-4.6972	manapun
-4.9982	mancanegara
-3.6760	mandi	-0.1659
-4.3961	mandiri
-4.9982	maneh
-3.3261	manfaat	-0.2529
-4.9982	manfaatkan
-4.6972	manfaatnya
-4.9982	mangakibatkan
-4.6972	mangga
-4.9982	manggarai
-4.9982	manggil
-4.9982	mangkok
-3.7194	manis	-0.1731
-4.6972	mantan	-0.3142
-4.9982	mantap
-4.9982	mantep
-4.5211	manual
-4.9982	manuka
-4.9982	manula
-4.0439	manusia	-0.2998
-4.9982	mao
-4.9982	mapo
-4.9982	mapolda
-4.3961	marah	-0.0971
-4.9982	marahin
-4.9982	maret
-4.9982	margarin
-4.9982	margin
-4.9982	margoda
-4.9982	margonda
-4.0951	mari	-0.2028
-4.9982	marilah
-4.9982	marjan
-4.9982	mark
-4.9982	market
-4.9982	marnat
-4.9982	marsudi
-4.9982	martabak
-4.9982	martabaknya
-4.9982	marty
-4.9982	maruf
-4.9982	marvel
-3.5510	mas	-0.3823
-3.6972	masa	-0.2246
-4.5211	masak	-0.1709
-4.1531	masakan	-0.1970
-4.9982	masako
-4.9982	masala
-2.9608	masalah	-0.3188
-4.9982	masalah-masalah
-4.3961	masalahnya
-4.9982	masang
-4.6972	masanya
-4.2992	masi	-0.0999
-2.9648	masih	-0.2595
-4.5211	masing-masing
-4.9982	masing-masingnya
-4.9982	masjid
-4.9982	maskapai
-4.1531	masker
-4.2200	massa	-0.1700
-4.9982	master
-4.9982	mastiin
-3.3547	masuk	-0.5300
-4.9982	masukan
-4.9982	masukannya
-4.9982	masukin
-4.6972	masukkan
-4.9982	masukkin
-4.9982	masukkinnya
