~o
<STREAMINFO> 1 25
<VECSIZE> 25<NULLD><MFCC_D_N_Z_0><DIAGC>
~h "proto"
<BEGINHMM>
<NUMSTATES> 5
<STATE> 2
<MEAN> 25
 2.191897e-09 1.090767e-09 9.583869e-09 -2.513970e-08 5.652961e-09 7.827195e-09 -1.173832e-08 8.083372e-09 -1.224114e-08 -9.614427e-09 -1.228777e-09 7.353112e-09 2.583278e-03 1.324474e-05 1.168407e-03 -2.654809e-04 1.189869e-03 -2.049740e-04 3.580089e-04 -4.413913e-04 -1.182725e-03 -4.290212e-04 -6.000486e-04 -5.767079e-04 3.082962e-03
<VARIANCE> 25
 5.948185e+01 5.523698e+01 6.956894e+01 6.305649e+01 6.882346e+01 6.596870e+01 5.749071e+01 5.935575e+01 5.307431e+01 4.762827e+01 4.651497e+01 3.710693e+01 2.306505e+00 2.816552e+00 2.879400e+00 3.320058e+00 3.620134e+00 3.535676e+00 3.444275e+00 3.604864e+00 3.328828e+00 3.069384e+00 2.973308e+00 2.428294e+00 2.668486e+00
<GCONST> 1.087549e+02
<STATE> 3
<MEAN> 25
 2.191897e-09 1.090767e-09 9.583869e-09 -2.513970e-08 5.652961e-09 7.827195e-09 -1.173832e-08 8.083372e-09 -1.224114e-08 -9.614427e-09 -1.228777e-09 7.353112e-09 2.583278e-03 1.324474e-05 1.168407e-03 -2.654809e-04 1.189869e-03 -2.049740e-04 3.580089e-04 -4.413913e-04 -1.182725e-03 -4.290212e-04 -6.000486e-04 -5.767079e-04 3.082962e-03
<VARIANCE> 25
 5.948185e+01 5.523698e+01 6.956894e+01 6.305649e+01 6.882346e+01 6.596870e+01 5.749071e+01 5.935575e+01 5.307431e+01 4.762827e+01 4.651497e+01 3.710693e+01 2.306505e+00 2.816552e+00 2.879400e+00 3.320058e+00 3.620134e+00 3.535676e+00 3.444275e+00 3.604864e+00 3.328828e+00 3.069384e+00 2.973308e+00 2.428294e+00 2.668486e+00
<GCONST> 1.087549e+02
<STATE> 4
<MEAN> 25
 2.191897e-09 1.090767e-09 9.583869e-09 -2.513970e-08 5.652961e-09 7.827195e-09 -1.173832e-08 8.083372e-09 -1.224114e-08 -9.614427e-09 -1.228777e-09 7.353112e-09 2.583278e-03 1.324474e-05 1.168407e-03 -2.654809e-04 1.189869e-03 -2.049740e-04 3.580089e-04 -4.413913e-04 -1.182725e-03 -4.290212e-04 -6.000486e-04 -5.767079e-04 3.082962e-03
<VARIANCE> 25
 5.948185e+01 5.523698e+01 6.956894e+01 6.305649e+01 6.882346e+01 6.596870e+01 5.749071e+01 5.935575e+01 5.307431e+01 4.762827e+01 4.651497e+01 3.710693e+01 2.306505e+00 2.816552e+00 2.879400e+00 3.320058e+00 3.620134e+00 3.535676e+00 3.444275e+00 3.604864e+00 3.328828e+00 3.069384e+00 2.973308e+00 2.428294e+00 2.668486e+00
<GCONST> 1.087549e+02
<TRANSP> 5
 0.000000e+00 1.000000e+00 0.000000e+00 0.000000e+00 0.000000e+00
 0.000000e+00 6.000000e-01 4.000000e-01 0.000000e+00 0.000000e+00
 0.000000e+00 0.000000e+00 6.000000e-01 4.000000e-01 0.000000e+00
 0.000000e+00 0.000000e+00 0.000000e+00 7.000000e-01 3.000000e-01
 0.000000e+00 0.000000e+00 0.000000e+00 0.000000e+00 0.000000e+00
<ENDHMM>
