~o
<STREAMINFO> 1 25
<VECSIZE> 25<NULLD><MFCC_D_N_Z_0><DIAGC>
~h "@"
<BEGINHMM>
<NUMSTATES> 5
<STATE> 2
<MEAN> 25
 2.043363e+00 -2.392248e-01 -6.078977e-01 -3.657120e-01 -4.552881e-01 -1.870854e+00 -1.889722e+00 -9.576974e-01 9.451128e-01 9.500216e-01 2.887777e-01 -5.027362e-01 1.260164e+00 -3.183661e-01 5.545447e-02 -3.280861e-01 -6.001695e-01 -3.172963e-01 -6.353456e-01 -1.036114e-01 6.280385e-02 -5.128063e-02 -2.264369e-01 -3.649923e-01 8.849102e-01
<VARIANCE> 25
 5.086014e+01 5.131470e+01 5.096496e+01 5.494989e+01 6.354648e+01 7.397112e+01 6.224050e+01 6.050002e+01 5.647760e+01 4.981765e+01 4.321088e+01 3.591890e+01 5.473823e+00 5.759429e+00 4.711990e+00 5.721819e+00 6.024021e+00 6.754773e+00 6.343995e+00 6.360216e+00 5.829894e+00 5.321142e+00 4.691284e+00 3.821285e+00 5.488605e+00
<GCONST> 1.159026e+02
<STATE> 3
<MEAN> 25
 4.267686e+00 -1.182918e+00 -5.867311e-01 -1.118550e+00 -1.604325e+00 -2.526468e+00 -3.038215e+00 -9.434627e-01 1.039081e+00 7.542366e-01 1.477029e-02 -1.172987e+00 6.494189e-01 -7.669931e-02 1.222768e-01 4.859618e-02 -2.851261e-01 6.309520e-02 -1.547558e-01 -5.025107e-03 -7.961029e-02 -1.375450e-01 -2.189734e-01 -1.702216e-01 1.689129e-01
<VARIANCE> 25
 3.275784e+01 4.777095e+01 4.846285e+01 5.346209e+01 6.147868e+01 7.156905e+01 6.012177e+01 6.170938e+01 5.644033e+01 5.300354e+01 4.371980e+01 3.574171e+01 3.392900e+00 4.889812e+00 4.037973e+00 5.419724e+00 5.346455e+00 5.875128e+00 5.510052e+00 5.972507e+00 5.305344e+00 4.761417e+00 4.260226e+00 3.493585e+00 4.512626e+00
<GCONST> 1.134000e+02
<STATE> 4
<MEAN> 25
 4.162003e+00 -9.316406e-01 8.572674e-02 -5.627081e-01 -1.899945e+00 -2.476595e+00 -2.544638e+00 -6.449932e-01 6.085558e-01 6.359202e-01 -1.733091e-01 -1.150182e+00 -3.580607e-02 3.089384e-01 1.701952e-01 4.188546e-01 1.617712e-01 3.543659e-01 2.821256e-01 -7.156356e-02 -1.709123e-01 -1.220495e-01 -1.510569e-01 5.289840e-02 -4.873379e-01
<VARIANCE> 25
 3.066978e+01 5.007417e+01 5.025546e+01 5.311776e+01 6.261336e+01 6.802106e+01 5.809017e+01 6.389982e+01 5.689099e+01 5.274405e+01 4.364719e+01 3.573479e+01 1.840054e+00 3.204633e+00 2.866155e+00 3.637012e+00 3.803122e+00 3.905048e+00 3.797452e+00 4.101703e+00 3.760764e+00 3.445149e+00 3.167513e+00 2.610174e+00 2.656536e+00
<GCONST> 1.083216e+02
<TRANSP> 5
 0.000000e+00 1.000000e+00 0.000000e+00 0.000000e+00 0.000000e+00
 0.000000e+00 2.730799e-01 7.269201e-01 0.000000e+00 0.000000e+00
 0.000000e+00 0.000000e+00 2.228499e-01 7.771501e-01 0.000000e+00
 0.000000e+00 0.000000e+00 0.000000e+00 3.906160e-01 6.093841e-01
 0.000000e+00 0.000000e+00 0.000000e+00 0.000000e+00 0.000000e+00
<ENDHMM>
~h "a"
<BEGINHMM>
<NUMSTATES> 5
<STATE> 2
<MEAN> 25
 4.297443e+00 -7.078857e+00 -4.091269e+00 -4.427864e+00 -4.518825e-02 -1.092765e+00 -1.789649e-01 3.440548e+00 2.410747e+00 -3.953420e-01 -2.496476e+00 -2.832109e+00 1.979653e-01 -6.891835e-01 -4.383137e-01 -1.649340e-01 4.319409e-01 2.106852e-01 2.835907e-01 4.419255e-01 8.429293e-02 -2.999692e-01 -5.695058e-01 -2.427597e-01 3.947379e-01
<VARIANCE> 25
 2.520525e+01 4.258778e+01 4.661199e+01 4.744392e+01 6.402764e+01 6.794268e+01 5.732252e+01 6.068309e+01 5.313119e+01 5.125031e+01 5.017082e+01 4.609103e+01 1.404697e+00 2.758501e+00 2.493638e+00 2.808557e+00 3.517754e+00 3.550184e+00 3.409910e+00 3.923514e+00 3.284158e+00 3.323422e+00 3.238784e+00 2.787412e+00 2.237035e+00
<GCONST> 1.066298e+02
<STATE> 3
<MEAN> 25
 4.485490e+00 -7.367847e+00 -4.401896e+00 -4.095428e+00 6.642625e-01 -8.012017e-01 1.803138e-01 3.527027e+00 2.191167e+00 -7.666703e-01 -3.196008e+00 -2.875180e+00 -7.707919e-02 4.745748e-01 1.048357e-01 5.089964e-01 2.109896e-01 1.319914e-01 1.322011e-01 -1.528948e-01 -1.402557e-01 -1.684485e-02 -7.617565e-02 2.123176e-01 -6.530803e-01
<VARIANCE> 25
 2.126379e+01 4.166893e+01 4.167376e+01 4.392041e+01 5.757644e+01 6.067622e+01 5.367228e+01 5.640511e+01 5.134471e+01 4.944217e+01 4.854158e+01 4.296848e+01 7.675033e-01 1.871654e+00 1.762288e+00 2.050349e+00 2.640740e+00 2.830880e+00 2.722696e+00 3.016474e+00 2.594273e+00 2.647667e+00 2.549911e+00 2.212271e+00 1.453708e+00
<GCONST> 1.016977e+02
<STATE> 4
<MEAN> 25
 1.447748e+00 -3.272763e+00 -3.932869e+00 -3.120668e-01 1.980515e+00 6.992340e-01 1.390055e+00 2.585110e+00 1.605403e+00 -5.885277e-01 -2.225367e+00 -6.295363e-01 -2.684420e-01 7.151473e-01 3.316501e-01 4.875268e-01 1.518634e-02 1.035484e-01 1.831281e-02 -2.745159e-01 -1.414908e-01 1.017353e-01 2.034067e-01 2.221887e-01 -8.177659e-01
<VARIANCE> 25
 3.705434e+01 4.111984e+01 3.572297e+01 4.467249e+01 4.783598e+01 4.972221e+01 4.252954e+01 4.476707e+01 4.313224e+01 4.375457e+01 4.554204e+01 3.590602e+01 7.712347e-01 1.498414e+00 1.445227e+00 1.767774e+00 2.059611e+00 2.149845e+00 2.232425e+00 2.453094e+00 2.261604e+00 2.229935e+00 2.112201e+00 1.840047e+00 1.052589e+00
<GCONST> 9.821705e+01
<TRANSP> 5
 0.000000e+00 1.000000e+00 0.000000e+00 0.000000e+00 0.000000e+00
 0.000000e+00 4.695342e-01 5.304658e-01 0.000000e+00 0.000000e+00
 0.000000e+00 0.000000e+00 4.805050e-01 5.194950e-01 0.000000e+00
 0.000000e+00 0.000000e+00 0.000000e+00 7.691463e-01 2.308537e-01
 0.000000e+00 0.000000e+00 0.000000e+00 0.000000e+00 0.000000e+00
<ENDHMM>
~h "b"
<BEGINHMM>
<NUMSTATES> 5
<STATE> 2
<MEAN> 25
 4.298311e+00 7.635921e+00 2.076951e+00 4.182832e+00 1.757148e+00 1.637617e+00 -9.848965e-01 -3.209409e+00 -2.644234e+00 -1.516753e+00 -1.076348e+00 -1.253490e+00 2.768967e-01 7.250432e-01 7.120298e-02 3.367179e-01 2.484074e-01 -4.910665e-02 -3.836788e-02 -2.505781e-01 -1.233848e-01 -1.102892e-01 7.379264e-03 -5.406117e-02 -1.974087e-01
<VARIANCE> 25
 3.086390e+01 4.004202e+01 3.113369e+01 3.880574e+01 3.605367e+01 4.077173e+01 4.147839e+01 4.111333e+01 3.851682e+01 3.760579e+01 3.250060e+01 2.711352e+01 2.076645e+00 3.662474e+00 2.838196e+00 4.128054e+00 3.137867e+00 3.359813e+00 3.795201e+00 3.358021e+00 3.476437e+00 3.632146e+00 3.278724e+00 2.356606e+00 3.508364e+00
<GCONST> 1.041834e+02
<STATE> 3
<MEAN> 25
 5.215406e+00 6.937303e+00 1.226870e+00 2.875022e+00 1.324427e+00 7.423730e-01 -2.012054e+00 -3.984810e+00 -2.459743e+00 -8.575941e-01 -6.927557e-02 -1.126979e+00 4.966055e-01 -1.579985e+00 -8.371307e-01 -1.593448e+00 -8.339146e-01 -7.508382e-01 -1.102461e+00 1.379142e-02 7.262031e-01 7.487305e-01 8.336744e-01 -9.764473e-02 1.951847e+00
<VARIANCE> 25
 2.440430e+01 4.772084e+01 3.288295e+01 4.601246e+01 3.700686e+01 4.282225e+01 4.413097e+01 4.195266e+01 4.036068e+01 4.378915e+01 3.804167e+01 2.912786e+01 2.531638e+00 5.781475e+00 4.475091e+00 6.823914e+00 4.944122e+00 5.536120e+00 5.940953e+00 5.204727e+00 6.222188e+00 6.938750e+00 5.093179e+00 4.105331e+00 4.676504e+00
<GCONST> 1.108998e+02
<STATE> 4
<MEAN> 25
 6.072455e+00 1.601423e+00 1.064892e-01 -6.173980e-01 -1.019296e+00 -8.210406e-01 -5.151246e+00 -2.197652e+00 5.077495e-01 -6.094741e-02 1.527806e+00 -2.613771e+00 -9.850342e-03 -1.391798e+00 -2.692251e-01 -8.388289e-01 -5.492026e-01 -4.684639e-01 -2.901294e-01 6.587529e-01 6.392612e-01 2.380363e-01 1.295901e-01 -1.555489e-01 1.248449e+00
<VARIANCE> 25
 3.587270e+01 8.476575e+01 6.812039e+01 1.093085e+02 7.857834e+01 1.061051e+02 8.271689e+01 9.388871e+01 8.549987e+01 1.131165e+02 7.681931e+01 6.647400e+01 1.954842e+00 6.178172e+00 4.797761e+00 7.050345e+00 6.037871e+00 7.433032e+00 6.829318e+00 7.613684e+00 7.071614e+00 7.308529e+00 6.465518e+00 5.747204e+00 4.541017e+00
<GCONST> 1.214247e+02
<TRANSP> 5
 0.000000e+00 1.000000e+00 0.000000e+00 0.000000e+00 0.000000e+00
 0.000000e+00 5.631669e-01 4.368331e-01 0.000000e+00 0.000000e+00
 0.000000e+00 0.000000e+00 4.111855e-01 5.888145e-01 0.000000e+00
 0.000000e+00 0.000000e+00 0.000000e+00 6.512229e-01 3.487771e-01
 0.000000e+00 0.000000e+00 0.000000e+00 0.000000e+00 0.000000e+00
<ENDHMM>
~h "c"
<BEGINHMM>
<NUMSTATES> 5
<STATE> 2
<MEAN> 25
 -8.667941e+00 4.996052e+00 5.631575e-01 1.703093e+00 3.382522e+00 1.799759e-01 2.591560e+00 -4.140223e-01 1.227792e+00 3.739374e-01 1.945252e+00 1.655470e+00 -2.226640e+00 9.489566e-03 6.225578e-03 -8.649049e-01 2.058606e-01 -5.735388e-02 5.807754e-01 -9.037848e-02 4.733030e-01 1.122353e-01 5.078584e-01 2.678995e-01 1.048461e+00
<VARIANCE> 25
 8.595620e+01 5.892038e+01 6.197998e+01 5.563238e+01 5.769761e+01 6.595202e+01 5.421529e+01 5.876435e+01 5.210006e+01 4.193697e+01 3.970690e+01 3.071292e+01 6.794793e+00 5.718987e+00 6.080995e+00 5.455746e+00 5.847578e+00 5.560945e+00 4.662694e+00 5.322624e+00 4.345149e+00 3.865772e+00 3.610423e+00 2.712087e+00 6.349192e+00
<GCONST> 1.145349e+02
<STATE> 3
<MEAN> 25
 -1.212568e+01 1.113717e+00 4.398150e+00 -2.031167e+00 -2.238689e-01 -6.206034e-01 2.946540e+00 -8.770210e-01 2.120272e+00 -1.950006e-01 2.805066e+00 2.619974e+00 1.962978e+00 -1.343798e+00 6.920510e-01 -2.277645e-01 -1.664858e+00 -1.298235e+00 -7.169361e-01 4.686356e-02 -1.665808e-01 -4.242840e-01 -2.161851e-01 -1.787957e-01 1.748962e+00
<VARIANCE> 25
 8.137894e+01 1.153341e+02 1.023637e+02 6.629831e+01 7.835143e+01 1.024180e+02 6.060764e+01 6.353321e+01 4.662260e+01 5.072012e+01 4.068275e+01 3.348094e+01 1.139014e+01 8.206585e+00 8.812630e+00 6.175511e+00 7.443445e+00 7.595309e+00 5.719557e+00 6.254330e+00 5.362855e+00 4.945427e+00 4.514511e+00 3.396388e+00 3.899511e+00
<GCONST> 1.196633e+02
<STATE> 4
<MEAN> 25
 -1.302792e+00 -2.290897e+00 3.525867e+00 -1.452105e+00 -4.166044e+00 -5.032635e+00 -2.478699e-01 -4.422784e-02 1.093308e+00 -1.332314e+00 7.804126e-01 1.052165e+00 3.126605e+00 -1.039592e+00 -7.956102e-01 -2.083433e-01 -7.046520e-01 -5.771635e-01 -8.585684e-01 1.302863e-01 -3.852757e-01 -8.439428e-02 -5.748276e-01 -6.661329e-01 9.625720e-01
<VARIANCE> 25
 5.860474e+01 6.617627e+01 6.230621e+01 4.932149e+01 6.364002e+01 8.551991e+01 6.349044e+01 7.095089e+01 5.528520e+01 4.493550e+01 4.304430e+01 3.139405e+01 6.123438e+00 7.386317e+00 7.578336e+00 4.656518e+00 6.802295e+00 6.755222e+00 5.387771e+00 5.831740e+00 5.121423e+00 5.351819e+00 4.750499e+00 3.230023e+00 2.430919e+00
<GCONST> 1.158621e+02
<TRANSP> 5
 0.000000e+00 1.000000e+00 0.000000e+00 0.000000e+00 0.000000e+00
 0.000000e+00 7.306623e-01 2.693377e-01 0.000000e+00 0.000000e+00
 0.000000e+00 0.000000e+00 6.038469e-01 3.961532e-01 0.000000e+00
 0.000000e+00 0.000000e+00 0.000000e+00 5.328845e-01 4.671156e-01
 0.000000e+00 0.000000e+00 0.000000e+00 0.000000e+00 0.000000e+00
<ENDHMM>
~h "d"
<BEGINHMM>
<NUMSTATES> 5
<STATE> 2
<MEAN> 25
 3.269472e+00 3.812477e+00 4.010300e+00 5.570981e+00 1.736045e-01 -1.271196e+00 -2.154375e+00 -1.092312e+00 -3.186752e-01 -2.255906e+00 -2.055869e+00 -1.617874e-01 2.047683e-01 -1.616903e-01 6.362266e-01 2.140338e-01 -3.839296e-01 -6.315544e-01 -4.895338e-01 1.502074e-03 -9.888681e-02 -4.408413e-01 2.643236e-01 2.362139e-01 5.660366e-01
<VARIANCE> 25
 3.360912e+01 6.585194e+01 4.285846e+01 5.480166e+01 6.696776e+01 5.934882e+01 5.571646e+01 5.481425e+01 4.727911e+01 4.296144e+01 4.353752e+01 3.380257e+01 3.073309e+00 8.188396e+00 3.985987e+00 6.347898e+00 6.685885e+00 6.439451e+00 6.284777e+00 6.022866e+00 5.114829e+00 4.885550e+00 4.793781e+00 3.734556e+00 7.366865e+00
<GCONST> 1.145860e+02
<STATE> 3
<MEAN> 25
 3.631450e+00 3.964275e-01 5.617451e+00 3.418728e+00 -3.120989e+00 -4.130715e+00 -4.401998e+00 -2.937681e-01 -1.357898e-01 -2.967931e+00 1.175419e-01 8.555297e-01 1.272624e-02 -1.676003e+00 1.805420e-01 -1.551434e+00 -1.394464e+00 -9.461199e-01 -6.980774e-01 7.936673e-01 2.850910e-01 2.403883e-01 9.059083e-01 1.261756e-01 2.012892e+00
<VARIANCE> 25
 2.308218e+01 5.592043e+01 4.541184e+01 6.175624e+01 7.761676e+01 6.665178e+01 6.676517e+01 6.636296e+01 5.960072e+01 5.024378e+01 4.935563e+01 4.102287e+01 2.421855e+00 6.663949e+00 4.932238e+00 6.590284e+00 7.469879e+00 7.092398e+00 7.528776e+00 8.026310e+00 6.454113e+00 5.851355e+00 5.726727e+00 4.327995e+00 5.861869e+00
<GCONST> 1.165583e+02
<STATE> 4
<MEAN> 25
 4.021487e+00 -2.307375e+00 5.509208e+00 2.294855e-01 -6.085607e+00 -5.692561e+00 -5.205473e+00 2.103669e+00 6.913528e-01 -2.062708e+00 1.224435e+00 -8.241911e-02 -7.083645e-02 -4.420143e-01 -3.517460e-01 -8.836049e-01 -2.239572e-01 6.594472e-02 2.907797e-01 3.324072e-01 9.136976e-02 4.420846e-01 6.574517e-02 -3.469549e-01 5.973612e-01
<VARIANCE> 25
 2.194114e+01 5.094759e+01 5.352887e+01 6.644744e+01 7.922572e+01 6.537901e+01 7.877471e+01 8.677837e+01 6.770365e+01 6.047725e+01 5.627492e+01 4.196817e+01 1.274360e+00 3.253074e+00 3.955710e+00 4.220859e+00 5.469387e+00 4.471814e+00 4.998463e+00 5.143163e+00 4.429645e+00 3.994568e+00 4.473875e+00 3.390956e+00 3.200471e+00
<GCONST> 1.120467e+02
<TRANSP> 5
 0.000000e+00 1.000000e+00 0.000000e+00 0.000000e+00 0.000000e+00
 0.000000e+00 5.395208e-01 4.604792e-01 0.000000e+00 0.000000e+00
 0.000000e+00 0.000000e+00 4.660520e-01 5.339480e-01 0.000000e+00
 0.000000e+00 0.000000e+00 0.000000e+00 5.347257e-01 4.652743e-01
 0.000000e+00 0.000000e+00 0.000000e+00 0.000000e+00 0.000000e+00
<ENDHMM>
~h "e"
<BEGINHMM>
<NUMSTATES> 5
<STATE> 2
<MEAN> 25
 2.000851e+00 -3.970110e+00 1.881919e+00 -4.348881e-01 -4.981166e+00 -4.959497e+00 8.239451e-01 3.264538e+00 -3.160682e-01 4.579174e-01 9.339628e-01 -1.569373e-01 3.322597e-01 -5.611197e-01 2.531899e-01 -2.827958e-01 -6.829365e-01 -3.991522e-01 4.773399e-01 4.954566e-01 -3.339177e-01 1.735345e-02 1.516889e-01 -5.851901e-02 6.845426e-01
<VARIANCE> 25
 4.515502e+01 5.387019e+01 6.186558e+01 5.061341e+01 7.576277e+01 9.067136e+01 6.438723e+01 7.802963e+01 5.814259e+01 4.703750e+01 4.776781e+01 3.452725e+01 3.486965e+00 3.892201e+00 3.859344e+00 4.028318e+00 4.771494e+00 5.258457e+00 4.469055e+00 4.994293e+00 4.252543e+00 3.579967e+00 3.540412e+00 2.732800e+00 4.077681e+00
<GCONST> 1.125494e+02
<STATE> 3
<MEAN> 25
 2.699263e+00 -4.632040e+00 2.574402e+00 -8.680027e-01 -6.306192e+00 -5.794092e+00 1.674802e+00 3.760540e+00 -1.082773e+00 6.023059e-01 1.144874e+00 -5.479769e-01 -1.522395e-01 3.983685e-01 -5.019643e-02 2.487544e-01 2.659209e-01 2.980091e-01 2.777795e-01 -1.852230e-01 -8.328377e-02 8.163447e-02 -3.393378e-02 4.341684e-02 -5.054698e-01
<VARIANCE> 25
 3.165768e+01 4.732244e+01 6.379988e+01 5.121127e+01 7.382630e+01 9.029557e+01 6.692522e+01 8.090229e+01 6.068335e+01 4.493950e+01 4.727038e+01 3.390314e+01 1.428578e+00 2.215389e+00 2.354750e+00 2.667621e+00 3.047532e+00 3.146549e+00 2.970983e+00 3.108921e+00 3.074138e+00 2.608840e+00 2.601214e+00 2.063837e+00 2.228906e+00
<GCONST> 1.060801e+02
<STATE> 4
<MEAN> 25
 -1.638572e+00 -1.445795e+00 1.067697e+00 1.513015e+00 -2.101090e+00 -1.741223e+00 2.836145e+00 2.702086e+00 7.648301e-02 1.083348e+00 1.365731e+00 1.092812e+00 -1.990463e-01 3.802729e-01 -1.357542e-01 2.201369e-01 4.516374e-01 3.396708e-01 -2.944634e-02 -1.904315e-01 6.141502e-02 -1.552716e-02 -7.783296e-02 4.105511e-02 -5.096728e-01
<VARIANCE> 25
 5.154935e+01 3.996671e+01 4.905395e+01 4.390833e+01 6.760856e+01 8.068762e+01 4.900453e+01 5.197333e+01 4.986180e+01 4.029375e+01 3.572893e+01 2.978374e+01 7.747158e-01 1.259386e+00 1.254475e+00 1.452283e+00 2.008571e+00 2.081346e+00 1.964726e+00 2.092804e+00 2.018672e+00 1.899969e+00 1.738376e+00 1.510282e+00 9.271834e-01
<GCONST> 9.792831e+01
<TRANSP> 5
 0.000000e+00 1.000000e+00 0.000000e+00 0.000000e+00 0.000000e+00
 0.000000e+00 4.460888e-01 5.539112e-01 0.000000e+00 0.000000e+00
 0.000000e+00 0.000000e+00 4.064148e-01 5.935852e-01 0.000000e+00
 0.000000e+00 0.000000e+00 0.000000e+00 8.061908e-01 1.938092e-01
 0.000000e+00 0.000000e+00 0.000000e+00 0.000000e+00 0.000000e+00
<ENDHMM>
~h "f"
<BEGINHMM>
<NUMSTATES> 5
<STATE> 2
<MEAN> 25
 -5.187137e+00 1.670382e+00 1.282342e+00 5.072439e+00 2.871314e+00 -1.412741e-01 2.321784e+00 4.348584e-01 1.248463e+00 6.270245e-01 1.314416e+00 1.407259e+00 -1.668749e+00 -2.231402e-01 -3.473942e-01 3.306291e-01 5.816954e-01 -9.303316e-03 3.757115e-01 1.716612e-01 5.897803e-01 1.260004e-01 2.236728e-01 3.112659e-01 -3.457891e-01
<VARIANCE> 25
 5.872389e+01 3.195209e+01 5.171891e+01 5.057027e+01 4.937013e+01 5.948372e+01 3.998475e+01 4.582693e+01 3.901948e+01 3.194189e+01 2.888911e+01 2.748950e+01 4.914284e+00 3.246205e+00 3.589808e+00 4.539601e+00 5.061820e+00 5.275175e+00 3.908231e+00 3.926676e+00 4.223404e+00 3.237665e+00 2.952019e+00 2.432929e+00 2.331019e+00
<GCONST> 1.076664e+02
<STATE> 3
<MEAN> 25
 -8.713060e+00 -5.518537e-01 5.877767e-01 4.761349e+00 3.198916e+00 -2.863439e-01 2.412167e+00 3.109218e-01 2.076073e+00 9.628597e-01 1.924310e+00 1.886148e+00 4.908799e-01 -6.320626e-01 -8.878224e-03 -5.665699e-01 -5.710869e-01 -4.426957e-01 -2.289754e-01 -2.191128e-01 -3.455775e-01 -9.285064e-02 2.999581e-02 -8.912589e-02 5.897653e-01
<VARIANCE> 25
 4.979741e+01 3.825100e+01 4.911367e+01 5.069195e+01 4.665515e+01 6.322633e+01 3.737887e+01 4.202214e+01 3.905444e+01 3.016268e+01 2.851349e+01 2.494873e+01 6.433860e+00 3.376505e+00 4.374257e+00 4.238122e+00 4.296979e+00 5.182101e+00 3.652951e+00 3.533388e+00 4.310835e+00 2.956818e+00 2.814071e+00 2.472166e+00 2.742100e+00
<GCONST> 1.074594e+02
<STATE> 4
<MEAN> 25
 -3.771220e+00 -2.270233e+00 1.938359e+00 1.709513e+00 1.948886e-01 5.401381e-01 1.185117e+00 -1.506318e+00 -1.571471e-01 9.138118e-01 1.593095e+00 1.112158e+00 2.074411e+00 -1.130948e-01 4.730555e-01 -1.012959e+00 -1.344734e+00 -4.132723e-01 -7.035581e-01 -3.601029e-01 -8.645584e-01 -1.933991e-01 -7.493763e-02 -5.607966e-01 1.137152e+00
<VARIANCE> 25
 9.332239e+01 6.296180e+01 1.247641e+02 1.090910e+02 8.214873e+01 1.486692e+02 6.023392e+01 5.511217e+01 6.232650e+01 4.963466e+01 3.948708e+01 3.149648e+01 6.909400e+00 5.352890e+00 8.069422e+00 7.209418e+00 7.559279e+00 8.534591e+00 5.029099e+00 4.911698e+00 6.390732e+00 4.310191e+00 4.220331e+00 3.212656e+00 3.748681e+00
<GCONST> 1.191169e+02
<TRANSP> 5
 0.000000e+00 1.000000e+00 0.000000e+00 0.000000e+00 0.000000e+00
 0.000000e+00 6.395174e-01 3.604826e-01 0.000000e+00 0.000000e+00
 0.000000e+00 0.000000e+00 5.220248e-01 4.779752e-01 0.000000e+00
 0.000000e+00 0.000000e+00 0.000000e+00 6.059602e-01 3.940399e-01
 0.000000e+00 0.000000e+00 0.000000e+00 0.000000e+00 0.000000e+00
<ENDHMM>
~h "g"
<BEGINHMM>
<NUMSTATES> 5
<STATE> 2
<MEAN> 25
 3.610406e+00 2.777205e+00 2.469428e+00 1.796531e+00 -5.304091e-01 -4.234436e-01 -1.841589e+00 -2.201984e+00 -2.208326e+00 -2.073831e-02 -9.716541e-01 -1.588280e+00 -7.548514e-02 -3.457484e-02 1.282339e-01 5.140884e-02 4.317510e-02 -4.036639e-01 -2.891702e-01 1.255018e-01 -5.020987e-02 4.604390e-02 1.606873e-01 -9.903090e-02 1.579224e-01
<VARIANCE> 25
 2.792643e+01 4.611641e+01 4.679937e+01 5.000465e+01 6.515245e+01 6.693460e+01 6.005477e+01 5.841719e+01 5.256645e+01 4.832492e+01 4.413537e+01 3.664477e+01 1.773661e+00 4.101332e+00 3.652584e+00 4.117204e+00 5.592147e+00 5.074305e+00 4.754467e+00 4.675529e+00 4.421289e+00 3.922463e+00 3.768219e+00 3.031319e+00 3.599913e+00
<GCONST> 1.103491e+02
<STATE> 3
<MEAN> 25
 3.629615e+00 1.983458e+00 2.428610e+00 1.386649e+00 -8.396148e-01 -1.618479e+00 -2.669594e+00 -1.394550e+00 -1.907431e+00 1.443585e-01 -4.623019e-01 -1.820317e+00 -1.481549e-01 -4.435863e-01 -1.806209e-01 -3.776889e-01 -4.655841e-02 -3.358980e-01 -1.028651e-01 5.594323e-01 3.348989e-01 3.919541e-02 1.708982e-01 -1.229075e-02 4.392494e-01
<VARIANCE> 25
 2.705208e+01 4.768633e+01 4.951950e+01 5.287793e+01 6.897312e+01 7.360857e+01 6.678996e+01 6.261919e+01 5.487804e+01 5.348359e+01 4.960909e+01 3.907553e+01 1.518989e+00 3.943357e+00 3.575885e+00 4.351305e+00 6.035290e+00 4.967300e+00 4.842048e+00 5.144444e+00 4.692974e+00 4.243675e+00 4.086712e+00 3.301576e+00 3.198638e+00
<GCONST> 1.113118e+02
<STATE> 4
<MEAN> 25
 3.297883e+00 1.593139e+00 2.173215e+00 7.474356e-01 -1.184351e+00 -1.822881e+00 -2.476194e+00 -4.620810e-01 -1.059603e+00 -2.240596e-01 -5.729346e-01 -1.791580e+00 -2.638658e-01 -3.821105e-01 -2.482444e-01 -3.885102e-01 1.083298e-01 4.704581e-02 2.238222e-01 3.797790e-01 2.819217e-01 -1.639825e-02 2.864812e-02 1.109582e-01 2.741179e-01
<VARIANCE> 25
 3.263276e+01 5.792926e+01 5.121481e+01 6.335015e+01 7.021108e+01 7.311517e+01 6.461835e+01 6.537722e+01 6.065626e+01 5.829455e+01 5.032367e+01 4.054642e+01 1.345548e+00 2.765860e+00 3.080749e+00 3.230657e+00 4.053722e+00 3.676361e+00 3.674675e+00 3.981128e+00 3.712182e+00 3.364061e+00 3.323305e+00 2.647019e+00 1.821184e+00
<GCONST> 1.085553e+02
<TRANSP> 5
 0.000000e+00 1.000000e+00 0.000000e+00 0.000000e+00 0.000000e+00
 0.000000e+00 3.506694e-01 6.493307e-01 0.000000e+00 0.000000e+00
 0.000000e+00 0.000000e+00 3.274890e-01 6.725110e-01 0.000000e+00
 0.000000e+00 0.000000e+00 0.000000e+00 4.314012e-01 5.685989e-01
 0.000000e+00 0.000000e+00 0.000000e+00 0.000000e+00 0.000000e+00
<ENDHMM>
~h "h"
<BEGINHMM>
<NUMSTATES> 5
<STATE> 2
<MEAN> 25
 1.120583e+00 -3.623823e+00 -1.834155e+00 -9.942025e-01 3.097951e+00 1.790611e+00 2.980556e+00 1.215298e+00 7.399065e-01 -8.682357e-01 -1.835965e+00 -7.805361e-02 -4.869133e-01 9.518871e-03 -3.055171e-02 4.037248e-01 5.513870e-01 3.414077e-01 4.745446e-01 9.261689e-02 4.607405e-02 -8.867902e-02 1.832413e-02 2.011794e-01 -5.167087e-01
<VARIANCE> 25
 3.443998e+01 4.995777e+01 6.297693e+01 6.412460e+01 1.000616e+02 7.584380e+01 6.800033e+01 6.037855e+01 5.421540e+01 5.702707e+01 5.238422e+01 3.914344e+01 1.431174e+00 2.336161e+00 2.459304e+00 2.647799e+00 3.320671e+00 3.199650e+00 3.198658e+00 3.145844e+00 3.048028e+00 2.989890e+00 2.804983e+00 2.416102e+00 1.763823e+00
<GCONST> 1.070613e+02
<STATE> 3
<MEAN> 25
 5.031425e-01 -3.309304e+00 -1.915206e+00 -1.306384e-01 3.613456e+00 1.796022e+00 3.193028e+00 1.218447e+00 6.354212e-01 -9.953197e-01 -1.706095e+00 1.568096e-01 -3.419223e-01 2.017414e-01 -2.079624e-02 2.552781e-01 1.256716e-01 1.163040e-01 1.181264e-01 -2.489135e-03 -2.156367e-02 4.865650e-02 8.315334e-02 1.153738e-01 -5.701854e-01
<VARIANCE> 25
 3.508364e+01 5.080058e+01 5.883936e+01 5.644399e+01 8.660934e+01 6.593046e+01 6.370722e+01 5.737419e+01 4.964682e+01 5.188654e+01 5.043383e+01 3.679395e+01 1.059287e+00 1.698393e+00 1.941284e+00 2.089897e+00 2.684019e+00 2.694289e+00 2.708785e+00 2.658015e+00 2.576224e+00 2.508609e+00 2.342671e+00 2.087411e+00 1.167881e+00
<GCONST> 1.033232e+02
<STATE> 4
<MEAN> 25
 -4.084441e+00 -5.541996e-01 -2.020600e+00 2.188967e+00 3.568935e+00 2.897986e+00 2.959456e+00 1.525206e+00 8.232442e-01 3.554966e-01 4.302288e-01 1.734757e+00 -7.793126e-02 1.284394e-01 3.134204e-02 4.662384e-02 -4.596586e-02 -2.132647e-02 -4.615221e-02 -3.066606e-02 -1.800751e-02 3.873517e-02 3.481379e-02 1.145684e-02 -1.930616e-01
<VARIANCE> 25
 4.292843e+01 3.931758e+01 3.468505e+01 4.640203e+01 4.339422e+01 4.009076e+01 3.648724e+01 3.867165e+01 3.538592e+01 4.184958e+01 3.529243e+01 2.834167e+01 5.148739e-01 8.144035e-01 9.848452e-01 1.169261e+00 1.449820e+00 1.574042e+00 1.640651e+00 1.736715e+00 1.727636e+00 1.690340e+00 1.560398e+00 1.416175e+00 4.897648e-01
<GCONST> 9.197861e+01
<TRANSP> 5
 0.000000e+00 1.000000e+00 0.000000e+00 0.000000e+00 0.000000e+00
 0.000000e+00 4.065094e-01 5.934906e-01 0.000000e+00 0.000000e+00
 0.000000e+00 0.000000e+00 3.569396e-01 6.430604e-01 0.000000e+00
 0.000000e+00 0.000000e+00 0.000000e+00 8.988909e-01 1.011091e-01
 0.000000e+00 0.000000e+00 0.000000e+00 0.000000e+00 0.000000e+00
<ENDHMM>
~h "i"
<BEGINHMM>
<NUMSTATES> 5
<STATE> 2
<MEAN> 25
 1.262006e-01 9.101226e-01 1.192715e+01 5.194623e-01 -7.524446e+00 -4.269336e+00 -2.633933e+00 -3.478823e+00 -4.716272e+00 -6.461771e-01 2.680693e+00 -1.948233e-01 2.272855e-01 -1.513948e-01 2.140539e+00 -8.414793e-01 -1.814731e+00 -2.386381e-01 -8.205099e-01 -5.016079e-01 -1.038712e+00 1.435718e-01 6.223262e-01 -2.341398e-01 9.842604e-01
<VARIANCE> 25
 3.167046e+01 5.206549e+01 7.695573e+01 7.961562e+01 9.131161e+01 8.715341e+01 6.565813e+01 6.967640e+01 6.646278e+01 5.335309e+01 5.594078e+01 3.953114e+01 3.735051e+00 3.649833e+00 6.530189e+00 6.381822e+00 7.039927e+00 6.755726e+00 6.030650e+00 5.781421e+00 5.800866e+00 4.800622e+00 5.135939e+00 3.533227e+00 2.780461e+00
<GCONST> 1.163641e+02
<STATE> 3
<MEAN> 25
 6.813709e-01 1.261035e+00 1.540886e+01 -1.266079e+00 -1.121919e+01 -4.355530e+00 -3.962193e+00 -3.894069e+00 -6.575775e+00 -1.992864e-01 4.014487e+00 -9.873616e-01 8.092499e-02 2.831006e-01 -3.183770e-01 1.553266e-01 2.625715e-01 1.455158e-01 9.792082e-02 7.860906e-02 2.298523e-01 1.107784e-01 -2.005371e-01 7.870698e-02 -4.249677e-01
<VARIANCE> 25
 1.835826e+01 4.210735e+01 7.348282e+01 8.056367e+01 8.064005e+01 8.072374e+01 6.005881e+01 6.513868e+01 6.808130e+01 5.825029e+01 6.414410e+01 4.061496e+01 1.254787e+00 2.238604e+00 3.397264e+00 3.600901e+00 4.069635e+00 3.901179e+00 3.724617e+00 3.841549e+00 3.534389e+00 3.008533e+00 3.057868e+00 2.348656e+00 2.081803e+00
<GCONST> 1.085184e+02
<STATE> 4
<MEAN> 25
 -4.049656e-01 3.206347e+00 1.078436e+01 7.382722e-01 -6.160226e+00 -2.304740e+00 -2.890980e+00 -3.911093e+00 -3.682903e+00 3.148185e-02 1.179755e+00 2.682133e-01 -9.716755e-02 1.305519e-01 -1.065174e+00 4.510885e-01 8.876918e-01 2.631477e-01 4.333604e-01 3.153950e-01 4.355138e-01 -4.237111e-02 -2.706280e-01 1.383183e-01 -7.129794e-01
<VARIANCE> 25
 2.618866e+01 4.673677e+01 5.882514e+01 9.804365e+01 8.070411e+01 7.341973e+01 6.500278e+01 6.222532e+01 5.753222e+01 5.077934e+01 5.204918e+01 3.992575e+01 9.941918e-01 1.752566e+00 2.333367e+00 2.618389e+00 3.054151e+00 2.902189e+00 2.918718e+00 2.995613e+00 2.768365e+00 2.576952e+00 2.558242e+00 2.002797e+00 1.296845e+00
<GCONST> 1.049020e+02
<TRANSP> 5
 0.000000e+00 1.000000e+00 0.000000e+00 0.000000e+00 0.000000e+00
 0.000000e+00 6.113159e-01 3.886841e-01 0.000000e+00 0.000000e+00
 0.000000e+00 0.000000e+00 5.955495e-01 4.044505e-01 0.000000e+00
 0.000000e+00 0.000000e+00 0.000000e+00 7.973922e-01 2.026077e-01
 0.000000e+00 0.000000e+00 0.000000e+00 0.000000e+00 0.000000e+00
<ENDHMM>
~h "j"
<BEGINHMM>
<NUMSTATES> 5
<STATE> 2
<MEAN> 25
 -2.826919e+00 7.067935e+00 5.633524e+00 3.893812e+00 1.585864e+00 -1.246893e+00 5.102983e-01 -9.766980e-01 -7.978188e-01 -2.316772e+00 -1.336250e-01 8.749533e-01 -1.277020e+00 3.614572e-01 8.829541e-01 -4.092806e-01 -1.246574e-01 -3.570615e-01 6.280306e-02 -4.119048e-01 -1.206711e-01 -1.015600e-01 4.049278e-01 2.461258e-01 8.122365e-01
<VARIANCE> 25
 7.139072e+01 5.857749e+01 5.500370e+01 5.125092e+01 6.208569e+01 6.310063e+01 5.080515e+01 4.429354e+01 4.106015e+01 3.652527e+01 3.298030e+01 2.992711e+01 6.959849e+00 5.929263e+00 5.271417e+00 5.531241e+00 7.299920e+00 6.501593e+00 5.263843e+00 4.461524e+00 4.390066e+00 4.090994e+00 3.710103e+00 2.841566e+00 5.701712e+00
<GCONST> 1.135227e+02
<STATE> 3
<MEAN> 25
 -3.920122e+00 3.900380e+00 1.104195e+01 1.619446e+00 -3.465365e+00 -4.716735e+00 -1.990381e+00 -2.827240e+00 -2.192544e+00 -2.195045e+00 2.344089e+00 2.148526e+00 1.391996e+00 -1.681108e+00 7.402740e-01 -5.630912e-01 -2.194721e+00 -1.502194e+00 -1.298849e+00 1.620275e-01 -3.137680e-01 1.106897e-01 6.552468e-01 1.803165e-01 1.639726e+00
<VARIANCE> 25
 4.863145e+01 7.605898e+01 6.421839e+01 6.165641e+01 8.156213e+01 8.042915e+01 5.966061e+01 5.143634e+01 4.540430e+01 4.404576e+01 3.755452e+01 3.598424e+01 6.760043e+00 6.866646e+00 6.913893e+00 5.685883e+00 9.076727e+00 6.809294e+00 6.556086e+00 6.368855e+00 5.094064e+00 5.074564e+00 4.222669e+00 3.399462e+00 3.162095e+00
<GCONST> 1.165067e+02
<STATE> 4
<MEAN> 25
 1.563990e+00 -3.562341e-01 9.509509e+00 6.338799e-02 -8.147583e+00 -7.732315e+00 -4.855239e+00 3.201856e-01 -1.839875e+00 -1.204812e+00 2.986183e+00 1.900812e+00 8.794901e-01 -8.864046e-01 -1.336340e+00 -4.155934e-01 1.673610e-01 1.576438e-01 -1.461613e-01 7.895068e-01 5.787373e-01 3.723278e-01 -2.588465e-01 -5.178823e-01 2.624435e-01
<VARIANCE> 25
 2.087342e+01 4.294154e+01 4.794395e+01 6.096346e+01 6.918309e+01 5.477280e+01 6.469230e+01 6.869003e+01 4.990556e+01 4.996185e+01 4.086145e+01 3.600147e+01 2.010289e+00 3.777945e+00 3.669662e+00 3.276619e+00 5.824100e+00 4.482880e+00 5.054477e+00 4.928187e+00 3.853444e+00 3.550424e+00 3.695305e+00 3.295433e+00 2.079040e+00
<GCONST> 1.093193e+02
<TRANSP> 5
 0.000000e+00 1.000000e+00 0.000000e+00 0.000000e+00 0.000000e+00
 0.000000e+00 7.341128e-01 2.658872e-01 0.000000e+00 0.000000e+00
 0.000000e+00 0.000000e+00 6.063948e-01 3.936052e-01 0.000000e+00
 0.000000e+00 0.000000e+00 0.000000e+00 6.803849e-01 3.196151e-01
 0.000000e+00 0.000000e+00 0.000000e+00 0.000000e+00 0.000000e+00
<ENDHMM>
~h "k"
<BEGINHMM>
<NUMSTATES> 5
<STATE> 2
<MEAN> 25
 -3.605790e+00 1.554283e+00 -2.637321e+00 2.307643e+00 3.786887e+00 2.001469e+00 1.729503e+00 8.695781e-01 1.112325e+00 1.834053e+00 1.022517e+00 1.135994e+00 -7.570097e-01 -8.726591e-01 -9.103476e-01 -3.059597e-01 7.377372e-01 -2.317393e-01 3.221517e-02 3.846498e-01 3.557718e-01 4.100032e-01 1.086398e-01 2.164610e-01 5.132452e-01
<VARIANCE> 25
 4.699112e+01 4.612293e+01 5.391099e+01 5.488478e+01 6.656862e+01 6.469654e+01 5.130822e+01 5.034030e+01 4.962998e+01 4.285476e+01 4.045180e+01 3.445876e+01 3.973834e+00 5.830603e+00 5.478719e+00 5.834608e+00 6.819737e+00 6.579600e+00 5.609091e+00 5.268814e+00 5.185814e+00 4.573255e+00 4.122158e+00 3.643075e+00 7.219543e+00
<GCONST> 1.143973e+02
<STATE> 3
<MEAN> 25
 -3.224962e+00 -3.003063e+00 -5.142976e+00 -1.021641e+00 4.445656e+00 1.506558e-01 9.881181e-01 1.529365e+00 1.802642e+00 2.516613e+00 6.331089e-01 6.644774e-01 8.776987e-01 -1.094661e+00 -1.821211e-01 -1.161570e+00 -5.666199e-01 -7.187790e-01 -1.580720e-01 2.242659e-02 -1.771372e-02 -1.311175e-01 -2.165556e-01 -4.799798e-01 2.235144e+00
<VARIANCE> 25
 5.014453e+01 5.686184e+01 8.051014e+01 7.063570e+01 1.004654e+02 9.063321e+01 6.563908e+01 6.486816e+01 6.230730e+01 5.348695e+01 4.654661e+01 4.299386e+01 6.220170e+00 6.045645e+00 6.910125e+00 7.214043e+00 8.936465e+00 8.280951e+00 6.717127e+00 6.615508e+00 6.631559e+00 6.095282e+00 5.372549e+00 4.778459e+00 6.773193e+00
<GCONST> 1.202267e+02
<STATE> 4
<MEAN> 25
 -7.503153e-01 -3.696308e+00 -4.181517e+00 -2.415003e+00 1.913009e+00 -7.299073e-01 1.151039e+00 1.106597e+00 1.112640e+00 1.367192e+00 -6.429610e-02 -4.160794e-01 1.292211e+00 -1.723783e-01 4.475693e-01 -6.855417e-01 -1.051400e+00 -2.694290e-01 -1.969259e-01 -2.814782e-01 -4.274421e-01 -4.633791e-01 -2.541366e-01 -5.306932e-01 1.225880e+00
<VARIANCE> 25
 5.220453e+01 5.230853e+01 6.402907e+01 5.934444e+01 7.236163e+01 7.063934e+01 5.327045e+01 5.608660e+01 5.348023e+01 4.698463e+01 4.423189e+01 4.053967e+01 4.119961e+00 4.111805e+00 4.651737e+00 4.831654e+00 5.647145e+00 5.435829e+00 4.980920e+00 4.974300e+00 5.020097e+00 4.470881e+00 4.246398e+00 3.501826e+00 3.606342e+00
<GCONST> 1.136336e+02
<TRANSP> 5
 0.000000e+00 1.000000e+00 0.000000e+00 0.000000e+00 0.000000e+00
 0.000000e+00 5.395355e-01 4.604645e-01 0.000000e+00 0.000000e+00
 0.000000e+00 0.000000e+00 5.312259e-01 4.687741e-01 0.000000e+00
 0.000000e+00 0.000000e+00 0.000000e+00 4.673890e-01 5.326110e-01
 0.000000e+00 0.000000e+00 0.000000e+00 0.000000e+00 0.000000e+00
<ENDHMM>
~h "l"
<BEGINHMM>
<NUMSTATES> 5
<STATE> 2
<MEAN> 25
 6.197074e+00 -3.472907e+00 -2.525172e+00 -4.325625e+00 -1.941796e+00 -5.405509e-01 -4.544394e+00 -3.210186e+00 3.282376e+00 2.863806e+00 -7.759067e-01 -2.503884e+00 2.329939e-01 -1.364046e-01 -1.325349e-01 -3.069554e-01 5.287787e-02 8.737409e-02 -4.695662e-01 -1.873607e-01 3.595226e-01 4.469628e-01 -1.716161e-01 -2.176508e-01 7.105345e-02
<VARIANCE> 25
 2.422877e+01 3.743069e+01 4.755017e+01 6.308789e+01 6.506113e+01 8.380302e+01 6.975129e+01 8.008002e+01 6.050445e+01 7.484106e+01 5.515091e+01 4.116696e+01 8.799742e-01 1.879105e+00 2.306172e+00 3.145083e+00 3.353758e+00 3.882578e+00 3.923034e+00 4.960807e+00 3.512022e+00 3.717468e+00 3.252177e+00 2.775551e+00 1.088080e+00
<GCONST> 1.070140e+02
<STATE> 3
<MEAN> 25
 6.317109e+00 -3.637484e+00 -2.840241e+00 -5.071006e+00 -1.455273e+00 -2.716619e-01 -5.194612e+00 -3.125496e+00 3.758854e+00 3.355722e+00 -1.241694e+00 -2.919148e+00 -7.269489e-02 -6.087074e-02 -3.476669e-02 -8.155890e-02 1.934977e-01 3.238938e-02 9.816104e-02 3.730599e-01 -3.458739e-02 -2.005005e-01 -1.784481e-01 -3.356480e-02 4.656613e-03
<VARIANCE> 25
 2.222871e+01 3.588156e+01 4.631652e+01 6.328063e+01 6.192248e+01 7.998830e+01 7.161163e+01 7.811974e+01 6.102999e+01 7.627982e+01 5.727567e+01 4.230599e+01 5.352172e-01 1.606170e+00 1.863969e+00 2.467336e+00 2.717398e+00 3.249274e+00 3.465279e+00 4.355626e+00 3.030647e+00 3.267605e+00 3.038451e+00 2.321384e+00 8.009769e-01
<GCONST> 1.042789e+02
<STATE> 4
<MEAN> 25
 5.535570e+00 -2.767635e+00 -3.106307e+00 -4.369740e+00 -8.875476e-01 -3.504964e-01 -3.603009e+00 -1.375596e+00 2.909566e+00 1.532593e+00 -1.817816e+00 -2.343607e+00 -2.570240e-01 1.405550e-01 1.685416e-01 2.546438e-01 1.240595e-01 2.587728e-02 3.896809e-01 3.620366e-01 -3.596869e-01 -3.899822e-01 3.058339e-02 1.737382e-01 -2.402172e-01
<VARIANCE> 25
 2.665953e+01 4.138426e+01 5.060196e+01 6.633490e+01 7.443903e+01 8.207902e+01 7.143246e+01 7.540958e+01 5.869557e+01 8.025354e+01 6.062822e+01 4.469928e+01 5.511429e-01 1.485413e+00 1.694638e+00 2.172809e+00 2.534864e+00 2.830158e+00 2.871981e+00 3.211965e+00 2.747581e+00 2.917900e+00 2.703544e+00 2.039731e+00 8.795504e-01
<GCONST> 1.036997e+02
<TRANSP> 5
 0.000000e+00 1.000000e+00 0.000000e+00 0.000000e+00 0.000000e+00
 0.000000e+00 4.581496e-01 5.418503e-01 0.000000e+00 0.000000e+00
 0.000000e+00 0.000000e+00 4.509166e-01 5.490834e-01 0.000000e+00
 0.000000e+00 0.000000e+00 0.000000e+00 6.301060e-01 3.698940e-01
 0.000000e+00 0.000000e+00 0.000000e+00 0.000000e+00 0.000000e+00
<ENDHMM>
~h "m"
<BEGINHMM>
<NUMSTATES> 5
<STATE> 2
<MEAN> 25
 5.601238e+00 1.957870e+00 -1.211100e-01 1.000045e+00 4.964902e-01 2.630530e+00 -1.360470e+00 -4.858562e+00 -4.013793e+00 -3.095451e-01 -7.273899e-01 -1.701123e+00 6.705439e-02 6.732415e-01 5.413864e-01 9.460012e-01 2.353040e-01 3.673879e-01 1.548429e-01 -9.808692e-01 -9.360575e-01 -2.067989e-01 -4.117490e-01 -1.138482e-01 -5.601599e-01
<VARIANCE> 25
 2.434588e+01 3.503355e+01 3.673061e+01 4.428313e+01 3.977036e+01 5.150769e+01 4.457800e+01 5.135665e+01 5.260995e+01 3.975419e+01 3.795026e+01 3.023763e+01 1.073140e+00 2.143115e+00 3.055844e+00 3.724042e+00 2.702519e+00 2.970270e+00 3.113923e+00 3.761726e+00 3.944294e+00 2.849196e+00 3.017226e+00 2.339979e+00 1.673323e+00
<GCONST> 1.028386e+02
<STATE> 3
<MEAN> 25
 5.621099e+00 2.772340e+00 6.700972e-01 2.077376e+00 7.393759e-01 3.315850e+00 -1.062768e+00 -6.236102e+00 -5.322260e+00 -7.966307e-01 -1.559650e+00 -1.972493e+00 3.627798e-02 -5.858146e-02 -1.734262e-01 -1.220701e-01 8.969578e-02 2.098954e-01 6.091471e-02 1.138545e-01 1.188107e-01 -7.514340e-02 -1.148016e-01 -1.666132e-01 5.080491e-02
<VARIANCE> 25
 2.279306e+01 3.423209e+01 3.611112e+01 4.030397e+01 4.016571e+01 5.356248e+01 4.705153e+01 5.500933e+01 5.951683e+01 4.230227e+01 3.916293e+01 3.147368e+01 7.334707e-01 1.997417e+00 2.741595e+00 3.351381e+00 2.348896e+00 2.625892e+00 2.596629e+00 3.317320e+00 3.756508e+00 2.518872e+00 2.552844e+00 2.129728e+00 1.309285e+00
<GCONST> 1.011527e+02
<STATE> 4
<MEAN> 25
 4.791163e+00 2.596338e+00 -5.390677e-01 1.091823e+00 1.093289e+00 3.205238e+00 -9.154071e-01 -3.781621e+00 -3.346461e+00 -1.038068e+00 -1.639734e+00 -2.092327e+00 -8.202240e-02 -3.775581e-01 -4.127852e-01 -4.956862e-01 -3.524871e-02 -9.369795e-02 -2.426393e-04 6.878595e-01 6.527203e-01 7.738716e-02 1.580820e-01 -8.800346e-03 2.500267e-01
<VARIANCE> 25
 2.965151e+01 4.039709e+01 4.064106e+01 4.774253e+01 4.412589e+01 5.403685e+01 4.621917e+01 5.015428e+01 5.422221e+01 4.030352e+01 3.804206e+01 3.244144e+01 7.051622e-01 1.898690e+00 2.389813e+00 2.899442e+00 2.583396e+00 2.597583e+00 2.492589e+00 3.149055e+00 3.416616e+00 2.476204e+00 2.495870e+00 2.123142e+00 1.130221e+00
<GCONST> 1.010557e+02
<TRANSP> 5
 0.000000e+00 1.000000e+00 0.000000e+00 0.000000e+00 0.000000e+00
 0.000000e+00 4.991257e-01 5.008743e-01 0.000000e+00 0.000000e+00
 0.000000e+00 0.000000e+00 4.692295e-01 5.307705e-01 0.000000e+00
 0.000000e+00 0.000000e+00 0.000000e+00 6.740111e-01 3.259889e-01
 0.000000e+00 0.000000e+00 0.000000e+00 0.000000e+00 0.000000e+00
<ENDHMM>
~h "n"
<BEGINHMM>
<NUMSTATES> 5
<STATE> 2
<MEAN> 25
 5.259970e+00 -5.050273e-01 1.986045e+00 1.780082e+00 -2.008035e+00 -1.373482e+00 -2.113268e+00 -1.438372e+00 -9.098676e-01 -7.171060e-01 -3.209529e+00 -1.335772e+00 1.687189e-01 1.374900e+00 5.890003e-01 1.126223e+00 -1.864574e-02 2.143299e-01 -6.280804e-02 -1.192236e+00 -2.762265e-01 -2.095379e-02 -4.319638e-01 6.582761e-02 -1.171284e+00
<VARIANCE> 25
 1.922327e+01 4.127352e+01 4.060293e+01 4.369086e+01 5.208603e+01 5.141800e+01 4.596564e+01 6.120304e+01 4.711413e+01 4.717475e+01 4.382494e+01 3.346181e+01 9.572588e-01 2.627800e+00 2.776169e+00 3.165214e+00 3.693882e+00 3.557092e+00 3.426494e+00 5.087910e+00 3.462331e+00 3.258910e+00 3.141053e+00 2.512368e+00 1.769744e+00
<GCONST> 1.045260e+02
<STATE> 3
<MEAN> 25
 5.182818e+00 2.427104e+00 2.771451e+00 3.457181e+00 -1.671025e+00 -6.638415e-01 -1.970179e+00 -3.588329e+00 -1.490566e+00 -8.073043e-01 -3.742857e+00 -1.220158e+00 -1.358948e-01 7.948562e-01 2.260547e-01 4.028127e-01 2.329317e-01 2.355172e-01 1.256272e-01 -3.249058e-01 -2.066237e-01 -5.327422e-02 -3.546673e-02 3.633568e-02 -6.627046e-01
<VARIANCE> 25
 1.887172e+01 3.613699e+01 3.560611e+01 4.042161e+01 5.149225e+01 4.787363e+01 4.194986e+01 5.216610e+01 4.334129e+01 4.621962e+01 4.221938e+01 3.229017e+01 7.690352e-01 2.170739e+00 1.952478e+00 2.430762e+00 2.769359e+00 2.783110e+00 2.700399e+00 3.870067e+00 2.835303e+00 2.605396e+00 2.543650e+00 2.015644e+00 1.276868e+00
<GCONST> 1.004021e+02
<STATE> 4
<MEAN> 25
 1.847401e+00 4.164029e+00 2.316718e+00 4.481625e+00 7.144826e-01 6.405040e-01 -4.767563e-01 -2.088596e+00 -1.440107e+00 -1.009328e+00 -2.333637e+00 -3.165960e-01 -4.186122e-01 2.180839e-02 -4.480704e-02 -8.047587e-02 2.118875e-01 1.253018e-01 2.034453e-01 2.994196e-01 2.250946e-02 5.260051e-02 2.835808e-01 7.334583e-02 -2.496346e-01
<VARIANCE> 25
 3.324910e+01 3.611757e+01 3.150509e+01 3.811956e+01 4.639186e+01 4.249524e+01 3.903934e+01 4.482793e+01 3.816516e+01 3.925354e+01 3.784340e+01 2.973234e+01 8.410704e-01 1.691402e+00 1.574868e+00 1.948188e+00 2.253402e+00 2.260784e+00 2.239485e+00 2.799706e+00 2.375309e+00 2.277087e+00 2.125190e+00 1.735922e+00 9.880777e-01
<GCONST> 9.743907e+01
<TRANSP> 5
 0.000000e+00 1.000000e+00 0.000000e+00 0.000000e+00 0.000000e+00
 0.000000e+00 4.572226e-01 5.427774e-01 0.000000e+00 0.000000e+00
 0.000000e+00 0.000000e+00 4.118404e-01 5.881596e-01 0.000000e+00
 0.000000e+00 0.000000e+00 0.000000e+00 7.297431e-01 2.702569e-01
 0.000000e+00 0.000000e+00 0.000000e+00 0.000000e+00 0.000000e+00
<ENDHMM>
~h "o"
<BEGINHMM>
<NUMSTATES> 5
<STATE> 2
<MEAN> 25
 5.623927e+00 -7.273667e-01 -5.996265e+00 -8.325943e+00 -1.063718e+00 3.579837e+00 -2.009512e+00 -1.854306e+00 1.120081e+00 2.190221e+00 2.546824e+00 -1.296581e+00 8.557673e-01 -3.080322e-01 -7.747042e-01 -1.650995e+00 -4.815839e-02 1.053455e+00 -1.310635e-02 -1.890067e-01 -1.797911e-01 2.420295e-01 4.252009e-01 -3.032379e-01 7.979015e-01
<VARIANCE> 25
 3.721089e+01 3.583112e+01 4.296907e+01 8.550317e+01 7.003773e+01 9.428681e+01 6.634005e+01 5.743004e+01 6.274704e+01 6.180221e+01 5.383291e+01 3.945259e+01 2.989730e+00 2.809107e+00 3.205961e+00 6.503288e+00 5.275540e+00 5.982929e+00 5.026769e+00 4.486330e+00 5.013128e+00 4.515752e+00 4.100751e+00 3.326633e+00 3.634133e+00
<GCONST> 1.130724e+02
<STATE> 3
<MEAN> 25
 7.029473e+00 -1.285094e+00 -7.115111e+00 -1.069178e+01 -6.398178e-01 5.874619e+00 -1.961676e+00 -2.492075e+00 3.377528e-01 2.599169e+00 3.293727e+00 -1.740601e+00 -1.230522e-01 2.211664e-01 2.211184e-02 5.273829e-01 2.637267e-01 1.169264e-01 1.953818e-01 2.961203e-03 -5.423204e-02 -7.552076e-03 -1.814093e-01 7.695080e-02 -5.802052e-01
<VARIANCE> 25
 2.523156e+01 3.612616e+01 4.090701e+01 7.862096e+01 6.664526e+01 9.700053e+01 6.260205e+01 5.597823e+01 6.203563e+01 6.257947e+01 5.467002e+01 3.985916e+01 1.090297e+00 2.046610e+00 1.837469e+00 4.266370e+00 2.987616e+00 3.981487e+00 3.505435e+00 3.157036e+00 3.790383e+00 3.419959e+00 3.159510e+00 2.721187e+00 2.022681e+00
<GCONST> 1.068845e+02
<STATE> 4
<MEAN> 25
 1.588907e+00 9.771227e-01 -4.957912e+00 -4.319759e+00 5.816620e-01 4.326973e+00 7.300064e-01 -8.063223e-01 6.989679e-01 1.634291e+00 1.507468e+00 2.624628e-01 -2.874461e-01 1.507961e-01 2.570443e-01 5.670438e-01 1.379590e-01 -1.520750e-01 7.836002e-02 5.055469e-02 -1.449354e-03 -9.137933e-02 -1.488794e-01 7.085291e-02 -4.202860e-01
<VARIANCE> 25
 5.158225e+01 2.782646e+01 3.232626e+01 7.910619e+01 4.691628e+01 5.623962e+01 4.290158e+01 4.149149e+01 3.998386e+01 4.246988e+01 3.462636e+01 3.218820e+01 5.613798e-01 8.530141e-01 1.104172e+00 1.890571e+00 1.601133e+00 1.918555e+00 1.805477e+00 1.849978e+00 1.942752e+00 1.915652e+00 1.753336e+00 1.561316e+00 6.133222e-01
<GCONST> 9.503892e+01
<TRANSP> 5
 0.000000e+00 1.000000e+00 0.000000e+00 0.000000e+00 0.000000e+00
 0.000000e+00 5.498596e-01 4.501403e-01 0.000000e+00 0.000000e+00
 0.000000e+00 0.000000e+00 5.753185e-01 4.246815e-01 0.000000e+00
 0.000000e+00 0.000000e+00 0.000000e+00 8.670400e-01 1.329600e-01
 0.000000e+00 0.000000e+00 0.000000e+00 0.000000e+00 0.000000e+00
<ENDHMM>
~h "p"
<BEGINHMM>
<NUMSTATES> 5
<STATE> 2
<MEAN> 25
 -2.331583e+00 2.787011e+00 -2.656857e+00 2.449217e+00 2.369316e+00 2.325115e+00 2.091776e+00 5.782784e-01 1.341210e+00 1.725247e+00 1.093857e+00 9.941570e-01 -2.638634e-01 -5.143839e-01 -4.950454e-01 -3.246080e-01 -6.954385e-02 -8.623336e-03 1.794569e-01 2.100009e-02 3.624386e-01 3.104178e-01 3.065671e-01 1.484234e-01 4.707011e-01
<VARIANCE> 25
 5.259464e+01 3.560680e+01 3.689232e+01 4.391711e+01 3.732775e+01 4.475674e+01 3.623907e+01 3.900272e+01 3.798323e+01 3.528773e+01 3.209912e+01 2.782531e+01 5.132487e+00 4.483476e+00 3.619827e+00 5.115946e+00 3.999120e+00 4.666721e+00 3.902488e+00 4.075448e+00 3.972886e+00 3.626620e+00 3.323498e+00 2.955930e+00 8.541899e+00
<GCONST> 1.083881e+02
<STATE> 3
<MEAN> 25
 3.071483e-01 -4.396259e-01 -4.371075e+00 -9.823002e-01 1.083501e+00 1.672644e+00 1.443561e+00 -5.315430e-01 1.807419e+00 2.145125e+00 1.706201e+00 1.396791e-01 1.778053e+00 -1.661965e+00 -7.355585e-01 -1.791078e+00 -6.528986e-01 -2.194227e-01 -5.712675e-01 -3.834227e-01 1.494047e-01 3.618383e-02 4.614942e-02 -8.343251e-01 3.184842e+00
<VARIANCE> 25
 4.837580e+01 4.103274e+01 4.275349e+01 5.717588e+01 4.282102e+01 5.761458e+01 4.188406e+01 4.301944e+01 3.992131e+01 3.642180e+01 3.510372e+01 3.175575e+01 6.677081e+00 6.207359e+00 5.767487e+00 7.689009e+00 6.263291e+00 8.839048e+00 5.889138e+00 5.801950e+00 5.807860e+00 5.494158e+00 5.271598e+00 5.043942e+00 8.901765e+00
<GCONST> 1.149390e+02
<STATE> 4
<MEAN> 25
 4.234663e+00 -3.667387e+00 -5.834715e+00 -4.129919e+00 3.076337e-01 1.929567e+00 7.637128e-02 -9.581166e-01 2.101341e+00 1.862738e+00 9.558131e-01 -2.175575e+00 9.695190e-01 -7.812121e-01 3.996476e-02 -6.783005e-01 -5.210978e-01 -3.356340e-01 -5.145766e-01 2.130952e-02 -8.773829e-02 -2.416407e-01 -2.865044e-01 -4.525620e-01 1.482612e+00
<VARIANCE> 25
 4.187719e+01 4.931196e+01 5.142092e+01 6.446284e+01 5.251557e+01 7.327023e+01 5.040847e+01 4.680008e+01 4.629635e+01 4.409264e+01 4.229474e+01 4.325458e+01 4.643974e+00 5.146176e+00 5.314466e+00 6.670562e+00 5.801693e+00 7.288280e+00 5.232769e+00 5.157001e+00 5.227073e+00 4.671547e+00 4.754085e+00 4.077555e+00 6.777877e+00
<GCONST> 1.146956e+02
<TRANSP> 5
 0.000000e+00 1.000000e+00 0.000000e+00 0.000000e+00 0.000000e+00
 0.000000e+00 5.475576e-01 4.524423e-01 0.000000e+00 0.000000e+00
 0.000000e+00 0.000000e+00 4.492258e-01 5.507742e-01 0.000000e+00
 0.000000e+00 0.000000e+00 0.000000e+00 4.531667e-01 5.468333e-01
 0.000000e+00 0.000000e+00 0.000000e+00 0.000000e+00 0.000000e+00
<ENDHMM>
~h "r"
<BEGINHMM>
<NUMSTATES> 5
<STATE> 2
<MEAN> 25
 4.414754e+00 -4.072857e+00 -2.626764e+00 4.608970e-01 -2.206600e+00 -2.310692e+00 -2.131942e+00 7.579958e-01 3.464495e+00 1.816580e-01 -8.641990e-02 -8.187525e-01 1.085709e-01 -1.167077e-01 1.699174e-01 6.096842e-01 -1.891086e-01 -1.647418e-01 -1.370231e-01 1.350472e-01 5.340870e-02 -1.364176e-01 1.654374e-01 2.135461e-01 -2.357907e-01
<VARIANCE> 25
 3.207906e+01 4.221008e+01 5.062123e+01 4.816011e+01 5.899434e+01 6.023161e+01 5.863366e+01 6.187965e+01 5.693490e+01 4.940709e+01 4.542034e+01 4.013603e+01 2.516593e+00 3.649305e+00 3.522967e+00 4.366604e+00 4.669206e+00 4.932966e+00 4.458019e+00 4.833280e+00 4.424437e+00 4.205664e+00 4.080597e+00 3.620246e+00 3.540819e+00
<GCONST> 1.108177e+02
<STATE> 3
<MEAN> 25
 4.558355e+00 -4.058704e+00 -2.009945e+00 1.451599e+00 -2.493542e+00 -2.578556e+00 -2.302174e+00 9.086663e-01 3.056201e+00 1.895010e-02 3.242929e-01 -4.508802e-01 -1.018948e-01 1.569219e-01 3.436281e-01 2.232850e-01 2.127778e-02 7.168858e-02 7.143761e-02 2.543860e-02 -4.438424e-01 -3.990206e-02 1.641939e-01 1.108977e-01 -3.374773e-01
<VARIANCE> 25
 3.082885e+01 4.296186e+01 5.372729e+01 4.536776e+01 5.884916e+01 5.885706e+01 5.665499e+01 6.111879e+01 5.577058e+01 4.742891e+01 4.399770e+01 3.785956e+01 2.235876e+00 3.333055e+00 3.473380e+00 3.675768e+00 4.526525e+00 4.516703e+00 4.208882e+00 4.648060e+00 4.258509e+00 3.918325e+00 3.789504e+00 3.393865e+00 2.773547e+00
<GCONST> 1.094685e+02
<STATE> 4
<MEAN> 25
 3.711752e+00 -3.206141e+00 -1.145836e+00 1.617879e+00 -2.055846e+00 -2.206604e+00 -1.441680e+00 1.002106e+00 1.650423e+00 3.656055e-02 5.823544e-01 -1.957273e-01 -2.855299e-01 3.833889e-01 3.796840e-01 -7.932949e-02 1.654491e-01 2.083881e-01 2.206540e-01 -1.304187e-01 -5.825422e-01 3.325577e-02 6.893811e-02 3.012663e-02 -3.511587e-01
<VARIANCE> 25
 3.649706e+01 4.881997e+01 5.851840e+01 4.633464e+01 6.131844e+01 6.102112e+01 5.657567e+01 6.060682e+01 5.396087e+01 4.732213e+01 4.488551e+01 3.710626e+01 1.691655e+00 2.548005e+00 2.850711e+00 2.757505e+00 3.737140e+00 3.504158e+00 3.364275e+00 3.675637e+00 3.611526e+00 3.147191e+00 3.066654e+00 2.527228e+00 1.933474e+00
<GCONST> 1.067157e+02
<TRANSP> 5
 0.000000e+00 1.000000e+00 0.000000e+00 0.000000e+00 0.000000e+00
 0.000000e+00 3.364168e-01 6.635833e-01 0.000000e+00 0.000000e+00
 0.000000e+00 0.000000e+00 3.011414e-01 6.988586e-01 0.000000e+00
 0.000000e+00 0.000000e+00 0.000000e+00 4.699668e-01 5.300332e-01
 0.000000e+00 0.000000e+00 0.000000e+00 0.000000e+00 0.000000e+00
<ENDHMM>
~h "s"
<BEGINHMM>
<NUMSTATES> 5
<STATE> 2
<MEAN> 25
 -8.325936e+00 4.907162e+00 9.864522e-01 1.618703e+00 4.910663e+00 -2.725919e+00 4.168639e+00 1.236661e+00 1.040645e+00 -6.090937e-01 8.687065e-01 1.565086e+00 -3.140928e+00 1.119939e+00 -2.041561e-01 6.805666e-02 1.139508e+00 -2.932146e-02 1.159433e+00 3.736045e-01 4.517338e-01 -6.647882e-02 8.065497e-01 4.747188e-01 8.061141e-03
<VARIANCE> 25
 7.349204e+01 7.065475e+01 8.381678e+01 5.962303e+01 8.118384e+01 8.743177e+01 6.696082e+01 6.080208e+01 5.287379e+01 4.769747e+01 4.764843e+01 3.506780e+01 4.619064e+00 5.585919e+00 6.021353e+00 4.564709e+00 5.329271e+00 5.479869e+00 4.860405e+00 4.641592e+00 4.080079e+00 4.438455e+00 3.574609e+00 2.783703e+00 1.653232e+00
<GCONST> 1.142032e+02
<STATE> 3
<MEAN> 25
 -1.683595e+01 5.081850e+00 1.349404e-01 5.815481e-01 6.159265e+00 -1.916884e+00 6.158182e+00 2.102572e+00 1.965273e+00 -1.589258e-01 3.124692e+00 3.055125e+00 -1.019890e-01 -4.334821e-01 -3.421332e-02 -1.255467e-01 -2.737216e-01 1.671127e-02 -1.013660e-01 7.403694e-03 6.501973e-02 3.014195e-02 2.271915e-02 7.478607e-02 -1.995178e-01
<VARIANCE> 25
 4.872567e+01 9.532549e+01 1.059719e+02 7.354579e+01 7.697342e+01 8.989648e+01 5.402200e+01 5.487656e+01 4.338268e+01 4.558743e+01 3.579165e+01 3.133316e+01 3.858583e+00 2.453726e+00 2.780280e+00 2.153262e+00 2.636291e+00 2.820692e+00 2.713443e+00 2.834677e+00 2.626585e+00 2.435395e+00 2.269642e+00 1.908835e+00 1.323979e+00
<GCONST> 1.064867e+02
<STATE> 4
<MEAN> 25
 -9.623854e+00 1.890451e+00 7.694331e-01 5.769086e-02 2.853190e+00 -2.120717e+00 3.224715e+00 7.483509e-01 1.701142e+00 -2.693217e-01 1.358361e+00 1.997403e+00 3.050021e+00 -6.984721e-01 1.981499e-02 -3.469092e-01 -1.194731e+00 -2.923418e-01 -1.225621e+00 -6.699649e-01 -3.126305e-01 -5.993464e-02 -7.004706e-01 -5.765995e-01 5.126162e-01
<VARIANCE> 25
 7.493636e+01 7.275858e+01 8.119981e+01 5.693144e+01 6.505175e+01 7.774670e+01 5.564231e+01 5.162725e+01 4.361800e+01 4.150985e+01 3.900755e+01 3.005147e+01 6.322856e+00 5.328457e+00 5.748393e+00 4.271176e+00 4.970640e+00 5.189997e+00 4.888365e+00 4.816488e+00 4.281187e+00 4.173709e+00 3.714597e+00 3.008401e+00 3.075630e+00
<GCONST> 1.135966e+02
<TRANSP> 5
 0.000000e+00 1.000000e+00 0.000000e+00 0.000000e+00 0.000000e+00
 0.000000e+00 7.177032e-01 2.822968e-01 0.000000e+00 0.000000e+00
 0.000000e+00 0.000000e+00 7.491872e-01 2.508128e-01 0.000000e+00
 0.000000e+00 0.000000e+00 0.000000e+00 7.016590e-01 2.983410e-01
 0.000000e+00 0.000000e+00 0.000000e+00 0.000000e+00 0.000000e+00
<ENDHMM>
~h "t"
<BEGINHMM>
<NUMSTATES> 5
<STATE> 2
<MEAN> 25
 -3.047086e+00 3.394990e+00 -7.624729e-01 3.278929e+00 1.939227e+00 2.832529e-01 1.595334e+00 3.208549e-01 1.535392e+00 1.186591e+00 9.472393e-01 1.520016e+00 -1.008186e+00 -3.794385e-01 -4.344220e-01 -2.499968e-01 2.791907e-01 -4.449680e-02 4.512968e-01 2.220941e-01 4.394424e-01 7.868593e-02 3.609590e-01 3.399810e-01 -1.442888e-02
<VARIANCE> 25
 4.321201e+01 3.256168e+01 3.930599e+01 3.881257e+01 4.333918e+01 5.018026e+01 4.134397e+01 4.123648e+01 4.075106e+01 3.681607e+01 3.521358e+01 2.717622e+01 3.558676e+00 4.455727e+00 3.743862e+00 4.867362e+00 4.520288e+00 5.514839e+00 4.443078e+00 4.347944e+00 4.196967e+00 3.733796e+00 3.533131e+00 2.822033e+00 7.762958e+00
<GCONST> 1.087735e+02
<STATE> 3
<MEAN> 25
 -4.254957e+00 1.918396e-01 -1.777708e+00 3.211190e-01 1.723167e+00 -1.383526e+00 1.949417e+00 4.249884e-01 2.288856e+00 9.698457e-01 1.312447e+00 1.847499e+00 5.805762e-01 -1.379602e+00 -1.554574e-01 -1.545381e+00 -5.017551e-01 -9.406509e-01 -5.477058e-01 -1.692443e-01 2.764557e-01 -1.906977e-01 -1.120036e-01 -3.269024e-01 2.871412e+00
<VARIANCE> 25
 4.135229e+01 4.100157e+01 4.471764e+01 4.793699e+01 5.077842e+01 6.559730e+01 4.884786e+01 4.630138e+01 4.355663e+01 3.982300e+01 3.785030e+01 2.989215e+01 6.409233e+00 5.583141e+00 5.726104e+00 6.450046e+00 6.603176e+00 7.923570e+00 6.995909e+00 6.491531e+00 6.141867e+00 5.565785e+00 5.455427e+00 4.497480e+00 8.646290e+00
<GCONST> 1.152264e+02
<STATE> 4
<MEAN> 25
 -1.292814e+00 -1.872912e+00 -1.682089e+00 -2.282656e+00 1.675776e-01 -2.769919e+00 -1.871280e-01 -5.081585e-02 2.405754e+00 4.005664e-01 3.670983e-01 4.623356e-01 1.537655e+00 -5.448285e-01 2.172036e-01 -9.918382e-01 -7.434753e-01 -3.098011e-01 -1.076691e+00 -3.500603e-01 -3.026203e-01 -7.478091e-02 -3.162759e-01 -6.825070e-01 1.865512e+00
<VARIANCE> 25
 4.452278e+01 4.272445e+01 4.957977e+01 5.333425e+01 5.478763e+01 6.472978e+01 6.043560e+01 5.042440e+01 4.877992e+01 4.348032e+01 4.252027e+01 3.497102e+01 4.947567e+00 4.885358e+00 5.816965e+00 5.536108e+00 6.107108e+00 7.237331e+00 6.619282e+00 6.115424e+00 5.816475e+00 5.481359e+00 5.416201e+00 4.020966e+00 5.671054e+00
<GCONST> 1.149628e+02
<TRANSP> 5
 0.000000e+00 1.000000e+00 0.000000e+00 0.000000e+00 0.000000e+00
 0.000000e+00 5.478610e-01 4.521390e-01 0.000000e+00 0.000000e+00
 0.000000e+00 0.000000e+00 4.328054e-01 5.671946e-01 0.000000e+00
 0.000000e+00 0.000000e+00 0.000000e+00 3.887171e-01 6.112830e-01
 0.000000e+00 0.000000e+00 0.000000e+00 0.000000e+00 0.000000e+00
<ENDHMM>
~h "u"
<BEGINHMM>
<NUMSTATES> 5
<STATE> 2
<MEAN> 25
 5.703940e+00 3.320475e+00 -1.619422e+00 -4.995280e+00 -1.852561e+00 1.242740e+00 -5.721550e+00 -4.844086e+00 -2.362147e+00 2.213731e-01 2.925258e+00 2.507336e-01 1.030410e+00 3.610833e-01 -3.597977e-01 -1.191394e+00 -4.434955e-01 7.494855e-01 -7.850755e-01 -7.861721e-01 -6.203946e-01 1.650444e-01 7.199546e-01 1.019443e-01 4.387531e-01
<VARIANCE> 25
 3.334610e+01 4.070175e+01 4.932404e+01 8.250580e+01 6.210091e+01 8.129391e+01 7.608294e+01 6.953127e+01 6.503825e+01 6.760234e+01 5.504921e+01 4.082089e+01 3.069285e+00 3.282398e+00 3.677599e+00 5.938928e+00 5.454722e+00 6.412202e+00 6.260672e+00 5.582707e+00 5.702096e+00 5.625471e+00 4.557522e+00 3.670941e+00 2.902516e+00
<GCONST> 1.145313e+02
<STATE> 3
<MEAN> 25
 6.919910e+00 3.468488e+00 -2.172273e+00 -6.836730e+00 -2.259184e+00 3.026953e+00 -6.680751e+00 -6.061999e+00 -2.871875e+00 5.863566e-01 4.157228e+00 3.714467e-01 -4.229828e-02 3.182802e-02 4.508729e-02 3.550030e-01 2.249639e-01 1.075580e-01 1.302650e-01 6.818347e-02 2.046100e-01 1.383159e-01 -1.947652e-01 -9.982644e-02 -3.213955e-01
<VARIANCE> 25
 2.483976e+01 3.761580e+01 4.384673e+01 7.950173e+01 5.991840e+01 8.547079e+01 7.157740e+01 7.229272e+01 6.776742e+01 7.374854e+01 5.899641e+01 4.264982e+01 1.274191e+00 2.757253e+00 2.509198e+00 4.925071e+00 4.048886e+00 4.631835e+00 4.969244e+00 4.415510e+00 4.998976e+00 4.736236e+00 4.060156e+00 3.402085e+00 2.234032e+00
<GCONST> 1.107677e+02
<STATE> 4
<MEAN> 25
 5.034632e+00 4.559935e+00 -2.176400e+00 -4.434518e+00 -9.105872e-01 2.267374e+00 -4.385158e+00 -4.466800e+00 -2.529005e+00 6.029940e-01 2.676668e+00 9.209736e-01 -5.759335e-01 -1.111378e-01 2.795626e-01 9.157971e-01 3.666736e-01 -2.083275e-01 5.123035e-01 4.381323e-01 3.883437e-01 -4.370330e-02 -4.587157e-01 -9.313009e-02 -5.372807e-01
<VARIANCE> 25
 3.466489e+01 3.912014e+01 4.151830e+01 8.191415e+01 5.397252e+01 6.917040e+01 5.980447e+01 5.398981e+01 5.846745e+01 6.043849e+01 4.634281e+01 4.184068e+01 1.049625e+00 1.818406e+00 1.903961e+00 3.062795e+00 2.792067e+00 3.230198e+00 3.082008e+00 3.031974e+00 3.156680e+00 3.088534e+00 2.958122e+00 2.420043e+00 1.288612e+00
<GCONST> 1.046789e+02
<TRANSP> 5
 0.000000e+00 1.000000e+00 0.000000e+00 0.000000e+00 0.000000e+00
 0.000000e+00 5.115600e-01 4.884400e-01 0.000000e+00 0.000000e+00
 0.000000e+00 0.000000e+00 4.800762e-01 5.199237e-01 0.000000e+00
 0.000000e+00 0.000000e+00 0.000000e+00 7.242317e-01 2.757684e-01
 0.000000e+00 0.000000e+00 0.000000e+00 0.000000e+00 0.000000e+00
<ENDHMM>
~h "w"
<BEGINHMM>
<NUMSTATES> 5
<STATE> 2
<MEAN> 25
 6.242083e+00 3.378326e+00 -4.319098e+00 -8.061551e+00 -2.322447e+00 3.322344e+00 -1.202789e+00 -1.955064e+00 -1.821443e+00 5.990152e-01 2.836691e+00 -3.307140e-02 1.215508e+00 4.292368e-01 -6.377853e-01 -1.792361e+00 -8.546441e-01 4.795288e-01 -6.287508e-03 -3.028687e-01 -5.005247e-01 -7.962114e-02 6.035575e-01 2.364580e-01 7.328685e-01
<VARIANCE> 25
 5.512559e+01 5.874699e+01 3.786616e+01 7.260892e+01 6.034338e+01 7.830772e+01 5.441460e+01 4.764700e+01 4.523883e+01 4.249000e+01 4.113045e+01 3.953400e+01 3.232642e+00 3.634361e+00 2.636183e+00 4.315180e+00 4.234943e+00 4.755379e+00 3.900805e+00 3.566676e+00 3.320868e+00 3.603898e+00 3.569597e+00 3.495126e+00 3.921238e+00
<GCONST> 1.101284e+02
<STATE> 3
<MEAN> 25
 9.086547e+00 2.050398e+00 -6.577979e+00 -1.337410e+01 -4.379838e+00 5.803090e+00 -1.430407e+00 -2.459085e+00 -1.991117e+00 7.319744e-01 4.772211e+00 -3.016040e-01 -7.442988e-02 -9.935089e-01 -5.452904e-01 -3.805732e-01 5.740848e-01 5.233450e-01 1.435610e-02 -8.496886e-02 4.541009e-01 5.219838e-01 1.080920e-01 -6.266214e-01 6.871500e-01
<VARIANCE> 25
 2.215429e+01 3.877084e+01 3.547875e+01 6.385839e+01 5.275364e+01 9.354268e+01 5.113432e+01 4.300467e+01 4.527771e+01 4.448960e+01 4.479822e+01 3.744278e+01 1.086687e+00 3.663956e+00 1.863736e+00 3.049914e+00 3.559156e+00 3.613626e+00 3.511283e+00 2.961448e+00 3.164426e+00 3.177649e+00 2.915594e+00 3.684180e+00 1.934640e+00
<GCONST> 1.050185e+02
<STATE> 4
<MEAN> 25
 7.153471e+00 -2.513931e+00 -8.315986e+00 -1.189649e+01 5.817518e-01 6.518067e+00 -1.530710e+00 -2.430561e+00 1.135589e+00 3.135593e+00 2.281908e+00 -3.891053e+00 -3.795429e-01 -5.474855e-01 1.221237e-01 8.520973e-01 5.393470e-01 -5.008428e-01 6.212375e-02 3.031271e-01 4.777118e-01 -4.590933e-02 -6.931728e-01 -3.025160e-01 2.576444e-02
<VARIANCE> 25
 2.262551e+01 4.310478e+01 3.197649e+01 6.428128e+01 6.096197e+01 9.365766e+01 5.727665e+01 4.418755e+01 4.696680e+01 5.060880e+01 5.001070e+01 4.788922e+01 5.985725e-01 2.257003e+00 1.310361e+00 2.594321e+00 2.452177e+00 3.027545e+00 2.528623e+00 2.552449e+00 2.579556e+00 2.588591e+00 2.724754e+00 2.953120e+00 1.196511e+00
<GCONST> 1.020561e+02
<TRANSP> 5
 0.000000e+00 1.000000e+00 0.000000e+00 0.000000e+00 0.000000e+00
 0.000000e+00 6.502424e-01 3.497576e-01 0.000000e+00 0.000000e+00
 0.000000e+00 0.000000e+00 6.188107e-01 3.811893e-01 0.000000e+00
 0.000000e+00 0.000000e+00 0.000000e+00 8.021656e-01 1.978344e-01
 0.000000e+00 0.000000e+00 0.000000e+00 0.000000e+00 0.000000e+00
<ENDHMM>
~h "y"
<BEGINHMM>
<NUMSTATES> 5
<STATE> 2
<MEAN> 25
 1.644688e+00 -2.415341e+00 8.839779e+00 -3.856212e+00 -8.663120e+00 -4.431950e+00 -4.374840e-01 2.014494e+00 -3.338003e+00 2.171013e-01 2.150326e+00 7.476009e-03 -3.727461e-02 -7.469076e-01 3.331816e-01 -3.895692e-01 -7.622797e-01 -2.968666e-01 4.124501e-01 6.974802e-01 -1.777466e-01 -7.085709e-02 2.771647e-01 8.251406e-02 6.076062e-01
<VARIANCE> 25
 2.200361e+01 4.726606e+01 7.142975e+01 6.490869e+01 7.235625e+01 7.205824e+01 6.711370e+01 7.972909e+01 5.734369e+01 5.149242e+01 5.329794e+01 3.710408e+01 9.937787e-01 3.141141e+00 4.824634e+00 3.093471e+00 4.419451e+00 3.309533e+00 3.928519e+00 4.850756e+00 3.579298e+00 3.357131e+00 3.478622e+00 2.329760e+00 1.604648e+00
<GCONST> 1.085830e+02
<STATE> 3
<MEAN> 25
 2.255034e+00 -5.569527e+00 6.056382e+00 -3.682128e+00 -8.555655e+00 -5.350118e+00 1.207539e+00 5.101999e+00 -2.300708e+00 -9.263334e-01 1.324692e+00 -3.901798e-01 1.033179e-01 -4.711887e-01 -8.840163e-01 1.801165e-01 7.388827e-01 1.338402e-01 2.416110e-01 5.057513e-01 3.331154e-01 -3.645429e-01 -5.816237e-01 -9.409568e-02 3.112402e-02
<VARIANCE> 25
 1.946491e+01 3.881908e+01 5.379357e+01 4.967302e+01 6.600502e+01 6.607645e+01 6.769238e+01 9.077337e+01 5.195413e+01 4.979289e+01 5.031699e+01 3.401891e+01 4.199470e-01 1.488165e+00 2.356324e+00 1.700807e+00 2.992149e+00 2.128876e+00 2.475502e+00 2.896321e+00 2.489625e+00 2.410292e+00 2.669138e+00 1.783369e+00 6.150163e-01
<GCONST> 1.004781e+02
<STATE> 4
<MEAN> 25
 -1.349016e+00 -2.198665e+00 -4.081400e-01 9.811537e-01 3.484284e-01 2.199578e-02 2.035765e+00 2.800997e+00 8.128816e-02 -1.116302e+00 -1.702270e-01 1.086313e+00 -3.467569e-02 6.818507e-02 -1.979097e-01 1.124772e-01 2.743082e-01 1.260559e-01 -3.420105e-02 -5.343388e-02 8.392633e-02 7.473447e-03 -8.284802e-02 -1.480530e-02 -2.147038e-01
<VARIANCE> 25
 3.221596e+01 3.650179e+01 3.112687e+01 3.932333e+01 4.996606e+01 4.160698e+01 3.965279e+01 4.628668e+01 3.639150e+01 3.902864e+01 3.873587e+01 2.755222e+01 3.072895e-01 6.673558e-01 9.949363e-01 1.014674e+00 1.560828e+00 1.413801e+00 1.533217e+00 1.686843e+00 1.615495e+00 1.643142e+00 1.555571e+00 1.307208e+00 3.645753e-01
<GCONST> 9.035654e+01
<TRANSP> 5
 0.000000e+00 1.000000e+00 0.000000e+00 0.000000e+00 0.000000e+00
 0.000000e+00 6.508502e-01 3.491498e-01 0.000000e+00 0.000000e+00
 0.000000e+00 0.000000e+00 6.100464e-01 3.899535e-01 0.000000e+00
 0.000000e+00 0.000000e+00 0.000000e+00 9.096084e-01 9.039162e-02
 0.000000e+00 0.000000e+00 0.000000e+00 0.000000e+00 0.000000e+00
<ENDHMM>
~h "z"
<BEGINHMM>
<NUMSTATES> 5
<STATE> 2
<MEAN> 25
 -4.913101e+00 1.019038e+01 7.708361e+00 6.420425e+00 -2.704345e+00 -3.779473e+00 2.767645e+00 -7.124303e+00 -2.885459e+00 -5.365637e+00 2.176215e+00 4.142818e-01 -5.697977e-01 1.299525e-01 1.251298e-01 4.593136e-01 2.432975e-01 -1.462402e-01 8.199097e-02 -1.066664e-01 4.475287e-01 -1.710218e-01 2.317386e-01 -6.802697e-02 4.201949e-02
<VARIANCE> 25
 5.221969e+01 1.056095e+02 6.422341e+01 1.220324e+02 8.931505e+01 1.126444e+02 7.168371e+01 4.503513e+01 6.817763e+01 7.411909e+01 5.327165e+01 5.182858e+01 2.802995e+00 3.849341e+00 4.264064e+00 5.343077e+00 4.972401e+00 5.420064e+00 5.222259e+00 3.341867e+00 5.108675e+00 4.775568e+00 3.570814e+00 2.937342e+00 1.431527e+00
<GCONST> 1.148376e+02
<STATE> 3
<MEAN> 25
 -2.600363e+00 -4.621383e+00 1.202577e+01 7.185021e+00 -7.714686e-01 6.993826e+00 -4.263110e+00 -1.151622e+01 -2.617841e-01 -1.676397e+00 1.304992e+00 4.207875e-01 3.825018e-01 -5.270368e-01 -1.728954e-01 -5.727532e-01 -5.563745e-01 8.508889e-02 -8.317436e-02 7.584146e-02 9.985765e-02 -3.055947e-03 6.360306e-02 2.579348e-01 3.786359e-01
<VARIANCE> 25
 5.744353e+01 1.301058e+02 1.263971e+02 1.094030e+02 9.331448e+01 1.897324e+02 7.567673e+01 6.652400e+01 6.596181e+01 6.637962e+01 4.453037e+01 5.288951e+01 3.897904e+00 4.616409e+00 9.024483e+00 4.512368e+00 4.655706e+00 9.683535e+00 4.283337e+00 5.192159e+00 5.732181e+00 4.381347e+00 3.583213e+00 3.004432e+00 2.012791e+00
<GCONST> 1.186616e+02
<STATE> 4
<MEAN> 25
 -3.970885e-02 1.935907e+00 8.555893e+00 2.725268e+00 -6.814814e+00 -1.177275e+00 -2.367377e+00 -6.305212e+00 -5.797528e+00 -1.677855e+00 3.209039e+00 -4.699706e-01 1.351667e-01 -5.276724e-02 -3.346915e-01 -1.223097e-01 1.876116e-01 -1.067697e-01 1.682997e-01 3.659487e-01 1.923856e-01 1.838192e-01 -9.741524e-02 1.077987e-01 -9.241928e-02
<VARIANCE> 25
 3.551590e+01 6.656188e+01 1.018832e+02 8.791406e+01 6.886541e+01 6.488653e+01 6.674830e+01 3.754777e+01 7.760401e+01 4.260549e+01 7.301350e+01 3.111252e+01 6.626552e-01 1.260956e+00 1.709092e+00 1.869536e+00 1.902820e+00 2.207677e+00 2.050707e+00 1.929826e+00 1.947931e+00 1.922495e+00 1.853022e+00 1.205687e+00 8.015069e-01
<GCONST> 1.005743e+02
<TRANSP> 5
 0.000000e+00 1.000000e+00 0.000000e+00 0.000000e+00 0.000000e+00
 0.000000e+00 8.467298e-01 1.532702e-01 0.000000e+00 0.000000e+00
 0.000000e+00 0.000000e+00 8.284067e-01 1.715933e-01 0.000000e+00
 0.000000e+00 0.000000e+00 0.000000e+00 8.173366e-01 1.826634e-01
 0.000000e+00 0.000000e+00 0.000000e+00 0.000000e+00 0.000000e+00
<ENDHMM>
~h "aw"
<BEGINHMM>
<NUMSTATES> 5
<STATE> 2
<MEAN> 25
 4.193400e+00 -2.072337e+00 -8.180346e+00 -2.832550e+00 2.791265e+00 8.305367e+00 3.726307e+00 -5.214055e+00 1.384871e+01 -3.389916e+00 -6.137793e+00 -3.161290e+00 3.970575e-01 -4.075742e-01 5.872039e-02 -1.261628e+00 3.618592e-02 1.282406e+00 -1.218763e-01 -3.131659e-01 -4.983949e-01 9.877454e-02 5.444171e-01 5.261600e-04 -3.420444e-02
<VARIANCE> 25
 3.164810e+01 2.164623e+02 3.063114e+01 1.201792e+02 1.284502e+02 6.345769e+01 7.021655e+01 7.400816e+01 8.895118e+01 9.135912e+01 1.151894e+02 6.512778e+01 1.495170e+00 4.344985e+00 3.340173e+00 4.628974e+00 3.888377e+00 4.829866e+00 3.019961e+00 6.071797e+00 3.975108e+00 4.034650e+00 2.442078e+00 3.302497e+00 3.437933e+00
<GCONST> 1.150262e+02
<STATE> 3
<MEAN> 25
 9.043180e+00 -1.555507e+00 -4.939040e+00 -1.768553e+01 -4.515536e+00 1.343696e+01 -1.949249e+00 -2.092961e+00 1.581004e+00 9.474189e-01 3.523553e+00 1.624726e+00 1.327616e-01 9.524515e-01 1.790334e-03 1.671526e-01 -2.765283e-01 -1.993000e-01 3.792511e-01 -2.372822e-02 -5.991076e-01 -2.985170e-01 1.562300e-01 2.262273e-01 -9.286754e-01
<VARIANCE> 25
 1.810366e+01 1.058757e+02 2.684404e+01 6.291147e+01 3.897496e+01 3.922009e+01 5.768868e+01 3.238452e+01 4.332710e+01 3.799150e+01 3.360336e+01 3.129218e+01 9.587563e-01 2.689644e+00 1.584674e+00 2.436329e+00 1.945398e+00 2.186683e+00 2.128121e+00 1.850613e+00 2.388111e+00 2.308436e+00 1.845332e+00 3.577905e+00 1.160698e+00
<GCONST> 9.902637e+01
<STATE> 4
<MEAN> 25
 -6.812356e+00 2.830195e+00 1.380986e+00 6.288494e+00 -2.454412e+00 4.599285e-01 -1.491550e+00 3.542264e+00 -1.468990e+00 -4.401509e+00 1.887057e+00 -3.833944e+00 -5.722678e-01 -5.336811e-01 -2.665910e-01 6.578159e-01 4.683475e-01 -3.566760e-01 1.494239e-01 -1.597775e-01 3.880697e-01 -5.626122e-02 -3.252271e-01 -1.763000e-01 2.388346e-02
<VARIANCE> 25
 1.421028e+02 5.258584e+01 9.476364e+01 1.856897e+02 1.054179e+02 2.866240e+02 1.070700e+02 5.861263e+01 7.432578e+01 5.963639e+01 5.860229e+01 6.892667e+01 1.491884e+00 1.420478e+00 4.121642e+00 3.707366e+00 4.010201e+00 4.471154e+00 4.354079e+00 2.839811e+00 4.633844e+00 3.772366e+00 4.009905e+00 4.580259e+00 1.095140e+00
<GCONST> 1.151439e+02
<TRANSP> 5
 0.000000e+00 1.000000e+00 0.000000e+00 0.000000e+00 0.000000e+00
 0.000000e+00 8.631830e-01 1.368170e-01 0.000000e+00 0.000000e+00
 0.000000e+00 0.000000e+00 8.952820e-01 1.047180e-01 0.000000e+00
 0.000000e+00 0.000000e+00 0.000000e+00 8.435855e-01 1.564145e-01
 0.000000e+00 0.000000e+00 0.000000e+00 0.000000e+00 0.000000e+00
<ENDHMM>
~h "ay"
<BEGINHMM>
<NUMSTATES> 5
<STATE> 2
<MEAN> 25
 2.909004e+00 -1.003919e+01 -1.070256e+00 -3.625648e+00 -5.021228e+00 -3.898379e+00 5.016220e+00 7.414417e+00 1.943660e+00 -3.636731e+00 -1.895011e+00 -1.507604e+00 -1.683143e-01 -2.544375e-02 1.302310e+00 -7.625630e-02 -1.185737e+00 -3.611878e-01 5.662685e-01 4.826590e-02 -6.163640e-01 1.038702e-01 5.759271e-01 4.208329e-01 -5.978762e-02
<VARIANCE> 25
 1.923200e+01 2.436947e+01 6.038991e+01 3.658840e+01 4.156004e+01 4.862625e+01 4.897088e+01 4.515115e+01 4.615355e+01 4.549466e+01 4.453471e+01 2.938623e+01 6.047382e-01 2.022762e+00 3.764548e+00 2.407339e+00 3.842042e+00 3.215698e+00 2.737918e+00 4.043600e+00 2.675995e+00 4.051931e+00 3.278721e+00 2.040650e+00 5.811883e-01
<GCONST> 1.010019e+02
<STATE> 3
<MEAN> 25
 1.743426e+00 -4.691950e+00 7.835203e+00 -4.028589e+00 -1.142936e+01 -4.170303e+00 3.734996e+00 1.546196e+00 -6.133226e-01 1.383869e+00 2.200295e+00 -3.711391e-01 -2.024503e-01 1.313618e+00 8.326546e-01 2.041423e-01 -2.458595e-01 3.593589e-01 -4.718416e-01 -1.245657e+00 -2.497177e-01 6.941594e-01 2.760982e-01 3.938029e-01 -1.082100e+00
<VARIANCE> 25
 1.736293e+01 3.632983e+01 7.004746e+01 6.642141e+01 4.486334e+01 7.954629e+01 4.528561e+01 6.978171e+01 5.457786e+01 5.271667e+01 5.137681e+01 2.801599e+01 6.021567e-01 1.439321e+00 3.590383e+00 2.645240e+00 2.793793e+00 2.861190e+00 3.391712e+00 4.073899e+00 3.929168e+00 3.137123e+00 3.196473e+00 2.367307e+00 1.256313e+00
<GCONST> 1.038902e+02
<STATE> 4
<MEAN> 25
 -2.904978e+00 1.142774e+00 4.735394e+00 2.188494e+00 -6.049820e+00 7.258245e-01 1.260365e+00 5.600890e-01 -1.387924e+00 3.770842e-01 3.267473e+00 1.852948e+00 -2.735634e-01 2.564543e-01 -4.242553e-01 4.465420e-01 5.800945e-01 3.085939e-01 -1.738107e-01 4.901610e-02 1.285288e-01 -1.028967e-01 4.268989e-03 1.535331e-01 -6.819444e-01
<VARIANCE> 25
 4.185860e+01 3.615911e+01 5.440166e+01 4.110070e+01 5.846303e+01 7.954774e+01 4.894571e+01 5.125691e+01 5.291276e+01 4.074183e+01 4.469975e+01 2.301361e+01 4.235428e-01 1.044373e+00 2.344172e+00 1.901322e+00 2.102809e+00 2.400893e+00 2.009518e+00 2.900874e+00 2.511089e+00 2.354726e+00 1.992146e+00 1.736101e+00 9.717019e-01
<GCONST> 9.891593e+01
<TRANSP> 5
 0.000000e+00 1.000000e+00 0.000000e+00 0.000000e+00 0.000000e+00
 0.000000e+00 7.866278e-01 2.133722e-01 0.000000e+00 0.000000e+00
 0.000000e+00 0.000000e+00 7.364778e-01 2.635222e-01 0.000000e+00
 0.000000e+00 0.000000e+00 0.000000e+00 8.774893e-01 1.225107e-01
 0.000000e+00 0.000000e+00 0.000000e+00 0.000000e+00 0.000000e+00
<ENDHMM>
~h "kh"
<BEGINHMM>
<NUMSTATES> 5
<STATE> 2
<MEAN> 25
 -2.222195e+01 -4.166108e+00 4.446558e+00 1.120987e+01 2.899411e-01 1.141715e+01 1.374639e+01 1.192941e+01 1.745651e+00 -2.609858e+00 5.604547e+00 8.812199e+00 -3.624907e-01 -2.818899e-02 1.951948e-01 -3.667813e-01 -4.078626e-01 9.659074e-02 4.410372e-01 -1.767130e-01 3.155136e-02 7.758000e-01 6.177025e-01 4.788404e-01 1.072686e-01
<VARIANCE> 25
 1.029287e+02 1.406957e+01 4.586893e+01 3.343743e+01 5.142030e+01 3.945764e+01 3.067782e+01 7.376053e+01 2.210403e+01 5.557082e+01 6.151247e+01 4.518006e+01 2.576924e+00 1.048596e+00 2.734359e+00 2.032074e+00 3.244309e+00 4.402437e+00 4.733221e+00 5.196954e+00 2.444285e+00 3.408950e+00 5.311553e+00 1.806894e+00 1.311166e+00
<GCONST> 1.041667e+02
<STATE> 3
<MEAN> 25
 -8.906692e-01 5.100712e+00 -2.222367e+00 1.972811e+00 3.092593e+00 6.984644e+00 3.410292e+00 -8.440845e+00 -9.467860e-01 3.723495e+00 1.758624e+00 3.786335e+00 1.576188e+00 4.748447e-01 5.361867e-02 -7.870644e-01 5.836428e-01 -3.883353e-01 -9.877789e-01 -8.732118e-01 1.248129e-01 -6.630592e-02 -1.533131e-01 -2.285298e+00 2.204814e+00
<VARIANCE> 25
 8.938445e+01 1.602328e+02 8.153100e+01 4.566305e+01 1.101574e+02 1.178481e+02 5.515190e+01 7.575130e+01 1.444538e+01 2.422900e+01 2.300364e+01 1.107809e+02 1.385612e+01 1.071130e+01 1.165573e+01 2.832516e+00 1.370414e+01 9.027991e+00 7.197546e+00 7.167468e+00 6.020572e+00 2.887556e+00 6.231753e+00 2.917094e+00 3.892167e+00
<GCONST> 1.196219e+02
<STATE> 4
<MEAN> 25
 2.290993e+00 -4.590449e+00 -5.210088e+00 -1.941158e+00 6.090517e+00 -2.891032e-01 1.776586e+00 2.765326e+00 5.052717e+00 -8.044406e-01 3.131738e+00 -6.554060e+00 -2.623769e-01 -2.881461e-02 6.122686e-01 2.822772e-02 -6.297527e-01 -6.047906e-01 1.164064e-01 4.519381e-01 -3.384883e-01 -1.445057e-01 2.070869e-01 1.610510e-01 2.277316e-01
<VARIANCE> 25
 7.205387e+01 4.273525e+01 1.185738e+02 7.292566e+01 9.276144e+01 6.284210e+01 9.095589e+01 3.095787e+01 4.363527e+01 4.625181e+01 3.581399e+01 6.211108e+01 4.100866e+00 4.857544e+00 5.931417e+00 3.884972e+00 7.580146e+00 8.526499e+00 5.012622e+00 2.034114e+00 3.439417e+00 4.785222e+00 2.898219e+00 2.473064e+00 4.234675e+00
<GCONST> 1.138088e+02
<TRANSP> 5
 0.000000e+00 1.000000e+00 0.000000e+00 0.000000e+00 0.000000e+00
 0.000000e+00 8.808724e-01 1.191275e-01 0.000000e+00 0.000000e+00
 0.000000e+00 0.000000e+00 7.997243e-01 2.002756e-01 0.000000e+00
 0.000000e+00 0.000000e+00 0.000000e+00 9.429265e-01 5.707357e-02
 0.000000e+00 0.000000e+00 0.000000e+00 0.000000e+00 0.000000e+00
<ENDHMM>
~h "ng"
<BEGINHMM>
<NUMSTATES> 5
<STATE> 2
<MEAN> 25
 6.100341e+00 -7.567906e-01 -1.095111e+00 -3.376630e+00 -7.576617e-01 2.853456e+00 -2.022268e+00 -2.487973e+00 -1.419331e+00 -2.753513e-01 -2.229524e+00 -3.409539e+00 -1.049363e-02 7.442751e-01 3.948487e-01 5.760608e-01 -5.012509e-02 9.428971e-02 1.005038e-01 -4.484727e-01 -1.895177e-01 5.177234e-02 -3.093924e-01 -9.150708e-02 -6.539738e-01
<VARIANCE> 25
 1.399941e+01 4.040138e+01 3.833348e+01 4.451382e+01 6.063998e+01 6.776060e+01 5.491242e+01 5.287783e+01 5.695407e+01 5.065366e+01 4.218950e+01 4.023957e+01 4.574569e-01 1.714211e+00 2.023466e+00 2.102636e+00 2.979611e+00 2.609671e+00 2.881288e+00 2.972402e+00 2.897273e+00 2.480010e+00 2.559754e+00 2.144799e+00 8.729278e-01
<GCONST> 1.003685e+02
<STATE> 3
<MEAN> 25
 5.676777e+00 1.766577e+00 3.658193e-02 -1.134180e+00 -7.080078e-01 2.621661e+00 -1.332492e+00 -3.617030e+00 -2.141897e+00 -3.899855e-01 -2.991030e+00 -3.209897e+00 -1.780649e-01 4.791440e-01 2.958708e-01 4.950849e-01 7.739571e-02 -9.048503e-02 1.326082e-01 -8.299692e-02 -5.426712e-02 -8.005615e-03 -1.655401e-01 3.178272e-02 -4.536342e-01
<VARIANCE> 25
 1.454577e+01 3.456364e+01 3.419747e+01 3.569491e+01 5.633533e+01 5.391695e+01 4.898288e+01 5.173524e+01 5.132858e+01 4.814635e+01 3.881933e+01 3.712342e+01 4.295168e-01 1.488458e+00 1.586520e+00 1.770761e+00 2.466737e+00 2.172164e+00 2.386817e+00 2.584285e+00 2.442318e+00 2.172740e+00 2.078197e+00 1.821932e+00 7.567241e-01
<GCONST> 9.702143e+01
<STATE> 4
<MEAN> 25
 2.550951e+00 2.717092e+00 2.135167e-01 1.225105e+00 1.554745e+00 2.015790e+00 -2.662705e-01 -2.067991e+00 -1.911595e+00 -1.174065e+00 -2.408710e+00 -1.668141e+00 -3.250459e-01 -5.175804e-02 1.121494e-02 1.778827e-01 1.464688e-01 -1.128517e-01 1.297514e-01 2.576523e-01 1.092307e-01 5.036659e-02 1.764876e-01 1.890561e-01 -1.755282e-01
<VARIANCE> 25
 2.600156e+01 3.309044e+01 2.867860e+01 3.298640e+01 4.770244e+01 4.222642e+01 4.025407e+01 4.192058e+01 4.396643e+01 4.565036e+01 3.575343e+01 3.185482e+01 5.984365e-01 1.385990e+00 1.336380e+00 1.579592e+00 2.126206e+00 1.934588e+00 2.046523e+00 2.300328e+00 2.224414e+00 2.204575e+00 1.903903e+00 1.651266e+00 7.507099e-01
<GCONST> 9.521015e+01
<TRANSP> 5
 0.000000e+00 1.000000e+00 0.000000e+00 0.000000e+00 0.000000e+00
 0.000000e+00 5.677505e-01 4.322495e-01 0.000000e+00 0.000000e+00
 0.000000e+00 0.000000e+00 5.228208e-01 4.771792e-01 0.000000e+00
 0.000000e+00 0.000000e+00 0.000000e+00 7.749783e-01 2.250217e-01
 0.000000e+00 0.000000e+00 0.000000e+00 0.000000e+00 0.000000e+00
<ENDHMM>
~h "ny"
<BEGINHMM>
<NUMSTATES> 5
<STATE> 2
<MEAN> 25
 2.708390e+00 -5.088787e-01 9.225016e+00 -3.994208e+00 -6.689635e+00 -1.093779e+00 5.789453e-01 1.904013e-01 -5.472080e+00 -8.445922e-01 8.629048e-01 -5.990855e-01 -1.817395e-01 -1.236789e+00 2.685693e-01 -4.989411e-01 -5.069402e-01 5.179185e-03 5.409089e-01 1.016928e+00 -3.123484e-01 -5.490975e-01 1.128743e-01 -2.988808e-02 7.990168e-01
<VARIANCE> 25
 1.588081e+01 5.340833e+01 4.931543e+01 7.092591e+01 5.059929e+01 5.687644e+01 5.003868e+01 7.156054e+01 4.967162e+01 4.882732e+01 4.887993e+01 4.205520e+01 1.024345e+00 3.929350e+00 3.928958e+00 5.146195e+00 4.128619e+00 3.842716e+00 3.900457e+00 5.426885e+00 3.625297e+00 3.900871e+00 3.389017e+00 2.445185e+00 1.693669e+00
<GCONST> 1.079265e+02
<STATE> 3
<MEAN> 25
 2.603107e+00 -6.232614e+00 6.408426e+00 -3.097178e+00 -6.112344e+00 -2.180435e+00 2.024113e+00 4.892586e+00 -4.648412e+00 -4.274486e+00 -2.389562e-01 -6.127462e-01 1.547637e-01 -6.553177e-01 -1.100923e+00 5.414258e-01 9.563079e-01 -1.665926e-01 -5.721069e-02 5.804302e-01 4.889731e-01 -6.980756e-01 -6.529147e-01 1.098573e-01 7.393453e-02
<VARIANCE> 25
 1.512777e+01 4.410081e+01 4.065256e+01 5.064634e+01 5.338807e+01 5.312926e+01 5.715687e+01 7.570147e+01 5.743126e+01 5.176623e+01 4.679361e+01 4.125402e+01 4.596753e-01 2.058357e+00 2.120738e+00 2.318373e+00 2.860516e+00 2.531749e+00 2.764066e+00 3.053244e+00 2.721828e+00 2.595213e+00 2.692239e+00 1.780621e+00 8.951994e-01
<GCONST> 1.010273e+02
<STATE> 4
<MEAN> 25
 5.551682e-01 -4.071856e+00 9.968516e-01 1.757517e+00 6.113864e-01 -3.352283e-01 1.482918e+00 4.088917e+00 -1.599620e+00 -4.828064e+00 -1.781276e+00 1.238567e+00 -8.333970e-02 1.750710e-01 -3.887398e-01 2.567786e-01 4.509130e-01 1.097472e-01 -6.592410e-02 -4.795665e-02 2.832552e-01 1.101532e-01 -1.265239e-01 1.766076e-02 -4.690177e-01
<VARIANCE> 25
 2.306270e+01 4.105092e+01 2.984031e+01 4.374766e+01 4.531436e+01 3.947454e+01 4.290515e+01 5.092246e+01 4.563412e+01 5.455613e+01 5.456426e+01 3.524876e+01 3.928439e-01 1.003229e+00 1.263804e+00 1.408512e+00 1.786363e+00 1.669044e+00 1.821832e+00 1.918146e+00 1.883267e+00 1.950363e+00 1.836432e+00 1.432443e+00 6.429523e-01
<GCONST> 9.435028e+01
<TRANSP> 5
 0.000000e+00 1.000000e+00 0.000000e+00 0.000000e+00 0.000000e+00
 0.000000e+00 7.403830e-01 2.596170e-01 0.000000e+00 0.000000e+00
 0.000000e+00 0.000000e+00 5.685233e-01 4.314767e-01 0.000000e+00
 0.000000e+00 0.000000e+00 0.000000e+00 8.691339e-01 1.308661e-01
 0.000000e+00 0.000000e+00 0.000000e+00 0.000000e+00 0.000000e+00
<ENDHMM>
~h "sy"
<BEGINHMM>
<NUMSTATES> 5
<STATE> 2
<MEAN> 25
 -1.334806e+01 2.789463e+00 1.349936e+01 -1.405482e+00 -3.738862e+00 2.984204e+00 4.787958e-01 9.774721e-01 3.369073e+00 6.821810e-01 4.007239e+00 -1.120466e+00 -5.878469e-01 -4.920563e-01 2.972982e-01 1.824938e-01 -1.415450e-01 -1.526389e-01 3.320847e-01 -2.145236e-01 -4.442996e-03 -1.549217e-01 -3.093002e-01 -1.129153e-01 4.543646e-02
<VARIANCE> 25
 1.185903e+02 4.993812e+01 3.413126e+01 3.216604e+01 6.888283e+01 5.593176e+01 2.351873e+01 1.942040e+01 3.699579e+01 5.389314e+01 3.209584e+01 1.842505e+01 1.430300e+01 3.058526e+00 2.925203e+00 2.339979e+00 6.461010e+00 5.821962e+00 2.894634e+00 1.283416e+00 3.673074e+00 3.559062e+00 4.483348e+00 2.382787e+00 6.852909e-01
<GCONST> 1.051984e+02
<STATE> 3
<MEAN> 25
 -7.098584e+00 2.511600e+00 2.048443e+00 2.220313e+00 -1.126374e-01 4.017020e+00 1.166924e+00 -1.875667e+00 2.205369e+00 -2.253607e+00 1.781551e+00 3.438753e+00 -3.944726e-02 1.669624e-01 1.283008e-01 -4.020363e-02 1.623537e-02 4.679251e-03 7.569292e-02 2.614794e-01 -1.204785e-01 -1.905551e-01 4.663698e-02 1.006960e-01 -1.634647e-01
<VARIANCE> 25
 6.566029e+01 4.657223e+00 4.201745e+01 7.434999e+00 1.647097e+01 4.856287e+01 2.130022e+01 2.177690e+01 3.034643e+01 6.550917e+01 2.906919e+01 1.730270e+01 3.292359e+00 6.973523e-01 9.769655e-01 1.208663e+00 2.138515e+00 1.678122e+00 9.533043e-01 7.918291e-01 1.267620e+00 1.173538e+00 1.281145e+00 9.280489e-01 5.383440e-01
<GCONST> 8.599847e+01
<STATE> 4
<MEAN> 25
 -2.635236e+00 6.676331e-01 3.868167e-01 3.326153e+00 -2.311878e+00 -4.174503e+00 3.288545e-01 2.811483e+00 7.194631e-01 -5.739951e-01 1.662929e+00 -3.294299e-01 -3.539413e-02 6.424835e-02 -4.097341e-01 2.989062e-01 2.875563e-01 1.277580e-01 9.952385e-03 4.896257e-02 -4.993728e-02 8.331876e-02 1.862860e-01 9.301428e-02 -3.934590e-01
<VARIANCE> 25
 6.119283e+01 3.809141e+01 3.038938e+01 6.427789e+01 9.327814e+01 3.250407e+01 2.152759e+01 2.131358e+01 1.410566e+01 4.308212e+01 2.264030e+01 1.371237e+01 2.610786e+00 2.065934e+00 9.216756e-01 1.545728e+00 2.641948e+00 1.920864e+00 3.043734e+00 2.188301e+00 1.954182e+00 2.642276e+00 2.200320e+00 1.261481e+00 1.322905e+00
<GCONST> 9.607361e+01
<TRANSP> 5
 0.000000e+00 1.000000e+00 0.000000e+00 0.000000e+00 0.000000e+00
 0.000000e+00 8.801800e-01 1.198200e-01 0.000000e+00 0.000000e+00
 0.000000e+00 0.000000e+00 9.033521e-01 9.664795e-02 0.000000e+00
 0.000000e+00 0.000000e+00 0.000000e+00 8.997632e-01 1.002367e-01
 0.000000e+00 0.000000e+00 0.000000e+00 0.000000e+00 0.000000e+00
<ENDHMM>
~h "sil"
<BEGINHMM>
<NUMSTATES> 5
<STATE> 2
<MEAN> 25
 -5.709512e+00 1.524267e+00 -1.959502e+00 2.717217e+00 2.571730e+00 2.546096e+00 2.812705e+00 1.337738e+00 4.622148e-01 3.507793e-01 5.298914e-01 1.952354e+00 -6.532851e-02 1.200400e-02 -1.158382e-02 1.622976e-02 2.283803e-02 2.638867e-02 1.596093e-02 5.676539e-03 7.121692e-03 1.219500e-02 2.513560e-02 1.417131e-02 -8.034471e-02
<VARIANCE> 25
 2.568823e+01 2.114863e+01 2.331165e+01 2.716632e+01 2.704365e+01 2.891471e+01 2.547579e+01 2.734388e+01 2.749912e+01 2.959014e+01 2.419362e+01 1.949554e+01 2.127417e-01 3.834617e-01 5.744829e-01 7.704399e-01 9.993712e-01 1.168466e+00 1.294238e+00 1.412165e+00 1.449175e+00 1.432174e+00 1.350756e+00 1.227812e+00 1.431689e-01
<GCONST> 8.149055e+01
<STATE> 3
<MEAN> 25
 -8.841686e+00 3.227180e+00 -2.224715e+00 4.286719e+00 3.906287e+00 4.068511e+00 3.873448e+00 2.645124e+00 1.745140e+00 1.570951e+00 1.475950e+00 3.307216e+00 -1.899324e-02 1.442823e-02 2.015430e-02 -3.115448e-02 -4.658230e-03 -4.042553e-02 -3.188379e-02 -2.079708e-02 -2.325036e-02 -1.888975e-02 -2.007833e-02 -2.965647e-02 4.567945e-02
<VARIANCE> 25
 4.382725e+01 3.454784e+01 3.233439e+01 3.753068e+01 4.135292e+01 4.409369e+01 3.289022e+01 3.405578e+01 3.650166e+01 4.004077e+01 3.181571e+01 2.400492e+01 8.041761e-01 1.023159e+00 1.178280e+00 1.422016e+00 1.763782e+00 1.859331e+00 1.842195e+00 1.947602e+00 1.935367e+00 1.879134e+00 1.740360e+00 1.534197e+00 9.357228e-01
<GCONST> 9.381901e+01
<STATE> 4
<MEAN> 25
 -2.350534e+00 6.488984e-01 -4.333158e-01 5.730946e-01 7.529833e-01 8.261206e-01 6.767405e-01 3.244901e-01 1.269338e-01 1.628377e-01 1.797517e-01 7.243130e-01 3.751248e-02 6.084848e-03 2.137754e-02 -1.896683e-02 -2.177766e-03 -2.684371e-02 -2.248815e-02 -1.397056e-02 -1.595452e-02 -1.435098e-03 -8.258408e-03 -1.790281e-02 6.673427e-02
<VARIANCE> 25
 5.700558e+01 5.002296e+01 6.146783e+01 6.474569e+01 6.084185e+01 6.003041e+01 4.756194e+01 5.489581e+01 5.111472e+01 4.452140e+01 4.067910e+01 3.744147e+01 1.549725e+00 1.848981e+00 2.160128e+00 2.476614e+00 2.730452e+00 2.711862e+00 2.611981e+00 2.910005e+00 2.730037e+00 2.463500e+00 2.384597e+00 2.075991e+00 1.841311e+00
<GCONST> 1.041967e+02
<TRANSP> 5
 0.000000e+00 1.000000e+00 0.000000e+00 0.000000e+00 0.000000e+00
 0.000000e+00 9.572030e-01 4.279701e-02 0.000000e+00 0.000000e+00
 0.000000e+00 0.000000e+00 7.583646e-01 2.416354e-01 0.000000e+00
 0.000000e+00 0.000000e+00 0.000000e+00 9.176717e-01 8.232832e-02
 0.000000e+00 0.000000e+00 0.000000e+00 0.000000e+00 0.000000e+00
<ENDHMM>
~h "sp"
<BEGINHMM>
<NUMSTATES> 3
<STATE> 2
<MEAN> 25
 -8.841686e+00 3.227180e+00 -2.224715e+00 4.286719e+00 3.906287e+00 4.068511e+00 3.873448e+00 2.645124e+00 1.745140e+00 1.570951e+00 1.475950e+00 3.307216e+00 -1.899324e-02 1.442823e-02 2.015430e-02 -3.115448e-02 -4.658230e-03 -4.042553e-02 -3.188379e-02 -2.079708e-02 -2.325036e-02 -1.888975e-02 -2.007833e-02 -2.965647e-02 4.567945e-02
<VARIANCE> 25
 4.382725e+01 3.454784e+01 3.233439e+01 3.753068e+01 4.135292e+01 4.409369e+01 3.289022e+01 3.405578e+01 3.650166e+01 4.004077e+01 3.181571e+01 2.400492e+01 8.041761e-01 1.023159e+00 1.178280e+00 1.422016e+00 1.763782e+00 1.859331e+00 1.842195e+00 1.947602e+00 1.935367e+00 1.879134e+00 1.740360e+00 1.534197e+00 9.357228e-01
<GCONST> 9.381901e+01
<TRANSP> 3
 0.0 1.0 0.0
 0.0 0.9 0.1
 0.0 0.0 0.0
<ENDHMM>