~o
<STREAMINFO> 1 25
<VECSIZE> 25<NULLD><MFCC_D_N_Z_0><DIAGC>
~s "silst"
<MEAN> 25
 -6.659851e+00 1.856246e+00 -1.498940e+00 4.088262e+00 3.895572e+00 3.216251e+00 3.292758e+00 2.301170e+00 1.343384e+00 1.147533e+00 1.503390e+00 2.995108e+00 -1.095266e-01 2.054260e-02 -5.017295e-03 3.230103e-02 3.691389e-02 4.126068e-02 2.962356e-02 1.539720e-02 1.250370e-02 2.974577e-02 3.828363e-02 2.226181e-02 -1.247772e-01
<VARIANCE> 25
 2.689878e+01 2.744306e+01 2.511719e+01 2.740449e+01 3.087206e+01 3.313724e+01 2.798525e+01 3.159968e+01 3.077502e+01 3.611130e+01 2.821977e+01 2.182547e+01 2.710194e-01 5.158409e-01 6.860201e-01 8.645819e-01 1.123566e+00 1.317196e+00 1.415915e+00 1.550036e+00 1.577817e+00 1.564412e+00 1.446463e+00 1.309489e+00 1.836012e-01
<GCONST> 8.477264e+01
~h "@"
<BEGINHMM>
<NUMSTATES> 5
<STATE> 2
<MEAN> 25
 3.887148e+00 -3.715591e-01 -1.608811e+00 -1.987580e+00 -4.890265e-01 -1.444010e+00 -3.364015e+00 -2.161960e+00 1.170470e+00 9.842768e-01 -1.621316e-02 -1.393622e+00 1.883650e+00 -7.462330e-01 -2.920461e-01 -9.418489e-01 -7.866449e-01 -2.511250e-01 -1.160227e+00 6.639450e-02 3.003537e-01 -1.552123e-02 -2.532081e-01 -6.693068e-01 1.500436e+00
<VARIANCE> 25
 3.911170e+01 4.480398e+01 4.675485e+01 5.402822e+01 5.624422e+01 7.125720e+01 5.850457e+01 5.940900e+01 5.852154e+01 5.475414e+01 4.678555e+01 3.740794e+01 4.885210e+00 5.645785e+00 5.081740e+00 6.020001e+00 6.202335e+00 7.275737e+00 6.683158e+00 7.388962e+00 6.834784e+00 6.289261e+00 5.411753e+00 4.383274e+00 3.997536e+00
<GCONST> 1.159992e+02
<STATE> 3
<MEAN> 25
 5.617476e+00 -2.077229e+00 -2.257081e+00 -3.210782e+00 -1.355156e+00 -1.925378e+00 -4.641931e+00 -1.356690e+00 1.753481e+00 1.010626e+00 -1.459182e-01 -1.986358e+00 9.731056e-01 -1.552367e-01 9.906561e-02 4.874357e-02 -3.007395e-01 1.509521e-01 -4.132672e-01 7.118632e-02 3.285512e-02 -4.803790e-02 -2.740306e-01 -2.766883e-01 1.936364e-01
<VARIANCE> 25
 2.657779e+01 4.334799e+01 4.582202e+01 5.403009e+01 5.642814e+01 7.126235e+01 5.682551e+01 5.917255e+01 5.935552e+01 6.089452e+01 4.976041e+01 3.967468e+01 2.494883e+00 3.548192e+00 3.468354e+00 4.371271e+00 4.304238e+00 5.036041e+00 4.498404e+00 5.430549e+00 4.751140e+00 4.342317e+00 3.900879e+00 3.116522e+00 2.370245e+00
<GCONST> 1.105701e+02
<STATE> 4
<MEAN> 25
 5.846181e+00 -1.427652e+00 -1.430165e+00 -2.209325e+00 -9.847770e-01 -1.878434e+00 -4.796991e+00 -1.067472e+00 1.590467e+00 9.563031e-01 -5.210582e-01 -2.215600e+00 -7.761925e-02 6.927316e-01 4.038339e-01 8.753107e-01 3.344633e-01 4.271035e-01 3.514260e-01 -1.582514e-01 -2.253506e-01 -1.053574e-01 -1.872658e-01 1.197568e-01 -9.573196e-01
<VARIANCE> 25
 2.260858e+01 4.849846e+01 4.842850e+01 5.751231e+01 5.997723e+01 6.968533e+01 5.705949e+01 6.554045e+01 6.278162e+01 6.740902e+01 5.054679e+01 4.307479e+01 1.297599e+00 2.640205e+00 2.383980e+00 3.143847e+00 3.384545e+00 3.618686e+00 3.327166e+00 3.681175e+00 3.511749e+00 3.385844e+00 3.021421e+00 2.583682e+00 2.126366e+00
<GCONST> 1.070212e+02
<TRANSP> 5
 0.000000e+00 1.000000e+00 0.000000e+00 0.000000e+00 0.000000e+00
 0.000000e+00 2.235537e-01 7.764463e-01 0.000000e+00 0.000000e+00
 0.000000e+00 0.000000e+00 2.743269e-02 9.725673e-01 0.000000e+00
 0.000000e+00 0.000000e+00 0.000000e+00 4.298824e-01 5.701176e-01
 0.000000e+00 0.000000e+00 0.000000e+00 0.000000e+00 0.000000e+00
<ENDHMM>
~h "a"
<BEGINHMM>
<NUMSTATES> 5
<STATE> 2
<MEAN> 25
 4.829227e+00 -6.482679e+00 -3.993644e+00 -4.163130e+00 -4.531577e-01 -9.694772e-01 -6.143191e-01 2.554071e+00 2.237013e+00 -1.604320e-01 -2.070353e+00 -2.587322e+00 3.854515e-01 -1.287341e+00 -7.960943e-01 -6.428047e-01 5.063330e-01 2.620789e-01 2.902466e-01 7.792321e-01 2.354026e-01 -3.947953e-01 -6.971371e-01 -5.001808e-01 1.012731e+00
<VARIANCE> 25
 2.431870e+01 3.956178e+01 4.988873e+01 5.103253e+01 6.757111e+01 7.376250e+01 6.182875e+01 6.531013e+01 5.577411e+01 5.338877e+01 5.213512e+01 4.454749e+01 1.883761e+00 2.966221e+00 3.278693e+00 3.573456e+00 4.585119e+00 4.593671e+00 4.565500e+00 5.231146e+00 4.506708e+00 4.168283e+00 4.121462e+00 3.425997e+00 2.328999e+00
<GCONST> 1.100535e+02
<STATE> 3
<MEAN> 25
 5.077184e+00 -9.095649e+00 -5.261556e+00 -5.569008e+00 1.016588e+00 -3.106656e-01 -1.056525e-01 3.694064e+00 2.460289e+00 -7.604910e-01 -3.809559e+00 -3.747013e+00 7.952215e-03 2.946169e-01 2.846686e-03 3.419467e-01 1.572909e-01 3.240708e-02 1.118326e-01 -1.258435e-01 -1.482335e-01 -1.903207e-02 -8.815751e-02 1.853158e-01 -4.083178e-01
<VARIANCE> 25
 1.564530e+01 3.129691e+01 4.108058e+01 3.903779e+01 6.193393e+01 6.528312e+01 5.795538e+01 6.088429e+01 5.553172e+01 5.355543e+01 5.327155e+01 4.681396e+01 4.366631e-01 1.319425e+00 1.300130e+00 1.553738e+00 2.137171e+00 2.363238e+00 2.259390e+00 2.475105e+00 2.121519e+00 2.224952e+00 2.171918e+00 1.863679e+00 8.109814e-01
<GCONST> 9.804655e+01
<STATE> 4
<MEAN> 25
 3.477203e+00 -3.359976e+00 -4.214317e+00 -9.611990e-01 1.211246e+00 -1.998157e-01 1.138055e+00 2.202970e+00 1.150881e+00 -8.823352e-01 -2.413199e+00 -9.882818e-01 -3.881312e-01 1.101088e+00 5.084721e-01 7.737444e-01 1.219155e-01 2.318408e-01 4.118847e-02 -3.313341e-01 -1.484014e-01 1.083881e-01 2.442871e-01 2.832396e-01 -1.271326e+00
<VARIANCE> 25
 2.087215e+01 3.038375e+01 3.846283e+01 4.180095e+01 5.150817e+01 5.242532e+01 4.542055e+01 4.539026e+01 4.602337e+01 4.598720e+01 4.398362e+01 3.153056e+01 9.129604e-01 1.570691e+00 1.711466e+00 2.044882e+00 2.506053e+00 2.562977e+00 2.668761e+00 2.845457e+00 2.676182e+00 2.624495e+00 2.466593e+00 2.111866e+00 1.053977e+00
<GCONST> 9.935916e+01
<TRANSP> 5
 0.000000e+00 1.000000e+00 0.000000e+00 0.000000e+00 0.000000e+00
 0.000000e+00 4.812459e-01 5.187541e-01 0.000000e+00 0.000000e+00
 0.000000e+00 0.000000e+00 6.665649e-01 3.334350e-01 0.000000e+00
 0.000000e+00 0.000000e+00 0.000000e+00 6.588647e-01 3.411352e-01
 0.000000e+00 0.000000e+00 0.000000e+00 0.000000e+00 0.000000e+00
<ENDHMM>
~h "b"
<BEGINHMM>
<NUMSTATES> 5
<STATE> 2
<MEAN> 25
 4.347004e+00 8.270148e+00 2.701565e+00 4.586902e+00 2.012811e+00 1.497105e+00 -7.813840e-01 -2.905986e+00 -2.511953e+00 -1.846795e+00 -1.528576e+00 -1.635011e+00 5.099361e-02 8.182564e-01 2.587959e-01 5.384919e-01 3.625513e-01 1.073582e-01 2.248224e-01 -1.249937e-01 -1.607895e-01 -2.333873e-01 -1.467037e-01 -3.060443e-02 -4.323561e-01
<VARIANCE> 25
 2.641272e+01 3.408104e+01 2.945505e+01 3.200355e+01 3.133665e+01 3.841404e+01 3.692616e+01 3.988875e+01 3.730806e+01 3.403399e+01 2.987261e+01 2.714448e+01 1.465556e+00 2.703791e+00 2.168456e+00 2.910958e+00 2.475209e+00 2.814321e+00 2.958328e+00 2.803486e+00 2.800453e+00 2.795234e+00 2.574865e+00 2.080937e+00 2.229769e+00
<GCONST> 9.964525e+01
<STATE> 3
<MEAN> 25
 4.543227e+00 8.005640e+00 2.196212e+00 4.268809e+00 2.228120e+00 1.467834e+00 -7.417732e-01 -3.842570e+00 -3.090386e+00 -1.596227e+00 -7.180531e-01 -8.813611e-01 7.302572e-01 -1.918313e+00 -1.162352e+00 -1.989564e+00 -1.096966e+00 -1.062947e+00 -1.436609e+00 -2.916698e-01 6.215735e-01 9.152375e-01 1.230170e+00 1.242498e-01 2.468078e+00
<VARIANCE> 25
 2.441331e+01 4.033866e+01 3.097126e+01 3.662046e+01 3.315790e+01 3.996856e+01 3.777670e+01 4.028747e+01 3.788749e+01 3.400698e+01 3.262051e+01 2.851768e+01 3.099167e+00 4.833923e+00 4.896071e+00 6.133952e+00 4.990861e+00 5.890445e+00 5.418988e+00 5.385403e+00 6.300395e+00 7.170177e+00 5.147168e+00 4.125103e+00 3.272131e+00
<GCONST> 1.093019e+02
<STATE> 4
<MEAN> 25
 6.656829e+00 1.727176e+00 -1.097959e+00 -1.552686e+00 -1.128793e+00 -1.151606e+00 -5.754405e+00 -3.504318e+00 3.544916e-01 1.630656e+00 2.766359e+00 -1.890508e+00 2.509953e-01 -2.426408e+00 -6.503532e-01 -1.758564e+00 -1.226309e+00 -1.012110e+00 -9.312255e-01 9.531609e-01 1.201690e+00 6.096960e-01 4.212866e-01 -4.207170e-01 2.432309e+00
<VARIANCE> 25
 2.890878e+01 5.303388e+01 5.184063e+01 8.376791e+01 5.893486e+01 8.486492e+01 6.453490e+01 7.150159e+01 7.065820e+01 9.283273e+01 6.666254e+01 4.984861e+01 2.667411e+00 5.524980e+00 6.051254e+00 7.505780e+00 6.753676e+00 8.024023e+00 8.040062e+00 8.494416e+00 8.726078e+00 8.588469e+00 7.167698e+00 6.727701e+00 3.815262e+00
<GCONST> 1.197642e+02
<TRANSP> 5
 0.000000e+00 1.000000e+00 0.000000e+00 0.000000e+00 0.000000e+00
 0.000000e+00 6.686528e-01 3.313472e-01 0.000000e+00 0.000000e+00
 0.000000e+00 0.000000e+00 3.625346e-01 6.374654e-01 0.000000e+00
 0.000000e+00 0.000000e+00 0.000000e+00 3.952699e-01 6.047301e-01
 0.000000e+00 0.000000e+00 0.000000e+00 0.000000e+00 0.000000e+00
<ENDHMM>
~h "c"
<BEGINHMM>
<NUMSTATES> 5
<STATE> 2
<MEAN> 25
 -7.558808e+00 5.252696e+00 7.010152e-01 1.817605e+00 3.325290e+00 -5.380581e-01 2.060133e+00 -1.796541e-01 1.457096e+00 8.357912e-04 1.625489e+00 1.641540e+00 -2.526399e+00 2.512302e-01 -1.391945e-01 -8.487272e-01 3.784595e-01 7.968643e-02 6.368020e-01 -4.046442e-02 5.393792e-01 1.446660e-01 5.181718e-01 2.653514e-01 7.700620e-01
<VARIANCE> 25
 6.992271e+01 4.414950e+01 4.907214e+01 4.520184e+01 4.677286e+01 5.416932e+01 4.721462e+01 5.043568e+01 4.361191e+01 3.591674e+01 3.657781e+01 2.730623e+01 4.996930e+00 4.463119e+00 5.072054e+00 4.914487e+00 4.787606e+00 5.074948e+00 4.140233e+00 4.804348e+00 3.937352e+00 3.582335e+00 3.240972e+00 2.478992e+00 6.488036e+00
<GCONST> 1.106637e+02
<STATE> 3
<MEAN> 25
 -1.423511e+01 2.469822e-01 5.915691e+00 -2.065726e+00 -3.402302e-01 1.544848e+00 3.646104e+00 -1.414771e+00 2.472183e+00 9.366241e-02 3.285138e+00 2.999436e+00 1.444499e+00 -1.408854e+00 1.160332e+00 -8.211467e-02 -1.701636e+00 -1.132944e+00 -6.419522e-01 -1.461978e-01 -2.312858e-01 -4.605101e-01 -5.984052e-02 -3.153843e-02 1.652416e+00
<VARIANCE> 25
 6.058418e+01 1.360780e+02 1.123972e+02 7.548667e+01 8.403050e+01 1.150402e+02 6.725177e+01 6.847291e+01 5.155740e+01 5.536708e+01 4.538889e+01 3.854480e+01 1.003203e+01 7.806012e+00 7.426447e+00 5.845679e+00 6.974680e+00 6.943120e+00 5.369514e+00 5.531469e+00 4.941274e+00 4.402596e+00 4.097599e+00 2.976023e+00 4.009181e+00
<GCONST> 1.194174e+02
<STATE> 4
<MEAN> 25
 -2.235617e+00 -1.117593e+00 4.577074e+00 -7.353222e-01 -4.126045e+00 -5.339501e+00 -8.315174e-01 -6.159419e-01 1.242674e+00 -2.024726e+00 5.635353e-01 1.494024e+00 4.475197e+00 -1.311389e+00 -1.079004e+00 -2.171140e-01 -1.128509e+00 -1.400952e+00 -1.220051e+00 2.764450e-01 -4.150780e-01 -2.071031e-01 -8.916025e-01 -7.933617e-01 1.425378e+00
<VARIANCE> 25
 4.068468e+01 5.548884e+01 4.664136e+01 4.531945e+01 5.321892e+01 7.236691e+01 5.396189e+01 6.182904e+01 4.516199e+01 3.572529e+01 3.588094e+01 2.709989e+01 3.966576e+00 9.240529e+00 9.123220e+00 4.997435e+00 7.515278e+00 6.986137e+00 5.910561e+00 6.774515e+00 5.781543e+00 5.916311e+00 5.101427e+00 3.428340e+00 1.902033e+00
<GCONST> 1.140688e+02
<TRANSP> 5
 0.000000e+00 1.000000e+00 0.000000e+00 0.000000e+00 0.000000e+00
 0.000000e+00 7.571100e-01 2.428900e-01 0.000000e+00 0.000000e+00
 0.000000e+00 0.000000e+00 6.117515e-01 3.882485e-01 0.000000e+00
 0.000000e+00 0.000000e+00 0.000000e+00 4.512987e-01 5.487013e-01
 0.000000e+00 0.000000e+00 0.000000e+00 0.000000e+00 0.000000e+00
<ENDHMM>
~h "d"
<BEGINHMM>
<NUMSTATES> 5
<STATE> 2
<MEAN> 25
 3.307572e+00 5.279415e+00 4.037327e+00 6.390125e+00 7.592257e-01 -8.322958e-01 -1.679239e+00 -9.372610e-01 -1.585210e-01 -2.103610e+00 -2.405917e+00 -6.194795e-01 1.146884e-01 5.029516e-01 5.889016e-01 5.566082e-01 1.767032e-01 -1.671509e-01 -9.337714e-02 -1.865307e-01 -2.093224e-01 -3.412345e-01 -3.089412e-02 1.896207e-02 -8.488435e-02
<VARIANCE> 25
 3.786726e+01 5.605737e+01 3.989854e+01 4.673639e+01 6.015072e+01 5.327776e+01 5.118195e+01 4.936610e+01 4.435002e+01 4.014184e+01 4.066406e+01 3.155146e+01 2.839075e+00 6.100818e+00 3.322262e+00 4.872122e+00 4.975837e+00 5.165251e+00 5.116810e+00 4.764466e+00 4.304568e+00 4.084041e+00 3.828944e+00 3.144197e+00 5.346909e+00
<GCONST> 1.107946e+02
<STATE> 3
<MEAN> 25
 2.988372e+00 1.615632e+00 5.518760e+00 4.524226e+00 -1.000169e+00 -2.915232e+00 -2.980447e+00 -1.168211e+00 -8.997382e-01 -2.971543e+00 -4.578330e-01 1.021007e+00 -8.835714e-02 -2.707677e+00 5.015763e-01 -2.090660e+00 -2.103885e+00 -1.616276e+00 -1.238894e+00 6.898249e-01 1.371217e-01 1.148375e-01 1.476355e+00 6.057946e-01 3.175211e+00
<VARIANCE> 25
 2.299648e+01 5.118506e+01 4.094557e+01 5.134560e+01 6.529533e+01 6.433273e+01 5.692950e+01 5.369006e+01 5.170554e+01 4.062310e+01 4.093969e+01 3.781526e+01 3.454054e+00 4.874312e+00 5.792269e+00 5.591159e+00 6.628638e+00 7.380037e+00 7.635228e+00 8.961701e+00 7.560915e+00 6.501610e+00 5.332243e+00 4.121990e+00 3.682096e+00
<GCONST> 1.147371e+02
<STATE> 4
<MEAN> 25
 3.719074e+00 -3.186408e+00 6.043387e+00 1.325397e-01 -6.299245e+00 -6.554601e+00 -6.079878e+00 1.550827e+00 2.149155e-01 -1.983827e+00 2.316391e+00 9.856056e-01 9.661412e-02 -1.059664e+00 -1.639454e-01 -1.612846e+00 -1.240469e+00 -4.662641e-01 -2.221435e-01 7.207043e-01 2.460484e-01 6.626680e-01 4.392164e-01 -4.583981e-01 1.508917e+00
<VARIANCE> 25
 2.357927e+01 3.636790e+01 5.622964e+01 6.528858e+01 8.101196e+01 6.405833e+01 7.807446e+01 8.991167e+01 7.784387e+01 6.384412e+01 5.456253e+01 4.088720e+01 1.568069e+00 2.892346e+00 5.317349e+00 4.147804e+00 6.031555e+00 5.203350e+00 5.977333e+00 6.390343e+00 5.602042e+00 4.570873e+00 5.233385e+00 4.045053e+00 2.411772e+00
<GCONST> 1.134117e+02
<TRANSP> 5
 0.000000e+00 1.000000e+00 0.000000e+00 0.000000e+00 0.000000e+00
 0.000000e+00 5.985851e-01 4.014150e-01 0.000000e+00 0.000000e+00
 0.000000e+00 0.000000e+00 4.161302e-01 5.838698e-01 0.000000e+00
 0.000000e+00 0.000000e+00 0.000000e+00 3.388279e-01 6.611721e-01
 0.000000e+00 0.000000e+00 0.000000e+00 0.000000e+00 0.000000e+00
<ENDHMM>
~h "e"
<BEGINHMM>
<NUMSTATES> 5
<STATE> 2
<MEAN> 25
 3.174134e+00 -3.987905e+00 1.698888e+00 -2.096634e-01 -5.321285e+00 -5.207509e+00 -1.882071e-01 2.474602e+00 3.109434e-02 -3.159968e-01 6.482335e-01 -1.066020e-01 5.932211e-01 -1.172845e+00 4.079604e-01 -6.455597e-01 -1.166012e+00 -8.541057e-01 3.989807e-01 9.936719e-01 -3.545194e-01 -1.904477e-01 2.012354e-01 -1.223622e-01 1.376180e+00
<VARIANCE> 25
 4.423973e+01 5.520258e+01 6.891743e+01 5.499309e+01 7.590749e+01 9.200435e+01 7.059581e+01 8.079636e+01 6.605184e+01 5.577980e+01 5.422487e+01 4.016965e+01 3.824182e+00 4.451589e+00 5.506722e+00 4.780744e+00 6.139623e+00 7.363403e+00 5.841680e+00 6.971323e+00 5.804028e+00 5.042912e+00 4.809694e+00 3.656461e+00 3.771702e+00
<GCONST> 1.165805e+02
<STATE> 3
<MEAN> 25
 3.643659e+00 -6.057863e+00 4.666899e+00 -1.557348e+00 -9.227186e+00 -8.062388e+00 1.319226e+00 5.209920e+00 -2.190950e+00 -1.564410e-02 2.292721e+00 -9.358468e-01 -1.014240e-01 4.180498e-01 -1.726603e-02 2.792899e-01 2.182305e-01 3.138690e-01 3.412520e-01 -1.742836e-01 -1.061274e-01 9.412888e-02 -1.275231e-01 4.395778e-02 -5.744951e-01
<VARIANCE> 25
 2.148274e+01 4.269390e+01 7.350916e+01 5.309435e+01 6.836908e+01 7.746136e+01 7.464307e+01 8.326621e+01 6.626807e+01 5.340750e+01 5.354742e+01 3.746066e+01 7.865458e-01 1.898650e+00 2.118140e+00 2.272855e+00 2.714595e+00 2.769011e+00 2.889276e+00 2.925898e+00 2.934156e+00 2.565070e+00 2.509544e+00 1.931882e+00 1.830030e+00
<GCONST> 1.044484e+02
<STATE> 4
<MEAN> 25
 2.138734e+00 -2.450605e+00 1.502549e+00 -3.674364e-01 -4.595749e+00 -4.019608e+00 1.511104e+00 1.812376e+00 -6.353191e-01 6.776411e-01 2.746933e-01 -7.129136e-02 -1.926835e-01 4.845763e-01 -1.342243e-01 3.025197e-01 5.591764e-01 3.984448e-01 -9.716867e-03 -1.926761e-01 7.462660e-02 -1.619476e-02 -1.113327e-01 4.756303e-02 -6.396759e-01
<VARIANCE> 25
 2.396275e+01 3.543563e+01 4.945438e+01 4.263785e+01 5.467557e+01 5.472906e+01 5.424229e+01 5.482342e+01 4.712787e+01 4.103019e+01 3.621521e+01 2.805821e+01 5.305580e-01 9.819608e-01 1.081172e+00 1.205661e+00 1.867362e+00 1.818897e+00 1.859582e+00 1.914293e+00 1.808300e+00 1.757365e+00 1.587561e+00 1.384075e+00 6.123431e-01
<GCONST> 9.439574e+01
<TRANSP> 5
 0.000000e+00 1.000000e+00 0.000000e+00 0.000000e+00 0.000000e+00
 0.000000e+00 5.434124e-01 4.565876e-01 0.000000e+00 0.000000e+00
 0.000000e+00 0.000000e+00 6.526746e-01 3.473254e-01 0.000000e+00
 0.000000e+00 0.000000e+00 0.000000e+00 7.640538e-01 2.359462e-01
 0.000000e+00 0.000000e+00 0.000000e+00 0.000000e+00 0.000000e+00
<ENDHMM>
~h "f"
<BEGINHMM>
<NUMSTATES> 5
<STATE> 2
<MEAN> 25
 -2.977121e+00 2.103626e+00 1.959837e+00 5.472196e+00 2.511687e+00 -2.276576e-02 1.837863e+00 9.458550e-02 8.118120e-01 9.184878e-02 9.645061e-01 7.308760e-01 -2.340365e+00 -1.567480e-01 -4.568934e-01 6.026574e-01 9.921016e-01 2.782273e-01 5.676994e-01 4.444091e-01 1.009798e+00 2.757193e-01 3.058378e-01 4.577691e-01 -6.881558e-01
<VARIANCE> 25
 4.218801e+01 2.787211e+01 5.154271e+01 5.013580e+01 4.670535e+01 5.625897e+01 3.893839e+01 4.435165e+01 3.506512e+01 3.280421e+01 2.935065e+01 2.833884e+01 2.770658e+00 3.187489e+00 3.257183e+00 4.338966e+00 4.733533e+00 4.883400e+00 3.716790e+00 3.925690e+00 3.649014e+00 3.386104e+00 3.211144e+00 2.373000e+00 1.650460e+00
<GCONST> 1.056668e+02
<STATE> 3
<MEAN> 25
 -9.316857e+00 -8.245342e-01 -2.102408e-01 4.272250e+00 3.637745e+00 -3.510643e-01 2.970615e+00 7.378806e-01 2.589838e+00 1.268351e+00 1.732816e+00 2.111192e+00 1.170466e-01 -4.150743e-01 -6.631823e-02 -2.828174e-01 -3.282399e-01 -2.547272e-01 -8.589340e-02 -1.206062e-01 -2.336226e-01 -6.224716e-02 -5.795032e-02 1.984239e-04 1.849209e-02
<VARIANCE> 25
 3.116956e+01 2.891466e+01 3.592911e+01 4.060978e+01 3.419738e+01 4.862597e+01 3.033989e+01 3.431404e+01 2.952609e+01 2.729939e+01 2.475176e+01 2.378980e+01 3.041043e+00 2.009777e+00 2.110761e+00 2.134473e+00 2.192523e+00 2.757144e+00 2.315604e+00 2.293952e+00 2.542128e+00 2.136898e+00 1.877174e+00 1.771650e+00 1.361596e+00
<GCONST> 9.745826e+01
<STATE> 4
<MEAN> 25
 -4.785045e+00 -1.619022e+00 4.081026e-01 1.907856e+00 2.133108e+00 2.281547e+00 9.236069e-01 -1.305604e+00 5.580289e-01 6.880402e-01 6.378872e-01 9.475273e-01 2.595967e+00 9.632862e-02 2.204724e-01 -1.138303e+00 -1.412003e+00 -5.445161e-01 -9.380562e-01 -5.747705e-01 -9.789203e-01 -3.293845e-01 -1.608223e-01 -6.439149e-01 1.289260e+00
<VARIANCE> 25
 6.985234e+01 6.502125e+01 8.304521e+01 1.208829e+02 8.030833e+01 1.304415e+02 6.964227e+01 6.128691e+01 5.647228e+01 4.730400e+01 3.697701e+01 3.430426e+01 6.720956e+00 6.451056e+00 8.111268e+00 8.662801e+00 7.617893e+00 1.010781e+01 5.231259e+00 5.529648e+00 6.411356e+00 4.568567e+00 4.583874e+00 3.802252e+00 3.892914e+00
<GCONST> 1.195588e+02
<TRANSP> 5
 0.000000e+00 1.000000e+00 0.000000e+00 0.000000e+00 0.000000e+00
 0.000000e+00 6.637502e-01 3.362498e-01 0.000000e+00 0.000000e+00
 0.000000e+00 0.000000e+00 7.215543e-01 2.784457e-01 0.000000e+00
 0.000000e+00 0.000000e+00 0.000000e+00 5.163711e-01 4.836289e-01
 0.000000e+00 0.000000e+00 0.000000e+00 0.000000e+00 0.000000e+00
<ENDHMM>
~h "g"
<BEGINHMM>
<NUMSTATES> 5
<STATE> 2
<MEAN> 25
 3.535114e+00 5.602080e+00 4.124346e+00 3.824238e+00 1.106313e-01 -6.324250e-01 -1.973376e+00 -2.560987e+00 -2.439261e+00 -5.978522e-01 -1.076730e+00 -1.849759e+00 -3.463761e-01 4.109270e-01 8.480220e-02 5.356693e-01 5.552123e-01 -5.541593e-03 9.238987e-02 3.176036e-02 3.114677e-02 -1.477019e-02 -9.018194e-02 2.572777e-02 -4.805992e-01
<VARIANCE> 25
 2.292791e+01 4.024788e+01 3.654655e+01 4.025638e+01 5.457953e+01 5.297681e+01 4.809615e+01 4.853809e+01 4.600655e+01 4.240433e+01 3.599653e+01 3.120712e+01 1.818329e+00 4.040280e+00 3.400132e+00 3.813638e+00 4.482978e+00 4.776531e+00 4.424708e+00 4.174300e+00 4.266916e+00 3.742036e+00 3.261363e+00 2.870204e+00 3.155768e+00
<GCONST> 1.070864e+02
<STATE> 3
<MEAN> 25
 2.203243e+00 2.568593e+00 2.994080e+00 3.435809e+00 1.470137e+00 -3.074183e+00 -3.504159e+00 -1.375495e+00 -2.125926e+00 3.233322e-01 1.265606e-02 -1.164143e+00 -9.737762e-02 -1.591362e+00 -8.083870e-02 -1.209362e+00 -7.149917e-01 -1.380054e+00 -8.161191e-01 7.783508e-01 3.138554e-01 2.851169e-01 6.531674e-01 1.074491e-01 2.027120e+00
<VARIANCE> 25
 2.936407e+01 5.624817e+01 5.358302e+01 5.118509e+01 7.964231e+01 7.549934e+01 7.057609e+01 5.919314e+01 5.245114e+01 5.305804e+01 4.673456e+01 3.696346e+01 3.801435e+00 5.900522e+00 6.335039e+00 5.977499e+00 1.041787e+01 7.436305e+00 7.418401e+00 7.159288e+00 6.538924e+00 6.191958e+00 5.337147e+00 4.531519e+00 3.659020e+00
<GCONST> 1.169487e+02
<STATE> 4
<MEAN> 25
 2.161900e+00 6.624398e-01 3.391184e+00 3.280262e-01 -1.915893e+00 -4.569700e+00 -4.020230e+00 3.532122e-01 -8.639905e-01 2.110482e-01 1.109405e+00 -9.629166e-01 7.645905e-02 -7.812550e-01 -7.158473e-03 -1.239450e+00 -8.663591e-01 -1.456692e-01 -6.299941e-02 4.717509e-01 3.074677e-01 4.933868e-02 2.417534e-01 -2.622231e-02 1.112537e+00
<VARIANCE> 25
 4.616417e+01 5.395368e+01 5.909337e+01 6.577906e+01 8.327829e+01 9.333340e+01 7.853087e+01 7.366159e+01 6.788334e+01 7.271372e+01 6.060404e+01 4.448423e+01 2.012703e+00 2.979611e+00 4.882117e+00 4.088787e+00 4.918628e+00 4.326412e+00 4.469737e+00 5.062979e+00 5.029861e+00 4.142840e+00 4.030208e+00 3.345214e+00 1.957036e+00
<GCONST> 1.133295e+02
<TRANSP> 5
 0.000000e+00 1.000000e+00 0.000000e+00 0.000000e+00 0.000000e+00
 0.000000e+00 4.923758e-01 5.076241e-01 0.000000e+00 0.000000e+00
 0.000000e+00 0.000000e+00 5.246748e-01 4.753252e-01 0.000000e+00
 0.000000e+00 0.000000e+00 0.000000e+00 3.035944e-01 6.964056e-01
 0.000000e+00 0.000000e+00 0.000000e+00 0.000000e+00 0.000000e+00
<ENDHMM>
~h "h"
<BEGINHMM>
<NUMSTATES> 5
<STATE> 2
<MEAN> 25
 5.192095e-01 -2.411005e+00 -9.291071e-01 7.755345e-01 3.338454e+00 1.467591e+00 3.036080e+00 1.180362e+00 4.146087e-01 -9.759644e-01 -1.233338e+00 3.941650e-01 -8.047755e-01 1.864794e-01 -4.751220e-03 6.459521e-01 7.946498e-01 4.485083e-01 5.699703e-01 2.021150e-01 1.653113e-01 -2.273700e-02 1.369054e-01 3.293560e-01 -8.641751e-01
<VARIANCE> 25
 4.254297e+01 5.555768e+01 6.169008e+01 6.390168e+01 9.300675e+01 7.477171e+01 7.465319e+01 6.725381e+01 6.012238e+01 6.966688e+01 5.784936e+01 4.126582e+01 2.417369e+00 3.906687e+00 3.762882e+00 3.959830e+00 4.962132e+00 4.642670e+00 4.943341e+00 4.559578e+00 4.341395e+00 4.338580e+00 3.764410e+00 3.131606e+00 2.711384e+00
<GCONST> 1.130802e+02
<STATE> 3
<MEAN> 25
 -1.868149e+00 -3.533696e+00 -1.881172e+00 2.279245e+00 5.269020e+00 2.914406e+00 4.205774e+00 2.103641e+00 6.762894e-01 -1.732829e+00 -1.382852e+00 1.207300e+00 -4.399334e-01 2.505010e-01 -1.088073e-01 1.851973e-01 6.320189e-02 1.572880e-01 2.918248e-02 -3.167592e-02 4.791263e-02 1.439368e-01 1.211259e-01 9.387778e-02 -7.631974e-01
<VARIANCE> 25
 4.180261e+01 5.830018e+01 6.121575e+01 5.544743e+01 7.997530e+01 6.356902e+01 6.345329e+01 6.319202e+01 5.572160e+01 5.158162e+01 5.347675e+01 3.889743e+01 9.365966e-01 1.686947e+00 1.916361e+00 2.042086e+00 2.649082e+00 2.562992e+00 2.710194e+00 2.807737e+00 2.680315e+00 2.560544e+00 2.377544e+00 2.067195e+00 9.476329e-01
<GCONST> 1.035406e+02
<STATE> 4
<MEAN> 25
 -1.166564e+00 -2.393239e+00 -2.661489e+00 7.512929e-01 2.786628e+00 1.520096e+00 2.442799e+00 6.531505e-01 4.460248e-01 -7.021518e-01 -1.258274e+00 3.444046e-01 -7.336338e-02 1.922735e-01 -6.271597e-03 6.564833e-03 -8.766726e-02 -4.706261e-02 -8.118118e-02 -9.387310e-02 -5.484331e-02 2.992559e-02 1.760903e-02 -9.363281e-03 -2.761925e-01
<VARIANCE> 25
 2.762285e+01 3.832056e+01 4.104796e+01 3.574012e+01 4.881916e+01 3.803504e+01 3.812317e+01 3.809805e+01 3.550429e+01 3.787925e+01 3.509295e+01 2.761788e+01 4.682841e-01 7.845409e-01 1.030604e+00 1.109768e+00 1.448045e+00 1.535236e+00 1.660507e+00 1.779714e+00 1.718104e+00 1.705681e+00 1.590644e+00 1.423223e+00 3.939700e-01
<GCONST> 9.106692e+01
<TRANSP> 5
 0.000000e+00 1.000000e+00 0.000000e+00 0.000000e+00 0.000000e+00
 0.000000e+00 5.245702e-01 4.754298e-01 0.000000e+00 0.000000e+00
 0.000000e+00 0.000000e+00 5.203884e-01 4.796116e-01 0.000000e+00
 0.000000e+00 0.000000e+00 0.000000e+00 7.340168e-01 2.659833e-01
 0.000000e+00 0.000000e+00 0.000000e+00 0.000000e+00 0.000000e+00
<ENDHMM>
~h "i"
<BEGINHMM>
<NUMSTATES> 5
<STATE> 2
<MEAN> 25
 4.465842e-01 9.269172e-01 1.130229e+01 1.081897e+00 -6.762907e+00 -4.666243e+00 -2.955442e+00 -3.859735e+00 -4.345288e+00 -6.591709e-01 2.032008e+00 -3.185124e-01 4.642197e-01 -2.303730e-01 2.335298e+00 -9.385104e-01 -2.090736e+00 -4.579293e-01 -1.016819e+00 -4.175985e-01 -1.142554e+00 9.270826e-02 6.313920e-01 -3.059272e-01 1.232363e+00
<VARIANCE> 25
 3.179341e+01 5.236178e+01 7.061775e+01 8.304171e+01 9.357586e+01 8.062145e+01 6.698209e+01 6.931902e+01 6.250793e+01 5.184665e+01 5.293224e+01 3.876547e+01 4.213451e+00 3.923361e+00 6.390628e+00 7.292616e+00 7.213816e+00 7.555846e+00 6.583912e+00 6.476696e+00 6.267053e+00 5.380635e+00 5.739891e+00 3.913344e+00 2.436141e+00
<GCONST> 1.170412e+02
<STATE> 3
<MEAN> 25
 4.098631e-01 1.422691e+00 1.678665e+01 -1.677170e+00 -1.251150e+01 -4.251562e+00 -4.451392e+00 -3.957655e+00 -7.879231e+00 -4.675967e-01 4.958764e+00 -1.626926e+00 1.065928e-01 2.269309e-01 -1.638900e-01 2.303721e-02 7.115705e-02 8.729662e-02 2.632097e-02 3.058814e-02 1.517649e-01 1.649415e-01 -2.013379e-01 6.029444e-02 -2.875038e-01
<VARIANCE> 25
 1.482879e+01 3.616184e+01 6.112621e+01 7.092912e+01 6.391518e+01 7.941655e+01 5.438633e+01 6.370856e+01 6.132930e+01 6.081063e+01 5.997934e+01 4.228622e+01 7.697558e-01 1.587302e+00 2.519332e+00 2.411191e+00 2.837564e+00 2.985128e+00 2.805135e+00 3.091053e+00 2.818307e+00 2.386657e+00 2.410994e+00 1.962966e+00 1.209304e+00
<GCONST> 1.033029e+02
<STATE> 4
<MEAN> 25
 1.532925e-01 3.727303e+00 1.027184e+01 8.427440e-01 -4.728202e+00 -2.442892e+00 -3.872749e+00 -4.753400e+00 -2.560952e+00 -2.056025e-01 -6.210238e-01 1.809457e-01 -1.324788e-01 2.880868e-01 -1.069721e+00 6.241208e-01 1.018054e+00 3.659471e-01 4.804228e-01 3.019209e-01 4.239430e-01 -9.209492e-02 -1.967042e-01 1.633790e-01 -9.626695e-01
<VARIANCE> 25
 2.011192e+01 4.412845e+01 4.520473e+01 1.116737e+02 7.579576e+01 6.792577e+01 6.643787e+01 5.420338e+01 5.318486e+01 4.716650e+01 4.804198e+01 3.844679e+01 1.029077e+00 1.730029e+00 2.289550e+00 2.903077e+00 3.253218e+00 3.006219e+00 3.074023e+00 2.877631e+00 2.859565e+00 2.713583e+00 2.638007e+00 2.063798e+00 1.316275e+00
<GCONST> 1.042959e+02
<TRANSP> 5
 0.000000e+00 1.000000e+00 0.000000e+00 0.000000e+00 0.000000e+00
 0.000000e+00 5.326684e-01 4.673316e-01 0.000000e+00 0.000000e+00
 0.000000e+00 0.000000e+00 6.857553e-01 3.142447e-01 0.000000e+00
 0.000000e+00 0.000000e+00 0.000000e+00 7.401995e-01 2.598005e-01
 0.000000e+00 0.000000e+00 0.000000e+00 0.000000e+00 0.000000e+00
<ENDHMM>
~h "j"
<BEGINHMM>
<NUMSTATES> 5
<STATE> 2
<MEAN> 25
 -2.426033e+00 7.404691e+00 5.359873e+00 4.055706e+00 2.183989e+00 -9.613602e-01 5.646973e-01 -8.019639e-01 -7.287309e-01 -2.170219e+00 -3.687545e-01 5.056305e-01 -1.501038e+00 5.291058e-01 5.855970e-01 -4.117036e-01 2.737609e-01 -4.772312e-02 2.549026e-01 -3.620906e-01 9.467134e-02 -3.136987e-02 2.773901e-01 1.664467e-01 6.058263e-01
<VARIANCE> 25
 6.583779e+01 4.798796e+01 5.066655e+01 4.748131e+01 5.544606e+01 5.564460e+01 4.434074e+01 4.190525e+01 3.900552e+01 3.388356e+01 3.179353e+01 2.849078e+01 5.501525e+00 4.818387e+00 4.580930e+00 5.191882e+00 5.630840e+00 5.597847e+00 4.409318e+00 4.164688e+00 3.989480e+00 3.561130e+00 3.306870e+00 2.643536e+00 5.416048e+00
<GCONST> 1.106665e+02
<STATE> 3
<MEAN> 25
 -4.912379e+00 4.150758e+00 1.168834e+01 1.543287e+00 -3.212443e+00 -4.095949e+00 -1.646605e+00 -3.846482e+00 -2.510741e+00 -2.303353e+00 2.167249e+00 2.058356e+00 1.670507e+00 -1.854115e+00 1.240022e+00 -4.838268e-01 -2.839388e+00 -2.006840e+00 -1.584147e+00 -7.826573e-02 -7.062198e-01 2.808485e-02 8.740987e-01 3.474705e-01 1.904442e+00
<VARIANCE> 25
 4.691253e+01 8.072295e+01 5.931882e+01 6.338036e+01 7.667167e+01 8.142928e+01 5.906001e+01 4.906241e+01 4.485313e+01 4.444200e+01 3.610354e+01 3.639224e+01 6.081231e+00 6.491307e+00 6.943118e+00 5.972300e+00 7.743133e+00 6.018187e+00 5.956711e+00 6.243930e+00 4.959201e+00 5.357778e+00 4.160513e+00 3.367452e+00 2.332083e+00
<GCONST> 1.155322e+02
<STATE> 4
<MEAN> 25
 1.718222e+00 -1.195706e+00 1.031586e+01 -8.644015e-01 -9.889657e+00 -9.202784e+00 -5.210766e+00 1.241489e+00 -1.959901e+00 -1.020757e+00 3.808429e+00 2.379268e+00 1.129977e+00 -1.225970e+00 -1.486866e+00 -4.888196e-01 3.539259e-02 5.585793e-02 -2.324410e-01 1.177086e+00 8.381515e-01 4.196708e-01 -3.498386e-01 -6.941140e-01 4.309139e-01
<VARIANCE> 25
 1.526691e+01 3.210170e+01 4.240331e+01 6.141864e+01 5.676369e+01 4.789861e+01 6.078893e+01 7.291963e+01 5.287742e+01 5.321155e+01 4.111736e+01 3.512654e+01 1.506792e+00 3.217169e+00 3.027300e+00 2.785487e+00 5.286520e+00 4.066993e+00 5.124781e+00 4.749557e+00 3.642730e+00 3.435149e+00 3.668117e+00 3.207737e+00 1.407408e+00
<GCONST> 1.068334e+02
<TRANSP> 5
 0.000000e+00 1.000000e+00 0.000000e+00 0.000000e+00 0.000000e+00
 0.000000e+00 7.537586e-01 2.462415e-01 0.000000e+00 0.000000e+00
 0.000000e+00 0.000000e+00 6.226693e-01 3.773307e-01 0.000000e+00
 0.000000e+00 0.000000e+00 0.000000e+00 6.120107e-01 3.879893e-01
 0.000000e+00 0.000000e+00 0.000000e+00 0.000000e+00 0.000000e+00
<ENDHMM>
~h "k"
<BEGINHMM>
<NUMSTATES> 5
<STATE> 2
<MEAN> 25
 -3.024711e+00 1.744688e+00 -2.046737e+00 2.127900e+00 3.111625e+00 1.795941e+00 1.650370e+00 5.749894e-01 1.277402e+00 1.760720e+00 1.017351e+00 8.776681e-01 -1.083416e+00 -4.807801e-01 -7.184609e-01 9.920850e-02 6.919057e-01 1.387363e-02 1.539293e-01 3.740135e-01 4.061638e-01 3.688772e-01 1.913232e-01 3.731449e-01 -2.842879e-01
<VARIANCE> 25
 3.807034e+01 3.802440e+01 5.261058e+01 4.620467e+01 6.054791e+01 5.408476e+01 4.642984e+01 4.693651e+01 4.627689e+01 3.932462e+01 3.704848e+01 3.135359e+01 2.794725e+00 4.332330e+00 4.448726e+00 4.582852e+00 5.306925e+00 5.244585e+00 4.715160e+00 4.479727e+00 4.484115e+00 3.859350e+00 3.584871e+00 3.001873e+00 5.493202e+00
<GCONST> 1.101812e+02
<STATE> 3
<MEAN> 25
 -5.119760e+00 -2.304366e+00 -4.212789e+00 -4.426620e-01 4.382993e+00 1.673049e+00 8.550602e-01 1.148795e+00 1.521275e+00 2.921722e+00 1.190100e+00 1.450160e+00 4.681941e-01 -1.197418e+00 -3.568406e-01 -1.113181e+00 -1.310388e-01 -7.481161e-01 -2.463294e-01 6.434646e-02 2.642865e-02 7.686211e-02 -1.566270e-01 -2.871513e-01 2.157995e+00
<VARIANCE> 25
 5.647922e+01 8.069006e+01 1.070870e+02 9.879630e+01 1.212922e+02 1.138955e+02 8.494566e+01 8.090511e+01 7.687080e+01 6.484010e+01 5.882341e+01 5.029399e+01 5.717987e+00 6.958116e+00 7.778970e+00 7.950816e+00 9.756127e+00 8.982538e+00 7.383600e+00 6.998967e+00 6.846077e+00 6.493261e+00 5.447089e+00 4.764095e+00 6.870973e+00
<GCONST> 1.237177e+02
<STATE> 4
<MEAN> 25
 -9.542050e-01 -3.240822e+00 -3.945006e+00 -2.142228e+00 2.187180e+00 -1.609367e+00 6.122248e-01 9.496657e-01 9.945382e-01 1.774009e+00 -3.138126e-01 -3.108388e-01 2.077115e+00 -1.177324e-01 6.368431e-01 -9.821095e-01 -1.648458e+00 -5.061640e-01 -2.424847e-01 -4.279506e-01 -6.305005e-01 -6.826184e-01 -4.054308e-01 -9.216431e-01 1.797244e+00
<VARIANCE> 25
 4.008610e+01 4.598330e+01 6.055453e+01 5.315691e+01 7.047235e+01 6.886517e+01 5.089837e+01 5.594023e+01 5.179037e+01 4.381105e+01 4.054673e+01 3.711187e+01 4.138112e+00 4.781060e+00 5.594638e+00 5.659271e+00 6.328665e+00 6.337408e+00 5.929828e+00 6.004875e+00 5.982307e+00 5.249506e+00 5.079461e+00 4.096685e+00 3.141489e+00
<GCONST> 1.143591e+02
<TRANSP> 5
 0.000000e+00 1.000000e+00 0.000000e+00 0.000000e+00 0.000000e+00
 0.000000e+00 6.220135e-01 3.779865e-01 0.000000e+00 0.000000e+00
 0.000000e+00 0.000000e+00 5.584464e-01 4.415536e-01 0.000000e+00
 0.000000e+00 0.000000e+00 0.000000e+00 3.475561e-01 6.524438e-01
 0.000000e+00 0.000000e+00 0.000000e+00 0.000000e+00 0.000000e+00
<ENDHMM>
~h "l"
<BEGINHMM>
<NUMSTATES> 5
<STATE> 2
<MEAN> 25
 6.280300e+00 -2.943156e+00 -1.706308e+00 -3.019413e+00 -1.945810e+00 -1.180815e+00 -4.555362e+00 -3.618457e+00 2.488449e+00 2.413333e+00 -5.847180e-01 -1.999282e+00 3.421670e-01 -8.628602e-02 -6.150493e-02 -2.110563e-01 -1.881572e-02 6.117901e-02 -7.225270e-01 -4.471726e-01 3.778475e-01 6.470128e-01 -7.527804e-02 -2.116941e-01 -1.327363e-02
<VARIANCE> 25
 2.043218e+01 3.606337e+01 4.777385e+01 6.399601e+01 5.845557e+01 7.925022e+01 6.570502e+01 7.597327e+01 6.050700e+01 7.030776e+01 5.151476e+01 3.839505e+01 9.856064e-01 2.141909e+00 2.864147e+00 3.797914e+00 4.018383e+00 4.688120e+00 4.499162e+00 5.569161e+00 4.253298e+00 4.214977e+00 3.746844e+00 3.186761e+00 1.120889e+00
<GCONST> 1.082478e+02
<STATE> 3
<MEAN> 25
 6.662126e+00 -2.988943e+00 -2.608693e+00 -5.289880e+00 -1.863781e+00 2.530330e-01 -5.858174e+00 -4.707170e+00 3.571768e+00 4.734154e+00 -2.958166e-01 -2.649617e+00 -8.090386e-03 -1.602254e-02 -5.139870e-02 -1.911276e-01 1.084295e-01 6.513092e-02 -8.106174e-02 2.692233e-01 7.234512e-02 -5.517079e-02 -1.026801e-01 -7.901494e-02 -2.887467e-03
<VARIANCE> 25
 1.643072e+01 3.006488e+01 4.127716e+01 6.313031e+01 5.052594e+01 7.503850e+01 6.309907e+01 6.887571e+01 5.646439e+01 6.587148e+01 5.150308e+01 3.836385e+01 3.310814e-01 1.083199e+00 1.459193e+00 1.922416e+00 1.974679e+00 2.522124e+00 2.448294e+00 3.212485e+00 2.386553e+00 2.336636e+00 2.327742e+00 1.869642e+00 4.541328e-01
<GCONST> 9.851630e+01
<STATE> 4
<MEAN> 25
 6.722799e+00 -1.770432e+00 -2.299250e+00 -3.276961e+00 -2.212612e+00 -2.792201e+00 -4.301012e+00 -6.635984e-01 2.767717e+00 -2.874809e-01 -1.976389e+00 -2.185168e+00 -2.735172e-01 5.290395e-02 1.219136e-01 1.062103e-01 1.003951e-01 4.827348e-02 4.388463e-01 4.888149e-01 -3.181752e-01 -3.818935e-01 1.705043e-02 1.166651e-01 -1.290886e-01
<VARIANCE> 25
 2.156393e+01 3.957518e+01 5.698882e+01 6.952024e+01 8.883832e+01 9.445078e+01 7.111428e+01 8.156245e+01 6.037206e+01 9.614332e+01 6.091530e+01 4.281844e+01 4.976677e-01 1.484862e+00 1.838561e+00 2.364557e+00 2.640105e+00 2.988486e+00 2.774735e+00 3.244809e+00 2.825307e+00 2.916049e+00 2.750446e+00 2.066154e+00 8.592956e-01
<GCONST> 1.043389e+02
<TRANSP> 5
 0.000000e+00 1.000000e+00 0.000000e+00 0.000000e+00 0.000000e+00
 0.000000e+00 3.469388e-01 6.530612e-01 0.000000e+00 0.000000e+00
 0.000000e+00 0.000000e+00 4.773062e-01 5.226938e-01 0.000000e+00
 0.000000e+00 0.000000e+00 0.000000e+00 4.971628e-01 5.028372e-01
 0.000000e+00 0.000000e+00 0.000000e+00 0.000000e+00 0.000000e+00
<ENDHMM>
~h "m"
<BEGINHMM>
<NUMSTATES> 5
<STATE> 2
<MEAN> 25
 6.171499e+00 1.714647e+00 -5.952385e-01 5.016386e-01 5.154454e-01 2.703074e+00 -1.523714e+00 -4.305429e+00 -3.302724e+00 -1.335243e-01 -5.134124e-01 -1.956409e+00 -5.529319e-02 1.143926e+00 1.092566e+00 1.619668e+00 3.044181e-01 3.030789e-01 1.617021e-01 -1.442325e+00 -1.306576e+00 -2.120543e-01 -5.640225e-01 -5.461141e-02 -9.897588e-01
<VARIANCE> 25
 2.267091e+01 3.510007e+01 3.776066e+01 4.525502e+01 4.024391e+01 5.157542e+01 4.454709e+01 4.865318e+01 4.917180e+01 3.872843e+01 3.765160e+01 3.031155e+01 1.091055e+00 2.137671e+00 2.853422e+00 3.425347e+00 3.301778e+00 3.539071e+00 3.873044e+00 3.841258e+00 4.272897e+00 3.375321e+00 3.563715e+00 2.749218e+00 1.559467e+00
<GCONST> 1.036608e+02
<STATE> 3
<MEAN> 25
 5.148359e+00 3.788712e+00 2.336077e+00 2.993692e+00 6.117651e-01 2.230690e+00 -1.570974e+00 -5.891424e+00 -5.042972e+00 -9.952986e-01 -2.249094e+00 -2.072120e+00 -2.010064e-02 2.024283e-01 1.303766e-01 1.594061e-01 -6.240684e-03 5.900675e-02 7.121406e-02 -9.268364e-02 -1.483153e-01 -6.835798e-02 -8.569355e-02 -2.735996e-02 -1.502948e-01
<VARIANCE> 25
 1.539908e+01 2.965590e+01 2.872090e+01 3.104843e+01 3.667030e+01 4.773557e+01 4.335980e+01 4.733325e+01 5.277212e+01 4.082296e+01 3.677694e+01 3.037518e+01 3.589552e-01 7.443965e-01 9.955186e-01 1.186142e+00 1.347886e+00 1.508342e+00 1.512006e+00 1.668354e+00 1.782042e+00 1.641781e+00 1.602322e+00 1.350878e+00 4.026956e-01
<GCONST> 9.006966e+01
<STATE> 4
<MEAN> 25
 5.850168e+00 3.109209e+00 3.704318e-01 1.447685e+00 3.340155e-02 2.769569e+00 -7.341927e-01 -5.118640e+00 -4.526245e+00 -7.098316e-01 -1.230483e+00 -1.887751e+00 2.885622e-01 -8.110808e-01 -1.257275e+00 -1.462990e+00 -2.818549e-01 6.423611e-02 3.544269e-02 1.089602e+00 1.073454e+00 1.777869e-01 4.531788e-01 -7.358971e-02 8.087141e-01
<VARIANCE> 25
 2.141970e+01 3.385295e+01 3.735308e+01 4.479226e+01 4.240931e+01 5.196030e+01 4.510058e+01 5.245278e+01 5.563282e+01 3.971955e+01 3.908220e+01 3.185518e+01 1.037480e+00 2.070883e+00 3.272954e+00 3.683511e+00 3.364614e+00 3.730966e+00 3.302262e+00 3.551141e+00 4.192635e+00 3.134162e+00 2.901628e+00 2.714100e+00 1.194660e+00
<GCONST> 1.033133e+02
<TRANSP> 5
 0.000000e+00 1.000000e+00 0.000000e+00 0.000000e+00 0.000000e+00
 0.000000e+00 4.894584e-01 5.105416e-01 0.000000e+00 0.000000e+00
 0.000000e+00 0.000000e+00 6.918703e-01 3.081297e-01 0.000000e+00
 0.000000e+00 0.000000e+00 0.000000e+00 4.515534e-01 5.484466e-01
 0.000000e+00 0.000000e+00 0.000000e+00 0.000000e+00 0.000000e+00
<ENDHMM>
~h "n"
<BEGINHMM>
<NUMSTATES> 5
<STATE> 2
<MEAN> 25
 5.953160e+00 -1.681748e+00 1.471336e+00 1.762061e+00 -1.585079e+00 -1.945072e+00 -2.560638e+00 -3.029259e-01 -4.472303e-01 -9.764412e-01 -3.228784e+00 -1.274810e+00 2.762659e-01 2.045824e+00 8.133109e-01 1.779120e+00 -9.356925e-03 3.316908e-01 -1.780146e-01 -1.806814e+00 -2.331431e-01 7.406074e-02 -6.181442e-01 1.319833e-01 -1.872548e+00
<VARIANCE> 25
 1.502045e+01 4.231635e+01 4.058620e+01 4.167990e+01 5.387012e+01 5.119453e+01 4.661423e+01 6.362483e+01 5.211643e+01 4.787637e+01 4.367302e+01 3.432869e+01 1.106976e+00 2.275920e+00 3.344900e+00 3.240883e+00 4.887269e+00 4.617865e+00 4.331434e+00 5.447425e+00 4.357147e+00 4.025705e+00 3.970567e+00 3.110752e+00 1.241114e+00
<GCONST> 1.060661e+02
<STATE> 3
<MEAN> 25
 6.199368e+00 2.477242e+00 3.161658e+00 4.659123e+00 -2.392330e+00 -1.162448e+00 -2.570067e+00 -4.613849e+00 -1.433595e+00 -7.527741e-01 -5.018733e+00 -1.329650e+00 -7.318325e-02 1.112409e+00 2.773534e-01 5.222428e-01 2.351095e-01 2.443720e-01 5.364577e-02 -5.525582e-01 -2.408144e-01 -4.444189e-02 -1.278953e-01 4.907328e-03 -8.674752e-01
<VARIANCE> 25
 1.277918e+01 3.054344e+01 3.275518e+01 3.380581e+01 5.418364e+01 4.979303e+01 4.121617e+01 4.950905e+01 4.520917e+01 5.223388e+01 4.507210e+01 3.403219e+01 4.309508e-01 1.048358e+00 1.423952e+00 1.420542e+00 2.011036e+00 2.100017e+00 2.131690e+00 2.562125e+00 2.359185e+00 2.148333e+00 2.138530e+00 1.724827e+00 4.679956e-01
<GCONST> 9.476467e+01
<STATE> 4
<MEAN> 25
 3.336742e+00 5.316247e+00 3.160317e+00 4.712607e+00 5.788296e-01 -6.267849e-02 -1.392726e+00 -2.953535e+00 -1.602953e+00 -1.258497e+00 -3.062822e+00 -1.122808e+00 -5.356042e-01 2.502553e-02 -4.744273e-02 6.066312e-03 3.160202e-01 1.836879e-01 2.778860e-01 3.500894e-01 6.641155e-02 6.878076e-02 3.149198e-01 9.435248e-02 -3.839664e-01
<VARIANCE> 25
 1.807023e+01 2.823692e+01 2.506006e+01 3.156928e+01 4.398585e+01 3.782114e+01 3.464710e+01 3.794477e+01 3.414056e+01 3.430766e+01 3.208573e+01 2.571967e+01 7.598466e-01 1.286447e+00 1.296107e+00 1.465483e+00 1.953996e+00 1.990764e+00 2.042849e+00 2.264773e+00 2.147005e+00 2.112798e+00 1.947130e+00 1.621104e+00 6.849581e-01
<GCONST> 9.302705e+01
<TRANSP> 5
 0.000000e+00 1.000000e+00 0.000000e+00 0.000000e+00 0.000000e+00
 0.000000e+00 5.080395e-01 4.919605e-01 0.000000e+00 0.000000e+00
 0.000000e+00 0.000000e+00 5.646256e-01 4.353745e-01 0.000000e+00
 0.000000e+00 0.000000e+00 0.000000e+00 6.923645e-01 3.076355e-01
 0.000000e+00 0.000000e+00 0.000000e+00 0.000000e+00 0.000000e+00
<ENDHMM>
~h "o"
<BEGINHMM>
<NUMSTATES> 5
<STATE> 2
<MEAN> 25
 5.582436e+00 -3.107347e-01 -5.688887e+00 -7.773490e+00 -1.585706e+00 2.650093e+00 -1.633786e+00 -1.200404e+00 1.338597e+00 1.518250e+00 1.702529e+00 -1.162570e+00 1.298243e+00 -5.114134e-01 -9.444413e-01 -1.969782e+00 -2.728101e-01 9.413956e-01 -1.988246e-01 -2.454410e-01 -1.267009e-01 2.701148e-01 4.688155e-01 -4.963780e-01 1.353000e+00
<VARIANCE> 25
 3.503739e+01 3.953315e+01 4.668413e+01 8.469653e+01 7.267681e+01 1.032902e+02 6.618335e+01 6.214000e+01 6.256834e+01 6.114758e+01 5.358387e+01 3.948766e+01 3.705494e+00 3.364639e+00 4.137122e+00 7.087146e+00 6.336726e+00 7.371919e+00 5.705189e+00 5.500406e+00 5.475244e+00 5.072410e+00 4.612076e+00 3.710950e+00 3.925281e+00
<GCONST> 1.153382e+02
<STATE> 3
<MEAN> 25
 7.689907e+00 -1.289813e+00 -7.549346e+00 -1.156380e+01 -6.834731e-01 6.562640e+00 -1.977859e+00 -2.807237e+00 2.656074e-01 2.498270e+00 3.590503e+00 -1.674638e+00 -1.019789e-01 2.840748e-01 1.018161e-02 5.713882e-01 3.175215e-01 8.425422e-02 1.790273e-01 -9.159802e-03 -8.675351e-02 -4.413128e-02 -1.972370e-01 8.740795e-02 -6.195305e-01
<VARIANCE> 25
 1.932083e+01 3.688090e+01 3.949958e+01 7.603704e+01 6.712804e+01 9.750790e+01 6.712556e+01 5.779487e+01 6.714797e+01 6.533779e+01 5.506507e+01 4.432429e+01 9.578716e-01 2.065003e+00 1.789313e+00 4.181233e+00 2.986018e+00 4.105954e+00 3.505802e+00 3.133948e+00 3.822908e+00 3.418607e+00 3.067099e+00 2.701963e+00 2.011358e+00
<GCONST> 1.067412e+02
<STATE> 4
<MEAN> 25
 5.015816e+00 7.424327e-01 -6.037456e+00 -7.848135e+00 -6.945634e-01 4.227961e+00 -1.948784e-01 -1.529742e+00 1.055196e-01 1.207270e+00 1.227915e+00 -4.844840e-01 -3.313108e-01 1.843741e-01 3.529403e-01 6.862226e-01 1.634455e-01 -2.005724e-01 8.638208e-02 5.042842e-02 -9.521641e-03 -1.004226e-01 -1.786173e-01 7.465431e-02 -4.714277e-01
<VARIANCE> 25
 2.343808e+01 2.725981e+01 2.826888e+01 5.800858e+01 4.392598e+01 6.392963e+01 4.341436e+01 4.003397e+01 3.933853e+01 3.996173e+01 3.532822e+01 3.241226e+01 4.940009e-01 7.660144e-01 1.120314e+00 1.774640e+00 1.540223e+00 1.917808e+00 1.756656e+00 1.752233e+00 1.887207e+00 1.838956e+00 1.666849e+00 1.506636e+00 4.671724e-01
<GCONST> 9.294012e+01
<TRANSP> 5
 0.000000e+00 1.000000e+00 0.000000e+00 0.000000e+00 0.000000e+00
 0.000000e+00 5.312197e-01 4.687803e-01 0.000000e+00 0.000000e+00
 0.000000e+00 0.000000e+00 6.972074e-01 3.027926e-01 0.000000e+00
 0.000000e+00 0.000000e+00 0.000000e+00 7.862817e-01 2.137183e-01
 0.000000e+00 0.000000e+00 0.000000e+00 0.000000e+00 0.000000e+00
<ENDHMM>
~h "p"
<BEGINHMM>
<NUMSTATES> 5
<STATE> 2
<MEAN> 25
 -1.864078e+00 3.236251e+00 -2.297181e+00 2.559403e+00 2.431774e+00 2.321103e+00 2.065772e+00 7.957794e-01 1.610176e+00 1.714385e+00 1.203042e+00 9.150547e-01 -8.716987e-01 -2.269038e-01 -2.346335e-01 1.205224e-01 8.984562e-03 -5.356986e-02 3.076400e-01 1.918842e-01 3.030851e-01 2.087226e-01 2.963752e-01 3.902726e-01 -3.988724e-01
<VARIANCE> 25
 4.240466e+01 3.096541e+01 3.830770e+01 3.619041e+01 3.531200e+01 4.230313e+01 3.449117e+01 3.854663e+01 3.731697e+01 3.435450e+01 3.063430e+01 2.645787e+01 3.109023e+00 3.078531e+00 2.828904e+00 3.454950e+00 3.069188e+00 3.666670e+00 3.124160e+00 3.410511e+00 3.376072e+00 2.982414e+00 2.714750e+00 2.316959e+00 5.380294e+00
<GCONST> 1.038733e+02
<STATE> 3
<MEAN> 25
 -2.054214e+00 9.224643e-01 -2.866789e+00 1.270219e+00 1.420162e+00 8.882899e-01 2.000003e+00 -5.245513e-02 1.548949e+00 1.711730e+00 1.656223e+00 1.418124e+00 2.086009e+00 -1.729986e+00 -7.812544e-01 -2.145827e+00 -9.575642e-01 -3.205228e-01 -6.684722e-01 -7.385349e-01 3.579980e-02 7.222146e-02 1.626819e-01 -7.763264e-01 3.750382e+00
<VARIANCE> 25
 3.361710e+01 3.075075e+01 3.299531e+01 4.061222e+01 3.622164e+01 4.439320e+01 3.463187e+01 3.808182e+01 3.556361e+01 3.096612e+01 2.950964e+01 2.390413e+01 5.530967e+00 5.335468e+00 6.147650e+00 6.746590e+00 6.268180e+00 8.294733e+00 5.718592e+00 5.611410e+00 5.799158e+00 5.443028e+00 5.125160e+00 4.334936e+00 6.441684e+00
<GCONST> 1.111637e+02
<STATE> 4
<MEAN> 25
 4.556826e+00 -2.964580e+00 -5.567710e+00 -4.598599e+00 -1.096736e+00 1.648613e+00 -4.309635e-01 -1.980151e+00 1.563780e+00 1.907326e+00 1.725864e+00 -1.640375e+00 2.069352e+00 -1.607584e+00 -5.317083e-01 -1.768169e+00 -8.809924e-01 -1.808156e-01 -8.250692e-01 -1.641991e-01 7.991167e-03 -8.906586e-02 -2.451609e-01 -1.086435e+00 2.990918e+00
<VARIANCE> 25
 3.746870e+01 4.497424e+01 4.917677e+01 6.384361e+01 4.917114e+01 7.423071e+01 4.782470e+01 4.580631e+01 4.493445e+01 4.330588e+01 4.094890e+01 3.809646e+01 4.502265e+00 6.001089e+00 7.281164e+00 7.603518e+00 7.322780e+00 9.876690e+00 6.470905e+00 6.361084e+00 6.560280e+00 5.986764e+00 6.012628e+00 5.010488e+00 5.474372e+00
<GCONST> 1.163339e+02
<TRANSP> 5
 0.000000e+00 1.000000e+00 0.000000e+00 0.000000e+00 0.000000e+00
 0.000000e+00 6.620790e-01 3.379210e-01 0.000000e+00 0.000000e+00
 0.000000e+00 0.000000e+00 3.540474e-01 6.459526e-01 0.000000e+00
 0.000000e+00 0.000000e+00 0.000000e+00 2.405896e-01 7.594104e-01
 0.000000e+00 0.000000e+00 0.000000e+00 0.000000e+00 0.000000e+00
<ENDHMM>
~h "r"
<BEGINHMM>
<NUMSTATES> 5
<STATE> 2
<MEAN> 25
 5.314482e+00 -4.258686e+00 -2.787787e+00 3.706201e-01 -2.517801e+00 -2.222025e+00 -2.844105e+00 2.394486e-01 3.557013e+00 2.423047e-01 -1.871770e-01 -9.519122e-01 -1.532043e-01 2.611690e-01 3.914869e-01 1.193408e+00 6.454349e-02 -1.320742e-01 -1.516788e-01 -2.107643e-03 1.430364e-01 -2.469057e-01 1.775068e-01 4.519273e-01 -8.123119e-01
<VARIANCE> 25
 2.434736e+01 3.735501e+01 4.980935e+01 4.668248e+01 5.898396e+01 5.826921e+01 5.852117e+01 6.188295e+01 5.881032e+01 5.163108e+01 4.551522e+01 3.986855e+01 2.658984e+00 3.606739e+00 3.703738e+00 4.454624e+00 5.178246e+00 5.275616e+00 5.018384e+00 5.035800e+00 4.801478e+00 4.673900e+00 4.423440e+00 3.870695e+00 3.089895e+00
<GCONST> 1.110511e+02
<STATE> 3
<MEAN> 25
 4.451952e+00 -3.102615e+00 -1.700274e+00 2.269609e+00 -1.863236e+00 -2.567104e+00 -2.586195e+00 3.633519e-01 3.115506e+00 -1.266331e-01 3.220609e-01 -3.387117e-02 -3.938487e-01 3.320256e-01 5.396243e-01 5.727486e-01 1.897042e-01 3.071814e-02 1.337464e-01 -1.954416e-02 -4.360853e-01 -1.298977e-01 2.906659e-01 3.178093e-01 -6.242924e-01
<VARIANCE> 25
 2.604605e+01 3.519559e+01 5.070920e+01 4.265176e+01 5.567801e+01 5.362289e+01 5.309427e+01 5.519135e+01 5.349857e+01 4.568325e+01 4.025703e+01 3.443554e+01 2.394192e+00 3.102965e+00 3.432720e+00 3.344743e+00 4.372892e+00 4.431311e+00 4.202211e+00 4.431302e+00 4.048665e+00 3.993738e+00 3.828649e+00 3.330134e+00 2.244485e+00
<GCONST> 1.079388e+02
<STATE> 4
<MEAN> 25
 3.397042e+00 -2.532707e+00 -1.010795e+00 3.132423e+00 -1.155376e+00 -2.537393e+00 -2.010949e+00 3.166222e-01 1.479164e+00 -6.078415e-01 7.976692e-01 3.125491e-01 -2.635168e-01 3.568607e-01 3.403215e-01 -8.393376e-02 8.877973e-02 1.862472e-01 2.377571e-01 -8.461194e-02 -6.026362e-01 7.144190e-02 1.027939e-01 -2.825541e-02 -3.761824e-01
<VARIANCE> 25
 3.451305e+01 4.035193e+01 5.547516e+01 4.557237e+01 5.647374e+01 5.837254e+01 5.418431e+01 5.807640e+01 5.217161e+01 4.521196e+01 4.165709e+01 3.530624e+01 1.630768e+00 2.419283e+00 2.718541e+00 2.329435e+00 3.442103e+00 3.268772e+00 3.133554e+00 3.439362e+00 3.355435e+00 2.973988e+00 2.901413e+00 2.370085e+00 1.632791e+00
<GCONST> 1.049704e+02
<TRANSP> 5
 0.000000e+00 1.000000e+00 0.000000e+00 0.000000e+00 0.000000e+00
 0.000000e+00 2.914721e-01 7.085279e-01 0.000000e+00 0.000000e+00
 0.000000e+00 0.000000e+00 8.080926e-02 9.191907e-01 0.000000e+00
 0.000000e+00 0.000000e+00 0.000000e+00 4.374911e-01 5.625089e-01
 0.000000e+00 0.000000e+00 0.000000e+00 0.000000e+00 0.000000e+00
<ENDHMM>
~h "s"
<BEGINHMM>
<NUMSTATES> 5
<STATE> 2
<MEAN> 25
 -6.076528e+00 3.804276e+00 1.956805e+00 1.318281e+00 3.918897e+00 -2.397726e+00 3.394197e+00 6.806940e-01 7.968251e-01 -6.271758e-01 4.326641e-01 1.220540e+00 -3.631471e+00 1.251637e+00 -2.503723e-02 7.835068e-02 1.278753e+00 -4.581808e-03 1.332250e+00 3.539382e-01 5.312476e-01 -9.983065e-02 8.743681e-01 4.744647e-01 9.824824e-02
<VARIANCE> 25
 6.536926e+01 6.934277e+01 8.637567e+01 5.630996e+01 8.267445e+01 8.588465e+01 6.825252e+01 6.220229e+01 5.377297e+01 4.717265e+01 4.659284e+01 3.427997e+01 3.414948e+00 6.376140e+00 7.357189e+00 5.434587e+00 6.006296e+00 6.316473e+00 5.303528e+00 5.227304e+00 4.529705e+00 4.971191e+00 3.926564e+00 3.080818e+00 1.750644e+00
<GCONST> 1.151864e+02
<STATE> 3
<MEAN> 25
 -1.682611e+01 5.130532e+00 8.739688e-02 4.839486e-01 5.619710e+00 -1.694154e+00 5.644294e+00 1.440544e+00 1.857319e+00 -2.336357e-01 2.993892e+00 2.677542e+00 -2.565938e-01 -3.820071e-01 -7.702187e-02 -6.167731e-02 -1.475184e-01 7.216547e-02 4.990683e-03 6.692608e-02 7.868706e-02 5.024114e-02 6.537073e-02 1.173084e-01 -3.193252e-01
<VARIANCE> 25
 3.910567e+01 9.298941e+01 1.066327e+02 7.331001e+01 7.626366e+01 8.848240e+01 5.395021e+01 5.497371e+01 4.464957e+01 4.554382e+01 3.651215e+01 3.193029e+01 2.558027e+00 1.772430e+00 1.887838e+00 1.687738e+00 2.014374e+00 2.147689e+00 2.233487e+00 2.326031e+00 2.267900e+00 2.116941e+00 1.952409e+00 1.712674e+00 7.727751e-01
<GCONST> 1.029014e+02
<STATE> 4
<MEAN> 25
 -9.719675e+00 1.448908e+00 1.351843e+00 -1.868010e-04 2.831693e+00 -2.167510e+00 3.520866e+00 8.175679e-01 1.848728e+00 -4.668565e-01 1.315402e+00 2.198991e+00 3.784755e+00 -6.153311e-01 -1.120695e-01 -3.789406e-01 -1.385139e+00 -5.228837e-01 -1.522987e+00 -7.846425e-01 -3.588541e-01 -1.618332e-01 -9.446673e-01 -6.995607e-01 7.066737e-01
<VARIANCE> 25
 7.435715e+01 8.593575e+01 9.020808e+01 5.968438e+01 7.269166e+01 9.218269e+01 6.157811e+01 5.933521e+01 4.694076e+01 4.326479e+01 4.250477e+01 3.235735e+01 5.373181e+00 7.138716e+00 7.392589e+00 5.430475e+00 5.967767e+00 6.459473e+00 5.486303e+00 5.825519e+00 5.171764e+00 5.114773e+00 4.363145e+00 3.552336e+00 3.523839e+00
<GCONST> 1.168884e+02
<TRANSP> 5
 0.000000e+00 1.000000e+00 0.000000e+00 0.000000e+00 0.000000e+00
 0.000000e+00 6.910782e-01 3.089217e-01 0.000000e+00 0.000000e+00
 0.000000e+00 0.000000e+00 7.994402e-01 2.005598e-01 0.000000e+00
 0.000000e+00 0.000000e+00 0.000000e+00 6.349164e-01 3.650836e-01
 0.000000e+00 0.000000e+00 0.000000e+00 0.000000e+00 0.000000e+00
<ENDHMM>
~h "t"
<BEGINHMM>
<NUMSTATES> 5
<STATE> 2
<MEAN> 25
 -2.373601e+00 3.394984e+00 -6.448309e-01 3.285790e+00 1.800255e+00 3.074448e-01 1.313666e+00 4.379336e-01 1.703826e+00 1.339139e+00 9.844595e-01 1.302710e+00 -1.150101e+00 -1.123787e-01 -4.056261e-01 8.746269e-02 3.377736e-01 2.806448e-01 5.665619e-01 2.748560e-01 3.415735e-01 1.370238e-01 4.319336e-01 3.797654e-01 -7.486884e-01
<VARIANCE> 25
 3.375385e+01 2.883138e+01 3.914470e+01 3.317999e+01 4.020287e+01 4.471666e+01 3.813314e+01 4.006888e+01 3.959472e+01 3.487293e+01 3.390165e+01 2.591729e+01 2.340421e+00 3.150823e+00 2.973187e+00 3.525074e+00 3.702675e+00 4.286584e+00 3.581470e+00 3.617494e+00 3.485625e+00 3.218791e+00 2.943257e+00 2.341156e+00 5.177126e+00
<GCONST> 1.044972e+02
<STATE> 3
<MEAN> 25
 -5.575073e+00 8.329440e-01 -1.919598e+00 1.293638e+00 2.311722e+00 -9.284591e-01 3.030074e+00 5.945590e-01 1.904010e+00 9.781917e-01 1.838381e+00 2.378369e+00 1.104126e-01 -1.602527e+00 -1.360606e-01 -1.804843e+00 -4.922657e-01 -1.311756e+00 -3.301080e-01 -2.412678e-01 2.944054e-01 -2.355423e-01 -3.810852e-02 -1.152481e-01 3.292065e+00
<VARIANCE> 25
 3.430017e+01 3.809151e+01 4.316462e+01 4.332244e+01 4.605853e+01 6.169439e+01 4.214009e+01 4.366900e+01 4.052653e+01 3.803920e+01 3.634872e+01 2.775858e+01 5.332185e+00 5.232432e+00 6.065287e+00 5.652065e+00 7.055763e+00 7.013008e+00 6.230533e+00 6.407383e+00 6.143389e+00 5.098504e+00 5.259842e+00 4.071117e+00 6.791221e+00
<GCONST> 1.132585e+02
<STATE> 4
<MEAN> 25
 -2.161556e+00 -2.101040e+00 -1.026027e+00 -2.507712e+00 -1.394727e-01 -3.459288e+00 -1.675749e-01 -6.626213e-01 2.311501e+00 2.778429e-01 3.811415e-01 7.807613e-01 2.194141e+00 -8.221612e-01 3.475492e-01 -1.384236e+00 -1.052243e+00 -6.611912e-01 -1.696220e+00 -4.756982e-01 -1.801931e-01 -1.144697e-01 -5.116455e-01 -1.011450e+00 2.728653e+00
<VARIANCE> 25
 3.671036e+01 4.444157e+01 4.918145e+01 4.844652e+01 5.778485e+01 6.996052e+01 5.871629e+01 5.320287e+01 4.883675e+01 4.174579e+01 4.033166e+01 3.374069e+01 4.970229e+00 5.828866e+00 7.351108e+00 6.789172e+00 7.428331e+00 8.505140e+00 7.540634e+00 7.526762e+00 7.157994e+00 6.925907e+00 6.360132e+00 4.894303e+00 5.436616e+00
<GCONST> 1.168035e+02
<TRANSP> 5
 0.000000e+00 1.000000e+00 0.000000e+00 0.000000e+00 0.000000e+00
 0.000000e+00 6.678583e-01 3.321417e-01 0.000000e+00 0.000000e+00
 0.000000e+00 0.000000e+00 3.801329e-01 6.198670e-01 0.000000e+00
 0.000000e+00 0.000000e+00 0.000000e+00 2.783000e-01 7.217000e-01
 0.000000e+00 0.000000e+00 0.000000e+00 0.000000e+00 0.000000e+00
<ENDHMM>
~h "u"
<BEGINHMM>
<NUMSTATES> 5
<STATE> 2
<MEAN> 25
 5.784110e+00 3.066604e+00 -1.111943e+00 -4.040166e+00 -2.107378e+00 -4.270429e-01 -5.999556e+00 -4.300501e+00 -1.807086e+00 -1.006474e-01 2.187407e+00 -1.979907e-02 1.467605e+00 4.844552e-01 -4.508527e-01 -1.499602e+00 -7.494282e-01 7.661096e-01 -1.063671e+00 -9.453036e-01 -7.450863e-01 1.834774e-01 8.609343e-01 1.440289e-02 6.330417e-01
<VARIANCE> 25
 2.682503e+01 4.228632e+01 4.927603e+01 7.235162e+01 5.999945e+01 7.429139e+01 7.305626e+01 6.732919e+01 6.122555e+01 6.739854e+01 5.230836e+01 3.918016e+01 3.215191e+00 3.892926e+00 4.291148e+00 5.499802e+00 6.077616e+00 7.476215e+00 6.308288e+00 6.237870e+00 5.944792e+00 5.896070e+00 4.905173e+00 3.832740e+00 2.719263e+00
<GCONST> 1.146815e+02
<STATE> 3
<MEAN> 25
 7.742657e+00 3.187564e+00 -1.975570e+00 -7.397253e+00 -3.209037e+00 3.384481e+00 -7.522883e+00 -6.582472e+00 -2.893431e+00 1.053563e-01 4.714089e+00 2.673433e-02 5.571382e-02 1.577722e-01 -5.539231e-02 2.597671e-01 2.132704e-01 1.213357e-01 1.491273e-01 4.727775e-02 1.120523e-01 1.643357e-01 -1.950265e-01 -3.899205e-02 -4.072728e-01
<VARIANCE> 25
 1.852703e+01 3.909005e+01 4.678662e+01 7.865387e+01 6.519347e+01 9.374361e+01 7.353535e+01 8.519047e+01 7.424303e+01 9.008872e+01 6.650415e+01 4.894031e+01 8.667191e-01 2.809038e+00 2.285073e+00 4.979183e+00 3.930773e+00 4.632914e+00 4.950018e+00 4.564260e+00 5.093452e+00 4.833778e+00 4.149557e+00 3.520773e+00 2.006916e+00
<GCONST> 1.110223e+02
<STATE> 4
<MEAN> 25
 5.667704e+00 5.237834e+00 -2.003651e+00 -4.550916e+00 -1.764233e+00 4.237385e-01 -4.294844e+00 -3.862734e+00 -3.255301e+00 7.716558e-02 2.108255e+00 9.349855e-01 -5.436519e-01 6.365399e-02 2.903942e-01 8.284912e-01 3.728577e-01 -3.320025e-02 4.976033e-01 3.648507e-01 2.673404e-01 -9.435827e-02 -3.434578e-01 -5.228192e-03 -6.550842e-01
<VARIANCE> 25
 2.180399e+01 3.379354e+01 3.857829e+01 6.259369e+01 4.715314e+01 5.334409e+01 4.874883e+01 4.574622e+01 5.162420e+01 5.260569e+01 4.026488e+01 3.781043e+01 7.924974e-01 1.256660e+00 1.517424e+00 2.476315e+00 2.251163e+00 2.578154e+00 2.504284e+00 2.476335e+00 2.591106e+00 2.535684e+00 2.422889e+00 1.946224e+00 8.963165e-01
<GCONST> 9.934040e+01
<TRANSP> 5
 0.000000e+00 1.000000e+00 0.000000e+00 0.000000e+00 0.000000e+00
 0.000000e+00 4.190822e-01 5.809179e-01 0.000000e+00 0.000000e+00
 0.000000e+00 0.000000e+00 5.583529e-01 4.416471e-01 0.000000e+00
 0.000000e+00 0.000000e+00 0.000000e+00 7.227440e-01 2.772560e-01
 0.000000e+00 0.000000e+00 0.000000e+00 0.000000e+00 0.000000e+00
<ENDHMM>
~h "w"
<BEGINHMM>
<NUMSTATES> 5
<STATE> 2
<MEAN> 25
 7.082778e+00 5.510354e+00 -3.324047e+00 -7.036578e+00 -3.410435e+00 1.174011e+00 -1.587323e+00 -1.251395e+00 -1.583634e+00 -8.222497e-01 1.781332e+00 -2.421165e-01 1.306804e+00 1.499148e-01 -8.602940e-01 -1.797402e+00 -8.892878e-01 4.604992e-01 1.473105e-02 -2.852394e-01 -4.676674e-01 -1.320543e-01 6.652109e-01 1.712360e-01 1.004082e+00
<VARIANCE> 25
 4.924316e+01 6.312676e+01 4.433104e+01 7.401759e+01 7.041280e+01 1.122435e+02 6.166734e+01 6.014832e+01 5.609407e+01 5.193722e+01 4.513980e+01 4.103097e+01 3.544599e+00 4.882261e+00 3.493170e+00 4.936926e+00 5.032300e+00 6.555987e+00 4.857036e+00 4.756223e+00 4.468842e+00 4.497812e+00 4.192616e+00 3.950196e+00 3.827313e+00
<GCONST> 1.142643e+02
<STATE> 3
<MEAN> 25
 9.961229e+00 3.680024e+00 -6.621872e+00 -1.450173e+01 -5.298291e+00 6.566209e+00 -1.177524e+00 -3.143666e+00 -3.417243e+00 1.151347e-01 5.059682e+00 1.516565e+00 -6.903480e-02 -1.142861e+00 -5.860112e-01 -5.595674e-01 7.103133e-01 8.174893e-01 -1.655831e-01 -2.969917e-01 4.922013e-01 8.774971e-01 4.268136e-01 -6.077129e-01 7.028050e-01
<VARIANCE> 25
 1.336608e+01 3.052691e+01 2.821400e+01 4.665524e+01 4.385765e+01 7.368523e+01 4.820705e+01 4.478320e+01 4.431483e+01 4.720901e+01 4.442615e+01 3.421579e+01 4.637200e-01 2.720685e+00 1.359831e+00 2.193307e+00 3.055938e+00 2.782013e+00 2.866660e+00 2.597399e+00 2.983859e+00 3.471015e+00 2.571694e+00 3.490302e+00 1.008741e+00
<GCONST> 9.988539e+01
<STATE> 4
<MEAN> 25
 7.862417e+00 -3.821777e+00 -8.321539e+00 -1.206506e+01 1.493463e+00 7.767337e+00 -3.624319e+00 -3.742843e+00 2.383842e+00 5.109505e+00 2.615165e+00 -5.818533e+00 -5.187619e-01 -1.151003e+00 1.731307e-01 1.197617e+00 8.299793e-01 -8.864497e-01 -3.423100e-02 7.425236e-01 1.015864e+00 -8.586150e-02 -1.422145e+00 -8.862268e-01 3.374600e-01
<VARIANCE> 25
 1.442943e+01 3.036734e+01 2.680442e+01 4.622075e+01 4.416038e+01 7.505511e+01 5.614655e+01 4.101176e+01 4.835225e+01 4.703158e+01 5.630865e+01 3.914803e+01 4.352309e-01 2.149522e+00 1.218085e+00 2.261641e+00 2.348608e+00 2.902174e+00 2.929214e+00 2.889764e+00 2.969100e+00 2.917994e+00 3.015308e+00 3.378990e+00 9.565533e-01
<GCONST> 9.986490e+01
<TRANSP> 5
 0.000000e+00 1.000000e+00 0.000000e+00 0.000000e+00 0.000000e+00
 0.000000e+00 5.829002e-01 4.170999e-01 0.000000e+00 0.000000e+00
 0.000000e+00 0.000000e+00 7.263861e-01 2.736140e-01 0.000000e+00
 0.000000e+00 0.000000e+00 0.000000e+00 7.041778e-01 2.958223e-01
 0.000000e+00 0.000000e+00 0.000000e+00 0.000000e+00 0.000000e+00
<ENDHMM>
~h "y"
<BEGINHMM>
<NUMSTATES> 5
<STATE> 2
<MEAN> 25
 7.525249e-01 -2.395128e-01 9.869755e+00 -2.438945e+00 -7.416393e+00 -4.035031e+00 -2.523598e+00 -1.256658e+00 -3.030607e+00 5.679885e-01 2.009048e+00 3.512048e-01 2.669050e-01 -7.876824e-01 4.218853e-01 -7.530282e-01 -1.110433e+00 -6.115049e-01 2.944183e-01 5.658008e-01 -1.505453e-01 1.160356e-01 4.326304e-01 4.095716e-02 1.179426e+00
<VARIANCE> 25
 2.949426e+01 5.619734e+01 8.237852e+01 9.498491e+01 8.939571e+01 7.180402e+01 7.453439e+01 7.323102e+01 5.881210e+01 5.725497e+01 5.915714e+01 4.074592e+01 2.019244e+00 3.837761e+00 7.267347e+00 5.017205e+00 5.405180e+00 4.842335e+00 5.904444e+00 6.044156e+00 4.796635e+00 4.490736e+00 4.341563e+00 3.162714e+00 2.649142e+00
<GCONST> 1.147536e+02
<STATE> 3
<MEAN> 25
 2.235162e+00 -5.884770e+00 7.399958e+00 -5.041612e+00 -1.084851e+01 -6.933326e+00 1.116831e+00 5.661597e+00 -1.680574e+00 6.799477e-02 2.321337e+00 -2.950778e-01 2.371921e-01 -8.280693e-01 -1.345173e+00 1.005856e-01 9.964299e-01 1.542484e-01 5.790650e-01 1.013411e+00 5.345955e-01 -5.629296e-01 -9.117472e-01 -2.641160e-01 2.458058e-01
<VARIANCE> 25
 1.440047e+01 2.958426e+01 4.588675e+01 4.133783e+01 5.149475e+01 5.749952e+01 6.154101e+01 8.590337e+01 4.828091e+01 4.525565e+01 4.982252e+01 3.109320e+01 3.107475e-01 1.185531e+00 2.320934e+00 1.500712e+00 2.947425e+00 1.991510e+00 2.440367e+00 2.971010e+00 2.674872e+00 2.456246e+00 2.910877e+00 1.775169e+00 3.404762e-01
<GCONST> 9.759807e+01
<STATE> 4
<MEAN> 25
 2.758209e+00 -5.620617e+00 -3.829277e-01 -2.533438e+00 -3.509998e+00 -3.467951e+00 1.583460e+00 3.032427e+00 -6.894690e-01 -1.693545e+00 -1.303562e+00 -4.053593e-01 1.130813e-01 -1.827325e-02 -5.265636e-01 1.211906e-01 6.142327e-01 2.587310e-01 -1.083759e-01 -8.638120e-02 1.203876e-01 -7.179377e-02 -2.953902e-01 -1.080367e-01 -1.685191e-01
<VARIANCE> 25
 1.835592e+01 3.244725e+01 3.449912e+01 3.543416e+01 5.184758e+01 4.089632e+01 6.065329e+01 7.023244e+01 4.234943e+01 4.049128e+01 4.145197e+01 2.904939e+01 2.336420e-01 5.176606e-01 1.215369e+00 1.044587e+00 1.939120e+00 1.433082e+00 1.667548e+00 1.683807e+00 1.537463e+00 1.603229e+00 1.600034e+00 1.307906e+00 2.036022e-01
<GCONST> 9.023175e+01
<TRANSP> 5
 0.000000e+00 1.000000e+00 0.000000e+00 0.000000e+00 0.000000e+00
 0.000000e+00 6.921004e-01 3.078996e-01 0.000000e+00 0.000000e+00
 0.000000e+00 0.000000e+00 7.061154e-01 2.938847e-01 0.000000e+00
 0.000000e+00 0.000000e+00 0.000000e+00 7.140303e-01 2.859697e-01
 0.000000e+00 0.000000e+00 0.000000e+00 0.000000e+00 0.000000e+00
<ENDHMM>
~h "z"
<BEGINHMM>
<NUMSTATES> 5
<STATE> 2
<MEAN> 25
 -8.148208e+00 1.267834e+01 3.447916e+00 7.604692e+00 5.205511e-01 -6.391429e+00 5.576292e+00 -6.850533e+00 -2.312314e-01 -4.081992e+00 2.561624e+00 8.509863e-01 -9.556467e-01 4.530995e-01 -3.182987e-01 3.306642e-01 5.139017e-01 -1.552969e-01 3.641981e-01 -1.145126e-01 4.779194e-01 -9.815222e-02 1.631117e-01 2.474377e-01 -6.064828e-02
<VARIANCE> 25
 3.824067e+01 5.189133e+01 5.575552e+01 3.521711e+01 4.846878e+01 4.606156e+01 6.105394e+01 3.605567e+01 4.570959e+01 3.484712e+01 2.401416e+01 2.595450e+01 4.332310e+00 4.486269e+00 3.460015e+00 2.620980e+00 5.014497e+00 3.667820e+00 4.667594e+00 3.010714e+00 4.908185e+00 2.634849e+00 2.746472e+00 1.646494e+00 8.720351e-01
<GCONST> 1.049969e+02
<STATE> 3
<MEAN> 25
 -3.058965e+00 -4.883692e+00 1.504333e+01 5.736628e+00 4.089936e-01 9.055320e+00 -5.887446e+00 -1.172723e+01 1.843705e-01 -1.924286e+00 -9.873849e-02 -4.880044e-01 5.415276e-01 -8.895224e-01 9.650175e-02 -4.554341e-01 -7.466154e-01 1.658236e-02 -3.126420e-01 3.046431e-03 -2.064058e-01 -7.789418e-03 3.275174e-01 2.596756e-01 5.850619e-01
<VARIANCE> 25
 5.449107e+01 9.689860e+01 1.492081e+02 1.323006e+02 1.018361e+02 2.270384e+02 7.810373e+01 6.999010e+01 6.832562e+01 5.365026e+01 3.923089e+01 6.030368e+01 4.636242e+00 4.736871e+00 1.193724e+01 6.743824e+00 5.745272e+00 1.177638e+01 5.325485e+00 5.798033e+00 6.186250e+00 4.830353e+00 3.601303e+00 3.502110e+00 1.961327e+00
<GCONST> 1.207671e+02
<STATE> 4
<MEAN> 25
 9.833781e-01 -3.059132e-01 6.611677e+00 3.320681e+00 -7.537794e+00 -3.861836e+00 -3.034038e+00 -5.715116e+00 -7.882381e+00 -2.040264e+00 6.889234e+00 1.022384e+00 3.516486e-01 -2.776061e-01 -1.710521e-01 -3.801166e-01 -2.459601e-01 -9.278130e-02 -1.083183e-01 4.947455e-01 1.420678e-02 3.485532e-01 1.519491e-02 -3.189768e-02 2.922014e-02
<VARIANCE> 25
 3.729443e+01 6.719329e+01 1.237357e+02 4.845593e+01 6.412601e+01 4.567434e+01 5.501344e+01 3.870783e+01 7.175987e+01 3.471806e+01 3.238309e+01 3.413878e+01 6.758856e-01 1.460181e+00 1.940172e+00 1.491191e+00 1.977700e+00 1.986151e+00 2.290947e+00 2.078106e+00 2.050734e+00 1.514749e+00 1.319983e+00 1.041837e+00 6.276293e-01
<GCONST> 9.791079e+01
<TRANSP> 5
 0.000000e+00 1.000000e+00 0.000000e+00 0.000000e+00 0.000000e+00
 0.000000e+00 8.094747e-01 1.905253e-01 0.000000e+00 0.000000e+00
 0.000000e+00 0.000000e+00 8.028485e-01 1.971515e-01 0.000000e+00
 0.000000e+00 0.000000e+00 0.000000e+00 7.511940e-01 2.488059e-01
 0.000000e+00 0.000000e+00 0.000000e+00 0.000000e+00 0.000000e+00
<ENDHMM>
~h "aw"
<BEGINHMM>
<NUMSTATES> 5
<STATE> 2
<MEAN> 25
 5.929516e+00 -4.651621e+00 -7.047927e+00 -9.934716e+00 -9.163857e-03 7.096552e+00 1.195327e+00 -1.784186e+00 6.672350e+00 -1.019112e+00 -7.935610e-01 -3.553370e+00 4.800561e-01 -3.083318e-01 -4.650100e-01 -1.656020e+00 1.693760e-01 1.901001e+00 -1.864824e-01 -2.295435e-01 -3.419694e-01 3.020166e-01 6.046654e-01 -1.114564e-01 1.963196e-01
<VARIANCE> 25
 2.334799e+01 6.084481e+01 3.084024e+01 5.882162e+01 7.353184e+01 7.606262e+01 8.060135e+01 7.459502e+01 7.377263e+01 7.188807e+01 6.741302e+01 5.156010e+01 1.183780e+00 2.312423e+00 2.921734e+00 3.781411e+00 4.161858e+00 4.528228e+00 3.606793e+00 5.579282e+00 3.441850e+00 3.579721e+00 3.378837e+00 3.212357e+00 1.966689e+00
<GCONST> 1.096893e+02
<STATE> 3
<MEAN> 25
 8.461352e+00 4.481094e-01 -5.197140e+00 -1.647522e+01 -3.780099e+00 1.318552e+01 -1.957945e+00 -2.242698e+00 -3.808225e-01 3.139418e-01 2.991350e+00 1.461788e+00 2.501772e-02 8.260165e-01 1.652632e-01 1.723911e-01 -3.032707e-01 -1.782573e-01 1.299176e-01 5.467501e-02 -3.679321e-01 -2.353542e-01 5.608527e-02 4.267178e-01 -6.754593e-01
<VARIANCE> 25
 1.555909e+01 5.814738e+01 2.526730e+01 4.568771e+01 4.713611e+01 4.695021e+01 4.816668e+01 3.771673e+01 3.924561e+01 4.499633e+01 3.592174e+01 3.153994e+01 5.014211e-01 1.172254e+00 1.016228e+00 2.520118e+00 1.799097e+00 2.097919e+00 1.851492e+00 1.553427e+00 1.915911e+00 1.932640e+00 1.758933e+00 1.950513e+00 6.639243e-01
<GCONST> 9.444781e+01
<STATE> 4
<MEAN> 25
 -2.510108e+00 4.354479e+00 3.736775e-01 1.299236e+00 -2.273407e+00 1.009607e+00 6.579432e-01 3.877281e+00 -6.731211e-01 -1.562192e+00 1.124436e+00 -3.575387e-01 -6.779456e-01 -1.072420e-01 2.846527e-01 9.180079e-01 4.129726e-01 -4.206608e-01 5.851321e-02 -9.110299e-02 8.476952e-02 1.165693e-01 -1.394301e-01 4.534170e-02 -4.565537e-01
<VARIANCE> 25
 1.234736e+02 4.111559e+01 7.791429e+01 2.083639e+02 1.076817e+02 2.235489e+02 1.132543e+02 7.896194e+01 8.751698e+01 9.857845e+01 8.641642e+01 6.792270e+01 1.287675e+00 1.485836e+00 2.743944e+00 3.964094e+00 3.546179e+00 4.286355e+00 3.800216e+00 3.365767e+00 3.558720e+00 3.426708e+00 3.365882e+00 2.612105e+00 1.185520e+00
<GCONST> 1.142524e+02
<TRANSP> 5
 0.000000e+00 1.000000e+00 0.000000e+00 0.000000e+00 0.000000e+00
 0.000000e+00 5.354058e-01 4.645942e-01 0.000000e+00 0.000000e+00
 0.000000e+00 0.000000e+00 8.680894e-01 1.319106e-01 0.000000e+00
 0.000000e+00 0.000000e+00 0.000000e+00 6.528785e-01 3.471215e-01
 0.000000e+00 0.000000e+00 0.000000e+00 0.000000e+00 0.000000e+00
<ENDHMM>
~h "ay"
<BEGINHMM>
<NUMSTATES> 5
<STATE> 2
<MEAN> 25
 3.643695e+00 -9.674022e+00 -1.448266e+00 -3.785908e+00 -3.389260e+00 -5.492725e+00 2.962163e+00 7.511565e+00 3.193682e+00 -2.836620e+00 -2.305729e+00 -2.181878e+00 -2.473413e-01 -2.004284e-01 1.458391e+00 -5.273956e-03 -1.549591e+00 -7.851690e-01 5.715719e-01 6.077830e-01 -8.026820e-01 -1.203470e-01 8.780727e-01 5.019372e-01 1.451890e-01
<VARIANCE> 25
 1.220625e+01 2.266200e+01 4.150668e+01 2.721370e+01 4.817556e+01 4.997517e+01 5.070383e+01 5.268451e+01 5.138066e+01 3.816611e+01 4.554549e+01 3.778601e+01 4.948075e-01 1.648878e+00 2.080243e+00 1.670550e+00 2.605703e+00 2.624152e+00 2.596968e+00 3.460215e+00 2.486824e+00 3.202683e+00 2.914698e+00 2.247895e+00 4.376506e-01
<GCONST> 9.759641e+01
<STATE> 3
<MEAN> 25
 1.894412e+00 -4.414305e+00 9.578537e+00 -5.292670e+00 -1.237305e+01 -6.894564e+00 1.405872e+00 2.041831e+00 -2.326669e+00 1.662053e+00 2.689990e+00 -7.969916e-02 -1.527396e-01 1.209364e+00 9.279757e-01 3.003507e-01 -3.154277e-01 2.498308e-01 -5.833841e-01 -1.212431e+00 -5.477953e-01 4.326619e-01 1.755894e-01 1.675015e-01 -8.355306e-01
<VARIANCE> 25
 1.119702e+01 2.763641e+01 4.728830e+01 4.105286e+01 3.438272e+01 5.736685e+01 5.429612e+01 6.808555e+01 4.667228e+01 4.094605e+01 4.850755e+01 2.581667e+01 4.014007e-01 1.018186e+00 2.387598e+00 2.088390e+00 2.459005e+00 1.942702e+00 2.607818e+00 2.864139e+00 3.215318e+00 2.518086e+00 2.587881e+00 1.858706e+00 7.614076e-01
<GCONST> 9.741930e+01
<STATE> 4
<MEAN> 25
 4.131769e-01 7.617495e-01 6.773088e+00 9.226420e-01 -8.037852e+00 -4.104516e+00 7.551719e-02 2.257640e-01 -1.766308e+00 6.121340e-01 2.189161e+00 1.592109e+00 -2.387818e-01 4.734745e-01 -6.787456e-01 6.999036e-01 9.450747e-01 5.552783e-01 -7.030025e-03 1.275428e-01 2.212994e-01 -1.127248e-01 -1.778670e-01 7.559954e-02 -1.197505e+00
<VARIANCE> 25
 2.662688e+01 3.913329e+01 4.981420e+01 4.169944e+01 5.084029e+01 6.160221e+01 5.007539e+01 6.427036e+01 4.819338e+01 3.875256e+01 4.195197e+01 2.980343e+01 7.328317e-01 1.247176e+00 2.158005e+00 2.015754e+00 2.673268e+00 2.687833e+00 2.426735e+00 2.949337e+00 2.584245e+00 2.376915e+00 2.369578e+00 1.798552e+00 1.228077e+00
<GCONST> 1.001150e+02
<TRANSP> 5
 0.000000e+00 1.000000e+00 0.000000e+00 0.000000e+00 0.000000e+00
 0.000000e+00 7.689865e-01 2.310135e-01 0.000000e+00 0.000000e+00
 0.000000e+00 0.000000e+00 7.604643e-01 2.395357e-01 0.000000e+00
 0.000000e+00 0.000000e+00 0.000000e+00 6.858549e-01 3.141451e-01
 0.000000e+00 0.000000e+00 0.000000e+00 0.000000e+00 0.000000e+00
<ENDHMM>
~h "kh"
<BEGINHMM>
<NUMSTATES> 5
<STATE> 2
<MEAN> 25
 -8.431331e+00 -4.040228e+00 1.005831e+00 6.210555e+00 3.571635e+00 3.706913e+00 7.853291e+00 5.132129e+00 9.242502e-01 -2.044687e-01 8.306401e-01 2.835217e+00 -6.652844e-01 1.946916e-01 6.549424e-01 -1.202595e-01 -4.504765e-01 1.137988e-01 2.465290e-01 -4.984848e-01 -9.595330e-02 8.316360e-01 7.900469e-01 1.573842e-01 -1.169195e-01
<VARIANCE> 25
 1.498908e+02 3.177168e+01 4.733107e+01 7.419503e+01 6.703986e+01 7.117671e+01 4.451502e+01 6.607301e+01 3.692470e+01 4.721082e+01 5.426212e+01 4.268391e+01 1.671235e+00 2.114440e+00 3.754374e+00 3.134651e+00 4.137931e+00 3.121529e+00 3.893982e+00 3.333022e+00 2.820110e+00 3.363704e+00 2.886822e+00 2.165810e+00 1.307034e+00
<GCONST> 1.074476e+02
<STATE> 3
<MEAN> 25
 -4.238328e+00 -3.903545e+00 -4.971150e-01 3.038437e+00 2.555350e+00 1.180515e+00 4.202129e+00 -1.324410e-01 3.261467e-01 3.238459e+00 4.896343e-01 1.201660e+00 2.209729e-01 -1.823709e-01 5.797762e-01 -4.727542e-01 -4.172770e-01 -7.087747e-01 -8.520759e-01 -9.920371e-01 -3.509065e-01 2.494015e-01 2.945602e-01 -1.017938e+00 1.520420e+00
<VARIANCE> 25
 6.208869e+01 8.552556e+01 5.900233e+01 5.251320e+01 7.205049e+01 6.062202e+01 4.476709e+01 6.316571e+01 3.125026e+01 3.625726e+01 4.454308e+01 5.521445e+01 7.390142e+00 8.086236e+00 6.029855e+00 4.351936e+00 8.740541e+00 6.494251e+00 6.627332e+00 4.897811e+00 4.880230e+00 4.660853e+00 4.938441e+00 3.357611e+00 5.962981e+00
<GCONST> 1.163273e+02
<STATE> 4
<MEAN> 25
 -4.779813e+00 -3.498224e+00 -2.759934e+00 -1.366430e+00 4.901656e+00 8.038099e-01 1.280153e+00 2.179481e+00 3.090222e+00 2.358977e+00 4.435282e-01 -2.428595e+00 -1.035031e-01 3.928842e-01 7.347084e-01 -2.186684e-01 -6.688285e-01 -3.995147e-01 -7.838795e-02 -3.126612e-02 -2.442551e-01 -7.234851e-02 1.838738e-01 4.663595e-02 2.357126e-01
<VARIANCE> 25
 1.138765e+02 7.052076e+01 6.794771e+01 6.545280e+01 7.419397e+01 4.773170e+01 8.032790e+01 4.933048e+01 4.493446e+01 4.623367e+01 3.830535e+01 6.394787e+01 3.733025e+00 3.555857e+00 3.324013e+00 3.522055e+00 5.525719e+00 4.050138e+00 3.822156e+00 2.866999e+00 3.589224e+00 3.474523e+00 3.241233e+00 3.030311e+00 4.135752e+00
<GCONST> 1.120135e+02
<TRANSP> 5
 0.000000e+00 1.000000e+00 0.000000e+00 0.000000e+00 0.000000e+00
 0.000000e+00 3.245532e-01 6.754469e-01 0.000000e+00 0.000000e+00
 0.000000e+00 0.000000e+00 4.189256e-01 5.810744e-01 0.000000e+00
 0.000000e+00 0.000000e+00 0.000000e+00 6.769449e-01 3.230552e-01
 0.000000e+00 0.000000e+00 0.000000e+00 0.000000e+00 0.000000e+00
<ENDHMM>
~h "ng"
<BEGINHMM>
<NUMSTATES> 5
<STATE> 2
<MEAN> 25
 6.251819e+00 -1.951128e-02 -9.665072e-01 -1.648456e+00 1.342604e-02 2.973709e+00 -1.566076e+00 -2.102097e+00 -1.664799e+00 -6.947356e-02 -1.794107e+00 -2.850239e+00 2.397785e-02 1.220440e+00 6.431441e-01 9.645684e-01 -2.960372e-01 2.487006e-01 3.238005e-01 -9.579027e-01 -2.933260e-01 1.827852e-01 -3.736827e-01 9.354161e-02 -1.089129e+00
<VARIANCE> 25
 1.405493e+01 3.604926e+01 4.382936e+01 4.778709e+01 6.188268e+01 6.645853e+01 5.771464e+01 5.093417e+01 5.532042e+01 4.955221e+01 4.377694e+01 3.935882e+01 5.400760e-01 1.441975e+00 2.376572e+00 2.485212e+00 3.631444e+00 3.314061e+00 3.787146e+00 3.674582e+00 3.684495e+00 3.002986e+00 3.210416e+00 2.591199e+00 6.385339e-01
<GCONST> 1.022182e+02
<STATE> 3
<MEAN> 25
 5.877182e+00 2.910243e+00 1.461429e+00 -1.406409e-01 -1.993262e+00 2.872488e+00 -5.499873e-01 -4.220182e+00 -2.026306e+00 3.283622e-01 -2.907648e+00 -2.219863e+00 -1.241077e-01 6.517810e-01 3.627076e-01 4.846123e-01 -1.961661e-02 -4.789506e-02 1.020259e-01 -2.420068e-01 -8.279119e-02 -1.758116e-02 -1.580981e-01 3.255282e-02 -5.508481e-01
<VARIANCE> 25
 1.248984e+01 3.175746e+01 3.763055e+01 3.688197e+01 5.215567e+01 5.397148e+01 4.849264e+01 4.883140e+01 4.857408e+01 4.565040e+01 3.696188e+01 3.317086e+01 3.106843e-01 7.381608e-01 1.147688e+00 1.232928e+00 1.643115e+00 1.603763e+00 1.716855e+00 1.869871e+00 1.761369e+00 1.689251e+00 1.568553e+00 1.359484e+00 3.510002e-01
<GCONST> 9.150419e+01
<STATE> 4
<MEAN> 25
 3.363585e+00 3.903221e+00 1.731551e+00 1.573740e+00 3.724484e-01 1.359630e+00 -4.097802e-01 -2.609316e+00 -1.892538e+00 -8.795694e-01 -2.411806e+00 -1.757216e+00 -4.112229e-01 -6.788479e-02 -9.057583e-02 1.638709e-01 3.354350e-01 -3.153902e-02 1.933244e-01 3.230499e-01 1.275435e-01 2.094536e-02 1.997131e-01 1.265573e-01 -2.396392e-01
<VARIANCE> 25
 1.674643e+01 2.686896e+01 2.887631e+01 3.267657e+01 4.234669e+01 3.937015e+01 3.853685e+01 3.629583e+01 3.753534e+01 3.509001e+01 3.044474e+01 2.617327e+01 6.752875e-01 1.105310e+00 1.318671e+00 1.551222e+00 1.926687e+00 1.914648e+00 1.975973e+00 2.112319e+00 2.141526e+00 2.094601e+00 1.859186e+00 1.605886e+00 6.576674e-01
<GCONST> 9.276485e+01
<TRANSP> 5
 0.000000e+00 1.000000e+00 0.000000e+00 0.000000e+00 0.000000e+00
 0.000000e+00 4.379191e-01 5.620810e-01 0.000000e+00 0.000000e+00
 0.000000e+00 0.000000e+00 5.689545e-01 4.310455e-01 0.000000e+00
 0.000000e+00 0.000000e+00 0.000000e+00 6.326869e-01 3.673131e-01
 0.000000e+00 0.000000e+00 0.000000e+00 0.000000e+00 0.000000e+00
<ENDHMM>
~h "ny"
<BEGINHMM>
<NUMSTATES> 5
<STATE> 2
<MEAN> 25
 2.705396e+00 2.700948e+00 8.531762e+00 -2.789946e+00 -5.081499e+00 -9.469581e-01 -9.232194e-01 -2.043889e+00 -4.211533e+00 1.488832e-01 3.440425e-01 -8.605283e-01 -4.694457e-01 -1.353162e+00 9.265534e-01 -1.209863e+00 -1.163448e+00 1.424970e-01 6.092837e-01 8.978984e-01 -4.463420e-01 -2.898011e-02 4.068646e-01 -1.607637e-01 1.265199e+00
<VARIANCE> 25
 1.991961e+01 4.750755e+01 5.040643e+01 8.019820e+01 5.697736e+01 6.027650e+01 5.031752e+01 6.011462e+01 4.840379e+01 4.787958e+01 5.037071e+01 4.171042e+01 1.677059e+00 3.936240e+00 4.024439e+00 5.643423e+00 4.442257e+00 5.204186e+00 4.889251e+00 5.766388e+00 4.089211e+00 4.140067e+00 3.834297e+00 2.813892e+00 1.613997e+00
<GCONST> 1.098350e+02
<STATE> 3
<MEAN> 25
 1.794646e+00 -6.114478e+00 8.085254e+00 -4.371145e+00 -8.180844e+00 -1.499967e+00 2.792027e+00 4.952260e+00 -4.789496e+00 -2.911080e+00 4.362131e-01 -1.014175e+00 2.288520e-01 -1.254274e+00 -1.291525e+00 6.179273e-01 8.569800e-01 -4.872213e-01 5.526221e-02 1.031241e+00 4.857692e-01 -9.233634e-01 -6.795437e-01 1.982115e-01 4.158589e-01
<VARIANCE> 25
 1.440758e+01 3.522295e+01 3.943954e+01 4.926444e+01 5.046605e+01 5.251334e+01 5.476183e+01 6.982134e+01 4.929113e+01 4.829294e+01 4.350724e+01 3.858879e+01 3.579925e-01 1.402728e+00 1.622189e+00 1.797776e+00 2.574832e+00 2.221002e+00 2.648206e+00 2.595486e+00 2.600916e+00 2.258549e+00 2.630039e+00 1.853999e+00 4.834456e-01
<GCONST> 9.776159e+01
<STATE> 4
<MEAN> 25
 2.431245e+00 -6.425813e+00 1.770478e+00 -2.299463e-01 -1.320372e+00 -2.243793e+00 2.435977e-01 4.863202e+00 -2.633940e+00 -6.024859e+00 -2.704315e+00 3.117647e-01 6.761993e-02 9.576902e-02 -6.639558e-01 2.916310e-01 7.030306e-01 8.465320e-02 -2.576997e-01 -1.350354e-01 3.173827e-01 5.953111e-03 -2.902012e-01 -2.095348e-02 -4.213351e-01
<VARIANCE> 25
 1.532883e+01 3.693908e+01 3.045463e+01 4.711273e+01 4.769923e+01 4.753630e+01 5.542859e+01 6.340527e+01 5.170451e+01 5.211843e+01 5.625972e+01 3.559025e+01 3.795829e-01 8.546581e-01 1.325947e+00 1.437121e+00 1.842719e+00 1.546301e+00 1.797164e+00 1.796118e+00 1.793967e+00 1.794771e+00 1.719914e+00 1.421016e+00 5.384738e-01
<GCONST> 9.412879e+01
<TRANSP> 5
 0.000000e+00 1.000000e+00 0.000000e+00 0.000000e+00 0.000000e+00
 0.000000e+00 7.380832e-01 2.619168e-01 0.000000e+00 0.000000e+00
 0.000000e+00 0.000000e+00 6.599533e-01 3.400467e-01 0.000000e+00
 0.000000e+00 0.000000e+00 0.000000e+00 7.276720e-01 2.723280e-01
 0.000000e+00 0.000000e+00 0.000000e+00 0.000000e+00 0.000000e+00
<ENDHMM>
~h "sp"
<BEGINHMM>
<NUMSTATES> 3
<STATE> 2
~s "silst"
<TRANSP> 3
 0.000000e+00 2.301046e-01 7.698954e-01
 0.000000e+00 9.508118e-01 4.918819e-02
 0.000000e+00 0.000000e+00 0.000000e+00
<ENDHMM>
~h "sy"
<BEGINHMM>
<NUMSTATES> 5
<STATE> 2
<MEAN> 25
 -1.162438e+01 3.175498e+00 6.686971e+00 -2.659343e+00 2.184848e+00 -9.859507e-01 4.134297e+00 2.053920e+00 2.556341e+00 7.096624e-02 1.736660e+00 1.079317e+00 -1.276486e+00 2.103575e-01 2.037296e-02 -5.437463e-02 -2.137018e-01 -1.040539e-01 3.056036e-01 -5.108695e-01 1.413262e-02 1.487081e-01 4.173326e-01 1.692133e-02 -9.294999e-02
<VARIANCE> 25
 1.074875e+02 4.719914e+01 4.842412e+01 2.512889e+01 7.392262e+01 4.932003e+01 4.874739e+01 4.822240e+01 3.611337e+01 3.475293e+01 4.113501e+01 2.175792e+01 1.152502e+01 5.805490e+00 3.633541e+00 2.863686e+00 5.067442e+00 3.381922e+00 4.637721e+00 3.471434e+00 2.943141e+00 2.713468e+00 4.230862e+00 2.112895e+00 9.237165e-01
<GCONST> 1.078328e+02
<STATE> 3
<MEAN> 25
 -8.527160e+00 2.050895e+00 2.404622e+00 2.552282e-01 7.289081e-01 3.044818e+00 3.198732e+00 3.658118e-01 1.359921e+00 7.297121e-01 2.320731e+00 2.083332e+00 1.233192e+00 -2.804917e-01 7.840348e-02 2.665984e-01 -5.420472e-01 -3.648823e-01 1.148705e-01 1.135341e-01 -7.551146e-02 -8.802861e-03 2.273144e-02 1.568292e-01 -1.572673e-02
<VARIANCE> 25
 5.997133e+01 1.014884e+01 2.836109e+01 1.828492e+01 1.933559e+01 5.463029e+01 2.738448e+01 2.490874e+01 2.478674e+01 3.648291e+01 2.738332e+01 2.049067e+01 4.921525e+00 7.509134e-01 9.688706e-01 1.390936e+00 2.505503e+00 1.873869e+00 1.724580e+00 1.471463e+00 1.713729e+00 1.068425e+00 1.711293e+00 1.453289e+00 5.751201e-01
<GCONST> 9.028004e+01
<STATE> 4
<MEAN> 25
 -1.277569e+00 -1.736214e+00 4.603471e+00 -2.786363e+00 -4.692624e+00 -3.435393e+00 3.588495e+00 3.237481e+00 1.329629e-01 -1.230088e+00 8.631570e-01 8.156630e-01 2.460038e+00 -9.159480e-01 -6.590137e-01 -3.066385e-02 -8.369181e-01 -8.952389e-01 -3.138443e-01 7.405866e-01 -1.737760e-01 -3.107507e-01 -6.401055e-02 -8.167188e-02 5.026435e-01
<VARIANCE> 25
 6.358454e+01 3.703777e+01 2.853406e+01 4.014359e+01 5.127336e+01 4.653421e+01 3.531333e+01 3.384419e+01 2.192998e+01 2.621177e+01 2.758804e+01 1.799405e+01 6.733335e+00 2.979909e+00 1.632823e+00 1.909827e+00 4.093995e+00 4.092797e+00 4.652308e+00 3.096238e+00 2.175629e+00 2.413405e+00 2.117755e+00 1.576249e+00 1.318252e+00
<GCONST> 1.009423e+02
<TRANSP> 5
 0.000000e+00 1.000000e+00 0.000000e+00 0.000000e+00 0.000000e+00
 0.000000e+00 8.557966e-01 1.442034e-01 0.000000e+00 0.000000e+00
 0.000000e+00 0.000000e+00 5.486827e-01 4.513173e-01 0.000000e+00
 0.000000e+00 0.000000e+00 0.000000e+00 5.508932e-01 4.491068e-01
 0.000000e+00 0.000000e+00 0.000000e+00 0.000000e+00 0.000000e+00
<ENDHMM>
~h "sil"
<BEGINHMM>
<NUMSTATES> 5
<STATE> 2
<MEAN> 25
 -5.758759e+00 1.346782e+00 -2.388016e+00 2.575366e+00 1.869892e+00 2.615387e+00 2.345862e+00 9.022276e-01 3.357079e-01 -3.397088e-01 2.448848e-01 1.616105e+00 -2.820520e-02 1.318568e-02 -8.280618e-03 7.694454e-03 9.402514e-03 1.529148e-02 3.590115e-03 -1.487876e-03 -7.715987e-04 -1.092588e-03 9.808853e-03 5.424342e-04 -4.289239e-02
<VARIANCE> 25
 2.006585e+01 1.831473e+01 2.092201e+01 2.631344e+01 2.198272e+01 2.497851e+01 2.150402e+01 2.368670e+01 2.496867e+01 2.514751e+01 2.098176e+01 1.726644e+01 1.434885e-01 2.863504e-01 4.580839e-01 6.534797e-01 8.606783e-01 1.029429e+00 1.169806e+00 1.287490e+00 1.336342e+00 1.317694e+00 1.257540e+00 1.160955e+00 8.768763e-02
<GCONST> 7.744133e+01
<STATE> 3
~s "silst"
<STATE> 4
<MEAN> 25
 -3.856606e+00 2.345944e-01 -4.771905e-01 5.255326e-01 1.367317e+00 1.027377e+00 1.124153e+00 7.309687e-01 6.530062e-02 8.240531e-01 -6.563084e-03 7.644207e-01 2.170905e-01 -8.365874e-02 5.428318e-02 -1.228653e-01 -2.647020e-03 -1.074026e-01 -5.902335e-02 -5.491158e-02 -6.158436e-02 -3.790934e-02 -5.640459e-02 -7.179492e-02 4.193442e-01
<VARIANCE> 25
 7.960662e+01 7.272430e+01 8.094606e+01 8.094646e+01 7.881573e+01 8.101926e+01 6.316008e+01 7.421436e+01 6.849957e+01 5.686337e+01 5.423016e+01 4.695381e+01 3.138155e+00 3.492211e+00 3.507570e+00 3.969767e+00 4.275715e+00 4.194766e+00 3.835967e+00 4.314120e+00 3.869535e+00 3.488647e+00 3.312907e+00 2.868887e+00 4.202645e+00
<GCONST> 1.137336e+02
<TRANSP> 5
 0.000000e+00 1.000000e+00 0.000000e+00 0.000000e+00 0.000000e+00
 0.000000e+00 9.232920e-01 3.003804e-02 4.666997e-02 0.000000e+00
 0.000000e+00 0.000000e+00 9.040790e-01 9.592111e-02 0.000000e+00
 0.000000e+00 5.573162e-02 0.000000e+00 8.003662e-01 1.439022e-01
 0.000000e+00 0.000000e+00 0.000000e+00 0.000000e+00 0.000000e+00
<ENDHMM>
