~o
<STREAMINFO> 1 25
<VECSIZE> 25<NULLD><MFCC_D_N_Z_0><DIAGC>
~s "silst"
<MEAN> 25
 -6.735273e+00 1.851305e+00 -1.524973e+00 4.101768e+00 3.927912e+00 3.247432e+00 3.312767e+00 2.325520e+00 1.352228e+00 1.167130e+00 1.515060e+00 3.015774e+00 -1.086444e-01 2.194425e-02 -3.962837e-03 3.192501e-02 3.630762e-02 4.185645e-02 2.980277e-02 1.492515e-02 1.175882e-02 3.004084e-02 3.782656e-02 2.142965e-02 -1.245555e-01
<VARIANCE> 25
 2.693325e+01 2.768409e+01 2.511896e+01 2.752199e+01 3.087043e+01 3.331617e+01 2.800277e+01 3.166497e+01 3.090616e+01 3.626129e+01 2.833573e+01 2.187124e+01 2.725371e-01 5.170045e-01 6.865134e-01 8.660198e-01 1.123733e+00 1.319584e+00 1.416199e+00 1.549376e+00 1.579310e+00 1.566023e+00 1.446830e+00 1.310452e+00 1.849419e-01
<GCONST> 8.483181e+01
~h "@"
<BEGINHMM>
<NUMSTATES> 5
<STATE> 2
<MEAN> 25
 3.901821e+00 -5.845792e-01 -1.349989e+00 -1.863752e+00 -9.490139e-01 -1.689901e+00 -3.087265e+00 -1.810423e+00 1.017819e+00 7.264619e-01 -5.841118e-02 -1.298465e+00 1.725083e+00 -7.539375e-01 -2.599956e-01 -8.700552e-01 -7.795452e-01 -3.607844e-01 -9.909203e-01 1.624812e-01 2.596489e-01 -6.163402e-02 -2.089833e-01 -5.745305e-01 1.441160e+00
<VARIANCE> 25
 3.889828e+01 4.681923e+01 4.978912e+01 5.452800e+01 5.954653e+01 7.571183e+01 5.976997e+01 6.246538e+01 5.986748e+01 5.512770e+01 4.780674e+01 3.823624e+01 4.737241e+00 5.465481e+00 5.128984e+00 5.919958e+00 6.222504e+00 7.389579e+00 6.626742e+00 7.314192e+00 6.677088e+00 6.087017e+00 5.381769e+00 4.316540e+00 3.872105e+00
<GCONST> 1.161926e+02
<STATE> 3
<MEAN> 25
 5.425422e+00 -2.230629e+00 -1.925909e+00 -3.000502e+00 -1.755966e+00 -2.301667e+00 -4.168102e+00 -9.773154e-01 1.518278e+00 7.416042e-01 -8.853750e-02 -1.750315e+00 8.558845e-01 -1.468796e-01 1.063619e-01 7.513335e-02 -2.654014e-01 1.045731e-01 -3.051186e-01 1.266187e-01 1.759486e-02 -6.067447e-02 -2.395132e-01 -2.252923e-01 1.559748e-01
<VARIANCE> 25
 2.738008e+01 4.321670e+01 4.843234e+01 5.387864e+01 5.892517e+01 7.301518e+01 5.852586e+01 6.148380e+01 5.974249e+01 6.057241e+01 4.962474e+01 3.942650e+01 2.340534e+00 3.351465e+00 3.378359e+00 4.161944e+00 4.175039e+00 4.853020e+00 4.349682e+00 5.190498e+00 4.553720e+00 4.160592e+00 3.776022e+00 3.021592e+00 2.266153e+00
<GCONST> 1.102408e+02
<STATE> 4
<MEAN> 25
 5.446675e+00 -1.578098e+00 -1.062113e+00 -2.010302e+00 -1.503022e+00 -2.429014e+00 -3.907835e+00 -3.595996e-01 1.294865e+00 7.095603e-01 -4.457334e-01 -1.898277e+00 -1.090799e-01 6.651555e-01 3.444406e-01 8.008309e-01 3.479743e-01 4.287934e-01 3.143575e-01 -1.477541e-01 -1.874176e-01 -7.636768e-02 -1.593287e-01 1.048978e-01 -9.276924e-01
<VARIANCE> 25
 2.355826e+01 4.815382e+01 5.086402e+01 5.688731e+01 6.255716e+01 7.009262e+01 5.904086e+01 6.831128e+01 6.230678e+01 6.414808e+01 4.954552e+01 4.205327e+01 1.166894e+00 2.346675e+00 2.201399e+00 2.867944e+00 3.162434e+00 3.344900e+00 3.104017e+00 3.374374e+00 3.259651e+00 3.117316e+00 2.822423e+00 2.396537e+00 1.918262e+00
<GCONST> 1.060137e+02
<TRANSP> 5
 0.000000e+00 1.000000e+00 0.000000e+00 0.000000e+00 0.000000e+00
 0.000000e+00 2.407005e-01 7.592995e-01 0.000000e+00 0.000000e+00
 0.000000e+00 0.000000e+00 3.098206e-02 9.690180e-01 0.000000e+00
 0.000000e+00 0.000000e+00 0.000000e+00 4.810258e-01 5.189741e-01
 0.000000e+00 0.000000e+00 0.000000e+00 0.000000e+00 0.000000e+00
<ENDHMM>
~h "a"
<BEGINHMM>
<NUMSTATES> 5
<STATE> 2
<MEAN> 25
 4.852704e+00 -6.611053e+00 -4.088956e+00 -4.288282e+00 -4.470468e-01 -9.142205e-01 -5.267338e-01 2.609652e+00 2.261638e+00 -2.036970e-01 -2.093633e+00 -2.617887e+00 3.773209e-01 -1.273213e+00 -7.792411e-01 -6.164650e-01 5.136064e-01 2.667642e-01 2.907975e-01 7.609084e-01 2.251016e-01 -4.005919e-01 -6.960735e-01 -4.899889e-01 9.935301e-01
<VARIANCE> 25
 2.412827e+01 3.908937e+01 4.958450e+01 5.014687e+01 6.769460e+01 7.393864e+01 6.153939e+01 6.511330e+01 5.579932e+01 5.333893e+01 5.204778e+01 4.479834e+01 1.834975e+00 2.918548e+00 3.232530e+00 3.528579e+00 4.526444e+00 4.548662e+00 4.509617e+00 5.160807e+00 4.470450e+00 4.132438e+00 4.064136e+00 3.395265e+00 2.283224e+00
<GCONST> 1.098325e+02
<STATE> 3
<MEAN> 25
 5.081692e+00 -9.094110e+00 -5.273736e+00 -5.574887e+00 1.038311e+00 -2.908230e-01 -1.033946e-01 3.688871e+00 2.482769e+00 -7.480124e-01 -3.827571e+00 -3.753437e+00 7.751126e-03 3.260696e-01 1.133441e-02 3.664295e-01 1.520409e-01 2.875044e-02 1.068542e-01 -1.361627e-01 -1.536093e-01 -1.707576e-02 -7.863634e-02 1.961161e-01 -4.391136e-01
<VARIANCE> 25
 1.553659e+01 3.102450e+01 4.111269e+01 3.885537e+01 6.185881e+01 6.564526e+01 5.785002e+01 6.076142e+01 5.575109e+01 5.382175e+01 5.347585e+01 4.691458e+01 4.406009e-01 1.346372e+00 1.310684e+00 1.567832e+00 2.148881e+00 2.377805e+00 2.276583e+00 2.491461e+00 2.142729e+00 2.237252e+00 2.185651e+00 1.875462e+00 8.472744e-01
<GCONST> 9.818620e+01
<STATE> 4
<MEAN> 25
 3.431797e+00 -3.294250e+00 -4.164490e+00 -8.629668e-01 1.213919e+00 -1.803757e-01 1.163897e+00 2.202053e+00 1.099802e+00 -9.558175e-01 -2.394460e+00 -9.399819e-01 -3.983268e-01 1.087702e+00 5.057120e-01 7.682502e-01 1.290997e-01 2.346901e-01 4.477965e-02 -3.214862e-01 -1.421373e-01 1.069877e-01 2.408240e-01 2.765220e-01 -1.265428e+00
<VARIANCE> 25
 2.085859e+01 3.042693e+01 3.836998e+01 4.176965e+01 5.140315e+01 5.226244e+01 4.514787e+01 4.529100e+01 4.617987e+01 4.613798e+01 4.388405e+01 3.139971e+01 9.152208e-01 1.570055e+00 1.714795e+00 2.044176e+00 2.506718e+00 2.562199e+00 2.659800e+00 2.832984e+00 2.670908e+00 2.620821e+00 2.455148e+00 2.103900e+00 1.050078e+00
<GCONST> 9.932400e+01
<TRANSP> 5
 0.000000e+00 1.000000e+00 0.000000e+00 0.000000e+00 0.000000e+00
 0.000000e+00 4.784582e-01 5.215418e-01 0.000000e+00 0.000000e+00
 0.000000e+00 0.000000e+00 6.683131e-01 3.316869e-01 0.000000e+00
 0.000000e+00 0.000000e+00 0.000000e+00 6.583676e-01 3.416325e-01
 0.000000e+00 0.000000e+00 0.000000e+00 0.000000e+00 0.000000e+00
<ENDHMM>
~h "b"
<BEGINHMM>
<NUMSTATES> 5
<STATE> 2
<MEAN> 25
 4.337596e+00 8.277246e+00 2.721359e+00 4.579885e+00 2.005037e+00 1.518144e+00 -7.353858e-01 -2.905400e+00 -2.530951e+00 -1.851982e+00 -1.551965e+00 -1.630139e+00 5.730151e-02 8.190696e-01 2.582583e-01 5.355706e-01 3.576673e-01 9.846996e-02 2.179521e-01 -1.290262e-01 -1.570647e-01 -2.291653e-01 -1.474165e-01 -3.101680e-02 -4.224384e-01
<VARIANCE> 25
 2.666285e+01 3.440197e+01 2.969752e+01 3.194544e+01 3.133250e+01 3.873532e+01 3.687429e+01 3.991194e+01 3.746843e+01 3.408305e+01 3.001113e+01 2.740124e+01 1.491485e+00 2.741110e+00 2.192540e+00 2.932896e+00 2.487229e+00 2.818352e+00 2.964343e+00 2.808509e+00 2.815875e+00 2.812763e+00 2.590514e+00 2.089596e+00 2.265655e+00
<GCONST> 9.979539e+01
<STATE> 3
<MEAN> 25
 4.540922e+00 8.029320e+00 2.208337e+00 4.260326e+00 2.208487e+00 1.456203e+00 -7.444060e-01 -3.832567e+00 -3.076883e+00 -1.602521e+00 -7.245103e-01 -8.870046e-01 7.272938e-01 -1.930162e+00 -1.161377e+00 -1.988195e+00 -1.096239e+00 -1.067369e+00 -1.444041e+00 -3.045220e-01 6.194159e-01 9.122225e-01 1.240636e+00 1.342433e-01 2.479226e+00
<VARIANCE> 25
 2.443497e+01 4.076478e+01 3.095149e+01 3.659897e+01 3.333770e+01 4.040266e+01 3.766064e+01 4.040511e+01 3.783927e+01 3.398130e+01 3.269478e+01 2.864672e+01 3.110385e+00 4.845661e+00 4.906719e+00 6.159964e+00 4.999218e+00 5.899794e+00 5.422331e+00 5.396812e+00 6.323715e+00 7.191205e+00 5.153635e+00 4.124732e+00 3.297704e+00
<GCONST> 1.093669e+02
<STATE> 4
<MEAN> 25
 6.670712e+00 1.682331e+00 -1.164140e+00 -1.679028e+00 -1.148791e+00 -1.123825e+00 -5.764712e+00 -3.552868e+00 3.806846e-01 1.761470e+00 2.818266e+00 -1.905043e+00 2.497207e-01 -2.452921e+00 -6.585956e-01 -1.779024e+00 -1.229398e+00 -1.010942e+00 -9.365991e-01 9.583175e-01 1.212814e+00 6.153960e-01 4.159592e-01 -4.277347e-01 2.449699e+00
<VARIANCE> 25
 2.872219e+01 5.233641e+01 5.126075e+01 8.283373e+01 5.738591e+01 8.444523e+01 6.315688e+01 7.145889e+01 7.020857e+01 9.129967e+01 6.572415e+01 4.939775e+01 2.650767e+00 5.446214e+00 6.072968e+00 7.489058e+00 6.731987e+00 8.016389e+00 8.020520e+00 8.503098e+00 8.782022e+00 8.531288e+00 7.176080e+00 6.739825e+00 3.708616e+00
<GCONST> 1.195714e+02
<TRANSP> 5
 0.000000e+00 1.000000e+00 0.000000e+00 0.000000e+00 0.000000e+00
 0.000000e+00 6.660436e-01 3.339564e-01 0.000000e+00 0.000000e+00
 0.000000e+00 0.000000e+00 3.608065e-01 6.391935e-01 0.000000e+00
 0.000000e+00 0.000000e+00 0.000000e+00 3.929223e-01 6.070778e-01
 0.000000e+00 0.000000e+00 0.000000e+00 0.000000e+00 0.000000e+00
<ENDHMM>
~h "c"
<BEGINHMM>
<NUMSTATES> 5
<STATE> 2
<MEAN> 25
 -7.688093e+00 5.191095e+00 6.609758e-01 1.752216e+00 3.256591e+00 -4.939241e-01 2.131505e+00 -2.796602e-01 1.495163e+00 3.912692e-02 1.683764e+00 1.722837e+00 -2.572000e+00 2.470233e-01 -1.527965e-01 -8.897203e-01 3.915024e-01 5.819175e-02 6.519564e-01 -6.567516e-02 5.225276e-01 1.404686e-01 5.391240e-01 2.695799e-01 8.472329e-01
<VARIANCE> 25
 6.871101e+01 4.535264e+01 5.043120e+01 4.630296e+01 4.771572e+01 5.631094e+01 4.832220e+01 5.212497e+01 4.531547e+01 3.606635e+01 3.710372e+01 2.817660e+01 5.086912e+00 4.605956e+00 5.170161e+00 4.974789e+00 4.939381e+00 5.207005e+00 4.259749e+00 4.917347e+00 4.034597e+00 3.623562e+00 3.292717e+00 2.525764e+00 6.702811e+00
<GCONST> 1.112197e+02
<STATE> 3
<MEAN> 25
 -1.499222e+01 1.419305e+00 5.053442e+00 -2.141607e+00 2.306101e-01 4.101287e-01 3.993499e+00 -7.905302e-01 2.449041e+00 3.388280e-02 3.263618e+00 2.866464e+00 1.754823e+00 -1.643536e+00 1.325840e+00 -6.271818e-02 -2.036829e+00 -1.294515e+00 -7.272521e-01 -2.697425e-02 -2.251334e-01 -5.013379e-01 -1.454191e-01 -7.951987e-02 1.773000e+00
<VARIANCE> 25
 5.249286e+01 1.175474e+02 1.014484e+02 6.578019e+01 7.445232e+01 1.009655e+02 5.829633e+01 6.279443e+01 4.544246e+01 5.121469e+01 4.122513e+01 3.685111e+01 9.951346e+00 7.118347e+00 6.663879e+00 5.646299e+00 6.165642e+00 6.278286e+00 5.073741e+00 5.339925e+00 4.850102e+00 4.251204e+00 4.062171e+00 2.949581e+00 3.590023e+00
<GCONST> 1.173203e+02
<STATE> 4
<MEAN> 25
 -2.029174e+00 -2.009299e+00 5.097806e+00 -4.933053e-01 -4.440041e+00 -5.052169e+00 -1.258554e+00 -8.145421e-01 1.270810e+00 -2.109494e+00 5.716449e-01 1.528660e+00 4.444436e+00 -1.180387e+00 -1.144416e+00 -2.050685e-01 -9.965259e-01 -1.289253e+00 -1.236811e+00 1.517245e-01 -4.137864e-01 -2.067201e-01 -8.346939e-01 -7.672971e-01 1.411694e+00
<VARIANCE> 25
 3.827296e+01 6.623830e+01 5.066599e+01 4.775328e+01 5.435111e+01 7.690083e+01 5.522730e+01 6.359834e+01 4.646247e+01 3.802715e+01 3.637806e+01 2.825319e+01 3.918362e+00 9.828025e+00 9.193800e+00 4.937203e+00 7.590634e+00 7.042980e+00 6.041551e+00 6.956495e+00 5.765517e+00 6.062470e+00 5.120024e+00 3.574751e+00 1.959073e+00
<GCONST> 1.148074e+02
<TRANSP> 5
 0.000000e+00 1.000000e+00 0.000000e+00 0.000000e+00 0.000000e+00
 0.000000e+00 7.561015e-01 2.438985e-01 0.000000e+00 0.000000e+00
 0.000000e+00 0.000000e+00 5.817004e-01 4.182996e-01 0.000000e+00
 0.000000e+00 0.000000e+00 0.000000e+00 4.541461e-01 5.458539e-01
 0.000000e+00 0.000000e+00 0.000000e+00 0.000000e+00 0.000000e+00
<ENDHMM>
~h "d"
<BEGINHMM>
<NUMSTATES> 5
<STATE> 2
<MEAN> 25
 3.341131e+00 5.284063e+00 4.027360e+00 6.377125e+00 7.692089e-01 -8.617123e-01 -1.674906e+00 -9.666231e-01 -1.756082e-01 -2.102792e+00 -2.408473e+00 -6.109012e-01 1.155444e-01 4.736203e-01 5.966747e-01 5.341445e-01 1.523748e-01 -1.778770e-01 -1.069189e-01 -1.859502e-01 -2.116816e-01 -3.429753e-01 -1.794560e-02 2.556841e-02 -5.085036e-02
<VARIANCE> 25
 3.741235e+01 5.546994e+01 3.993872e+01 4.607323e+01 5.990462e+01 5.305130e+01 5.088118e+01 4.893262e+01 4.411112e+01 3.999400e+01 4.082062e+01 3.151619e+01 2.875396e+00 6.167339e+00 3.336293e+00 4.909933e+00 4.999693e+00 5.214455e+00 5.148248e+00 4.792378e+00 4.306777e+00 4.100342e+00 3.874962e+00 3.163747e+00 5.408295e+00
<GCONST> 1.108250e+02
<STATE> 3
<MEAN> 25
 2.969479e+00 1.539897e+00 5.511037e+00 4.472121e+00 -1.001119e+00 -2.944726e+00 -2.988379e+00 -1.151881e+00 -9.081111e-01 -2.967646e+00 -4.127833e-01 1.052515e+00 -8.680654e-02 -2.699977e+00 5.044249e-01 -2.105455e+00 -2.113760e+00 -1.614775e+00 -1.242286e+00 6.877592e-01 1.336801e-01 1.218899e-01 1.473786e+00 6.006924e-01 3.178311e+00
<VARIANCE> 25
 2.275870e+01 5.074554e+01 4.104806e+01 5.106341e+01 6.501313e+01 6.406049e+01 5.681003e+01 5.367021e+01 5.157652e+01 4.048995e+01 4.062169e+01 3.762999e+01 3.449235e+00 4.866548e+00 5.815446e+00 5.537209e+00 6.564384e+00 7.335005e+00 7.599763e+00 8.910867e+00 7.531271e+00 6.470559e+00 5.324145e+00 4.116677e+00 3.703296e+00
<GCONST> 1.146448e+02
<STATE> 4
<MEAN> 25
 3.711961e+00 -3.152302e+00 5.992445e+00 -3.889486e-02 -6.418814e+00 -6.524403e+00 -6.040294e+00 1.615598e+00 2.267710e-01 -1.950842e+00 2.348313e+00 1.000335e+00 9.874419e-02 -1.066969e+00 -1.622582e-01 -1.631320e+00 -1.267270e+00 -4.732099e-01 -2.184333e-01 7.309729e-01 2.514092e-01 6.615776e-01 4.387707e-01 -4.667477e-01 1.529165e+00
<VARIANCE> 25
 2.354832e+01 3.653926e+01 5.577139e+01 6.358292e+01 7.918612e+01 6.440314e+01 7.807256e+01 9.060877e+01 7.811422e+01 6.381836e+01 5.367168e+01 4.086947e+01 1.577627e+00 2.886092e+00 5.353764e+00 4.120327e+00 6.018904e+00 5.241614e+00 5.986903e+00 6.424702e+00 5.645456e+00 4.585150e+00 5.246682e+00 4.053613e+00 2.373688e+00
<GCONST> 1.133727e+02
<TRANSP> 5
 0.000000e+00 1.000000e+00 0.000000e+00 0.000000e+00 0.000000e+00
 0.000000e+00 5.906631e-01 4.093369e-01 0.000000e+00 0.000000e+00
 0.000000e+00 0.000000e+00 4.087044e-01 5.912956e-01 0.000000e+00
 0.000000e+00 0.000000e+00 0.000000e+00 3.317133e-01 6.682866e-01
 0.000000e+00 0.000000e+00 0.000000e+00 0.000000e+00 0.000000e+00
<ENDHMM>
~h "e"
<BEGINHMM>
<NUMSTATES> 5
<STATE> 2
<MEAN> 25
 3.185360e+00 -4.699191e+00 1.853532e+00 -3.313113e-01 -5.658942e+00 -5.754097e+00 -4.925272e-02 3.116012e+00 -3.572578e-02 1.224327e-01 7.084312e-01 -3.091398e-01 6.061859e-01 -1.333593e+00 5.329664e-01 -7.285494e-01 -1.271567e+00 -8.462359e-01 4.585079e-01 1.168988e+00 -4.814320e-01 -1.686687e-01 1.680472e-01 -2.009697e-01 1.506962e+00
<VARIANCE> 25
 3.713277e+01 4.992729e+01 6.153557e+01 4.963937e+01 7.229649e+01 7.615921e+01 6.968759e+01 7.607424e+01 6.145753e+01 5.143928e+01 5.087971e+01 3.652625e+01 3.685190e+00 4.210034e+00 4.991056e+00 4.480124e+00 5.817891e+00 6.596958e+00 5.875626e+00 6.907946e+00 5.715758e+00 4.867977e+00 4.717924e+00 3.492995e+00 3.611654e+00
<GCONST> 1.148843e+02
<STATE> 3
<MEAN> 25
 3.401634e+00 -6.291025e+00 5.580531e+00 -1.359858e+00 -9.685557e+00 -8.213231e+00 1.529065e+00 5.436844e+00 -2.664904e+00 3.535735e-01 2.559645e+00 -9.740778e-01 -1.320886e-01 4.797679e-01 -7.498571e-02 3.164054e-01 3.130240e-01 3.465737e-01 3.253015e-01 -2.200698e-01 -6.657483e-02 7.345194e-02 -1.528497e-01 6.091170e-02 -6.299586e-01
<VARIANCE> 25
 1.948602e+01 3.936633e+01 6.793827e+01 5.212475e+01 6.276027e+01 7.185825e+01 7.348609e+01 8.112917e+01 6.352373e+01 5.072691e+01 5.177556e+01 3.588344e+01 7.407422e-01 1.781419e+00 2.013677e+00 2.144212e+00 2.610287e+00 2.637399e+00 2.833010e+00 2.790105e+00 2.828390e+00 2.408673e+00 2.408376e+00 1.840962e+00 1.754762e+00
<GCONST> 1.031811e+02
<STATE> 4
<MEAN> 25
 2.000269e+00 -2.485552e+00 1.475430e+00 -2.077303e-01 -4.448421e+00 -3.892808e+00 1.679513e+00 1.801633e+00 -6.760085e-01 7.775887e-01 1.687525e-01 -9.985206e-02 -2.098914e-01 4.935779e-01 -1.410342e-01 2.953476e-01 5.985340e-01 3.953048e-01 -2.285741e-02 -2.134575e-01 7.243843e-02 -3.231773e-02 -1.106794e-01 5.811664e-02 -6.445370e-01
<VARIANCE> 25
 2.222421e+01 3.314589e+01 4.434084e+01 4.058843e+01 5.208686e+01 4.987381e+01 5.512953e+01 5.283298e+01 4.413521e+01 3.957978e+01 3.466980e+01 2.725316e+01 5.451239e-01 1.005496e+00 1.076462e+00 1.220319e+00 1.905404e+00 1.828104e+00 1.878748e+00 1.961146e+00 1.851514e+00 1.796175e+00 1.614342e+00 1.410053e+00 5.849174e-01
<GCONST> 9.391182e+01
<TRANSP> 5
 0.000000e+00 1.000000e+00 0.000000e+00 0.000000e+00 0.000000e+00
 0.000000e+00 5.314659e-01 4.685341e-01 0.000000e+00 0.000000e+00
 0.000000e+00 0.000000e+00 7.092209e-01 2.907791e-01 0.000000e+00
 0.000000e+00 0.000000e+00 0.000000e+00 7.564948e-01 2.435052e-01
 0.000000e+00 0.000000e+00 0.000000e+00 0.000000e+00 0.000000e+00
<ENDHMM>
~h "f"
<BEGINHMM>
<NUMSTATES> 5
<STATE> 2
<MEAN> 25
 -3.614793e+00 2.079031e+00 2.196459e+00 5.783130e+00 2.599647e+00 -3.445926e-01 1.968551e+00 -1.165336e-01 8.059801e-01 1.227260e-01 1.135126e+00 9.051064e-01 -2.318438e+00 -2.554331e-01 -5.345594e-01 5.494921e-01 9.633349e-01 2.064341e-01 5.365995e-01 4.190598e-01 9.725946e-01 2.495429e-01 2.598141e-01 4.313000e-01 -6.275876e-01
<VARIANCE> 25
 4.226049e+01 2.765933e+01 5.200623e+01 4.989354e+01 4.809575e+01 5.667106e+01 3.936852e+01 4.466783e+01 3.385986e+01 3.167525e+01 2.912964e+01 2.903454e+01 2.844036e+00 3.147082e+00 3.204475e+00 4.394490e+00 4.833763e+00 4.842762e+00 3.673647e+00 3.837859e+00 3.604150e+00 3.232126e+00 3.094428e+00 2.320713e+00 1.693210e+00
<GCONST> 1.055618e+02
<STATE> 3
<MEAN> 25
 -9.499477e+00 -1.232730e+00 -7.373966e-02 4.323015e+00 3.552320e+00 -6.220302e-01 2.984087e+00 5.836673e-01 2.600938e+00 1.199053e+00 1.613453e+00 2.136429e+00 2.051251e-01 -4.486117e-01 -1.948298e-02 -3.244096e-01 -3.898029e-01 -2.883904e-01 -1.084090e-01 -1.193051e-01 -2.836065e-01 -9.250301e-02 -5.516787e-02 -1.131726e-02 6.734487e-02
<VARIANCE> 25
 2.976971e+01 2.804229e+01 3.637782e+01 3.940891e+01 3.556061e+01 5.008292e+01 3.086304e+01 3.393270e+01 3.032120e+01 2.679495e+01 2.433745e+01 2.319294e+01 3.209296e+00 2.163390e+00 2.258139e+00 2.243710e+00 2.344217e+00 2.908638e+00 2.404133e+00 2.343961e+00 2.627826e+00 2.206240e+00 1.933356e+00 1.807443e+00 1.474698e+00
<GCONST> 9.802300e+01
<STATE> 4
<MEAN> 25
 -5.150243e+00 -2.780833e+00 1.389937e+00 2.986536e+00 2.948365e+00 2.151013e+00 -3.341773e-01 -1.951179e+00 2.450842e-01 6.973854e-02 5.215606e-01 5.257296e-01 2.423785e+00 1.345999e-01 3.499613e-01 -1.050037e+00 -1.338320e+00 -4.975053e-01 -9.366403e-01 -5.545672e-01 -9.696108e-01 -3.347439e-01 -1.366879e-01 -5.834566e-01 1.185173e+00
<VARIANCE> 25
 6.543528e+01 6.742034e+01 1.033059e+02 1.046792e+02 8.125143e+01 1.321849e+02 7.704772e+01 6.948363e+01 5.534234e+01 4.444628e+01 3.838387e+01 3.720221e+01 7.156512e+00 6.531122e+00 7.612246e+00 9.308083e+00 7.755489e+00 1.055958e+01 5.352259e+00 5.493496e+00 6.068393e+00 4.635226e+00 4.473330e+00 3.717942e+00 3.998623e+00
<GCONST> 1.199924e+02
<TRANSP> 5
 0.000000e+00 1.000000e+00 0.000000e+00 0.000000e+00 0.000000e+00
 0.000000e+00 6.714874e-01 3.285126e-01 0.000000e+00 0.000000e+00
 0.000000e+00 0.000000e+00 6.991493e-01 3.008507e-01 0.000000e+00
 0.000000e+00 0.000000e+00 0.000000e+00 5.285858e-01 4.714142e-01
 0.000000e+00 0.000000e+00 0.000000e+00 0.000000e+00 0.000000e+00
<ENDHMM>
~h "g"
<BEGINHMM>
<NUMSTATES> 5
<STATE> 2
<MEAN> 25
 3.020177e+00 5.679934e+00 4.053393e+00 4.188700e+00 6.351714e-01 -1.818653e-01 -1.599371e+00 -2.596671e+00 -2.238775e+00 -4.575715e-01 -1.172070e+00 -1.761154e+00 -4.502749e-01 6.670096e-02 4.037599e-02 3.527289e-01 5.473751e-01 -2.034069e-01 1.307875e-02 7.026553e-02 -1.277702e-02 5.426820e-02 2.716307e-02 7.511713e-02 -1.067527e-01
<VARIANCE> 25
 3.112922e+01 4.787191e+01 4.010233e+01 4.283738e+01 5.969430e+01 5.650022e+01 5.119599e+01 5.024000e+01 4.875368e+01 4.291853e+01 3.591602e+01 3.204697e+01 2.753297e+00 5.381694e+00 4.179885e+00 4.420323e+00 5.395502e+00 5.430789e+00 5.207531e+00 4.859128e+00 4.697690e+00 4.180919e+00 3.592708e+00 3.160692e+00 4.051941e+00
<GCONST> 1.104003e+02
<STATE> 3
<MEAN> 25
 2.161039e+00 1.907086e+00 2.937322e+00 2.990084e+00 1.208586e+00 -3.339146e+00 -3.606264e+00 -1.140898e+00 -2.147067e+00 4.382671e-01 1.397316e-01 -1.113986e+00 -5.565834e-03 -1.635180e+00 -6.320744e-02 -1.361606e+00 -8.611495e-01 -1.388541e+00 -8.411438e-01 9.067365e-01 3.249450e-01 2.215157e-01 7.235452e-01 7.740658e-02 2.062871e+00
<VARIANCE> 25
 2.967564e+01 5.375676e+01 5.678006e+01 5.457639e+01 8.274996e+01 7.845325e+01 7.281281e+01 6.119093e+01 5.485813e+01 5.436795e+01 4.937977e+01 3.867322e+01 3.682685e+00 5.509279e+00 6.652318e+00 6.145197e+00 1.052135e+01 7.482063e+00 7.499425e+00 7.390995e+00 6.698686e+00 6.433247e+00 5.576337e+00 4.717965e+00 3.622530e+00
<GCONST> 1.175181e+02
<STATE> 4
<MEAN> 25
 2.459879e+00 2.124166e-02 3.500714e+00 8.973846e-01 -2.102166e+00 -4.835693e+00 -4.132021e+00 1.022813e+00 -7.970144e-01 -4.129278e-01 1.116755e+00 -1.236893e+00 2.782136e-02 -6.981629e-01 -1.549480e-01 -1.045982e+00 -6.209932e-01 -1.802528e-02 6.374925e-02 4.414250e-01 3.426770e-01 3.267414e-02 1.393518e-01 -9.370763e-04 8.720933e-01
<VARIANCE> 25
 5.124942e+01 5.772692e+01 6.520943e+01 8.348280e+01 9.072721e+01 1.005253e+02 8.352824e+01 8.253916e+01 7.580418e+01 8.673189e+01 6.765543e+01 5.036539e+01 1.797557e+00 3.053591e+00 4.476117e+00 3.912892e+00 4.658839e+00 4.424784e+00 4.551006e+00 4.795900e+00 4.773615e+00 4.153693e+00 4.228640e+00 3.348449e+00 2.059451e+00
<GCONST> 1.144578e+02
<TRANSP> 5
 0.000000e+00 1.000000e+00 0.000000e+00 0.000000e+00 0.000000e+00
 0.000000e+00 4.992391e-01 5.007609e-01 0.000000e+00 0.000000e+00
 0.000000e+00 0.000000e+00 4.682302e-01 5.317698e-01 0.000000e+00
 0.000000e+00 0.000000e+00 0.000000e+00 4.058426e-01 5.941573e-01
 0.000000e+00 0.000000e+00 0.000000e+00 0.000000e+00 0.000000e+00
<ENDHMM>
~h "h"
<BEGINHMM>
<NUMSTATES> 5
<STATE> 2
<MEAN> 25
 8.774832e-01 -2.624281e+00 -8.313188e-01 7.293823e-01 3.437035e+00 1.413514e+00 2.909068e+00 1.125198e+00 5.309056e-01 -1.078155e+00 -1.367686e+00 3.061756e-01 -8.081330e-01 2.091530e-01 4.494127e-03 6.746717e-01 8.037782e-01 4.673809e-01 5.871524e-01 1.954629e-01 1.716617e-01 -2.602361e-02 1.365935e-01 3.349012e-01 -9.003577e-01
<VARIANCE> 25
 3.567398e+01 5.140320e+01 6.060697e+01 5.842678e+01 8.874731e+01 7.111674e+01 7.185072e+01 6.404739e+01 5.724110e+01 6.678192e+01 5.576508e+01 3.950541e+01 2.397307e+00 3.925535e+00 3.780429e+00 3.922772e+00 4.942953e+00 4.653426e+00 4.956045e+00 4.514810e+00 4.288245e+00 4.345205e+00 3.752037e+00 3.114590e+00 2.736537e+00
<GCONST> 1.123359e+02
<STATE> 3
<MEAN> 25
 -2.107312e+00 -3.404898e+00 -1.829716e+00 2.379108e+00 5.103551e+00 2.933097e+00 4.355353e+00 2.155265e+00 5.845788e-01 -1.775187e+00 -1.279695e+00 1.264187e+00 -4.324603e-01 2.423045e-01 -1.048228e-01 1.651759e-01 4.945997e-02 1.381719e-01 1.055866e-02 -3.734772e-02 4.733201e-02 1.411815e-01 1.175207e-01 9.229881e-02 -7.406533e-01
<VARIANCE> 25
 4.657869e+01 6.176389e+01 6.212254e+01 5.681787e+01 8.367322e+01 6.503217e+01 6.564222e+01 6.431091e+01 5.792747e+01 5.385853e+01 5.476105e+01 4.002025e+01 9.481812e-01 1.666319e+00 1.907134e+00 2.024060e+00 2.623485e+00 2.542983e+00 2.707444e+00 2.787873e+00 2.671098e+00 2.554190e+00 2.392569e+00 2.063782e+00 9.418575e-01
<GCONST> 1.039525e+02
<STATE> 4
<MEAN> 25
 -1.087812e+00 -2.302035e+00 -2.527385e+00 8.392352e-01 2.835879e+00 1.499629e+00 2.378142e+00 6.572807e-01 4.581957e-01 -7.459006e-01 -1.244521e+00 3.375140e-01 -7.337279e-02 1.881497e-01 -6.219958e-03 3.229143e-03 -8.491501e-02 -4.678213e-02 -8.123505e-02 -9.365109e-02 -5.236025e-02 3.052166e-02 1.694949e-02 -1.161535e-02 -2.708436e-01
<VARIANCE> 25
 2.726611e+01 3.766730e+01 4.043950e+01 3.499458e+01 4.766655e+01 3.737711e+01 3.770266e+01 3.787127e+01 3.537550e+01 3.752267e+01 3.469630e+01 2.718512e+01 4.649418e-01 7.729892e-01 1.028050e+00 1.098588e+00 1.437019e+00 1.526905e+00 1.656408e+00 1.780911e+00 1.718430e+00 1.700233e+00 1.589603e+00 1.417614e+00 3.900661e-01
<GCONST> 9.083498e+01
<TRANSP> 5
 0.000000e+00 1.000000e+00 0.000000e+00 0.000000e+00 0.000000e+00
 0.000000e+00 5.094835e-01 4.905165e-01 0.000000e+00 0.000000e+00
 0.000000e+00 0.000000e+00 5.403857e-01 4.596143e-01 0.000000e+00
 0.000000e+00 0.000000e+00 0.000000e+00 7.304122e-01 2.695877e-01
 0.000000e+00 0.000000e+00 0.000000e+00 0.000000e+00 0.000000e+00
<ENDHMM>
~h "i"
<BEGINHMM>
<NUMSTATES> 5
<STATE> 2
<MEAN> 25
 4.785448e-01 9.682108e-01 1.137104e+01 9.552540e-01 -6.970137e+00 -4.740064e+00 -2.940132e+00 -3.822775e+00 -4.402071e+00 -6.484224e-01 2.096141e+00 -2.999208e-01 4.566846e-01 -2.154969e-01 2.344275e+00 -9.445817e-01 -2.100263e+00 -4.213324e-01 -1.015176e+00 -4.289301e-01 -1.143940e+00 1.087233e-01 6.260302e-01 -3.078818e-01 1.213527e+00
<VARIANCE> 25
 3.089650e+01 5.140833e+01 7.031667e+01 8.217464e+01 9.212659e+01 8.029285e+01 6.664816e+01 6.948874e+01 6.243630e+01 5.179920e+01 5.314300e+01 3.855156e+01 4.132298e+00 3.866611e+00 6.286515e+00 7.233821e+00 7.104425e+00 7.481919e+00 6.582930e+00 6.465753e+00 6.245748e+00 5.344341e+00 5.721463e+00 3.900254e+00 2.423002e+00
<GCONST> 1.168460e+02
<STATE> 3
<MEAN> 25
 4.075555e-01 1.493294e+00 1.680399e+01 -1.672639e+00 -1.249934e+01 -4.227551e+00 -4.366006e+00 -3.976274e+00 -7.869802e+00 -4.166270e-01 4.905570e+00 -1.600406e+00 1.076170e-01 2.545143e-01 -2.088342e-01 6.952026e-02 1.235555e-01 9.814892e-02 4.310030e-02 2.823391e-02 1.715711e-01 1.511707e-01 -2.243187e-01 7.169902e-02 -3.407117e-01
<VARIANCE> 25
 1.488810e+01 3.627279e+01 6.075349e+01 7.128989e+01 6.306325e+01 7.968073e+01 5.491018e+01 6.387655e+01 6.109969e+01 6.125472e+01 5.975311e+01 4.227005e+01 7.759401e-01 1.605271e+00 2.568082e+00 2.477943e+00 2.901658e+00 3.011272e+00 2.843016e+00 3.096157e+00 2.851021e+00 2.416483e+00 2.430456e+00 1.978970e+00 1.297670e+00
<GCONST> 1.035329e+02
<STATE> 4
<MEAN> 25
 1.548233e-01 3.759592e+00 1.009304e+01 8.760482e-01 -4.570902e+00 -2.386258e+00 -3.897825e+00 -4.745174e+00 -2.454068e+00 -2.526342e-01 -6.969536e-01 2.012831e-01 -1.440050e-01 2.722079e-01 -1.045236e+00 6.097182e-01 9.998887e-01 3.612788e-01 4.746852e-01 3.025253e-01 4.085821e-01 -8.753035e-02 -1.793911e-01 1.558722e-01 -9.379334e-01
<VARIANCE> 25
 2.029737e+01 4.388357e+01 4.479345e+01 1.113275e+02 7.466940e+01 6.682755e+01 6.594284e+01 5.351406e+01 5.272021e+01 4.660107e+01 4.754168e+01 3.800914e+01 1.018279e+00 1.704204e+00 2.267586e+00 2.875134e+00 3.227986e+00 2.981376e+00 3.038006e+00 2.839122e+00 2.825337e+00 2.694375e+00 2.611465e+00 2.049131e+00 1.287805e+00
<GCONST> 1.040485e+02
<TRANSP> 5
 0.000000e+00 1.000000e+00 0.000000e+00 0.000000e+00 0.000000e+00
 0.000000e+00 5.258406e-01 4.741594e-01 0.000000e+00 0.000000e+00
 0.000000e+00 0.000000e+00 6.896370e-01 3.103630e-01 0.000000e+00
 0.000000e+00 0.000000e+00 0.000000e+00 7.384979e-01 2.615021e-01
 0.000000e+00 0.000000e+00 0.000000e+00 0.000000e+00 0.000000e+00
<ENDHMM>
~h "j"
<BEGINHMM>
<NUMSTATES> 5
<STATE> 2
<MEAN> 25
 -2.625039e+00 7.396372e+00 5.416301e+00 3.990122e+00 2.195031e+00 -9.037977e-01 6.643987e-01 -7.832364e-01 -7.098880e-01 -2.168722e+00 -3.067576e-01 5.333462e-01 -1.497981e+00 5.046808e-01 6.032138e-01 -4.320939e-01 2.294652e-01 -8.477947e-02 2.362239e-01 -3.857044e-01 8.320437e-02 -3.475132e-02 2.868392e-01 1.765476e-01 6.562721e-01
<VARIANCE> 25
 6.631300e+01 4.865135e+01 5.117537e+01 4.784056e+01 5.564011e+01 5.600132e+01 4.422504e+01 4.204311e+01 3.920181e+01 3.389919e+01 3.183438e+01 2.859763e+01 5.585609e+00 4.888376e+00 4.625983e+00 5.252858e+00 5.724255e+00 5.677383e+00 4.446918e+00 4.187055e+00 4.025551e+00 3.592156e+00 3.351467e+00 2.655776e+00 5.442067e+00
<GCONST> 1.108620e+02
<STATE> 3
<MEAN> 25
 -4.749465e+00 4.047755e+00 1.175190e+01 1.561782e+00 -3.373097e+00 -4.214410e+00 -1.755955e+00 -3.886309e+00 -2.569917e+00 -2.331552e+00 2.217561e+00 2.090295e+00 1.717159e+00 -1.857294e+00 1.198521e+00 -4.809854e-01 -2.831748e+00 -2.000600e+00 -1.601100e+00 -5.800209e-02 -6.981575e-01 3.051800e-02 8.706887e-01 3.385170e-01 1.884312e+00
<VARIANCE> 25
 4.659105e+01 8.045144e+01 5.902662e+01 6.340913e+01 7.656123e+01 8.152792e+01 5.949444e+01 4.893061e+01 4.474697e+01 4.477679e+01 3.613926e+01 3.671131e+01 5.939009e+00 6.514872e+00 6.981134e+00 5.913467e+00 7.749968e+00 6.032830e+00 5.992450e+00 6.300347e+00 4.960825e+00 5.405941e+00 4.153257e+00 3.394621e+00 2.308859e+00
<GCONST> 1.155361e+02
<STATE> 4
<MEAN> 25
 1.744112e+00 -1.235366e+00 1.023525e+01 -9.542760e-01 -9.835709e+00 -9.158438e+00 -5.149696e+00 1.223598e+00 -1.901263e+00 -1.006778e+00 3.767589e+00 2.380848e+00 1.109861e+00 -1.204177e+00 -1.499917e+00 -4.816672e-01 8.099592e-02 8.821177e-02 -2.192636e-01 1.166930e+00 8.432040e-01 4.155054e-01 -3.661902e-01 -7.053978e-01 4.083915e-01
<VARIANCE> 25
 1.525401e+01 3.224321e+01 4.228987e+01 6.021951e+01 5.630965e+01 4.719389e+01 6.135054e+01 7.242316e+01 5.259404e+01 5.336681e+01 4.102713e+01 3.504924e+01 1.472910e+00 3.198759e+00 3.019681e+00 2.774868e+00 5.227294e+00 4.012433e+00 5.099743e+00 4.733926e+00 3.618843e+00 3.422853e+00 3.641819e+00 3.201870e+00 1.408238e+00
<GCONST> 1.067008e+02
<TRANSP> 5
 0.000000e+00 1.000000e+00 0.000000e+00 0.000000e+00 0.000000e+00
 0.000000e+00 7.507557e-01 2.492444e-01 0.000000e+00 0.000000e+00
 0.000000e+00 0.000000e+00 6.202396e-01 3.797605e-01 0.000000e+00
 0.000000e+00 0.000000e+00 0.000000e+00 6.112926e-01 3.887074e-01
 0.000000e+00 0.000000e+00 0.000000e+00 0.000000e+00 0.000000e+00
<ENDHMM>
~h "k"
<BEGINHMM>
<NUMSTATES> 5
<STATE> 2
<MEAN> 25
 -3.111296e+00 1.677541e+00 -2.110374e+00 2.069776e+00 3.092026e+00 1.785476e+00 1.693709e+00 6.034816e-01 1.320588e+00 1.777571e+00 1.045130e+00 9.174973e-01 -1.070232e+00 -4.887059e-01 -7.176569e-01 8.243341e-02 6.812170e-01 7.116728e-03 1.450305e-01 3.620829e-01 4.036606e-01 3.664487e-01 1.856106e-01 3.654953e-01 -2.532791e-01
<VARIANCE> 25
 3.818590e+01 3.768467e+01 5.255332e+01 4.613472e+01 6.080220e+01 5.429827e+01 4.662683e+01 4.690162e+01 4.598722e+01 3.938756e+01 3.691962e+01 3.130348e+01 2.828845e+00 4.346001e+00 4.465444e+00 4.620621e+00 5.321807e+00 5.240139e+00 4.714816e+00 4.477960e+00 4.474521e+00 3.857737e+00 3.585710e+00 3.001782e+00 5.539783e+00
<GCONST> 1.102093e+02
<STATE> 3
<MEAN> 25
 -5.049425e+00 -2.381612e+00 -4.408836e+00 -5.342073e-01 4.343482e+00 1.602913e+00 9.559578e-01 1.221917e+00 1.510962e+00 2.880702e+00 1.210651e+00 1.473733e+00 5.018052e-01 -1.183607e+00 -3.441430e-01 -1.115574e+00 -1.453740e-01 -7.500870e-01 -2.544119e-01 5.662294e-02 2.201406e-02 7.304458e-02 -1.589730e-01 -3.020838e-01 2.171791e+00
<VARIANCE> 25
 5.495298e+01 7.917863e+01 1.045176e+02 9.904772e+01 1.217926e+02 1.130626e+02 8.564103e+01 8.021027e+01 7.693835e+01 6.508091e+01 5.793397e+01 5.003749e+01 5.723388e+00 6.942830e+00 7.750970e+00 7.890911e+00 9.787042e+00 8.925809e+00 7.388271e+00 6.993569e+00 6.853731e+00 6.505478e+00 5.426977e+00 4.759971e+00 6.852832e+00
<GCONST> 1.236103e+02
<STATE> 4
<MEAN> 25
 -8.688117e-01 -3.236626e+00 -3.910023e+00 -2.160887e+00 2.116974e+00 -1.610045e+00 6.200820e-01 9.324708e-01 9.654214e-01 1.736665e+00 -3.339512e-01 -3.383103e-01 2.082506e+00 -1.224127e-01 6.480755e-01 -9.812055e-01 -1.647161e+00 -5.042227e-01 -2.521562e-01 -4.326313e-01 -6.336011e-01 -6.793208e-01 -4.013092e-01 -9.259638e-01 1.794859e+00
<VARIANCE> 25
 4.025222e+01 4.617193e+01 6.041981e+01 5.330230e+01 7.015871e+01 6.910020e+01 5.099657e+01 5.606297e+01 5.189348e+01 4.380511e+01 4.074314e+01 3.719626e+01 4.123848e+00 4.781707e+00 5.602716e+00 5.652199e+00 6.336731e+00 6.371492e+00 5.945342e+00 6.014970e+00 5.990562e+00 5.234935e+00 5.084800e+00 4.087573e+00 3.111144e+00
<GCONST> 1.143754e+02
<TRANSP> 5
 0.000000e+00 1.000000e+00 0.000000e+00 0.000000e+00 0.000000e+00
 0.000000e+00 6.165984e-01 3.834016e-01 0.000000e+00 0.000000e+00
 0.000000e+00 0.000000e+00 5.549464e-01 4.450536e-01 0.000000e+00
 0.000000e+00 0.000000e+00 0.000000e+00 3.476260e-01 6.523740e-01
 0.000000e+00 0.000000e+00 0.000000e+00 0.000000e+00 0.000000e+00
<ENDHMM>
~h "l"
<BEGINHMM>
<NUMSTATES> 5
<STATE> 2
<MEAN> 25
 6.292766e+00 -2.944702e+00 -1.720468e+00 -3.080715e+00 -1.985203e+00 -1.178317e+00 -4.589806e+00 -3.664888e+00 2.485377e+00 2.390287e+00 -6.021380e-01 -1.987173e+00 3.425904e-01 -8.999947e-02 -4.924803e-02 -2.140900e-01 -3.214750e-02 6.764407e-02 -7.256053e-01 -4.397579e-01 3.918258e-01 6.455445e-01 -7.877631e-02 -2.062001e-01 -1.306392e-02
<VARIANCE> 25
 2.027076e+01 3.560480e+01 4.779515e+01 6.289094e+01 5.854860e+01 7.850163e+01 6.598076e+01 7.612099e+01 6.063163e+01 7.134643e+01 5.191114e+01 3.862595e+01 9.643392e-01 2.118494e+00 2.841586e+00 3.768410e+00 3.999331e+00 4.675549e+00 4.479581e+00 5.510285e+00 4.252362e+00 4.241372e+00 3.735630e+00 3.175039e+00 1.102559e+00
<GCONST> 1.081506e+02
<STATE> 3
<MEAN> 25
 6.654819e+00 -2.975454e+00 -2.606763e+00 -5.336805e+00 -1.883877e+00 2.623282e-01 -5.858068e+00 -4.660200e+00 3.613502e+00 4.733128e+00 -3.163326e-01 -2.632270e+00 -1.320901e-02 -2.500540e-02 -4.741759e-02 -1.922364e-01 1.076893e-01 6.236188e-02 -6.996612e-02 2.906218e-01 7.228602e-02 -6.619750e-02 -1.050262e-01 -8.073188e-02 2.519421e-03
<VARIANCE> 25
 1.628683e+01 3.001127e+01 4.132413e+01 6.230284e+01 5.063739e+01 7.477460e+01 6.321400e+01 6.898112e+01 5.617285e+01 6.601678e+01 5.146068e+01 3.855069e+01 3.302281e-01 1.089921e+00 1.464813e+00 1.929145e+00 1.982970e+00 2.539759e+00 2.467912e+00 3.242690e+00 2.394266e+00 2.358786e+00 2.351514e+00 1.873367e+00 4.561342e-01
<GCONST> 9.856541e+01
<STATE> 4
<MEAN> 25
 6.777298e+00 -1.854629e+00 -2.287914e+00 -3.313685e+00 -2.431793e+00 -2.934237e+00 -4.207191e+00 -5.281814e-01 2.694904e+00 -4.263975e-01 -1.855862e+00 -2.121191e+00 -2.749399e-01 5.202631e-02 1.254600e-01 1.042246e-01 9.981111e-02 4.500682e-02 4.429685e-01 4.878179e-01 -3.214365e-01 -3.738592e-01 2.208910e-02 1.157266e-01 -1.279307e-01
<VARIANCE> 25
 2.159241e+01 3.959976e+01 5.757897e+01 6.920266e+01 9.039070e+01 9.494344e+01 7.111893e+01 8.208745e+01 6.053538e+01 9.639853e+01 6.007925e+01 4.274018e+01 5.014082e-01 1.500914e+00 1.852335e+00 2.378976e+00 2.683442e+00 2.978088e+00 2.799954e+00 3.286540e+00 2.833960e+00 2.963488e+00 2.778688e+00 2.081679e+00 8.701434e-01
<GCONST> 1.044811e+02
<TRANSP> 5
 0.000000e+00 1.000000e+00 0.000000e+00 0.000000e+00 0.000000e+00
 0.000000e+00 3.443934e-01 6.556066e-01 0.000000e+00 0.000000e+00
 0.000000e+00 0.000000e+00 4.789545e-01 5.210455e-01 0.000000e+00
 0.000000e+00 0.000000e+00 0.000000e+00 4.981105e-01 5.018895e-01
 0.000000e+00 0.000000e+00 0.000000e+00 0.000000e+00 0.000000e+00
<ENDHMM>
~h "m"
<BEGINHMM>
<NUMSTATES> 5
<STATE> 2
<MEAN> 25
 6.165124e+00 1.757432e+00 -5.739233e-01 5.148095e-01 5.107350e-01 2.730436e+00 -1.522401e+00 -4.331306e+00 -3.323282e+00 -1.454283e-01 -5.193574e-01 -1.964850e+00 -5.181307e-02 1.135818e+00 1.092215e+00 1.616962e+00 3.020399e-01 3.053448e-01 1.651622e-01 -1.450486e+00 -1.312888e+00 -2.109868e-01 -5.698078e-01 -6.098539e-02 -9.797822e-01
<VARIANCE> 25
 2.269597e+01 3.505085e+01 3.789583e+01 4.537954e+01 4.022241e+01 5.168518e+01 4.479331e+01 4.860107e+01 4.938654e+01 3.868562e+01 3.767689e+01 3.038591e+01 1.110854e+00 2.136209e+00 2.856218e+00 3.441884e+00 3.304253e+00 3.520700e+00 3.876021e+00 3.845839e+00 4.279662e+00 3.371842e+00 3.555154e+00 2.747647e+00 1.580501e+00
<GCONST> 1.037109e+02
<STATE> 3
<MEAN> 25
 5.158195e+00 3.764375e+00 2.313452e+00 2.979547e+00 6.578302e-01 2.313373e+00 -1.534409e+00 -5.946306e+00 -5.087152e+00 -1.000760e+00 -2.273766e+00 -2.072729e+00 -1.925702e-02 2.006319e-01 1.279653e-01 1.569246e-01 -5.061177e-03 6.092492e-02 7.392382e-02 -9.133422e-02 -1.486364e-01 -6.497231e-02 -8.853743e-02 -3.199862e-02 -1.486802e-01
<VARIANCE> 25
 1.541546e+01 2.966311e+01 2.894080e+01 3.105487e+01 3.691629e+01 4.793678e+01 4.364100e+01 4.759355e+01 5.304276e+01 4.114744e+01 3.676732e+01 3.044876e+01 3.664363e-01 7.506030e-01 1.004315e+00 1.194345e+00 1.351512e+00 1.519302e+00 1.519825e+00 1.679472e+00 1.790931e+00 1.645571e+00 1.604610e+00 1.355456e+00 4.107503e-01
<GCONST> 9.021506e+01
<STATE> 4
<MEAN> 25
 5.854064e+00 3.113883e+00 3.557508e-01 1.403988e+00 1.895161e-02 2.787019e+00 -7.166079e-01 -5.110896e+00 -4.510366e+00 -7.187377e-01 -1.258110e+00 -1.904163e+00 2.876239e-01 -8.031225e-01 -1.257617e+00 -1.468199e+00 -2.845631e-01 6.435123e-02 3.630628e-02 1.089969e+00 1.070120e+00 1.794257e-01 4.557938e-01 -6.960197e-02 8.026783e-01
<VARIANCE> 25
 2.121508e+01 3.362848e+01 3.729356e+01 4.497295e+01 4.269451e+01 5.194822e+01 4.539341e+01 5.222777e+01 5.567573e+01 3.957742e+01 3.903948e+01 3.176139e+01 1.024671e+00 2.051080e+00 3.253698e+00 3.669382e+00 3.345603e+00 3.716929e+00 3.275887e+00 3.517630e+00 4.144409e+00 3.123254e+00 2.888346e+00 2.699836e+00 1.185080e+00
<GCONST> 1.032096e+02
<TRANSP> 5
 0.000000e+00 1.000000e+00 0.000000e+00 0.000000e+00 0.000000e+00
 0.000000e+00 4.848041e-01 5.151959e-01 0.000000e+00 0.000000e+00
 0.000000e+00 0.000000e+00 6.877841e-01 3.122158e-01 0.000000e+00
 0.000000e+00 0.000000e+00 0.000000e+00 4.515000e-01 5.484999e-01
 0.000000e+00 0.000000e+00 0.000000e+00 0.000000e+00 0.000000e+00
<ENDHMM>
~h "n"
<BEGINHMM>
<NUMSTATES> 5
<STATE> 2
<MEAN> 25
 6.001440e+00 -1.502155e+00 1.613035e+00 1.871620e+00 -1.636023e+00 -1.918857e+00 -2.545110e+00 -4.550504e-01 -4.979189e-01 -9.772396e-01 -3.301957e+00 -1.276780e+00 2.686911e-01 2.047614e+00 7.951694e-01 1.754714e+00 -8.190218e-03 3.394774e-01 -1.679525e-01 -1.802799e+00 -2.316448e-01 7.836471e-02 -6.083282e-01 1.238972e-01 -1.852625e+00
<VARIANCE> 25
 1.452795e+01 4.209483e+01 3.996636e+01 4.103202e+01 5.366101e+01 5.100257e+01 4.616475e+01 6.396544e+01 5.136639e+01 4.789170e+01 4.346858e+01 3.410313e+01 1.037962e+00 2.190311e+00 3.244490e+00 3.138251e+00 4.750520e+00 4.512820e+00 4.281345e+00 5.296610e+00 4.300975e+00 3.954247e+00 3.908098e+00 3.079515e+00 1.184731e+00
<GCONST> 1.055992e+02
<STATE> 3
<MEAN> 25
 5.819739e+00 3.213594e+00 3.181514e+00 4.396369e+00 -1.914722e+00 -1.144537e+00 -2.538345e+00 -4.336376e+00 -1.512022e+00 -9.069171e-01 -4.601789e+00 -1.420602e+00 -1.042863e-01 8.926744e-01 2.271455e-01 3.963431e-01 2.252168e-01 1.998299e-01 4.705453e-02 -3.762711e-01 -1.879568e-01 -4.342834e-02 -6.151779e-02 -1.228935e-02 -7.127730e-01
<VARIANCE> 25
 1.156719e+01 2.803123e+01 2.856366e+01 3.153978e+01 4.893316e+01 4.438588e+01 3.745843e+01 4.384743e+01 4.069202e+01 4.610812e+01 4.032596e+01 3.066255e+01 3.527745e-01 9.377581e-01 1.127062e+00 1.194702e+00 1.650223e+00 1.753075e+00 1.796925e+00 2.111783e+00 1.993140e+00 1.853959e+00 1.799802e+00 1.498646e+00 4.195050e-01
<GCONST> 9.129399e+01
<STATE> 4
<MEAN> 25
 2.867592e+00 5.606181e+00 3.131696e+00 5.430846e+00 1.204556e+00 3.416810e-01 -9.160621e-01 -2.668297e+00 -1.553757e+00 -1.231828e+00 -2.994922e+00 -9.794117e-01 -7.681744e-01 -1.758952e-01 -1.451277e-01 -1.086694e-01 3.819314e-01 2.126664e-01 4.099199e-01 5.841676e-01 1.292265e-01 1.190585e-01 4.736650e-01 1.602414e-01 -3.635205e-01
<VARIANCE> 25
 2.322637e+01 3.431928e+01 2.909289e+01 3.283924e+01 4.844365e+01 4.169049e+01 3.851939e+01 4.380797e+01 3.799393e+01 3.773265e+01 3.462698e+01 2.863381e+01 1.018978e+00 1.766689e+00 1.767561e+00 1.949851e+00 2.577560e+00 2.566432e+00 2.548589e+00 2.837353e+00 2.665900e+00 2.591361e+00 2.339155e+00 1.937466e+00 1.050746e+00
<GCONST> 9.788530e+01
<TRANSP> 5
 0.000000e+00 1.000000e+00 0.000000e+00 0.000000e+00 0.000000e+00
 0.000000e+00 5.281940e-01 4.718061e-01 0.000000e+00 0.000000e+00
 0.000000e+00 0.000000e+00 6.717321e-01 3.282679e-01 0.000000e+00
 0.000000e+00 0.000000e+00 0.000000e+00 5.839667e-01 4.160333e-01
 0.000000e+00 0.000000e+00 0.000000e+00 0.000000e+00 0.000000e+00
<ENDHMM>
~h "o"
<BEGINHMM>
<NUMSTATES> 5
<STATE> 2
<MEAN> 25
 5.586706e+00 -3.151913e-01 -5.787560e+00 -7.837881e+00 -1.576952e+00 2.638999e+00 -1.596261e+00 -1.177539e+00 1.313206e+00 1.547786e+00 1.822888e+00 -1.158956e+00 1.302069e+00 -5.154883e-01 -9.624084e-01 -1.983325e+00 -2.622412e-01 9.632675e-01 -1.691622e-01 -2.590957e-01 -1.389823e-01 2.805250e-01 4.752480e-01 -4.997380e-01 1.361831e+00
<VARIANCE> 25
 3.541347e+01 3.888400e+01 4.488811e+01 8.483161e+01 7.150741e+01 1.030240e+02 6.623763e+01 6.142338e+01 6.163810e+01 6.090033e+01 5.253053e+01 3.933565e+01 3.650372e+00 3.281309e+00 3.999158e+00 6.975684e+00 6.263166e+00 7.252278e+00 5.609981e+00 5.425872e+00 5.426780e+00 5.008375e+00 4.577244e+00 3.679902e+00 3.870387e+00
<GCONST> 1.150224e+02
<STATE> 3
<MEAN> 25
 7.656426e+00 -1.224126e+00 -7.571256e+00 -1.157343e+01 -6.353667e-01 6.642197e+00 -1.895206e+00 -2.854987e+00 2.354931e-01 2.537560e+00 3.621715e+00 -1.631643e+00 -1.166023e-01 2.795161e-01 2.158633e-02 5.960436e-01 3.205004e-01 7.114491e-02 1.768173e-01 -7.533548e-03 -7.531906e-02 -4.116043e-02 -2.021807e-01 9.072609e-02 -6.257071e-01
<VARIANCE> 25
 1.925158e+01 3.694621e+01 3.959694e+01 7.539977e+01 6.653268e+01 9.651554e+01 6.662287e+01 5.723679e+01 6.656104e+01 6.477674e+01 5.486249e+01 4.437394e+01 9.632091e-01 2.043032e+00 1.788804e+00 4.129704e+00 2.959945e+00 4.055886e+00 3.495294e+00 3.106121e+00 3.790427e+00 3.389192e+00 3.042238e+00 2.690001e+00 2.005716e+00
<GCONST> 1.065938e+02
<STATE> 4
<MEAN> 25
 4.933320e+00 7.296119e-01 -6.010509e+00 -7.751240e+00 -6.455905e-01 4.181976e+00 -1.717732e-01 -1.503170e+00 1.298856e-01 1.186418e+00 1.224870e+00 -4.856907e-01 -3.316225e-01 1.758491e-01 3.506750e-01 6.821116e-01 1.601652e-01 -2.013250e-01 8.598959e-02 4.916410e-02 -9.273225e-03 -9.820803e-02 -1.778917e-01 7.444704e-02 -4.630767e-01
<VARIANCE> 25
 2.366044e+01 2.739356e+01 2.823920e+01 5.799490e+01 4.382099e+01 6.327683e+01 4.339418e+01 3.971404e+01 3.873030e+01 3.972935e+01 3.499734e+01 3.226269e+01 4.920878e-01 7.549998e-01 1.113128e+00 1.757766e+00 1.534283e+00 1.912095e+00 1.748675e+00 1.738744e+00 1.875082e+00 1.837745e+00 1.662262e+00 1.504192e+00 4.593104e-01
<GCONST> 9.281462e+01
<TRANSP> 5
 0.000000e+00 1.000000e+00 0.000000e+00 0.000000e+00 0.000000e+00
 0.000000e+00 5.316774e-01 4.683226e-01 0.000000e+00 0.000000e+00
 0.000000e+00 0.000000e+00 7.010692e-01 2.989309e-01 0.000000e+00
 0.000000e+00 0.000000e+00 0.000000e+00 7.857350e-01 2.142650e-01
 0.000000e+00 0.000000e+00 0.000000e+00 0.000000e+00 0.000000e+00
<ENDHMM>
~h "p"
<BEGINHMM>
<NUMSTATES> 5
<STATE> 2
<MEAN> 25
 -1.961574e+00 3.175377e+00 -2.328466e+00 2.503784e+00 2.416073e+00 2.366634e+00 2.131220e+00 8.167749e-01 1.625386e+00 1.746941e+00 1.234766e+00 9.541563e-01 -8.364065e-01 -2.454729e-01 -2.371592e-01 9.990270e-02 -3.627528e-03 -6.134963e-02 2.830662e-01 1.680557e-01 2.979751e-01 2.078229e-01 2.943101e-01 3.790125e-01 -3.427667e-01
<VARIANCE> 25
 4.253978e+01 3.068016e+01 3.819138e+01 3.597284e+01 3.521360e+01 4.252959e+01 3.431152e+01 3.834078e+01 3.713398e+01 3.428777e+01 3.050071e+01 2.617695e+01 3.191997e+00 3.115620e+00 2.867429e+00 3.499449e+00 3.079935e+00 3.703954e+00 3.138083e+00 3.400812e+00 3.390302e+00 2.984417e+00 2.720621e+00 2.315261e+00 5.540112e+00
<GCONST> 1.039437e+02
<STATE> 3
<MEAN> 25
 -1.990261e+00 8.689986e-01 -2.899026e+00 1.198543e+00 1.394529e+00 8.805963e-01 1.998006e+00 -7.327294e-02 1.548854e+00 1.732328e+00 1.662209e+00 1.415714e+00 2.121147e+00 -1.735413e+00 -7.790078e-01 -2.169735e+00 -9.658328e-01 -3.051161e-01 -6.916969e-01 -7.498875e-01 3.361337e-02 6.373002e-02 1.633524e-01 -7.958003e-01 3.767455e+00
<VARIANCE> 25
 3.370540e+01 3.091719e+01 3.305819e+01 4.114816e+01 3.612275e+01 4.446357e+01 3.442064e+01 3.786590e+01 3.540651e+01 3.090281e+01 2.953844e+01 2.379831e+01 5.514731e+00 5.403712e+00 6.205979e+00 6.811911e+00 6.310819e+00 8.359369e+00 5.724287e+00 5.629604e+00 5.812155e+00 5.475411e+00 5.151718e+00 4.359791e+00 6.471295e+00
<GCONST> 1.112351e+02
<STATE> 4
<MEAN> 25
 4.637315e+00 -3.018413e+00 -5.552673e+00 -4.647820e+00 -1.137850e+00 1.679812e+00 -4.717146e-01 -1.987727e+00 1.571134e+00 1.865058e+00 1.744874e+00 -1.643368e+00 2.052748e+00 -1.583999e+00 -5.134969e-01 -1.745574e+00 -8.670207e-01 -1.820209e-01 -8.242757e-01 -1.655160e-01 3.770015e-03 -9.302951e-02 -2.398587e-01 -1.081305e+00 2.960208e+00
<VARIANCE> 25
 3.783575e+01 4.552183e+01 5.014003e+01 6.492105e+01 4.890448e+01 7.581161e+01 4.807560e+01 4.607355e+01 4.538118e+01 4.414410e+01 4.149984e+01 3.882718e+01 4.515498e+00 6.011790e+00 7.324702e+00 7.659902e+00 7.291072e+00 9.950857e+00 6.457008e+00 6.337475e+00 6.539916e+00 5.992823e+00 6.012105e+00 4.989004e+00 5.504555e+00
<GCONST> 1.164944e+02
<TRANSP> 5
 0.000000e+00 1.000000e+00 0.000000e+00 0.000000e+00 0.000000e+00
 0.000000e+00 6.539818e-01 3.460183e-01 0.000000e+00 0.000000e+00
 0.000000e+00 0.000000e+00 3.509894e-01 6.490107e-01 0.000000e+00
 0.000000e+00 0.000000e+00 0.000000e+00 2.456990e-01 7.543010e-01
 0.000000e+00 0.000000e+00 0.000000e+00 0.000000e+00 0.000000e+00
<ENDHMM>
~h "r"
<BEGINHMM>
<NUMSTATES> 5
<STATE> 2
<MEAN> 25
 5.344419e+00 -4.247123e+00 -2.808644e+00 3.979534e-01 -2.532836e+00 -2.233029e+00 -2.864872e+00 2.542743e-01 3.632595e+00 2.532454e-01 -2.004830e-01 -9.449564e-01 -1.542413e-01 2.534412e-01 3.977142e-01 1.176437e+00 4.429515e-02 -1.307716e-01 -1.433245e-01 -4.564844e-03 1.354539e-01 -2.459777e-01 1.818721e-01 4.461421e-01 -8.058475e-01
<VARIANCE> 25
 2.403950e+01 3.724097e+01 4.994231e+01 4.660207e+01 5.875237e+01 5.873200e+01 5.842240e+01 6.186912e+01 5.897504e+01 5.135487e+01 4.571500e+01 3.987580e+01 2.641855e+00 3.595097e+00 3.712079e+00 4.434249e+00 5.143913e+00 5.277691e+00 5.001302e+00 5.038910e+00 4.801586e+00 4.677037e+00 4.394695e+00 3.859576e+00 3.078462e+00
<GCONST> 1.110068e+02
<STATE> 3
<MEAN> 25
 4.486249e+00 -3.126580e+00 -1.675382e+00 2.245845e+00 -1.920906e+00 -2.559548e+00 -2.594626e+00 3.618132e-01 3.118769e+00 -1.371860e-01 3.338978e-01 -3.304745e-02 -3.995504e-01 3.193658e-01 5.455036e-01 5.526150e-01 1.767163e-01 2.853393e-02 1.455121e-01 -1.127365e-02 -4.491779e-01 -1.339125e-01 2.994238e-01 3.114422e-01 -6.083803e-01
<VARIANCE> 25
 2.591185e+01 3.545096e+01 5.084877e+01 4.269025e+01 5.630327e+01 5.449705e+01 5.307690e+01 5.553499e+01 5.348433e+01 4.551108e+01 4.042643e+01 3.438974e+01 2.418417e+00 3.136007e+00 3.469318e+00 3.370711e+00 4.408070e+00 4.456847e+00 4.228799e+00 4.472181e+00 4.062010e+00 4.015488e+00 3.843009e+00 3.343451e+00 2.258088e+00
<GCONST> 1.080673e+02
<STATE> 4
<MEAN> 25
 3.358779e+00 -2.571208e+00 -9.583406e-01 3.101133e+00 -1.257165e+00 -2.524814e+00 -1.918516e+00 3.631837e-01 1.427646e+00 -6.208802e-01 8.857115e-01 3.504168e-01 -2.669167e-01 3.493567e-01 3.358921e-01 -8.824915e-02 9.275010e-02 1.866131e-01 2.360903e-01 -8.442232e-02 -6.019160e-01 7.079004e-02 9.981776e-02 -3.001460e-02 -3.713657e-01
<VARIANCE> 25
 3.596311e+01 4.159768e+01 5.629778e+01 4.581384e+01 5.790440e+01 6.030012e+01 5.470789e+01 5.917502e+01 5.291376e+01 4.523198e+01 4.215046e+01 3.539304e+01 1.621673e+00 2.396122e+00 2.698917e+00 2.320926e+00 3.424337e+00 3.256271e+00 3.116443e+00 3.424567e+00 3.352265e+00 2.959127e+00 2.860503e+00 2.358531e+00 1.596643e+00
<GCONST> 1.050843e+02
<TRANSP> 5
 0.000000e+00 1.000000e+00 0.000000e+00 0.000000e+00 0.000000e+00
 0.000000e+00 2.892760e-01 7.107240e-01 0.000000e+00 0.000000e+00
 0.000000e+00 0.000000e+00 8.395304e-02 9.160470e-01 0.000000e+00
 0.000000e+00 0.000000e+00 0.000000e+00 4.480094e-01 5.519907e-01
 0.000000e+00 0.000000e+00 0.000000e+00 0.000000e+00 0.000000e+00
<ENDHMM>
~h "s"
<BEGINHMM>
<NUMSTATES> 5
<STATE> 2
<MEAN> 25
 -6.117565e+00 3.774850e+00 1.951654e+00 1.271167e+00 3.920521e+00 -2.380892e+00 3.422460e+00 6.740976e-01 7.909162e-01 -6.125629e-01 4.581095e-01 1.224398e+00 -3.637558e+00 1.249749e+00 -1.836224e-02 7.254247e-02 1.276008e+00 -1.179538e-03 1.332632e+00 3.525540e-01 5.325816e-01 -1.012432e-01 8.746173e-01 4.760494e-01 1.002985e-01
<VARIANCE> 25
 6.544461e+01 6.982091e+01 8.667460e+01 5.617685e+01 8.314814e+01 8.635621e+01 6.835307e+01 6.258902e+01 5.402711e+01 4.705534e+01 4.662219e+01 3.435702e+01 3.422692e+00 6.425818e+00 7.429635e+00 5.447969e+00 6.029431e+00 6.361913e+00 5.307688e+00 5.245033e+00 4.527354e+00 4.976853e+00 3.930135e+00 3.089993e+00 1.750657e+00
<GCONST> 1.152615e+02
<STATE> 3
<MEAN> 25
 -1.682128e+01 5.057801e+00 1.256770e-01 4.385684e-01 5.588308e+00 -1.692064e+00 5.654866e+00 1.433753e+00 1.864686e+00 -2.465305e-01 2.994589e+00 2.677899e+00 -2.514452e-01 -3.834491e-01 -8.036336e-02 -6.099196e-02 -1.495591e-01 7.181575e-02 1.976497e-03 6.592859e-02 7.693544e-02 4.859419e-02 6.265502e-02 1.163041e-01 -3.232981e-01
<VARIANCE> 25
 3.907094e+01 9.445880e+01 1.083278e+02 7.323007e+01 7.713822e+01 8.873027e+01 5.390493e+01 5.522417e+01 4.502956e+01 4.532400e+01 3.620360e+01 3.184468e+01 2.573066e+00 1.785404e+00 1.901689e+00 1.693984e+00 2.026501e+00 2.151562e+00 2.240904e+00 2.334995e+00 2.274390e+00 2.118044e+00 1.956828e+00 1.715640e+00 7.745094e-01
<GCONST> 1.029900e+02
<STATE> 4
<MEAN> 25
 -9.635969e+00 1.463450e+00 1.299541e+00 -3.900034e-02 2.808357e+00 -2.181340e+00 3.476430e+00 7.966922e-01 1.854246e+00 -4.875374e-01 1.265071e+00 2.164211e+00 3.810060e+00 -6.109900e-01 -1.136187e-01 -3.851046e-01 -1.393985e+00 -5.241304e-01 -1.532001e+00 -7.893946e-01 -3.664141e-01 -1.626952e-01 -9.507835e-01 -7.065088e-01 7.181187e-01
<VARIANCE> 25
 7.412374e+01 8.468849e+01 8.935974e+01 5.945865e+01 7.249426e+01 9.199509e+01 6.158093e+01 5.940189e+01 4.684056e+01 4.308041e+01 4.238104e+01 3.232950e+01 5.311407e+00 7.157372e+00 7.414222e+00 5.460995e+00 5.989165e+00 6.475006e+00 5.504844e+00 5.846104e+00 5.185085e+00 5.138758e+00 4.357483e+00 3.557598e+00 3.512531e+00
<GCONST> 1.168603e+02
<TRANSP> 5
 0.000000e+00 1.000000e+00 0.000000e+00 0.000000e+00 0.000000e+00
 0.000000e+00 6.899455e-01 3.100545e-01 0.000000e+00 0.000000e+00
 0.000000e+00 0.000000e+00 7.993049e-01 2.006951e-01 0.000000e+00
 0.000000e+00 0.000000e+00 0.000000e+00 6.348991e-01 3.651009e-01
 0.000000e+00 0.000000e+00 0.000000e+00 0.000000e+00 0.000000e+00
<ENDHMM>
~h "t"
<BEGINHMM>
<NUMSTATES> 5
<STATE> 2
<MEAN> 25
 -2.520646e+00 3.296452e+00 -7.450765e-01 3.231066e+00 1.803734e+00 3.189934e-01 1.399747e+00 4.909716e-01 1.768048e+00 1.370232e+00 1.044457e+00 1.353058e+00 -1.142492e+00 -1.350218e-01 -4.018940e-01 5.945372e-02 3.145472e-01 2.563736e-01 5.540613e-01 2.590179e-01 3.415398e-01 1.357042e-01 4.270085e-01 3.809364e-01 -6.840948e-01
<VARIANCE> 25
 3.415314e+01 2.863233e+01 3.908698e+01 3.321358e+01 4.038400e+01 4.524265e+01 3.823007e+01 3.999303e+01 3.957406e+01 3.491557e+01 3.387341e+01 2.586449e+01 2.405780e+00 3.225389e+00 3.024808e+00 3.612190e+00 3.747666e+00 4.374598e+00 3.620152e+00 3.647089e+00 3.512610e+00 3.233161e+00 2.960144e+00 2.358240e+00 5.407789e+00
<GCONST> 1.047288e+02
<STATE> 3
<MEAN> 25
 -5.649169e+00 6.591216e-01 -1.939005e+00 1.102808e+00 2.252447e+00 -1.048612e+00 3.057498e+00 6.196040e-01 1.949134e+00 9.772432e-01 1.886605e+00 2.423485e+00 2.092154e-01 -1.608226e+00 -1.055516e-01 -1.824953e+00 -5.234528e-01 -1.315137e+00 -3.936373e-01 -2.653232e-01 2.913750e-01 -2.454371e-01 -7.413398e-02 -1.539329e-01 3.346749e+00
<VARIANCE> 25
 3.396827e+01 3.867434e+01 4.343977e+01 4.389797e+01 4.661929e+01 6.332685e+01 4.255096e+01 4.407036e+01 4.075499e+01 3.822025e+01 3.632259e+01 2.778776e+01 5.374987e+00 5.285804e+00 6.152322e+00 5.723576e+00 7.123756e+00 7.104421e+00 6.306074e+00 6.463589e+00 6.220981e+00 5.150055e+00 5.317602e+00 4.140521e+00 6.853115e+00
<GCONST> 1.134991e+02
<STATE> 4
<MEAN> 25
 -1.933956e+00 -2.099048e+00 -9.353135e-01 -2.538918e+00 -2.430855e-01 -3.473800e+00 -3.568400e-01 -7.108505e-01 2.305830e+00 2.550829e-01 3.092748e-01 6.853681e-01 2.215908e+00 -7.914951e-01 3.385796e-01 -1.354763e+00 -1.053922e+00 -6.273873e-01 -1.711966e+00 -4.805623e-01 -1.992225e-01 -1.156910e-01 -5.054738e-01 -1.018362e+00 2.671190e+00
<VARIANCE> 25
 3.649483e+01 4.450241e+01 5.017652e+01 4.882642e+01 5.801826e+01 7.003429e+01 5.910284e+01 5.378094e+01 4.939352e+01 4.230432e+01 4.043078e+01 3.384132e+01 4.934241e+00 5.834689e+00 7.402830e+00 6.795299e+00 7.449309e+00 8.550218e+00 7.548825e+00 7.530168e+00 7.209615e+00 7.024986e+00 6.376424e+00 4.885104e+00 5.312334e+00
<GCONST> 1.168896e+02
<TRANSP> 5
 0.000000e+00 1.000000e+00 0.000000e+00 0.000000e+00 0.000000e+00
 0.000000e+00 6.626775e-01 3.373226e-01 0.000000e+00 0.000000e+00
 0.000000e+00 0.000000e+00 3.809734e-01 6.190267e-01 0.000000e+00
 0.000000e+00 0.000000e+00 0.000000e+00 2.689032e-01 7.310968e-01
 0.000000e+00 0.000000e+00 0.000000e+00 0.000000e+00 0.000000e+00
<ENDHMM>
~h "u"
<BEGINHMM>
<NUMSTATES> 5
<STATE> 2
<MEAN> 25
 5.830367e+00 3.036466e+00 -1.129129e+00 -4.130110e+00 -2.212061e+00 -4.058000e-01 -6.081228e+00 -4.356340e+00 -1.796659e+00 -7.804143e-02 2.232516e+00 -1.982059e-02 1.452437e+00 4.975342e-01 -4.566107e-01 -1.507984e+00 -7.467448e-01 7.886032e-01 -1.026330e+00 -9.285544e-01 -7.507434e-01 1.852179e-01 8.501745e-01 1.436194e-02 6.112688e-01
<VARIANCE> 25
 2.633023e+01 4.173726e+01 4.825266e+01 7.150667e+01 5.947929e+01 7.418139e+01 7.281819e+01 6.716601e+01 6.093961e+01 6.725634e+01 5.248859e+01 3.922543e+01 3.166302e+00 3.813881e+00 4.201766e+00 5.414859e+00 6.017049e+00 7.453101e+00 6.244223e+00 6.208212e+00 5.906074e+00 5.787704e+00 4.838014e+00 3.779954e+00 2.691062e+00
<GCONST> 1.144354e+02
<STATE> 3
<MEAN> 25
 7.714477e+00 3.281288e+00 -1.982817e+00 -7.418458e+00 -3.192624e+00 3.417517e+00 -7.450269e+00 -6.553104e+00 -2.949636e+00 8.366060e-02 4.697448e+00 6.755864e-02 3.321916e-02 1.833542e-01 -4.464998e-02 3.150478e-01 2.354984e-01 9.837136e-02 1.958178e-01 6.796713e-02 1.160224e-01 1.477547e-01 -2.265681e-01 -3.008911e-02 -4.572485e-01
<VARIANCE> 25
 1.854029e+01 3.939186e+01 4.676365e+01 7.872973e+01 6.532714e+01 9.460068e+01 7.338262e+01 8.452850e+01 7.414709e+01 8.971741e+01 6.546943e+01 4.875662e+01 8.714122e-01 2.755568e+00 2.273821e+00 4.960262e+00 3.917717e+00 4.611776e+00 4.925528e+00 4.507654e+00 5.010760e+00 4.796082e+00 4.098344e+00 3.476411e+00 2.038910e+00
<GCONST> 1.109262e+02
<STATE> 4
<MEAN> 25
 5.556479e+00 5.275485e+00 -1.914363e+00 -4.366670e+00 -1.741938e+00 3.388391e-01 -4.231569e+00 -3.831051e+00 -3.202151e+00 2.215600e-02 2.040585e+00 9.423949e-01 -5.479636e-01 5.315290e-02 2.850253e-01 8.118474e-01 3.762893e-01 -2.343626e-02 4.885255e-01 3.574421e-01 2.614318e-01 -8.836325e-02 -3.314045e-01 -5.377388e-03 -6.424333e-01
<VARIANCE> 25
 2.211700e+01 3.362786e+01 3.863416e+01 6.221796e+01 4.671829e+01 5.255504e+01 4.791301e+01 4.544064e+01 5.080587e+01 5.171687e+01 3.989125e+01 3.735960e+01 7.897604e-01 1.236354e+00 1.506423e+00 2.432155e+00 2.221544e+00 2.545236e+00 2.471213e+00 2.445696e+00 2.562843e+00 2.513342e+00 2.383973e+00 1.919516e+00 8.742705e-01
<GCONST> 9.907108e+01
<TRANSP> 5
 0.000000e+00 1.000000e+00 0.000000e+00 0.000000e+00 0.000000e+00
 0.000000e+00 4.180275e-01 5.819725e-01 0.000000e+00 0.000000e+00
 0.000000e+00 0.000000e+00 5.654150e-01 4.345850e-01 0.000000e+00
 0.000000e+00 0.000000e+00 0.000000e+00 7.237386e-01 2.762614e-01
 0.000000e+00 0.000000e+00 0.000000e+00 0.000000e+00 0.000000e+00
<ENDHMM>
~h "v"
<BEGINHMM>
<NUMSTATES> 5
<STATE> 2
<MEAN> 25
 -6.288459e-01 8.770978e-01 -3.738899e-01 2.893103e+00 2.020522e+00 7.357100e-01 1.008088e+00 1.927154e+00 2.318352e+00 1.235962e-03 1.595698e-01 3.507380e-01 -2.413631e+00 6.825921e-01 1.520613e-01 1.017004e+00 1.150897e+00 7.968720e-01 6.691556e-01 3.901641e-01 1.109465e+00 4.564882e-01 5.526158e-01 5.595568e-01 -1.168827e+00
<VARIANCE> 25
 4.625325e+01 2.513613e+01 3.497044e+01 4.812368e+01 3.159043e+01 5.105854e+01 3.441747e+01 2.971297e+01 4.969516e+01 4.331610e+01 2.835070e+01 2.745996e+01 2.509971e+00 2.996889e+00 2.923033e+00 2.835889e+00 3.303384e+00 4.659087e+00 3.380680e+00 4.117893e+00 4.583944e+00 4.545852e+00 4.025856e+00 2.772990e+00 1.381455e+00
<GCONST> 1.043540e+02
<STATE> 3
<MEAN> 25
 -7.974757e+00 1.506384e+00 -1.302037e+00 2.890498e+00 3.435247e+00 1.362290e+00 2.655056e+00 1.195439e+00 2.150311e+00 2.471736e+00 1.419119e+00 9.761826e-01 -3.677741e-01 -2.247740e-01 -1.726278e-01 -9.715521e-02 -4.199960e-02 -5.885712e-02 1.285217e-01 -2.195284e-02 -2.561398e-02 3.067924e-02 -4.196148e-02 9.887268e-02 -2.668093e-01
<VARIANCE> 25
 4.530814e+01 2.148556e+01 2.493917e+01 4.822064e+01 2.160032e+01 3.472697e+01 2.482798e+01 3.013873e+01 2.468262e+01 2.710336e+01 2.170880e+01 1.977921e+01 1.843301e+00 1.079616e+00 1.164474e+00 1.376509e+00 1.331049e+00 1.960542e+00 1.855224e+00 1.818531e+00 1.804051e+00 1.858797e+00 1.540894e+00 1.606774e+00 8.045028e-01
<GCONST> 9.096036e+01
<STATE> 4
<MEAN> 25
 -2.693964e+00 4.405934e-01 -2.948268e+00 1.979681e+00 2.369098e+00 3.827407e-01 2.005036e+00 7.795483e-01 2.155703e+00 1.711142e+00 1.354544e+00 8.205137e-01 3.327039e+00 -3.531305e-01 -7.427387e-01 -1.794651e+00 -1.562075e+00 -8.857843e-01 -8.379149e-01 -7.581077e-01 -8.684858e-01 -1.123743e-01 -3.720416e-01 -9.439551e-01 1.852079e+00
<VARIANCE> 25
 5.352586e+01 2.498246e+01 3.837812e+01 5.098922e+01 2.755764e+01 4.098385e+01 2.989837e+01 2.777192e+01 2.823064e+01 2.448515e+01 2.346306e+01 2.330661e+01 3.859470e+00 3.971126e+00 8.332581e+00 6.726500e+00 4.900638e+00 6.749013e+00 3.722245e+00 5.063179e+00 6.429930e+00 3.568782e+00 4.265442e+00 4.066104e+00 2.317226e+00
<GCONST> 1.073360e+02
<TRANSP> 5
 0.000000e+00 1.000000e+00 0.000000e+00 0.000000e+00 0.000000e+00
 0.000000e+00 5.998275e-01 4.001726e-01 0.000000e+00 0.000000e+00
 0.000000e+00 0.000000e+00 7.984574e-01 2.015426e-01 0.000000e+00
 0.000000e+00 0.000000e+00 0.000000e+00 5.352223e-01 4.647777e-01
 0.000000e+00 0.000000e+00 0.000000e+00 0.000000e+00 0.000000e+00
<ENDHMM>
~h "w"
<BEGINHMM>
<NUMSTATES> 5
<STATE> 2
<MEAN> 25
 7.435994e+00 5.759528e+00 -3.373846e+00 -7.250031e+00 -3.766689e+00 9.806525e-01 -1.560483e+00 -1.196300e+00 -1.667248e+00 -9.401578e-01 1.828870e+00 -1.866089e-01 1.235538e+00 4.095209e-02 -8.779333e-01 -1.769501e+00 -8.189037e-01 5.105021e-01 -6.323755e-03 -2.915169e-01 -4.422475e-01 -1.023264e-01 7.028409e-01 1.864034e-01 1.015294e+00
<VARIANCE> 25
 4.717434e+01 6.429763e+01 4.332159e+01 7.516113e+01 6.836800e+01 1.131315e+02 6.254383e+01 6.203016e+01 5.729545e+01 5.291573e+01 4.535264e+01 4.151928e+01 3.312854e+00 4.904288e+00 3.474286e+00 5.029794e+00 5.040711e+00 6.539097e+00 4.932936e+00 4.780156e+00 4.491933e+00 4.539005e+00 4.345894e+00 3.981404e+00 3.567837e+00
<GCONST> 1.142693e+02
<STATE> 3
<MEAN> 25
 9.875408e+00 3.234076e+00 -6.785978e+00 -1.473182e+01 -4.936244e+00 7.075648e+00 -1.376562e+00 -3.503983e+00 -3.350029e+00 6.141018e-01 5.441192e+00 1.321091e+00 -1.156636e-01 -1.230068e+00 -5.430894e-01 -4.366421e-01 7.917379e-01 7.537704e-01 -2.433712e-01 -2.670764e-01 6.026523e-01 9.615782e-01 3.380071e-01 -7.738998e-01 7.254056e-01
<VARIANCE> 25
 1.380562e+01 2.998679e+01 2.777901e+01 4.550014e+01 4.376099e+01 7.154658e+01 4.955873e+01 4.580323e+01 4.430980e+01 4.858736e+01 4.459843e+01 3.472338e+01 4.606068e-01 2.706629e+00 1.315679e+00 2.257981e+00 3.018926e+00 2.761143e+00 2.958157e+00 2.663625e+00 3.112630e+00 3.505259e+00 2.764148e+00 3.615332e+00 9.834700e-01
<GCONST> 1.000802e+02
<STATE> 4
<MEAN> 25
 7.867579e+00 -4.151546e+00 -8.132712e+00 -1.162076e+01 1.616179e+00 7.355914e+00 -4.223758e+00 -3.513181e+00 2.847730e+00 5.152858e+00 2.163250e+00 -6.188503e+00 -5.526900e-01 -1.140885e+00 2.672085e-01 1.303531e+00 7.413990e-01 -1.049727e+00 7.067371e-03 8.953462e-01 1.010588e+00 -2.155048e-01 -1.537661e+00 -7.732495e-01 3.137411e-01
<VARIANCE> 25
 1.533919e+01 3.077649e+01 2.794009e+01 4.898953e+01 4.662693e+01 7.907630e+01 6.227214e+01 4.376191e+01 4.976171e+01 4.899261e+01 5.892820e+01 3.883722e+01 4.514309e-01 2.224735e+00 1.316737e+00 2.347929e+00 2.518804e+00 3.098078e+00 3.090762e+00 3.198911e+00 3.092788e+00 3.009415e+00 3.169474e+00 3.470726e+00 1.008709e+00
<GCONST> 1.010994e+02
<TRANSP> 5
 0.000000e+00 1.000000e+00 0.000000e+00 0.000000e+00 0.000000e+00
 0.000000e+00 5.952088e-01 4.047912e-01 0.000000e+00 0.000000e+00
 0.000000e+00 0.000000e+00 7.249580e-01 2.750420e-01 0.000000e+00
 0.000000e+00 0.000000e+00 0.000000e+00 6.892610e-01 3.107390e-01
 0.000000e+00 0.000000e+00 0.000000e+00 0.000000e+00 0.000000e+00
<ENDHMM>
~h "x"
<BEGINHMM>
<NUMSTATES> 5
<STATE> 2
<MEAN> 25
 1.928769e+00 5.458469e+00 1.094187e+01 3.205726e+00 -1.323290e+01 1.334221e+00 -4.255840e+00 -6.790945e+00 -3.853961e+00 -2.983887e+00 1.535593e+00 -3.442504e+00 -3.543120e-01 4.143202e-01 -4.178934e-01 1.838216e-01 7.961780e-01 2.050319e-01 -3.737417e-02 1.477747e-02 1.423312e-01 2.339160e-01 -1.886201e-01 2.657081e-02 -4.039121e-01
<VARIANCE> 25
 1.853467e+01 1.753383e+01 3.132282e+01 1.763712e+01 8.469543e+01 4.977429e+01 2.849864e+01 3.372847e+01 1.985408e+01 2.432246e+01 1.547021e+01 2.093723e+01 3.576103e-01 4.581588e-01 1.559182e+00 7.588673e-01 2.252702e+00 1.795022e+00 1.617185e+00 1.220603e+00 1.692522e+00 1.730870e+00 1.871505e+00 9.195662e-01 3.495497e-01
<GCONST> 8.622325e+01
<STATE> 3
<MEAN> 25
 1.595631e+00 4.731170e+00 2.122890e+00 1.523092e+00 6.696224e-03 -2.480166e+00 -1.702892e+00 -1.362453e+00 -1.809593e+00 7.873653e-02 2.676398e+00 3.506970e+00 -5.495620e-01 -2.003158e-01 -2.530620e-01 1.223174e-01 1.666725e-02 7.133266e-02 6.516656e-02 1.223301e-01 -4.889518e-04 -2.036701e-01 -1.583708e-01 1.013224e-01 -4.777937e-01
<VARIANCE> 25
 2.629543e+01 1.456626e+01 2.508636e+01 2.537516e+01 1.887580e+01 2.663517e+01 1.818348e+01 2.713691e+01 2.065098e+01 1.747519e+01 1.950266e+01 1.593504e+01 4.363924e-01 5.442934e-01 1.066898e+00 7.854595e-01 1.495883e+00 1.410586e+00 1.453180e+00 1.476967e+00 1.421928e+00 1.705278e+00 1.359332e+00 1.497812e+00 2.528161e-01
<GCONST> 8.251817e+01
<STATE> 4
<MEAN> 25
 -3.687851e+00 1.931981e+00 6.612544e-01 5.004153e+00 1.279626e+00 3.079883e+00 1.934677e+00 4.635841e-01 2.587031e+00 7.046058e-01 3.155274e+00 4.831704e+00 -2.023601e-02 -7.964066e-02 -1.754452e-01 -7.415047e-02 7.012872e-02 3.208401e-02 8.176595e-02 1.229004e-01 9.435475e-02 -5.633875e-02 -9.787542e-02 4.743069e-02 -3.238903e-02
<VARIANCE> 25
 7.288265e+00 1.280605e+01 8.928481e+00 7.680653e+00 1.784643e+01 1.511268e+01 2.397269e+01 1.785709e+01 1.554426e+01 1.104908e+01 1.389525e+01 1.174532e+01 2.300285e-01 2.961278e-01 5.619961e-01 4.511385e-01 8.862186e-01 9.243339e-01 1.225600e+00 1.156881e+00 9.739662e-01 1.445635e+00 1.115565e+00 8.349497e-01 1.028803e-01
<GCONST> 7.069663e+01
<TRANSP> 5
 0.000000e+00 1.000000e+00 0.000000e+00 0.000000e+00 0.000000e+00
 0.000000e+00 7.076402e-01 2.923598e-01 0.000000e+00 0.000000e+00
 0.000000e+00 0.000000e+00 8.633875e-01 1.366126e-01 0.000000e+00
 0.000000e+00 0.000000e+00 0.000000e+00 8.609838e-01 1.390162e-01
 0.000000e+00 0.000000e+00 0.000000e+00 0.000000e+00 0.000000e+00
<ENDHMM>
~h "y"
<BEGINHMM>
<NUMSTATES> 5
<STATE> 2
<MEAN> 25
 7.683749e-01 -4.581138e-01 9.395059e+00 -1.572759e+00 -6.278906e+00 -3.706172e+00 -2.817360e+00 -1.268871e+00 -2.830352e+00 2.102601e-01 1.907560e+00 3.767391e-01 2.748150e-01 -7.488250e-01 5.999095e-01 -8.466985e-01 -1.248368e+00 -6.536605e-01 1.454478e-01 4.382532e-01 -2.187214e-01 1.597805e-01 5.233421e-01 8.440435e-02 1.251322e+00
<VARIANCE> 25
 3.406958e+01 6.465772e+01 8.745532e+01 1.004339e+02 9.575351e+01 7.875323e+01 7.742334e+01 7.553661e+01 6.025220e+01 5.768764e+01 6.047631e+01 4.288318e+01 2.589022e+00 4.384781e+00 7.557191e+00 5.581477e+00 5.688118e+00 5.490706e+00 6.129647e+00 6.276989e+00 4.940072e+00 4.642318e+00 4.430091e+00 3.336813e+00 2.980599e+00
<GCONST> 1.165224e+02
<STATE> 3
<MEAN> 25
 2.023127e+00 -5.055329e+00 8.535227e+00 -5.307918e+00 -1.144119e+01 -6.904632e+00 4.696542e-01 4.578658e+00 -2.026250e+00 6.331085e-01 2.874876e+00 -2.507341e-02 2.476319e-01 -9.663180e-01 -1.356856e+00 2.076123e-02 8.079863e-01 5.401941e-02 7.265539e-01 1.184013e+00 5.918166e-01 -4.966323e-01 -8.387767e-01 -2.712962e-01 3.465521e-01
<VARIANCE> 25
 1.460597e+01 3.135867e+01 4.871665e+01 4.506323e+01 5.138265e+01 5.952143e+01 6.062838e+01 8.574820e+01 4.961023e+01 4.606593e+01 5.091855e+01 3.144288e+01 3.586664e-01 1.432022e+00 2.656462e+00 1.631583e+00 3.220910e+00 2.147246e+00 2.672796e+00 3.245253e+00 2.939741e+00 2.661793e+00 3.113895e+00 1.878676e+00 4.121844e-01
<GCONST> 9.929433e+01
<STATE> 4
<MEAN> 25
 3.216312e+00 -6.615913e+00 3.815287e-02 -3.105325e+00 -4.163161e+00 -4.443808e+00 1.950889e+00 4.057899e+00 -5.956052e-01 -1.633308e+00 -1.316764e+00 -6.227300e-01 1.388226e-01 -7.991064e-02 -6.543868e-01 1.178434e-01 7.183039e-01 3.067145e-01 -7.707426e-02 -5.332547e-02 1.436528e-01 -1.212262e-01 -4.064292e-01 -1.384806e-01 -1.450006e-01
<VARIANCE> 25
 1.917638e+01 3.144302e+01 3.631852e+01 3.903986e+01 5.446202e+01 4.578619e+01 6.611055e+01 7.979888e+01 4.539762e+01 4.208562e+01 4.560172e+01 3.125055e+01 2.339224e-01 5.660466e-01 1.297446e+00 1.095287e+00 2.089048e+00 1.489959e+00 1.719951e+00 1.709548e+00 1.587718e+00 1.664140e+00 1.721750e+00 1.349042e+00 1.992730e-01
<GCONST> 9.155999e+01
<TRANSP> 5
 0.000000e+00 1.000000e+00 0.000000e+00 0.000000e+00 0.000000e+00
 0.000000e+00 6.814360e-01 3.185640e-01 0.000000e+00 0.000000e+00
 0.000000e+00 0.000000e+00 6.999822e-01 3.000178e-01 0.000000e+00
 0.000000e+00 0.000000e+00 0.000000e+00 7.149472e-01 2.850528e-01
 0.000000e+00 0.000000e+00 0.000000e+00 0.000000e+00 0.000000e+00
<ENDHMM>
~h "z"
<BEGINHMM>
<NUMSTATES> 5
<STATE> 2
<MEAN> 25
 -8.070803e+00 1.285475e+01 3.390526e+00 7.509015e+00 5.795654e-01 -6.666337e+00 5.420368e+00 -6.674437e+00 -1.571095e-01 -4.285755e+00 2.487976e+00 8.235947e-01 -1.184456e+00 6.292384e-01 -4.627319e-01 4.542188e-01 7.079129e-01 -1.848458e-01 4.999714e-01 -1.088685e-01 6.852220e-01 -2.256476e-01 2.092201e-01 2.453673e-01 -7.769841e-02
<VARIANCE> 25
 3.748586e+01 5.117841e+01 5.252333e+01 3.760167e+01 5.335387e+01 4.256878e+01 6.280741e+01 3.562855e+01 4.885174e+01 3.736208e+01 2.403921e+01 2.761699e+01 4.016261e+00 4.588946e+00 3.470904e+00 2.924090e+00 4.990181e+00 3.991653e+00 4.787406e+00 3.054535e+00 4.614698e+00 2.829090e+00 2.884275e+00 1.664290e+00 9.221138e-01
<GCONST> 1.055059e+02
<STATE> 3
<MEAN> 25
 -3.208328e+00 -5.050206e+00 1.516518e+01 6.000486e+00 5.542237e-01 9.362538e+00 -5.762632e+00 -1.197190e+01 5.223682e-01 -2.076953e+00 -4.126400e-02 -4.326708e-01 4.790904e-01 -7.094054e-01 1.978699e-02 -4.348526e-01 -7.817059e-01 -8.209202e-02 -1.091698e-01 -8.335686e-02 -1.313756e-01 2.658631e-02 2.870748e-01 3.253743e-01 5.185257e-01
<VARIANCE> 25
 5.749359e+01 9.927884e+01 1.481567e+02 1.317954e+02 9.721220e+01 2.233890e+02 7.960830e+01 6.634400e+01 6.404784e+01 5.332809e+01 3.770337e+01 5.913312e+01 4.443439e+00 4.305436e+00 1.192806e+01 5.838112e+00 5.218717e+00 1.124786e+01 4.806785e+00 5.321472e+00 5.835003e+00 4.484609e+00 3.649102e+00 3.405174e+00 1.803460e+00
<GCONST> 1.197623e+02
<STATE> 4
<MEAN> 25
 1.283708e-01 1.022831e+00 5.930984e+00 4.298695e+00 -6.987723e+00 -4.210273e+00 -1.934189e+00 -6.483353e+00 -7.041181e+00 -2.221033e+00 6.546317e+00 1.150884e+00 3.720033e-01 -2.657971e-01 -9.850711e-02 -3.705289e-01 -2.510442e-01 -8.767151e-02 -1.106232e-01 4.190024e-01 -1.612774e-02 2.833669e-01 -5.289643e-02 -7.265939e-02 5.058172e-02
<VARIANCE> 25
 4.464153e+01 8.038815e+01 1.186610e+02 4.785317e+01 6.343928e+01 4.361475e+01 6.587466e+01 3.432518e+01 6.422968e+01 3.651495e+01 3.439365e+01 3.483037e+01 7.856412e-01 1.554987e+00 2.006470e+00 1.560561e+00 2.119699e+00 2.004602e+00 2.380760e+00 2.068374e+00 2.212575e+00 1.485001e+00 1.271662e+00 1.087288e+00 6.422072e-01
<GCONST> 9.872781e+01
<TRANSP> 5
 0.000000e+00 1.000000e+00 0.000000e+00 0.000000e+00 0.000000e+00
 0.000000e+00 8.017462e-01 1.982538e-01 0.000000e+00 0.000000e+00
 0.000000e+00 0.000000e+00 8.150678e-01 1.849321e-01 0.000000e+00
 0.000000e+00 0.000000e+00 0.000000e+00 7.513404e-01 2.486596e-01
 0.000000e+00 0.000000e+00 0.000000e+00 0.000000e+00 0.000000e+00
<ENDHMM>
~h "@h"
<BEGINHMM>
<NUMSTATES> 5
<STATE> 2
<MEAN> 25
 2.191768e+00 -4.369030e+00 -1.967216e+00 -2.781048e-01 -4.317815e+00 9.002194e-01 -1.682870e-01 -5.044621e+00 -2.213045e+00 3.375897e+00 -6.002364e+00 -9.751316e+00 -6.788418e-01 6.820120e-01 4.367531e-01 -3.728946e-01 1.960821e-01 6.059967e-01 -4.645939e-01 -4.511943e-01 8.187708e-01 4.157048e-02 4.338760e-01 1.316192e+00 -9.776275e-01
<VARIANCE> 25
 1.174377e+01 3.249128e+01 2.448355e+01 3.027283e+01 2.493032e+01 1.346555e+01 1.246893e+01 4.350150e+01 6.139454e+01 4.705409e+01 1.764201e+01 9.332773e+01 3.206263e-01 1.787687e+00 2.019254e+00 1.313365e+00 2.529313e+00 9.675607e-01 9.480675e-01 4.369747e+00 1.496727e+00 5.526192e+00 1.464069e+00 3.557961e+00 2.696829e-01
<GCONST> 9.117454e+01
<STATE> 3
<MEAN> 25
 3.072394e-01 -1.292099e+01 -6.168022e-01 -1.214172e+01 8.074035e+00 3.526661e+00 2.128012e+00 -2.755193e-01 1.016112e+01 -5.494330e+00 3.029905e+00 -8.895874e+00 -5.893836e-02 -1.429339e-01 -2.730121e-01 -1.426637e-01 3.216345e-01 2.563306e-01 -7.819320e-02 3.756234e-02 -3.235823e-01 2.115173e-01 4.725160e-02 3.335614e-01 -1.666132e-01
<VARIANCE> 25
 3.692606e+00 8.157306e+00 2.399991e+00 1.668308e+01 1.330275e+01 1.058504e+01 5.758967e+00 2.979528e+00 1.278497e+01 7.862033e+00 3.603868e+00 9.531135e+00 1.224040e-01 2.112497e-01 2.715464e-01 1.272700e-01 3.799631e-01 2.383724e-01 2.466387e-01 3.419608e-01 2.909365e-01 7.852407e-01 3.687522e-01 3.690136e-01 9.685807e-02
<GCONST> 5.127869e+01
<STATE> 4
<MEAN> 25
 4.374549e+00 -6.198958e+00 -2.749330e+00 -2.144497e+00 7.727462e+00 5.270951e+00 -5.891232e+00 1.120972e+01 8.591671e+00 -1.109824e+00 -2.324174e+00 -8.827693e+00 1.610097e-01 -3.487666e-02 8.752773e-02 4.340148e-01 4.063994e-01 5.216219e-02 1.432091e-01 2.832494e-01 5.586583e-02 -2.307090e-01 -2.101382e-01 5.879270e-02 -1.123265e-01
<VARIANCE> 25
 2.899508e+01 1.988068e+01 1.691907e+01 4.336337e+01 1.555211e+01 1.903519e+01 5.803022e+01 2.260824e+01 2.866500e+01 1.298393e+01 3.170980e+01 4.239198e+01 1.120673e+00 8.237876e-01 2.084876e+00 9.544086e-01 2.088916e+00 1.503559e+00 2.076504e+00 2.736343e+00 3.838447e+00 9.672930e-01 3.214602e+00 1.762989e+00 1.558434e+00
<GCONST> 9.187473e+01
<TRANSP> 5
 0.000000e+00 1.000000e+00 0.000000e+00 0.000000e+00 0.000000e+00
 0.000000e+00 8.527498e-01 1.472502e-01 0.000000e+00 0.000000e+00
 0.000000e+00 0.000000e+00 9.090786e-01 9.092137e-02 0.000000e+00
 0.000000e+00 0.000000e+00 0.000000e+00 9.309415e-01 6.905849e-02
 0.000000e+00 0.000000e+00 0.000000e+00 0.000000e+00 0.000000e+00
<ENDHMM>
~h "@y"
<BEGINHMM>
<NUMSTATES> 5
<STATE> 2
<MEAN> 25
 1.708972e-09 1.090385e-09 9.580507e-09 -2.513088e-08 5.650978e-09 7.824450e-09 -1.173420e-08 8.080536e-09 -1.223684e-08 -1.003294e-08 -1.228346e-09 7.471072e-09 2.588070e-03 5.406653e-06 1.165406e-03 -2.750418e-04 1.179288e-03 -2.015027e-04 3.669178e-04 -4.334864e-04 -1.182183e-03 -4.313851e-04 -6.009767e-04 -5.740453e-04 3.089256e-03
<VARIANCE> 25
 5.950132e+01 5.523875e+01 6.957190e+01 6.306453e+01 6.882129e+01 6.596412e+01 5.749057e+01 5.935612e+01 5.307150e+01 4.762954e+01 4.650915e+01 3.710306e+01 2.306587e+00 2.816560e+00 2.879318e+00 3.320077e+00 3.620080e+00 3.535859e+00 3.444255e+00 3.604912e+00 3.328778e+00 3.069351e+00 2.973025e+00 2.428180e+00 2.668494e+00
<GCONST> 1.087549e+02
<STATE> 3
<MEAN> 25
 1.708972e-09 1.090385e-09 9.580507e-09 -2.513088e-08 5.650978e-09 7.824450e-09 -1.173420e-08 8.080536e-09 -1.223684e-08 -1.003294e-08 -1.228346e-09 7.471072e-09 2.588070e-03 5.406653e-06 1.165406e-03 -2.750418e-04 1.179288e-03 -2.015027e-04 3.669178e-04 -4.334864e-04 -1.182183e-03 -4.313851e-04 -6.009767e-04 -5.740453e-04 3.089256e-03
<VARIANCE> 25
 5.950132e+01 5.523875e+01 6.957190e+01 6.306453e+01 6.882129e+01 6.596412e+01 5.749057e+01 5.935612e+01 5.307150e+01 4.762954e+01 4.650915e+01 3.710306e+01 2.306587e+00 2.816560e+00 2.879318e+00 3.320077e+00 3.620080e+00 3.535859e+00 3.444255e+00 3.604912e+00 3.328778e+00 3.069351e+00 2.973025e+00 2.428180e+00 2.668494e+00
<GCONST> 1.087549e+02
<STATE> 4
<MEAN> 25
 1.708972e-09 1.090385e-09 9.580507e-09 -2.513088e-08 5.650978e-09 7.824450e-09 -1.173420e-08 8.080536e-09 -1.223684e-08 -1.003294e-08 -1.228346e-09 7.471072e-09 2.588070e-03 5.406653e-06 1.165406e-03 -2.750418e-04 1.179288e-03 -2.015027e-04 3.669178e-04 -4.334864e-04 -1.182183e-03 -4.313851e-04 -6.009767e-04 -5.740453e-04 3.089256e-03
<VARIANCE> 25
 5.950132e+01 5.523875e+01 6.957190e+01 6.306453e+01 6.882129e+01 6.596412e+01 5.749057e+01 5.935612e+01 5.307150e+01 4.762954e+01 4.650915e+01 3.710306e+01 2.306587e+00 2.816560e+00 2.879318e+00 3.320077e+00 3.620080e+00 3.535859e+00 3.444255e+00 3.604912e+00 3.328778e+00 3.069351e+00 2.973025e+00 2.428180e+00 2.668494e+00
<GCONST> 1.087549e+02
<TRANSP> 5
 0.000000e+00 1.000000e+00 0.000000e+00 0.000000e+00 0.000000e+00
 0.000000e+00 6.000000e-01 4.000000e-01 0.000000e+00 0.000000e+00
 0.000000e+00 0.000000e+00 6.000000e-01 4.000000e-01 0.000000e+00
 0.000000e+00 0.000000e+00 0.000000e+00 7.000000e-01 3.000000e-01
 0.000000e+00 0.000000e+00 0.000000e+00 0.000000e+00 0.000000e+00
<ENDHMM>
~h "ai"
<BEGINHMM>
<NUMSTATES> 5
<STATE> 2
<MEAN> 25
 3.875587e+00 -4.206479e+00 4.021779e+00 -1.280108e+00 -7.978391e+00 -7.772009e+00 1.628654e+00 1.002852e+01 -3.113324e+00 -2.798541e+00 3.443343e+00 -2.131030e+00 -2.475904e-01 6.192749e-01 6.746714e-01 4.033733e-01 1.071776e-01 -1.584471e-01 2.798821e-01 -4.816636e-01 -8.181068e-01 5.179928e-01 3.075237e-01 4.342719e-01 -4.104525e-01
<VARIANCE> 25
 8.770658e+00 5.263295e+01 3.081088e+01 8.880757e+00 2.331445e+01 3.112694e+01 2.868747e+01 5.365315e+01 2.826941e+01 2.664098e+01 5.636913e+01 2.178118e+01 2.078376e-01 6.814461e-01 1.374749e+00 1.101426e+00 3.546586e+00 1.652256e+00 1.183209e+00 2.105287e+00 1.238909e+00 1.647871e+00 2.607585e+00 2.225936e+00 2.298082e-01
<GCONST> 8.749973e+01
<STATE> 3
<MEAN> 25
 5.339077e+00 -3.300370e+00 1.149913e+00 1.320526e+00 -1.343848e+00 4.351842e-01 -1.730374e+00 1.158630e+00 5.904476e+00 -4.693597e-01 -3.052061e+00 -1.464732e-01 -1.016426e-01 4.497886e-01 -9.857702e-01 4.182798e-01 1.021679e+00 3.520518e-01 1.451076e-01 -5.309228e-01 1.712814e+00 4.144577e-01 -8.742272e-01 4.711608e-01 -6.026551e-01
<VARIANCE> 25
 1.554185e+01 4.115315e+01 7.011572e+01 1.583231e+01 1.595552e+01 5.461263e+01 2.574371e+01 1.019475e+02 1.310133e+02 1.898011e+01 8.564809e+01 2.226282e+01 9.722136e-01 3.594817e+00 2.775188e+00 1.986934e+00 2.440033e+00 1.217010e+00 3.097806e+00 1.452299e+00 5.013701e+00 1.616855e+00 4.009126e+00 2.287836e+00 1.942675e+00
<GCONST> 9.995832e+01
<STATE> 4
<MEAN> 25
 -3.918141e+00 2.340123e+00 -4.453499e+00 1.919631e+00 -1.754119e+00 -5.109417e+00 5.399742e+00 7.079180e+00 9.704284e+00 6.449373e+00 -1.393707e-01 3.267451e+00 -6.786336e-01 5.973362e-01 -6.470889e-01 -5.226502e-01 -5.974218e-01 9.788083e-02 9.440413e-02 -8.711398e-01 4.041479e-01 -1.249156e-01 -5.201719e-01 3.208752e-01 -1.169642e+00
<VARIANCE> 25
 2.261967e+01 5.401349e+00 4.355307e+01 3.586069e+01 2.203621e+01 2.777374e+01 2.417896e+01 4.010502e+01 3.315339e+01 2.473637e+01 3.168463e+01 2.307816e+01 2.401989e+00 1.396606e+00 2.398221e+00 2.025976e+00 2.873808e+00 1.039140e+00 4.208388e+00 2.014786e+00 6.014907e+00 4.215659e+00 4.201149e+00 1.928902e+00 9.093922e-01
<GCONST> 9.595705e+01
<TRANSP> 5
 0.000000e+00 1.000000e+00 0.000000e+00 0.000000e+00 0.000000e+00
 0.000000e+00 8.990420e-01 1.009580e-01 0.000000e+00 0.000000e+00
 0.000000e+00 0.000000e+00 8.309747e-01 1.690253e-01 0.000000e+00
 0.000000e+00 0.000000e+00 0.000000e+00 7.957429e-01 2.042571e-01
 0.000000e+00 0.000000e+00 0.000000e+00 0.000000e+00 0.000000e+00
<ENDHMM>
~h "am"
<BEGINHMM>
<NUMSTATES> 5
<STATE> 2
<MEAN> 25
 1.708972e-09 1.090385e-09 9.580507e-09 -2.513088e-08 5.650978e-09 7.824450e-09 -1.173420e-08 8.080536e-09 -1.223684e-08 -1.003294e-08 -1.228346e-09 7.471072e-09 2.588070e-03 5.406653e-06 1.165406e-03 -2.750418e-04 1.179288e-03 -2.015027e-04 3.669178e-04 -4.334864e-04 -1.182183e-03 -4.313851e-04 -6.009767e-04 -5.740453e-04 3.089256e-03
<VARIANCE> 25
 5.950132e+01 5.523875e+01 6.957190e+01 6.306453e+01 6.882129e+01 6.596412e+01 5.749057e+01 5.935612e+01 5.307150e+01 4.762954e+01 4.650915e+01 3.710306e+01 2.306587e+00 2.816560e+00 2.879318e+00 3.320077e+00 3.620080e+00 3.535859e+00 3.444255e+00 3.604912e+00 3.328778e+00 3.069351e+00 2.973025e+00 2.428180e+00 2.668494e+00
<GCONST> 1.087549e+02
<STATE> 3
<MEAN> 25
 1.708972e-09 1.090385e-09 9.580507e-09 -2.513088e-08 5.650978e-09 7.824450e-09 -1.173420e-08 8.080536e-09 -1.223684e-08 -1.003294e-08 -1.228346e-09 7.471072e-09 2.588070e-03 5.406653e-06 1.165406e-03 -2.750418e-04 1.179288e-03 -2.015027e-04 3.669178e-04 -4.334864e-04 -1.182183e-03 -4.313851e-04 -6.009767e-04 -5.740453e-04 3.089256e-03
<VARIANCE> 25
 5.950132e+01 5.523875e+01 6.957190e+01 6.306453e+01 6.882129e+01 6.596412e+01 5.749057e+01 5.935612e+01 5.307150e+01 4.762954e+01 4.650915e+01 3.710306e+01 2.306587e+00 2.816560e+00 2.879318e+00 3.320077e+00 3.620080e+00 3.535859e+00 3.444255e+00 3.604912e+00 3.328778e+00 3.069351e+00 2.973025e+00 2.428180e+00 2.668494e+00
<GCONST> 1.087549e+02
<STATE> 4
<MEAN> 25
 1.708972e-09 1.090385e-09 9.580507e-09 -2.513088e-08 5.650978e-09 7.824450e-09 -1.173420e-08 8.080536e-09 -1.223684e-08 -1.003294e-08 -1.228346e-09 7.471072e-09 2.588070e-03 5.406653e-06 1.165406e-03 -2.750418e-04 1.179288e-03 -2.015027e-04 3.669178e-04 -4.334864e-04 -1.182183e-03 -4.313851e-04 -6.009767e-04 -5.740453e-04 3.089256e-03
<VARIANCE> 25
 5.950132e+01 5.523875e+01 6.957190e+01 6.306453e+01 6.882129e+01 6.596412e+01 5.749057e+01 5.935612e+01 5.307150e+01 4.762954e+01 4.650915e+01 3.710306e+01 2.306587e+00 2.816560e+00 2.879318e+00 3.320077e+00 3.620080e+00 3.535859e+00 3.444255e+00 3.604912e+00 3.328778e+00 3.069351e+00 2.973025e+00 2.428180e+00 2.668494e+00
<GCONST> 1.087549e+02
<TRANSP> 5
 0.000000e+00 1.000000e+00 0.000000e+00 0.000000e+00 0.000000e+00
 0.000000e+00 6.000000e-01 4.000000e-01 0.000000e+00 0.000000e+00
 0.000000e+00 0.000000e+00 6.000000e-01 4.000000e-01 0.000000e+00
 0.000000e+00 0.000000e+00 0.000000e+00 7.000000e-01 3.000000e-01
 0.000000e+00 0.000000e+00 0.000000e+00 0.000000e+00 0.000000e+00
<ENDHMM>
~h "an"
<BEGINHMM>
<NUMSTATES> 5
<STATE> 2
<MEAN> 25
 8.140967e+00 -1.200973e+00 4.156841e+00 1.400167e+00 4.552427e-01 -4.357785e-01 -1.570753e+00 9.797466e-01 -2.595660e+00 -3.140212e+00 1.524125e+00 1.394236e+00 3.384733e-01 7.387866e-01 7.309550e-01 7.549703e-01 -5.114163e-01 4.405291e-01 -8.218590e-03 -1.573888e-01 -2.768290e-02 3.810195e-01 -2.065489e-01 7.214864e-01 -8.806238e-01
<VARIANCE> 25
 2.837661e+01 4.260972e+01 6.777385e+01 7.015861e+01 8.000881e+01 5.347935e+01 4.709299e+01 8.164671e+01 5.615339e+01 4.523351e+01 2.981933e+01 1.995800e+01 2.052613e+00 3.385768e+00 3.635851e+00 3.858329e+00 4.875885e+00 3.982731e+00 3.584200e+00 8.090895e+00 3.269866e+00 3.648658e+00 3.046348e+00 2.386531e+00 1.878179e+00
<GCONST> 1.083627e+02
<STATE> 3
<MEAN> 25
 7.649477e+00 -3.867651e-01 4.819658e+00 1.850643e+00 -1.433069e-01 -4.344718e-01 -1.294713e+00 1.490569e+00 -1.745212e+00 -2.836210e+00 6.820154e-01 2.591750e+00 -2.377438e-01 5.666244e-01 6.906610e-02 3.201894e-02 9.566080e-03 1.723437e-01 2.104581e-01 3.441992e-01 2.499155e-01 2.176716e-01 -2.481622e-01 2.745845e-01 -6.156266e-01
<VARIANCE> 25
 3.298775e+01 4.649687e+01 7.782552e+01 6.773592e+01 8.967423e+01 5.138474e+01 5.569976e+01 8.292955e+01 6.667397e+01 4.080797e+01 3.035196e+01 1.932272e+01 2.284213e+00 2.845904e+00 3.524240e+00 4.018142e+00 5.660832e+00 3.921828e+00 4.127197e+00 5.027451e+00 4.105037e+00 3.594962e+00 2.809644e+00 2.498549e+00 1.586960e+00
<GCONST> 1.087662e+02
<STATE> 4
<MEAN> 25
 5.591378e+00 -3.494413e-01 4.637945e+00 2.029595e+00 1.704791e-01 -2.890256e-01 -8.146467e-01 3.981344e+00 2.301544e-02 -3.973223e+00 9.532962e-01 2.999892e+00 -6.093628e-01 3.232453e-01 -7.075099e-01 1.630192e-01 7.126316e-01 1.601281e-01 2.214046e-01 3.158597e-01 2.939632e-01 4.106208e-01 -1.052784e-01 -2.068001e-01 -8.558718e-01
<VARIANCE> 25
 2.911805e+01 3.898349e+01 7.112368e+01 6.879190e+01 7.530735e+01 4.122257e+01 6.011238e+01 7.179261e+01 6.011460e+01 5.747513e+01 2.692077e+01 2.639741e+01 2.273071e+00 3.504853e+00 2.812030e+00 3.942354e+00 5.350122e+00 2.977776e+00 5.987512e+00 6.059864e+00 4.671591e+00 4.464583e+00 1.623270e+00 2.431739e+00 1.457263e+00
<GCONST> 1.082292e+02
<TRANSP> 5
 0.000000e+00 1.000000e+00 0.000000e+00 0.000000e+00 0.000000e+00
 0.000000e+00 4.366744e-01 5.633256e-01 0.000000e+00 0.000000e+00
 0.000000e+00 0.000000e+00 4.366745e-01 5.633255e-01 0.000000e+00
 0.000000e+00 0.000000e+00 0.000000e+00 6.202343e-01 3.797657e-01
 0.000000e+00 0.000000e+00 0.000000e+00 0.000000e+00 0.000000e+00
<ENDHMM>
~h "ap"
<BEGINHMM>
<NUMSTATES> 5
<STATE> 2
<MEAN> 25
 1.708972e-09 1.090385e-09 9.580507e-09 -2.513088e-08 5.650978e-09 7.824450e-09 -1.173420e-08 8.080536e-09 -1.223684e-08 -1.003294e-08 -1.228346e-09 7.471072e-09 2.588070e-03 5.406653e-06 1.165406e-03 -2.750418e-04 1.179288e-03 -2.015027e-04 3.669178e-04 -4.334864e-04 -1.182183e-03 -4.313851e-04 -6.009767e-04 -5.740453e-04 3.089256e-03
<VARIANCE> 25
 5.950132e+01 5.523875e+01 6.957190e+01 6.306453e+01 6.882129e+01 6.596412e+01 5.749057e+01 5.935612e+01 5.307150e+01 4.762954e+01 4.650915e+01 3.710306e+01 2.306587e+00 2.816560e+00 2.879318e+00 3.320077e+00 3.620080e+00 3.535859e+00 3.444255e+00 3.604912e+00 3.328778e+00 3.069351e+00 2.973025e+00 2.428180e+00 2.668494e+00
<GCONST> 1.087549e+02
<STATE> 3
<MEAN> 25
 1.708972e-09 1.090385e-09 9.580507e-09 -2.513088e-08 5.650978e-09 7.824450e-09 -1.173420e-08 8.080536e-09 -1.223684e-08 -1.003294e-08 -1.228346e-09 7.471072e-09 2.588070e-03 5.406653e-06 1.165406e-03 -2.750418e-04 1.179288e-03 -2.015027e-04 3.669178e-04 -4.334864e-04 -1.182183e-03 -4.313851e-04 -6.009767e-04 -5.740453e-04 3.089256e-03
<VARIANCE> 25
 5.950132e+01 5.523875e+01 6.957190e+01 6.306453e+01 6.882129e+01 6.596412e+01 5.749057e+01 5.935612e+01 5.307150e+01 4.762954e+01 4.650915e+01 3.710306e+01 2.306587e+00 2.816560e+00 2.879318e+00 3.320077e+00 3.620080e+00 3.535859e+00 3.444255e+00 3.604912e+00 3.328778e+00 3.069351e+00 2.973025e+00 2.428180e+00 2.668494e+00
<GCONST> 1.087549e+02
<STATE> 4
<MEAN> 25
 1.708972e-09 1.090385e-09 9.580507e-09 -2.513088e-08 5.650978e-09 7.824450e-09 -1.173420e-08 8.080536e-09 -1.223684e-08 -1.003294e-08 -1.228346e-09 7.471072e-09 2.588070e-03 5.406653e-06 1.165406e-03 -2.750418e-04 1.179288e-03 -2.015027e-04 3.669178e-04 -4.334864e-04 -1.182183e-03 -4.313851e-04 -6.009767e-04 -5.740453e-04 3.089256e-03
<VARIANCE> 25
 5.950132e+01 5.523875e+01 6.957190e+01 6.306453e+01 6.882129e+01 6.596412e+01 5.749057e+01 5.935612e+01 5.307150e+01 4.762954e+01 4.650915e+01 3.710306e+01 2.306587e+00 2.816560e+00 2.879318e+00 3.320077e+00 3.620080e+00 3.535859e+00 3.444255e+00 3.604912e+00 3.328778e+00 3.069351e+00 2.973025e+00 2.428180e+00 2.668494e+00
<GCONST> 1.087549e+02
<TRANSP> 5
 0.000000e+00 1.000000e+00 0.000000e+00 0.000000e+00 0.000000e+00
 0.000000e+00 6.000000e-01 4.000000e-01 0.000000e+00 0.000000e+00
 0.000000e+00 0.000000e+00 6.000000e-01 4.000000e-01 0.000000e+00
 0.000000e+00 0.000000e+00 0.000000e+00 7.000000e-01 3.000000e-01
 0.000000e+00 0.000000e+00 0.000000e+00 0.000000e+00 0.000000e+00
<ENDHMM>
~h "at"
<BEGINHMM>
<NUMSTATES> 5
<STATE> 2
<MEAN> 25
 2.377601e+00 -1.980558e+00 -3.317244e+00 -2.198846e+00 -6.413101e+00 -3.092015e+00 -1.645839e-01 1.052369e+00 2.895570e-01 1.316258e+00 -1.821679e+00 1.872419e+00 -5.346223e-01 2.956671e-01 -2.792635e-01 8.727808e-01 6.094124e-01 2.445204e-03 7.001843e-02 1.203230e-01 9.794877e-01 -1.287142e-01 1.582755e-01 -3.252328e-01 -1.617122e+00
<VARIANCE> 25
 1.051785e+01 1.438891e+01 2.165569e+01 1.884146e+01 3.057607e+01 2.326082e+01 3.389628e+01 9.941502e+00 2.825055e+01 1.850998e+01 3.594703e+01 2.621115e+01 5.451807e-01 1.018675e+00 1.628280e+00 2.691484e+00 1.959609e+00 2.958976e+00 5.445868e+00 1.881788e+00 3.783406e+00 2.083560e+00 3.602853e+00 1.322356e+00 1.088687e+00
<GCONST> 9.115740e+01
<STATE> 3
<MEAN> 25
 1.074576e+00 -1.583174e+00 -3.148459e+00 -1.112977e+00 -4.780535e+00 -2.616553e+00 8.057539e-01 2.515741e-01 1.624432e+00 8.871571e-01 -1.337687e+00 9.641569e-01 -8.274087e-01 -9.454421e-02 7.889745e-02 8.954914e-01 1.044396e+00 7.009844e-01 8.912702e-01 -1.162918e-01 1.120751e+00 -2.848906e-02 7.944624e-01 -3.057736e-01 -1.853461e+00
<VARIANCE> 25
 1.097241e+01 2.056610e+01 2.220185e+01 2.325301e+01 2.666650e+01 2.793405e+01 4.069807e+01 2.181538e+01 1.719197e+01 2.480377e+01 1.177933e+01 1.376508e+01 7.755898e-01 2.034406e+00 2.112142e+00 2.928256e+00 3.019151e+00 3.032403e+00 3.228100e+00 1.332503e+00 2.713768e+00 2.172563e+00 3.235102e+00 1.470363e+00 1.665899e+00
<GCONST> 9.195417e+01
<STATE> 4
<MEAN> 25
 -4.626427e-01 -2.626848e+00 -3.352954e+00 5.322145e-04 -3.736481e+00 -2.535903e-01 2.836001e+00 -6.584032e-01 3.496102e+00 1.078246e+00 1.269911e+00 1.470215e-01 -7.302834e-01 -3.006037e-01 2.377870e-01 8.059509e-01 1.012026e+00 1.068023e+00 1.119693e+00 1.189987e-01 1.008611e+00 2.010345e-01 1.078695e+00 -1.152548e-01 -1.609251e+00
<VARIANCE> 25
 1.862732e+01 2.355280e+01 2.478595e+01 3.564102e+01 2.606951e+01 2.871081e+01 4.918526e+01 2.251829e+01 2.562490e+01 4.140623e+01 1.550266e+01 1.741905e+01 9.910610e-01 1.798971e+00 2.431418e+00 2.987859e+00 3.903806e+00 1.846474e+00 2.706434e+00 1.728980e+00 1.774065e+00 1.893592e+00 2.530127e+00 1.675291e+00 1.654185e+00
<GCONST> 9.424708e+01
<TRANSP> 5
 0.000000e+00 1.000000e+00 0.000000e+00 0.000000e+00 0.000000e+00
 0.000000e+00 2.764110e-01 7.235891e-01 0.000000e+00 0.000000e+00
 0.000000e+00 0.000000e+00 2.764109e-01 7.235891e-01 0.000000e+00
 0.000000e+00 0.000000e+00 0.000000e+00 3.238921e-01 6.761078e-01
 0.000000e+00 0.000000e+00 0.000000e+00 0.000000e+00 0.000000e+00
<ENDHMM>
~h "au"
<BEGINHMM>
<NUMSTATES> 5
<STATE> 2
<MEAN> 25
 2.736948e+00 -3.273050e+00 -1.256269e+00 -4.075721e+00 -5.824782e+00 -5.268030e+00 1.129918e+00 2.616244e+00 -5.680885e-01 -1.600200e+00 -2.065302e+00 1.201887e-01 6.103537e-01 7.901007e-01 3.246638e-01 2.816837e-01 3.168230e-02 -2.788377e-01 -7.625503e-01 3.466678e-01 1.993386e-01 -4.223624e-01 -2.387196e-01 -4.487905e-01 6.029211e-03
<VARIANCE> 25
 4.495457e+01 4.752125e+01 6.604865e+01 6.415619e+01 9.928679e+01 8.857616e+01 5.987614e+01 6.027050e+01 5.244523e+01 5.605226e+01 2.732498e+01 2.613075e+01 3.200831e+00 3.744865e+00 2.999453e+00 2.834812e+00 3.490561e+00 5.081514e+00 2.938478e+00 3.643179e+00 3.196066e+00 2.899564e+00 2.016354e+00 2.018972e+00 2.970082e+00
<GCONST> 1.083850e+02
<STATE> 3
<MEAN> 25
 2.276449e+00 -1.714438e+00 3.065772e-02 -3.000616e+00 -5.092482e+00 -4.545304e+00 -4.641539e-02 2.950169e+00 3.725609e-01 -1.638162e+00 -2.375134e+00 -5.517857e-01 -1.603879e-01 7.041466e-01 4.905282e-01 3.706316e-01 4.788673e-01 3.500535e-01 -3.353595e-01 4.151187e-01 2.619937e-01 -1.217171e-01 -5.707853e-02 -1.725397e-01 -5.346769e-01
<VARIANCE> 25
 4.523465e+01 4.188320e+01 5.674260e+01 5.740143e+01 9.617957e+01 8.060738e+01 6.096382e+01 4.503822e+01 4.215680e+01 5.186937e+01 2.463316e+01 2.873466e+01 2.621865e+00 2.968953e+00 3.020425e+00 2.950015e+00 3.737525e+00 5.058477e+00 2.538857e+00 3.222995e+00 3.116168e+00 2.663387e+00 2.134570e+00 2.234708e+00 2.851294e+00
<GCONST> 1.067153e+02
<STATE> 4
<MEAN> 25
 -1.610673e+00 -1.792953e+00 3.768739e+00 -2.788513e+00 -2.166947e+00 -2.196910e+00 3.788659e-01 3.134327e+00 2.740060e-02 1.191583e+00 -5.842536e-01 -1.473268e-02 -3.324817e-01 3.027360e-01 1.452285e-01 2.867437e-01 4.122658e-01 3.710873e-01 7.359777e-02 2.081210e-01 2.482367e-01 1.584433e-01 1.184526e-01 1.729787e-01 -5.219332e-01
<VARIANCE> 25
 6.590607e+01 4.370565e+01 5.914606e+01 3.706133e+01 7.248569e+01 6.952911e+01 6.245079e+01 4.035384e+01 3.473367e+01 4.922723e+01 2.906538e+01 2.579960e+01 3.277290e+00 3.250591e+00 3.610288e+00 3.053160e+00 3.998494e+00 5.367180e+00 2.917745e+00 3.561488e+00 3.005731e+00 3.368414e+00 2.159085e+00 2.224569e+00 3.297669e+00
<GCONST> 1.072769e+02
<TRANSP> 5
 0.000000e+00 1.000000e+00 0.000000e+00 0.000000e+00 0.000000e+00
 0.000000e+00 4.838422e-01 5.161579e-01 0.000000e+00 0.000000e+00
 0.000000e+00 0.000000e+00 4.838422e-01 5.161578e-01 0.000000e+00
 0.000000e+00 0.000000e+00 0.000000e+00 7.744325e-01 2.255674e-01
 0.000000e+00 0.000000e+00 0.000000e+00 0.000000e+00 0.000000e+00
<ENDHMM>
~h "aw"
<BEGINHMM>
<NUMSTATES> 5
<STATE> 2
<MEAN> 25
 5.815204e+00 -5.681466e+00 -5.541752e+00 -1.033218e+01 -8.038902e-02 3.765608e+00 -7.709694e-01 -5.140135e-02 3.592951e+00 3.803823e+00 -1.277650e+00 -4.406783e+00 4.787167e-01 2.016661e-01 -4.686624e-01 -1.214839e+00 2.719474e-01 1.434244e+00 -3.143135e-01 -6.081184e-01 -5.112192e-01 4.728279e-01 7.082402e-01 -1.680011e-01 -1.381044e-01
<VARIANCE> 25
 2.390399e+01 5.291560e+01 4.527593e+01 5.789505e+01 7.111537e+01 8.030538e+01 8.509176e+01 4.479679e+01 5.496609e+01 5.331088e+01 4.624850e+01 3.515850e+01 9.060161e-01 1.653501e+00 2.223145e+00 2.611102e+00 2.982351e+00 3.356067e+00 2.930096e+00 3.594124e+00 2.890293e+00 2.822432e+00 2.990033e+00 2.665049e+00 7.954916e-01
<GCONST> 1.040002e+02
<STATE> 3
<MEAN> 25
 8.123058e+00 1.551573e+00 -5.391384e+00 -1.423829e+01 -3.153080e+00 9.622244e+00 -2.004637e+00 -3.087133e+00 -1.695720e+00 1.315717e+00 2.989724e+00 8.588411e-01 8.757383e-03 8.332277e-01 1.839771e-01 4.961634e-01 -2.206459e-01 -1.945524e-01 1.183664e-01 -6.628796e-02 -3.244637e-01 -3.620934e-01 -2.216373e-02 4.168336e-01 -7.685177e-01
<VARIANCE> 25
 1.473668e+01 3.704097e+01 3.250233e+01 5.340454e+01 4.993553e+01 5.625760e+01 4.986750e+01 3.389334e+01 4.309242e+01 4.188881e+01 3.559761e+01 3.084613e+01 4.765462e-01 1.100807e+00 1.003877e+00 2.605205e+00 2.054089e+00 2.012024e+00 2.151122e+00 1.783367e+00 2.363761e+00 2.053453e+00 1.771573e+00 1.946415e+00 5.908674e-01
<GCONST> 9.495259e+01
<STATE> 4
<MEAN> 25
 3.700991e-01 3.674785e+00 -2.770103e+00 -1.233563e-01 1.138002e+00 3.640286e+00 6.951866e-01 1.126987e-01 3.422610e-01 4.656184e-02 -1.032344e-01 -1.062760e+00 -6.255279e-01 4.370973e-03 3.563589e-01 9.493811e-01 4.465621e-01 -2.719720e-01 1.623847e-01 1.437047e-01 1.220462e-01 -5.380420e-02 -1.757834e-01 4.641936e-02 -5.344083e-01
<VARIANCE> 25
 1.261373e+02 5.141655e+01 7.633048e+01 1.382823e+02 1.176167e+02 1.512324e+02 1.093421e+02 9.532235e+01 9.327182e+01 1.003119e+02 1.089272e+02 6.211184e+01 1.325404e+00 1.898020e+00 2.599634e+00 4.080769e+00 3.886732e+00 4.312327e+00 3.952579e+00 4.102036e+00 3.743828e+00 3.617908e+00 4.108191e+00 3.058093e+00 1.743225e+00
<GCONST> 1.155716e+02
<TRANSP> 5
 0.000000e+00 1.000000e+00 0.000000e+00 0.000000e+00 0.000000e+00
 0.000000e+00 6.404917e-01 3.595084e-01 0.000000e+00 0.000000e+00
 0.000000e+00 0.000000e+00 8.505264e-01 1.494736e-01 0.000000e+00
 0.000000e+00 0.000000e+00 0.000000e+00 6.710716e-01 3.289283e-01
 0.000000e+00 0.000000e+00 0.000000e+00 0.000000e+00 0.000000e+00
<ENDHMM>
~h "ay"
<BEGINHMM>
<NUMSTATES> 5
<STATE> 2
<MEAN> 25
 3.382612e+00 -9.168981e+00 -7.576158e-01 -3.706005e+00 -4.345581e+00 -5.558278e+00 3.050702e+00 7.382156e+00 2.843140e+00 -2.665565e+00 -1.887568e+00 -1.937737e+00 -2.530775e-01 2.558386e-02 1.463012e+00 -2.307563e-02 -1.544988e+00 -7.184830e-01 4.653856e-01 3.426707e-01 -7.995866e-01 4.399528e-02 9.485373e-01 4.633830e-01 5.118862e-02
<VARIANCE> 25
 1.032742e+01 2.239648e+01 4.136407e+01 2.586467e+01 4.798362e+01 4.887946e+01 4.761785e+01 5.035742e+01 4.789656e+01 3.670615e+01 4.335517e+01 3.399373e+01 4.038166e-01 1.459607e+00 1.886353e+00 1.493549e+00 2.331101e+00 2.358495e+00 2.407332e+00 3.312714e+00 2.332504e+00 2.932251e+00 2.673876e+00 2.067616e+00 3.725418e-01
<GCONST> 9.560912e+01
<STATE> 3
<MEAN> 25
 1.443386e+00 -2.163139e+00 9.204149e+00 -2.970986e+00 -1.149817e+01 -5.820360e+00 7.205485e-01 9.361463e-01 -2.304535e+00 1.168955e+00 2.833466e+00 4.082040e-01 -1.669214e-01 1.003722e+00 2.127211e-01 5.172998e-01 3.141508e-01 5.082194e-01 -3.482988e-01 -7.494481e-01 -2.480360e-01 2.072495e-01 -9.382843e-02 1.288044e-01 -1.115227e+00
<VARIANCE> 25
 1.174063e+01 3.165899e+01 4.792648e+01 4.146576e+01 3.902264e+01 5.375629e+01 5.384698e+01 6.269991e+01 4.440485e+01 4.027640e+01 4.409129e+01 2.649391e+01 5.435029e-01 1.177931e+00 3.109661e+00 1.950015e+00 2.864536e+00 2.233902e+00 2.787471e+00 3.462264e+00 3.148798e+00 2.504450e+00 2.440178e+00 1.840263e+00 1.041142e+00
<GCONST> 9.887193e+01
<STATE> 4
<MEAN> 25
 -2.916169e-01 8.315462e-01 2.364798e+00 8.915943e-01 -2.858126e+00 -1.062237e+00 8.053645e-01 -2.950457e-01 -5.293131e-01 7.712183e-01 6.804674e-01 1.128362e+00 -9.712380e-02 1.239662e-01 -1.376648e-01 2.035225e-01 3.206324e-01 1.640138e-01 -6.247930e-02 -4.031920e-02 4.039264e-02 1.737098e-02 -2.571109e-02 1.668102e-02 -3.360024e-01
<VARIANCE> 25
 1.282515e+01 2.150632e+01 2.873902e+01 2.502044e+01 4.626389e+01 3.048801e+01 3.349469e+01 3.659018e+01 3.045110e+01 2.654593e+01 2.661783e+01 1.994011e+01 2.862262e-01 6.357510e-01 9.917079e-01 1.025199e+00 1.589081e+00 1.427517e+00 1.679846e+00 1.709116e+00 1.680138e+00 1.707003e+00 1.552289e+00 1.253256e+00 3.603707e-01
<GCONST> 8.636167e+01
<TRANSP> 5
 0.000000e+00 1.000000e+00 0.000000e+00 0.000000e+00 0.000000e+00
 0.000000e+00 7.833640e-01 2.166360e-01 0.000000e+00 0.000000e+00
 0.000000e+00 0.000000e+00 8.045333e-01 1.954667e-01 0.000000e+00
 0.000000e+00 0.000000e+00 0.000000e+00 7.873656e-01 2.126344e-01
 0.000000e+00 0.000000e+00 0.000000e+00 0.000000e+00 0.000000e+00
<ENDHMM>
~h "be"
<BEGINHMM>
<NUMSTATES> 5
<STATE> 2
<MEAN> 25
 2.384419e+00 3.842530e-01 -2.002782e+00 -4.106955e+00 -5.715768e+00 -4.880482e+00 6.785457e-01 4.802572e+00 3.044492e+00 -1.162850e+00 -2.722182e+00 -2.593838e+00 -1.750686e-01 -2.591278e-01 -2.507726e-01 -1.424712e-01 2.969535e-02 7.069438e-02 2.273525e-02 -2.743920e-02 -1.163793e-01 -1.388443e-01 -2.378327e-01 -1.736037e-01 -7.032517e-02
<VARIANCE> 25
 2.666755e+01 2.668575e+01 3.652076e+01 2.532407e+01 3.557663e+01 3.988523e+01 2.318976e+01 4.299155e+01 4.864162e+01 4.665454e+01 8.936360e+01 4.152427e+01 8.840313e-01 5.618882e-01 8.747242e-01 1.136048e+00 2.803159e+00 3.967784e+00 2.530767e+00 4.051494e+00 2.173548e+00 2.954872e+00 2.937545e+00 1.680905e+00 2.698869e-01
<GCONST> 9.563031e+01
<STATE> 3
<MEAN> 25
 2.083067e+00 3.298560e+00 3.522007e+00 7.598006e-01 -3.942883e+00 -4.153180e+00 -8.131919e-02 9.877701e-01 5.709690e-01 1.915023e+00 2.937780e+00 2.510861e+00 -1.191277e-01 -1.036709e-01 -8.970019e-02 3.485647e-03 1.071349e-01 1.013553e-01 1.644152e-01 3.034060e-01 2.462963e-01 -5.216992e-02 -1.146023e-01 3.818125e-03 -5.885762e-02
<VARIANCE> 25
 1.398691e+01 7.296876e+00 1.199334e+01 1.458845e+01 6.195082e+01 5.015706e+01 2.992567e+01 5.543289e+01 2.828314e+01 2.333617e+01 2.641139e+01 1.766941e+01 7.093149e-01 3.836077e-01 7.045250e-01 8.432924e-01 2.750426e+00 2.742134e+00 2.597486e+00 2.649098e+00 2.161368e+00 2.705596e+00 1.708933e+00 1.297667e+00 2.727594e-01
<GCONST> 8.722070e+01
<STATE> 4
<MEAN> 25
 -1.178214e+01 1.154192e+00 -3.149845e+00 8.180076e+00 7.003499e+00 -7.342702e-03 7.851379e+00 2.600022e+00 1.257241e+00 -7.265415e-01 -1.990140e-01 4.117938e+00 -1.386692e-02 1.139747e-01 1.583008e-01 1.774920e-01 1.326357e-01 2.863190e-01 2.123224e-01 -6.893668e-02 -1.870222e-01 -2.112328e-01 -1.596221e-01 -1.351038e-01 -4.467205e-02
<VARIANCE> 25
 3.589529e+01 2.910844e+00 2.933105e+00 2.307848e+01 1.601530e+01 1.183343e+01 2.629872e+01 1.862765e+01 2.084972e+01 7.126783e+00 1.371004e+01 1.314306e+01 1.858901e-01 3.260644e-01 4.036524e-01 6.394532e-01 6.196633e-01 7.219023e-01 1.304011e+00 1.128449e+00 7.591167e-01 4.603262e-01 1.230774e+00 1.233702e+00 3.763144e-02
<GCONST> 6.795536e+01
<TRANSP> 5
 0.000000e+00 1.000000e+00 0.000000e+00 0.000000e+00 0.000000e+00
 0.000000e+00 9.417247e-01 5.827527e-02 0.000000e+00 0.000000e+00
 0.000000e+00 0.000000e+00 9.524654e-01 4.753465e-02 0.000000e+00
 0.000000e+00 0.000000e+00 0.000000e+00 7.366539e-01 2.633461e-01
 0.000000e+00 0.000000e+00 0.000000e+00 0.000000e+00 0.000000e+00
<ENDHMM>
~h "br"
<BEGINHMM>
<NUMSTATES> 5
<STATE> 2
<MEAN> 25
 -1.160794e+00 4.723683e+00 6.188121e-01 -6.922987e-02 3.360982e+00 1.476730e+00 3.176989e-01 4.537762e-01 -4.996815e-01 2.509583e+00 4.504300e+00 3.857390e+00 9.850870e-02 7.047950e-01 1.133282e+00 4.863794e-01 -4.718263e-01 -8.643379e-01 2.810533e-02 1.877129e-01 8.706177e-01 1.074239e+00 -3.594671e-01 -5.828839e-01 -2.184589e-02
<VARIANCE> 25
 4.526463e+01 3.797835e+01 1.916594e+01 7.908733e+00 1.594923e+01 1.588598e+01 7.046270e+01 5.297803e+01 1.185323e+01 3.312402e+01 2.860686e+01 2.772926e+01 3.402858e+00 4.596343e+00 4.495181e+00 1.532299e+00 5.071220e+00 3.164390e+00 2.334392e+00 2.772815e+00 7.944747e-01 8.303760e-01 3.125706e+00 3.031913e+00 7.885254e-01
<GCONST> 9.574451e+01
<STATE> 3
<MEAN> 25
 1.651582e-01 5.789612e+00 2.484445e+00 6.552396e-01 2.977612e+00 4.473125e-01 -3.713600e-01 4.420797e-01 3.702041e-01 3.105558e+00 2.604683e+00 3.004943e+00 9.319807e-01 1.893086e-01 3.909019e-02 -8.640078e-02 -3.274629e-01 -9.354872e-01 -5.808926e-01 -3.804404e-01 3.990906e-01 9.411126e-01 1.394740e-02 -5.437986e-01 6.618836e-01
<VARIANCE> 25
 3.238241e+01 3.179625e+01 1.420678e+01 1.668041e+01 2.596240e+01 1.650588e+01 4.491609e+01 3.145193e+01 1.308085e+01 2.613153e+01 5.990712e+01 1.485605e+01 3.907617e+00 3.465628e+00 4.025526e+00 1.333750e+00 3.356072e+00 1.716282e+00 3.502553e+00 5.051105e+00 9.348932e-01 3.308599e+00 2.542435e+00 1.795104e+00 1.031719e+00
<GCONST> 9.588009e+01
<STATE> 4
<MEAN> 25
 1.172915e+00 5.870431e+00 1.878780e+00 8.970768e-02 2.140584e+00 -6.561458e-01 5.920849e-01 8.978638e-01 1.726730e+00 3.629468e+00 2.274634e+00 2.069221e+00 1.371552e+00 -7.350789e-01 -1.639291e+00 -7.077700e-01 -5.219261e-01 -5.813952e-01 -7.567105e-01 -1.353280e+00 -1.966642e-01 8.990879e-01 1.220261e+00 7.950065e-03 1.061840e+00
<VARIANCE> 25
 3.095263e+01 2.508738e+01 1.209059e+01 2.013112e+01 3.223891e+01 2.344664e+01 3.631388e+01 2.227830e+01 1.087634e+01 1.578960e+01 2.229143e+01 1.489899e+01 1.110419e+00 2.549817e+00 2.879923e+00 5.629560e-01 2.659256e+00 3.601330e+00 5.671069e+00 4.726827e+00 2.153510e+00 3.575201e+00 3.119903e+00 2.476668e+00 4.949468e-01
<GCONST> 9.282607e+01
<TRANSP> 5
 0.000000e+00 1.000000e+00 0.000000e+00 0.000000e+00 0.000000e+00
 0.000000e+00 2.818448e-01 7.181551e-01 0.000000e+00 0.000000e+00
 0.000000e+00 0.000000e+00 2.818461e-01 7.181539e-01 0.000000e+00
 0.000000e+00 0.000000e+00 0.000000e+00 3.331901e-01 6.668099e-01
 0.000000e+00 0.000000e+00 0.000000e+00 0.000000e+00 0.000000e+00
<ENDHMM>
~h "bu"
<BEGINHMM>
<NUMSTATES> 5
<STATE> 2
<MEAN> 25
 1.708972e-09 1.090385e-09 9.580507e-09 -2.513088e-08 5.650978e-09 7.824450e-09 -1.173420e-08 8.080536e-09 -1.223684e-08 -1.003294e-08 -1.228346e-09 7.471072e-09 2.588070e-03 5.406653e-06 1.165406e-03 -2.750418e-04 1.179288e-03 -2.015027e-04 3.669178e-04 -4.334864e-04 -1.182183e-03 -4.313851e-04 -6.009767e-04 -5.740453e-04 3.089256e-03
<VARIANCE> 25
 5.950132e+01 5.523875e+01 6.957190e+01 6.306453e+01 6.882129e+01 6.596412e+01 5.749057e+01 5.935612e+01 5.307150e+01 4.762954e+01 4.650915e+01 3.710306e+01 2.306587e+00 2.816560e+00 2.879318e+00 3.320077e+00 3.620080e+00 3.535859e+00 3.444255e+00 3.604912e+00 3.328778e+00 3.069351e+00 2.973025e+00 2.428180e+00 2.668494e+00
<GCONST> 1.087549e+02
<STATE> 3
<MEAN> 25
 1.708972e-09 1.090385e-09 9.580507e-09 -2.513088e-08 5.650978e-09 7.824450e-09 -1.173420e-08 8.080536e-09 -1.223684e-08 -1.003294e-08 -1.228346e-09 7.471072e-09 2.588070e-03 5.406653e-06 1.165406e-03 -2.750418e-04 1.179288e-03 -2.015027e-04 3.669178e-04 -4.334864e-04 -1.182183e-03 -4.313851e-04 -6.009767e-04 -5.740453e-04 3.089256e-03
<VARIANCE> 25
 5.950132e+01 5.523875e+01 6.957190e+01 6.306453e+01 6.882129e+01 6.596412e+01 5.749057e+01 5.935612e+01 5.307150e+01 4.762954e+01 4.650915e+01 3.710306e+01 2.306587e+00 2.816560e+00 2.879318e+00 3.320077e+00 3.620080e+00 3.535859e+00 3.444255e+00 3.604912e+00 3.328778e+00 3.069351e+00 2.973025e+00 2.428180e+00 2.668494e+00
<GCONST> 1.087549e+02
<STATE> 4
<MEAN> 25
 1.708972e-09 1.090385e-09 9.580507e-09 -2.513088e-08 5.650978e-09 7.824450e-09 -1.173420e-08 8.080536e-09 -1.223684e-08 -1.003294e-08 -1.228346e-09 7.471072e-09 2.588070e-03 5.406653e-06 1.165406e-03 -2.750418e-04 1.179288e-03 -2.015027e-04 3.669178e-04 -4.334864e-04 -1.182183e-03 -4.313851e-04 -6.009767e-04 -5.740453e-04 3.089256e-03
<VARIANCE> 25
 5.950132e+01 5.523875e+01 6.957190e+01 6.306453e+01 6.882129e+01 6.596412e+01 5.749057e+01 5.935612e+01 5.307150e+01 4.762954e+01 4.650915e+01 3.710306e+01 2.306587e+00 2.816560e+00 2.879318e+00 3.320077e+00 3.620080e+00 3.535859e+00 3.444255e+00 3.604912e+00 3.328778e+00 3.069351e+00 2.973025e+00 2.428180e+00 2.668494e+00
<GCONST> 1.087549e+02
<TRANSP> 5
 0.000000e+00 1.000000e+00 0.000000e+00 0.000000e+00 0.000000e+00
 0.000000e+00 6.000000e-01 4.000000e-01 0.000000e+00 0.000000e+00
 0.000000e+00 0.000000e+00 6.000000e-01 4.000000e-01 0.000000e+00
 0.000000e+00 0.000000e+00 0.000000e+00 7.000000e-01 3.000000e-01
 0.000000e+00 0.000000e+00 0.000000e+00 0.000000e+00 0.000000e+00
<ENDHMM>
~h "ce"
<BEGINHMM>
<NUMSTATES> 5
<STATE> 2
