~o
<STREAMINFO> 1 25
<VECSIZE> 25<NULLD><MFCC_D_N_Z_0><DIAGC>
~h "@"
<BEGINHMM>
<NUMSTATES> 5
<STATE> 2
<MEAN> 25
 3.617520e-01 -1.589551e-02 -2.201477e-02 -2.115122e-02 -9.345157e-02 -2.943826e-01 -2.381416e-01 -2.057280e-01 1.535486e-01 9.657898e-02 -1.878246e-02 -1.185118e-01 2.152362e-02 -9.098823e-03 6.718444e-03 -4.868871e-03 -7.880935e-03 -7.874712e-03 -2.064756e-03 -1.688062e-03 -6.052829e-03 -3.036014e-03 -7.581165e-03 -7.577989e-03 2.659394e-02
<VARIANCE> 25
 6.032248e+01 5.605387e+01 6.719530e+01 6.107290e+01 6.823769e+01 6.671095e+01 5.858282e+01 5.960113e+01 5.310460e+01 4.770147e+01 4.630579e+01 3.705841e+01 2.601402e+00 3.075407e+00 2.988579e+00 3.496789e+00 3.779105e+00 3.756122e+00 3.652121e+00 3.775117e+00 3.467889e+00 3.209673e+00 3.081900e+00 2.506678e+00 2.974594e+00
<GCONST> 1.095062e+02
<STATE> 3
<MEAN> 25
 4.123388e-01 -3.730304e-02 -6.200152e-03 -3.227596e-02 -1.067412e-01 -3.113104e-01 -2.401388e-01 -2.075715e-01 1.375105e-01 8.959203e-02 -3.732862e-02 -1.355260e-01 1.838334e-02 -8.311426e-03 5.289780e-03 -4.766187e-03 -4.492640e-03 -5.166363e-03 -3.419814e-04 -2.529297e-04 -6.317062e-03 -2.920417e-03 -6.952187e-03 -6.085967e-03 2.228903e-02
<VARIANCE> 25
 5.981725e+01 5.611643e+01 6.731539e+01 6.091518e+01 6.824974e+01 6.661626e+01 5.857784e+01 5.966078e+01 5.318971e+01 4.775436e+01 4.635998e+01 3.706316e+01 2.588675e+00 3.074871e+00 2.992175e+00 3.497964e+00 3.777641e+00 3.753854e+00 3.648474e+00 3.775910e+00 3.466979e+00 3.211207e+00 3.083215e+00 2.506710e+00 2.967492e+00
<GCONST> 1.094947e+02
<STATE> 4
<MEAN> 25
 4.907247e-01 -7.936767e-02 3.504372e-02 -5.174455e-02 -1.211651e-01 -3.292319e-01 -2.396345e-01 -2.009601e-01 1.088678e-01 8.442115e-02 -6.270055e-02 -1.548141e-01 1.320675e-02 -6.348276e-03 3.301162e-03 -3.100587e-03 -1.839820e-04 -1.308804e-03 1.485936e-03 1.136238e-03 -5.757464e-03 -2.704491e-03 -5.944171e-03 -3.952828e-03 1.520591e-02
<VARIANCE> 25
 5.908295e+01 5.606342e+01 6.746161e+01 6.082736e+01 6.824313e+01 6.620037e+01 5.844926e+01 5.923278e+01 5.316672e+01 4.788665e+01 4.622192e+01 3.708134e+01 2.513995e+00 3.026306e+00 2.951229e+00 3.442041e+00 3.716210e+00 3.698021e+00 3.599940e+00 3.713068e+00 3.421439e+00 3.175404e+00 3.042067e+00 2.481888e+00 2.919973e+00
<GCONST> 1.092656e+02
<TRANSP> 5
 0.000000e+00 1.000000e+00 0.000000e+00 0.000000e+00 0.000000e+00
 0.000000e+00 6.135621e-01 3.864379e-01 0.000000e+00 0.000000e+00
 0.000000e+00 0.000000e+00 6.135663e-01 3.864337e-01 0.000000e+00
 0.000000e+00 0.000000e+00 0.000000e+00 7.263969e-01 2.736031e-01
 0.000000e+00 0.000000e+00 0.000000e+00 0.000000e+00 0.000000e+00
<ENDHMM>
~h "a"
<BEGINHMM>
<NUMSTATES> 5
<STATE> 2
<MEAN> 25
 4.080888e-01 -6.187061e-01 -3.955753e-01 -2.649183e-01 1.073650e-01 -5.678292e-02 1.179885e-01 3.450857e-01 1.705660e-01 -1.075965e-01 -3.342238e-01 -2.092817e-01 4.293043e-04 5.525485e-03 1.630832e-03 3.952877e-03 3.604359e-03 1.016760e-03 1.717949e-03 -3.670023e-03 -1.525884e-03 -2.328354e-04 9.590788e-04 1.242186e-03 -4.513468e-03
<VARIANCE> 25
 5.683621e+01 5.663229e+01 6.864675e+01 6.143094e+01 6.851906e+01 6.486415e+01 5.675027e+01 5.949034e+01 5.262594e+01 4.776174e+01 4.710180e+01 3.743977e+01 2.317274e+00 2.944200e+00 2.889435e+00 3.308363e+00 3.612104e+00 3.519224e+00 3.429695e+00 3.659652e+00 3.343701e+00 3.094230e+00 3.012388e+00 2.462064e+00 2.748020e+00
<GCONST> 1.088003e+02
<STATE> 3
<MEAN> 25
 4.044306e-01 -5.996072e-01 -3.907986e-01 -2.505436e-01 1.178412e-01 -5.296470e-02 1.215878e-01 3.347768e-01 1.655291e-01 -1.065276e-01 -3.293947e-01 -2.037464e-01 -3.723863e-03 1.038350e-02 3.139125e-03 6.665614e-03 3.581458e-03 1.838826e-03 1.391631e-03 -5.472989e-03 -2.567946e-03 9.149367e-04 3.756641e-03 2.933863e-03 -1.206239e-02
<VARIANCE> 25
 5.665525e+01 5.654370e+01 6.864851e+01 6.141801e+01 6.851736e+01 6.479993e+01 5.676564e+01 5.944241e+01 5.260368e+01 4.775847e+01 4.707212e+01 3.741000e+01 2.311429e+00 2.931255e+00 2.883042e+00 3.300087e+00 3.602345e+00 3.512339e+00 3.426260e+00 3.652242e+00 3.340612e+00 3.090419e+00 3.008154e+00 2.459072e+00 2.733347e+00
<GCONST> 1.087624e+02
<STATE> 4
<MEAN> 25
 4.047291e-01 -5.523577e-01 -3.569309e-01 -2.350630e-01 1.229287e-01 -6.167466e-02 1.028523e-01 2.934414e-01 1.544316e-01 -9.652050e-02 -3.094958e-01 -1.865367e-01 -7.823698e-03 1.353874e-02 4.232177e-03 8.364781e-03 3.349775e-03 2.514249e-03 1.106652e-03 -6.556149e-03 -3.336649e-03 1.946487e-03 5.689966e-03 4.476706e-03 -1.816827e-02
<VARIANCE> 25
 5.686248e+01 5.706388e+01 6.903424e+01 6.225602e+01 6.844779e+01 6.488818e+01 5.679251e+01 5.951030e+01 5.300080e+01 4.812035e+01 4.725609e+01 3.772795e+01 2.252193e+00 2.877728e+00 2.853377e+00 3.261906e+00 3.544733e+00 3.473991e+00 3.391835e+00 3.611478e+00 3.309484e+00 3.067862e+00 2.981747e+00 2.441050e+00 2.684395e+00
<GCONST> 1.086580e+02
<TRANSP> 5
 0.000000e+00 1.000000e+00 0.000000e+00 0.000000e+00 0.000000e+00
 0.000000e+00 6.159935e-01 3.840065e-01 0.000000e+00 0.000000e+00
 0.000000e+00 0.000000e+00 6.159955e-01 3.840044e-01 0.000000e+00
 0.000000e+00 0.000000e+00 0.000000e+00 7.359030e-01 2.640970e-01
 0.000000e+00 0.000000e+00 0.000000e+00 0.000000e+00 0.000000e+00
<ENDHMM>
~h "b"
<BEGINHMM>
<NUMSTATES> 5
<STATE> 2
<MEAN> 25
 6.749066e-01 5.359257e-01 1.032419e-01 -5.110016e-02 -1.557366e-01 -1.170934e-01 -6.119708e-01 -3.283592e-01 -4.134873e-02 5.973497e-03 1.202345e-01 -1.910349e-01 1.620831e-02 -1.228119e-03 9.396637e-03 -3.750914e-03 -1.724021e-02 -1.071417e-02 -9.674574e-03 3.455942e-04 2.444974e-03 -1.619025e-03 -1.269592e-03 -5.467159e-03 2.343674e-02
<VARIANCE> 25
 5.918156e+01 5.613463e+01 6.654887e+01 6.382650e+01 6.580057e+01 6.617825e+01 5.866249e+01 5.981050e+01 5.363066e+01 4.932997e+01 4.628420e+01 3.739161e+01 2.229629e+00 3.073203e+00 2.912869e+00 3.547350e+00 3.686974e+00 3.634732e+00 3.679718e+00 3.758729e+00 3.520656e+00 3.317203e+00 3.141200e+00 2.555976e+00 2.788604e+00
<GCONST> 1.093367e+02
<STATE> 3
<MEAN> 25
 7.155920e-01 5.295999e-01 1.250184e-01 -6.004782e-02 -1.979250e-01 -1.438114e-01 -6.324382e-01 -3.284937e-01 -3.527929e-02 4.337487e-03 1.155222e-01 -2.048888e-01 1.231363e-02 -3.930426e-03 7.837337e-03 -3.581238e-03 -1.655994e-02 -9.591804e-03 -5.808995e-03 1.608060e-03 2.388921e-03 -3.396495e-04 -1.624893e-03 -4.531549e-03 2.207840e-02
<VARIANCE> 25
 5.866628e+01 5.621791e+01 6.646144e+01 6.372476e+01 6.577358e+01 6.605926e+01 5.874635e+01 5.982436e+01 5.365083e+01 4.937357e+01 4.642011e+01 3.749415e+01 2.228286e+00 3.078384e+00 2.916554e+00 3.554378e+00 3.685669e+00 3.638246e+00 3.678476e+00 3.763596e+00 3.526680e+00 3.325553e+00 3.144091e+00 2.566061e+00 2.792532e+00
<GCONST> 1.093493e+02
<STATE> 4
<MEAN> 25
 6.470997e-01 4.233648e-01 1.393327e-01 -4.593478e-02 -2.079930e-01 -1.981150e-01 -5.320624e-01 -3.256351e-01 -2.520277e-03 -2.887439e-02 6.069628e-02 -1.760900e-01 8.352187e-03 -5.676646e-03 4.584965e-03 -2.355472e-03 -1.083334e-02 -7.435404e-03 -9.480640e-04 3.263878e-03 2.238784e-03 8.527945e-04 -2.175272e-03 -2.896107e-03 1.764839e-02
<VARIANCE> 25
 5.960353e+01 6.040857e+01 7.077410e+01 6.795988e+01 6.666621e+01 6.938547e+01 5.840628e+01 6.478744e+01 5.848380e+01 5.032569e+01 4.871448e+01 4.102938e+01 2.199681e+00 3.033917e+00 2.944910e+00 3.563059e+00 3.617476e+00 3.606885e+00 3.610912e+00 3.855057e+00 3.494720e+00 3.293638e+00 3.157136e+00 2.623804e+00 2.801026e+00
<GCONST> 1.099180e+02
<TRANSP> 5
 0.000000e+00 1.000000e+00 0.000000e+00 0.000000e+00 0.000000e+00
 0.000000e+00 6.151188e-01 3.848812e-01 0.000000e+00 0.000000e+00
 0.000000e+00 0.000000e+00 6.151093e-01 3.848906e-01 0.000000e+00
 0.000000e+00 0.000000e+00 0.000000e+00 7.659292e-01 2.340708e-01
 0.000000e+00 0.000000e+00 0.000000e+00 0.000000e+00 0.000000e+00
<ENDHMM>
~h "c"
<BEGINHMM>
<NUMSTATES> 5
<STATE> 2
<MEAN> 25
 -6.635711e-01 5.586841e-02 2.888030e-01 -8.454655e-03 -1.996794e-01 -4.400082e-01 2.397306e-01 -3.680806e-02 1.217914e-01 1.686496e-02 2.580746e-01 1.974512e-01 2.838542e-02 -1.221364e-02 -8.396281e-03 -1.495207e-02 -1.280885e-02 -4.003023e-03 -3.786711e-03 2.258255e-03 -1.396824e-03 -1.070264e-02 -9.282453e-03 -8.989668e-03 2.479610e-02
<VARIANCE> 25
 6.519763e+01 6.040091e+01 6.968221e+01 6.133379e+01 6.948072e+01 6.769266e+01 5.619999e+01 6.029026e+01 5.379470e+01 4.753804e+01 4.852003e+01 3.667344e+01 3.492902e+00 3.278211e+00 3.330180e+00 3.496969e+00 3.861111e+00 3.846066e+00 3.468952e+00 3.709110e+00 3.444485e+00 3.174065e+00 3.047191e+00 2.480732e+00 2.991654e+00
<GCONST> 1.101565e+02
<STATE> 3
<MEAN> 25
 -5.836244e-01 2.876837e-02 2.685480e-01 -4.317653e-02 -2.332088e-01 -4.532254e-01 2.370268e-01 -3.470882e-02 1.143297e-01 -8.258127e-03 2.347131e-01 1.732837e-01 3.502392e-02 -1.554347e-02 -9.685680e-03 -1.163343e-02 -1.358022e-02 -9.818993e-04 -3.870316e-03 2.239957e-03 -9.860941e-04 -1.115903e-02 -1.256323e-02 -1.017832e-02 1.736580e-02
<VARIANCE> 25
 6.454007e+01 6.055252e+01 6.978262e+01 6.135025e+01 6.933694e+01 6.790508e+01 5.604092e+01 6.036905e+01 5.376686e+01 4.760626e+01 4.851256e+01 3.661160e+01 3.470198e+00 3.294860e+00 3.322977e+00 3.496917e+00 3.856448e+00 3.835602e+00 3.463398e+00 3.712751e+00 3.439418e+00 3.181617e+00 3.048364e+00 2.471430e+00 2.964776e+00
<GCONST> 1.101295e+02
<STATE> 4
<MEAN> 25
 -3.808925e-01 -1.610165e-02 2.899293e-01 -4.589887e-02 -3.416741e-01 -4.684351e-01 2.172595e-01 -9.688948e-02 6.879884e-02 -3.034828e-02 1.983280e-01 1.186044e-01 3.469214e-02 -1.501598e-02 -1.157794e-02 -9.470150e-03 -1.029491e-02 3.460898e-03 -2.938841e-03 2.027482e-03 7.225941e-04 -5.837797e-03 -1.252361e-02 -9.507079e-03 8.308300e-03
<VARIANCE> 25
 6.307872e+01 6.023258e+01 6.957684e+01 6.120535e+01 7.056180e+01 6.918211e+01 5.601727e+01 5.987966e+01 5.392188e+01 4.762333e+01 4.826468e+01 3.681200e+01 3.288171e+00 3.225315e+00 3.246672e+00 3.423753e+00 3.795495e+00 3.769233e+00 3.411128e+00 3.648638e+00 3.396899e+00 3.145658e+00 3.005979e+00 2.442385e+00 2.873875e+00
<GCONST> 1.098607e+02
<TRANSP> 5
 0.000000e+00 1.000000e+00 0.000000e+00 0.000000e+00 0.000000e+00
 0.000000e+00 6.165642e-01 3.834358e-01 0.000000e+00 0.000000e+00
 0.000000e+00 0.000000e+00 6.165601e-01 3.834398e-01 0.000000e+00
 0.000000e+00 0.000000e+00 0.000000e+00 7.311557e-01 2.688443e-01
 0.000000e+00 0.000000e+00 0.000000e+00 0.000000e+00 0.000000e+00
<ENDHMM>
~h "d"
<BEGINHMM>
<NUMSTATES> 5
<STATE> 2
<MEAN> 25
 4.825453e-01 -1.453208e-02 9.596058e-01 1.803234e-01 -8.255950e-01 -6.900125e-01 -5.539697e-01 -7.810183e-03 -1.229455e-01 -2.301108e-01 6.412350e-02 -1.879819e-02 8.462313e-03 -4.088335e-03 4.617845e-03 -7.482858e-03 -4.581965e-03 -4.930335e-03 -1.634693e-03 1.627040e-03 -1.644328e-03 2.714488e-03 -9.084921e-04 -4.582092e-03 1.911342e-02
<VARIANCE> 25
 5.477134e+01 5.505626e+01 7.368956e+01 6.322601e+01 7.202074e+01 6.482758e+01 6.019515e+01 6.301505e+01 5.487516e+01 4.899332e+01 4.847605e+01 3.777316e+01 2.179687e+00 3.051663e+00 3.017131e+00 3.507826e+00 3.944347e+00 3.660820e+00 3.670551e+00 3.814546e+00 3.459318e+00 3.189927e+00 3.147881e+00 2.536544e+00 2.949958e+00
<GCONST> 1.096278e+02
<STATE> 3
<MEAN> 25
 4.980163e-01 -2.444644e-02 9.639587e-01 1.658340e-01 -8.341360e-01 -6.969999e-01 -5.548647e-01 -4.658154e-03 -1.246658e-01 -2.202463e-01 6.212075e-02 -3.013474e-02 3.878029e-03 -3.840683e-03 -6.904408e-04 -5.834416e-03 -3.063895e-04 -7.604272e-04 1.675804e-03 1.744043e-03 2.166886e-04 4.336476e-03 -3.918176e-04 -3.989977e-03 1.216290e-02
<VARIANCE> 25
 5.444459e+01 5.500899e+01 7.380861e+01 6.321765e+01 7.194821e+01 6.485081e+01 6.016026e+01 6.311852e+01 5.488334e+01 4.905315e+01 4.855579e+01 3.779931e+01 2.177827e+00 3.043541e+00 3.015262e+00 3.504821e+00 3.939258e+00 3.661609e+00 3.671978e+00 3.815659e+00 3.458211e+00 3.191817e+00 3.147284e+00 2.536935e+00 2.936740e+00
<GCONST> 1.096169e+02
<STATE> 4
<MEAN> 25
 5.301439e-01 -3.970109e-02 9.252510e-01 1.381155e-01 -8.148489e-01 -6.797577e-01 -5.373092e-01 -1.053553e-02 -1.245097e-01 -2.000724e-01 5.810074e-02 -5.582627e-02 -1.248226e-03 -2.198667e-03 -6.836130e-03 -2.348597e-03 5.018889e-03 3.218566e-03 4.849422e-03 1.467725e-03 1.742623e-03 4.908255e-03 3.686769e-04 -2.716452e-03 3.231202e-03
<VARIANCE> 25
 5.436930e+01 5.488322e+01 7.378268e+01 6.339256e+01 7.157991e+01 6.458090e+01 5.987276e+01 6.264928e+01 5.458262e+01 4.913868e+01 4.824021e+01 3.772900e+01 2.136348e+00 2.984616e+00 2.968118e+00 3.446932e+00 3.862000e+00 3.619989e+00 3.626113e+00 3.749248e+00 3.414189e+00 3.157523e+00 3.099625e+00 2.507454e+00 2.883809e+00
<GCONST> 1.093806e+02
<TRANSP> 5
 0.000000e+00 1.000000e+00 0.000000e+00 0.000000e+00 0.000000e+00
 0.000000e+00 6.171917e-01 3.828083e-01 0.000000e+00 0.000000e+00
 0.000000e+00 0.000000e+00 6.171920e-01 3.828079e-01 0.000000e+00
 0.000000e+00 0.000000e+00 0.000000e+00 7.311928e-01 2.688071e-01
 0.000000e+00 0.000000e+00 0.000000e+00 0.000000e+00 0.000000e+00
<ENDHMM>
~h "e"
<BEGINHMM>
<NUMSTATES> 5
<STATE> 2
<MEAN> 25
 -2.745541e-01 -2.097708e-01 3.127926e-01 2.497090e-01 -5.216283e-01 -4.778047e-01 5.019130e-01 2.895074e-01 -7.203855e-02 1.112634e-01 2.221605e-01 1.378033e-01 1.217747e-02 9.537848e-05 3.267796e-03 -1.060687e-02 -4.935054e-03 5.561035e-03 -2.768888e-03 -6.347124e-03 -6.017371e-03 -5.284924e-04 6.811966e-03 -5.604019e-03 9.730186e-03
<VARIANCE> 25
 6.281541e+01 5.441470e+01 7.124251e+01 6.313246e+01 7.168161e+01 7.429285e+01 5.839923e+01 6.096865e+01 5.369056e+01 4.616805e+01 4.547605e+01 3.675843e+01 2.447878e+00 2.854869e+00 2.897759e+00 3.307441e+00 3.703000e+00 3.667279e+00 3.332688e+00 3.607016e+00 3.343681e+00 3.018975e+00 2.872476e+00 2.378243e+00 2.626652e+00
<GCONST> 1.089889e+02
<STATE> 3
<MEAN> 25
 -2.380925e-01 -2.045360e-01 3.192409e-01 2.251301e-01 -5.288631e-01 -4.649251e-01 4.916840e-01 2.706089e-01 -9.043794e-02 1.067955e-01 2.395634e-01 1.233821e-01 1.057573e-02 3.461054e-03 2.087811e-03 -7.672301e-03 -1.774165e-03 7.707726e-03 -3.688539e-03 -7.181395e-03 -5.288905e-03 -7.324064e-04 5.792909e-03 -5.028384e-03 4.047686e-03
<VARIANCE> 25
 6.235610e+01 5.432192e+01 7.136791e+01 6.349162e+01 7.154328e+01 7.470673e+01 5.848129e+01 6.098271e+01 5.374419e+01 4.616055e+01 4.550466e+01 3.667731e+01 2.445375e+00 2.848225e+00 2.899037e+00 3.297329e+00 3.687051e+00 3.660068e+00 3.328121e+00 3.600943e+00 3.345737e+00 3.014096e+00 2.864678e+00 2.371089e+00 2.614836e+00
<GCONST> 1.089653e+02
<STATE> 4
<MEAN> 25
 -1.312719e-01 -1.954023e-01 3.200342e-01 1.644513e-01 -4.899862e-01 -4.467546e-01 4.411974e-01 2.140503e-01 -1.408007e-01 9.306212e-02 2.377405e-01 1.022214e-01 8.660270e-03 6.555570e-03 1.645450e-04 -3.833876e-03 1.846401e-03 6.278212e-03 -5.615767e-03 -7.918589e-03 -6.029104e-03 -7.318727e-04 4.877483e-03 -2.659427e-03 -1.725744e-03
<VARIANCE> 25
 6.161297e+01 5.418887e+01 7.164239e+01 6.443662e+01 7.115395e+01 7.478247e+01 5.806047e+01 6.059009e+01 5.387422e+01 4.610390e+01 4.538533e+01 3.645078e+01 2.365649e+00 2.777007e+00 2.847960e+00 3.219078e+00 3.586357e+00 3.597325e+00 3.265674e+00 3.522728e+00 3.306763e+00 2.970429e+00 2.823660e+00 2.327452e+00 2.547805e+00
<GCONST> 1.086723e+02
<TRANSP> 5
 0.000000e+00 1.000000e+00 0.000000e+00 0.000000e+00 0.000000e+00
 0.000000e+00 6.186718e-01 3.813282e-01 0.000000e+00 0.000000e+00
 0.000000e+00 0.000000e+00 6.186759e-01 3.813241e-01 0.000000e+00
 0.000000e+00 0.000000e+00 0.000000e+00 7.361937e-01 2.638063e-01
 0.000000e+00 0.000000e+00 0.000000e+00 0.000000e+00 0.000000e+00
<ENDHMM>
~h "f"
<BEGINHMM>
<NUMSTATES> 5
<STATE> 2
<MEAN> 25
 -5.255190e-01 1.462982e-03 9.199864e-01 3.244861e-01 -4.039221e-01 -5.779032e-01 1.092368e-01 -3.118234e-01 -2.999159e-01 4.201789e-02 5.453334e-01 1.131856e-01 -5.587476e-03 8.826281e-03 7.091677e-03 2.610461e-03 3.849303e-04 -1.124217e-03 3.931623e-03 5.242783e-03 -2.820331e-03 -4.475821e-03 2.714063e-03 7.466368e-04 -4.370212e-03
<VARIANCE> 25
 6.464545e+01 5.403187e+01 8.399512e+01 6.770385e+01 7.416116e+01 7.311316e+01 5.702129e+01 5.938062e+01 5.620540e+01 4.565889e+01 4.646189e+01 3.634343e+01 3.108343e+00 2.922837e+00 3.315356e+00 3.725287e+00 4.170677e+00 3.874106e+00 3.557176e+00 3.627994e+00 3.577968e+00 3.086806e+00 3.005189e+00 2.419214e+00 2.746197e+00
<GCONST> 1.102151e+02
<STATE> 3
<MEAN> 25
 -5.396203e-01 2.093306e-02 9.213196e-01 3.290484e-01 -3.937970e-01 -5.783944e-01 1.301842e-01 -2.974372e-01 -2.967612e-01 3.521780e-02 5.483168e-01 1.151100e-01 -5.044977e-03 8.035233e-03 -5.553535e-05 3.067115e-03 4.413316e-03 1.929370e-03 8.594516e-03 7.742736e-03 2.703036e-03 -2.918631e-03 -7.253076e-04 -5.283131e-05 -7.309016e-03
<VARIANCE> 25
 6.463137e+01 5.420529e+01 8.391724e+01 6.804327e+01 7.445587e+01 7.330219e+01 5.692430e+01 5.947388e+01 5.619019e+01 4.571197e+01 4.644084e+01 3.637305e+01 3.107614e+00 2.930650e+00 3.296649e+00 3.711474e+00 4.163564e+00 3.866097e+00 3.549906e+00 3.614514e+00 3.571987e+00 3.086497e+00 3.002334e+00 2.416878e+00 2.730970e+00
<GCONST> 1.102042e+02
<STATE> 4
<MEAN> 25
 -4.729051e-01 2.314347e-02 8.973726e-01 2.916494e-01 -3.570158e-01 -5.810397e-01 1.687517e-01 -2.744818e-01 -2.808536e-01 1.982626e-02 5.093518e-01 1.089773e-01 -3.514884e-03 5.680031e-03 -8.044196e-03 9.016662e-04 8.291706e-03 2.961718e-03 1.336315e-02 8.656126e-03 6.133763e-03 -5.973217e-04 -4.384430e-03 5.965334e-04 -9.584127e-03
<VARIANCE> 25
 6.420341e+01 5.419032e+01 8.338214e+01 6.832849e+01 7.432423e+01 7.305498e+01 5.691001e+01 5.908477e+01 5.610770e+01 4.571455e+01 4.634006e+01 3.660835e+01 3.034298e+00 2.892096e+00 3.244180e+00 3.648000e+00 4.088953e+00 3.825006e+00 3.511212e+00 3.554879e+00 3.540438e+00 3.060092e+00 2.973784e+00 2.404461e+00 2.689335e+00
<GCONST> 1.100116e+02
<TRANSP> 5
 0.000000e+00 1.000000e+00 0.000000e+00 0.000000e+00 0.000000e+00
 0.000000e+00 6.194267e-01 3.805733e-01 0.000000e+00 0.000000e+00
 0.000000e+00 0.000000e+00 6.194234e-01 3.805765e-01 0.000000e+00
 0.000000e+00 0.000000e+00 0.000000e+00 7.313688e-01 2.686312e-01
 0.000000e+00 0.000000e+00 0.000000e+00 0.000000e+00 0.000000e+00
<ENDHMM>
~h "g"
<BEGINHMM>
<NUMSTATES> 5
<STATE> 2
<MEAN> 25
 7.756547e-01 2.954254e-01 6.467125e-01 -1.764676e-01 -4.487154e-01 -2.432335e-01 -4.811041e-01 -3.410103e-01 -3.892818e-01 6.183450e-03 -6.525733e-02 -3.517160e-01 -4.635393e-03 1.144706e-03 -2.697670e-03 7.036181e-03 3.595904e-03 -1.070411e-03 -1.298652e-03 3.355905e-03 4.748554e-03 1.506554e-03 3.811063e-03 3.868267e-03 -5.319874e-03
<VARIANCE> 25
 5.565829e+01 5.502066e+01 7.178707e+01 6.308853e+01 7.051646e+01 6.771659e+01 5.976036e+01 6.130458e+01 5.541430e+01 4.888519e+01 4.810926e+01 3.830575e+01 2.117585e+00 2.842956e+00 2.968862e+00 3.376869e+00 3.834688e+00 3.700481e+00 3.592905e+00 3.767009e+00 3.467319e+00 3.184833e+00 3.108908e+00 2.514964e+00 2.534579e+00
<GCONST> 1.092393e+02
<STATE> 3
<MEAN> 25
 7.618877e-01 2.951825e-01 6.336988e-01 -1.619667e-01 -4.377694e-01 -2.418990e-01 -4.800199e-01 -3.298180e-01 -3.756736e-01 9.637259e-03 -5.391781e-02 -3.406374e-01 -7.560018e-03 -5.138229e-04 -7.680462e-03 6.468421e-03 6.941307e-03 1.541502e-03 4.646070e-04 4.711004e-03 6.948500e-03 1.149042e-03 4.199534e-03 5.027696e-03 -8.973630e-03
<VARIANCE> 25
 5.566060e+01 5.496310e+01 7.147802e+01 6.309280e+01 7.047584e+01 6.761928e+01 5.979785e+01 6.134676e+01 5.532316e+01 4.893532e+01 4.815467e+01 3.825718e+01 2.115360e+00 2.833287e+00 2.952372e+00 3.372170e+00 3.825842e+00 3.689156e+00 3.589969e+00 3.764013e+00 3.459824e+00 3.180763e+00 3.104649e+00 2.510493e+00 2.521136e+00
<GCONST> 1.092020e+02
<STATE> 4
<MEAN> 25
 7.525069e-01 2.677366e-01 5.994281e-01 -1.552097e-01 -4.072387e-01 -2.449143e-01 -4.815060e-01 -3.080883e-01 -3.476954e-01 3.734370e-03 -3.281353e-02 -3.268640e-01 -9.588595e-03 -1.952777e-03 -1.167401e-02 5.600365e-03 9.680771e-03 4.473593e-03 3.472538e-03 5.993221e-03 8.403905e-03 1.148635e-03 4.665353e-03 5.815904e-03 -1.238750e-02
<VARIANCE> 25
 5.595010e+01 5.522468e+01 7.130258e+01 6.362698e+01 7.022079e+01 6.736920e+01 5.939731e+01 6.081414e+01 5.512658e+01 4.901062e+01 4.785221e+01 3.829744e+01 2.071704e+00 2.781654e+00 2.898906e+00 3.310861e+00 3.752951e+00 3.633611e+00 3.530849e+00 3.697768e+00 3.414781e+00 3.140082e+00 3.054591e+00 2.476621e+00 2.482580e+00
<GCONST> 1.089720e+02
<TRANSP> 5
 0.000000e+00 1.000000e+00 0.000000e+00 0.000000e+00 0.000000e+00
 0.000000e+00 6.117534e-01 3.882467e-01 0.000000e+00 0.000000e+00
 0.000000e+00 0.000000e+00 6.117545e-01 3.882455e-01 0.000000e+00
 0.000000e+00 0.000000e+00 0.000000e+00 7.296355e-01 2.703644e-01
 0.000000e+00 0.000000e+00 0.000000e+00 0.000000e+00 0.000000e+00
<ENDHMM>
~h "h"
<BEGINHMM>
<NUMSTATES> 5
<STATE> 2
<MEAN> 25
 1.488626e-01 -5.718061e-01 -3.348799e-01 -5.099172e-01 2.915368e-01 3.412667e-01 3.214209e-01 1.328406e-01 1.312388e-01 -8.426258e-02 -1.296476e-01 -5.090903e-02 9.635726e-03 3.341595e-04 9.075785e-03 6.022416e-03 -2.243806e-03 -1.187898e-02 -3.601609e-03 -1.722231e-03 -9.558998e-03 -5.349169e-03 1.556346e-03 -4.187167e-03 1.361266e-02
<VARIANCE> 25
 5.966859e+01 5.592118e+01 6.945576e+01 6.619647e+01 7.229193e+01 6.880866e+01 5.951196e+01 5.925577e+01 5.215209e+01 4.879265e+01 4.693350e+01 3.696775e+01 2.243243e+00 2.695091e+00 2.765400e+00 3.275847e+00 3.638825e+00 3.503448e+00 3.474692e+00 3.502003e+00 3.229855e+00 3.047234e+00 2.914348e+00 2.407140e+00 2.603162e+00
<GCONST> 1.087125e+02
<STATE> 3
<MEAN> 25
 1.719324e-01 -5.620806e-01 -3.073059e-01 -4.849818e-01 2.880242e-01 3.079908e-01 3.069158e-01 1.248272e-01 1.095272e-01 -9.520760e-02 -1.236339e-01 -5.891114e-02 5.539231e-03 7.208367e-03 1.068652e-02 1.054908e-02 -2.290834e-03 -1.158131e-02 -5.333714e-03 -3.953650e-03 -7.835560e-03 -2.326239e-03 2.393638e-03 -2.022399e-03 4.193451e-03
<VARIANCE> 25
 5.926928e+01 5.597525e+01 6.966457e+01 6.592365e+01 7.225296e+01 6.859631e+01 5.943683e+01 5.932633e+01 5.220466e+01 4.887386e+01 4.701759e+01 3.698584e+01 2.233649e+00 2.692483e+00 2.765925e+00 3.256654e+00 3.625818e+00 3.495597e+00 3.468961e+00 3.501640e+00 3.228431e+00 3.047918e+00 2.906798e+00 2.406350e+00 2.584795e+00
<GCONST> 1.086781e+02
<STATE> 4
<MEAN> 25
 2.077875e-01 -5.270100e-01 -2.530636e-01 -4.427911e-01 2.907766e-01 2.706509e-01 2.776544e-01 1.027720e-01 8.097339e-02 -9.387279e-02 -1.011109e-01 -7.041988e-02 1.241951e-03 1.343018e-02 1.156096e-02 1.482235e-02 -2.173886e-03 -1.040195e-02 -6.805980e-03 -5.746292e-03 -5.752160e-03 5.901719e-04 4.415681e-03 5.240927e-04 -4.986864e-03
<VARIANCE> 25
 5.926486e+01 5.611288e+01 6.957811e+01 6.605301e+01 7.180424e+01 6.797575e+01 5.875205e+01 5.884973e+01 5.206871e+01 4.885855e+01 4.669001e+01 3.678711e+01 2.164830e+00 2.636648e+00 2.716064e+00 3.181425e+00 3.540918e+00 3.435813e+00 3.395527e+00 3.442189e+00 3.181966e+00 3.004466e+00 2.852983e+00 2.370473e+00 2.520615e+00
<GCONST> 1.083699e+02
<TRANSP> 5
 0.000000e+00 1.000000e+00 0.000000e+00 0.000000e+00 0.000000e+00
 0.000000e+00 6.196097e-01 3.803903e-01 0.000000e+00 0.000000e+00
 0.000000e+00 0.000000e+00 6.196046e-01 3.803954e-01 0.000000e+00
 0.000000e+00 0.000000e+00 0.000000e+00 7.366785e-01 2.633215e-01
 0.000000e+00 0.000000e+00 0.000000e+00 0.000000e+00 0.000000e+00
<ENDHMM>
~h "i"
<BEGINHMM>
<NUMSTATES> 5
<STATE> 2
<MEAN> 25
 -3.286951e-01 4.925352e-01 1.796055e+00 2.751535e-01 -1.000229e+00 -6.789700e-01 -2.627209e-01 -5.189363e-01 -6.568990e-01 -2.440610e-02 3.414286e-01 7.465743e-02 1.593399e-03 -4.055421e-03 -1.304873e-02 -3.250118e-03 6.497274e-03 5.861383e-03 8.152422e-04 3.187464e-03 6.391769e-03 -7.032154e-04 -4.667770e-03 8.541974e-04 -2.486770e-03
<VARIANCE> 25
 5.625609e+01 5.469329e+01 8.394305e+01 6.556898e+01 7.654997e+01 6.818480e+01 6.011695e+01 6.133328e+01 5.593443e+01 4.764875e+01 4.797049e+01 3.720044e+01 2.334527e+00 2.774427e+00 3.295600e+00 3.415418e+00 3.953932e+00 3.651958e+00 3.580172e+00 3.667096e+00 3.454581e+00 3.084219e+00 3.042878e+00 2.440950e+00 2.653104e+00
<GCONST> 1.096204e+02
<STATE> 3
<MEAN> 25
 -3.246422e-01 4.801389e-01 1.751819e+00 2.686448e-01 -9.755235e-01 -6.630270e-01 -2.580428e-01 -5.065368e-01 -6.364976e-01 -2.724354e-02 3.279422e-01 7.753266e-02 9.557900e-04 -6.978640e-03 -2.370123e-02 -2.161187e-03 1.387177e-02 9.233786e-03 3.453437e-03 7.073438e-03 1.081138e-02 -1.381249e-03 -6.955093e-03 1.763815e-03 -6.420094e-03
<VARIANCE> 25
 5.613708e+01 5.472434e+01 8.365480e+01 6.559155e+01 7.637340e+01 6.815311e+01 6.011903e+01 6.131340e+01 5.589379e+01 4.765015e+01 4.792023e+01 3.719056e+01 2.325602e+00 2.772733e+00 3.276569e+00 3.410021e+00 3.938309e+00 3.643391e+00 3.577125e+00 3.663183e+00 3.448775e+00 3.080746e+00 3.040412e+00 2.440186e+00 2.643485e+00
<GCONST> 1.095831e+02
<STATE> 4
<MEAN> 25
 -2.635632e-01 4.342191e-01 1.607138e+00 2.165650e-01 -8.791167e-01 -6.191816e-01 -2.665456e-01 -4.733788e-01 -5.706671e-01 -1.355217e-02 2.859005e-01 6.016036e-02 -1.084795e-04 -8.797219e-03 -3.124358e-02 -1.356978e-04 1.979911e-02 1.179787e-02 5.709312e-03 1.014042e-02 1.335510e-02 -2.013193e-03 -7.520793e-03 2.753221e-03 -1.011078e-02
<VARIANCE> 25
 5.609308e+01 5.511571e+01 8.308982e+01 6.625314e+01 7.583847e+01 6.790716e+01 6.007991e+01 6.113161e+01 5.576588e+01 4.774543e+01 4.778952e+01 3.738354e+01 2.255538e+00 2.723324e+00 3.197834e+00 3.353583e+00 3.843469e+00 3.582074e+00 3.525894e+00 3.610128e+00 3.402104e+00 3.042721e+00 2.997255e+00 2.420117e+00 2.587599e+00
<GCONST> 1.093506e+02
<TRANSP> 5
 0.000000e+00 1.000000e+00 0.000000e+00 0.000000e+00 0.000000e+00
 0.000000e+00 6.188030e-01 3.811970e-01 0.000000e+00 0.000000e+00
 0.000000e+00 0.000000e+00 6.187966e-01 3.812034e-01 0.000000e+00
 0.000000e+00 0.000000e+00 0.000000e+00 7.370523e-01 2.629477e-01
 0.000000e+00 0.000000e+00 0.000000e+00 0.000000e+00 0.000000e+00
<ENDHMM>
~h "j"
<BEGINHMM>
<NUMSTATES> 5
<STATE> 2
<MEAN> 25
 -7.787280e-02 4.676062e-01 1.291642e+00 3.710332e-01 -6.387019e-01 -9.725462e-01 -5.032493e-01 2.362219e-02 -1.642834e-01 -2.842415e-01 2.548524e-01 1.879207e-01 1.389581e-02 4.745424e-03 1.825264e-02 -5.422386e-03 -6.057422e-03 -5.718580e-03 -5.135982e-03 2.426757e-03 -4.755367e-03 -1.179884e-03 -9.168004e-03 -5.963537e-03 2.065240e-02
<VARIANCE> 25
 5.435218e+01 5.514476e+01 7.145126e+01 5.881319e+01 6.825301e+01 6.504533e+01 6.007539e+01 5.891719e+01 5.237141e+01 4.692252e+01 4.479897e+01 3.712425e+01 2.534924e+00 3.093402e+00 3.140318e+00 3.307552e+00 4.115876e+00 3.761127e+00 3.708219e+00 3.707922e+00 3.404858e+00 3.129866e+00 3.006280e+00 2.498048e+00 2.760804e+00
<GCONST> 1.092476e+02
<STATE> 3
<MEAN> 25
 -4.722666e-02 4.755848e-01 1.336480e+00 3.614984e-01 -6.516228e-01 -9.824257e-01 -5.132639e-01 2.827672e-02 -1.800963e-01 -2.850887e-01 2.296712e-01 1.736853e-01 1.229749e-02 -6.264660e-05 1.417175e-02 -2.524567e-03 -1.845176e-03 -6.971835e-04 -2.767087e-03 3.655664e-03 -6.286850e-03 1.417240e-03 -1.032439e-02 -6.030318e-03 1.222082e-02
<VARIANCE> 25
 5.367750e+01 5.507455e+01 7.207167e+01 5.906914e+01 6.826244e+01 6.493468e+01 6.003806e+01 5.880727e+01 5.250352e+01 4.701831e+01 4.495697e+01 3.700725e+01 2.506288e+00 3.082155e+00 3.145963e+00 3.312258e+00 4.106534e+00 3.760502e+00 3.698379e+00 3.695326e+00 3.406518e+00 3.124233e+00 3.000066e+00 2.491273e+00 2.756278e+00
<GCONST> 1.092197e+02
<STATE> 4
<MEAN> 25
 7.244673e-03 4.271979e-01 1.326120e+00 3.196532e-01 -6.157144e-01 -9.642009e-01 -4.900514e-01 1.175963e-02 -2.392896e-01 -2.743734e-01 2.000294e-01 1.175977e-01 6.960270e-03 -1.766512e-03 7.408345e-03 6.064276e-04 5.094377e-03 6.265748e-03 -7.886857e-04 4.235575e-03 -7.079627e-03 3.656470e-03 -8.942003e-03 -5.018971e-03 -7.812122e-04
<VARIANCE> 25
 5.275638e+01 5.499083e+01 7.269379e+01 6.007240e+01 6.841328e+01 6.458491e+01 5.948700e+01 5.836478e+01 5.285170e+01 4.742846e+01 4.493750e+01 3.681387e+01 2.400864e+00 3.006748e+00 3.090732e+00 3.265943e+00 4.011377e+00 3.701920e+00 3.630942e+00 3.636295e+00 3.375935e+00 3.090807e+00 2.958895e+00 2.447602e+00 2.701072e+00
<GCONST> 1.089712e+02
<TRANSP> 5
 0.000000e+00 1.000000e+00 0.000000e+00 0.000000e+00 0.000000e+00
 0.000000e+00 6.178896e-01 3.821104e-01 0.000000e+00 0.000000e+00
 0.000000e+00 0.000000e+00 6.178887e-01 3.821113e-01 0.000000e+00
 0.000000e+00 0.000000e+00 0.000000e+00 7.354508e-01 2.645492e-01
 0.000000e+00 0.000000e+00 0.000000e+00 0.000000e+00 0.000000e+00
<ENDHMM>
~h "k"
<BEGINHMM>
<NUMSTATES> 5
<STATE> 2
<MEAN> 25
 -3.894243e-03 -3.177396e-01 -6.101254e-01 -2.346291e-01 2.477074e-01 7.135988e-02 2.168186e-01 8.234143e-02 1.105631e-01 2.070038e-01 1.206076e-02 -8.323275e-02 1.467922e-02 -3.270620e-03 2.507614e-04 -3.744068e-03 -7.545174e-03 -6.102506e-03 -1.843564e-03 -7.065709e-03 -1.022590e-03 2.657693e-04 -2.353549e-03 -4.510417e-03 1.856449e-02
<VARIANCE> 25
 5.670770e+01 5.535857e+01 6.931477e+01 6.370540e+01 7.000801e+01 6.691164e+01 5.598974e+01 5.778378e+01 5.191823e+01 4.754602e+01 4.647489e+01 3.708469e+01 2.471601e+00 2.996815e+00 3.059301e+00 3.564342e+00 3.899027e+00 3.749292e+00 3.575038e+00 3.702974e+00 3.472270e+00 3.207463e+00 3.077261e+00 2.543530e+00 3.091743e+00
<GCONST> 1.094426e+02
<STATE> 3
<MEAN> 25
 2.989004e-02 -3.266109e-01 -6.026462e-01 -2.385372e-01 2.262717e-01 5.533110e-02 2.123024e-01 6.546297e-02 1.068255e-01 2.035890e-01 2.543173e-03 -9.424457e-02 1.357509e-02 -2.570518e-03 4.747374e-03 -8.890445e-04 -9.585276e-03 -4.813781e-03 -2.757402e-03 -7.637159e-03 -2.009272e-03 -2.622038e-03 -3.358827e-03 -4.151309e-03 1.555360e-02
<VARIANCE> 25
 5.639202e+01 5.537876e+01 6.924787e+01 6.363265e+01 6.991409e+01 6.683060e+01 5.603354e+01 5.784402e+01 5.196440e+01 4.756142e+01 4.656329e+01 3.709388e+01 2.466786e+00 2.993208e+00 3.056597e+00 3.558527e+00 3.896515e+00 3.748790e+00 3.569916e+00 3.708360e+00 3.477856e+00 3.205832e+00 3.082010e+00 2.542099e+00 3.070492e+00
<GCONST> 1.094266e+02
<STATE> 4
<MEAN> 25
 7.140241e-02 -3.050080e-01 -5.508097e-01 -2.169344e-01 1.687523e-01 3.835531e-02 1.918528e-01 3.898513e-02 9.991563e-02 1.775304e-01 -1.503852e-02 -1.044841e-01 9.638555e-03 -1.300123e-03 7.760917e-03 2.937208e-03 -8.264057e-03 -2.454377e-03 -3.556678e-03 -6.048421e-03 -1.601173e-03 -3.684093e-03 -3.811056e-03 -3.205222e-03 9.365809e-03
<VARIANCE> 25
 5.587971e+01 5.532490e+01 6.878539e+01 6.354966e+01 6.935777e+01 6.611705e+01 5.588814e+01 5.728499e+01 5.182811e+01 4.749485e+01 4.632163e+01 3.688777e+01 2.390818e+00 2.934858e+00 2.994136e+00 3.482251e+00 3.803798e+00 3.682058e+00 3.513068e+00 3.645397e+00 3.432836e+00 3.161070e+00 3.038783e+00 2.503109e+00 2.982236e+00
<GCONST> 1.091083e+02
<TRANSP> 5
 0.000000e+00 1.000000e+00 0.000000e+00 0.000000e+00 0.000000e+00
 0.000000e+00 6.164676e-01 3.835324e-01 0.000000e+00 0.000000e+00
 0.000000e+00 0.000000e+00 6.164556e-01 3.835445e-01 0.000000e+00
 0.000000e+00 0.000000e+00 0.000000e+00 7.320091e-01 2.679909e-01
 0.000000e+00 0.000000e+00 0.000000e+00 0.000000e+00 0.000000e+00
<ENDHMM>
~h "l"
<BEGINHMM>
<NUMSTATES> 5
<STATE> 2
<MEAN> 25
 6.740178e-01 -2.490458e-01 -3.496066e-01 -6.148331e-01 -1.651444e-02 -7.087106e-03 -4.402398e-01 -3.321553e-01 2.949092e-01 1.532429e-01 -1.814273e-01 -2.451805e-01 -1.632139e-03 4.854955e-03 1.319738e-02 7.095478e-03 2.127889e-03 -5.347528e-03 2.609552e-03 -2.389458e-03 -5.664562e-03 -2.089083e-03 2.623195e-03 8.436361e-04 8.517343e-04
<VARIANCE> 25
 5.988524e+01 5.483109e+01 6.886036e+01 6.543349e+01 6.958298e+01 6.839488e+01 6.050580e+01 6.256116e+01 5.445269e+01 5.085330e+01 4.837950e+01 3.807064e+01 2.240456e+00 2.749073e+00 2.826880e+00 3.357544e+00 3.641137e+00 3.633078e+00 3.551612e+00 3.721407e+00 3.406074e+00 3.168293e+00 3.020136e+00 2.459599e+00 2.481581e+00
<GCONST> 1.091334e+02
<STATE> 3
<MEAN> 25
 6.614668e-01 -2.377860e-01 -3.158575e-01 -5.923503e-01 -1.024433e-02 -1.740236e-02 -4.291331e-01 -3.361571e-01 2.796320e-01 1.469235e-01 -1.732003e-01 -2.388486e-01 -7.684155e-03 5.703231e-03 1.401088e-02 1.012916e-02 2.494857e-03 -3.842858e-03 6.915113e-03 -2.833049e-04 -7.387650e-03 -3.090035e-03 4.299874e-03 3.002711e-03 -5.990328e-03
<VARIANCE> 25
 5.946100e+01 5.472194e+01 6.905405e+01 6.535660e+01 6.967658e+01 6.836719e+01 6.051227e+01 6.256366e+01 5.442541e+01 5.084731e+01 4.841216e+01 3.807500e+01 2.230386e+00 2.743077e+00 2.830581e+00 3.354666e+00 3.641259e+00 3.629127e+00 3.549774e+00 3.714576e+00 3.400631e+00 3.162682e+00 3.020123e+00 2.457479e+00 2.473501e+00
<GCONST> 1.091100e+02
<STATE> 4
<MEAN> 25
 6.456175e-01 -2.304033e-01 -2.522788e-01 -5.514157e-01 -1.451513e-02 -4.020678e-02 -4.063258e-01 -3.299640e-01 2.420326e-01 1.250222e-01 -1.544228e-01 -2.231130e-01 -1.342775e-02 6.155941e-03 1.295887e-02 1.315434e-02 3.245634e-03 -4.275524e-04 1.058137e-02 2.192758e-03 -8.519250e-03 -3.795698e-03 6.056809e-03 5.398265e-03 -1.338625e-02
<VARIANCE> 25
 5.936948e+01 5.471943e+01 6.928857e+01 6.538054e+01 6.975013e+01 6.794279e+01 6.037883e+01 6.218693e+01 5.418779e+01 5.096476e+01 4.824627e+01 3.804397e+01 2.182270e+00 2.710494e+00 2.804077e+00 3.313118e+00 3.591255e+00 3.584421e+00 3.506815e+00 3.655623e+00 3.358388e+00 3.132004e+00 2.987378e+00 2.434860e+00 2.444000e+00
<GCONST> 1.089281e+02
<TRANSP> 5
 0.000000e+00 1.000000e+00 0.000000e+00 0.000000e+00 0.000000e+00
 0.000000e+00 6.137603e-01 3.862397e-01 0.000000e+00 0.000000e+00
 0.000000e+00 0.000000e+00 6.137469e-01 3.862531e-01 0.000000e+00
 0.000000e+00 0.000000e+00 0.000000e+00 7.260799e-01 2.739201e-01
 0.000000e+00 0.000000e+00 0.000000e+00 0.000000e+00 0.000000e+00
<ENDHMM>
~h "m"
<BEGINHMM>
<NUMSTATES> 5
<STATE> 2
<MEAN> 25
 9.643712e-01 5.160499e-02 -2.001002e-01 -1.350515e-01 2.014731e-01 3.429586e-01 -2.512476e-01 -3.966665e-01 -2.554941e-01 -1.742288e-01 -2.666638e-01 -3.754849e-01 7.981450e-03 -7.488773e-04 3.245523e-03 1.106104e-03 1.925306e-03 -5.091200e-03 2.304480e-03 4.160136e-03 -6.318831e-03 -4.675835e-03 -9.514910e-03 -3.647247e-03 1.437549e-02
<VARIANCE> 25
 5.830562e+01 5.498778e+01 6.631851e+01 6.159620e+01 6.775574e+01 6.623853e+01 5.722809e+01 6.061114e+01 5.461010e+01 4.786121e+01 4.635719e+01 3.735391e+01 2.288805e+00 2.916311e+00 2.981328e+00 3.526043e+00 3.651884e+00 3.639758e+00 3.481334e+00 3.788638e+00 3.501337e+00 3.112332e+00 3.058930e+00 2.461163e+00 2.574733e+00
<GCONST> 1.089913e+02
<STATE> 3
<MEAN> 25
 9.786101e-01 5.086213e-02 -1.924634e-01 -1.314281e-01 2.040713e-01 3.279049e-01 -2.436183e-01 -3.838050e-01 -2.727548e-01 -1.861898e-01 -2.876632e-01 -3.841615e-01 1.053277e-04 1.556124e-04 3.972727e-03 1.366334e-03 9.240463e-04 -7.609508e-03 4.212612e-03 7.160902e-03 -4.791001e-03 -3.516119e-03 -7.270081e-03 -1.244648e-03 1.067558e-02
<VARIANCE> 25
 5.816915e+01 5.502759e+01 6.643228e+01 6.158610e+01 6.779140e+01 6.623331e+01 5.733228e+01 6.067985e+01 5.466605e+01 4.785775e+01 4.637974e+01 3.742693e+01 2.292133e+00 2.914133e+00 2.985226e+00 3.525539e+00 3.654035e+00 3.637130e+00 3.483492e+00 3.788714e+00 3.502854e+00 3.112697e+00 3.057629e+00 2.462732e+00 2.564511e+00
<GCONST> 1.089971e+02
<STATE> 4
<MEAN> 25
 9.736952e-01 4.289991e-02 -1.604165e-01 -1.207333e-01 1.892695e-01 2.700329e-01 -2.300815e-01 -3.470356e-01 -2.774809e-01 -1.933895e-01 -2.930059e-01 -3.914834e-01 -6.480959e-03 1.034899e-03 4.437199e-03 1.968286e-03 -5.912151e-04 -8.733611e-03 5.902549e-03 8.928786e-03 -2.250894e-03 -1.670337e-03 -3.379405e-03 9.386333e-04 5.317974e-03
<VARIANCE> 25
 5.840128e+01 5.517205e+01 6.668191e+01 6.158426e+01 6.793154e+01 6.607636e+01 5.741947e+01 6.041138e+01 5.459760e+01 4.800325e+01 4.621679e+01 3.751709e+01 2.252954e+00 2.872419e+00 2.945670e+00 3.463690e+00 3.606786e+00 3.595511e+00 3.448137e+00 3.727973e+00 3.459128e+00 3.082102e+00 3.013156e+00 2.442920e+00 2.522720e+00
<GCONST> 1.088297e+02
<TRANSP> 5
 0.000000e+00 1.000000e+00 0.000000e+00 0.000000e+00 0.000000e+00
 0.000000e+00 6.141236e-01 3.858764e-01 0.000000e+00 0.000000e+00
 0.000000e+00 0.000000e+00 6.141047e-01 3.858953e-01 0.000000e+00
 0.000000e+00 0.000000e+00 0.000000e+00 7.270033e-01 2.729967e-01
 0.000000e+00 0.000000e+00 0.000000e+00 0.000000e+00 0.000000e+00
<ENDHMM>
~h "n"
<BEGINHMM>
<NUMSTATES> 5
<STATE> 2
<MEAN> 25
 6.726462e-01 -8.505265e-02 3.670216e-01 1.052099e-01 -1.759543e-01 -5.211085e-02 -1.300802e-01 -7.935518e-02 -2.524960e-01 -1.725475e-01 -4.004321e-01 -2.269249e-01 -1.093201e-02 5.926454e-03 -1.967461e-03 4.260270e-03 7.557191e-03 4.906643e-03 5.148428e-03 2.105728e-03 -2.276335e-03 -2.049365e-03 2.863554e-03 6.784512e-03 -1.379473e-02
<VARIANCE> 25
 5.449968e+01 5.621436e+01 6.950064e+01 6.216042e+01 6.924042e+01 6.446697e+01 5.696060e+01 6.065434e+01 5.306881e+01 4.763975e+01 4.758434e+01 3.696877e+01 2.225544e+00 2.963686e+00 2.951926e+00 3.438814e+00 3.690748e+00 3.592742e+00 3.482241e+00 3.832527e+00 3.384331e+00 3.124900e+00 3.048196e+00 2.449970e+00 2.658772e+00
<GCONST> 1.089315e+02
<STATE> 3
<MEAN> 25
 6.371471e-01 -6.887359e-02 3.587002e-01 1.176071e-01 -1.551866e-01 -3.688007e-02 -1.150419e-01 -7.437305e-02 -2.559354e-01 -1.748875e-01 -3.893639e-01 -2.070943e-01 -1.584983e-02 6.070320e-03 -4.946868e-03 4.584282e-03 8.567821e-03 5.693865e-03 6.081115e-03 2.580675e-03 -6.926339e-04 -6.597440e-04 6.332347e-03 8.698199e-03 -1.848924e-02
<VARIANCE> 25
 5.455965e+01 5.615538e+01 6.924484e+01 6.211007e+01 6.928248e+01 6.443459e+01 5.698696e+01 6.058780e+01 5.306208e+01 4.760388e+01 4.753479e+01 3.695984e+01 2.219568e+00 2.950531e+00 2.937052e+00 3.426906e+00 3.683073e+00 3.584965e+00 3.477461e+00 3.819032e+00 3.376953e+00 3.115568e+00 3.041029e+00 2.446140e+00 2.644159e+00
<GCONST> 1.088849e+02
<STATE> 4
<MEAN> 25
 5.914508e-01 -5.288404e-02 3.339295e-01 1.227999e-01 -1.353911e-01 -3.051844e-02 -1.065089e-01 -7.314021e-02 -2.533017e-01 -1.639968e-01 -3.509976e-01 -1.854146e-01 -1.948864e-02 5.990141e-03 -6.997546e-03 5.012501e-03 8.301429e-03 6.142436e-03 6.330481e-03 2.552508e-03 8.869455e-04 1.034877e-03 8.905975e-03 9.720077e-03 -2.278781e-02
<VARIANCE> 25
 5.464899e+01 5.617830e+01 6.890775e+01 6.229853e+01 6.918703e+01 6.423246e+01 5.686710e+01 5.995991e+01 5.294110e+01 4.746800e+01 4.720783e+01 3.697575e+01 2.167555e+00 2.888575e+00 2.880896e+00 3.362468e+00 3.626130e+00 3.543521e+00 3.433363e+00 3.744746e+00 3.336311e+00 3.073568e+00 2.996074e+00 2.415686e+00 2.595689e+00
<GCONST> 1.086420e+02
<TRANSP> 5
 0.000000e+00 1.000000e+00 0.000000e+00 0.000000e+00 0.000000e+00
 0.000000e+00 6.116599e-01 3.883401e-01 0.000000e+00 0.000000e+00
 0.000000e+00 0.000000e+00 6.116626e-01 3.883373e-01 0.000000e+00
 0.000000e+00 0.000000e+00 0.000000e+00 7.263743e-01 2.736257e-01
 0.000000e+00 0.000000e+00 0.000000e+00 0.000000e+00 0.000000e+00
<ENDHMM>
~h "o"
<BEGINHMM>
<NUMSTATES> 5
<STATE> 2
<MEAN> 25
 6.053786e-01 1.879227e-01 -1.087272e+00 -1.176564e+00 8.555370e-02 7.920970e-01 -9.849307e-02 -2.320406e-01 2.974113e-01 3.561532e-01 2.922966e-01 -1.346003e-01 8.221637e-03 -5.046262e-03 3.056062e-03 -1.084255e-02 -8.420016e-04 -1.866195e-03 9.254355e-03 2.119767e-03 -8.134274e-03 8.426748e-04 -3.497062e-03 -6.900836e-03 1.510031e-02
<VARIANCE> 25
 6.153319e+01 4.963122e+01 6.482449e+01 7.306074e+01 6.836971e+01 7.093169e+01 5.731626e+01 5.783324e+01 5.190026e+01 5.046507e+01 4.535811e+01 3.642433e+01 2.364619e+00 2.615702e+00 2.750513e+00 3.744272e+00 3.613615e+00 3.655702e+00 3.428567e+00 3.496471e+00 3.303062e+00 3.127713e+00 2.942320e+00 2.427297e+00 2.623440e+00
<GCONST> 1.087920e+02
<STATE> 3
<MEAN> 25
 6.077792e-01 1.811095e-01 -1.070845e+00 -1.185801e+00 8.682964e-02 7.755471e-01 -7.146939e-02 -2.188976e-01 2.687653e-01 3.590567e-01 2.889244e-01 -1.470928e-01 -3.938956e-03 -3.191745e-03 1.145277e-02 4.571095e-03 -6.162876e-05 -9.098137e-03 1.224006e-02 6.635375e-03 -9.850501e-03 -1.131489e-03 -2.227827e-03 -2.014135e-03 4.600294e-03
<VARIANCE> 25
 6.117986e+01 4.961741e+01 6.508716e+01 7.298804e+01 6.839211e+01 7.092744e+01 5.711618e+01 5.797780e+01 5.179909e+01 5.046671e+01 4.542978e+01 3.640894e+01 2.346392e+00 2.608626e+00 2.752002e+00 3.706041e+00 3.608415e+00 3.651063e+00 3.424365e+00 3.495807e+00 3.290411e+00 3.121055e+00 2.942627e+00 2.420917e+00 2.598210e+00
<GCONST> 1.087451e+02
<STATE> 4
<MEAN> 25
 5.641093e-01 1.904534e-01 -9.543127e-01 -1.110801e+00 3.269187e-02 6.749805e-01 -5.297711e-02 -1.758001e-01 2.046502e-01 3.360033e-01 2.916884e-01 -1.506519e-01 -1.668429e-02 -1.251364e-03 2.072692e-02 1.992096e-02 -7.545106e-04 -1.532498e-02 1.383783e-02 9.743496e-03 -1.067061e-02 -3.735783e-03 2.498499e-04 1.607880e-03 -6.477005e-03
<VARIANCE> 25
 6.005517e+01 4.914037e+01 6.497540e+01 7.288369e+01 6.832902e+01 6.991151e+01 5.615189e+01 5.734183e+01 5.128127e+01 5.015919e+01 4.473154e+01 3.626782e+01 2.223496e+00 2.508591e+00 2.679905e+00 3.544189e+00 3.518572e+00 3.563360e+00 3.329778e+00 3.418999e+00 3.220125e+00 3.056128e+00 2.878798e+00 2.371043e+00 2.491539e+00
<GCONST> 1.082436e+02
<TRANSP> 5
 0.000000e+00 1.000000e+00 0.000000e+00 0.000000e+00 0.000000e+00
 0.000000e+00 6.239654e-01 3.760345e-01 0.000000e+00 0.000000e+00
 0.000000e+00 0.000000e+00 6.239586e-01 3.760415e-01 0.000000e+00
 0.000000e+00 0.000000e+00 0.000000e+00 7.471976e-01 2.528024e-01
 0.000000e+00 0.000000e+00 0.000000e+00 0.000000e+00 0.000000e+00
<ENDHMM>
~h "p"
<BEGINHMM>
<NUMSTATES> 5
<STATE> 2
<MEAN> 25
 4.145461e-01 -2.807432e-01 -8.313526e-01 -2.407763e-01 5.818962e-02 2.320409e-01 6.400245e-02 -1.721429e-02 2.744434e-01 2.032670e-01 1.828057e-02 -1.993989e-01 9.972453e-03 -1.708075e-03 5.716956e-03 -3.904992e-03 -9.283594e-03 -2.751780e-03 1.754930e-03 -8.904114e-03 -5.276863e-03 9.631031e-04 -3.752576e-03 -5.965249e-03 1.298467e-02
<VARIANCE> 25
 5.906996e+01 5.572498e+01 6.908231e+01 6.306991e+01 6.548201e+01 6.418478e+01 5.620738e+01 5.800580e+01 5.179660e+01 4.731461e+01 4.597826e+01 3.701268e+01 2.627692e+00 3.095923e+00 3.057073e+00 3.652515e+00 3.685639e+00 3.750420e+00 3.554205e+00 3.698692e+00 3.429100e+00 3.214912e+00 3.116059e+00 2.565542e+00 3.401687e+00
<GCONST> 1.095169e+02
<STATE> 3
<MEAN> 25
 4.311298e-01 -2.810217e-01 -8.101248e-01 -2.472382e-01 3.690184e-02 2.254263e-01 6.950936e-02 -3.765217e-02 2.608132e-01 2.036274e-01 1.007817e-02 -2.093884e-01 4.913043e-03 2.025907e-03 1.076343e-02 -2.125153e-03 -9.154380e-03 -3.701517e-03 3.308070e-03 -8.478341e-03 -6.613215e-03 2.098124e-04 -2.894361e-03 -3.181198e-03 1.031542e-02
<VARIANCE> 25
 5.869712e+01 5.565738e+01 6.929031e+01 6.300933e+01 6.563063e+01 6.414707e+01 5.620826e+01 5.809042e+01 5.190681e+01 4.731848e+01 4.595859e+01 3.698212e+01 2.623646e+00 3.093548e+00 3.065416e+00 3.652280e+00 3.691219e+00 3.754000e+00 3.551436e+00 3.702428e+00 3.431864e+00 3.219058e+00 3.117706e+00 2.564623e+00 3.391562e+00
<GCONST> 1.095179e+02
<STATE> 4
<MEAN> 25
 4.469752e-01 -2.674627e-01 -7.435594e-01 -2.425928e-01 2.427893e-03 1.952069e-01 5.952052e-02 -5.897830e-02 2.347874e-01 1.826415e-01 -4.796886e-04 -2.046626e-01 -1.348604e-03 5.026052e-03 1.377031e-02 -6.465444e-04 -7.473245e-03 -3.468674e-03 4.292150e-03 -6.347264e-03 -5.990515e-03 -7.986536e-04 -1.284438e-03 6.564346e-05 5.222737e-03
<VARIANCE> 25
 5.847343e+01 5.568599e+01 6.979608e+01 6.313413e+01 6.578871e+01 6.375429e+01 5.633186e+01 5.783554e+01 5.184280e+01 4.746320e+01 4.570910e+01 3.694362e+01 2.556078e+00 3.037762e+00 3.026707e+00 3.591692e+00 3.638947e+00 3.702871e+00 3.512648e+00 3.647253e+00 3.390162e+00 3.184844e+00 3.074898e+00 2.535359e+00 3.307185e+00
<GCONST> 1.093121e+02
<TRANSP> 5
 0.000000e+00 1.000000e+00 0.000000e+00 0.000000e+00 0.000000e+00
 0.000000e+00 6.140774e-01 3.859226e-01 0.000000e+00 0.000000e+00
 0.000000e+00 0.000000e+00 6.140708e-01 3.859291e-01 0.000000e+00
 0.000000e+00 0.000000e+00 0.000000e+00 7.278650e-01 2.721350e-01
 0.000000e+00 0.000000e+00 0.000000e+00 0.000000e+00 0.000000e+00
<ENDHMM>
~h "r"
<BEGINHMM>
<NUMSTATES> 5
<STATE> 2
<MEAN> 25
 6.056581e-01 -5.647468e-01 -2.418415e-01 7.846117e-03 -2.581662e-01 -3.625769e-01 -1.405941e-01 8.770059e-02 1.610513e-01 8.968721e-02 3.406390e-02 -1.085826e-01 -2.955164e-03 3.796197e-03 7.158690e-03 9.352955e-04 2.384870e-03 3.572892e-03 3.957324e-03 1.253876e-03 -8.987350e-03 -4.445469e-03 -3.374843e-04 1.037060e-03 -5.736625e-03
<VARIANCE> 25
 5.801153e+01 5.714342e+01 7.118220e+01 6.064542e+01 6.927427e+01 6.532719e+01 5.824841e+01 6.020794e+01 5.461262e+01 4.798787e+01 4.721488e+01 3.729049e+01 2.507557e+00 3.023709e+00 3.006313e+00 3.426489e+00 3.779027e+00 3.661423e+00 3.554917e+00 3.753150e+00 3.513821e+00 3.188020e+00 3.099081e+00 2.530749e+00 2.891310e+00
<GCONST> 1.094618e+02
<STATE> 3
<MEAN> 25
 5.950763e-01 -5.530246e-01 -2.258181e-01 9.538507e-03 -2.508982e-01 -3.517212e-01 -1.300186e-01 9.031522e-02 1.409732e-01 7.866667e-02 3.334377e-02 -1.056793e-01 -5.860317e-03 7.444391e-03 6.622064e-03 4.273303e-04 4.509772e-03 5.443946e-03 4.788691e-03 7.005354e-04 -9.148958e-03 -5.210360e-03 1.196003e-04 1.928319e-03 -1.042437e-02
<VARIANCE> 25
 5.792622e+01 5.718152e+01 7.134559e+01 6.066974e+01 6.934262e+01 6.533431e+01 5.827805e+01 6.017990e+01 5.455618e+01 4.800420e+01 4.718090e+01 3.726405e+01 2.498471e+00 3.018264e+00 3.002066e+00 3.417468e+00 3.773952e+00 3.655595e+00 3.549792e+00 3.742569e+00 3.503439e+00 3.184543e+00 3.091886e+00 2.523663e+00 2.875257e+00
<GCONST> 1.094313e+02
<STATE> 4
<MEAN> 25
 5.956932e-01 -5.173011e-01 -1.803854e-01 -9.652237e-03 -2.446130e-01 -3.276782e-01 -1.384875e-01 8.671550e-02 1.119703e-01 6.583627e-02 2.972989e-02 -1.064076e-01 -8.844564e-03 1.000805e-02 5.202734e-03 5.034595e-04 6.034142e-03 6.854465e-03 5.738743e-03 3.169889e-04 -7.681486e-03 -5.079779e-03 3.546184e-04 2.511748e-03 -1.434319e-02
<VARIANCE> 25
 5.756361e+01 5.715560e+01 7.131621e+01 6.104851e+01 6.920026e+01 6.518534e+01 5.822155e+01 5.975597e+01 5.441341e+01 4.804499e+01 4.682260e+01 3.726191e+01 2.427305e+00 2.959007e+00 2.953397e+00 3.359440e+00 3.712778e+00 3.612888e+00 3.506664e+00 3.683951e+00 3.456721e+00 3.148877e+00 3.043091e+00 2.490382e+00 2.818479e+00
<GCONST> 1.091964e+02
<TRANSP> 5
 0.000000e+00 1.000000e+00 0.000000e+00 0.000000e+00 0.000000e+00
 0.000000e+00 6.111135e-01 3.888865e-01 0.000000e+00 0.000000e+00
 0.000000e+00 0.000000e+00 6.111123e-01 3.888876e-01 0.000000e+00
 0.000000e+00 0.000000e+00 0.000000e+00 7.254153e-01 2.745847e-01
 0.000000e+00 0.000000e+00 0.000000e+00 0.000000e+00 0.000000e+00
<ENDHMM>
~h "s"
<BEGINHMM>
<NUMSTATES> 5
<STATE> 2
<MEAN> 25
 -1.311275e+00 3.604978e-01 1.738033e-01 7.076239e-02 3.570788e-01 -5.562012e-01 4.407097e-01 2.792472e-02 1.412139e-01 -4.134994e-02 2.302483e-01 2.261016e-01 1.208440e-02 -4.484316e-03 4.877171e-03 -4.851159e-03 -5.351202e-03 -2.636066e-03 -2.123239e-03 -1.809675e-03 -4.753778e-03 -4.497668e-03 -4.767123e-03 -3.415738e-03 7.896250e-03
<VARIANCE> 25
 7.560921e+01 6.044896e+01 7.473813e+01 6.263120e+01 7.318472e+01 6.972720e+01 6.086536e+01 6.037149e+01 5.310397e+01 4.703103e+01 4.609443e+01 3.676455e+01 3.433149e+00 3.060402e+00 3.138266e+00 3.311609e+00 3.815727e+00 3.659902e+00 3.641485e+00 3.621184e+00 3.362515e+00 3.105750e+00 3.016116e+00 2.430426e+00 2.451535e+00
<GCONST> 1.099742e+02
<STATE> 3
<MEAN> 25
 -1.273720e+00 3.435665e-01 1.873058e-01 5.578790e-02 3.439715e-01 -5.560085e-01 4.333582e-01 2.262277e-02 1.290557e-01 -5.222004e-02 2.183210e-01 2.162053e-01 2.106208e-02 -8.546585e-03 4.722394e-03 -5.111830e-03 -7.455714e-03 1.766070e-03 -4.645708e-03 -2.782617e-03 -5.669801e-03 -3.616904e-03 -5.368435e-03 -4.875057e-03 4.158918e-03
<VARIANCE> 25
 7.513928e+01 6.028007e+01 7.466453e+01 6.251883e+01 7.300445e+01 6.957992e+01 6.075004e+01 6.035305e+01 5.304707e+01 4.694410e+01 4.602950e+01 3.672821e+01 3.419873e+00 3.057010e+00 3.133578e+00 3.308249e+00 3.807746e+00 3.659196e+00 3.638206e+00 3.621402e+00 3.364027e+00 3.103572e+00 3.013287e+00 2.427349e+00 2.457425e+00
<GCONST> 1.099396e+02
<STATE> 4
<MEAN> 25
 -1.113674e+00 2.727743e-01 2.080837e-01 9.811237e-03 2.971705e-01 -5.242283e-01 3.848527e-01 -4.945849e-03 9.807173e-02 -5.382821e-02 1.881860e-01 1.761269e-01 2.593665e-02 -1.108309e-02 3.746839e-03 -5.244586e-03 -7.104631e-03 5.609523e-03 -6.258432e-03 -2.369051e-03 -5.678490e-03 -1.611994e-03 -5.677472e-03 -5.079291e-03 -4.849629e-06
<VARIANCE> 25
 7.335387e+01 6.001538e+01 7.453062e+01 6.285763e+01 7.238153e+01 6.908202e+01 6.038845e+01 5.982925e+01 5.290707e+01 4.693492e+01 4.574813e+01 3.668317e+01 3.279000e+00 2.994493e+00 3.087068e+00 3.259548e+00 3.732002e+00 3.614481e+00 3.584260e+00 3.569450e+00 3.330612e+00 3.068969e+00 2.970819e+00 2.399724e+00 2.434042e+00
<GCONST> 1.096634e+02
<TRANSP> 5
 0.000000e+00 1.000000e+00 0.000000e+00 0.000000e+00 0.000000e+00
 0.000000e+00 6.154838e-01 3.845161e-01 0.000000e+00 0.000000e+00
 0.000000e+00 0.000000e+00 6.154925e-01 3.845075e-01 0.000000e+00
 0.000000e+00 0.000000e+00 0.000000e+00 7.304295e-01 2.695705e-01
 0.000000e+00 0.000000e+00 0.000000e+00 0.000000e+00 0.000000e+00
<ENDHMM>
~h "t"
<BEGINHMM>
<NUMSTATES> 5
<STATE> 2
<MEAN> 25
 -1.306339e-02 1.251555e-01 -1.235969e-01 -2.106322e-01 -7.464874e-02 -1.852635e-01 -1.560309e-01 -1.185831e-01 1.089128e-01 1.714765e-01 1.374680e-01 9.803369e-02 1.249246e-02 -7.986094e-03 2.632678e-03 -6.748906e-03 -1.074185e-03 1.868554e-03 -7.170336e-03 -1.751432e-04 -1.689088e-03 7.824387e-04 -3.673021e-03 -2.809972e-03 1.523194e-02
<VARIANCE> 25
 5.624058e+01 5.384908e+01 6.954034e+01 6.297015e+01 6.741258e+01 6.534231e+01 5.800708e+01 5.796640e+01 5.322228e+01 4.723927e+01 4.639195e+01 3.628041e+01 2.545381e+00 2.967009e+00 3.038872e+00 3.529135e+00 3.747007e+00 3.813890e+00 3.664086e+00 3.673490e+00 3.473133e+00 3.184854e+00 3.096228e+00 2.508890e+00 3.323091e+00
<GCONST> 1.094244e+02
<STATE> 3
<MEAN> 25
 1.336327e-02 1.087415e-01 -1.188920e-01 -2.237199e-01 -7.550795e-02 -1.785604e-01 -1.714253e-01 -1.215400e-01 1.027892e-01 1.716919e-01 1.267276e-01 9.223821e-02 1.038077e-02 -7.442367e-03 2.118074e-03 -3.405694e-03 1.406978e-04 4.289017e-03 -5.860164e-03 -5.752218e-04 -2.508821e-03 -9.711026e-05 -3.625424e-03 -2.790690e-03 9.893052e-03
<VARIANCE> 25
 5.593779e+01 5.396490e+01 6.953610e+01 6.289820e+01 6.745329e+01 6.532772e+01 5.798622e+01 5.805387e+01 5.323258e+01 4.727830e+01 4.638713e+01 3.629419e+01 2.535346e+00 2.957424e+00 3.029269e+00 3.521729e+00 3.739571e+00 3.801200e+00 3.656308e+00 3.669872e+00 3.469446e+00 3.185853e+00 3.093199e+00 2.505130e+00 3.292586e+00
<GCONST> 1.093895e+02
<STATE> 4
<MEAN> 25
 6.456967e-02 9.035526e-02 -9.835203e-02 -2.235210e-01 -8.453800e-02 -1.620112e-01 -1.942748e-01 -1.258125e-01 8.867054e-02 1.540066e-01 9.865068e-02 8.716333e-02 5.155423e-03 -4.630730e-03 1.285105e-03 9.581358e-04 2.592108e-03 6.443137e-03 -3.006786e-03 -1.023689e-03 -2.657232e-03 -9.525847e-04 -3.056821e-03 -1.861283e-03 1.708459e-03
<VARIANCE> 25
 5.550240e+01 5.408189e+01 6.932041e+01 6.302448e+01 6.725794e+01 6.497033e+01 5.772332e+01 5.771449e+01 5.317153e+01 4.728576e+01 4.606661e+01 3.623988e+01 2.457711e+00 2.896015e+00 2.980019e+00 3.457500e+00 3.670215e+00 3.733829e+00 3.596004e+00 3.611948e+00 3.427071e+00 3.150508e+00 3.045595e+00 2.471107e+00 3.195588e+00
<GCONST> 1.091159e+02
<TRANSP> 5
 0.000000e+00 1.000000e+00 0.000000e+00 0.000000e+00 0.000000e+00
 0.000000e+00 6.141557e-01 3.858443e-01 0.000000e+00 0.000000e+00
 0.000000e+00 0.000000e+00 6.141497e-01 3.858503e-01 0.000000e+00
 0.000000e+00 0.000000e+00 0.000000e+00 7.283924e-01 2.716076e-01
 0.000000e+00 0.000000e+00 0.000000e+00 0.000000e+00 0.000000e+00
<ENDHMM>
~h "u"
<BEGINHMM>
<NUMSTATES> 5
<STATE> 2
<MEAN> 25
 5.028775e-01 7.373036e-01 -1.677147e-01 -5.844253e-01 6.993124e-02 3.030188e-01 -8.410895e-01 -6.667824e-01 -1.969669e-01 3.831429e-02 3.569432e-01 6.048790e-02 2.256674e-03 -5.501394e-03 1.852319e-03 5.019906e-03 3.860050e-04 -1.862668e-03 3.785952e-03 7.711163e-03 3.948316e-03 1.450501e-03 -4.851766e-03 -4.538828e-04 9.667394e-03
<VARIANCE> 25
 6.044194e+01 5.437171e+01 6.576620e+01 6.633286e+01 6.772894e+01 6.700565e+01 6.081218e+01 6.125568e+01 5.454460e+01 5.020286e+01 4.741568e+01 3.771402e+01 2.468583e+00 2.816821e+00 2.866562e+00 3.619593e+00 3.740209e+00 3.746760e+00 3.706192e+00 3.727546e+00 3.497595e+00 3.265194e+00 3.110967e+00 2.529271e+00 2.688136e+00
<GCONST> 1.095041e+02
<STATE> 3
<MEAN> 25
 5.043853e-01 7.190450e-01 -1.611404e-01 -5.652354e-01 6.919619e-02 2.975656e-01 -8.272726e-01 -6.446743e-01 -1.838278e-01 4.164036e-02 3.447354e-01 5.950934e-02 -2.324647e-03 -9.773744e-03 3.022420e-03 9.460126e-03 4.728858e-04 -3.234385e-03 7.660700e-03 1.111733e-02 5.740599e-03 2.047570e-03 -5.582102e-03 -2.573656e-04 6.517042e-03
<VARIANCE> 25
 6.023562e+01 5.438599e+01 6.571355e+01 6.625451e+01 6.768736e+01 6.699728e+01 6.082989e+01 6.133544e+01 5.449810e+01 5.018615e+01 4.748736e+01 3.776081e+01 2.459184e+00 2.817459e+00 2.864876e+00 3.608571e+00 3.735662e+00 3.747272e+00 3.699909e+00 3.729204e+00 3.492660e+00 3.262879e+00 3.112323e+00 2.528252e+00 2.672439e+00
<GCONST> 1.094839e+02
<STATE> 4
<MEAN> 25
 5.107273e-01 6.586959e-01 -1.296997e-01 -5.275044e-01 5.031640e-02 2.595056e-01 -7.744674e-01 -5.950260e-01 -1.770346e-01 3.453027e-02 3.151578e-01 4.993013e-02 -6.994697e-03 -1.301001e-02 3.790275e-03 1.322701e-02 7.494803e-04 -3.469367e-03 1.105980e-02 1.405074e-02 6.818000e-03 1.262560e-03 -5.484208e-03 -1.315073e-04 2.024618e-03
<VARIANCE> 25
 6.010839e+01 5.453294e+01 6.559988e+01 6.643896e+01 6.758523e+01 6.666360e+01 6.057144e+01 6.089231e+01 5.440243e+01 5.026647e+01 4.734377e+01 3.779308e+01 2.395144e+00 2.784681e+00 2.826604e+00 3.534825e+00 3.674408e+00 3.696144e+00 3.639375e+00 3.671846e+00 3.448127e+00 3.226919e+00 3.072370e+00 2.498228e+00 2.626084e+00
<GCONST> 1.092644e+02
<TRANSP> 5
 0.000000e+00 1.000000e+00 0.000000e+00 0.000000e+00 0.000000e+00
 0.000000e+00 6.164907e-01 3.835093e-01 0.000000e+00 0.000000e+00
 0.000000e+00 0.000000e+00 6.164805e-01 3.835194e-01 0.000000e+00
 0.000000e+00 0.000000e+00 0.000000e+00 7.316148e-01 2.683853e-01
 0.000000e+00 0.000000e+00 0.000000e+00 0.000000e+00 0.000000e+00
<ENDHMM>
~h "w"
<BEGINHMM>
<NUMSTATES> 5
<STATE> 2
<MEAN> 25
 4.873773e-01 8.837213e-02 -1.094835e+00 -1.429594e+00 1.942941e-02 1.014154e+00 -9.581069e-02 1.291899e-01 8.746488e-02 4.049434e-01 3.925033e-01 -4.535351e-02 2.756617e-02 -2.074946e-02 -8.863254e-03 -9.102135e-03 5.231440e-03 -3.398321e-03 -3.713824e-03 -8.650249e-03 6.085083e-03 5.260380e-03 -2.575158e-03 -8.882576e-03 3.745276e-02
<VARIANCE> 25
 7.057803e+01 5.510733e+01 6.686136e+01 7.662307e+01 6.977563e+01 7.245248e+01 5.911299e+01 5.694397e+01 5.105480e+01 4.767586e+01 4.548680e+01 3.907931e+01 2.266006e+00 2.856550e+00 2.685758e+00 3.391814e+00 3.586228e+00 3.599566e+00 3.355584e+00 3.457139e+00 3.249065e+00 3.020526e+00 2.972759e+00 2.559449e+00 2.656536e+00
<GCONST> 1.090606e+02
<STATE> 3
<MEAN> 25
 5.697429e-01 3.659815e-02 -1.119368e+00 -1.448779e+00 4.331830e-02 9.925819e-01 -9.982657e-02 9.915459e-02 9.548141e-02 4.048293e-01 3.699194e-01 -8.410373e-02 2.308928e-02 -2.016107e-02 -8.652728e-03 2.489236e-03 9.433416e-03 -9.497778e-03 1.437989e-03 -5.990313e-03 6.462469e-03 7.122755e-05 -9.060624e-03 -1.181771e-02 3.001162e-02
<VARIANCE> 25
 6.923961e+01 5.537793e+01 6.705086e+01 7.660679e+01 6.947738e+01 7.232781e+01 5.904506e+01 5.684178e+01 5.109141e+01 4.768066e+01 4.558454e+01 3.923238e+01 2.288165e+00 2.875519e+00 2.703533e+00 3.398466e+00 3.583697e+00 3.609757e+00 3.376513e+00 3.465287e+00 3.256692e+00 3.037273e+00 2.982285e+00 2.578947e+00 2.652206e+00
<GCONST> 1.090995e+02
<STATE> 4
<MEAN> 25
 7.095658e-01 -1.067297e-02 -1.098955e+00 -1.409160e+00 8.229960e-02 8.765162e-01 -1.064219e-01 6.826472e-02 5.110722e-02 3.930513e-01 3.060969e-01 -1.570059e-01 1.775523e-02 -1.836826e-02 -7.601731e-03 1.351590e-02 1.178826e-02 -1.283828e-02 5.603848e-03 1.341866e-03 2.768107e-03 -5.065082e-03 -1.086491e-02 -1.173981e-02 1.933914e-02
<VARIANCE> 25
 6.871934e+01 5.664000e+01 6.765710e+01 7.653364e+01 6.973361e+01 7.173927e+01 5.920618e+01 5.697181e+01 5.081167e+01 4.825531e+01 4.578860e+01 3.934548e+01 2.264477e+00 2.884360e+00 2.716907e+00 3.355147e+00 3.532714e+00 3.575498e+00 3.357626e+00 3.415247e+00 3.226621e+00 3.024498e+00 2.943233e+00 2.555771e+00 2.604201e+00
<GCONST> 1.090237e+02
<TRANSP> 5
 0.000000e+00 1.000000e+00 0.000000e+00 0.000000e+00 0.000000e+00
 0.000000e+00 6.246352e-01 3.753648e-01 0.000000e+00 0.000000e+00
 0.000000e+00 0.000000e+00 6.246362e-01 3.753638e-01 0.000000e+00
 0.000000e+00 0.000000e+00 0.000000e+00 7.400033e-01 2.599967e-01
 0.000000e+00 0.000000e+00 0.000000e+00 0.000000e+00 0.000000e+00
<ENDHMM>
~h "y"
<BEGINHMM>
<NUMSTATES> 5
<STATE> 2
<MEAN> 25
 6.783060e-02 -7.037606e-01 5.850448e-01 -2.723879e-01 -5.673022e-01 -4.774893e-01 4.023165e-01 6.521655e-01 -3.366037e-01 -2.722195e-01 -1.207555e-01 1.864805e-02 -1.256629e-03 2.843195e-03 -9.495050e-03 6.609758e-03 1.114707e-02 8.715698e-03 4.154597e-03 -9.195857e-04 2.397778e-03 -4.181430e-03 -1.265382e-02 5.856270e-03 -1.232294e-02
<VARIANCE> 25
 5.479279e+01 5.460277e+01 6.944238e+01 6.265905e+01 7.230391e+01 6.634305e+01 5.804482e+01 6.341307e+01 5.337441e+01 4.871739e+01 4.791113e+01 3.704689e+01 2.047578e+00 2.669691e+00 2.923567e+00 3.155805e+00 3.608158e+00 3.381987e+00 3.348536e+00 3.594497e+00 3.215559e+00 3.020824e+00 2.921768e+00 2.333051e+00 2.338285e+00
<GCONST> 1.083129e+02
<STATE> 3
<MEAN> 25
 6.029359e-02 -6.953706e-01 5.525831e-01 -2.503797e-01 -5.315601e-01 -4.519762e-01 4.150222e-01 6.469911e-01 -3.272239e-01 -2.821887e-01 -1.491051e-01 3.614825e-02 -4.666355e-03 6.554297e-03 -1.640338e-02 1.238389e-02 1.755953e-02 1.260701e-02 3.995241e-03 -4.791752e-03 6.091393e-03 -2.271048e-03 -1.149793e-02 6.987122e-03 -2.209206e-02
<VARIANCE> 25
 5.458973e+01 5.448010e+01 6.894912e+01 6.252623e+01 7.193205e+01 6.605201e+01 5.797277e+01 6.326868e+01 5.320239e+01 4.872240e+01 4.788723e+01 3.705930e+01 2.038940e+00 2.661965e+00 2.904519e+00 3.144742e+00 3.598284e+00 3.369074e+00 3.342351e+00 3.580648e+00 3.211273e+00 3.015499e+00 2.915246e+00 2.333174e+00 2.331450e+00
<GCONST> 1.082436e+02
<STATE> 4
<MEAN> 25
 3.927454e-02 -6.800379e-01 4.581366e-01 -2.011457e-01 -4.028969e-01 -4.110187e-01 4.246880e-01 5.924065e-01 -2.872314e-01 -2.484794e-01 -1.832072e-01 6.854202e-02 -7.850279e-03 1.022746e-02 -2.124392e-02 1.794452e-02 2.347261e-02 1.498514e-02 2.373504e-03 -7.739211e-03 8.622095e-03 -2.636697e-04 -6.690416e-03 7.451832e-03 -3.160829e-02
<VARIANCE> 25
 5.454878e+01 5.463433e+01 6.802149e+01 6.299747e+01 7.113970e+01 6.566000e+01 5.759812e+01 6.255897e+01 5.292980e+01 4.866257e+01 4.761556e+01 3.704236e+01 1.986789e+00 2.601404e+00 2.829692e+00 3.083894e+00 3.513793e+00 3.312848e+00 3.282260e+00 3.508652e+00 3.167504e+00 2.974272e+00 2.863359e+00 2.306205e+00 2.277893e+00
<GCONST> 1.079384e+02
<TRANSP> 5
 0.000000e+00 1.000000e+00 0.000000e+00 0.000000e+00 0.000000e+00
 0.000000e+00 6.155410e-01 3.844590e-01 0.000000e+00 0.000000e+00
 0.000000e+00 0.000000e+00 6.155396e-01 3.844605e-01 0.000000e+00
 0.000000e+00 0.000000e+00 0.000000e+00 7.339034e-01 2.660966e-01
 0.000000e+00 0.000000e+00 0.000000e+00 0.000000e+00 0.000000e+00
<ENDHMM>
~h "z"
<BEGINHMM>
<NUMSTATES> 5
<STATE> 2
<MEAN> 25
 -2.612996e-01 1.270955e+00 2.211183e+00 6.184320e-01 -8.894914e-01 -9.699994e-02 3.572364e-01 -1.583220e+00 -1.147974e+00 -5.184031e-01 3.009706e-01 -1.188331e-02 4.762542e-02 -3.752159e-02 -1.643985e-02 -2.074821e-02 5.238387e-02 4.220980e-02 -2.035229e-02 4.564777e-03 1.095532e-02 -2.269265e-02 -4.597270e-02 -2.305305e-02 2.477376e-02
<VARIANCE> 25
 5.173199e+01 6.324264e+01 9.273847e+01 8.586140e+01 7.786267e+01 7.252975e+01 5.941875e+01 6.564232e+01 6.898952e+01 5.987466e+01 5.113997e+01 3.768835e+01 2.076113e+00 2.503357e+00 3.085556e+00 3.685536e+00 3.721548e+00 3.561845e+00 3.535246e+00 3.525966e+00 3.491182e+00 3.231763e+00 2.894001e+00 2.207014e+00 2.473698e+00
<GCONST> 1.101903e+02
<STATE> 3
<MEAN> 25
 -1.101723e-01 1.163520e+00 2.134927e+00 6.000329e-01 -7.349846e-01 2.242741e-02 3.027091e-01 -1.551090e+00 -1.109882e+00 -6.044115e-01 1.626721e-01 -6.237601e-02 5.109316e-02 -3.463474e-02 -3.677406e-02 -7.908183e-03 5.929511e-02 4.733939e-02 -1.694479e-02 1.409743e-02 2.395764e-02 -3.277753e-02 -5.489229e-02 -1.648574e-02 1.203577e-02
<VARIANCE> 25
 5.145177e+01 6.282827e+01 9.249364e+01 8.622865e+01 7.776994e+01 7.182583e+01 5.895686e+01 6.555728e+01 6.776958e+01 5.945516e+01 5.096584e+01 3.730327e+01 2.049470e+00 2.491080e+00 3.046024e+00 3.661528e+00 3.715896e+00 3.545679e+00 3.510243e+00 3.543013e+00 3.468672e+00 3.217174e+00 2.875384e+00 2.188255e+00 2.482855e+00
<GCONST> 1.100534e+02
<STATE> 4
<MEAN> 25
 1.246632e-01 8.775147e-01 1.844377e+00 6.854234e-01 -5.055494e-01 2.512078e-01 2.245208e-01 -1.341882e+00 -9.687110e-01 -9.005490e-01 -9.524972e-02 -4.388568e-02 5.285339e-02 -2.144937e-02 -5.665744e-02 9.179262e-03 5.647229e-02 4.741893e-02 -1.330467e-02 2.247376e-02 2.840192e-02 -3.337213e-02 -5.929443e-02 -9.702897e-03 -1.158397e-02
<VARIANCE> 25
 4.844067e+01 6.023318e+01 8.867244e+01 8.388367e+01 7.412511e+01 6.667160e+01 5.612745e+01 6.449695e+01 6.560632e+01 5.756513e+01 4.938527e+01 3.581062e+01 1.901314e+00 2.355779e+00 2.863169e+00 3.523272e+00 3.520962e+00 3.369233e+00 3.389194e+00 3.479409e+00 3.346558e+00 3.107855e+00 2.805140e+00 2.118778e+00 2.404475e+00
<GCONST> 1.090072e+02
<TRANSP> 5
 0.000000e+00 1.000000e+00 0.000000e+00 0.000000e+00 0.000000e+00
 0.000000e+00 6.650419e-01 3.349581e-01 0.000000e+00 0.000000e+00
 0.000000e+00 0.000000e+00 6.650425e-01 3.349575e-01 0.000000e+00
 0.000000e+00 0.000000e+00 0.000000e+00 7.906451e-01 2.093549e-01
 0.000000e+00 0.000000e+00 0.000000e+00 0.000000e+00 0.000000e+00
<ENDHMM>
~h "aw"
<BEGINHMM>
<NUMSTATES> 5
<STATE> 2
<MEAN> 25
 -7.052644e-01 1.648929e-01 -1.414503e+00 -1.341078e+00 -1.292905e+00 1.927825e+00 -1.182243e-01 -4.051345e-01 -8.244432e-01 -3.547374e-01 2.658164e-01 8.762661e-01 -2.239926e-02 8.512206e-02 -3.752778e-02 -1.631988e-02 5.746493e-02 -3.455269e-02 -1.997569e-02 2.018728e-02 -6.747273e-02 -4.279586e-02 -2.713970e-03 -4.310398e-02 -6.650912e-02
<VARIANCE> 25
 7.145337e+01 7.958630e+01 8.366966e+01 1.082534e+02 7.153763e+01 9.859681e+01 4.986234e+01 4.675014e+01 7.322781e+01 4.642884e+01 4.386590e+01 3.777644e+01 1.882992e+00 2.999003e+00 2.683837e+00 3.230051e+00 3.817815e+00 3.306905e+00 2.715610e+00 3.479557e+00 3.608032e+00 3.076878e+00 2.640986e+00 2.841478e+00 2.766648e+00
<GCONST> 1.099765e+02
<STATE> 3
<MEAN> 25
 -7.653759e-01 3.219546e-01 -1.553047e+00 -1.368745e+00 -1.115808e+00 1.823678e+00 -1.877492e-01 -3.246956e-01 -9.686182e-01 -4.633332e-01 2.332810e-01 7.670339e-01 -9.197704e-03 7.306344e-02 -5.524424e-02 -2.098922e-03 8.188002e-02 -4.852881e-02 -2.323688e-02 3.339592e-02 -3.327296e-02 -5.534063e-02 -3.868877e-02 -5.792206e-02 -5.448290e-02
<VARIANCE> 25
 7.218571e+01 7.610234e+01 8.548203e+01 1.110218e+02 7.127853e+01 9.742712e+01 5.101529e+01 4.727219e+01 7.166297e+01 4.575097e+01 4.375652e+01 3.738945e+01 1.820267e+00 2.942606e+00 2.682259e+00 3.278408e+00 3.721263e+00 3.347425e+00 2.720017e+00 3.466292e+00 3.527619e+00 2.988139e+00 2.710582e+00 2.872898e+00 2.670684e+00
<GCONST> 1.098536e+02
<STATE> 4
<MEAN> 25
 -9.019470e-01 4.015775e-01 -1.795772e+00 -1.321468e+00 -8.477567e-01 1.627913e+00 -1.952236e-01 -9.259225e-02 -1.073949e+00 -6.272406e-01 6.707869e-02 6.697657e-01 -1.726825e-03 3.813048e-02 -6.446385e-02 8.656988e-03 1.046775e-01 -5.772856e-02 -2.069340e-02 5.309210e-02 1.224619e-03 -5.827516e-02 -6.464660e-02 -5.300475e-02 -3.381953e-02
<VARIANCE> 25
 7.263102e+01 7.095710e+01 8.628262e+01 1.124380e+02 7.062149e+01 9.580638e+01 5.189399e+01 4.653302e+01 6.996564e+01 4.433337e+01 4.363217e+01 3.680719e+01 1.747547e+00 2.821190e+00 2.682252e+00 3.252168e+00 3.607088e+00 3.400025e+00 2.733199e+00 3.422273e+00 3.449087e+00 2.862126e+00 2.773799e+00 2.905014e+00 2.565014e+00
<GCONST> 1.095268e+02
<TRANSP> 5
 0.000000e+00 1.000000e+00 0.000000e+00 0.000000e+00 0.000000e+00
 0.000000e+00 6.129338e-01 3.870663e-01 0.000000e+00 0.000000e+00
 0.000000e+00 0.000000e+00 6.129336e-01 3.870663e-01 0.000000e+00
 0.000000e+00 0.000000e+00 0.000000e+00 7.172260e-01 2.827740e-01
 0.000000e+00 0.000000e+00 0.000000e+00 0.000000e+00 0.000000e+00
<ENDHMM>
~h "ay"
<BEGINHMM>
<NUMSTATES> 5
<STATE> 2
<MEAN> 25
 8.252307e-03 -2.407931e-01 1.654960e+00 4.705758e-01 -1.423966e+00 -5.149351e-01 9.219572e-01 4.124930e-01 -2.047083e-01 6.317191e-01 1.874269e-01 1.826474e-01 -1.133988e-02 2.511408e-02 1.797405e-02 5.040094e-02 -1.482178e-02 -1.779523e-02 2.149196e-03 6.421138e-04 -3.689684e-02 -3.733659e-02 7.883790e-03 2.802584e-02 -6.780020e-02
<VARIANCE> 25
 5.547022e+01 5.419328e+01 7.742320e+01 6.168962e+01 6.937057e+01 7.091642e+01 5.655999e+01 5.941289e+01 5.550129e+01 5.026562e+01 4.937511e+01 2.976898e+01 2.184246e+00 2.899404e+00 3.481463e+00 3.555732e+00 3.502387e+00 3.954954e+00 3.511948e+00 4.062771e+00 3.411811e+00 3.358156e+00 3.226870e+00 2.303661e+00 1.999239e+00
<GCONST> 1.090598e+02
<STATE> 3
<MEAN> 25
 -4.641797e-02 -1.601729e-01 1.684873e+00 5.920471e-01 -1.430984e+00 -5.317649e-01 9.281190e-01 4.146459e-01 -3.303624e-01 5.409251e-01 2.045802e-01 2.533875e-01 -1.102640e-02 3.985664e-02 2.159504e-04 4.508352e-02 6.817226e-03 -1.900013e-02 -8.630898e-03 -4.757194e-03 -4.517435e-02 -3.257503e-02 1.540065e-02 2.716048e-02 -6.841682e-02
<VARIANCE> 25
 5.545871e+01 5.313977e+01 7.571900e+01 6.109251e+01 7.027332e+01 7.124505e+01 5.711531e+01 5.936560e+01 5.524113e+01 4.998428e+01 5.006789e+01 2.972110e+01 2.170207e+00 2.873250e+00 3.392877e+00 3.475610e+00 3.506766e+00 4.002569e+00 3.490452e+00 4.003916e+00 3.388230e+00 3.309180e+00 3.239959e+00 2.273616e+00 1.966142e+00
<GCONST> 1.089176e+02
<STATE> 4
<MEAN> 25
 -1.185271e-01 -2.137460e-02 1.635020e+00 6.508183e-01 -1.351617e+00 -5.024007e-01 9.038892e-01 4.270563e-01 -4.858762e-01 4.300257e-01 2.423332e-01 3.300728e-01 -1.533777e-02 4.680284e-02 -2.531379e-02 2.659725e-02 2.702936e-02 -8.885228e-03 -1.756203e-03 6.457113e-03 -3.794388e-02 -1.799523e-02 2.414821e-02 2.666774e-02 -6.848334e-02
<VARIANCE> 25
 5.590700e+01 5.313111e+01 7.512514e+01 6.004283e+01 7.073803e+01 7.020133e+01 5.656932e+01 5.836704e+01 5.490636e+01 4.884787e+01 5.008942e+01 2.962742e+01 2.093793e+00 2.822253e+00 3.252456e+00 3.325100e+00 3.460030e+00 3.904324e+00 3.370859e+00 3.882113e+00 3.340319e+00 3.215168e+00 3.171814e+00 2.200605e+00 1.901462e+00
<GCONST> 1.084590e+02
<TRANSP> 5
 0.000000e+00 1.000000e+00 0.000000e+00 0.000000e+00 0.000000e+00
 0.000000e+00 6.270707e-01 3.729292e-01 0.000000e+00 0.000000e+00
 0.000000e+00 0.000000e+00 6.270708e-01 3.729292e-01 0.000000e+00
 0.000000e+00 0.000000e+00 0.000000e+00 7.385457e-01 2.614543e-01
 0.000000e+00 0.000000e+00 0.000000e+00 0.000000e+00 0.000000e+00
<ENDHMM>
~h "kh"
<BEGINHMM>
<NUMSTATES> 5
<STATE> 2
<MEAN> 25
 -1.205805e+00 -9.978382e-01 -2.464648e-01 2.245311e+00 2.485507e-01 2.335339e+00 3.603888e+00 5.206519e-01 9.476867e-01 -2.664765e-01 1.993219e+00 1.682416e+00 2.742209e-01 3.938814e-02 -1.000325e-01 -5.585910e-02 -8.499595e-02 -1.380012e-01 -4.846026e-02 -7.892763e-02 1.166060e-01 -2.451040e-02 -1.004754e-01 -1.054285e-01 3.136516e-01
<VARIANCE> 25
 1.122760e+02 5.978592e+01 1.024353e+02 5.748220e+01 1.111219e+02 7.699286e+01 7.659756e+01 7.131908e+01 4.698309e+01 3.716065e+01 4.405547e+01 8.009937e+01 3.927361e+00 3.919923e+00 3.945979e+00 2.182878e+00 5.129930e+00 4.178742e+00 4.269061e+00 3.754512e+00 3.220157e+00 3.024139e+00 3.303648e+00 2.904583e+00 3.066112e+00
<GCONST> 1.131178e+02
<STATE> 3
<MEAN> 25
 -5.354189e-01 -9.341298e-01 -4.533218e-01 2.144998e+00 5.451357e-02 1.974638e+00 3.458240e+00 4.135745e-01 1.209037e+00 -3.511685e-01 1.731699e+00 1.406684e+00 2.689204e-01 2.440237e-02 -8.273560e-02 -4.996147e-02 -7.014690e-02 -1.561898e-01 -8.007029e-02 -2.485793e-02 1.054285e-01 -2.356007e-02 -9.853090e-02 -1.349681e-01 3.353322e-01
<VARIANCE> 25
 1.054916e+02 6.336433e+01 1.051818e+02 5.532527e+01 1.093272e+02 7.650922e+01 7.663479e+01 7.116091e+01 4.797268e+01 3.685827e+01 4.394389e+01 7.887489e+01 3.946057e+00 4.109010e+00 4.002527e+00 2.248983e+00 5.189646e+00 4.292842e+00 4.258702e+00 3.785311e+00 3.322947e+00 3.064113e+00 3.226423e+00 2.838009e+00 3.083379e+00
<GCONST> 1.132157e+02
<STATE> 4
<MEAN> 25
 1.576670e-01 -1.092564e+00 -5.061159e-01 1.894416e+00 -1.171702e-01 1.515043e+00 3.214319e+00 6.297530e-01 1.389343e+00 -3.976170e-01 1.498106e+00 8.624967e-01 2.401991e-01 5.371039e-03 -5.387142e-02 -3.549968e-02 -5.097446e-02 -1.656268e-01 -9.782466e-02 4.415734e-02 8.762056e-02 -2.793656e-02 -9.612512e-02 -1.454970e-01 3.304392e-01
<VARIANCE> 25
 9.853297e+01 6.345159e+01 1.087047e+02 5.310154e+01 1.098886e+02 7.604574e+01 7.697518e+01 6.919355e+01 4.910552e+01 3.671041e+01 4.453553e+01 7.481052e+01 3.935191e+00 4.125052e+00 4.020187e+00 2.343190e+00 5.299373e+00 4.408723e+00 4.200335e+00 3.733639e+00 3.390186e+00 3.105360e+00 3.174021e+00 2.758220e+00 3.126978e+00
<GCONST> 1.131652e+02
<TRANSP> 5
 0.000000e+00 1.000000e+00 0.000000e+00 0.000000e+00 0.000000e+00
 0.000000e+00 5.886931e-01 4.113069e-01 0.000000e+00 0.000000e+00
 0.000000e+00 0.000000e+00 5.886934e-01 4.113066e-01 0.000000e+00
 0.000000e+00 0.000000e+00 0.000000e+00 6.897707e-01 3.102294e-01
 0.000000e+00 0.000000e+00 0.000000e+00 0.000000e+00 0.000000e+00
<ENDHMM>
~h "ng"
<BEGINHMM>
<NUMSTATES> 5
<STATE> 2
<MEAN> 25
 1.011893e+00 -4.489532e-02 -2.789488e-01 -2.831153e-01 1.999132e-01 3.780418e-01 -1.665821e-01 -1.953782e-01 -2.345622e-01 -1.770607e-01 -6.442053e-01 -5.365327e-01 -4.677408e-03 1.278626e-03 1.930568e-03 9.749785e-03 5.947635e-03 -6.637737e-04 -5.748213e-03 9.462563e-03 3.201366e-03 -1.507864e-03 3.212927e-03 7.449042e-04 -5.001196e-03
<VARIANCE> 25
 5.441294e+01 5.623855e+01 6.005409e+01 5.795899e+01 6.661938e+01 6.450138e+01 5.767666e+01 5.855690e+01 5.365738e+01 4.802366e+01 4.669120e+01 3.828156e+01 2.124805e+00 2.929549e+00 2.762448e+00 3.390039e+00 3.703165e+00 3.577468e+00 3.559045e+00 3.790921e+00 3.419578e+00 3.128185e+00 3.064798e+00 2.513400e+00 2.656943e+00
<GCONST> 1.086017e+02
<STATE> 3
<MEAN> 25
 9.949158e-01 -4.140898e-02 -2.726662e-01 -2.544732e-01 2.123642e-01 3.764314e-01 -1.792710e-01 -1.711612e-01 -2.275442e-01 -1.825640e-01 -6.303325e-01 -5.320997e-01 -9.100955e-03 6.868363e-04 1.025695e-04 9.990081e-03 5.391418e-03 -7.548822e-04 -5.223164e-03 1.073012e-02 5.205976e-03 -1.737372e-03 6.244808e-03 4.080632e-03 -8.248688e-03
<VARIANCE> 25
 5.432912e+01 5.615422e+01 6.010131e+01 5.792690e+01 6.676876e+01 6.449004e+01 5.780666e+01 5.849402e+01 5.374269e+01 4.799345e+01 4.675267e+01 3.835040e+01 2.117057e+00 2.922155e+00 2.757554e+00 3.382888e+00 3.695908e+00 3.574834e+00 3.559203e+00 3.789571e+00 3.413746e+00 3.124972e+00 3.067767e+00 2.516749e+00 2.643055e+00
<GCONST> 1.085874e+02
<STATE> 4
<MEAN> 25
 9.663484e-01 -3.773838e-02 -2.520269e-01 -2.304733e-01 2.181862e-01 3.345987e-01 -1.792571e-01 -1.138673e-01 -2.069903e-01 -1.780550e-01 -5.806982e-01 -5.112478e-01 -1.370243e-02 4.571872e-04 -5.320623e-04 1.042870e-02 4.940638e-03 -1.389003e-03 -3.773589e-03 1.078881e-02 6.416516e-03 -1.804900e-03 9.762879e-03 7.439881e-03 -1.124970e-02
<VARIANCE> 25
 5.478853e+01 5.615528e+01 6.041036e+01 5.789441e+01 6.649083e+01 6.415545e+01 5.788125e+01 5.805745e+01 5.390450e+01 4.797456e+01 4.674796e+01 3.846141e+01 2.075264e+00 2.880027e+00 2.719758e+00 3.332280e+00 3.643175e+00 3.534680e+00 3.519099e+00 3.723210e+00 3.370001e+00 3.088892e+00 3.032626e+00 2.494341e+00 2.606961e+00
<GCONST> 1.084135e+02
<TRANSP> 5
 0.000000e+00 1.000000e+00 0.000000e+00 0.000000e+00 0.000000e+00
 0.000000e+00 6.068271e-01 3.931729e-01 0.000000e+00 0.000000e+00
 0.000000e+00 0.000000e+00 6.068246e-01 3.931755e-01 0.000000e+00
 0.000000e+00 0.000000e+00 0.000000e+00 7.191271e-01 2.808729e-01
 0.000000e+00 0.000000e+00 0.000000e+00 0.000000e+00 0.000000e+00
<ENDHMM>
~h "ny"
<BEGINHMM>
<NUMSTATES> 5
<STATE> 2
<MEAN> 25
 4.150307e-01 -6.156045e-01 8.236229e-01 2.896902e-01 -3.424730e-01 -4.311860e-01 2.012209e-01 5.337519e-01 -7.793375e-01 -7.123551e-01 -3.236332e-01 4.289943e-02 -1.660375e-02 1.560547e-03 -1.947859e-02 2.894995e-02 1.991370e-02 2.794926e-02 1.888633e-02 5.924991e-03 -7.690462e-04 2.798372e-03 4.429967e-04 9.910619e-03 -5.223165e-02
<VARIANCE> 25
 5.170877e+01 5.550402e+01 6.820785e+01 5.856126e+01 6.517078e+01 6.119961e+01 5.495165e+01 6.199041e+01 5.622561e+01 4.972797e+01 4.819102e+01 3.819945e+01 2.150283e+00 2.988164e+00 3.006198e+00 3.445796e+00 3.663458e+00 3.487661e+00 3.451511e+00 3.806599e+00 3.356738e+00 3.122272e+00 2.952846e+00 2.403713e+00 2.558949e+00
<GCONST> 1.086504e+02
<STATE> 3
<MEAN> 25
 3.668324e-01 -6.021968e-01 7.777512e-01 3.541855e-01 -3.011970e-01 -3.589664e-01 2.494136e-01 5.423550e-01 -7.818909e-01 -6.964907e-01 -3.198874e-01 7.020137e-02 -1.841848e-02 5.930486e-03 -2.493371e-02 2.567128e-02 2.235379e-02 2.979708e-02 1.876061e-02 1.205198e-03 4.048676e-03 1.125356e-02 1.983014e-03 1.146483e-02 -5.890073e-02
<VARIANCE> 25
 5.158582e+01 5.522933e+01 6.790076e+01 5.855278e+01 6.513393e+01 6.104432e+01 5.496819e+01 6.185947e+01 5.597688e+01 4.985495e+01 4.836824e+01 3.817269e+01 2.115785e+00 2.960394e+00 2.985805e+00 3.416070e+00 3.638417e+00 3.471023e+00 3.430045e+00 3.784749e+00 3.343613e+00 3.112096e+00 2.938242e+00 2.398020e+00 2.543918e+00
<GCONST> 1.085495e+02
<STATE> 4
<MEAN> 25
 3.363338e-01 -5.692841e-01 6.747286e-01 3.670433e-01 -2.726103e-01 -2.571274e-01 2.717760e-01 4.900394e-01 -7.403804e-01 -6.157045e-01 -3.181446e-01 9.356789e-02 -2.187494e-02 9.220507e-03 -2.594075e-02 1.739473e-02 1.915951e-02 2.954177e-02 1.834589e-02 -2.225456e-03 8.949016e-03 1.777209e-02 2.350966e-03 1.160149e-02 -6.356756e-02
<VARIANCE> 25
 5.138231e+01 5.491811e+01 6.747453e+01 5.870204e+01 6.540083e+01 6.087283e+01 5.505454e+01 6.155071e+01 5.538680e+01 5.010732e+01 4.833437e+01 3.801774e+01 2.046655e+00 2.881777e+00 2.927418e+00 3.350142e+00 3.578412e+00 3.422510e+00 3.387307e+00 3.712619e+00 3.297361e+00 3.080628e+00 2.900718e+00 2.385522e+00 2.494555e+00
<GCONST> 1.083000e+02
<TRANSP> 5
 0.000000e+00 1.000000e+00 0.000000e+00 0.000000e+00 0.000000e+00
 0.000000e+00 6.139166e-01 3.860834e-01 0.000000e+00 0.000000e+00
 0.000000e+00 0.000000e+00 6.139222e-01 3.860777e-01 0.000000e+00
 0.000000e+00 0.000000e+00 0.000000e+00 7.251250e-01 2.748750e-01
 0.000000e+00 0.000000e+00 0.000000e+00 0.000000e+00 0.000000e+00
<ENDHMM>
~h "sy"
<BEGINHMM>
<NUMSTATES> 5
<STATE> 2
<MEAN> 25
 -1.408978e+00 5.580885e-01 1.030837e+00 2.270305e+00 -1.408432e+00 3.656316e-01 -1.710283e+00 1.140381e-01 6.682602e-01 -1.017774e+00 7.981488e-01 -4.632276e-01 -2.464059e-02 4.390695e-03 1.376039e-02 1.864156e-02 1.206792e-01 -1.278661e-01 2.071042e-02 -6.551819e-02 4.319354e-02 -9.324481e-02 -1.160616e-01 6.715322e-02 -3.590164e-02
<VARIANCE> 25
 7.658060e+01 2.874944e+01 5.293399e+01 3.130647e+01 5.127007e+01 4.830530e+01 3.822145e+01 4.502029e+01 2.871535e+01 5.509813e+01 3.141458e+01 2.191398e+01 3.999939e+00 1.694885e+00 2.245209e+00 2.872568e+00 3.415021e+00 3.125456e+00 3.023847e+00 2.026632e+00 2.478940e+00 3.353009e+00 2.778352e+00 2.050154e+00 1.254092e+00
<GCONST> 1.022653e+02
<STATE> 3
<MEAN> 25
 -1.353146e+00 5.931839e-01 9.605948e-01 2.288193e+00 -1.060931e+00 1.304680e-01 -1.666639e+00 -4.995764e-02 7.502602e-01 -1.163433e+00 5.507272e-01 -2.859746e-01 -5.219363e-02 6.594146e-03 7.143730e-03 -8.206350e-03 1.218564e-01 -1.012270e-01 4.967581e-02 -6.319901e-02 4.935033e-02 -4.602769e-02 -8.752063e-02 7.875886e-02 -4.176181e-02
<VARIANCE> 25
 7.327946e+01 2.768037e+01 5.247291e+01 3.237421e+01 5.086986e+01 4.692855e+01 3.587780e+01 4.500679e+01 2.847124e+01 5.624723e+01 3.002550e+01 2.383727e+01 3.814574e+00 1.624933e+00 2.346213e+00 2.980351e+00 3.373539e+00 3.081510e+00 3.000781e+00 2.091427e+00 2.287435e+00 3.437784e+00 2.677087e+00 2.141127e+00 1.190082e+00
<GCONST> 1.020459e+02
<STATE> 4
<MEAN> 25
 -1.061178e+00 6.544988e-01 8.286716e-01 2.196511e+00 -7.679886e-01 -5.480457e-02 -1.445322e+00 -6.356185e-02 6.734794e-01 -1.176571e+00 3.244796e-01 -1.153452e-01 -2.667764e-02 7.808583e-03 -3.380457e-02 -5.823198e-02 1.134579e-01 -4.810332e-02 5.600018e-02 -6.376936e-02 4.315490e-02 3.238864e-02 -2.914387e-02 7.973750e-02 -4.118143e-02
<VARIANCE> 25
 7.016851e+01 2.760276e+01 5.397942e+01 3.519083e+01 5.285897e+01 4.462566e+01 3.427679e+01 4.353512e+01 2.711030e+01 5.743639e+01 2.804445e+01 2.590254e+01 3.540245e+00 1.610328e+00 2.494761e+00 3.185929e+00 3.396221e+00 2.970812e+00 3.096663e+00 2.210615e+00 2.055762e+00 3.552564e+00 2.504783e+00 2.294014e+00 1.138367e+00
<GCONST> 1.019929e+02
<TRANSP> 5
 0.000000e+00 1.000000e+00 0.000000e+00 0.000000e+00 0.000000e+00
 0.000000e+00 6.058023e-01 3.941977e-01 0.000000e+00 0.000000e+00
 0.000000e+00 0.000000e+00 6.058023e-01 3.941977e-01 0.000000e+00
 0.000000e+00 0.000000e+00 0.000000e+00 7.123533e-01 2.876468e-01
 0.000000e+00 0.000000e+00 0.000000e+00 0.000000e+00 0.000000e+00
<ENDHMM>
~h "sil"
<BEGINHMM>
<NUMSTATES> 5
<STATE> 2
<MEAN> 25
 -6.711171e+00 1.830588e+00 -1.787877e+00 3.444690e+00 2.822767e+00 3.345481e+00 2.653039e+00 1.456782e+00 8.889238e-01 4.240407e-01 9.796768e-01 2.366834e+00 6.597567e-03 -4.691757e-03 2.495203e-03 -3.483806e-02 -4.703702e-04 1.987176e-03 -2.456723e-02 -1.821768e-02 1.311034e-02 1.323542e-02 1.893856e-02 -2.150908e-02 3.405186e-02
<VARIANCE> 25
 4.273341e+01 3.319351e+01 3.764652e+01 4.247942e+01 4.402424e+01 4.362514e+01 3.631293e+01 3.857811e+01 3.877375e+01 3.788944e+01 3.439600e+01 2.629388e+01 8.414630e-01 1.069662e+00 1.230121e+00 1.541514e+00 1.908615e+00 1.906910e+00 1.943802e+00 2.038391e+00 2.021828e+00 1.979358e+00 1.819801e+00 1.663374e+00 1.156061e+00
<GCONST> 9.532909e+01
<STATE> 3
<MEAN> 25
 -6.609568e+00 1.804317e+00 -1.755237e+00 3.280859e+00 2.802834e+00 3.307102e+00 2.572957e+00 1.418465e+00 8.982942e-01 4.495758e-01 1.011858e+00 2.307027e+00 4.587470e-02 -1.463501e-02 1.614439e-02 -6.750621e-02 -1.264140e-02 -2.756670e-02 -3.335287e-02 -1.187492e-02 -1.519570e-03 6.513698e-03 8.878828e-03 -2.239402e-02 1.150770e-01
<VARIANCE> 25
 4.382224e+01 3.439371e+01 3.858568e+01 4.427957e+01 4.451247e+01 4.496116e+01 3.668472e+01 3.875823e+01 3.925705e+01 3.778063e+01 3.449355e+01 2.621506e+01 1.030752e+00 1.232805e+00 1.392072e+00 1.736735e+00 2.036377e+00 2.059367e+00 2.034379e+00 2.148291e+00 2.116159e+00 2.011295e+00 1.903342e+00 1.695296e+00 1.478793e+00
<GCONST> 9.672054e+01
<STATE> 4
<MEAN> 25
 -5.565177e+00 1.511980e+00 -1.457855e+00 2.679244e+00 2.212469e+00 2.728329e+00 2.218729e+00 1.263105e+00 6.691859e-01 3.003389e-01 8.645984e-01 1.863574e+00 5.952838e-02 -2.106715e-02 2.477839e-02 -6.779493e-02 -2.721374e-02 -3.394965e-02 -3.072549e-02 -1.469681e-02 -1.184601e-02 -8.809607e-04 -5.478600e-03 -2.681484e-02 1.355405e-01
<VARIANCE> 25
 5.062706e+01 4.084410e+01 4.659714e+01 5.087918e+01 4.815013e+01 5.083475e+01 3.896162e+01 4.535574e+01 4.494159e+01 3.902049e+01 3.641858e+01 3.051084e+01 1.190517e+00 1.428776e+00 1.585463e+00 1.950291e+00 2.127372e+00 2.184550e+00 2.158623e+00 2.423498e+00 2.264054e+00 2.076874e+00 2.060100e+00 1.821739e+00 1.616221e+00
<GCONST> 9.931649e+01
<TRANSP> 5
 0.000000e+00 1.000000e+00 0.000000e+00 0.000000e+00 0.000000e+00
 0.000000e+00 6.322911e-01 3.677089e-01 0.000000e+00 0.000000e+00
 0.000000e+00 0.000000e+00 6.322876e-01 3.677123e-01 0.000000e+00
 0.000000e+00 0.000000e+00 0.000000e+00 7.811213e-01 2.188787e-01
 0.000000e+00 0.000000e+00 0.000000e+00 0.000000e+00 0.000000e+00
<ENDHMM>
