COUNTS

BIGRAM: method Katz, cutoff 1
  coef[7]: 0.000000 0.515022 0.653191 0.765255 0.757629 0.864080 0.990000

TRIGRAM: method Katz, cutoff 1
  coef[7]: 0.000000 0.424812 0.572675 0.660350 0.749787 0.813582 0.916994

\data\
ngram 1=10791
ngram 2=12658
ngram 3=9545

\1-grams:
+7118.0000	</s>	+0.0000
+2.0000	<a>
+1.0000	<ah>
+1.0000	<aha>
+1.0000	<aku>
+1.0000	<al>
+1.0000	<an>
+1.0000	<anna>
+1.0000	<ap>
+1.0000	<apa>
+1.0000	<bat>
+1.0000	<bawa>
+1.0000	<belar>
+1.0000	<berbage>
+1.0000	<bu>
+1.0000	<bur>
+1.0000	<cerit>
+1.0000	<cuk>
+1.0000	<d>
+1.0000	<da>
+1.0000	<dam>
+1.0000	<danma>
+1.0000	<de>
+1.0000	<dengen>
+1.0000	<det>
+1.0000	<diga>
+1.0000	<digantik>
+1.0000	<dika>
+1.0000	<dila>
+1.0000	<ding>
+1.0000	<dis>
+1.0000	<dizni>
+2.0000	<dok>
+1.0000	<dunia>
+1.0000	<dura>
+30.0000	<e>	+22.0000
+1.0000	<ee>
+1.0000	<eee>
+2.0000	<eh>
+5.0000	<ehem>
+1.0000	<ek>
+1.0000	<enggak>
+157.0000	<eu>	+58.0000
+11.0000	<euh>
+47.0000	<eum>	+29.0000
+1.0000	<eumm>
+1.0000	<eut>
+1.0000	<fasi>
+1.0000	<fung>
+2.0000	<ga>
+1.0000	<heeh>
+1.0000	<heem>
+3.0000	<hem>
+1.0000	<hemm>
+1.0000	<heu>
+1.0000	<hmm>
+1.0000	<iba>
+1.0000	<in>
+1.0000	<ini>
+1.0000	<inte>
+1.0000	<interaks>
+1.0000	<iya>
+1.0000	<jaga>
+1.0000	<jika>
+2.0000	<ka>
+1.0000	<kantu>
+1.0000	<kayak>
+2.0000	<ke>
+1.0000	<kenapa>
+1.0000	<kerjakn>
+1.0000	<kira-kira>
+1.0000	<kita>
+1.0000	<komputil>
+1.0000	<kontro>
+1.0000	<le>
+1.0000	<lib>
+1.0000	<lo>
+14.0000	<m>	+10.0000
+1.0000	<man>
+1.0000	<me>
+1.0000	<mek>
+1.0000	<mem>
+1.0000	<memasuki>
+1.0000	<memi>
+1.0000	<mempe>
+1.0000	<mendaya>
+1.0000	<mendeka>
+1.0000	<mengen>
+1.0000	<menghe>
+1.0000	<meny>
+1.0000	<mintadat>
+1.0000	<misalnya>
+1.0000	<mo>
+1.0000	<murai>
+1.0000	<na>
+1.0000	<nahm>
+1.0000	<nee>
+1.0000	<nem>
+1.0000	<ng>
+1.0000	<nyai>
+1.0000	<nyaran>
+1.0000	<nyer>
+14.0000	<o>	+8.0000
+1.0000	<objek>
+75.0000	<oh>	+33.0000
+1.0000	<ohh>
+1.0000	<oleh>
+1.0000	<p>
+1.0000	<pa>
+1.0000	<pada>
+1.0000	<pat>
+1.0000	<pe>
+1.0000	<pen>
+1.0000	<penu>
+1.0000	<per>
+1.0000	<perusaan>
+1.0000	<radit>
+1.0000	<ru>
+7119.0000	<s>	+629.0000
+1.0000	<sa>
+1.0000	<sapa>
+1.0000	<sara>
+1.0000	<satu>
+1.0000	<say>
+1.0000	<saya>
+1.0000	<se>
+1.0000	<seb>
+1.0000	<sen>
+1.0000	<set>
+1.0000	<setele>
+1.0000	<sh>
+1.0000	<si>
+1.0000	<su>
+1.0000	<ta>
+1.0000	<tata>
+1.0000	<teb>
+1.0000	<ter>
+1.0000	<terkonn>
+1.0000	<ti>
+1.0000	<tidak>
+1.0000	<ting>
+1.0000	<tsedia>
+1.0000	<tus>
+1.0000	<u>
+1.0000	<ui>
+1.0000	<ulusan>
+1.0000	<un>
+1.0000	<wira>
+1.0000	<wo>
+1.0000	<ya>
+1.0000	<yak>
+1.0000	<yan>
+1.0000	<yang>
+1.0000	SENT-END
+1.0000	SENT-START
+6.0000	a	+4.0000
+1.0000	aa
+1.0000	aau
+1.0000	abadi
+1.0000	abah
+1.0000	abang
+1.0000	abed
+1.0000	abet
+5.0000	abis
+1.0000	abisin
+1.0000	abisnya
+14.0000	abnormal	+5.0000
+6.0000	aborsi	+0.0000
+1.0000	abrasi
+5.0000	abrasif	+1.0000
+11.0000	abses	+3.0000
+1.0000	absolutnya
+1.0000	abu
+1.0000	abu-abu
+1.0000	abu-abunya
+4.0000	abutment
+6.0000	ac	+4.0000
+1.0000	ac-nya
+1.0000	acak
+1.0000	acap
+1.0000	acar
+1.0000	acara
+1.0000	acaranya
+1.0000	acc
+1.0000	account
+4.0000	acetaminophen	+0.0000
+6.0000	acid	+2.0000
+2.0000	acids
+1.0000	acrolein
+1.0000	acrylonitrile
+1.0000	acungkan
+429.0000	ada	+119.0000
+3.0000	adakah
+1.0000	adakan
+1.0000	adala
+424.0000	adalah	+159.0000
+34.0000	adanya	+16.0000
+1.0000	adaptasi
+6.0000	adapun	+4.0000
+1.0000	adblocker
+13.0000	ade	+8.0000
+1.0000	adegan
+3.0000	adek
+2.0000	adeknya
+28.0000	adik	+19.0000
+1.0000	adik-adik
+1.0000	adikku
+3.0000	adiknya
+2.0000	adiktif	+0.0000
+1.0000	adiku
+10.0000	aditya	+3.0000
+5.0000	administrasi	+3.0000
+3.0000	administrasinya
+1.0000	adminnya
+1.0000	adonannya
+1.0000	adu
+7.0000	aduh	+5.0000
+7.0000	aduk	+1.0000
+2.0000	aedes
+1.0000	aegypti
+2.0000	aerobik
+1.0000	aerosol
+1.0000	affiliate
+13.0000	aftosa	+6.0000
+17.0000	agak	+11.0000
+1.0000	agama
+120.0000	agar	+42.0000
+1.0000	agate
+1.0000	agen
+1.0000	agenda
+1.0000	agus
+1.0000	agustus
+1.0000	ah
+2.0000	aha	+0.0000
+1.0000	ahelah
+17.0000	ahli	+8.0000
+1.0000	ahli-ahli
+5.0000	ahmad	+3.0000
+1.0000	ahsiap
+1.0000	ai
+4.0000	aids
+1.0000	aing
+205.0000	air	+36.0000
+2.0000	airnya
+47.0000	aja	+18.0000
+1.0000	ajah
+1.0000	ajaibnya
+1.0000	ajak
+1.0000	ajang
+1.0000	ajar
+1.0000	ajarin
+1.0000	ajarkan
+1.0000	aji
+1.0000	ajukan
+1.0000	ak
+1.0000	akademik
+1.0000	akademis
+1.0000	akademisi
+1.0000	akal
+601.0000	akan	+173.0000
+9.0000	akar	+3.0000
+1.0000	akbp
+5.0000	akhir	+1.0000
+11.0000	akhir-akhir	+0.0000
+1.0000	akhiri
+29.0000	akhirnya	+26.0000
+90.0000	akibat	+53.0000
+19.0000	akibatnya	+9.0000
+1.0000	akmal
+1.0000	akrab
+2.0000	akrilik
+1.0000	akriliknya
+1.0000	akrolein
+1.0000	akses
+1.0000	aksesibilitas
+1.0000	aksesori
+1.0000	aksi
+1.0000	aksinya
+1.0000	akta
+27.0000	aktif	+17.0000
+6.0000	aktifitas
+1.0000	aktifitasnya
+1.0000	aktifnya
+1.0000	aktinik
+47.0000	aktivitas	+11.0000
+1.0000	aktivitas-aktivitas
+1.0000	aktor
+3.0000	aku
+1.0000	akui
+1.0000	akuisisi
+1.0000	akumulasi
+1.0000	akun
+30.0000	akupunktur	+15.0000
+1.0000	akurasi
+1.0000	akurasinya
+3.0000	akurat
+24.0000	akut	+11.0000
+1.0000	ala
+1.0000	alam
+2.0000	alamat
+1.0000	alamatnya
+124.0000	alami	+25.0000
+2.0000	alangkah	+0.0000
+1.0000	alas
+22.0000	alasan	+7.0000
+4.0000	alasannya	+2.0000
+31.0000	alat	+16.0000
+1.0000	alat-alat
+1.0000	alatnya
+1.0000	alcohol
+11.0000	alergen	+1.0000
+36.0000	alergi	+13.0000
+1.0000	alghi
+1.0000	algoritma
+3.0000	alhamdulillah
+8.0000	alias
+1.0000	alif
+1.0000	alih
+29.0000	aliran	+4.0000
+1.0000	aljabar
+1.0000	alkali
+33.0000	alkohol	+14.0000
+1.0000	all
+1.0000	allah
+1.0000	allicin
+1.0000	allopurinol
+1.0000	almari
+1.0000	almira
+1.0000	almond
+5.0000	alodokter	+0.0000
+1.0000	alokasi
+2.0000	alpha-hydroxy	+0.0000
+4.0000	alpukat
+8.0000	alternatif
+1.0000	aluminium
+1.0000	alumni
+1.0000	alur
+1.0000	alurnya
+1.0000	alzheimer
+1.0000	ama
+1.0000	amalia
+19.0000	aman	+7.0000
+1.0000	aman-amannya
+1.0000	amanah
+3.0000	amat	+1.0000
+1.0000	amatir
+1.0000	amatlah
+1.0000	ambang
+1.0000	ambarawati
+10.0000	ambil	+6.0000
+1.0000	ambilin
+1.0000	ambilnya
+1.0000	ambing
+2.0000	amerika	+0.0000
+1.0000	amin
+2.0000	amino
+1.0000	amiruddin
+1.0000	amit-amit
+2.0000	amonia
+1.0000	amoxilin
+1.0000	ampela
+1.0000	ampere
+7.0000	ampuh	+3.0000
+2.0000	ampun
+38.0000	amputasi	+18.0000
+1.0000	amri
+1.0000	anabolik
+60.0000	anak	+23.0000
+22.0000	anak-anak	+14.0000
+1.0000	anak-anaknya
+1.0000	anakku
+3.0000	anaknya
+2.0000	analgesik
+1.0000	analisa
+1.0000	analisis
+1.0000	analisisnya
+1.0000	analog
+1.0000	anamnesis
+1.0000	anas
+13.0000	anatomi	+2.0000
+3.0000	anbesol	+0.0000
+3.0000	ancaman	+0.0000
+1.0000	ancol
+1.0000	ancur
+4.0000	and	+2.0000
+1061.0000	anda	+163.0000
+1.0000	andal
+3.0000	andi	+1.0000
+2.0000	andil	+0.0000
+1.0000	andreas
+1.0000	andrian
+8.0000	aneh	+6.0000
+1.0000	aneh-aneh
+1.0000	anehnya
+29.0000	anemia	+12.0000
+10.0000	anestesi	+6.0000
+5.0000	aneurisma	+1.0000
+1.0000	anget
+1.0000	angga
+1.0000	anggap
+2.0000	anggapan
+1.0000	anggaplah
+1.0000	anggaran
+1.0000	anggarannya
+21.0000	anggota	+0.0000
+1.0000	anggotanya
+67.0000	anggur	+20.0000
+3.0000	angin
+1.0000	angina
+9.0000	angka	+5.0000
+1.0000	angkasa
+2.0000	angkat	+0.0000
+1.0000	angkatan
+1.0000	angkot
+1.0000	angkotnya
+1.0000	angle
+1.0000	ani
+1.0000	anies
+1.0000	anjay
+2.0000	anjing	+0.0000
+1.0000	anjlok
+11.0000	anjuran	+4.0000
+1.0000	anjurannya
+1.0000	ann
+1.0000	annelies
+1.0000	annuloplasty
+1.0000	anonim
+5.0000	anoreksia	+3.0000
+1.0000	antagonists
+1.0000	antar
+50.0000	antara	+25.0000
+33.0000	antaranya	+8.0000
+3.0000	antasida	+1.0000
+6.0000	anti
+1.0000	anti-angina
+6.0000	anti-inflamasi	+1.0000
+1.0000	anti-inflammatory
+1.0000	anti-radang
+10.0000	antibakteri	+4.0000
+28.0000	antibiotik	+17.0000
+2.0000	antidepresan
+5.0000	antidiabetes
+1.0000	antidiare
+3.0000	antihistamin
+6.0000	antiinflamasi
+1.0000	antiinflamasi-nya
+13.0000	antijamur	+6.0000
+1.0000	antikonvulsan
+9.0000	antimikroba	+4.0000
+3.0000	antinyeri
+6.0000	antioksidan	+4.0000
+1.0000	antiradang
+4.0000	antiseptik	+2.0000
+2.0000	antituberkulosis
+1.0000	antivirus
+1.0000	antman
+1.0000	anton
+1.0000	antosiain
+3.0000	antosianin
+1.0000	antri
+1.0000	antrian
+3.0000	anwar
+2.0000	ap
+170.0000	apa	+27.0000
+5.0000	apa-apa	+3.0000
+1.0000	apaan
+53.0000	apabila	+28.0000
+1.0000	apah
+1.0000	apain
+210.0000	apakah	+48.0000
+15.0000	apalagi	+13.0000
+1.0000	apalah
+1.0000	apanya
+1.0000	apapula
+16.0000	apapun	+6.0000
+1.0000	apbd
+11.0000	apel	+7.0000
+1.0000	apendisitis
+1.0000	aphthous
+1.0000	api
+1.0000	apks
+1.0000	aplastik
+1.0000	aplikasi
+1.0000	aplikasi-aplikasi
+1.0000	aplikasinya
+1.0000	apnea
+13.0000	apotek	+8.0000
+1.0000	apotek-apotek
+1.0000	apoteker
+1.0000	apotekernya
+4.0000	apotik	+2.0000
+1.0000	apply
+1.0000	approval
+1.0000	apps
+1.0000	apresiasi
+1.0000	apresiasinya
+1.0000	april
+1.0000	aprons
+1.0000	aqua
+1.0000	ar
+8.0000	arah	+4.0000
+1.0000	arahannya
+1.0000	arahkan
+1.0000	arak-arakan
+4.0000	arang	+1.0000
+1.0000	aras
+49.0000	area	+17.0000
+1.0000	aresenik
+1.0000	argo
+1.0000	arif
+1.0000	arima
+1.0000	aritmatika
+5.0000	aroma	+3.0000
+1.0000	arousing
+1.0000	arsenik
+1.0000	arsitektur
+1.0000	arsitektural
+26.0000	arteri	+5.0000
+1.0000	arteriosclerosis
+2.0000	arteritis
+3.0000	arthritis
+1.0000	arti
+1.0000	artian
+1.0000	artificial
+1.0000	artifisial
+3.0000	artikel
+1.0000	artikelnya
+9.0000	artinya	+7.0000
+1.0000	artis
+1.0000	artisnya
+2.0000	artritis
+1.0000	arus
+1.0000	as
+1.0000	asa
+1.0000	asal
+1.0000	asalmu
+140.0000	asam	+18.0000
+11.0000	asap	+1.0000
+3.0000	asapnya
+1.0000	asean
+1.0000	asem
+1.0000	asep
+1.0000	asesmen
+1.0000	asetaldehida
+1.0000	asetaminofen
+1.0000	asetat
+3.0000	aseton	+1.0000
+1.0000	asgard
+1.0000	asi
+2.0000	asia
+1.0000	asik
+1.0000	asiknya
+6.0000	asin	+4.0000
+3.0000	asing
+1.0000	asisten
+1.0000	asli
+1.0000	aslinya
+14.0000	asma	+6.0000
+1.0000	aspect
+2.0000	aspek
+1.0000	aspek-aspek
+1.0000	aspeknya
+1.0000	aspirasi
+7.0000	aspirin	+3.0000
+1.0000	assalamualaikum
+1.0000	assasin
+1.0000	assembly
+1.0000	assurance
+3.0000	asthenopia
+2.0000	astringen
+1.0000	astronomi
+1.0000	asuhan
+1.0000	asumsi
+1.0000	asumsikan
+51.0000	asupan	+12.0000
+20.0000	asuransi	+7.0000
+4.0000	asuransinya
+1.0000	asus
+1.0000	at
+1.0000	atap
+101.0000	atas	+53.0000
+1.0000	atasan
+1.0000	atasannya
+1.0000	atasi
+1.0000	atasnya
+1016.0000	atau	+387.0000
+1.0000	ataukah
+14.0000	ataupun
+1.0000	atenolol
+1.0000	atensi
+1.0000	atention
+5.0000	aterosklerosis	+2.0000
+1.0000	ateu
+2.0000	atlet	+0.0000
+1.0000	ato
+1.0000	atom
+1.0000	atopi
+1.0000	atopik
+1.0000	atorvastatin
+1.0000	atribut
+1.0000	atributnya
+1.0000	atrium
+1.0000	atrofi
+6.0000	atsiri	+2.0000
+1.0000	atur
+10.0000	aturan	+7.0000
+1.0000	aturan-aturan
+1.0000	audience
+1.0000	aufa
+1.0000	aula
+1.0000	australia
+1.0000	autentikasi
+1.0000	auto
+3.0000	autoimun
+1.0000	automatic
+1.0000	avenger
+1.0000	avengers
+1.0000	avrg
+32.0000	awal	+14.0000
+1.0000	awal-awal
+1.0000	awalan
+10.0000	awalnya
+1.0000	awam
+1.0000	awan
+1.0000	awareness
+1.0000	awas
+1.0000	awet
+24.0000	ayah	+1.0000
+1.0000	ayahku
+1.0000	ayahmu
+1.0000	ayahnya
+5.0000	ayam	+1.0000
+1.0000	ayamnya
+3.0000	ayo	+1.0000
+1.0000	ayok
+1.0000	ayrton
+1.0000	ayu
+1.0000	ayuk
+1.0000	ayunda
+1.0000	azam
+1.0000	azis
+1.0000	azitromisin
+1.0000	azulene
+14.0000	b	+4.0000
+6.0000	bab
+1.0000	babat
+13.0000	baca	+4.0000
+1.0000	baca-baca
+1.0000	bacakan
+1.0000	bacanya
+1.0000	backend
+1.0000	background
+1.0000	backpacker
+155.0000	badan	+58.0000
+11.0000	badannya	+9.0000
+1.0000	badminton
+1.0000	bag
+1.0000	bagai
+76.0000	bagaimana	+26.0000
+73.0000	bagi	+22.0000
+1.0000	bagi-bagi
+209.0000	bagian	+33.0000
+3.0000	bagian-bagian
+1.0000	bagianku
+1.0000	bagimana
+1.0000	bagimu
+15.0000	bagus	+10.0000
+1.0000	bagusnya
+1.0000	bahagia
+67.0000	bahan	+11.0000
+2.0000	bahan-bahan
+1.0000	bahannya
+3.0000	bahari	+1.0000
+1.0000	bahas
+4.0000	bahasa
+1.0000	bahasan
+12.0000	bahaya	+10.0000
+1.0000	bahkah
+68.0000	bahkan	+43.0000
+7.0000	bahu	+2.0000
+84.0000	bahwa	+44.0000
+1.0000	bahwasanya
+336.0000	baik	+60.0000
+11.0000	baik-baik	+3.0000
+1.0000	baikan
+12.0000	baiklah	+4.0000
+20.0000	baiknya	+7.0000
+10.0000	baju	+6.0000
+3.0000	bajunya	+1.0000
+1.0000	bak
+8.0000	bakal	+5.0000
+1.0000	bakalan
+5.0000	bakar
+1.0000	bakat
+1.0000	bakatnya
+14.0000	baking	+0.0000
+1.0000	bakso
+92.0000	bakteri	+25.0000
+1.0000	bakteri-bakteri
+1.0000	bakteriologik
+1.0000	bakti
+1.0000	baktinya
+1.0000	baku
+1.0000	balai
+1.0000	balas
+1.0000	bali
+2.0000	balik
+1.0000	baliknya
+2.0000	balita
+1.0000	balitbang
+1.0000	balok
+2.0000	balon
+1.0000	bambang
+1.0000	bambu
+1.0000	ban
+1.0000	band
+1.0000	bandang
+1.0000	bandar
+1.0000	bandara
+1.0000	banding
+1.0000	bandung
+22.0000	banget	+10.0000
+1.0000	bangkai
+1.0000	bangkok
+6.0000	bangun
+1.0000	bangunan-bangunan
+1.0000	bangunin
+1.0000	banjir
+1.0000	bank
+1.0000	bantal
+1.0000	bantalan
+15.0000	bantu	+8.0000
+7.0000	bantuan
+5.0000	bantuannya	+1.0000
+1.0000	bantuin
+1.0000	banu
+294.0000	banyak	+85.0000
+2.0000	banyak-banyak	+0.0000
+1.0000	banyak-banyaknya
+1.0000	banyakan
+3.0000	banyaknya
+1.0000	banyuasin
+1.0000	banyusari
+1.0000	bapa
+336.0000	bapak	+100.0000
+1.0000	bapak-bapak
+1.0000	bapak-ibu
+1.0000	bapaknya
+1.0000	bapanya
+1.0000	bapas
+1.0000	bara
+1.0000	barack
+4.0000	barang
+1.0000	barang-barang
+3.0000	barangkali
+1.0000	barangnya
+1.0000	barat
+1.0000	barata
+1.0000	bareng
+1.0000	bareng-bareng
+1.0000	barengan
+1.0000	baring
+1.0000	baringkan
+1.0000	barley
+1.0000	barnes
+1.0000	barrier
+52.0000	baru	+31.0000
+1.0000	baru-baru
+1.0000	barujari
+1.0000	barulah
+1.0000	barunya
+2.0000	barusan
+1.0000	basa
+6.0000	basah	+4.0000
+1.0000	basahi
+1.0000	basal
+1.0000	basdat
+1.0000	basecamp
+1.0000	based
+1.0000	basi
+1.0000	basic
+1.0000	basis
+1.0000	basjep
+1.0000	baswedan
+1.0000	baswey
+1.0000	batal
+1.0000	batan
+3.0000	batang	+1.0000
+16.0000	batas	+9.0000
+3.0000	batasan
+1.0000	batasan-batasan
+11.0000	batasi	+6.0000
+1.0000	baterai
+1.0000	baterainya
+1.0000	batere
+1.0000	batik
+1.0000	battery
+11.0000	batu	+6.0000
+32.0000	batuk	+12.0000
+5.0000	batuk-batuk
+1.0000	batuk-batuknya
+5.0000	batuknya	+3.0000
+14.0000	bau	+3.0000
+1.0000	baunya
+2.0000	bawa
+2.0000	bawaan
+1.0000	bawaannya
+69.0000	bawah	+30.0000
+1.0000	bawahnya
+1.0000	bawain
+1.0000	bawakan
+1.0000	bawalah
+9.0000	bawang	+0.0000
+1.0000	bawanya
+6.0000	bayam
+1.0000	bayangan
+1.0000	bayangkan
+8.0000	bayar	+4.0000
+1.0000	bayarin
+1.0000	bayarnya
+102.0000	bayi	+19.0000
+2.0000	bb
+1.0000	bbm
+1.0000	bca
+4.0000	bcg	+2.0000
+1.0000	be
+1.0000	bea
+1.0000	beasiswa
+1.0000	beb
+5.0000	beban	+3.0000
+1.0000	bebarengan
+23.0000	bebas	+7.0000
+2.0000	bebat
+3.0000	bebek
+1.0000	beberap
+325.0000	beberapa	+49.0000
+1.0000	bec
+1.0000	becanda-becanda
+3.0000	bed	+0.0000
+3.0000	beda
+1.0000	beda-beda
+19.0000	bedah	+6.0000
+1.0000	bedanya
+1.0000	bedrest
+7.0000	begadang
+1.0000	begah
+12.0000	begini	+3.0000
+110.0000	begitu	+41.0000
+1.0000	behcet
+74.0000	behel	+15.0000
+1.0000	behelnya
+2.0000	bejo
+1.0000	bekal
+7.0000	bekas	+0.0000
+1.0000	bekasi
+26.0000	bekerja	+12.0000
+1.0000	bekerjamasama
+1.0000	bekerjanya
+1.0000	bekerjasama
+1.0000	bekuan
+1.0000	bela
+4.0000	belahan	+2.0000
+1.0000	belajar
+27.0000	belakang	+10.0000
+12.0000	belakangan	+1.0000
+1.0000	belakangnya
+1.0000	belanda
+1.0000	belanja
+1.0000	belanjaannya
+59.0000	belas	+15.0000
+1.0000	belasan
+1.0000	belerang
+1.0000	belfast
+4.0000	beli	+2.0000
+9.0000	beliau
+1.0000	beliin
+1.0000	belikat
+1.0000	belinya
+1.0000	belitung
+3.0000	belok	+1.0000
+1.0000	belom
+96.0000	belum	+42.0000
+1.0000	belut
+13.0000	benang	+6.0000
+56.0000	benar	+23.0000
+14.0000	benar-benar	+12.0000
+1.0000	benaran
+1.0000	benarkah
+1.0000	benarnya
+1.0000	bencana
+11.0000	benda	+3.0000
+1.0000	bendahara
+4.0000	bener	+2.0000
+2.0000	bener-bener
+1.0000	beneran
+1.0000	benerin
+1.0000	benerinnya
+56.0000	bengkak	+20.0000
+4.0000	bengkaknya	+1.0000
+1.0000	bengkelnya
+2.0000	bengkok
+1.0000	bengong
+4.0000	bening	+2.0000
+12.0000	benjolan	+10.0000
+1.0000	benjolannya
+1.0000	bensin
+1.0000	bentar
+3.0000	benteng
+1.0000	bentol
+1.0000	bentol-bentol
+2.0000	bentolnya	+0.0000
+1.0000	bentrok
+39.0000	bentuk	+26.0000
+4.0000	bentuknya
+3.0000	benturan
+3.0000	benzene	+1.0000
+1.0000	benzoat
+1.0000	benzocaine
+1.0000	benzokain
+1.0000	bepergian
+1.0000	ber
+1.0000	ber-ac
+1.0000	ber\302\255konsentrasi
+13.0000	beracun	+6.0000
+30.0000	berada	+2.0000
+1.0000	beradaptasi
+11.0000	beragam	+6.0000
+3.0000	berair
+5.0000	berakhir	+3.0000
+1.0000	berakhirnya
+2.0000	berakibat
+1.0000	beraksi
+2.0000	beraktifitas
+7.0000	beraktivitas
+1.0000	beralasan
+1.0000	beralih
+12.0000	beralkohol	+7.0000
+1.0000	berandalan
+1.0000	berangkat
+1.0000	berangkatnya
+1.0000	berani
+1.0000	beranjak
+2.0000	berantakan
+1.0000	berantem
+57.0000	berapa	+12.0000
+1.0000	berapaan
+4.0000	berapapun
+1.0000	berargumen
+45.0000	berarti	+18.0000
+2.0000	beras
+5.0000	berasa	+0.0000
+8.0000	berasal	+0.0000
+1.0000	berasumsi
+183.0000	berat	+20.0000
+3.0000	berati	+1.0000
+3.0000	beraturan	+1.0000
+1.0000	berawan
+77.0000	berbagai	+18.0000
+1.0000	berbagi
+2.0000	berbahan
+33.0000	berbahaya	+15.0000
+25.0000	berbaring	+9.0000
+1.0000	berbasis
+1.0000	berbatas
+2.0000	berbau
+25.0000	berbeda	+8.0000
+7.0000	berbeda-beda	+5.0000
+1.0000	berbelok
+10.0000	berbentuk	+6.0000
+16.0000	berbicara	+5.0000
+1.0000	berbincang
+1.0000	berbintik-bintik
+1.0000	berbobot
+1.0000	berbuah
+1.0000	berbuat
+1.0000	berbulan
+5.0000	berbulan-bulan
+4.0000	berbulu	+2.0000
+1.0000	berbunyi
+1.0000	berburu
+3.0000	bercak
+2.0000	bercak-bercak
+1.0000	bercampur
+1.0000	bercanda
+1.0000	bercerita
+1.0000	bercermin
+1.0000	bercita
+1.0000	berdahak
+8.0000	berdampak	+3.0000
+80.0000	berdarah	+26.0000
+1.0000	berdasar
+24.0000	berdasarkan	+14.0000
+1.0000	berdatangan
+3.0000	berdaun	+0.0000
+3.0000	berdebar
+1.0000	berdebar-debar
+1.0000	berdegup
+1.0000	berdekatan
+1.0000	berdenging
+9.0000	berdenyut	+4.0000
+1.0000	berdiam
+1.0000	berdiameter
+1.0000	berdiet
+8.0000	berdiri	+3.0000
+1.0000	berdisiplin
+3.0000	berdiskusi	+1.0000
+1.0000	berdoa
+1.0000	berdua
+1.0000	berdurasi
+2.0000	bereaksi
+1.0000	berebut
+1.0000	beredar
+1.0000	berefek
+1.0000	beregerenasi
+1.0000	berelaksasi
+1.0000	berempat
+4.0000	berenang
+2.0000	berencana	+0.0000
+1.0000	berendam
+1.0000	berenergi
+1.0000	berenti
+4.0000	beres	+1.0000
+1.0000	beres-beres
+1.0000	beresiko
+1.0000	beresin
+1.0000	beresolusi
+2.0000	berfikir	+0.0000
+1.0000	berfikiran
+3.0000	berfluoride
+2.0000	berfokus	+0.0000
+1.0000	berfrekuensi
+41.0000	berfungsi	+13.0000
+1.0000	bergabung
+3.0000	berganti	+1.0000
+7.0000	bergantung	+1.0000
+1.0000	bergaya
+16.0000	bergerak	+7.0000
+2.0000	bergerak-gerak
+2.0000	bergeser
+1.0000	bergetar
+9.0000	bergizi	+5.0000
+11.0000	berguna	+2.0000
+1.0000	berhadapan
+1.0000	berhalangan
+1.0000	berharap
+1.0000	berharapnya
+3.0000	berhari-hari
+5.0000	berhasil
+1.0000	berhati
+2.0000	berhati-hati
+46.0000	berhenti	+9.0000
+1.0000	berhentilah
+1.0000	berhitung
+1.0000	berhubung
+14.0000	berhubungan	+5.0000
+10.0000	beri	+5.0000
+1.0000	beribadah
+11.0000	berikan	+9.0000
+114.0000	berikut	+15.0000
+21.0000	berikutnya	+7.0000
+1.0000	berimbas
+1.0000	beringas
+1.0000	beringus
+1.0000	berintegrasi
+2.0000	berinteraksi	+0.0000
+9.0000	berisi	+7.0000
+1.0000	berisik
+36.0000	berisiko	+16.0000
+2.0000	berisitirahat
+24.0000	beristirahat	+6.0000
+1.0000	beristirahatlah
+1.0000	berita
+1.0000	berita-berita
+2.0000	beritahu	+0.0000
+1.0000	beritahukan
+1.0000	berjaga
+14.0000	berjalan	+5.0000
+4.0000	berjalan-jalan	+1.0000
+1.0000	berjalannya
+1.0000	berjam-jam
+1.0000	berjanji
+1.0000	berjarak
+1.0000	berjualan
+1.0000	berjuang
+1.0000	berjudul
+1.0000	berjumlah
+1.0000	berjumpa
+1.0000	berkabar
+1.0000	berkabut
+1.0000	berkadar
+1.0000	berkafein
+14.0000	berkaitan	+1.0000
+4.0000	berkala	+1.0000
+1.0000	berkali-kali
+1.0000	berkarbohidrat
+2.0000	berkat
+1.0000	berkata
+1.0000	berkata-kata
+1.0000	berkecepatan
+1.0000	berkekuatan
+1.0000	berkeliling
+1.0000	berkelompok
+1.0000	berkemah
+1.0000	berkemauan
+39.0000	berkembang	+9.0000
+1.0000	berkembangnya
+1.0000	berkemungkinan
+1.0000	berkenan
+1.0000	berkendara
+1.0000	berkepala
+1.0000	berkepanjangan
+1.0000	berkerak
+6.0000	berkeramas	+0.0000
+5.0000	berkeringat	+3.0000
+1.0000	berkerumun
+1.0000	berkesan
+1.0000	berkfaein
+3.0000	berkhasiat	+0.0000
+1.0000	berkhayal
+1.0000	berkilau
+1.0000	berkinerja
+1.0000	berkirim
+4.0000	berkisar	+0.0000
+1.0000	berkomentar
+1.0000	berkomunikasi
+1.0000	berkonsentrasi
+18.0000	berkonsultasi	+4.0000
+1.0000	berkonsultasilah
+1.0000	berkontradiksi
+3.0000	berkontraksi
+3.0000	berkontribusi
+1.0000	berkontur
+1.0000	berkualitas
+1.0000	berkulit
+2.0000	berkumpul
+15.0000	berkumur	+4.0000
+1.0000	berkumur-kumur
+8.0000	berkumurlah	+2.0000
+1.0000	berkunjung
+18.0000	berkurang	+9.0000
+2.0000	berlabel
+2.0000	berlaku
+1.0000	berlalu
+1.0000	berlangganan
+23.0000	berlangsung	+11.0000
+3.0000	berlanjut
+3.0000	berlari
+1.0000	berlarut-larut
+1.0000	berlatar
+1.0000	berlatih
+14.0000	berlebih	+6.0000
+54.0000	berlebihan	+21.0000
+3.0000	berlemak
+1.0000	berlensa
+2.0000	berlibur
+1.0000	berlilin
+1.0000	berlomba
+13.0000	berlubang	+6.0000
+1.0000	berlumur
+2.0000	bermacam
+1.0000	bermacam-macam
+9.0000	bermain	+3.0000
+1.0000	bermalas-malasan
+9.0000	bermanfaat	+3.0000
+1.0000	bermanifestasi
+3.0000	bermasalah	+0.0000
+4.0000	berminggu-minggu	+2.0000
+15.0000	berminyak	+8.0000
+1.0000	bermotor
+1.0000	bermuatan
+1.0000	bermula
+1.0000	bermunculan
+3.0000	bermutasi
+1.0000	bernada
+2.0000	bernafas
+6.0000	bernama
+6.0000	bernapas	+2.0000
+1.0000	bernapaslah
+1.0000	berniat
+1.0000	bernilai
+2.0000	bernutrisi
+1.0000	bernyanyi
+8.0000	berobat	+3.0000
+1.0000	berolaharaga
+41.0000	berolahraga	+15.0000
+1.0000	beroperasi
+1.0000	berotot
+1.0000	berpakaian
+1.0000	berpartisipasi
+1.0000	berpelat
+1.0000	berpeluang
+8.0000	berpengaruh	+3.0000
+1.0000	berpengawet
+1.0000	berpenyakit
+11.0000	berperan	+5.0000
+1.0000	berperasaan
+1.0000	berperilaku
+5.0000	berpikir	+3.0000
+1.0000	berpikiran
+2.0000	berpindah
+1.0000	berpola
+9.0000	berpotensi	+2.0000
+2.0000	berpuasa
+1.0000	berpusat
+7.0000	berputar	+5.0000
+1.0000	bersahabat
+8.0000	bersama	+3.0000
+1.0000	bersama-sama
+6.0000	bersamaan	+2.0000
+1.0000	bersamurai
+1.0000	bersandar
+1.0000	bersangkutan
+2.0000	bersantan
+1.0000	bersaudara
+1.0000	bersedia
+1.0000	bersedih
+2.0000	bersemangat	+0.0000
+2.0000	bersendawa
+11.0000	bersentuhan	+0.0000
+5.0000	bersepeda	+3.0000
+3.0000	berserat
+1.0000	bersiap-siap
+21.0000	bersifat	+12.0000
+16.0000	bersih	+4.0000
+1.0000	bersih-bersih
+1.0000	bersihin
+4.0000	bersihkan
+5.0000	bersin	+1.0000
+1.0000	bersin-bersin
+5.0000	bersisik	+1.0000
+3.0000	bersoda
+1.0000	berspekulasi
+1.0000	berstamina
+1.0000	berstandar
+1.0000	berstatus
+1.0000	bersudut
+2.0000	bersuhu
+1.0000	bersumber
+1.0000	bersyukur
+1.0000	bertaburan
+10.0000	bertahan	+8.0000
+5.0000	bertahap	+3.0000
+1.0000	bertahun-tahun
+12.0000	bertambah	+4.0000
+4.0000	bertambahnya	+0.0000
+1.0000	bertanggung
+14.0000	bertanya	+5.0000
+2.0000	bertanya-tanya
+1.0000	bertebaran
+2.0000	bertekstur
+1.0000	bertele-tele
+1.0000	bertemu
+1.0000	bertenaga
+1.0000	bertentangan
+1.0000	berteriak
+1.0000	berterima
+1.0000	bertetangga
+1.0000	bertiga
+1.0000	bertindak
+3.0000	bertugas	+0.0000
+10.0000	bertujuan	+1.0000
+2.0000	bertukar
+1.0000	bertuliskan
+3.0000	bertumbuh
+1.0000	berturut
+5.0000	berturut-turut	+3.0000
+14.0000	berubah	+3.0000
+1.0000	berubah-ubah
+1.0000	berubut
+1.0000	berujar
+4.0000	berujung	+2.0000
+8.0000	berukuran	+2.0000
+25.0000	berulang	+8.0000
+3.0000	berumur
+1.0000	berunding
+1.0000	beruntun
+1.0000	beruntung
+1.0000	beruntungnya
+24.0000	berupa	+14.0000
+1.0000	berupaya
+1.0000	berurut
+1.0000	berurutan
+9.0000	berusaha	+7.0000
+15.0000	berusia	+8.0000
+3.0000	bervariasi
+34.0000	berwarna	+9.0000
+1.0000	berwibawa
+1.0000	berwujud
+103.0000	besar	+46.0000
+1.0000	besaran
+1.0000	besaran-besaran
+1.0000	besarku
+2.0000	besarnya
+2.0000	beserta
+17.0000	besi	+13.0000
+14.0000	besok	+11.0000
+1.0000	besok-besoknya
+1.0000	besoknya
+15.0000	beta	+2.0000
+1.0000	beta-blocker
+1.0000	betapa
+1.0000	bethesda
+20.0000	betul	+6.0000
+1.0000	betulin
+1.0000	bewarna
+1.0000	biak
+2.0000	biakan	+0.0000
+1.0000	biang
+16.0000	biar	+8.0000
+1.0000	biarin
+10.0000	biarkan	+4.0000
+1.0000	bias
+53.0000	biasa	+15.0000
+2.0000	biasakan
+1.0000	biasalah
+188.0000	biasanya	+73.0000
+8.0000	biaya	+6.0000
+3.0000	biayanya
+2.0000	bibi
+125.0000	bibir	+7.0000
+1.0000	bibit
+13.0000	bicara	+11.0000
+1.0000	bicarain
+2.0000	bicarakan
+1.0000	bicaranya
+3.0000	bidan
+1.0000	bidang
+1.0000	bidangnya
+1.0000	bigram
+4.0000	bijak
+9.0000	biji	+7.0000
+1.0000	biji-
+4.0000	biji-bijian
+1.0000	bijian
+1.0000	bijinya
+1.0000	bikarbonat
+4.0000	bikin	+2.0000
+124.0000	bila	+53.0000
+12.0000	bilang	+6.0000
+11.0000	bilas	+2.0000
+12.0000	bilateral	+3.0000
+4.0000	bile
+2.0000	bilirubin
+1.0000	bimasakti
+1.0000	bimbingan
+1.0000	bimbingannya
+1.0000	binatang
+1.0000	bincang-bincang
+1.0000	biner
+1.0000	bingkai
+5.0000	bingung
+1.0000	binjai
+1.0000	bintang
+3.0000	bintik
+3.0000	bintik-bintik
+1.0000	bintiknya
+2.0000	biofeedback
+1.0000	biologi
+1.0000	biologis
+7.0000	biopsi	+3.0000
+1.0000	biopsy
+1.0000	bioskop
+1.0000	bipolar
+3.0000	bir
+1.0000	biro
+1.0000	birokrasi
+6.0000	biru	+4.0000
+1.0000	bis
+726.0000	bisa	+183.0000
+1.0000	bisa-bisa
+1.0000	bisakah
+1.0000	bisalah
+1.0000	bisanya
+1.0000	bishop
+2.0000	bising	+0.0000
+2.0000	biskuit
+3.0000	bismuth	+0.0000
+1.0000	bisnis
+4.0000	bisul
+1.0000	bit
+1.0000	bit-bit
+1.0000	bitbucket
+5.0000	bius	+3.0000
+1.0000	bka
+1.0000	bla
+1.0000	black
+1.0000	blackberry
+1.0000	bladder
+1.0000	blepharoplasty
+1.0000	blibli
+1.0000	blighted
+1.0000	blizzard
+1.0000	blm
+1.0000	blockchain
+1.0000	blog
+1.0000	blong
+3.0000	bluelight
+1.0000	blur
+1.0000	blurring
+1.0000	bmkg
+1.0000	bo
+1.0000	board
+1.0000	boba
+1.0000	boba-boba
+3.0000	bobi	+1.0000
+1.0000	bobo
+2.0000	bobot
+1.0000	bobotnya
+1.0000	bocah
+3.0000	bocor
+1.0000	bocornya
+1.0000	bodohnya
+3.0000	bodrek
+1.0000	bodrex
+1.0000	body
+3.0000	boga	+0.0000
+1.0000	bogor
+1.0000	bohong
+1.0000	boi
+2.0000	bokong
+1.0000	boks
+3.0000	bola	+0.0000
+1.0000	bolak-balik
+1.0000	bole
+1.0000	bole-bole
+1.0000	bolee
+84.0000	boleh	+41.0000
+1.0000	boleh-boleh
+1.0000	bolehkah
+1.0000	bolehtahu
+3.0000	bolong
+1.0000	bom
+1.0000	bombastis
+1.0000	bonus
+1.0000	book
+1.0000	booking
+1.0000	bookmyshow
+1.0000	borju
+1.0000	borma
+1.0000	boros
+1.0000	bos
+1.0000	bosan
+2.0000	bosen
+1.0000	bosscha
+1.0000	bot
+1.0000	botnya
+3.0000	botol	+1.0000
+1.0000	bpbd
+16.0000	bpjs	+10.0000
+1.0000	bpkdd
+1.0000	bpnpb
+1.0000	bppv
+6.0000	braces	+3.0000
+4.0000	bracket	+1.0000
+1.0000	bramantyo
+1.0000	branding
+1.0000	breakdown
+1.0000	bri
+1.0000	brightening
+1.0000	brikut
+1.0000	bro
+1.0000	broadcast
+2.0000	brokoli	+0.0000
+1.0000	bromelain
+1.0000	bromo
+3.0000	bronkial	+1.0000
+1.0000	bronkitis
+1.0000	brown
+1.0000	browser
+1.0000	brt
+1.0000	bsc-a
+1.0000	btw
+83.0000	bu	+22.0000
+52.0000	buah	+16.0000
+1.0000	buah-buah
+14.0000	buah-buahan	+8.0000
+1.0000	buahnya
+38.0000	buang	+2.0000
+19.0000	buat	+13.0000
+3.0000	buatan	+1.0000
+1.0000	buatin
+4.0000	buatkan	+2.0000
+2.0000	buatlah
+5.0000	buaya
+1.0000	bubar
+3.0000	bubuk	+1.0000
+1.0000	bubur
+2.0000	buccal
+2.0000	buccinator
+1.0000	bud
+1.0000	budaya
+1.0000	budgetnya
+13.0000	budi	+5.0000
+1.0000	budiman
+1.0000	bujet
+10.0000	buka	+2.0000
+1.0000	bukaan
+1.0000	bukain
+1.0000	bukalapak
+57.0000	bukan	+25.0000
+1.0000	bukankah
+7.0000	bukanlah
+2.0000	bukannya
+1.0000	bukanya
+1.0000	bukit
+1.0000	bukittinggi
+1.0000	buklet
+4.0000	bukti	+1.0000
+1.0000	buku
+1.0000	bukunya
+53.0000	bulan	+23.0000
+1.0000	bulan-bulan
+1.0000	bulanan
+1.0000	bulanannya
+2.0000	bulannya	+0.0000
+2.0000	bulat
+14.0000	bulu	+10.0000
+1.0000	bumbu
+1.0000	bumbunya
+1.0000	bumi
+27.0000	bunda	+15.0000
+1.0000	bundaran
+3.0000	bunga
+1.0000	bunganya
+1.0000	bungkus
+1.0000	bungkusan
+1.0000	bungkusin
+1.0000	bungkuslah
+9.0000	buntu	+6.0000
+1.0000	buntut
+1.0000	bunuh
+1.0000	bunyi
+1.0000	bupati
+1.0000	burger
+2.0000	buru-buru
+1.0000	buruan
+30.0000	buruk	+15.0000
+5.0000	buruknya
+1.0000	burung
+1.0000	bus
+1.0000	business
+1.0000	busuk
+1.0000	busway
+2.0000	buta	+0.0000
+1.0000	butir
+4.0000	butuh
+2.0000	butuhkan
+1.0000	by
+1.0000	bye
+1.0000	byte
+23.0000	c	+11.0000
+1.0000	cabai
+1.0000	cabang
+1.0000	cabut
+3.0000	cacar
+10.0000	cacat	+6.0000
+2.0000	cacing
+4.0000	cadangan	+2.0000
+1.0000	cadel
+11.0000	cahaya	+5.0000
+1.0000	cahayanya
+7.0000	cair	+4.0000
+48.0000	cairan	+18.0000
+1.0000	calon
+2.0000	campak
+1.0000	camping
+1.0000	campur
+7.0000	campuran	+4.0000
+7.0000	campurkan	+1.0000
+2.0000	campurkanlah
+1.0000	can
+1.0000	canal
+1.0000	candela
+1.0000	candi
+1.0000	candida
+1.0000	candu
+1.0000	canggih
+1.0000	canggihnya
+1.0000	cangkir
+1.0000	cangkirnya
+1.0000	canker
+1.0000	cantik
+1.0000	cantiknya
+1.0000	canvas
+2.0000	cap	+0.0000
+1.0000	capa
+1.0000	capcay
+1.0000	cape
+1.0000	capek
+2.0000	cappucino
+2.0000	captropil	+0.0000
+190.0000	cara	+40.0000
+2.0000	cara-cara
+15.0000	caranya	+11.0000
+4.0000	cari
+1.0000	carilah
+1.0000	case
+4.0000	cat	+2.0000
+2.0000	catat
+3.0000	catatan
+1.0000	catet
+1.0000	catur
+1.0000	caturnya
+1.0000	cbt
+1.0000	cece
+1.0000	ceceku
+51.0000	cedera	+20.0000
+1.0000	cegukan
+49.0000	cek	+12.0000
+19.0000	celah	+6.0000
+2.0000	celana
+1.0000	celananya
+6.0000	celcius	+1.0000
+3.0000	celiac
+1.0000	celsius
+6.0000	cemas	+3.0000
+1.0000	cemburu
+2.0000	cemilan	+0.0000
+1.0000	cenderawasih
+18.0000	cenderung	+12.0000
+1.0000	cengeng
+8.0000	cengkeh	+6.0000
+1.0000	center
+1.0000	centered
+2.0000	centers	+0.0000
+1.0000	centi
+1.0000	centimeter
+1.0000	ceo
+63.0000	cepat	+24.0000
+1.0000	cepat-cepat
+4.0000	cepet	+2.0000
+1.0000	cerah
+2.0000	ceramic	+0.0000
+1.0000	cerdas
+3.0000	cerita	+0.0000
+1.0000	ceritain
+1.0000	ceritakan
+1.0000	ceritanya
+1.0000	cermat
+1.0000	cermin
+1.0000	cerminan
+5.0000	cerna
+2.0000	cerutu
+1.0000	cetakan
+1.0000	cewa
+1.0000	cewe
+1.0000	cewek
+2.0000	cgm
+7.0000	chamomile
+1.0000	change
+1.0000	changing
+1.0000	channel
+1.0000	channels
+1.0000	chaos
+1.0000	charada
+1.0000	chat
+1.0000	chatbot
+1.0000	chatbotnya
+1.0000	chatime
+1.0000	chatnya
+1.0000	chatting
+4.0000	check	+0.0000
+1.0000	chef
+1.0000	chefnya
+1.0000	cheilitis
+1.0000	chicken
+2.0000	chikungunya
+1.0000	chlorhexidine
+2.0000	cholesterol
+2.0000	chorda	+0.0000
+1.0000	choricarcinoma
+1.0000	chorionic
+1.0000	ci
+1.0000	cia
+1.0000	cicis
+4.0000	cidera
+1.0000	ciliwung
+10.0000	cincin	+4.0000
+1.0000	cinematic
+1.0000	cinematicnya
+1.0000	cinnamaldehyde
+1.0000	cipali
+1.0000	cipratan
+1.0000	cipto
+1.0000	ciri
+14.0000	ciri-ciri	+0.0000
+1.0000	ciri-cirinya
+1.0000	cirta
+1.0000	cisitu
+1.0000	cita
+1.0000	cita-cita
+1.0000	citra
+1.0000	citra-citra
+1.0000	citranya
+1.0000	cium
+1.0000	ciwalk
+1.0000	clipping
+1.0000	clotrimazole
+1.0000	cloud
+10.0000	cluster	+7.0000
+1.0000	clustering
+3.0000	cm	+1.0000
+3.0000	cn	+1.0000
+1.0000	co
+26.0000	coba	+16.0000
+1.0000	cobain
+1.0000	cobainnya
+14.0000	cobalah	+9.0000
+1.0000	coca-cola
+1.0000	coco
+11.0000	cocok	+6.0000
+1.0000	cod
+1.0000	code
+1.0000	coffee
+12.0000	cokelat	+8.0000
+1.0000	coklat
+1.0000	columbia
+1.0000	com
+1.0000	combantrin
+2.0000	compartement	+0.0000
+4.0000	complete	+1.0000
+1.0000	computer
+1.0000	computing
+1.0000	conductornya
+1.0000	cone
+1.0000	conference
+1.0000	configuration
+1.0000	constraint
+1.0000	contact
+1.0000	contagiosum
+1.0000	container
+1.0000	continua
+1.0000	continuous
+12.0000	contoh	+10.0000
+1.0000	contoh-contoh
+1.0000	contoh-contohnya
+1.0000	contohkan
+13.0000	contohnya	+10.0000
+1.0000	contrast
+2.0000	control	+0.0000
+1.0000	controller
+4.0000	copot	+2.0000
+1.0000	copy
+1.0000	corgi
+1.0000	corner
+1.0000	correction
+1.0000	cowo
+1.0000	cowok
+1.0000	cowoknya
+1.0000	cpr
+2.0000	cradle	+0.0000
+1.0000	craniofacial
+1.0000	crash
+8.0000	craving	+5.0000
+1.0000	crcs
+3.0000	cream
+2.0000	crohn
+1.0000	crown
+2.0000	cruris
+1.0000	css
+1.0000	csw
+39.0000	ct	+0.0000
+1.0000	ct-scan
+1.0000	ctim
+1.0000	cuaca
+1.0000	cuacanya
+1.0000	cubit
+1.0000	cuci
+1.0000	cui
+10.0000	cuka	+6.0000
+1.0000	cukainya
+133.0000	cukup	+44.0000
+4.0000	cukupi	+1.0000
+1.0000	cukupkan
+15.0000	cuma	+11.0000
+1.0000	cuman
+1.0000	cumi
+1.0000	cup
+1.0000	cupu
+1.0000	curah
+1.0000	curang
+1.0000	curiga
+1.0000	custom
+1.0000	customer
+1.0000	customernya
+1.0000	cuti
+1.0000	cuy
+1.0000	cyclosporine
+1.0000	cystic
+7.0000	d	+2.0000
+1.0000	da
+23.0000	dada	+10.0000
+1.0000	dadak
+23.0000	daerah	+12.0000
+1.0000	daerah-daerah
+4.0000	daftar	+2.0000
+1.0000	dagangan
+1.0000	dagangannya
+45.0000	daging	+16.0000
+1.0000	daging-dagingan
+1.0000	dago
+6.0000	dagu	+2.0000
+1.0000	dagung
+2.0000	dah
+4.0000	dahak
+2.0000	dahaknya
+7.0000	dahi
+1.0000	dahsyat
+49.0000	dahulu	+13.0000
+1.0000	daihatsu
+537.0000	dalam	+127.0000
+9.0000	dalamnya	+6.0000
+1.0000	dalangnya
+1.0000	dalem
+1.0000	dali
+1.0000	damkar
+3.0000	damon
+11.0000	dampak	+3.0000
+3.0000	dampaknya
+1.0000	damping
+1.0000	dampingi
+1953.0000	dan	+584.0000
+2.0000	dana
+1.0000	dananya
+1.0000	dandanannya
+1.0000	dangkal
+1.0000	daniel
+686.0000	dapat	+154.0000
+7.0000	dapatkan	+3.0000
+1.0000	dapatnya
+1.0000	dapet
+1.0000	dapetin
+1.0000	dapur
+1.0000	dapurnya
+362.0000	darah	+75.0000
+18.0000	darahnya	+3.0000
+517.0000	dari	+165.0000
+1.0000	darimana
+1.0000	darimanapun
+1.0000	daring
+26.0000	daripada	+14.0000
+19.0000	darurat	+2.0000
+10.0000	dasar	+5.0000
+11.0000	dasarnya	+8.0000
+2.0000	data
+1.0000	database
+1.0000	databasenya
+24.0000	datang	+7.0000
+1.0000	datangnya
+1.0000	datanya
+2.0000	datar
+1.0000	datathon
+1.0000	dateng
+1.0000	dateng-dateng
+1.0000	datengin
+1.0000	datengnya
+14.0000	daun	+4.0000
+1.0000	david
+1.0000	davin
+12.0000	daya	+2.0000
+1.0000	dayang
+2.0000	db
+21.0000	dbd	+14.0000
+7.0000	de	+1.0000
+1.0000	deadline
+1.0000	deadlinenya
+1.0000	deadliner
+1.0000	deal
+1.0000	debat
+1.0000	debatnya
+1.0000	debo
+4.0000	debu
+1.0000	deep
+1.0000	definisi
+1.0000	defisiensi
+1.0000	degradasi
+14.0000	deh	+6.0000
+7.0000	dehidrasi	+4.0000
+2.0000	dek
+12.0000	dekat	+6.0000
+2.0000	dekatnya
+1.0000	deket
+1.0000	deket-deket
+1.0000	dekongestan
+1.0000	dekorasi
+1.0000	dela
+40.0000	delapan	+12.0000
+1.0000	delay
+1.0000	delhi
+1.0000	delima
+3.0000	delivery	+0.0000
+1.0000	deliverynya
+2.0000	delusi
+86.0000	demam	+32.0000
+5.0000	demamnya	+3.0000
+3.0000	demi
+14.0000	demikian
+1.0000	demikianlah
+1.0000	demokrasi
+1.0000	demonstrasinya
+1.0000	dempet
+1.0000	denda
+1.0000	dendam
+867.0000	dengan	+249.0000
+1.0000	denganku
+1.0000	denganmu
+3.0000	dengar
+1.0000	dengarkan
+1.0000	denger
+1.0000	denger-denger
+1.0000	dengerin
+1.0000	dengerinnya
+1.0000	dengkul
+8.0000	dengue	+6.0000
+1.0000	denpasar
+2.0000	density	+0.0000
+1.0000	densus
+2.0000	dental
+4.0000	dentasol
+2.0000	dentin
+1.0000	dentistry
+6.0000	denyut	+0.0000
+31.0000	depan	+14.0000
+1.0000	depannya
+1.0000	departemen
+1.0000	departemennya
+1.0000	deployment
+1.0000	depo
+1.0000	depok
+9.0000	depresi	+7.0000
+13.0000	derajat	+5.0000
+1.0000	deras
+1.0000	derau
+3.0000	derita	+1.0000
+16.0000	dermatitis	+2.0000
+1.0000	desa
+1.0000	desain
+1.0000	desainer
+1.0000	desainnya
+1.0000	desember
+1.0000	design
+1.0000	designer
+23.0000	desiliter	+5.0000
+2.0000	desinfektan
+1.0000	desiran
+1.0000	deskripsi
+1.0000	deskripsinya
+1.0000	detail
+3.0000	detak	+1.0000
+7.0000	deteksi	+3.0000
+2.0000	deterjen	+0.0000
+4.0000	detik	+2.0000
+1.0000	detil
+1.0000	detil-detil
+1.0000	developer
+2.0000	deviasi
+1.0000	devina
+1.0000	devops
+20.0000	dewasa	+10.0000
+1.0000	dewi
+1.0000	dexamethasone
+2.0000	dgn
+3.0000	dha	+1.0000
+1.0000	dhe
+982.0000	di	+112.0000
+2.0000	di-testpack
+18.0000	dia	+10.0000
+6.0000	diabaikan	+3.0000
+97.0000	diabetes	+26.0000
+6.0000	diabetik	+4.0000
+1.0000	diabisin
+1.0000	diacak
+1.0000	diacungi
+1.0000	diadakan
+1.0000	diadakannya
+1.0000	diafragma
+3.0000	diagnosa
+24.0000	diagnosis	+12.0000
+3.0000	diagnostik
+1.0000	diagram
+1.0000	diagramnya
+1.0000	diajak
+1.0000	diajakin
+1.0000	diajar
+1.0000	diajarkan
+1.0000	diajukan
+8.0000	diakibatkan	+2.0000
+1.0000	diakses
+1.0000	diaktifkan
+1.0000	diakui
+42.0000	dialami	+18.0000
+1.0000	dialog-dialog
+1.0000	dialokasikan
+1.0000	diam
+1.0000	diamati
+8.0000	diambil	+5.0000
+1.0000	diambilnya
+3.0000	diamkan	+1.0000
+6.0000	diamputasi
+2.0000	dianalisis
+1.0000	diandalkan
+17.0000	dianggap	+8.0000
+7.0000	diangkat	+5.0000
+27.0000	dianjurkan	+8.0000
+2.0000	diantara
+12.0000	diantaranya	+3.0000
+1.0000	dianterin
+1.0000	dianugerahi
+1.0000	dianya
+1.0000	diapain
+1.0000	diaplikasikan
+1.0000	diapresiasi
+1.0000	diarahin
+1.0000	diarahkan
+12.0000	diare	+5.0000
+1.0000	diasesmen
+1.0000	diasumsikan
+3.0000	diatas
+13.0000	diatasi	+4.0000
+2.0000	diatur
+1.0000	diawal
+4.0000	diawali	+0.0000
+1.0000	diawasi
+1.0000	dibaca
+4.0000	dibagi	+2.0000
+1.0000	dibagian
+1.0000	dibagikan
+1.0000	dibahas
+1.0000	dibajak
+2.0000	dibakar
+1.0000	dibalik
+1.0000	dibalut
+1.0000	dibanding
+1.0000	dibandingin
+18.0000	dibandingkan	+11.0000
+1.0000	dibanggakan
+1.0000	dibangun
+5.0000	dibantu
+2.0000	dibarengi
+2.0000	dibasahi
+1.0000	dibasmi
+1.0000	dibatasi
+11.0000	dibawa	+4.0000
+1.0000	dibawah
+1.0000	dibawain
+1.0000	dibawakan
+1.0000	dibayar
+1.0000	dibayarkan
+1.0000	dibebasin
+1.0000	dibebat
+1.0000	dibeberapa
+3.0000	dibedakan
+3.0000	dibeli
+1.0000	dibelinya
+2.0000	dibentuk	+0.0000
+10.0000	diberi	+8.0000
+52.0000	diberikan	+23.0000
+1.0000	diberikannya
+1.0000	diberitahukan
+1.0000	diberlakukan
+1.0000	diberlikan
+1.0000	dibersihin
+13.0000	dibersihkan	+8.0000
+1.0000	dibiarin
+15.0000	dibiarkan	+12.0000
+1.0000	dibicarakan
+1.0000	dibidai
+1.0000	dibikin
+1.0000	dibilang
+1.0000	dibilas
+1.0000	dibius
+1.0000	dibius-bius
+1.0000	dibor
+1.0000	dibroadcast
+10.0000	dibuahi	+4.0000
+3.0000	dibuang
+6.0000	dibuat	+4.0000
+1.0000	dibubarkan
+1.0000	dibujuk
+7.0000	dibuka	+4.0000
+1.0000	dibuktikan
+1.0000	dibungkus
+1.0000	dibuntuti
+1.0000	diburu
+1.0000	diburu-buru
+1.0000	dibutu
+19.0000	dibutuhkan	+10.0000
+1.0000	dibutuhkannya
+1.0000	dicabut
+3.0000	dicampur
+1.0000	dicanangkan
+1.0000	dicapai
+1.0000	dicari
+1.0000	dicatat
+8.0000	dicegah	+2.0000
+6.0000	dicek
+1.0000	dicekoki
+2.0000	dicengkram	+0.0000
+1.0000	diceritain
+1.0000	diceritakan
+1.0000	dichi
+1.0000	dicintai
+1.0000	diciptakan
+1.0000	dick
+1.0000	dicky
+1.0000	dickynya
+1.0000	diclofenac
+2.0000	dicoba	+0.0000
+1.0000	dicobain
+1.0000	dicobakan
+1.0000	dicuci
+1.0000	dicukupkan
+1.0000	diculik
+6.0000	dicurigai
+1.0000	didahului
+2.0000	didalam
+1.0000	didampingi
+4.0000	didapat
+8.0000	didapatkan	+4.0000
+1.0000	didapuk
+1.0000	didasari
+1.0000	didasarkan
+1.0000	didata
+1.0000	didatangi
+1.0000	didefinisikan
+1.0000	didengar
+7.0000	diderita	+3.0000
+1.0000	didesain
+1.0000	dideskripsikan
+4.0000	dideteksi	+2.0000
+7.0000	didiagnosis	+5.0000
+1.0000	didiamkan
+1.0000	didiemin
+1.0000	didinginkan
+1.0000	didiskusikan
+1.0000	didrop
+6.0000	diduga	+4.0000
+2.0000	didukung	+0.0000
+1.0000	dieksresikan
+1.0000	diekstraksi
+1.0000	dielus-elus
+24.0000	diet	+14.0000
+1.0000	dievakuasi
+2.0000	dievaluasi	+0.0000
+1.0000	difilmkan
+1.0000	difokuskan
+1.0000	difoto
+1.0000	difungsikan
+1.0000	digabung
+1.0000	digabungin
+1.0000	digabungkan
+1.0000	digambarin
+2.0000	digandakan	+0.0000
+5.0000	diganti	+3.0000
+1.0000	digantikan
+4.0000	digaruk	+2.0000
+1.0000	digemari
+4.0000	digerakkan
+1.0000	digigit
+1.0000	diginiin
+1.0000	digit
+1.0000	digital
+1.0000	digituin
+5.0000	digoreng	+2.0000
+1.0000	digubris
+89.0000	digunakan	+14.0000
+1.0000	digunakannya
+1.0000	dih
+5.0000	dihabiskan	+2.0000
+2.0000	dihadapi
+1.0000	dihancurkan
+3.0000	diharapkan
+1.0000	diharapkannya
+1.0000	dihargai
+2.0000	diharuskan
+7.0000	dihasilkan	+5.0000
+5.0000	dihentikan	+2.0000
+1.0000	dihidupkan
+1.0000	dihilangkan
+12.0000	dihindari	+8.0000
+1.0000	dihirup
+1.0000	dihitung
+1.0000	dihubungi
+1.0000	diidentifikasi
+1.0000	diikuti
+1.0000	diilangin
+4.0000	diimbangi	+1.0000
+1.0000	diimbau
+1.0000	diimplementasiin
+1.0000	diimplementasikan
+1.0000	diindikasikan
+1.0000	diindonesiakan
+1.0000	diinfokan
+1.0000	diinformasikan
+6.0000	diingat
+1.0000	diingatkan
+4.0000	diinginkan	+1.0000
+1.0000	diinisiasikan
+1.0000	diintegrasiin
+5.0000	diiringi	+3.0000
+1.0000	diisi
+1.0000	diitungin
+1.0000	diizinkan
+1.0000	dijabarkan
+5.0000	dijadikan
+12.0000	dijaga	+9.0000
+3.0000	dijalani
+1.0000	dijalanin
+1.0000	dijalankan
+1.0000	dijalin
+1.0000	dijamin
+5.0000	dijangkau	+3.0000
+1.0000	dijauhi
+2.0000	dijawab	+0.0000
+1.0000	dijelakan
+1.0000	dijelasin
+14.0000	dijelaskan	+7.0000
+9.0000	dijual	+1.0000
+1.0000	dijuluki
+1.0000	dijumpai
+33.0000	dik	+4.0000
+1.0000	dikabarin
+1.0000	dikabulkan
+4.0000	dikaitkan	+0.0000
+1.0000	dikarantina
+16.0000	dikarenakan	+12.0000
+1.0000	dikasi
+3.0000	dikasih	+1.0000
+1.0000	dikatain
+8.0000	dikatakan
+1.0000	dikategoriin
+1.0000	dikegelapan
+2.0000	dikelilingi	+0.0000
+1.0000	dikelola
+1.0000	dikelompokan
+1.0000	dikelompokin
+2.0000	dikelompokkan	+0.0000
+1.0000	dikeluarin
+13.0000	dikeluarkan	+2.0000
+3.0000	dikeluhkan
+1.0000	dikembali
+1.0000	dikembangkan
+1.0000	dikemudikan
+1.0000	dikenakan
+24.0000	dikenal	+3.0000
+8.0000	dikenali	+2.0000
+1.0000	dikenalkan
+1.0000	dikendalikan
+1.0000	dikendarai
+1.0000	dikepung
+1.0000	dikerjain
+1.0000	dikerjakan
+1.0000	dikerok
+28.0000	diketahui	+16.0000
+1.0000	diketakui
+4.0000	dikhawatirkan
+1.0000	dikirim
+1.0000	dikirimkan
+4.0000	dikit
+4.0000	diklaim
+1.0000	diklarifikasi
+1.0000	diklasifikasi
+1.0000	diklat
+1.0000	diklofenac
+2.0000	dikombinasikan	+0.0000
+2.0000	dikompres
+1.0000	dikomunikasikan
+3.0000	dikonsultasikan	+1.0000
+26.0000	dikonsumsi	+13.0000
+1.0000	dikonsumsinya
+1.0000	dikontak
+6.0000	dikontrol	+2.0000
+1.0000	dikonversi
+1.0000	dikonversikan
+1.0000	dikopi
+1.0000	dikoreksi
+1.0000	diksi
+2.0000	dikuadratkan	+0.0000
+1.0000	dikukus
+1.0000	dikumpul
+1.0000	dikumpulin
+1.0000	dikumpulkan
+1.0000	dikumur
+1.0000	dikunci
+1.0000	dikunjungi
+2.0000	dikunyah	+0.0000
+1.0000	dikupas
+1.0000	dikurang
+2.0000	dikurangi
+1.0000	dikurangin
+1.0000	dikurangkan
+1.0000	dilain
+1.0000	dilaksanakan
+1.0000	dilakuakn
+1.0000	dilakuin
+185.0000	dilakukan	+32.0000
+2.0000	dilakukannya
+1.0000	dilakulan
+1.0000	dilalui
+1.0000	dilan
+1.0000	dilanjut
+1.0000	dilanjutin
+3.0000	dilanjutkan
+5.0000	dilansir	+3.0000
+1.0000	dilantin
+1.0000	dilaporkan
+3.0000	dilarang
+1.0000	dilatih
+1.0000	dilebur
+1.0000	dileher
+1.0000	dilekatkan
+1.0000	dilem
+3.0000	dilengkapi
+11.0000	dilepas	+8.0000
+3.0000	dilepaskan
+1.0000	diletakkan
+1.0000	dilewati
+1.0000	dilewatkan
+2.0000	diliat
+15.0000	dilihat	+11.0000
+1.0000	dilihatin
+2.0000	dilindungi	+0.0000
+1.0000	dilonggarkan
+1.0000	diluangkan
+1.0000	diluar
+1.0000	diluncurkan
+1.0000	dilupakan
+1.0000	diluruskan
+6.0000	dimakan
+3.0000	dimaksud
+1.0000	dimaksudkan
+13.0000	dimana	+11.0000
+3.0000	dimanfaatkan	+1.0000
+1.0000	dimanipulasi
+1.0000	dimarahin
+1.0000	dimas
+2.0000	dimasak
+1.0000	dimasukan
+1.0000	dimasuki
+1.0000	dimasukin
+2.0000	dimasukkan
+1.0000	dimasukkin
+1.0000	dimengerti
+1.0000	dimensi
+1.0000	dimiliki
+1.0000	dimilikinya
+2.0000	diminati
+13.0000	diminta	+5.0000
+1.0000	dimintai
+27.0000	diminum	+8.0000
+1.0000	diminumkan
+2.0000	diminumnya
+1.0000	dimodifikasi
+1.0000	dimohon
+1.0000	dimudahkan
+8.0000	dimulai	+3.0000
+1.0000	dimungkinkan
+1.0000	din
+1.0000	dinaikkan
+1.0000	dinamain
+1.0000	dinamakan
+1.0000	dinamik
+1.0000	dinda
+15.0000	dinding	+3.0000
+1.0000	dinding-dinding
+44.0000	dingin	+25.0000
+2.0000	dinginkan
+10.0000	dini	+6.0000
+1.0000	dinikmati
+5.0000	dinilai
+2.0000	dinyatakan
+13.0000	diobati	+8.0000
+1.0000	dioksida
+3.0000	diolah
+1.0000	diomongin
+1.0000	dion
+6.0000	dioperasi	+4.0000
+1.0000	dioptimasi
+1.0000	diorganisir
+2.0000	dipahami
+11.0000	dipakai	+6.0000
+1.0000	dipake
+1.0000	dipakek
+1.0000	dipaketkan
+1.0000	dipaksa
+1.0000	dipaksakan
+1.0000	dipandang
+2.0000	dipanggang
+1.0000	dipanggil
+1.0000	dipanggilnya
+2.0000	dipantau
+9.0000	dipasang	+5.0000
+1.0000	dipasarkan
+1.0000	dipastiin
+5.0000	dipastikan	+3.0000
+1.0000	dipatiukur
+1.0000	dipatuhi
+1.0000	dipause
+2.0000	dipecah
+1.0000	dipecat
+1.0000	dipelihara
+1.0000	dipencet
+6.0000	dipengaruhi	+1.0000
+1.0000	dipenuhi
+1.0000	diperbaharui
+3.0000	diperbaiki
+7.0000	diperbolehkan	+2.0000
+1.0000	diperburuk
+16.0000	dipercaya	+5.0000
+1.0000	dipercepat
+1.0000	dipergunakan
+8.0000	diperhatikan	+3.0000
+12.0000	diperiksa	+7.0000
+3.0000	diperiksakan	+1.0000
+1.0000	diperiksanya
+1.0000	diperintah
+2.0000	diperjelas
+1.0000	diperkaya
+1.0000	diperkenalkan
+2.0000	diperkirakan
+1.0000	diperlakukan
+1.0000	diperluas
+30.0000	diperlukan	+14.0000
+1.0000	dipermasalah
+2.0000	diperoleh
+1.0000	diperpanjang
+1.0000	dipersiapkan
+1.0000	dipersilahkan
+1.0000	dipersilakan
+1.0000	dipertahankan
+3.0000	dipertimbangkan
+2.0000	diperuntukkan
+1.0000	dipesan
+1.0000	dipesen
+13.0000	dipicu	+1.0000
+1.0000	dipijat
+1.0000	dipikir
+1.0000	dipikirkan
+1.0000	dipilih
+1.0000	dipimpin
+1.0000	dipindai
+1.0000	dipinjamkannya
+1.0000	diposisikan
+1.0000	dipotong
+1.0000	dipotong-potong
+1.0000	dipraktikkan
+1.0000	diprediksi
+9.0000	diproduksi	+2.0000
+1.0000	diprogram
+2.0000	diproses
+1.0000	diproyeksikan
+1.0000	dipublikasikan
+1.0000	dipukul
+1.0000	dipulangkan
+1.0000	dipungkiri
+1.0000	diraih
+1.0000	diramalin
+1.0000	diramsakan
+2.0000	dirancang
+1.0000	dirapatkan
+1.0000	dirapihin
+9.0000	dirasa	+7.0000
+1.0000	dirasakah
+17.0000	dirasakan	+8.0000
+6.0000	dirawat	+4.0000
+2.0000	direbus
+1.0000	director
+1.0000	diredakan
+1.0000	direfluks
+1.0000	diregangkan
+1.0000	direkaferi
+2.0000	direkatkan
+1.0000	direkayasa
+3.0000	direkomendasikan
+1.0000	direkrut
+1.0000	direktorat
+1.0000	diremehkan
+3.0000	direncanakan
+6.0000	diresepkan	+2.0000
+1.0000	direspon
+90.0000	diri	+15.0000
+1.0000	dirimu
+1.0000	dirinci
+2.0000	dirinya
+1.0000	dirubah
+2.0000	dirujuk	+0.0000
+2.0000	dirumah
+1.0000	dirusakin
+1.0000	disadari
+1.0000	disajikan
+1.0000	disamakan
+3.0000	disambung	+1.0000
+2.0000	disambungkan	+0.0000
+2.0000	disampaikan
+1.0000	disamping
+2.0000	disana
+1.0000	disangka
+1.0000	disangka-sangka
+1.0000	disapu
+1.0000	disaranin
+39.0000	disarankan	+11.0000
+1.0000	disarankn
+1.0000	disasar
+1.0000	disayat
+1.0000	discard
+1.0000	disclaimer
+1.0000	discoid
+3.0000	disease	+1.0000
+96.0000	disebabkan	+7.0000
+1.0000	disebar
+1.0000	disebarkan
+1.0000	disebuat
+49.0000	disebut	+19.0000
+10.0000	disebutkan	+1.0000
+4.0000	disediakan	+2.0000
+1.0000	disedot
+1.0000	diseduh
+1.0000	disekitar
+1.0000	disekitarnya
+1.0000	disekrup
+1.0000	diselamatin
+3.0000	diselamatkan	+1.0000
+1.0000	diselametin
+1.0000	diselesai
+1.0000	diselesaiin
+1.0000	diselesaikan
+1.0000	diselidiki
+1.0000	diselimuti
+1.0000	diselingi
+1.0000	diselingin
+1.0000	diselipkan
+8.0000	disembuhkan	+6.0000
+1.0000	disemen
+1.0000	disengaja
+3.0000	disentuh	+0.0000
+1.0000	disepakati
+1.0000	disepelekan
+1.0000	diseragamkan
+5.0000	diserap	+2.0000
+33.0000	disertai	+12.0000
+1.0000	disesuaiin
+6.0000	disesuaikan	+1.0000
+1.0000	disetiap
+1.0000	disetrum
+1.0000	disetujui
+1.0000	disewa
+1.0000	disfungsi
+1.0000	disiapkan
+1.0000	disidik
+3.0000	disimpan
+1.0000	disimpen
+1.0000	disimpulkan
+2.0000	disinggung
+1.0000	disingkat
+1.0000	disingkirkan
+4.0000	disini
+1.0000	disinyalir
+2.0000	disiplin
+1.0000	disisipi
+2.0000	disitu
+1.0000	disk
+1.0000	diskon
+1.0000	diskon-diskon
+2.0000	diskusi
+1.0000	diskusi-diskusi
+3.0000	diskusikan	+0.0000
+1.0000	dislipidemia
+1.0000	dislokasi
+1.0000	dismenore
+1.0000	disney
+1.0000	disorder
+27.0000	dispepsia	+10.0000
+1.0000	disponsori
+1.0000	distilasi
+1.0000	distimulasi
+1.0000	distribusi
+1.0000	distributor
+1.0000	distrik
+1.0000	disubmit
+1.0000	disuguhin
+1.0000	disukai
+2.0000	disuntik	+0.0000
+1.0000	disuntikkan
+1.0000	disuru
+2.0000	disuruh
+1.0000	disusui
+1.0000	disusun
+2.0000	ditahan
+1.0000	ditakdirkan
+1.0000	ditaksir
+1.0000	ditakutkan
+14.0000	ditambah	+8.0000
+1.0000	ditambahin
+1.0000	ditambahkan
+1.0000	ditambal
+1.0000	ditambalnya
+1.0000	ditambel
+1.0000	ditampilkan
+1.0000	ditampung
+1.0000	ditanam
+1.0000	ditanamkan
+1.0000	ditanda
+19.0000	ditandai	+1.0000
+1.0000	ditandatangan
+32.0000	ditangani	+13.0000
+1.0000	ditanggapi
+1.0000	ditanggulangi
+3.0000	ditanggung	+1.0000
+1.0000	ditangkal
+1.0000	ditangkap
+2.0000	ditanya	+0.0000
+1.0000	ditanyain
+9.0000	ditanyakan	+5.0000
+1.0000	ditargetkan
+1.0000	ditarik
+1.0000	ditaruh
+1.0000	ditawarkan
+2.0000	ditegakkan
+1.0000	ditegangin
+8.0000	ditekan	+5.0000
+2.0000	diteliti	+0.0000
+1.0000	ditempatin
+2.0000	ditempatkan
+1.0000	ditempel
+1.0000	ditempelkan
+1.0000	ditempuh
+2.0000	ditemui
+34.0000	ditemukan	+11.0000
+1.0000	ditemukannya
+1.0000	ditenangkan
+1.0000	ditengarai
+1.0000	ditentuin
+7.0000	ditentukan	+3.0000
+1.0000	ditentukannya
+1.0000	diterapkan
+1.0000	diterima
+1.0000	diterusin
+1.0000	diteruskan
+1.0000	dites
+1.0000	ditetapkan
+2.0000	ditimbulkan
+1.0000	ditimbulkannya
+1.0000	ditindaklanjuti
+1.0000	ditiruin
+1.0000	ditolak
+1.0000	ditoleransi
+1.0000	ditolongin
+1.0000	ditonjolkan
+1.0000	ditonton
+1.0000	ditopang
+1.0000	ditrain
+1.0000	ditraktir
+1.0000	ditugaskan
+2.0000	ditujukan
+1.0000	ditujunya
+1.0000	ditukar
+1.0000	ditukarkan
+3.0000	ditularkan	+1.0000
+1.0000	ditulis
+1.0000	dituliskan
+2.0000	ditumbuhi	+0.0000
+1.0000	ditunda
+1.0000	ditunda-tunda
+1.0000	ditunggu
+4.0000	ditunjang	+0.0000
+1.0000	ditunjuk
+1.0000	ditunjukkan
+1.0000	diturunin
+10.0000	diturunkan	+6.0000
+4.0000	ditusuk	+2.0000
+1.0000	ditususu
+3.0000	ditutup
+1.0000	ditutupi
+2.0000	diubah
+2.0000	diukur
+1.0000	diulang
+2.0000	diulangi	+0.0000
+1.0000	diumumkan
+1.0000	diunduh
+1.0000	diundur
+1.0000	diunggah
+1.0000	diupdate
+3.0000	diuretik
+1.0000	diurus
+1.0000	diurusnya
+1.0000	diusahakan
+1.0000	diusulkan
+1.0000	divaksin
+1.0000	divalidasi
+1.0000	divertikulitis
+1.0000	diving
+1.0000	divisi
+1.0000	divisi-divisi
+1.0000	divisinya
+1.0000	divonis
+1.0000	diwakili
+2.0000	diwaspadai
+4.0000	diyakini
+1.0000	dki
+1.0000	dkv
+7.0000	dl	+2.0000
+1.0000	dlapan
+3.0000	dll	+1.0000
+9.0000	dna	+7.0000
+1.0000	do
+1.0000	doa
+1.0000	doain
+2.0000	doang
+1.0000	docker
+709.0000	dok	+78.0000
+2.0000	doksaya
+532.0000	dokter	+67.0000
+6.0000	dokternya
+1.0000	dokumen
+1.0000	dokumentasi
+1.0000	dokumentasinya
+1.0000	dolar
+1.0000	dollar
+1.0000	domain
+1.0000	domainnya
+1.0000	dominan
+1.0000	domino
+1.0000	dompet
+1.0000	dompetnya
+2.0000	dong	+0.0000
+1.0000	donk
+1.0000	dont
+2.0000	dopamin
+1.0000	dopaminergik
+1.0000	doraemon
+1.0000	dorongan
+1.0000	dosen
+1.0000	dosennya
+16.0000	dosis	+6.0000
+2.0000	dosisnya
+1.0000	doswal
+1.0000	dot
+2.0000	doxycycline
+1.0000	dp
+1.0000	dpal
+1.0000	dprd
+1.0000	dpt
+1.0000	dr
+1.0000	draf
+1.0000	draft
+1.0000	dragon
+1.0000	drainase
+1.0000	drakor
+1.0000	drama
+5.0000	drastis	+2.0000
+1.0000	drive
+1.0000	drivernya
+1.0000	drop
+1.0000	droplet
+1.0000	drugs
+1.0000	dry
+1.0000	ds
+1.0000	dsdm
+1.0000	dsngan
+1.0000	dst
+6.0000	dtp	+4.0000
+278.0000	dua	+35.0000
+1.0000	dua-delapan
+2.0000	dua-duanya
+1.0000	dua-empat
+2.0000	duanya
+1.0000	duapertiga
+1.0000	duar
+1.0000	dubur
+22.0000	duduk	+9.0000
+2.0000	duduknya
+1.0000	duga
+2.0000	dugaan
+1.0000	duh
+1.0000	duit
+1.0000	duitnya
+2.0000	duka
+4.0000	dukungan	+1.0000
+83.0000	dulu	+38.0000
+1.0000	duluan
+1.0000	dulunya
+3.0000	dunia
+1.0000	duplikat
+3.0000	durasi
+1.0000	durasinya
+1.0000	duri
+1.0000	durian
+1.0000	dwbi
+1.0000	dwimarta
+1.0000	dysgeusia
+8.0000	e	+6.0000
+1.0000	e-commerce
+1.0000	eat
+1.0000	ebook
+1.0000	eceng
+1.0000	edan
+1.0000	edi
+1.0000	edisi
+1.0000	editan
+1.0000	editing
+1.0000	edukasi
+1.0000	edukatif
+1.0000	ef
+55.0000	efek	+13.0000
+1.0000	efeknya
+22.0000	efektif	+9.0000
+6.0000	efektivitas	+4.0000
+1.0000	effort
+1.0000	efisien
+1.0000	egg
+2.0000	eh
+2.0000	ehm
+1.0000	ekologi
+1.0000	ekonomi
+1.0000	ekor
+1.0000	eksak
+1.0000	eksekusi
+4.0000	eksim	+0.0000
+1.0000	eksoserviks
+1.0000	ekspektasi
+1.0000	eksperimen
+1.0000	eksplisit
+1.0000	eksplorasi
+1.0000	eksponen
+1.0000	eksternal
+1.0000	eksteroseptor
+1.0000	ekstra
+1.0000	ekstrajos
+1.0000	ekstraksi
+2.0000	ekstraparu
+1.0000	ekstrem
+1.0000	ekstrim
+26.0000	ektopik	+9.0000
+1.0000	ektropion
+2.0000	elastisitas
+1.0000	elastisitasnya
+3.0000	elektrik
+1.0000	elektronik
+1.0000	elemen
+1.0000	elemen-elemen
+1.0000	elementer
+1.0000	elevator
+1.0000	elisa
+1.0000	ellen
+1.0000	elu
+1.0000	em
+2.0000	email
+13.0000	emang	+11.0000
+1.0000	emangnya
+1.0000	emas
+1.0000	embernya
+17.0000	embrio	+14.0000
+1.0000	embuskan
+1.0000	emm
+3.0000	emosi
+4.0000	emosional
+68.0000	empat	+12.0000
+1.0000	empat-enam
+1.0000	empatan
+1.0000	empatnya
+5.0000	empedu
+1.0000	empuk
+25.0000	enak	+10.0000
+1.0000	enak-enak
+3.0000	enakan	+1.0000
+1.0000	enaknya
+47.0000	enam	+6.0000
+1.0000	enamel
+1.0000	encer
+1.0000	encerkan
+1.0000	endgame
+1.0000	endometriosis
+2.0000	endorfin
+1.0000	endoserviks
+1.0000	endoskop
+2.0000	endoskopi
+1.0000	enem
+25.0000	energi	+9.0000
+1.0000	energik
+1.0000	energinya
+5.0000	engga	+2.0000
+31.0000	enggak	+13.0000
+2.0000	enggan
+1.0000	engineer
+1.0000	engineering
+1.0000	english
+1.0000	enhancement
+1.0000	enrollment
+1.0000	ensof
+1.0000	entah
+1.0000	entar
+1.0000	enteropati
+1.0000	entitas
+1.0000	entity
+1.0000	entropion
+1.0000	entry
+6.0000	enzim	+2.0000
+1.0000	epidural
+1.0000	epilepsi
+1.0000	episode
+1.0000	epitel
+1.0000	epoch
+5.0000	epsom
+1.0000	era
+2.0000	erat
+1.0000	ergonomis
+1.0000	ergotamine
+1.0000	erma
+1.0000	eropa
+1.0000	error
+1.0000	erythematosus
+9.0000	es	+3.0000
+1.0000	escobar
+1.0000	esei
+3.0000	esensial
+5.0000	esofagus	+3.0000
+2.0000	esok	+0.0000
+1.0000	estavet
+2.0000	estetika
+1.0000	estetis
+1.0000	estimasi
+3.0000	estrogen	+1.0000
+2.0000	etanol
+1.0000	etis
+1.0000	etoricoxib
+1.0000	eu
+1.0000	eucalyptol
+1.0000	eugenol
+1.0000	euh
+1.0000	eum
+1.0000	euro
+1.0000	euy
+1.0000	eva
+1.0000	evakuasi
+10.0000	evaluasi	+8.0000
+1.0000	event
+1.0000	evolusi
+4.0000	exertional	+1.0000
+1.0000	exfoliant
+1.0000	exhaustive
+1.0000	experience
+1.0000	expert
+3.0000	extra	+1.0000
+1.0000	f
+1.0000	fa
+1.0000	facebook
+1.0000	facto
+1.0000	fadil
+1.0000	fahri
+1.0000	fair
+1.0000	fajar
+1.0000	fakta
+2.0000	faktanya
+54.0000	faktor	+15.0000
+2.0000	faktor-faktor
+2.0000	faktornya
+1.0000	fakultas
+1.0000	faldi
+20.0000	falopi	+6.0000
+1.0000	falopinya
+3.0000	familial	+1.0000
+1.0000	familiritas
+1.0000	fantasinya
+1.0000	fantastis
+3.0000	farhun
+2.0000	faring
+2.0000	farmasi	+0.0000
+5.0000	fascia	+3.0000
+1.0000	fasciitis
+2.0000	fasciotomy
+18.0000	fase	+11.0000
+1.0000	fase-fase
+2.0000	fasenya
+1.0000	fasia
+7.0000	fasilitas
+1.0000	fasilitas-fasilitas
+2.0000	fasilitasnya
+1.0000	fast
+1.0000	fast-food
+7.0000	fatal	+2.0000
+1.0000	fathur
+1.0000	fatma
+1.0000	favorit
+1.0000	feature
+1.0000	febri
+1.0000	februari
+1.0000	febuxostat
+1.0000	feedback
+1.0000	feel
+1.0000	feeling
+1.0000	felis
+1.0000	felix
+1.0000	fenofibrate
+2.0000	fenol
+1.0000	fenolnya
+1.0000	fenomena
+1.0000	ferarri
+1.0000	ferdi
+1.0000	ferrari
+3.0000	feses
+1.0000	festival
+1.0000	ffaktor
+1.0000	fiber
+1.0000	fibrate
+1.0000	fibrosis
+1.0000	fikiran
+1.0000	fillet
+1.0000	film
+1.0000	film-film
+1.0000	filmnya
+1.0000	filtering
+2.0000	filtral
+1.0000	final
+1.0000	finlandia
+1.0000	fintech
+1.0000	first
+1.0000	fis
+41.0000	fisik	+14.0000
+1.0000	fisika
+1.0000	fisiknya
+1.0000	fisiologis
+8.0000	fisioterapi	+4.0000
+1.0000	fisis
+1.0000	fit
+1.0000	fitosterol
+1.0000	fitur
+1.0000	fitur-fitur
+1.0000	fiturnya
+1.0000	fix
+1.0000	fizi
+1.0000	flavonoid
+4.0000	flek
+2.0000	flek-flek	+0.0000
+1.0000	fleksibel
+1.0000	fleksibilitasnya
+1.0000	floss
+11.0000	flossing	+5.0000
+54.0000	flu	+18.0000
+1.0000	fluktuasi
+1.0000	fluktuatif
+1.0000	flunya
+1.0000	fluoride
+1.0000	fly
+6.0000	fobia	+2.0000
+4.0000	fokus
+18.0000	folat	+8.0000
+2.0000	foliaceus
+1.0000	folic
+1.0000	folikulitis
+1.0000	follow
+10.0000	food	+2.0000
+2.0000	for	+0.0000
+1.0000	ford
+1.0000	form
+1.0000	formal
+2.0000	formaldehyde
+1.0000	format
+1.0000	formatnya
+1.0000	formnya
+1.0000	forsyth
+1.0000	fortenur
+1.0000	forum
+1.0000	forward
+9.0000	foto	+3.0000
+1.0000	foto-foto
+1.0000	fotofobia
+1.0000	fotografi
+1.0000	fotokopi
+1.0000	founder
+1.0000	four
+1.0000	fractional
+1.0000	fraksi
+11.0000	fraktur	+9.0000
+1.0000	frame-frame
+8.0000	frekuensi	+4.0000
+1.0000	frekuensinya
+1.0000	front
+2.0000	frontal
+1.0000	frsnya
+1.0000	fruktosanya
+1.0000	frustasi
+1.0000	frustrasi
+3.0000	full	+0.0000
+1.0000	fumigan
+1.0000	fun
+1.0000	fundamentalnya
+1.0000	funding
+1.0000	fundus
+34.0000	fungsi	+18.0000
+10.0000	fungsinya	+4.0000
+5.0000	fungsional
+1.0000	fungsionalitas
+1.0000	furious
+1.0000	futsal
+1.0000	g
+26.0000	ga	+15.0000
+1.0000	gaada
+1.0000	gaak
+1.0000	gabisa
+2.0000	gaboleh
+1.0000	gabu
+1.0000	gabung
+4.0000	gabungan	+2.0000
+1.0000	gabungin
+1.0000	gabut
+5.0000	gadget	+3.0000
+1.0000	gaenak
+5.0000	gagal	+3.0000
+1.0000	gagasan
+1.0000	gajelas
+1.0000	gaji
+1.0000	gajinya
+35.0000	gak	+18.0000
+1.0000	gakkum
+1.0000	galak
+1.0000	galaksi
+1.0000	galau
+1.0000	galon
+1.0000	gama
+2.0000	gamasalah
+1.0000	gamau
+11.0000	gambar	+7.0000
+1.0000	gambaran
+1.0000	gambarnya
+1.0000	game
+1.0000	gamenya
+1.0000	gameplaynya
+1.0000	games
+1.0000	gaming
+1.0000	gamma
+1.0000	gampang
+5.0000	ganas	+3.0000
+1.0000	ganda
+9.0000	gandum	+5.0000
+1.0000	gang
+154.0000	gangguan	+42.0000
+1.0000	gangren
+1.0000	gangrene
+1.0000	ganja
+1.0000	ganteng
+5.0000	ganti
+1.0000	gantian
+1.0000	gantinya
+1.0000	ganyang
+8.0000	gapapa	+4.0000
+1.0000	gapernah
+1.0000	gara-gara
+36.0000	garam	+14.0000
+1.0000	garem
+1.0000	garingan
+16.0000	garis	+4.0000
+2.0000	garis-garis
+1.0000	garukan
+1.0000	garut
+5.0000	gas
+1.0000	gastritis
+11.0000	gastroenteritis	+5.0000
+1.0000	gastroesofageal
+1.0000	gastrologi
+1.0000	gastrosejauh
+25.0000	gatal	+7.0000
+4.0000	gatal-gatal
+1.0000	gatalnya
+2.0000	gatau
+1.0000	gataunya
+1.0000	gausa
+1.0000	gausah
+4.0000	gawat	+0.0000
+22.0000	gaya	+2.0000
+1.0000	gdp
+1.0000	gebetanmu
+1.0000	gebrakan
+1.0000	gede
+1.0000	gede-gede
+1.0000	gedean
+1.0000	gedein
+1.0000	gedung
+1.0000	geek
+1.0000	gegar
+215.0000	gejala	+42.0000
+23.0000	gejala-gejala	+15.0000
+23.0000	gejalanya	+10.0000
+2.0000	gel	+0.0000
+1.0000	gelajanya
+1.0000	gelanggang
+5.0000	gelap	+3.0000
+13.0000	gelas	+4.0000
+1.0000	geli
+1.0000	gelisah
+2.0000	gelombang
+1.0000	gelut
+2.0000	gembira	+0.0000
+1.0000	gemercik
+2.0000	gemetar
+1.0000	gemetaran
+1.0000	gemfibrozil
+1.0000	gempa
+1.0000	gempar
+4.0000	gemuk
+4.0000	gen	+2.0000
+1.0000	genangan
+1.0000	gencar
+1.0000	gencarnya
+1.0000	gencet
+1.0000	gendut
+1.0000	general
+2.0000	generasi
+1.0000	generik
+17.0000	genetik	+12.0000
+4.0000	genetis
+1.0000	geniohyoid
+1.0000	genital
+1.0000	geofisika
+1.0000	geometrik
+1.0000	geprek
+9.0000	gerak	+4.0000
+1.0000	gerak-gerak
+8.0000	gerakan	+6.0000
+1.0000	gerakannya
+1.0000	gerbang
+1.0000	gerbong
+1.0000	gercep
+2.0000	gerd
+1.0000	gereja
+1.0000	gerhana
+1.0000	gesekan
+1.0000	gesekannya
+2.0000	gestational	+0.0000
+1.0000	gestur
+1.0000	get
+4.0000	getah	+0.0000
+1.0000	ghost
+1.0000	gi
+1.0000	gif
+1.0000	giga
+841.0000	gigi	+118.0000
+1.0000	gigilah
+10.0000	giginya	+5.0000
+5.0000	gigitan	+3.0000
+1.0000	gila
+1.0000	gili
+1.0000	giliran
+30.0000	gimana	+11.0000
+2.0000	ginekolog
+12.0000	gingivitis	+5.0000
+2.0000	gingivostomatitis
+1.0000	gingsul
+1.0000	gingvitis
+6.0000	gini	+4.0000
+1.0000	ginian
+20.0000	ginjal	+12.0000
+1.0000	gio
+7.0000	gips	+4.0000
+1.0000	git
+1.0000	github
+1.0000	gitlab
+83.0000	gitu	+20.0000
+2.0000	gitu-gitu
+1.0000	gituh
+1.0000	gitulah
+24.0000	gizi	+12.0000
+1.0000	gku
+4.0000	glaukoma
+1.0000	gliserol
+1.0000	global
+1.0000	globalnya
+1.0000	glossodynia
+1.0000	glow
+13.0000	glucan	+7.0000
+1.0000	glucose
+1.0000	glukokortikoid
+1.0000	glukometer
+11.0000	glukosa	+6.0000
+4.0000	gluten
+1.0000	go-food
+1.0000	go-jek
+1.0000	goang
+1.0000	god
+1.0000	gofood
+1.0000	gojek
+1.0000	gol
+8.0000	golongan	+6.0000
+1.0000	gombalnya
+1.0000	gonadotropin
+1.0000	gondok
+1.0000	gonzales
+1.0000	google
+1.0000	googling
+1.0000	gopay
+1.0000	goreng
+1.0000	goreng-gorengan
+8.0000	gorengan	+6.0000
+1.0000	gorengnya
+18.0000	gosok	+3.0000
+1.0000	gosokan
+5.0000	gosokkan	+2.0000
+1.0000	gosoklah
+1.0000	goyang
+1.0000	gps
+1.0000	grab
+1.0000	grabfood
+6.0000	grade	+0.0000
+1.0000	graf
+1.0000	grafik
+1.0000	grafis
+2.0000	grafting
+2.0000	gram
+1.0000	gramedia
+1.0000	grand
+1.0000	granola
+3.0000	gratis
+2.0000	gravitasi
+1.0000	gray
+1.0000	grayscale
+1.0000	grebek
+1.0000	greedy
+1.0000	greenstick
+1.0000	grey
+1.0000	griya
+1.0000	grommet
+1.0000	grup
+1.0000	grupnya
+1.0000	gs-nya
+3.0000	gtn
+1.0000	gua
+1.0000	guanya
+1.0000	gubernur
+1.0000	gudan
+1.0000	gudang
+1.0000	gue
+1.0000	gugur
+110.0000	gula	+13.0000
+2.0000	gulanya
+1.0000	gulung
+11.0000	gumpalan	+6.0000
+2.0000	gumpalan-gumpalan
+1.0000	gumpalannya
+21.0000	guna	+13.0000
+24.0000	gunakan	+15.0000
+6.0000	gunakanlah
+1.0000	gunawarman
+1.0000	gundik
+1.0000	guntur
+1.0000	gunung
+1.0000	gurih
+1.0000	guru
+1.0000	guru-guru
+272.0000	gusi	+47.0000
+1.0000	gusu
+1.0000	guys
+1.0000	gym
+5.0000	h	+3.0000
+1.0000	ha
+1.0000	habibi
+1.0000	habibinya
+17.0000	habis	+14.0000
+1.0000	habisin
+3.0000	habiskan
+1.0000	habisnya
+1.0000	hackathon
+1.0000	hackaton
+1.0000	hadapi
+1.0000	hadi
+1.0000	hadiah
+1.0000	hadiahnya
+2.0000	hadir
+1.0000	haduh
+1.0000	hah
+1.0000	haha
+1.0000	hahaha
+1.0000	hahahaha
+1.0000	hai
+28.0000	haid	+8.0000
+1.0000	hailing
+2.0000	hak	+0.0000
+1.0000	hak-haknya
+148.0000	hal	+12.0000
+14.0000	hal-hal	+7.0000
+1.0000	halah
+1.0000	halaman
+1.0000	halamannya
+1.0000	halitosis
+1.0000	hallo
+1.0000	hallowen
+3.0000	halnya
+23.0000	halo	+6.0000
+1.0000	halu
+1.0000	haluluntur
+6.0000	halus
+2.0000	hambatan
+1.0000	hamburan
+1.0000	hamdi
+126.0000	hamil	+36.0000
+1.0000	hamilnya
+1.0000	hampa
+31.0000	hampir	+8.0000
+1.0000	hampiran
+1.0000	hancur
+1.0000	handphone
+5.0000	handuk	+3.0000
+1.0000	handy
+30.0000	hangat	+11.0000
+1.0000	hangus
+1.0000	hank
+1.0000	hans
+1.0000	hansnya
+1.0000	hantaman
+1.0000	hanung
+139.0000	hanya	+74.0000
+4.0000	hanyalah
+1.0000	hape
+3.0000	harap	+1.0000
+4.0000	harapan
+1.0000	harapannya
+1.0000	harapkan
+2.0000	hard	+0.0000
+2.0000	harga
+1.0000	harga-harga
+1.0000	harganya
+230.0000	hari	+53.0000
+2.0000	hari-hari
+6.0000	harian	+2.0000
+8.0000	harinya	+5.0000
+1.0000	harry
+1.0000	hartono
+192.0000	harus	+75.0000
+1.0000	haruskah
+1.0000	haruslah
+18.0000	harusnya	+14.0000
+1.0000	haryono
+72.0000	hasil	+20.0000
+18.0000	hasilnya	+14.0000
+1.0000	hasrat
+48.0000	hati	+27.0000
+3.0000	hati-hati
+1.0000	hatinya
+5.0000	haus	+3.0000
+1.0000	hawa
+1.0000	hawkeye
+6.0000	hcg
+38.0000	hdl	+15.0000
+1.0000	hdl-nya
+2.0000	headache
+1.0000	headaches
+1.0000	headline
+1.0000	health
+2.0000	heart	+0.0000
+13.0000	hebat	+6.0000
+1.0000	hebatnya
+1.0000	heboh
+1.0000	hedon
+1.0000	heh
+1.0000	hehe
+1.0000	hehehehehe
+1.0000	hei
+3.0000	helai	+0.0000
+3.0000	helicobacter	+0.0000
+1.0000	helm
+2.0000	hem
+1.0000	hemat
+1.0000	hembusan
+1.0000	hemicrania
+5.0000	hemoglobin	+3.0000
+2.0000	hemophilia
+5.0000	hendak	+3.0000
+1.0000	hendaknya
+1.0000	henri
+1.0000	henry
+1.0000	henti
+2.0000	hentikan
+1.0000	heparin
+3.0000	hepatitis
+6.0000	heran	+2.0000
+1.0000	herba
+5.0000	herbal
+1.0000	hermawan
+1.0000	heroin
+10.0000	herpes	+8.0000
+3.0000	herpetiform	+1.0000
+1.0000	herpetiformis
+1.0000	heuristik
+6.0000	hewan	+2.0000
+1.0000	hewani
+1.0000	hey
+1.0000	hi
+1.0000	hiasan
+1.0000	hibrid
+1.0000	hiburan
+1.0000	hidangan
+1.0000	hidatidosa
+1.0000	hidayat
+4.0000	hidrogen	+0.0000
+2.0000	hidrokuinon
+67.0000	hidung	+22.0000
+2.0000	hidungnya
+61.0000	hidup	+16.0000
+1.0000	hidupnya
+1.0000	hierarki
+1.0000	hifi
+1.0000	higenitas
+1.0000	high
+3.0000	high-density	+0.0000
+1.0000	high-fidelity
+1.0000	highlight
+1.0000	higienis
+1.0000	hih
+14.0000	hijau	+9.0000
+3.0000	hijaunya
+40.0000	hilang	+14.0000
+2.0000	hilang-hilang
+3.0000	hilangnya
+1.0000	himpunan
+49.0000	hindari	+25.0000
+1.0000	hindarilah
+1.0000	hindarkan
+154.0000	hingga	+60.0000
+1.0000	hiperglikemi
+4.0000	hiperglikemia
+2.0000	hiperkolesterolemia	+0.0000
+2.0000	hiperosmolar
+34.0000	hipertensi	+13.0000
+3.0000	hipertiroid	+1.0000
+1.0000	hipertiroidisme
+1.0000	hipofisis
+6.0000	hipoglikemia
+3.0000	hipotensi
+3.0000	hipotiroidisme	+1.0000
+1.0000	hiraukan
+1.0000	hire
+1.0000	hiruk-pikuk
+1.0000	hirup
+1.0000	hisap
+1.0000	histamin
+5.0000	histerektomi	+3.0000
+1.0000	histogram
+1.0000	histori
+1.0000	historis
+40.0000	hitam	+15.0000
+1.0000	hits
+1.0000	hitung
+3.0000	hitungan
+1.0000	hitz
+1.0000	hiu
+5.0000	hiv	+2.0000
+1.0000	hmif
+6.0000	hmm	+3.0000
+1.0000	hmmm
+2.0000	hobi
+1.0000	hobiku
+1.0000	hobimu
+1.0000	hong
+1.0000	honshu
+1.0000	hoo
+1.0000	hormat
+1.0000	hormati
+50.0000	hormon	+13.0000
+9.0000	hormonal	+5.0000
+1.0000	horor
+1.0000	hosting
+1.0000	hotel
+1.0000	housan
+2.0000	hp
+1.0000	hpl
+21.0000	hpv	+12.0000
+1.0000	hr
+1.0000	hrt
+1.0000	html
+21.0000	hubungan	+2.0000
+4.0000	hubungannya	+2.0000
+8.0000	hubungi	+1.0000
+1.0000	huh
+1.0000	hujan
+1.0000	hujannya
+1.0000	hukum
+1.0000	hukuman
+1.0000	hulk
+3.0000	human	+1.0000
+1.0000	humas
+2.0000	humidifier
+1.0000	hungergames
+1.0000	huruf
+1.0000	huruf-huruf
+1.0000	husk
+1.0000	hut
+1.0000	hutang
+1.0000	hydatidosa
+1.0000	hypercholesterolaemia
+2.0000	hypercholesterolemia	+0.0000
+1.0000	i
+14.0000	ia	+8.0000
+6.0000	ialah	+3.0000
+1.0000	ibarat
+1.0000	ibaratnya
+1.0000	ibs
+140.0000	ibu	+46.0000
+1.0000	ibu-ibu
+1.0000	ibukota
+1.0000	ibuku
+1.0000	ibunya
+11.0000	ibuprofen	+5.0000
+1.0000	ice
+1.0000	id
+1.0000	ida
+1.0000	idap
+3.0000	ide	+0.0000
+15.0000	ideal	+7.0000
+2.0000	idealnya
+1.0000	identification
+1.0000	identifikasi
+1.0000	identitas
+1.0000	identity
+1.0000	idenya
+1.0000	idf
+1.0000	if2211
+1.0000	if50xx
+1.0000	ig
+1.0000	iga
+3.0000	igd
+1.0000	ih
+1.0000	iit
+1.0000	ijazah
+1.0000	ijin
+1.0000	ijo
+29.0000	ikan	+18.0000
+3.0000	ikat
+1.0000	iklan
+5.0000	ikut
+1.0000	ikut-ikut
+1.0000	ikut-ikutan
+1.0000	ikutan
+4.0000	ikuti
+1.0000	ikutilah
+1.0000	ikutnya
+1.0000	ila
+1.0000	ilang
+1.0000	ilegal
+1.0000	ilham
+2.0000	ilmiah
+2.0000	ilmu
+1.0000	ilmu-ilmu
+1.0000	ilmuwan
+1.0000	ilustrasi
+1.0000	ilustrasinya
+1.0000	image
+1.0000	imagine
+1.0000	imaging
+1.0000	imajinasi
+1.0000	imajinasinya
+1.0000	imarano
+1.0000	imbangi
+1.0000	imbasnya
+1.0000	imigrasi
+1.0000	impetigo
+43.0000	implan	+9.0000
+4.0000	implantasi	+1.0000
+1.0000	implementasi
+1.0000	implementasinya
+1.0000	implisit
+1.0000	impuls
+6.0000	imt	+4.0000
+4.0000	imun	+1.0000
+3.0000	imunisasi
+3.0000	imunitas
+17.0000	inap	+13.0000
+1.0000	inapnya
+1.0000	inatentif
+2.0000	inci
+5.0000	incomplete	+3.0000
+1.0000	incredible
+1.0000	indah
+3.0000	indeks	+0.0000
+1.0000	independen
+2.0000	indera	+0.0000
+1.0000	inderamayu
+1.0000	india
+1.0000	indianya
+1.0000	indigo
+7.0000	indikasi
+1.0000	indimi
+1.0000	individu
+1.0000	indomaret
+9.0000	indonesia	+7.0000
+1.0000	indra
+1.0000	indramayu
+1.0000	industri
+174.0000	infeksi	+37.0000
+3.0000	inflamasi
+18.0000	influenza	+14.0000
+1.0000	info
+1.0000	infonya
+1.0000	informal
+16.0000	informasi	+7.0000
+2.0000	informasinya
+1.0000	informatika
+1.0000	informatikanya
+1.0000	infrastruktur
+4.0000	infus	+2.0000
+10.0000	ingat
+1.0000	ingat-ingat
+1.0000	ingatan
+3.0000	ingatkan
+1.0000	inget
+1.0000	inggris
+51.0000	ingin	+33.0000
+1.0000	inginkan
+1.0000	inginku
+9.0000	ingus	+7.0000
+2.0000	ingusnya
+1.0000	inhibitors
+1075.0000	ini	+194.0000
+1.0000	ini-ini
+17.0000	inilah	+3.0000
+1.0000	inisiasi
+1.0000	inisiatif
+1.0000	injeksi
+1.0000	inkubasi
+1.0000	inkubator
+1.0000	innovation
+1.0000	inovasi
+1.0000	input
+1.0000	insektisida
+1.0000	insentif
+1.0000	insiden
+4.0000	insomnia
+1.0000	inspirasi
+1.0000	instagram
+2.0000	instalasi	+0.0000
+1.0000	install
+5.0000	instan	+0.0000
+1.0000	institut
+1.0000	institute
+2.0000	instruksi
+24.0000	insulin	+12.0000
+1.0000	insya
+1.0000	insyaallah
+1.0000	intake
+1.0000	intaran
+1.0000	integer
+1.0000	integrasi
+1.0000	integrity
+3.0000	intens
+1.0000	intensif
+8.0000	intensitas	+6.0000
+3.0000	intensitasnya
+1.0000	interaksi
+1.0000	interaksi-interaksi
+1.0000	interaktif
+1.0000	interest
+1.0000	interface
+1.0000	interior
+1.0000	interkom
+1.0000	intern
+4.0000	internal
+1.0000	internasional
+1.0000	international
+1.0000	internet
+1.0000	interproksimal
+1.0000	interupsi
+2.0000	interval
+1.0000	interview
+1.0000	inti
+9.0000	intim	+4.0000
+3.0000	intinya
+1.0000	intipin
+2.0000	intoleransi
+1.0000	intrakranial
+1.0000	intraoral
+1.0000	intrepertasi
+1.0000	introseptor
+1.0000	intuitif
+10.0000	inulin	+8.0000
+1.0000	inulinalodokter
+1.0000	invasive
+1.0000	inventaris
+1.0000	inventarisasi
+1.0000	inventorisnya
+1.0000	inventory
+1.0000	inverse
+1.0000	investasi
+1.0000	investigasi
+1.0000	investor
+6.0000	invisalign
+1.0000	involuntir
+1.0000	iodin
+1.0000	ip
+1.0000	ipa
+1.0000	iphone
+1.0000	iq
+1.0000	iqbal
+1.0000	ir
+1.0000	iri
+1.0000	irisan
+6.0000	iritan	+0.0000
+20.0000	iritasi	+3.0000
+2.0000	iritatif	+0.0000
+1.0000	iron
+1.0000	ironi
+1.0000	iseng
+1.0000	isi
+1.0000	isiin
+1.0000	isilah
+2.0000	isinya
+1.0000	isis
+3.0000	iskemia
+1.0000	iso
+1.0000	isoma
+1.0000	ispa
+3.0000	isteri	+0.0000
+1.0000	isthmus
+13.0000	istilah	+8.0000
+1.0000	istilah-istilah
+50.0000	istirahat	+18.0000
+11.0000	istri	+1.0000
+1.0000	istriku
+1.0000	istrinya
+1.0000	it
+1.0000	itb
+1.0000	item
+1.0000	iterasi
+1.0000	iteratif
+1.0000	itp
+458.0000	itu	+172.0000
+1.0000	itu-itu
+1.0000	ituh
+1.0000	itukan
+6.0000	itulah
+1.0000	itung
+1.0000	itungannya
+1.0000	itunya
+1.0000	iu
+1.0000	iud
+1.0000	ivan
+2.0000	ivf	+0.0000
+168.0000	iya	+31.0000
+1.0000	iya-iya
+1.0000	iyaa
+1.0000	iyah
+1.0000	iyalah
+1.0000	iye
+6.0000	izin	+4.0000
+1.0000	izinkan
+1.0000	izinnya
+1.0000	j
+1.0000	jabatan
+202.0000	jadi	+81.0000
+1.0000	jadiin
+1.0000	jadikan
+1.0000	jadilah
+3.0000	jadinya
+3.0000	jadwal
+1.0000	jadwalkan
+1.0000	jadwalnya
+13.0000	jaga	+7.0000
+1.0000	jaga-jaga
+1.0000	jagalah
+1.0000	jaganya
+1.0000	jago
+1.0000	jagung
+28.0000	jahat	+6.0000
+1.0000	jahatnya
+24.0000	jahe	+15.0000
+1.0000	jahit
+4.0000	jahitan
+2.0000	jajan
+5.0000	jakarta
+1.0000	jaket
+2.0000	jaketnya	+0.0000
+16.0000	jalan	+8.0000
+1.0000	jalan-jalan
+1.0000	jalan-jalannya
+1.0000	jalanan
+7.0000	jalani	+5.0000
+1.0000	jalanin
+1.0000	jalankan
+1.0000	jalannya
+1.0000	jalu
+3.0000	jalur
+1.0000	jalurnya
+76.0000	jam	+27.0000
+1.0000	jam-an
+2.0000	jam-jam
+1.0000	jaman
+1.0000	jambangan
+12.0000	jambu	+3.0000
+1.0000	jamin
+1.0000	jaminan
+1.0000	jamnya
+2.0000	jamu
+36.0000	jamur	+18.0000
+104.0000	jangan	+36.0000
+1.0000	janganlah
+1.0000	janggal
+15.0000	jangka	+0.0000
+1.0000	jangkauan
+31.0000	janin	+10.0000
+2.0000	janinnya
+2.0000	janji	+0.0000
+1.0000	janjian
+97.0000	jantung	+24.0000
+1.0000	jantungnya
+1.0000	januari
+9.0000	jarak	+7.0000
+1.0000	jaraknya
+33.0000	jarang	+15.0000
+1.0000	jarang-jarang
+12.0000	jari	+6.0000
+1.0000	jari-jari
+96.0000	jaringan	+23.0000
+2.0000	jaringan-jaringan
+2.0000	jaringannya	+0.0000
+12.0000	jarum	+5.0000
+1.0000	jarum-jarum
+1.0000	jasa
+1.0000	jasad
+1.0000	jasanya
+1.0000	jason
+1.0000	jatim
+1.0000	jatinegara
+1.0000	jato
+10.0000	jatuh	+7.0000
+1.0000	jatuhi
+1.0000	jatuhnya
+15.0000	jauh	+8.0000
+1.0000	jauh-jauh
+1.0000	jauhi
+2.0000	jauhkan
+1.0000	jawa
+3.0000	jawab
+3.0000	jawaban	+1.0000
+7.0000	jawabannya	+5.0000
+1.0000	jawabnya
+1.0000	jaya
+1.0000	jayapura
+1.0000	jebol
+1.0000	jeda
+1.0000	jejak
+1.0000	jeje
+1.0000	jelajahi
+1.0000	jelang
+27.0000	jelas	+16.0000
+1.0000	jelasin
+5.0000	jelaskan
+1.0000	jelaslah
+1.0000	jelasnya
+1.0000	jelek
+1.0000	jeli
+1.0000	jem
+1.0000	jembatan
+2.0000	jempol	+0.0000
+1.0000	jemput
+1.0000	jemur
+1.0000	jen
+1.0000	jenasah
+1.0000	jenazah
+1.0000	jendela
+1.0000	jendelanya
+1.0000	jenderal
+1.0000	jendral
+1.0000	jenguk
+169.0000	jenis	+55.0000
+4.0000	jenis-jenis
+5.0000	jenisnya
+1.0000	jenius
+1.0000	jenjang
+17.0000	jenuh	+6.0000
+1.0000	jepang
+1.0000	jepit
+2.0000	jerawat
+1.0000	jerit
+1.0000	jerman
+2.0000	jernih
+6.0000	jeroan
+24.0000	jeruk	+15.0000
+1.0000	jessin
+1.0000	jessy
+2.0000	jg
+1.0000	ji
+3.0000	jidat
+360.0000	jika	+123.0000
+1.0000	jinak
+1.0000	jingga
+1.0000	jipeg
+1.0000	jitu
+2.0000	jiwa
+1.0000	jknkis
+1.0000	jo
+1.0000	job
+1.0000	jobdesc
+1.0000	jobdesk
+1.0000	joget
+1.0000	jogging
+1.0000	joging
+1.0000	jogja
+1.0000	joker
+1.0000	joko
+1.0000	jokowi
+1.0000	jones
+1.0000	joni
+1.0000	jorok
+1.0000	josep
+2.0000	joss
+1.0000	jossnya
+1.0000	journal
+1.0000	jual
+1.0000	jualan
+1.0000	jualnya
+1.0000	juanda
+1.0000	juara
+1.0000	judul
+1.0000	judulnya
+586.0000	juga	+146.0000
+3.0000	jujur	+1.0000
+1.0000	juli
+1.0000	juling
+1.0000	julitin
+1.0000	jumat
+1.0000	jumatnya
+1.0000	juminten
+41.0000	jumlah	+15.0000
+1.0000	jumlahkan
+6.0000	jumlahnya	+4.0000
+3.0000	jumpa	+1.0000
+2.0000	jumpai
+1.0000	juni
+2.0000	junk	+0.0000
+1.0000	jurang
+2.0000	juru	+0.0000
+1.0000	jurusan
+6.0000	jus	+2.0000
+1.0000	just
+15.0000	justru	+13.0000
+1.0000	justus
+3.0000	juta
+1.0000	jutaan
+7.0000	k	+5.0000
+1.0000	ka
+4.0000	kabar	+2.0000
+1.0000	kabar-kabarin
+1.0000	kabari
+1.0000	kabarin
+1.0000	kabarmu
+3.0000	kabarnya	+1.0000
+1.0000	kabupaten
+4.0000	kabur
+1.0000	kaca
+11.0000	kacamata	+9.0000
+1.0000	kacamatanya
+15.0000	kacang	+7.0000
+9.0000	kacang-kacangan	+6.0000
+1.0000	kacau
+1.0000	kadaluwarsa
+27.0000	kadang	+17.0000
+10.0000	kadang-kadang	+6.0000
+184.0000	kadar	+14.0000
+5.0000	kadarnya	+1.0000
+1.0000	kader
+1.0000	kaderisasi
+1.0000	kadivnya
+1.0000	kadmium
+1.0000	kadmiun
+1.0000	kado
+1.0000	kafe
+12.0000	kafein	+5.0000
+1.0000	kaga
+1.0000	kaget
+1.0000	kagum
+1.0000	kah
+1.0000	kahfi
+3.0000	kain
+1.0000	kaitan
+1.0000	kaitannya
+2.0000	kak	+0.0000
+2.0000	kakak
+1.0000	kakaktua
+1.0000	kakap
+1.0000	kakas
+6.0000	kakek	+0.0000
+1.0000	kakek-kakek
+48.0000	kaki	+16.0000
+1.0000	kakiku
+2.0000	kakinya
+4.0000	kaku	+1.0000
+1.0000	kala
+1.0000	kalah
+1.0000	kalangan
+1.0000	kalanya
+166.0000	kalau	+55.0000
+1.0000	kalaupun
+1.0000	kaldu
+1.0000	kalender
+91.0000	kali	+25.0000
+1.0000	kalian
+1.0000	kalibaru
+1.0000	kalibr
+1.0000	kalimat
+1.0000	kalimatnya
+1.0000	kalingga
+3.0000	kalinya
+2.0000	kalium
+1.0000	kalkulator
+2.0000	kalkulus
+1.0000	kalkun
+50.0000	kalo	+27.0000
+25.0000	kalori	+10.0000
+1.0000	kalorinya
+6.0000	kalsium	+4.0000
+9.0000	kamar	+4.0000
+1.0000	kamarnya
+1.0000	kambing
+15.0000	kambuh	+7.0000
+1.0000	kame
+1.0000	kamera
+1.0000	kameramen
+1.0000	kamfer
+35.0000	kami	+16.0000
+1.0000	kamil
+1.0000	kamis
+1.0000	kampung
+1.0000	kampungnya
+2.0000	kampus
+99.0000	kamu	+50.0000
+1.0000	kamus
+33.0000	kan	+17.0000
+2.0000	kanak-kanak
+1.0000	kanal
+23.0000	kanan	+6.0000
+1.0000	kanannya
+1.0000	kanban
+1.0000	kandidat
+1.0000	kandidat-kandidat
+1.0000	kandidatnya
+14.0000	kandung	+3.0000
+104.0000	kandungan	+38.0000
+2.0000	kandungannya
+1.0000	kangen
+1.0000	kangguru
+1.0000	kangkung
+124.0000	kanker	+35.0000
+1.0000	kantin
+11.0000	kantong	+4.0000
+9.0000	kantor	+5.0000
+1.0000	kantoran
+5.0000	kantung
+1.0000	kanvas
+1.0000	kaos
+1.0000	kaosnya
+1.0000	kap
+1.0000	kapal
+31.0000	kapan	+11.0000
+1.0000	kapan-kapan
+1.0000	kapanpun
+2.0000	kapas
+1.0000	kapasitas
+1.0000	kaplet
+1.0000	kapnya
+1.0000	kapok
+1.0000	kapolres
+2.0000	kapsul
+1.0000	kapten
+1.0000	kaptropil
+1.0000	kapur
+1.0000	karakter
+2.0000	karakteristik
+1.0000	karakteristiknya
+9.0000	karang	+1.0000
+1.0000	karangan
+1.0000	karaoke
+1.0000	karaokenya
+2.0000	karat
+1.0000	karbo
+15.0000	karbohidrat	+13.0000
+9.0000	karbon	+1.0000
+1.0000	karbonasi
+5.0000	kardiovaskular
+334.0000	karena	+132.0000
+4.0000	karenanya
+5.0000	karet
+1.0000	karetnya
+1.0000	karies
+1.0000	karisma
+1.0000	karna
+1.0000	karoten
+1.0000	karsidi
+11.0000	karsinogen	+5.0000
+1.0000	karsinogenik
+2.0000	karsinoma	+0.0000
+9.0000	kartu	+2.0000
+1.0000	kartun
+1.0000	karung
+1.0000	karya
+1.0000	karya-karya
+1.0000	karyawan
+1.0000	karyawan-karyawan
+1.0000	kas
+1.0000	kasa
+5.0000	kasar
+1.0000	kasat
+1.0000	kasi
+1.0000	kasian
+94.0000	kasih	+11.0000
+1.0000	kasihan
+4.0000	kasir	+2.0000
+1.0000	kasubdit
+4.0000	kasur	+1.0000
+34.0000	kasus	+22.0000
+2.0000	kasus-kasus
+2.0000	kasusnya
+7.0000	kata	+5.0000
+1.0000	kata-kata
+1.0000	kata-katanya
+1.0000	katakan
+2.0000	katakanlah	+0.0000
+1.0000	katalis
+5.0000	katanya
+1.0000	kategori
+1.0000	kategorinya
+3.0000	katekol
+1.0000	kateter
+1.0000	katsu
+18.0000	katup	+6.0000
+1.0000	kau
+3.0000	kaum
+1.0000	kawah
+1.0000	kawan-kawannya
+1.0000	kawasan
+9.0000	kawat	+0.0000
+1.0000	kawatir
+32.0000	kaya	+23.0000
+29.0000	kayak	+16.0000
+9.0000	kayaknya
+11.0000	kayanya	+9.0000
+4.0000	kayu	+2.0000
+10.0000	kb	+4.0000
+1.0000	kbs
+346.0000	ke	+56.0000
+1.0000	ke-empat
+1.0000	ke-enam
+1.0000	ke-lima
+1.0000	keabuan
+15.0000	keadaan	+11.0000
+4.0000	keadaannya	+2.0000
+1.0000	keadilan
+1.0000	keakraban
+1.0000	keamanan
+1.0000	keamanannya
+1.0000	keanggotaan
+2.0000	keasaman
+1.0000	keatas
+1.0000	kebaca
+1.0000	kebagian
+1.0000	kebakaran
+1.0000	kebaktian
+1.0000	kebal
+2.0000	kebalikan	+0.0000
+1.0000	kebanggannya
+1.0000	kebangun
+16.0000	kebanyakan	+4.0000
+1.0000	kebas
+1.0000	kebayang
+1.0000	kebebasan
+3.0000	kebelakangan
+1.0000	kebeneran
+1.0000	kebengkakan
+2.0000	keberadaan
+2.0000	keberapa
+1.0000	keberatan
+1.0000	keberhasilan
+1.0000	keberjalanan
+1.0000	keberjalanannya
+1.0000	keberlangsungan
+32.0000	kebersihan	+6.0000
+8.0000	kebetulan
+43.0000	kebiasaan	+18.0000
+1.0000	kebiasan
+1.0000	kebidanan
+1.0000	kebijakan
+2.0000	kebingungan
+1.0000	kebiruan
+3.0000	kebocoran	+1.0000
+1.0000	kebohongan
+1.0000	kebon
+1.0000	kebudayaan
+1.0000	kebugaran
+1.0000	kebuka
+3.0000	kebun
+3.0000	kebunnya
+1.0000	kebutaan
+25.0000	kebutuhan	+10.0000
+1.0000	kebutuhannya
+1.0000	kecacatan
+1.0000	kecamatan
+3.0000	kecanduan	+1.0000
+2.0000	kecantikan
+1.0000	kecantikanmu
+1.0000	kecapean
+2.0000	kecapekan	+0.0000
+8.0000	kecelakaan	+6.0000
+1.0000	kecelakaannya
+8.0000	kecemasan	+4.0000
+3.0000	kecenderungan
+1.0000	kecepatan
+1.0000	kecerahan
+1.0000	kecerdasan
+84.0000	kecil	+28.0000
+3.0000	kecil-kecil
+1.0000	kecokelatan
+1.0000	kecoklatan
+6.0000	kecuali
+1.0000	kecurigaan
+1.0000	kedalam
+3.0000	kedalaman	+0.0000
+1.0000	kedatangan
+5.0000	kedelai	+3.0000
+2.0000	kedelapan
+1.0000	kedengarannya
+4.0000	kedepan	+1.0000
+1.0000	kedepannya
+1.0000	kedinginan
+1.0000	kediri
+3.0000	kedokteran
+42.0000	kedua	+22.0000
+5.0000	keduanya
+1.0000	kedutan
+5.0000	keempat
+7.0000	keenam
+1.0000	keesokan
+1.0000	kegaduhan
+1.0000	kegagalan
+2.0000	keganasan
+1.0000	kegawatan
+2.0000	kegawatdaruratan
+1.0000	kegedean
+3.0000	kegemukan	+1.0000
+1.0000	kegesek-gesek
+10.0000	kegiatan	+6.0000
+1.0000	kegiatan-kegiatan
+1.0000	kegiatannya
+1.0000	kegugupan
+15.0000	keguguran	+8.0000
+1.0000	kegunaan
+1.0000	kehabisan
+2.0000	kehadiran
+1.0000	kehadirannya
+173.0000	kehamilan	+48.0000
+1.0000	kehamilannya
+1.0000	kehandalan
+1.0000	kehausan
+1.0000	kehebohan
+1.0000	kehidupan
+1.0000	kehidupannya
+2.0000	kehijauan	+0.0000
+12.0000	kehilangan	+10.0000
+2.0000	kehitaman
+1.0000	kehujanan
+1.0000	kehutanan
+1.0000	keindahan
+12.0000	keinginan	+4.0000
+1.0000	keinginannya
+1.0000	keisengan
+1.0000	keisi
+1.0000	keistimewaan
+1.0000	keisya
+3.0000	kejadian
+1.0000	kejadiannya
+1.0000	kejahatan
+1.0000	kejamnya
+4.0000	kejang
+1.0000	kejang-kejang
+1.0000	kejar
+1.0000	kejaran
+1.0000	kejebak
+1.0000	kejelasan
+1.0000	kejepit
+3.0000	kejiwaan
+6.0000	keju	+4.0000
+1.0000	keju-keju
+1.0000	kejujuran
+1.0000	kekalutan
+2.0000	kekambuhan
+1.0000	kekambuhannya
+1.0000	kekasih
+1.0000	kekasihnya
+19.0000	kekebalan	+1.0000
+1.0000	kekeluargaan
+1.0000	kekentalan
+6.0000	kekhawatiran	+4.0000
+6.0000	kekuatan	+2.0000
+1.0000	kekuatannya
+1.0000	kekueangan
+1.0000	kekuningan
+28.0000	kekurangan	+8.0000
+1.0000	kekurangannya
+7.0000	kelahiran	+2.0000
+1.0000	kelahirannya
+23.0000	kelainan	+12.0000
+1.0000	kelalaian
+2.0000	kelamaan
+1.0000	kelamin
+1.0000	kelancaran
+1.0000	kelanjutan
+13.0000	kelapa	+6.0000
+2.0000	kelaparan
+1.0000	kelar
+1.0000	kelarin
+9.0000	kelas	+5.0000
+1.0000	kelasnya
+1.0000	kelayakan
+6.0000	kelebihan	+4.0000
+1.0000	kelebihannya
+18.0000	kelelahan	+7.0000
+5.0000	kelemahan
+1.0000	kelemahannya
+1.0000	kelembapan
+1.0000	kelengkapan
+1.0000	kelengkeng
+32.0000	kelenjar	+14.0000
+1.0000	kelereng
+1.0000	kelewat
+1.0000	kelewatan
+1.0000	keliatan
+1.0000	keliatannya
+4.0000	kelihatan
+1.0000	kelihatannya
+1.0000	keliling
+3.0000	kelima
+2.0000	keliru
+2.0000	kelola	+0.0000
+1.0000	kelolalah
+4.0000	kelompok
+1.0000	kelompoknya
+33.0000	kelopak	+0.0000
+52.0000	keluar	+23.0000
+1.0000	keluar-keluar
+1.0000	keluaran
+40.0000	keluarga	+12.0000
+1.0000	keluargaku
+1.0000	keluarganya
+1.0000	keluarin
+4.0000	keluarkan	+1.0000
+3.0000	keluarnya	+1.0000
+1.0000	kelud
+1.0000	keluguan
+107.0000	keluhan	+20.0000
+7.0000	keluhan-keluhan	+3.0000
+8.0000	keluhannya	+4.0000
+1.0000	kelulusan
+2.0000	kelumpuhan
+25.0000	kelvin	+16.0000
+1.0000	kemacetan
+1.0000	kemah
+1.0000	kemahalan
+1.0000	kemahasiswaan
+1.0000	kemahnya
+2.0000	kemajuan
+1.0000	kemajuannya
+17.0000	kemampuan	+9.0000
+2.0000	kemampuannya	+0.0000
+2.0000	kemana
+1.0000	kemana-mana
+1.0000	kemanusiaan
+8.0000	kemaren
+43.0000	kemarin	+31.0000
+1.0000	kemasalahannya
+6.0000	kemasan	+4.0000
+2.0000	kemasukan
+11.0000	kematian	+2.0000
+78.0000	kembali	+31.0000
+1.0000	kembalikan
+1.0000	kembalinya
+5.0000	kembang
+1.0000	kembangkan
+1.0000	kembar
+9.0000	kembung	+6.0000
+1.0000	kemdikbud
+1.0000	kemeja
+1.0000	kemenangan
+1.0000	kemendikbud
+1.0000	kementerian
+1.0000	kementrian
+16.0000	kemerahan	+2.0000
+1.0000	kemerdekaan
+17.0000	kemih	+9.0000
+3.0000	kemoterapi
+1.0000	kempot
+1.0000	kemudahan
+67.0000	kemudian	+43.0000
+1.0000	kemudikan
+1.0000	kemugkinan
+1.0000	kemunculan
+72.0000	kemungkinan	+30.0000
+4.0000	kemungkinannya
+5.0000	kena
+7.0000	kenaikan	+3.0000
+1.0000	kenakan
+1.0000	kenal
+1.0000	kenalan
+5.0000	kenali	+3.0000
+1.0000	kenalin
+33.0000	kenapa	+15.0000
+2.0000	kenapa-kenapa
+2.0000	kenapa-napa
+6.0000	kencang	+4.0000
+1.0000	kenceng
+8.0000	kencing
+1.0000	kendala
+1.0000	kendalanya
+2.0000	kendali
+2.0000	kendalikan
+1.0000	kendaraan
+1.0000	kendati
+7.0000	kendur	+3.0000
+1.0000	kenikmatan
+3.0000	kening	+1.0000
+5.0000	kental	+3.0000
+3.0000	kentang	+1.0000
+1.0000	kenyal
+4.0000	kenyamanan
+1.0000	kenyamanannya
+5.0000	kenyang	+3.0000
+1.0000	kenyataan
+1.0000	kenyataannya
+1.0000	kenyataanya
+1.0000	keos
+27.0000	kepada	+9.0000
+2.0000	kepadatan
+293.0000	kepala	+67.0000
+8.0000	kepalanya
+1.0000	kepalasakit
+8.0000	keparahan	+6.0000
+2.0000	keparahannya
+1.0000	kepastian
+1.0000	kepatuhan
+1.0000	kepekaan
+1.0000	kepengurusan
+1.0000	kepentingan
+3.0000	kepercayaan	+1.0000
+1.0000	keperluan
+1.0000	kepikiran
+1.0000	keping
+1.0000	kepolisian
+1.0000	kepopulerannya
+1.0000	kepresidenan
+1.0000	kepribadian
+1.0000	kepuasan
+1.0000	kepulan
+2.0000	keputihan
+2.0000	keputusan
+1.0000	kerabat
+4.0000	keracunan	+1.0000
+1.0000	kerahasiaan
+1.0000	kerak
+1.0000	keram
+3.0000	keramaian
+1.0000	keramas
+6.0000	keramik	+4.0000
+1.0000	kerang
+1.0000	kerangka
+12.0000	kerap	+8.0000
+31.0000	keras	+12.0000
+1.0000	keras-keras
+7.0000	kerasa	+5.0000
+1.0000	kerasanya
+1.0000	kerasnya
+1.0000	keratosis
+1.0000	kerawanan
+1.0000	kerbau
+1.0000	kerbaunya
+1.0000	keren
+1.0000	keren-keren
+1.0000	kereta
+1.0000	keretakan
+57.0000	kering	+18.0000
+5.0000	keringat
+1.0000	keringetan
+1.0000	keringin
+2.0000	keringkan
+3.0000	keripik
+1.0000	keriput
+19.0000	kerja	+14.0000
+1.0000	kerjaan
+1.0000	kerjaanmu
+2.0000	kerjaannya
+1.0000	kerjain
+1.0000	kerjakan
+1.0000	kerjanya
+1.0000	kerjasama
+6.0000	kerok	+4.0000
+1.0000	kerongkongam
+11.0000	kerongkongan	+1.0000
+2.0000	kerontokan	+0.0000
+2.0000	keropos
+2.0000	kertas
+3.0000	kerucut
+1.0000	kerugian
+1.0000	kerugiannya
+2.0000	keruh	+0.0000
+1.0000	kerumunan
+1.0000	kerupuk
+49.0000	kerusakan	+14.0000
+1.0000	kerutan
+1.0000	kesabaran
+3.0000	kesadaran
+3.0000	kesakitan
+1.0000	kesaktian
+5.0000	kesalahan
+1.0000	kesan
+1.0000	kesana
+1.0000	kesatuan
+1.0000	kesebelas
+1.0000	kesederhanaan
+1.0000	kesediaan
+1.0000	kesedihannya
+1.0000	keseharian
+2.0000	kesehariannya
+141.0000	kesehatan	+39.0000
+1.0000	kesehatanmu
+3.0000	kesehatannya
+4.0000	keseimbangan
+1.0000	kesejahteraan
+1.0000	kesel
+1.0000	keselamatan
+5.0000	keseluruhan	+2.0000
+1.0000	keseluruhannya
+3.0000	kesembilan
+4.0000	kesembuhan	+0.0000
+1.0000	kesembuhannya
+3.0000	kesempatan	+1.0000
+8.0000	kesemutan	+4.0000
+1.0000	kesepakatan
+1.0000	kesepakatannya
+1.0000	kesepian
+1.0000	kesepuluh
+1.0000	keseragaman
+1.0000	keseringan
+1.0000	kesetiaan
+1.0000	kesiangan
+1.0000	kesiapan
+1.0000	kesiapannya
+1.0000	kesimpan
+1.0000	kesimpulan
+4.0000	kesini
+6.0000	kesuburan	+1.0000
+1.0000	kesukaan
+1.0000	kesuksesan
+22.0000	kesulitan	+8.0000
+4.0000	ketagihan	+2.0000
+13.0000	ketahui	+4.0000
+1.0000	ketakutan
+11.0000	ketat	+8.0000
+1.0000	ketawa
+2.0000	ketegangan
+1.0000	ketelitian
+1.0000	ketempat
+1.0000	ketemu
+1.0000	ketemuan
+1.0000	ketemuannya
+2.0000	ketentuan
+1.0000	ketepatan
+1.0000	keterampilan
+2.0000	keterangan
+1.0000	keterangannya
+1.0000	keterbatasan
+1.0000	ketergantungan
+3.0000	keterlambatan	+1.0000
+1.0000	keterlibatan
+1.0000	ketersediaannya
+1.0000	ketertarikan
+5.0000	ketiak	+2.0000
+1.0000	ketidakefisienan
+1.0000	ketidakmungkinan
+15.0000	ketidaknyamanan	+6.0000
+1.0000	ketidakpastian
+1.0000	ketidakpedulian
+1.0000	ketidakpekaan
+1.0000	ketidakpuasan
+2.0000	ketidakseimbangan
+1.0000	ketiduran
+10.0000	ketiga	+6.0000
+161.0000	ketika	+88.0000
+9.0000	ketimbang	+7.0000
+1.0000	ketimun
+1.0000	ketinggalan
+2.0000	ketinggian
+3.0000	ketoasidosis	+0.0000
+1.0000	ketoconazole
+2.0000	ketombe	+0.0000
+1.0000	keton
+1.0000	ketua
+2.0000	ketuban
+5.0000	ketujuh	+3.0000
+1.0000	ketuker
+10.0000	keturunan	+5.0000
+1.0000	ketut
+1.0000	ketutup
+2.0000	keuangan
+1.0000	keunikan
+1.0000	keuntungan
+1.0000	kevin
+1.0000	kewajiban
+2.0000	kewanitaan	+0.0000
+1.0000	kewirausahaan
+1.0000	key
+1.0000	keyakinan
+1.0000	keyboard
+1.0000	kfc
+1.0000	khan
+5.0000	khas
+1.0000	khasiat
+20.0000	khawatir	+13.0000
+1.0000	khawatirkan
+1.0000	khsusunya
+29.0000	khusus	+11.0000
+13.0000	khususnya	+9.0000
+1.0000	kiamat
+1.0000	kian
+1.0000	kiki
+1.0000	kikil
+1.0000	kikuk
+1.0000	kilo
+9.0000	kilogram	+4.0000
+1.0000	kilometer
+38.0000	kimia	+10.0000
+1.0000	kina
+1.0000	kinerja
+1.0000	kinerja-kinerja
+1.0000	kinerjanya
+1.0000	kinestesi
+1.0000	king
+3.0000	kini	+1.0000
+1.0000	kios
+14.0000	kira	+9.0000
+14.0000	kira-kira	+6.0000
+1.0000	kirain
+1.0000	kirana
+28.0000	kiri	+19.0000
+1.0000	kirim
+1.0000	kirimkan
+1.0000	kirinya
+1.0000	kisaran
+1.0000	kisruh
+7.0000	kista	+2.0000
+1.0000	kistik
+1.0000	kit
+82.0000	kita	+36.0000
+1.0000	kk
+3.0000	klaim
+1.0000	klarifikasi
+1.0000	klasifikasi
+2.0000	klasik
+1.0000	klep
+1.0000	klien
+1.0000	kliennya
+1.0000	klik
+1.0000	klimaks
+2.0000	klinik
+2.0000	klinis
+1.0000	klip
+1.0000	klorheksidin
+1.0000	klorida
+1.0000	kmarin
+1.0000	knapsack
+4.0000	ko
+1.0000	kobe
+1.0000	kocak
+1.0000	kode
+1.0000	kode-kodenya
+1.0000	kodenya
+1.0000	koding
+5.0000	kognitif	+3.0000
+1.0000	koin
+1.0000	koin-koin
+1.0000	koinnya
+17.0000	kok	+5.0000
+1.0000	kokain
+1.0000	kokoh
+2.0000	kol
+18.0000	kolagen	+9.0000
+1.0000	kolam
+1.0000	koleksi
+283.0000	kolesterol	+47.0000
+4.0000	kolesterolnya
+1.0000	koleterol
+1.0000	koletesterol
+1.0000	kolitis
+1.0000	kolkatriol
+1.0000	kolom
+1.0000	kolongnya
+1.0000	kolonial
+1.0000	kolonialisme
+1.0000	kom
+16.0000	koma	+3.0000
+1.0000	kombes
+6.0000	kombinasi	+3.0000
+1.0000	komedi
+1.0000	komentar
+1.0000	komik
+1.0000	kominutif
+1.0000	komite
+1.0000	komitmen
+1.0000	komparatif
+67.0000	kompartemen	+11.0000
+1.0000	kompasdotcom
+1.0000	kompeten
+1.0000	kompetensinya
+1.0000	kompetitif
+1.0000	kompetitor
+1.0000	kompetitormu
+1.0000	komplek
+4.0000	kompleks	+2.0000
+39.0000	komplikasi	+20.0000
+1.0000	komplikasinya
+1.0000	kompol
+12.0000	komponen	+6.0000
+1.0000	komponen-komponen
+1.0000	komposisi
+1.0000	komprehensif
+21.0000	kompres	+5.0000
+1.0000	kompresi
+1.0000	kompreskan
+1.0000	komputasi
+6.0000	komputer	+4.0000
+1.0000	komputerisasi
+1.0000	komulatif
+1.0000	komunikan
+1.0000	komunikasi
+1.0000	komunikasikan
+1.0000	komunikatif
+1.0000	komunitas
+1.0000	komvis
+358.0000	kondisi	+65.0000
+3.0000	kondisi-kondisi
+12.0000	kondisinya	+10.0000
+1.0000	kondom
+1.0000	koneksi
+1.0000	koneksinya
+1.0000	konferensi
+1.0000	konfirmasi
+1.0000	konflik
+1.0000	kong
+1.0000	konka
+1.0000	konsekuensi
+1.0000	konsekuensinya
+1.0000	konseling
+4.0000	konsentrasi
+1.0000	konsep
+1.0000	konsepnya
+1.0000	konseptual
+1.0000	konser
+1.0000	konservasi
+1.0000	konservatif
+2.0000	konsisten
+1.0000	konsistensi
+1.0000	konsistensinya
+1.0000	konspirasi
+2.0000	konstan
+1.0000	konstanta
+2.0000	konstipasi
+1.0000	konstruksi
+1.0000	konsultan
+14.0000	konsultasi	+4.0000
+23.0000	konsultasikan	+4.0000
+2.0000	konsultasikanlah	+0.0000
+2.0000	konsultasinya
+1.0000	konsumen
+92.0000	konsumsi	+27.0000
+4.0000	konsumsilah
+1.0000	konsumsinya
+14.0000	kontak	+4.0000
+1.0000	kontaminasi
+1.0000	konteks
+1.0000	konten
+1.0000	konten-konten
+1.0000	kontennya
+1.0000	kontinen
+1.0000	kontinu
+1.0000	kontrak
+1.0000	kontraksi
+1.0000	kontraktor
+4.0000	kontras	+2.0000
+7.0000	kontrasepsi	+5.0000
+1.0000	kontribusi
+16.0000	kontrol	+11.0000
+1.0000	kontrolnya
+1.0000	kontur
+4.0000	konvensional	+2.0000
+1.0000	konversi
+1.0000	konvulsan
+1.0000	koordinasi
+1.0000	koordinasikan
+1.0000	koordinator
+12.0000	kopi	+5.0000
+1.0000	kopinya
+15.0000	korban	+6.0000
+1.0000	korban-korban
+1.0000	korea
+1.0000	koreksi
+1.0000	koreksilah
+4.0000	koroner	+2.0000
+1.0000	korosi
+1.0000	korporasi
+1.0000	korpus
+1.0000	kortikosteroid
+2.0000	kortisol
+1.0000	korupsi
+1.0000	kos
+1.0000	kosan
+5.0000	kosmetik	+3.0000
+1.0000	kosnultasikan
+7.0000	kosong	+3.0000
+1.0000	kostum
+1.0000	kota
+1.0000	kota-kota
+2.0000	kotak	+0.0000
+1.0000	kotaknya
+1.0000	kotanya
+5.0000	kotor
+3.0000	kotoran
+1.0000	kp
+1.0000	kpk
+1.0000	kpnya
+7.0000	kram	+5.0000
+1.0000	kreatif
+1.0000	kresol
+4.0000	krim	+1.0000
+1.0000	krimnya
+1.0000	kripik
+10.0000	kristal	+6.0000
+3.0000	kristal-kristal
+1.0000	kristian
+1.0000	kriteria
+1.0000	kriteria-kriteria
+1.0000	kritik
+3.0000	kritis	+1.0000
+3.0000	kromium
+16.0000	kromosom	+5.0000
+54.0000	kronis	+13.0000
+1.0000	kronologis
+1.0000	krotonaldehyde
+1.0000	kru
+1.0000	krusial
+1.0000	ktp
+1.0000	ku
+1.0000	kua
+1.0000	kua-ppas
+1.0000	kuah
+1.0000	kualifikasi
+6.0000	kualitas
+1.0000	kualitas-kualitas
+1.0000	kualitasnya
+1.0000	kuantitas
+1.0000	kuantitatif
+1.0000	kuantum
+1.0000	kuantumnya
+1.0000	kuas
+1.0000	kuasa
+24.0000	kuat	+12.0000
+1.0000	kuatir
+1.0000	kubernetes
+5.0000	kubis
+1.0000	kublet
+1.0000	kucek
+1.0000	kucing
+1.0000	kucingnya
+3.0000	kuda	+1.0000
+1.0000	kudis
+1.0000	kuduga
+3.0000	kue	+1.0000
+1.0000	kuesioner
+1.0000	kuhancurkan
+1.0000	kuhasut
+1.0000	kuizo
+1.0000	kukabari
+1.0000	kukira
+8.0000	kuku	+3.0000
+3.0000	kuliah
+1.0000	kuliahan
+199.0000	kulit	+54.0000
+1.0000	kulitalodokter
+3.0000	kulitnya
+1.0000	kultur
+5.0000	kuman	+3.0000
+1.0000	kuman-kuman
+1.0000	kumat
+1.0000	kumpul
+4.0000	kumpulan
+1.0000	kumpulan-kumpulan
+1.0000	kumpulin
+25.0000	kumur	+11.0000
+2.0000	kumur-kumur
+1.0000	kunci
+1.0000	kunciin
+11.0000	kuning	+5.0000
+13.0000	kunjung	+6.0000
+1.0000	kunjungan
+1.0000	kunjungannya
+2.0000	kunjungi
+1.0000	kunyah
+13.0000	kunyit	+9.0000
+1.0000	kuota
+1.0000	kupang
+1.0000	kuping
+1.0000	kupon
+84.0000	kurang	+24.0000
+19.0000	kurangi	+5.0000
+1.0000	kurangin
+7.0000	kurangnya	+3.0000
+1.0000	kurap
+5.0000	kuret
+1.0000	kurikulum
+1.0000	kurintis
+1.0000	kursi
+1.0000	kursus
+1.0000	kurun
+4.0000	kurus
+1.0000	kusampaikan
+1.0000	kusni
+1.0000	kusta
+1.0000	kutek
+2.0000	kutil
+1.0000	kutipan
+2.0000	kutu
+1.0000	l
+1.0000	l-carnitine
+1.0000	la
+6.0000	lab
+1.0000	lab-nya
+2.0000	label
+1.0000	labelnya
+3.0000	labnya
+1.0000	laboratorim
+8.0000	laboratorium
+1.0000	labs
+1.0000	labtek
+1.0000	labu
+1.0000	lactobacillus
+1.0000	laen
+1.0000	laga
+137.0000	lagi	+67.0000
+1.0000	lagian
+2.0000	lagipula
+1.0000	lagu
+1.0000	lagunya
+8.0000	lah	+3.0000
+7.0000	lahir
+1.0000	lahiran
+189.0000	lain	+40.0000
+10.0000	lain-lain	+2.0000
+117.0000	lainnya	+35.0000
+1.0000	laju
+1.0000	lajur
+1.0000	laki
+4.0000	laki-laki
+1.0000	laksamana
+1.0000	laksanakan
+1.0000	laktosa
+1.0000	laku
+1.0000	lakuin
+87.0000	lakukan	+30.0000
+3.0000	lakukanlah
+1.0000	lalai
+76.0000	lalu	+29.0000
+84.0000	lama	+37.0000
+1.0000	lama-kelamaan
+2.0000	lama-lama
+1.0000	lamaku
+2.0000	lamanya
+1.0000	lamaran
+2.0000	lambat
+32.0000	lambung	+12.0000
+2.0000	lambungnya
+1.0000	laminasi
+1.0000	lampau
+1.0000	lampu
+1.0000	lampunya
+5.0000	lancar	+0.0000
+1.0000	lancar-lancar
+1.0000	landasan
+1.0000	langganan
+1.0000	langit
+42.0000	langit-langit	+3.0000
+1.0000	langitnya
+1.0000	langka
+21.0000	langkah	+10.0000
+3.0000	langkah-langkah
+1.0000	langkah-langkahnya
+1.0000	langkahnya
+86.0000	langsung	+46.0000
+43.0000	lanjut	+13.0000
+4.0000	lanjutan
+1.0000	lanjutannya
+1.0000	lanjutin
+1.0000	lanjutkan
+3.0000	lanjutnya	+1.0000
+2.0000	lansia
+4.0000	lantai	+2.0000
+1.0000	lantaran
+12.0000	lantas	+5.0000
+1.0000	lapak
+1.0000	lapan
+1.0000	lapang
+1.0000	lapangan
+7.0000	lapar
+1.0000	laparoscopy
+1.0000	laper
+1.0000	lapis
+14.0000	lapisan	+12.0000
+1.0000	lapor
+4.0000	laporan
+1.0000	laporannnya
+1.0000	laporannya
+1.0000	laporkan
+1.0000	laptop
+1.0000	laptopnya
+1.0000	larangan
+1.0000	large
+3.0000	lari	+1.0000
+1.0000	lari-lari
+6.0000	laring	+4.0000
+14.0000	larut	+5.0000
+7.0000	larutan
+2.0000	larutkan
+1.0000	larutkanlah
+1.0000	las
+1.0000	latar
+3.0000	lateks	+1.0000
+1.0000	lateral
+1.0000	latian
+10.0000	latihan	+6.0000
+1.0000	latihannya
+1.0000	lauknya
+1.0000	laun
+1.0000	laurat
+1.0000	lauril
+3.0000	lauryl	+1.0000
+17.0000	laut	+13.0000
+1.0000	lautnya
+1.0000	lawan
+2.0000	layak
+2.0000	layaknya
+1.0000	layanan
+1.0000	layani
+1.0000	layar
+1.0000	layout
+40.0000	ldl	+12.0000
+1.0000	le
+1.0000	lead
+1.0000	learning
+1.0000	lebam
+2.0000	lebar
+1.0000	lebar-lebar
+1.0000	lebay
+1.0000	lebi
+412.0000	lebih	+61.0000
+1.0000	lecet
+1.0000	ledakan
+1.0000	lee
+1.0000	lega
+1.0000	legal
+1.0000	legendaris
+1.0000	legume
+29.0000	leher	+7.0000
+1.0000	lehernya
+1.0000	leibel
+6.0000	lekas	+2.0000
+1.0000	lekat
+1.0000	leksikonnya
+3.0000	lekukan	+1.0000
+17.0000	lelah	+11.0000
+1.0000	lelawang
+1.0000	lelet
+1.0000	leluasa
+1.0000	lema
+1.0000	lemab
+9.0000	lemah	+7.0000
+79.0000	lemak	+23.0000
+1.0000	lemarano
+1.0000	lemari
+26.0000	lemas	+11.0000
+1.0000	lembab
+1.0000	lembaga
+1.0000	lembang
+7.0000	lembap	+1.0000
+1.0000	lembar
+1.0000	lembur
+20.0000	lembut	+5.0000
+4.0000	lemes
+14.0000	lemon	+3.0000
+1.0000	lempar
+1.0000	len
+10.0000	lendir	+8.0000
+15.0000	lengan	+7.0000
+44.0000	lengkap	+25.0000
+1.0000	lengkapi
+7.0000	lengket	+2.0000
+10.0000	lensa	+2.0000
+1.0000	lensanya
+1.0000	lentur
+9.0000	lepas	+3.0000
+1.0000	lepas-pasang
+1.0000	lepaskan
+1.0000	lepasnya
+3.0000	lepuh	+0.0000
+3.0000	lepuhan	+1.0000
+1.0000	lesser
+1.0000	leste
+2.0000	lesu
+2.0000	lesung
+1.0000	letak
+3.0000	letakkan
+2.0000	letaknya
+1.0000	letusan
+2.0000	leukemia
+2.0000	leukimia
+2.0000	level
+1.0000	levelnya
+1.0000	levomenol
+5.0000	levonorgestrel	+3.0000
+9.0000	lewat	+7.0000
+1.0000	lezat
+2.0000	lho
+1.0000	li
+3.0000	liat
+1.0000	liat-liat
+1.0000	liatnya
+1.0000	libatkan
+1.0000	libu
+1.0000	libur
+1.0000	liburan
+1.0000	lichen
+1.0000	liciknya
+1.0000	licin
+92.0000	lidah	+27.0000
+2.0000	lidocaine
+1.0000	lif
+1.0000	ligamen
+15.0000	lihat	+13.0000
+1.0000	lihatlah
+1.0000	lihatnya
+1.0000	likopen
+3.0000	lilin
+96.0000	lima	+16.0000
+1.0000	limapenglihatan
+1.0000	limb
+2.0000	limbah
+1.0000	limited
+1.0000	limpa
+1.0000	lin
+1.0000	line
+2.0000	lingkaran
+11.0000	lingkungan	+7.0000
+8.0000	lingual
+1.0000	link
+2.0000	lintas
+2.0000	lintingan
+2.0000	linu
+1.0000	lipat
+5.0000	lipatan	+3.0000
+4.0000	lipid	+2.0000
+14.0000	lipoprotein	+4.0000
+1.0000	lipstik
+1.0000	liputan
+1.0000	liputannya
+1.0000	lisensi
+1.0000	list
+1.0000	listrik
+8.0000	liter	+2.0000
+1.0000	literasi
+1.0000	literatur
+33.0000	liur	+11.0000
+1.0000	livina
+1.0000	lix
+1.0000	lk
+1.0000	lkm
+1.0000	lo
+1.0000	loba
+3.0000	lobster
+1.0000	lofi
+1.0000	log
+1.0000	logact
+9.0000	logam	+7.0000
+1.0000	logika
+1.0000	logistik
+1.0000	logo
+1.0000	logonya
+1.0000	loh
+5.0000	lokal
+9.0000	lokasi
+1.0000	lokasinya
+1.0000	loket
+1.0000	loketnya
+1.0000	loki
+1.0000	lolipop
+1.0000	lomba
+1.0000	lomba-lomba
+1.0000	lombanya
+1.0000	lombok
+1.0000	lompat
+1.0000	longgar
+1.0000	longsor
+2.0000	lonjakan
+1.0000	lorong
+1.0000	losi
+1.0000	losles
+1.0000	loss
+2.0000	lotion
+1.0000	louis
+1.0000	low
+3.0000	low-density	+0.0000
+1.0000	low-fidelity
+1.0000	lowongan
+1.0000	loyal
+1.0000	lpj
+1.0000	lpk
+1.0000	lu
+2.0000	luang
+1.0000	luangkan
+36.0000	luar	+17.0000
+1.0000	luarnya
+5.0000	luas
+17.0000	lubang	+10.0000
+1.0000	lubangnya
+1.0000	lubuk
+1.0000	lucu
+1.0000	lucunya
+13.0000	ludah	+6.0000
+89.0000	luka	+34.0000
+1.0000	luka-luka
+1.0000	lukanya
+1.0000	lukisanmu
+1.0000	lulus
+1.0000	lulusnya
+2.0000	luma
+11.0000	lumayan	+7.0000
+1.0000	lumen
+1.0000	lumpuh
+14.0000	lunak	+6.0000
+1.0000	lunaknya
+1.0000	lunasi
+1.0000	lunjuk
+24.0000	lupa	+14.0000
+1.0000	lupakan
+2.0000	lupus
+1.0000	luruh
+3.0000	lurus	+1.0000
+4.0000	lusa	+1.0000
+1.0000	luthfi
+1.0000	luthvia
+14.0000	lutut	+6.0000
+2.0000	lututnya
+1.0000	luwu
+1.0000	m
+1.0000	ma
+7.0000	maaf
+1.0000	maafin
+3.0000	maag
+1.0000	maap
+1.0000	maba
+8.0000	macam
+6.0000	macam-macam	+2.0000
+1.0000	macamnya
+1.0000	macan
+1.0000	macbook
+1.0000	macem
+1.0000	macem-macem
+1.0000	macemnya
+1.0000	macet
+1.0000	macet-macetan
+1.0000	macetnya
+1.0000	machine
+1.0000	mading
+19.0000	madu	+15.0000
+1.0000	madya
+23.0000	mag	+15.0000
+1.0000	magang
+1.0000	mager
+1.0000	magnetic
+1.0000	magnetik
+1.0000	mah
+5.0000	mahal
+1.0000	mahal-mahal
+1.0000	mahasiswa
+1.0000	mahasiswa-mahasiswa
+1.0000	mahasiswanya
+1.0000	mahasiswi
+1.0000	mahkamah
+10.0000	mahkota	+5.0000
+2.0000	main
+1.0000	mainstream
+4.0000	maju
+1.0000	majuk
+1.0000	mak
+110.0000	maka	+43.0000
+2.0000	makai	+0.0000
+1.0000	makalah
+289.0000	makan	+66.0000
+1.0000	makan-makan
+1.0000	makan-makanan
+328.0000	makanan	+35.0000
+1.0000	makanan-makan
+9.0000	makanan-makanan	+5.0000
+6.0000	makanannya	+2.0000
+2.0000	makanlah
+6.0000	makannya	+4.0000
+9.0000	makanya	+4.0000
+2.0000	makarel	+0.0000
+2.0000	makasi
+4.0000	makasih	+1.0000
+1.0000	makassar
+1.0000	make
+1.0000	makhluk
+15.0000	makin	+10.0000
+1.0000	makna
+1.0000	maknanya
+1.0000	maksa-maksa
+1.0000	maksakan
+1.0000	maksilofasial
+7.0000	maksimal	+4.0000
+1.0000	maksimalkan
+1.0000	maksimum
+1.0000	maksud
+1.0000	maksudku
+4.0000	maksudnya
+1.0000	malabsorbsi
+11.0000	malah
+1.0000	malahan
+63.0000	malam	+13.0000
+1.0000	malam-malam
+1.0000	malamnya
+1.0000	malang
+3.0000	malanutrisi
+3.0000	malaria
+3.0000	malas
+3.0000	malem
+1.0000	malemnya
+1.0000	males
+1.0000	maling
+1.0000	mall
+2.0000	malnutrisi
+1.0000	maloklusi
+1.0000	malu
+1.0000	malunya
+1.0000	mama
+1.0000	mamanya
+1.0000	mammografi
+1.0000	mampat
+1.0000	mampir
+18.0000	mampu	+11.0000
+1.0000	man
+46.0000	mana	+21.0000
+1.0000	mana-mana
+1.0000	manager
+2.0000	manajemen
+1.0000	manakala
+2.0000	manapun
+1.0000	mancanegara
+21.0000	mandi	+9.0000
+4.0000	mandiri
+1.0000	maneh
+47.0000	manfaat	+20.0000
+1.0000	manfaatkan
+2.0000	manfaatnya
+1.0000	mangakibatkan
+2.0000	mangga
