~o
<STREAMINFO> 1 25
<VECSIZE> 25<NULLD><MFCC_D_N_Z_0><DIAGC>
~s "silst"
<MEAN> 25
 -7.489278e+00 2.326075e+00 -1.812943e+00 4.353781e+00 4.020651e+00 3.464767e+00 3.598782e+00 2.531208e+00 1.514261e+00 1.407732e+00 1.732031e+00 3.237761e+00 -1.197388e-01 1.011424e-02 -1.224006e-02 2.394188e-02 2.898930e-02 2.758823e-02 2.269707e-02 8.235471e-03 2.292363e-03 2.309913e-02 2.509059e-02 1.337422e-02 -1.267225e-01
<VARIANCE> 25
 3.180497e+01 3.049023e+01 2.736974e+01 3.060495e+01 3.438814e+01 3.711153e+01 2.974806e+01 3.260962e+01 3.312090e+01 3.819557e+01 2.950344e+01 2.283260e+01 4.741644e-01 7.149597e-01 8.624453e-01 1.045546e+00 1.323001e+00 1.521158e+00 1.569543e+00 1.684022e+00 1.710137e+00 1.684123e+00 1.540639e+00 1.398973e+00 3.641858e-01
<GCONST> 8.854098e+01
~h "@"
<BEGINHMM>
<NUMSTATES> 5
<STATE> 2
<MEAN> 25
 2.931338e+00 -6.917115e-01 -6.602137e-01 -1.151211e+00 -1.074911e+00 -2.028835e+00 -2.295463e+00 -1.253655e+00 7.918425e-01 8.093572e-01 1.213062e-01 -8.795137e-01 1.583602e+00 -4.818934e-01 -2.671082e-02 -5.900695e-01 -7.548809e-01 -3.909193e-01 -8.104653e-01 3.372362e-02 1.153542e-01 -7.836847e-02 -2.519388e-01 -4.840435e-01 1.187861e+00
<VARIANCE> 25
 4.374014e+01 5.002816e+01 5.344786e+01 5.519314e+01 6.396223e+01 7.478983e+01 6.267258e+01 6.276883e+01 5.963954e+01 5.129335e+01 4.540372e+01 3.708015e+01 5.423368e+00 5.897658e+00 5.218736e+00 6.020378e+00 6.341315e+00 7.192937e+00 6.598539e+00 6.922943e+00 6.362750e+00 5.788307e+00 5.100229e+00 4.089118e+00 4.965153e+00
<GCONST> 1.166332e+02
<STATE> 3
<MEAN> 25
 4.988376e+00 -2.020550e+00 -9.496225e-01 -2.230072e+00 -2.168222e+00 -2.745906e+00 -3.640429e+00 -7.795866e-01 1.152895e+00 6.607965e-01 -3.217032e-02 -1.521491e+00 7.316095e-01 -3.102538e-02 1.420325e-01 1.096636e-01 -2.572756e-01 9.573846e-02 -1.669211e-01 7.710382e-02 -6.049692e-02 -1.161663e-01 -2.454854e-01 -1.689664e-01 7.504176e-02
<VARIANCE> 25
 2.788358e+01 4.424498e+01 5.048146e+01 5.311677e+01 6.162258e+01 7.195361e+01 5.956647e+01 6.265624e+01 5.820094e+01 5.625084e+01 4.621282e+01 3.731828e+01 2.877242e+00 4.212829e+00 3.901037e+00 5.054390e+00 4.890635e+00 5.471068e+00 5.069119e+00 5.820667e+00 5.030944e+00 4.607155e+00 4.144979e+00 3.368554e+00 3.437261e+00
<GCONST> 1.122892e+02
<STATE> 4
<MEAN> 25
 4.741089e+00 -1.563962e+00 2.226824e-01 -1.367871e+00 -2.519772e+00 -3.002685e+00 -2.837947e+00 -2.310613e-01 5.134334e-01 6.316059e-01 -1.249309e-01 -1.440382e+00 -1.145155e-01 5.464826e-01 2.391698e-01 6.412401e-01 3.106821e-01 4.350335e-01 3.418916e-01 -1.146670e-01 -1.690251e-01 -9.708528e-02 -1.642808e-01 9.470210e-02 -7.831535e-01
<VARIANCE> 25
 2.552005e+01 4.900629e+01 5.447734e+01 5.380040e+01 6.682539e+01 6.927772e+01 5.945022e+01 6.817465e+01 5.842080e+01 5.712203e+01 4.589861e+01 3.739334e+01 1.422891e+00 2.670010e+00 2.496490e+00 3.145336e+00 3.402572e+00 3.487430e+00 3.358664e+00 3.623353e+00 3.416851e+00 3.164862e+00 2.894572e+00 2.432638e+00 2.215990e+00
<GCONST> 1.068661e+02
<TRANSP> 5
 0.000000e+00 1.000000e+00 0.000000e+00 0.000000e+00 0.000000e+00
 0.000000e+00 2.228427e-01 7.771572e-01 0.000000e+00 0.000000e+00
 0.000000e+00 0.000000e+00 1.164545e-01 8.835455e-01 0.000000e+00
 0.000000e+00 0.000000e+00 0.000000e+00 4.523194e-01 5.476806e-01
 0.000000e+00 0.000000e+00 0.000000e+00 0.000000e+00 0.000000e+00
<ENDHMM>
~h "a"
<BEGINHMM>
<NUMSTATES> 5
<STATE> 2
<MEAN> 25
 4.741601e+00 -7.078423e+00 -4.151432e+00 -4.595723e+00 -2.978765e-01 -9.954882e-01 -3.890353e-01 3.126914e+00 2.387418e+00 -3.176101e-01 -2.425595e+00 -2.891878e+00 2.639880e-01 -1.046618e+00 -6.313136e-01 -4.275302e-01 5.139104e-01 2.418682e-01 3.021042e-01 6.468930e-01 1.585240e-01 -3.933992e-01 -6.644555e-01 -3.785755e-01 7.345830e-01
<VARIANCE> 25
 2.353395e+01 3.992752e+01 4.845911e+01 4.868185e+01 6.777792e+01 7.336962e+01 6.098273e+01 6.406650e+01 5.506477e+01 5.313498e+01 5.149666e+01 4.599176e+01 1.574426e+00 2.822959e+00 2.892460e+00 3.188907e+00 4.067479e+00 4.043665e+00 3.949761e+00 4.569120e+00 3.848325e+00 3.733945e+00 3.660825e+00 3.053109e+00 2.271319e+00
<GCONST> 1.083980e+02
<STATE> 3
<MEAN> 25
 5.040477e+00 -8.491601e+00 -4.877422e+00 -5.175400e+00 7.186771e-01 -7.819861e-01 -1.474631e-01 3.784909e+00 2.412970e+00 -7.298660e-01 -3.721270e+00 -3.660546e+00 -4.996352e-02 5.384619e-01 7.146621e-02 5.428857e-01 1.845534e-01 8.805062e-02 1.249148e-01 -1.824316e-01 -1.619112e-01 -7.826198e-03 -5.248950e-02 2.637002e-01 -6.863304e-01
<VARIANCE> 25
 1.658698e+01 3.632366e+01 4.244950e+01 4.061822e+01 6.166604e+01 6.554922e+01 5.761013e+01 6.042791e+01 5.517674e+01 5.341507e+01 5.173431e+01 4.513601e+01 5.941048e-01 1.641891e+00 1.587890e+00 1.883401e+00 2.469734e+00 2.727222e+00 2.601578e+00 2.803713e+00 2.457577e+00 2.512564e+00 2.431947e+00 2.104545e+00 1.277912e+00
<GCONST> 1.006683e+02
<STATE> 4
<MEAN> 25
 2.891311e+00 -3.528006e+00 -4.309351e+00 -7.872358e-01 1.669025e+00 2.966915e-01 1.377485e+00 2.277467e+00 1.241791e+00 -9.959519e-01 -2.549239e+00 -8.957753e-01 -3.479423e-01 8.378637e-01 4.173825e-01 5.685719e-01 4.407750e-02 1.423696e-01 3.192170e-02 -2.773527e-01 -1.454700e-01 1.188359e-01 2.521426e-01 2.485307e-01 -9.757859e-01
<VARIANCE> 25
 2.455562e+01 3.510251e+01 3.644094e+01 4.181401e+01 4.917091e+01 5.036266e+01 4.307964e+01 4.426613e+01 4.434136e+01 4.444054e+01 4.438591e+01 3.222081e+01 7.792287e-01 1.390449e+00 1.456288e+00 1.737165e+00 2.119723e+00 2.157516e+00 2.258558e+00 2.429909e+00 2.293159e+00 2.253977e+00 2.130005e+00 1.842795e+00 9.254402e-01
<GCONST> 9.741819e+01
<TRANSP> 5
 0.000000e+00 1.000000e+00 0.000000e+00 0.000000e+00 0.000000e+00
 0.000000e+00 4.886332e-01 5.113669e-01 0.000000e+00 0.000000e+00
 0.000000e+00 0.000000e+00 6.040405e-01 3.959596e-01 0.000000e+00
 0.000000e+00 0.000000e+00 0.000000e+00 6.925602e-01 3.074398e-01
 0.000000e+00 0.000000e+00 0.000000e+00 0.000000e+00 0.000000e+00
<ENDHMM>
~h "b"
<BEGINHMM>
<NUMSTATES> 5
<STATE> 2
<MEAN> 25
 4.451047e+00 8.366946e+00 2.620006e+00 4.491414e+00 1.967538e+00 1.524228e+00 -8.575908e-01 -3.129501e+00 -2.745857e+00 -1.876504e+00 -1.462646e+00 -1.589390e+00 1.671466e-01 8.355652e-01 2.257091e-01 4.910700e-01 3.284169e-01 3.400365e-02 1.266878e-01 -1.973398e-01 -1.875898e-01 -2.127325e-01 -1.050289e-01 -3.891693e-02 -3.383185e-01
<VARIANCE> 25
 2.720589e+01 3.692501e+01 3.013553e+01 3.502430e+01 3.299488e+01 3.876314e+01 3.789896e+01 3.982150e+01 3.715767e+01 3.498866e+01 3.048251e+01 2.693220e+01 1.867106e+00 3.113866e+00 2.493594e+00 3.381848e+00 2.772217e+00 3.018753e+00 3.251006e+00 3.035968e+00 3.032498e+00 3.055657e+00 2.832412e+00 2.187490e+00 2.786167e+00
<GCONST> 1.015561e+02
<STATE> 3
<MEAN> 25
 4.978114e+00 7.471065e+00 1.622708e+00 3.411316e+00 1.761739e+00 1.022508e+00 -1.399751e+00 -4.113812e+00 -2.922277e+00 -1.125063e+00 -2.056715e-01 -8.936747e-01 7.221389e-01 -2.052164e+00 -1.176970e+00 -2.081909e+00 -1.119215e+00 -9.942803e-01 -1.473216e+00 -1.441551e-01 8.062837e-01 9.948260e-01 1.190235e+00 -6.246246e-03 2.529949e+00
<VARIANCE> 25
 2.333371e+01 4.337469e+01 3.204490e+01 4.142908e+01 3.433990e+01 4.076874e+01 3.964009e+01 4.034783e+01 3.770388e+01 3.761991e+01 3.553873e+01 2.840476e+01 3.026487e+00 5.118026e+00 4.923131e+00 6.592969e+00 5.179442e+00 6.038849e+00 5.858970e+00 5.571459e+00 6.621200e+00 7.524425e+00 5.325258e+00 4.443672e+00 3.831497e+00
<GCONST> 1.104182e+02
<STATE> 4
<MEAN> 25
 6.332200e+00 1.227675e+00 -3.571835e-01 -1.001307e+00 -1.054447e+00 -1.150298e+00 -5.922455e+00 -2.438583e+00 8.542727e-01 6.222320e-01 2.166511e+00 -2.423868e+00 8.698282e-02 -1.826289e+00 -3.812816e-01 -1.156261e+00 -8.317149e-01 -6.891204e-01 -5.093353e-01 8.229028e-01 8.686247e-01 3.318567e-01 1.909850e-01 -2.660231e-01 1.705339e+00
<VARIANCE> 25
 3.527472e+01 7.170044e+01 7.061855e+01 1.097756e+02 8.296632e+01 1.075554e+02 8.068714e+01 8.992206e+01 8.111951e+01 1.142500e+02 7.787811e+01 6.086341e+01 2.298730e+00 5.958764e+00 5.504971e+00 7.430670e+00 6.715830e+00 8.138341e+00 7.611184e+00 8.250382e+00 7.945611e+00 7.829081e+00 6.839886e+00 6.273136e+00 4.295416e+00
<GCONST> 1.221389e+02
<TRANSP> 5
 0.000000e+00 1.000000e+00 0.000000e+00 0.000000e+00 0.000000e+00
 0.000000e+00 6.420655e-01 3.579345e-01 0.000000e+00 0.000000e+00
 0.000000e+00 0.000000e+00 3.952561e-01 6.047440e-01 0.000000e+00
 0.000000e+00 0.000000e+00 0.000000e+00 5.330790e-01 4.669211e-01
 0.000000e+00 0.000000e+00 0.000000e+00 0.000000e+00 0.000000e+00
<ENDHMM>
~h "c"
<BEGINHMM>
<NUMSTATES> 5
<STATE> 2
<MEAN> 25
 -8.184299e+00 5.274773e+00 4.078290e-01 1.587283e+00 3.518130e+00 -3.721954e-01 2.445288e+00 -3.737254e-01 1.282847e+00 2.815505e-01 1.823684e+00 1.633043e+00 -2.443089e+00 1.789313e-01 -9.510871e-02 -8.602303e-01 3.165439e-01 3.145880e-02 6.463623e-01 -7.832684e-02 5.290104e-01 1.436693e-01 5.268682e-01 2.614033e-01 9.169165e-01
<VARIANCE> 25
 7.801826e+01 5.082067e+01 5.539747e+01 5.012977e+01 5.197052e+01 6.022021e+01 5.023653e+01 5.719520e+01 4.974867e+01 3.908899e+01 3.764788e+01 2.925635e+01 5.680905e+00 4.907849e+00 5.500326e+00 5.265966e+00 5.363694e+00 5.379264e+00 4.383795e+00 5.110714e+00 4.206136e+00 3.763224e+00 3.397038e+00 2.555370e+00 6.586205e+00
<GCONST> 1.127238e+02
<STATE> 3
<MEAN> 25
 -1.307252e+01 4.424248e-01 5.286402e+00 -2.386874e+00 -4.537253e-01 7.204608e-01 3.199493e+00 -1.268077e+00 2.190093e+00 2.037925e-01 2.916295e+00 2.690585e+00 1.904692e+00 -1.488426e+00 1.043605e+00 -1.055328e-01 -1.842525e+00 -1.290507e+00 -7.627919e-01 -2.708542e-02 -1.878935e-01 -4.920360e-01 -1.751125e-01 -1.199048e-01 1.727939e+00
<VARIANCE> 25
 7.067375e+01 1.259801e+02 1.131316e+02 7.160615e+01 8.009414e+01 1.171449e+02 6.424850e+01 6.461632e+01 4.684927e+01 5.353419e+01 4.207579e+01 3.527518e+01 1.012781e+01 8.057536e+00 8.249181e+00 6.204000e+00 7.297934e+00 7.544632e+00 5.661408e+00 6.063630e+00 5.307882e+00 4.788581e+00 4.413449e+00 3.289071e+00 3.886957e+00
<GCONST> 1.197985e+02
<STATE> 4
<MEAN> 25
 -1.184123e+00 -2.114399e+00 4.134356e+00 -1.029713e+00 -4.450114e+00 -5.178169e+00 -8.728917e-01 -3.918407e-01 1.124846e+00 -1.788148e+00 5.588605e-01 1.222390e+00 3.760942e+00 -1.116678e+00 -1.043518e+00 -2.545652e-01 -7.885479e-01 -9.038162e-01 -1.009775e+00 2.164090e-01 -3.935723e-01 -1.088606e-01 -7.059712e-01 -7.571506e-01 1.175252e+00
<VARIANCE> 25
 4.382545e+01 5.786987e+01 5.640686e+01 4.913902e+01 6.320221e+01 7.910443e+01 5.756164e+01 6.653853e+01 5.226962e+01 4.215521e+01 3.996107e+01 2.981928e+01 5.256131e+00 8.442819e+00 8.219874e+00 4.861751e+00 7.183070e+00 6.907264e+00 5.752025e+00 6.391074e+00 5.531242e+00 5.737222e+00 5.001254e+00 3.378471e+00 2.158072e+00
<GCONST> 1.153043e+02
<TRANSP> 5
 0.000000e+00 1.000000e+00 0.000000e+00 0.000000e+00 0.000000e+00
 0.000000e+00 7.343880e-01 2.656120e-01 0.000000e+00 0.000000e+00
 0.000000e+00 0.000000e+00 5.772529e-01 4.227471e-01 0.000000e+00
 0.000000e+00 0.000000e+00 0.000000e+00 4.739683e-01 5.260317e-01
 0.000000e+00 0.000000e+00 0.000000e+00 0.000000e+00 0.000000e+00
<ENDHMM>
~h "d"
<BEGINHMM>
<NUMSTATES> 5
<STATE> 2
<MEAN> 25
 3.231757e+00 4.814186e+00 3.968582e+00 6.167747e+00 9.018788e-01 -8.103182e-01 -1.753685e+00 -1.177378e+00 -3.693124e-01 -2.090353e+00 -2.407959e+00 -5.455856e-01 2.120980e-01 1.024675e-01 6.527659e-01 3.887484e-01 -1.357111e-01 -4.711176e-01 -3.484080e-01 -1.624509e-01 -2.115759e-01 -4.504792e-01 1.249270e-01 1.393372e-01 3.905885e-01
<VARIANCE> 25
 3.717076e+01 6.469561e+01 4.110606e+01 5.153565e+01 6.333731e+01 5.679911e+01 5.198536e+01 5.096318e+01 4.534188e+01 4.107576e+01 4.118732e+01 3.190955e+01 3.539038e+00 7.743904e+00 3.844916e+00 5.792733e+00 5.999908e+00 6.191942e+00 5.910308e+00 5.479251e+00 4.894513e+00 4.668874e+00 4.339109e+00 3.576558e+00 6.955967e+00
<GCONST> 1.134888e+02
<STATE> 3
<MEAN> 25
 3.346099e+00 3.190157e-01 5.691967e+00 3.668914e+00 -2.440301e+00 -4.018161e+00 -4.101342e+00 -7.468042e-01 -5.111911e-01 -3.084100e+00 1.390913e-01 1.261019e+00 3.726782e-02 -2.383509e+00 3.092716e-01 -2.056343e+00 -1.999010e+00 -1.410931e+00 -1.106087e+00 9.333035e-01 3.355173e-01 2.519100e-01 1.295808e+00 3.580837e-01 2.812300e+00
<VARIANCE> 25
 2.191206e+01 5.032168e+01 4.371799e+01 5.867001e+01 7.317100e+01 6.698159e+01 6.262888e+01 6.058386e+01 5.879431e+01 4.629922e+01 4.495865e+01 4.058622e+01 2.925380e+00 5.466102e+00 5.534926e+00 5.902397e+00 6.999881e+00 7.509863e+00 7.728577e+00 8.598513e+00 7.206210e+00 6.291387e+00 5.695788e+00 4.419595e+00 4.427516e+00
<GCONST> 1.159037e+02
<STATE> 4
<MEAN> 25
 4.160438e+00 -3.038215e+00 5.775413e+00 4.201561e-03 -6.548629e+00 -6.463495e+00 -5.841463e+00 2.330398e+00 6.810142e-01 -2.116978e+00 1.762622e+00 2.663114e-01 1.469112e-02 -5.601295e-01 -3.497990e-01 -1.087734e+00 -5.175637e-01 -5.940643e-02 1.998673e-01 4.692195e-01 1.651224e-01 5.373979e-01 1.119476e-01 -4.476866e-01 8.007603e-01
<VARIANCE> 25
 2.207811e+01 4.453792e+01 5.651350e+01 6.868275e+01 8.320698e+01 6.724484e+01 8.147717e+01 9.141709e+01 7.443298e+01 6.470033e+01 5.907668e+01 4.263573e+01 1.287098e+00 2.837390e+00 4.247380e+00 3.986410e+00 5.551081e+00 4.515689e+00 5.074360e+00 5.295578e+00 4.600522e+00 4.004217e+00 4.621216e+00 3.548066e+00 2.801125e+00
<GCONST> 1.123361e+02
<TRANSP> 5
 0.000000e+00 1.000000e+00 0.000000e+00 0.000000e+00 0.000000e+00
 0.000000e+00 5.662770e-01 4.337230e-01 0.000000e+00 0.000000e+00
 0.000000e+00 0.000000e+00 4.235903e-01 5.764098e-01 0.000000e+00
 0.000000e+00 0.000000e+00 0.000000e+00 4.778458e-01 5.221543e-01
 0.000000e+00 0.000000e+00 0.000000e+00 0.000000e+00 0.000000e+00
<ENDHMM>
~h "e"
<BEGINHMM>
<NUMSTATES> 5
<STATE> 2
<MEAN> 25
 2.698314e+00 -3.993205e+00 1.470610e+00 -5.263234e-01 -4.763593e+00 -4.708442e+00 2.258100e-01 2.662336e+00 -9.074862e-02 2.904609e-01 5.497382e-01 -4.295078e-01 5.446802e-01 -9.402291e-01 3.312967e-01 -5.622361e-01 -9.318892e-01 -5.671681e-01 4.400370e-01 6.969067e-01 -3.937943e-01 -6.367634e-02 1.715278e-01 -1.575184e-01 1.183767e+00
<VARIANCE> 25
 4.391224e+01 5.525893e+01 6.635638e+01 5.400130e+01 7.458929e+01 9.019355e+01 6.885227e+01 8.107471e+01 6.059733e+01 5.218262e+01 5.045748e+01 3.656382e+01 4.240533e+00 4.529232e+00 5.013535e+00 5.103209e+00 5.724275e+00 6.570424e+00 5.576100e+00 6.581445e+00 5.380924e+00 4.573369e+00 4.317756e+00 3.266107e+00 4.485341e+00
<GCONST> 1.157232e+02
<STATE> 3
<MEAN> 25
 3.433991e+00 -5.653733e+00 3.587673e+00 -1.466068e+00 -7.817364e+00 -6.961086e+00 1.427997e+00 4.216745e+00 -1.904371e+00 6.440443e-01 1.374823e+00 -1.363142e+00 -1.704209e-01 5.536240e-01 -5.034509e-02 3.615789e-01 3.359491e-01 3.743711e-01 2.791019e-01 -3.088925e-01 -5.727979e-02 7.980651e-02 -9.212425e-02 9.239668e-02 -6.878194e-01
<VARIANCE> 25
 2.344946e+01 4.540953e+01 7.341086e+01 5.357064e+01 6.934247e+01 8.371609e+01 7.628728e+01 8.900376e+01 6.785345e+01 4.934652e+01 5.103541e+01 3.511158e+01 1.049326e+00 2.076185e+00 2.253650e+00 2.431490e+00 2.857739e+00 2.909302e+00 2.905154e+00 2.968453e+00 3.021871e+00 2.634300e+00 2.552696e+00 2.013808e+00 2.086919e+00
<GCONST> 1.054911e+02
<STATE> 4
<MEAN> 25
 1.084077e+00 -2.287790e+00 1.546159e+00 6.207035e-01 -3.739694e+00 -3.189702e+00 2.028092e+00 1.981193e+00 -5.018516e-01 8.838930e-01 7.162172e-01 2.329556e-01 -2.402543e-01 4.739355e-01 -1.720595e-01 2.750246e-01 5.952750e-01 3.846310e-01 -3.903814e-02 -2.027836e-01 6.025179e-02 -3.651930e-02 -9.391227e-02 7.938471e-02 -6.182721e-01
<VARIANCE> 25
 3.480816e+01 3.836773e+01 5.312621e+01 4.632608e+01 6.079499e+01 7.216226e+01 5.572856e+01 5.837914e+01 5.270710e+01 4.192929e+01 3.643442e+01 2.923730e+01 6.589808e-01 1.143882e+00 1.209962e+00 1.353532e+00 2.034041e+00 1.966267e+00 1.978020e+00 2.087412e+00 1.997967e+00 1.899163e+00 1.688691e+00 1.484543e+00 7.512885e-01
<GCONST> 9.707943e+01
<TRANSP> 5
 0.000000e+00 1.000000e+00 0.000000e+00 0.000000e+00 0.000000e+00
 0.000000e+00 5.115166e-01 4.884834e-01 0.000000e+00 0.000000e+00
 0.000000e+00 0.000000e+00 5.761232e-01 4.238768e-01 0.000000e+00
 0.000000e+00 0.000000e+00 0.000000e+00 7.037297e-01 2.962703e-01
 0.000000e+00 0.000000e+00 0.000000e+00 0.000000e+00 0.000000e+00
<ENDHMM>
~h "f"
<BEGINHMM>
<NUMSTATES> 5
<STATE> 2
<MEAN> 25
 -4.533326e+00 1.851314e+00 1.467584e+00 5.309266e+00 2.913750e+00 -1.972084e-01 2.281506e+00 1.739360e-01 1.138554e+00 5.213888e-01 1.160872e+00 9.505952e-01 -2.019849e+00 -2.616338e-01 -4.173492e-01 4.593856e-01 7.763577e-01 1.144477e-01 4.421206e-01 3.040042e-01 8.004160e-01 2.081210e-01 2.343346e-01 3.867974e-01 -5.678710e-01
<VARIANCE> 25
 4.928325e+01 2.676565e+01 4.970169e+01 4.917278e+01 4.609792e+01 5.403831e+01 3.940147e+01 4.428676e+01 3.427155e+01 3.152758e+01 2.794590e+01 2.746373e+01 3.566630e+00 3.113898e+00 3.155951e+00 4.265054e+00 4.688421e+00 4.652997e+00 3.647044e+00 3.759437e+00 3.635437e+00 3.158540e+00 2.912314e+00 2.330747e+00 1.856920e+00
<GCONST> 1.055292e+02
<STATE> 3
<MEAN> 25
 -9.218621e+00 -1.327520e+00 1.991491e-01 4.602085e+00 3.481256e+00 -4.955409e-01 2.750481e+00 3.754453e-01 2.438410e+00 1.309034e+00 1.752678e+00 1.960087e+00 6.180527e-01 -6.280645e-01 3.720768e-02 -5.359684e-01 -6.163682e-01 -4.155133e-01 -2.455145e-01 -2.272925e-01 -4.453351e-01 -1.548278e-01 -5.408357e-02 -7.317110e-02 4.021809e-01
<VARIANCE> 25
 3.748904e+01 3.045363e+01 3.944031e+01 4.551785e+01 4.016968e+01 5.423543e+01 3.264001e+01 3.429466e+01 3.304806e+01 2.686994e+01 2.527035e+01 2.332401e+01 4.734198e+00 2.878600e+00 3.262280e+00 3.087939e+00 3.103799e+00 3.936942e+00 3.057163e+00 2.850246e+00 3.287943e+00 2.487631e+00 2.377396e+00 2.118811e+00 1.942369e+00
<GCONST> 1.023275e+02
<STATE> 4
<MEAN> 25
 -3.954983e+00 -2.979819e+00 1.822044e+00 1.093622e+00 9.466380e-01 2.807477e+00 4.166591e-01 -2.224419e+00 8.926979e-02 3.875335e-01 9.916042e-01 1.030691e+00 2.275901e+00 7.485214e-02 3.824661e-01 -1.034162e+00 -1.393276e+00 -5.045126e-01 -8.377794e-01 -4.844980e-01 -9.495305e-01 -2.854559e-01 -7.509449e-02 -5.919469e-01 1.220383e+00
<VARIANCE> 25
 8.089356e+01 7.227028e+01 1.247745e+02 1.144426e+02 8.205679e+01 1.583888e+02 6.879179e+01 6.556658e+01 5.901817e+01 5.172023e+01 3.802743e+01 3.194151e+01 7.081255e+00 6.077317e+00 8.640068e+00 8.544338e+00 7.717360e+00 1.005136e+01 5.328838e+00 5.456317e+00 6.394298e+00 4.717250e+00 4.555739e+00 3.510473e+00 3.976537e+00
<GCONST> 1.205435e+02
<TRANSP> 5
 0.000000e+00 1.000000e+00 0.000000e+00 0.000000e+00 0.000000e+00
 0.000000e+00 6.714384e-01 3.285616e-01 0.000000e+00 0.000000e+00
 0.000000e+00 0.000000e+00 5.683671e-01 4.316329e-01 0.000000e+00
 0.000000e+00 0.000000e+00 0.000000e+00 5.429371e-01 4.570629e-01
 0.000000e+00 0.000000e+00 0.000000e+00 0.000000e+00 0.000000e+00
<ENDHMM>
~h "g"
<BEGINHMM>
<NUMSTATES> 5
<STATE> 2
<MEAN> 25
 3.543285e+00 3.635100e+00 2.811911e+00 2.567521e+00 -6.469038e-02 5.075181e-02 -1.281222e+00 -2.498118e+00 -2.372751e+00 -9.987172e-02 -1.181144e+00 -1.576683e+00 -1.967342e-01 -3.216101e-02 6.227124e-02 1.844853e-01 2.896863e-01 -4.144154e-01 -2.278966e-01 1.605953e-01 -4.211080e-02 4.700945e-02 1.427563e-01 -5.180256e-02 8.584831e-02
<VARIANCE> 25
 2.790952e+01 4.671781e+01 4.509395e+01 4.773822e+01 6.169095e+01 6.305350e+01 5.584795e+01 5.423495e+01 5.031136e+01 4.552260e+01 3.994367e+01 3.445415e+01 2.436223e+00 4.652670e+00 3.906257e+00 4.232152e+00 5.521594e+00 5.389964e+00 4.991602e+00 4.650178e+00 4.557743e+00 3.992771e+00 3.701175e+00 3.057332e+00 4.018295e+00
<GCONST> 1.105295e+02
<STATE> 3
<MEAN> 25
 3.317408e+00 2.006298e+00 2.434827e+00 2.049733e+00 3.073114e-02 -2.129202e+00 -2.846344e+00 -1.218919e+00 -1.926076e+00 2.912716e-01 -3.177386e-01 -1.686445e+00 -1.683807e-01 -8.976233e-01 -2.277531e-01 -7.551608e-01 -2.881389e-01 -6.882011e-01 -3.113705e-01 8.416024e-01 4.723640e-01 1.004701e-01 3.638334e-01 2.663232e-02 9.794511e-01
<VARIANCE> 25
 2.617108e+01 4.942272e+01 5.165120e+01 5.291304e+01 7.382818e+01 7.711478e+01 6.992848e+01 6.030684e+01 5.318631e+01 5.335543e+01 4.984206e+01 3.901209e+01 2.200696e+00 4.908700e+00 4.524928e+00 5.153440e+00 7.892058e+00 6.022803e+00 5.917108e+00 5.985217e+00 5.523331e+00 5.078276e+00 4.743840e+00 3.861126e+00 3.939214e+00
<GCONST> 1.141130e+02
<STATE> 4
<MEAN> 25
 3.146734e+00 1.344870e+00 2.293627e+00 7.493403e-01 -9.829035e-01 -2.420642e+00 -2.546089e+00 3.094918e-02 -7.754389e-01 -2.173905e-01 -4.670771e-01 -1.709339e+00 -2.844029e-01 -5.465528e-01 -2.793858e-01 -6.305496e-01 -5.353581e-02 1.971570e-02 2.268025e-01 4.896021e-01 3.419412e-01 -3.581918e-03 9.551796e-02 1.075463e-01 4.850743e-01
<VARIANCE> 25
 3.517373e+01 6.023153e+01 5.450391e+01 6.853445e+01 7.552913e+01 7.901739e+01 6.980787e+01 6.799538e+01 6.267711e+01 6.263882e+01 5.325449e+01 4.183383e+01 1.721294e+00 2.941693e+00 3.534077e+00 3.495862e+00 4.307799e+00 3.914723e+00 3.941948e+00 4.308146e+00 4.056298e+00 3.595967e+00 3.500007e+00 2.856329e+00 1.903642e+00
<GCONST> 1.103942e+02
<TRANSP> 5
 0.000000e+00 1.000000e+00 0.000000e+00 0.000000e+00 0.000000e+00
 0.000000e+00 3.298177e-01 6.701823e-01 0.000000e+00 0.000000e+00
 0.000000e+00 0.000000e+00 3.258844e-01 6.741156e-01 0.000000e+00
 0.000000e+00 0.000000e+00 0.000000e+00 3.290419e-01 6.709580e-01
 0.000000e+00 0.000000e+00 0.000000e+00 0.000000e+00 0.000000e+00
<ENDHMM>
~h "h"
<BEGINHMM>
<NUMSTATES> 5
<STATE> 2
<MEAN> 25
 8.368851e-01 -3.442453e+00 -1.331186e+00 -2.629126e-01 3.242793e+00 1.624503e+00 3.306149e+00 1.141840e+00 4.152184e-01 -1.159739e+00 -1.811100e+00 2.735734e-02 -6.988623e-01 1.421559e-01 5.159641e-02 5.930114e-01 7.233154e-01 4.204687e-01 5.507959e-01 1.544831e-01 9.289984e-02 -6.099272e-02 7.356603e-02 2.778209e-01 -7.527322e-01
<VARIANCE> 25
 3.720300e+01 5.136642e+01 6.730715e+01 6.238897e+01 1.087897e+02 7.896784e+01 7.519788e+01 6.746570e+01 5.911383e+01 6.489700e+01 5.438583e+01 4.057378e+01 1.787204e+00 3.015208e+00 3.069047e+00 3.148362e+00 4.148872e+00 3.900277e+00 3.845932e+00 3.814382e+00 3.580797e+00 3.611435e+00 3.178562e+00 2.720022e+00 2.099562e+00
<GCONST> 1.102674e+02
<STATE> 3
<MEAN> 25
 -1.606272e-01 -3.269245e+00 -1.453034e+00 6.662558e-01 3.977407e+00 1.788870e+00 3.565255e+00 1.365746e+00 2.751803e-01 -1.312997e+00 -1.648286e+00 3.814740e-01 -4.223282e-01 2.856293e-01 -3.374497e-02 2.879252e-01 1.384794e-01 1.534777e-01 9.536101e-02 -1.610160e-02 2.851590e-02 1.060790e-01 1.223260e-01 1.381053e-01 -7.017866e-01
<VARIANCE> 25
 3.436034e+01 5.186193e+01 5.996096e+01 5.503427e+01 8.813367e+01 6.364440e+01 6.645168e+01 6.156453e+01 5.160944e+01 5.122267e+01 4.907615e+01 3.671265e+01 9.852185e-01 1.672554e+00 2.013473e+00 2.097643e+00 2.767297e+00 2.684550e+00 2.780775e+00 2.755935e+00 2.655733e+00 2.557101e+00 2.388027e+00 2.071634e+00 1.043077e+00
<GCONST> 1.033977e+02
<STATE> 4
<MEAN> 25
 -2.997353e+00 -1.266835e+00 -1.856363e+00 1.615523e+00 3.167876e+00 2.223769e+00 2.546735e+00 9.786769e-01 6.360912e-01 -5.940130e-02 2.605706e-03 1.222544e+00 -8.073923e-02 1.296910e-01 1.400436e-02 2.977380e-02 -5.283161e-02 -2.848429e-02 -6.019540e-02 -4.632079e-02 -2.110345e-02 3.415469e-02 3.408285e-02 1.568051e-02 -2.079486e-01
<VARIANCE> 25
 3.232336e+01 3.497990e+01 3.473606e+01 3.841846e+01 4.187005e+01 3.450305e+01 3.389031e+01 3.530684e+01 3.246872e+01 3.604179e+01 3.262704e+01 2.529799e+01 4.003488e-01 6.728781e-01 8.814667e-01 1.007892e+00 1.293516e+00 1.420535e+00 1.529809e+00 1.625519e+00 1.606481e+00 1.588312e+00 1.478942e+00 1.327066e+00 3.398217e-01
<GCONST> 8.893858e+01
<TRANSP> 5
 0.000000e+00 1.000000e+00 0.000000e+00 0.000000e+00 0.000000e+00
 0.000000e+00 4.647700e-01 5.352300e-01 0.000000e+00 0.000000e+00
 0.000000e+00 0.000000e+00 3.560660e-01 6.439340e-01 0.000000e+00
 0.000000e+00 0.000000e+00 0.000000e+00 8.186501e-01 1.813499e-01
 0.000000e+00 0.000000e+00 0.000000e+00 0.000000e+00 0.000000e+00
<ENDHMM>
~h "i"
<BEGINHMM>
<NUMSTATES> 5
<STATE> 2
<MEAN> 25
 2.693374e-01 7.456528e-01 1.132968e+01 8.011597e-01 -6.872089e+00 -4.354948e+00 -2.612560e+00 -3.595095e+00 -4.304783e+00 -6.239989e-01 2.223161e+00 -2.029588e-01 3.445837e-01 -2.426537e-01 2.314967e+00 -9.497122e-01 -2.026066e+00 -3.541502e-01 -9.439004e-01 -4.973152e-01 -1.148671e+00 1.338956e-01 6.765906e-01 -2.696043e-01 1.193808e+00
<VARIANCE> 25
 3.312577e+01 5.530211e+01 7.341093e+01 8.115756e+01 9.131806e+01 8.559045e+01 6.659446e+01 7.155241e+01 6.386250e+01 5.212984e+01 5.390481e+01 3.917238e+01 4.345307e+00 4.039138e+00 6.577810e+00 7.068417e+00 7.143929e+00 7.404041e+00 6.520392e+00 6.377208e+00 6.191723e+00 5.291423e+00 5.622854e+00 3.883496e+00 2.641819e+00
<GCONST> 1.172959e+02
<STATE> 3
<MEAN> 25
 7.062774e-01 9.562345e-01 1.647180e+01 -1.682178e+00 -1.240080e+01 -4.579899e+00 -4.229963e+00 -3.559222e+00 -7.445689e+00 -3.602261e-01 4.843611e+00 -1.455244e+00 1.137229e-01 2.872495e-01 -2.797498e-01 1.281833e-01 1.843990e-01 1.175403e-01 7.815447e-02 4.922958e-02 2.198066e-01 1.439404e-01 -2.345248e-01 8.265821e-02 -4.159144e-01
<VARIANCE> 25
 1.580623e+01 3.863204e+01 6.682204e+01 7.470924e+01 6.944397e+01 7.961185e+01 5.710414e+01 6.592645e+01 6.506891e+01 6.166166e+01 6.402400e+01 4.229441e+01 9.904653e-01 2.033564e+00 3.044122e+00 3.089169e+00 3.453714e+00 3.521303e+00 3.361358e+00 3.636814e+00 3.286257e+00 2.783144e+00 2.799158e+00 2.210444e+00 1.792697e+00
<GCONST> 1.064918e+02
<STATE> 4
<MEAN> 25
 -3.504109e-02 3.481882e+00 1.057553e+01 4.755079e-01 -5.690882e+00 -2.431373e+00 -3.330893e+00 -4.440809e+00 -3.099212e+00 -4.160095e-03 1.810507e-01 2.191362e-01 -1.281170e-01 2.012883e-01 -1.033476e+00 5.273649e-01 9.412136e-01 3.161242e-01 4.490485e-01 3.170517e-01 4.171565e-01 -6.544593e-02 -2.334201e-01 1.465279e-01 -8.277113e-01
<VARIANCE> 25
 2.166499e+01 4.499258e+01 4.854607e+01 1.037562e+02 7.507253e+01 6.945458e+01 6.507944e+01 5.807254e+01 5.432254e+01 4.798218e+01 4.851846e+01 3.844733e+01 9.424461e-01 1.622907e+00 2.185008e+00 2.553607e+00 2.978815e+00 2.771505e+00 2.852376e+00 2.813648e+00 2.662598e+00 2.518256e+00 2.484833e+00 1.938021e+00 1.175993e+00
<GCONST> 1.035216e+02
<TRANSP> 5
 0.000000e+00 1.000000e+00 0.000000e+00 0.000000e+00 0.000000e+00
 0.000000e+00 5.633741e-01 4.366259e-01 0.000000e+00 0.000000e+00
 0.000000e+00 0.000000e+00 6.561389e-01 3.438611e-01 0.000000e+00
 0.000000e+00 0.000000e+00 0.000000e+00 7.664617e-01 2.335383e-01
 0.000000e+00 0.000000e+00 0.000000e+00 0.000000e+00 0.000000e+00
<ENDHMM>
~h "j"
<BEGINHMM>
<NUMSTATES> 5
<STATE> 2
<MEAN> 25
 -2.800201e+00 7.330956e+00 5.390641e+00 3.876935e+00 2.102506e+00 -1.096312e+00 6.186826e-01 -8.545526e-01 -6.329550e-01 -2.339184e+00 -4.047956e-01 6.265706e-01 -1.487652e+00 4.613956e-01 7.326666e-01 -4.693241e-01 8.674398e-02 -1.830122e-01 2.025969e-01 -4.304659e-01 -1.142067e-02 -4.684404e-02 3.416438e-01 2.073715e-01 7.609708e-01
<VARIANCE> 25
 7.034321e+01 5.299488e+01 5.283045e+01 5.053734e+01 5.852007e+01 5.916728e+01 4.708158e+01 4.346929e+01 4.021060e+01 3.475707e+01 3.241297e+01 2.931746e+01 6.215358e+00 5.390987e+00 4.943249e+00 5.506913e+00 6.292603e+00 6.051803e+00 4.767507e+00 4.333686e+00 4.201581e+00 3.837239e+00 3.501813e+00 2.754734e+00 5.676863e+00
<GCONST> 1.122002e+02
<STATE> 3
<MEAN> 25
 -4.641315e+00 3.673840e+00 1.178827e+01 1.356437e+00 -3.640128e+00 -4.408512e+00 -1.758085e+00 -3.630750e+00 -2.508721e+00 -2.218770e+00 2.364703e+00 2.220004e+00 1.760206e+00 -1.892429e+00 1.068985e+00 -4.825710e-01 -2.716397e+00 -1.897733e+00 -1.587708e+00 3.706983e-02 -5.990058e-01 4.082279e-02 8.065198e-01 2.805702e-01 1.855273e+00
<VARIANCE> 25
 4.620662e+01 8.254632e+01 6.293692e+01 6.388413e+01 7.651991e+01 8.397808e+01 5.934160e+01 5.063525e+01 4.524921e+01 4.584402e+01 3.649302e+01 3.677456e+01 6.115629e+00 6.713006e+00 7.120052e+00 5.978511e+00 8.091814e+00 6.303254e+00 6.262309e+00 6.481228e+00 5.111488e+00 5.444282e+00 4.217214e+00 3.423173e+00 2.516645e+00
<GCONST> 1.161281e+02
<STATE> 4
<MEAN> 25
 1.926743e+00 -1.174523e+00 1.005445e+01 -5.632908e-01 -9.454734e+00 -8.814729e+00 -5.317780e+00 9.122283e-01 -1.969124e+00 -1.098311e+00 3.506958e+00 2.157367e+00 1.013129e+00 -1.006028e+00 -1.479685e+00 -4.484020e-01 1.902335e-01 1.546386e-01 -1.734765e-01 9.998715e-01 7.568110e-01 4.059283e-01 -3.348531e-01 -6.418441e-01 2.910019e-01
<VARIANCE> 25
 1.652637e+01 3.484225e+01 4.372137e+01 6.153797e+01 6.068114e+01 4.976774e+01 6.483861e+01 7.270473e+01 5.220491e+01 5.370938e+01 4.172982e+01 3.601832e+01 1.547977e+00 3.450639e+00 3.100913e+00 2.956871e+00 5.284626e+00 4.118959e+00 4.993585e+00 4.751894e+00 3.645712e+00 3.454366e+00 3.668437e+00 3.256532e+00 1.658540e+00
<GCONST> 1.075835e+02
<TRANSP> 5
 0.000000e+00 1.000000e+00 0.000000e+00 0.000000e+00 0.000000e+00
 0.000000e+00 7.422292e-01 2.577708e-01 0.000000e+00 0.000000e+00
 0.000000e+00 0.000000e+00 6.084970e-01 3.915031e-01 0.000000e+00
 0.000000e+00 0.000000e+00 0.000000e+00 6.509346e-01 3.490654e-01
 0.000000e+00 0.000000e+00 0.000000e+00 0.000000e+00 0.000000e+00
<ENDHMM>
~h "k"
<BEGINHMM>
<NUMSTATES> 5
<STATE> 2
<MEAN> 25
 -3.211851e+00 1.899011e+00 -2.155549e+00 2.417262e+00 3.344149e+00 1.926392e+00 1.644055e+00 6.263286e-01 1.158476e+00 1.776705e+00 1.135324e+00 9.988321e-01 -9.876905e-01 -7.597753e-01 -9.047590e-01 -1.371774e-01 7.913007e-01 -1.511526e-01 5.393716e-02 4.055592e-01 4.138051e-01 4.231300e-01 1.584512e-01 3.237233e-01 1.842844e-01
<VARIANCE> 25
 4.220099e+01 4.385190e+01 5.286225e+01 5.097966e+01 6.386864e+01 6.102940e+01 4.979306e+01 5.040736e+01 4.899017e+01 4.130872e+01 4.047911e+01 3.317054e+01 3.560993e+00 5.402458e+00 5.298942e+00 5.438692e+00 6.370042e+00 6.183277e+00 5.416115e+00 5.114460e+00 5.071612e+00 4.301348e+00 3.986573e+00 3.405493e+00 6.696603e+00
<GCONST> 1.131860e+02
<STATE> 3
<MEAN> 25
 -3.959201e+00 -3.293205e+00 -5.217482e+00 -1.095955e+00 4.641040e+00 5.546290e-01 7.655510e-01 1.550448e+00 1.821103e+00 2.817222e+00 7.777958e-01 9.398341e-01 8.253254e-01 -1.248083e+00 -2.536363e-01 -1.295524e+00 -4.574374e-01 -8.174523e-01 -1.976754e-01 5.238153e-02 -1.455651e-02 -5.820663e-02 -2.106037e-01 -4.690508e-01 2.456528e+00
<VARIANCE> 25
 5.093382e+01 6.280872e+01 9.469827e+01 8.306921e+01 1.159806e+02 1.046721e+02 7.682841e+01 7.373173e+01 7.097850e+01 5.917681e+01 5.136179e+01 4.696770e+01 6.219052e+00 6.527678e+00 7.724746e+00 7.800065e+00 9.861827e+00 8.977345e+00 7.366648e+00 7.214282e+00 7.060292e+00 6.613354e+00 5.694922e+00 5.051668e+00 6.649962e+00
<GCONST> 1.225215e+02
<STATE> 4
<MEAN> 25
 -4.299155e-01 -3.964952e+00 -4.002276e+00 -2.823284e+00 1.646068e+00 -1.295310e+00 8.963104e-01 1.046978e+00 9.346405e-01 1.428503e+00 -2.607999e-01 -4.966791e-01 1.707927e+00 -1.087433e-01 5.704802e-01 -8.434134e-01 -1.354929e+00 -3.394345e-01 -2.025347e-01 -3.781997e-01 -5.542665e-01 -5.913608e-01 -3.267991e-01 -7.167275e-01 1.492454e+00
<VARIANCE> 25
 4.631641e+01 4.999566e+01 6.523933e+01 5.721917e+01 7.356101e+01 7.103914e+01 5.364210e+01 5.829654e+01 5.465162e+01 4.663977e+01 4.395930e+01 3.992769e+01 4.190937e+00 4.456090e+00 5.103959e+00 5.090031e+00 5.915226e+00 5.821306e+00 5.421775e+00 5.460331e+00 5.491231e+00 4.808254e+00 4.592340e+00 3.763342e+00 3.194585e+00
<GCONST> 1.142384e+02
<TRANSP> 5
 0.000000e+00 1.000000e+00 0.000000e+00 0.000000e+00 0.000000e+00
 0.000000e+00 5.451827e-01 4.548173e-01 0.000000e+00 0.000000e+00
 0.000000e+00 0.000000e+00 5.199359e-01 4.800641e-01 0.000000e+00
 0.000000e+00 0.000000e+00 0.000000e+00 3.829347e-01 6.170653e-01
 0.000000e+00 0.000000e+00 0.000000e+00 0.000000e+00 0.000000e+00
<ENDHMM>
~h "l"
<BEGINHMM>
<NUMSTATES> 5
<STATE> 2
<MEAN> 25
 6.433475e+00 -3.406078e+00 -2.099627e+00 -3.796675e+00 -2.216498e+00 -8.403118e-01 -4.667820e+00 -3.592923e+00 3.023811e+00 2.748515e+00 -7.232213e-01 -2.303360e+00 2.988548e-01 -1.542510e-01 -1.275257e-01 -3.599639e-01 -5.288504e-03 1.092191e-01 -6.372774e-01 -3.038583e-01 4.503333e-01 6.234488e-01 -1.358178e-01 -2.547601e-01 6.293913e-02
<VARIANCE> 25
 2.074082e+01 3.589930e+01 4.840493e+01 6.229219e+01 6.218325e+01 8.186012e+01 6.813335e+01 7.957436e+01 5.937670e+01 7.337005e+01 5.338333e+01 3.949313e+01 8.635914e-01 1.958483e+00 2.617900e+00 3.466954e+00 3.684134e+00 4.224796e+00 4.193851e+00 5.350651e+00 3.821122e+00 3.893390e+00 3.476968e+00 2.977396e+00 1.089803e+00
<GCONST> 1.074475e+02
<STATE> 3
<MEAN> 25
 6.662097e+00 -3.690628e+00 -2.683258e+00 -5.455537e+00 -1.772463e+00 1.242857e-01 -5.807330e+00 -3.873033e+00 4.034195e+00 4.237784e+00 -9.822420e-01 -3.080443e+00 -5.329697e-02 -8.551484e-02 -6.565788e-02 -1.872821e-01 2.076170e-01 3.532503e-02 3.076216e-02 4.530997e-01 2.846243e-02 -1.982155e-01 -2.018491e-01 -8.552519e-02 4.113057e-02
<VARIANCE> 25
 1.799093e+01 3.273218e+01 4.432547e+01 6.266423e+01 5.601738e+01 7.902048e+01 6.852488e+01 7.566797e+01 6.049811e+01 7.185345e+01 5.484824e+01 4.083440e+01 4.057232e-01 1.383559e+00 1.716302e+00 2.249238e+00 2.436844e+00 2.996288e+00 3.126030e+00 4.128643e+00 2.764488e+00 2.871988e+00 2.845511e+00 2.151763e+00 6.035252e-01
<GCONST> 1.019928e+02
<STATE> 4
<MEAN> 25
 6.315783e+00 -2.490027e+00 -3.078146e+00 -4.589427e+00 -1.602295e+00 -1.315285e+00 -3.878820e+00 -1.028276e+00 2.975030e+00 8.314074e-01 -2.040940e+00 -2.371182e+00 -2.560542e-01 1.603719e-01 1.721525e-01 2.380133e-01 1.178183e-01 1.191254e-02 3.920063e-01 3.708124e-01 -3.830068e-01 -3.802379e-01 4.722960e-02 1.655892e-01 -2.398721e-01
<VARIANCE> 25
 2.070136e+01 3.995308e+01 5.455838e+01 6.781596e+01 8.368928e+01 9.072025e+01 7.041278e+01 7.649502e+01 5.875235e+01 8.577422e+01 6.154103e+01 4.328759e+01 4.806787e-01 1.375323e+00 1.635154e+00 2.087049e+00 2.405671e+00 2.700036e+00 2.634409e+00 2.959990e+00 2.585083e+00 2.722745e+00 2.542280e+00 1.922130e+00 8.087934e-01
<GCONST> 1.028843e+02
<TRANSP> 5
 0.000000e+00 1.000000e+00 0.000000e+00 0.000000e+00 0.000000e+00
 0.000000e+00 4.111095e-01 5.888905e-01 0.000000e+00 0.000000e+00
 0.000000e+00 0.000000e+00 4.209692e-01 5.790308e-01 0.000000e+00
 0.000000e+00 0.000000e+00 0.000000e+00 5.946374e-01 4.053626e-01
 0.000000e+00 0.000000e+00 0.000000e+00 0.000000e+00 0.000000e+00
<ENDHMM>
~h "m"
<BEGINHMM>
<NUMSTATES> 5
<STATE> 2
<MEAN> 25
 5.940247e+00 1.992128e+00 -1.816367e-01 9.127980e-01 5.035507e-01 2.622093e+00 -1.527307e+00 -4.832097e+00 -3.952739e+00 -1.973995e-01 -6.005120e-01 -1.862208e+00 1.561478e-03 9.585378e-01 8.986123e-01 1.352473e+00 2.542398e-01 3.245358e-01 1.734231e-01 -1.327638e+00 -1.249549e+00 -2.499721e-01 -5.134749e-01 -6.883816e-02 -7.905062e-01
<VARIANCE> 25
 2.168620e+01 3.393624e+01 3.621350e+01 4.376544e+01 3.831452e+01 5.000387e+01 4.373240e+01 4.788132e+01 4.863265e+01 3.871319e+01 3.701906e+01 2.940309e+01 1.119694e+00 1.996451e+00 2.867575e+00 3.422974e+00 2.878036e+00 3.114831e+00 3.407159e+00 3.592867e+00 3.814944e+00 3.053251e+00 3.190599e+00 2.464209e+00 1.580752e+00
<GCONST> 1.024157e+02
<STATE> 3
<MEAN> 25
 5.573518e+00 3.359601e+00 1.997160e+00 3.136230e+00 5.088994e-01 3.166332e+00 -1.144445e+00 -7.375194e+00 -6.483335e+00 -8.460135e-01 -1.888455e+00 -1.888218e+00 5.382456e-02 7.634275e-02 -5.442312e-02 -1.377723e-02 1.331023e-02 1.952372e-01 1.087362e-01 -1.779459e-02 -4.494471e-02 -8.290314e-02 -1.296273e-01 -1.275411e-01 -3.361985e-02
<VARIANCE> 25
 1.841122e+01 3.138617e+01 3.173560e+01 3.421508e+01 3.849482e+01 5.100292e+01 4.835561e+01 5.369242e+01 5.879877e+01 4.488997e+01 3.969332e+01 3.166451e+01 5.909084e-01 1.294114e+00 1.906751e+00 2.161999e+00 1.855924e+00 2.105274e+00 2.060275e+00 2.291513e+00 2.569086e+00 2.083708e+00 2.047985e+00 1.736745e+00 8.603101e-01
<GCONST> 9.661450e+01
<STATE> 4
<MEAN> 25
 5.536369e+00 3.154849e+00 1.196605e-01 1.046577e+00 5.253679e-01 2.820226e+00 -8.928193e-01 -4.180821e+00 -3.767809e+00 -1.037884e+00 -1.763513e+00 -2.345448e+00 6.935365e-02 -5.081971e-01 -7.329628e-01 -8.562509e-01 -1.350708e-01 -5.166263e-02 -1.352219e-02 8.582178e-01 8.444378e-01 1.420098e-01 2.830968e-01 -3.900640e-02 4.301268e-01
<VARIANCE> 25
 2.212362e+01 3.625324e+01 3.898645e+01 4.458059e+01 4.341224e+01 5.269119e+01 4.493981e+01 4.761874e+01 5.186965e+01 3.971644e+01 3.819508e+01 3.138934e+01 7.257697e-01 1.787762e+00 2.594500e+00 3.101817e+00 2.629586e+00 2.720723e+00 2.548435e+00 2.960942e+00 3.459109e+00 2.492159e+00 2.419457e+00 2.182023e+00 1.080677e+00
<GCONST> 1.004481e+02
<TRANSP> 5
 0.000000e+00 1.000000e+00 0.000000e+00 0.000000e+00 0.000000e+00
 0.000000e+00 5.148706e-01 4.851294e-01 0.000000e+00 0.000000e+00
 0.000000e+00 0.000000e+00 4.866001e-01 5.133998e-01 0.000000e+00
 0.000000e+00 0.000000e+00 0.000000e+00 5.886871e-01 4.113129e-01
 0.000000e+00 0.000000e+00 0.000000e+00 0.000000e+00 0.000000e+00
<ENDHMM>
~h "n"
<BEGINHMM>
<NUMSTATES> 5
<STATE> 2
<MEAN> 25
 5.708987e+00 -1.353279e+00 1.728706e+00 1.397202e+00 -1.976417e+00 -1.693277e+00 -2.305949e+00 -6.972207e-01 -7.855383e-01 -8.220852e-01 -3.111766e+00 -1.351334e+00 2.362170e-01 1.778353e+00 7.283930e-01 1.504894e+00 -5.774379e-02 2.914567e-01 -1.301089e-01 -1.577521e+00 -2.638090e-01 5.524705e-02 -5.303826e-01 1.130147e-01 -1.583609e+00
<VARIANCE> 25
 1.579582e+01 4.045358e+01 4.145954e+01 4.316466e+01 5.286327e+01 5.304057e+01 4.745080e+01 6.302974e+01 5.054388e+01 4.825864e+01 4.420478e+01 3.412423e+01 9.922315e-01 2.342541e+00 3.055650e+00 3.111900e+00 4.286865e+00 4.101413e+00 3.974437e+00 5.070935e+00 3.940573e+00 3.666617e+00 3.543205e+00 2.845593e+00 1.414183e+00
<GCONST> 1.052508e+02
<STATE> 3
<MEAN> 25
 5.804931e+00 2.673076e+00 3.117135e+00 3.852189e+00 -2.322832e+00 -8.923808e-01 -2.411337e+00 -4.517540e+00 -1.648461e+00 -7.336279e-01 -4.408547e+00 -1.442354e+00 -1.130055e-01 1.002892e+00 2.497588e-01 4.997889e-01 2.879562e-01 2.578910e-01 1.052799e-01 -4.444484e-01 -2.332511e-01 -5.624599e-02 -7.380985e-02 2.301037e-02 -8.096943e-01
<VARIANCE> 25
 1.457005e+01 3.229090e+01 3.382438e+01 3.764664e+01 5.220050e+01 4.970005e+01 4.212722e+01 4.984651e+01 4.463416e+01 4.982186e+01 4.367745e+01 3.284349e+01 5.987822e-01 1.463524e+00 1.632744e+00 1.792740e+00 2.378231e+00 2.462707e+00 2.447458e+00 2.965616e+00 2.592666e+00 2.368095e+00 2.315824e+00 1.864176e+00 7.554930e-01
<GCONST> 9.742511e+01
<STATE> 4
<MEAN> 25
 3.143821e+00 4.981127e+00 2.969636e+00 4.497182e+00 5.397433e-01 2.888945e-01 -1.026781e+00 -2.869035e+00 -1.690298e+00 -1.140990e+00 -2.801070e+00 -8.957834e-01 -4.750911e-01 4.847876e-02 -3.651384e-02 -2.669408e-02 2.570773e-01 1.518537e-01 2.423532e-01 3.119206e-01 4.961557e-02 6.999145e-02 2.870689e-01 8.396083e-02 -3.298007e-01
<VARIANCE> 25
 2.181826e+01 3.110442e+01 2.759072e+01 3.444799e+01 4.453606e+01 3.995000e+01 3.654601e+01 3.937397e+01 3.614564e+01 3.635652e+01 3.427176e+01 2.742126e+01 7.876084e-01 1.374185e+00 1.365872e+00 1.613094e+00 2.004636e+00 2.040549e+00 2.073031e+00 2.360082e+00 2.181081e+00 2.119622e+00 1.967010e+00 1.623667e+00 7.653080e-01
<GCONST> 9.439636e+01
<TRANSP> 5
 0.000000e+00 1.000000e+00 0.000000e+00 0.000000e+00 0.000000e+00
 0.000000e+00 4.917523e-01 5.082477e-01 0.000000e+00 0.000000e+00
 0.000000e+00 0.000000e+00 4.563878e-01 5.436123e-01 0.000000e+00
 0.000000e+00 0.000000e+00 0.000000e+00 6.948781e-01 3.051219e-01
 0.000000e+00 0.000000e+00 0.000000e+00 0.000000e+00 0.000000e+00
<ENDHMM>
~h "o"
<BEGINHMM>
<NUMSTATES> 5
<STATE> 2
<MEAN> 25
 5.710838e+00 -5.494404e-01 -5.741895e+00 -7.851370e+00 -1.481640e+00 2.944224e+00 -1.988620e+00 -1.635995e+00 1.126624e+00 1.774649e+00 2.197526e+00 -1.281534e+00 1.107980e+00 -4.629474e-01 -8.934308e-01 -1.848437e+00 -1.430969e-01 1.032426e+00 -9.254251e-02 -2.265139e-01 -1.728689e-01 2.598107e-01 4.892728e-01 -3.928442e-01 1.143078e+00
<VARIANCE> 25
 3.562405e+01 3.823595e+01 4.527689e+01 8.425507e+01 7.183542e+01 9.716750e+01 6.806321e+01 6.193493e+01 6.435925e+01 6.237790e+01 5.429934e+01 4.019105e+01 3.494497e+00 3.231707e+00 3.865448e+00 6.707720e+00 6.194575e+00 6.965376e+00 5.700539e+00 5.244261e+00 5.485751e+00 4.969557e+00 4.503739e+00 3.602742e+00 3.961025e+00
<GCONST> 1.149040e+02
<STATE> 3
<MEAN> 25
 7.511512e+00 -1.362376e+00 -7.446511e+00 -1.109064e+01 -7.681105e-01 6.231018e+00 -2.031273e+00 -2.791431e+00 1.511484e-01 2.499284e+00 3.590144e+00 -1.837300e+00 -1.714733e-01 3.048697e-01 6.449582e-02 6.973578e-01 3.362197e-01 2.627168e-02 2.266156e-01 1.006027e-02 -6.530534e-02 -4.397449e-02 -2.361296e-01 1.222440e-01 -7.107079e-01
<VARIANCE> 25
 2.009120e+01 3.709210e+01 4.028975e+01 7.575365e+01 6.725985e+01 9.517078e+01 6.540663e+01 5.686056e+01 6.487694e+01 6.447799e+01 5.481546e+01 4.310807e+01 9.931987e-01 2.046784e+00 1.806821e+00 4.125179e+00 2.942304e+00 3.999391e+00 3.472015e+00 3.133739e+00 3.814412e+00 3.377241e+00 3.109542e+00 2.719471e+00 1.945375e+00
<GCONST> 1.066028e+02
<STATE> 4
<MEAN> 25
 3.839100e+00 9.664019e-01 -5.461100e+00 -6.238794e+00 -4.541457e-01 3.782268e+00 2.005519e-01 -1.376499e+00 2.439613e-01 1.265004e+00 1.176283e+00 -2.070819e-01 -3.538012e-01 1.701877e-01 3.263158e-01 6.594333e-01 1.644692e-01 -1.731801e-01 1.072878e-01 6.319366e-02 -1.409162e-03 -1.036306e-01 -1.794346e-01 7.580461e-02 -4.748154e-01
<VARIANCE> 25
 3.274092e+01 2.810017e+01 3.090699e+01 6.457530e+01 4.413396e+01 5.851593e+01 4.315242e+01 4.039296e+01 4.005799e+01 4.096643e+01 3.472465e+01 3.190186e+01 5.050210e-01 7.775703e-01 1.075564e+00 1.729611e+00 1.525149e+00 1.854341e+00 1.741493e+00 1.767451e+00 1.893758e+00 1.849953e+00 1.683615e+00 1.502697e+00 4.815579e-01
<GCONST> 9.340437e+01
<TRANSP> 5
 0.000000e+00 1.000000e+00 0.000000e+00 0.000000e+00 0.000000e+00
 0.000000e+00 5.397963e-01 4.602037e-01 0.000000e+00 0.000000e+00
 0.000000e+00 0.000000e+00 6.871566e-01 3.128434e-01 0.000000e+00
 0.000000e+00 0.000000e+00 0.000000e+00 7.887838e-01 2.112162e-01
 0.000000e+00 0.000000e+00 0.000000e+00 0.000000e+00 0.000000e+00
<ENDHMM>
~h "p"
<BEGINHMM>
<NUMSTATES> 5
<STATE> 2
<MEAN> 25
 -2.145133e+00 3.130129e+00 -2.364741e+00 2.532573e+00 2.301678e+00 2.270875e+00 2.119901e+00 6.823097e-01 1.476261e+00 1.652383e+00 1.166880e+00 1.018628e+00 -5.782560e-01 -4.323568e-01 -3.568085e-01 -1.453731e-01 -8.816679e-02 -6.964514e-02 2.189503e-01 6.528684e-02 3.305456e-01 2.667332e-01 3.196664e-01 2.901823e-01 1.676582e-01
<VARIANCE> 25
 4.597640e+01 3.241519e+01 3.690893e+01 3.858171e+01 3.650161e+01 4.280060e+01 3.490193e+01 3.806209e+01 3.723602e+01 3.450471e+01 3.065410e+01 2.634279e+01 4.391947e+00 3.839010e+00 3.339498e+00 4.299555e+00 3.610645e+00 4.231877e+00 3.551415e+00 3.818706e+00 3.743126e+00 3.303064e+00 3.033052e+00 2.597663e+00 7.213972e+00
<GCONST> 1.062910e+02
<STATE> 3
<MEAN> 25
 -5.425190e-01 8.677623e-02 -3.772700e+00 -2.407694e-01 9.554542e-01 1.158553e+00 1.639279e+00 -6.050898e-01 1.550776e+00 1.964051e+00 1.811213e+00 7.884130e-01 2.258780e+00 -1.913201e+00 -8.722461e-01 -2.259839e+00 -8.661739e-01 -1.712085e-01 -7.197949e-01 -6.362705e-01 1.143105e-01 7.338822e-02 1.187288e-01 -9.967166e-01 3.852719e+00
<VARIANCE> 25
 4.121141e+01 3.534262e+01 3.839777e+01 5.197720e+01 4.033015e+01 5.187066e+01 3.857248e+01 4.092199e+01 3.788249e+01 3.350850e+01 3.261259e+01 2.730310e+01 5.963918e+00 5.868971e+00 6.355924e+00 7.443661e+00 6.789716e+00 9.464617e+00 6.235309e+00 6.063712e+00 6.223927e+00 5.887098e+00 5.590431e+00 4.980303e+00 7.198869e+00
<GCONST> 1.138869e+02
<STATE> 4
<MEAN> 25
 4.999743e+00 -3.941766e+00 -6.045927e+00 -4.860076e+00 -3.870247e-01 2.089861e+00 -3.389681e-01 -1.675342e+00 1.906628e+00 1.903195e+00 1.377008e+00 -2.318120e+00 1.376957e+00 -1.096656e+00 -1.704792e-01 -1.028789e+00 -6.313701e-01 -3.101844e-01 -6.494358e-01 2.817393e-02 -1.530691e-02 -2.029107e-01 -3.428744e-01 -7.180969e-01 2.000179e+00
<VARIANCE> 25
 3.865859e+01 4.849807e+01 5.268151e+01 6.636308e+01 5.422800e+01 8.114639e+01 5.210994e+01 4.866305e+01 4.812637e+01 4.583308e+01 4.388905e+01 4.379373e+01 4.652255e+00 5.539833e+00 6.188608e+00 7.105601e+00 6.565535e+00 8.494743e+00 5.797024e+00 5.717934e+00 5.836126e+00 5.240079e+00 5.339960e+00 4.471534e+00 6.338737e+00
<GCONST> 1.161255e+02
<TRANSP> 5
 0.000000e+00 1.000000e+00 0.000000e+00 0.000000e+00 0.000000e+00
 0.000000e+00 5.682061e-01 4.317939e-01 0.000000e+00 0.000000e+00
 0.000000e+00 0.000000e+00 3.866491e-01 6.133509e-01 0.000000e+00
 0.000000e+00 0.000000e+00 0.000000e+00 3.450421e-01 6.549580e-01
 0.000000e+00 0.000000e+00 0.000000e+00 0.000000e+00 0.000000e+00
<ENDHMM>
~h "q"
<BEGINHMM>
<NUMSTATES> 5
<STATE> 2
<MEAN> 25
 2.191897e-09 1.090767e-09 9.583869e-09 -2.513970e-08 5.652961e-09 7.827195e-09 -1.173832e-08 8.083372e-09 -1.224114e-08 -9.614427e-09 -1.228777e-09 7.353112e-09 2.583278e-03 1.324474e-05 1.168407e-03 -2.654809e-04 1.189869e-03 -2.049740e-04 3.580089e-04 -4.413913e-04 -1.182725e-03 -4.290212e-04 -6.000486e-04 -5.767079e-04 3.082962e-03
<VARIANCE> 25
 5.948185e+01 5.523698e+01 6.956894e+01 6.305649e+01 6.882346e+01 6.596870e+01 5.749071e+01 5.935575e+01 5.307431e+01 4.762827e+01 4.651497e+01 3.710693e+01 2.306505e+00 2.816552e+00 2.879400e+00 3.320058e+00 3.620134e+00 3.535676e+00 3.444275e+00 3.604864e+00 3.328828e+00 3.069384e+00 2.973308e+00 2.428294e+00 2.668486e+00
<GCONST> 1.087549e+02
<STATE> 3
<MEAN> 25
 2.191897e-09 1.090767e-09 9.583869e-09 -2.513970e-08 5.652961e-09 7.827195e-09 -1.173832e-08 8.083372e-09 -1.224114e-08 -9.614427e-09 -1.228777e-09 7.353112e-09 2.583278e-03 1.324474e-05 1.168407e-03 -2.654809e-04 1.189869e-03 -2.049740e-04 3.580089e-04 -4.413913e-04 -1.182725e-03 -4.290212e-04 -6.000486e-04 -5.767079e-04 3.082962e-03
<VARIANCE> 25
 5.948185e+01 5.523698e+01 6.956894e+01 6.305649e+01 6.882346e+01 6.596870e+01 5.749071e+01 5.935575e+01 5.307431e+01 4.762827e+01 4.651497e+01 3.710693e+01 2.306505e+00 2.816552e+00 2.879400e+00 3.320058e+00 3.620134e+00 3.535676e+00 3.444275e+00 3.604864e+00 3.328828e+00 3.069384e+00 2.973308e+00 2.428294e+00 2.668486e+00
<GCONST> 1.087549e+02
<STATE> 4
<MEAN> 25
 2.191897e-09 1.090767e-09 9.583869e-09 -2.513970e-08 5.652961e-09 7.827195e-09 -1.173832e-08 8.083372e-09 -1.224114e-08 -9.614427e-09 -1.228777e-09 7.353112e-09 2.583278e-03 1.324474e-05 1.168407e-03 -2.654809e-04 1.189869e-03 -2.049740e-04 3.580089e-04 -4.413913e-04 -1.182725e-03 -4.290212e-04 -6.000486e-04 -5.767079e-04 3.082962e-03
<VARIANCE> 25
 5.948185e+01 5.523698e+01 6.956894e+01 6.305649e+01 6.882346e+01 6.596870e+01 5.749071e+01 5.935575e+01 5.307431e+01 4.762827e+01 4.651497e+01 3.710693e+01 2.306505e+00 2.816552e+00 2.879400e+00 3.320058e+00 3.620134e+00 3.535676e+00 3.444275e+00 3.604864e+00 3.328828e+00 3.069384e+00 2.973308e+00 2.428294e+00 2.668486e+00
<GCONST> 1.087549e+02
<TRANSP> 5
 0.000000e+00 1.000000e+00 0.000000e+00 0.000000e+00 0.000000e+00
 0.000000e+00 6.000000e-01 4.000000e-01 0.000000e+00 0.000000e+00
 0.000000e+00 0.000000e+00 6.000000e-01 4.000000e-01 0.000000e+00
 0.000000e+00 0.000000e+00 0.000000e+00 7.000000e-01 3.000000e-01
 0.000000e+00 0.000000e+00 0.000000e+00 0.000000e+00 0.000000e+00
<ENDHMM>
~h "r"
<BEGINHMM>
<NUMSTATES> 5
<STATE> 2
<MEAN> 25
 4.952610e+00 -4.342942e+00 -2.849126e+00 3.220309e-01 -2.396639e+00 -2.350311e+00 -2.447203e+00 5.711895e-01 3.723451e+00 8.820787e-03 -3.297289e-01 -8.713105e-01 3.978056e-02 -1.075480e-02 2.545601e-01 8.949349e-01 -1.845089e-01 -1.940070e-01 -1.977427e-01 1.277552e-01 1.420572e-01 -2.072684e-01 2.102039e-01 3.117926e-01 -4.567354e-01
<VARIANCE> 25
 2.735315e+01 3.927507e+01 5.069934e+01 4.783987e+01 5.978305e+01 5.987786e+01 5.889233e+01 6.235788e+01 5.879698e+01 5.097134e+01 4.522419e+01 4.034818e+01 2.611770e+00 3.667130e+00 3.644654e+00 4.504179e+00 4.988396e+00 5.178349e+00 4.692771e+00 4.947695e+00 4.560657e+00 4.418226e+00 4.208982e+00 3.764718e+00 3.443316e+00
<GCONST> 1.110831e+02
<STATE> 3
<MEAN> 25
 4.901062e+00 -3.994860e+00 -1.997651e+00 1.852105e+00 -2.610968e+00 -2.753469e+00 -2.748382e+00 7.459224e-01 3.302596e+00 -1.847348e-01 2.879806e-01 -3.285742e-01 -2.162975e-01 2.562954e-01 4.559059e-01 3.855793e-01 8.694459e-02 5.564566e-02 9.411186e-02 1.054053e-02 -4.957389e-01 -3.355012e-02 2.680901e-01 1.719988e-01 -5.156905e-01
<VARIANCE> 25
 2.663584e+01 3.858192e+01 5.274685e+01 4.392181e+01 5.813035e+01 5.666471e+01 5.507379e+01 5.941370e+01 5.569072e+01 4.700388e+01 4.226063e+01 3.651717e+01 2.309877e+00 3.252689e+00 3.550431e+00 3.592135e+00 4.516203e+00 4.495014e+00 4.276639e+00 4.673756e+00 4.191328e+00 4.014944e+00 3.826766e+00 3.482543e+00 2.549476e+00
<GCONST> 1.089516e+02
<STATE> 4
<MEAN> 25
 4.008588e+00 -3.031741e+00 -8.905705e-01 2.226221e+00 -2.104864e+00 -2.609951e+00 -1.778031e+00 8.243624e-01 1.527510e+00 -4.087032e-01 7.071019e-01 -1.329099e-01 -3.256372e-01 4.424819e-01 4.008011e-01 -7.507596e-02 1.869664e-01 2.319231e-01 2.706084e-01 -1.377473e-01 -6.386240e-01 7.927327e-02 1.014487e-01 3.960200e-03 -4.451315e-01
<VARIANCE> 25
 3.205467e+01 4.483134e+01 5.829001e+01 4.536741e+01 5.971865e+01 6.104836e+01 5.538825e+01 6.122866e+01 5.333873e+01 4.628296e+01 4.389974e+01 3.615270e+01 1.602465e+00 2.398590e+00 2.725325e+00 2.511072e+00 3.529815e+00 3.311123e+00 3.202142e+00 3.494582e+00 3.471086e+00 3.004814e+00 2.931905e+00 2.395005e+00 1.716333e+00
<GCONST> 1.055861e+02
<TRANSP> 5
 0.000000e+00 1.000000e+00 0.000000e+00 0.000000e+00 0.000000e+00
 0.000000e+00 3.016723e-01 6.983277e-01 0.000000e+00 0.000000e+00
 0.000000e+00 0.000000e+00 2.069591e-01 7.930409e-01 0.000000e+00
 0.000000e+00 0.000000e+00 0.000000e+00 4.518113e-01 5.481887e-01
 0.000000e+00 0.000000e+00 0.000000e+00 0.000000e+00 0.000000e+00
<ENDHMM>
~h "s"
<BEGINHMM>
<NUMSTATES> 5
<STATE> 2
<MEAN> 25
 -6.580398e+00 4.217080e+00 1.544913e+00 1.398700e+00 4.298179e+00 -2.785009e+00 3.615069e+00 9.176213e-01 8.554977e-01 -7.026878e-01 3.945562e-01 1.251193e+00 -3.546723e+00 1.286456e+00 -1.018218e-01 9.228891e-02 1.302939e+00 -3.995273e-02 1.331730e+00 3.807851e-01 5.136634e-01 -9.447826e-02 8.860326e-01 4.941442e-01 7.405211e-02
<VARIANCE> 25
 6.694662e+01 6.775693e+01 8.322656e+01 5.662346e+01 8.140494e+01 8.377399e+01 6.841902e+01 6.211951e+01 5.377645e+01 4.728870e+01 4.735734e+01 3.449344e+01 3.742650e+00 6.138699e+00 6.905231e+00 5.260234e+00 5.748670e+00 6.050088e+00 5.181099e+00 5.087400e+00 4.413344e+00 4.875393e+00 3.842087e+00 3.035097e+00 1.815159e+00
<GCONST> 1.149156e+02
<STATE> 3
<MEAN> 25
 -1.724307e+01 5.056668e+00 4.041085e-01 2.372316e-01 5.924095e+00 -2.015125e+00 5.998659e+00 1.615952e+00 1.915027e+00 -2.454814e-01 3.158918e+00 2.846828e+00 -2.153305e-01 -4.380057e-01 -6.062680e-02 -8.537142e-02 -2.100507e-01 5.660511e-02 -3.749629e-02 4.375792e-02 7.119384e-02 4.198088e-02 5.278576e-02 1.104926e-01 -3.111882e-01
<VARIANCE> 25
 4.096603e+01 9.936581e+01 1.117848e+02 7.555002e+01 7.828609e+01 8.932244e+01 5.461477e+01 5.564260e+01 4.417643e+01 4.554987e+01 3.629784e+01 3.180076e+01 2.835706e+00 1.905210e+00 2.127895e+00 1.807986e+00 2.139014e+00 2.292366e+00 2.314515e+00 2.446636e+00 2.353882e+00 2.173259e+00 2.004824e+00 1.739196e+00 9.322509e-01
<GCONST> 1.039992e+02
<STATE> 4
<MEAN> 25
 -9.234921e+00 1.464236e+00 1.089043e+00 -1.545349e-01 2.704939e+00 -2.364626e+00 3.301948e+00 8.455291e-01 1.837571e+00 -4.630261e-01 1.164550e+00 2.063070e+00 3.741867e+00 -6.842245e-01 -1.054552e-01 -4.153337e-01 -1.404150e+00 -4.455764e-01 -1.506115e+00 -7.924163e-01 -3.468973e-01 -1.209891e-01 -9.269218e-01 -7.185988e-01 7.256323e-01
<VARIANCE> 25
 7.515890e+01 7.984405e+01 8.572702e+01 5.740205e+01 6.983333e+01 8.588618e+01 5.981510e+01 5.594588e+01 4.593245e+01 4.249153e+01 4.183699e+01 3.155465e+01 5.517584e+00 6.866564e+00 7.190372e+00 5.168715e+00 5.742940e+00 6.235501e+00 5.364482e+00 5.644495e+00 5.011278e+00 4.940076e+00 4.260202e+00 3.423100e+00 3.451345e+00
<GCONST> 1.160910e+02
<TRANSP> 5
 0.000000e+00 1.000000e+00 0.000000e+00 0.000000e+00 0.000000e+00
 0.000000e+00 6.883711e-01 3.116290e-01 0.000000e+00 0.000000e+00
 0.000000e+00 0.000000e+00 7.791355e-01 2.208645e-01 0.000000e+00
 0.000000e+00 0.000000e+00 0.000000e+00 6.305402e-01 3.694598e-01
 0.000000e+00 0.000000e+00 0.000000e+00 0.000000e+00 0.000000e+00
<ENDHMM>
~h "t"
<BEGINHMM>
<NUMSTATES> 5
<STATE> 2
<MEAN> 25
 -2.595418e+00 3.558638e+00 -6.398862e-01 3.362153e+00 1.852321e+00 3.034045e-01 1.439071e+00 3.302486e-01 1.718165e+00 1.238093e+00 9.526781e-01 1.383758e+00 -1.186388e+00 -2.736812e-01 -4.532683e-01 -9.031937e-02 3.178380e-01 1.337460e-01 5.563712e-01 2.718721e-01 4.193046e-01 1.131003e-01 4.458370e-01 3.978987e-01 -3.863073e-01
<VARIANCE> 25
 3.800791e+01 3.030475e+01 3.935006e+01 3.490622e+01 4.159985e+01 4.703527e+01 3.922963e+01 4.081520e+01 4.058403e+01 3.550804e+01 3.456663e+01 2.630868e+01 2.913759e+00 3.874259e+00 3.441424e+00 4.264878e+00 4.194465e+00 4.977562e+00 4.030861e+00 3.994972e+00 3.842866e+00 3.477520e+00 3.246171e+00 2.564591e+00 6.667838e+00
<GCONST> 1.068015e+02
<STATE> 3
<MEAN> 25
 -5.217155e+00 2.856002e-01 -1.925063e+00 6.155194e-01 2.042923e+00 -1.317950e+00 2.663945e+00 5.321524e-01 2.172757e+00 9.582560e-01 1.648026e+00 2.247269e+00 4.625500e-01 -1.652951e+00 -1.262294e-01 -1.858711e+00 -5.664370e-01 -1.234959e+00 -5.178714e-01 -2.216924e-01 3.405866e-01 -2.413374e-01 -1.300997e-01 -2.732632e-01 3.394394e+00
<VARIANCE> 25
 3.638797e+01 3.991870e+01 4.520550e+01 4.510958e+01 4.929633e+01 6.720213e+01 4.517031e+01 4.552082e+01 4.202828e+01 3.924383e+01 3.740871e+01 2.891984e+01 6.009668e+00 5.561650e+00 6.200425e+00 6.195082e+00 7.260222e+00 7.832402e+00 6.898077e+00 6.856318e+00 6.473613e+00 5.627408e+00 5.643098e+00 4.612031e+00 7.547284e+00
<GCONST> 1.149074e+02
<STATE> 4
<MEAN> 25
 -1.364083e+00 -2.320582e+00 -1.240248e+00 -2.844694e+00 -3.553419e-01 -3.449673e+00 -4.309068e-01 -3.605876e-01 2.486056e+00 2.372712e-01 1.906348e-01 4.225406e-01 2.023484e+00 -6.564968e-01 2.770949e-01 -1.203434e+00 -9.421480e-01 -4.618872e-01 -1.471109e+00 -4.097323e-01 -2.650676e-01 -7.005151e-02 -4.448169e-01 -9.110602e-01 2.308814e+00
<VARIANCE> 25
 4.042535e+01 4.399644e+01 5.145656e+01 5.111430e+01 5.829556e+01 6.881062e+01 6.201348e+01 5.378980e+01 5.008446e+01 4.452417e+01 4.280714e+01 3.567754e+01 4.969574e+00 5.468538e+00 6.943194e+00 6.171732e+00 7.012688e+00 8.272124e+00 7.331789e+00 7.095280e+00 6.709880e+00 6.434813e+00 6.127424e+00 4.553574e+00 5.308434e+00
<GCONST> 1.165912e+02
<TRANSP> 5
 0.000000e+00 1.000000e+00 0.000000e+00 0.000000e+00 0.000000e+00
 0.000000e+00 5.955970e-01 4.044030e-01 0.000000e+00 0.000000e+00
 0.000000e+00 0.000000e+00 3.715558e-01 6.284443e-01 0.000000e+00
 0.000000e+00 0.000000e+00 0.000000e+00 2.979957e-01 7.020043e-01
 0.000000e+00 0.000000e+00 0.000000e+00 0.000000e+00 0.000000e+00
<ENDHMM>
~h "u"
<BEGINHMM>
<NUMSTATES> 5
<STATE> 2
<MEAN> 25
 5.900771e+00 3.143477e+00 -1.578913e+00 -4.771690e+00 -2.080654e+00 5.268397e-01 -5.632051e+00 -4.456077e+00 -2.158934e+00 -3.083956e-02 2.530359e+00 1.291436e-01 1.273328e+00 3.848874e-01 -4.378264e-01 -1.417956e+00 -6.018599e-01 8.487973e-01 -9.154130e-01 -9.139901e-01 -7.312154e-01 1.818031e-01 8.772053e-01 8.989968e-02 5.985390e-01
<VARIANCE> 25
 3.008236e+01 4.267044e+01 5.101450e+01 7.925948e+01 6.279318e+01 8.110465e+01 7.637606e+01 6.934673e+01 6.410438e+01 6.913470e+01 5.414140e+01 4.065258e+01 3.212122e+00 3.740986e+00 4.127543e+00 5.813660e+00 5.896579e+00 7.129504e+00 6.391118e+00 5.988040e+00 5.867801e+00 5.898941e+00 4.710664e+00 3.801699e+00 2.952483e+00
<GCONST> 1.151725e+02
<STATE> 3
<MEAN> 25
 7.591665e+00 3.082149e+00 -2.382672e+00 -7.945180e+00 -2.966284e+00 3.844217e+00 -7.076318e+00 -6.552484e+00 -2.971007e+00 4.600939e-01 4.777655e+00 1.443374e-01 -7.021829e-03 6.467207e-02 -1.137114e-02 3.649043e-01 2.621805e-01 1.083148e-01 1.339645e-01 4.745247e-02 2.229938e-01 1.981753e-01 -2.224314e-01 -1.044631e-01 -3.759242e-01
<VARIANCE> 25
 1.974779e+01 3.777344e+01 4.498851e+01 7.857383e+01 6.251458e+01 9.419281e+01 7.255178e+01 7.801491e+01 7.052866e+01 8.113876e+01 6.336830e+01 4.530218e+01 9.611769e-01 2.914673e+00 2.327758e+00 4.773921e+00 3.958396e+00 4.528613e+00 4.933474e+00 4.372022e+00 5.089724e+00 4.816487e+00 4.060945e+00 3.574781e+00 2.142196e+00
<GCONST> 1.107006e+02
<STATE> 4
<MEAN> 25
 5.756551e+00 4.907239e+00 -2.346765e+00 -5.079570e+00 -1.334758e+00 1.536990e+00 -4.317230e+00 -4.276284e+00 -3.092095e+00 3.583131e-01 2.476970e+00 9.047523e-01 -5.904635e-01 -5.320370e-03 3.086277e-01 9.502406e-01 3.977690e-01 -1.362530e-01 5.099733e-01 4.212064e-01 3.576873e-01 -7.138520e-02 -4.223902e-01 -5.389750e-02 -6.446590e-01
<VARIANCE> 25
 2.541306e+01 3.693850e+01 4.069534e+01 7.402369e+01 5.060302e+01 6.361049e+01 5.305983e+01 4.889719e+01 5.462352e+01 5.658352e+01 4.272629e+01 4.012403e+01 8.860527e-01 1.486405e+00 1.657151e+00 2.650400e+00 2.427665e+00 2.840723e+00 2.690729e+00 2.666839e+00 2.771492e+00 2.737164e+00 2.633708e+00 2.129410e+00 1.051656e+00
<GCONST> 1.016806e+02
<TRANSP> 5
 0.000000e+00 1.000000e+00 0.000000e+00 0.000000e+00 0.000000e+00
 0.000000e+00 4.711787e-01 5.288213e-01 0.000000e+00 0.000000e+00
 0.000000e+00 0.000000e+00 5.245478e-01 4.754522e-01 0.000000e+00
 0.000000e+00 0.000000e+00 0.000000e+00 7.254212e-01 2.745787e-01
 0.000000e+00 0.000000e+00 0.000000e+00 0.000000e+00 0.000000e+00
<ENDHMM>
~h "v"
<BEGINHMM>
<NUMSTATES> 5
<STATE> 2
<MEAN> 25
 -1.919500e+00 1.157897e+00 4.020278e-01 4.141925e+00 1.772699e+00 7.898358e-02 6.377411e-01 2.043383e+00 2.593155e+00 -8.919337e-01 3.541773e-01 6.188393e-01 -2.421562e+00 5.897502e-01 -3.796774e-02 1.073601e+00 8.562692e-01 7.176541e-01 6.537464e-01 2.501219e-01 8.621550e-01 5.558075e-01 4.614284e-01 3.409318e-01 -9.158555e-01
<VARIANCE> 25
 4.927100e+01 3.060406e+01 3.472214e+01 5.198737e+01 3.050582e+01 4.644399e+01 3.314460e+01 3.405168e+01 4.726002e+01 3.366780e+01 2.862878e+01 2.625821e+01 3.333668e+00 2.829043e+00 2.583315e+00 3.673843e+00 3.284541e+00 4.919538e+00 3.377049e+00 4.299731e+00 5.104464e+00 4.276934e+00 4.128272e+00 2.416034e+00 1.424312e+00
<GCONST> 1.047326e+02
<STATE> 3
<MEAN> 25
 -9.375257e+00 1.572034e+00 -9.666296e-01 3.391207e+00 3.131497e+00 1.069852e+00 2.812353e+00 2.199409e+00 2.489133e+00 1.441248e+00 1.213794e+00 1.218144e+00 -1.593706e-01 -1.870417e-01 -1.840821e-01 -1.627284e-02 -2.348521e-02 4.822819e-03 1.768087e-01 -6.597698e-02 5.892757e-02 2.043797e-01 -2.475430e-02 -2.773141e-02 -1.673382e-01
<VARIANCE> 25
 5.098737e+01 2.255217e+01 2.395624e+01 4.572541e+01 2.143082e+01 3.536685e+01 2.749144e+01 3.208529e+01 2.398329e+01 2.593690e+01 2.132378e+01 1.949826e+01 1.647768e+00 1.185408e+00 1.277060e+00 1.309375e+00 1.386119e+00 2.486204e+00 1.884335e+00 1.749479e+00 1.915430e+00 1.788207e+00 1.454870e+00 1.672897e+00 7.308477e-01
<GCONST> 9.129012e+01
<STATE> 4
<MEAN> 25
 -3.761406e+00 7.700291e-01 -2.577304e+00 3.233448e+00 2.529527e+00 3.955539e-01 2.296081e+00 7.336855e-01 2.780586e+00 1.679356e+00 1.522666e+00 8.876758e-01 3.070092e+00 -6.793225e-01 -9.110759e-01 -1.568587e+00 -1.331913e+00 -7.319266e-01 -5.829273e-01 -6.120338e-01 -3.483138e-01 4.928638e-02 -3.243765e-01 -7.287939e-01 1.620817e+00
<VARIANCE> 25
 7.142153e+01 2.742645e+01 4.316160e+01 5.050589e+01 2.887899e+01 4.773900e+01 3.680927e+01 3.498988e+01 3.044463e+01 2.671226e+01 2.596091e+01 2.576041e+01 4.609694e+00 3.354056e+00 7.294785e+00 4.959272e+00 3.933952e+00 6.321105e+00 4.248808e+00 4.226296e+00 4.893739e+00 3.701541e+00 3.485568e+00 3.974450e+00 2.446708e+00
<GCONST> 1.076584e+02
<TRANSP> 5
 0.000000e+00 1.000000e+00 0.000000e+00 0.000000e+00 0.000000e+00
 0.000000e+00 6.456472e-01 3.543529e-01 0.000000e+00 0.000000e+00
 0.000000e+00 0.000000e+00 7.131060e-01 2.868941e-01 0.000000e+00
 0.000000e+00 0.000000e+00 0.000000e+00 5.892168e-01 4.107832e-01
 0.000000e+00 0.000000e+00 0.000000e+00 0.000000e+00 0.000000e+00
<ENDHMM>
~h "w"
<BEGINHMM>
<NUMSTATES> 5
<STATE> 2
<MEAN> 25
 6.576145e+00 4.040387e+00 -3.820087e+00 -7.158302e+00 -2.471430e+00 1.902572e+00 -1.417350e+00 -1.720195e+00 -1.558077e+00 3.258555e-01 2.092632e+00 -2.825598e-01 1.551819e+00 5.684262e-01 -7.812620e-01 -1.980886e+00 -1.140419e+00 4.002313e-01 -1.526508e-02 -3.204088e-01 -6.668249e-01 -2.418886e-01 6.447836e-01 2.531398e-01 8.825071e-01
<VARIANCE> 25
 4.422053e+01 6.376179e+01 4.094906e+01 7.203790e+01 5.986686e+01 9.117096e+01 5.923384e+01 5.199992e+01 4.747494e+01 4.524976e+01 4.137725e+01 4.033831e+01 3.728939e+00 4.207992e+00 3.324410e+00 4.879651e+00 4.679697e+00 5.767609e+00 4.591953e+00 4.175585e+00 3.983176e+00 4.187284e+00 4.087296e+00 3.972131e+00 4.555521e+00
<GCONST> 1.125170e+02
<STATE> 3
<MEAN> 25
 9.851202e+00 2.715108e+00 -6.640034e+00 -1.442052e+01 -5.346511e+00 6.132584e+00 -1.273725e+00 -2.458130e+00 -2.573693e+00 2.907052e-01 4.980850e+00 4.253859e-01 -9.343145e-02 -1.088206e+00 -5.552035e-01 -4.688255e-01 6.190113e-01 7.072330e-01 -1.216785e-02 -2.032697e-01 4.564388e-01 6.486334e-01 2.149425e-01 -6.407633e-01 7.269677e-01
<VARIANCE> 25
 1.534649e+01 3.360087e+01 3.136570e+01 5.553251e+01 4.559048e+01 8.385385e+01 4.861443e+01 4.280201e+01 4.440392e+01 4.558842e+01 4.249698e+01 3.578610e+01 6.815128e-01 3.339842e+00 1.607463e+00 2.676662e+00 3.317509e+00 3.222816e+00 3.320302e+00 2.846856e+00 3.007676e+00 3.093491e+00 2.634393e+00 3.576879e+00 1.413972e+00
<GCONST> 1.022018e+02
<STATE> 4
<MEAN> 25
 7.372998e+00 -3.521034e+00 -8.290222e+00 -1.214670e+01 9.854633e-01 7.273759e+00 -2.239105e+00 -3.077235e+00 1.701926e+00 3.768194e+00 2.339803e+00 -5.027130e+00 -4.275369e-01 -6.589189e-01 1.514236e-01 1.012013e+00 6.245152e-01 -6.611355e-01 5.460460e-02 4.413433e-01 6.069249e-01 -1.170988e-01 -9.448168e-01 -4.253692e-01 8.189573e-02
<VARIANCE> 25
 1.576312e+01 3.712275e+01 2.838317e+01 5.454492e+01 5.047427e+01 8.224796e+01 5.522584e+01 4.030952e+01 4.670391e+01 4.939520e+01 5.055764e+01 4.204087e+01 5.026755e-01 2.161586e+00 1.186775e+00 2.454858e+00 2.322989e+00 2.806835e+00 2.496075e+00 2.520592e+00 2.569503e+00 2.477333e+00 2.743853e+00 2.943034e+00 1.079996e+00
<GCONST> 9.999142e+01
<TRANSP> 5
 0.000000e+00 1.000000e+00 0.000000e+00 0.000000e+00 0.000000e+00
 0.000000e+00 6.227633e-01 3.772367e-01 0.000000e+00 0.000000e+00
 0.000000e+00 0.000000e+00 6.905783e-01 3.094217e-01 0.000000e+00
 0.000000e+00 0.000000e+00 0.000000e+00 7.431367e-01 2.568633e-01
 0.000000e+00 0.000000e+00 0.000000e+00 0.000000e+00 0.000000e+00
<ENDHMM>
~h "x"
<BEGINHMM>
<NUMSTATES> 5
<STATE> 2
<MEAN> 25
 1.715658e+00 5.433917e+00 1.303560e+01 3.538807e+00 -1.744439e+01 1.737093e+00 -4.517301e+00 -8.473230e+00 -5.125270e+00 -3.272315e+00 1.872016e+00 -4.547490e+00 -4.991784e-01 5.838389e-01 -3.834693e-01 3.786672e-01 7.197630e-01 3.173825e-02 -4.930686e-02 6.346631e-02 3.904656e-02 2.307468e-01 -2.318112e-01 1.773552e-01 -4.339083e-01
<VARIANCE> 25
 2.003644e+01 1.765934e+01 2.260756e+01 1.398635e+01 3.844278e+01 4.966684e+01 3.489666e+01 2.207263e+01 1.876365e+01 3.976057e+01 1.877314e+01 1.355152e+01 6.942716e-01 5.880935e-01 1.923828e+00 9.617329e-01 2.914381e+00 2.091156e+00 2.453173e+00 1.144868e+00 1.521232e+00 1.523288e+00 1.986449e+00 1.028517e+00 4.324157e-01
<GCONST> 8.720314e+01
<STATE> 3
<MEAN> 25
 -1.508953e+01 1.289766e+01 -5.231119e-01 1.298227e+01 -2.289432e+00 -6.686790e+00 1.372445e+01 -2.848291e+00 -3.684306e+00 6.979600e+00 5.052002e+00 3.924062e+00 -7.285887e-01 1.071599e+00 -2.106379e+00 3.042486e-01 1.269937e+00 -9.488257e-01 1.713063e-01 7.174927e-01 1.016138e+00 -3.073983e-01 -1.313746e-01 -4.402447e-02 -5.675228e-02
<VARIANCE> 25
 1.027283e+02 5.155173e+01 4.083547e+01 5.726903e+01 7.659563e+01 3.973404e+01 2.148306e+02 2.813376e+01 2.325021e+01 1.362273e+02 4.667297e+01 1.913013e+01 7.737575e+00 3.208892e+00 2.597532e+00 7.285435e+00 1.122324e+01 5.568135e+00 5.700731e+00 4.984100e+00 1.678248e+00 3.010736e+00 3.280263e+00 7.637038e-01 2.469177e+00
<GCONST> 1.109381e+02
<STATE> 4
<MEAN> 25
 -3.455807e+00 1.273460e+00 -6.425722e-01 5.368603e+00 2.952906e+00 1.895019e+00 2.504491e+00 -3.168307e-01 3.038408e+00 1.095883e+00 3.021935e+00 4.898530e+00 -2.108428e-01 -3.059218e-02 -1.264441e-02 -3.092340e-02 3.157719e-02 -4.967358e-02 1.303734e-01 1.426660e-01 8.718693e-02 -4.578127e-02 -8.620620e-03 5.703389e-02 -6.774000e-02
<VARIANCE> 25
 1.649230e+01 1.878301e+01 1.724702e+01 1.022983e+01 2.744181e+01 2.756227e+01 3.356666e+01 2.624500e+01 1.938861e+01 1.747150e+01 1.630755e+01 1.513945e+01 4.170512e-01 5.462543e-01 9.372627e-01 7.713627e-01 1.073328e+00 1.053404e+00 1.485380e+00 1.494099e+00 1.410261e+00 1.940333e+00 1.153183e+00 1.214655e+00 2.153978e-01
<GCONST> 8.052415e+01
<TRANSP> 5
 0.000000e+00 1.000000e+00 0.000000e+00 0.000000e+00 0.000000e+00
 0.000000e+00 8.725620e-01 1.274381e-01 0.000000e+00 0.000000e+00
 0.000000e+00 0.000000e+00 6.831846e-01 3.168154e-01 0.000000e+00
 0.000000e+00 0.000000e+00 0.000000e+00 9.422137e-01 5.778631e-02
 0.000000e+00 0.000000e+00 0.000000e+00 0.000000e+00 0.000000e+00
<ENDHMM>
~h "y"
<BEGINHMM>
<NUMSTATES> 5
<STATE> 2
<MEAN> 25
 1.510101e+00 -7.301854e-01 9.582751e+00 -3.626989e+00 -7.989320e+00 -3.637594e+00 -1.197024e+00 2.505326e-02 -3.511596e+00 4.668559e-01 1.762173e+00 -6.511165e-02 -5.695923e-02 -9.637362e-01 5.917237e-01 -7.482734e-01 -1.077398e+00 -3.629934e-01 3.675373e-01 7.068628e-01 -2.408613e-01 3.642160e-02 4.428101e-01 2.780132e-02 1.007796e+00
<VARIANCE> 25
 2.201890e+01 5.183026e+01 6.952760e+01 7.818463e+01 7.314710e+01 7.129420e+01 6.718310e+01 7.561829e+01 5.784574e+01 5.333394e+01 5.517071e+01 3.942931e+01 1.541945e+00 3.755624e+00 5.888849e+00 4.613270e+00 4.950988e+00 4.482249e+00 5.024161e+00 5.743343e+00 4.321776e+00 4.066306e+00 4.002649e+00 2.838541e+00 2.131711e+00
<GCONST> 1.119732e+02
<STATE> 3
<MEAN> 25
 2.451030e+00 -6.319879e+00 6.306874e+00 -4.076554e+00 -9.167350e+00 -5.725891e+00 1.569582e+00 5.928197e+00 -2.205805e+00 -1.210309e+00 1.246758e+00 -5.516850e-01 1.647390e-01 -5.851957e-01 -1.072821e+00 2.174252e-01 9.175234e-01 1.477816e-01 2.316747e-01 5.831561e-01 3.973464e-01 -4.555024e-01 -7.135179e-01 -1.240942e-01 9.757677e-02
<VARIANCE> 25
 1.591758e+01 3.388035e+01 4.555265e+01 4.486618e+01 5.763633e+01 6.393970e+01 6.639142e+01 8.855035e+01 5.083282e+01 4.833621e+01 5.080587e+01 3.358148e+01 3.350196e-01 1.263350e+00 2.091180e+00 1.549326e+00 2.785405e+00 1.990814e+00 2.326501e+00 2.726002e+00 2.382578e+00 2.266162e+00 2.580669e+00 1.729851e+00 4.501681e-01
<GCONST> 9.825979e+01
<STATE> 4
<MEAN> 25
 1.037595e-01 -3.009197e+00 -5.200257e-01 -8.599007e-02 -6.998032e-01 -8.558944e-01 1.374552e+00 2.488328e+00 -3.362296e-01 -1.507622e+00 -5.274644e-01 6.307660e-01 1.599477e-02 3.042195e-02 -2.730127e-01 8.867662e-02 3.297637e-01 1.280403e-01 -7.105117e-02 -6.361052e-02 9.467233e-02 -1.469027e-02 -1.222566e-01 -4.119860e-02 -1.799342e-01
<VARIANCE> 25
 2.425972e+01 3.194950e+01 3.113946e+01 3.269669e+01 4.555857e+01 3.651992e+01 4.136241e+01 4.701401e+01 3.531228e+01 3.673800e+01 3.575411e+01 2.535396e+01 2.501335e-01 5.376922e-01 9.702209e-01 9.251597e-01 1.526792e+00 1.306099e+00 1.457019e+00 1.576542e+00 1.503903e+00 1.542570e+00 1.455374e+00 1.252428e+00 2.498695e-01
<GCONST> 8.795560e+01
<TRANSP> 5
 0.000000e+00 1.000000e+00 0.000000e+00 0.000000e+00 0.000000e+00
 0.000000e+00 7.057447e-01 2.942552e-01 0.000000e+00 0.000000e+00
 0.000000e+00 0.000000e+00 6.998832e-01 3.001167e-01 0.000000e+00
 0.000000e+00 0.000000e+00 0.000000e+00 8.124505e-01 1.875495e-01
 0.000000e+00 0.000000e+00 0.000000e+00 0.000000e+00 0.000000e+00
<ENDHMM>
~h "z"
<BEGINHMM>
<NUMSTATES> 5
<STATE> 2
<MEAN> 25
 -6.962284e+00 1.285834e+01 4.788419e+00 8.823801e+00 -6.402204e-01 -6.013731e+00 4.521600e+00 -6.462520e+00 -1.544926e+00 -4.543922e+00 2.850578e+00 9.823667e-01 -9.354360e-01 5.055171e-01 -2.544085e-01 4.609017e-01 4.982467e-01 -2.314638e-01 3.228648e-01 -9.260860e-02 5.922035e-01 -1.560182e-01 2.932884e-01 1.907843e-02 -1.747683e-02
<VARIANCE> 25
 4.273767e+01 6.752039e+01 5.046531e+01 5.994382e+01 6.568997e+01 7.591579e+01 6.472290e+01 3.884183e+01 5.646892e+01 5.409136e+01 3.569027e+01 3.579194e+01 3.686586e+00 4.461512e+00 3.766025e+00 4.136151e+00 5.835454e+00 5.349092e+00 5.414217e+00 3.233186e+00 5.176723e+00 3.825882e+00 3.670372e+00 2.604695e+00 1.082231e+00
<GCONST> 1.106222e+02
<STATE> 3
<MEAN> 25
 -2.750963e+00 -5.571473e+00 1.282959e+01 6.598529e+00 -4.888475e-01 7.972509e+00 -4.744047e+00 -1.143778e+01 6.650772e-01 -1.206807e+00 6.667558e-01 2.585817e-01 4.079848e-01 -6.263711e-01 9.973526e-03 -5.066125e-01 -6.129124e-01 -3.110941e-02 -2.095399e-01 1.300132e-01 8.756860e-02 3.049885e-02 8.952525e-02 2.081357e-01 4.918459e-01
<VARIANCE> 25
 5.728935e+01 1.037014e+02 1.434926e+02 1.182773e+02 9.159889e+01 1.889916e+02 7.292873e+01 6.716525e+01 6.470630e+01 5.978464e+01 4.283832e+01 5.527139e+01 4.334473e+00 5.185723e+00 1.016349e+01 5.278538e+00 4.858422e+00 9.557981e+00 4.644957e+00 5.225404e+00 6.290525e+00 4.335327e+00 3.718158e+00 3.316271e+00 1.978361e+00
<GCONST> 1.192845e+02
<STATE> 4
<MEAN> 25
 -4.073100e-01 1.696718e+00 7.144842e+00 3.252437e+00 -6.626173e+00 -3.792590e+00 -2.261938e+00 -5.782715e+00 -6.814691e+00 -1.736037e+00 5.009802e+00 2.851879e-01 1.785779e-01 -1.736023e-01 -1.947207e-01 -2.698294e-01 -2.804011e-03 -9.576387e-02 2.746452e-02 4.257029e-01 6.254625e-02 3.019351e-01 -4.181474e-03 9.060355e-02 -6.721921e-03
<VARIANCE> 25
 3.732918e+01 6.822671e+01 1.083598e+02 6.142654e+01 6.974751e+01 4.488078e+01 6.302090e+01 3.697052e+01 8.410970e+01 3.823822e+01 6.812980e+01 3.499715e+01 6.334139e-01 1.234671e+00 1.636004e+00 1.419405e+00 1.874123e+00 1.913398e+00 1.967644e+00 1.779798e+00 1.913729e+00 1.643055e+00 1.429135e+00 1.161732e+00 6.238348e-01
<GCONST> 9.855569e+01
<TRANSP> 5
 0.000000e+00 1.000000e+00 0.000000e+00 0.000000e+00 0.000000e+00
 0.000000e+00 8.257834e-01 1.742166e-01 0.000000e+00 0.000000e+00
 0.000000e+00 0.000000e+00 8.256115e-01 1.743885e-01 0.000000e+00
 0.000000e+00 0.000000e+00 0.000000e+00 7.800335e-01 2.199666e-01
 0.000000e+00 0.000000e+00 0.000000e+00 0.000000e+00 0.000000e+00
<ENDHMM>
~h "@h"
<BEGINHMM>
<NUMSTATES> 5
<STATE> 2
<MEAN> 25
 3.980424e+00 -7.221186e+00 -4.073438e+00 -1.075286e-01 -3.143197e+00 -2.895310e-01 1.103856e+00 -1.757168e+00 -2.370914e+00 4.412504e+00 -7.427721e+00 -1.209639e+01 -6.415781e-01 1.585211e-01 1.830733e-01 -2.980912e-01 4.565984e-01 3.935702e-01 -1.365793e-01 -1.254075e-01 -3.003969e-01 -3.343094e-01 3.599845e-01 5.197460e-01 -4.377044e-01
<VARIANCE> 25
 1.436458e+01 4.564123e+01 3.000961e+01 2.249571e+01 3.119207e+01 1.344304e+01 1.324475e+01 6.680058e+01 7.442408e+01 4.342231e+01 1.851805e+01 9.186799e+01 2.394246e-01 2.572061e+00 1.754336e+00 1.193434e+00 3.621954e+00 1.110807e+00 1.586780e+00 4.833678e+00 6.598475e+00 5.737346e+00 1.414197e+00 4.957351e+00 1.127703e+00
<GCONST> 9.667612e+01
<STATE> 3
<MEAN> 25
 2.779860e-01 -1.272428e+01 -5.433931e-01 -1.203673e+01 7.772435e+00 3.464596e+00 1.976170e+00 -3.882866e-01 1.020316e+01 -5.207494e+00 2.926346e+00 -9.070481e+00 -9.397034e-02 -1.432560e-01 -2.379658e-01 -1.626945e-01 3.315786e-01 2.616701e-01 -7.784607e-02 5.284493e-02 -3.275615e-01 1.974895e-01 8.114694e-02 3.176797e-01 -1.716861e-01
<VARIANCE> 25
 3.626009e+00 1.015847e+01 2.683393e+00 1.670683e+01 1.539754e+01 1.049185e+01 7.373841e+00 3.481426e+00 1.259985e+01 1.303326e+01 4.068371e+00 8.025205e+00 1.750184e-01 2.125966e-01 3.025087e-01 1.277065e-01 3.661801e-01 2.289138e-01 2.623143e-01 4.065168e-01 2.721637e-01 7.626626e-01 4.370271e-01 3.566591e-01 1.009276e-01
<GCONST> 5.328683e+01
<STATE> 4
<MEAN> 25
 3.679934e+00 -5.440806e+00 -2.294385e+00 -1.340101e+00 8.316727e+00 5.567442e+00 -5.508049e+00 1.079033e+01 8.426592e+00 -1.020186e+00 -2.486324e+00 -7.416940e+00 5.258242e-02 8.447984e-03 2.154211e-02 4.083908e-01 3.234876e-01 4.060955e-02 1.228983e-01 2.210349e-01 5.656616e-02 -1.024905e-01 -1.279221e-01 1.620120e-01 -1.448588e-01
<VARIANCE> 25
 3.199667e+01 1.970182e+01 1.745581e+01 4.920007e+01 1.550545e+01 1.769833e+01 5.290211e+01 2.325366e+01 2.674851e+01 1.260532e+01 3.017809e+01 5.846910e+01 1.078280e+00 7.739054e-01 1.780164e+00 8.834187e-01 1.661241e+00 1.477374e+00 1.970022e+00 2.560540e+00 3.606518e+00 1.012180e+00 2.994099e+00 1.745725e+00 1.397692e+00
<GCONST> 9.124602e+01
<TRANSP> 5
 0.000000e+00 1.000000e+00 0.000000e+00 0.000000e+00 0.000000e+00
 0.000000e+00 8.860050e-01 1.139950e-01 0.000000e+00 0.000000e+00
 0.000000e+00 0.000000e+00 9.113557e-01 8.864425e-02 0.000000e+00
 0.000000e+00 0.000000e+00 0.000000e+00 9.367096e-01 6.329037e-02
 0.000000e+00 0.000000e+00 0.000000e+00 0.000000e+00 0.000000e+00
<ENDHMM>
~h "@y"
<BEGINHMM>
<NUMSTATES> 5
<STATE> 2
<MEAN> 25
 2.191897e-09 1.090767e-09 9.583869e-09 -2.513970e-08 5.652961e-09 7.827195e-09 -1.173832e-08 8.083372e-09 -1.224114e-08 -9.614427e-09 -1.228777e-09 7.353112e-09 2.583278e-03 1.324474e-05 1.168407e-03 -2.654809e-04 1.189869e-03 -2.049740e-04 3.580089e-04 -4.413913e-04 -1.182725e-03 -4.290212e-04 -6.000486e-04 -5.767079e-04 3.082962e-03
<VARIANCE> 25
 5.948185e+01 5.523698e+01 6.956894e+01 6.305649e+01 6.882346e+01 6.596870e+01 5.749071e+01 5.935575e+01 5.307431e+01 4.762827e+01 4.651497e+01 3.710693e+01 2.306505e+00 2.816552e+00 2.879400e+00 3.320058e+00 3.620134e+00 3.535676e+00 3.444275e+00 3.604864e+00 3.328828e+00 3.069384e+00 2.973308e+00 2.428294e+00 2.668486e+00
<GCONST> 1.087549e+02
<STATE> 3
<MEAN> 25
 2.191897e-09 1.090767e-09 9.583869e-09 -2.513970e-08 5.652961e-09 7.827195e-09 -1.173832e-08 8.083372e-09 -1.224114e-08 -9.614427e-09 -1.228777e-09 7.353112e-09 2.583278e-03 1.324474e-05 1.168407e-03 -2.654809e-04 1.189869e-03 -2.049740e-04 3.580089e-04 -4.413913e-04 -1.182725e-03 -4.290212e-04 -6.000486e-04 -5.767079e-04 3.082962e-03
<VARIANCE> 25
 5.948185e+01 5.523698e+01 6.956894e+01 6.305649e+01 6.882346e+01 6.596870e+01 5.749071e+01 5.935575e+01 5.307431e+01 4.762827e+01 4.651497e+01 3.710693e+01 2.306505e+00 2.816552e+00 2.879400e+00 3.320058e+00 3.620134e+00 3.535676e+00 3.444275e+00 3.604864e+00 3.328828e+00 3.069384e+00 2.973308e+00 2.428294e+00 2.668486e+00
<GCONST> 1.087549e+02
<STATE> 4
<MEAN> 25
 2.191897e-09 1.090767e-09 9.583869e-09 -2.513970e-08 5.652961e-09 7.827195e-09 -1.173832e-08 8.083372e-09 -1.224114e-08 -9.614427e-09 -1.228777e-09 7.353112e-09 2.583278e-03 1.324474e-05 1.168407e-03 -2.654809e-04 1.189869e-03 -2.049740e-04 3.580089e-04 -4.413913e-04 -1.182725e-03 -4.290212e-04 -6.000486e-04 -5.767079e-04 3.082962e-03
<VARIANCE> 25
 5.948185e+01 5.523698e+01 6.956894e+01 6.305649e+01 6.882346e+01 6.596870e+01 5.749071e+01 5.935575e+01 5.307431e+01 4.762827e+01 4.651497e+01 3.710693e+01 2.306505e+00 2.816552e+00 2.879400e+00 3.320058e+00 3.620134e+00 3.535676e+00 3.444275e+00 3.604864e+00 3.328828e+00 3.069384e+00 2.973308e+00 2.428294e+00 2.668486e+00
<GCONST> 1.087549e+02
<TRANSP> 5
 0.000000e+00 1.000000e+00 0.000000e+00 0.000000e+00 0.000000e+00
 0.000000e+00 6.000000e-01 4.000000e-01 0.000000e+00 0.000000e+00
 0.000000e+00 0.000000e+00 6.000000e-01 4.000000e-01 0.000000e+00
 0.000000e+00 0.000000e+00 0.000000e+00 7.000000e-01 3.000000e-01
 0.000000e+00 0.000000e+00 0.000000e+00 0.000000e+00 0.000000e+00
<ENDHMM>
~h "ai"
<BEGINHMM>
<NUMSTATES> 5
<STATE> 2
<MEAN> 25
 4.647635e+00 -1.040562e+01 5.443554e+00 -5.532742e-01 -7.819209e+00 -8.081075e+00 -2.466787e+00 1.430361e+01 -1.880791e+00 -3.198082e+00 9.455661e+00 -3.242747e+00 -6.720852e-02 3.081268e-01 5.872384e-02 2.000369e-01 6.339610e-01 -1.259492e-01 6.397880e-01 2.299310e-01 -5.231447e-01 7.207371e-01 -2.257020e-01 4.161448e-01 -1.598441e-01
<VARIANCE> 25
 8.942360e+00 1.345932e+01 3.865272e+01 2.623960e+01 3.828138e+01 1.251107e+01 2.085203e+01 2.117980e+01 4.759198e+01 3.162870e+01 2.696275e+01 2.425845e+01 6.532156e-01 2.149228e+00 2.878011e+00 2.897135e+00 7.830550e+00 1.162343e+00 1.570099e+00 2.791057e+00 3.629756e+00 1.830413e+00 2.191187e+00 2.588856e+00 1.993150e+00
<GCONST> 9.418649e+01
<STATE> 3
<MEAN> 25
 -1.869119e+00 6.669043e-01 -3.638206e+00 2.009105e+00 -1.219320e+00 -4.580580e+00 4.428848e+00 9.909549e+00 1.012660e+01 6.782094e+00 3.173842e-01 2.811589e+00 -1.020163e+00 9.606268e-01 -1.114549e+00 -2.075546e-01 -2.349330e-01 -1.280946e-01 5.301750e-01 -4.927392e-01 1.144541e+00 6.007339e-01 -2.669322e-01 6.464646e-01 -1.296271e+00
<VARIANCE> 25
 2.497304e+01 1.252177e+01 5.755350e+01 2.775620e+01 2.152436e+01 2.071269e+01 2.255136e+01 2.545948e+01 4.106243e+01 2.061045e+01 2.452334e+01 2.613643e+01 1.372259e+00 1.872949e+00 2.124953e+00 2.167140e+00 2.768476e+00 9.468440e-01 2.659914e+00 2.828423e+00 6.134218e+00 2.482253e+00 3.223592e+00 2.101224e+00 9.227319e-01
<GCONST> 9.473351e+01
<STATE> 4
<MEAN> 25
 -5.278585e+00 2.181413e+00 -7.824696e+00 -4.895985e-01 -4.865236e+00 -8.379158e+00 3.806791e+00 6.070455e+00 8.490039e+00 3.755938e+00 -5.719159e-01 6.302754e+00 3.402475e-01 4.378926e-01 1.806896e-01 -1.410851e+00 7.852035e-01 9.502844e-01 -1.949869e+00 -2.398980e+00 -1.000775e+00 -2.316814e+00 -4.913170e-01 -8.024954e-01 -3.127798e-01
<VARIANCE> 25
 3.021292e+01 3.671676e+00 5.980164e+01 4.561022e+01 1.878555e+01 1.508012e+01 4.291091e+01 3.441335e+01 5.044508e+01 6.693161e+01 7.082217e+01 2.324897e+01 4.375095e+00 5.913674e-01 8.241554e-01 2.582426e+00 5.203477e+00 2.333683e+00 5.745020e+00 5.773418e+00 1.075340e+01 2.971353e+00 9.733224e+00 1.099058e+00 9.097421e-01
<GCONST> 1.004860e+02
<TRANSP> 5
 0.000000e+00 1.000000e+00 0.000000e+00 0.000000e+00 0.000000e+00
 0.000000e+00 8.968959e-01 1.031041e-01 0.000000e+00 0.000000e+00
 0.000000e+00 0.000000e+00 8.818263e-01 1.181737e-01 0.000000e+00
 0.000000e+00 0.000000e+00 0.000000e+00 5.036565e-01 4.963435e-01
 0.000000e+00 0.000000e+00 0.000000e+00 0.000000e+00 0.000000e+00
<ENDHMM>
~h "am"
<BEGINHMM>
<NUMSTATES> 5
<STATE> 2
<MEAN> 25
 2.191897e-09 1.090767e-09 9.583869e-09 -2.513970e-08 5.652961e-09 7.827195e-09 -1.173832e-08 8.083372e-09 -1.224114e-08 -9.614427e-09 -1.228777e-09 7.353112e-09 2.583278e-03 1.324474e-05 1.168407e-03 -2.654809e-04 1.189869e-03 -2.049740e-04 3.580089e-04 -4.413913e-04 -1.182725e-03 -4.290212e-04 -6.000486e-04 -5.767079e-04 3.082962e-03
<VARIANCE> 25
 5.948185e+01 5.523698e+01 6.956894e+01 6.305649e+01 6.882346e+01 6.596870e+01 5.749071e+01 5.935575e+01 5.307431e+01 4.762827e+01 4.651497e+01 3.710693e+01 2.306505e+00 2.816552e+00 2.879400e+00 3.320058e+00 3.620134e+00 3.535676e+00 3.444275e+00 3.604864e+00 3.328828e+00 3.069384e+00 2.973308e+00 2.428294e+00 2.668486e+00
<GCONST> 1.087549e+02
<STATE> 3
<MEAN> 25
 2.191897e-09 1.090767e-09 9.583869e-09 -2.513970e-08 5.652961e-09 7.827195e-09 -1.173832e-08 8.083372e-09 -1.224114e-08 -9.614427e-09 -1.228777e-09 7.353112e-09 2.583278e-03 1.324474e-05 1.168407e-03 -2.654809e-04 1.189869e-03 -2.049740e-04 3.580089e-04 -4.413913e-04 -1.182725e-03 -4.290212e-04 -6.000486e-04 -5.767079e-04 3.082962e-03
<VARIANCE> 25
 5.948185e+01 5.523698e+01 6.956894e+01 6.305649e+01 6.882346e+01 6.596870e+01 5.749071e+01 5.935575e+01 5.307431e+01 4.762827e+01 4.651497e+01 3.710693e+01 2.306505e+00 2.816552e+00 2.879400e+00 3.320058e+00 3.620134e+00 3.535676e+00 3.444275e+00 3.604864e+00 3.328828e+00 3.069384e+00 2.973308e+00 2.428294e+00 2.668486e+00
<GCONST> 1.087549e+02
<STATE> 4
<MEAN> 25
 2.191897e-09 1.090767e-09 9.583869e-09 -2.513970e-08 5.652961e-09 7.827195e-09 -1.173832e-08 8.083372e-09 -1.224114e-08 -9.614427e-09 -1.228777e-09 7.353112e-09 2.583278e-03 1.324474e-05 1.168407e-03 -2.654809e-04 1.189869e-03 -2.049740e-04 3.580089e-04 -4.413913e-04 -1.182725e-03 -4.290212e-04 -6.000486e-04 -5.767079e-04 3.082962e-03
<VARIANCE> 25
 5.948185e+01 5.523698e+01 6.956894e+01 6.305649e+01 6.882346e+01 6.596870e+01 5.749071e+01 5.935575e+01 5.307431e+01 4.762827e+01 4.651497e+01 3.710693e+01 2.306505e+00 2.816552e+00 2.879400e+00 3.320058e+00 3.620134e+00 3.535676e+00 3.444275e+00 3.604864e+00 3.328828e+00 3.069384e+00 2.973308e+00 2.428294e+00 2.668486e+00
<GCONST> 1.087549e+02
<TRANSP> 5
 0.000000e+00 1.000000e+00 0.000000e+00 0.000000e+00 0.000000e+00
 0.000000e+00 6.000000e-01 4.000000e-01 0.000000e+00 0.000000e+00
 0.000000e+00 0.000000e+00 6.000000e-01 4.000000e-01 0.000000e+00
 0.000000e+00 0.000000e+00 0.000000e+00 7.000000e-01 3.000000e-01
 0.000000e+00 0.000000e+00 0.000000e+00 0.000000e+00 0.000000e+00
<ENDHMM>
~h "an"
<BEGINHMM>
<NUMSTATES> 5
<STATE> 2
<MEAN> 25
 2.191897e-09 1.090767e-09 9.583869e-09 -2.513970e-08 5.652961e-09 7.827195e-09 -1.173832e-08 8.083372e-09 -1.224114e-08 -9.614427e-09 -1.228777e-09 7.353112e-09 2.583278e-03 1.324474e-05 1.168407e-03 -2.654809e-04 1.189869e-03 -2.049740e-04 3.580089e-04 -4.413913e-04 -1.182725e-03 -4.290212e-04 -6.000486e-04 -5.767079e-04 3.082962e-03
<VARIANCE> 25
 5.948185e+01 5.523698e+01 6.956894e+01 6.305649e+01 6.882346e+01 6.596870e+01 5.749071e+01 5.935575e+01 5.307431e+01 4.762827e+01 4.651497e+01 3.710693e+01 2.306505e+00 2.816552e+00 2.879400e+00 3.320058e+00 3.620134e+00 3.535676e+00 3.444275e+00 3.604864e+00 3.328828e+00 3.069384e+00 2.973308e+00 2.428294e+00 2.668486e+00
<GCONST> 1.087549e+02
<STATE> 3
<MEAN> 25
 2.191897e-09 1.090767e-09 9.583869e-09 -2.513970e-08 5.652961e-09 7.827195e-09 -1.173832e-08 8.083372e-09 -1.224114e-08 -9.614427e-09 -1.228777e-09 7.353112e-09 2.583278e-03 1.324474e-05 1.168407e-03 -2.654809e-04 1.189869e-03 -2.049740e-04 3.580089e-04 -4.413913e-04 -1.182725e-03 -4.290212e-04 -6.000486e-04 -5.767079e-04 3.082962e-03
<VARIANCE> 25
 5.948185e+01 5.523698e+01 6.956894e+01 6.305649e+01 6.882346e+01 6.596870e+01 5.749071e+01 5.935575e+01 5.307431e+01 4.762827e+01 4.651497e+01 3.710693e+01 2.306505e+00 2.816552e+00 2.879400e+00 3.320058e+00 3.620134e+00 3.535676e+00 3.444275e+00 3.604864e+00 3.328828e+00 3.069384e+00 2.973308e+00 2.428294e+00 2.668486e+00
<GCONST> 1.087549e+02
<STATE> 4
<MEAN> 25
 2.191897e-09 1.090767e-09 9.583869e-09 -2.513970e-08 5.652961e-09 7.827195e-09 -1.173832e-08 8.083372e-09 -1.224114e-08 -9.614427e-09 -1.228777e-09 7.353112e-09 2.583278e-03 1.324474e-05 1.168407e-03 -2.654809e-04 1.189869e-03 -2.049740e-04 3.580089e-04 -4.413913e-04 -1.182725e-03 -4.290212e-04 -6.000486e-04 -5.767079e-04 3.082962e-03
<VARIANCE> 25
 5.948185e+01 5.523698e+01 6.956894e+01 6.305649e+01 6.882346e+01 6.596870e+01 5.749071e+01 5.935575e+01 5.307431e+01 4.762827e+01 4.651497e+01 3.710693e+01 2.306505e+00 2.816552e+00 2.879400e+00 3.320058e+00 3.620134e+00 3.535676e+00 3.444275e+00 3.604864e+00 3.328828e+00 3.069384e+00 2.973308e+00 2.428294e+00 2.668486e+00
<GCONST> 1.087549e+02
<TRANSP> 5
 0.000000e+00 1.000000e+00 0.000000e+00 0.000000e+00 0.000000e+00
 0.000000e+00 6.000000e-01 4.000000e-01 0.000000e+00 0.000000e+00
 0.000000e+00 0.000000e+00 6.000000e-01 4.000000e-01 0.000000e+00
 0.000000e+00 0.000000e+00 0.000000e+00 7.000000e-01 3.000000e-01
 0.000000e+00 0.000000e+00 0.000000e+00 0.000000e+00 0.000000e+00
<ENDHMM>
~h "ap"
<BEGINHMM>
<NUMSTATES> 5
<STATE> 2
<MEAN> 25
 2.191897e-09 1.090767e-09 9.583869e-09 -2.513970e-08 5.652961e-09 7.827195e-09 -1.173832e-08 8.083372e-09 -1.224114e-08 -9.614427e-09 -1.228777e-09 7.353112e-09 2.583278e-03 1.324474e-05 1.168407e-03 -2.654809e-04 1.189869e-03 -2.049740e-04 3.580089e-04 -4.413913e-04 -1.182725e-03 -4.290212e-04 -6.000486e-04 -5.767079e-04 3.082962e-03
<VARIANCE> 25
 5.948185e+01 5.523698e+01 6.956894e+01 6.305649e+01 6.882346e+01 6.596870e+01 5.749071e+01 5.935575e+01 5.307431e+01 4.762827e+01 4.651497e+01 3.710693e+01 2.306505e+00 2.816552e+00 2.879400e+00 3.320058e+00 3.620134e+00 3.535676e+00 3.444275e+00 3.604864e+00 3.328828e+00 3.069384e+00 2.973308e+00 2.428294e+00 2.668486e+00
<GCONST> 1.087549e+02
<STATE> 3
<MEAN> 25
 2.191897e-09 1.090767e-09 9.583869e-09 -2.513970e-08 5.652961e-09 7.827195e-09 -1.173832e-08 8.083372e-09 -1.224114e-08 -9.614427e-09 -1.228777e-09 7.353112e-09 2.583278e-03 1.324474e-05 1.168407e-03 -2.654809e-04 1.189869e-03 -2.049740e-04 3.580089e-04 -4.413913e-04 -1.182725e-03 -4.290212e-04 -6.000486e-04 -5.767079e-04 3.082962e-03
<VARIANCE> 25
 5.948185e+01 5.523698e+01 6.956894e+01 6.305649e+01 6.882346e+01 6.596870e+01 5.749071e+01 5.935575e+01 5.307431e+01 4.762827e+01 4.651497e+01 3.710693e+01 2.306505e+00 2.816552e+00 2.879400e+00 3.320058e+00 3.620134e+00 3.535676e+00 3.444275e+00 3.604864e+00 3.328828e+00 3.069384e+00 2.973308e+00 2.428294e+00 2.668486e+00
<GCONST> 1.087549e+02
<STATE> 4
<MEAN> 25
 2.191897e-09 1.090767e-09 9.583869e-09 -2.513970e-08 5.652961e-09 7.827195e-09 -1.173832e-08 8.083372e-09 -1.224114e-08 -9.614427e-09 -1.228777e-09 7.353112e-09 2.583278e-03 1.324474e-05 1.168407e-03 -2.654809e-04 1.189869e-03 -2.049740e-04 3.580089e-04 -4.413913e-04 -1.182725e-03 -4.290212e-04 -6.000486e-04 -5.767079e-04 3.082962e-03
<VARIANCE> 25
 5.948185e+01 5.523698e+01 6.956894e+01 6.305649e+01 6.882346e+01 6.596870e+01 5.749071e+01 5.935575e+01 5.307431e+01 4.762827e+01 4.651497e+01 3.710693e+01 2.306505e+00 2.816552e+00 2.879400e+00 3.320058e+00 3.620134e+00 3.535676e+00 3.444275e+00 3.604864e+00 3.328828e+00 3.069384e+00 2.973308e+00 2.428294e+00 2.668486e+00
<GCONST> 1.087549e+02
<TRANSP> 5
 0.000000e+00 1.000000e+00 0.000000e+00 0.000000e+00 0.000000e+00
 0.000000e+00 6.000000e-01 4.000000e-01 0.000000e+00 0.000000e+00
 0.000000e+00 0.000000e+00 6.000000e-01 4.000000e-01 0.000000e+00
 0.000000e+00 0.000000e+00 0.000000e+00 7.000000e-01 3.000000e-01
 0.000000e+00 0.000000e+00 0.000000e+00 0.000000e+00 0.000000e+00
<ENDHMM>
~h "at"
<BEGINHMM>
<NUMSTATES> 5
<STATE> 2
<MEAN> 25
 2.191897e-09 1.090767e-09 9.583869e-09 -2.513970e-08 5.652961e-09 7.827195e-09 -1.173832e-08 8.083372e-09 -1.224114e-08 -9.614427e-09 -1.228777e-09 7.353112e-09 2.583278e-03 1.324474e-05 1.168407e-03 -2.654809e-04 1.189869e-03 -2.049740e-04 3.580089e-04 -4.413913e-04 -1.182725e-03 -4.290212e-04 -6.000486e-04 -5.767079e-04 3.082962e-03
<VARIANCE> 25
 5.948185e+01 5.523698e+01 6.956894e+01 6.305649e+01 6.882346e+01 6.596870e+01 5.749071e+01 5.935575e+01 5.307431e+01 4.762827e+01 4.651497e+01 3.710693e+01 2.306505e+00 2.816552e+00 2.879400e+00 3.320058e+00 3.620134e+00 3.535676e+00 3.444275e+00 3.604864e+00 3.328828e+00 3.069384e+00 2.973308e+00 2.428294e+00 2.668486e+00
<GCONST> 1.087549e+02
<STATE> 3
<MEAN> 25
 2.191897e-09 1.090767e-09 9.583869e-09 -2.513970e-08 5.652961e-09 7.827195e-09 -1.173832e-08 8.083372e-09 -1.224114e-08 -9.614427e-09 -1.228777e-09 7.353112e-09 2.583278e-03 1.324474e-05 1.168407e-03 -2.654809e-04 1.189869e-03 -2.049740e-04 3.580089e-04 -4.413913e-04 -1.182725e-03 -4.290212e-04 -6.000486e-04 -5.767079e-04 3.082962e-03
<VARIANCE> 25
 5.948185e+01 5.523698e+01 6.956894e+01 6.305649e+01 6.882346e+01 6.596870e+01 5.749071e+01 5.935575e+01 5.307431e+01 4.762827e+01 4.651497e+01 3.710693e+01 2.306505e+00 2.816552e+00 2.879400e+00 3.320058e+00 3.620134e+00 3.535676e+00 3.444275e+00 3.604864e+00 3.328828e+00 3.069384e+00 2.973308e+00 2.428294e+00 2.668486e+00
<GCONST> 1.087549e+02
<STATE> 4
<MEAN> 25
 2.191897e-09 1.090767e-09 9.583869e-09 -2.513970e-08 5.652961e-09 7.827195e-09 -1.173832e-08 8.083372e-09 -1.224114e-08 -9.614427e-09 -1.228777e-09 7.353112e-09 2.583278e-03 1.324474e-05 1.168407e-03 -2.654809e-04 1.189869e-03 -2.049740e-04 3.580089e-04 -4.413913e-04 -1.182725e-03 -4.290212e-04 -6.000486e-04 -5.767079e-04 3.082962e-03
<VARIANCE> 25
 5.948185e+01 5.523698e+01 6.956894e+01 6.305649e+01 6.882346e+01 6.596870e+01 5.749071e+01 5.935575e+01 5.307431e+01 4.762827e+01 4.651497e+01 3.710693e+01 2.306505e+00 2.816552e+00 2.879400e+00 3.320058e+00 3.620134e+00 3.535676e+00 3.444275e+00 3.604864e+00 3.328828e+00 3.069384e+00 2.973308e+00 2.428294e+00 2.668486e+00
<GCONST> 1.087549e+02
<TRANSP> 5
 0.000000e+00 1.000000e+00 0.000000e+00 0.000000e+00 0.000000e+00
 0.000000e+00 6.000000e-01 4.000000e-01 0.000000e+00 0.000000e+00
 0.000000e+00 0.000000e+00 6.000000e-01 4.000000e-01 0.000000e+00
 0.000000e+00 0.000000e+00 0.000000e+00 7.000000e-01 3.000000e-01
 0.000000e+00 0.000000e+00 0.000000e+00 0.000000e+00 0.000000e+00
<ENDHMM>
~h "au"
<BEGINHMM>
<NUMSTATES> 5
<STATE> 2
<MEAN> 25
 2.191897e-09 1.090767e-09 9.583869e-09 -2.513970e-08 5.652961e-09 7.827195e-09 -1.173832e-08 8.083372e-09 -1.224114e-08 -9.614427e-09 -1.228777e-09 7.353112e-09 2.583278e-03 1.324474e-05 1.168407e-03 -2.654809e-04 1.189869e-03 -2.049740e-04 3.580089e-04 -4.413913e-04 -1.182725e-03 -4.290212e-04 -6.000486e-04 -5.767079e-04 3.082962e-03
<VARIANCE> 25
 5.948185e+01 5.523698e+01 6.956894e+01 6.305649e+01 6.882346e+01 6.596870e+01 5.749071e+01 5.935575e+01 5.307431e+01 4.762827e+01 4.651497e+01 3.710693e+01 2.306505e+00 2.816552e+00 2.879400e+00 3.320058e+00 3.620134e+00 3.535676e+00 3.444275e+00 3.604864e+00 3.328828e+00 3.069384e+00 2.973308e+00 2.428294e+00 2.668486e+00
<GCONST> 1.087549e+02
<STATE> 3
<MEAN> 25
 2.191897e-09 1.090767e-09 9.583869e-09 -2.513970e-08 5.652961e-09 7.827195e-09 -1.173832e-08 8.083372e-09 -1.224114e-08 -9.614427e-09 -1.228777e-09 7.353112e-09 2.583278e-03 1.324474e-05 1.168407e-03 -2.654809e-04 1.189869e-03 -2.049740e-04 3.580089e-04 -4.413913e-04 -1.182725e-03 -4.290212e-04 -6.000486e-04 -5.767079e-04 3.082962e-03
<VARIANCE> 25
 5.948185e+01 5.523698e+01 6.956894e+01 6.305649e+01 6.882346e+01 6.596870e+01 5.749071e+01 5.935575e+01 5.307431e+01 4.762827e+01 4.651497e+01 3.710693e+01 2.306505e+00 2.816552e+00 2.879400e+00 3.320058e+00 3.620134e+00 3.535676e+00 3.444275e+00 3.604864e+00 3.328828e+00 3.069384e+00 2.973308e+00 2.428294e+00 2.668486e+00
<GCONST> 1.087549e+02
<STATE> 4
<MEAN> 25
 2.191897e-09 1.090767e-09 9.583869e-09 -2.513970e-08 5.652961e-09 7.827195e-09 -1.173832e-08 8.083372e-09 -1.224114e-08 -9.614427e-09 -1.228777e-09 7.353112e-09 2.583278e-03 1.324474e-05 1.168407e-03 -2.654809e-04 1.189869e-03 -2.049740e-04 3.580089e-04 -4.413913e-04 -1.182725e-03 -4.290212e-04 -6.000486e-04 -5.767079e-04 3.082962e-03
<VARIANCE> 25
 5.948185e+01 5.523698e+01 6.956894e+01 6.305649e+01 6.882346e+01 6.596870e+01 5.749071e+01 5.935575e+01 5.307431e+01 4.762827e+01 4.651497e+01 3.710693e+01 2.306505e+00 2.816552e+00 2.879400e+00 3.320058e+00 3.620134e+00 3.535676e+00 3.444275e+00 3.604864e+00 3.328828e+00 3.069384e+00 2.973308e+00 2.428294e+00 2.668486e+00
<GCONST> 1.087549e+02
<TRANSP> 5
 0.000000e+00 1.000000e+00 0.000000e+00 0.000000e+00 0.000000e+00
 0.000000e+00 6.000000e-01 4.000000e-01 0.000000e+00 0.000000e+00
 0.000000e+00 0.000000e+00 6.000000e-01 4.000000e-01 0.000000e+00
 0.000000e+00 0.000000e+00 0.000000e+00 7.000000e-01 3.000000e-01
 0.000000e+00 0.000000e+00 0.000000e+00 0.000000e+00 0.000000e+00
<ENDHMM>
~h "aw"
<BEGINHMM>
<NUMSTATES> 5
<STATE> 2
<MEAN> 25
 6.423155e+00 -9.368968e+00 -6.715020e+00 -1.067343e+01 2.010811e+00 1.088581e+01 -4.098135e-01 -2.682068e+00 1.263802e+01 -7.927697e-01 -4.491978e+00 -4.040700e+00 4.056494e-01 2.091274e-01 1.403448e-01 -1.538121e+00 1.894342e-01 1.385587e+00 -9.082209e-02 -4.242426e-01 -1.016889e+00 1.897955e-01 6.186852e-01 8.583532e-02 -4.274445e-01
<VARIANCE> 25
 1.795282e+01 1.134345e+02 2.399702e+01 9.135542e+01 1.041591e+02 6.377025e+01 8.004628e+01 8.160201e+01 7.004411e+01 9.582510e+01 1.171461e+02 5.208516e+01 9.314350e-01 2.654436e+00 1.766531e+00 4.138715e+00 3.454041e+00 3.820553e+00 2.131163e+00 5.144156e+00 2.910617e+00 2.952312e+00 2.817940e+00 3.113919e+00 1.908494e+00
<GCONST> 1.092104e+02
<STATE> 3
<MEAN> 25
 9.422578e+00 2.024265e+00 -5.140369e+00 -1.659448e+01 -6.158097e+00 1.218851e+01 -5.695865e-02 -2.990136e+00 1.000519e-01 -1.638030e-01 4.547242e+00 2.051967e+00 -3.223470e-02 6.074653e-01 -5.232447e-02 7.372630e-01 -1.103360e-01 -3.835679e-01 6.419020e-01 7.217626e-02 -2.848306e-01 -3.845672e-01 -3.254414e-02 -1.476167e-01 -8.558590e-01
<VARIANCE> 25
 1.958268e+01 5.791899e+01 2.997350e+01 5.818510e+01 3.416766e+01 4.662752e+01 5.212848e+01 1.811268e+01 3.419664e+01 3.302749e+01 2.546996e+01 2.971198e+01 1.121211e+00 3.549631e+00 1.941575e+00 2.614692e+00 2.334504e+00 2.632964e+00 2.471854e+00 1.736833e+00 2.817300e+00 2.507318e+00 1.797445e+00 4.232754e+00 1.582430e+00
<GCONST> 9.904889e+01
<STATE> 4
<MEAN> 25
 -8.407995e+00 2.917826e+00 2.047596e+00 8.019451e+00 -1.581909e+00 -4.530684e-01 -2.231772e+00 4.692342e+00 -1.856925e+00 -4.905578e+00 1.329671e+00 -4.792766e+00 -6.267509e-01 -5.369952e-01 -2.816990e-01 5.586981e-01 5.360779e-01 -3.765427e-01 9.867190e-02 -1.531737e-01 2.720082e-01 4.262051e-02 -3.748143e-01 1.720360e-01 5.383620e-02
<VARIANCE> 25
 1.179897e+02 4.248349e+01 1.001099e+02 1.678611e+02 1.163956e+02 3.143187e+02 1.147743e+02 5.176866e+01 7.843488e+01 6.436956e+01 6.451373e+01 6.071312e+01 1.848718e+00 1.119170e+00 4.681077e+00 3.725929e+00 5.115018e+00 4.683776e+00 4.985359e+00 3.594216e+00 4.676620e+00 4.352665e+00 4.679756e+00 4.207605e+00 1.120133e+00
<GCONST> 1.159481e+02
<TRANSP> 5
 0.000000e+00 1.000000e+00 0.000000e+00 0.000000e+00 0.000000e+00
 0.000000e+00 8.684324e-01 1.315676e-01 0.000000e+00 0.000000e+00
 0.000000e+00 0.000000e+00 8.851329e-01 1.148671e-01 0.000000e+00
 0.000000e+00 0.000000e+00 0.000000e+00 8.158499e-01 1.841501e-01
 0.000000e+00 0.000000e+00 0.000000e+00 0.000000e+00 0.000000e+00
<ENDHMM>
~h "ay"
<BEGINHMM>
<NUMSTATES> 5
<STATE> 2
<MEAN> 25
 3.546074e+00 -1.059748e+01 -2.174668e+00 -3.588430e+00 -4.407116e+00 -4.335652e+00 4.999522e+00 7.493261e+00 2.687154e+00 -3.924748e+00 -2.159387e+00 -1.642210e+00 -1.881761e-01 -9.242652e-02 1.393347e+00 -4.906096e-02 -1.276857e+00 -5.460596e-01 7.178872e-01 2.022496e-01 -7.368514e-01 3.867204e-02 6.305075e-01 3.905095e-01 -3.662843e-03
<VARIANCE> 25
 1.926233e+01 2.204937e+01 4.847385e+01 2.973387e+01 3.938383e+01 4.014574e+01 5.136879e+01 4.475271e+01 5.002191e+01 4.028111e+01 4.769886e+01 3.424581e+01 5.822186e-01 1.782984e+00 3.420824e+00 2.094461e+00 3.937785e+00 2.867579e+00 2.590249e+00 3.777745e+00 2.453054e+00 4.307208e+00 3.406801e+00 2.113494e+00 4.551409e-01
<GCONST> 9.964066e+01
<STATE> 3
<MEAN> 25
 2.054886e+00 -4.313765e+00 9.146105e+00 -5.115368e+00 -1.237406e+01 -5.321123e+00 3.106357e+00 1.031657e+00 -1.233716e+00 2.149732e+00 3.000089e+00 -4.975307e-01 -2.469262e-01 1.433009e+00 8.529156e-01 3.406850e-01 -1.500253e-01 3.193870e-01 -5.703291e-01 -1.211558e+00 -1.968923e-01 6.064079e-01 1.166721e-01 4.214386e-01 -1.144326e+00
<VARIANCE> 25
 1.544073e+01 3.462125e+01 5.937754e+01 4.123210e+01 3.915978e+01 6.421416e+01 4.958005e+01 6.833800e+01 5.317940e+01 4.550962e+01 5.702844e+01 2.644558e+01 5.711033e-01 1.162603e+00 3.375922e+00 2.676249e+00 2.626481e+00 2.458656e+00 3.359614e+00 4.157503e+00 3.801077e+00 3.104930e+00 2.973082e+00 2.325809e+00 1.167051e+00
<GCONST> 1.019497e+02
<STATE> 4
<MEAN> 25
 -1.175611e+00 1.747647e+00 4.498463e+00 2.148432e+00 -6.976274e+00 -7.597976e-01 1.169032e-01 -2.360061e-01 -3.595774e-01 6.656483e-01 2.883243e+00 2.154368e+00 -4.098149e-01 2.509847e-01 -6.105322e-01 5.601938e-01 8.339587e-01 4.746453e-01 -1.985209e-01 2.389868e-01 2.411940e-01 -1.858932e-01 -8.508570e-03 1.709461e-01 -9.274408e-01
<VARIANCE> 25
 4.134905e+01 4.294363e+01 4.996876e+01 4.242174e+01 6.124787e+01 8.137600e+01 5.288927e+01 5.776240e+01 6.443973e+01 3.348425e+01 4.452224e+01 2.592281e+01 4.898178e-01 9.709730e-01 2.438354e+00 2.082838e+00 2.397343e+00 2.564899e+00 2.078453e+00 2.764255e+00 2.519441e+00 2.465459e+00 1.896870e+00 1.694275e+00 1.081642e+00
<GCONST> 9.987329e+01
<TRANSP> 5
 0.000000e+00 1.000000e+00 0.000000e+00 0.000000e+00 0.000000e+00
 0.000000e+00 7.877238e-01 2.122762e-01 0.000000e+00 0.000000e+00
 0.000000e+00 0.000000e+00 7.939809e-01 2.060190e-01 0.000000e+00
 0.000000e+00 0.000000e+00 0.000000e+00 8.038999e-01 1.961001e-01
 0.000000e+00 0.000000e+00 0.000000e+00 0.000000e+00 0.000000e+00
<ENDHMM>
~h "be"
<BEGINHMM>
<NUMSTATES> 5
<STATE> 2
<MEAN> 25
 2.191897e-09 1.090767e-09 9.583869e-09 -2.513970e-08 5.652961e-09 7.827195e-09 -1.173832e-08 8.083372e-09 -1.224114e-08 -9.614427e-09 -1.228777e-09 7.353112e-09 2.583278e-03 1.324474e-05 1.168407e-03 -2.654809e-04 1.189869e-03 -2.049740e-04 3.580089e-04 -4.413913e-04 -1.182725e-03 -4.290212e-04 -6.000486e-04 -5.767079e-04 3.082962e-03
<VARIANCE> 25
 5.948185e+01 5.523698e+01 6.956894e+01 6.305649e+01 6.882346e+01 6.596870e+01 5.749071e+01 5.935575e+01 5.307431e+01 4.762827e+01 4.651497e+01 3.710693e+01 2.306505e+00 2.816552e+00 2.879400e+00 3.320058e+00 3.620134e+00 3.535676e+00 3.444275e+00 3.604864e+00 3.328828e+00 3.069384e+00 2.973308e+00 2.428294e+00 2.668486e+00
<GCONST> 1.087549e+02
<STATE> 3
<MEAN> 25
 2.191897e-09 1.090767e-09 9.583869e-09 -2.513970e-08 5.652961e-09 7.827195e-09 -1.173832e-08 8.083372e-09 -1.224114e-08 -9.614427e-09 -1.228777e-09 7.353112e-09 2.583278e-03 1.324474e-05 1.168407e-03 -2.654809e-04 1.189869e-03 -2.049740e-04 3.580089e-04 -4.413913e-04 -1.182725e-03 -4.290212e-04 -6.000486e-04 -5.767079e-04 3.082962e-03
<VARIANCE> 25
 5.948185e+01 5.523698e+01 6.956894e+01 6.305649e+01 6.882346e+01 6.596870e+01 5.749071e+01 5.935575e+01 5.307431e+01 4.762827e+01 4.651497e+01 3.710693e+01 2.306505e+00 2.816552e+00 2.879400e+00 3.320058e+00 3.620134e+00 3.535676e+00 3.444275e+00 3.604864e+00 3.328828e+00 3.069384e+00 2.973308e+00 2.428294e+00 2.668486e+00
<GCONST> 1.087549e+02
<STATE> 4
<MEAN> 25
 2.191897e-09 1.090767e-09 9.583869e-09 -2.513970e-08 5.652961e-09 7.827195e-09 -1.173832e-08 8.083372e-09 -1.224114e-08 -9.614427e-09 -1.228777e-09 7.353112e-09 2.583278e-03 1.324474e-05 1.168407e-03 -2.654809e-04 1.189869e-03 -2.049740e-04 3.580089e-04 -4.413913e-04 -1.182725e-03 -4.290212e-04 -6.000486e-04 -5.767079e-04 3.082962e-03
<VARIANCE> 25
 5.948185e+01 5.523698e+01 6.956894e+01 6.305649e+01 6.882346e+01 6.596870e+01 5.749071e+01 5.935575e+01 5.307431e+01 4.762827e+01 4.651497e+01 3.710693e+01 2.306505e+00 2.816552e+00 2.879400e+00 3.320058e+00 3.620134e+00 3.535676e+00 3.444275e+00 3.604864e+00 3.328828e+00 3.069384e+00 2.973308e+00 2.428294e+00 2.668486e+00
<GCONST> 1.087549e+02
<TRANSP> 5
 0.000000e+00 1.000000e+00 0.000000e+00 0.000000e+00 0.000000e+00
 0.000000e+00 6.000000e-01 4.000000e-01 0.000000e+00 0.000000e+00
 0.000000e+00 0.000000e+00 6.000000e-01 4.000000e-01 0.000000e+00
 0.000000e+00 0.000000e+00 0.000000e+00 7.000000e-01 3.000000e-01
 0.000000e+00 0.000000e+00 0.000000e+00 0.000000e+00 0.000000e+00
<ENDHMM>
~h "br"
<BEGINHMM>
<NUMSTATES> 5
<STATE> 2
<MEAN> 25
 2.191897e-09 1.090767e-09 9.583869e-09 -2.513970e-08 5.652961e-09 7.827195e-09 -1.173832e-08 8.083372e-09 -1.224114e-08 -9.614427e-09 -1.228777e-09 7.353112e-09 2.583278e-03 1.324474e-05 1.168407e-03 -2.654809e-04 1.189869e-03 -2.049740e-04 3.580089e-04 -4.413913e-04 -1.182725e-03 -4.290212e-04 -6.000486e-04 -5.767079e-04 3.082962e-03
<VARIANCE> 25
 5.948185e+01 5.523698e+01 6.956894e+01 6.305649e+01 6.882346e+01 6.596870e+01 5.749071e+01 5.935575e+01 5.307431e+01 4.762827e+01 4.651497e+01 3.710693e+01 2.306505e+00 2.816552e+00 2.879400e+00 3.320058e+00 3.620134e+00 3.535676e+00 3.444275e+00 3.604864e+00 3.328828e+00 3.069384e+00 2.973308e+00 2.428294e+00 2.668486e+00
<GCONST> 1.087549e+02
<STATE> 3
<MEAN> 25
 2.191897e-09 1.090767e-09 9.583869e-09 -2.513970e-08 5.652961e-09 7.827195e-09 -1.173832e-08 8.083372e-09 -1.224114e-08 -9.614427e-09 -1.228777e-09 7.353112e-09 2.583278e-03 1.324474e-05 1.168407e-03 -2.654809e-04 1.189869e-03 -2.049740e-04 3.580089e-04 -4.413913e-04 -1.182725e-03 -4.290212e-04 -6.000486e-04 -5.767079e-04 3.082962e-03
<VARIANCE> 25
 5.948185e+01 5.523698e+01 6.956894e+01 6.305649e+01 6.882346e+01 6.596870e+01 5.749071e+01 5.935575e+01 5.307431e+01 4.762827e+01 4.651497e+01 3.710693e+01 2.306505e+00 2.816552e+00 2.879400e+00 3.320058e+00 3.620134e+00 3.535676e+00 3.444275e+00 3.604864e+00 3.328828e+00 3.069384e+00 2.973308e+00 2.428294e+00 2.668486e+00
<GCONST> 1.087549e+02
<STATE> 4
<MEAN> 25
 2.191897e-09 1.090767e-09 9.583869e-09 -2.513970e-08 5.652961e-09 7.827195e-09 -1.173832e-08 8.083372e-09 -1.224114e-08 -9.614427e-09 -1.228777e-09 7.353112e-09 2.583278e-03 1.324474e-05 1.168407e-03 -2.654809e-04 1.189869e-03 -2.049740e-04 3.580089e-04 -4.413913e-04 -1.182725e-03 -4.290212e-04 -6.000486e-04 -5.767079e-04 3.082962e-03
<VARIANCE> 25
 5.948185e+01 5.523698e+01 6.956894e+01 6.305649e+01 6.882346e+01 6.596870e+01 5.749071e+01 5.935575e+01 5.307431e+01 4.762827e+01 4.651497e+01 3.710693e+01 2.306505e+00 2.816552e+00 2.879400e+00 3.320058e+00 3.620134e+00 3.535676e+00 3.444275e+00 3.604864e+00 3.328828e+00 3.069384e+00 2.973308e+00 2.428294e+00 2.668486e+00
<GCONST> 1.087549e+02
<TRANSP> 5
 0.000000e+00 1.000000e+00 0.000000e+00 0.000000e+00 0.000000e+00
 0.000000e+00 6.000000e-01 4.000000e-01 0.000000e+00 0.000000e+00
 0.000000e+00 0.000000e+00 6.000000e-01 4.000000e-01 0.000000e+00
 0.000000e+00 0.000000e+00 0.000000e+00 7.000000e-01 3.000000e-01
 0.000000e+00 0.000000e+00 0.000000e+00 0.000000e+00 0.000000e+00
<ENDHMM>
~h "bu"
<BEGINHMM>
