~o
<STREAMINFO> 1 25
<VECSIZE> 25<NULLD><MFCC_D_N_Z_0><DIAGC>
~s "silst"
<MEAN> 25
 -7.490392e+00 2.322689e+00 -1.813161e+00 4.351614e+00 4.021174e+00 3.466413e+00 3.600762e+00 2.533082e+00 1.515300e+00 1.406473e+00 1.732201e+00 3.237997e+00 -1.194337e-01 1.009834e-02 -1.236440e-02 2.407246e-02 2.889423e-02 2.755417e-02 2.284151e-02 8.386005e-03 2.290022e-03 2.313566e-02 2.488958e-02 1.331626e-02 -1.265491e-01
<VARIANCE> 25
 3.182556e+01 3.050606e+01 2.737820e+01 3.061067e+01 3.437961e+01 3.711265e+01 2.973980e+01 3.259340e+01 3.312759e+01 3.819270e+01 2.950843e+01 2.283152e+01 4.743526e-01 7.145838e-01 8.624421e-01 1.045171e+00 1.322574e+00 1.520835e+00 1.569618e+00 1.683425e+00 1.710037e+00 1.684335e+00 1.540172e+00 1.398777e+00 3.644151e-01
<GCONST> 8.854082e+01
~h "@"
<BEGINHMM>
<NUMSTATES> 5
<STATE> 2
<MEAN> 25
 2.932565e+00 -6.960384e-01 -6.606621e-01 -1.157512e+00 -1.078041e+00 -2.028750e+00 -2.298293e+00 -1.253978e+00 7.954117e-01 8.123163e-01 1.141332e-01 -8.848479e-01 1.583954e+00 -4.828444e-01 -2.765593e-02 -5.916549e-01 -7.565899e-01 -3.913693e-01 -8.113378e-01 3.466784e-02 1.179263e-01 -7.825382e-02 -2.510928e-01 -4.838994e-01 1.190468e+00
<VARIANCE> 25
 4.367712e+01 4.996374e+01 5.352535e+01 5.514050e+01 6.402427e+01 7.476112e+01 6.263680e+01 6.279404e+01 5.967532e+01 5.131729e+01 4.544265e+01 3.709277e+01 5.421942e+00 5.889977e+00 5.223346e+00 6.017632e+00 6.340210e+00 7.195089e+00 6.601587e+00 6.926807e+00 6.361982e+00 5.791495e+00 5.099080e+00 4.091405e+00 4.966213e+00
<GCONST> 1.166346e+02
<STATE> 3
<MEAN> 25
 4.988928e+00 -2.022440e+00 -9.516788e-01 -2.235351e+00 -2.170629e+00 -2.749229e+00 -3.642934e+00 -7.749305e-01 1.160979e+00 6.619341e-01 -3.724957e-02 -1.526052e+00 7.320921e-01 -3.166075e-02 1.423694e-01 1.093109e-01 -2.582030e-01 9.624148e-02 -1.678336e-01 7.826462e-02 -5.998918e-02 -1.173585e-01 -2.443573e-01 -1.683018e-01 7.584545e-02
<VARIANCE> 25
 2.787507e+01 4.425280e+01 5.051421e+01 5.309211e+01 6.168688e+01 7.191834e+01 5.956732e+01 6.270448e+01 5.828345e+01 5.625941e+01 4.626199e+01 3.735300e+01 2.875628e+00 4.205633e+00 3.898531e+00 5.049657e+00 4.886134e+00 5.470417e+00 5.067252e+00 5.817123e+00 5.030430e+00 4.604850e+00 4.146370e+00 3.368558e+00 3.432745e+00
<GCONST> 1.122867e+02
<STATE> 4
<MEAN> 25
 4.746478e+00 -1.564127e+00 2.174565e-01 -1.372393e+00 -2.522880e+00 -3.007627e+00 -2.839588e+00 -2.200216e-01 5.243938e-01 6.275933e-01 -1.260890e-01 -1.444862e+00 -1.144929e-01 5.465648e-01 2.399487e-01 6.417328e-01 3.111043e-01 4.360054e-01 3.418486e-01 -1.147940e-01 -1.700278e-01 -9.770335e-02 -1.636121e-01 9.508382e-02 -7.836081e-01
<VARIANCE> 25
 2.550142e+01 4.895704e+01 5.445370e+01 5.376781e+01 6.684863e+01 6.941749e+01 5.944455e+01 6.823233e+01 5.845344e+01 5.715431e+01 4.589465e+01 3.740890e+01 1.421957e+00 2.669594e+00 2.497004e+00 3.145169e+00 3.403668e+00 3.493728e+00 3.361563e+00 3.623070e+00 3.417516e+00 3.168757e+00 2.897748e+00 2.433869e+00 2.216400e+00
<GCONST> 1.068734e+02
<TRANSP> 5
 0.000000e+00 1.000000e+00 0.000000e+00 0.000000e+00 0.000000e+00
 0.000000e+00 2.230350e-01 7.769651e-01 0.000000e+00 0.000000e+00
 0.000000e+00 0.000000e+00 1.163708e-01 8.836293e-01 0.000000e+00
 0.000000e+00 0.000000e+00 0.000000e+00 4.527905e-01 5.472095e-01
 0.000000e+00 0.000000e+00 0.000000e+00 0.000000e+00 0.000000e+00
<ENDHMM>
~h "a"
<BEGINHMM>
<NUMSTATES> 5
<STATE> 2
<MEAN> 25
 4.745520e+00 -7.078224e+00 -4.148401e+00 -4.595670e+00 -2.981627e-01 -9.957922e-01 -3.932399e-01 3.128928e+00 2.387444e+00 -3.153785e-01 -2.426286e+00 -2.892647e+00 2.627141e-01 -1.046618e+00 -6.306753e-01 -4.273912e-01 5.147535e-01 2.423511e-01 3.020824e-01 6.470147e-01 1.580375e-01 -3.933864e-01 -6.644791e-01 -3.782989e-01 7.335641e-01
<VARIANCE> 25
 2.350637e+01 3.993381e+01 4.844943e+01 4.870427e+01 6.777383e+01 7.336591e+01 6.098946e+01 6.409671e+01 5.506543e+01 5.313136e+01 5.149274e+01 4.599827e+01 1.570964e+00 2.820360e+00 2.889908e+00 3.186471e+00 4.064647e+00 4.040713e+00 3.946892e+00 4.567508e+00 3.846939e+00 3.733194e+00 3.659372e+00 3.051944e+00 2.266283e+00
<GCONST> 1.083869e+02
<STATE> 3
<MEAN> 25
 5.039463e+00 -8.494033e+00 -4.874381e+00 -5.176657e+00 7.188516e-01 -7.819608e-01 -1.475629e-01 3.785937e+00 2.411333e+00 -7.331219e-01 -3.719070e+00 -3.661310e+00 -4.987690e-02 5.384883e-01 7.168808e-02 5.426275e-01 1.845544e-01 8.842556e-02 1.250289e-01 -1.828378e-01 -1.620661e-01 -7.693311e-03 -5.288695e-02 2.638669e-01 -6.864318e-01
<VARIANCE> 25
 1.659423e+01 3.634713e+01 4.243613e+01 4.062924e+01 6.165799e+01 6.554757e+01 5.758640e+01 6.044282e+01 5.520917e+01 5.342354e+01 5.175896e+01 4.515646e+01 5.939558e-01 1.641039e+00 1.587978e+00 1.882794e+00 2.470318e+00 2.727198e+00 2.601444e+00 2.803839e+00 2.457334e+00 2.512915e+00 2.432358e+00 2.104846e+00 1.277133e+00
<GCONST> 1.006696e+02
<STATE> 4
<MEAN> 25
 2.895398e+00 -3.531136e+00 -4.307755e+00 -7.911831e-01 1.667617e+00 2.979718e-01 1.376295e+00 2.279367e+00 1.242578e+00 -9.958599e-01 -2.552871e+00 -8.950455e-01 -3.480914e-01 8.389293e-01 4.171094e-01 5.689887e-01 4.370100e-02 1.427544e-01 3.244813e-02 -2.779030e-01 -1.458483e-01 1.189139e-01 2.523243e-01 2.487928e-01 -9.768177e-01
<VARIANCE> 25
 2.451543e+01 3.508889e+01 3.645737e+01 4.183617e+01 4.920010e+01 5.039382e+01 4.311146e+01 4.429642e+01 4.434935e+01 4.443227e+01 4.441510e+01 3.224543e+01 7.790579e-01 1.390635e+00 1.455860e+00 1.737679e+00 2.119955e+00 2.158419e+00 2.259428e+00 2.430608e+00 2.293765e+00 2.253838e+00 2.130584e+00 1.843275e+00 9.252315e-01
<GCONST> 9.742279e+01
<TRANSP> 5
 0.000000e+00 1.000000e+00 0.000000e+00 0.000000e+00 0.000000e+00
 0.000000e+00 4.885077e-01 5.114923e-01 0.000000e+00 0.000000e+00
 0.000000e+00 0.000000e+00 6.037664e-01 3.962336e-01 0.000000e+00
 0.000000e+00 0.000000e+00 0.000000e+00 6.922582e-01 3.077419e-01
 0.000000e+00 0.000000e+00 0.000000e+00 0.000000e+00 0.000000e+00
<ENDHMM>
~h "b"
<BEGINHMM>
<NUMSTATES> 5
<STATE> 2
<MEAN> 25
 4.451400e+00 8.364719e+00 2.617756e+00 4.490583e+00 1.965142e+00 1.525525e+00 -8.578895e-01 -3.131000e+00 -2.748137e+00 -1.876344e+00 -1.462153e+00 -1.589408e+00 1.667249e-01 8.361009e-01 2.257775e-01 4.915392e-01 3.291395e-01 3.431062e-02 1.271555e-01 -1.972745e-01 -1.879155e-01 -2.131937e-01 -1.051601e-01 -3.878899e-02 -3.386911e-01
<VARIANCE> 25
 2.721849e+01 3.694906e+01 3.013692e+01 3.505338e+01 3.301904e+01 3.875152e+01 3.791909e+01 3.982896e+01 3.716015e+01 3.500747e+01 3.049252e+01 2.693464e+01 1.867889e+00 3.115802e+00 2.494672e+00 3.383065e+00 2.773092e+00 3.019755e+00 3.252267e+00 3.037686e+00 3.033796e+00 3.056771e+00 2.834513e+00 2.188625e+00 2.788265e+00
<GCONST> 1.015665e+02
<STATE> 3
<MEAN> 25
 4.978528e+00 7.467916e+00 1.620079e+00 3.410037e+00 1.759004e+00 1.021680e+00 -1.399946e+00 -4.115815e+00 -2.923192e+00 -1.125197e+00 -2.038741e-01 -8.912966e-01 7.208059e-01 -2.052105e+00 -1.176359e+00 -2.082038e+00 -1.117673e+00 -9.929359e-01 -1.473198e+00 -1.436256e-01 8.062557e-01 9.955733e-01 1.190444e+00 -5.582102e-03 2.529085e+00
<VARIANCE> 25
 2.333241e+01 4.338618e+01 3.203528e+01 4.146075e+01 3.435046e+01 4.075613e+01 3.964310e+01 4.031610e+01 3.771017e+01 3.763219e+01 3.556376e+01 2.840624e+01 3.023654e+00 5.118697e+00 4.920121e+00 6.592370e+00 5.179025e+00 6.036496e+00 5.858381e+00 5.574016e+00 6.621025e+00 7.522916e+00 5.324143e+00 4.444045e+00 3.832566e+00
<GCONST> 1.104177e+02
<STATE> 4
<MEAN> 25
 6.322873e+00 1.217112e+00 -3.327040e-01 -9.832264e-01 -1.045805e+00 -1.146328e+00 -5.928449e+00 -2.449433e+00 8.462815e-01 6.044349e-01 2.164089e+00 -2.428607e+00 8.661962e-02 -1.824645e+00 -3.805281e-01 -1.154034e+00 -8.292558e-01 -6.890714e-01 -5.101404e-01 8.226469e-01 8.676836e-01 3.320239e-01 1.907899e-01 -2.662835e-01 1.704180e+00
<VARIANCE> 25
 3.544186e+01 7.198186e+01 7.119063e+01 1.097616e+02 8.274973e+01 1.075440e+02 8.102110e+01 9.021642e+01 8.106580e+01 1.143847e+02 7.805466e+01 6.086137e+01 2.302411e+00 5.959564e+00 5.511745e+00 7.424768e+00 6.711013e+00 8.146900e+00 7.612064e+00 8.253334e+00 7.941161e+00 7.820982e+00 6.840239e+00 6.268197e+00 4.298048e+00
<GCONST> 1.221641e+02
<TRANSP> 5
 0.000000e+00 1.000000e+00 0.000000e+00 0.000000e+00 0.000000e+00
 0.000000e+00 6.420001e-01 3.579998e-01 0.000000e+00 0.000000e+00
 0.000000e+00 0.000000e+00 3.952523e-01 6.047477e-01 0.000000e+00
 0.000000e+00 0.000000e+00 0.000000e+00 5.331143e-01 4.668856e-01
 0.000000e+00 0.000000e+00 0.000000e+00 0.000000e+00 0.000000e+00
<ENDHMM>
~h "c"
<BEGINHMM>
<NUMSTATES> 5
<STATE> 2
<MEAN> 25
 -8.165003e+00 5.266223e+00 4.132936e-01 1.583437e+00 3.515024e+00 -3.952883e-01 2.440143e+00 -3.636844e-01 1.284734e+00 2.799575e-01 1.823184e+00 1.631013e+00 -2.443745e+00 1.801971e-01 -9.312964e-02 -8.631270e-01 3.159866e-01 3.201478e-02 6.465533e-01 -7.817301e-02 5.300439e-01 1.457368e-01 5.280942e-01 2.616537e-01 9.161462e-01
<VARIANCE> 25
 7.796722e+01 5.069242e+01 5.536080e+01 5.016596e+01 5.191225e+01 6.011624e+01 5.033948e+01 5.719116e+01 4.991828e+01 3.901499e+01 3.772411e+01 2.923499e+01 5.683057e+00 4.905652e+00 5.514052e+00 5.267748e+00 5.363050e+00 5.382815e+00 4.383420e+00 5.108692e+00 4.200235e+00 3.757106e+00 3.404229e+00 2.552724e+00 6.573191e+00
<GCONST> 1.127215e+02
<STATE> 3
<MEAN> 25
 -1.311981e+01 3.439876e-01 5.381709e+00 -2.439019e+00 -4.518862e-01 7.139313e-01 3.235246e+00 -1.277241e+00 2.257945e+00 2.406455e-01 2.937636e+00 2.685033e+00 1.884423e+00 -1.480693e+00 1.042014e+00 -1.041070e-01 -1.829452e+00 -1.280701e+00 -7.565809e-01 -2.680678e-02 -1.801935e-01 -4.874433e-01 -1.754193e-01 -1.166458e-01 1.717750e+00
<VARIANCE> 25
 7.137332e+01 1.269165e+02 1.142941e+02 7.202534e+01 7.972834e+01 1.184958e+02 6.409218e+01 6.446925e+01 4.726910e+01 5.321883e+01 4.196194e+01 3.503871e+01 1.014102e+01 8.027338e+00 8.290400e+00 6.194334e+00 7.261323e+00 7.543229e+00 5.643612e+00 6.017236e+00 5.289824e+00 4.754331e+00 4.393057e+00 3.274067e+00 3.901282e+00
<GCONST> 1.197964e+02
<STATE> 4
<MEAN> 25
 -1.191806e+00 -2.114870e+00 4.133495e+00 -1.004382e+00 -4.435678e+00 -5.211255e+00 -8.692741e-01 -3.761113e-01 1.131114e+00 -1.799953e+00 5.491468e-01 1.220748e+00 3.759254e+00 -1.117380e+00 -1.045946e+00 -2.545049e-01 -7.929050e-01 -9.047633e-01 -1.008471e+00 2.173804e-01 -3.930163e-01 -1.123429e-01 -7.049913e-01 -7.550499e-01 1.172580e+00
<VARIANCE> 25
 4.399694e+01 5.795864e+01 5.656648e+01 4.942635e+01 6.324738e+01 7.947533e+01 5.763638e+01 6.661398e+01 5.217079e+01 4.208160e+01 3.992275e+01 2.983816e+01 5.253937e+00 8.441030e+00 8.222609e+00 4.860004e+00 7.155279e+00 6.899472e+00 5.737040e+00 6.392186e+00 5.524537e+00 5.738370e+00 5.012056e+00 3.389302e+00 2.158884e+00
<GCONST> 1.153189e+02
<TRANSP> 5
 0.000000e+00 1.000000e+00 0.000000e+00 0.000000e+00 0.000000e+00
 0.000000e+00 7.342060e-01 2.657940e-01 0.000000e+00 0.000000e+00
 0.000000e+00 0.000000e+00 5.795732e-01 4.204268e-01 0.000000e+00
 0.000000e+00 0.000000e+00 0.000000e+00 4.746249e-01 5.253751e-01
 0.000000e+00 0.000000e+00 0.000000e+00 0.000000e+00 0.000000e+00
<ENDHMM>
~h "d"
<BEGINHMM>
<NUMSTATES> 5
<STATE> 2
<MEAN> 25
 3.249409e+00 4.802103e+00 3.967304e+00 6.174570e+00 8.980433e-01 -8.252485e-01 -1.762660e+00 -1.177921e+00 -3.672170e-01 -2.099962e+00 -2.413745e+00 -5.490894e-01 2.115939e-01 1.067533e-01 6.513668e-01 3.915409e-01 -1.334044e-01 -4.697165e-01 -3.455994e-01 -1.613839e-01 -2.117063e-01 -4.500423e-01 1.237593e-01 1.389172e-01 3.841340e-01
<VARIANCE> 25
 3.693112e+01 6.464012e+01 4.094937e+01 5.150753e+01 6.330231e+01 5.642506e+01 5.198030e+01 5.080039e+01 4.531940e+01 4.105728e+01 4.109520e+01 3.190816e+01 3.521042e+00 7.727761e+00 3.828306e+00 5.779105e+00 5.983881e+00 6.170419e+00 5.898959e+00 5.467772e+00 4.883440e+00 4.666345e+00 4.330141e+00 3.571635e+00 6.939491e+00
<GCONST> 1.134307e+02
<STATE> 3
<MEAN> 25
 3.347123e+00 3.310633e-01 5.687157e+00 3.680098e+00 -2.428241e+00 -4.018191e+00 -4.094893e+00 -7.381777e-01 -5.085474e-01 -3.086267e+00 1.286245e-01 1.259639e+00 3.509832e-02 -2.383830e+00 3.102505e-01 -2.058356e+00 -1.998465e+00 -1.411449e+00 -1.104524e+00 9.347331e-01 3.359349e-01 2.509134e-01 1.296858e+00 3.601638e-01 2.813355e+00
<VARIANCE> 25
 2.192758e+01 5.029058e+01 4.368340e+01 5.859423e+01 7.314706e+01 6.684663e+01 6.261621e+01 6.044722e+01 5.871030e+01 4.629607e+01 4.485096e+01 4.052237e+01 2.927923e+00 5.459813e+00 5.524344e+00 5.895856e+00 7.004376e+00 7.500260e+00 7.725868e+00 8.592889e+00 7.203970e+00 6.296697e+00 5.688953e+00 4.415919e+00 4.428573e+00
<GCONST> 1.158852e+02
<STATE> 4
<MEAN> 25
 4.152169e+00 -3.033974e+00 5.760194e+00 9.657443e-04 -6.540851e+00 -6.477816e+00 -5.830458e+00 2.352130e+00 6.866695e-01 -2.101323e+00 1.772721e+00 2.702520e-01 1.343541e-02 -5.632527e-01 -3.495319e-01 -1.093678e+00 -5.199876e-01 -6.058897e-02 1.997905e-01 4.703957e-01 1.659503e-01 5.385838e-01 1.146257e-01 -4.498447e-01 8.068677e-01
<VARIANCE> 25
 2.202829e+01 4.446033e+01 5.624876e+01 6.843896e+01 8.309517e+01 6.712469e+01 8.153094e+01 9.127476e+01 7.438179e+01 6.467317e+01 5.900553e+01 4.261953e+01 1.292901e+00 2.836959e+00 4.258912e+00 3.985946e+00 5.564195e+00 4.518039e+00 5.084768e+00 5.298555e+00 4.608070e+00 4.007673e+00 4.628240e+00 3.556469e+00 2.803660e+00
<GCONST> 1.123369e+02
<TRANSP> 5
 0.000000e+00 1.000000e+00 0.000000e+00 0.000000e+00 0.000000e+00
 0.000000e+00 5.662994e-01 4.337006e-01 0.000000e+00 0.000000e+00
 0.000000e+00 0.000000e+00 4.237427e-01 5.762573e-01 0.000000e+00
 0.000000e+00 0.000000e+00 0.000000e+00 4.760373e-01 5.239627e-01
 0.000000e+00 0.000000e+00 0.000000e+00 0.000000e+00 0.000000e+00
<ENDHMM>
~h "e"
<BEGINHMM>
<NUMSTATES> 5
<STATE> 2
<MEAN> 25
 2.756588e+00 -4.075351e+00 1.479982e+00 -5.799946e-01 -4.812949e+00 -4.735249e+00 2.284272e-01 2.723836e+00 -9.771119e-02 2.823800e-01 5.425612e-01 -4.457855e-01 5.348012e-01 -9.394581e-01 3.386137e-01 -5.594790e-01 -9.384956e-01 -5.659064e-01 4.526744e-01 7.075722e-01 -3.969426e-01 -6.695545e-02 1.723485e-01 -1.537936e-01 1.180512e+00
<VARIANCE> 25
 4.317855e+01 5.488715e+01 6.588496e+01 5.366074e+01 7.406319e+01 8.914314e+01 6.867758e+01 8.075118e+01 6.066914e+01 5.224293e+01 5.038505e+01 3.668610e+01 4.172971e+00 4.475311e+00 4.983163e+00 5.059039e+00 5.653687e+00 6.495404e+00 5.547743e+00 6.552485e+00 5.346776e+00 4.553100e+00 4.317382e+00 3.245541e+00 4.459447e+00
<GCONST> 1.155659e+02
<STATE> 3
<MEAN> 25
 3.451884e+00 -5.663944e+00 3.615692e+00 -1.457137e+00 -7.855057e+00 -6.972293e+00 1.444729e+00 4.229375e+00 -1.903239e+00 6.478925e-01 1.386524e+00 -1.366855e+00 -1.728514e-01 5.587036e-01 -5.268315e-02 3.646622e-01 3.418295e-01 3.785389e-01 2.771162e-01 -3.132619e-01 -5.311292e-02 8.101195e-02 -9.491798e-02 9.080587e-02 -6.948460e-01
<VARIANCE> 25
 2.344367e+01 4.515992e+01 7.330145e+01 5.330549e+01 6.923761e+01 8.297559e+01 7.588013e+01 8.832030e+01 6.791084e+01 4.927467e+01 5.084045e+01 3.494158e+01 1.050760e+00 2.062052e+00 2.249487e+00 2.417238e+00 2.866105e+00 2.907006e+00 2.897166e+00 2.971957e+00 3.036387e+00 2.633605e+00 2.548215e+00 2.008292e+00 2.084030e+00
<GCONST> 1.054322e+02
<STATE> 4
<MEAN> 25
 1.050541e+00 -2.264720e+00 1.486590e+00 6.133583e-01 -3.691860e+00 -3.145455e+00 2.045246e+00 1.986723e+00 -4.678819e-01 8.872753e-01 7.035879e-01 2.239980e-01 -2.430675e-01 4.756762e-01 -1.700662e-01 2.745588e-01 5.936985e-01 3.858196e-01 -3.886084e-02 -2.028758e-01 5.868606e-02 -3.706438e-02 -9.315784e-02 8.035233e-02 -6.191778e-01
<VARIANCE> 25
 3.435773e+01 3.808599e+01 5.278900e+01 4.562229e+01 6.034583e+01 7.090083e+01 5.519858e+01 5.787895e+01 5.215677e+01 4.150763e+01 3.637145e+01 2.916970e+01 6.618946e-01 1.145115e+00 1.213712e+00 1.350853e+00 2.031982e+00 1.969769e+00 1.973941e+00 2.091750e+00 2.000326e+00 1.900437e+00 1.690273e+00 1.490002e+00 7.510490e-01
<GCONST> 9.698302e+01
<TRANSP> 5
 0.000000e+00 1.000000e+00 0.000000e+00 0.000000e+00 0.000000e+00
 0.000000e+00 5.090348e-01 4.909652e-01 0.000000e+00 0.000000e+00
 0.000000e+00 0.000000e+00 5.802957e-01 4.197044e-01 0.000000e+00
 0.000000e+00 0.000000e+00 0.000000e+00 7.025126e-01 2.974875e-01
 0.000000e+00 0.000000e+00 0.000000e+00 0.000000e+00 0.000000e+00
<ENDHMM>
~h "f"
<BEGINHMM>
<NUMSTATES> 5
<STATE> 2
<MEAN> 25
 -4.605065e+00 1.787364e+00 1.375971e+00 5.250391e+00 2.901527e+00 -1.808675e-01 2.175078e+00 2.218676e-01 1.197013e+00 4.559717e-01 1.133602e+00 1.018866e+00 -1.974249e+00 -2.181594e-01 -4.153215e-01 4.607368e-01 7.225273e-01 1.338560e-01 4.429393e-01 2.958421e-01 7.923219e-01 2.312442e-01 2.336158e-01 3.645015e-01 -5.759485e-01
<VARIANCE> 25
 4.839220e+01 2.636533e+01 4.788987e+01 4.850984e+01 4.359016e+01 5.297391e+01 3.815923e+01 4.329058e+01 3.472812e+01 3.152678e+01 2.775195e+01 2.740549e+01 3.507148e+00 2.983945e+00 3.030731e+00 4.130596e+00 4.403056e+00 4.485228e+00 3.558436e+00 3.662112e+00 3.586090e+00 3.177917e+00 2.898132e+00 2.261657e+00 1.724410e+00
<GCONST> 1.049198e+02
<STATE> 3
<MEAN> 25
 -9.195560e+00 -1.299576e+00 3.235221e-03 4.602207e+00 3.504175e+00 -4.391813e-01 2.797642e+00 5.621284e-01 2.547787e+00 1.382270e+00 1.786198e+00 1.924435e+00 7.017227e-01 -6.064597e-01 8.011078e-03 -5.497174e-01 -6.197352e-01 -4.312220e-01 -2.338087e-01 -2.298564e-01 -4.230259e-01 -1.429438e-01 -6.509449e-02 -9.652305e-02 4.185874e-01
<VARIANCE> 25
 3.896868e+01 3.198742e+01 3.912425e+01 4.426719e+01 3.916850e+01 5.401400e+01 3.276993e+01 3.473179e+01 3.272756e+01 2.702773e+01 2.526701e+01 2.264825e+01 4.755965e+00 2.845063e+00 3.232727e+00 3.079902e+00 3.037898e+00 3.923120e+00 3.057548e+00 2.798887e+00 3.265277e+00 2.473644e+00 2.342600e+00 2.130983e+00 1.973483e+00
<GCONST> 1.022657e+02
<STATE> 4
<MEAN> 25
 -3.400436e+00 -2.611713e+00 1.070731e+00 1.093882e+00 7.302032e-01 2.165032e+00 6.797280e-01 -1.806132e+00 2.491807e-01 5.612003e-01 8.924838e-01 9.660033e-01 2.364998e+00 -1.121600e-02 3.198622e-01 -1.124481e+00 -1.458688e+00 -5.239252e-01 -8.517126e-01 -4.827839e-01 -9.304240e-01 -2.569314e-01 -8.888401e-02 -6.319275e-01 1.305912e+00
<VARIANCE> 25
 7.994843e+01 6.843115e+01 1.130172e+02 1.233292e+02 8.189614e+01 1.530231e+02 6.462896e+01 6.210151e+01 5.891959e+01 5.005494e+01 3.826005e+01 3.196111e+01 7.162268e+00 6.257222e+00 8.791121e+00 8.254396e+00 7.731358e+00 9.636511e+00 5.338556e+00 5.560463e+00 6.614080e+00 4.737393e+00 4.693936e+00 3.624329e+00 4.188197e+00
<GCONST> 1.204277e+02
<TRANSP> 5
 0.000000e+00 1.000000e+00 0.000000e+00 0.000000e+00 0.000000e+00
 0.000000e+00 6.888326e-01 3.111674e-01 0.000000e+00 0.000000e+00
 0.000000e+00 0.000000e+00 5.700259e-01 4.299741e-01 0.000000e+00
 0.000000e+00 0.000000e+00 0.000000e+00 5.399643e-01 4.600357e-01
 0.000000e+00 0.000000e+00 0.000000e+00 0.000000e+00 0.000000e+00
<ENDHMM>
~h "g"
<BEGINHMM>
<NUMSTATES> 5
<STATE> 2
<MEAN> 25
 3.545592e+00 3.633200e+00 2.807633e+00 2.565636e+00 -6.471896e-02 5.339369e-02 -1.278569e+00 -2.498459e+00 -2.372532e+00 -1.024542e-01 -1.183652e+00 -1.574158e+00 -1.952771e-01 -3.027672e-02 6.173784e-02 1.863392e-01 2.914675e-01 -4.131776e-01 -2.268371e-01 1.604593e-01 -4.264743e-02 4.428593e-02 1.406791e-01 -5.305746e-02 8.508223e-02
<VARIANCE> 25
 2.790707e+01 4.672155e+01 4.507457e+01 4.773296e+01 6.166425e+01 6.299803e+01 5.583312e+01 5.424421e+01 5.030894e+01 4.552223e+01 3.989114e+01 3.446836e+01 2.442968e+00 4.652937e+00 3.896343e+00 4.231487e+00 5.517980e+00 5.392133e+00 4.992189e+00 4.653473e+00 4.557207e+00 3.993644e+00 3.701552e+00 3.059937e+00 4.017877e+00
<GCONST> 1.105283e+02
<STATE> 3
<MEAN> 25
 3.324197e+00 2.009884e+00 2.422749e+00 2.051767e+00 3.832489e-02 -2.131375e+00 -2.839897e+00 -1.216662e+00 -1.928576e+00 2.839620e-01 -3.212637e-01 -1.686855e+00 -1.684755e-01 -8.954769e-01 -2.279982e-01 -7.549173e-01 -2.873648e-01 -6.888021e-01 -3.113623e-01 8.421496e-01 4.704379e-01 1.000968e-01 3.647860e-01 2.611156e-02 9.784254e-01
<VARIANCE> 25
 2.618737e+01 4.936723e+01 5.165425e+01 5.288578e+01 7.373984e+01 7.708196e+01 7.000341e+01 6.032458e+01 5.319556e+01 5.337797e+01 4.975880e+01 3.900098e+01 2.196103e+00 4.905920e+00 4.518925e+00 5.146608e+00 7.891222e+00 6.021149e+00 5.920711e+00 5.988487e+00 5.520113e+00 5.076675e+00 4.741620e+00 3.860476e+00 3.932895e+00
<GCONST> 1.141027e+02
<STATE> 4
<MEAN> 25
 3.146337e+00 1.366699e+00 2.293638e+00 7.587407e-01 -9.760191e-01 -2.424827e+00 -2.548489e+00 3.301400e-02 -7.855126e-01 -2.324176e-01 -4.643052e-01 -1.709905e+00 -2.846575e-01 -5.457272e-01 -2.784803e-01 -6.300049e-01 -5.423662e-02 1.850216e-02 2.283246e-01 4.904670e-01 3.411210e-01 -2.110237e-03 9.584731e-02 1.072591e-01 4.842283e-01
<VARIANCE> 25
 3.536110e+01 6.034945e+01 5.463691e+01 6.860500e+01 7.564372e+01 7.943837e+01 6.991245e+01 6.801655e+01 6.273333e+01 6.287003e+01 5.320119e+01 4.177030e+01 1.715383e+00 2.937920e+00 3.530748e+00 3.490172e+00 4.305179e+00 3.916572e+00 3.943021e+00 4.306418e+00 4.054576e+00 3.596204e+00 3.493229e+00 2.850507e+00 1.899097e+00
<GCONST> 1.104013e+02
<TRANSP> 5
 0.000000e+00 1.000000e+00 0.000000e+00 0.000000e+00 0.000000e+00
 0.000000e+00 3.298999e-01 6.701001e-01 0.000000e+00 0.000000e+00
 0.000000e+00 0.000000e+00 3.259211e-01 6.740789e-01 0.000000e+00
 0.000000e+00 0.000000e+00 0.000000e+00 3.301486e-01 6.698514e-01
 0.000000e+00 0.000000e+00 0.000000e+00 0.000000e+00 0.000000e+00
<ENDHMM>
~h "h"
<BEGINHMM>
<NUMSTATES> 5
<STATE> 2
<MEAN> 25
 8.304399e-01 -3.445263e+00 -1.313435e+00 -2.596598e-01 3.227126e+00 1.611661e+00 3.301941e+00 1.150835e+00 4.154239e-01 -1.157758e+00 -1.809281e+00 2.227289e-02 -6.983190e-01 1.412928e-01 5.113761e-02 5.929925e-01 7.232675e-01 4.205578e-01 5.494598e-01 1.542034e-01 9.166817e-02 -6.147068e-02 7.473099e-02 2.764193e-01 -7.512832e-01
<VARIANCE> 25
 3.725356e+01 5.137268e+01 6.727488e+01 6.239939e+01 1.089224e+02 7.893536e+01 7.532783e+01 6.764788e+01 5.903867e+01 6.492158e+01 5.436823e+01 4.066105e+01 1.786174e+00 3.014498e+00 3.071119e+00 3.146387e+00 4.143463e+00 3.896627e+00 3.847006e+00 3.814101e+00 3.578573e+00 3.607122e+00 3.179686e+00 2.721407e+00 2.097229e+00
<GCONST> 1.102699e+02
<STATE> 3
<MEAN> 25
 -1.528971e-01 -3.281378e+00 -1.459427e+00 6.626043e-01 3.992250e+00 1.799324e+00 3.535620e+00 1.378074e+00 2.887023e-01 -1.314422e+00 -1.643308e+00 3.598594e-01 -4.220570e-01 2.850942e-01 -3.344163e-02 2.891921e-01 1.392093e-01 1.539007e-01 9.537892e-02 -1.576548e-02 2.712852e-02 1.054312e-01 1.228286e-01 1.379300e-01 -7.011606e-01
<VARIANCE> 25
 3.444559e+01 5.179736e+01 5.979686e+01 5.500447e+01 8.774989e+01 6.360047e+01 6.666745e+01 6.162791e+01 5.161768e+01 5.117670e+01 4.904634e+01 3.698048e+01 9.823449e-01 1.670742e+00 2.009146e+00 2.095340e+00 2.763731e+00 2.681193e+00 2.778128e+00 2.752243e+00 2.652888e+00 2.552922e+00 2.385604e+00 2.069579e+00 1.040736e+00
<GCONST> 1.033818e+02
<STATE> 4
<MEAN> 25
 -3.012265e+00 -1.260366e+00 -1.859613e+00 1.626196e+00 3.174803e+00 2.231824e+00 2.537428e+00 9.792601e-01 6.381508e-01 -6.246084e-02 7.766694e-03 1.235665e+00 -8.075485e-02 1.293576e-01 1.362627e-02 2.997109e-02 -5.192685e-02 -2.801977e-02 -5.948344e-02 -4.647382e-02 -2.083945e-02 3.424090e-02 3.407155e-02 1.629346e-02 -2.076038e-01
<VARIANCE> 25
 3.238744e+01 3.499471e+01 3.469077e+01 3.846354e+01 4.189239e+01 3.456997e+01 3.389767e+01 3.540468e+01 3.253505e+01 3.607522e+01 3.264906e+01 2.540424e+01 3.987691e-01 6.707205e-01 8.794878e-01 1.006586e+00 1.291910e+00 1.419473e+00 1.528202e+00 1.624975e+00 1.605515e+00 1.588636e+00 1.478259e+00 1.326935e+00 3.386728e-01
<GCONST> 8.893571e+01
<TRANSP> 5
 0.000000e+00 1.000000e+00 0.000000e+00 0.000000e+00 0.000000e+00
 0.000000e+00 4.653157e-01 5.346843e-01 0.000000e+00 0.000000e+00
 0.000000e+00 0.000000e+00 3.570547e-01 6.429452e-01 0.000000e+00
 0.000000e+00 0.000000e+00 0.000000e+00 8.188539e-01 1.811461e-01
 0.000000e+00 0.000000e+00 0.000000e+00 0.000000e+00 0.000000e+00
<ENDHMM>
~h "i"
<BEGINHMM>
<NUMSTATES> 5
<STATE> 2
<MEAN> 25
 2.643328e-01 7.327049e-01 1.133285e+01 8.007250e-01 -6.853371e+00 -4.349520e+00 -2.619809e+00 -3.595511e+00 -4.300593e+00 -6.241456e-01 2.224308e+00 -2.064169e-01 3.455516e-01 -2.427116e-01 2.314188e+00 -9.470461e-01 -2.025158e+00 -3.562562e-01 -9.447604e-01 -4.971119e-01 -1.149152e+00 1.333766e-01 6.772350e-01 -2.693324e-01 1.193423e+00
<VARIANCE> 25
 3.319838e+01 5.536611e+01 7.338176e+01 8.110163e+01 9.153166e+01 8.566523e+01 6.657941e+01 7.158598e+01 6.374406e+01 5.211286e+01 5.381662e+01 3.911999e+01 4.348184e+00 4.043446e+00 6.584120e+00 7.083785e+00 7.155862e+00 7.412259e+00 6.522688e+00 6.374825e+00 6.186557e+00 5.289807e+00 5.620944e+00 3.881858e+00 2.638177e+00
<GCONST> 1.173008e+02
<STATE> 3
<MEAN> 25
 7.070165e-01 9.522003e-01 1.647282e+01 -1.677051e+00 -1.240152e+01 -4.578496e+00 -4.232152e+00 -3.553961e+00 -7.449882e+00 -3.654923e-01 4.848897e+00 -1.457601e+00 1.138946e-01 2.872612e-01 -2.783314e-01 1.277345e-01 1.835946e-01 1.172967e-01 7.754330e-02 4.893692e-02 2.193617e-01 1.441606e-01 -2.344885e-01 8.272111e-02 -4.152690e-01
<VARIANCE> 25
 1.580334e+01 3.861573e+01 6.684467e+01 7.461875e+01 6.948599e+01 7.964812e+01 5.709035e+01 6.596899e+01 6.505267e+01 6.161602e+01 6.399015e+01 4.227527e+01 9.902570e-01 2.033829e+00 3.044945e+00 3.088107e+00 3.455668e+00 3.523770e+00 3.361182e+00 3.637700e+00 3.287540e+00 2.782769e+00 2.798539e+00 2.210598e+00 1.791347e+00
<GCONST> 1.064905e+02
<STATE> 4
<MEAN> 25
 -2.890566e-02 3.484802e+00 1.058279e+01 4.758299e-01 -5.698630e+00 -2.435040e+00 -3.329370e+00 -4.442033e+00 -3.107835e+00 -6.300263e-03 1.829330e-01 2.183183e-01 -1.275985e-01 2.018683e-01 -1.033113e+00 5.277481e-01 9.406053e-01 3.161188e-01 4.484394e-01 3.167129e-01 4.175130e-01 -6.529743e-02 -2.336790e-01 1.468109e-01 -8.280559e-01
<VARIANCE> 25
 2.169995e+01 4.505183e+01 4.856086e+01 1.036677e+02 7.511341e+01 6.951584e+01 6.502271e+01 5.810427e+01 5.437411e+01 4.801030e+01 4.852955e+01 3.844697e+01 9.417917e-01 1.623302e+00 2.184836e+00 2.553551e+00 2.979162e+00 2.772351e+00 2.852049e+00 2.813572e+00 2.663483e+00 2.517205e+00 2.484405e+00 1.937379e+00 1.177380e+00
<GCONST> 1.035271e+02
<TRANSP> 5
 0.000000e+00 1.000000e+00 0.000000e+00 0.000000e+00 0.000000e+00
 0.000000e+00 5.635516e-01 4.364484e-01 0.000000e+00 0.000000e+00
 0.000000e+00 0.000000e+00 6.559042e-01 3.440958e-01 0.000000e+00
 0.000000e+00 0.000000e+00 0.000000e+00 7.665350e-01 2.334649e-01
 0.000000e+00 0.000000e+00 0.000000e+00 0.000000e+00 0.000000e+00
<ENDHMM>
~h "j"
<BEGINHMM>
<NUMSTATES> 5
<STATE> 2
<MEAN> 25
 -2.795821e+00 7.332683e+00 5.388810e+00 3.877375e+00 2.099637e+00 -1.098024e+00 6.160973e-01 -8.522748e-01 -6.381649e-01 -2.337206e+00 -4.103436e-01 6.276214e-01 -1.488336e+00 4.639027e-01 7.313851e-01 -4.678063e-01 9.032729e-02 -1.816463e-01 2.026204e-01 -4.296213e-01 -1.146545e-02 -4.710335e-02 3.409452e-01 2.065009e-01 7.584827e-01
<VARIANCE> 25
 7.034754e+01 5.296924e+01 5.281643e+01 5.051073e+01 5.852207e+01 5.920565e+01 4.705333e+01 4.355882e+01 4.016857e+01 3.478530e+01 3.244667e+01 2.931633e+01 6.210334e+00 5.385503e+00 4.935721e+00 5.505136e+00 6.287613e+00 6.040879e+00 4.764375e+00 4.333088e+00 4.198268e+00 3.832401e+00 3.500740e+00 2.753623e+00 5.675836e+00
<GCONST> 1.121919e+02
<STATE> 3
<MEAN> 25
 -4.669082e+00 3.681093e+00 1.180273e+01 1.358099e+00 -3.627828e+00 -4.348255e+00 -1.746951e+00 -3.658703e+00 -2.505053e+00 -2.194548e+00 2.343478e+00 2.207452e+00 1.757236e+00 -1.890785e+00 1.068839e+00 -4.809294e-01 -2.712094e+00 -1.899208e+00 -1.583721e+00 3.599475e-02 -5.997075e-01 3.865890e-02 8.075563e-01 2.810614e-01 1.856637e+00
<VARIANCE> 25
 4.657709e+01 8.257212e+01 6.336052e+01 6.388113e+01 7.647751e+01 8.559019e+01 5.928663e+01 5.113343e+01 4.522111e+01 4.623840e+01 3.671426e+01 3.682129e+01 6.123270e+00 6.719171e+00 7.145840e+00 5.982162e+00 8.095250e+00 6.322455e+00 6.259141e+00 6.473169e+00 5.103992e+00 5.444656e+00 4.212062e+00 3.421950e+00 2.519177e+00
<GCONST> 1.161918e+02
<STATE> 4
<MEAN> 25
 1.926407e+00 -1.171357e+00 1.004945e+01 -5.569319e-01 -9.452186e+00 -8.819350e+00 -5.320325e+00 9.087598e-01 -1.971131e+00 -1.103476e+00 3.508567e+00 2.160854e+00 1.015639e+00 -1.009178e+00 -1.480338e+00 -4.493487e-01 1.877444e-01 1.527487e-01 -1.749353e-01 1.002108e+00 7.577485e-01 4.059063e-01 -3.333777e-01 -6.419136e-01 2.926398e-01
<VARIANCE> 25
 1.655390e+01 3.483355e+01 4.362429e+01 6.151436e+01 6.069517e+01 4.967300e+01 6.485258e+01 7.275196e+01 5.214642e+01 5.368481e+01 4.174202e+01 3.600813e+01 1.550728e+00 3.450859e+00 3.099707e+00 2.956150e+00 5.288663e+00 4.122682e+00 5.000794e+00 4.753100e+00 3.647920e+00 3.455371e+00 3.671751e+00 3.257864e+00 1.656946e+00
<GCONST> 1.075858e+02
<TRANSP> 5
 0.000000e+00 1.000000e+00 0.000000e+00 0.000000e+00 0.000000e+00
 0.000000e+00 7.421349e-01 2.578651e-01 0.000000e+00 0.000000e+00
 0.000000e+00 0.000000e+00 6.091211e-01 3.908789e-01 0.000000e+00
 0.000000e+00 0.000000e+00 0.000000e+00 6.506059e-01 3.493941e-01
 0.000000e+00 0.000000e+00 0.000000e+00 0.000000e+00 0.000000e+00
<ENDHMM>
~h "k"
<BEGINHMM>
<NUMSTATES> 5
<STATE> 2
<MEAN> 25
 -3.198858e+00 1.903605e+00 -2.155436e+00 2.417011e+00 3.339837e+00 1.921629e+00 1.645423e+00 6.261602e-01 1.154016e+00 1.774001e+00 1.134414e+00 9.971755e-01 -9.890825e-01 -7.584583e-01 -9.048513e-01 -1.362417e-01 7.920044e-01 -1.496116e-01 5.374367e-02 4.055777e-01 4.146012e-01 4.233985e-01 1.581369e-01 3.245781e-01 1.815228e-01
<VARIANCE> 25
 4.210698e+01 4.384041e+01 5.282029e+01 5.084261e+01 6.384136e+01 6.092426e+01 4.970022e+01 5.037483e+01 4.899344e+01 4.128075e+01 4.043764e+01 3.316787e+01 3.556338e+00 5.402454e+00 5.299106e+00 5.435711e+00 6.366302e+00 6.183892e+00 5.411585e+00 5.112666e+00 5.068970e+00 4.297917e+00 3.986874e+00 3.405613e+00 6.691400e+00
<GCONST> 1.131682e+02
<STATE> 3
<MEAN> 25
 -3.963503e+00 -3.294413e+00 -5.212359e+00 -1.089503e+00 4.632809e+00 5.725208e-01 7.615220e-01 1.547300e+00 1.821941e+00 2.813941e+00 7.801200e-01 9.400933e-01 8.223120e-01 -1.248448e+00 -2.534662e-01 -1.293893e+00 -4.550810e-01 -8.158600e-01 -1.969433e-01 5.195067e-02 -1.346502e-02 -5.800407e-02 -2.114227e-01 -4.690962e-01 2.455238e+00
<VARIANCE> 25
 5.094572e+01 6.291409e+01 9.475565e+01 8.317671e+01 1.159971e+02 1.048529e+02 7.689096e+01 7.375175e+01 7.095861e+01 5.917296e+01 5.137155e+01 4.699913e+01 6.215484e+00 6.531313e+00 7.715827e+00 7.805017e+00 9.864407e+00 8.985639e+00 7.365864e+00 7.211215e+00 7.058221e+00 6.607354e+00 5.690217e+00 5.054587e+00 6.651223e+00
<GCONST> 1.225277e+02
<STATE> 4
<MEAN> 25
 -4.414752e-01 -3.963039e+00 -4.000531e+00 -2.819331e+00 1.646911e+00 -1.292181e+00 9.051125e-01 1.047870e+00 9.374861e-01 1.427136e+00 -2.633239e-01 -4.941759e-01 1.705155e+00 -1.083006e-01 5.692324e-01 -8.427910e-01 -1.351974e+00 -3.401572e-01 -2.028616e-01 -3.780063e-01 -5.534129e-01 -5.890948e-01 -3.268664e-01 -7.158750e-01 1.491640e+00
<VARIANCE> 25
 4.640491e+01 4.998866e+01 6.518701e+01 5.721780e+01 7.356433e+01 7.111839e+01 5.363703e+01 5.829796e+01 5.463470e+01 4.658109e+01 4.387578e+01 3.990577e+01 4.200576e+00 4.454025e+00 5.099293e+00 5.090093e+00 5.915038e+00 5.821067e+00 5.420504e+00 5.456596e+00 5.488739e+00 4.803539e+00 4.586796e+00 3.760934e+00 3.195597e+00
<GCONST> 1.142334e+02
<TRANSP> 5
 0.000000e+00 1.000000e+00 0.000000e+00 0.000000e+00 0.000000e+00
 0.000000e+00 5.450377e-01 4.549623e-01 0.000000e+00 0.000000e+00
 0.000000e+00 0.000000e+00 5.203682e-01 4.796318e-01 0.000000e+00
 0.000000e+00 0.000000e+00 0.000000e+00 3.832797e-01 6.167203e-01
 0.000000e+00 0.000000e+00 0.000000e+00 0.000000e+00 0.000000e+00
<ENDHMM>
~h "l"
<BEGINHMM>
<NUMSTATES> 5
<STATE> 2
<MEAN> 25
 6.434565e+00 -3.405246e+00 -2.087591e+00 -3.792037e+00 -2.200800e+00 -8.513268e-01 -4.673538e+00 -3.587830e+00 3.004139e+00 2.736339e+00 -7.261238e-01 -2.307471e+00 3.002763e-01 -1.542762e-01 -1.283268e-01 -3.613215e-01 -5.014628e-03 1.092216e-01 -6.375742e-01 -3.058926e-01 4.493321e-01 6.243386e-01 -1.338566e-01 -2.561352e-01 6.383555e-02
<VARIANCE> 25
 2.079579e+01 3.594086e+01 4.845428e+01 6.256130e+01 6.267622e+01 8.202336e+01 6.820210e+01 7.939686e+01 5.948496e+01 7.346387e+01 5.348066e+01 3.951147e+01 8.696237e-01 1.966308e+00 2.619845e+00 3.485764e+00 3.711118e+00 4.235192e+00 4.207524e+00 5.352111e+00 3.830810e+00 3.901137e+00 3.483972e+00 2.979759e+00 1.097937e+00
<GCONST> 1.075158e+02
<STATE> 3
<MEAN> 25
 6.664497e+00 -3.692429e+00 -2.684982e+00 -5.467587e+00 -1.772844e+00 1.337105e-01 -5.812560e+00 -3.886558e+00 4.035409e+00 4.245654e+00 -9.770482e-01 -3.088188e+00 -5.236287e-02 -8.480582e-02 -6.603041e-02 -1.871849e-01 2.074310e-01 3.492351e-02 2.867591e-02 4.503178e-01 2.986297e-02 -1.950999e-01 -2.014075e-01 -8.656801e-02 4.075013e-02
<VARIANCE> 25
 1.797574e+01 3.269521e+01 4.430209e+01 6.274826e+01 5.608839e+01 7.900392e+01 6.847031e+01 7.558463e+01 6.050831e+01 7.181158e+01 5.494336e+01 4.085984e+01 4.050544e-01 1.380795e+00 1.711093e+00 2.246212e+00 2.430635e+00 2.991742e+00 3.119908e+00 4.118809e+00 2.761369e+00 2.867899e+00 2.842407e+00 2.148344e+00 6.019765e-01
<GCONST> 1.019685e+02
<STATE> 4
<MEAN> 25
 6.317204e+00 -2.485846e+00 -3.073529e+00 -4.585479e+00 -1.598263e+00 -1.311682e+00 -3.882769e+00 -1.034435e+00 2.971522e+00 8.333876e-01 -2.032860e+00 -2.371832e+00 -2.562842e-01 1.613894e-01 1.730480e-01 2.397028e-01 1.177310e-01 1.141239e-02 3.918815e-01 3.715183e-01 -3.827761e-01 -3.815253e-01 4.619453e-02 1.663626e-01 -2.411107e-01
<VARIANCE> 25
 2.069478e+01 3.995262e+01 5.451274e+01 6.781839e+01 8.358884e+01 9.084281e+01 7.048822e+01 7.643389e+01 5.871532e+01 8.564398e+01 6.149522e+01 4.330418e+01 4.808602e-01 1.376487e+00 1.636045e+00 2.089092e+00 2.406369e+00 2.701595e+00 2.636494e+00 2.960167e+00 2.584119e+00 2.723144e+00 2.546391e+00 1.925337e+00 8.102171e-01
<GCONST> 1.028903e+02
<TRANSP> 5
 0.000000e+00 1.000000e+00 0.000000e+00 0.000000e+00 0.000000e+00
 0.000000e+00 4.126087e-01 5.873913e-01 0.000000e+00 0.000000e+00
 0.000000e+00 0.000000e+00 4.225692e-01 5.774308e-01 0.000000e+00
 0.000000e+00 0.000000e+00 0.000000e+00 5.946438e-01 4.053563e-01
 0.000000e+00 0.000000e+00 0.000000e+00 0.000000e+00 0.000000e+00
<ENDHMM>
~h "m"
<BEGINHMM>
<NUMSTATES> 5
<STATE> 2
<MEAN> 25
 5.941965e+00 1.993751e+00 -1.826986e-01 9.109674e-01 5.025994e-01 2.623927e+00 -1.523431e+00 -4.829216e+00 -3.953457e+00 -1.980213e-01 -6.042982e-01 -1.865716e+00 1.327284e-03 9.580500e-01 8.987362e-01 1.352823e+00 2.543772e-01 3.250602e-01 1.746365e-01 -1.328818e+00 -1.249845e+00 -2.496802e-01 -5.132654e-01 -6.786370e-02 -7.903683e-01
<VARIANCE> 25
 2.167306e+01 3.395060e+01 3.620277e+01 4.379020e+01 3.832644e+01 5.001419e+01 4.369107e+01 4.787365e+01 4.861305e+01 3.872073e+01 3.700601e+01 2.940929e+01 1.120432e+00 1.997292e+00 2.865991e+00 3.423334e+00 2.877128e+00 3.115959e+00 3.405606e+00 3.592085e+00 3.814143e+00 3.053199e+00 3.189352e+00 2.464502e+00 1.581516e+00
<GCONST> 1.024149e+02
<STATE> 3
<MEAN> 25
 5.575230e+00 3.358556e+00 1.999266e+00 3.135583e+00 5.063855e-01 3.169687e+00 -1.139645e+00 -7.377205e+00 -6.489083e+00 -8.500089e-01 -1.889516e+00 -1.885101e+00 5.378465e-02 7.559249e-02 -5.529456e-02 -1.421096e-02 1.338907e-02 1.948879e-01 1.085542e-01 -1.823825e-02 -4.445067e-02 -8.190884e-02 -1.288754e-01 -1.273292e-01 -3.319636e-02
<VARIANCE> 25
 1.839380e+01 3.141114e+01 3.173599e+01 3.423640e+01 3.850061e+01 5.099871e+01 4.836628e+01 5.372682e+01 5.879521e+01 4.489987e+01 3.969234e+01 3.169741e+01 5.904031e-01 1.293164e+00 1.905651e+00 2.161606e+00 1.854316e+00 2.104418e+00 2.059178e+00 2.290358e+00 2.569361e+00 2.083503e+00 2.047907e+00 1.735604e+00 8.601927e-01
<GCONST> 9.661159e+01
<STATE> 4
<MEAN> 25
 5.541205e+00 3.150599e+00 1.090327e-01 1.040101e+00 5.244971e-01 2.823514e+00 -8.918017e-01 -4.178610e+00 -3.759370e+00 -1.028283e+00 -1.765031e+00 -2.349184e+00 6.944583e-02 -5.097474e-01 -7.339935e-01 -8.573588e-01 -1.348309e-01 -5.200772e-02 -1.417199e-02 8.598893e-01 8.463902e-01 1.425987e-01 2.831425e-01 -3.993000e-02 4.308795e-01
<VARIANCE> 25
 2.209633e+01 3.625513e+01 3.899700e+01 4.460306e+01 4.344678e+01 5.269648e+01 4.491424e+01 4.762130e+01 5.183922e+01 3.966927e+01 3.819834e+01 3.131352e+01 7.254055e-01 1.789873e+00 2.595777e+00 3.106281e+00 2.631779e+00 2.721820e+00 2.550317e+00 2.962827e+00 3.460531e+00 2.495827e+00 2.421019e+00 2.183229e+00 1.082097e+00
<GCONST> 1.004536e+02
<TRANSP> 5
 0.000000e+00 1.000000e+00 0.000000e+00 0.000000e+00 0.000000e+00
 0.000000e+00 5.149137e-01 4.850863e-01 0.000000e+00 0.000000e+00
 0.000000e+00 0.000000e+00 4.871981e-01 5.128019e-01 0.000000e+00
 0.000000e+00 0.000000e+00 0.000000e+00 5.882550e-01 4.117450e-01
 0.000000e+00 0.000000e+00 0.000000e+00 0.000000e+00 0.000000e+00
<ENDHMM>
~h "n"
<BEGINHMM>
<NUMSTATES> 5
<STATE> 2
<MEAN> 25
 5.707925e+00 -1.351081e+00 1.728171e+00 1.396626e+00 -1.975290e+00 -1.692694e+00 -2.305850e+00 -6.982020e-01 -7.856143e-01 -8.207923e-01 -3.112450e+00 -1.352188e+00 2.361322e-01 1.778561e+00 7.284895e-01 1.505184e+00 -5.762159e-02 2.919094e-01 -1.299324e-01 -1.578389e+00 -2.640605e-01 5.569465e-02 -5.310976e-01 1.128454e-01 -1.584012e+00
<VARIANCE> 25
 1.580852e+01 4.045925e+01 4.148294e+01 4.314720e+01 5.286369e+01 5.302475e+01 4.746164e+01 6.303200e+01 5.054480e+01 4.826225e+01 4.419804e+01 3.413049e+01 9.922149e-01 2.342054e+00 3.055783e+00 3.110154e+00 4.286523e+00 4.098668e+00 3.974853e+00 5.069815e+00 3.940264e+00 3.666030e+00 3.545268e+00 2.846758e+00 1.413422e+00
<GCONST> 1.052506e+02
<STATE> 3
<MEAN> 25
 5.803203e+00 2.674807e+00 3.116551e+00 3.851435e+00 -2.323226e+00 -8.919581e-01 -2.411318e+00 -4.520084e+00 -1.650940e+00 -7.321571e-01 -4.410360e+00 -1.443269e+00 -1.132140e-01 1.002828e+00 2.498070e-01 5.000588e-01 2.878036e-01 2.582923e-01 1.052261e-01 -4.445212e-01 -2.331671e-01 -5.596811e-02 -7.375482e-02 2.311279e-02 -8.100440e-01
<VARIANCE> 25
 1.458153e+01 3.230094e+01 3.383092e+01 3.761934e+01 5.219790e+01 4.967977e+01 4.210456e+01 4.980917e+01 4.462720e+01 4.983586e+01 4.366700e+01 3.284251e+01 5.983691e-01 1.461951e+00 1.631983e+00 1.791113e+00 2.377531e+00 2.459356e+00 2.445666e+00 2.964635e+00 2.591920e+00 2.366655e+00 2.315788e+00 1.863628e+00 7.545982e-01
<GCONST> 9.741555e+01
<STATE> 4
<MEAN> 25
 3.142469e+00 4.982755e+00 2.968179e+00 4.498297e+00 5.405347e-01 2.917107e-01 -1.024542e+00 -2.868805e+00 -1.690018e+00 -1.139435e+00 -2.800773e+00 -8.948163e-01 -4.749364e-01 4.855034e-02 -3.641767e-02 -2.639080e-02 2.569351e-01 1.519101e-01 2.423134e-01 3.119303e-01 4.985667e-02 7.012603e-02 2.871268e-01 8.404496e-02 -3.303015e-01
<VARIANCE> 25
 2.183753e+01 3.108253e+01 2.759796e+01 3.445712e+01 4.454525e+01 3.994467e+01 3.652840e+01 3.938132e+01 3.612944e+01 3.633799e+01 3.424554e+01 2.740642e+01 7.870933e-01 1.371663e+00 1.364811e+00 1.611678e+00 2.003467e+00 2.039018e+00 2.071528e+00 2.358863e+00 2.180176e+00 2.118859e+00 1.965675e+00 1.623141e+00 7.634761e-01
<GCONST> 9.438366e+01
<TRANSP> 5
 0.000000e+00 1.000000e+00 0.000000e+00 0.000000e+00 0.000000e+00
 0.000000e+00 4.916805e-01 5.083195e-01 0.000000e+00 0.000000e+00
 0.000000e+00 0.000000e+00 4.565660e-01 5.434340e-01 0.000000e+00
 0.000000e+00 0.000000e+00 0.000000e+00 6.947584e-01 3.052416e-01
 0.000000e+00 0.000000e+00 0.000000e+00 0.000000e+00 0.000000e+00
<ENDHMM>
~h "o"
<BEGINHMM>
<NUMSTATES> 5
<STATE> 2
<MEAN> 25
 5.706581e+00 -5.450088e-01 -5.747140e+00 -7.855918e+00 -1.483842e+00 2.945273e+00 -1.981981e+00 -1.627650e+00 1.125964e+00 1.770798e+00 2.198757e+00 -1.285819e+00 1.104838e+00 -4.626690e-01 -8.917372e-01 -1.846659e+00 -1.406101e-01 1.035179e+00 -9.032640e-02 -2.268605e-01 -1.738640e-01 2.601035e-01 4.901864e-01 -3.918895e-01 1.140580e+00
<VARIANCE> 25
 3.565001e+01 3.826482e+01 4.525772e+01 8.437555e+01 7.178927e+01 9.739117e+01 6.808755e+01 6.198767e+01 6.433967e+01 6.238120e+01 5.443150e+01 4.023288e+01 3.487929e+00 3.229275e+00 3.859378e+00 6.707000e+00 6.182639e+00 6.954682e+00 5.706824e+00 5.248321e+00 5.486181e+00 4.971599e+00 4.504863e+00 3.605654e+00 3.960742e+00
<GCONST> 1.149081e+02
<STATE> 3
<MEAN> 25
 7.512916e+00 -1.350783e+00 -7.454419e+00 -1.109115e+01 -7.677023e-01 6.232810e+00 -2.015022e+00 -2.786239e+00 1.456470e-01 2.491728e+00 3.589068e+00 -1.831660e+00 -1.720470e-01 3.057529e-01 6.568576e-02 6.986930e-01 3.379779e-01 2.601171e-02 2.251015e-01 1.033508e-02 -6.421417e-02 -4.409969e-02 -2.357641e-01 1.221828e-01 -7.111447e-01
<VARIANCE> 25
 2.009272e+01 3.708221e+01 4.029902e+01 7.585006e+01 6.722256e+01 9.531152e+01 6.543161e+01 5.696284e+01 6.486723e+01 6.446940e+01 5.488677e+01 4.308450e+01 9.911166e-01 2.044549e+00 1.803029e+00 4.117613e+00 2.935982e+00 3.993997e+00 3.463910e+00 3.128299e+00 3.809776e+00 3.373263e+00 3.106899e+00 2.717424e+00 1.940431e+00
<GCONST> 1.065864e+02
<STATE> 4
<MEAN> 25
 3.824941e+00 9.629602e-01 -5.457019e+00 -6.215165e+00 -4.447953e-01 3.774993e+00 2.005203e-01 -1.359750e+00 2.516247e-01 1.274082e+00 1.169352e+00 -2.118764e-01 -3.529882e-01 1.697375e-01 3.250281e-01 6.576747e-01 1.636967e-01 -1.731649e-01 1.070139e-01 6.338950e-02 -7.785113e-04 -1.017832e-01 -1.779233e-01 7.587549e-02 -4.736213e-01
<VARIANCE> 25
 3.281702e+01 2.807800e+01 3.080938e+01 6.454335e+01 4.404276e+01 5.853144e+01 4.309304e+01 4.043701e+01 4.001830e+01 4.098687e+01 3.478088e+01 3.196437e+01 5.038016e-01 7.767892e-01 1.072695e+00 1.726948e+00 1.522884e+00 1.851352e+00 1.740356e+00 1.766225e+00 1.889281e+00 1.848038e+00 1.681938e+00 1.499603e+00 4.799281e-01
<GCONST> 9.338131e+01
<TRANSP> 5
 0.000000e+00 1.000000e+00 0.000000e+00 0.000000e+00 0.000000e+00
 0.000000e+00 5.396191e-01 4.603809e-01 0.000000e+00 0.000000e+00
 0.000000e+00 0.000000e+00 6.875641e-01 3.124359e-01 0.000000e+00
 0.000000e+00 0.000000e+00 0.000000e+00 7.888510e-01 2.111489e-01
 0.000000e+00 0.000000e+00 0.000000e+00 0.000000e+00 0.000000e+00
<ENDHMM>
~h "p"
<BEGINHMM>
<NUMSTATES> 5
<STATE> 2
<MEAN> 25
 -2.147985e+00 3.134528e+00 -2.362266e+00 2.533126e+00 2.301748e+00 2.269067e+00 2.121237e+00 6.835082e-01 1.474239e+00 1.650877e+00 1.162515e+00 1.016281e+00 -5.790973e-01 -4.315502e-01 -3.566871e-01 -1.453073e-01 -8.715885e-02 -6.897605e-02 2.183312e-01 6.555745e-02 3.302236e-01 2.664282e-01 3.194724e-01 2.903440e-01 1.660796e-01
<VARIANCE> 25
 4.596967e+01 3.239838e+01 3.688746e+01 3.853670e+01 3.648189e+01 4.278890e+01 3.487127e+01 3.802475e+01 3.722746e+01 3.451233e+01 3.063673e+01 2.633824e+01 4.390456e+00 3.839779e+00 3.337023e+00 4.292132e+00 3.608696e+00 4.227507e+00 3.547571e+00 3.819314e+00 3.743050e+00 3.302652e+00 3.032995e+00 2.597277e+00 7.209569e+00
<GCONST> 1.062791e+02
<STATE> 3
<MEAN> 25
 -5.456398e-01 8.959833e-02 -3.772849e+00 -2.377648e-01 9.589950e-01 1.157769e+00 1.638398e+00 -6.012136e-01 1.546449e+00 1.962378e+00 1.808380e+00 7.875612e-01 2.258001e+00 -1.913231e+00 -8.733604e-01 -2.259797e+00 -8.649101e-01 -1.707463e-01 -7.186259e-01 -6.357809e-01 1.153141e-01 7.402474e-02 1.200905e-01 -9.955053e-01 3.852458e+00
<VARIANCE> 25
 4.119016e+01 3.534122e+01 3.839979e+01 5.195991e+01 4.028226e+01 5.185328e+01 3.853685e+01 4.089982e+01 3.791935e+01 3.350444e+01 3.259906e+01 2.729859e+01 5.960253e+00 5.869272e+00 6.348656e+00 7.439152e+00 6.780467e+00 9.455891e+00 6.237731e+00 6.067297e+00 6.221708e+00 5.885315e+00 5.590619e+00 4.981164e+00 7.200768e+00
<GCONST> 1.138795e+02
<STATE> 4
<MEAN> 25
 4.994126e+00 -3.938384e+00 -6.045990e+00 -4.856556e+00 -3.795986e-01 2.094243e+00 -3.314885e-01 -1.671797e+00 1.904374e+00 1.903807e+00 1.378258e+00 -2.318929e+00 1.376742e+00 -1.095993e+00 -1.694542e-01 -1.028747e+00 -6.320244e-01 -3.089370e-01 -6.486318e-01 2.654249e-02 -1.384664e-02 -2.024065e-01 -3.421241e-01 -7.171804e-01 1.999939e+00
<VARIANCE> 25
 3.869099e+01 4.849644e+01 5.262894e+01 6.634300e+01 5.420156e+01 8.106232e+01 5.206819e+01 4.868950e+01 4.818183e+01 4.580891e+01 4.386693e+01 4.375321e+01 4.657526e+00 5.541993e+00 6.179470e+00 7.107913e+00 6.557120e+00 8.486755e+00 5.798449e+00 5.722532e+00 5.832539e+00 5.236800e+00 5.339395e+00 4.471261e+00 6.350692e+00
<GCONST> 1.161221e+02
<TRANSP> 5
 0.000000e+00 1.000000e+00 0.000000e+00 0.000000e+00 0.000000e+00
 0.000000e+00 5.683016e-01 4.316984e-01 0.000000e+00 0.000000e+00
 0.000000e+00 0.000000e+00 3.864883e-01 6.135117e-01 0.000000e+00
 0.000000e+00 0.000000e+00 0.000000e+00 3.454456e-01 6.545544e-01
 0.000000e+00 0.000000e+00 0.000000e+00 0.000000e+00 0.000000e+00
<ENDHMM>
~h "r"
<BEGINHMM>
<NUMSTATES> 5
<STATE> 2
<MEAN> 25
 4.952333e+00 -4.336609e+00 -2.850074e+00 3.164266e-01 -2.393271e+00 -2.338342e+00 -2.440405e+00 5.700874e-01 3.726449e+00 6.535634e-03 -3.335533e-01 -8.720949e-01 4.143140e-02 -1.269425e-02 2.526750e-01 8.929970e-01 -1.841970e-01 -1.952790e-01 -1.965907e-01 1.261003e-01 1.407724e-01 -2.070899e-01 2.106568e-01 3.110186e-01 -4.521570e-01
<VARIANCE> 25
 2.735457e+01 3.936603e+01 5.069377e+01 4.779918e+01 5.981566e+01 5.989429e+01 5.893129e+01 6.232140e+01 5.879211e+01 5.095982e+01 4.531808e+01 4.033737e+01 2.617493e+00 3.674847e+00 3.653406e+00 4.513263e+00 4.993734e+00 5.191752e+00 4.695386e+00 4.950960e+00 4.565800e+00 4.423115e+00 4.216515e+00 3.772117e+00 3.458284e+00
<GCONST> 1.111108e+02
<STATE> 3
<MEAN> 25
 4.905276e+00 -3.997160e+00 -2.002524e+00 1.844119e+00 -2.610993e+00 -2.751607e+00 -2.747557e+00 7.442900e-01 3.306461e+00 -1.845795e-01 2.852859e-01 -3.331508e-01 -2.156924e-01 2.561008e-01 4.553596e-01 3.866052e-01 8.784913e-02 5.431649e-02 9.378168e-02 9.958878e-03 -4.963310e-01 -3.302588e-02 2.674657e-01 1.720748e-01 -5.147046e-01
<VARIANCE> 25
 2.660554e+01 3.862607e+01 5.275475e+01 4.390070e+01 5.808952e+01 5.659933e+01 5.512804e+01 5.939541e+01 5.557841e+01 4.701497e+01 4.224166e+01 3.652901e+01 2.302993e+00 3.250204e+00 3.544926e+00 3.588836e+00 4.514262e+00 4.492446e+00 4.270068e+00 4.670424e+00 4.186563e+00 4.012148e+00 3.820992e+00 3.476644e+00 2.546026e+00
<GCONST> 1.089323e+02
<STATE> 4
<MEAN> 25
 4.007033e+00 -3.029451e+00 -8.986419e-01 2.211256e+00 -2.104273e+00 -2.602147e+00 -1.774185e+00 8.265693e-01 1.536231e+00 -4.092917e-01 7.027228e-01 -1.307454e-01 -3.254466e-01 4.432528e-01 4.004586e-01 -7.351366e-02 1.886642e-01 2.321105e-01 2.705426e-01 -1.374634e-01 -6.388181e-01 7.997616e-02 1.018158e-01 4.472595e-03 -4.453195e-01
<VARIANCE> 25
 3.199423e+01 4.486441e+01 5.824657e+01 4.529756e+01 5.970961e+01 6.097091e+01 5.538751e+01 6.123429e+01 5.320012e+01 4.629226e+01 4.381144e+01 3.618197e+01 1.597262e+00 2.394659e+00 2.722986e+00 2.507461e+00 3.527799e+00 3.309150e+00 3.200630e+00 3.492833e+00 3.465019e+00 3.003157e+00 2.927294e+00 2.391658e+00 1.713082e+00
<GCONST> 1.055612e+02
<TRANSP> 5
 0.000000e+00 1.000000e+00 0.000000e+00 0.000000e+00 0.000000e+00
 0.000000e+00 3.023608e-01 6.976392e-01 0.000000e+00 0.000000e+00
 0.000000e+00 0.000000e+00 2.065985e-01 7.934015e-01 0.000000e+00
 0.000000e+00 0.000000e+00 0.000000e+00 4.521020e-01 5.478979e-01
 0.000000e+00 0.000000e+00 0.000000e+00 0.000000e+00 0.000000e+00
<ENDHMM>
~h "s"
<BEGINHMM>
<NUMSTATES> 5
<STATE> 2
<MEAN> 25
 -6.577630e+00 4.213014e+00 1.546805e+00 1.400317e+00 4.292038e+00 -2.785842e+00 3.619226e+00 9.164290e-01 8.571129e-01 -6.984270e-01 3.966817e-01 1.252833e+00 -3.547447e+00 1.285816e+00 -1.016724e-01 9.323197e-02 1.302605e+00 -3.981584e-02 1.331475e+00 3.799129e-01 5.140439e-01 -9.480519e-02 8.865122e-01 4.942324e-01 7.417757e-02
<VARIANCE> 25
 6.695678e+01 6.778029e+01 8.326534e+01 5.661872e+01 8.145158e+01 8.382136e+01 6.849664e+01 6.211299e+01 5.375060e+01 4.737861e+01 4.734465e+01 3.448252e+01 3.741422e+00 6.146458e+00 6.912874e+00 5.259996e+00 5.752292e+00 6.052505e+00 5.184392e+00 5.089403e+00 4.414509e+00 4.876886e+00 3.841268e+00 3.034611e+00 1.817842e+00
<GCONST> 1.149251e+02
<STATE> 3
<MEAN> 25
 -1.724464e+01 5.055901e+00 4.081302e-01 2.371932e-01 5.919354e+00 -2.009679e+00 5.996911e+00 1.613202e+00 1.914783e+00 -2.458472e-01 3.159324e+00 2.848755e+00 -2.170068e-01 -4.364961e-01 -6.121992e-02 -8.549517e-02 -2.092353e-01 5.694276e-02 -3.742182e-02 4.313019e-02 7.112540e-02 4.175972e-02 5.298710e-02 1.108308e-01 -3.113814e-01
<VARIANCE> 25
 4.093053e+01 9.956437e+01 1.119789e+02 7.562837e+01 7.841471e+01 8.945736e+01 5.467834e+01 5.569436e+01 4.408241e+01 4.559700e+01 3.628706e+01 3.181472e+01 2.834823e+00 1.906164e+00 2.130588e+00 1.808769e+00 2.140096e+00 2.294117e+00 2.315782e+00 2.447720e+00 2.353984e+00 2.173539e+00 2.004698e+00 1.738892e+00 9.317354e-01
<GCONST> 1.040109e+02
<STATE> 4
<MEAN> 25
 -9.241438e+00 1.493605e+00 1.064953e+00 -1.445419e-01 2.715595e+00 -2.384459e+00 3.306662e+00 8.524638e-01 1.842835e+00 -4.638681e-01 1.162932e+00 2.061990e+00 3.742759e+00 -6.863971e-01 -1.031233e-01 -4.159236e-01 -1.405134e+00 -4.444914e-01 -1.505927e+00 -7.913528e-01 -3.465001e-01 -1.203507e-01 -9.275694e-01 -7.193767e-01 7.245414e-01
<VARIANCE> 25
 7.513248e+01 7.942655e+01 8.530772e+01 5.731286e+01 6.970154e+01 8.566572e+01 5.983754e+01 5.587057e+01 4.584948e+01 4.247108e+01 4.179479e+01 3.152370e+01 5.511359e+00 6.859838e+00 7.177873e+00 5.165088e+00 5.737999e+00 6.233663e+00 5.362822e+00 5.647947e+00 5.011685e+00 4.938512e+00 4.256190e+00 3.421541e+00 3.453558e+00
<GCONST> 1.160628e+02
<TRANSP> 5
 0.000000e+00 1.000000e+00 0.000000e+00 0.000000e+00 0.000000e+00
 0.000000e+00 6.881904e-01 3.118096e-01 0.000000e+00 0.000000e+00
 0.000000e+00 0.000000e+00 7.789879e-01 2.210121e-01 0.000000e+00
 0.000000e+00 0.000000e+00 0.000000e+00 6.304383e-01 3.695617e-01
 0.000000e+00 0.000000e+00 0.000000e+00 0.000000e+00 0.000000e+00
<ENDHMM>
~h "t"
<BEGINHMM>
<NUMSTATES> 5
<STATE> 2
<MEAN> 25
 -2.595884e+00 3.562238e+00 -6.358620e-01 3.364771e+00 1.849767e+00 3.073374e-01 1.438945e+00 3.315001e-01 1.718187e+00 1.239070e+00 9.496078e-01 1.385123e+00 -1.186892e+00 -2.739895e-01 -4.533683e-01 -9.204946e-02 3.178959e-01 1.334737e-01 5.562837e-01 2.710890e-01 4.197828e-01 1.131829e-01 4.449731e-01 3.973804e-01 -3.860492e-01
<VARIANCE> 25
 3.805295e+01 3.032655e+01 3.929580e+01 3.492764e+01 4.158624e+01 4.704860e+01 3.925829e+01 4.082931e+01 4.058044e+01 3.555323e+01 3.460661e+01 2.633401e+01 2.914385e+00 3.878693e+00 3.442795e+00 4.268084e+00 4.195686e+00 4.979079e+00 4.034208e+00 3.997330e+00 3.845120e+00 3.482006e+00 3.247096e+00 2.567022e+00 6.674240e+00
<GCONST> 1.068156e+02
<STATE> 3
<MEAN> 25
 -5.215626e+00 2.833623e-01 -1.925405e+00 6.123923e-01 2.040883e+00 -1.312914e+00 2.662667e+00 5.299968e-01 2.173477e+00 9.561267e-01 1.644910e+00 2.246454e+00 4.636133e-01 -1.653537e+00 -1.279165e-01 -1.859174e+00 -5.662665e-01 -1.235178e+00 -5.166221e-01 -2.215759e-01 3.404469e-01 -2.423604e-01 -1.309957e-01 -2.732674e-01 3.394605e+00
<VARIANCE> 25
 3.643942e+01 3.991635e+01 4.521860e+01 4.513094e+01 4.933325e+01 6.716817e+01 4.521840e+01 4.552806e+01 4.204370e+01 3.928435e+01 3.745640e+01 2.894049e+01 6.010678e+00 5.563334e+00 6.201578e+00 6.200392e+00 7.255881e+00 7.832508e+00 6.903510e+00 6.854744e+00 6.476260e+00 5.629948e+00 5.648542e+00 4.615273e+00 7.549792e+00
<GCONST> 1.149188e+02
<STATE> 4
<MEAN> 25
 -1.368657e+00 -2.323536e+00 -1.244702e+00 -2.843744e+00 -3.542609e-01 -3.443433e+00 -4.250434e-01 -3.610576e-01 2.486551e+00 2.315342e-01 1.857717e-01 4.252991e-01 2.021246e+00 -6.553667e-01 2.766879e-01 -1.201486e+00 -9.395287e-01 -4.632992e-01 -1.468577e+00 -4.087526e-01 -2.656865e-01 -7.054930e-02 -4.444647e-01 -9.095621e-01 2.307252e+00
<VARIANCE> 25
 4.049287e+01 4.402170e+01 5.158711e+01 5.116914e+01 5.833244e+01 6.876270e+01 6.207875e+01 5.380602e+01 5.010735e+01 4.454823e+01 4.284444e+01 3.566017e+01 4.969569e+00 5.464981e+00 6.938379e+00 6.172226e+00 7.008877e+00 8.266169e+00 7.327620e+00 7.087787e+00 6.706077e+00 6.429031e+00 6.125094e+00 4.552984e+00 5.311179e+00
<GCONST> 1.165941e+02
<TRANSP> 5
 0.000000e+00 1.000000e+00 0.000000e+00 0.000000e+00 0.000000e+00
 0.000000e+00 5.954269e-01 4.045731e-01 0.000000e+00 0.000000e+00
 0.000000e+00 0.000000e+00 3.715308e-01 6.284692e-01 0.000000e+00
 0.000000e+00 0.000000e+00 0.000000e+00 2.979561e-01 7.020440e-01
 0.000000e+00 0.000000e+00 0.000000e+00 0.000000e+00 0.000000e+00
<ENDHMM>
~h "u"
<BEGINHMM>
<NUMSTATES> 5
<STATE> 2
<MEAN> 25
 5.898087e+00 3.140218e+00 -1.583611e+00 -4.768393e+00 -2.079534e+00 5.366240e-01 -5.625200e+00 -4.461668e+00 -2.155916e+00 -2.768588e-02 2.527477e+00 1.352028e-01 1.274486e+00 3.851679e-01 -4.376664e-01 -1.418905e+00 -6.029394e-01 8.481268e-01 -9.166254e-01 -9.142674e-01 -7.307123e-01 1.815045e-01 8.771099e-01 8.899002e-02 5.998332e-01
<VARIANCE> 25
 3.011356e+01 4.268765e+01 5.108537e+01 7.925602e+01 6.279198e+01 8.091987e+01 7.642480e+01 6.928709e+01 6.414162e+01 6.909583e+01 5.420852e+01 4.063527e+01 3.216455e+00 3.744351e+00 4.133211e+00 5.813301e+00 5.900114e+00 7.127401e+00 6.394926e+00 5.991050e+00 5.871397e+00 5.903907e+00 4.713501e+00 3.807039e+00 2.955461e+00
<GCONST> 1.151830e+02
<STATE> 3
<MEAN> 25
 7.590680e+00 3.077627e+00 -2.384108e+00 -7.947470e+00 -2.968006e+00 3.846869e+00 -7.078324e+00 -6.554063e+00 -2.963962e+00 4.621116e-01 4.775431e+00 1.414392e-01 -7.016007e-03 6.451480e-02 -1.125101e-02 3.655519e-01 2.621753e-01 1.068110e-01 1.337525e-01 4.820262e-02 2.232213e-01 1.971852e-01 -2.226158e-01 -1.044762e-01 -3.756088e-01
<VARIANCE> 25
 1.974048e+01 3.778791e+01 4.498985e+01 7.859270e+01 6.256767e+01 9.421288e+01 7.257407e+01 7.804002e+01 7.056474e+01 8.117288e+01 6.334615e+01 4.527515e+01 9.628676e-01 2.915771e+00 2.328685e+00 4.776107e+00 3.958934e+00 4.529360e+00 4.933923e+00 4.372041e+00 5.090611e+00 4.815650e+00 4.059622e+00 3.574083e+00 2.142691e+00
<GCONST> 1.107057e+02
<STATE> 4
<MEAN> 25
 5.759501e+00 4.911507e+00 -2.349288e+00 -5.075327e+00 -1.330146e+00 1.529762e+00 -4.316313e+00 -4.274836e+00 -3.094893e+00 3.549225e-01 2.482717e+00 9.082115e-01 -5.907487e-01 -5.116276e-03 3.087352e-01 9.512492e-01 3.983480e-01 -1.363929e-01 5.105379e-01 4.219506e-01 3.575967e-01 -7.237017e-02 -4.220686e-01 -5.351628e-02 -6.452998e-01
<VARIANCE> 25
 2.535487e+01 3.694627e+01 4.063324e+01 7.400981e+01 5.058221e+01 6.345704e+01 5.305939e+01 4.879499e+01 5.461509e+01 5.652176e+01 4.263398e+01 4.012305e+01 8.878615e-01 1.487066e+00 1.657383e+00 2.652776e+00 2.429646e+00 2.841556e+00 2.692324e+00 2.666758e+00 2.772168e+00 2.737779e+00 2.635339e+00 2.130075e+00 1.052898e+00
<GCONST> 1.016763e+02
<TRANSP> 5
 0.000000e+00 1.000000e+00 0.000000e+00 0.000000e+00 0.000000e+00
 0.000000e+00 4.712100e-01 5.287900e-01 0.000000e+00 0.000000e+00
 0.000000e+00 0.000000e+00 5.248398e-01 4.751602e-01 0.000000e+00
 0.000000e+00 0.000000e+00 0.000000e+00 7.250559e-01 2.749441e-01
 0.000000e+00 0.000000e+00 0.000000e+00 0.000000e+00 0.000000e+00
<ENDHMM>
~h "w"
<BEGINHMM>
<NUMSTATES> 5
<STATE> 2
<MEAN> 25
 6.574154e+00 4.037473e+00 -3.830685e+00 -7.175319e+00 -2.483919e+00 1.918747e+00 -1.424404e+00 -1.719020e+00 -1.580557e+00 3.577235e-01 2.107750e+00 -2.863129e-01 1.552815e+00 5.765401e-01 -7.769747e-01 -1.976770e+00 -1.139697e+00 4.086311e-01 -2.450956e-02 -3.181971e-01 -6.644688e-01 -2.457031e-01 6.366482e-01 2.515233e-01 8.747976e-01
<VARIANCE> 25
 4.435184e+01 6.363779e+01 4.107397e+01 7.189478e+01 5.971564e+01 9.120651e+01 5.895151e+01 5.171463e+01 4.727369e+01 4.510970e+01 4.118016e+01 4.039535e+01 3.734191e+00 4.193203e+00 3.323092e+00 4.878421e+00 4.677530e+00 5.741246e+00 4.547744e+00 4.178709e+00 3.966744e+00 4.172550e+00 4.059315e+00 3.969430e+00 4.560269e+00
<GCONST> 1.124650e+02
<STATE> 3
<MEAN> 25
 9.847965e+00 2.719006e+00 -6.641916e+00 -1.442242e+01 -5.351440e+00 6.130816e+00 -1.274917e+00 -2.449746e+00 -2.566475e+00 2.833468e-01 4.968511e+00 4.276027e-01 -9.298252e-02 -1.085564e+00 -5.545447e-01 -4.696414e-01 6.196049e-01 7.095293e-01 -1.391352e-02 -2.031783e-01 4.552203e-01 6.471914e-01 2.158063e-01 -6.384751e-01 7.249141e-01
<VARIANCE> 25
 1.534735e+01 3.355796e+01 3.133952e+01 5.550676e+01 4.560396e+01 8.366990e+01 4.845599e+01 4.280502e+01 4.441387e+01 4.561646e+01 4.252607e+01 3.578505e+01 6.797679e-01 3.334519e+00 1.606085e+00 2.672582e+00 3.306231e+00 3.218786e+00 3.306850e+00 2.842970e+00 2.997030e+00 3.085290e+00 2.627650e+00 3.569629e+00 1.414244e+00
<GCONST> 1.021684e+02
<STATE> 4
<MEAN> 25
 7.373819e+00 -3.510589e+00 -8.293624e+00 -1.214055e+01 1.000646e+00 7.274446e+00 -2.247259e+00 -3.086940e+00 1.695288e+00 3.765541e+00 2.343609e+00 -5.023542e+00 -4.295133e-01 -6.571347e-01 1.525535e-01 1.012825e+00 6.267029e-01 -6.640863e-01 5.233045e-02 4.431475e-01 6.051030e-01 -1.153787e-01 -9.451447e-01 -4.260384e-01 8.050676e-02
<VARIANCE> 25
 1.580015e+01 3.712572e+01 2.842271e+01 5.471579e+01 5.050049e+01 8.209029e+01 5.517782e+01 4.036881e+01 4.674409e+01 4.940374e+01 5.043224e+01 4.198682e+01 5.047510e-01 2.170668e+00 1.190814e+00 2.469121e+00 2.322790e+00 2.811463e+00 2.499594e+00 2.524400e+00 2.576932e+00 2.480732e+00 2.745275e+00 2.950778e+00 1.085621e+00
<GCONST> 1.000294e+02
<TRANSP> 5
 0.000000e+00 1.000000e+00 0.000000e+00 0.000000e+00 0.000000e+00
 0.000000e+00 6.215981e-01 3.784019e-01 0.000000e+00 0.000000e+00
 0.000000e+00 0.000000e+00 6.905673e-01 3.094328e-01 0.000000e+00
 0.000000e+00 0.000000e+00 0.000000e+00 7.427453e-01 2.572547e-01
 0.000000e+00 0.000000e+00 0.000000e+00 0.000000e+00 0.000000e+00
<ENDHMM>
~h "y"
<BEGINHMM>
<NUMSTATES> 5
<STATE> 2
<MEAN> 25
 1.501593e+00 -7.060077e-01 9.606006e+00 -3.604831e+00 -7.985293e+00 -3.624372e+00 -1.208862e+00 4.415751e-03 -3.514767e+00 4.636337e-01 1.761428e+00 -5.805099e-02 -5.516456e-02 -9.617037e-01 6.005729e-01 -7.538084e-01 -1.082920e+00 -3.650829e-01 3.650593e-01 7.027745e-01 -2.455538e-01 4.037866e-02 4.470194e-01 2.707762e-02 1.013216e+00
<VARIANCE> 25
 2.215292e+01 5.201328e+01 6.997060e+01 7.849175e+01 7.328904e+01 7.141165e+01 6.710859e+01 7.557155e+01 5.791255e+01 5.337045e+01 5.516656e+01 3.942364e+01 1.560804e+00 3.768751e+00 5.901242e+00 4.623687e+00 4.953671e+00 4.504169e+00 5.036823e+00 5.754606e+00 4.323248e+00 4.072561e+00 4.004496e+00 2.842490e+00 2.148546e+00
<GCONST> 1.120380e+02
<STATE> 3
<MEAN> 25
 2.434732e+00 -6.302358e+00 6.372567e+00 -4.102234e+00 -9.216656e+00 -5.729464e+00 1.569522e+00 5.896621e+00 -2.221263e+00 -1.175940e+00 1.286135e+00 -5.466859e-01 1.662948e-01 -5.946418e-01 -1.079482e+00 2.178242e-01 9.166808e-01 1.428651e-01 2.365023e-01 5.944734e-01 4.007340e-01 -4.600955e-01 -7.152324e-01 -1.243191e-01 1.033644e-01
<VARIANCE> 25
 1.588361e+01 3.387550e+01 4.566848e+01 4.499698e+01 5.757137e+01 6.390757e+01 6.640234e+01 8.869569e+01 5.086158e+01 4.840037e+01 5.076195e+01 3.360418e+01 3.373076e-01 1.270682e+00 2.109185e+00 1.557337e+00 2.799435e+00 1.999214e+00 2.338125e+00 2.737651e+00 2.396220e+00 2.274645e+00 2.593986e+00 1.734750e+00 4.515155e-01
<GCONST> 9.833006e+01
<STATE> 4
<MEAN> 25
 1.671964e-01 -3.094114e+00 -5.174772e-01 -1.480496e-01 -7.851557e-01 -9.318628e-01 1.378358e+00 2.527407e+00 -3.600042e-01 -1.533123e+00 -5.494063e-01 6.097251e-01 1.801085e-02 2.947889e-02 -2.808406e-01 9.013161e-02 3.384613e-01 1.294262e-01 -7.303704e-02 -6.462357e-02 9.672268e-02 -1.664481e-02 -1.278158e-01 -4.204870e-02 -1.806838e-01
<VARIANCE> 25
 2.433574e+01 3.209890e+01 3.136295e+01 3.301551e+01 4.583851e+01 3.673874e+01 4.185660e+01 4.764696e+01 3.553644e+01 3.707364e+01 3.610091e+01 2.547046e+01 2.505834e-01 5.373131e-01 9.764653e-01 9.276416e-01 1.534792e+00 1.305237e+00 1.459175e+00 1.579521e+00 1.503228e+00 1.539654e+00 1.457157e+00 1.253201e+00 2.497436e-01
<GCONST> 8.806437e+01
<TRANSP> 5
 0.000000e+00 1.000000e+00 0.000000e+00 0.000000e+00 0.000000e+00
 0.000000e+00 7.051301e-01 2.948699e-01 0.000000e+00 0.000000e+00
 0.000000e+00 0.000000e+00 6.982245e-01 3.017754e-01 0.000000e+00
 0.000000e+00 0.000000e+00 0.000000e+00 8.100933e-01 1.899067e-01
 0.000000e+00 0.000000e+00 0.000000e+00 0.000000e+00 0.000000e+00
<ENDHMM>
~h "z"
<BEGINHMM>
<NUMSTATES> 5
<STATE> 2
<MEAN> 25
 -6.957403e+00 1.285653e+01 4.790253e+00 8.825464e+00 -6.428485e-01 -6.016067e+00 4.513468e+00 -6.462043e+00 -1.548525e+00 -4.544537e+00 2.852356e+00 9.831396e-01 -9.350045e-01 5.045196e-01 -2.537171e-01 4.608065e-01 4.971992e-01 -2.303132e-01 3.215963e-01 -9.130247e-02 5.911666e-01 -1.555036e-01 2.934633e-01 1.793755e-02 -1.707163e-02
<VARIANCE> 25
 4.272902e+01 6.756500e+01 5.042205e+01 6.000076e+01 6.573473e+01 7.597432e+01 6.469636e+01 3.881863e+01 5.643097e+01 5.410695e+01 3.570315e+01 3.581358e+01 3.687275e+00 4.464029e+00 3.767168e+00 4.138620e+00 5.841002e+00 5.355241e+00 5.413710e+00 3.232138e+00 5.179521e+00 3.825050e+00 3.671707e+00 2.606042e+00 1.083609e+00
<GCONST> 1.106296e+02
<STATE> 3
<MEAN> 25
 -2.751230e+00 -5.575671e+00 1.282874e+01 6.597418e+00 -4.873306e-01 7.979692e+00 -4.745811e+00 -1.143787e+01 6.670014e-01 -1.202540e+00 6.640688e-01 2.561671e-01 4.061789e-01 -6.251912e-01 8.649901e-03 -5.066271e-01 -6.113252e-01 -3.088588e-02 -2.072003e-01 1.288541e-01 8.954338e-02 3.123190e-02 8.846700e-02 2.081894e-01 4.920288e-01
<VARIANCE> 25
 5.730866e+01 1.036635e+02 1.435249e+02 1.183342e+02 9.162798e+01 1.888920e+02 7.294033e+01 6.716756e+01 6.473074e+01 5.978333e+01 4.282504e+01 5.526635e+01 4.333980e+00 5.186586e+00 1.015668e+01 5.279681e+00 4.856026e+00 9.560707e+00 4.637299e+00 5.222070e+00 6.282846e+00 4.335004e+00 3.716318e+00 3.316611e+00 1.980555e+00
<GCONST> 1.192816e+02
<STATE> 4
<MEAN> 25
 -4.170841e-01 1.710129e+00 7.145894e+00 3.251146e+00 -6.626795e+00 -3.788839e+00 -2.244123e+00 -5.791963e+00 -6.811185e+00 -1.735842e+00 5.001088e+00 2.799655e-01 1.777354e-01 -1.729367e-01 -1.953364e-01 -2.686825e-01 -1.127213e-03 -9.778467e-02 2.956173e-02 4.239805e-01 6.431931e-02 3.004126e-01 -4.410014e-03 9.103622e-02 -6.036483e-03
<VARIANCE> 25
 3.738214e+01 6.830115e+01 1.083048e+02 6.146218e+01 6.974158e+01 4.483877e+01 6.311150e+01 3.698447e+01 8.414000e+01 3.818712e+01 6.814673e+01 3.500013e+01 6.340398e-01 1.234892e+00 1.637022e+00 1.420286e+00 1.874263e+00 1.907633e+00 1.969512e+00 1.780375e+00 1.912324e+00 1.642143e+00 1.427449e+00 1.161858e+00 6.244159e-01
<GCONST> 9.855775e+01
<TRANSP> 5
 0.000000e+00 1.000000e+00 0.000000e+00 0.000000e+00 0.000000e+00
 0.000000e+00 8.257003e-01 1.742997e-01 0.000000e+00 0.000000e+00
 0.000000e+00 0.000000e+00 8.255082e-01 1.744918e-01 0.000000e+00
 0.000000e+00 0.000000e+00 0.000000e+00 7.801462e-01 2.198538e-01
 0.000000e+00 0.000000e+00 0.000000e+00 0.000000e+00 0.000000e+00
<ENDHMM>
~h "aw"
<BEGINHMM>
<NUMSTATES> 5
<STATE> 2
<MEAN> 25
 5.544791e+00 -5.804629e+00 -8.250299e+00 -6.088809e+00 2.379317e+00 8.826433e+00 2.989761e+00 -4.979610e+00 1.541406e+01 -3.272313e+00 -5.419692e+00 -4.427607e+00 3.986613e-01 -3.594958e-01 -3.306055e-02 -1.441639e+00 4.581386e-01 1.723384e+00 -5.752374e-02 -1.712953e-01 -8.310961e-01 3.393743e-01 4.032847e-01 -3.580198e-01 -4.072742e-01
<VARIANCE> 25
 2.664396e+01 1.016725e+02 2.179304e+01 6.265542e+01 1.375352e+02 7.538346e+01 6.199206e+01 8.285394e+01 6.885170e+01 9.854882e+01 1.453089e+02 6.859370e+01 1.105830e+00 2.814029e+00 2.775289e+00 4.940980e+00 4.299302e+00 4.549656e+00 2.791293e+00 7.061318e+00 3.683406e+00 3.385764e+00 3.390110e+00 3.083473e+00 2.761225e+00
<GCONST> 1.124848e+02
<STATE> 3
<MEAN> 25
 8.930807e+00 -2.340529e+00 -4.668940e+00 -1.806069e+01 -4.688622e+00 1.327644e+01 -2.474908e+00 -1.531597e+00 1.645877e+00 1.224877e+00 3.358922e+00 1.716815e+00 1.610648e-01 9.650892e-01 2.479227e-02 3.099325e-02 -2.924250e-01 -1.689469e-01 4.172707e-01 -1.245258e-01 -6.012048e-01 -3.280569e-01 2.493395e-01 2.691057e-01 -8.530580e-01
<VARIANCE> 25
 1.744897e+01 1.157841e+02 2.479733e+01 5.445568e+01 3.641580e+01 3.926525e+01 5.525219e+01 2.715593e+01 3.917007e+01 3.720532e+01 3.308630e+01 2.769631e+01 9.559429e-01 2.713845e+00 1.629759e+00 2.862039e+00 1.983819e+00 2.213823e+00 2.182997e+00 1.651286e+00 2.355699e+00 2.331064e+00 1.760568e+00 3.701977e+00 1.022908e+00
<GCONST> 9.830529e+01
<STATE> 4
<MEAN> 25
 -7.447940e+00 2.933226e+00 1.826415e+00 6.697927e+00 -2.059233e+00 2.720132e-01 -2.093194e+00 4.698317e+00 -1.926387e+00 -4.626553e+00 1.659850e+00 -4.375793e+00 -6.422060e-01 -5.359777e-01 -3.055537e-01 6.397334e-01 5.495641e-01 -3.372632e-01 1.844718e-01 -2.365151e-01 1.951168e-01 -2.387606e-03 -3.065886e-01 6.940290e-02 6.929086e-02
<VARIANCE> 25
 1.341819e+02 4.285039e+01 9.831512e+01 1.985867e+02 1.174003e+02 3.138268e+02 1.146089e+02 4.990393e+01 7.488863e+01 6.591228e+01 6.472547e+01 5.841009e+01 1.813164e+00 1.233845e+00 4.583853e+00 3.786005e+00 4.906854e+00 4.730883e+00 4.981516e+00 3.138790e+00 4.662749e+00 4.200588e+00 4.341496e+00 4.425154e+00 1.159543e+00
<GCONST> 1.160230e+02
<TRANSP> 5
 0.000000e+00 1.000000e+00 0.000000e+00 0.000000e+00 0.000000e+00
 0.000000e+00 8.228179e-01 1.771821e-01 0.000000e+00 0.000000e+00
 0.000000e+00 0.000000e+00 8.977265e-01 1.022735e-01 0.000000e+00
 0.000000e+00 0.000000e+00 0.000000e+00 8.234583e-01 1.765418e-01
 0.000000e+00 0.000000e+00 0.000000e+00 0.000000e+00 0.000000e+00
<ENDHMM>
~h "ay"
<BEGINHMM>
<NUMSTATES> 5
<STATE> 2
<MEAN> 25
 3.545890e+00 -1.059580e+01 -2.169764e+00 -3.591542e+00 -4.411530e+00 -4.337215e+00 5.000650e+00 7.493112e+00 2.685435e+00 -3.920794e+00 -2.158459e+00 -1.642617e+00 -1.882628e-01 -9.169379e-02 1.393666e+00 -4.930415e-02 -1.277072e+00 -5.458369e-01 7.172364e-01 2.015510e-01 -7.365203e-01 3.954740e-02 6.307317e-01 3.903539e-01 -3.916398e-03
<VARIANCE> 25
 1.925320e+01 2.204525e+01 4.847641e+01 2.971941e+01 3.940434e+01 4.013482e+01 5.136920e+01 4.474228e+01 5.001233e+01 4.029873e+01 4.768975e+01 3.424549e+01 5.819716e-01 1.783925e+00 3.421031e+00 2.094077e+00 3.937263e+00 2.867135e+00 2.590867e+00 3.780842e+00 2.453223e+00 4.310263e+00 3.406177e+00 2.113410e+00 4.550635e-01
<GCONST> 9.964078e+01
<STATE> 3
<MEAN> 25
 2.055956e+00 -4.314189e+00 9.144269e+00 -5.116965e+00 -1.237392e+01 -5.319064e+00 3.111744e+00 1.027077e+00 -1.231036e+00 2.155817e+00 2.994859e+00 -4.957056e-01 -2.474838e-01 1.433977e+00 8.539938e-01 3.401480e-01 -1.505043e-01 3.195530e-01 -5.716643e-01 -1.212221e+00 -1.971145e-01 6.058316e-01 1.179850e-01 4.217920e-01 -1.144965e+00
<VARIANCE> 25
 1.543860e+01 3.463552e+01 5.940561e+01 4.127591e+01 3.917764e+01 6.427976e+01 4.954911e+01 6.834514e+01 5.322181e+01 4.548784e+01 5.699613e+01 2.645980e+01 5.710495e-01 1.161962e+00 3.374005e+00 2.676571e+00 2.624284e+00 2.460125e+00 3.360553e+00 4.155727e+00 3.801130e+00 3.102611e+00 2.969198e+00 2.327251e+00 1.167181e+00
<GCONST> 1.019499e+02
<STATE> 4
<MEAN> 25
 -1.172277e+00 1.746821e+00 4.509721e+00 2.138973e+00 -6.988440e+00 -7.599535e-01 1.129513e-01 -2.359648e-01 -3.644332e-01 6.670463e-01 2.891223e+00 2.152572e+00 -4.095090e-01 2.514060e-01 -6.110831e-01 5.611216e-01 8.343779e-01 4.738537e-01 -1.980168e-01 2.394203e-01 2.412115e-01 -1.860594e-01 -8.731001e-03 1.709155e-01 -9.275085e-01
<VARIANCE> 25
 4.132196e+01 4.295203e+01 5.001597e+01 4.242167e+01 6.125786e+01 8.136927e+01 5.290183e+01 5.778078e+01 6.440217e+01 3.348019e+01 4.459045e+01 2.592640e+01 4.901319e-01 9.719680e-01 2.439565e+00 2.084209e+00 2.397536e+00 2.565569e+00 2.079894e+00 2.766320e+00 2.521773e+00 2.465631e+00 1.898942e+00 1.692518e+00 1.082561e+00
<GCONST> 9.988187e+01
<TRANSP> 5
 0.000000e+00 1.000000e+00 0.000000e+00 0.000000e+00 0.000000e+00
 0.000000e+00 7.878295e-01 2.121705e-01 0.000000e+00 0.000000e+00
 0.000000e+00 0.000000e+00 7.936253e-01 2.063747e-01 0.000000e+00
 0.000000e+00 0.000000e+00 0.000000e+00 8.039765e-01 1.960235e-01
 0.000000e+00 0.000000e+00 0.000000e+00 0.000000e+00 0.000000e+00
<ENDHMM>
~h "kh"
<BEGINHMM>
<NUMSTATES> 5
<STATE> 2
<MEAN> 25
 -2.258137e+01 -4.249304e+00 4.684165e+00 1.136971e+01 4.992653e-01 1.181306e+01 1.409756e+01 1.218998e+01 1.457383e+00 -2.986939e+00 5.352660e+00 8.536146e+00 -4.868794e-01 -4.805260e-02 2.863922e-01 -3.416654e-01 -5.100927e-01 3.521714e-02 5.040264e-01 -3.185378e-02 1.034877e-01 8.716270e-01 7.804070e-01 5.289642e-01 3.080559e-02
<VARIANCE> 25
 1.012350e+02 1.367578e+01 4.496670e+01 3.279011e+01 5.126247e+01 3.811850e+01 2.736330e+01 7.279070e+01 2.179325e+01 5.331174e+01 6.351968e+01 4.739739e+01 2.005401e+00 1.055570e+00 2.549606e+00 2.209512e+00 2.545081e+00 4.386228e+00 4.666606e+00 4.280536e+00 2.143030e+00 3.192501e+00 4.330805e+00 1.257498e+00 1.118082e+00
<GCONST> 1.023335e+02
<STATE> 3
<MEAN> 25
 -1.063043e+00 4.794256e+00 -2.488268e+00 2.684295e+00 1.981051e+00 6.223396e+00 3.346457e+00 -7.795512e+00 -4.746487e-01 4.378912e+00 1.765242e+00 4.859423e+00 1.809451e+00 2.695621e-01 -2.605683e-01 -6.938334e-01 7.783398e-01 -3.513492e-01 -1.083275e+00 -9.820200e-01 1.080927e-01 -1.593062e-01 -3.926216e-01 -2.400887e+00 2.395823e+00
<VARIANCE> 25
 1.042966e+02 1.606462e+02 8.255437e+01 4.067421e+01 8.587923e+01 1.141339e+02 5.657194e+01 8.861677e+01 1.986576e+01 2.397827e+01 2.484042e+01 9.178082e+01 1.327401e+01 1.107806e+01 1.169720e+01 2.872329e+00 1.425393e+01 9.168779e+00 7.091070e+00 9.071825e+00 7.219511e+00 3.068706e+00 7.294753e+00 2.822685e+00 3.374758e+00
<GCONST> 1.202819e+02
<STATE> 4
<MEAN> 25
 2.555809e+00 -4.859281e+00 -6.264809e+00 -2.069453e+00 6.758965e+00 8.148722e-01 1.582548e+00 2.441408e+00 5.859583e+00 -5.847335e-01 2.802284e+00 -7.187201e+00 -4.986104e-01 4.682802e-03 6.256854e-01 -1.182065e-01 -3.981653e-01 -1.601544e-01 3.320910e-01 4.767928e-01 -3.907993e-01 -3.353751e-01 1.572446e-01 6.957615e-02 1.334436e-01
<VARIANCE> 25
 7.124157e+01 4.355469e+01 9.522507e+01 7.487164e+01 9.189258e+01 4.982159e+01 9.224912e+01 2.998449e+01 3.409051e+01 4.530162e+01 3.385990e+01 6.120930e+01 3.672378e+00 4.726368e+00 4.866960e+00 3.811036e+00 6.714196e+00 5.544657e+00 4.472104e+00 1.808191e+00 3.245077e+00 4.242317e+00 2.913502e+00 2.178911e+00 4.273059e+00
<GCONST> 1.115965e+02
<TRANSP> 5
 0.000000e+00 1.000000e+00 0.000000e+00 0.000000e+00 0.000000e+00
 0.000000e+00 8.764504e-01 1.235496e-01 0.000000e+00 0.000000e+00
 0.000000e+00 0.000000e+00 8.041043e-01 1.958958e-01 0.000000e+00
 0.000000e+00 0.000000e+00 0.000000e+00 9.395187e-01 6.048127e-02
 0.000000e+00 0.000000e+00 0.000000e+00 0.000000e+00 0.000000e+00
<ENDHMM>
~h "ng"
<BEGINHMM>
<NUMSTATES> 5
<STATE> 2
<MEAN> 25
 6.498912e+00 -9.965886e-01 -1.603809e+00 -3.921796e+00 -3.206510e-01 3.573669e+00 -2.304877e+00 -2.340125e+00 -1.304721e+00 -3.174427e-01 -1.916245e+00 -3.448359e+00 -2.144998e-02 9.935097e-01 5.816765e-01 7.587928e-01 -2.363620e-01 6.272037e-02 1.963794e-01 -6.460343e-01 -2.369083e-01 1.517339e-01 -3.079533e-01 9.691350e-03 -8.556404e-01
<VARIANCE> 25
 1.189879e+01 3.904923e+01 4.058373e+01 4.915142e+01 6.601765e+01 7.795951e+01 6.008291e+01 5.244190e+01 6.173398e+01 5.196449e+01 4.433767e+01 4.231435e+01 4.261847e-01 1.417153e+00 2.035196e+00 2.047737e+00 3.233283e+00 2.754060e+00 3.081807e+00 2.871785e+00 3.142068e+00 2.506889e+00 2.767487e+00 2.192026e+00 6.714045e-01
<GCONST> 1.006568e+02
<STATE> 3
<MEAN> 25
 5.978638e+00 2.774346e+00 8.415235e-01 -1.073510e+00 -1.796285e+00 2.928190e+00 -1.174403e+00 -4.799726e+00 -2.538961e+00 8.763805e-02 -3.040688e+00 -2.958440e+00 -1.736625e-01 5.981110e-01 4.012913e-01 5.358242e-01 -6.574169e-03 -1.512597e-01 1.226560e-01 -1.464004e-01 -4.903707e-02 -9.096113e-03 -1.763707e-01 3.790344e-02 -5.044951e-01
<VARIANCE> 25
 1.216761e+01 2.981362e+01 3.641410e+01 3.357539e+01 5.876472e+01 5.489594e+01 4.776822e+01 5.186679e+01 5.158131e+01 4.954867e+01 3.811704e+01 3.483273e+01 3.483847e-01 9.559185e-01 1.316084e+00 1.391915e+00 2.022167e+00 1.828533e+00 1.990698e+00 2.031161e+00 2.059264e+00 1.875032e+00 1.756871e+00 1.504504e+00 4.711575e-01
<GCONST> 9.366178e+01
<STATE> 4
<MEAN> 25
 3.125844e+00 3.513564e+00 1.093098e+00 1.095550e+00 8.650517e-01 1.530592e+00 -5.383909e-01 -2.735846e+00 -2.188126e+00 -1.161381e+00 -2.387751e+00 -1.850655e+00 -3.441306e-01 -7.461240e-02 -2.438819e-02 1.816541e-01 2.120554e-01 -7.051969e-02 1.640185e-01 2.959430e-01 1.367019e-01 6.623174e-02 1.984341e-01 1.591392e-01 -1.779089e-01
<VARIANCE> 25
 1.917221e+01 2.766672e+01 2.699574e+01 2.983345e+01 4.697118e+01 3.837727e+01 3.681326e+01 3.655547e+01 3.915281e+01 4.092006e+01 3.183327e+01 2.725270e+01 5.794010e-01 1.090687e+00 1.198626e+00 1.393014e+00 1.840357e+00 1.738130e+00 1.888271e+00 1.994253e+00 2.034506e+00 2.030792e+00 1.742899e+00 1.540495e+00 5.948413e-01
<GCONST> 9.218763e+01
<TRANSP> 5
 0.000000e+00 1.000000e+00 0.000000e+00 0.000000e+00 0.000000e+00
 0.000000e+00 5.592428e-01 4.407573e-01 0.000000e+00 0.000000e+00
 0.000000e+00 0.000000e+00 5.425814e-01 4.574185e-01 0.000000e+00
 0.000000e+00 0.000000e+00 0.000000e+00 7.246059e-01 2.753941e-01
 0.000000e+00 0.000000e+00 0.000000e+00 0.000000e+00 0.000000e+00
<ENDHMM>
~h "ny"
<BEGINHMM>
<NUMSTATES> 5
<STATE> 2
<MEAN> 25
 2.717050e+00 1.232617e+00 9.230692e+00 -3.716151e+00 -6.015315e+00 -7.650573e-01 -9.977913e-02 -1.520958e+00 -5.090272e+00 -9.267807e-03 6.150488e-01 -9.503484e-01 -3.663557e-01 -1.412684e+00 6.938287e-01 -9.827832e-01 -9.358315e-01 1.813141e-01 6.916919e-01 1.021734e+00 -4.188609e-01 -2.615691e-01 3.398528e-01 -1.236869e-01 1.134221e+00
<VARIANCE> 25
 1.754407e+01 5.130889e+01 4.933261e+01 7.754968e+01 5.045431e+01 6.046505e+01 4.958043e+01 6.794612e+01 5.038429e+01 4.909912e+01 5.136593e+01 4.216347e+01 1.416086e+00 3.946457e+00 4.106810e+00 5.925228e+00 4.152644e+00 4.682107e+00 4.544986e+00 5.717959e+00 4.096639e+00 4.361941e+00 3.613744e+00 2.662406e+00 1.732096e+00
<GCONST> 1.094726e+02
<STATE> 3
<MEAN> 25
 2.316441e+00 -7.174836e+00 7.284892e+00 -3.829433e+00 -7.122882e+00 -1.807205e+00 2.712099e+00 5.695649e+00 -4.970020e+00 -4.440019e+00 -9.926741e-02 -8.571006e-01 2.195805e-01 -8.760382e-01 -1.337344e+00 6.531295e-01 1.086001e+00 -3.362423e-01 -1.055178e-01 7.038724e-01 6.011307e-01 -8.703932e-01 -7.829917e-01 1.700076e-01 1.732824e-01
<VARIANCE> 25
 1.433171e+01 3.742130e+01 3.808939e+01 4.602955e+01 5.220973e+01 5.436300e+01 5.701146e+01 7.039405e+01 5.887976e+01 5.173404e+01 4.738425e+01 4.038354e+01 3.805255e-01 1.608167e+00 1.722418e+00 1.906370e+00 2.504267e+00 2.310399e+00 2.662475e+00 2.670559e+00 2.520068e+00 2.362835e+00 2.483971e+00 1.728411e+00 6.230075e-01
<GCONST> 9.871030e+01
<STATE> 4
<MEAN> 25
 1.701712e+00 -5.058228e+00 1.228747e+00 9.805740e-01 2.844166e-01 -1.014205e+00 9.267957e-01 4.060294e+00 -2.277570e+00 -6.136634e+00 -2.497699e+00 9.050378e-01 -3.099060e-02 1.665134e-01 -4.772316e-01 2.707738e-01 5.349850e-01 7.956909e-02 -1.499009e-01 -8.702984e-02 2.525329e-01 7.235429e-02 -1.691764e-01 -8.439502e-03 -4.877939e-01
<VARIANCE> 25
 1.796834e+01 3.838808e+01 2.844104e+01 4.513531e+01 4.540723e+01 4.298758e+01 4.819826e+01 5.541123e+01 4.726159e+01 5.329498e+01 5.345863e+01 3.690508e+01 3.745049e-01 8.614280e-01 1.246373e+00 1.380692e+00 1.746645e+00 1.550333e+00 1.772103e+00 1.733932e+00 1.771466e+00 1.805177e+00 1.721367e+00 1.350893e+00 5.294070e-01
<GCONST> 9.342686e+01
<TRANSP> 5
 0.000000e+00 1.000000e+00 0.000000e+00 0.000000e+00 0.000000e+00
 0.000000e+00 7.513282e-01 2.486718e-01 0.000000e+00 0.000000e+00
 0.000000e+00 0.000000e+00 6.764649e-01 3.235351e-01 0.000000e+00
 0.000000e+00 0.000000e+00 0.000000e+00 7.851877e-01 2.148123e-01
 0.000000e+00 0.000000e+00 0.000000e+00 0.000000e+00 0.000000e+00
<ENDHMM>
~h "sp"
<BEGINHMM>
<NUMSTATES> 3
<STATE> 2
~s "silst"
<TRANSP> 3
 0.000000e+00 2.473377e-01 7.526623e-01
 0.000000e+00 9.351307e-01 6.486930e-02
 0.000000e+00 0.000000e+00 0.000000e+00
<ENDHMM>
~h "sy"
<BEGINHMM>
<NUMSTATES> 5
<STATE> 2
<MEAN> 25
 -1.231514e+01 3.009727e+00 1.331031e+01 -1.658731e+00 -4.095947e+00 2.445054e+00 -2.113842e-01 9.791672e-01 3.072154e+00 6.760961e-02 3.652304e+00 -1.082468e+00 -5.851939e-01 -2.232881e-01 1.705612e-01 1.531513e-01 5.012807e-02 8.438279e-02 3.519031e-01 -2.184787e-01 -2.142918e-01 -5.796108e-02 -2.503927e-01 -2.367761e-01 -7.044056e-02
<VARIANCE> 25
 1.400981e+02 4.750659e+01 3.365809e+01 2.595841e+01 7.112836e+01 5.561003e+01 2.616467e+01 2.032789e+01 3.492425e+01 5.754074e+01 3.675230e+01 1.856892e+01 1.314395e+01 3.895003e+00 2.927326e+00 2.287437e+00 6.649256e+00 5.491359e+00 3.090085e+00 1.311888e+00 3.761379e+00 3.089236e+00 4.321369e+00 2.065229e+00 7.835972e-01
<GCONST> 1.054457e+02
<STATE> 3
<MEAN> 25
 -6.755896e+00 2.500127e+00 1.005697e+00 1.814558e+00 -4.169552e-02 5.496182e+00 1.729185e+00 -1.451554e+00 1.614068e+00 -1.048512e+00 2.794959e+00 3.457614e+00 7.221030e-02 -3.158948e-02 1.671118e-01 1.919746e-01 -8.936334e-02 -1.065932e-01 1.724100e-01 2.678931e-01 1.418650e-03 -7.030148e-02 5.315372e-02 7.202160e-02 -1.939246e-01
<VARIANCE> 25
 5.225736e+01 4.650616e+00 3.686597e+01 7.798251e+00 9.255723e+00 3.381453e+01 1.970830e+01 1.578194e+01 2.310203e+01 6.704951e+01 2.518920e+01 1.659557e+01 2.118793e+00 3.192309e-01 4.984924e-01 1.011963e+00 1.759545e+00 1.513781e+00 8.275151e-01 8.060719e-01 9.194794e-01 1.009909e+00 1.239008e+00 9.063853e-01 3.761895e-01
<GCONST> 8.053199e+01
<STATE> 4
<MEAN> 25
 2.432300e+00 -3.320123e+00 3.942768e+00 -1.752646e+00 -8.247574e+00 -4.086163e+00 1.586401e+00 4.631450e+00 -3.897593e-01 -3.988573e+00 -2.272526e-01 -1.019046e-01 6.269488e-01 -1.699285e-01 -8.493667e-01 4.100844e-01 -1.822888e-01 -3.908515e-01 1.250609e-01 5.146342e-01 -2.356898e-01 -1.204101e-01 3.949447e-02 7.377717e-02 -1.667726e-01
<VARIANCE> 25
 4.176293e+01 4.210257e+01 3.594689e+01 6.728923e+01 7.205800e+01 4.570275e+01 3.188049e+01 2.054708e+01 1.106839e+01 3.412195e+01 2.016530e+01 1.077889e+01 3.286443e+00 3.130297e+00 5.360686e-01 1.385618e+00 2.183755e+00 2.513883e+00 5.623522e+00 3.021214e+00 1.191822e+00 4.015051e+00 2.412717e+00 9.856448e-01 1.236098e+00
<GCONST> 9.632288e+01
<TRANSP> 5
 0.000000e+00 1.000000e+00 0.000000e+00 0.000000e+00 0.000000e+00
 0.000000e+00 8.853242e-01 1.146758e-01 0.000000e+00 0.000000e+00
 0.000000e+00 0.000000e+00 8.999393e-01 1.000607e-01 0.000000e+00
 0.000000e+00 0.000000e+00 0.000000e+00 7.874060e-01 2.125940e-01
 0.000000e+00 0.000000e+00 0.000000e+00 0.000000e+00 0.000000e+00
<ENDHMM>
~h "sil"
<BEGINHMM>
<NUMSTATES> 5
<STATE> 2
<MEAN> 25
 -5.593527e+00 1.473360e+00 -1.937089e+00 2.809513e+00 2.421465e+00 2.675599e+00 2.581665e+00 1.181162e+00 5.348704e-01 6.471601e-02 5.294348e-01 1.878370e+00 -4.801518e-02 1.434836e-02 -7.792251e-03 1.633775e-02 1.922017e-02 2.509249e-02 1.153973e-02 2.922363e-03 3.936583e-03 7.348592e-03 1.977612e-02 7.879833e-03 -6.620840e-02
<VARIANCE> 25
 2.248794e+01 1.976320e+01 2.182799e+01 2.605593e+01 2.397888e+01 2.634461e+01 2.303417e+01 2.555249e+01 2.562961e+01 2.768396e+01 2.257344e+01 1.830630e+01 1.573479e-01 3.085617e-01 4.823451e-01 6.704469e-01 8.834639e-01 1.056083e+00 1.194127e+00 1.313786e+00 1.359938e+00 1.346752e+00 1.276394e+00 1.169502e+00 9.515391e-02
<GCONST> 7.868240e+01
<STATE> 3
~s "silst"
<STATE> 4
<MEAN> 25
 -2.436603e+00 -8.927113e-02 -4.349627e-01 2.252740e-02 4.030735e-01 1.061798e-01 4.920098e-01 3.514808e-01 -1.355654e-01 3.754305e-01 1.344039e-02 4.675775e-01 1.227413e-01 -2.201449e-02 3.433524e-02 -6.465969e-02 -1.793162e-02 -6.913127e-02 -4.721896e-02 -3.196459e-02 -3.508154e-02 -1.377160e-02 -3.485795e-02 -4.175725e-02 2.175715e-01
<VARIANCE> 25
 6.109142e+01 5.760761e+01 7.265491e+01 6.971838e+01 6.950584e+01 7.067561e+01 5.642042e+01 6.574371e+01 6.083662e+01 4.947198e+01 4.787746e+01 4.201735e+01 2.253258e+00 2.620439e+00 2.939293e+00 3.314357e+00 3.727031e+00 3.604260e+00 3.370546e+00 3.834871e+00 3.446709e+00 3.133864e+00 2.992116e+00 2.562576e+00 2.871386e+00
<GCONST> 1.096581e+02
<TRANSP> 5
 0.000000e+00 1.000000e+00 0.000000e+00 0.000000e+00 0.000000e+00
 0.000000e+00 9.269298e-01 1.437920e-02 5.869101e-02 0.000000e+00
 0.000000e+00 0.000000e+00 8.617600e-01 1.382399e-01 0.000000e+00
 0.000000e+00 9.708893e-02 0.000000e+00 7.779700e-01 1.249411e-01
 0.000000e+00 0.000000e+00 0.000000e+00 0.000000e+00 0.000000e+00
<ENDHMM>
