~o
<STREAMINFO> 1 25
<VECSIZE> 25<NULLD><MFCC_D_N_Z_0><DIAGC>
~h "@"
<BEGINHMM>
<NUMSTATES> 5
<STATE> 2
<MEAN> 25
 1.640302e+00 1.383396e-01 -6.017740e-01 2.571838e-01 -9.941667e-02 -1.247532e+00 -1.262168e+00 -7.360761e-01 7.980990e-01 6.676859e-01 4.835044e-02 -3.764798e-01 5.241255e-01 -2.246867e-01 5.272726e-02 -1.145882e-01 -2.450982e-01 -1.220844e-01 -2.295669e-01 -6.753365e-02 2.471993e-02 1.793699e-04 -7.894240e-02 -1.432514e-01 4.361211e-01
<VARIANCE> 25
 5.271954e+01 5.468151e+01 5.051621e+01 5.443704e+01 6.224013e+01 6.921911e+01 6.011690e+01 6.003808e+01 5.327849e+01 4.865608e+01 4.364387e+01 3.626433e+01 4.031154e+00 4.732023e+00 3.672910e+00 4.710109e+00 4.889133e+00 5.273984e+00 5.090675e+00 5.004448e+00 4.619924e+00 4.210005e+00 3.839463e+00 3.205554e+00 4.984646e+00
<GCONST> 1.129906e+02
<STATE> 3
<MEAN> 25
 2.560023e+00 -3.272412e-01 -4.548415e-01 5.785823e-03 -5.620254e-01 -1.465795e+00 -1.625540e+00 -8.429583e-01 7.566109e-01 5.823807e-01 -8.806012e-02 -6.545523e-01 3.743177e-01 -1.485925e-01 7.626577e-02 -5.895668e-02 -1.808337e-01 -1.303125e-02 -1.076446e-01 -4.379849e-02 -4.687742e-02 -5.476339e-02 -8.055375e-02 -1.067867e-01 3.004570e-01
<VARIANCE> 25
 4.588107e+01 5.457943e+01 5.037729e+01 5.407316e+01 6.236997e+01 6.901816e+01 6.025519e+01 6.152052e+01 5.387490e+01 4.951639e+01 4.408575e+01 3.649920e+01 3.506642e+00 4.619232e+00 3.588362e+00 4.701133e+00 4.837894e+00 5.158433e+00 4.942171e+00 4.972815e+00 4.565234e+00 4.161539e+00 3.805943e+00 3.147066e+00 4.820145e+00
<GCONST> 1.125698e+02
<STATE> 4
<MEAN> 25
 3.062124e+00 -5.177507e-01 -2.401919e-01 3.401835e-02 -8.272251e-01 -1.426798e+00 -1.625792e+00 -7.940153e-01 5.571901e-01 4.483366e-01 -2.868086e-01 -8.269348e-01 1.136153e-01 3.489324e-03 6.931346e-02 4.734597e-02 -2.520433e-02 1.179959e-01 5.470177e-02 -2.295703e-02 -9.355748e-02 -7.122576e-02 -7.284548e-02 -3.382543e-02 3.072503e-02
<VARIANCE> 25
 4.199626e+01 5.476758e+01 5.113264e+01 5.396346e+01 6.206524e+01 6.716177e+01 5.929094e+01 6.210716e+01 5.447118e+01 5.003415e+01 4.433511e+01 3.675825e+01 2.615016e+00 3.835331e+00 3.134141e+00 4.000768e+00 4.179662e+00 4.319176e+00 4.220400e+00 4.327698e+00 3.977706e+00 3.675559e+00 3.382393e+00 2.794026e+00 3.616984e+00
<GCONST> 1.103102e+02
<TRANSP> 5
 0.000000e+00 1.000000e+00 0.000000e+00 0.000000e+00 0.000000e+00
 0.000000e+00 4.488390e-01 5.511611e-01 0.000000e+00 0.000000e+00
 0.000000e+00 0.000000e+00 4.467910e-01 5.532091e-01 0.000000e+00
 0.000000e+00 0.000000e+00 0.000000e+00 5.329717e-01 4.670283e-01
 0.000000e+00 0.000000e+00 0.000000e+00 0.000000e+00 0.000000e+00
<ENDHMM>
~h "a"
<BEGINHMM>
<NUMSTATES> 5
<STATE> 2
<MEAN> 25
 3.076513e+00 -5.050415e+00 -3.116884e+00 -2.536277e+00 4.476216e-01 -5.852587e-01 2.495892e-01 2.447196e+00 1.642268e+00 -4.673169e-01 -2.045474e+00 -1.698452e+00 8.658425e-02 -1.606105e-01 -1.442675e-01 6.591741e-02 1.961644e-01 1.045859e-01 1.401515e-01 1.472771e-01 3.218334e-02 -9.403209e-02 -2.414259e-01 -6.112047e-02 -2.499249e-02
<VARIANCE> 25
 3.428786e+01 5.119082e+01 4.905513e+01 5.274444e+01 6.179536e+01 6.236896e+01 5.356136e+01 5.826155e+01 5.094414e+01 4.872655e+01 4.944762e+01 4.184077e+01 1.621470e+00 3.042747e+00 2.479050e+00 2.932546e+00 3.303582e+00 3.306875e+00 3.186930e+00 3.682430e+00 3.177207e+00 3.081731e+00 3.071823e+00 2.610981e+00 2.548205e+00
<GCONST> 1.067624e+02
<STATE> 3
<MEAN> 25
 3.006089e+00 -4.774324e+00 -3.140372e+00 -2.066339e+00 7.934439e-01 -3.630253e-01 4.584591e-01 2.421544e+00 1.546722e+00 -5.610070e-01 -2.263688e+00 -1.582854e+00 -6.285201e-02 2.829850e-01 8.701185e-02 2.835856e-01 1.140564e-01 8.526313e-02 6.554167e-02 -8.967799e-02 -6.804410e-02 -4.154280e-03 -4.355322e-02 8.906384e-02 -4.080308e-01
<VARIANCE> 25
 3.372512e+01 5.111344e+01 4.700211e+01 5.158963e+01 5.948736e+01 5.956548e+01 5.170978e+01 5.650080e+01 4.982104e+01 4.771884e+01 4.861297e+01 4.054351e+01 1.347505e+00 2.643456e+00 2.239870e+00 2.656674e+00 3.027901e+00 3.056554e+00 2.981934e+00 3.425951e+00 2.954867e+00 2.864662e+00 2.833924e+00 2.397035e+00 2.187780e+00
<GCONST> 1.051431e+02
<STATE> 4
<MEAN> 25
 2.101228e+00 -3.646346e+00 -3.074890e+00 -8.694649e-01 1.293543e+00 1.364751e-01 7.773932e-01 2.203992e+00 1.389033e+00 -5.545428e-01 -2.190889e+00 -1.026724e+00 -1.723145e-01 5.333014e-01 2.247429e-01 3.538741e-01 1.551833e-02 6.371418e-02 3.035706e-03 -2.281759e-01 -1.145927e-01 5.868348e-02 1.138484e-01 1.584889e-01 -5.715785e-01
<VARIANCE> 25
 3.912624e+01 5.169403e+01 4.590049e+01 5.312261e+01 5.731776e+01 5.706273e+01 4.918019e+01 5.414653e+01 4.874284e+01 4.735851e+01 4.863842e+01 3.992746e+01 1.234461e+00 2.279840e+00 2.032205e+00 2.447532e+00 2.719070e+00 2.774324e+00 2.775562e+00 3.125662e+00 2.764365e+00 2.663449e+00 2.597372e+00 2.196796e+00 1.804613e+00
<GCONST> 1.038023e+02
<TRANSP> 5
 0.000000e+00 1.000000e+00 0.000000e+00 0.000000e+00 0.000000e+00
 0.000000e+00 5.005913e-01 4.994088e-01 0.000000e+00 0.000000e+00
 0.000000e+00 0.000000e+00 5.010150e-01 4.989850e-01 0.000000e+00
 0.000000e+00 0.000000e+00 0.000000e+00 6.528708e-01 3.471293e-01
 0.000000e+00 0.000000e+00 0.000000e+00 0.000000e+00 0.000000e+00
<ENDHMM>
~h "b"
<BEGINHMM>
<NUMSTATES> 5
<STATE> 2
<MEAN> 25
 3.924845e+00 4.480973e+00 7.434981e-01 1.824682e+00 4.857704e-01 8.212087e-01 -1.870035e+00 -2.569795e+00 -1.564861e+00 -4.893996e-01 -2.060265e-01 -9.762552e-01 2.606957e-01 1.842039e-01 -7.353857e-02 -1.534489e-02 2.009432e-02 -1.120522e-01 -2.469061e-01 -1.361022e-01 6.314232e-02 5.483218e-02 1.347509e-01 -9.565685e-02 1.447904e-01
<VARIANCE> 25
 3.910607e+01 5.297179e+01 4.135476e+01 5.535973e+01 4.729985e+01 5.376377e+01 5.296223e+01 5.237828e+01 4.927629e+01 4.949672e+01 4.185271e+01 3.317009e+01 1.981755e+00 4.582473e+00 3.164033e+00 5.005372e+00 3.854778e+00 4.068182e+00 4.555227e+00 4.117238e+00 4.312796e+00 4.509314e+00 3.842023e+00 2.908420e+00 4.141082e+00
<GCONST> 1.095782e+02
<STATE> 3
<MEAN> 25
 4.511258e+00 4.201267e+00 4.914427e-01 1.255844e+00 1.795359e-01 3.893108e-01 -2.595422e+00 -2.689404e+00 -1.192246e+00 -2.221079e-01 1.769097e-01 -1.238672e+00 1.746619e-01 -4.376441e-01 -1.653233e-01 -4.238716e-01 -2.396003e-01 -2.484295e-01 -3.211079e-01 9.781047e-02 2.867369e-01 1.749231e-01 1.843482e-01 -1.297611e-01 6.438390e-01
<VARIANCE> 25
 3.443684e+01 5.796360e+01 4.221568e+01 6.057023e+01 4.745419e+01 5.572838e+01 5.541511e+01 5.384409e+01 5.229555e+01 5.641999e+01 4.529809e+01 3.625632e+01 1.961355e+00 5.415643e+00 3.451559e+00 5.794911e+00 4.285512e+00 4.602384e+00 5.065924e+00 4.813010e+00 5.114610e+00 5.273206e+00 4.368173e+00 3.545692e+00 4.494937e+00
<GCONST> 1.117394e+02
<STATE> 4
<MEAN> 25
 4.658431e+00 2.639806e+00 3.448225e-01 1.726983e-01 -6.031265e-01 -1.054733e-01 -3.350631e+00 -1.998083e+00 -2.723649e-01 -1.842248e-02 6.119345e-01 -1.829765e+00 -2.163545e-02 -6.470187e-01 -8.176640e-02 -3.962443e-01 -2.222926e-01 -1.946078e-01 -9.679078e-02 2.788363e-01 2.512085e-01 9.369531e-02 6.356498e-02 -3.866826e-02 6.299017e-01
<VARIANCE> 25
 4.157478e+01 8.444865e+01 6.029889e+01 9.549255e+01 6.341592e+01 8.619486e+01 6.970280e+01 8.560300e+01 8.141178e+01 8.114368e+01 6.350409e+01 6.293871e+01 1.701454e+00 5.130815e+00 3.644089e+00 5.711857e+00 4.443719e+00 5.129482e+00 5.098961e+00 5.750424e+00 5.316855e+00 5.444497e+00 4.838624e+00 4.202229e+00 3.991294e+00
<GCONST> 1.166273e+02
<TRANSP> 5
 0.000000e+00 1.000000e+00 0.000000e+00 0.000000e+00 0.000000e+00
 0.000000e+00 5.004269e-01 4.995731e-01 0.000000e+00 0.000000e+00
 0.000000e+00 0.000000e+00 5.035658e-01 4.964342e-01 0.000000e+00
 0.000000e+00 0.000000e+00 0.000000e+00 7.053807e-01 2.946193e-01
 0.000000e+00 0.000000e+00 0.000000e+00 0.000000e+00 0.000000e+00
<ENDHMM>
~h "c"
<BEGINHMM>
<NUMSTATES> 5
<STATE> 2
<MEAN> 25
 -7.147741e+00 3.173374e+00 1.542391e+00 9.158241e-01 1.572573e+00 -2.885837e-01 1.904593e+00 -1.041665e-01 1.261669e+00 8.699901e-02 1.551748e+00 1.587668e+00 -1.256904e+00 -2.517978e-01 1.016785e-01 -5.962973e-01 -1.050880e-01 -2.570693e-01 2.623774e-01 -6.597048e-02 2.817892e-01 -2.690336e-02 3.030712e-01 1.272964e-01 1.051033e+00
<VARIANCE> 25
 9.565694e+01 7.587885e+01 7.422260e+01 5.788357e+01 6.843612e+01 7.502298e+01 5.557957e+01 5.937733e+01 4.987334e+01 4.487378e+01 4.182752e+01 3.208308e+01 1.072279e+01 6.863798e+00 6.779532e+00 5.701006e+00 6.733178e+00 6.155247e+00 5.032400e+00 5.298424e+00 4.592196e+00 4.075342e+00 3.874466e+00 2.861406e+00 6.167865e+00
<GCONST> 1.168782e+02
<STATE> 3
<MEAN> 25
 -8.012102e+00 1.456084e+00 2.257680e+00 -7.232465e-01 1.179965e-01 -1.696636e+00 1.859036e+00 -3.937902e-01 1.641436e+00 -2.755421e-01 1.891691e+00 1.695471e+00 9.605713e-01 -7.234155e-01 5.876277e-02 -3.865198e-01 -7.477124e-01 -6.640346e-01 -2.799859e-01 1.966697e-02 -3.509314e-02 -1.536979e-01 -9.800649e-02 -1.452800e-01 1.274408e+00
<VARIANCE> 25
 1.015818e+02 9.201608e+01 8.043658e+01 5.771654e+01 7.426385e+01 8.274110e+01 5.883527e+01 6.262350e+01 4.862396e+01 4.566490e+01 4.165614e+01 3.151202e+01 1.374098e+01 7.362704e+00 7.435077e+00 5.492159e+00 6.977980e+00 6.752004e+00 5.311273e+00 5.575749e+00 4.809978e+00 4.432719e+00 4.279889e+00 3.084115e+00 4.625740e+00
<GCONST> 1.180920e+02
<STATE> 4
<MEAN> 25
 -2.546111e+00 -6.094444e-01 1.815127e+00 -1.081025e+00 -2.022248e+00 -3.335593e+00 4.620374e-01 -2.957428e-01 9.646350e-01 -6.918941e-01 1.143185e+00 8.896148e-01 1.734783e+00 -6.733058e-01 -3.326413e-01 -2.128587e-01 -4.760051e-01 -2.133688e-01 -3.854003e-01 6.356982e-02 -2.270054e-01 -6.226405e-02 -2.615018e-01 -3.701542e-01 6.018174e-01
<VARIANCE> 25
 8.878362e+01 7.793389e+01 6.742244e+01 5.326848e+01 7.062375e+01 8.419955e+01 6.237996e+01 6.743246e+01 5.324283e+01 4.451583e+01 4.747597e+01 3.308801e+01 8.029936e+00 6.180787e+00 6.372031e+00 4.339063e+00 6.112806e+00 6.073655e+00 4.703329e+00 4.881492e+00 4.393802e+00 4.245346e+00 4.008830e+00 2.921957e+00 3.408333e+00
<GCONST> 1.157256e+02
<TRANSP> 5
 0.000000e+00 1.000000e+00 0.000000e+00 0.000000e+00 0.000000e+00
 0.000000e+00 6.891696e-01 3.108304e-01 0.000000e+00 0.000000e+00
 0.000000e+00 0.000000e+00 6.506443e-01 3.493557e-01 0.000000e+00
 0.000000e+00 0.000000e+00 0.000000e+00 6.515565e-01 3.484435e-01
 0.000000e+00 0.000000e+00 0.000000e+00 0.000000e+00 0.000000e+00
<ENDHMM>
~h "d"
<BEGINHMM>
<NUMSTATES> 5
<STATE> 2
<MEAN> 25
 2.954932e+00 1.340263e+00 3.886908e+00 2.959639e+00 -2.286859e+00 -2.375074e+00 -2.680582e+00 -4.502800e-01 -3.403555e-01 -1.824305e+00 -7.071768e-01 3.898311e-02 9.550229e-02 -1.723070e-01 4.036577e-01 -2.460350e-02 -4.164235e-01 -3.901979e-01 -3.275615e-01 1.125675e-01 -2.109996e-02 -1.487158e-01 2.329776e-01 8.718413e-02 3.947182e-01
<VARIANCE> 25
 3.346963e+01 5.844574e+01 5.681531e+01 6.147411e+01 7.473215e+01 6.177807e+01 6.290639e+01 6.706586e+01 5.543424e+01 4.989987e+01 5.133514e+01 3.773892e+01 2.030602e+00 5.918811e+00 3.757900e+00 5.496964e+00 6.073919e+00 5.162323e+00 5.348745e+00 5.548459e+00 4.623741e+00 4.335327e+00 4.511663e+00 3.356533e+00 5.539037e+00
<GCONST> 1.137409e+02
<STATE> 3
<MEAN> 25
 3.144341e+00 4.127254e-01 4.520670e+00 2.214982e+00 -3.425547e+00 -3.258523e+00 -3.366906e+00 1.552027e-02 -2.647917e-01 -1.905965e+00 -5.105118e-02 9.894790e-02 5.947020e-03 -4.440401e-01 1.337469e-01 -4.658573e-01 -4.191739e-01 -2.726604e-01 -1.940560e-01 2.457134e-01 4.768912e-02 6.667658e-02 2.784123e-01 -3.165215e-02 6.461671e-01
<VARIANCE> 25
 2.954663e+01 5.663980e+01 5.832688e+01 6.370461e+01 7.771631e+01 6.297723e+01 6.674311e+01 7.303440e+01 5.956725e+01 5.191104e+01 5.390324e+01 3.949801e+01 1.841346e+00 5.606570e+00 3.962863e+00 5.558275e+00 6.272625e+00 5.226476e+00 5.620238e+00 5.817651e+00 4.780381e+00 4.448637e+00 4.682301e+00 3.478833e+00 5.292189e+00
<GCONST> 1.141954e+02
<STATE> 4
<MEAN> 25
 3.069371e+00 -5.750147e-01 4.400988e+00 9.724575e-01 -4.153001e+00 -3.581840e+00 -3.446172e+00 6.566549e-01 -9.332967e-02 -1.572743e+00 3.378531e-01 -1.837388e-01 -8.660705e-02 -2.687782e-01 -1.243065e-01 -4.628439e-01 -7.770257e-02 4.034547e-02 1.025761e-01 1.336373e-01 1.621963e-02 1.862302e-01 9.960432e-02 -1.124565e-01 3.555813e-01
<VARIANCE> 25
 2.895304e+01 5.543084e+01 6.248867e+01 6.584534e+01 7.639472e+01 6.150258e+01 6.965205e+01 7.783364e+01 6.181437e+01 5.414537e+01 5.453471e+01 3.991642e+01 1.433319e+00 3.978578e+00 3.551625e+00 4.482103e+00 5.324943e+00 4.379669e+00 4.863153e+00 4.870351e+00 4.156494e+00 3.864460e+00 4.086162e+00 3.100177e+00 3.897408e+00
<GCONST> 1.120031e+02
<TRANSP> 5
 0.000000e+00 1.000000e+00 0.000000e+00 0.000000e+00 0.000000e+00
 0.000000e+00 5.412532e-01 4.587468e-01 0.000000e+00 0.000000e+00
 0.000000e+00 0.000000e+00 5.375170e-01 4.624830e-01 0.000000e+00
 0.000000e+00 0.000000e+00 0.000000e+00 6.291225e-01 3.708775e-01
 0.000000e+00 0.000000e+00 0.000000e+00 0.000000e+00 0.000000e+00
<ENDHMM>
~h "e"
<BEGINHMM>
<NUMSTATES> 5
<STATE> 2
<MEAN> 25
 7.524266e-01 -2.514276e+00 1.312358e+00 2.784952e-01 -3.492340e+00 -3.483324e+00 1.403334e+00 2.307012e+00 -2.174781e-01 4.928068e-01 8.825336e-01 1.880633e-01 1.008645e-01 -1.014546e-01 4.964679e-02 -5.716263e-02 -1.914563e-01 -1.237457e-01 2.254300e-01 1.673920e-01 -1.161487e-01 3.047214e-02 5.285528e-02 4.423485e-03 1.135421e-01
<VARIANCE> 25
 5.340152e+01 5.179790e+01 6.125249e+01 5.220420e+01 7.627568e+01 9.561854e+01 6.135246e+01 7.149188e+01 5.575843e+01 4.478667e+01 4.475877e+01 3.470807e+01 2.584464e+00 3.013178e+00 2.896541e+00 3.377993e+00 4.118649e+00 4.241168e+00 3.389503e+00 3.929182e+00 3.442660e+00 2.954125e+00 2.855473e+00 2.332814e+00 2.977229e+00
<GCONST> 1.094840e+02
<STATE> 3
<MEAN> 25
 9.424279e-01 -2.462677e+00 1.302969e+00 2.411143e-01 -3.574075e+00 -3.476366e+00 1.679259e+00 2.321599e+00 -4.122123e-01 5.299659e-01 9.200610e-01 1.652610e-01 -6.258070e-03 1.621504e-01 -5.080684e-02 4.728957e-02 1.248849e-01 1.150160e-01 8.909049e-02 -7.008937e-02 -4.660762e-02 1.022884e-02 -1.680381e-02 -9.721147e-03 -1.555865e-01
<VARIANCE> 25
 5.074022e+01 4.994361e+01 6.227188e+01 5.446476e+01 7.557185e+01 9.908463e+01 6.147918e+01 7.136953e+01 5.601201e+01 4.450300e+01 4.355133e+01 3.441930e+01 2.099700e+00 2.565954e+00 2.535599e+00 3.087355e+00 3.531104e+00 3.656237e+00 3.035676e+00 3.475758e+00 3.165802e+00 2.703759e+00 2.589334e+00 2.162616e+00 2.597107e+00
<GCONST> 1.078352e+02
<STATE> 4
<MEAN> 25
 -2.544607e-01 -1.661381e+00 9.015064e-01 9.614776e-01 -2.503334e+00 -2.464816e+00 2.086125e+00 2.092893e+00 -4.001651e-01 6.191618e-01 9.715245e-01 5.633878e-01 -8.902512e-02 3.032967e-01 -1.147321e-01 1.373751e-01 3.255805e-01 2.406280e-01 -4.700042e-02 -1.870509e-01 3.642719e-02 -2.836409e-02 -6.891828e-02 -1.250798e-03 -3.167235e-01
<VARIANCE> 25
 5.711275e+01 4.663359e+01 5.872523e+01 5.561118e+01 7.282391e+01 9.923200e+01 5.702005e+01 6.376873e+01 5.530136e+01 4.438662e+01 4.025770e+01 3.320869e+01 1.462683e+00 2.023079e+00 2.014479e+00 2.347842e+00 2.792975e+00 2.965785e+00 2.569622e+00 2.866785e+00 2.709407e+00 2.384222e+00 2.200795e+00 1.879458e+00 1.781471e+00
<GCONST> 1.046263e+02
<TRANSP> 5
 0.000000e+00 1.000000e+00 0.000000e+00 0.000000e+00 0.000000e+00
 0.000000e+00 4.897923e-01 5.102078e-01 0.000000e+00 0.000000e+00
 0.000000e+00 0.000000e+00 4.891029e-01 5.108972e-01 0.000000e+00
 0.000000e+00 0.000000e+00 0.000000e+00 6.709659e-01 3.290341e-01
 0.000000e+00 0.000000e+00 0.000000e+00 0.000000e+00 0.000000e+00
<ENDHMM>
~h "f"
<BEGINHMM>
<NUMSTATES> 5
<STATE> 2
<MEAN> 25
 -3.384528e+00 4.672058e-01 2.354011e+00 3.448645e+00 5.444061e-01 -5.375440e-01 1.396636e+00 -4.831287e-01 7.602572e-04 4.476388e-01 1.655005e+00 1.259589e+00 -6.757659e-01 -1.457270e-01 -1.161423e-02 1.121541e-01 1.531873e-01 -1.854170e-01 1.420569e-01 -1.087617e-02 1.372107e-01 1.723805e-03 1.484185e-01 1.217920e-01 5.948968e-02
<VARIANCE> 25
 7.431268e+01 4.542674e+01 8.754568e+01 7.176698e+01 7.426389e+01 8.943250e+01 5.029002e+01 5.437062e+01 5.396532e+01 3.910926e+01 3.674041e+01 3.024096e+01 7.031213e+00 3.652129e+00 5.575293e+00 5.855120e+00 6.705171e+00 6.552564e+00 4.432221e+00 4.196659e+00 5.279132e+00 3.497135e+00 3.373477e+00 2.722162e+00 3.353099e+00
<GCONST> 1.139796e+02
<STATE> 3
<MEAN> 25
 -4.652206e+00 -1.713679e-01 2.570075e+00 3.308864e+00 4.074174e-01 -1.037630e+00 1.405319e+00 -6.865159e-01 1.012599e-01 4.642519e-01 1.952364e+00 1.272052e+00 1.947276e-01 -2.421730e-01 7.197294e-02 -3.507457e-01 -3.650439e-01 -2.411232e-01 -1.359411e-01 -1.079753e-01 -1.488959e-01 -1.741374e-02 7.358674e-02 -8.189529e-02 4.148294e-01
<VARIANCE> 25
 7.384018e+01 4.752751e+01 9.499287e+01 7.889062e+01 7.706999e+01 9.729116e+01 4.970599e+01 5.347195e+01 5.636170e+01 3.927375e+01 3.694073e+01 2.948903e+01 7.896187e+00 3.729650e+00 5.997773e+00 5.865972e+00 6.552411e+00 6.288779e+00 4.298240e+00 4.101262e+00 5.345427e+00 3.531815e+00 3.444634e+00 2.642522e+00 3.303022e+00
<GCONST> 1.144082e+02
<STATE> 4
<MEAN> 25
 -3.554993e+00 -7.189117e-01 2.630790e+00 2.171105e+00 -4.816740e-01 -1.244712e+00 1.148678e+00 -8.949027e-01 -6.025575e-01 5.228015e-01 1.973127e+00 1.000533e+00 9.005724e-01 -1.458462e-01 2.202217e-01 -5.816051e-01 -6.311389e-01 -1.013258e-01 -3.199877e-01 -1.428664e-01 -3.461401e-01 -3.018047e-02 -1.208598e-02 -2.394436e-01 5.456581e-01
<VARIANCE> 25
 8.177690e+01 4.874490e+01 1.107785e+02 1.002802e+02 8.756762e+01 1.122839e+02 5.532883e+01 5.230541e+01 6.186744e+01 4.564084e+01 4.095080e+01 3.252219e+01 6.624320e+00 3.698438e+00 5.932293e+00 5.610946e+00 6.556197e+00 6.205023e+00 4.212791e+00 3.955178e+00 5.173341e+00 3.563827e+00 3.487699e+00 2.646306e+00 3.230278e+00
<GCONST> 1.153890e+02
<TRANSP> 5
 0.000000e+00 1.000000e+00 0.000000e+00 0.000000e+00 0.000000e+00
 0.000000e+00 5.926921e-01 4.073079e-01 0.000000e+00 0.000000e+00
 0.000000e+00 0.000000e+00 5.836775e-01 4.163226e-01 0.000000e+00
 0.000000e+00 0.000000e+00 0.000000e+00 6.716066e-01 3.283934e-01
 0.000000e+00 0.000000e+00 0.000000e+00 0.000000e+00 0.000000e+00
<ENDHMM>
~h "g"
<BEGINHMM>
<NUMSTATES> 5
<STATE> 2
<MEAN> 25
 3.424218e+00 1.449807e+00 1.873983e+00 3.682137e-01 -1.313555e+00 -5.758867e-01 -2.024401e+00 -1.547938e+00 -1.750837e+00 -1.302610e-01 -7.074881e-01 -1.570662e+00 -2.037795e-02 7.454214e-02 1.099583e-01 2.541821e-02 -5.119141e-02 -1.517787e-01 -1.268387e-01 9.584658e-03 -2.611873e-02 2.873072e-02 9.884029e-02 -4.517917e-02 1.559230e-02
<VARIANCE> 25
 3.249760e+01 5.146945e+01 5.718897e+01 5.793063e+01 6.812045e+01 7.135651e+01 6.358151e+01 6.543340e+01 5.870712e+01 5.287002e+01 5.138134e+01 4.044440e+01 1.439864e+00 3.163260e+00 3.253194e+00 3.745041e+00 4.714272e+00 4.327451e+00 4.186345e+00 4.404111e+00 4.033755e+00 3.589077e+00 3.615097e+00 2.821367e+00 2.556978e+00
<GCONST> 1.098565e+02
<STATE> 3
<MEAN> 25
 3.363570e+00 1.364581e+00 1.910596e+00 2.988858e-01 -1.394346e+00 -8.687795e-01 -2.192566e+00 -1.326619e+00 -1.625256e+00 -7.075502e-02 -5.259862e-01 -1.627301e+00 -9.396687e-02 -5.535741e-02 -2.190679e-02 -5.880863e-02 1.659873e-02 -9.102651e-02 -1.221291e-02 1.477464e-01 1.037903e-01 1.588289e-02 7.772290e-02 7.061831e-03 5.582288e-02
<VARIANCE> 25
 3.246996e+01 5.262768e+01 5.855536e+01 5.928751e+01 6.912184e+01 7.295258e+01 6.490101e+01 6.733501e+01 5.988643e+01 5.455435e+01 5.267281e+01 4.120583e+01 1.381417e+00 3.085120e+00 3.188300e+00 3.699080e+00 4.675300e+00 4.249238e+00 4.153495e+00 4.441293e+00 4.040691e+00 3.615332e+00 3.668146e+00 2.845473e+00 2.383319e+00
<GCONST> 1.099421e+02
<STATE> 4
<MEAN> 25
 3.087769e+00 1.297351e+00 1.781815e+00 1.551501e-01 -1.375705e+00 -9.849462e-01 -2.163774e+00 -9.765111e-01 -1.310794e+00 -1.445369e-01 -5.199426e-01 -1.553810e+00 -1.813217e-01 -1.114646e-01 -9.177291e-02 -9.174796e-02 9.510882e-02 4.814425e-03 1.149639e-01 1.708490e-01 1.403055e-01 1.322764e-02 4.774517e-02 7.951785e-02 2.835072e-02
<VARIANCE> 25
 3.535013e+01 5.691287e+01 5.990405e+01 6.363153e+01 6.908301e+01 7.167229e+01 6.373022e+01 6.767821e+01 6.100249e+01 5.622966e+01 5.219398e+01 4.165770e+01 1.288701e+00 2.727091e+00 2.915475e+00 3.287961e+00 4.046030e+00 3.762381e+00 3.718839e+00 3.972822e+00 3.669240e+00 3.320124e+00 3.362890e+00 2.603950e+00 1.980324e+00
<GCONST> 1.087872e+02
<TRANSP> 5
 0.000000e+00 1.000000e+00 0.000000e+00 0.000000e+00 0.000000e+00
 0.000000e+00 4.773241e-01 5.226759e-01 0.000000e+00 0.000000e+00
 0.000000e+00 0.000000e+00 4.741978e-01 5.258022e-01 0.000000e+00
 0.000000e+00 0.000000e+00 0.000000e+00 5.905679e-01 4.094321e-01
 0.000000e+00 0.000000e+00 0.000000e+00 0.000000e+00 0.000000e+00
<ENDHMM>
~h "h"
<BEGINHMM>
<NUMSTATES> 5
<STATE> 2
<MEAN> 25
 8.247482e-01 -3.268458e+00 -2.166396e+00 -1.294661e+00 2.365112e+00 1.638447e+00 2.125177e+00 1.168433e+00 7.832903e-01 -5.943965e-01 -1.154009e+00 -1.517301e-01 -1.544829e-01 3.579173e-02 -3.190956e-02 1.600327e-01 2.063719e-01 1.216298e-01 1.925750e-01 8.672036e-03 -2.055475e-02 -5.446969e-02 -1.761829e-02 8.065107e-02 -2.484877e-01
<VARIANCE> 25
 4.627875e+01 5.178707e+01 5.671484e+01 6.704359e+01 8.138383e+01 7.297920e+01 6.321495e+01 5.794733e+01 5.081324e+01 5.234113e+01 4.870975e+01 3.881660e+01 1.442392e+00 2.129345e+00 2.221337e+00 2.588778e+00 3.161609e+00 3.020157e+00 3.073049e+00 2.984781e+00 2.807981e+00 2.757616e+00 2.581965e+00 2.236837e+00 1.856809e+00
<GCONST> 1.060615e+02
<STATE> 3
<MEAN> 25
 6.046444e-01 -3.080570e+00 -2.143042e+00 -9.291314e-01 2.508600e+00 1.660249e+00 2.259483e+00 1.129356e+00 6.901907e-01 -6.495161e-01 -1.140782e+00 -5.760448e-02 -9.940697e-02 1.581556e-01 2.295199e-02 1.446396e-01 2.501195e-02 6.504451e-03 3.080368e-02 -4.438013e-02 -5.220661e-02 2.065800e-03 5.693902e-03 4.744162e-02 -2.867931e-01
<VARIANCE> 25
 4.612634e+01 5.316688e+01 5.624641e+01 6.422276e+01 7.893234e+01 6.912583e+01 6.164634e+01 5.664743e+01 4.950378e+01 5.145502e+01 4.839945e+01 3.798137e+01 1.313278e+00 1.939553e+00 2.046991e+00 2.426779e+00 2.940096e+00 2.870395e+00 2.917922e+00 2.814654e+00 2.659016e+00 2.605410e+00 2.421023e+00 2.141965e+00 1.649899e+00
<GCONST> 1.049247e+02
<STATE> 4
<MEAN> 25
 -1.209535e+00 -2.184527e+00 -2.339330e+00 2.173992e-01 2.771231e+00 2.220443e+00 2.381219e+00 1.361263e+00 7.554544e-01 -2.265787e-01 -5.197642e-01 4.436428e-01 -6.252334e-02 2.212100e-01 7.066382e-02 1.155399e-01 -8.860529e-02 -6.657410e-02 -7.252467e-02 -5.746590e-02 -4.920676e-02 3.923488e-02 3.064737e-02 2.867146e-02 -2.466790e-01
<VARIANCE> 25
 5.645969e+01 5.147116e+01 5.011777e+01 6.627572e+01 6.575579e+01 6.070131e+01 5.266403e+01 5.056557e+01 4.510036e+01 5.026381e+01 4.502724e+01 3.636372e+01 1.011770e+00 1.516983e+00 1.651603e+00 1.975193e+00 2.351740e+00 2.378467e+00 2.398495e+00 2.390779e+00 2.290010e+00 2.230119e+00 2.050806e+00 1.834140e+00 1.175045e+00
<GCONST> 1.015314e+02
<TRANSP> 5
 0.000000e+00 1.000000e+00 0.000000e+00 0.000000e+00 0.000000e+00
 0.000000e+00 5.046906e-01 4.953094e-01 0.000000e+00 0.000000e+00
 0.000000e+00 0.000000e+00 5.047370e-01 4.952630e-01 0.000000e+00
 0.000000e+00 0.000000e+00 0.000000e+00 7.290237e-01 2.709762e-01
 0.000000e+00 0.000000e+00 0.000000e+00 0.000000e+00 0.000000e+00
<ENDHMM>
~h "i"
<BEGINHMM>
<NUMSTATES> 5
<STATE> 2
<MEAN> 25
 -4.470843e-02 1.647571e+00 1.150750e+01 4.454274e-01 -7.255732e+00 -3.598084e+00 -2.497824e+00 -3.319531e+00 -4.457074e+00 -4.650080e-01 2.473743e+00 -1.582158e-01 7.488710e-02 5.526099e-02 1.054247e+00 -2.713221e-01 -7.527091e-01 -6.485875e-02 -3.366814e-01 -2.507766e-01 -4.496243e-01 7.553335e-02 2.390349e-01 -6.660218e-02 2.782156e-01
<VARIANCE> 25
 3.280365e+01 4.996566e+01 9.409636e+01 8.114723e+01 9.606285e+01 8.111855e+01 6.623805e+01 6.677664e+01 6.801373e+01 5.272781e+01 5.731422e+01 3.900633e+01 2.473365e+00 2.852949e+00 6.264375e+00 4.732167e+00 6.462174e+00 4.918589e+00 4.802270e+00 4.482831e+00 4.691988e+00 3.618225e+00 3.934101e+00 2.759081e+00 2.842512e+00
<GCONST> 1.136747e+02
<STATE> 3
<MEAN> 25
 5.851442e-02 1.893086e+00 1.219226e+01 1.418460e-01 -7.742625e+00 -3.306652e+00 -2.789274e+00 -3.481244e+00 -4.620161e+00 -1.942298e-01 2.456530e+00 -2.042819e-01 1.041945e-02 1.033711e-01 -1.939004e-01 6.198299e-02 1.487206e-01 1.056467e-01 6.913833e-02 7.357263e-02 9.744862e-02 5.992542e-02 -6.799663e-02 4.170412e-02 -2.420923e-01
<VARIANCE> 25
 2.897036e+01 4.920849e+01 8.974024e+01 8.546512e+01 9.432800e+01 8.026579e+01 6.544700e+01 6.582802e+01 6.692899e+01 5.301231e+01 5.791824e+01 3.909238e+01 1.805751e+00 2.530930e+00 4.848723e+00 4.029112e+00 5.263151e+00 4.212950e+00 4.142056e+00 3.994283e+00 3.950581e+00 3.228781e+00 3.382535e+00 2.486261e+00 2.497403e+00
<GCONST> 1.113412e+02
<STATE> 4
<MEAN> 25
 -4.007192e-01 2.514431e+00 1.010178e+01 8.787746e-01 -5.937514e+00 -2.357101e+00 -2.325143e+00 -3.151093e+00 -3.713824e+00 -8.530304e-02 1.618090e+00 1.750007e-01 -6.353261e-02 7.058183e-03 -8.975639e-01 2.220266e-01 6.181994e-01 1.737504e-01 3.042987e-01 2.447487e-01 3.326517e-01 1.590000e-03 -1.889749e-01 8.676009e-02 -4.252839e-01
<VARIANCE> 25
 3.380770e+01 5.219130e+01 8.458299e+01 9.323589e+01 9.114581e+01 7.816893e+01 6.766098e+01 6.676798e+01 6.346150e+01 5.255283e+01 5.568425e+01 4.037504e+01 1.433877e+00 2.266551e+00 3.356092e+00 3.311974e+00 3.963609e+00 3.542596e+00 3.512439e+00 3.554093e+00 3.340766e+00 2.944207e+00 2.960513e+00 2.291202e+00 1.887815e+00
<GCONST> 1.091019e+02
<TRANSP> 5
 0.000000e+00 1.000000e+00 0.000000e+00 0.000000e+00 0.000000e+00
 0.000000e+00 6.473449e-01 3.526551e-01 0.000000e+00 0.000000e+00
 0.000000e+00 0.000000e+00 6.274636e-01 3.725364e-01 0.000000e+00
 0.000000e+00 0.000000e+00 0.000000e+00 7.580922e-01 2.419078e-01
 0.000000e+00 0.000000e+00 0.000000e+00 0.000000e+00 0.000000e+00
<ENDHMM>
~h "j"
<BEGINHMM>
<NUMSTATES> 5
<STATE> 2
<MEAN> 25
 -1.131361e+00 4.595371e+00 5.994078e+00 2.674166e+00 -9.706763e-01 -2.671173e+00 -8.462755e-01 -7.923909e-01 -1.179490e+00 -2.052151e+00 5.243328e-01 1.135843e+00 -3.918165e-01 7.412226e-02 7.400532e-01 -1.803592e-01 -4.124315e-01 -4.403232e-01 -2.310569e-01 -1.634798e-01 -1.178122e-01 -7.971239e-02 2.953057e-01 1.426678e-01 5.799406e-01
<VARIANCE> 25
 5.603545e+01 6.236642e+01 6.306245e+01 5.080356e+01 7.093192e+01 6.682500e+01 5.881276e+01 5.061415e+01 4.432494e+01 4.039703e+01 3.748915e+01 3.349720e+01 6.226680e+00 5.957049e+00 5.135592e+00 4.628589e+00 7.695806e+00 5.966888e+00 5.436802e+00 4.666899e+00 4.186234e+00 3.875808e+00 3.687210e+00 2.948801e+00 4.684533e+00
<GCONST> 1.138258e+02
<STATE> 3
<MEAN> 25
 -1.360096e+00 3.599435e+00 7.738061e+00 1.830789e+00 -2.842063e+00 -4.096476e+00 -1.907342e+00 -9.934478e-01 -1.441770e+00 -1.994297e+00 1.408879e+00 1.389840e+00 2.667344e-01 -6.022848e-01 2.463439e-01 -3.410921e-01 -6.794248e-01 -4.798819e-01 -4.276716e-01 1.071905e-01 -1.668453e-03 9.897690e-02 2.540424e-01 2.211391e-03 7.631295e-01
<VARIANCE> 25
 4.914141e+01 6.395197e+01 6.526442e+01 5.379023e+01 7.941010e+01 6.957463e+01 6.223087e+01 5.412318e+01 4.502309e+01 4.185840e+01 3.913673e+01 3.548285e+01 5.898810e+00 6.028759e+00 5.700675e+00 4.427575e+00 8.202182e+00 6.048944e+00 5.688296e+00 5.125344e+00 4.300223e+00 3.969601e+00 3.722286e+00 3.133752e+00 4.014795e+00
<GCONST> 1.144405e+02
<STATE> 4
<MEAN> 25
 2.578728e-01 1.498566e+00 7.291901e+00 1.046068e+00 -4.363796e+00 -5.004285e+00 -2.916042e+00 -2.389228e-01 -1.346753e+00 -1.498273e+00 1.697782e+00 1.155113e+00 4.422264e-01 -5.690519e-01 -5.617649e-01 -2.923629e-01 -5.150215e-02 2.571992e-02 -1.427307e-01 2.641157e-01 1.918246e-01 1.994881e-01 -3.471927e-02 -2.103618e-01 2.861463e-01
<VARIANCE> 25
 3.644758e+01 5.686159e+01 6.043956e+01 5.718092e+01 7.657141e+01 6.255190e+01 6.493571e+01 6.110149e+01 4.849129e+01 4.487975e+01 4.007401e+01 3.611206e+01 3.284382e+00 4.315758e+00 4.492593e+00 3.556259e+00 6.408842e+00 4.921871e+00 4.840904e+00 4.560902e+00 3.840456e+00 3.521133e+00 3.403499e+00 2.952620e+00 2.851042e+00
<GCONST> 1.113823e+02
<TRANSP> 5
 0.000000e+00 1.000000e+00 0.000000e+00 0.000000e+00 0.000000e+00
 0.000000e+00 6.305711e-01 3.694288e-01 0.000000e+00 0.000000e+00
 0.000000e+00 0.000000e+00 6.192143e-01 3.807857e-01 0.000000e+00
 0.000000e+00 0.000000e+00 0.000000e+00 6.924357e-01 3.075643e-01
 0.000000e+00 0.000000e+00 0.000000e+00 0.000000e+00 0.000000e+00
<ENDHMM>
~h "k"
<BEGINHMM>
<NUMSTATES> 5
<STATE> 2
<MEAN> 25
 -1.592412e+00 -3.700685e-01 -3.094080e+00 3.967270e-01 2.693568e+00 9.515370e-01 1.125509e+00 7.874843e-01 8.344851e-01 1.415357e+00 3.767923e-01 3.429682e-01 -1.517956e-01 -5.117384e-01 -4.573366e-01 -2.887042e-01 2.490463e-01 -1.729907e-01 3.027773e-02 1.590172e-01 1.509960e-01 1.520438e-01 1.286760e-02 -7.829906e-04 5.010448e-01
<VARIANCE> 25
 4.630362e+01 5.112707e+01 5.934326e+01 6.124076e+01 7.321993e+01 6.906404e+01 5.158016e+01 5.254775e+01 5.035590e+01 4.603904e+01 4.274261e+01 3.733088e+01 3.840889e+00 4.992061e+00 4.704467e+00 5.452579e+00 6.225121e+00 5.765513e+00 4.771917e+00 4.740706e+00 4.666134e+00 4.357165e+00 3.889629e+00 3.461907e+00 6.798910e+00
<GCONST> 1.138982e+02
<STATE> 3
<MEAN> 25
 -1.310580e+00 -1.787321e+00 -3.780248e+00 -6.500422e-01 2.680825e+00 2.981738e-01 1.030272e+00 9.916098e-01 1.055356e+00 1.552358e+00 2.720543e-01 9.569009e-02 2.829702e-01 -4.993955e-01 -1.211216e-01 -4.636166e-01 -1.999116e-01 -2.588175e-01 -4.239785e-02 2.845639e-02 2.276787e-02 -4.249471e-02 -8.466456e-02 -1.769112e-01 9.283566e-01
<VARIANCE> 25
 4.670340e+01 5.344170e+01 6.324712e+01 6.292522e+01 7.826555e+01 7.330310e+01 5.299164e+01 5.470749e+01 5.252205e+01 4.806772e+01 4.401009e+01 3.905218e+01 4.365569e+00 4.777583e+00 4.865716e+00 5.569622e+00 6.461401e+00 5.975516e+00 4.887333e+00 4.934094e+00 4.923330e+00 4.570518e+00 4.138896e+00 3.649878e+00 6.364528e+00
<GCONST> 1.148214e+02
<STATE> 4
<MEAN> 25
 -4.483838e-01 -2.328047e+00 -3.540047e+00 -1.193265e+00 1.810385e+00 3.811258e-02 1.062053e+00 8.991265e-01 9.461160e-01 1.135408e+00 9.219714e-03 -2.722623e-01 4.340074e-01 -1.857682e-01 1.885145e-01 -2.935260e-01 -3.877554e-01 -1.404191e-01 -9.031285e-02 -8.809388e-02 -1.195087e-01 -1.734546e-01 -1.003333e-01 -1.820982e-01 6.524526e-01
<VARIANCE> 25
 4.803781e+01 5.481122e+01 5.981784e+01 6.170966e+01 7.115997e+01 6.808802e+01 5.058633e+01 5.284812e+01 5.087149e+01 4.690751e+01 4.446783e+01 3.877648e+01 3.489100e+00 3.762380e+00 3.975117e+00 4.537351e+00 5.184335e+00 4.895248e+00 4.234838e+00 4.289057e+00 4.306065e+00 3.954231e+00 3.682943e+00 3.146462e+00 4.416139e+00
<GCONST> 1.120139e+02
<TRANSP> 5
 0.000000e+00 1.000000e+00 0.000000e+00 0.000000e+00 0.000000e+00
 0.000000e+00 5.276928e-01 4.723072e-01 0.000000e+00 0.000000e+00
 0.000000e+00 0.000000e+00 5.187480e-01 4.812520e-01 0.000000e+00
 0.000000e+00 0.000000e+00 0.000000e+00 5.903350e-01 4.096650e-01
 0.000000e+00 0.000000e+00 0.000000e+00 0.000000e+00 0.000000e+00
<ENDHMM>
~h "l"
<BEGINHMM>
<NUMSTATES> 5
<STATE> 2
<MEAN> 25
 4.854884e+00 -2.751449e+00 -2.478410e+00 -3.730557e+00 -8.156703e-01 -1.278553e-01 -3.298820e+00 -2.142461e+00 2.409818e+00 1.854728e+00 -1.032184e+00 -1.902429e+00 1.174420e-01 -2.311544e-02 -3.055799e-02 -1.066413e-01 6.259532e-02 3.052928e-02 -1.702385e-01 -4.829851e-02 9.668554e-02 1.219218e-01 -1.193912e-01 -8.096350e-02 2.737260e-02
<VARIANCE> 25
 3.608531e+01 4.381035e+01 5.170728e+01 6.772129e+01 6.708649e+01 7.975774e+01 7.048582e+01 7.792582e+01 5.983772e+01 7.064234e+01 5.613451e+01 4.260082e+01 1.228598e+00 2.077694e+00 2.298032e+00 3.184154e+00 3.313737e+00 3.818109e+00 3.816591e+00 4.401512e+00 3.496078e+00 3.610468e+00 3.165740e+00 2.584812e+00 1.437344e+00
<GCONST> 1.080855e+02
<STATE> 3
<MEAN> 25
 4.860987e+00 -2.685223e+00 -2.442220e+00 -3.761542e+00 -6.186619e-01 -9.111018e-02 -3.358072e+00 -2.035934e+00 2.369114e+00 1.852647e+00 -1.200904e+00 -1.937126e+00 -6.094041e-02 2.741758e-02 5.492151e-02 2.480368e-02 8.630250e-02 2.725063e-02 7.580888e-02 1.512495e-01 -7.728209e-02 -8.764166e-02 -6.330097e-02 1.286449e-02 -5.304812e-02
<VARIANCE> 25
 3.472529e+01 4.377227e+01 5.150344e+01 6.805434e+01 6.698647e+01 7.831095e+01 7.166096e+01 7.789200e+01 6.010048e+01 7.125961e+01 5.710534e+01 4.317564e+01 1.038436e+00 1.987177e+00 2.184747e+00 3.002150e+00 3.153414e+00 3.619509e+00 3.710368e+00 4.236071e+00 3.372251e+00 3.478834e+00 3.138066e+00 2.477403e+00 1.336195e+00
<GCONST> 1.073981e+02
<STATE> 4
<MEAN> 25
 4.317014e+00 -2.397780e+00 -2.408723e+00 -3.405865e+00 -2.506044e-01 1.395419e-01 -2.743491e+00 -1.465231e+00 2.011230e+00 1.389065e+00 -1.356571e+00 -1.727288e+00 -2.003877e-01 1.076859e-01 1.475654e-01 1.682165e-01 6.906655e-02 3.710837e-02 2.522400e-01 2.311005e-01 -2.094049e-01 -2.015988e-01 2.691832e-02 1.034727e-01 -1.771929e-01
<VARIANCE> 25
 3.797223e+01 4.638161e+01 5.258030e+01 6.925396e+01 6.949314e+01 7.665936e+01 7.106009e+01 7.570934e+01 5.881374e+01 7.100024e+01 5.732795e+01 4.415881e+01 9.228830e-01 1.911702e+00 2.087271e+00 2.811767e+00 3.006530e+00 3.331480e+00 3.394817e+00 3.726657e+00 3.197713e+00 3.224591e+00 2.986852e+00 2.318641e+00 1.287128e+00
<GCONST> 1.066657e+02
<TRANSP> 5
 0.000000e+00 1.000000e+00 0.000000e+00 0.000000e+00 0.000000e+00
 0.000000e+00 5.031103e-01 4.968897e-01 0.000000e+00 0.000000e+00
 0.000000e+00 0.000000e+00 5.004396e-01 4.995604e-01 0.000000e+00
 0.000000e+00 0.000000e+00 0.000000e+00 6.224290e-01 3.775710e-01
 0.000000e+00 0.000000e+00 0.000000e+00 0.000000e+00 0.000000e+00
<ENDHMM>
~h "m"
<BEGINHMM>
<NUMSTATES> 5
<STATE> 2
<MEAN> 25
 4.697547e+00 1.026727e+00 -8.407513e-01 3.529537e-01 6.647215e-01 2.458571e+00 -1.116388e+00 -3.259412e+00 -2.547084e+00 -5.971783e-01 -1.060652e+00 -1.678627e+00 1.281622e-01 2.261859e-01 6.143881e-02 2.589239e-01 1.188373e-01 2.063825e-01 3.982271e-02 -2.741195e-01 -2.558266e-01 -9.432010e-02 -1.755514e-01 -1.184540e-01 -1.729842e-01
<VARIANCE> 25
 3.531117e+01 4.554498e+01 4.469452e+01 5.247941e+01 4.967073e+01 5.911670e+01 4.999432e+01 6.135802e+01 5.971310e+01 4.466378e+01 4.233551e+01 3.489666e+01 1.325022e+00 2.695348e+00 3.140280e+00 4.046615e+00 3.078233e+00 3.333371e+00 3.228556e+00 4.248139e+00 4.213182e+00 2.978928e+00 3.114436e+00 2.459946e+00 2.047139e+00
<GCONST> 1.063348e+02
<STATE> 3
<MEAN> 25
 4.846340e+00 1.204797e+00 -8.251212e-01 5.461946e-01 8.329083e-01 2.720803e+00 -1.079350e+00 -3.426959e+00 -2.767188e+00 -7.838936e-01 -1.342169e+00 -1.903310e+00 6.919324e-03 -2.461557e-02 -5.772420e-02 -1.546904e-02 5.745773e-02 6.494173e-02 3.143770e-02 9.774450e-02 6.223854e-02 -5.075394e-02 -7.341556e-02 -7.573718e-02 1.928483e-02
<VARIANCE> 25
 3.404195e+01 4.643625e+01 4.479655e+01 5.157848e+01 4.993659e+01 6.029766e+01 5.095100e+01 6.248275e+01 6.151704e+01 4.492813e+01 4.251521e+01 3.526669e+01 1.211026e+00 2.677179e+00 3.013911e+00 3.935199e+00 3.060913e+00 3.293260e+00 3.133540e+00 4.247836e+00 4.216733e+00 2.954751e+00 3.055658e+00 2.439301e+00 1.908836e+00
<GCONST> 1.060971e+02
<STATE> 4
<MEAN> 25
 4.515341e+00 1.069959e+00 -1.125073e+00 4.172560e-01 1.028513e+00 2.677941e+00 -1.022417e+00 -2.680689e+00 -2.302680e+00 -9.181216e-01 -1.459226e+00 -1.986083e+00 -1.269359e-01 -1.628089e-01 -9.885048e-02 -1.628186e-01 -1.284245e-02 -8.013979e-02 4.110072e-02 3.493087e-01 2.935452e-01 2.245299e-02 4.694703e-02 2.872331e-02 9.472954e-02
<VARIANCE> 25
 3.677352e+01 5.092812e+01 4.624563e+01 5.388559e+01 5.267621e+01 6.115842e+01 5.198951e+01 6.160289e+01 6.043056e+01 4.541196e+01 4.250994e+01 3.591296e+01 1.103992e+00 2.462246e+00 2.774831e+00 3.480634e+00 3.034235e+00 3.155683e+00 2.978893e+00 3.838910e+00 3.786489e+00 2.843142e+00 2.908326e+00 2.333932e+00 1.657658e+00
<GCONST> 1.054611e+02
<TRANSP> 5
 0.000000e+00 1.000000e+00 0.000000e+00 0.000000e+00 0.000000e+00
 0.000000e+00 5.077272e-01 4.922728e-01 0.000000e+00 0.000000e+00
 0.000000e+00 0.000000e+00 5.083899e-01 4.916101e-01 0.000000e+00
 0.000000e+00 0.000000e+00 0.000000e+00 6.293949e-01 3.706051e-01
 0.000000e+00 0.000000e+00 0.000000e+00 0.000000e+00 0.000000e+00
<ENDHMM>
~h "n"
<BEGINHMM>
<NUMSTATES> 5
<STATE> 2
<MEAN> 25
 3.817341e+00 -7.082801e-02 1.390565e+00 1.410852e+00 -1.055240e+00 -4.931219e-01 -1.209197e+00 -1.010001e+00 -8.423353e-01 -7.085356e-01 -2.565891e+00 -1.076871e+00 4.121369e-02 5.232786e-01 2.209215e-01 3.965212e-01 4.014673e-02 1.037472e-01 1.220686e-02 -3.121246e-01 -1.639854e-01 -5.284191e-02 -1.463155e-01 3.150949e-02 -4.585214e-01
<VARIANCE> 25
 3.002797e+01 5.244298e+01 5.078779e+01 5.291248e+01 5.925542e+01 5.474367e+01 4.943754e+01 6.259637e+01 4.917461e+01 4.734261e+01 4.789263e+01 3.517763e+01 1.269744e+00 3.178281e+00 2.789674e+00 3.480990e+00 3.535766e+00 3.413781e+00 3.282405e+00 4.823593e+00 3.317170e+00 3.111204e+00 3.117244e+00 2.391846e+00 2.255296e+00
<GCONST> 1.065868e+02
<STATE> 3
<MEAN> 25
 3.673712e+00 8.063919e-01 1.682550e+00 1.943487e+00 -8.720605e-01 -2.431529e-01 -1.084705e+00 -1.385234e+00 -1.104620e+00 -8.079026e-01 -2.643569e+00 -9.644573e-01 -1.275877e-01 3.285992e-01 1.070881e-01 1.630562e-01 9.740862e-02 1.174930e-01 9.326016e-02 -7.086975e-02 -1.082464e-01 -3.569551e-02 3.615139e-02 5.039096e-02 -3.301175e-01
<VARIANCE> 25
 2.999276e+01 5.181344e+01 4.882620e+01 5.230490e+01 5.918286e+01 5.325883e+01 4.826073e+01 6.133430e+01 4.816917e+01 4.701355e+01 4.726096e+01 3.476699e+01 1.227907e+00 3.096921e+00 2.604151e+00 3.312490e+00 3.408148e+00 3.288585e+00 3.175127e+00 4.644633e+00 3.217542e+00 3.012204e+00 3.018772e+00 2.303092e+00 2.077865e+00
<GCONST> 1.058591e+02
<STATE> 4
<MEAN> 25
 2.656468e+00 1.512664e+00 1.573710e+00 2.422135e+00 -2.326786e-01 2.112134e-01 -6.070892e-01 -1.086141e+00 -1.208318e+00 -9.312571e-01 -2.301690e+00 -6.660456e-01 -2.962058e-01 8.969578e-02 -1.197204e-03 -3.825961e-02 1.245563e-01 8.623088e-02 1.430645e-01 1.491412e-01 -1.360161e-02 1.317003e-02 2.078706e-01 7.259725e-02 -1.943334e-01
<VARIANCE> 25
 3.447447e+01 5.335528e+01 4.752968e+01 5.334583e+01 5.881764e+01 5.203675e+01 4.772813e+01 5.845383e+01 4.722057e+01 4.597040e+01 4.599529e+01 3.441637e+01 1.227154e+00 2.709784e+00 2.362726e+00 2.911719e+00 3.124495e+00 3.053621e+00 2.961617e+00 3.921692e+00 3.006222e+00 2.838763e+00 2.785960e+00 2.153874e+00 1.743513e+00
<GCONST> 1.046421e+02
<TRANSP> 5
 0.000000e+00 1.000000e+00 0.000000e+00 0.000000e+00 0.000000e+00
 0.000000e+00 4.812172e-01 5.187829e-01 0.000000e+00 0.000000e+00
 0.000000e+00 0.000000e+00 4.806586e-01 5.193414e-01 0.000000e+00
 0.000000e+00 0.000000e+00 0.000000e+00 6.126672e-01 3.873328e-01
 0.000000e+00 0.000000e+00 0.000000e+00 0.000000e+00 0.000000e+00
<ENDHMM>
~h "o"
<BEGINHMM>
<NUMSTATES> 5
<STATE> 2
<MEAN> 25
 4.513035e+00 -4.326657e-01 -5.274668e+00 -7.469912e+00 -5.722705e-01 3.906553e+00 -1.286096e+00 -1.572682e+00 1.004631e+00 1.939296e+00 1.901622e+00 -1.014475e+00 4.062880e-01 -5.900687e-02 -3.327262e-01 -8.133646e-01 2.327174e-02 5.283951e-01 4.154622e-02 -7.113781e-02 -9.591585e-02 1.195507e-01 1.243763e-01 -1.179598e-01 2.677463e-01
<VARIANCE> 25
 4.652757e+01 3.598679e+01 4.531819e+01 9.498912e+01 6.614238e+01 9.037263e+01 6.084071e+01 5.476352e+01 5.524401e+01 5.938706e+01 4.855192e+01 3.744551e+01 2.402662e+00 2.267855e+00 2.595483e+00 6.044722e+00 3.934954e+00 4.668254e+00 3.823943e+00 3.510390e+00 3.797187e+00 3.604271e+00 3.269502e+00 2.717400e+00 2.959129e+00
<GCONST> 1.099876e+02
<STATE> 3
<MEAN> 25
 4.992406e+00 -4.011343e-01 -5.566363e+00 -8.123370e+00 -4.050701e-01 4.549650e+00 -1.053123e+00 -1.675438e+00 7.302959e-01 2.029193e+00 1.942505e+00 -1.098650e+00 3.121930e-03 7.846743e-02 5.029227e-02 1.666960e-01 1.007881e-01 7.732300e-02 7.770734e-02 -1.326523e-02 -6.566339e-02 9.262596e-04 -8.025315e-02 -3.284515e-03 -2.002736e-01
<VARIANCE> 25
 4.278035e+01 3.601015e+01 4.430051e+01 9.246393e+01 6.431575e+01 9.028682e+01 5.830198e+01 5.403086e+01 5.316816e+01 5.842729e+01 4.791449e+01 3.725774e+01 1.657552e+00 1.979289e+00 2.113320e+00 4.748735e+00 3.243325e+00 3.937126e+00 3.335662e+00 3.130795e+00 3.368076e+00 3.229451e+00 2.936686e+00 2.490391e+00 2.285421e+00
<GCONST> 1.074453e+02
<STATE> 4
<MEAN> 25
 2.636128e+00 4.861555e-01 -4.899435e+00 -5.656472e+00 2.510723e-01 4.463443e+00 8.761762e-02 -9.274566e-01 7.465672e-01 1.805302e+00 1.391885e+00 -4.224384e-01 -2.362940e-01 1.199073e-01 2.356309e-01 5.797758e-01 9.433310e-02 -1.872923e-01 6.020225e-02 3.070823e-02 -1.718567e-02 -7.502682e-02 -1.352852e-01 5.915237e-02 -3.675390e-01
<VARIANCE> 25
 5.531850e+01 3.348699e+01 4.012064e+01 9.443143e+01 5.740746e+01 7.150360e+01 5.010210e+01 4.871148e+01 4.595561e+01 5.140655e+01 4.015342e+01 3.497825e+01 9.888433e-01 1.364968e+00 1.559827e+00 2.937224e+00 2.325390e+00 2.778796e+00 2.441681e+00 2.442901e+00 2.503792e+00 2.484158e+00 2.234521e+00 1.948615e+00 1.261724e+00
<GCONST> 1.018508e+02
<TRANSP> 5
 0.000000e+00 1.000000e+00 0.000000e+00 0.000000e+00 0.000000e+00
 0.000000e+00 5.889437e-01 4.110563e-01 0.000000e+00 0.000000e+00
 0.000000e+00 0.000000e+00 5.833316e-01 4.166683e-01 0.000000e+00
 0.000000e+00 0.000000e+00 0.000000e+00 7.929205e-01 2.070794e-01
 0.000000e+00 0.000000e+00 0.000000e+00 0.000000e+00 0.000000e+00
<ENDHMM>
~h "p"
<BEGINHMM>
<NUMSTATES> 5
<STATE> 2
<MEAN> 25
 5.023615e-01 4.883628e-01 -3.365815e+00 1.343771e-01 1.418538e+00 1.829272e+00 9.483330e-01 4.299501e-02 1.215290e+00 1.345671e+00 5.589411e-01 -2.867031e-01 1.994972e-01 -4.082839e-01 -3.794360e-01 -3.624789e-01 -6.042212e-02 9.754741e-03 5.230720e-02 -2.740804e-02 2.271103e-01 1.577825e-01 1.361754e-01 -7.231383e-02 5.929242e-01
<VARIANCE> 25
 5.157990e+01 4.980770e+01 4.701179e+01 5.783613e+01 4.642495e+01 5.544670e+01 4.433555e+01 4.621459e+01 4.358997e+01 4.092175e+01 3.883872e+01 3.501392e+01 4.863125e+00 5.177789e+00 3.835662e+00 5.836287e+00 4.347299e+00 5.211760e+00 4.259562e+00 4.331705e+00 4.166176e+00 4.000347e+00 3.754383e+00 3.465668e+00 9.652627e+00
<GCONST> 1.119028e+02
<STATE> 3
<MEAN> 25
 1.430566e+00 -8.891433e-01 -4.144619e+00 -1.105146e+00 1.036950e+00 1.664814e+00 8.271322e-01 -1.063645e-01 1.601547e+00 1.529352e+00 7.078092e-01 -7.118568e-01 4.864139e-01 -6.332704e-01 -2.328655e-01 -5.648133e-01 -2.288510e-01 -1.223040e-01 -1.337979e-01 -5.392617e-02 1.061678e-01 7.096974e-03 1.628391e-02 -2.283296e-01 1.103365e+00
<VARIANCE> 25
 4.885679e+01 5.158214e+01 4.896005e+01 6.102809e+01 4.831858e+01 5.943765e+01 4.588031e+01 4.679477e+01 4.450068e+01 4.192923e+01 3.979223e+01 3.714529e+01 5.305894e+00 5.380497e+00 4.271316e+00 6.408214e+00 4.702114e+00 5.977082e+00 4.548515e+00 4.587662e+00 4.483954e+00 4.304586e+00 4.119128e+00 3.882320e+00 9.582161e+00
<GCONST> 1.132732e+02
<STATE> 4
<MEAN> 25
 2.391618e+00 -2.063683e+00 -4.452018e+00 -1.987715e+00 6.340640e-01 1.412775e+00 5.725923e-01 -1.394208e-01 1.665112e+00 1.326986e+00 4.646165e-01 -1.211809e+00 3.653257e-01 -3.772394e-01 1.215465e-01 -3.073136e-01 -2.510379e-01 -1.851414e-01 -1.859608e-01 -2.489509e-02 -4.887495e-02 -1.193648e-01 -8.318754e-02 -1.470066e-01 7.845179e-01
<VARIANCE> 25
 4.775839e+01 5.381333e+01 5.166235e+01 6.306513e+01 5.205341e+01 6.199490e+01 4.812290e+01 4.765210e+01 4.602825e+01 4.344486e+01 4.146482e+01 3.976976e+01 4.218362e+00 4.529603e+00 4.068612e+00 5.700175e+00 4.496958e+00 5.495153e+00 4.251371e+00 4.276891e+00 4.235485e+00 3.951400e+00 3.881599e+00 3.465783e+00 7.288713e+00
<GCONST> 1.123179e+02
<TRANSP> 5
 0.000000e+00 1.000000e+00 0.000000e+00 0.000000e+00 0.000000e+00
 0.000000e+00 5.592158e-01 4.407842e-01 0.000000e+00 0.000000e+00
 0.000000e+00 0.000000e+00 5.529196e-01 4.470803e-01 0.000000e+00
 0.000000e+00 0.000000e+00 0.000000e+00 6.309217e-01 3.690783e-01
 0.000000e+00 0.000000e+00 0.000000e+00 0.000000e+00 0.000000e+00
<ENDHMM>
~h "r"
<BEGINHMM>
<NUMSTATES> 5
<STATE> 2
<MEAN> 25
 3.424008e+00 -3.414105e+00 -2.053761e+00 3.441266e-01 -1.532760e+00 -1.715717e+00 -1.306206e+00 6.623335e-01 2.163499e+00 2.237183e-01 3.976395e-02 -6.469511e-01 7.746431e-02 -5.787502e-02 1.073429e-01 2.340742e-01 -1.023621e-01 -7.417835e-02 -4.824097e-02 5.341252e-02 -3.780315e-02 -4.276705e-02 6.791603e-02 8.283757e-02 -7.435703e-02
<VARIANCE> 25
 3.943628e+01 5.057904e+01 5.631681e+01 5.048277e+01 6.147670e+01 6.102273e+01 5.838413e+01 6.241523e+01 5.723303e+01 4.892041e+01 4.719456e+01 3.962737e+01 2.574166e+00 3.617994e+00 3.330434e+00 3.952550e+00 4.422708e+00 4.389349e+00 4.153204e+00 4.445577e+00 4.329114e+00 3.827322e+00 3.693011e+00 3.151546e+00 3.447855e+00
<GCONST> 1.105899e+02
<STATE> 3
<MEAN> 25
 3.502157e+00 -3.399843e+00 -1.781535e+00 6.222560e-01 -1.639095e+00 -1.760660e+00 -1.315541e+00 7.242078e-01 1.908291e+00 1.504905e-01 1.359759e-01 -5.145054e-01 -3.445915e-02 9.290042e-02 1.916498e-01 8.469244e-02 -2.491694e-02 2.369364e-02 2.332852e-02 -4.828863e-03 -2.218204e-01 -2.911655e-02 5.967775e-02 6.276014e-02 -1.291661e-01
<VARIANCE> 25
 3.878960e+01 5.193281e+01 5.926511e+01 4.998293e+01 6.263278e+01 6.117333e+01 5.783386e+01 6.250512e+01 5.739913e+01 4.866428e+01 4.709018e+01 3.902370e+01 2.474993e+00 3.477252e+00 3.327591e+00 3.740212e+00 4.438071e+00 4.281827e+00 4.057800e+00 4.396653e+00 4.295560e+00 3.743773e+00 3.626529e+00 3.064200e+00 3.168348e+00
<GCONST> 1.102827e+02
<STATE> 4
<MEAN> 25
 3.235321e+00 -3.070114e+00 -1.456082e+00 6.792526e-01 -1.515957e+00 -1.538080e+00 -1.065796e+00 7.538738e-01 1.368699e+00 1.146964e-01 1.352272e-01 -4.008317e-01 -1.657578e-01 2.379016e-01 2.471491e-01 -2.778939e-02 5.305518e-02 9.394900e-02 7.987063e-02 -7.583573e-02 -3.106998e-01 -2.332313e-03 4.585342e-02 5.057671e-02 -1.832311e-01
<VARIANCE> 25
 4.092596e+01 5.496110e+01 6.244380e+01 5.094575e+01 6.456207e+01 6.139870e+01 5.755041e+01 6.181982e+01 5.665411e+01 4.868506e+01 4.715506e+01 3.860046e+01 2.097181e+00 2.999382e+00 3.037481e+00 3.293086e+00 4.060490e+00 3.833206e+00 3.668520e+00 3.985582e+00 3.936053e+00 3.394240e+00 3.288405e+00 2.730367e+00 2.585515e+00
<GCONST> 1.089276e+02
<TRANSP> 5
 0.000000e+00 1.000000e+00 0.000000e+00 0.000000e+00 0.000000e+00
 0.000000e+00 4.604332e-01 5.395668e-01 0.000000e+00 0.000000e+00
 0.000000e+00 0.000000e+00 4.567795e-01 5.432205e-01 0.000000e+00
 0.000000e+00 0.000000e+00 0.000000e+00 5.544454e-01 4.455546e-01
 0.000000e+00 0.000000e+00 0.000000e+00 0.000000e+00 0.000000e+00
<ENDHMM>
~h "s"
<BEGINHMM>
<NUMSTATES> 5
<STATE> 2
<MEAN> 25
 -9.888760e+00 4.156540e+00 6.703023e-01 9.807852e-01 4.615448e+00 -2.401090e+00 4.184800e+00 1.312112e+00 1.185939e+00 -3.511429e-01 1.375158e+00 1.840265e+00 -2.000597e+00 5.752951e-01 -9.626727e-02 -1.665912e-02 5.782256e-01 -1.025778e-01 6.243697e-01 1.769823e-01 2.583238e-01 -8.667707e-02 4.438485e-01 2.696325e-01 4.201835e-02
<VARIANCE> 25
 9.860601e+01 8.299087e+01 8.922621e+01 6.309292e+01 8.516532e+01 8.936181e+01 6.782898e+01 6.069894e+01 5.121182e+01 4.695134e+01 4.571381e+01 3.485100e+01 7.850500e+00 5.347465e+00 5.248209e+00 3.932728e+00 5.305758e+00 4.863204e+00 4.842180e+00 4.240272e+00 3.768934e+00 3.811494e+00 3.444027e+00 2.637995e+00 1.922077e+00
<GCONST> 1.145731e+02
<STATE> 3
<MEAN> 25
 -1.299399e+01 4.125624e+00 4.138122e-01 4.476035e-01 4.742294e+00 -2.556334e+00 4.656182e+00 1.453721e+00 1.605248e+00 -4.671709e-01 2.105529e+00 2.228994e+00 1.468009e-01 -2.402786e-01 -5.254550e-02 -1.778246e-01 -2.854216e-01 -7.928462e-02 -1.759929e-01 -8.864662e-02 3.950794e-02 -7.087755e-03 -6.804553e-03 -2.219088e-02 7.755965e-02
<VARIANCE> 25
 8.935735e+01 9.089382e+01 9.560149e+01 6.636288e+01 8.331778e+01 8.784502e+01 6.385981e+01 5.875704e+01 4.772906e+01 4.448809e+01 4.039129e+01 3.322365e+01 1.001988e+01 4.402117e+00 4.541570e+00 3.326678e+00 4.508239e+00 4.280761e+00 4.439894e+00 4.019075e+00 3.560267e+00 3.410048e+00 3.303094e+00 2.578322e+00 2.080737e+00
<GCONST> 1.134105e+02
<STATE> 4
<MEAN> 25
 -9.466795e+00 2.463832e+00 3.424204e-01 1.841391e-01 3.050069e+00 -2.136874e+00 3.262360e+00 7.961730e-01 1.298049e+00 -2.744179e-01 1.446512e+00 1.818778e+00 1.672067e+00 -4.360626e-01 3.871381e-02 -2.087422e-01 -6.689191e-01 -8.735964e-02 -6.431191e-01 -3.298778e-01 -1.675138e-01 2.078623e-02 -2.863738e-01 -2.720805e-01 2.285414e-01
<VARIANCE> 25
 9.711987e+01 8.014106e+01 8.757534e+01 6.295333e+01 7.635487e+01 8.097934e+01 6.192987e+01 5.566101e+01 4.705555e+01 4.384440e+01 4.063287e+01 3.261782e+01 7.496270e+00 4.202028e+00 4.521243e+00 3.483869e+00 4.508213e+00 4.343194e+00 4.532396e+00 4.149181e+00 3.687534e+00 3.448285e+00 3.294245e+00 2.651732e+00 2.449208e+00
<GCONST> 1.129394e+02
<TRANSP> 5
 0.000000e+00 1.000000e+00 0.000000e+00 0.000000e+00 0.000000e+00
 0.000000e+00 7.124153e-01 2.875847e-01 0.000000e+00 0.000000e+00
 0.000000e+00 0.000000e+00 6.874407e-01 3.125592e-01 0.000000e+00
 0.000000e+00 0.000000e+00 0.000000e+00 7.492832e-01 2.507167e-01
 0.000000e+00 0.000000e+00 0.000000e+00 0.000000e+00 0.000000e+00
<ENDHMM>
~h "t"
<BEGINHMM>
<NUMSTATES> 5
<STATE> 2
<MEAN> 25
 -1.329904e+00 1.505158e+00 -9.372920e-01 1.216323e+00 8.864978e-01 -6.110894e-01 5.160514e-01 4.694395e-03 1.139793e+00 8.896003e-01 4.885835e-01 8.579029e-01 -2.621356e-01 -3.167542e-01 -2.286488e-01 -3.496993e-01 8.552294e-02 -1.336658e-01 5.539092e-02 3.661622e-02 2.481657e-01 1.177059e-02 1.332283e-01 8.878456e-02 3.968211e-01
<VARIANCE> 25
 4.507684e+01 4.297467e+01 4.903133e+01 5.231782e+01 5.269500e+01 5.926066e+01 5.081689e+01 4.811829e+01 4.679682e+01 4.188911e+01 4.099451e+01 3.168115e+01 4.067386e+00 4.617812e+00 3.978914e+00 5.291374e+00 4.818632e+00 5.703630e+00 4.961250e+00 4.564692e+00 4.446469e+00 4.018889e+00 3.875639e+00 3.141612e+00 8.735447e+00
<GCONST> 1.119276e+02
<STATE> 3
<MEAN> 25
 -1.394126e+00 3.655617e-01 -1.321516e+00 -1.086503e-02 7.319420e-01 -1.099779e+00 3.278178e-01 1.279960e-02 1.573081e+00 8.121596e-01 6.336746e-01 8.120117e-01 1.975349e-01 -5.154110e-01 -1.043521e-01 -6.154367e-01 -1.602110e-01 -2.246635e-01 -2.173361e-01 -6.098252e-02 1.049417e-01 -5.165688e-02 1.244217e-02 -1.278772e-01 1.051385e+00
<VARIANCE> 25
 4.425606e+01 4.390838e+01 4.906372e+01 5.503463e+01 5.345753e+01 6.167081e+01 5.402547e+01 4.913968e+01 4.741808e+01 4.272922e+01 4.159980e+01 3.272112e+01 4.761668e+00 4.615969e+00 4.324435e+00 5.497633e+00 5.087145e+00 6.258628e+00 5.581982e+00 4.941414e+00 4.819072e+00 4.405623e+00 4.328713e+00 3.517379e+00 8.717710e+00
<GCONST> 1.132153e+02
<STATE> 4
<MEAN> 25
 -6.530232e-01 -4.177950e-01 -1.473325e+00 -9.360097e-01 3.572553e-01 -1.217547e+00 -1.782786e-01 -1.044289e-01 1.532668e+00 6.278131e-01 4.990612e-01 4.826225e-01 4.428960e-01 -3.187736e-01 8.206592e-02 -4.559305e-01 -2.333721e-01 -7.076045e-02 -3.074726e-01 -1.407694e-01 -1.405619e-01 -5.794147e-02 -5.270657e-02 -2.086146e-01 8.613499e-01
<VARIANCE> 25
 4.509305e+01 4.525216e+01 5.042113e+01 5.851232e+01 5.475955e+01 6.110588e+01 5.729761e+01 5.045752e+01 4.921261e+01 4.413850e+01 4.298637e+01 3.422962e+01 3.949480e+00 3.886863e+00 4.087380e+00 4.681391e+00 4.644288e+00 5.534388e+00 5.147144e+00 4.533612e+00 4.491051e+00 4.089982e+00 4.013775e+00 3.226560e+00 6.416715e+00
<GCONST> 1.120299e+02
<TRANSP> 5
 0.000000e+00 1.000000e+00 0.000000e+00 0.000000e+00 0.000000e+00
 0.000000e+00 5.193116e-01 4.806884e-01 0.000000e+00 0.000000e+00
 0.000000e+00 0.000000e+00 5.064283e-01 4.935717e-01 0.000000e+00
 0.000000e+00 0.000000e+00 0.000000e+00 5.769964e-01 4.230036e-01
 0.000000e+00 0.000000e+00 0.000000e+00 0.000000e+00 0.000000e+00
<ENDHMM>
~h "u"
<BEGINHMM>
<NUMSTATES> 5
<STATE> 2
<MEAN> 25
 4.353801e+00 3.229105e+00 -1.385659e+00 -3.922582e+00 -9.058152e-01 1.608308e+00 -4.694160e+00 -4.091589e+00 -1.776943e+00 2.435423e-01 2.334598e+00 3.031087e-01 3.985676e-01 1.885424e-01 -1.139738e-01 -4.003817e-01 -1.167076e-01 2.694741e-01 -3.528222e-01 -2.969583e-01 -1.863398e-01 8.588455e-02 2.212076e-01 2.238834e-02 9.557009e-02
<VARIANCE> 25
 4.456222e+01 4.324431e+01 4.940381e+01 8.500890e+01 6.151204e+01 7.515032e+01 7.205157e+01 6.823835e+01 6.277459e+01 6.394419e+01 5.330234e+01 4.022036e+01 2.825013e+00 2.849405e+00 2.986196e+00 5.496995e+00 4.484096e+00 5.106766e+00 5.377201e+00 4.728674e+00 4.757948e+00 4.600577e+00 4.025367e+00 3.175916e+00 2.686148e+00
<GCONST> 1.126335e+02
<STATE> 3
<MEAN> 25
 4.679880e+00 3.374346e+00 -1.468139e+00 -4.144641e+00 -9.358047e-01 1.952211e+00 -4.877485e+00 -4.268433e+00 -1.831521e+00 3.713573e-01 2.464368e+00 3.097394e-01 -1.368999e-02 -2.353853e-02 4.322024e-02 1.490277e-01 6.992462e-02 2.314671e-02 3.861816e-02 3.974953e-02 8.582782e-02 5.749061e-02 -7.177694e-02 -4.873578e-02 -1.046337e-01
<VARIANCE> 25
 4.197888e+01 4.300417e+01 4.763464e+01 8.526065e+01 6.112425e+01 7.567754e+01 7.135187e+01 6.806706e+01 6.377817e+01 6.575792e+01 5.410600e+01 4.114988e+01 2.213145e+00 2.715351e+00 2.742440e+00 5.133750e+00 4.164287e+00 4.731189e+00 4.917943e+00 4.450279e+00 4.527567e+00 4.387566e+00 3.944581e+00 3.094718e+00 2.470017e+00
<GCONST> 1.116316e+02
<STATE> 4
<MEAN> 25
 4.006422e+00 3.432249e+00 -1.456930e+00 -3.302888e+00 -5.081412e-01 1.932303e+00 -4.148969e+00 -3.756050e+00 -1.604470e+00 3.913773e-01 2.040975e+00 4.050188e-01 -3.421725e-01 -1.685019e-01 1.495307e-01 4.938801e-01 1.764499e-01 -1.570345e-01 3.245232e-01 2.807432e-01 2.272468e-01 -2.330698e-03 -2.453467e-01 -5.899065e-02 -2.117769e-01
<VARIANCE> 25
 4.522153e+01 4.513715e+01 4.729477e+01 8.617479e+01 5.999443e+01 7.218029e+01 6.747736e+01 6.336136e+01 6.212669e+01 6.390191e+01 5.169221e+01 4.213801e+01 1.756306e+00 2.488115e+00 2.464458e+00 4.098253e+00 3.640262e+00 4.034473e+00 4.027605e+00 3.844085e+00 3.860382e+00 3.780793e+00 3.474943e+00 2.787244e+00 1.995792e+00
<GCONST> 1.094441e+02
<TRANSP> 5
 0.000000e+00 1.000000e+00 0.000000e+00 0.000000e+00 0.000000e+00
 0.000000e+00 5.550972e-01 4.449028e-01 0.000000e+00 0.000000e+00
 0.000000e+00 0.000000e+00 5.491456e-01 4.508543e-01 0.000000e+00
 0.000000e+00 0.000000e+00 0.000000e+00 6.738992e-01 3.261008e-01
 0.000000e+00 0.000000e+00 0.000000e+00 0.000000e+00 0.000000e+00
<ENDHMM>
~h "w"
<BEGINHMM>
<NUMSTATES> 5
<STATE> 2
<MEAN> 25
 5.194328e+00 1.467535e+00 -4.815541e+00 -8.569026e+00 -1.560841e+00 4.741087e+00 -1.070315e+00 -1.249910e+00 -6.731415e-01 1.292725e+00 2.692289e+00 -4.663439e-01 5.592687e-01 9.014408e-02 -3.309022e-01 -9.454252e-01 -2.756248e-01 3.407571e-01 -2.429121e-03 -1.218148e-01 -1.038634e-01 7.900845e-02 2.302209e-01 -3.619141e-02 4.249200e-01
<VARIANCE> 25
 6.941347e+01 5.327853e+01 4.109929e+01 9.132894e+01 6.422880e+01 8.791304e+01 5.578679e+01 4.990569e+01 4.801333e+01 4.668952e+01 4.543128e+01 4.031359e+01 2.515121e+00 3.320580e+00 2.126384e+00 3.992951e+00 3.776094e+00 3.930444e+00 3.292834e+00 3.089959e+00 3.090012e+00 3.037595e+00 3.094744e+00 3.178989e+00 2.735735e+00
<GCONST> 1.090020e+02
<STATE> 3
<MEAN> 25
 6.469760e+00 7.803021e-01 -5.710395e+00 -1.038577e+01 -1.705877e+00 5.239559e+00 -1.191046e+00 -1.491390e+00 -3.762935e-01 1.556480e+00 2.848203e+00 -1.111685e+00 1.475038e-01 -4.089429e-01 -2.641064e-01 -2.200790e-01 1.913733e-01 7.622140e-02 -2.367043e-03 -1.016331e-03 1.938400e-01 1.204967e-01 -7.433433e-02 -3.094182e-01 4.345885e-01
<VARIANCE> 25
 5.142685e+01 5.261360e+01 4.273891e+01 9.161938e+01 6.437030e+01 9.540694e+01 5.591088e+01 4.770696e+01 4.801167e+01 4.768214e+01 4.681728e+01 4.254916e+01 2.045049e+00 3.431520e+00 2.059999e+00 3.788918e+00 3.615572e+00 3.919132e+00 3.208441e+00 2.943807e+00 3.021747e+00 3.015304e+00 3.113175e+00 3.369284e+00 2.456552e+00
<GCONST> 1.084258e+02
<STATE> 4
<MEAN> 25
 5.735865e+00 -9.043269e-01 -6.509412e+00 -9.802681e+00 9.605590e-02 5.130198e+00 -9.255878e-01 -1.141193e+00 6.109888e-01 2.058988e+00 1.630846e+00 -2.270300e+00 -2.232519e-01 -4.270419e-01 1.194053e-02 5.307345e-01 3.411045e-01 -2.520240e-01 7.300254e-02 1.216393e-01 2.484336e-01 4.001976e-03 -3.271145e-01 -2.001535e-01 8.846375e-02
<VARIANCE> 25
 5.201402e+01 5.808683e+01 4.364920e+01 9.864073e+01 6.912120e+01 9.694252e+01 6.004793e+01 5.042936e+01 4.713946e+01 5.147637e+01 5.005546e+01 4.883033e+01 1.170701e+00 2.814630e+00 1.861347e+00 3.236574e+00 2.943482e+00 3.491197e+00 2.850013e+00 2.784558e+00 2.731102e+00 2.868819e+00 2.855870e+00 3.063449e+00 1.748555e+00
<GCONST> 1.069253e+02
<TRANSP> 5
 0.000000e+00 1.000000e+00 0.000000e+00 0.000000e+00 0.000000e+00
 0.000000e+00 6.504328e-01 3.495672e-01 0.000000e+00 0.000000e+00
 0.000000e+00 0.000000e+00 6.481154e-01 3.518846e-01 0.000000e+00
 0.000000e+00 0.000000e+00 0.000000e+00 8.060755e-01 1.939246e-01
 0.000000e+00 0.000000e+00 0.000000e+00 0.000000e+00 0.000000e+00
<ENDHMM>
~h "y"
<BEGINHMM>
<NUMSTATES> 5
<STATE> 2
<MEAN> 25
 1.529843e+00 -3.551970e+00 4.364788e+00 -2.250866e+00 -5.298563e+00 -3.410860e+00 7.479134e-01 3.269939e+00 -1.837812e+00 -7.320074e-01 7.073989e-01 -3.585387e-02 2.100586e-02 -2.698942e-01 6.702588e-02 -7.103942e-02 -1.698638e-01 -1.229582e-01 1.761760e-01 3.268178e-01 -6.601843e-02 -1.102261e-01 -1.048884e-02 3.417952e-02 1.624332e-01
<VARIANCE> 25
 3.037714e+01 4.851506e+01 7.202251e+01 5.880737e+01 8.006995e+01 6.783869e+01 6.279756e+01 8.012057e+01 5.481979e+01 5.014741e+01 5.258778e+01 3.563590e+01 1.002476e+00 2.238310e+00 3.395016e+00 2.481038e+00 3.633996e+00 2.737310e+00 3.028460e+00 3.669708e+00 2.890631e+00 2.717331e+00 2.826132e+00 1.994247e+00 1.442196e+00
<GCONST> 1.059732e+02
<STATE> 3
<MEAN> 25
 1.542086e+00 -4.109631e+00 3.631324e+00 -2.120563e+00 -4.819093e+00 -3.291102e+00 1.159761e+00 3.790582e+00 -1.577121e+00 -1.040216e+00 2.126201e-01 -4.768349e-03 2.374904e-02 -1.648683e-01 -3.258445e-01 9.139196e-02 2.798068e-01 6.677359e-02 1.079092e-01 1.783374e-01 1.221588e-01 -1.034231e-01 -2.125754e-01 -2.900981e-02 -5.898236e-02
<VARIANCE> 25
 3.006686e+01 4.702359e+01 6.629189e+01 5.644440e+01 7.841588e+01 6.468582e+01 6.223387e+01 7.938062e+01 5.249616e+01 5.024967e+01 5.247461e+01 3.508660e+01 7.327651e-01 1.842181e+00 2.648838e+00 2.075206e+00 3.128907e+00 2.390801e+00 2.664401e+00 3.171916e+00 2.584376e+00 2.488903e+00 2.543793e+00 1.840202e+00 1.132451e+00
<GCONST> 1.035410e+02
<STATE> 4
<MEAN> 25
 -2.103883e-01 -3.653685e+00 8.008285e-01 -3.200293e-01 -1.441786e+00 -1.494584e+00 1.977454e+00 3.768359e+00 -5.340338e-01 -1.291386e+00 -6.434664e-01 6.071537e-01 -2.123195e-02 5.715102e-02 -3.262766e-01 1.659097e-01 3.661019e-01 1.675690e-01 -4.460248e-03 -3.306953e-02 1.338588e-01 -1.240605e-02 -1.480793e-01 -3.200229e-02 -2.770970e-01
<VARIANCE> 25
 3.800326e+01 4.614930e+01 5.124978e+01 5.410885e+01 6.943825e+01 5.767323e+01 5.200540e+01 6.366306e+01 4.658288e+01 4.796684e+01 4.982335e+01 3.500993e+01 5.385123e-01 1.277229e+00 1.668381e+00 1.568095e+00 2.223490e+00 1.931355e+00 2.106480e+00 2.406082e+00 2.077228e+00 2.074637e+00 2.022133e+00 1.590938e+00 7.928678e-01
<GCONST> 9.898521e+01
<TRANSP> 5
 0.000000e+00 1.000000e+00 0.000000e+00 0.000000e+00 0.000000e+00
 0.000000e+00 5.730630e-01 4.269370e-01 0.000000e+00 0.000000e+00
 0.000000e+00 0.000000e+00 5.678539e-01 4.321461e-01 0.000000e+00
 0.000000e+00 0.000000e+00 0.000000e+00 7.946295e-01 2.053706e-01
 0.000000e+00 0.000000e+00 0.000000e+00 0.000000e+00 0.000000e+00
<ENDHMM>
~h "z"
<BEGINHMM>
<NUMSTATES> 5
<STATE> 2
<MEAN> 25
 -2.389063e+00 5.142029e+00 1.017535e+01 3.833680e+00 -5.704723e+00 -1.565346e+00 2.133743e-01 -7.505245e+00 -5.861786e+00 -2.906822e+00 2.370397e+00 -7.550056e-01 -9.085204e-02 9.495590e-03 1.457339e-01 2.134937e-01 1.528759e-02 4.423585e-02 -2.051791e-02 -1.357891e-01 8.824686e-02 -4.091168e-02 9.436658e-02 9.785924e-03 5.856064e-02
<VARIANCE> 25
 4.769088e+01 1.105120e+02 9.706758e+01 1.304614e+02 9.636304e+01 1.329620e+02 7.744690e+01 6.305522e+01 9.454607e+01 9.329751e+01 6.776237e+01 5.070328e+01 2.068693e+00 2.748565e+00 4.893742e+00 5.118987e+00 4.483735e+00 5.063385e+00 4.324100e+00 3.619311e+00 5.470610e+00 4.586115e+00 3.654303e+00 2.694000e+00 1.714291e+00
<GCONST> 1.160222e+02
<STATE> 3
<MEAN> 25
 -1.183257e+00 2.095757e+00 1.075452e+01 5.154391e+00 -4.235797e+00 6.696445e-02 -1.796203e+00 -8.733397e+00 -4.537723e+00 -8.926834e-01 1.778246e+00 -1.039639e+00 2.227250e-01 -1.964207e-01 -1.849085e-01 -6.966395e-02 -1.909504e-02 1.551515e-01 4.493278e-02 5.451217e-02 1.693414e-01 -1.532772e-02 -4.745798e-02 1.558585e-01 3.017971e-02
<VARIANCE> 25
 4.916770e+01 1.219403e+02 1.084729e+02 1.112469e+02 8.763084e+01 1.479125e+02 8.279973e+01 7.161441e+01 8.194274e+01 8.611889e+01 5.621246e+01 4.442983e+01 2.286966e+00 2.530941e+00 5.596473e+00 4.650821e+00 4.442459e+00 5.736068e+00 3.849556e+00 3.934647e+00 4.864605e+00 3.642332e+00 3.459945e+00 2.285496e+00 1.676322e+00
<GCONST> 1.153160e+02
<STATE> 4
<MEAN> 25
 1.717796e+00 1.349168e+00 8.428947e+00 4.655456e+00 -4.069483e+00 1.137707e+00 -2.088285e+00 -6.571811e+00 -4.290807e+00 -2.817719e+00 -8.548223e-01 -8.156891e-01 9.076145e-02 6.122791e-02 -3.337766e-01 4.190931e-02 1.879217e-01 2.412640e-02 6.801734e-02 1.349075e-01 2.594161e-01 1.474698e-02 -1.779210e-01 6.955060e-02 -2.118310e-01
<VARIANCE> 25
 3.191703e+01 7.108949e+01 7.408745e+01 8.987340e+01 7.663396e+01 7.709731e+01 6.847626e+01 5.611719e+01 8.082866e+01 6.091283e+01 7.145319e+01 3.242324e+01 8.699011e-01 1.696521e+00 2.565984e+00 3.066840e+00 2.588484e+00 2.962593e+00 2.726440e+00 3.142982e+00 2.841499e+00 2.625308e+00 2.513396e+00 1.646801e+00 1.155663e+00
<GCONST> 1.058776e+02
<TRANSP> 5
 0.000000e+00 1.000000e+00 0.000000e+00 0.000000e+00 0.000000e+00
 0.000000e+00 9.057597e-01 9.424031e-02 0.000000e+00 0.000000e+00
 0.000000e+00 0.000000e+00 8.216510e-01 1.783490e-01 0.000000e+00
 0.000000e+00 0.000000e+00 0.000000e+00 8.978606e-01 1.021394e-01
 0.000000e+00 0.000000e+00 0.000000e+00 0.000000e+00 0.000000e+00
<ENDHMM>
~h "aw"
<BEGINHMM>
<NUMSTATES> 5
<STATE> 2
<MEAN> 25
 5.026128e+00 -4.389276e+00 -6.313418e+00 -7.118928e+00 -1.361305e+00 1.017549e+01 6.316929e-01 -3.490836e+00 9.322220e+00 -5.774993e-01 -2.149237e+00 -2.552482e-01 3.690733e-01 8.211074e-02 2.229865e-01 -9.401869e-01 -2.945924e-01 6.715003e-01 -2.193220e-01 9.325563e-03 -5.838165e-01 -7.332836e-02 5.446718e-01 3.677155e-01 -2.771821e-01
<VARIANCE> 25
 4.095749e+01 2.310110e+02 4.672567e+01 1.884368e+02 8.728654e+01 6.211015e+01 7.572675e+01 6.252526e+01 1.205244e+02 6.587913e+01 6.727336e+01 5.508445e+01 1.510215e+00 4.639632e+00 3.095867e+00 3.616409e+00 2.736006e+00 3.646524e+00 2.474488e+00 4.183026e+00 3.722787e+00 3.364453e+00 1.868147e+00 3.437970e+00 2.645639e+00
<GCONST> 1.128034e+02
<STATE> 3
<MEAN> 25
 7.738192e+00 -2.296947e+00 -4.518935e+00 -1.460013e+01 -3.840848e+00 1.313145e+01 -5.159349e-01 -2.229402e+00 1.977008e+00 -4.719245e-02 2.612158e+00 7.679523e-01 9.717701e-02 7.217250e-01 2.369427e-02 1.842066e-01 -1.940704e-01 -1.319385e-01 1.698622e-01 7.020247e-02 -6.363299e-01 -2.183764e-01 7.049445e-02 1.901318e-01 -8.419172e-01
<VARIANCE> 25
 4.312556e+01 1.116617e+02 4.855442e+01 1.222082e+02 5.468898e+01 5.581873e+01 6.741859e+01 4.284175e+01 6.779103e+01 5.564315e+01 5.688338e+01 4.335329e+01 1.124407e+00 2.796219e+00 1.868814e+00 2.734451e+00 2.513444e+00 2.535293e+00 2.417689e+00 2.487669e+00 2.803819e+00 2.603048e+00 2.070745e+00 3.130028e+00 1.407146e+00
<GCONST> 1.057740e+02
<STATE> 4
<MEAN> 25
 -1.208679e+00 2.210906e+00 -1.338012e+00 -1.750348e+00 -2.468681e+00 4.556889e+00 -5.447214e-01 9.877954e-01 -8.555757e-01 -3.146191e+00 1.911875e+00 -1.598158e+00 -4.078936e-01 -1.208456e-01 -1.606285e-01 7.693226e-01 2.587919e-01 -4.074757e-01 1.861373e-01 -7.583428e-02 1.047721e-01 1.626015e-02 -1.960934e-01 -2.990491e-01 -2.826166e-01
<VARIANCE> 25
 1.559020e+02 6.947046e+01 9.042078e+01 2.718242e+02 8.272142e+01 2.442145e+02 9.223707e+01 5.401629e+01 6.633009e+01 6.111269e+01 5.405011e+01 6.711983e+01 1.264071e+00 2.200989e+00 2.880538e+00 3.007967e+00 3.349363e+00 3.458127e+00 3.535454e+00 2.643320e+00 3.754680e+00 3.383696e+00 2.882962e+00 3.937830e+00 1.344330e+00
<GCONST> 1.134118e+02
<TRANSP> 5
 0.000000e+00 1.000000e+00 0.000000e+00 0.000000e+00 0.000000e+00
 0.000000e+00 8.716808e-01 1.283191e-01 0.000000e+00 0.000000e+00
 0.000000e+00 0.000000e+00 7.779827e-01 2.220173e-01 0.000000e+00
 0.000000e+00 0.000000e+00 0.000000e+00 8.908451e-01 1.091549e-01
 0.000000e+00 0.000000e+00 0.000000e+00 0.000000e+00 0.000000e+00
<ENDHMM>
~h "ay"
<BEGINHMM>
<NUMSTATES> 5
<STATE> 2
<MEAN> 25
 2.063517e+00 -6.923597e+00 3.219670e+00 -2.915371e+00 -6.910019e+00 -2.247129e+00 3.912270e+00 4.143965e+00 8.799183e-01 -9.185963e-01 -7.699171e-01 -3.703480e-01 -1.474348e-01 1.907095e-01 1.048269e+00 -2.036327e-02 -9.059345e-01 -8.655391e-02 2.324478e-01 -2.253491e-01 -3.067278e-01 1.427100e-01 3.923642e-01 3.703585e-01 -2.139931e-01
<VARIANCE> 25
 2.603840e+01 4.272425e+01 8.839099e+01 5.142205e+01 5.825827e+01 8.590286e+01 5.312984e+01 7.264697e+01 5.126502e+01 5.641800e+01 5.281419e+01 2.565057e+01 9.307393e-01 2.572109e+00 4.773201e+00 3.142391e+00 3.913272e+00 4.816154e+00 3.324698e+00 4.714530e+00 3.736140e+00 4.359664e+00 3.556568e+00 2.059897e+00 1.135775e+00
<GCONST> 1.075193e+02
<STATE> 3
<MEAN> 25
 1.503154e+00 -4.466571e+00 5.861927e+00 -2.513626e+00 -9.054242e+00 -2.621440e+00 3.588060e+00 2.323885e+00 -2.458225e-01 7.068115e-02 7.845680e-01 4.026220e-01 -1.658905e-01 7.731747e-01 5.410047e-01 1.504509e-01 -3.011439e-01 -4.006819e-02 -9.014957e-02 -5.981058e-01 -2.623627e-01 2.981752e-01 2.949751e-01 2.707946e-01 -5.933946e-01
<VARIANCE> 25
 2.715561e+01 4.440193e+01 7.908411e+01 5.454802e+01 5.967076e+01 1.021503e+02 4.835273e+01 7.171637e+01 5.556811e+01 5.435666e+01 5.425003e+01 2.354670e+01 8.236309e-01 1.917855e+00 4.809174e+00 2.921947e+00 3.854424e+00 4.517445e+00 3.302996e+00 4.306582e+00 3.827949e+00 3.829109e+00 3.231850e+00 2.004330e+00 1.357176e+00
<GCONST> 1.069145e+02
<STATE> 4
<MEAN> 25
 -1.783286e+00 -4.017019e-01 5.108874e+00 5.914829e-01 -7.163749e+00 -1.392065e-01 2.297058e+00 1.082650e+00 -1.441743e+00 4.209565e-01 2.676642e+00 1.365177e+00 -2.089623e-01 4.030350e-01 -2.173828e-01 3.274839e-01 3.936481e-01 1.446219e-01 -1.810108e-01 -2.077914e-01 -9.602441e-03 3.638244e-02 8.277758e-02 1.362703e-01 -5.824391e-01
<VARIANCE> 25
 4.165903e+01 3.903078e+01 6.545957e+01 4.682053e+01 6.089925e+01 8.808435e+01 5.069810e+01 5.632443e+01 4.744293e+01 4.735107e+01 5.158613e+01 2.001761e+01 6.522447e-01 1.609843e+00 3.366146e+00 2.229744e+00 2.692990e+00 3.121403e+00 2.495830e+00 3.570099e+00 3.107773e+00 2.958637e+00 2.600860e+00 1.804863e+00 1.118580e+00
<GCONST> 1.028277e+02
<TRANSP> 5
 0.000000e+00 1.000000e+00 0.000000e+00 0.000000e+00 0.000000e+00
 0.000000e+00 6.926771e-01 3.073229e-01 0.000000e+00 0.000000e+00
 0.000000e+00 0.000000e+00 6.765490e-01 3.234510e-01 0.000000e+00
 0.000000e+00 0.000000e+00 0.000000e+00 8.526002e-01 1.473998e-01
 0.000000e+00 0.000000e+00 0.000000e+00 0.000000e+00 0.000000e+00
<ENDHMM>
~h "kh"
<BEGINHMM>
<NUMSTATES> 5
<STATE> 2
<MEAN> 25
 -1.901705e+01 -3.449566e+00 2.514544e+00 8.948204e+00 1.997486e+00 1.080368e+01 1.180517e+01 9.037146e+00 1.811436e+00 -1.235198e+00 5.457073e+00 7.322779e+00 8.136436e-02 1.322808e-01 8.611020e-02 -6.209663e-01 -4.250128e-01 -1.064377e-01 1.053909e-01 -3.207421e-01 -4.834522e-02 5.168424e-01 4.498489e-01 9.722249e-02 5.721235e-01
<VARIANCE> 25
 1.572350e+02 2.801363e+01 7.212180e+01 6.401340e+01 7.081987e+01 5.683389e+01 5.265512e+01 1.126907e+02 2.110772e+01 4.906887e+01 5.496194e+01 7.580919e+01 6.244959e+00 2.099394e+00 3.666059e+00 1.809617e+00 6.086770e+00 5.292934e+00 5.709898e+00 5.710852e+00 2.814463e+00 3.849451e+00 5.955684e+00 3.746413e+00 2.842099e+00
<GCONST> 1.129963e+02
<STATE> 3
<MEAN> 25
 -2.170625e+00 4.053884e+00 -2.083737e+00 3.534983e-01 3.280069e+00 5.831353e+00 3.238542e+00 -6.213110e+00 8.891251e-01 1.496244e+00 3.356978e+00 2.129636e+00 9.443200e-01 6.373287e-01 6.516036e-01 -4.937008e-01 -3.696308e-01 -4.893118e-01 -8.808033e-01 -8.532505e-01 -1.804354e-01 3.556855e-02 2.173618e-02 -1.237650e+00 1.447695e+00
<VARIANCE> 25
 8.589940e+01 1.324896e+02 8.387215e+01 6.687093e+01 1.368549e+02 9.477104e+01 5.826717e+01 8.202869e+01 2.841455e+01 3.315178e+01 3.586496e+01 1.548108e+02 1.018826e+01 7.536791e+00 8.521835e+00 2.734915e+00 1.057260e+01 6.903539e+00 5.836448e+00 5.620317e+00 4.022488e+00 3.319913e+00 5.208994e+00 3.417352e+00 4.215343e+00
<GCONST> 1.195115e+02
<STATE> 4
<MEAN> 25
 2.307340e+00 -3.803292e+00 -3.709516e+00 -9.995571e-01 4.375574e+00 -1.283734e+00 1.883949e+00 2.325602e+00 3.990239e+00 -2.165159e-01 2.810181e+00 -5.113832e+00 -3.212063e-02 -1.372368e-01 5.813301e-01 1.281392e-01 -5.484549e-01 -7.189101e-01 -5.524205e-02 4.425343e-01 -2.202379e-01 -6.231676e-02 1.728517e-01 6.075191e-02 3.761831e-01
<VARIANCE> 25
 7.292265e+01 5.973705e+01 1.300683e+02 6.736382e+01 9.491504e+01 8.578323e+01 8.726354e+01 4.594385e+01 4.934479e+01 4.627980e+01 3.492763e+01 6.576666e+01 4.439713e+00 5.485166e+00 7.165265e+00 3.927987e+00 8.090855e+00 9.378221e+00 5.259652e+00 2.370484e+00 4.199995e+00 4.727056e+00 3.197986e+00 2.930066e+00 4.066508e+00
<GCONST> 1.161895e+02
<TRANSP> 5
 0.000000e+00 1.000000e+00 0.000000e+00 0.000000e+00 0.000000e+00
 0.000000e+00 8.949817e-01 1.050183e-01 0.000000e+00 0.000000e+00
 0.000000e+00 0.000000e+00 7.425049e-01 2.574951e-01 0.000000e+00
 0.000000e+00 0.000000e+00 0.000000e+00 9.461175e-01 5.388249e-02
 0.000000e+00 0.000000e+00 0.000000e+00 0.000000e+00 0.000000e+00
<ENDHMM>
~h "ng"
<BEGINHMM>
<NUMSTATES> 5
<STATE> 2
<MEAN> 25
 4.938150e+00 -1.697822e-01 -9.487139e-01 -1.724145e+00 1.353055e-01 1.941289e+00 -1.255126e+00 -1.726019e+00 -1.247187e+00 -5.854012e-01 -2.464105e+00 -2.802778e+00 -2.559037e-02 3.093117e-01 9.557503e-02 2.953922e-01 1.291464e-01 4.418451e-02 2.570664e-02 -7.961389e-02 -5.406173e-02 -1.894320e-02 -1.842692e-01 -8.591420e-02 -3.104571e-01
<VARIANCE> 25
 2.312456e+01 4.927792e+01 3.917593e+01 4.572528e+01 5.776336e+01 6.078376e+01 5.432155e+01 5.710486e+01 5.536539e+01 5.054481e+01 4.477974e+01 4.058298e+01 8.594642e-01 2.484595e+00 2.256587e+00 2.775833e+00 3.334789e+00 3.095767e+00 3.300489e+00 3.703913e+00 3.238593e+00 2.891146e+00 2.800676e+00 2.439646e+00 1.595039e+00
<GCONST> 1.041782e+02
<STATE> 3
<MEAN> 25
 4.666053e+00 4.519889e-01 -6.924386e-01 -1.034900e+00 4.360294e-01 1.939913e+00 -1.130724e+00 -1.768842e+00 -1.354944e+00 -6.449577e-01 -2.680702e+00 -2.831664e+00 -1.624085e-01 1.725793e-01 8.756011e-02 2.581340e-01 1.215293e-01 -4.159020e-02 7.904313e-02 6.463081e-02 6.994559e-03 -9.245384e-03 -4.484520e-02 4.666217e-02 -2.417050e-01
<VARIANCE> 25
 2.406501e+01 4.833795e+01 3.684019e+01 4.369121e+01 5.686377e+01 5.752235e+01 5.321690e+01 5.690879e+01 5.484758e+01 5.006276e+01 4.386042e+01 4.114347e+01 8.188170e-01 2.501569e+00 2.061729e+00 2.654637e+00 3.240828e+00 2.970064e+00 3.186985e+00 3.729079e+00 3.183967e+00 2.825076e+00 2.723828e+00 2.380510e+00 1.543899e+00
<GCONST> 1.035711e+02
<STATE> 4
<MEAN> 25
 3.716867e+00 7.775783e-01 -6.703920e-01 -1.878361e-01 1.117147e+00 1.826157e+00 -7.966545e-01 -1.290874e+00 -1.339320e+00 -9.952347e-01 -2.764595e+00 -2.456758e+00 -2.649641e-01 1.101532e-02 3.352477e-02 1.592785e-01 9.013756e-02 -9.932726e-02 1.077947e-01 1.752398e-01 6.958409e-02 2.047991e-02 1.255470e-01 1.824944e-01 -1.568860e-01
<VARIANCE> 25
 2.860882e+01 5.025140e+01 3.536125e+01 4.392168e+01 5.490134e+01 5.440998e+01 5.072836e+01 5.512228e+01 5.294911e+01 5.115856e+01 4.312463e+01 3.977319e+01 8.976244e-01 2.392936e+00 1.928163e+00 2.544977e+00 3.044084e+00 2.830310e+00 2.938280e+00 3.442341e+00 2.994027e+00 2.760250e+00 2.591910e+00 2.276131e+00 1.490660e+00
<GCONST> 1.029642e+02
<TRANSP> 5
 0.000000e+00 1.000000e+00 0.000000e+00 0.000000e+00 0.000000e+00
 0.000000e+00 5.368101e-01 4.631900e-01 0.000000e+00 0.000000e+00
 0.000000e+00 0.000000e+00 5.372286e-01 4.627714e-01 0.000000e+00
 0.000000e+00 0.000000e+00 0.000000e+00 6.826026e-01 3.173974e-01
 0.000000e+00 0.000000e+00 0.000000e+00 0.000000e+00 0.000000e+00
<ENDHMM>
~h "ny"
<BEGINHMM>
<NUMSTATES> 5
<STATE> 2
<MEAN> 25
 2.580835e+00 -2.881612e+00 5.256892e+00 -1.737864e+00 -4.068690e+00 -1.669626e+00 7.144045e-01 2.033720e+00 -3.976936e+00 -2.830113e+00 -2.283864e-01 -2.558629e-01 -1.022888e-02 -5.132529e-01 -1.300927e-01 8.212088e-02 9.675807e-02 -2.952952e-02 1.667211e-01 5.243599e-01 -1.381216e-01 -4.438742e-01 -1.394520e-01 5.642076e-02 1.857966e-01
<VARIANCE> 25
 2.149044e+01 5.688070e+01 5.988635e+01 5.878520e+01 5.571032e+01 5.178962e+01 5.218282e+01 7.338522e+01 5.942252e+01 5.483274e+01 5.133962e+01 4.269538e+01 9.739973e-01 3.585043e+00 3.389028e+00 3.714106e+00 3.729800e+00 3.210485e+00 3.339470e+00 4.576064e+00 3.281534e+00 3.304584e+00 2.984963e+00 2.221017e+00 1.811336e+00
<GCONST> 1.070829e+02
<STATE> 3
<MEAN> 25
 2.478790e+00 -3.910047e+00 4.099623e+00 -1.004968e+00 -3.116845e+00 -1.624265e+00 9.319237e-01 3.072823e+00 -3.717007e+00 -3.854596e+00 -9.430860e-01 -5.700757e-02 -1.984585e-02 -2.710568e-01 -4.220924e-01 2.201914e-01 3.774014e-01 2.839669e-02 4.426192e-02 2.969074e-01 1.630701e-01 -2.496812e-01 -2.496217e-01 4.271155e-02 -9.005178e-02
<VARIANCE> 25
 2.148685e+01 5.508269e+01 5.581405e+01 5.467118e+01 5.551841e+01 4.893945e+01 5.172080e+01 7.408859e+01 5.925314e+01 5.745391e+01 5.319649e+01 4.213228e+01 7.983342e-01 2.898828e+00 2.821695e+00 3.035975e+00 3.289613e+00 2.814663e+00 2.923294e+00 3.906582e+00 2.949667e+00 3.023979e+00 2.702679e+00 1.962021e+00 1.597967e+00
<GCONST> 1.050257e+02
<STATE> 4
<MEAN> 25
 1.367673e+00 -3.941445e+00 1.675928e+00 9.773487e-01 -8.405978e-01 -8.744485e-01 1.180506e+00 3.729775e+00 -2.615062e+00 -4.535509e+00 -2.017233e+00 6.756263e-01 -1.095101e-01 7.819736e-02 -3.858511e-01 2.172103e-01 3.691700e-01 1.087473e-01 1.196184e-02 4.786856e-02 2.853662e-01 5.346505e-02 -1.220680e-01 3.101546e-02 -3.976285e-01
<VARIANCE> 25
 2.649858e+01 5.011276e+01 4.627281e+01 5.183322e+01 5.444992e+01 4.503799e+01 4.794099e+01 6.280031e+01 5.349707e+01 5.941965e+01 5.564000e+01 4.088230e+01 6.738811e-01 1.955103e+00 2.001977e+00 2.248919e+00 2.525244e+00 2.291781e+00 2.393071e+00 2.862185e+00 2.471936e+00 2.583905e+00 2.286924e+00 1.780743e+00 1.270821e+00
<GCONST> 1.014878e+02
<TRANSP> 5
 0.000000e+00 1.000000e+00 0.000000e+00 0.000000e+00 0.000000e+00
 0.000000e+00 5.969755e-01 4.030245e-01 0.000000e+00 0.000000e+00
 0.000000e+00 0.000000e+00 5.929226e-01 4.070774e-01 0.000000e+00
 0.000000e+00 0.000000e+00 0.000000e+00 7.735244e-01 2.264756e-01
 0.000000e+00 0.000000e+00 0.000000e+00 0.000000e+00 0.000000e+00
<ENDHMM>
~h "sy"
<BEGINHMM>
<NUMSTATES> 5
<STATE> 2
<MEAN> 25
 -1.101605e+01 1.610067e+00 5.819035e+00 3.748785e+00 -3.847218e+00 2.982360e+00 3.802964e+00 1.952124e+00 2.892899e+00 -2.590330e-01 3.344401e+00 9.659591e-01 3.763985e-01 -2.860931e-01 1.989846e-01 1.394490e-01 -2.183241e-01 -5.685969e-01 2.622447e-02 -3.015624e-02 -1.270040e-02 -1.398732e-01 -1.803942e-01 1.042397e-01 -1.437526e-01
<VARIANCE> 25
 1.231563e+02 2.359523e+01 1.195901e+02 3.279778e+01 6.210943e+01 6.112715e+01 4.121379e+01 2.347608e+01 3.357142e+01 4.186762e+01 2.756628e+01 1.648900e+01 8.182518e+00 2.000990e+00 1.951428e+00 2.265606e+00 3.860581e+00 4.775817e+00 2.452035e+00 1.048502e+00 2.979877e+00 3.251253e+00 3.177263e+00 1.916324e+00 7.383441e-01
<GCONST> 1.025947e+02
<STATE> 3
<MEAN> 25
 -6.422281e+00 3.063687e+00 2.184893e+00 3.833636e+00 -5.278392e-01 4.027669e-01 2.024148e+00 2.041978e+00 2.777855e+00 -9.768420e-01 4.189945e-01 2.028595e+00 -2.586378e-01 1.851803e-01 -5.792512e-03 -1.829039e-01 1.568042e-01 -6.203944e-02 -1.293315e-01 2.045929e-04 -1.591947e-01 -1.100298e-01 -1.285627e-01 7.258386e-02 -1.291335e-01
<VARIANCE> 25
 6.924630e+01 1.080898e+01 6.661209e+01 1.706078e+01 3.211773e+01 3.547564e+01 3.515442e+01 3.488541e+01 4.131808e+01 7.092388e+01 2.643019e+01 1.878879e+01 4.352635e+00 1.135789e+00 1.662409e+00 1.789740e+00 2.410548e+00 1.729959e+00 1.986221e+00 1.344684e+00 2.118925e+00 2.816499e+00 1.552459e+00 1.165891e+00 6.973497e-01
<GCONST> 9.505943e+01
<STATE> 4
<MEAN> 25
 -1.533646e+00 2.187775e+00 1.816371e+00 2.197222e+00 -2.415916e+00 -1.432572e+00 8.156607e-01 9.914399e-01 1.941055e+00 5.674250e-01 8.607019e-01 2.012896e-01 -2.200255e-03 -6.805960e-03 -3.254573e-02 2.968114e-02 6.225124e-02 4.779120e-02 -2.304678e-02 -3.072642e-02 -7.548377e-03 1.542824e-02 4.472588e-02 2.064854e-04 -1.116574e-01
<VARIANCE> 25
 8.018046e+01 3.705838e+01 4.427621e+01 4.429860e+01 5.834463e+01 2.870590e+01 2.407511e+01 2.475792e+01 2.494569e+01 5.055508e+01 2.242400e+01 2.029581e+01 3.386778e+00 1.846966e+00 2.034031e+00 2.761481e+00 3.171571e+00 1.453016e+00 2.741842e+00 2.195355e+00 1.972622e+00 2.864072e+00 1.796651e+00 1.873826e+00 8.734602e-01
<GCONST> 9.829148e+01
<TRANSP> 5
 0.000000e+00 1.000000e+00 0.000000e+00 0.000000e+00 0.000000e+00
 0.000000e+00 8.687784e-01 1.312216e-01 0.000000e+00 0.000000e+00
 0.000000e+00 0.000000e+00 8.054056e-01 1.945944e-01 0.000000e+00
 0.000000e+00 0.000000e+00 0.000000e+00 9.680783e-01 3.192172e-02
 0.000000e+00 0.000000e+00 0.000000e+00 0.000000e+00 0.000000e+00
<ENDHMM>
~h "sil"
<BEGINHMM>
<NUMSTATES> 5
<STATE> 2
<MEAN> 25
 -5.686001e+00 1.646417e+00 -1.924383e+00 2.851328e+00 2.728667e+00 2.632833e+00 2.886256e+00 1.485843e+00 5.932975e-01 4.236893e-01 5.216674e-01 2.037067e+00 -8.490857e-02 1.923073e-02 -1.436208e-02 2.330375e-02 2.956864e-02 3.376165e-02 1.828855e-02 5.855460e-03 8.388925e-03 1.444400e-02 2.927558e-02 2.067265e-02 -1.086478e-01
<VARIANCE> 25
 3.004124e+01 2.335620e+01 2.493237e+01 2.858376e+01 2.959677e+01 3.091366e+01 2.691779e+01 2.876027e+01 2.881602e+01 3.135927e+01 2.560168e+01 2.043865e+01 2.881670e-01 4.774760e-01 6.660416e-01 8.616841e-01 1.116459e+00 1.265172e+00 1.374775e+00 1.492055e+00 1.522994e+00 1.504499e+00 1.406661e+00 1.271115e+00 2.296226e-01
<GCONST> 8.407055e+01
<STATE> 3
<MEAN> 25
 -7.378072e+00 2.241882e+00 -2.017249e+00 3.812418e+00 3.447500e+00 3.769096e+00 3.169864e+00 1.695569e+00 1.247057e+00 5.505438e-01 1.168607e+00 2.668074e+00 -7.145457e-03 5.038716e-03 1.617072e-02 -5.134869e-02 -1.935034e-02 -6.228743e-02 -3.603050e-02 -2.076054e-02 -1.851952e-02 -1.944539e-02 -1.778238e-02 -2.843262e-02 8.884546e-02
<VARIANCE> 25
 3.577864e+01 2.765219e+01 2.831937e+01 3.437535e+01 3.468680e+01 3.606458e+01 3.033702e+01 3.182006e+01 3.291391e+01 3.468866e+01 3.051635e+01 2.199846e+01 7.846862e-01 8.991892e-01 1.089581e+00 1.350247e+00 1.673900e+00 1.764570e+00 1.762868e+00 1.833674e+00 1.857290e+00 1.827705e+00 1.691899e+00 1.479242e+00 9.805029e-01
<GCONST> 9.169209e+01
<STATE> 4
<MEAN> 25
 -1.953660e+00 6.007334e-01 -5.404022e-01 5.524077e-01 9.384551e-01 8.517376e-01 8.343530e-01 4.336898e-01 2.291856e-01 1.929833e-01 2.017540e-01 6.930240e-01 1.010032e-02 4.038645e-03 1.003888e-02 -6.069534e-03 1.746990e-03 -1.218007e-02 -7.928554e-03 -7.213483e-03 -7.908871e-03 -9.571714e-04 -3.403865e-03 -8.218477e-03 2.898416e-02
<VARIANCE> 25
 5.110323e+01 4.306413e+01 5.275452e+01 5.670006e+01 5.575387e+01 5.406600e+01 4.409499e+01 4.910938e+01 4.576231e+01 4.044592e+01 3.791602e+01 3.378645e+01 1.299513e+00 1.571146e+00 1.872526e+00 2.173769e+00 2.472031e+00 2.439764e+00 2.375506e+00 2.630998e+00 2.478001e+00 2.267637e+00 2.192152e+00 1.900924e+00 1.506465e+00
<GCONST> 1.013275e+02
<TRANSP> 5
 0.000000e+00 1.000000e+00 0.000000e+00 0.000000e+00 0.000000e+00
 0.000000e+00 9.608797e-01 3.912035e-02 0.000000e+00 0.000000e+00
 0.000000e+00 0.000000e+00 6.720766e-01 3.279234e-01 0.000000e+00
 0.000000e+00 0.000000e+00 0.000000e+00 9.500971e-01 4.990286e-02
 0.000000e+00 0.000000e+00 0.000000e+00 0.000000e+00 0.000000e+00
<ENDHMM>
