~o
<STREAMINFO> 1 25
<VECSIZE> 25<NULLD><MFCC_D_N_Z_0><DIAGC>
~h "@"
<BEGINHMM>
<NUMSTATES> 5
<STATE> 2
<MEAN> 25
 1.639387e+00 1.405086e-01 -6.063479e-01 2.598353e-01 -9.782211e-02 -1.245567e+00 -1.259733e+00 -7.335343e-01 7.978545e-01 6.662206e-01 5.158782e-02 -3.753772e-01 5.244443e-01 -2.240710e-01 5.272022e-02 -1.139208e-01 -2.446420e-01 -1.227226e-01 -2.291175e-01 -6.799380e-02 2.417060e-02 5.766097e-04 -7.948627e-02 -1.430171e-01 4.353079e-01
<VARIANCE> 25
 5.274841e+01 5.467590e+01 5.051493e+01 5.443671e+01 6.222640e+01 6.924226e+01 6.011020e+01 5.999671e+01 5.326695e+01 4.864631e+01 4.363940e+01 3.623841e+01 4.029382e+00 4.725836e+00 3.672157e+00 4.705555e+00 4.888077e+00 5.274082e+00 5.091015e+00 5.001107e+00 4.617095e+00 4.208728e+00 3.840469e+00 3.204304e+00 4.978547e+00
<GCONST> 1.129831e+02
<STATE> 3
<MEAN> 25
 2.559138e+00 -3.257804e-01 -4.587647e-01 8.752346e-03 -5.590965e-01 -1.464046e+00 -1.621870e+00 -8.410669e-01 7.552938e-01 5.826028e-01 -8.643961e-02 -6.531820e-01 3.742359e-01 -1.491698e-01 7.665929e-02 -5.928236e-02 -1.806833e-01 -1.338827e-02 -1.071810e-01 -4.382637e-02 -4.740234e-02 -5.394022e-02 -8.146548e-02 -1.067596e-01 2.999199e-01
<VARIANCE> 25
 4.591021e+01 5.457221e+01 5.038717e+01 5.406208e+01 6.237481e+01 6.903059e+01 6.024702e+01 6.145886e+01 5.386723e+01 4.950568e+01 4.407709e+01 3.646547e+01 3.505877e+00 4.619355e+00 3.587039e+00 4.699699e+00 4.837365e+00 5.159692e+00 4.942838e+00 4.969632e+00 4.564735e+00 4.160304e+00 3.806388e+00 3.145910e+00 4.815214e+00
<GCONST> 1.125650e+02
<STATE> 4
<MEAN> 25
 3.060193e+00 -5.175559e-01 -2.432445e-01 3.437651e-02 -8.244212e-01 -1.423973e+00 -1.621727e+00 -7.933135e-01 5.551658e-01 4.509585e-01 -2.861465e-01 -8.250659e-01 1.135102e-01 3.039722e-03 6.961524e-02 4.665098e-02 -2.557913e-02 1.175598e-01 5.459005e-02 -2.309648e-02 -9.353265e-02 -7.049481e-02 -7.376704e-02 -3.412791e-02 3.087815e-02
<VARIANCE> 25
 4.202018e+01 5.475869e+01 5.114996e+01 5.396710e+01 6.207238e+01 6.717200e+01 5.926251e+01 6.203085e+01 5.447169e+01 5.001780e+01 4.431908e+01 3.673208e+01 2.614482e+00 3.835453e+00 3.133476e+00 4.000790e+00 4.179749e+00 4.320157e+00 4.219871e+00 4.326596e+00 3.976445e+00 3.674493e+00 3.381654e+00 2.793152e+00 3.614339e+00
<GCONST> 1.103058e+02
<TRANSP> 5
 0.000000e+00 1.000000e+00 0.000000e+00 0.000000e+00 0.000000e+00
 0.000000e+00 4.487449e-01 5.512551e-01 0.000000e+00 0.000000e+00
 0.000000e+00 0.000000e+00 4.467168e-01 5.532833e-01 0.000000e+00
 0.000000e+00 0.000000e+00 0.000000e+00 5.328900e-01 4.671100e-01
 0.000000e+00 0.000000e+00 0.000000e+00 0.000000e+00 0.000000e+00
<ENDHMM>
~h "a"
<BEGINHMM>
<NUMSTATES> 5
<STATE> 2
<MEAN> 25
 3.075979e+00 -5.048560e+00 -3.117530e+00 -2.536231e+00 4.476861e-01 -5.830718e-01 2.500970e-01 2.444701e+00 1.641478e+00 -4.673118e-01 -2.047181e+00 -1.697411e+00 8.655728e-02 -1.603909e-01 -1.443235e-01 6.569189e-02 1.958329e-01 1.045140e-01 1.399632e-01 1.470930e-01 3.193179e-02 -9.415247e-02 -2.412623e-01 -6.106108e-02 -2.522428e-02
<VARIANCE> 25
 3.428684e+01 5.119660e+01 4.905573e+01 5.274029e+01 6.178234e+01 6.236554e+01 5.355599e+01 5.823327e+01 5.093839e+01 4.871881e+01 4.943626e+01 4.184696e+01 1.622134e+00 3.042868e+00 2.479505e+00 2.933063e+00 3.303532e+00 3.307099e+00 3.186040e+00 3.681973e+00 3.176813e+00 3.081363e+00 3.071151e+00 2.611493e+00 2.548640e+00
<GCONST> 1.067616e+02
<STATE> 3
<MEAN> 25
 3.005202e+00 -4.772153e+00 -3.141169e+00 -2.066377e+00 7.933139e-01 -3.612052e-01 4.586112e-01 2.418864e+00 1.545606e+00 -5.614414e-01 -2.265184e+00 -1.581868e+00 -6.304307e-02 2.829896e-01 8.691649e-02 2.833723e-01 1.139966e-01 8.518311e-02 6.537596e-02 -8.961652e-02 -6.800886e-02 -4.302434e-03 -4.340380e-02 8.898928e-02 -4.080143e-01
<VARIANCE> 25
 3.372858e+01 5.112511e+01 4.700632e+01 5.158577e+01 5.948354e+01 5.956719e+01 5.170638e+01 5.647373e+01 4.980739e+01 4.771201e+01 4.859940e+01 4.054246e+01 1.347838e+00 2.643348e+00 2.239968e+00 2.656756e+00 3.027813e+00 3.056783e+00 2.981267e+00 3.425477e+00 2.954385e+00 2.864147e+00 2.832899e+00 2.397292e+00 2.187655e+00
<GCONST> 1.051415e+02
<STATE> 4
<MEAN> 25
 2.100096e+00 -3.645303e+00 -3.076064e+00 -8.693376e-01 1.293782e+00 1.378928e-01 7.774372e-01 2.201522e+00 1.387244e+00 -5.557434e-01 -2.192108e+00 -1.026303e+00 -1.725398e-01 5.331773e-01 2.246613e-01 3.536863e-01 1.560406e-02 6.360180e-02 2.985341e-03 -2.279131e-01 -1.144855e-01 5.859515e-02 1.139169e-01 1.583784e-01 -5.713250e-01
<VARIANCE> 25
 3.913511e+01 5.170435e+01 4.590220e+01 5.311510e+01 5.731611e+01 5.706243e+01 4.917395e+01 5.412515e+01 4.872718e+01 4.735644e+01 4.862582e+01 3.992261e+01 1.234744e+00 2.279499e+00 2.032091e+00 2.447155e+00 2.718706e+00 2.774646e+00 2.775062e+00 3.125065e+00 2.764019e+00 2.663191e+00 2.596428e+00 2.196926e+00 1.804161e+00
<GCONST> 1.038000e+02
<TRANSP> 5
 0.000000e+00 1.000000e+00 0.000000e+00 0.000000e+00 0.000000e+00
 0.000000e+00 5.005912e-01 4.994088e-01 0.000000e+00 0.000000e+00
 0.000000e+00 0.000000e+00 5.010185e-01 4.989815e-01 0.000000e+00
 0.000000e+00 0.000000e+00 0.000000e+00 6.529297e-01 3.470702e-01
 0.000000e+00 0.000000e+00 0.000000e+00 0.000000e+00 0.000000e+00
<ENDHMM>
~h "b"
<BEGINHMM>
<NUMSTATES> 5
<STATE> 2
<MEAN> 25
 3.921455e+00 4.479179e+00 7.433172e-01 1.823393e+00 4.866201e-01 8.231739e-01 -1.872258e+00 -2.569271e+00 -1.564674e+00 -4.912230e-01 -2.027606e-01 -9.764875e-01 2.602566e-01 1.838419e-01 -7.254672e-02 -1.506063e-02 1.990895e-02 -1.116005e-01 -2.472201e-01 -1.362631e-01 6.349266e-02 5.478778e-02 1.345534e-01 -9.550419e-02 1.444787e-01
<VARIANCE> 25
 3.911231e+01 5.296527e+01 4.134833e+01 5.534229e+01 4.732053e+01 5.377620e+01 5.295070e+01 5.237279e+01 4.925797e+01 4.950656e+01 4.186530e+01 3.316051e+01 1.980935e+00 4.580680e+00 3.162604e+00 5.004493e+00 3.855401e+00 4.067980e+00 4.553434e+00 4.116181e+00 4.312686e+00 4.508561e+00 3.840420e+00 2.908090e+00 4.138319e+00
<GCONST> 1.095746e+02
<STATE> 3
<MEAN> 25
 4.507434e+00 4.198939e+00 4.932555e-01 1.255110e+00 1.797923e-01 3.925084e-01 -2.598178e+00 -2.689624e+00 -1.191541e+00 -2.243214e-01 1.792442e-01 -1.239207e+00 1.745029e-01 -4.375475e-01 -1.647073e-01 -4.234394e-01 -2.398351e-01 -2.479722e-01 -3.209139e-01 9.749892e-02 2.868563e-01 1.747617e-01 1.837159e-01 -1.298319e-01 6.433598e-01
<VARIANCE> 25
 3.444621e+01 5.793219e+01 4.219912e+01 6.054237e+01 4.748317e+01 5.575390e+01 5.539492e+01 5.383530e+01 5.230240e+01 5.643747e+01 4.530576e+01 3.624568e+01 1.960889e+00 5.413936e+00 3.451305e+00 5.795627e+00 4.286132e+00 4.601879e+00 5.064927e+00 4.810759e+00 5.115474e+00 5.273168e+00 4.367085e+00 3.545857e+00 4.493191e+00
<GCONST> 1.117376e+02
<STATE> 4
<MEAN> 25
 4.657702e+00 2.633789e+00 3.491142e-01 1.747965e-01 -6.034777e-01 -1.041135e-01 -3.357155e+00 -1.998714e+00 -2.690884e-01 -2.726693e-02 6.141480e-01 -1.829774e+00 -2.159836e-02 -6.465282e-01 -8.191574e-02 -3.960944e-01 -2.226010e-01 -1.946512e-01 -9.597742e-02 2.787528e-01 2.508338e-01 9.375152e-02 6.309627e-02 -3.830667e-02 6.296031e-01
<VARIANCE> 25
 4.155663e+01 8.431905e+01 6.024583e+01 9.542627e+01 6.344132e+01 8.628815e+01 6.969589e+01 8.556345e+01 8.138245e+01 8.118787e+01 6.348619e+01 6.290361e+01 1.700603e+00 5.129758e+00 3.644273e+00 5.714597e+00 4.443863e+00 5.129994e+00 5.099594e+00 5.746668e+00 5.318576e+00 5.445253e+00 4.838473e+00 4.204268e+00 3.988067e+00
<GCONST> 1.166235e+02
<TRANSP> 5
 0.000000e+00 1.000000e+00 0.000000e+00 0.000000e+00 0.000000e+00
 0.000000e+00 5.003636e-01 4.996363e-01 0.000000e+00 0.000000e+00
 0.000000e+00 0.000000e+00 5.035189e-01 4.964811e-01 0.000000e+00
 0.000000e+00 0.000000e+00 0.000000e+00 7.052459e-01 2.947541e-01
 0.000000e+00 0.000000e+00 0.000000e+00 0.000000e+00 0.000000e+00
<ENDHMM>
~h "c"
<BEGINHMM>
<NUMSTATES> 5
<STATE> 2
<MEAN> 25
 -7.133287e+00 3.165290e+00 1.533379e+00 9.073759e-01 1.579054e+00 -3.008567e-01 1.915602e+00 -8.862323e-02 1.258880e+00 7.405884e-02 1.539654e+00 1.586823e+00 -1.253125e+00 -2.519426e-01 1.045394e-01 -5.966778e-01 -1.069352e-01 -2.579481e-01 2.626632e-01 -6.394964e-02 2.841541e-01 -2.729052e-02 3.018505e-01 1.276925e-01 1.054551e+00
<VARIANCE> 25
 9.596676e+01 7.599019e+01 7.420215e+01 5.798244e+01 6.846630e+01 7.506082e+01 5.576525e+01 5.955539e+01 4.979773e+01 4.483823e+01 4.192010e+01 3.207243e+01 1.074423e+01 6.874964e+00 6.778271e+00 5.708124e+00 6.735872e+00 6.165858e+00 5.046555e+00 5.304660e+00 4.595329e+00 4.075900e+00 3.886925e+00 2.867224e+00 6.184741e+00
<GCONST> 1.169108e+02
<STATE> 3
<MEAN> 25
 -7.985942e+00 1.446901e+00 2.261419e+00 -7.297470e-01 1.164563e-01 -1.705297e+00 1.860226e+00 -3.793126e-01 1.643090e+00 -2.864638e-01 1.878155e+00 1.694028e+00 9.610978e-01 -7.235024e-01 5.989195e-02 -3.862892e-01 -7.472138e-01 -6.624887e-01 -2.814281e-01 2.112417e-02 -3.367313e-02 -1.537268e-01 -9.827848e-02 -1.455188e-01 1.271898e+00
<VARIANCE> 25
 1.018313e+02 9.212648e+01 8.049866e+01 5.783358e+01 7.426189e+01 8.275832e+01 5.900285e+01 6.278875e+01 4.858060e+01 4.562753e+01 4.175891e+01 3.150290e+01 1.374097e+01 7.370105e+00 7.441510e+00 5.504667e+00 6.988119e+00 6.761708e+00 5.322684e+00 5.579104e+00 4.810238e+00 4.432613e+00 4.287725e+00 3.083730e+00 4.637595e+00
<GCONST> 1.181186e+02
<STATE> 4
<MEAN> 25
 -2.538800e+00 -6.066403e-01 1.834875e+00 -1.078998e+00 -2.018959e+00 -3.340070e+00 4.562879e-01 -2.862608e-01 9.695399e-01 -6.948440e-01 1.135217e+00 8.902010e-01 1.728982e+00 -6.736676e-01 -3.309356e-01 -2.099634e-01 -4.733969e-01 -2.135095e-01 -3.862060e-01 6.441935e-02 -2.268939e-01 -6.184475e-02 -2.611919e-01 -3.705880e-01 6.000322e-01
<VARIANCE> 25
 8.882665e+01 7.788587e+01 6.750204e+01 5.345087e+01 7.056767e+01 8.408477e+01 6.241043e+01 6.746167e+01 5.321959e+01 4.447118e+01 4.753332e+01 3.307321e+01 8.055833e+00 6.183071e+00 6.377987e+00 4.352664e+00 6.124356e+00 6.080111e+00 4.701546e+00 4.878550e+00 4.393411e+00 4.243099e+00 4.012909e+00 2.917070e+00 3.415504e+00
<GCONST> 1.157386e+02
<TRANSP> 5
 0.000000e+00 1.000000e+00 0.000000e+00 0.000000e+00 0.000000e+00
 0.000000e+00 6.900306e-01 3.099694e-01 0.000000e+00 0.000000e+00
 0.000000e+00 0.000000e+00 6.512994e-01 3.487006e-01 0.000000e+00
 0.000000e+00 0.000000e+00 0.000000e+00 6.522219e-01 3.477782e-01
 0.000000e+00 0.000000e+00 0.000000e+00 0.000000e+00 0.000000e+00
<ENDHMM>
~h "d"
<BEGINHMM>
<NUMSTATES> 5
<STATE> 2
<MEAN> 25
 2.948701e+00 1.338327e+00 3.878706e+00 2.954037e+00 -2.282399e+00 -2.375216e+00 -2.680461e+00 -4.467016e-01 -3.395782e-01 -1.821960e+00 -7.017450e-01 4.245332e-02 9.656379e-02 -1.724692e-01 4.030418e-01 -2.508280e-02 -4.168845e-01 -3.891926e-01 -3.279577e-01 1.117151e-01 -2.135343e-02 -1.493121e-01 2.337656e-01 8.663811e-02 3.955888e-01
<VARIANCE> 25
 3.353324e+01 5.843203e+01 5.678868e+01 6.150736e+01 7.480237e+01 6.184218e+01 6.292511e+01 6.712337e+01 5.543094e+01 4.990193e+01 5.140937e+01 3.774450e+01 2.034697e+00 5.917225e+00 3.755754e+00 5.499354e+00 6.078085e+00 5.164672e+00 5.347747e+00 5.550877e+00 4.623024e+00 4.336775e+00 4.511770e+00 3.356745e+00 5.538107e+00
<GCONST> 1.137504e+02
<STATE> 3
<MEAN> 25
 3.140475e+00 4.100269e-01 4.512838e+00 2.208539e+00 -3.423213e+00 -3.256407e+00 -3.366403e+00 1.726597e-02 -2.643791e-01 -1.906232e+00 -4.544317e-02 1.005361e-01 7.076610e-03 -4.442173e-01 1.336846e-01 -4.652227e-01 -4.193640e-01 -2.719672e-01 -1.940677e-01 2.449761e-01 4.768273e-02 6.602965e-02 2.778399e-01 -3.214677e-02 6.461353e-01
<VARIANCE> 25
 2.957715e+01 5.663735e+01 5.834274e+01 6.375051e+01 7.779639e+01 6.304837e+01 6.677619e+01 7.314376e+01 5.957151e+01 5.192636e+01 5.396541e+01 3.952544e+01 1.843924e+00 5.606928e+00 3.957481e+00 5.563046e+00 6.274368e+00 5.226248e+00 5.618724e+00 5.818320e+00 4.779780e+00 4.451788e+00 4.681849e+00 3.480259e+00 5.291715e+00
<GCONST> 1.142056e+02
<STATE> 4
<MEAN> 25
 3.067132e+00 -5.772651e-01 4.395505e+00 9.678189e-01 -4.152216e+00 -3.578901e+00 -3.446386e+00 6.592349e-01 -9.287167e-02 -1.576232e+00 3.387299e-01 -1.837671e-01 -8.608059e-02 -2.682281e-01 -1.244533e-01 -4.620943e-01 -7.697199e-02 4.099326e-02 1.024994e-01 1.326915e-01 1.634108e-02 1.865697e-01 9.851111e-02 -1.125669e-01 3.543764e-01
<VARIANCE> 25
 2.896016e+01 5.543605e+01 6.252773e+01 6.589285e+01 7.645982e+01 6.154237e+01 6.971224e+01 7.795650e+01 6.182953e+01 5.414644e+01 5.453004e+01 3.994093e+01 1.434445e+00 3.977169e+00 3.548293e+00 4.484712e+00 5.322953e+00 4.377618e+00 4.862845e+00 4.870109e+00 4.155513e+00 3.866812e+00 4.083010e+00 3.101122e+00 3.895328e+00
<GCONST> 1.120080e+02
<TRANSP> 5
 0.000000e+00 1.000000e+00 0.000000e+00 0.000000e+00 0.000000e+00
 0.000000e+00 5.412170e-01 4.587830e-01 0.000000e+00 0.000000e+00
 0.000000e+00 0.000000e+00 5.374512e-01 4.625488e-01 0.000000e+00
 0.000000e+00 0.000000e+00 0.000000e+00 6.289489e-01 3.710510e-01
 0.000000e+00 0.000000e+00 0.000000e+00 0.000000e+00 0.000000e+00
<ENDHMM>
~h "e"
<BEGINHMM>
<NUMSTATES> 5
<STATE> 2
<MEAN> 25
 7.231781e-01 -2.484177e+00 1.291253e+00 2.898356e-01 -3.457831e+00 -3.486042e+00 1.391573e+00 2.276725e+00 -2.300010e-01 4.920672e-01 8.878384e-01 1.833140e-01 1.004888e-01 -9.902848e-02 4.735698e-02 -5.976655e-02 -1.880798e-01 -1.262520e-01 2.240992e-01 1.656272e-01 -1.158901e-01 3.009295e-02 5.207844e-02 6.345792e-03 1.137662e-01
<VARIANCE> 25
 5.362483e+01 5.193402e+01 6.144754e+01 5.247866e+01 7.642274e+01 9.582652e+01 6.147519e+01 7.166667e+01 5.569896e+01 4.483480e+01 4.474947e+01 3.463186e+01 2.592712e+00 3.015447e+00 2.890963e+00 3.376339e+00 4.120971e+00 4.236910e+00 3.384024e+00 3.932445e+00 3.438390e+00 2.956661e+00 2.853666e+00 2.332900e+00 2.960770e+00
<GCONST> 1.094991e+02
<STATE> 3
<MEAN> 25
 9.228884e-01 -2.436010e+00 1.285996e+00 2.406819e-01 -3.546785e+00 -3.480980e+00 1.667095e+00 2.296544e+00 -4.239984e-01 5.294923e-01 9.235706e-01 1.647695e-01 -3.832551e-03 1.614898e-01 -5.088319e-02 4.425216e-02 1.236563e-01 1.152425e-01 8.907236e-02 -6.865311e-02 -4.631209e-02 1.027886e-02 -1.829802e-02 -7.838665e-03 -1.554523e-01
<VARIANCE> 25
 5.108199e+01 5.017470e+01 6.240200e+01 5.473094e+01 7.560668e+01 9.936657e+01 6.166155e+01 7.160748e+01 5.605606e+01 4.458725e+01 4.361811e+01 3.445060e+01 2.100279e+00 2.570582e+00 2.528532e+00 3.090148e+00 3.519909e+00 3.647735e+00 3.033937e+00 3.484812e+00 3.163544e+00 2.709457e+00 2.586550e+00 2.166699e+00 2.594400e+00
<GCONST> 1.078661e+02
<STATE> 4
<MEAN> 25
 -2.658721e-01 -1.637514e+00 8.886148e-01 9.631999e-01 -2.493527e+00 -2.477964e+00 2.072922e+00 2.085357e+00 -4.163643e-01 6.221262e-01 9.699774e-01 5.632200e-01 -8.716843e-02 3.023712e-01 -1.146346e-01 1.361248e-01 3.236495e-01 2.416767e-01 -4.587681e-02 -1.853860e-01 3.770701e-02 -2.802773e-02 -7.120671e-02 5.344409e-04 -3.171689e-01
<VARIANCE> 25
 5.740701e+01 4.682775e+01 5.876168e+01 5.589181e+01 7.278945e+01 9.960754e+01 5.721121e+01 6.394766e+01 5.541228e+01 4.452615e+01 4.037960e+01 3.321026e+01 1.456382e+00 2.021859e+00 2.006382e+00 2.345715e+00 2.783447e+00 2.959856e+00 2.567130e+00 2.867214e+00 2.704491e+00 2.386112e+00 2.198102e+00 1.877954e+00 1.780525e+00
<GCONST> 1.046393e+02
<TRANSP> 5
 0.000000e+00 1.000000e+00 0.000000e+00 0.000000e+00 0.000000e+00
 0.000000e+00 4.900080e-01 5.099920e-01 0.000000e+00 0.000000e+00
 0.000000e+00 0.000000e+00 4.893047e-01 5.106952e-01 0.000000e+00
 0.000000e+00 0.000000e+00 0.000000e+00 6.717933e-01 3.282067e-01
 0.000000e+00 0.000000e+00 0.000000e+00 0.000000e+00 0.000000e+00
<ENDHMM>
~h "f"
<BEGINHMM>
<NUMSTATES> 5
<STATE> 2
<MEAN> 25
 -3.388847e+00 4.048168e-01 2.661445e+00 3.400497e+00 4.544670e-01 -5.849052e-01 1.307438e+00 -6.409248e-01 -8.923493e-02 4.227379e-01 1.669539e+00 1.251856e+00 -6.638004e-01 -1.564747e-01 4.534760e-02 1.248417e-01 1.480919e-01 -2.034408e-01 1.251885e-01 -1.161793e-02 9.711548e-02 -2.641059e-02 1.503358e-01 1.215647e-01 8.271381e-02
<VARIANCE> 25
 7.656853e+01 4.621753e+01 9.319469e+01 7.185557e+01 7.795839e+01 9.325284e+01 5.214222e+01 5.641631e+01 5.448106e+01 3.988155e+01 3.714293e+01 3.114640e+01 7.053203e+00 3.748753e+00 5.812771e+00 6.002200e+00 7.063470e+00 6.730597e+00 4.533752e+00 4.317490e+00 5.403141e+00 3.489702e+00 3.412728e+00 2.802078e+00 3.571945e+00
<GCONST> 1.146740e+02
<STATE> 3
<MEAN> 25
 -4.656351e+00 -2.287280e-01 3.018296e+00 3.360779e+00 3.375092e-01 -1.063609e+00 1.290779e+00 -8.660077e-01 -8.764346e-02 3.744017e-01 1.999641e+00 1.242277e+00 1.823358e-01 -2.222367e-01 1.036393e-01 -3.194836e-01 -3.522179e-01 -2.412686e-01 -1.524703e-01 -1.046040e-01 -1.677450e-01 -4.058937e-02 8.837745e-02 -8.245432e-02 4.142584e-01
<VARIANCE> 25
 7.400534e+01 4.827575e+01 1.011307e+02 7.823300e+01 8.012259e+01 9.998648e+01 5.175346e+01 5.512764e+01 5.704844e+01 4.009948e+01 3.733824e+01 3.026927e+01 7.798874e+00 3.814165e+00 6.182395e+00 5.998958e+00 6.837255e+00 6.408337e+00 4.407204e+00 4.178900e+00 5.412467e+00 3.551564e+00 3.485645e+00 2.673736e+00 3.405168e+00
<GCONST> 1.149270e+02
<STATE> 4
<MEAN> 25
 -3.603685e+00 -7.452096e-01 3.033730e+00 2.427858e+00 -4.211457e-01 -1.335207e+00 1.016215e+00 -1.031641e+00 -8.219512e-01 3.487356e-01 2.102541e+00 9.314823e-01 8.567207e-01 -1.264965e-01 2.073896e-01 -5.661537e-01 -6.025236e-01 -9.787404e-02 -3.218499e-01 -1.281921e-01 -3.350891e-01 -4.159131e-02 5.129009e-03 -2.340612e-01 5.293613e-01
<VARIANCE> 25
 8.047906e+01 5.074146e+01 1.146132e+02 9.790971e+01 8.938460e+01 1.115845e+02 5.696079e+01 5.388017e+01 6.188213e+01 4.612690e+01 4.044811e+01 3.276765e+01 6.547640e+00 3.777153e+00 6.010099e+00 5.711063e+00 6.719210e+00 6.289423e+00 4.274016e+00 4.006995e+00 5.151245e+00 3.591443e+00 3.500209e+00 2.667304e+00 3.335676e+00
<GCONST> 1.156549e+02
<TRANSP> 5
 0.000000e+00 1.000000e+00 0.000000e+00 0.000000e+00 0.000000e+00
 0.000000e+00 6.006995e-01 3.993005e-01 0.000000e+00 0.000000e+00
 0.000000e+00 0.000000e+00 5.884752e-01 4.115247e-01 0.000000e+00
 0.000000e+00 0.000000e+00 0.000000e+00 6.754893e-01 3.245107e-01
 0.000000e+00 0.000000e+00 0.000000e+00 0.000000e+00 0.000000e+00
<ENDHMM>
~h "g"
<BEGINHMM>
<NUMSTATES> 5
<STATE> 2
<MEAN> 25
 3.424108e+00 1.448243e+00 1.872515e+00 3.660686e-01 -1.311322e+00 -5.732692e-01 -2.023963e+00 -1.548109e+00 -1.747658e+00 -1.275220e-01 -7.082067e-01 -1.571867e+00 -2.066757e-02 7.371289e-02 1.098609e-01 2.481912e-02 -5.157227e-02 -1.514523e-01 -1.268169e-01 9.732033e-03 -2.582220e-02 2.885932e-02 9.892459e-02 -4.504514e-02 1.599812e-02
<VARIANCE> 25
 3.249620e+01 5.148034e+01 5.719260e+01 5.794937e+01 6.813789e+01 7.137590e+01 6.359420e+01 6.543917e+01 5.873406e+01 5.287711e+01 5.137225e+01 4.046274e+01 1.440072e+00 3.165758e+00 3.253224e+00 3.746444e+00 4.715795e+00 4.329488e+00 4.188997e+00 4.406273e+00 4.035489e+00 3.590654e+00 3.615147e+00 2.822249e+00 2.557815e+00
<GCONST> 1.098635e+02
<STATE> 3
<MEAN> 25
 3.363137e+00 1.361687e+00 1.909722e+00 2.958458e-01 -1.393370e+00 -8.654810e-01 -2.192185e+00 -1.326628e+00 -1.622296e+00 -6.824632e-02 -5.264075e-01 -1.628241e+00 -9.409096e-02 -5.585328e-02 -2.147866e-02 -5.922677e-02 1.592807e-02 -9.094114e-02 -1.240388e-02 1.478109e-01 1.036174e-01 1.566267e-02 7.799754e-02 7.231540e-03 5.619456e-02
<VARIANCE> 25
 3.247129e+01 5.264170e+01 5.856180e+01 5.930347e+01 6.914283e+01 7.298000e+01 6.491865e+01 6.734723e+01 5.991891e+01 5.454796e+01 5.267077e+01 4.122022e+01 1.381889e+00 3.087930e+00 3.189523e+00 3.700953e+00 4.676657e+00 4.251265e+00 4.156164e+00 4.443594e+00 4.042576e+00 3.617077e+00 3.668576e+00 2.846397e+00 2.384269e+00
<GCONST> 1.099505e+02
<STATE> 4
<MEAN> 25
 3.089414e+00 1.291730e+00 1.781895e+00 1.507521e-01 -1.376041e+00 -9.804098e-01 -2.165297e+00 -9.764581e-01 -1.308007e+00 -1.430061e-01 -5.190601e-01 -1.556329e+00 -1.811316e-01 -1.114833e-01 -9.121453e-02 -9.188934e-02 9.456261e-02 4.635201e-03 1.145823e-01 1.708191e-01 1.399055e-01 1.293059e-02 4.807013e-02 7.947998e-02 2.849589e-02
<VARIANCE> 25
 3.534071e+01 5.690863e+01 5.992207e+01 6.362778e+01 6.910945e+01 7.172073e+01 6.375521e+01 6.770123e+01 6.103670e+01 5.619430e+01 5.220287e+01 4.167728e+01 1.289400e+00 2.729581e+00 2.916954e+00 3.290293e+00 4.047130e+00 3.764262e+00 3.720906e+00 3.974576e+00 3.671140e+00 3.321261e+00 3.364077e+00 2.605096e+00 1.981638e+00
<GCONST> 1.087962e+02
<TRANSP> 5
 0.000000e+00 1.000000e+00 0.000000e+00 0.000000e+00 0.000000e+00
 0.000000e+00 4.772693e-01 5.227307e-01 0.000000e+00 0.000000e+00
 0.000000e+00 0.000000e+00 4.741424e-01 5.258576e-01 0.000000e+00
 0.000000e+00 0.000000e+00 0.000000e+00 5.904548e-01 4.095452e-01
 0.000000e+00 0.000000e+00 0.000000e+00 0.000000e+00 0.000000e+00
<ENDHMM>
~h "h"
<BEGINHMM>
<NUMSTATES> 5
<STATE> 2
<MEAN> 25
 8.161000e-01 -3.263556e+00 -2.166331e+00 -1.291914e+00 2.372934e+00 1.632250e+00 2.128545e+00 1.165900e+00 7.846410e-01 -5.920662e-01 -1.157169e+00 -1.409005e-01 -1.548579e-01 3.652639e-02 -3.098166e-02 1.590207e-01 2.058820e-01 1.205625e-01 1.928173e-01 9.346773e-03 -2.091667e-02 -5.371262e-02 -1.804441e-02 8.141940e-02 -2.484630e-01
<VARIANCE> 25
 4.631686e+01 5.178088e+01 5.674979e+01 6.694929e+01 8.139355e+01 7.287720e+01 6.306959e+01 5.785942e+01 5.083028e+01 5.233446e+01 4.868814e+01 3.869614e+01 1.444921e+00 2.129684e+00 2.219721e+00 2.594164e+00 3.164147e+00 3.023179e+00 3.076220e+00 2.986891e+00 2.811057e+00 2.758945e+00 2.579989e+00 2.235284e+00 1.858907e+00
<GCONST> 1.060610e+02
<STATE> 3
<MEAN> 25
 5.962992e-01 -3.073922e+00 -2.139982e+00 -9.291676e-01 2.515280e+00 1.652720e+00 2.263725e+00 1.128216e+00 6.905266e-01 -6.447763e-01 -1.145521e+00 -4.567913e-02 -9.914838e-02 1.584052e-01 2.400830e-02 1.438107e-01 2.411800e-02 6.294213e-03 3.112672e-02 -4.411968e-02 -5.270441e-02 2.831330e-03 5.222483e-03 4.772605e-02 -2.862690e-01
<VARIANCE> 25
 4.615181e+01 5.316088e+01 5.630079e+01 6.413985e+01 7.895777e+01 6.906834e+01 6.150969e+01 5.656087e+01 4.952001e+01 5.146177e+01 4.838926e+01 3.784594e+01 1.316038e+00 1.939777e+00 2.048784e+00 2.431155e+00 2.943045e+00 2.872697e+00 2.920149e+00 2.817751e+00 2.661901e+00 2.606382e+00 2.421517e+00 2.139730e+00 1.653510e+00
<GCONST> 1.049286e+02
<STATE> 4
<MEAN> 25
 -1.214210e+00 -2.176956e+00 -2.343378e+00 2.151276e-01 2.773520e+00 2.208208e+00 2.389276e+00 1.361651e+00 7.555072e-01 -2.168449e-01 -5.283758e-01 4.479235e-01 -6.199844e-02 2.215181e-01 7.082722e-02 1.156536e-01 -8.982205e-02 -6.663539e-02 -7.284555e-02 -5.749308e-02 -4.953749e-02 3.955106e-02 3.015438e-02 2.808339e-02 -2.467054e-01
<VARIANCE> 25
 5.648109e+01 5.149190e+01 5.008026e+01 6.621548e+01 6.583538e+01 6.067062e+01 5.260406e+01 5.044410e+01 4.509646e+01 5.029018e+01 4.506673e+01 3.622180e+01 1.014806e+00 1.518800e+00 1.655209e+00 1.979155e+00 2.357282e+00 2.381523e+00 2.402592e+00 2.393623e+00 2.293133e+00 2.232744e+00 2.053108e+00 1.832382e+00 1.177628e+00
<GCONST> 1.015449e+02
<TRANSP> 5
 0.000000e+00 1.000000e+00 0.000000e+00 0.000000e+00 0.000000e+00
 0.000000e+00 5.044658e-01 4.955342e-01 0.000000e+00 0.000000e+00
 0.000000e+00 0.000000e+00 5.044804e-01 4.955196e-01 0.000000e+00
 0.000000e+00 0.000000e+00 0.000000e+00 7.280995e-01 2.719005e-01
 0.000000e+00 0.000000e+00 0.000000e+00 0.000000e+00 0.000000e+00
<ENDHMM>
~h "i"
<BEGINHMM>
<NUMSTATES> 5
<STATE> 2
<MEAN> 25
 -4.513922e-02 1.650456e+00 1.150533e+01 4.417996e-01 -7.257269e+00 -3.597729e+00 -2.493425e+00 -3.320797e+00 -4.459394e+00 -4.638273e-01 2.474266e+00 -1.576847e-01 7.480706e-02 5.527053e-02 1.051941e+00 -2.710930e-01 -7.505326e-01 -6.441329e-02 -3.361157e-01 -2.500116e-01 -4.483203e-01 7.592271e-02 2.380498e-01 -6.667805e-02 2.772318e-01
<VARIANCE> 25
 3.281085e+01 4.997270e+01 9.407912e+01 8.123526e+01 9.600926e+01 8.114875e+01 6.631083e+01 6.676583e+01 6.804121e+01 5.275833e+01 5.731161e+01 3.902112e+01 2.471187e+00 2.850372e+00 6.261428e+00 4.730695e+00 6.450417e+00 4.916764e+00 4.799931e+00 4.481666e+00 4.688768e+00 3.617617e+00 3.931479e+00 2.757799e+00 2.839776e+00
<GCONST> 1.136695e+02
<STATE> 3
<MEAN> 25
 5.841199e-02 1.893484e+00 1.218434e+01 1.373880e-01 -7.741193e+00 -3.305622e+00 -2.786734e+00 -3.480017e+00 -4.618370e+00 -1.931709e-01 2.455586e+00 -2.042604e-01 1.037863e-02 1.028329e-01 -1.947050e-01 6.184934e-02 1.487227e-01 1.058383e-01 6.883758e-02 7.404725e-02 9.767888e-02 5.992008e-02 -6.781495e-02 4.149669e-02 -2.418241e-01
<VARIANCE> 25
 2.899432e+01 4.918706e+01 8.974203e+01 8.554628e+01 9.427822e+01 8.028321e+01 6.549117e+01 6.581502e+01 6.690753e+01 5.303428e+01 5.792312e+01 3.909175e+01 1.804320e+00 2.529326e+00 4.847377e+00 4.027042e+00 5.254025e+00 4.210168e+00 4.140953e+00 3.993694e+00 3.948131e+00 3.228512e+00 3.381069e+00 2.484609e+00 2.495153e+00
<GCONST> 1.113352e+02
<STATE> 4
<MEAN> 25
 -4.016424e-01 2.512659e+00 1.009579e+01 8.737252e-01 -5.938018e+00 -2.356879e+00 -2.324205e+00 -3.149629e+00 -3.711394e+00 -8.338687e-02 1.618826e+00 1.734749e-01 -6.351332e-02 6.975438e-03 -8.972594e-01 2.219580e-01 6.175517e-01 1.734090e-01 3.042981e-01 2.447211e-01 3.322445e-01 1.601423e-03 -1.885835e-01 8.670478e-02 -4.247758e-01
<VARIANCE> 25
 3.382633e+01 5.216955e+01 8.458914e+01 9.330491e+01 9.112592e+01 7.816155e+01 6.769402e+01 6.676885e+01 6.342282e+01 5.255716e+01 5.567354e+01 4.036567e+01 1.433118e+00 2.264939e+00 3.356991e+00 3.311214e+00 3.960544e+00 3.540769e+00 3.512338e+00 3.553305e+00 3.338886e+00 2.943495e+00 2.959715e+00 2.289993e+00 1.886184e+00
<GCONST> 1.090969e+02
<TRANSP> 5
 0.000000e+00 1.000000e+00 0.000000e+00 0.000000e+00 0.000000e+00
 0.000000e+00 6.473169e-01 3.526830e-01 0.000000e+00 0.000000e+00
 0.000000e+00 0.000000e+00 6.274350e-01 3.725650e-01 0.000000e+00
 0.000000e+00 0.000000e+00 0.000000e+00 7.581401e-01 2.418599e-01
 0.000000e+00 0.000000e+00 0.000000e+00 0.000000e+00 0.000000e+00
<ENDHMM>
~h "j"
<BEGINHMM>
<NUMSTATES> 5
<STATE> 2
<MEAN> 25
 -1.139921e+00 4.595883e+00 5.996346e+00 2.673281e+00 -9.707352e-01 -2.668515e+00 -8.499779e-01 -7.957954e-01 -1.178196e+00 -2.053962e+00 5.253010e-01 1.135860e+00 -3.921157e-01 7.275680e-02 7.402409e-01 -1.807064e-01 -4.138645e-01 -4.411213e-01 -2.307774e-01 -1.636574e-01 -1.174743e-01 -7.985032e-02 2.968984e-01 1.425875e-01 5.810763e-01
<VARIANCE> 25
 5.607209e+01 6.239513e+01 6.311264e+01 5.076057e+01 7.097459e+01 6.677904e+01 5.883355e+01 5.062547e+01 4.433281e+01 4.043259e+01 3.752176e+01 3.350797e+01 6.229431e+00 5.961684e+00 5.139228e+00 4.628687e+00 7.697206e+00 5.963933e+00 5.435827e+00 4.669670e+00 4.188029e+00 3.878547e+00 3.694293e+00 2.948454e+00 4.682235e+00
<GCONST> 1.138341e+02
<STATE> 3
<MEAN> 25
 -1.365168e+00 3.596362e+00 7.739837e+00 1.830384e+00 -2.846674e+00 -4.097204e+00 -1.909759e+00 -9.951131e-01 -1.443271e+00 -1.997578e+00 1.414918e+00 1.390138e+00 2.677710e-01 -6.027451e-01 2.458428e-01 -3.408943e-01 -6.796620e-01 -4.800648e-01 -4.268248e-01 1.073422e-01 -2.592264e-03 9.970507e-02 2.543958e-01 1.851729e-03 7.627438e-01
<VARIANCE> 25
 4.917885e+01 6.396847e+01 6.530827e+01 5.376455e+01 7.945126e+01 6.953803e+01 6.220227e+01 5.414575e+01 4.505152e+01 4.188722e+01 3.918045e+01 3.550331e+01 5.896192e+00 6.026993e+00 5.703475e+00 4.427982e+00 8.200698e+00 6.044954e+00 5.683311e+00 5.126891e+00 4.302616e+00 3.970857e+00 3.728760e+00 3.133222e+00 4.010512e+00
<GCONST> 1.144445e+02
<STATE> 4
<MEAN> 25
 2.564782e-01 1.496571e+00 7.294683e+00 1.046632e+00 -4.368234e+00 -5.003882e+00 -2.918733e+00 -2.377697e-01 -1.352972e+00 -1.501009e+00 1.705849e+00 1.157331e+00 4.419503e-01 -5.683513e-01 -5.620649e-01 -2.919176e-01 -5.032738e-02 2.635001e-02 -1.419226e-01 2.640248e-01 1.913121e-01 2.000298e-01 -3.563585e-02 -2.100882e-01 2.849641e-01
<VARIANCE> 25
 3.643721e+01 5.682015e+01 6.047921e+01 5.718316e+01 7.655865e+01 6.255558e+01 6.484169e+01 6.104780e+01 4.850834e+01 4.487813e+01 4.010685e+01 3.613926e+01 3.281641e+00 4.311170e+00 4.490995e+00 3.556303e+00 6.404314e+00 4.920144e+00 4.833255e+00 4.559388e+00 3.841141e+00 3.522455e+00 3.406444e+00 2.952131e+00 2.846880e+00
<GCONST> 1.113760e+02
<TRANSP> 5
 0.000000e+00 1.000000e+00 0.000000e+00 0.000000e+00 0.000000e+00
 0.000000e+00 6.307085e-01 3.692915e-01 0.000000e+00 0.000000e+00
 0.000000e+00 0.000000e+00 6.193436e-01 3.806563e-01 0.000000e+00
 0.000000e+00 0.000000e+00 0.000000e+00 6.926990e-01 3.073009e-01
 0.000000e+00 0.000000e+00 0.000000e+00 0.000000e+00 0.000000e+00
<ENDHMM>
~h "k"
<BEGINHMM>
<NUMSTATES> 5
<STATE> 2
<MEAN> 25
 -1.590524e+00 -3.720779e-01 -3.092628e+00 3.949932e-01 2.696397e+00 9.549065e-01 1.123821e+00 7.875543e-01 8.340328e-01 1.419362e+00 3.760054e-01 3.435809e-01 -1.506788e-01 -5.128410e-01 -4.572379e-01 -2.899001e-01 2.497157e-01 -1.732888e-01 2.972403e-02 1.591609e-01 1.517573e-01 1.524521e-01 1.287552e-02 -1.263296e-03 5.030363e-01
<VARIANCE> 25
 4.631596e+01 5.118584e+01 5.930752e+01 6.127551e+01 7.322107e+01 6.908098e+01 5.158102e+01 5.257127e+01 5.033159e+01 4.606573e+01 4.273703e+01 3.732441e+01 3.845815e+00 5.001094e+00 4.704813e+00 5.453814e+00 6.229140e+00 5.767462e+00 4.775034e+00 4.745130e+00 4.668259e+00 4.360024e+00 3.891490e+00 3.464628e+00 6.802090e+00
<GCONST> 1.139089e+02
<STATE> 3
<MEAN> 25
 -1.304922e+00 -1.790956e+00 -3.779646e+00 -6.533489e-01 2.684445e+00 2.997014e-01 1.027614e+00 9.926392e-01 1.056358e+00 1.556187e+00 2.713296e-01 9.426179e-02 2.842830e-01 -4.995879e-01 -1.210215e-01 -4.642158e-01 -1.998342e-01 -2.595604e-01 -4.265909e-02 2.850318e-02 2.317769e-02 -4.255773e-02 -8.459593e-02 -1.773509e-01 9.296848e-01
<VARIANCE> 25
 4.672554e+01 5.349364e+01 6.321340e+01 6.295977e+01 7.826163e+01 7.332146e+01 5.299063e+01 5.473932e+01 5.250877e+01 4.810002e+01 4.402215e+01 3.906423e+01 4.369206e+00 4.784571e+00 4.866390e+00 5.572228e+00 6.467265e+00 5.979823e+00 4.890635e+00 4.937539e+00 4.927923e+00 4.572606e+00 4.141806e+00 3.653404e+00 6.366910e+00
<GCONST> 1.148339e+02
<STATE> 4
<MEAN> 25
 -4.385636e-01 -2.331245e+00 -3.540209e+00 -1.197882e+00 1.812059e+00 3.610816e-02 1.059403e+00 8.997186e-01 9.467819e-01 1.138471e+00 8.966229e-03 -2.749545e-01 4.352977e-01 -1.857335e-01 1.892421e-01 -2.937327e-01 -3.888696e-01 -1.404522e-01 -8.995367e-02 -8.860689e-02 -1.196806e-01 -1.739802e-01 -1.002711e-01 -1.821937e-01 6.531734e-01
<VARIANCE> 25
 4.807105e+01 5.484588e+01 5.983729e+01 6.174481e+01 7.116218e+01 6.811600e+01 5.059420e+01 5.287123e+01 5.088372e+01 4.692987e+01 4.450003e+01 3.879926e+01 3.491262e+00 3.766621e+00 3.977904e+00 4.541908e+00 5.189178e+00 4.900353e+00 4.237890e+00 4.292436e+00 4.311669e+00 3.956239e+00 3.686409e+00 3.150116e+00 4.420631e+00
<GCONST> 1.120311e+02
<TRANSP> 5
 0.000000e+00 1.000000e+00 0.000000e+00 0.000000e+00 0.000000e+00
 0.000000e+00 5.278894e-01 4.721106e-01 0.000000e+00 0.000000e+00
 0.000000e+00 0.000000e+00 5.188829e-01 4.811171e-01 0.000000e+00
 0.000000e+00 0.000000e+00 0.000000e+00 5.902837e-01 4.097163e-01
 0.000000e+00 0.000000e+00 0.000000e+00 0.000000e+00 0.000000e+00
<ENDHMM>
~h "l"
<BEGINHMM>
<NUMSTATES> 5
<STATE> 2
<MEAN> 25
 4.853344e+00 -2.747882e+00 -2.480324e+00 -3.730034e+00 -8.152972e-01 -1.309748e-01 -3.294927e+00 -2.142501e+00 2.406596e+00 1.854438e+00 -1.032245e+00 -1.899592e+00 1.169013e-01 -2.309174e-02 -3.094358e-02 -1.055134e-01 6.179776e-02 2.958014e-02 -1.689068e-01 -4.732558e-02 9.623210e-02 1.210132e-01 -1.189570e-01 -8.030225e-02 2.731087e-02
<VARIANCE> 25
 3.611712e+01 4.381844e+01 5.169106e+01 6.774425e+01 6.709319e+01 7.981119e+01 7.048542e+01 7.796883e+01 5.983316e+01 7.065653e+01 5.615534e+01 4.260463e+01 1.229370e+00 2.078228e+00 2.299006e+00 3.182712e+00 3.311598e+00 3.814794e+00 3.815624e+00 4.403718e+00 3.496788e+00 3.608397e+00 3.166268e+00 2.585768e+00 1.437788e+00
<GCONST> 1.080886e+02
<STATE> 3
<MEAN> 25
 4.857884e+00 -2.681534e+00 -2.444087e+00 -3.759083e+00 -6.191899e-01 -9.541878e-02 -3.351293e+00 -2.033665e+00 2.365203e+00 1.851245e+00 -1.201203e+00 -1.933695e+00 -6.141697e-02 2.758650e-02 5.454980e-02 2.547034e-02 8.621548e-02 2.684447e-02 7.662216e-02 1.515896e-01 -7.763130e-02 -8.808482e-02 -6.342444e-02 1.286784e-02 -5.340343e-02
<VARIANCE> 25
 3.476953e+01 4.379642e+01 5.149030e+01 6.805674e+01 6.698153e+01 7.838492e+01 7.164243e+01 7.794044e+01 6.009447e+01 7.126282e+01 5.711370e+01 4.319154e+01 1.039479e+00 1.987330e+00 2.183818e+00 3.001782e+00 3.153556e+00 3.618908e+00 3.708884e+00 4.238389e+00 3.373573e+00 3.477584e+00 3.138157e+00 2.478583e+00 1.337025e+00
<GCONST> 1.074031e+02
<STATE> 4
<MEAN> 25
 4.315780e+00 -2.394669e+00 -2.410316e+00 -3.405269e+00 -2.527194e-01 1.359780e-01 -2.735823e+00 -1.464326e+00 2.006341e+00 1.389301e+00 -1.358550e+00 -1.726527e+00 -2.006148e-01 1.076993e-01 1.471182e-01 1.684391e-01 6.936686e-02 3.696024e-02 2.522826e-01 2.307462e-01 -2.094516e-01 -2.015999e-01 2.653066e-02 1.031358e-01 -1.775119e-01
<VARIANCE> 25
 3.799279e+01 4.641197e+01 5.258892e+01 6.924221e+01 6.949487e+01 7.674371e+01 7.102724e+01 7.575996e+01 5.881466e+01 7.100457e+01 5.732565e+01 4.417154e+01 9.234649e-01 1.911465e+00 2.086678e+00 2.812275e+00 3.006799e+00 3.332948e+00 3.393341e+00 3.728948e+00 3.198524e+00 3.224029e+00 2.986894e+00 2.319581e+00 1.288001e+00
<GCONST> 1.066708e+02
<TRANSP> 5
 0.000000e+00 1.000000e+00 0.000000e+00 0.000000e+00 0.000000e+00
 0.000000e+00 5.030432e-01 4.969568e-01 0.000000e+00 0.000000e+00
 0.000000e+00 0.000000e+00 5.003792e-01 4.996208e-01 0.000000e+00
 0.000000e+00 0.000000e+00 0.000000e+00 6.223054e-01 3.776946e-01
 0.000000e+00 0.000000e+00 0.000000e+00 0.000000e+00 0.000000e+00
<ENDHMM>
~h "m"
<BEGINHMM>
<NUMSTATES> 5
<STATE> 2
<MEAN> 25
 4.695557e+00 1.026597e+00 -8.425743e-01 3.528725e-01 6.603716e-01 2.453917e+00 -1.117861e+00 -3.260919e+00 -2.545367e+00 -5.957650e-01 -1.061575e+00 -1.682744e+00 1.279926e-01 2.255333e-01 6.114188e-02 2.581012e-01 1.179009e-01 2.057906e-01 3.959886e-02 -2.729443e-01 -2.553709e-01 -9.455350e-02 -1.755463e-01 -1.190902e-01 -1.719613e-01
<VARIANCE> 25
 3.532269e+01 4.554792e+01 4.470599e+01 5.245634e+01 4.969271e+01 5.914619e+01 5.005231e+01 6.141196e+01 5.975142e+01 4.469582e+01 4.234815e+01 3.490337e+01 1.324977e+00 2.695958e+00 3.141637e+00 4.045321e+00 3.078123e+00 3.331859e+00 3.231526e+00 4.250182e+00 4.213265e+00 2.979766e+00 3.114640e+00 2.460851e+00 2.049706e+00
<GCONST> 1.063430e+02
<STATE> 3
<MEAN> 25
 4.843826e+00 1.202766e+00 -8.266475e-01 5.451497e-01 8.265629e-01 2.714690e+00 -1.080655e+00 -3.425795e+00 -2.764502e+00 -7.837843e-01 -1.342993e+00 -1.908020e+00 6.790392e-03 -2.505678e-02 -5.728245e-02 -1.535629e-02 5.673625e-02 6.471777e-02 3.168030e-02 9.798805e-02 6.227562e-02 -5.158380e-02 -7.365008e-02 -7.589331e-02 1.993885e-02
<VARIANCE> 25
 3.404586e+01 4.645550e+01 4.481181e+01 5.157080e+01 4.996365e+01 6.033837e+01 5.100030e+01 6.254684e+01 6.154076e+01 4.495780e+01 4.252702e+01 3.528413e+01 1.211731e+00 2.676960e+00 3.013641e+00 3.933220e+00 3.061579e+00 3.293719e+00 3.135461e+00 4.249918e+00 4.216161e+00 2.954812e+00 3.055638e+00 2.440489e+00 1.910751e+00
<GCONST> 1.061056e+02
<STATE> 4
<MEAN> 25
 4.515572e+00 1.066015e+00 -1.124220e+00 4.164746e-01 1.015621e+00 2.668153e+00 -1.024085e+00 -2.681913e+00 -2.306732e+00 -9.203956e-01 -1.460595e+00 -1.991694e+00 -1.266589e-01 -1.626104e-01 -9.792974e-02 -1.628427e-01 -1.278046e-02 -7.941888e-02 4.137371e-02 3.484822e-01 2.926118e-01 2.149240e-02 4.692009e-02 2.929610e-02 9.499909e-02
<VARIANCE> 25
 3.676404e+01 5.095920e+01 4.625299e+01 5.390212e+01 5.269302e+01 6.119424e+01 5.204037e+01 6.168592e+01 6.042509e+01 4.544975e+01 4.252101e+01 3.593629e+01 1.105518e+00 2.462771e+00 2.775012e+00 3.480005e+00 3.034738e+00 3.158548e+00 2.979538e+00 3.842078e+00 3.786893e+00 2.842868e+00 2.907924e+00 2.334010e+00 1.658637e+00
<GCONST> 1.054708e+02
<TRANSP> 5
 0.000000e+00 1.000000e+00 0.000000e+00 0.000000e+00 0.000000e+00
 0.000000e+00 5.076349e-01 4.923651e-01 0.000000e+00 0.000000e+00
 0.000000e+00 0.000000e+00 5.082441e-01 4.917559e-01 0.000000e+00
 0.000000e+00 0.000000e+00 0.000000e+00 6.292651e-01 3.707349e-01
 0.000000e+00 0.000000e+00 0.000000e+00 0.000000e+00 0.000000e+00
<ENDHMM>
~h "n"
<BEGINHMM>
<NUMSTATES> 5
<STATE> 2
<MEAN> 25
 3.816714e+00 -7.038884e-02 1.390007e+00 1.409704e+00 -1.055682e+00 -4.922099e-01 -1.208960e+00 -1.012919e+00 -8.401694e-01 -7.081934e-01 -2.565737e+00 -1.076883e+00 4.126235e-02 5.230248e-01 2.209079e-01 3.967508e-01 3.972207e-02 1.030774e-01 1.241208e-02 -3.121432e-01 -1.637268e-01 -5.269352e-02 -1.467619e-01 3.143771e-02 -4.581073e-01
<VARIANCE> 25
 3.003511e+01 5.245988e+01 5.078123e+01 5.292748e+01 5.925111e+01 5.474844e+01 4.945536e+01 6.260040e+01 4.919538e+01 4.735653e+01 4.790511e+01 3.517785e+01 1.270434e+00 3.178547e+00 2.790300e+00 3.481117e+00 3.535671e+00 3.413902e+00 3.282511e+00 4.822454e+00 3.318479e+00 3.111860e+00 3.116707e+00 2.392189e+00 2.255538e+00
<GCONST> 1.065903e+02
<STATE> 3
<MEAN> 25
 3.673702e+00 8.062984e-01 1.681704e+00 1.942574e+00 -8.731644e-01 -2.431726e-01 -1.084510e+00 -1.388302e+00 -1.102041e+00 -8.073241e-01 -2.644713e+00 -9.646409e-01 -1.274430e-01 3.284209e-01 1.070725e-01 1.633309e-01 9.708364e-02 1.170618e-01 9.341072e-02 -7.073720e-02 -1.082284e-01 -3.558673e-02 3.575877e-02 5.033873e-02 -3.299706e-01
<VARIANCE> 25
 2.999415e+01 5.183288e+01 4.880776e+01 5.231165e+01 5.918121e+01 5.327055e+01 4.828154e+01 6.135035e+01 4.820014e+01 4.703027e+01 4.726536e+01 3.476311e+01 1.228892e+00 3.097651e+00 2.604715e+00 3.313478e+00 3.408872e+00 3.288728e+00 3.175845e+00 4.644665e+00 3.218682e+00 3.013302e+00 3.019259e+00 2.303641e+00 2.079131e+00
<GCONST> 1.058649e+02
<STATE> 4
<MEAN> 25
 2.657383e+00 1.512151e+00 1.572678e+00 2.420951e+00 -2.337062e-01 2.116448e-01 -6.067408e-01 -1.089018e+00 -1.205978e+00 -9.308331e-01 -2.303546e+00 -6.662678e-01 -2.962441e-01 8.944399e-02 -1.179160e-03 -3.808668e-02 1.245472e-01 8.617947e-02 1.429966e-01 1.494574e-01 -1.367547e-02 1.317184e-02 2.078660e-01 7.243818e-02 -1.942775e-01
<VARIANCE> 25
 3.446682e+01 5.337336e+01 4.750558e+01 5.334193e+01 5.881709e+01 5.204256e+01 4.774496e+01 5.847200e+01 4.725065e+01 4.599087e+01 4.599839e+01 3.441055e+01 1.227898e+00 2.709727e+00 2.362770e+00 2.912124e+00 3.124539e+00 3.053450e+00 2.962114e+00 3.921739e+00 3.006929e+00 2.839652e+00 2.786995e+00 2.154336e+00 1.744328e+00
<GCONST> 1.046459e+02
<TRANSP> 5
 0.000000e+00 1.000000e+00 0.000000e+00 0.000000e+00 0.000000e+00
 0.000000e+00 4.811627e-01 5.188372e-01 0.000000e+00 0.000000e+00
 0.000000e+00 0.000000e+00 4.805908e-01 5.194092e-01 0.000000e+00
 0.000000e+00 0.000000e+00 0.000000e+00 6.125910e-01 3.874089e-01
 0.000000e+00 0.000000e+00 0.000000e+00 0.000000e+00 0.000000e+00
<ENDHMM>
~h "o"
<BEGINHMM>
<NUMSTATES> 5
<STATE> 2
<MEAN> 25
 4.507095e+00 -4.322970e-01 -5.268951e+00 -7.452469e+00 -5.708349e-01 3.897577e+00 -1.283633e+00 -1.562308e+00 1.000144e+00 1.939137e+00 1.901034e+00 -1.011356e+00 4.057465e-01 -5.983619e-02 -3.330171e-01 -8.120505e-01 2.311323e-02 5.267821e-01 4.134031e-02 -7.195019e-02 -9.448320e-02 1.215896e-01 1.248584e-01 -1.192386e-01 2.685579e-01
<VARIANCE> 25
 4.648262e+01 3.595283e+01 4.543265e+01 9.501340e+01 6.611726e+01 9.038438e+01 6.077305e+01 5.484098e+01 5.522279e+01 5.940205e+01 4.859241e+01 3.742052e+01 2.403501e+00 2.269766e+00 2.599086e+00 6.044330e+00 3.936422e+00 4.671355e+00 3.823372e+00 3.513285e+00 3.801571e+00 3.602739e+00 3.271640e+00 2.717238e+00 2.958513e+00
<GCONST> 1.099939e+02
<STATE> 3
<MEAN> 25
 4.988131e+00 -4.016080e-01 -5.561808e+00 -8.107795e+00 -4.072317e-01 4.537495e+00 -1.051162e+00 -1.669733e+00 7.286257e-01 2.033798e+00 1.944269e+00 -1.098538e+00 3.028932e-03 7.814785e-02 5.041092e-02 1.660251e-01 1.002311e-01 7.666659e-02 7.742324e-02 -1.497866e-02 -6.481033e-02 1.765696e-03 -7.962984e-02 -4.026152e-03 -1.985284e-01
<VARIANCE> 25
 4.274550e+01 3.597053e+01 4.441516e+01 9.254469e+01 6.428110e+01 9.027519e+01 5.824858e+01 5.411535e+01 5.315829e+01 5.842084e+01 4.795648e+01 3.723650e+01 1.659454e+00 1.981310e+00 2.117495e+00 4.749775e+00 3.243847e+00 3.940709e+00 3.337021e+00 3.133445e+00 3.374801e+00 3.232179e+00 2.940573e+00 2.491949e+00 2.283302e+00
<GCONST> 1.074574e+02
<STATE> 4
<MEAN> 25
 2.637856e+00 4.931200e-01 -4.896119e+00 -5.654782e+00 2.409537e-01 4.456323e+00 8.617081e-02 -9.292185e-01 7.404909e-01 1.813684e+00 1.394050e+00 -4.218206e-01 -2.362933e-01 1.199953e-01 2.362498e-01 5.795521e-01 9.438263e-02 -1.868389e-01 6.006102e-02 2.949168e-02 -1.694375e-02 -7.560405e-02 -1.352396e-01 5.920314e-02 -3.668965e-01
<VARIANCE> 25
 5.528180e+01 3.336546e+01 4.023140e+01 9.447451e+01 5.739767e+01 7.152489e+01 5.011289e+01 4.880330e+01 4.597839e+01 5.139701e+01 4.019669e+01 3.496178e+01 9.888774e-01 1.366030e+00 1.562985e+00 2.939000e+00 2.325897e+00 2.779845e+00 2.443833e+00 2.445781e+00 2.508011e+00 2.485904e+00 2.237709e+00 1.949543e+00 1.260822e+00
<GCONST> 1.018625e+02
<TRANSP> 5
 0.000000e+00 1.000000e+00 0.000000e+00 0.000000e+00 0.000000e+00
 0.000000e+00 5.886269e-01 4.113731e-01 0.000000e+00 0.000000e+00
 0.000000e+00 0.000000e+00 5.830364e-01 4.169637e-01 0.000000e+00
 0.000000e+00 0.000000e+00 0.000000e+00 7.926180e-01 2.073820e-01
 0.000000e+00 0.000000e+00 0.000000e+00 0.000000e+00 0.000000e+00
<ENDHMM>
~h "p"
<BEGINHMM>
<NUMSTATES> 5
<STATE> 2
<MEAN> 25
 5.037338e-01 4.921888e-01 -3.368201e+00 1.289883e-01 1.419076e+00 1.834028e+00 9.502686e-01 4.528664e-02 1.214543e+00 1.341977e+00 5.585356e-01 -2.874094e-01 1.988605e-01 -4.081858e-01 -3.797826e-01 -3.627979e-01 -6.153611e-02 1.014921e-02 5.267636e-02 -2.737885e-02 2.276591e-01 1.579733e-01 1.369400e-01 -7.293249e-02 5.923401e-01
<VARIANCE> 25
 5.159796e+01 4.979533e+01 4.704556e+01 5.790612e+01 4.642283e+01 5.544726e+01 4.436122e+01 4.620623e+01 4.351909e+01 4.091823e+01 3.886911e+01 3.501915e+01 4.866469e+00 5.176153e+00 3.840944e+00 5.839390e+00 4.351071e+00 5.216307e+00 4.261886e+00 4.333190e+00 4.167646e+00 4.000645e+00 3.758314e+00 3.467443e+00 9.644367e+00
<GCONST> 1.119104e+02
<STATE> 3
<MEAN> 25
 1.429949e+00 -8.868448e-01 -4.147604e+00 -1.111512e+00 1.035544e+00 1.669155e+00 8.293002e-01 -1.042521e-01 1.602858e+00 1.526894e+00 7.092137e-01 -7.134752e-01 4.871499e-01 -6.341226e-01 -2.335555e-01 -5.652925e-01 -2.296269e-01 -1.223255e-01 -1.349968e-01 -5.409034e-02 1.064049e-01 7.298981e-03 1.713255e-02 -2.286872e-01 1.104226e+00
<VARIANCE> 25
 4.889312e+01 5.158630e+01 4.899160e+01 6.105401e+01 4.831353e+01 5.943073e+01 4.588921e+01 4.678412e+01 4.443073e+01 4.194098e+01 3.979970e+01 3.714510e+01 5.312264e+00 5.381037e+00 4.277346e+00 6.411122e+00 4.706737e+00 5.977842e+00 4.549174e+00 4.588383e+00 4.486827e+00 4.306047e+00 4.124212e+00 3.884582e+00 9.575908e+00
<GCONST> 1.132805e+02
<STATE> 4
<MEAN> 25
 2.396244e+00 -2.062351e+00 -4.457839e+00 -1.995438e+00 6.297083e-01 1.411395e+00 5.721271e-01 -1.398381e-01 1.665689e+00 1.322861e+00 4.700535e-01 -1.213798e+00 3.666222e-01 -3.780152e-01 1.214156e-01 -3.068092e-01 -2.511365e-01 -1.857190e-01 -1.874575e-01 -2.476110e-02 -4.941095e-02 -1.194765e-01 -8.313950e-02 -1.470301e-01 7.851703e-01
<VARIANCE> 25
 4.778918e+01 5.377954e+01 5.172426e+01 6.304253e+01 5.207735e+01 6.198519e+01 4.815231e+01 4.762926e+01 4.600149e+01 4.348039e+01 4.145967e+01 3.977953e+01 4.220118e+00 4.525456e+00 4.074893e+00 5.699118e+00 4.503063e+00 5.495616e+00 4.253360e+00 4.275429e+00 4.238859e+00 3.955371e+00 3.885255e+00 3.466805e+00 7.270864e+00
<GCONST> 1.123226e+02
<TRANSP> 5
 0.000000e+00 1.000000e+00 0.000000e+00 0.000000e+00 0.000000e+00
 0.000000e+00 5.589954e-01 4.410046e-01 0.000000e+00 0.000000e+00
 0.000000e+00 0.000000e+00 5.527369e-01 4.472632e-01 0.000000e+00
 0.000000e+00 0.000000e+00 0.000000e+00 6.305239e-01 3.694761e-01
 0.000000e+00 0.000000e+00 0.000000e+00 0.000000e+00 0.000000e+00
<ENDHMM>
~h "q"
<BEGINHMM>
<NUMSTATES> 5
<STATE> 2
<MEAN> 25
 2.191897e-09 1.090767e-09 9.583869e-09 -2.513970e-08 5.652961e-09 7.827195e-09 -1.173832e-08 8.083372e-09 -1.224114e-08 -9.614427e-09 -1.228777e-09 7.353112e-09 2.583278e-03 1.324474e-05 1.168407e-03 -2.654809e-04 1.189869e-03 -2.049740e-04 3.580089e-04 -4.413913e-04 -1.182725e-03 -4.290212e-04 -6.000486e-04 -5.767079e-04 3.082962e-03
<VARIANCE> 25
 5.948185e+01 5.523698e+01 6.956894e+01 6.305649e+01 6.882346e+01 6.596870e+01 5.749071e+01 5.935575e+01 5.307431e+01 4.762827e+01 4.651497e+01 3.710693e+01 2.306505e+00 2.816552e+00 2.879400e+00 3.320058e+00 3.620134e+00 3.535676e+00 3.444275e+00 3.604864e+00 3.328828e+00 3.069384e+00 2.973308e+00 2.428294e+00 2.668486e+00
<GCONST> 1.087549e+02
<STATE> 3
<MEAN> 25
 2.191897e-09 1.090767e-09 9.583869e-09 -2.513970e-08 5.652961e-09 7.827195e-09 -1.173832e-08 8.083372e-09 -1.224114e-08 -9.614427e-09 -1.228777e-09 7.353112e-09 2.583278e-03 1.324474e-05 1.168407e-03 -2.654809e-04 1.189869e-03 -2.049740e-04 3.580089e-04 -4.413913e-04 -1.182725e-03 -4.290212e-04 -6.000486e-04 -5.767079e-04 3.082962e-03
<VARIANCE> 25
 5.948185e+01 5.523698e+01 6.956894e+01 6.305649e+01 6.882346e+01 6.596870e+01 5.749071e+01 5.935575e+01 5.307431e+01 4.762827e+01 4.651497e+01 3.710693e+01 2.306505e+00 2.816552e+00 2.879400e+00 3.320058e+00 3.620134e+00 3.535676e+00 3.444275e+00 3.604864e+00 3.328828e+00 3.069384e+00 2.973308e+00 2.428294e+00 2.668486e+00
<GCONST> 1.087549e+02
<STATE> 4
<MEAN> 25
 2.191897e-09 1.090767e-09 9.583869e-09 -2.513970e-08 5.652961e-09 7.827195e-09 -1.173832e-08 8.083372e-09 -1.224114e-08 -9.614427e-09 -1.228777e-09 7.353112e-09 2.583278e-03 1.324474e-05 1.168407e-03 -2.654809e-04 1.189869e-03 -2.049740e-04 3.580089e-04 -4.413913e-04 -1.182725e-03 -4.290212e-04 -6.000486e-04 -5.767079e-04 3.082962e-03
<VARIANCE> 25
 5.948185e+01 5.523698e+01 6.956894e+01 6.305649e+01 6.882346e+01 6.596870e+01 5.749071e+01 5.935575e+01 5.307431e+01 4.762827e+01 4.651497e+01 3.710693e+01 2.306505e+00 2.816552e+00 2.879400e+00 3.320058e+00 3.620134e+00 3.535676e+00 3.444275e+00 3.604864e+00 3.328828e+00 3.069384e+00 2.973308e+00 2.428294e+00 2.668486e+00
<GCONST> 1.087549e+02
<TRANSP> 5
 0.000000e+00 1.000000e+00 0.000000e+00 0.000000e+00 0.000000e+00
 0.000000e+00 6.000000e-01 4.000000e-01 0.000000e+00 0.000000e+00
 0.000000e+00 0.000000e+00 6.000000e-01 4.000000e-01 0.000000e+00
 0.000000e+00 0.000000e+00 0.000000e+00 7.000000e-01 3.000000e-01
 0.000000e+00 0.000000e+00 0.000000e+00 0.000000e+00 0.000000e+00
<ENDHMM>
~h "r"
<BEGINHMM>
<NUMSTATES> 5
<STATE> 2
<MEAN> 25
 3.425934e+00 -3.412656e+00 -2.053800e+00 3.431426e-01 -1.534072e+00 -1.712885e+00 -1.306492e+00 6.632994e-01 2.164773e+00 2.283525e-01 3.776661e-02 -6.496443e-01 7.752988e-02 -5.730153e-02 1.076479e-01 2.346125e-01 -1.029977e-01 -7.462877e-02 -4.728319e-02 5.280178e-02 -3.732196e-02 -4.339166e-02 6.721994e-02 8.354376e-02 -7.499920e-02
<VARIANCE> 25
 3.940678e+01 5.057417e+01 5.632790e+01 5.052571e+01 6.148659e+01 6.106868e+01 5.834461e+01 6.238023e+01 5.730408e+01 4.886526e+01 4.716262e+01 3.963501e+01 2.569829e+00 3.618590e+00 3.330567e+00 3.955091e+00 4.420355e+00 4.391852e+00 4.153579e+00 4.443953e+00 4.325834e+00 3.822874e+00 3.690553e+00 3.150180e+00 3.443406e+00
<GCONST> 1.105840e+02
<STATE> 3
<MEAN> 25
 3.503961e+00 -3.397131e+00 -1.780683e+00 6.226280e-01 -1.641008e+00 -1.759907e+00 -1.313940e+00 7.243659e-01 1.910053e+00 1.530241e-01 1.327489e-01 -5.151692e-01 -3.440356e-02 9.335294e-02 1.920507e-01 8.454581e-02 -2.530427e-02 2.287270e-02 2.413272e-02 -5.154602e-03 -2.213957e-01 -3.028413e-02 5.922860e-02 6.328070e-02 -1.291647e-01
<VARIANCE> 25
 3.875028e+01 5.194510e+01 5.927662e+01 5.003684e+01 6.265812e+01 6.119676e+01 5.781234e+01 6.246737e+01 5.746259e+01 4.860360e+01 4.709027e+01 3.903282e+01 2.471374e+00 3.478595e+00 3.329072e+00 3.743363e+00 4.437799e+00 4.285148e+00 4.058274e+00 4.396517e+00 4.292706e+00 3.741025e+00 3.625401e+00 3.064027e+00 3.166575e+00
<GCONST> 1.102817e+02
<STATE> 4
<MEAN> 25
 3.238515e+00 -3.066367e+00 -1.454999e+00 6.785449e-01 -1.517947e+00 -1.538495e+00 -1.064669e+00 7.526832e-01 1.371362e+00 1.141708e-01 1.317472e-01 -4.013912e-01 -1.656650e-01 2.382829e-01 2.477058e-01 -2.838873e-02 5.288915e-02 9.389192e-02 8.002536e-02 -7.605306e-02 -3.102706e-01 -3.498643e-03 4.562254e-02 5.076225e-02 -1.828192e-01
<VARIANCE> 25
 4.088353e+01 5.499274e+01 6.248331e+01 5.101175e+01 6.463724e+01 6.141931e+01 5.754374e+01 6.176841e+01 5.672310e+01 4.864112e+01 4.717640e+01 3.862249e+01 2.096845e+00 3.000471e+00 3.041031e+00 3.294864e+00 4.062886e+00 3.836259e+00 3.669923e+00 3.989439e+00 3.936054e+00 3.394139e+00 3.290790e+00 2.731932e+00 2.586154e+00
<GCONST> 1.089372e+02
<TRANSP> 5
 0.000000e+00 1.000000e+00 0.000000e+00 0.000000e+00 0.000000e+00
 0.000000e+00 4.603502e-01 5.396497e-01 0.000000e+00 0.000000e+00
 0.000000e+00 0.000000e+00 4.567026e-01 5.432974e-01 0.000000e+00
 0.000000e+00 0.000000e+00 0.000000e+00 5.543098e-01 4.456902e-01
 0.000000e+00 0.000000e+00 0.000000e+00 0.000000e+00 0.000000e+00
<ENDHMM>
~h "s"
<BEGINHMM>
<NUMSTATES> 5
<STATE> 2
<MEAN> 25
 -9.889120e+00 4.156417e+00 6.656606e-01 9.743966e-01 4.618405e+00 -2.395174e+00 4.180665e+00 1.310832e+00 1.188069e+00 -3.502271e-01 1.372320e+00 1.840830e+00 -2.000032e+00 5.744202e-01 -9.514605e-02 -1.721488e-02 5.773765e-01 -1.019119e-01 6.241629e-01 1.766661e-01 2.581258e-01 -8.629336e-02 4.430692e-01 2.696197e-01 4.209284e-02
<VARIANCE> 25
 9.861656e+01 8.296059e+01 8.913039e+01 6.306618e+01 8.513557e+01 8.932016e+01 6.779707e+01 6.070242e+01 5.123497e+01 4.691561e+01 4.573402e+01 3.487141e+01 7.852637e+00 5.348015e+00 5.246853e+00 3.933338e+00 5.302959e+00 4.862921e+00 4.841757e+00 4.243322e+00 3.767995e+00 3.812436e+00 3.445036e+00 2.639348e+00 1.923226e+00
<GCONST> 1.145726e+02
<STATE> 3
<MEAN> 25
 -1.299135e+01 4.121496e+00 4.141389e-01 4.421700e-01 4.743363e+00 -2.549665e+00 4.652637e+00 1.451064e+00 1.606548e+00 -4.649176e-01 2.101256e+00 2.229878e+00 1.472001e-01 -2.410254e-01 -5.147085e-02 -1.776206e-01 -2.860608e-01 -7.955562e-02 -1.757620e-01 -8.850158e-02 3.888803e-02 -7.009014e-03 -7.026860e-03 -2.198425e-02 7.805054e-02
<VARIANCE> 25
 8.936472e+01 9.089064e+01 9.552763e+01 6.633300e+01 8.331354e+01 8.779225e+01 6.384031e+01 5.874083e+01 4.773706e+01 4.446106e+01 4.041212e+01 3.323043e+01 1.002078e+01 4.404975e+00 4.541309e+00 3.326541e+00 4.510219e+00 4.279447e+00 4.439712e+00 4.019562e+00 3.559936e+00 3.410419e+00 3.304208e+00 2.578554e+00 2.083199e+00
<GCONST> 1.134108e+02
<STATE> 4
<MEAN> 25
 -9.464768e+00 2.454864e+00 3.509575e-01 1.791367e-01 3.047216e+00 -2.134986e+00 3.258857e+00 7.945511e-01 1.294259e+00 -2.725016e-01 1.444821e+00 1.819290e+00 1.673376e+00 -4.363373e-01 3.857844e-02 -2.086149e-01 -6.698980e-01 -8.817206e-02 -6.435002e-01 -3.297282e-01 -1.682693e-01 2.050492e-02 -2.863334e-01 -2.722239e-01 2.286756e-01
<VARIANCE> 25
 9.714497e+01 8.021735e+01 8.768520e+01 6.297196e+01 7.642117e+01 8.104932e+01 6.193378e+01 5.565031e+01 4.707920e+01 4.385719e+01 4.066043e+01 3.264394e+01 7.495001e+00 4.205661e+00 4.525717e+00 3.485986e+00 4.511246e+00 4.343874e+00 4.532917e+00 4.150186e+00 3.689131e+00 3.451284e+00 3.296705e+00 2.653218e+00 2.451515e+00
<GCONST> 1.129531e+02
<TRANSP> 5
 0.000000e+00 1.000000e+00 0.000000e+00 0.000000e+00 0.000000e+00
 0.000000e+00 7.124178e-01 2.875822e-01 0.000000e+00 0.000000e+00
 0.000000e+00 0.000000e+00 6.873583e-01 3.126417e-01 0.000000e+00
 0.000000e+00 0.000000e+00 0.000000e+00 7.491615e-01 2.508385e-01
 0.000000e+00 0.000000e+00 0.000000e+00 0.000000e+00 0.000000e+00
<ENDHMM>
~h "t"
<BEGINHMM>
<NUMSTATES> 5
<STATE> 2
<MEAN> 25
 -1.329757e+00 1.505361e+00 -9.380662e-01 1.215122e+00 8.888252e-01 -6.097965e-01 5.173024e-01 4.697882e-03 1.137499e+00 8.881674e-01 4.892663e-01 8.572335e-01 -2.629454e-01 -3.159427e-01 -2.283479e-01 -3.490217e-01 8.626106e-02 -1.336115e-01 5.589535e-02 3.684610e-02 2.482835e-01 1.192641e-02 1.337956e-01 8.935700e-02 3.963361e-01
<VARIANCE> 25
 4.512858e+01 4.300137e+01 4.902102e+01 5.229850e+01 5.268285e+01 5.925330e+01 5.079747e+01 4.811156e+01 4.679593e+01 4.186492e+01 4.100179e+01 3.168649e+01 4.067338e+00 4.616961e+00 3.978837e+00 5.288623e+00 4.816767e+00 5.700495e+00 4.958167e+00 4.563843e+00 4.444888e+00 4.017039e+00 3.875913e+00 3.140270e+00 8.731707e+00
<GCONST> 1.119236e+02
<STATE> 3
<MEAN> 25
 -1.394965e+00 3.666435e-01 -1.321524e+00 -1.179039e-02 7.349200e-01 -1.098253e+00 3.295167e-01 1.268964e-02 1.571512e+00 8.112733e-01 6.356925e-01 8.122291e-01 1.976575e-01 -5.150019e-01 -1.038734e-01 -6.155583e-01 -1.602194e-01 -2.248487e-01 -2.178873e-01 -6.093121e-02 1.053042e-01 -5.132266e-02 1.275763e-02 -1.275186e-01 1.051771e+00
<VARIANCE> 25
 4.430101e+01 4.392183e+01 4.905658e+01 5.502874e+01 5.346121e+01 6.168886e+01 5.400558e+01 4.912507e+01 4.741236e+01 4.270195e+01 4.158725e+01 3.272140e+01 4.763153e+00 4.615762e+00 4.325928e+00 5.497144e+00 5.087091e+00 6.258145e+00 5.581038e+00 4.942202e+00 4.819805e+00 4.404539e+00 4.328493e+00 3.517155e+00 8.716974e+00
<GCONST> 1.132152e+02
<STATE> 4
<MEAN> 25
 -6.513696e-01 -4.172650e-01 -1.471214e+00 -9.389746e-01 3.575388e-01 -1.216436e+00 -1.786099e-01 -1.051972e-01 1.532965e+00 6.279467e-01 5.016676e-01 4.820920e-01 4.437923e-01 -3.189187e-01 8.257855e-02 -4.565295e-01 -2.339141e-01 -7.097071e-02 -3.084652e-01 -1.406352e-01 -1.401422e-01 -5.764199e-02 -5.298478e-02 -2.088262e-01 8.621147e-01
<VARIANCE> 25
 4.511859e+01 4.525636e+01 5.043103e+01 5.852581e+01 5.477585e+01 6.114331e+01 5.729123e+01 5.045686e+01 4.921436e+01 4.412268e+01 4.297264e+01 3.423834e+01 3.951524e+00 3.887365e+00 4.090803e+00 4.682796e+00 4.646348e+00 5.537119e+00 5.148452e+00 4.536565e+00 4.492324e+00 4.090664e+00 4.014300e+00 3.227057e+00 6.418084e+00
<GCONST> 1.120360e+02
<TRANSP> 5
 0.000000e+00 1.000000e+00 0.000000e+00 0.000000e+00 0.000000e+00
 0.000000e+00 5.192477e-01 4.807522e-01 0.000000e+00 0.000000e+00
 0.000000e+00 0.000000e+00 5.064164e-01 4.935835e-01 0.000000e+00
 0.000000e+00 0.000000e+00 0.000000e+00 5.768871e-01 4.231129e-01
 0.000000e+00 0.000000e+00 0.000000e+00 0.000000e+00 0.000000e+00
<ENDHMM>
~h "u"
<BEGINHMM>
<NUMSTATES> 5
<STATE> 2
<MEAN> 25
 4.355708e+00 3.229998e+00 -1.383556e+00 -3.921133e+00 -9.050203e-01 1.605765e+00 -4.692758e+00 -4.088312e+00 -1.777315e+00 2.466168e-01 2.331243e+00 3.005118e-01 3.982532e-01 1.886855e-01 -1.145880e-01 -4.008906e-01 -1.166074e-01 2.700149e-01 -3.524494e-01 -2.964264e-01 -1.867327e-01 8.600492e-02 2.213718e-01 2.253793e-02 9.499920e-02
<VARIANCE> 25
 4.451746e+01 4.323645e+01 4.939240e+01 8.501484e+01 6.140672e+01 7.507085e+01 7.205136e+01 6.821657e+01 6.276645e+01 6.390751e+01 5.325258e+01 4.025756e+01 2.822806e+00 2.847803e+00 2.986294e+00 5.493170e+00 4.476896e+00 5.103417e+00 5.375558e+00 4.726022e+00 4.756109e+00 4.599893e+00 4.022229e+00 3.175376e+00 2.684427e+00
<GCONST> 1.126211e+02
<STATE> 3
<MEAN> 25
 4.680198e+00 3.375468e+00 -1.467087e+00 -4.145772e+00 -9.346897e-01 1.951921e+00 -4.875649e+00 -4.264360e+00 -1.833101e+00 3.745058e-01 2.462397e+00 3.076390e-01 -1.393189e-02 -2.356872e-02 4.284828e-02 1.482550e-01 7.002345e-02 2.355043e-02 3.855048e-02 3.960570e-02 8.546346e-02 5.767322e-02 -7.103786e-02 -4.866173e-02 -1.047246e-01
<VARIANCE> 25
 4.193607e+01 4.298936e+01 4.763601e+01 8.524345e+01 6.104213e+01 7.559002e+01 7.134201e+01 6.804070e+01 6.375550e+01 6.571301e+01 5.406938e+01 4.118222e+01 2.210887e+00 2.713532e+00 2.742113e+00 5.128513e+00 4.157310e+00 4.727265e+00 4.917226e+00 4.448456e+00 4.524603e+00 4.386621e+00 3.942788e+00 3.093897e+00 2.467281e+00
<GCONST> 1.116175e+02
<STATE> 4
<MEAN> 25
 4.009130e+00 3.431143e+00 -1.457125e+00 -3.310037e+00 -5.094624e-01 1.933296e+00 -4.150850e+00 -3.756384e+00 -1.604815e+00 3.972827e-01 2.041899e+00 4.006206e-01 -3.418534e-01 -1.687440e-01 1.492577e-01 4.932270e-01 1.760975e-01 -1.569159e-01 3.243848e-01 2.803749e-01 2.272437e-01 -2.164835e-03 -2.446690e-01 -5.911207e-02 -2.112013e-01
<VARIANCE> 25
 4.514779e+01 4.513801e+01 4.731215e+01 8.617502e+01 5.995778e+01 7.214528e+01 6.749796e+01 6.334693e+01 6.213755e+01 6.391149e+01 5.167337e+01 4.215903e+01 1.754959e+00 2.487626e+00 2.464116e+00 4.097458e+00 3.637989e+00 4.032241e+00 4.028619e+00 3.842800e+00 3.859136e+00 3.780519e+00 3.475214e+00 2.786911e+00 1.994451e+00
<GCONST> 1.094386e+02
<TRANSP> 5
 0.000000e+00 1.000000e+00 0.000000e+00 0.000000e+00 0.000000e+00
 0.000000e+00 5.549269e-01 4.450732e-01 0.000000e+00 0.000000e+00
 0.000000e+00 0.000000e+00 5.489882e-01 4.510118e-01 0.000000e+00
 0.000000e+00 0.000000e+00 0.000000e+00 6.738209e-01 3.261791e-01
 0.000000e+00 0.000000e+00 0.000000e+00 0.000000e+00 0.000000e+00
<ENDHMM>
~h "v"
<BEGINHMM>
<NUMSTATES> 5
<STATE> 2
<MEAN> 25
 -2.798521e+00 6.875085e-01 6.331631e-01 3.387941e+00 1.288134e+00 -2.754730e-01 1.362640e+00 1.706658e+00 1.895094e+00 1.249260e-01 7.692670e-01 8.838128e-01 -7.752689e-01 1.310297e-01 -1.456952e-01 1.418295e-01 4.285331e-02 2.576410e-01 3.076951e-01 5.040268e-02 2.745034e-01 3.551830e-01 2.760924e-01 1.276806e-01 -2.511373e-01
<VARIANCE> 25
 5.299416e+01 3.088700e+01 3.751447e+01 4.902297e+01 4.475079e+01 5.759431e+01 3.575354e+01 3.598735e+01 3.893698e+01 3.340990e+01 3.216317e+01 2.387832e+01 4.913767e+00 2.090894e+00 2.452746e+00 3.271311e+00 3.247257e+00 4.267572e+00 3.249525e+00 2.756874e+00 3.541542e+00 3.060298e+00 2.810164e+00 2.035426e+00 1.433896e+00
<GCONST> 1.034143e+02
<STATE> 3
<MEAN> 25
 -4.262790e+00 7.629533e-01 1.510019e-01 3.238880e+00 9.556431e-01 -2.750510e-02 1.897490e+00 1.511149e+00 2.061346e+00 8.976084e-01 1.258454e+00 1.179460e+00 -5.527422e-02 -7.528917e-02 -2.565299e-01 -1.941255e-01 -1.563756e-01 6.527671e-02 1.897888e-01 -1.522475e-01 3.070106e-02 1.832210e-01 5.055908e-02 2.729854e-02 1.557905e-02
<VARIANCE> 25
 6.147839e+01 2.954230e+01 3.989212e+01 5.238074e+01 4.813867e+01 5.923940e+01 3.484043e+01 3.594954e+01 3.685880e+01 3.244180e+01 3.095935e+01 2.318903e+01 5.001345e+00 1.859466e+00 2.540185e+00 3.048116e+00 3.044732e+00 3.967124e+00 2.790703e+00 2.590641e+00 3.035088e+00 2.619130e+00 2.353932e+00 1.971890e+00 1.558859e+00
<GCONST> 1.026461e+02
<STATE> 4
<MEAN> 25
 -3.449959e+00 5.176566e-01 -1.462620e-01 1.736088e+00 5.840749e-01 3.575297e-01 2.658322e+00 5.109070e-01 1.734980e+00 1.477954e+00 1.187478e+00 1.411509e+00 8.260215e-01 -2.128288e-01 -1.690026e-01 -3.878036e-01 -2.508554e-01 -9.380025e-02 -2.233720e-02 -2.102065e-01 -1.808058e-01 1.496031e-03 -1.072742e-01 -1.804700e-01 3.664795e-01
<VARIANCE> 25
 7.503278e+01 2.891515e+01 5.307259e+01 6.028363e+01 6.213723e+01 6.912862e+01 3.358154e+01 3.680917e+01 3.937890e+01 3.224268e+01 3.248151e+01 2.785513e+01 5.192562e+00 1.955965e+00 3.272012e+00 3.114424e+00 3.378086e+00 3.617591e+00 2.662452e+00 2.669507e+00 3.095845e+00 2.490358e+00 2.430007e+00 2.076147e+00 1.733830e+00
<GCONST> 1.044542e+02
<TRANSP> 5
 0.000000e+00 1.000000e+00 0.000000e+00 0.000000e+00 0.000000e+00
 0.000000e+00 5.674329e-01 4.325671e-01 0.000000e+00 0.000000e+00
 0.000000e+00 0.000000e+00 5.710823e-01 4.289177e-01 0.000000e+00
 0.000000e+00 0.000000e+00 0.000000e+00 6.975481e-01 3.024520e-01
 0.000000e+00 0.000000e+00 0.000000e+00 0.000000e+00 0.000000e+00
<ENDHMM>
~h "w"
<BEGINHMM>
<NUMSTATES> 5
<STATE> 2
<MEAN> 25
 5.193557e+00 1.468272e+00 -4.819038e+00 -8.526155e+00 -1.551532e+00 4.732676e+00 -1.089892e+00 -1.230561e+00 -6.988310e-01 1.308427e+00 2.695118e+00 -4.699451e-01 5.594028e-01 8.831301e-02 -3.335777e-01 -9.442820e-01 -2.716717e-01 3.418089e-01 3.462657e-06 -1.250465e-01 -1.042060e-01 7.994461e-02 2.353562e-01 -3.761681e-02 4.266742e-01
<VARIANCE> 25
 6.923655e+01 5.318337e+01 4.114331e+01 9.124622e+01 6.392471e+01 8.772298e+01 5.549751e+01 4.972620e+01 4.793163e+01 4.662665e+01 4.542807e+01 4.038358e+01 2.512063e+00 3.323154e+00 2.127158e+00 3.979451e+00 3.754104e+00 3.920698e+00 3.283196e+00 3.074993e+00 3.092677e+00 3.038312e+00 3.102683e+00 3.189361e+00 2.734601e+00
<GCONST> 1.089677e+02
<STATE> 3
<MEAN> 25
 6.472948e+00 7.718611e-01 -5.723380e+00 -1.034838e+01 -1.688723e+00 5.237146e+00 -1.201605e+00 -1.478741e+00 -4.003901e-01 1.573292e+00 2.868439e+00 -1.123383e+00 1.478250e-01 -4.095156e-01 -2.658920e-01 -2.214421e-01 1.929358e-01 7.892835e-02 1.096622e-03 -2.378084e-03 1.937102e-01 1.200485e-01 -7.111809e-02 -3.100831e-01 4.360303e-01
<VARIANCE> 25
 5.111103e+01 5.263361e+01 4.277565e+01 9.139224e+01 6.397894e+01 9.520815e+01 5.572699e+01 4.769159e+01 4.791808e+01 4.758548e+01 4.677168e+01 4.269581e+01 2.043601e+00 3.433848e+00 2.061141e+00 3.773340e+00 3.597243e+00 3.901374e+00 3.197664e+00 2.933673e+00 3.022174e+00 3.010764e+00 3.125143e+00 3.374758e+00 2.458839e+00
<GCONST> 1.083901e+02
<STATE> 4
<MEAN> 25
 5.740165e+00 -9.137619e-01 -6.525825e+00 -9.769284e+00 1.129385e-01 5.132990e+00 -9.356712e-01 -1.119055e+00 5.923964e-01 2.078623e+00 1.658972e+00 -2.295550e+00 -2.228130e-01 -4.258733e-01 1.115232e-02 5.270560e-01 3.402440e-01 -2.490938e-01 7.390405e-02 1.209006e-01 2.495986e-01 4.740358e-03 -3.288529e-01 -2.008101e-01 8.800242e-02
<VARIANCE> 25
 5.173788e+01 5.807419e+01 4.358096e+01 9.824417e+01 6.882116e+01 9.676456e+01 5.988457e+01 5.041099e+01 4.710410e+01 5.126856e+01 5.021631e+01 4.905029e+01 1.166336e+00 2.806538e+00 1.856531e+00 3.221387e+00 2.928382e+00 3.468487e+00 2.838997e+00 2.776415e+00 2.725776e+00 2.863536e+00 2.854751e+00 3.062122e+00 1.743907e+00
<GCONST> 1.068681e+02
<TRANSP> 5
 0.000000e+00 1.000000e+00 0.000000e+00 0.000000e+00 0.000000e+00
 0.000000e+00 6.504976e-01 3.495025e-01 0.000000e+00 0.000000e+00
 0.000000e+00 0.000000e+00 6.483368e-01 3.516632e-01 0.000000e+00
 0.000000e+00 0.000000e+00 0.000000e+00 8.065117e-01 1.934883e-01
 0.000000e+00 0.000000e+00 0.000000e+00 0.000000e+00 0.000000e+00
<ENDHMM>
~h "x"
<BEGINHMM>
<NUMSTATES> 5
<STATE> 2
<MEAN> 25
 2.032747e+00 3.992173e+00 9.274043e+00 4.930581e+00 -1.202199e+01 -8.295156e+00 -7.313763e-01 -1.892579e+00 -6.371247e+00 -3.149524e+00 7.367862e-01 -1.470520e-01 -9.917918e-02 8.197871e-01 -6.394551e-01 3.738624e-01 7.008580e-01 -5.296545e-02 -1.230051e-01 -1.839857e-01 1.440515e-02 5.731067e-01 -2.440402e-01 -1.993019e-01 -6.526380e-01
<VARIANCE> 25
 5.648723e+01 4.915628e+01 7.150909e+01 4.709820e+01 6.746367e+01 5.710897e+01 5.341231e+01 3.793378e+01 2.725690e+01 3.640094e+01 2.856288e+01 1.903239e+01 1.272580e+00 1.045711e+00 2.451030e+00 1.946762e+00 2.548566e+00 2.595104e+00 1.740985e+00 2.187733e+00 2.781892e+00 2.023675e+00 2.938190e+00 1.536414e+00 7.404815e-01
<GCONST> 9.907633e+01
<STATE> 3
<MEAN> 25
 2.310701e+00 8.376300e+00 1.527779e+00 3.547298e+00 -4.718543e+00 -6.163648e+00 -9.220523e-01 -3.595899e+00 -3.097973e+00 3.288583e+00 -9.678530e-01 -5.611357e-01 3.552948e-01 -1.451822e-01 -7.331958e-01 -7.820444e-01 8.667875e-01 6.768237e-01 -2.433556e-01 -5.462242e-01 6.017454e-01 8.824661e-01 -1.429006e-01 -8.273370e-01 -1.446659e-01
<VARIANCE> 25
 1.058462e+02 3.603378e+01 4.100830e+01 7.638538e+01 4.139400e+01 5.724740e+01 1.137222e+02 2.640227e+01 3.653392e+01 7.726325e+01 3.239120e+01 4.049673e+01 1.833365e+00 1.090409e+00 1.514048e+00 3.499394e+00 1.643046e+00 3.273423e+00 1.801000e+00 1.753452e+00 3.686598e+00 3.247749e+00 2.328768e+00 2.710489e+00 9.761067e-01
<GCONST> 1.026386e+02
<STATE> 4
<MEAN> 25
 -3.498784e-01 1.960593e+00 -2.863444e-01 2.260008e+00 1.012608e+00 9.846338e-01 5.862413e-01 -9.399999e-01 1.732598e+00 6.110744e-01 1.490619e+00 1.908530e+00 -1.392018e-01 -5.580690e-02 -1.182736e-02 5.723883e-02 9.374194e-02 3.220084e-02 2.673305e-02 3.370512e-02 4.702046e-02 -1.308793e-02 1.651307e-02 2.881289e-02 -7.950451e-02
<VARIANCE> 25
 3.177804e+01 1.954478e+01 3.581915e+01 4.993089e+01 6.829657e+01 4.987266e+01 4.337401e+01 4.255318e+01 3.136891e+01 3.867645e+01 2.254039e+01 3.679922e+01 9.007372e-01 7.725549e-01 9.372838e-01 1.712708e+00 1.672117e+00 1.865804e+00 1.756178e+00 1.570986e+00 2.283061e+00 2.642052e+00 1.504050e+00 1.583887e+00 6.113223e-01
<GCONST> 9.377966e+01
<TRANSP> 5
 0.000000e+00 1.000000e+00 0.000000e+00 0.000000e+00 0.000000e+00
 0.000000e+00 7.884679e-01 2.115321e-01 0.000000e+00 0.000000e+00
 0.000000e+00 0.000000e+00 5.895947e-01 4.104054e-01 0.000000e+00
 0.000000e+00 0.000000e+00 0.000000e+00 9.810273e-01 1.897268e-02
 0.000000e+00 0.000000e+00 0.000000e+00 0.000000e+00 0.000000e+00
<ENDHMM>
~h "y"
<BEGINHMM>
<NUMSTATES> 5
<STATE> 2
<MEAN> 25
 1.533281e+00 -3.554256e+00 4.346397e+00 -2.248610e+00 -5.277883e+00 -3.402969e+00 7.542284e-01 3.274756e+00 -1.835958e+00 -7.400801e-01 6.994987e-01 -3.853359e-02 2.092453e-02 -2.698212e-01 6.470631e-02 -7.029945e-02 -1.665484e-01 -1.208087e-01 1.748540e-01 3.264082e-01 -6.526606e-02 -1.108438e-01 -1.226584e-02 3.382604e-02 1.611578e-01
<VARIANCE> 25
 3.032808e+01 4.855580e+01 7.181339e+01 5.874793e+01 7.987366e+01 6.790790e+01 6.270498e+01 8.012653e+01 5.488892e+01 5.015661e+01 5.258348e+01 3.570108e+01 9.976072e-01 2.230626e+00 3.382340e+00 2.474343e+00 3.623520e+00 2.733692e+00 3.018697e+00 3.656975e+00 2.887511e+00 2.712147e+00 2.820364e+00 1.994634e+00 1.434769e+00
<GCONST> 1.059332e+02
<STATE> 3
<MEAN> 25
 1.543955e+00 -4.110177e+00 3.609804e+00 -2.114063e+00 -4.790801e+00 -3.277931e+00 1.162002e+00 3.791823e+00 -1.573364e+00 -1.049245e+00 2.006752e-01 -6.313067e-03 2.330668e-02 -1.635857e-01 -3.245499e-01 9.201973e-02 2.801562e-01 6.843606e-02 1.062933e-01 1.770441e-01 1.216220e-01 -1.030043e-01 -2.128554e-01 -2.863530e-02 -6.040364e-02
<VARIANCE> 25
 3.003755e+01 4.708876e+01 6.604929e+01 5.638759e+01 7.818962e+01 6.472799e+01 6.209607e+01 7.937421e+01 5.254253e+01 5.023819e+01 5.242955e+01 3.516001e+01 7.285958e-01 1.835383e+00 2.636133e+00 2.068619e+00 3.115607e+00 2.388317e+00 2.653563e+00 3.159705e+00 2.581441e+00 2.481603e+00 2.537200e+00 1.839915e+00 1.125985e+00
<GCONST> 1.034909e+02
<STATE> 4
<MEAN> 25
 -2.423932e-01 -3.611982e+00 7.641063e-01 -2.759457e-01 -1.371376e+00 -1.443326e+00 1.986551e+00 3.758667e+00 -5.195303e-01 -1.289995e+00 -6.530390e-01 6.420481e-01 -2.235770e-02 5.824448e-02 -3.209407e-01 1.650605e-01 3.609884e-01 1.663222e-01 -4.466208e-03 -3.336963e-02 1.320073e-01 -1.136572e-02 -1.450242e-01 -3.052592e-02 -2.764081e-01
<VARIANCE> 25
 3.790851e+01 4.617988e+01 5.090238e+01 5.396945e+01 6.914935e+01 5.755293e+01 5.167379e+01 6.334993e+01 4.647329e+01 4.778931e+01 4.961393e+01 3.513306e+01 5.343239e-01 1.267651e+00 1.653250e+00 1.558470e+00 2.205389e+00 1.923625e+00 2.092420e+00 2.391147e+00 2.071239e+00 2.063105e+00 2.012897e+00 1.586916e+00 7.858775e-01
<GCONST> 9.886951e+01
<TRANSP> 5
 0.000000e+00 1.000000e+00 0.000000e+00 0.000000e+00 0.000000e+00
 0.000000e+00 5.734717e-01 4.265283e-01 0.000000e+00 0.000000e+00
 0.000000e+00 0.000000e+00 5.683576e-01 4.316424e-01 0.000000e+00
 0.000000e+00 0.000000e+00 0.000000e+00 7.972263e-01 2.027738e-01
 0.000000e+00 0.000000e+00 0.000000e+00 0.000000e+00 0.000000e+00
<ENDHMM>
~h "z"
<BEGINHMM>
<NUMSTATES> 5
<STATE> 2
<MEAN> 25
 -2.389894e+00 5.143523e+00 1.017733e+01 3.833230e+00 -5.706052e+00 -1.565737e+00 2.158351e-01 -7.505713e+00 -5.861178e+00 -2.906213e+00 2.368928e+00 -7.532529e-01 -9.089734e-02 9.434640e-03 1.458971e-01 2.133037e-01 1.530307e-02 4.422373e-02 -2.043432e-02 -1.359416e-01 8.824112e-02 -4.103664e-02 9.447724e-02 9.843633e-03 5.856028e-02
<VARIANCE> 25
 4.769679e+01 1.105219e+02 9.705270e+01 1.304864e+02 9.634830e+01 1.329778e+02 7.743439e+01 6.304898e+01 9.456509e+01 9.328450e+01 6.772569e+01 5.069513e+01 2.069248e+00 2.748109e+00 4.893073e+00 5.119293e+00 4.484012e+00 5.063075e+00 4.324371e+00 3.618479e+00 5.470878e+00 4.585352e+00 3.652573e+00 2.694100e+00 1.713712e+00
<GCONST> 1.160205e+02
<STATE> 3
<MEAN> 25
 -1.186054e+00 2.094772e+00 1.075769e+01 5.152322e+00 -4.237875e+00 6.706014e-02 -1.793719e+00 -8.732698e+00 -4.536895e+00 -8.959033e-01 1.779893e+00 -1.035078e+00 2.229509e-01 -1.968896e-01 -1.848167e-01 -6.994345e-02 -1.916122e-02 1.552500e-01 4.429305e-02 5.452752e-02 1.692245e-01 -1.566870e-02 -4.735851e-02 1.556543e-01 3.042714e-02
<VARIANCE> 25
 4.915623e+01 1.219180e+02 1.084573e+02 1.112731e+02 8.762488e+01 1.479370e+02 8.278249e+01 7.156982e+01 8.196723e+01 8.605038e+01 5.619870e+01 4.440868e+01 2.287633e+00 2.530834e+00 5.596943e+00 4.651177e+00 4.442936e+00 5.737064e+00 3.850511e+00 3.933511e+00 4.866538e+00 3.642394e+00 3.458878e+00 2.285925e+00 1.676372e+00
<GCONST> 1.153147e+02
<STATE> 4
<MEAN> 25
 1.717461e+00 1.348136e+00 8.429678e+00 4.655566e+00 -4.069416e+00 1.137655e+00 -2.089305e+00 -6.572713e+00 -4.289113e+00 -2.819543e+00 -8.539490e-01 -8.141795e-01 9.078535e-02 6.129079e-02 -3.338495e-01 4.202133e-02 1.880125e-01 2.414696e-02 6.788000e-02 1.347216e-01 2.592336e-01 1.476558e-02 -1.780107e-01 6.935482e-02 -2.117907e-01
<VARIANCE> 25
 3.191893e+01 7.108105e+01 7.409970e+01 8.987535e+01 7.663368e+01 7.710333e+01 6.848055e+01 5.610696e+01 8.083261e+01 6.090422e+01 7.145679e+01 3.241740e+01 8.702272e-01 1.696895e+00 2.566275e+00 3.067402e+00 2.589043e+00 2.963564e+00 2.727066e+00 3.143330e+00 2.842026e+00 2.625447e+00 2.513473e+00 1.646715e+00 1.156188e+00
<GCONST> 1.058799e+02
<TRANSP> 5
 0.000000e+00 1.000000e+00 0.000000e+00 0.000000e+00 0.000000e+00
 0.000000e+00 9.057435e-01 9.425647e-02 0.000000e+00 0.000000e+00
 0.000000e+00 0.000000e+00 8.216010e-01 1.783990e-01 0.000000e+00
 0.000000e+00 0.000000e+00 0.000000e+00 8.978406e-01 1.021594e-01
 0.000000e+00 0.000000e+00 0.000000e+00 0.000000e+00 0.000000e+00
<ENDHMM>
~h "@h"
<BEGINHMM>
<NUMSTATES> 5
<STATE> 2
<MEAN> 25
 -7.290556e-01 -5.981622e+00 3.952842e-01 1.775432e-01 -2.534646e+00 7.040397e-01 -1.632226e+00 3.790240e-01 -2.684946e-02 3.753136e-01 -2.960596e+00 -8.683935e+00 -2.183161e-01 2.734630e-01 1.914514e-01 -4.617272e-02 1.076523e-01 3.635378e-01 -1.566387e-01 -4.717251e-01 -1.199093e-02 -1.487781e-01 3.079446e-02 3.020555e-01 -1.774266e-01
<VARIANCE> 25
 3.742142e+01 4.473856e+01 3.889474e+01 5.975968e+01 3.634673e+01 1.706142e+01 4.023194e+01 4.931680e+01 8.331240e+01 3.644928e+01 2.514435e+01 9.597763e+01 1.981158e-01 1.057732e+00 1.201472e+00 1.187319e+00 1.690819e+00 1.577751e+00 7.667804e-01 2.710982e+00 2.962533e+00 2.390161e+00 9.812695e-01 3.712420e+00 7.829058e-01
<GCONST> 9.446220e+01
<STATE> 3
<MEAN> 25
 -1.489487e+00 -8.397475e+00 7.726463e-01 -6.588470e+00 4.313431e+00 3.780843e+00 -5.601590e-01 -1.071315e-01 7.616997e+00 -3.362437e+00 2.372169e-01 -7.505287e+00 -1.388964e-01 5.298831e-03 -1.315357e-01 -2.963109e-02 3.895388e-01 2.663583e-01 -4.673219e-02 2.251395e-01 1.372801e-01 6.486213e-02 9.506220e-02 2.877937e-02 -1.424611e-01
<VARIANCE> 25
 1.676211e+01 4.245750e+01 1.277212e+01 8.254327e+01 4.633426e+01 1.197778e+01 1.915331e+01 1.545930e+01 2.957858e+01 2.915492e+01 2.389214e+01 1.683478e+01 2.884546e-01 1.619777e-01 5.021448e-01 8.309466e-01 6.968727e-01 7.133031e-01 1.186833e+00 1.343240e+00 1.646192e+00 1.038371e+00 1.076672e+00 9.685497e-01 3.070141e-01
<GCONST> 7.946841e+01
<STATE> 4
<MEAN> 25
 1.026700e+00 -4.148982e+00 -4.336259e-01 7.640097e-01 6.533344e+00 5.251579e+00 -5.768989e+00 8.859827e+00 7.481215e+00 -1.677320e+00 -3.093353e+00 -6.353798e+00 -1.868517e-02 3.302863e-02 7.949176e-02 1.164955e-01 7.021308e-02 -5.053325e-02 -1.193255e-02 7.349391e-02 -7.489027e-02 -4.856488e-02 1.861421e-02 2.600311e-01 -5.967574e-02
<VARIANCE> 25
 4.617545e+01 2.010997e+01 2.350754e+01 6.381091e+01 4.382118e+01 1.861541e+01 4.508696e+01 3.162508e+01 3.018298e+01 1.878573e+01 2.934161e+01 6.120757e+01 8.447112e-01 6.893066e-01 1.345878e+00 1.172195e+00 1.077563e+00 1.604180e+00 1.961207e+00 2.669863e+00 3.626815e+00 1.851266e+00 2.826272e+00 1.982051e+00 1.074019e+00
<GCONST> 9.371085e+01
<TRANSP> 5
 0.000000e+00 1.000000e+00 0.000000e+00 0.000000e+00 0.000000e+00
 0.000000e+00 9.229839e-01 7.701606e-02 0.000000e+00 0.000000e+00
 0.000000e+00 0.000000e+00 9.133833e-01 8.661672e-02 0.000000e+00
 0.000000e+00 0.000000e+00 0.000000e+00 9.520617e-01 4.793824e-02
 0.000000e+00 0.000000e+00 0.000000e+00 0.000000e+00 0.000000e+00
<ENDHMM>
~h "@y"
<BEGINHMM>
<NUMSTATES> 5
<STATE> 2
<MEAN> 25
 2.191897e-09 1.090767e-09 9.583869e-09 -2.513970e-08 5.652961e-09 7.827195e-09 -1.173832e-08 8.083372e-09 -1.224114e-08 -9.614427e-09 -1.228777e-09 7.353112e-09 2.583278e-03 1.324474e-05 1.168407e-03 -2.654809e-04 1.189869e-03 -2.049740e-04 3.580089e-04 -4.413913e-04 -1.182725e-03 -4.290212e-04 -6.000486e-04 -5.767079e-04 3.082962e-03
<VARIANCE> 25
 5.948185e+01 5.523698e+01 6.956894e+01 6.305649e+01 6.882346e+01 6.596870e+01 5.749071e+01 5.935575e+01 5.307431e+01 4.762827e+01 4.651497e+01 3.710693e+01 2.306505e+00 2.816552e+00 2.879400e+00 3.320058e+00 3.620134e+00 3.535676e+00 3.444275e+00 3.604864e+00 3.328828e+00 3.069384e+00 2.973308e+00 2.428294e+00 2.668486e+00
<GCONST> 1.087549e+02
<STATE> 3
<MEAN> 25
 2.191897e-09 1.090767e-09 9.583869e-09 -2.513970e-08 5.652961e-09 7.827195e-09 -1.173832e-08 8.083372e-09 -1.224114e-08 -9.614427e-09 -1.228777e-09 7.353112e-09 2.583278e-03 1.324474e-05 1.168407e-03 -2.654809e-04 1.189869e-03 -2.049740e-04 3.580089e-04 -4.413913e-04 -1.182725e-03 -4.290212e-04 -6.000486e-04 -5.767079e-04 3.082962e-03
<VARIANCE> 25
 5.948185e+01 5.523698e+01 6.956894e+01 6.305649e+01 6.882346e+01 6.596870e+01 5.749071e+01 5.935575e+01 5.307431e+01 4.762827e+01 4.651497e+01 3.710693e+01 2.306505e+00 2.816552e+00 2.879400e+00 3.320058e+00 3.620134e+00 3.535676e+00 3.444275e+00 3.604864e+00 3.328828e+00 3.069384e+00 2.973308e+00 2.428294e+00 2.668486e+00
<GCONST> 1.087549e+02
<STATE> 4
<MEAN> 25
 2.191897e-09 1.090767e-09 9.583869e-09 -2.513970e-08 5.652961e-09 7.827195e-09 -1.173832e-08 8.083372e-09 -1.224114e-08 -9.614427e-09 -1.228777e-09 7.353112e-09 2.583278e-03 1.324474e-05 1.168407e-03 -2.654809e-04 1.189869e-03 -2.049740e-04 3.580089e-04 -4.413913e-04 -1.182725e-03 -4.290212e-04 -6.000486e-04 -5.767079e-04 3.082962e-03
<VARIANCE> 25
 5.948185e+01 5.523698e+01 6.956894e+01 6.305649e+01 6.882346e+01 6.596870e+01 5.749071e+01 5.935575e+01 5.307431e+01 4.762827e+01 4.651497e+01 3.710693e+01 2.306505e+00 2.816552e+00 2.879400e+00 3.320058e+00 3.620134e+00 3.535676e+00 3.444275e+00 3.604864e+00 3.328828e+00 3.069384e+00 2.973308e+00 2.428294e+00 2.668486e+00
<GCONST> 1.087549e+02
<TRANSP> 5
 0.000000e+00 1.000000e+00 0.000000e+00 0.000000e+00 0.000000e+00
 0.000000e+00 6.000000e-01 4.000000e-01 0.000000e+00 0.000000e+00
 0.000000e+00 0.000000e+00 6.000000e-01 4.000000e-01 0.000000e+00
 0.000000e+00 0.000000e+00 0.000000e+00 7.000000e-01 3.000000e-01
 0.000000e+00 0.000000e+00 0.000000e+00 0.000000e+00 0.000000e+00
<ENDHMM>
~h "ai"
<BEGINHMM>
<NUMSTATES> 5
<STATE> 2
<MEAN> 25
 3.225303e+00 -4.173043e+00 5.769458e+00 9.656159e-01 -8.884597e+00 -7.697304e+00 9.821736e-01 7.625706e+00 -1.441841e+00 -2.512951e+00 5.017558e+00 -2.548015e+00 -5.501213e-02 5.371075e-02 1.502201e-01 -7.742344e-02 -1.938584e-01 -2.534452e-02 1.452880e-01 8.143450e-02 -1.573409e-01 1.674761e-01 1.901976e-01 1.553259e-01 -4.395819e-02
<VARIANCE> 25
 2.208329e+01 5.326919e+01 6.678630e+01 4.881750e+01 7.608646e+01 2.098555e+01 3.748058e+01 7.425569e+01 7.635632e+01 3.819465e+01 7.112530e+01 4.762497e+01 2.055825e+00 2.782521e+00 3.975864e+00 3.349486e+00 9.506443e+00 2.474867e+00 3.468331e+00 4.317570e+00 7.517349e+00 3.086683e+00 6.986199e+00 3.651511e+00 3.054404e+00
<GCONST> 1.102172e+02
<STATE> 3
<MEAN> 25
 -1.387048e+00 2.579836e+00 9.613666e-01 2.059927e+00 -3.200620e+00 -5.750893e+00 3.723560e+00 6.225816e+00 2.979936e+00 2.185801e+00 1.369946e+00 2.051531e+00 -5.923151e-01 8.580911e-01 -8.027362e-01 -2.677708e-01 4.129563e-01 1.919166e-01 6.061438e-02 -7.514197e-01 5.940090e-01 1.000392e-01 -3.289828e-01 3.957761e-01 -9.329381e-01
<VARIANCE> 25
 5.371360e+01 3.343526e+01 1.027617e+02 5.132969e+01 4.246640e+01 3.234831e+01 3.900845e+01 6.774408e+01 1.143467e+02 4.444717e+01 5.002867e+01 2.586963e+01 2.127439e+00 1.904671e+00 2.340696e+00 4.250520e+00 4.248551e+00 2.875678e+00 3.705176e+00 2.738646e+00 8.662395e+00 3.878324e+00 4.475306e+00 1.803098e+00 1.902160e+00
<GCONST> 1.075771e+02
<STATE> 4
<MEAN> 25
 5.308933e-01 4.684322e+00 -1.189873e+00 3.169337e+00 -2.866377e+00 -6.069580e+00 1.453120e-01 8.646202e-01 -6.002305e-01 2.538626e+00 4.078421e+00 1.298978e+00 1.298857e-01 1.443477e-02 -4.206464e-03 -2.991041e-02 6.710622e-02 -4.756913e-03 -2.857014e-01 -2.521624e-01 -4.639874e-02 7.491339e-02 3.383605e-02 -1.142883e-01 -9.875174e-02
<VARIANCE> 25
 8.134326e+01 5.264986e+01 9.447835e+01 5.564877e+01 8.559892e+01 4.226465e+01 5.501255e+01 9.024242e+01 1.666038e+02 4.116171e+01 4.701783e+01 4.520648e+01 2.719746e+00 3.152409e+00 3.620931e+00 5.458907e+00 1.080495e+01 5.165967e+00 6.160935e+00 9.228975e+00 1.031516e+01 3.328993e+00 5.576852e+00 5.135349e+00 3.947791e+00
<GCONST> 1.175349e+02
<TRANSP> 5
 0.000000e+00 1.000000e+00 0.000000e+00 0.000000e+00 0.000000e+00
 0.000000e+00 9.584314e-01 4.156864e-02 0.000000e+00 0.000000e+00
 0.000000e+00 0.000000e+00 7.760808e-01 2.239191e-01 0.000000e+00
 0.000000e+00 0.000000e+00 0.000000e+00 9.508106e-01 4.918941e-02
 0.000000e+00 0.000000e+00 0.000000e+00 0.000000e+00 0.000000e+00
<ENDHMM>
~h "am"
<BEGINHMM>
<NUMSTATES> 5
<STATE> 2
<MEAN> 25
 2.191897e-09 1.090767e-09 9.583869e-09 -2.513970e-08 5.652961e-09 7.827195e-09 -1.173832e-08 8.083372e-09 -1.224114e-08 -9.614427e-09 -1.228777e-09 7.353112e-09 2.583278e-03 1.324474e-05 1.168407e-03 -2.654809e-04 1.189869e-03 -2.049740e-04 3.580089e-04 -4.413913e-04 -1.182725e-03 -4.290212e-04 -6.000486e-04 -5.767079e-04 3.082962e-03
<VARIANCE> 25
 5.948185e+01 5.523698e+01 6.956894e+01 6.305649e+01 6.882346e+01 6.596870e+01 5.749071e+01 5.935575e+01 5.307431e+01 4.762827e+01 4.651497e+01 3.710693e+01 2.306505e+00 2.816552e+00 2.879400e+00 3.320058e+00 3.620134e+00 3.535676e+00 3.444275e+00 3.604864e+00 3.328828e+00 3.069384e+00 2.973308e+00 2.428294e+00 2.668486e+00
<GCONST> 1.087549e+02
<STATE> 3
<MEAN> 25
 2.191897e-09 1.090767e-09 9.583869e-09 -2.513970e-08 5.652961e-09 7.827195e-09 -1.173832e-08 8.083372e-09 -1.224114e-08 -9.614427e-09 -1.228777e-09 7.353112e-09 2.583278e-03 1.324474e-05 1.168407e-03 -2.654809e-04 1.189869e-03 -2.049740e-04 3.580089e-04 -4.413913e-04 -1.182725e-03 -4.290212e-04 -6.000486e-04 -5.767079e-04 3.082962e-03
<VARIANCE> 25
 5.948185e+01 5.523698e+01 6.956894e+01 6.305649e+01 6.882346e+01 6.596870e+01 5.749071e+01 5.935575e+01 5.307431e+01 4.762827e+01 4.651497e+01 3.710693e+01 2.306505e+00 2.816552e+00 2.879400e+00 3.320058e+00 3.620134e+00 3.535676e+00 3.444275e+00 3.604864e+00 3.328828e+00 3.069384e+00 2.973308e+00 2.428294e+00 2.668486e+00
<GCONST> 1.087549e+02
<STATE> 4
<MEAN> 25
 2.191897e-09 1.090767e-09 9.583869e-09 -2.513970e-08 5.652961e-09 7.827195e-09 -1.173832e-08 8.083372e-09 -1.224114e-08 -9.614427e-09 -1.228777e-09 7.353112e-09 2.583278e-03 1.324474e-05 1.168407e-03 -2.654809e-04 1.189869e-03 -2.049740e-04 3.580089e-04 -4.413913e-04 -1.182725e-03 -4.290212e-04 -6.000486e-04 -5.767079e-04 3.082962e-03
<VARIANCE> 25
 5.948185e+01 5.523698e+01 6.956894e+01 6.305649e+01 6.882346e+01 6.596870e+01 5.749071e+01 5.935575e+01 5.307431e+01 4.762827e+01 4.651497e+01 3.710693e+01 2.306505e+00 2.816552e+00 2.879400e+00 3.320058e+00 3.620134e+00 3.535676e+00 3.444275e+00 3.604864e+00 3.328828e+00 3.069384e+00 2.973308e+00 2.428294e+00 2.668486e+00
<GCONST> 1.087549e+02
<TRANSP> 5
 0.000000e+00 1.000000e+00 0.000000e+00 0.000000e+00 0.000000e+00
 0.000000e+00 6.000000e-01 4.000000e-01 0.000000e+00 0.000000e+00
 0.000000e+00 0.000000e+00 6.000000e-01 4.000000e-01 0.000000e+00
 0.000000e+00 0.000000e+00 0.000000e+00 7.000000e-01 3.000000e-01
 0.000000e+00 0.000000e+00 0.000000e+00 0.000000e+00 0.000000e+00
<ENDHMM>
~h "an"
<BEGINHMM>
<NUMSTATES> 5
<STATE> 2
<MEAN> 25
 2.191897e-09 1.090767e-09 9.583869e-09 -2.513970e-08 5.652961e-09 7.827195e-09 -1.173832e-08 8.083372e-09 -1.224114e-08 -9.614427e-09 -1.228777e-09 7.353112e-09 2.583278e-03 1.324474e-05 1.168407e-03 -2.654809e-04 1.189869e-03 -2.049740e-04 3.580089e-04 -4.413913e-04 -1.182725e-03 -4.290212e-04 -6.000486e-04 -5.767079e-04 3.082962e-03
<VARIANCE> 25
 5.948185e+01 5.523698e+01 6.956894e+01 6.305649e+01 6.882346e+01 6.596870e+01 5.749071e+01 5.935575e+01 5.307431e+01 4.762827e+01 4.651497e+01 3.710693e+01 2.306505e+00 2.816552e+00 2.879400e+00 3.320058e+00 3.620134e+00 3.535676e+00 3.444275e+00 3.604864e+00 3.328828e+00 3.069384e+00 2.973308e+00 2.428294e+00 2.668486e+00
<GCONST> 1.087549e+02
<STATE> 3
<MEAN> 25
 2.191897e-09 1.090767e-09 9.583869e-09 -2.513970e-08 5.652961e-09 7.827195e-09 -1.173832e-08 8.083372e-09 -1.224114e-08 -9.614427e-09 -1.228777e-09 7.353112e-09 2.583278e-03 1.324474e-05 1.168407e-03 -2.654809e-04 1.189869e-03 -2.049740e-04 3.580089e-04 -4.413913e-04 -1.182725e-03 -4.290212e-04 -6.000486e-04 -5.767079e-04 3.082962e-03
<VARIANCE> 25
 5.948185e+01 5.523698e+01 6.956894e+01 6.305649e+01 6.882346e+01 6.596870e+01 5.749071e+01 5.935575e+01 5.307431e+01 4.762827e+01 4.651497e+01 3.710693e+01 2.306505e+00 2.816552e+00 2.879400e+00 3.320058e+00 3.620134e+00 3.535676e+00 3.444275e+00 3.604864e+00 3.328828e+00 3.069384e+00 2.973308e+00 2.428294e+00 2.668486e+00
<GCONST> 1.087549e+02
<STATE> 4
<MEAN> 25
 2.191897e-09 1.090767e-09 9.583869e-09 -2.513970e-08 5.652961e-09 7.827195e-09 -1.173832e-08 8.083372e-09 -1.224114e-08 -9.614427e-09 -1.228777e-09 7.353112e-09 2.583278e-03 1.324474e-05 1.168407e-03 -2.654809e-04 1.189869e-03 -2.049740e-04 3.580089e-04 -4.413913e-04 -1.182725e-03 -4.290212e-04 -6.000486e-04 -5.767079e-04 3.082962e-03
<VARIANCE> 25
 5.948185e+01 5.523698e+01 6.956894e+01 6.305649e+01 6.882346e+01 6.596870e+01 5.749071e+01 5.935575e+01 5.307431e+01 4.762827e+01 4.651497e+01 3.710693e+01 2.306505e+00 2.816552e+00 2.879400e+00 3.320058e+00 3.620134e+00 3.535676e+00 3.444275e+00 3.604864e+00 3.328828e+00 3.069384e+00 2.973308e+00 2.428294e+00 2.668486e+00
<GCONST> 1.087549e+02
<TRANSP> 5
 0.000000e+00 1.000000e+00 0.000000e+00 0.000000e+00 0.000000e+00
 0.000000e+00 6.000000e-01 4.000000e-01 0.000000e+00 0.000000e+00
 0.000000e+00 0.000000e+00 6.000000e-01 4.000000e-01 0.000000e+00
 0.000000e+00 0.000000e+00 0.000000e+00 7.000000e-01 3.000000e-01
 0.000000e+00 0.000000e+00 0.000000e+00 0.000000e+00 0.000000e+00
<ENDHMM>
~h "ap"
<BEGINHMM>
<NUMSTATES> 5
<STATE> 2
<MEAN> 25
 2.191897e-09 1.090767e-09 9.583869e-09 -2.513970e-08 5.652961e-09 7.827195e-09 -1.173832e-08 8.083372e-09 -1.224114e-08 -9.614427e-09 -1.228777e-09 7.353112e-09 2.583278e-03 1.324474e-05 1.168407e-03 -2.654809e-04 1.189869e-03 -2.049740e-04 3.580089e-04 -4.413913e-04 -1.182725e-03 -4.290212e-04 -6.000486e-04 -5.767079e-04 3.082962e-03
<VARIANCE> 25
 5.948185e+01 5.523698e+01 6.956894e+01 6.305649e+01 6.882346e+01 6.596870e+01 5.749071e+01 5.935575e+01 5.307431e+01 4.762827e+01 4.651497e+01 3.710693e+01 2.306505e+00 2.816552e+00 2.879400e+00 3.320058e+00 3.620134e+00 3.535676e+00 3.444275e+00 3.604864e+00 3.328828e+00 3.069384e+00 2.973308e+00 2.428294e+00 2.668486e+00
<GCONST> 1.087549e+02
<STATE> 3
<MEAN> 25
 2.191897e-09 1.090767e-09 9.583869e-09 -2.513970e-08 5.652961e-09 7.827195e-09 -1.173832e-08 8.083372e-09 -1.224114e-08 -9.614427e-09 -1.228777e-09 7.353112e-09 2.583278e-03 1.324474e-05 1.168407e-03 -2.654809e-04 1.189869e-03 -2.049740e-04 3.580089e-04 -4.413913e-04 -1.182725e-03 -4.290212e-04 -6.000486e-04 -5.767079e-04 3.082962e-03
<VARIANCE> 25
 5.948185e+01 5.523698e+01 6.956894e+01 6.305649e+01 6.882346e+01 6.596870e+01 5.749071e+01 5.935575e+01 5.307431e+01 4.762827e+01 4.651497e+01 3.710693e+01 2.306505e+00 2.816552e+00 2.879400e+00 3.320058e+00 3.620134e+00 3.535676e+00 3.444275e+00 3.604864e+00 3.328828e+00 3.069384e+00 2.973308e+00 2.428294e+00 2.668486e+00
<GCONST> 1.087549e+02
<STATE> 4
<MEAN> 25
 2.191897e-09 1.090767e-09 9.583869e-09 -2.513970e-08 5.652961e-09 7.827195e-09 -1.173832e-08 8.083372e-09 -1.224114e-08 -9.614427e-09 -1.228777e-09 7.353112e-09 2.583278e-03 1.324474e-05 1.168407e-03 -2.654809e-04 1.189869e-03 -2.049740e-04 3.580089e-04 -4.413913e-04 -1.182725e-03 -4.290212e-04 -6.000486e-04 -5.767079e-04 3.082962e-03
<VARIANCE> 25
 5.948185e+01 5.523698e+01 6.956894e+01 6.305649e+01 6.882346e+01 6.596870e+01 5.749071e+01 5.935575e+01 5.307431e+01 4.762827e+01 4.651497e+01 3.710693e+01 2.306505e+00 2.816552e+00 2.879400e+00 3.320058e+00 3.620134e+00 3.535676e+00 3.444275e+00 3.604864e+00 3.328828e+00 3.069384e+00 2.973308e+00 2.428294e+00 2.668486e+00
<GCONST> 1.087549e+02
<TRANSP> 5
 0.000000e+00 1.000000e+00 0.000000e+00 0.000000e+00 0.000000e+00
 0.000000e+00 6.000000e-01 4.000000e-01 0.000000e+00 0.000000e+00
 0.000000e+00 0.000000e+00 6.000000e-01 4.000000e-01 0.000000e+00
 0.000000e+00 0.000000e+00 0.000000e+00 7.000000e-01 3.000000e-01
 0.000000e+00 0.000000e+00 0.000000e+00 0.000000e+00 0.000000e+00
<ENDHMM>
~h "at"
<BEGINHMM>
<NUMSTATES> 5
<STATE> 2
<MEAN> 25
 2.191897e-09 1.090767e-09 9.583869e-09 -2.513970e-08 5.652961e-09 7.827195e-09 -1.173832e-08 8.083372e-09 -1.224114e-08 -9.614427e-09 -1.228777e-09 7.353112e-09 2.583278e-03 1.324474e-05 1.168407e-03 -2.654809e-04 1.189869e-03 -2.049740e-04 3.580089e-04 -4.413913e-04 -1.182725e-03 -4.290212e-04 -6.000486e-04 -5.767079e-04 3.082962e-03
<VARIANCE> 25
 5.948185e+01 5.523698e+01 6.956894e+01 6.305649e+01 6.882346e+01 6.596870e+01 5.749071e+01 5.935575e+01 5.307431e+01 4.762827e+01 4.651497e+01 3.710693e+01 2.306505e+00 2.816552e+00 2.879400e+00 3.320058e+00 3.620134e+00 3.535676e+00 3.444275e+00 3.604864e+00 3.328828e+00 3.069384e+00 2.973308e+00 2.428294e+00 2.668486e+00
<GCONST> 1.087549e+02
<STATE> 3
<MEAN> 25
 2.191897e-09 1.090767e-09 9.583869e-09 -2.513970e-08 5.652961e-09 7.827195e-09 -1.173832e-08 8.083372e-09 -1.224114e-08 -9.614427e-09 -1.228777e-09 7.353112e-09 2.583278e-03 1.324474e-05 1.168407e-03 -2.654809e-04 1.189869e-03 -2.049740e-04 3.580089e-04 -4.413913e-04 -1.182725e-03 -4.290212e-04 -6.000486e-04 -5.767079e-04 3.082962e-03
<VARIANCE> 25
 5.948185e+01 5.523698e+01 6.956894e+01 6.305649e+01 6.882346e+01 6.596870e+01 5.749071e+01 5.935575e+01 5.307431e+01 4.762827e+01 4.651497e+01 3.710693e+01 2.306505e+00 2.816552e+00 2.879400e+00 3.320058e+00 3.620134e+00 3.535676e+00 3.444275e+00 3.604864e+00 3.328828e+00 3.069384e+00 2.973308e+00 2.428294e+00 2.668486e+00
<GCONST> 1.087549e+02
<STATE> 4
<MEAN> 25
 2.191897e-09 1.090767e-09 9.583869e-09 -2.513970e-08 5.652961e-09 7.827195e-09 -1.173832e-08 8.083372e-09 -1.224114e-08 -9.614427e-09 -1.228777e-09 7.353112e-09 2.583278e-03 1.324474e-05 1.168407e-03 -2.654809e-04 1.189869e-03 -2.049740e-04 3.580089e-04 -4.413913e-04 -1.182725e-03 -4.290212e-04 -6.000486e-04 -5.767079e-04 3.082962e-03
<VARIANCE> 25
 5.948185e+01 5.523698e+01 6.956894e+01 6.305649e+01 6.882346e+01 6.596870e+01 5.749071e+01 5.935575e+01 5.307431e+01 4.762827e+01 4.651497e+01 3.710693e+01 2.306505e+00 2.816552e+00 2.879400e+00 3.320058e+00 3.620134e+00 3.535676e+00 3.444275e+00 3.604864e+00 3.328828e+00 3.069384e+00 2.973308e+00 2.428294e+00 2.668486e+00
<GCONST> 1.087549e+02
<TRANSP> 5
 0.000000e+00 1.000000e+00 0.000000e+00 0.000000e+00 0.000000e+00
 0.000000e+00 6.000000e-01 4.000000e-01 0.000000e+00 0.000000e+00
 0.000000e+00 0.000000e+00 6.000000e-01 4.000000e-01 0.000000e+00
 0.000000e+00 0.000000e+00 0.000000e+00 7.000000e-01 3.000000e-01
 0.000000e+00 0.000000e+00 0.000000e+00 0.000000e+00 0.000000e+00
<ENDHMM>
~h "au"
<BEGINHMM>
<NUMSTATES> 5
<STATE> 2
<MEAN> 25
 2.191897e-09 1.090767e-09 9.583869e-09 -2.513970e-08 5.652961e-09 7.827195e-09 -1.173832e-08 8.083372e-09 -1.224114e-08 -9.614427e-09 -1.228777e-09 7.353112e-09 2.583278e-03 1.324474e-05 1.168407e-03 -2.654809e-04 1.189869e-03 -2.049740e-04 3.580089e-04 -4.413913e-04 -1.182725e-03 -4.290212e-04 -6.000486e-04 -5.767079e-04 3.082962e-03
<VARIANCE> 25
 5.948185e+01 5.523698e+01 6.956894e+01 6.305649e+01 6.882346e+01 6.596870e+01 5.749071e+01 5.935575e+01 5.307431e+01 4.762827e+01 4.651497e+01 3.710693e+01 2.306505e+00 2.816552e+00 2.879400e+00 3.320058e+00 3.620134e+00 3.535676e+00 3.444275e+00 3.604864e+00 3.328828e+00 3.069384e+00 2.973308e+00 2.428294e+00 2.668486e+00
<GCONST> 1.087549e+02
<STATE> 3
<MEAN> 25
 2.191897e-09 1.090767e-09 9.583869e-09 -2.513970e-08 5.652961e-09 7.827195e-09 -1.173832e-08 8.083372e-09 -1.224114e-08 -9.614427e-09 -1.228777e-09 7.353112e-09 2.583278e-03 1.324474e-05 1.168407e-03 -2.654809e-04 1.189869e-03 -2.049740e-04 3.580089e-04 -4.413913e-04 -1.182725e-03 -4.290212e-04 -6.000486e-04 -5.767079e-04 3.082962e-03
<VARIANCE> 25
 5.948185e+01 5.523698e+01 6.956894e+01 6.305649e+01 6.882346e+01 6.596870e+01 5.749071e+01 5.935575e+01 5.307431e+01 4.762827e+01 4.651497e+01 3.710693e+01 2.306505e+00 2.816552e+00 2.879400e+00 3.320058e+00 3.620134e+00 3.535676e+00 3.444275e+00 3.604864e+00 3.328828e+00 3.069384e+00 2.973308e+00 2.428294e+00 2.668486e+00
<GCONST> 1.087549e+02
<STATE> 4
<MEAN> 25
 2.191897e-09 1.090767e-09 9.583869e-09 -2.513970e-08 5.652961e-09 7.827195e-09 -1.173832e-08 8.083372e-09 -1.224114e-08 -9.614427e-09 -1.228777e-09 7.353112e-09 2.583278e-03 1.324474e-05 1.168407e-03 -2.654809e-04 1.189869e-03 -2.049740e-04 3.580089e-04 -4.413913e-04 -1.182725e-03 -4.290212e-04 -6.000486e-04 -5.767079e-04 3.082962e-03
<VARIANCE> 25
 5.948185e+01 5.523698e+01 6.956894e+01 6.305649e+01 6.882346e+01 6.596870e+01 5.749071e+01 5.935575e+01 5.307431e+01 4.762827e+01 4.651497e+01 3.710693e+01 2.306505e+00 2.816552e+00 2.879400e+00 3.320058e+00 3.620134e+00 3.535676e+00 3.444275e+00 3.604864e+00 3.328828e+00 3.069384e+00 2.973308e+00 2.428294e+00 2.668486e+00
<GCONST> 1.087549e+02
<TRANSP> 5
 0.000000e+00 1.000000e+00 0.000000e+00 0.000000e+00 0.000000e+00
 0.000000e+00 6.000000e-01 4.000000e-01 0.000000e+00 0.000000e+00
 0.000000e+00 0.000000e+00 6.000000e-01 4.000000e-01 0.000000e+00
 0.000000e+00 0.000000e+00 0.000000e+00 7.000000e-01 3.000000e-01
 0.000000e+00 0.000000e+00 0.000000e+00 0.000000e+00 0.000000e+00
<ENDHMM>
~h "aw"
<BEGINHMM>
<NUMSTATES> 5
<STATE> 2
<MEAN> 25
 5.951669e+00 -3.959726e+00 -6.164691e+00 -9.391075e+00 -1.765950e+00 1.119305e+01 -4.002159e-01 -3.154090e+00 7.880096e+00 -3.793807e-01 -1.000261e+00 2.110946e-01 3.125190e-01 3.233350e-01 1.823204e-01 -7.345842e-01 -3.000063e-01 4.882244e-01 -1.075190e-01 -1.331721e-02 -5.610837e-01 -1.632866e-01 4.672250e-01 3.717128e-01 -4.064545e-01
<VARIANCE> 25
 3.995227e+01 2.185822e+02 4.280904e+01 1.916825e+02 7.789055e+01 6.288176e+01 7.540427e+01 5.694837e+01 1.163747e+02 5.967597e+01 6.926038e+01 5.125791e+01 1.369707e+00 4.366743e+00 2.749845e+00 3.624163e+00 2.507844e+00 3.345803e+00 2.395363e+00 3.662481e+00 3.441516e+00 3.128000e+00 1.846240e+00 3.260251e+00 2.357133e+00
<GCONST> 1.113317e+02
<STATE> 3
<MEAN> 25
 7.444328e+00 2.244971e-01 -4.547639e+00 -1.315568e+01 -4.247046e+00 1.194860e+01 9.915771e-01 -2.290507e+00 9.250305e-01 -9.724458e-01 2.560797e+00 5.808374e-01 -6.066134e-02 3.851048e-01 -7.829638e-02 5.733601e-01 -9.297602e-03 -2.527771e-01 3.436969e-01 1.156188e-01 -4.322865e-01 -1.672642e-01 -9.647873e-02 -7.983211e-02 -7.231942e-01
<VARIANCE> 25
 4.667798e+01 1.026609e+02 5.248876e+01 1.246008e+02 5.392970e+01 6.293769e+01 6.026239e+01 4.270073e+01 6.628809e+01 5.441274e+01 5.369822e+01 4.622646e+01 1.199091e+00 3.124015e+00 2.067842e+00 2.912516e+00 2.666336e+00 2.884190e+00 2.641506e+00 2.626449e+00 3.232121e+00 2.737757e+00 2.094683e+00 3.310031e+00 1.716304e+00
<GCONST> 1.069476e+02
<STATE> 4
<MEAN> 25
 -2.286542e+00 1.735818e+00 -1.233666e+00 6.231724e-01 -1.602467e+00 3.156988e+00 8.429870e-02 1.363212e+00 -7.886212e-01 -3.302342e+00 9.283805e-01 -2.456437e+00 -4.087210e-01 -4.124711e-01 -2.132267e-01 6.688552e-01 4.157197e-01 -3.828920e-01 8.814295e-02 -5.017018e-02 2.152853e-01 1.652861e-01 -3.024465e-01 -2.585871e-01 -6.220810e-02
<VARIANCE> 25
 1.529928e+02 6.603765e+01 9.958018e+01 2.348897e+02 8.788158e+01 2.377358e+02 9.517366e+01 5.420882e+01 6.697115e+01 6.320155e+01 5.646503e+01 6.462682e+01 1.378054e+00 2.131127e+00 3.368975e+00 3.548357e+00 3.778790e+00 3.706442e+00 3.649023e+00 2.911500e+00 3.953691e+00 3.725230e+00 3.543107e+00 4.155469e+00 1.520438e+00
<GCONST> 1.146354e+02
<TRANSP> 5
 0.000000e+00 1.000000e+00 0.000000e+00 0.000000e+00 0.000000e+00
 0.000000e+00 8.938473e-01 1.061527e-01 0.000000e+00 0.000000e+00
 0.000000e+00 0.000000e+00 7.740030e-01 2.259970e-01 0.000000e+00
 0.000000e+00 0.000000e+00 0.000000e+00 8.835105e-01 1.164895e-01
 0.000000e+00 0.000000e+00 0.000000e+00 0.000000e+00 0.000000e+00
<ENDHMM>
~h "ay"
<BEGINHMM>
<NUMSTATES> 5
<STATE> 2
<MEAN> 25
 2.060719e+00 -6.927159e+00 3.216534e+00 -2.906055e+00 -6.908875e+00 -2.245144e+00 3.912199e+00 4.151717e+00 8.822499e-01 -9.272637e-01 -7.673086e-01 -3.729685e-01 -1.474296e-01 1.912144e-01 1.048280e+00 -2.018204e-02 -9.056064e-01 -8.670129e-02 2.326833e-01 -2.255876e-01 -3.076490e-01 1.430167e-01 3.921271e-01 3.702023e-01 -2.144102e-01
<VARIANCE> 25
 2.608736e+01 4.270543e+01 8.847989e+01 5.147869e+01 5.828343e+01 8.600028e+01 5.312554e+01 7.255694e+01 5.129075e+01 5.637718e+01 5.289290e+01 2.565246e+01 9.296816e-01 2.570515e+00 4.771989e+00 3.144240e+00 3.913854e+00 4.815135e+00 3.324238e+00 4.709497e+00 3.735870e+00 4.355522e+00 3.559060e+00 2.059608e+00 1.135177e+00
<GCONST> 1.075207e+02
<STATE> 3
<MEAN> 25
 1.503139e+00 -4.468457e+00 5.856343e+00 -2.509507e+00 -9.052016e+00 -2.619268e+00 3.588909e+00 2.329403e+00 -2.439623e-01 6.780386e-02 7.841720e-01 4.000954e-01 -1.652904e-01 7.738553e-01 5.413653e-01 1.493604e-01 -3.008730e-01 -3.947158e-02 -9.066591e-02 -5.994148e-01 -2.623169e-01 2.992311e-01 2.941539e-01 2.708693e-01 -5.938975e-01
<VARIANCE> 25
 2.719375e+01 4.439859e+01 7.916956e+01 5.453883e+01 5.969888e+01 1.021687e+02 4.832742e+01 7.163547e+01 5.555902e+01 5.428919e+01 5.429853e+01 2.353690e+01 8.219562e-01 1.916206e+00 4.807782e+00 2.918525e+00 3.852677e+00 4.507806e+00 3.301011e+00 4.303637e+00 3.824603e+00 3.823752e+00 3.234336e+00 2.004232e+00 1.354463e+00
<GCONST> 1.069030e+02
<STATE> 4
<MEAN> 25
 -1.781482e+00 -4.047585e-01 5.099019e+00 5.933191e-01 -7.163303e+00 -1.361683e-01 2.296987e+00 1.085353e+00 -1.436655e+00 4.210226e-01 2.668859e+00 1.364349e+00 -2.089407e-01 4.035846e-01 -2.167780e-01 3.271683e-01 3.933771e-01 1.447935e-01 -1.815677e-01 -2.084335e-01 -1.009678e-02 3.674807e-02 8.283333e-02 1.363004e-01 -5.830243e-01
<VARIANCE> 25
 4.171853e+01 3.903071e+01 6.545248e+01 4.683297e+01 6.094871e+01 8.809625e+01 5.069500e+01 5.632446e+01 4.746590e+01 4.734394e+01 5.161364e+01 2.001416e+01 6.517935e-01 1.609103e+00 3.363257e+00 2.229095e+00 2.693035e+00 3.117744e+00 2.495826e+00 3.570757e+00 3.105335e+00 2.957800e+00 2.601324e+00 1.804453e+00 1.117990e+00
<GCONST> 1.028259e+02
<TRANSP> 5
 0.000000e+00 1.000000e+00 0.000000e+00 0.000000e+00 0.000000e+00
 0.000000e+00 6.925373e-01 3.074627e-01 0.000000e+00 0.000000e+00
 0.000000e+00 0.000000e+00 6.764066e-01 3.235934e-01 0.000000e+00
 0.000000e+00 0.000000e+00 0.000000e+00 8.523788e-01 1.476213e-01
 0.000000e+00 0.000000e+00 0.000000e+00 0.000000e+00 0.000000e+00
<ENDHMM>
~h "be"
<BEGINHMM>
<NUMSTATES> 5
<STATE> 2
<MEAN> 25
 2.191897e-09 1.090767e-09 9.583869e-09 -2.513970e-08 5.652961e-09 7.827195e-09 -1.173832e-08 8.083372e-09 -1.224114e-08 -9.614427e-09 -1.228777e-09 7.353112e-09 2.583278e-03 1.324474e-05 1.168407e-03 -2.654809e-04 1.189869e-03 -2.049740e-04 3.580089e-04 -4.413913e-04 -1.182725e-03 -4.290212e-04 -6.000486e-04 -5.767079e-04 3.082962e-03
<VARIANCE> 25
 5.948185e+01 5.523698e+01 6.956894e+01 6.305649e+01 6.882346e+01 6.596870e+01 5.749071e+01 5.935575e+01 5.307431e+01 4.762827e+01 4.651497e+01 3.710693e+01 2.306505e+00 2.816552e+00 2.879400e+00 3.320058e+00 3.620134e+00 3.535676e+00 3.444275e+00 3.604864e+00 3.328828e+00 3.069384e+00 2.973308e+00 2.428294e+00 2.668486e+00
<GCONST> 1.087549e+02
<STATE> 3
<MEAN> 25
 2.191897e-09 1.090767e-09 9.583869e-09 -2.513970e-08 5.652961e-09 7.827195e-09 -1.173832e-08 8.083372e-09 -1.224114e-08 -9.614427e-09 -1.228777e-09 7.353112e-09 2.583278e-03 1.324474e-05 1.168407e-03 -2.654809e-04 1.189869e-03 -2.049740e-04 3.580089e-04 -4.413913e-04 -1.182725e-03 -4.290212e-04 -6.000486e-04 -5.767079e-04 3.082962e-03
<VARIANCE> 25
 5.948185e+01 5.523698e+01 6.956894e+01 6.305649e+01 6.882346e+01 6.596870e+01 5.749071e+01 5.935575e+01 5.307431e+01 4.762827e+01 4.651497e+01 3.710693e+01 2.306505e+00 2.816552e+00 2.879400e+00 3.320058e+00 3.620134e+00 3.535676e+00 3.444275e+00 3.604864e+00 3.328828e+00 3.069384e+00 2.973308e+00 2.428294e+00 2.668486e+00
<GCONST> 1.087549e+02
<STATE> 4
<MEAN> 25
 2.191897e-09 1.090767e-09 9.583869e-09 -2.513970e-08 5.652961e-09 7.827195e-09 -1.173832e-08 8.083372e-09 -1.224114e-08 -9.614427e-09 -1.228777e-09 7.353112e-09 2.583278e-03 1.324474e-05 1.168407e-03 -2.654809e-04 1.189869e-03 -2.049740e-04 3.580089e-04 -4.413913e-04 -1.182725e-03 -4.290212e-04 -6.000486e-04 -5.767079e-04 3.082962e-03
<VARIANCE> 25
 5.948185e+01 5.523698e+01 6.956894e+01 6.305649e+01 6.882346e+01 6.596870e+01 5.749071e+01 5.935575e+01 5.307431e+01 4.762827e+01 4.651497e+01 3.710693e+01 2.306505e+00 2.816552e+00 2.879400e+00 3.320058e+00 3.620134e+00 3.535676e+00 3.444275e+00 3.604864e+00 3.328828e+00 3.069384e+00 2.973308e+00 2.428294e+00 2.668486e+00
<GCONST> 1.087549e+02
<TRANSP> 5
 0.000000e+00 1.000000e+00 0.000000e+00 0.000000e+00 0.000000e+00
 0.000000e+00 6.000000e-01 4.000000e-01 0.000000e+00 0.000000e+00
 0.000000e+00 0.000000e+00 6.000000e-01 4.000000e-01 0.000000e+00
 0.000000e+00 0.000000e+00 0.000000e+00 7.000000e-01 3.000000e-01
 0.000000e+00 0.000000e+00 0.000000e+00 0.000000e+00 0.000000e+00
<ENDHMM>
~h "br"
<BEGINHMM>
<NUMSTATES> 5
<STATE> 2
<MEAN> 25
 2.191897e-09 1.090767e-09 9.583869e-09 -2.513970e-08 5.652961e-09 7.827195e-09 -1.173832e-08 8.083372e-09 -1.224114e-08 -9.614427e-09 -1.228777e-09 7.353112e-09 2.583278e-03 1.324474e-05 1.168407e-03 -2.654809e-04 1.189869e-03 -2.049740e-04 3.580089e-04 -4.413913e-04 -1.182725e-03 -4.290212e-04 -6.000486e-04 -5.767079e-04 3.082962e-03
<VARIANCE> 25
 5.948185e+01 5.523698e+01 6.956894e+01 6.305649e+01 6.882346e+01 6.596870e+01 5.749071e+01 5.935575e+01 5.307431e+01 4.762827e+01 4.651497e+01 3.710693e+01 2.306505e+00 2.816552e+00 2.879400e+00 3.320058e+00 3.620134e+00 3.535676e+00 3.444275e+00 3.604864e+00 3.328828e+00 3.069384e+00 2.973308e+00 2.428294e+00 2.668486e+00
<GCONST> 1.087549e+02
<STATE> 3
<MEAN> 25
 2.191897e-09 1.090767e-09 9.583869e-09 -2.513970e-08 5.652961e-09 7.827195e-09 -1.173832e-08 8.083372e-09 -1.224114e-08 -9.614427e-09 -1.228777e-09 7.353112e-09 2.583278e-03 1.324474e-05 1.168407e-03 -2.654809e-04 1.189869e-03 -2.049740e-04 3.580089e-04 -4.413913e-04 -1.182725e-03 -4.290212e-04 -6.000486e-04 -5.767079e-04 3.082962e-03
<VARIANCE> 25
 5.948185e+01 5.523698e+01 6.956894e+01 6.305649e+01 6.882346e+01 6.596870e+01 5.749071e+01 5.935575e+01 5.307431e+01 4.762827e+01 4.651497e+01 3.710693e+01 2.306505e+00 2.816552e+00 2.879400e+00 3.320058e+00 3.620134e+00 3.535676e+00 3.444275e+00 3.604864e+00 3.328828e+00 3.069384e+00 2.973308e+00 2.428294e+00 2.668486e+00
<GCONST> 1.087549e+02
<STATE> 4
<MEAN> 25
 2.191897e-09 1.090767e-09 9.583869e-09 -2.513970e-08 5.652961e-09 7.827195e-09 -1.173832e-08 8.083372e-09 -1.224114e-08 -9.614427e-09 -1.228777e-09 7.353112e-09 2.583278e-03 1.324474e-05 1.168407e-03 -2.654809e-04 1.189869e-03 -2.049740e-04 3.580089e-04 -4.413913e-04 -1.182725e-03 -4.290212e-04 -6.000486e-04 -5.767079e-04 3.082962e-03
<VARIANCE> 25
 5.948185e+01 5.523698e+01 6.956894e+01 6.305649e+01 6.882346e+01 6.596870e+01 5.749071e+01 5.935575e+01 5.307431e+01 4.762827e+01 4.651497e+01 3.710693e+01 2.306505e+00 2.816552e+00 2.879400e+00 3.320058e+00 3.620134e+00 3.535676e+00 3.444275e+00 3.604864e+00 3.328828e+00 3.069384e+00 2.973308e+00 2.428294e+00 2.668486e+00
<GCONST> 1.087549e+02
<TRANSP> 5
 0.000000e+00 1.000000e+00 0.000000e+00 0.000000e+00 0.000000e+00
 0.000000e+00 6.000000e-01 4.000000e-01 0.000000e+00 0.000000e+00
 0.000000e+00 0.000000e+00 6.000000e-01 4.000000e-01 0.000000e+00
 0.000000e+00 0.000000e+00 0.000000e+00 7.000000e-01 3.000000e-01
 0.000000e+00 0.000000e+00 0.000000e+00 0.000000e+00 0.000000e+00
<ENDHMM>
~h "bu"
<BEGINHMM>
<NUMSTATES> 5
<STATE> 2
<MEAN> 25
 2.191897e-09 1.090767e-09 9.583869e-09 -2.513970e-08 5.652961e-09 7.827195e-09 -1.173832e-08 8.083372e-09 -1.224114e-08 -9.614427e-09 -1.228777e-09 7.353112e-09 2.583278e-03 1.324474e-05 1.168407e-03 -2.654809e-04 1.189869e-03 -2.049740e-04 3.580089e-04 -4.413913e-04 -1.182725e-03 -4.290212e-04 -6.000486e-04 -5.767079e-04 3.082962e-03
<VARIANCE> 25
 5.948185e+01 5.523698e+01 6.956894e+01 6.305649e+01 6.882346e+01 6.596870e+01 5.749071e+01 5.935575e+01 5.307431e+01 4.762827e+01 4.651497e+01 3.710693e+01 2.306505e+00 2.816552e+00 2.879400e+00 3.320058e+00 3.620134e+00 3.535676e+00 3.444275e+00 3.604864e+00 3.328828e+00 3.069384e+00 2.973308e+00 2.428294e+00 2.668486e+00
