~o
<STREAMINFO> 1 25
<VECSIZE> 25<NULLD><MFCC_D_N_Z_0><DIAGC>
~s "silst"
<MEAN> 25
 -6.594602e+00 1.842798e+00 -1.454082e+00 4.072430e+00 3.891472e+00 3.248779e+00 3.274877e+00 2.281179e+00 1.339749e+00 1.121793e+00 1.510462e+00 2.972576e+00 -1.028624e-01 2.246566e-02 -3.843592e-03 3.209757e-02 3.686912e-02 4.142706e-02 2.836920e-02 1.479497e-02 1.228062e-02 2.806628e-02 3.830631e-02 2.192514e-02 -1.195962e-01
<VARIANCE> 25
 2.633256e+01 2.680945e+01 2.471695e+01 2.715322e+01 3.032009e+01 3.251495e+01 2.763851e+01 3.131239e+01 3.031279e+01 3.574363e+01 2.791289e+01 2.155711e+01 2.451887e-01 4.830530e-01 6.564687e-01 8.344634e-01 1.091724e+00 1.282923e+00 1.389781e+00 1.523753e+00 1.553633e+00 1.540641e+00 1.426869e+00 1.293627e+00 1.621288e-01
<GCONST> 8.407832e+01
~h "@"
<BEGINHMM>
<NUMSTATES> 5
<STATE> 2
<MEAN> 25
 3.849244e+00 -3.262103e-01 -1.752809e+00 -2.108879e+00 -3.937650e-01 -1.438590e+00 -3.357793e+00 -2.219017e+00 1.183947e+00 1.014948e+00 9.042690e-03 -1.424299e+00 1.971574e+00 -8.088312e-01 -3.530422e-01 -1.038326e+00 -8.003956e-01 -2.262737e-01 -1.278012e+00 3.009042e-02 3.572300e-01 2.986162e-02 -2.510221e-01 -7.257186e-01 1.601572e+00
<VARIANCE> 25
 3.839877e+01 4.413054e+01 4.574601e+01 5.347686e+01 5.543720e+01 7.087769e+01 5.769897e+01 5.872962e+01 5.724162e+01 5.427872e+01 4.657090e+01 3.674899e+01 4.829006e+00 5.622730e+00 5.008550e+00 5.878759e+00 6.155917e+00 7.249803e+00 6.619533e+00 7.355482e+00 6.842436e+00 6.363274e+00 5.408612e+00 4.411559e+00 3.833004e+00
<GCONST> 1.157327e+02
<STATE> 3
<MEAN> 25
 5.618954e+00 -2.107991e+00 -2.371951e+00 -3.343100e+00 -1.312515e+00 -1.847380e+00 -4.711557e+00 -1.426353e+00 1.794769e+00 1.067012e+00 -9.367250e-02 -2.037010e+00 1.042899e+00 -1.990623e-01 7.910581e-02 1.377882e-02 -3.185106e-01 1.511940e-01 -5.025653e-01 5.754018e-02 7.659934e-02 -2.541424e-02 -2.858433e-01 -3.185757e-01 2.528783e-01
<VARIANCE> 25
 2.671302e+01 4.342252e+01 4.569329e+01 5.358841e+01 5.626750e+01 7.180602e+01 5.695953e+01 5.914608e+01 5.942576e+01 6.152948e+01 5.041421e+01 3.989196e+01 2.478477e+00 3.513077e+00 3.390649e+00 4.224260e+00 4.330699e+00 5.067080e+00 4.405628e+00 5.437839e+00 4.773109e+00 4.305672e+00 3.851261e+00 3.078735e+00 2.236540e+00
<GCONST> 1.104350e+02
<STATE> 4
<MEAN> 25
 6.117721e+00 -1.538804e+00 -1.835826e+00 -2.478304e+00 -6.404080e-01 -1.486761e+00 -5.248180e+00 -1.307475e+00 1.868598e+00 1.173104e+00 -5.367359e-01 -2.432877e+00 -6.335606e-02 7.229695e-01 4.422137e-01 9.402089e-01 3.265377e-01 4.051487e-01 3.654298e-01 -1.529763e-01 -2.453255e-01 -1.212135e-01 -2.103586e-01 1.391215e-01 -9.965029e-01
<VARIANCE> 25
 2.212993e+01 4.827735e+01 4.660838e+01 5.770156e+01 5.934175e+01 7.119519e+01 5.680952e+01 6.517525e+01 6.456965e+01 7.034998e+01 5.186064e+01 4.480496e+01 1.362682e+00 2.774077e+00 2.464045e+00 3.300404e+00 3.523391e+00 3.813257e+00 3.444124e+00 3.858902e+00 3.643218e+00 3.583313e+00 3.171941e+00 2.691441e+00 2.264301e+00
<GCONST> 1.076969e+02
<TRANSP> 5
 0.000000e+00 1.000000e+00 0.000000e+00 0.000000e+00 0.000000e+00
 0.000000e+00 2.161603e-01 7.838397e-01 0.000000e+00 0.000000e+00
 0.000000e+00 0.000000e+00 1.348341e-02 9.865166e-01 0.000000e+00
 0.000000e+00 0.000000e+00 0.000000e+00 4.341012e-01 5.658988e-01
 0.000000e+00 0.000000e+00 0.000000e+00 0.000000e+00 0.000000e+00
<ENDHMM>
~h "a"
<BEGINHMM>
<NUMSTATES> 5
<STATE> 2
<MEAN> 25
 4.806621e+00 -6.412157e+00 -3.950679e+00 -4.141895e+00 -5.168000e-01 -1.001460e+00 -6.597316e-01 2.524912e+00 2.230285e+00 -1.436616e-01 -1.997873e+00 -2.562920e+00 4.181322e-01 -1.329916e+00 -8.173390e-01 -6.790212e-01 4.845614e-01 2.465327e-01 2.925159e-01 7.931084e-01 2.412262e-01 -3.887432e-01 -6.988131e-01 -5.165078e-01 1.082528e+00
<VARIANCE> 25
 2.462854e+01 3.960118e+01 5.064538e+01 5.156321e+01 6.835530e+01 7.413641e+01 6.216069e+01 6.566596e+01 5.612029e+01 5.376358e+01 5.244569e+01 4.465849e+01 1.972430e+00 2.979041e+00 3.334301e+00 3.618287e+00 4.676771e+00 4.701295e+00 4.649811e+00 5.308068e+00 4.605145e+00 4.242364e+00 4.207723e+00 3.512589e+00 2.321657e+00
<GCONST> 1.103787e+02
<STATE> 3
<MEAN> 25
 4.969566e+00 -8.957495e+00 -5.325971e+00 -5.387082e+00 9.756732e-01 -2.544517e-01 1.024032e-01 3.510420e+00 2.243118e+00 -9.558793e-01 -3.700833e+00 -3.488516e+00 7.832050e-03 2.014279e-01 9.932322e-05 2.601155e-01 1.514165e-01 2.542073e-02 1.086715e-01 -8.427130e-02 -1.338602e-01 -2.095765e-02 -8.968098e-02 1.405648e-01 -3.108473e-01
<VARIANCE> 25
 1.587662e+01 3.086118e+01 4.017303e+01 3.955212e+01 6.092464e+01 6.356277e+01 5.662773e+01 5.955130e+01 5.484441e+01 5.274872e+01 5.259557e+01 4.634561e+01 4.001453e-01 1.146634e+00 1.209587e+00 1.412170e+00 2.032403e+00 2.196886e+00 2.116025e+00 2.314233e+00 1.986766e+00 2.102572e+00 2.045946e+00 1.745253e+00 6.125255e-01
<GCONST> 9.671936e+01
<STATE> 4
<MEAN> 25
 3.715862e+00 -3.526809e+00 -4.094565e+00 -1.257594e+00 1.073201e+00 -3.972270e-01 8.537495e-01 2.346342e+00 1.317900e+00 -6.320646e-01 -2.371930e+00 -1.190560e+00 -3.855169e-01 1.240766e+00 5.217770e-01 8.901608e-01 1.434221e-01 2.596653e-01 3.843090e-02 -3.746054e-01 -1.560079e-01 1.076948e-01 2.343668e-01 3.137820e-01 -1.424915e+00
<VARIANCE> 25
 2.079588e+01 3.093351e+01 3.998575e+01 4.363161e+01 5.353045e+01 5.524179e+01 4.799800e+01 4.777182e+01 4.790835e+01 4.756183e+01 4.551877e+01 3.329003e+01 9.940303e-01 1.661759e+00 1.880720e+00 2.203793e+00 2.716083e+00 2.817882e+00 2.928129e+00 3.091367e+00 2.914876e+00 2.844410e+00 2.690174e+00 2.290197e+00 1.111316e+00
<GCONST> 1.008629e+02
<TRANSP> 5
 0.000000e+00 1.000000e+00 0.000000e+00 0.000000e+00 0.000000e+00
 0.000000e+00 4.796944e-01 5.203056e-01 0.000000e+00 0.000000e+00
 0.000000e+00 0.000000e+00 6.837865e-01 3.162135e-01 0.000000e+00
 0.000000e+00 0.000000e+00 0.000000e+00 6.513091e-01 3.486909e-01
 0.000000e+00 0.000000e+00 0.000000e+00 0.000000e+00 0.000000e+00
<ENDHMM>
~h "b"
<BEGINHMM>
<NUMSTATES> 5
<STATE> 2
<MEAN> 25
 4.306774e+00 8.258798e+00 2.726989e+00 4.601172e+00 1.978721e+00 1.540194e+00 -7.253620e-01 -2.885105e+00 -2.488913e+00 -1.824724e+00 -1.507127e+00 -1.600554e+00 3.265609e-02 8.041637e-01 2.663420e-01 5.354155e-01 3.609606e-01 1.110092e-01 2.431775e-01 -1.069145e-01 -1.548659e-01 -2.300358e-01 -1.524902e-01 -3.479577e-02 -4.340265e-01
<VARIANCE> 25
 2.631573e+01 3.352011e+01 2.925904e+01 3.110523e+01 3.112073e+01 3.868703e+01 3.692329e+01 3.993729e+01 3.765820e+01 3.392714e+01 2.988975e+01 2.733200e+01 1.375500e+00 2.534559e+00 2.085890e+00 2.745057e+00 2.386231e+00 2.725774e+00 2.854758e+00 2.723747e+00 2.732664e+00 2.712528e+00 2.497570e+00 2.029936e+00 2.026089e+00
<GCONST> 9.904057e+01
<STATE> 3
<MEAN> 25
 4.362594e+00 8.265409e+00 2.461479e+00 4.615001e+00 2.367783e+00 1.614022e+00 -5.113807e-01 -3.674599e+00 -3.108287e+00 -1.765724e+00 -9.943874e-01 -9.672813e-01 7.108335e-01 -1.784968e+00 -1.105498e+00 -1.860651e+00 -1.035037e+00 -1.061914e+00 -1.359477e+00 -3.465359e-01 5.184935e-01 8.217773e-01 1.181735e+00 1.841412e-01 2.359312e+00
<VARIANCE> 25
 2.502208e+01 4.031162e+01 3.077474e+01 3.492783e+01 3.341575e+01 3.992958e+01 3.766536e+01 4.043101e+01 3.825369e+01 3.339169e+01 3.153971e+01 2.855758e+01 3.110209e+00 4.712653e+00 4.786879e+00 5.940007e+00 4.875868e+00 5.689572e+00 5.210419e+00 5.208740e+00 5.997654e+00 6.798380e+00 4.973343e+00 3.895964e+00 3.049161e+00
<GCONST> 1.087669e+02
<STATE> 4
<MEAN> 25
 6.664461e+00 1.961592e+00 -1.262509e+00 -1.594611e+00 -1.019033e+00 -1.019613e+00 -5.493157e+00 -3.916722e+00 -9.058774e-03 1.888160e+00 2.866534e+00 -1.732828e+00 3.101023e-01 -2.607242e+00 -7.753995e-01 -2.008104e+00 -1.317504e+00 -1.064172e+00 -1.083350e+00 9.409186e-01 1.316847e+00 7.720146e-01 5.438320e-01 -4.833504e-01 2.660466e+00
<VARIANCE> 25
 2.631185e+01 4.809236e+01 4.632067e+01 7.548124e+01 5.129391e+01 7.708823e+01 5.904016e+01 6.439900e+01 6.455460e+01 8.135477e+01 6.084108e+01 4.611031e+01 2.736609e+00 5.347600e+00 6.169693e+00 7.366312e+00 6.572527e+00 7.881279e+00 8.034797e+00 8.400462e+00 8.764998e+00 8.758603e+00 7.239775e+00 6.800045e+00 3.641499e+00
<GCONST> 1.184701e+02
<TRANSP> 5
 0.000000e+00 1.000000e+00 0.000000e+00 0.000000e+00 0.000000e+00
 0.000000e+00 6.641978e-01 3.358022e-01 0.000000e+00 0.000000e+00
 0.000000e+00 0.000000e+00 3.446084e-01 6.553916e-01 0.000000e+00
 0.000000e+00 0.000000e+00 0.000000e+00 3.690388e-01 6.309612e-01
 0.000000e+00 0.000000e+00 0.000000e+00 0.000000e+00 0.000000e+00
<ENDHMM>
~h "c"
<BEGINHMM>
<NUMSTATES> 5
<STATE> 2
<MEAN> 25
 -7.366331e+00 5.196518e+00 7.219735e-01 1.906837e+00 3.310897e+00 -5.220284e-01 2.016506e+00 -1.303490e-01 1.417948e+00 2.090287e-02 1.640763e+00 1.606876e+00 -2.553415e+00 2.455227e-01 -1.590964e-01 -8.685600e-01 3.903971e-01 9.199181e-02 6.364537e-01 -4.028132e-02 5.478983e-01 1.565925e-01 5.187621e-01 2.728767e-01 7.672117e-01
<VARIANCE> 25
 6.738961e+01 4.289434e+01 4.754362e+01 4.359550e+01 4.549101e+01 5.321022e+01 4.638572e+01 4.917245e+01 4.243389e+01 3.540843e+01 3.613869e+01 2.679855e+01 4.898605e+00 4.399844e+00 5.037862e+00 4.796852e+00 4.738455e+00 5.031750e+00 4.114978e+00 4.742813e+00 3.887712e+00 3.557281e+00 3.205173e+00 2.458534e+00 6.423309e+00
<GCONST> 1.102167e+02
<STATE> 3
<MEAN> 25
 -1.441170e+01 3.934285e-01 5.921916e+00 -2.067641e+00 -2.363330e-01 1.634910e+00 3.631109e+00 -1.502169e+00 2.478176e+00 1.210133e-01 3.307167e+00 2.923359e+00 1.276045e+00 -1.351717e+00 1.165127e+00 -1.089604e-01 -1.644027e+00 -1.095185e+00 -5.876526e-01 -1.583628e-01 -2.207374e-01 -4.529285e-01 -1.988574e-02 -5.055999e-03 1.651597e+00
<VARIANCE> 25
 6.059061e+01 1.383412e+02 1.128344e+02 7.526058e+01 8.507755e+01 1.137840e+02 6.674808e+01 6.880063e+01 5.191145e+01 5.549393e+01 4.555614e+01 3.734444e+01 1.002334e+01 7.726205e+00 7.295778e+00 5.812490e+00 6.889001e+00 6.874212e+00 5.325404e+00 5.453637e+00 4.901898e+00 4.341126e+00 4.047889e+00 2.927948e+00 4.033890e+00
<GCONST> 1.192909e+02
<STATE> 4
<MEAN> 25
 -2.715872e+00 -8.376459e-01 4.619544e+00 -7.626878e-01 -3.970277e+00 -5.340508e+00 -6.337228e-01 -6.224357e-01 1.226650e+00 -1.958948e+00 6.609740e-01 1.586738e+00 4.578063e+00 -1.356830e+00 -1.004202e+00 -1.933696e-01 -1.231945e+00 -1.484470e+00 -1.258197e+00 2.898422e-01 -4.106766e-01 -2.431775e-01 -9.441303e-01 -7.941812e-01 1.459441e+00
<VARIANCE> 25
 4.170548e+01 5.550603e+01 4.596682e+01 4.479182e+01 5.224140e+01 7.200162e+01 5.322888e+01 6.050193e+01 4.373618e+01 3.453213e+01 3.488995e+01 2.666790e+01 3.795542e+00 9.159626e+00 9.245719e+00 5.049238e+00 7.550623e+00 6.848585e+00 5.879105e+00 6.788906e+00 5.805827e+00 5.906974e+00 5.064600e+00 3.416492e+00 1.876749e+00
<GCONST> 1.138294e+02
<TRANSP> 5
 0.000000e+00 1.000000e+00 0.000000e+00 0.000000e+00 0.000000e+00
 0.000000e+00 7.516283e-01 2.483716e-01 0.000000e+00 0.000000e+00
 0.000000e+00 0.000000e+00 6.138201e-01 3.861799e-01 0.000000e+00
 0.000000e+00 0.000000e+00 0.000000e+00 4.469285e-01 5.530715e-01
 0.000000e+00 0.000000e+00 0.000000e+00 0.000000e+00 0.000000e+00
<ENDHMM>
~h "d"
<BEGINHMM>
<NUMSTATES> 5
<STATE> 2
<MEAN> 25
 3.343382e+00 5.280580e+00 4.075332e+00 6.405852e+00 6.317712e-01 -8.843201e-01 -1.723012e+00 -9.339443e-01 -1.634647e-01 -2.158322e+00 -2.357313e+00 -6.139755e-01 9.840161e-02 6.223441e-01 5.600965e-01 6.003003e-01 2.534790e-01 -8.761946e-02 -2.076423e-02 -1.744181e-01 -1.920255e-01 -3.175793e-01 -8.451024e-02 -1.312479e-02 -2.303124e-01
<VARIANCE> 25
 3.744115e+01 5.349387e+01 4.030159e+01 4.556968e+01 6.030110e+01 5.295531e+01 5.108437e+01 4.954005e+01 4.413374e+01 3.995576e+01 4.087974e+01 3.166361e+01 2.584831e+00 5.442482e+00 3.153012e+00 4.518178e+00 4.672415e+00 4.824403e+00 4.821462e+00 4.535336e+00 4.074503e+00 3.900600e+00 3.684886e+00 3.010756e+00 4.732646e+00
<GCONST> 1.098383e+02
<STATE> 3
<MEAN> 25
 2.917043e+00 2.422241e+00 5.363946e+00 4.980992e+00 -3.475406e-01 -2.389038e+00 -2.464093e+00 -1.292848e+00 -1.004534e+00 -2.897413e+00 -8.151537e-01 7.727960e-01 -1.423032e-01 -2.723388e+00 5.660815e-01 -1.996341e+00 -2.008732e+00 -1.604935e+00 -1.210958e+00 5.367825e-01 4.274733e-02 4.422884e-02 1.470510e+00 6.579016e-01 3.198470e+00
<VARIANCE> 25
 2.408162e+01 5.262798e+01 4.006677e+01 4.914005e+01 6.162063e+01 6.297613e+01 5.393338e+01 5.092609e+01 4.865429e+01 3.937079e+01 4.004275e+01 3.666803e+01 3.648884e+00 4.947774e+00 5.791206e+00 5.719491e+00 6.687563e+00 7.381014e+00 7.561838e+00 8.843400e+00 7.500700e+00 6.444520e+00 5.227654e+00 4.028102e+00 3.708127e+00
<GCONST> 1.144399e+02
<STATE> 4
<MEAN> 25
 3.477873e+00 -3.019506e+00 6.148835e+00 1.639234e-01 -6.344486e+00 -6.383770e+00 -5.880783e+00 1.119599e+00 -1.215875e-03 -1.860472e+00 2.459211e+00 1.313758e+00 1.156991e-01 -1.330348e+00 -6.531170e-02 -1.824463e+00 -1.549914e+00 -6.660079e-01 -4.445471e-01 8.276415e-01 2.807544e-01 6.865785e-01 6.232017e-01 -4.019598e-01 1.845822e+00
<VARIANCE> 25
 2.328919e+01 3.487297e+01 5.485749e+01 6.131248e+01 7.780978e+01 6.383930e+01 7.612538e+01 8.712020e+01 7.670330e+01 5.956667e+01 5.091607e+01 3.916120e+01 1.784593e+00 3.040837e+00 5.769705e+00 4.308599e+00 6.174176e+00 5.590291e+00 6.408797e+00 7.018230e+00 6.100842e+00 4.921344e+00 5.476336e+00 4.230465e+00 2.329250e+00
<GCONST> 1.137450e+02
<TRANSP> 5
 0.000000e+00 1.000000e+00 0.000000e+00 0.000000e+00 0.000000e+00
 0.000000e+00 6.005740e-01 3.994260e-01 0.000000e+00 0.000000e+00
 0.000000e+00 0.000000e+00 4.035783e-01 5.964218e-01 0.000000e+00
 0.000000e+00 0.000000e+00 0.000000e+00 2.923411e-01 7.076589e-01
 0.000000e+00 0.000000e+00 0.000000e+00 0.000000e+00 0.000000e+00
<ENDHMM>
~h "e"
<BEGINHMM>
<NUMSTATES> 5
<STATE> 2
<MEAN> 25
 3.217577e+00 -4.107361e+00 1.691268e+00 -1.636740e-01 -5.372940e+00 -5.295850e+00 -2.215341e-01 2.457713e+00 4.702429e-02 -4.148962e-01 6.409262e-01 -7.077947e-02 5.873835e-01 -1.171221e+00 4.176584e-01 -6.458710e-01 -1.209714e+00 -8.890029e-01 3.976946e-01 1.027534e+00 -3.395941e-01 -2.064747e-01 2.116828e-01 -1.027312e-01 1.372767e+00
<VARIANCE> 25
 4.386223e+01 5.506649e+01 6.963097e+01 5.494016e+01 7.680561e+01 9.214918e+01 7.172371e+01 8.114285e+01 6.702158e+01 5.661915e+01 5.438823e+01 4.099939e+01 3.710022e+00 4.420893e+00 5.462998e+00 4.747236e+00 6.149931e+00 7.349088e+00 5.807723e+00 6.937430e+00 5.750456e+00 5.068786e+00 4.818143e+00 3.693817e+00 3.672192e+00
<GCONST> 1.165831e+02
<STATE> 3
<MEAN> 25
 3.638922e+00 -5.999270e+00 4.792118e+00 -1.465887e+00 -9.385339e+00 -8.211230e+00 1.267981e+00 5.306078e+00 -2.173998e+00 -1.790883e-01 2.506586e+00 -7.429322e-01 -1.013931e-01 3.807523e-01 -1.471642e-02 2.315521e-01 2.044046e-01 3.044742e-01 3.486854e-01 -1.237165e-01 -1.145100e-01 1.042591e-01 -1.336713e-01 3.534683e-02 -5.309300e-01
<VARIANCE> 25
 2.219113e+01 4.232813e+01 7.303328e+01 5.319564e+01 6.844561e+01 7.727252e+01 7.421217e+01 8.234848e+01 6.608229e+01 5.396979e+01 5.341133e+01 3.788407e+01 7.450479e-01 1.835647e+00 2.073869e+00 2.219725e+00 2.685359e+00 2.721880e+00 2.864583e+00 2.890889e+00 2.890901e+00 2.524551e+00 2.481930e+00 1.912679e+00 1.728711e+00
<GCONST> 1.041757e+02
<STATE> 4
<MEAN> 25
 2.197157e+00 -2.462338e+00 1.479917e+00 -6.111323e-01 -4.696607e+00 -4.013600e+00 1.449337e+00 1.818611e+00 -6.105329e-01 6.811981e-01 1.217928e-01 -1.454881e-01 -1.757961e-01 4.722980e-01 -1.193898e-01 3.016010e-01 5.288279e-01 3.847286e-01 -9.950793e-03 -1.982002e-01 6.928062e-02 -1.060998e-02 -1.100788e-01 3.885560e-02 -6.188939e-01
<VARIANCE> 25
 2.248563e+01 3.474576e+01 4.775888e+01 4.116431e+01 5.388381e+01 5.213437e+01 5.303341e+01 5.318229e+01 4.557647e+01 4.015267e+01 3.552172e+01 2.770108e+01 5.009832e-01 9.357541e-01 1.038822e+00 1.165899e+00 1.811841e+00 1.767692e+00 1.817673e+00 1.846460e+00 1.762577e+00 1.720491e+00 1.565266e+00 1.357781e+00 5.824656e-01
<GCONST> 9.361226e+01
<TRANSP> 5
 0.000000e+00 1.000000e+00 0.000000e+00 0.000000e+00 0.000000e+00
 0.000000e+00 5.483879e-01 4.516121e-01 0.000000e+00 0.000000e+00
 0.000000e+00 0.000000e+00 6.554438e-01 3.445561e-01 0.000000e+00
 0.000000e+00 0.000000e+00 0.000000e+00 7.634789e-01 2.365211e-01
 0.000000e+00 0.000000e+00 0.000000e+00 0.000000e+00 0.000000e+00
<ENDHMM>
~h "f"
<BEGINHMM>
<NUMSTATES> 5
<STATE> 2
<MEAN> 25
 -2.259179e+00 2.079502e+00 2.148660e+00 5.357012e+00 2.270904e+00 5.485378e-03 1.763023e+00 1.040995e-01 6.112552e-01 -1.516998e-02 9.128069e-01 6.244483e-01 -2.465726e+00 -1.080911e-01 -4.562577e-01 6.863908e-01 1.112295e+00 3.187051e-01 6.135688e-01 4.563558e-01 1.086215e+00 2.725712e-01 3.116591e-01 4.895412e-01 -7.361850e-01
<VARIANCE> 25
 4.153047e+01 3.007457e+01 5.402338e+01 5.309275e+01 5.013039e+01 5.999607e+01 3.980801e+01 4.593577e+01 3.659688e+01 3.422038e+01 3.017451e+01 2.834486e+01 2.688902e+00 3.488570e+00 3.553848e+00 4.611939e+00 5.124366e+00 5.320114e+00 3.967574e+00 4.162932e+00 3.850805e+00 3.552551e+00 3.410632e+00 2.467769e+00 1.728845e+00
<GCONST> 1.068817e+02
<STATE> 3
<MEAN> 25
 -9.069080e+00 -5.718663e-01 -1.638787e-01 4.322017e+00 3.587887e+00 -2.899441e-01 2.906380e+00 6.777279e-01 2.459383e+00 1.155886e+00 1.646438e+00 2.121752e+00 -1.265196e-01 -3.943541e-01 -1.130332e-01 -2.092068e-01 -2.267238e-01 -1.886530e-01 -2.271813e-02 -5.807906e-02 -1.384832e-01 -1.417677e-02 -3.625554e-02 3.062957e-02 -8.653250e-02
<VARIANCE> 25
 3.027274e+01 2.825954e+01 3.546181e+01 4.033227e+01 3.344725e+01 4.767094e+01 3.024943e+01 3.443509e+01 2.890645e+01 2.756140e+01 2.490440e+01 2.431508e+01 2.611681e+00 1.823569e+00 1.851795e+00 1.914357e+00 2.003548e+00 2.510060e+00 2.181550e+00 2.210094e+00 2.406354e+00 2.072420e+00 1.793661e+00 1.681139e+00 1.222752e+00
<GCONST> 9.629995e+01
<STATE> 4
<MEAN> 25
 -4.994191e+00 -1.704231e+00 3.579891e-01 2.870184e+00 2.615376e+00 1.504313e+00 8.605993e-01 -1.016036e+00 5.660664e-01 5.333558e-01 8.052953e-01 9.646736e-01 2.690389e+00 1.104959e-01 2.313545e-01 -1.114685e+00 -1.398864e+00 -6.047267e-01 -9.564903e-01 -5.854735e-01 -1.019260e+00 -3.487503e-01 -1.766435e-01 -6.466306e-01 1.302488e+00
<VARIANCE> 25
 6.446885e+01 5.917782e+01 7.365273e+01 9.313274e+01 7.205449e+01 1.085031e+02 5.912718e+01 5.659131e+01 5.431543e+01 3.849382e+01 3.518976e+01 3.307337e+01 6.404925e+00 6.401727e+00 7.659266e+00 8.502022e+00 7.451799e+00 9.717802e+00 5.114428e+00 5.399729e+00 6.289430e+00 4.415288e+00 4.482206e+00 3.739522e+00 3.780485e+00
<GCONST> 1.177751e+02
<TRANSP> 5
 0.000000e+00 1.000000e+00 0.000000e+00 0.000000e+00 0.000000e+00
 0.000000e+00 6.319551e-01 3.680449e-01 0.000000e+00 0.000000e+00
 0.000000e+00 0.000000e+00 7.497188e-01 2.502812e-01 0.000000e+00
 0.000000e+00 0.000000e+00 0.000000e+00 5.234721e-01 4.765279e-01
 0.000000e+00 0.000000e+00 0.000000e+00 0.000000e+00 0.000000e+00
<ENDHMM>
~h "g"
<BEGINHMM>
<NUMSTATES> 5
<STATE> 2
<MEAN> 25
 3.506270e+00 5.793720e+00 4.282443e+00 4.047600e+00 1.789120e-01 -8.403397e-01 -2.142533e+00 -2.373968e+00 -2.363227e+00 -7.620006e-01 -1.112306e+00 -1.909801e+00 -3.608117e-01 5.075794e-01 1.103313e-01 5.853173e-01 5.798701e-01 1.206884e-01 1.907023e-01 -2.517752e-02 3.968898e-02 -4.135121e-02 -1.382380e-01 2.968037e-02 -6.093416e-01
<VARIANCE> 25
 2.208232e+01 3.771019e+01 3.458707e+01 3.814004e+01 5.280568e+01 5.121871e+01 4.679144e+01 4.722016e+01 4.530890e+01 4.177132e+01 3.530106e+01 3.056132e+01 1.610442e+00 3.654449e+00 3.161441e+00 3.554364e+00 4.140591e+00 4.487669e+00 4.248059e+00 3.991847e+00 4.127347e+00 3.618690e+00 3.153813e+00 2.800269e+00 2.832373e+00
<GCONST> 1.058567e+02
<STATE> 3
<MEAN> 25
 1.891631e+00 2.812068e+00 3.066594e+00 3.782887e+00 1.919758e+00 -2.723923e+00 -3.198305e+00 -1.616010e+00 -2.205291e+00 2.364024e-01 -1.897111e-01 -1.051525e+00 -1.636187e-01 -1.733570e+00 -1.315384e-02 -1.286555e+00 -6.954074e-01 -1.458219e+00 -8.974685e-01 6.833592e-01 1.994266e-01 3.040493e-01 7.034583e-01 1.510755e-01 2.207141e+00
<VARIANCE> 25
 3.085470e+01 5.841027e+01 5.571229e+01 5.159429e+01 7.817722e+01 7.441370e+01 6.949920e+01 5.842487e+01 5.232969e+01 5.164692e+01 4.447186e+01 3.609802e+01 4.271271e+00 5.866022e+00 6.895149e+00 6.005483e+00 1.049796e+01 7.552395e+00 7.519311e+00 7.450658e+00 6.593636e+00 6.310418e+00 5.329303e+00 4.599850e+00 3.265442e+00
<GCONST> 1.171224e+02
<STATE> 4
<MEAN> 25
 2.161660e+00 2.090912e-01 3.899236e+00 -1.885815e-01 -2.626039e+00 -5.232800e+00 -4.563701e+00 4.636707e-01 -1.062704e+00 4.220952e-01 1.784834e+00 -7.892895e-01 2.182556e-01 -8.535852e-01 6.405903e-02 -1.452586e+00 -1.192713e+00 -2.190865e-01 -1.650422e-01 5.363047e-01 3.698144e-01 9.514422e-02 3.071650e-01 -1.001483e-01 1.289968e+00
<VARIANCE> 25
 4.536962e+01 4.949020e+01 6.047793e+01 5.996011e+01 8.244853e+01 9.304159e+01 7.881111e+01 7.573611e+01 6.992945e+01 7.504613e+01 6.224324e+01 4.511101e+01 1.947228e+00 2.935674e+00 5.219466e+00 4.173562e+00 5.172393e+00 4.429767e+00 4.583215e+00 5.368172e+00 5.479999e+00 4.370412e+00 4.361745e+00 3.506324e+00 1.796568e+00
<GCONST> 1.136532e+02
<TRANSP> 5
 0.000000e+00 1.000000e+00 0.000000e+00 0.000000e+00 0.000000e+00
 0.000000e+00 5.823244e-01 4.176755e-01 0.000000e+00 0.000000e+00
 0.000000e+00 0.000000e+00 5.233638e-01 4.766362e-01 0.000000e+00
 0.000000e+00 0.000000e+00 0.000000e+00 3.354780e-01 6.645220e-01
 0.000000e+00 0.000000e+00 0.000000e+00 0.000000e+00 0.000000e+00
<ENDHMM>
~h "h"
<BEGINHMM>
<NUMSTATES> 5
<STATE> 2
<MEAN> 25
 7.877479e-01 -2.272018e+00 -6.973063e-01 6.886059e-01 3.041085e+00 1.265897e+00 2.759095e+00 1.045009e+00 4.036079e-01 -8.603992e-01 -1.201347e+00 2.672798e-01 -8.131621e-01 1.620147e-01 -3.119702e-02 6.648823e-01 8.582413e-01 4.640757e-01 6.074149e-01 2.172888e-01 1.821727e-01 -4.444965e-02 1.192132e-01 3.508922e-01 -8.452276e-01
<VARIANCE> 25
 4.004534e+01 5.437763e+01 6.134535e+01 6.286952e+01 8.884935e+01 7.247012e+01 7.277611e+01 6.584951e+01 5.915511e+01 6.821958e+01 5.699625e+01 3.984929e+01 2.535105e+00 3.990614e+00 3.862113e+00 4.048075e+00 5.094827e+00 4.795117e+00 5.088108e+00 4.708333e+00 4.466647e+00 4.423633e+00 3.882498e+00 3.159102e+00 2.833622e+00
<GCONST> 1.131339e+02
<STATE> 3
<MEAN> 25
 -2.543664e+00 -3.534673e+00 -1.958163e+00 2.589558e+00 5.515611e+00 3.290636e+00 4.402070e+00 2.307756e+00 8.080882e-01 -1.754105e+00 -1.230445e+00 1.591902e+00 -4.366573e-01 2.195424e-01 -1.184377e-01 1.773879e-01 5.476285e-02 1.520244e-01 2.718159e-02 -1.415497e-02 4.567062e-02 1.331421e-01 1.271266e-01 9.180400e-02 -7.425857e-01
<VARIANCE> 25
 4.941028e+01 6.093807e+01 6.285875e+01 5.718858e+01 8.229169e+01 6.634824e+01 6.512496e+01 6.512084e+01 5.831290e+01 5.461742e+01 6.169273e+01 4.100712e+01 9.425170e-01 1.680732e+00 1.894752e+00 2.024950e+00 2.587682e+00 2.544800e+00 2.680115e+00 2.809335e+00 2.688447e+00 2.572877e+00 2.409578e+00 2.082301e+00 9.490269e-01
<GCONST> 1.042069e+02
<STATE> 4
<MEAN> 25
 -1.118177e+00 -2.574631e+00 -2.889813e+00 7.884788e-01 2.993209e+00 1.604103e+00 2.613002e+00 7.084952e-01 4.933978e-01 -8.523588e-01 -1.448623e+00 3.473746e-01 -7.533581e-02 2.260694e-01 -3.651968e-03 1.647840e-03 -1.015533e-01 -5.348716e-02 -9.361330e-02 -1.124917e-01 -6.561399e-02 3.363712e-02 1.941620e-02 -1.432084e-02 -3.060132e-01
<VARIANCE> 25
 2.805251e+01 3.937896e+01 4.161715e+01 3.641109e+01 5.012924e+01 3.982323e+01 3.915929e+01 3.980620e+01 3.725731e+01 3.917273e+01 3.540192e+01 2.852973e+01 5.306922e-01 8.567293e-01 1.124837e+00 1.188103e+00 1.539249e+00 1.616158e+00 1.732478e+00 1.852398e+00 1.776648e+00 1.765492e+00 1.642429e+00 1.476189e+00 4.426010e-01
<GCONST> 9.222476e+01
<TRANSP> 5
 0.000000e+00 1.000000e+00 0.000000e+00 0.000000e+00 0.000000e+00
 0.000000e+00 5.029420e-01 4.970580e-01 0.000000e+00 0.000000e+00
 0.000000e+00 0.000000e+00 5.858346e-01 4.141654e-01 0.000000e+00
 0.000000e+00 0.000000e+00 0.000000e+00 7.111385e-01 2.888615e-01
 0.000000e+00 0.000000e+00 0.000000e+00 0.000000e+00 0.000000e+00
<ENDHMM>
~h "i"
<BEGINHMM>
<NUMSTATES> 5
<STATE> 2
<MEAN> 25
 5.313291e-01 8.762399e-01 1.136299e+01 1.000709e+00 -6.958944e+00 -4.798385e+00 -3.029364e+00 -3.839327e+00 -4.451181e+00 -6.634325e-01 2.109247e+00 -3.270445e-01 4.910499e-01 -2.327261e-01 2.330144e+00 -9.382018e-01 -2.103258e+00 -4.692022e-01 -1.037412e+00 -3.974690e-01 -1.131600e+00 8.550221e-02 6.191965e-01 -3.201379e-01 1.236182e+00
<VARIANCE> 25
 3.079103e+01 5.083337e+01 7.031541e+01 8.326562e+01 9.352509e+01 7.937789e+01 6.636303e+01 6.843312e+01 6.227718e+01 5.194503e+01 5.310218e+01 3.863310e+01 4.104485e+00 3.857184e+00 6.280487e+00 7.233017e+00 7.181909e+00 7.537065e+00 6.553102e+00 6.445661e+00 6.253239e+00 5.348074e+00 5.748693e+00 3.881871e+00 2.342580e+00
<GCONST> 1.167985e+02
<STATE> 3
<MEAN> 25
 2.888058e-01 1.669506e+00 1.662068e+01 -1.893935e+00 -1.229859e+01 -3.970626e+00 -4.512138e+00 -4.288332e+00 -7.667303e+00 -3.694313e-01 4.627894e+00 -1.589302e+00 8.705008e-02 1.966164e-01 -1.117608e-01 -1.170538e-02 3.637831e-02 8.012456e-02 2.486313e-03 2.772636e-02 1.161316e-01 1.570292e-01 -1.675039e-01 4.379074e-02 -2.307468e-01
<VARIANCE> 25
 1.480017e+01 3.665419e+01 6.083098e+01 7.220041e+01 6.390923e+01 7.919118e+01 5.415893e+01 6.280256e+01 6.135381e+01 5.993960e+01 6.044446e+01 4.195660e+01 6.993779e-01 1.417352e+00 2.218379e+00 2.156390e+00 2.553975e+00 2.748726e+00 2.593451e+00 2.859654e+00 2.584900e+00 2.223458e+00 2.227582e+00 1.840541e+00 9.461534e-01
<GCONST> 1.019535e+02
<STATE> 4
<MEAN> 25
 2.439569e-01 3.570438e+00 1.031466e+01 1.109313e+00 -4.657011e+00 -2.611380e+00 -3.901632e+00 -4.566909e+00 -2.570250e+00 -3.081241e-01 -5.369515e-01 1.453959e-01 -1.235311e-01 3.344636e-01 -1.144780e+00 6.908948e-01 1.076360e+00 3.814227e-01 5.231633e-01 3.073407e-01 4.529931e-01 -9.559609e-02 -2.118777e-01 1.824577e-01 -1.052376e+00
<VARIANCE> 25
 2.047586e+01 4.508086e+01 4.608315e+01 1.123895e+02 7.846162e+01 6.903331e+01 6.795792e+01 5.455076e+01 5.503511e+01 4.807074e+01 4.972362e+01 3.915884e+01 1.113432e+00 1.876285e+00 2.420980e+00 3.125830e+00 3.429390e+00 3.226124e+00 3.252955e+00 3.033279e+00 3.048409e+00 2.885667e+00 2.802227e+00 2.179686e+00 1.457005e+00
<GCONST> 1.054108e+02
<TRANSP> 5
 0.000000e+00 1.000000e+00 0.000000e+00 0.000000e+00 0.000000e+00
 0.000000e+00 5.281741e-01 4.718259e-01 0.000000e+00 0.000000e+00
 0.000000e+00 0.000000e+00 6.918121e-01 3.081878e-01 0.000000e+00
 0.000000e+00 0.000000e+00 0.000000e+00 7.306764e-01 2.693236e-01
 0.000000e+00 0.000000e+00 0.000000e+00 0.000000e+00 0.000000e+00
<ENDHMM>
~h "j"
<BEGINHMM>
<NUMSTATES> 5
<STATE> 2
<MEAN> 25
 -2.326095e+00 7.460903e+00 5.384368e+00 4.200471e+00 2.233578e+00 -9.186012e-01 5.889648e-01 -8.170972e-01 -7.321753e-01 -2.189826e+00 -3.668392e-01 5.157262e-01 -1.516260e+00 5.351893e-01 5.465752e-01 -4.114121e-01 3.170540e-01 -1.788851e-02 2.736668e-01 -3.453196e-01 1.123511e-01 -2.528071e-02 2.742153e-01 1.603329e-01 5.793731e-01
<VARIANCE> 25
 6.325000e+01 4.659318e+01 4.998969e+01 4.644185e+01 5.432790e+01 5.423215e+01 4.377398e+01 4.124474e+01 3.891245e+01 3.359661e+01 3.126449e+01 2.862784e+01 5.371913e+00 4.666481e+00 4.487059e+00 5.072553e+00 5.464107e+00 5.494462e+00 4.324766e+00 4.114420e+00 3.943333e+00 3.492810e+00 3.238375e+00 2.607883e+00 5.281584e+00
<GCONST> 1.101930e+02
<STATE> 3
<MEAN> 25
 -5.118616e+00 4.314106e+00 1.157025e+01 1.588027e+00 -2.924094e+00 -3.892459e+00 -1.504023e+00 -3.823230e+00 -2.431815e+00 -2.317674e+00 2.100545e+00 2.014491e+00 1.582311e+00 -1.831059e+00 1.290066e+00 -4.947661e-01 -2.823195e+00 -2.011052e+00 -1.559525e+00 -1.277775e-01 -7.182255e-01 1.976089e-02 8.780857e-01 3.608392e-01 1.926820e+00
<VARIANCE> 25
 4.800761e+01 8.118890e+01 5.960987e+01 6.328134e+01 7.716908e+01 8.155062e+01 5.924004e+01 4.910606e+01 4.484498e+01 4.389431e+01 3.614425e+01 3.638231e+01 6.302175e+00 6.511298e+00 6.837739e+00 6.014619e+00 7.740920e+00 6.014895e+00 5.959092e+00 6.144893e+00 4.916616e+00 5.302244e+00 4.153576e+00 3.334186e+00 2.369225e+00
<GCONST> 1.155638e+02
<STATE> 4
<MEAN> 25
 1.618317e+00 -1.138097e+00 1.041714e+01 -8.594359e-01 -9.904020e+00 -9.202071e+00 -5.111450e+00 1.152957e+00 -2.013270e+00 -1.028898e+00 3.859916e+00 2.462719e+00 1.186599e+00 -1.314815e+00 -1.487058e+00 -5.154903e-01 -5.216327e-02 -6.245065e-03 -2.676676e-01 1.230883e+00 8.550031e-01 4.386782e-01 -3.303677e-01 -6.890774e-01 5.002724e-01
<VARIANCE> 25
 1.553162e+01 3.228965e+01 4.230494e+01 6.152463e+01 5.670683e+01 4.774954e+01 5.935842e+01 7.200263e+01 5.229872e+01 5.265835e+01 4.058890e+01 3.498395e+01 1.582247e+00 3.230370e+00 3.087910e+00 2.797369e+00 5.447178e+00 4.117996e+00 5.261716e+00 4.811608e+00 3.682444e+00 3.463513e+00 3.706792e+00 3.240830e+00 1.354095e+00
<GCONST> 1.069368e+02
<TRANSP> 5
 0.000000e+00 1.000000e+00 0.000000e+00 0.000000e+00 0.000000e+00
 0.000000e+00 7.510044e-01 2.489956e-01 0.000000e+00 0.000000e+00
 0.000000e+00 0.000000e+00 6.255272e-01 3.744728e-01 0.000000e+00
 0.000000e+00 0.000000e+00 0.000000e+00 5.969207e-01 4.030794e-01
 0.000000e+00 0.000000e+00 0.000000e+00 0.000000e+00 0.000000e+00
<ENDHMM>
~h "k"
<BEGINHMM>
<NUMSTATES> 5
<STATE> 2
<MEAN> 25
 -2.960594e+00 1.638239e+00 -2.093423e+00 2.018611e+00 3.031163e+00 1.773439e+00 1.694521e+00 6.259317e-01 1.291731e+00 1.748178e+00 1.007001e+00 8.640770e-01 -1.075787e+00 -4.204917e-01 -6.599347e-01 1.324302e-01 6.527971e-01 4.703171e-02 1.742272e-01 3.602876e-01 3.978491e-01 3.518765e-01 1.959497e-01 3.720146e-01 -3.682955e-01
<VARIANCE> 25
 3.567555e+01 3.559665e+01 5.171132e+01 4.479623e+01 5.957177e+01 5.228696e+01 4.522361e+01 4.575887e+01 4.526209e+01 3.866318e+01 3.591364e+01 3.073779e+01 2.608348e+00 3.958840e+00 4.147994e+00 4.282614e+00 4.997165e+00 4.908179e+00 4.460832e+00 4.266767e+00 4.277381e+00 3.699494e+00 3.432003e+00 2.878100e+00 5.035189e+00
<GCONST> 1.090204e+02
<STATE> 3
<MEAN> 25
 -5.219867e+00 -1.984062e+00 -3.867161e+00 -2.869018e-01 4.117841e+00 1.918476e+00 9.686760e-01 1.036452e+00 1.350765e+00 2.812341e+00 1.296526e+00 1.551964e+00 3.376913e-01 -1.153333e+00 -3.901398e-01 -1.018513e+00 -2.479423e-02 -7.105943e-01 -2.482737e-01 6.136794e-02 4.391377e-02 1.117315e-01 -1.283336e-01 -2.179770e-01 2.014368e+00
<VARIANCE> 25
 5.828809e+01 8.510316e+01 1.092221e+02 1.019679e+02 1.221897e+02 1.148013e+02 8.545148e+01 8.237738e+01 7.839745e+01 6.568385e+01 5.949219e+01 5.057425e+01 5.586241e+00 7.060305e+00 7.783437e+00 7.877015e+00 9.558034e+00 8.887082e+00 7.283646e+00 6.893404e+00 6.719794e+00 6.346846e+00 5.311540e+00 4.616727e+00 6.980602e+00
<GCONST> 1.237829e+02
<STATE> 4
<MEAN> 25
 -1.151224e+00 -3.080952e+00 -3.999143e+00 -1.888266e+00 2.467545e+00 -1.662082e+00 5.501305e-01 9.430247e-01 1.074032e+00 1.876389e+00 -2.888154e-01 -2.155876e-01 2.136220e+00 -1.483011e-01 6.346917e-01 -1.021960e+00 -1.689881e+00 -5.679168e-01 -2.624734e-01 -4.214383e-01 -6.329972e-01 -6.810849e-01 -4.197252e-01 -9.608743e-01 1.881125e+00
<VARIANCE> 25
 3.910355e+01 4.469778e+01 6.029025e+01 5.191166e+01 7.058121e+01 6.860777e+01 5.038777e+01 5.542039e+01 5.129964e+01 4.326852e+01 3.960869e+01 3.640436e+01 4.163314e+00 4.858551e+00 5.775395e+00 5.819693e+00 6.479913e+00 6.467815e+00 6.079294e+00 6.164187e+00 6.101350e+00 5.361399e+00 5.213771e+00 4.183033e+00 3.260626e+00
<GCONST> 1.144936e+02
<TRANSP> 5
 0.000000e+00 1.000000e+00 0.000000e+00 0.000000e+00 0.000000e+00
 0.000000e+00 6.308810e-01 3.691190e-01 0.000000e+00 0.000000e+00
 0.000000e+00 0.000000e+00 5.768876e-01 4.231124e-01 0.000000e+00
 0.000000e+00 0.000000e+00 0.000000e+00 3.491607e-01 6.508393e-01
 0.000000e+00 0.000000e+00 0.000000e+00 0.000000e+00 0.000000e+00
<ENDHMM>
~h "l"
<BEGINHMM>
<NUMSTATES> 5
<STATE> 2
<MEAN> 25
 6.232986e+00 -2.887336e+00 -1.676564e+00 -2.982034e+00 -1.959815e+00 -1.183723e+00 -4.524126e+00 -3.564059e+00 2.412205e+00 2.354083e+00 -5.130744e-01 -1.946001e+00 3.522281e-01 -5.352559e-02 -3.681139e-02 -1.372014e-01 -4.350742e-03 3.723980e-02 -7.274186e-01 -4.949220e-01 3.168066e-01 6.422366e-01 -4.979673e-02 -1.957778e-01 -4.543082e-02
<VARIANCE> 25
 2.083200e+01 3.643181e+01 4.823100e+01 6.434225e+01 5.808213e+01 7.925034e+01 6.603600e+01 7.547443e+01 6.106465e+01 6.960007e+01 5.145732e+01 3.856643e+01 1.022401e+00 2.174369e+00 2.895478e+00 3.865807e+00 4.052531e+00 4.740065e+00 4.566493e+00 5.529857e+00 4.297398e+00 4.252239e+00 3.791143e+00 3.226197e+00 1.123849e+00
<GCONST> 1.084401e+02
<STATE> 3
<MEAN> 25
 6.636862e+00 -2.651212e+00 -2.635375e+00 -5.166427e+00 -1.893195e+00 8.297284e-02 -5.710019e+00 -4.770955e+00 3.291572e+00 4.642962e+00 -1.587749e-01 -2.411805e+00 3.879685e-04 2.031293e-02 -3.636958e-02 -1.520867e-01 8.151338e-02 6.317434e-02 -8.251526e-02 1.907963e-01 5.431405e-02 -2.158542e-02 -6.571438e-02 -5.773405e-02 -3.005898e-02
<VARIANCE> 25
 1.621469e+01 2.966018e+01 4.097589e+01 6.313467e+01 5.088309e+01 7.357145e+01 6.211349e+01 6.686914e+01 5.621036e+01 6.487249e+01 5.143366e+01 3.764293e+01 3.146409e-01 1.012767e+00 1.376162e+00 1.828033e+00 1.835050e+00 2.349370e+00 2.259706e+00 2.909358e+00 2.296553e+00 2.207677e+00 2.170654e+00 1.787625e+00 4.266841e-01
<GCONST> 9.756119e+01
<STATE> 4
<MEAN> 25
 6.765646e+00 -1.735465e+00 -2.024704e+00 -2.773599e+00 -2.228207e+00 -2.971604e+00 -4.428048e+00 -6.736680e-01 2.633660e+00 -4.719297e-01 -1.888540e+00 -2.178147e+00 -2.954701e-01 -1.401456e-02 1.002955e-01 5.492763e-02 1.010071e-01 6.360146e-02 4.723072e-01 5.683036e-01 -2.821117e-01 -4.092051e-01 -5.604403e-03 9.580068e-02 -6.964101e-02
<VARIANCE> 25
 2.292408e+01 4.015836e+01 5.710543e+01 6.983171e+01 8.850719e+01 9.473670e+01 7.129681e+01 8.455131e+01 6.127750e+01 1.006571e+02 6.117628e+01 4.310907e+01 5.392170e-01 1.617331e+00 2.001029e+00 2.597892e+00 2.857809e+00 3.241460e+00 3.003423e+00 3.574423e+00 3.080477e+00 3.153467e+00 3.001696e+00 2.208160e+00 9.342983e-01
<GCONST> 1.056140e+02
<TRANSP> 5
 0.000000e+00 1.000000e+00 0.000000e+00 0.000000e+00 0.000000e+00
 0.000000e+00 3.328677e-01 6.671323e-01 0.000000e+00 0.000000e+00
 0.000000e+00 0.000000e+00 5.198776e-01 4.801224e-01 0.000000e+00
 0.000000e+00 0.000000e+00 0.000000e+00 4.557771e-01 5.442229e-01
 0.000000e+00 0.000000e+00 0.000000e+00 0.000000e+00 0.000000e+00
<ENDHMM>
~h "m"
<BEGINHMM>
<NUMSTATES> 5
<STATE> 2
<MEAN> 25
 6.211709e+00 1.673757e+00 -5.851260e-01 5.033787e-01 4.355335e-01 2.755704e+00 -1.481350e+00 -4.308322e+00 -3.317518e+00 -1.415649e-01 -4.952292e-01 -1.947534e+00 -7.582538e-02 1.137585e+00 1.092972e+00 1.627123e+00 3.210234e-01 3.116428e-01 1.726834e-01 -1.421849e+00 -1.282676e+00 -1.951502e-01 -5.707192e-01 -6.139489e-02 -1.005040e+00
<VARIANCE> 25
 2.295683e+01 3.547464e+01 3.782405e+01 4.556361e+01 4.082423e+01 5.241028e+01 4.524789e+01 5.004041e+01 4.997569e+01 3.910256e+01 3.816375e+01 3.056491e+01 1.049692e+00 2.147076e+00 2.875861e+00 3.440614e+00 3.339436e+00 3.575603e+00 3.880697e+00 3.907563e+00 4.349854e+00 3.375062e+00 3.600003e+00 2.761847e+00 1.527307e+00
<GCONST> 1.038446e+02
<STATE> 3
<MEAN> 25
 5.029707e+00 3.780963e+00 2.241805e+00 2.743527e+00 6.115363e-01 2.019588e+00 -1.621538e+00 -5.410450e+00 -4.607309e+00 -9.644907e-01 -2.240565e+00 -2.085016e+00 -2.690098e-02 2.047633e-01 1.398600e-01 1.639258e-01 -2.201438e-03 4.577430e-02 6.139839e-02 -9.195215e-02 -1.431865e-01 -5.824536e-02 -7.242621e-02 -1.945357e-02 -1.528364e-01
<VARIANCE> 25
 1.531989e+01 2.891202e+01 2.843769e+01 3.083527e+01 3.606169e+01 4.668340e+01 4.166826e+01 4.719668e+01 5.193708e+01 3.895679e+01 3.581009e+01 2.947594e+01 3.252132e-01 7.001706e-01 9.453411e-01 1.129143e+00 1.303348e+00 1.450480e+00 1.458465e+00 1.629331e+00 1.733766e+00 1.599907e+00 1.559386e+00 1.309307e+00 3.566872e-01
<GCONST> 8.919476e+01
<STATE> 4
<MEAN> 25
 5.851723e+00 3.112320e+00 4.851284e-01 1.595795e+00 8.457053e-03 2.874128e+00 -6.821718e-01 -5.332665e+00 -4.691981e+00 -6.642842e-01 -1.092035e+00 -1.803281e+00 3.195545e-01 -8.602864e-01 -1.297846e+00 -1.521534e+00 -2.796198e-01 9.976654e-02 2.986016e-02 1.074756e+00 1.058698e+00 1.529767e-01 4.531835e-01 -8.835262e-02 8.743702e-01
<VARIANCE> 25
 2.210815e+01 3.405545e+01 3.741769e+01 4.496951e+01 4.186032e+01 5.259859e+01 4.578567e+01 5.336373e+01 5.646786e+01 4.014334e+01 3.953679e+01 3.218971e+01 1.124547e+00 2.207803e+00 3.444911e+00 3.845459e+00 3.551213e+00 3.988880e+00 3.518118e+00 3.845412e+00 4.492125e+00 3.303602e+00 3.059547e+00 2.862002e+00 1.262137e+00
<GCONST> 1.042208e+02
<TRANSP> 5
 0.000000e+00 1.000000e+00 0.000000e+00 0.000000e+00 0.000000e+00
 0.000000e+00 4.865212e-01 5.134789e-01 0.000000e+00 0.000000e+00
 0.000000e+00 0.000000e+00 7.118393e-01 2.881607e-01 0.000000e+00
 0.000000e+00 0.000000e+00 0.000000e+00 4.535544e-01 5.464457e-01
 0.000000e+00 0.000000e+00 0.000000e+00 0.000000e+00 0.000000e+00
<ENDHMM>
~h "n"
<BEGINHMM>
<NUMSTATES> 5
<STATE> 2
<MEAN> 25
 5.985471e+00 -1.626297e+00 1.514840e+00 1.856637e+00 -1.575252e+00 -1.933639e+00 -2.613739e+00 -3.513562e-01 -4.149503e-01 -9.824356e-01 -3.262744e+00 -1.290924e+00 2.759150e-01 2.062806e+00 8.133574e-01 1.802560e+00 9.033531e-04 3.319152e-01 -1.722994e-01 -1.827372e+00 -2.293775e-01 7.026044e-02 -6.383166e-01 1.364293e-01 -1.887975e+00
<VARIANCE> 25
 1.509109e+01 4.268781e+01 4.043193e+01 4.111520e+01 5.400811e+01 5.117380e+01 4.618386e+01 6.361533e+01 5.203953e+01 4.771522e+01 4.340672e+01 3.427928e+01 1.116591e+00 2.285607e+00 3.375331e+00 3.233216e+00 4.947019e+00 4.663401e+00 4.347516e+00 5.465520e+00 4.385069e+00 4.042256e+00 3.991493e+00 3.117944e+00 1.234296e+00
<GCONST> 1.061035e+02
<STATE> 3
<MEAN> 25
 6.185161e+00 2.502455e+00 3.120105e+00 4.715954e+00 -2.291269e+00 -1.179221e+00 -2.521871e+00 -4.490860e+00 -1.426240e+00 -7.676197e-01 -5.007728e+00 -1.332558e+00 -7.013218e-02 1.096230e+00 2.765771e-01 5.050840e-01 2.144408e-01 2.381812e-01 4.755055e-02 -5.474455e-01 -2.352461e-01 -3.700502e-02 -1.255999e-01 3.119169e-03 -8.513037e-01
<VARIANCE> 25
 1.255246e+01 3.025900e+01 3.262601e+01 3.301425e+01 5.416035e+01 4.921993e+01 4.051192e+01 4.898159e+01 4.463171e+01 5.140323e+01 4.469330e+01 3.389657e+01 3.996476e-01 9.962356e-01 1.362101e+00 1.356529e+00 1.905735e+00 2.004998e+00 2.045131e+00 2.476992e+00 2.284162e+00 2.079010e+00 2.071671e+00 1.669182e+00 4.359580e-01
<GCONST> 9.403565e+01
<STATE> 4
<MEAN> 25
 3.180095e+00 5.364924e+00 3.152609e+00 4.793252e+00 6.727387e-01 -3.774356e-02 -1.327218e+00 -2.904927e+00 -1.593460e+00 -1.269062e+00 -3.030342e+00 -1.095043e+00 -5.670512e-01 -5.453411e-03 -6.407852e-02 -2.260945e-03 3.358056e-01 1.948016e-01 2.985812e-01 3.784288e-01 7.156508e-02 7.175319e-02 3.355754e-01 1.043307e-01 -3.882173e-01
<VARIANCE> 25
 1.879697e+01 2.857047e+01 2.532325e+01 3.156554e+01 4.441690e+01 3.794204e+01 3.500178e+01 3.862669e+01 3.437970e+01 3.446497e+01 3.212267e+01 2.589182e+01 7.809725e-01 1.326847e+00 1.335913e+00 1.496171e+00 2.021646e+00 2.049773e+00 2.095973e+00 2.324486e+00 2.203374e+00 2.169177e+00 1.987573e+00 1.661883e+00 7.069774e-01
<GCONST> 9.350242e+01
<TRANSP> 5
 0.000000e+00 1.000000e+00 0.000000e+00 0.000000e+00 0.000000e+00
 0.000000e+00 4.954272e-01 5.045727e-01 0.000000e+00 0.000000e+00
 0.000000e+00 0.000000e+00 5.888711e-01 4.111289e-01 0.000000e+00
 0.000000e+00 0.000000e+00 0.000000e+00 6.787596e-01 3.212404e-01
 0.000000e+00 0.000000e+00 0.000000e+00 0.000000e+00 0.000000e+00
<ENDHMM>
~h "o"
<BEGINHMM>
<NUMSTATES> 5
<STATE> 2
<MEAN> 25
 5.529393e+00 -2.863454e-01 -5.702552e+00 -7.773549e+00 -1.611759e+00 2.532973e+00 -1.590512e+00 -1.114602e+00 1.370410e+00 1.490535e+00 1.625618e+00 -1.118595e+00 1.346915e+00 -5.227260e-01 -9.635134e-01 -2.012009e+00 -2.973220e-01 9.295817e-01 -2.184496e-01 -2.434087e-01 -1.063830e-01 2.820034e-01 4.505511e-01 -5.312936e-01 1.398354e+00
<VARIANCE> 25
 3.542379e+01 3.974159e+01 4.639681e+01 8.465018e+01 7.235950e+01 1.045937e+02 6.581609e+01 6.205253e+01 6.175023e+01 6.127828e+01 5.241343e+01 3.919864e+01 3.755175e+00 3.357814e+00 4.170336e+00 7.098327e+00 6.346953e+00 7.514789e+00 5.672303e+00 5.533507e+00 5.453315e+00 5.133052e+00 4.641235e+00 3.735003e+00 3.868991e+00
<GCONST> 1.153566e+02
<STATE> 3
<MEAN> 25
 7.722236e+00 -1.366079e+00 -7.549032e+00 -1.164200e+01 -7.636165e-01 6.475991e+00 -1.979999e+00 -2.721885e+00 3.798491e-01 2.527358e+00 3.530313e+00 -1.691849e+00 -7.566599e-02 2.538806e-01 -1.843444e-02 4.927348e-01 3.077606e-01 1.249632e-01 1.674386e-01 -1.561765e-02 -9.153926e-02 -3.143713e-02 -1.741219e-01 7.254580e-02 -5.742480e-01
<VARIANCE> 25
 1.955870e+01 3.684130e+01 4.015417e+01 7.580632e+01 6.816515e+01 9.969499e+01 6.785126e+01 5.901175e+01 6.830265e+01 6.678967e+01 5.617094e+01 4.460498e+01 9.488671e-01 2.079911e+00 1.802084e+00 4.202943e+00 3.001198e+00 4.119877e+00 3.526132e+00 3.167843e+00 3.876458e+00 3.447069e+00 3.092726e+00 2.722274e+00 2.026210e+00
<GCONST> 1.069805e+02
<STATE> 4
<MEAN> 25
 5.217059e+00 6.514608e-01 -6.202444e+00 -8.213191e+00 -6.920464e-01 4.419914e+00 -2.805135e-01 -1.619579e+00 4.313985e-02 1.210482e+00 1.307137e+00 -5.254802e-01 -3.178433e-01 1.909463e-01 3.517682e-01 6.882380e-01 1.571004e-01 -2.094233e-01 8.361945e-02 4.838117e-02 -1.375154e-02 -1.020358e-01 -1.813719e-01 7.676445e-02 -4.693885e-01
<VARIANCE> 25
 2.226723e+01 2.715117e+01 2.770347e+01 5.671147e+01 4.403558e+01 6.530695e+01 4.371233e+01 4.022113e+01 3.920344e+01 4.001273e+01 3.558036e+01 3.263053e+01 4.892543e-01 7.779264e-01 1.134181e+00 1.819355e+00 1.552946e+00 1.945863e+00 1.773181e+00 1.755140e+00 1.896619e+00 1.847190e+00 1.670135e+00 1.514988e+00 4.790360e-01
<GCONST> 9.300774e+01
<TRANSP> 5
 0.000000e+00 1.000000e+00 0.000000e+00 0.000000e+00 0.000000e+00
 0.000000e+00 5.257338e-01 4.742662e-01 0.000000e+00 0.000000e+00
 0.000000e+00 0.000000e+00 6.899006e-01 3.100994e-01 0.000000e+00
 0.000000e+00 0.000000e+00 0.000000e+00 7.849209e-01 2.150792e-01
 0.000000e+00 0.000000e+00 0.000000e+00 0.000000e+00 0.000000e+00
<ENDHMM>
~h "p"
<BEGINHMM>
<NUMSTATES> 5
<STATE> 2
<MEAN> 25
 -1.782467e+00 3.280626e+00 -2.267305e+00 2.546767e+00 2.481735e+00 2.366535e+00 2.038570e+00 7.865808e-01 1.565832e+00 1.680279e+00 1.193848e+00 8.757835e-01 -9.313074e-01 -1.949801e-01 -2.034035e-01 1.672857e-01 3.367964e-02 -3.614306e-02 3.337991e-01 2.234219e-01 3.012760e-01 2.012188e-01 2.897096e-01 3.993967e-01 -5.166504e-01
<VARIANCE> 25
 4.100240e+01 3.079348e+01 3.829371e+01 3.535557e+01 3.499556e+01 4.281606e+01 3.408926e+01 3.845285e+01 3.722497e+01 3.436188e+01 3.053198e+01 2.635862e+01 2.802077e+00 2.796581e+00 2.653028e+00 3.183267e+00 2.881800e+00 3.464165e+00 2.966623e+00 3.264361e+00 3.228673e+00 2.864276e+00 2.616483e+00 2.232739e+00 4.742815e+00
<GCONST> 1.029435e+02
<STATE> 3
<MEAN> 25
 -2.545498e+00 1.135773e+00 -2.630248e+00 1.762546e+00 1.636680e+00 9.553311e-01 2.129501e+00 1.652406e-01 1.571156e+00 1.656112e+00 1.592061e+00 1.550073e+00 1.913389e+00 -1.631243e+00 -7.142440e-01 -2.001990e+00 -9.390251e-01 -3.988369e-01 -6.150016e-01 -7.198047e-01 1.641957e-02 6.786002e-02 1.805282e-01 -6.621558e-01 3.612624e+00
<VARIANCE> 25
 3.211724e+01 3.023635e+01 3.201307e+01 3.760325e+01 3.551770e+01 4.341364e+01 3.399235e+01 3.733265e+01 3.528714e+01 3.095899e+01 2.919701e+01 2.354278e+01 5.466900e+00 5.083181e+00 5.956944e+00 6.420372e+00 5.990546e+00 7.740393e+00 5.489723e+00 5.360354e+00 5.552284e+00 5.166355e+00 4.864334e+00 4.055264e+00 6.163134e+00
<GCONST> 1.102786e+02
<STATE> 4
<MEAN> 25
 4.087468e+00 -2.605570e+00 -5.324418e+00 -4.261149e+00 -1.138538e+00 1.426314e+00 -2.554339e-01 -1.903818e+00 1.417093e+00 1.873525e+00 1.735636e+00 -1.313719e+00 2.242033e+00 -1.729286e+00 -6.212013e-01 -1.995772e+00 -9.550918e-01 -1.397111e-01 -8.681391e-01 -2.524434e-01 7.036279e-03 -5.630417e-02 -1.843875e-01 -1.161411e+00 3.268306e+00
<VARIANCE> 25
 3.668580e+01 4.378821e+01 4.743372e+01 6.172099e+01 4.656055e+01 6.997723e+01 4.543128e+01 4.393532e+01 4.328741e+01 4.097521e+01 3.917318e+01 3.570830e+01 4.517806e+00 6.151070e+00 7.492880e+00 7.612032e+00 7.407222e+00 1.012087e+01 6.528745e+00 6.461153e+00 6.735693e+00 6.190192e+00 6.077000e+00 5.112021e+00 5.474999e+00
<GCONST> 1.160168e+02
<TRANSP> 5
 0.000000e+00 1.000000e+00 0.000000e+00 0.000000e+00 0.000000e+00
 0.000000e+00 6.739838e-01 3.260163e-01 0.000000e+00 0.000000e+00
 0.000000e+00 0.000000e+00 3.494715e-01 6.505285e-01 0.000000e+00
 0.000000e+00 0.000000e+00 0.000000e+00 2.384143e-01 7.615857e-01
 0.000000e+00 0.000000e+00 0.000000e+00 0.000000e+00 0.000000e+00
<ENDHMM>
~h "r"
<BEGINHMM>
<NUMSTATES> 5
<STATE> 2
<MEAN> 25
 5.392813e+00 -4.211281e+00 -2.719677e+00 3.902507e-01 -2.627614e+00 -2.232473e+00 -2.864231e+00 2.010228e-01 3.471612e+00 3.023469e-01 -1.024334e-01 -9.767174e-01 -2.265908e-01 3.409732e-01 4.377808e-01 1.255252e+00 1.761533e-01 -1.041773e-01 -1.118459e-01 -2.695061e-02 1.195054e-01 -2.442556e-01 1.602176e-01 4.801314e-01 -9.105086e-01
<VARIANCE> 25
 2.380762e+01 3.739375e+01 4.976980e+01 4.641203e+01 5.854133e+01 5.827069e+01 5.880019e+01 6.243990e+01 5.889564e+01 5.118167e+01 4.571423e+01 3.920156e+01 2.676261e+00 3.594524e+00 3.716882e+00 4.404869e+00 5.209134e+00 5.238380e+00 5.085386e+00 5.039320e+00 4.850130e+00 4.683416e+00 4.453306e+00 3.858371e+00 2.957828e+00
<GCONST> 1.109897e+02
<STATE> 3
<MEAN> 25
 4.250418e+00 -2.810679e+00 -1.547285e+00 2.343868e+00 -1.568682e+00 -2.432472e+00 -2.407891e+00 2.731453e-01 3.006340e+00 -9.243035e-02 3.115576e-01 1.836900e-02 -4.476570e-01 3.155758e-01 5.499399e-01 6.009836e-01 2.159822e-01 2.495983e-02 1.398421e-01 -1.214724e-02 -4.050308e-01 -1.662711e-01 2.682093e-01 3.516723e-01 -6.199729e-01
<VARIANCE> 25
 2.604727e+01 3.457735e+01 5.029826e+01 4.252487e+01 5.463274e+01 5.369172e+01 5.256710e+01 5.468935e+01 5.312850e+01 4.510759e+01 3.969764e+01 3.370003e+01 2.364536e+00 3.017478e+00 3.367962e+00 3.231208e+00 4.297438e+00 4.341969e+00 4.103367e+00 4.323637e+00 4.006293e+00 3.908894e+00 3.761766e+00 3.229150e+00 2.112067e+00
<GCONST> 1.074966e+02
<STATE> 4
<MEAN> 25
 3.131258e+00 -2.562560e+00 -1.060532e+00 3.186561e+00 -9.067641e-01 -2.470071e+00 -1.985910e+00 2.594260e-01 1.513117e+00 -5.956597e-01 8.255900e-01 4.507196e-01 -2.267645e-01 2.910636e-01 3.031853e-01 -9.990550e-02 3.027122e-02 1.451539e-01 1.948346e-01 -6.728679e-02 -5.768653e-01 6.114024e-02 1.080616e-01 -2.737023e-02 -3.123412e-01
<VARIANCE> 25
 3.594124e+01 3.923618e+01 5.539704e+01 4.550063e+01 5.607679e+01 5.817510e+01 5.371773e+01 5.779543e+01 5.243305e+01 4.527812e+01 4.122250e+01 3.480263e+01 1.683582e+00 2.450486e+00 2.772036e+00 2.327889e+00 3.468158e+00 3.304704e+00 3.146765e+00 3.478093e+00 3.362488e+00 2.991524e+00 2.915058e+00 2.378019e+00 1.639549e+00
<GCONST> 1.050552e+02
<TRANSP> 5
 0.000000e+00 1.000000e+00 0.000000e+00 0.000000e+00 0.000000e+00
 0.000000e+00 2.904809e-01 7.095190e-01 0.000000e+00 0.000000e+00
 0.000000e+00 0.000000e+00 4.593598e-02 9.540640e-01 0.000000e+00
 0.000000e+00 0.000000e+00 0.000000e+00 4.384326e-01 5.615674e-01
 0.000000e+00 0.000000e+00 0.000000e+00 0.000000e+00 0.000000e+00
<ENDHMM>
~h "s"
<BEGINHMM>
<NUMSTATES> 5
<STATE> 2
<MEAN> 25
 -6.097847e+00 3.754463e+00 2.063791e+00 1.296822e+00 3.893429e+00 -2.341766e+00 3.378455e+00 6.338877e-01 8.014100e-01 -6.227659e-01 4.750172e-01 1.230477e+00 -3.644082e+00 1.230534e+00 -1.684366e-02 6.347253e-02 1.271348e+00 4.626357e-03 1.328205e+00 3.502806e-01 5.316644e-01 -9.874786e-02 8.700792e-01 4.733780e-01 1.034173e-01
<VARIANCE> 25
 6.506079e+01 7.032119e+01 8.757617e+01 5.641429e+01 8.317722e+01 8.687489e+01 6.853298e+01 6.243002e+01 5.379232e+01 4.705775e+01 4.628574e+01 3.430575e+01 3.386390e+00 6.408941e+00 7.417127e+00 5.416823e+00 6.025801e+00 6.327024e+00 5.311159e+00 5.235718e+00 4.538204e+00 4.965542e+00 3.925992e+00 3.066444e+00 1.690492e+00
<GCONST> 1.151992e+02
<STATE> 3
<MEAN> 25
 -1.673280e+01 5.144915e+00 -1.320571e-02 5.345286e-01 5.598155e+00 -1.678162e+00 5.621434e+00 1.454717e+00 1.851130e+00 -2.298008e-01 2.959812e+00 2.661714e+00 -2.702945e-01 -3.694675e-01 -7.882449e-02 -5.931995e-02 -1.380458e-01 7.443289e-02 1.139372e-02 7.047598e-02 7.919191e-02 5.182187e-02 6.868783e-02 1.189601e-01 -3.190616e-01
<VARIANCE> 25
 3.913817e+01 9.145530e+01 1.050242e+02 7.266451e+01 7.535636e+01 8.763661e+01 5.366192e+01 5.475157e+01 4.466342e+01 4.545337e+01 3.621597e+01 3.182576e+01 2.498072e+00 1.750202e+00 1.845440e+00 1.666613e+00 1.989354e+00 2.121981e+00 2.214777e+00 2.304840e+00 2.253360e+00 2.106976e+00 1.942896e+00 1.707071e+00 7.500315e-01
<GCONST> 1.026546e+02
<STATE> 4
<MEAN> 25
 -9.925735e+00 1.445232e+00 1.467652e+00 4.956596e-02 2.867967e+00 -2.085162e+00 3.602694e+00 8.477143e-01 1.829195e+00 -4.572379e-01 1.387708e+00 2.249542e+00 3.742187e+00 -5.965205e-01 -1.060164e-01 -3.598300e-01 -1.367163e+00 -5.258778e-01 -1.499304e+00 -7.730963e-01 -3.576927e-01 -1.682041e-01 -9.328519e-01 -6.838284e-01 6.768401e-01
<VARIANCE> 25
 7.383129e+01 8.746077e+01 9.143797e+01 6.041411e+01 7.312146e+01 9.336612e+01 6.157058e+01 5.990514e+01 4.705689e+01 4.341594e+01 4.233948e+01 3.238541e+01 5.446430e+00 7.103901e+00 7.366409e+00 5.410644e+00 5.961982e+00 6.427595e+00 5.447712e+00 5.786752e+00 5.128431e+00 5.083611e+00 4.337391e+00 3.533826e+00 3.546507e+00
<GCONST> 1.169181e+02
<TRANSP> 5
 0.000000e+00 1.000000e+00 0.000000e+00 0.000000e+00 0.000000e+00
 0.000000e+00 6.886961e-01 3.113039e-01 0.000000e+00 0.000000e+00
 0.000000e+00 0.000000e+00 8.006036e-01 1.993964e-01 0.000000e+00
 0.000000e+00 0.000000e+00 0.000000e+00 6.373252e-01 3.626747e-01
 0.000000e+00 0.000000e+00 0.000000e+00 0.000000e+00 0.000000e+00
<ENDHMM>
~h "t"
<BEGINHMM>
<NUMSTATES> 5
<STATE> 2
<MEAN> 25
 -2.404369e+00 3.348511e+00 -6.309965e-01 3.270506e+00 1.773536e+00 3.607068e-01 1.323993e+00 5.002881e-01 1.688381e+00 1.361761e+00 1.041668e+00 1.306764e+00 -1.126090e+00 -9.640026e-02 -3.859275e-01 1.073201e-01 3.400905e-01 3.090222e-01 5.581111e-01 2.780098e-01 3.272578e-01 1.467896e-01 4.214181e-01 3.706309e-01 -7.990490e-01
<VARIANCE> 25
 3.252089e+01 2.825928e+01 3.842663e+01 3.242716e+01 3.956041e+01 4.389062e+01 3.766349e+01 3.954046e+01 3.909590e+01 3.439741e+01 3.343906e+01 2.564086e+01 2.217863e+00 2.897917e+00 2.810215e+00 3.276987e+00 3.534606e+00 4.067599e+00 3.419548e+00 3.467865e+00 3.340930e+00 3.110257e+00 2.838307e+00 2.268728e+00 4.695233e+00
<GCONST> 1.035908e+02
<STATE> 3
<MEAN> 25
 -5.529499e+00 1.063898e+00 -1.866110e+00 1.548442e+00 2.336000e+00 -7.489448e-01 3.033086e+00 6.053615e-01 1.830668e+00 9.771443e-01 1.825222e+00 2.331468e+00 -5.094184e-02 -1.567528e+00 -1.650143e-01 -1.746596e+00 -4.523741e-01 -1.307102e+00 -2.266482e-01 -2.213549e-01 2.836863e-01 -2.335997e-01 1.811852e-02 -3.929906e-02 3.180468e+00
<VARIANCE> 25
 3.428122e+01 3.701327e+01 4.249923e+01 4.241626e+01 4.518872e+01 5.916884e+01 4.166477e+01 4.322443e+01 4.021759e+01 3.772277e+01 3.603988e+01 2.757157e+01 5.136240e+00 5.088006e+00 5.945745e+00 5.458251e+00 6.901512e+00 6.815444e+00 6.026233e+00 6.204014e+00 5.956501e+00 4.911667e+00 5.073717e+00 3.882190e+00 6.589345e+00
<GCONST> 1.126604e+02
<STATE> 4
<MEAN> 25
 -2.554108e+00 -2.045106e+00 -1.042897e+00 -2.389357e+00 -1.071605e-02 -3.425378e+00 1.034348e-01 -6.204992e-01 2.264013e+00 2.904498e-01 5.175537e-01 9.868441e-01 2.183280e+00 -8.897675e-01 3.628956e-01 -1.446998e+00 -1.058921e+00 -7.177242e-01 -1.704204e+00 -4.947236e-01 -1.453687e-01 -1.342602e-01 -5.310256e-01 -1.008994e+00 2.861898e+00
<VARIANCE> 25
 3.653649e+01 4.441464e+01 4.877008e+01 4.793710e+01 5.742241e+01 7.081225e+01 5.762718e+01 5.257712e+01 4.812461e+01 4.098827e+01 3.950695e+01 3.311646e+01 4.995701e+00 5.936779e+00 7.394974e+00 6.909304e+00 7.487782e+00 8.429072e+00 7.480501e+00 7.538210e+00 7.222383e+00 6.929870e+00 6.331935e+00 4.934224e+00 5.671744e+00
<GCONST> 1.167771e+02
<TRANSP> 5
 0.000000e+00 1.000000e+00 0.000000e+00 0.000000e+00 0.000000e+00
 0.000000e+00 6.722647e-01 3.277353e-01 0.000000e+00 0.000000e+00
 0.000000e+00 0.000000e+00 3.811100e-01 6.188900e-01 0.000000e+00
 0.000000e+00 0.000000e+00 0.000000e+00 2.914098e-01 7.085903e-01
 0.000000e+00 0.000000e+00 0.000000e+00 0.000000e+00 0.000000e+00
<ENDHMM>
~h "u"
<BEGINHMM>
<NUMSTATES> 5
<STATE> 2
<MEAN> 25
 5.682474e+00 3.004165e+00 -9.996971e-01 -3.955978e+00 -2.121943e+00 -5.731676e-01 -6.071283e+00 -4.287662e+00 -1.663147e+00 -8.461288e-02 2.134470e+00 -6.430823e-02 1.525003e+00 4.983590e-01 -4.415356e-01 -1.520559e+00 -8.000526e-01 7.100573e-01 -1.135365e+00 -9.448632e-01 -7.273908e-01 1.972566e-01 8.381518e-01 -2.401026e-02 6.625142e-01
<VARIANCE> 25
 2.651084e+01 4.169499e+01 4.894476e+01 7.145668e+01 5.912774e+01 7.337530e+01 7.236787e+01 6.622534e+01 6.016939e+01 6.606593e+01 5.182521e+01 3.852267e+01 3.280210e+00 3.930738e+00 4.315557e+00 5.456275e+00 6.090230e+00 7.634459e+00 6.265117e+00 6.311457e+00 5.985012e+00 5.941337e+00 4.949805e+00 3.853421e+00 2.652360e+00
<GCONST> 1.145791e+02
<STATE> 3
<MEAN> 25
 7.752040e+00 3.254796e+00 -1.828390e+00 -7.273962e+00 -3.231923e+00 3.168212e+00 -7.591880e+00 -6.395499e+00 -2.817400e+00 -9.446535e-02 4.555543e+00 -1.148637e-04 6.533184e-02 1.848112e-01 -6.319247e-02 2.323376e-01 1.917268e-01 1.280667e-01 1.660903e-01 5.228891e-02 7.436057e-02 1.376534e-01 -1.832642e-01 -1.232739e-02 -4.167548e-01
<VARIANCE> 25
 1.859178e+01 3.994009e+01 4.802442e+01 8.006116e+01 6.686225e+01 9.591083e+01 7.372298e+01 8.796262e+01 7.567487e+01 9.261331e+01 6.738074e+01 4.957923e+01 8.826312e-01 2.778548e+00 2.321650e+00 5.044893e+00 3.958682e+00 4.715396e+00 4.937352e+00 4.621555e+00 5.084811e+00 4.841462e+00 4.181093e+00 3.486851e+00 1.990735e+00
<GCONST> 1.113072e+02
<STATE> 4
<MEAN> 25
 5.596459e+00 5.240647e+00 -1.927170e+00 -4.516880e+00 -1.884897e+00 2.833704e-01 -4.251791e+00 -3.787074e+00 -3.240235e+00 1.523473e-02 2.040243e+00 9.596592e-01 -5.322815e-01 6.523776e-02 2.827199e-01 7.974061e-01 3.679106e-01 -1.082247e-02 4.933433e-01 3.503482e-01 2.489094e-01 -9.195185e-02 -3.227006e-01 -1.529580e-03 -6.417825e-01
<VARIANCE> 25
 2.183422e+01 3.328020e+01 3.818166e+01 6.070691e+01 4.647466e+01 5.242186e+01 4.825935e+01 4.555682e+01 5.082170e+01 5.157593e+01 4.016999e+01 3.739149e+01 7.775508e-01 1.226329e+00 1.497649e+00 2.445448e+00 2.224721e+00 2.536868e+00 2.477628e+00 2.446787e+00 2.568651e+00 2.509943e+00 2.394182e+00 1.922136e+00 8.670097e-01
<GCONST> 9.899409e+01
<TRANSP> 5
 0.000000e+00 1.000000e+00 0.000000e+00 0.000000e+00 0.000000e+00
 0.000000e+00 4.052994e-01 5.947006e-01 0.000000e+00 0.000000e+00
 0.000000e+00 0.000000e+00 5.731018e-01 4.268982e-01 0.000000e+00
 0.000000e+00 0.000000e+00 0.000000e+00 7.223775e-01 2.776225e-01
 0.000000e+00 0.000000e+00 0.000000e+00 0.000000e+00 0.000000e+00
<ENDHMM>
~h "w"
<BEGINHMM>
<NUMSTATES> 5
<STATE> 2
<MEAN> 25
 7.527317e+00 5.818326e+00 -3.337568e+00 -7.283646e+00 -3.897710e+00 9.930857e-01 -1.684323e+00 -1.130880e+00 -1.555327e+00 -1.172629e+00 1.736302e+00 -2.947416e-01 1.210603e+00 7.841840e-02 -8.775429e-01 -1.769799e+00 -8.318052e-01 5.093303e-01 7.227498e-02 -2.643260e-01 -4.403313e-01 -1.233144e-01 6.497783e-01 2.077854e-01 9.725673e-01
<VARIANCE> 25
 4.698249e+01 6.022617e+01 4.314358e+01 7.401097e+01 7.135577e+01 1.140437e+02 6.070272e+01 6.208960e+01 5.752706e+01 5.372828e+01 4.478567e+01 4.092693e+01 3.289289e+00 4.830695e+00 3.352387e+00 4.826447e+00 4.953808e+00 6.262116e+00 4.723014e+00 4.679335e+00 4.353331e+00 4.379940e+00 4.058023e+00 3.834719e+00 3.532656e+00
<GCONST> 1.137868e+02
<STATE> 3
<MEAN> 25
 9.934881e+00 3.781997e+00 -6.656874e+00 -1.453804e+01 -5.207366e+00 6.768250e+00 -1.087235e+00 -3.344967e+00 -3.600866e+00 1.055296e-01 5.113394e+00 1.689784e+00 -7.477269e-02 -1.179152e+00 -6.008347e-01 -5.607764e-01 7.579060e-01 8.507054e-01 -2.044816e-01 -3.359019e-01 5.095240e-01 9.417800e-01 4.768790e-01 -6.306939e-01 7.202393e-01
<VARIANCE> 25
 1.333214e+01 2.939650e+01 2.818150e+01 4.621887e+01 4.362916e+01 7.128788e+01 4.863798e+01 4.494794e+01 4.412980e+01 4.712200e+01 4.455947e+01 3.380492e+01 4.373746e-01 2.528014e+00 1.327263e+00 2.130792e+00 2.955824e+00 2.694289e+00 2.791634e+00 2.551491e+00 2.918540e+00 3.469098e+00 2.551545e+00 3.367384e+00 9.367790e-01
<GCONST> 9.935850e+01
<STATE> 4
<MEAN> 25
 8.065328e+00 -3.738215e+00 -8.292068e+00 -1.224096e+01 1.353969e+00 7.842617e+00 -3.949523e+00 -3.879066e+00 2.472521e+00 5.297224e+00 2.846337e+00 -5.802409e+00 -5.543621e-01 -1.347343e+00 1.832704e-01 1.232437e+00 8.940755e-01 -9.321847e-01 -8.032411e-02 8.273912e-01 1.156931e+00 -3.799626e-02 -1.538800e+00 -1.052307e+00 4.660058e-01
<VARIANCE> 25
 1.433098e+01 2.956427e+01 2.717131e+01 4.568638e+01 4.443735e+01 7.584710e+01 5.670981e+01 4.221393e+01 4.908785e+01 4.678038e+01 5.823935e+01 3.897993e+01 4.266959e-01 2.047737e+00 1.279747e+00 2.265998e+00 2.414442e+00 3.036412e+00 3.147802e+00 3.080058e+00 3.039234e+00 3.160833e+00 3.022135e+00 3.511682e+00 8.553736e-01
<GCONST> 1.001519e+02
<TRANSP> 5
 0.000000e+00 1.000000e+00 0.000000e+00 0.000000e+00 0.000000e+00
 0.000000e+00 5.942923e-01 4.057077e-01 0.000000e+00 0.000000e+00
 0.000000e+00 0.000000e+00 7.112342e-01 2.887658e-01 0.000000e+00
 0.000000e+00 0.000000e+00 0.000000e+00 6.796158e-01 3.203842e-01
 0.000000e+00 0.000000e+00 0.000000e+00 0.000000e+00 0.000000e+00
<ENDHMM>
~h "y"
<BEGINHMM>
<NUMSTATES> 5
<STATE> 2
<MEAN> 25
 5.507718e-01 -1.504029e-01 9.919614e+00 -2.009243e+00 -7.200871e+00 -4.069342e+00 -2.786645e+00 -1.387001e+00 -3.139488e+00 4.992207e-01 2.140720e+00 4.186057e-01 2.844568e-01 -7.395848e-01 4.432395e-01 -7.288998e-01 -1.111758e+00 -6.451425e-01 2.337809e-01 5.115227e-01 -1.491675e-01 1.424530e-01 4.579594e-01 6.013865e-02 1.170581e+00
<VARIANCE> 25
 3.200285e+01 5.781709e+01 8.433113e+01 9.888638e+01 9.321360e+01 7.275863e+01 7.652480e+01 7.330263e+01 6.051762e+01 5.838428e+01 6.083660e+01 4.155383e+01 2.061155e+00 3.837686e+00 7.150193e+00 5.047456e+00 5.379035e+00 4.814130e+00 5.873593e+00 5.901678e+00 4.769133e+00 4.428882e+00 4.237440e+00 3.170774e+00 2.749380e+00
<GCONST> 1.150717e+02
<STATE> 3
<MEAN> 25
 2.159148e+00 -5.542424e+00 7.775587e+00 -5.122639e+00 -1.121072e+01 -7.110655e+00 8.821006e-01 5.361688e+00 -1.647746e+00 3.996553e-01 2.696823e+00 -1.485311e-01 2.596076e-01 -9.395370e-01 -1.440720e+00 5.417557e-02 9.842171e-01 1.236406e-01 7.154436e-01 1.199894e+00 6.077384e-01 -5.808390e-01 -9.679393e-01 -3.059494e-01 3.078003e-01
<VARIANCE> 25
 1.442944e+01 2.923133e+01 4.636775e+01 4.131109e+01 5.074515e+01 5.687369e+01 5.956937e+01 8.309832e+01 4.790656e+01 4.470889e+01 4.965405e+01 3.031254e+01 3.192375e-01 1.209468e+00 2.393450e+00 1.545227e+00 3.014605e+00 2.038939e+00 2.511059e+00 3.028377e+00 2.821798e+00 2.562203e+00 3.020769e+00 1.826532e+00 3.370520e-01
<GCONST> 9.780961e+01
<STATE> 4
<MEAN> 25
 3.041517e+00 -6.234183e+00 -1.493206e-01 -2.897057e+00 -4.133537e+00 -4.023232e+00 1.936337e+00 3.786328e+00 -5.994096e-01 -1.672796e+00 -1.382630e+00 -5.586901e-01 1.299216e-01 -5.307717e-02 -6.095421e-01 1.344350e-01 7.054322e-01 3.110943e-01 -1.061116e-01 -8.117715e-02 1.265638e-01 -1.134452e-01 -3.659751e-01 -1.280318e-01 -1.571857e-01
<VARIANCE> 25
 1.806112e+01 3.139815e+01 3.420695e+01 3.599652e+01 5.143651e+01 4.257510e+01 6.460011e+01 7.700514e+01 4.407247e+01 4.113395e+01 4.323582e+01 2.972064e+01 2.318001e-01 5.248982e-01 1.273312e+00 1.085685e+00 2.079317e+00 1.487580e+00 1.721583e+00 1.696547e+00 1.564687e+00 1.650874e+00 1.684118e+00 1.341757e+00 1.929466e-01
<GCONST> 9.080547e+01
<TRANSP> 5
 0.000000e+00 1.000000e+00 0.000000e+00 0.000000e+00 0.000000e+00
 0.000000e+00 6.943853e-01 3.056147e-01 0.000000e+00 0.000000e+00
 0.000000e+00 0.000000e+00 6.843934e-01 3.156066e-01 0.000000e+00
 0.000000e+00 0.000000e+00 0.000000e+00 7.093729e-01 2.906271e-01
 0.000000e+00 0.000000e+00 0.000000e+00 0.000000e+00 0.000000e+00
<ENDHMM>
~h "z"
<BEGINHMM>
<NUMSTATES> 5
<STATE> 2
<MEAN> 25
 -8.442392e+00 1.268211e+01 3.169401e+00 7.662386e+00 8.497002e-01 -6.366501e+00 5.873127e+00 -6.670000e+00 7.680282e-03 -3.972760e+00 2.653756e+00 9.700935e-01 -8.939689e-01 3.839785e-01 -2.595928e-01 2.647952e-01 5.010839e-01 -1.448986e-01 3.378243e-01 -1.434655e-01 4.625317e-01 -7.441793e-02 1.169784e-01 2.559749e-01 -4.116492e-02
<VARIANCE> 25
 3.732922e+01 4.878439e+01 5.696119e+01 3.459595e+01 4.406242e+01 4.667599e+01 6.039732e+01 3.659246e+01 4.350668e+01 3.345726e+01 2.378481e+01 2.403363e+01 4.339185e+00 4.234292e+00 3.341874e+00 2.372993e+00 4.858858e+00 3.459382e+00 4.432526e+00 2.921314e+00 4.996273e+00 2.452774e+00 2.605841e+00 1.540784e+00 7.877274e-01
<GCONST> 1.040234e+02
<STATE> 3
<MEAN> 25
 -3.263648e+00 -4.649184e+00 1.509688e+01 5.560550e+00 6.050932e-01 9.136381e+00 -6.063915e+00 -1.182404e+01 3.635972e-01 -1.905426e+00 -2.475029e-01 -3.895642e-01 6.665663e-01 -9.369938e-01 1.354232e-01 -4.718097e-01 -7.971758e-01 -6.940192e-03 -4.340640e-01 -2.295670e-02 -3.261402e-01 -6.915127e-02 3.617956e-01 2.297824e-01 6.321977e-01
<VARIANCE> 25
 5.318994e+01 1.011144e+02 1.486335e+02 1.340837e+02 1.033953e+02 2.287001e+02 7.947723e+01 6.953604e+01 6.723280e+01 5.225395e+01 3.847454e+01 6.015543e+01 4.949742e+00 4.911970e+00 1.198006e+01 7.155029e+00 6.202369e+00 1.177569e+01 5.607080e+00 5.943703e+00 6.359572e+00 4.645460e+00 3.636617e+00 3.615602e+00 2.015872e+00
<GCONST> 1.211391e+02
<STATE> 4
<MEAN> 25
 2.261609e+00 -1.941293e+00 5.733147e+00 2.627962e+00 -6.568324e+00 -3.930462e+00 -3.346532e+00 -6.091298e+00 -6.937008e+00 -2.161588e+00 6.915812e+00 1.818159e+00 4.767999e-01 -4.058475e-01 -1.636865e-01 -5.354311e-01 -4.109247e-01 -8.835059e-02 -2.100789e-01 6.854553e-01 -6.115052e-02 4.359539e-01 5.769419e-02 -1.054624e-01 4.443947e-02
<VARIANCE> 25
 3.131266e+01 6.233942e+01 1.324838e+02 5.495106e+01 5.695711e+01 5.191332e+01 5.358258e+01 4.395545e+01 6.486078e+01 3.811196e+01 3.504813e+01 3.482314e+01 7.491189e-01 1.743849e+00 2.261383e+00 1.726082e+00 2.078856e+00 2.220248e+00 2.734200e+00 2.372311e+00 2.170321e+00 1.699480e+00 1.523064e+00 1.211126e+00 7.095467e-01
<GCONST> 9.969504e+01
<TRANSP> 5
 0.000000e+00 1.000000e+00 0.000000e+00 0.000000e+00 0.000000e+00
 0.000000e+00 8.146870e-01 1.853130e-01 0.000000e+00 0.000000e+00
 0.000000e+00 0.000000e+00 8.039956e-01 1.960044e-01 0.000000e+00
 0.000000e+00 0.000000e+00 0.000000e+00 6.998733e-01 3.001267e-01
 0.000000e+00 0.000000e+00 0.000000e+00 0.000000e+00 0.000000e+00
<ENDHMM>
~h "aw"
<BEGINHMM>
<NUMSTATES> 5
<STATE> 2
<MEAN> 25
 6.400465e+00 -4.961177e+00 -7.005508e+00 -1.091546e+01 -3.341562e-02 6.435199e+00 7.082270e-01 -1.220427e+00 5.497006e+00 -2.739364e-01 -4.859096e-01 -3.374235e+00 5.451005e-01 -2.870481e-01 -5.667479e-01 -1.786155e+00 1.697187e-01 1.916840e+00 -1.932673e-01 -2.426913e-01 -3.156115e-01 1.768375e-01 6.700326e-01 -2.777497e-02 2.500164e-01
<VARIANCE> 25
 2.224494e+01 5.704054e+01 3.233270e+01 5.350867e+01 7.170008e+01 8.523819e+01 8.289896e+01 6.691586e+01 7.079804e+01 6.769764e+01 5.763530e+01 4.733496e+01 1.186828e+00 2.334534e+00 2.969371e+00 3.715602e+00 4.099782e+00 4.336929e+00 3.808157e+00 5.235611e+00 3.547058e+00 3.749131e+00 3.263887e+00 3.445927e+00 1.876574e+00
<GCONST> 1.092019e+02
<STATE> 3
<MEAN> 25
 8.524280e+00 6.224389e-01 -5.396016e+00 -1.648103e+01 -4.015156e+00 1.273919e+01 -1.756906e+00 -2.351225e+00 -6.684062e-01 1.410015e-01 2.878037e+00 1.586701e+00 1.838081e-02 7.855567e-01 1.566608e-01 1.664101e-01 -3.215307e-01 -2.127737e-01 1.114326e-01 5.921649e-02 -3.152600e-01 -2.110729e-01 9.090979e-03 3.926366e-01 -6.027938e-01
<VARIANCE> 25
 1.445677e+01 5.203514e+01 2.531269e+01 4.251506e+01 4.825420e+01 4.977392e+01 4.709037e+01 4.166880e+01 4.127789e+01 4.468155e+01 3.667618e+01 3.365922e+01 3.695408e-01 1.044630e+00 8.879405e-01 2.123161e+00 1.707774e+00 1.873192e+00 1.709375e+00 1.474335e+00 1.854120e+00 1.814960e+00 1.626017e+00 1.780362e+00 5.641624e-01
<GCONST> 9.302869e+01
<STATE> 4
<MEAN> 25
 -9.740496e-01 4.990860e+00 4.366041e-01 -3.387409e-01 -3.090673e+00 4.707688e-01 1.955868e-01 3.969582e+00 -1.839394e-01 -1.088360e+00 2.602282e-01 -7.421815e-02 -6.922472e-01 2.773255e-02 3.642389e-01 1.011516e+00 4.106598e-01 -3.936563e-01 1.958366e-02 -3.814797e-02 7.714444e-02 1.604719e-01 -9.507127e-02 -1.924694e-02 -6.199344e-01
<VARIANCE> 25
 1.200227e+02 3.869685e+01 7.150185e+01 1.852665e+02 1.034660e+02 2.149801e+02 1.173458e+02 8.469177e+01 9.012220e+01 1.122898e+02 8.065449e+01 6.202842e+01 1.087388e+00 1.475151e+00 2.200049e+00 3.715121e+00 3.113892e+00 4.013226e+00 3.523660e+00 3.193620e+00 3.433308e+00 3.230228e+00 2.950991e+00 2.396110e+00 1.107426e+00
<GCONST> 1.128195e+02
<TRANSP> 5
 0.000000e+00 1.000000e+00 0.000000e+00 0.000000e+00 0.000000e+00
 0.000000e+00 6.167229e-01 3.832771e-01 0.000000e+00 0.000000e+00
 0.000000e+00 0.000000e+00 8.733406e-01 1.266594e-01 0.000000e+00
 0.000000e+00 0.000000e+00 0.000000e+00 7.308686e-01 2.691313e-01
 0.000000e+00 0.000000e+00 0.000000e+00 0.000000e+00 0.000000e+00
<ENDHMM>
~h "ay"
<BEGINHMM>
<NUMSTATES> 5
<STATE> 2
<MEAN> 25
 3.646927e+00 -9.635983e+00 -1.459066e+00 -3.807114e+00 -3.157760e+00 -5.453484e+00 2.699242e+00 7.515843e+00 3.380283e+00 -2.730561e+00 -2.431359e+00 -2.346403e+00 -2.622436e-01 -2.267267e-01 1.490041e+00 -4.049115e-03 -1.582343e+00 -8.412054e-01 5.742875e-01 7.016447e-01 -8.041137e-01 -1.622403e-01 8.850762e-01 5.356409e-01 1.722044e-01
<VARIANCE> 25
 1.153216e+01 2.319111e+01 4.064836e+01 2.725419e+01 4.925497e+01 5.210694e+01 5.090739e+01 5.349666e+01 5.118771e+01 3.830173e+01 4.528644e+01 3.817939e+01 4.879538e-01 1.652304e+00 1.926110e+00 1.645497e+00 2.441048e+00 2.601366e+00 2.593322e+00 3.431912e+00 2.494592e+00 3.071721e+00 2.886380e+00 2.254777e+00 4.390963e-01
<GCONST> 9.740131e+01
<STATE> 3
<MEAN> 25
 1.881921e+00 -4.848159e+00 9.125119e+00 -5.427537e+00 -1.231962e+01 -6.863610e+00 1.471747e+00 2.509691e+00 -2.072190e+00 1.412069e+00 2.779577e+00 6.259115e-02 -1.720167e-01 1.118257e+00 1.131077e+00 1.376264e-01 -4.791375e-01 1.959140e-01 -6.626419e-01 -1.299384e+00 -6.398001e-01 4.934880e-01 2.815126e-01 1.327066e-01 -6.595222e-01
<VARIANCE> 25
 1.053333e+01 2.630876e+01 4.554995e+01 4.099674e+01 3.433084e+01 5.790467e+01 5.572440e+01 6.632188e+01 4.572777e+01 4.041570e+01 4.848581e+01 2.582964e+01 3.284677e-01 9.287483e-01 1.872052e+00 1.738719e+00 2.169100e+00 1.730093e+00 2.311351e+00 2.507728e+00 2.989071e+00 2.369577e+00 2.334796e+00 1.760945e+00 4.586851e-01
<GCONST> 9.523287e+01
<STATE> 4
<MEAN> 25
 9.029549e-01 4.216473e-01 7.821829e+00 1.869795e-01 -8.688743e+00 -4.818620e+00 1.600339e-01 1.734766e-01 -2.345367e+00 7.987254e-01 2.092813e+00 1.122602e+00 -1.433282e-01 6.383193e-01 -7.863770e-01 8.613719e-01 9.962870e-01 5.974243e-01 7.948754e-02 9.579670e-02 2.429109e-01 -1.310155e-01 -3.082657e-01 6.090105e-02 -1.386451e+00
<VARIANCE> 25
 2.076579e+01 3.631444e+01 4.930719e+01 4.124281e+01 4.743842e+01 5.405634e+01 4.914101e+01 6.402977e+01 4.702532e+01 4.040199e+01 4.152096e+01 2.889712e+01 8.338269e-01 1.464368e+00 2.107809e+00 2.155007e+00 2.733621e+00 2.756539e+00 2.649226e+00 3.139234e+00 2.698568e+00 2.493078e+00 2.529822e+00 1.865080e+00 1.333930e+00
<GCONST> 1.003298e+02
<TRANSP> 5
 0.000000e+00 1.000000e+00 0.000000e+00 0.000000e+00 0.000000e+00
 0.000000e+00 7.654237e-01 2.345764e-01 0.000000e+00 0.000000e+00
 0.000000e+00 0.000000e+00 7.481062e-01 2.518938e-01 0.000000e+00
 0.000000e+00 0.000000e+00 0.000000e+00 7.086015e-01 2.913985e-01
 0.000000e+00 0.000000e+00 0.000000e+00 0.000000e+00 0.000000e+00
<ENDHMM>
~h "kh"
<BEGINHMM>
<NUMSTATES> 5
<STATE> 2
<MEAN> 25
 -7.098001e+00 -5.143581e+00 9.087538e-01 5.339184e+00 4.496751e+00 3.013527e+00 7.226196e+00 4.091397e+00 3.897974e-01 -5.332133e-01 -1.265540e-01 2.039800e+00 -7.886994e-01 2.774667e-01 8.697275e-01 -1.137296e-01 -4.517432e-01 3.252941e-01 3.908525e-01 -4.131928e-01 -4.238871e-02 8.601860e-01 7.970496e-01 1.139869e-01 -2.915068e-01
<VARIANCE> 25
 1.242621e+02 3.671249e+01 4.383676e+01 7.771312e+01 6.730169e+01 6.476585e+01 4.555998e+01 7.139510e+01 4.170830e+01 4.964471e+01 5.151995e+01 3.457424e+01 1.319262e+00 2.139392e+00 3.406741e+00 2.706271e+00 3.406326e+00 3.182940e+00 3.192979e+00 3.263770e+00 3.268093e+00 3.228565e+00 2.893046e+00 2.496687e+00 1.251173e+00
<GCONST> 1.066376e+02
<STATE> 3
<MEAN> 25
 -4.702845e+00 -4.692657e+00 -9.230866e-01 2.168475e+00 2.462422e+00 8.129842e-01 4.892121e+00 9.682408e-02 5.066816e-01 3.357825e+00 -1.600092e-01 7.780289e-01 -1.867297e-01 3.460088e-02 8.548589e-01 -3.671334e-01 -5.889103e-01 -5.143991e-01 -7.461554e-01 -8.864386e-01 -3.672039e-01 3.617066e-01 2.677034e-01 -6.186782e-01 1.257905e+00
<VARIANCE> 25
 4.541081e+01 5.901194e+01 6.906384e+01 5.677269e+01 6.699668e+01 6.289378e+01 4.959527e+01 5.162740e+01 3.541798e+01 3.736856e+01 4.626715e+01 4.603265e+01 7.194964e+00 7.853658e+00 5.519469e+00 4.810942e+00 8.191442e+00 6.598998e+00 6.769179e+00 4.961468e+00 4.424294e+00 4.938016e+00 4.991872e+00 3.981416e+00 7.485583e+00
<GCONST> 1.160645e+02
<STATE> 4
<MEAN> 25
 -6.788753e+00 -2.201954e+00 -1.450743e+00 -1.406434e+00 4.005836e+00 7.235909e-01 1.906150e+00 2.078961e+00 2.178402e+00 2.263017e+00 3.480452e-01 -1.557421e+00 1.042502e-01 5.054639e-01 7.821922e-01 -4.446775e-02 -6.996729e-01 -4.720080e-01 -2.065781e-01 -1.272033e-01 -3.055764e-01 -1.380602e-01 2.946889e-01 2.104564e-01 1.691462e-01
<VARIANCE> 25
 1.217927e+02 7.319919e+01 6.589225e+01 5.942331e+01 7.604973e+01 4.918614e+01 9.075406e+01 5.569321e+01 5.186509e+01 4.281672e+01 3.933969e+01 6.435428e+01 4.119719e+00 3.361461e+00 3.410125e+00 3.161175e+00 4.972356e+00 3.909799e+00 4.086244e+00 3.094340e+00 3.801193e+00 3.244417e+00 3.459861e+00 3.763434e+00 3.658647e+00
<GCONST> 1.124987e+02
<TRANSP> 5
 0.000000e+00 1.000000e+00 0.000000e+00 0.000000e+00 0.000000e+00
 0.000000e+00 5.232927e-01 4.767073e-01 0.000000e+00 0.000000e+00
 0.000000e+00 0.000000e+00 4.790106e-01 5.209895e-01 0.000000e+00
 0.000000e+00 0.000000e+00 0.000000e+00 7.151300e-01 2.848699e-01
 0.000000e+00 0.000000e+00 0.000000e+00 0.000000e+00 0.000000e+00
<ENDHMM>
~h "ng"
<BEGINHMM>
<NUMSTATES> 5
<STATE> 2
<MEAN> 25
 6.143808e+00 2.276199e-01 -5.585260e-01 -1.132403e+00 -1.832325e-01 2.575511e+00 -1.220557e+00 -2.058635e+00 -1.872213e+00 1.540301e-02 -1.857124e+00 -2.667900e+00 4.619712e-02 1.251300e+00 6.238853e-01 1.014394e+00 -2.990264e-01 3.138869e-01 3.552876e-01 -1.042604e+00 -2.599409e-01 1.746078e-01 -4.088841e-01 1.069921e-01 -1.133809e+00
<VARIANCE> 25
 1.499407e+01 3.552449e+01 4.483532e+01 4.598771e+01 6.108292e+01 6.353252e+01 5.530938e+01 5.157890e+01 5.321285e+01 4.890522e+01 4.328693e+01 3.798977e+01 6.056444e-01 1.504425e+00 2.560247e+00 2.616001e+00 3.818199e+00 3.502347e+00 4.007711e+00 3.981784e+00 3.839033e+00 3.166929e+00 3.324614e+00 2.711505e+00 6.544523e-01
<GCONST> 1.027901e+02
<STATE> 3
<MEAN> 25
 5.768679e+00 2.902186e+00 1.513831e+00 1.457596e-02 -1.806928e+00 2.772381e+00 -5.691298e-01 -4.015708e+00 -1.912940e+00 2.345841e-01 -2.959011e+00 -2.135170e+00 -1.132223e-01 6.398060e-01 3.384771e-01 4.585028e-01 -1.469928e-02 -2.126860e-02 9.683791e-02 -2.505145e-01 -8.525129e-02 -1.760485e-02 -1.399190e-01 3.134070e-02 -5.411136e-01
<VARIANCE> 25
 1.250862e+01 3.123981e+01 3.636130e+01 3.682483e+01 5.064365e+01 5.232612e+01 4.798256e+01 4.716426e+01 4.709997e+01 4.434322e+01 3.602911e+01 3.271901e+01 3.023319e-01 7.155030e-01 1.103255e+00 1.204917e+00 1.575387e+00 1.549727e+00 1.648769e+00 1.825898e+00 1.701211e+00 1.638806e+00 1.510394e+00 1.325712e+00 3.357138e-01
<GCONST> 9.081449e+01
<STATE> 4
<MEAN> 25
 3.287615e+00 4.017899e+00 1.819632e+00 1.859860e+00 4.325262e-01 1.516528e+00 -1.714791e-01 -2.574346e+00 -1.878305e+00 -8.149198e-01 -2.385075e+00 -1.719244e+00 -4.660963e-01 -8.919790e-02 -1.192844e-01 1.596419e-01 3.796354e-01 -3.221733e-02 2.013462e-01 3.552729e-01 1.437540e-01 1.402267e-02 2.178800e-01 1.343947e-01 -2.603884e-01
<VARIANCE> 25
 1.803191e+01 2.776961e+01 3.029801e+01 3.401756e+01 4.393341e+01 4.124472e+01 4.020692e+01 3.825756e+01 3.854274e+01 3.559224e+01 3.102374e+01 2.701952e+01 7.331575e-01 1.196233e+00 1.425521e+00 1.669729e+00 2.060228e+00 2.059385e+00 2.093796e+00 2.240319e+00 2.258031e+00 2.199867e+00 1.954371e+00 1.685350e+00 7.275172e-01
<GCONST> 9.410038e+01
<TRANSP> 5
 0.000000e+00 1.000000e+00 0.000000e+00 0.000000e+00 0.000000e+00
 0.000000e+00 4.091392e-01 5.908608e-01 0.000000e+00 0.000000e+00
 0.000000e+00 0.000000e+00 6.063925e-01 3.936075e-01 0.000000e+00
 0.000000e+00 0.000000e+00 0.000000e+00 5.992481e-01 4.007519e-01
 0.000000e+00 0.000000e+00 0.000000e+00 0.000000e+00 0.000000e+00
<ENDHMM>
~h "ny"
<BEGINHMM>
<NUMSTATES> 5
<STATE> 2
<MEAN> 25
 2.752118e+00 3.047407e+00 8.389442e+00 -2.547557e+00 -4.844266e+00 -9.573452e-01 -1.113352e+00 -2.192037e+00 -4.058166e+00 9.899455e-02 2.629966e-01 -8.101138e-01 -4.866545e-01 -1.318456e+00 9.808807e-01 -1.281330e+00 -1.193512e+00 1.346818e-01 5.805356e-01 8.676938e-01 -4.583251e-01 1.129499e-02 4.127598e-01 -1.721150e-01 1.287828e+00
<VARIANCE> 25
 2.015422e+01 4.651715e+01 5.040962e+01 8.032356e+01 5.741440e+01 5.983094e+01 4.974641e+01 5.808740e+01 4.841497e+01 4.749226e+01 4.971191e+01 4.170271e+01 1.722879e+00 3.914089e+00 4.003203e+00 5.516258e+00 4.474510e+00 5.266153e+00 4.923575e+00 5.683076e+00 4.058179e+00 4.099834e+00 3.832116e+00 2.805836e+00 1.557106e+00
<GCONST> 1.097085e+02
<STATE> 3
<MEAN> 25
 1.673255e+00 -5.578784e+00 8.476201e+00 -4.560492e+00 -8.391418e+00 -1.352763e+00 2.761699e+00 4.472612e+00 -4.928681e+00 -2.481790e+00 6.428218e-01 -1.101039e+00 2.174260e-01 -1.384187e+00 -1.239310e+00 6.047383e-01 7.308510e-01 -5.275050e-01 1.579710e-01 1.152611e+00 4.170367e-01 -9.470639e-01 -6.062879e-01 2.051206e-01 4.954905e-01
<VARIANCE> 25
 1.445693e+01 3.455517e+01 3.996330e+01 5.117874e+01 5.008127e+01 5.315338e+01 5.486501e+01 7.000440e+01 4.817344e+01 4.734983e+01 4.311734e+01 3.889383e+01 3.643713e-01 1.386998e+00 1.650174e+00 1.851182e+00 2.655298e+00 2.245446e+00 2.706469e+00 2.590009e+00 2.676560e+00 2.300766e+00 2.715397e+00 1.868038e+00 4.766610e-01
<GCONST> 9.794901e+01
<STATE> 4
<MEAN> 25
 2.399083e+00 -6.591105e+00 2.166168e+00 -3.559405e-01 -1.777723e+00 -2.333097e+00 3.765737e-01 5.238473e+00 -2.732229e+00 -6.018527e+00 -2.627471e+00 2.413750e-01 8.712666e-02 4.051091e-02 -7.338708e-01 2.974536e-01 7.587264e-01 6.768243e-02 -2.804845e-01 -1.170739e-01 3.470000e-01 -4.005940e-02 -3.406880e-01 -1.546144e-02 -3.828144e-01
<VARIANCE> 25
 1.499224e+01 3.689843e+01 3.074090e+01 4.652773e+01 4.947581e+01 4.848976e+01 5.696141e+01 6.396379e+01 5.210096e+01 5.130948e+01 5.510442e+01 3.476120e+01 3.773646e-01 8.709657e-01 1.369389e+00 1.438651e+00 1.888574e+00 1.554664e+00 1.814701e+00 1.801484e+00 1.832315e+00 1.803438e+00 1.755949e+00 1.438328e+00 5.339521e-01
<GCONST> 9.428190e+01
<TRANSP> 5
 0.000000e+00 1.000000e+00 0.000000e+00 0.000000e+00 0.000000e+00
 0.000000e+00 7.314884e-01 2.685116e-01 0.000000e+00 0.000000e+00
 0.000000e+00 0.000000e+00 6.484753e-01 3.515246e-01 0.000000e+00
 0.000000e+00 0.000000e+00 0.000000e+00 7.216133e-01 2.783867e-01
 0.000000e+00 0.000000e+00 0.000000e+00 0.000000e+00 0.000000e+00
<ENDHMM>
~h "sp"
<BEGINHMM>
<NUMSTATES> 3
<STATE> 2
~s "silst"
<TRANSP> 3
 0.000000e+00 2.287602e-01 7.712399e-01
 0.000000e+00 9.513022e-01 4.869785e-02
 0.000000e+00 0.000000e+00 0.000000e+00
<ENDHMM>
~h "sy"
<BEGINHMM>
<NUMSTATES> 5
<STATE> 2
<MEAN> 25
 -1.207537e+01 4.391789e+00 5.745783e+00 -2.736795e+00 4.391543e+00 -1.407206e+00 5.408614e+00 2.451835e+00 2.481743e+00 -3.557490e-01 1.118121e+00 1.404589e+00 -2.465897e+00 5.624804e-01 3.074934e-01 -1.135213e-01 1.931311e-01 6.958745e-03 5.708808e-01 -5.171499e-01 2.560475e-02 2.832856e-01 6.935673e-01 1.648395e-01 -6.715544e-02
<VARIANCE> 25
 1.037392e+02 4.966103e+01 5.230669e+01 2.674964e+01 6.735406e+01 4.878889e+01 4.950525e+01 5.359474e+01 3.449123e+01 3.223472e+01 4.060303e+01 2.234331e+01 7.638086e+00 6.327586e+00 3.679614e+00 3.222567e+00 5.064209e+00 3.164099e+00 4.957017e+00 4.370533e+00 2.926269e+00 2.996699e+00 4.154074e+00 2.253804e+00 8.985600e-01
<GCONST> 1.080446e+02
<STATE> 3
<MEAN> 25
 -1.358754e+01 2.464695e+00 4.874855e+00 -1.322482e+00 1.496978e+00 1.975156e+00 3.111868e+00 1.355429e+00 2.550842e+00 1.011493e+00 1.930102e+00 1.626645e+00 1.119123e+00 -5.167833e-01 8.262257e-02 1.159873e-01 -9.596692e-01 -4.072326e-01 -9.053221e-02 -1.214789e-01 -3.063738e-03 8.552084e-02 -6.353687e-03 1.529959e-01 -7.208947e-02
<VARIANCE> 25
 4.544627e+01 1.878062e+01 2.603110e+01 2.086827e+01 2.226963e+01 4.764946e+01 2.697058e+01 2.835189e+01 3.314548e+01 3.010518e+01 3.567002e+01 2.218082e+01 5.592442e+00 1.059197e+00 1.434462e+00 1.431720e+00 2.443811e+00 1.858752e+00 2.145615e+00 1.888785e+00 2.216778e+00 1.340816e+00 2.121271e+00 1.822251e+00 4.491970e-01
<GCONST> 9.323203e+01
<STATE> 4
<MEAN> 25
 -2.467863e+00 -1.296975e+00 7.734004e+00 -2.933940e+00 -5.864449e+00 -4.315700e+00 3.344582e+00 1.594425e+00 4.537621e-01 -6.020352e-01 1.259249e+00 1.424121e+00 3.706070e+00 -1.511970e+00 -4.837717e-01 -8.747559e-02 -1.645213e+00 -1.173111e+00 -8.143069e-01 7.570161e-01 -4.008025e-01 -4.252638e-01 -2.645815e-01 -4.003193e-01 9.335092e-01
<VARIANCE> 25
 6.087696e+01 3.295634e+01 3.345527e+01 3.270700e+01 5.087746e+01 5.600015e+01 3.620666e+01 3.764368e+01 2.899256e+01 2.567517e+01 3.069277e+01 2.289783e+01 6.665663e+00 4.487911e+00 3.780257e+00 2.442120e+00 6.094773e+00 6.120263e+00 5.388440e+00 4.528104e+00 3.288806e+00 2.552468e+00 3.383280e+00 2.386629e+00 1.460028e+00
<GCONST> 1.059180e+02
<TRANSP> 5
 0.000000e+00 1.000000e+00 0.000000e+00 0.000000e+00 0.000000e+00
 0.000000e+00 8.203579e-01 1.796422e-01 0.000000e+00 0.000000e+00
 0.000000e+00 0.000000e+00 6.548455e-01 3.451546e-01 0.000000e+00
 0.000000e+00 0.000000e+00 0.000000e+00 6.733152e-01 3.266848e-01
 0.000000e+00 0.000000e+00 0.000000e+00 0.000000e+00 0.000000e+00
<ENDHMM>
~h "sil"
<BEGINHMM>
<NUMSTATES> 5
<STATE> 2
<MEAN> 25
 -5.737154e+00 1.259880e+00 -2.548048e+00 2.435471e+00 1.657102e+00 2.499816e+00 2.266786e+00 7.798331e-01 2.245355e-01 -4.647810e-01 1.001621e-01 1.502027e+00 -2.577455e-02 1.273559e-02 -7.985218e-03 6.786447e-03 7.753491e-03 1.337957e-02 2.338015e-03 -2.447017e-03 -2.488207e-03 -1.862336e-03 7.983090e-03 -9.801995e-04 -4.063535e-02
<VARIANCE> 25
 1.959356e+01 1.779406e+01 2.085814e+01 2.603751e+01 2.144202e+01 2.455766e+01 2.112477e+01 2.311015e+01 2.482218e+01 2.447306e+01 2.040153e+01 1.697440e+01 1.460205e-01 2.869630e-01 4.594823e-01 6.569045e-01 8.620197e-01 1.031735e+00 1.168251e+00 1.284783e+00 1.334477e+00 1.316328e+00 1.256560e+00 1.159691e+00 9.109835e-02
<GCONST> 7.727467e+01
<STATE> 3
~s "silst"
<STATE> 4
<MEAN> 25
 -4.019886e+00 3.179099e-01 -5.095766e-01 5.993851e-01 1.457353e+00 1.132814e+00 1.213923e+00 7.845578e-01 9.910414e-02 8.622868e-01 3.098262e-02 8.221961e-01 2.164376e-01 -8.445765e-02 6.012573e-02 -1.252113e-01 -4.790537e-05 -1.124702e-01 -6.022206e-02 -5.809232e-02 -6.546811e-02 -3.958771e-02 -5.797572e-02 -7.287845e-02 4.304887e-01
<VARIANCE> 25
 8.051266e+01 7.323658e+01 8.042940e+01 8.106474e+01 7.879120e+01 8.158041e+01 6.335200e+01 7.445033e+01 6.841137e+01 5.702640e+01 5.413987e+01 4.707345e+01 3.180740e+00 3.514937e+00 3.512072e+00 3.995252e+00 4.279058e+00 4.210421e+00 3.838109e+00 4.315273e+00 3.865541e+00 3.483062e+00 3.311090e+00 2.864128e+00 4.271416e+00
<GCONST> 1.138066e+02
<TRANSP> 5
 0.000000e+00 1.000000e+00 0.000000e+00 0.000000e+00 0.000000e+00
 0.000000e+00 9.173322e-01 3.517773e-02 4.749008e-02 0.000000e+00
 0.000000e+00 0.000000e+00 9.095665e-01 9.043350e-02 0.000000e+00
 0.000000e+00 5.487287e-02 0.000000e+00 8.020823e-01 1.430449e-01
 0.000000e+00 0.000000e+00 0.000000e+00 0.000000e+00 0.000000e+00
<ENDHMM>
