~o
<STREAMINFO> 1 25
<VECSIZE> 25<NULLD><MFCC_D_N_Z_0><DIAGC>
~s "silst"
<MEAN> 25
 -6.884772e+00 1.949658e+00 -1.615397e+00 4.174889e+00 3.939068e+00 3.262927e+00 3.404896e+00 2.384612e+00 1.386712e+00 1.230925e+00 1.550933e+00 3.081219e+00 -1.193201e-01 1.831626e-02 -8.914867e-03 3.264885e-02 3.757110e-02 4.127937e-02 2.993434e-02 1.437707e-02 1.132404e-02 2.999136e-02 3.596301e-02 2.142624e-02 -1.340009e-01
<VARIANCE> 25
 2.841760e+01 2.863839e+01 2.595345e+01 2.848170e+01 3.199166e+01 3.461811e+01 2.861661e+01 3.208798e+01 3.179690e+01 3.689636e+01 2.884166e+01 2.231635e+01 3.302563e-01 5.825902e-01 7.449679e-01 9.234831e-01 1.186026e+00 1.387002e+00 1.469596e+00 1.599055e+00 1.626188e+00 1.608674e+00 1.480791e+00 1.339477e+00 2.350828e-01
<GCONST> 8.614988e+01
~h "@"
<BEGINHMM>
<NUMSTATES> 5
<STATE> 2
<MEAN> 25
 3.330868e+00 -8.701257e-01 -7.795948e-01 -1.509441e+00 -1.370860e+00 -2.084223e+00 -2.527661e+00 -1.333794e+00 8.218068e-01 7.108669e-01 8.257449e-02 -1.033061e+00 1.622150e+00 -6.670101e-01 -1.085472e-01 -7.717436e-01 -8.227562e-01 -3.938340e-01 -8.473757e-01 1.606349e-01 1.527398e-01 -8.097637e-02 -2.042781e-01 -5.236448e-01 1.353361e+00
<VARIANCE> 25
 4.097252e+01 4.835017e+01 5.322963e+01 5.469741e+01 6.373349e+01 7.499946e+01 6.199032e+01 6.334066e+01 5.980106e+01 5.242364e+01 4.667048e+01 3.772079e+01 5.032639e+00 5.618515e+00 5.231613e+00 5.880255e+00 6.260396e+00 7.206623e+00 6.613116e+00 7.150719e+00 6.513920e+00 5.912381e+00 5.263537e+00 4.165572e+00 4.419770e+00
<GCONST> 1.164447e+02
<STATE> 3
<MEAN> 25
 5.094029e+00 -2.410981e+00 -1.190106e+00 -2.671221e+00 -2.343455e+00 -2.761307e+00 -3.697205e+00 -5.512823e-01 1.226993e+00 6.563663e-01 3.629173e-02 -1.576673e+00 7.832319e-01 -9.703937e-02 1.375793e-01 6.366454e-02 -2.705993e-01 9.926242e-02 -2.021386e-01 1.242529e-01 -4.746333e-02 -7.894428e-02 -2.258753e-01 -1.967874e-01 1.299033e-01
<VARIANCE> 25
 2.730735e+01 4.389526e+01 5.152082e+01 5.286492e+01 6.217963e+01 7.221010e+01 5.912592e+01 6.264521e+01 5.866348e+01 5.738186e+01 4.784451e+01 3.825613e+01 2.508738e+00 3.620986e+00 3.554751e+00 4.451275e+00 4.396417e+00 4.998795e+00 4.600979e+00 5.394423e+00 4.638288e+00 4.300893e+00 3.913397e+00 3.113490e+00 2.664884e+00
<GCONST> 1.109493e+02
<STATE> 4
<MEAN> 25
 4.921224e+00 -1.958028e+00 2.614625e-01 -1.762258e+00 -2.862154e+00 -3.184844e+00 -2.901384e+00 2.369623e-01 5.150633e-01 7.003764e-01 -6.098651e-02 -1.630237e+00 -1.146084e-01 6.229781e-01 2.473699e-01 7.055771e-01 3.705421e-01 4.360628e-01 3.244914e-01 -1.503417e-01 -1.579042e-01 -7.948609e-02 -1.669580e-01 9.808230e-02 -8.596333e-01
<VARIANCE> 25
 2.389667e+01 4.920650e+01 5.753001e+01 5.425991e+01 6.971690e+01 6.960741e+01 6.108768e+01 7.016490e+01 5.940071e+01 5.921503e+01 4.748162e+01 3.951022e+01 1.177005e+00 2.345842e+00 2.220213e+00 2.811621e+00 3.122371e+00 3.240151e+00 3.088985e+00 3.318161e+00 3.171386e+00 2.993484e+00 2.715936e+00 2.309158e+00 1.931838e+00
<GCONST> 1.058492e+02
<TRANSP> 5
 0.000000e+00 1.000000e+00 0.000000e+00 0.000000e+00 0.000000e+00
 0.000000e+00 2.278603e-01 7.721397e-01 0.000000e+00 0.000000e+00
 0.000000e+00 0.000000e+00 5.812928e-02 9.418707e-01 0.000000e+00
 0.000000e+00 0.000000e+00 0.000000e+00 5.193958e-01 4.806043e-01
 0.000000e+00 0.000000e+00 0.000000e+00 0.000000e+00 0.000000e+00
<ENDHMM>
~h "a"
<BEGINHMM>
<NUMSTATES> 5
<STATE> 2
<MEAN> 25
 4.799650e+00 -6.714635e+00 -4.039847e+00 -4.400174e+00 -4.895656e-01 -9.581331e-01 -4.492523e-01 2.759218e+00 2.296711e+00 -2.090670e-01 -2.149203e+00 -2.657405e+00 3.334385e-01 -1.211493e+00 -7.309963e-01 -5.599675e-01 5.075016e-01 2.526138e-01 3.087659e-01 7.523754e-01 2.125096e-01 -4.113451e-01 -6.934197e-01 -4.640275e-01 9.082959e-01
<VARIANCE> 25
 2.407116e+01 3.952116e+01 4.943601e+01 5.012150e+01 6.821519e+01 7.450682e+01 6.158392e+01 6.513043e+01 5.530224e+01 5.324232e+01 5.177705e+01 4.487250e+01 1.743813e+00 2.875944e+00 3.158149e+00 3.440698e+00 4.403844e+00 4.357869e+00 4.314895e+00 4.951969e+00 4.257730e+00 4.005633e+00 3.956929e+00 3.260574e+00 2.260774e+00
<GCONST> 1.094126e+02
<STATE> 3
<MEAN> 25
 5.092460e+00 -8.924283e+00 -5.030704e+00 -5.547171e+00 8.091191e-01 -5.255459e-01 -1.671499e-01 3.825474e+00 2.532907e+00 -6.699902e-01 -3.753969e+00 -3.810268e+00 -1.122316e-02 4.211679e-01 3.009131e-02 4.485588e-01 1.577068e-01 4.230320e-02 1.195156e-01 -1.568318e-01 -1.600601e-01 -2.064682e-02 -7.261505e-02 2.314669e-01 -5.481713e-01
<VARIANCE> 25
 1.572891e+01 3.316280e+01 4.233453e+01 3.925820e+01 6.288772e+01 6.734938e+01 5.863613e+01 6.185897e+01 5.598765e+01 5.414716e+01 5.325484e+01 4.647657e+01 4.969166e-01 1.490846e+00 1.451119e+00 1.730597e+00 2.306570e+00 2.556478e+00 2.433949e+00 2.639476e+00 2.296279e+00 2.365889e+00 2.311753e+00 1.987458e+00 1.071430e+00
<GCONST> 9.953955e+01
<STATE> 4
<MEAN> 25
 3.218401e+00 -3.440845e+00 -4.304840e+00 -8.708598e-01 1.351702e+00 3.962347e-02 1.366989e+00 2.198593e+00 1.079947e+00 -1.065953e+00 -2.477871e+00 -8.919896e-01 -3.785087e-01 9.386134e-01 4.744522e-01 6.456444e-01 7.560688e-02 1.794096e-01 3.874797e-02 -2.855427e-01 -1.444879e-01 1.167383e-01 2.562659e-01 2.607799e-01 -1.094583e+00
<VARIANCE> 25
 2.166818e+01 3.167406e+01 3.737048e+01 4.143097e+01 5.070850e+01 5.142232e+01 4.406490e+01 4.466937e+01 4.495172e+01 4.509724e+01 4.374524e+01 3.103378e+01 8.353404e-01 1.444292e+00 1.568109e+00 1.853293e+00 2.305646e+00 2.310891e+00 2.415583e+00 2.582018e+00 2.444265e+00 2.399110e+00 2.259590e+00 1.940163e+00 9.631781e-01
<GCONST> 9.806949e+01
<TRANSP> 5
 0.000000e+00 1.000000e+00 0.000000e+00 0.000000e+00 0.000000e+00
 0.000000e+00 4.841186e-01 5.158814e-01 0.000000e+00 0.000000e+00
 0.000000e+00 0.000000e+00 6.474056e-01 3.525944e-01 0.000000e+00
 0.000000e+00 0.000000e+00 0.000000e+00 6.695954e-01 3.304046e-01
 0.000000e+00 0.000000e+00 0.000000e+00 0.000000e+00 0.000000e+00
<ENDHMM>
~h "b"
<BEGINHMM>
<NUMSTATES> 5
<STATE> 2
<MEAN> 25
 4.326031e+00 8.308647e+00 2.700052e+00 4.519179e+00 2.002846e+00 1.432441e+00 -8.194630e-01 -2.968436e+00 -2.585556e+00 -1.857211e+00 -1.518316e+00 -1.615394e+00 9.475114e-02 8.105800e-01 2.537334e-01 5.103035e-01 3.377576e-01 7.723147e-02 1.845243e-01 -1.524258e-01 -1.675527e-01 -2.239411e-01 -1.304335e-01 -3.180521e-02 -3.789674e-01
<VARIANCE> 25
 2.675578e+01 3.537496e+01 2.981484e+01 3.312053e+01 3.187092e+01 3.854132e+01 3.676739e+01 3.955433e+01 3.711655e+01 3.416070e+01 2.981292e+01 2.704935e+01 1.637364e+00 2.837969e+00 2.279591e+00 3.052539e+00 2.581560e+00 2.884701e+00 3.036335e+00 2.869950e+00 2.870279e+00 2.876404e+00 2.647186e+00 2.126946e+00 2.409106e+00
<GCONST> 1.002956e+02
<STATE> 3
<MEAN> 25
 4.732883e+00 7.740605e+00 1.898096e+00 3.807620e+00 1.997434e+00 1.253790e+00 -1.041959e+00 -3.989761e+00 -3.037076e+00 -1.345980e+00 -4.117782e-01 -8.072745e-01 7.440449e-01 -2.030893e+00 -1.200803e+00 -2.088107e+00 -1.135185e+00 -1.040414e+00 -1.483405e+00 -2.392482e-01 7.257596e-01 9.811612e-01 1.245998e+00 5.740789e-02 2.557570e+00
<VARIANCE> 25
 2.412396e+01 4.170105e+01 3.166987e+01 3.903392e+01 3.361600e+01 4.065660e+01 3.832431e+01 4.035932e+01 3.754634e+01 3.544893e+01 3.406348e+01 2.855784e+01 3.119977e+00 4.944788e+00 4.957907e+00 6.356892e+00 5.089389e+00 6.063762e+00 5.627985e+00 5.553645e+00 6.541017e+00 7.441141e+00 5.313128e+00 4.383120e+00 3.505711e+00
<GCONST> 1.099642e+02
<STATE> 4
<MEAN> 25
 6.469675e+00 1.526512e+00 -7.013512e-01 -1.318697e+00 -1.111987e+00 -1.299806e+00 -5.921029e+00 -3.035753e+00 5.926234e-01 1.158451e+00 2.538707e+00 -2.053396e+00 1.850513e-01 -2.152066e+00 -5.079353e-01 -1.480070e+00 -1.059068e+00 -8.633190e-01 -7.474836e-01 8.931759e-01 1.054724e+00 4.702184e-01 2.964514e-01 -3.499043e-01 2.105441e+00
<VARIANCE> 25
 3.308178e+01 6.115276e+01 6.312472e+01 9.778899e+01 7.165370e+01 9.776274e+01 7.232774e+01 7.942344e+01 7.570647e+01 1.034176e+02 7.132671e+01 5.477223e+01 2.558930e+00 5.775659e+00 5.910163e+00 7.521852e+00 6.831592e+00 8.243529e+00 7.891327e+00 8.480428e+00 8.455194e+00 8.126287e+00 6.947278e+00 6.528032e+00 4.052905e+00
<GCONST> 1.211997e+02
<TRANSP> 5
 0.000000e+00 1.000000e+00 0.000000e+00 0.000000e+00 0.000000e+00
 0.000000e+00 6.672281e-01 3.327719e-01 0.000000e+00 0.000000e+00
 0.000000e+00 0.000000e+00 3.811570e-01 6.188430e-01 0.000000e+00
 0.000000e+00 0.000000e+00 0.000000e+00 4.414343e-01 5.585657e-01
 0.000000e+00 0.000000e+00 0.000000e+00 0.000000e+00 0.000000e+00
<ENDHMM>
~h "c"
<BEGINHMM>
<NUMSTATES> 5
<STATE> 2
<MEAN> 25
 -7.893366e+00 5.195460e+00 5.094872e-01 1.657793e+00 3.373476e+00 -5.405868e-01 2.272691e+00 -2.077877e-01 1.403590e+00 1.895959e-01 1.722618e+00 1.670852e+00 -2.405507e+00 2.193882e-01 -1.506863e-01 -8.022630e-01 3.636307e-01 6.550577e-02 6.412727e-01 -5.287896e-02 5.242000e-01 1.454461e-01 5.116650e-01 2.489761e-01 7.625887e-01
<VARIANCE> 25
 7.482494e+01 4.713068e+01 5.249451e+01 4.755722e+01 5.056765e+01 5.648843e+01 4.901556e+01 5.380372e+01 4.600481e+01 3.707359e+01 3.709458e+01 2.845765e+01 5.316112e+00 4.562024e+00 5.145634e+00 5.026540e+00 5.037652e+00 5.189175e+00 4.213325e+00 4.848628e+00 4.029842e+00 3.638941e+00 3.298257e+00 2.526174e+00 6.438553e+00
<GCONST> 1.115657e+02
<STATE> 3
<MEAN> 25
 -1.364404e+01 1.037524e-01 5.395343e+00 -2.236022e+00 -2.648077e-01 1.605067e+00 3.562839e+00 -1.382135e+00 2.365063e+00 4.017378e-01 2.990766e+00 2.759866e+00 1.604218e+00 -1.392116e+00 1.069586e+00 -1.012503e-01 -1.702490e+00 -1.127357e+00 -6.631551e-01 -9.264501e-02 -1.976354e-01 -4.443113e-01 -1.200175e-01 -7.734524e-02 1.594868e+00
<VARIANCE> 25
 6.729652e+01 1.299707e+02 1.159916e+02 7.224479e+01 8.368434e+01 1.287569e+02 6.746375e+01 6.691251e+01 5.011827e+01 5.511813e+01 4.331585e+01 3.755299e+01 9.668888e+00 7.597834e+00 7.600945e+00 5.952755e+00 7.141577e+00 7.193152e+00 5.492526e+00 5.658824e+00 5.061673e+00 4.604546e+00 4.215010e+00 3.114587e+00 4.005061e+00
<GCONST> 1.196706e+02
<STATE> 4
<MEAN> 25
 -1.713929e+00 -1.537737e+00 4.226368e+00 -7.478938e-01 -4.093472e+00 -5.040308e+00 -8.273216e-01 -5.787549e-01 1.142232e+00 -1.819425e+00 5.484198e-01 1.340942e+00 4.088279e+00 -1.170696e+00 -1.059147e+00 -2.777754e-01 -9.568176e-01 -1.182702e+00 -1.112179e+00 2.629598e-01 -4.076071e-01 -1.419824e-01 -7.934425e-01 -7.777966e-01 1.319279e+00
<VARIANCE> 25
 4.078394e+01 5.471694e+01 5.147451e+01 4.723029e+01 5.832821e+01 7.643398e+01 5.556216e+01 6.348587e+01 4.834490e+01 3.916986e+01 3.753655e+01 2.835155e+01 4.742820e+00 8.883017e+00 8.759341e+00 4.973648e+00 7.383059e+00 6.989427e+00 5.844211e+00 6.611869e+00 5.764970e+00 5.861517e+00 5.110967e+00 3.472976e+00 2.049527e+00
<GCONST> 1.147678e+02
<TRANSP> 5
 0.000000e+00 1.000000e+00 0.000000e+00 0.000000e+00 0.000000e+00
 0.000000e+00 7.478200e-01 2.521800e-01 0.000000e+00 0.000000e+00
 0.000000e+00 0.000000e+00 5.944923e-01 4.055077e-01 0.000000e+00
 0.000000e+00 0.000000e+00 0.000000e+00 4.411185e-01 5.588815e-01
 0.000000e+00 0.000000e+00 0.000000e+00 0.000000e+00 0.000000e+00
<ENDHMM>
~h "d"
<BEGINHMM>
<NUMSTATES> 5
<STATE> 2
<MEAN> 25
 3.208525e+00 5.197950e+00 3.991297e+00 6.293487e+00 8.601813e-01 -8.222475e-01 -1.644489e+00 -1.014185e+00 -2.381085e-01 -2.071090e+00 -2.383446e+00 -5.909319e-01 1.485470e-01 3.080234e-01 6.235572e-01 4.711900e-01 3.904125e-02 -2.927030e-01 -1.978939e-01 -1.856204e-01 -2.246371e-01 -3.842659e-01 4.232879e-02 7.319099e-02 1.498579e-01
<VARIANCE> 25
 3.840329e+01 5.955410e+01 4.037173e+01 4.856223e+01 6.062660e+01 5.465990e+01 5.095086e+01 4.947907e+01 4.454658e+01 4.025922e+01 4.067238e+01 3.148941e+01 3.216008e+00 6.844423e+00 3.568797e+00 5.243328e+00 5.398075e+00 5.601396e+00 5.454244e+00 5.047204e+00 4.554374e+00 4.320705e+00 4.031796e+00 3.325633e+00 6.086738e+00
<GCONST> 1.119748e+02
<STATE> 3
<MEAN> 25
 3.096483e+00 8.501241e-01 5.625734e+00 3.988239e+00 -1.751452e+00 -3.494873e+00 -3.504503e+00 -9.591017e-01 -7.583255e-01 -3.001692e+00 -6.930079e-02 1.221707e+00 -2.205410e-02 -2.596000e+00 4.190067e-01 -2.125516e+00 -2.126889e+00 -1.546762e+00 -1.209556e+00 8.261197e-01 2.285566e-01 1.890110e-01 1.428464e+00 5.126113e-01 3.049791e+00
<VARIANCE> 25
 2.231099e+01 4.952691e+01 4.271152e+01 5.404210e+01 6.876717e+01 6.539750e+01 5.942255e+01 5.665764e+01 5.527409e+01 4.255685e+01 4.230518e+01 3.881102e+01 3.200347e+00 4.975051e+00 5.731700e+00 5.570409e+00 6.674525e+00 7.384048e+00 7.634024e+00 8.792331e+00 7.409115e+00 6.390906e+00 5.465272e+00 4.228113e+00 3.901188e+00
<GCONST> 1.150928e+02
<STATE> 4
<MEAN> 25
 3.942257e+00 -3.175553e+00 5.952828e+00 6.583953e-02 -6.568027e+00 -6.725610e+00 -5.968599e+00 2.149766e+00 3.644933e-01 -1.998247e+00 2.258440e+00 6.790139e-01 6.517099e-02 -7.733507e-01 -2.747313e-01 -1.326733e+00 -8.612850e-01 -2.460624e-01 1.140969e-02 5.901266e-01 2.078863e-01 5.909371e-01 2.434563e-01 -4.730660e-01 1.113298e+00
<VARIANCE> 25
 2.319086e+01 3.951755e+01 5.806768e+01 6.776886e+01 8.299945e+01 6.730975e+01 7.953854e+01 9.157021e+01 7.727339e+01 6.580923e+01 5.769716e+01 4.200752e+01 1.389541e+00 2.781090e+00 4.713744e+00 4.013290e+00 5.749200e+00 4.793436e+00 5.414389e+00 5.654716e+00 5.024709e+00 4.192584e+00 4.852559e+00 3.761835e+00 2.597214e+00
<GCONST> 1.128301e+02
<TRANSP> 5
 0.000000e+00 1.000000e+00 0.000000e+00 0.000000e+00 0.000000e+00
 0.000000e+00 5.840392e-01 4.159607e-01 0.000000e+00 0.000000e+00
 0.000000e+00 0.000000e+00 4.172274e-01 5.827727e-01 0.000000e+00
 0.000000e+00 0.000000e+00 0.000000e+00 4.116228e-01 5.883772e-01
 0.000000e+00 0.000000e+00 0.000000e+00 0.000000e+00 0.000000e+00
<ENDHMM>
~h "e"
<BEGINHMM>
<NUMSTATES> 5
<STATE> 2
<MEAN> 25
 2.945647e+00 -3.847544e+00 1.210857e+00 -5.635526e-01 -4.546406e+00 -4.403501e+00 -2.178469e-01 2.296396e+00 4.550324e-02 3.183990e-01 5.821553e-01 -4.374092e-01 6.866555e-01 -1.131509e+00 3.080806e-01 -6.800693e-01 -1.049346e+00 -6.756529e-01 3.689549e-01 7.899201e-01 -3.907404e-01 -1.047758e-01 1.761262e-01 -2.010390e-01 1.400392e+00
<VARIANCE> 25
 4.451521e+01 5.446838e+01 6.929311e+01 5.832425e+01 7.326437e+01 9.108699e+01 6.957564e+01 8.192374e+01 6.290070e+01 5.470838e+01 5.299763e+01 3.816233e+01 4.301222e+00 4.454999e+00 5.577386e+00 5.620018e+00 6.015905e+00 7.059891e+00 5.874536e+00 7.055090e+00 5.785828e+00 4.955685e+00 4.645549e+00 3.506404e+00 4.261397e+00
<GCONST> 1.167217e+02
<STATE> 3
<MEAN> 25
 3.643183e+00 -5.962099e+00 3.849568e+00 -1.536441e+00 -8.166246e+00 -7.238964e+00 1.322977e+00 4.475325e+00 -2.048621e+00 4.835035e-01 1.668475e+00 -1.500451e+00 -1.239371e-01 5.110195e-01 -3.189550e-02 3.335415e-01 2.658492e-01 3.470855e-01 2.819833e-01 -3.118843e-01 -8.731639e-02 6.937684e-02 -1.192253e-01 7.137595e-02 -6.413161e-01
<VARIANCE> 25
 2.172823e+01 4.390078e+01 7.750312e+01 5.561212e+01 6.803428e+01 8.092314e+01 7.804739e+01 9.004195e+01 7.071388e+01 5.051659e+01 5.427218e+01 3.551509e+01 9.218515e-01 2.026777e+00 2.256156e+00 2.376732e+00 2.826876e+00 2.870383e+00 2.929493e+00 3.031434e+00 3.042353e+00 2.685138e+00 2.594595e+00 2.000227e+00 2.072793e+00
<GCONST> 1.054501e+02
<STATE> 4
<MEAN> 25
 2.020591e+00 -2.542194e+00 1.253910e+00 -1.126385e-02 -4.022391e+00 -3.536636e+00 1.570664e+00 1.633646e+00 -5.775670e-01 8.067749e-01 3.960871e-01 -1.421227e-01 -2.241166e-01 5.185255e-01 -1.713617e-01 3.035736e-01 6.177337e-01 3.917035e-01 -3.259235e-02 -1.971207e-01 6.729044e-02 -4.362140e-02 -1.009199e-01 9.071182e-02 -6.452855e-01
<VARIANCE> 25
 2.640665e+01 3.682804e+01 5.476179e+01 4.746110e+01 5.755188e+01 6.364727e+01 5.793640e+01 6.041098e+01 5.206827e+01 4.177573e+01 3.706059e+01 2.878654e+01 6.234374e-01 1.119299e+00 1.219252e+00 1.336878e+00 2.071359e+00 1.975401e+00 1.989068e+00 2.128840e+00 1.975039e+00 1.897762e+00 1.680941e+00 1.480996e+00 7.101398e-01
<GCONST> 9.658564e+01
<TRANSP> 5
 0.000000e+00 1.000000e+00 0.000000e+00 0.000000e+00 0.000000e+00
 0.000000e+00 5.293568e-01 4.706432e-01 0.000000e+00 0.000000e+00
 0.000000e+00 0.000000e+00 6.216536e-01 3.783464e-01 0.000000e+00
 0.000000e+00 0.000000e+00 0.000000e+00 6.993993e-01 3.006007e-01
 0.000000e+00 0.000000e+00 0.000000e+00 0.000000e+00 0.000000e+00
<ENDHMM>
~h "f"
<BEGINHMM>
<NUMSTATES> 5
<STATE> 2
<MEAN> 25
 -3.818285e+00 2.011738e+00 1.696277e+00 5.382639e+00 2.654465e+00 -1.778293e-01 2.023836e+00 1.631233e-01 1.057365e+00 2.899679e-01 1.090236e+00 8.903986e-01 -2.145554e+00 -1.864248e-01 -4.384901e-01 5.315102e-01 8.421122e-01 2.138111e-01 4.931424e-01 3.741967e-01 9.027868e-01 2.645995e-01 2.674983e-01 4.100338e-01 -6.419516e-01
<VARIANCE> 25
 4.392855e+01 2.596742e+01 4.838333e+01 4.848000e+01 4.389659e+01 5.358114e+01 3.837908e+01 4.320194e+01 3.437611e+01 3.167789e+01 2.817107e+01 2.789940e+01 2.964662e+00 2.977764e+00 3.027191e+00 4.095016e+00 4.396550e+00 4.468713e+00 3.516271e+00 3.677095e+00 3.522655e+00 3.209080e+00 2.993591e+00 2.274440e+00 1.621497e+00
<GCONST> 1.046425e+02
<STATE> 3
<MEAN> 25
 -9.351385e+00 -1.209938e+00 -1.791508e-01 4.355145e+00 3.615179e+00 -4.623491e-01 2.938298e+00 7.526679e-01 2.648078e+00 1.415791e+00 1.814885e+00 2.011655e+00 4.395077e-01 -4.851028e-01 -7.933322e-03 -4.075641e-01 -4.726676e-01 -3.397751e-01 -1.660558e-01 -1.936865e-01 -3.448995e-01 -1.126043e-01 -7.899660e-02 -4.806032e-02 1.892265e-01
<VARIANCE> 25
 3.341970e+01 2.961825e+01 3.626549e+01 4.172864e+01 3.573674e+01 5.117532e+01 3.105238e+01 3.420521e+01 3.081361e+01 2.700674e+01 2.496573e+01 2.227350e+01 3.725979e+00 2.351364e+00 2.544708e+00 2.490922e+00 2.500485e+00 3.221287e+00 2.601951e+00 2.498029e+00 2.826154e+00 2.273298e+00 2.085453e+00 1.912231e+00 1.603590e+00
<GCONST> 9.938162e+01
<STATE> 4
<MEAN> 25
 -4.345618e+00 -2.318453e+00 6.814378e-01 1.305260e+00 1.542033e+00 2.579952e+00 7.330396e-01 -1.761200e+00 3.572112e-01 5.702802e-01 6.580380e-01 9.495926e-01 2.478366e+00 3.599077e-02 2.546524e-01 -1.121074e+00 -1.410202e+00 -5.394231e-01 -8.942548e-01 -5.236295e-01 -9.506584e-01 -3.012448e-01 -1.109695e-01 -6.266550e-01 1.310627e+00
<VARIANCE> 25
 7.398402e+01 6.926613e+01 9.438416e+01 1.186009e+02 7.843249e+01 1.424240e+02 6.904966e+01 6.282000e+01 5.790848e+01 4.994936e+01 3.739122e+01 3.207157e+01 6.993856e+00 6.442326e+00 8.300086e+00 8.699571e+00 7.744132e+00 1.013921e+01 5.385642e+00 5.599553e+00 6.549714e+00 4.804601e+00 4.673435e+00 3.789495e+00 4.043138e+00
<GCONST> 1.201447e+02
<TRANSP> 5
 0.000000e+00 1.000000e+00 0.000000e+00 0.000000e+00 0.000000e+00
 0.000000e+00 6.948208e-01 3.051792e-01 0.000000e+00 0.000000e+00
 0.000000e+00 0.000000e+00 6.652204e-01 3.347796e-01 0.000000e+00
 0.000000e+00 0.000000e+00 0.000000e+00 5.179511e-01 4.820489e-01
 0.000000e+00 0.000000e+00 0.000000e+00 0.000000e+00 0.000000e+00
<ENDHMM>
~h "g"
<BEGINHMM>
<NUMSTATES> 5
<STATE> 2
<MEAN> 25
 3.610548e+00 4.408133e+00 3.015631e+00 2.914086e+00 4.641332e-02 3.350232e-01 -1.057666e+00 -2.579113e+00 -2.350883e+00 -2.535414e-01 -1.296020e+00 -1.632293e+00 -3.665921e-01 1.121014e-01 -9.863425e-03 2.588562e-01 4.472191e-01 -2.112109e-01 -2.919981e-02 1.656609e-01 3.127593e-02 3.558198e-02 8.403192e-02 7.375922e-03 -1.694928e-01
<VARIANCE> 25
 2.583863e+01 4.420574e+01 4.262207e+01 4.519910e+01 5.802783e+01 5.868789e+01 5.216306e+01 5.090134e+01 4.840590e+01 4.365191e+01 3.758779e+01 3.299923e+01 2.201129e+00 4.123727e+00 3.530010e+00 3.910018e+00 4.787966e+00 4.846925e+00 4.494395e+00 4.327500e+00 4.312465e+00 3.750498e+00 3.382661e+00 2.864292e+00 3.182378e+00
<GCONST> 1.085024e+02
<STATE> 3
<MEAN> 25
 2.842034e+00 2.242794e+00 2.298185e+00 2.491786e+00 7.558432e-01 -1.858739e+00 -2.500192e+00 -1.244244e+00 -1.922784e+00 2.870744e-01 -3.212298e-01 -1.410718e+00 -2.008202e-01 -1.183606e+00 -1.990707e-01 -9.134350e-01 -3.893509e-01 -9.475030e-01 -4.626552e-01 8.295451e-01 3.991157e-01 1.493044e-01 4.903939e-01 7.144564e-02 1.348202e+00
<VARIANCE> 25
 2.867828e+01 5.171829e+01 5.266902e+01 5.455007e+01 7.631815e+01 7.791059e+01 7.064511e+01 5.883770e+01 5.318465e+01 5.204469e+01 4.813825e+01 3.802468e+01 2.892543e+00 5.299498e+00 5.238593e+00 5.446662e+00 8.824473e+00 6.696118e+00 6.662407e+00 6.423655e+00 5.974228e+00 5.445154e+00 4.959695e+00 4.084459e+00 3.957438e+00
<GCONST> 1.154558e+02
<STATE> 4
<MEAN> 25
 2.331828e+00 1.291475e+00 2.170879e+00 7.948955e-01 -8.567824e-01 -2.386863e+00 -2.291244e+00 1.808534e-01 -7.616375e-01 -7.934929e-02 -1.083824e-01 -1.336582e+00 -2.684668e-01 -6.753558e-01 -2.332129e-01 -7.892640e-01 -2.279622e-01 -7.281537e-02 1.267571e-01 5.007503e-01 3.316444e-01 7.999029e-03 1.697884e-01 1.053245e-01 6.806637e-01
<VARIANCE> 25
 4.499016e+01 6.051789e+01 5.915477e+01 7.181412e+01 8.073875e+01 8.977363e+01 7.489456e+01 6.977028e+01 6.585026e+01 6.519424e+01 5.681192e+01 4.484967e+01 2.030251e+00 3.030560e+00 3.960330e+00 3.689023e+00 4.603399e+00 4.180339e+00 4.194560e+00 4.602813e+00 4.335675e+00 3.799998e+00 3.692062e+00 3.024807e+00 1.951123e+00
<GCONST> 1.121677e+02
<TRANSP> 5
 0.000000e+00 1.000000e+00 0.000000e+00 0.000000e+00 0.000000e+00
 0.000000e+00 3.154974e-01 6.845026e-01 0.000000e+00 0.000000e+00
 0.000000e+00 0.000000e+00 3.614150e-01 6.385850e-01 0.000000e+00
 0.000000e+00 0.000000e+00 0.000000e+00 2.791875e-01 7.208125e-01
 0.000000e+00 0.000000e+00 0.000000e+00 0.000000e+00 0.000000e+00
<ENDHMM>
~h "h"
<BEGINHMM>
<NUMSTATES> 5
<STATE> 2
<MEAN> 25
 6.601301e-01 -2.889533e+00 -1.159794e+00 2.263175e-01 3.246328e+00 1.528942e+00 3.259043e+00 1.231425e+00 4.343619e-01 -1.041722e+00 -1.401871e+00 2.523984e-01 -7.764854e-01 1.931537e-01 6.823134e-02 6.464365e-01 7.377366e-01 4.141216e-01 5.593091e-01 1.624566e-01 1.254867e-01 -3.279699e-02 1.138991e-01 3.082384e-01 -8.163872e-01
<VARIANCE> 25
 4.169975e+01 5.355609e+01 6.660382e+01 6.370468e+01 1.036766e+02 7.871166e+01 7.536221e+01 6.708004e+01 6.065694e+01 6.826861e+01 5.558177e+01 4.153350e+01 2.128481e+00 3.508718e+00 3.545493e+00 3.621702e+00 4.706637e+00 4.394406e+00 4.534884e+00 4.237688e+00 4.010154e+00 4.083095e+00 3.554116e+00 3.003343e+00 2.493587e+00
<GCONST> 1.122451e+02
<STATE> 3
<MEAN> 25
 -8.207163e-01 -3.361647e+00 -1.474405e+00 1.306583e+00 4.201393e+00 2.051072e+00 3.893711e+00 1.724574e+00 2.473243e-01 -1.426207e+00 -1.254702e+00 6.258079e-01 -4.345366e-01 2.707688e-01 -5.158306e-02 2.427399e-01 1.139150e-01 1.569704e-01 4.721854e-02 -4.033203e-02 5.103371e-02 1.236762e-01 1.077308e-01 1.254366e-01 -7.272340e-01
<VARIANCE> 25
 3.781005e+01 5.508269e+01 6.082850e+01 5.616346e+01 8.614299e+01 6.200914e+01 6.563627e+01 6.224227e+01 5.238726e+01 5.081346e+01 4.822822e+01 3.720287e+01 9.353982e-01 1.659210e+00 1.989398e+00 2.078083e+00 2.752141e+00 2.627019e+00 2.754114e+00 2.773983e+00 2.657499e+00 2.551082e+00 2.362666e+00 2.051221e+00 9.901174e-01
<GCONST> 1.033549e+02
<STATE> 4
<MEAN> 25
 -1.612105e+00 -2.045983e+00 -2.102804e+00 9.442556e-01 2.683148e+00 1.634165e+00 2.339776e+00 6.246558e-01 4.698059e-01 -4.569081e-01 -6.282746e-01 5.802847e-01 -7.244580e-02 1.517137e-01 1.130721e-02 2.282462e-02 -6.712448e-02 -4.030511e-02 -7.004746e-02 -7.114515e-02 -4.379281e-02 2.619769e-02 1.606305e-02 4.884731e-03 -2.316554e-01
<VARIANCE> 25
 2.937258e+01 3.651850e+01 3.875695e+01 3.542859e+01 4.618885e+01 3.644193e+01 3.609154e+01 3.640408e+01 3.343148e+01 3.624402e+01 3.342494e+01 2.583156e+01 4.165820e-01 7.042254e-01 9.498485e-01 1.037968e+00 1.359165e+00 1.462160e+00 1.585302e+00 1.686140e+00 1.649335e+00 1.629730e+00 1.521187e+00 1.353268e+00 3.500304e-01
<GCONST> 8.971005e+01
<TRANSP> 5
 0.000000e+00 1.000000e+00 0.000000e+00 0.000000e+00 0.000000e+00
 0.000000e+00 5.128108e-01 4.871892e-01 0.000000e+00 0.000000e+00
 0.000000e+00 0.000000e+00 4.246643e-01 5.753357e-01 0.000000e+00
 0.000000e+00 0.000000e+00 0.000000e+00 7.624094e-01 2.375906e-01
 0.000000e+00 0.000000e+00 0.000000e+00 0.000000e+00 0.000000e+00
<ENDHMM>
~h "i"
<BEGINHMM>
<NUMSTATES> 5
<STATE> 2
<MEAN> 25
 3.645075e-01 7.839994e-01 1.114197e+01 9.471111e-01 -6.712708e+00 -4.578873e+00 -2.733537e+00 -3.663991e+00 -4.191909e+00 -6.306725e-01 2.070242e+00 -2.417573e-01 4.122633e-01 -2.245756e-01 2.304598e+00 -9.276700e-01 -2.043603e+00 -4.160218e-01 -9.789040e-01 -4.516193e-01 -1.142220e+00 1.144418e-01 6.537267e-01 -2.777431e-01 1.199862e+00
<VARIANCE> 25
 3.284618e+01 5.466674e+01 7.165414e+01 8.222901e+01 9.218288e+01 8.245583e+01 6.722090e+01 7.155962e+01 6.276500e+01 5.150999e+01 5.277591e+01 3.853570e+01 4.294908e+00 3.998485e+00 6.488336e+00 7.228421e+00 7.187540e+00 7.410751e+00 6.531558e+00 6.479013e+00 6.240534e+00 5.339255e+00 5.698681e+00 3.900281e+00 2.588063e+00
<GCONST> 1.172049e+02
<STATE> 3
<MEAN> 25
 5.663409e-01 1.019871e+00 1.661350e+01 -1.713083e+00 -1.258261e+01 -4.550211e+00 -4.264067e+00 -3.482257e+00 -7.707974e+00 -3.988438e-01 5.074139e+00 -1.510207e+00 1.162129e-01 2.450164e-01 -2.211695e-01 6.929680e-02 1.111176e-01 9.204752e-02 5.563999e-02 4.617049e-02 1.827127e-01 1.648044e-01 -2.229766e-01 7.577732e-02 -3.485597e-01
<VARIANCE> 25
 1.519199e+01 3.721504e+01 6.291505e+01 7.063197e+01 6.457345e+01 7.872655e+01 5.538234e+01 6.551619e+01 6.208507e+01 6.156433e+01 6.071250e+01 4.229955e+01 8.479668e-01 1.838313e+00 2.811094e+00 2.688982e+00 3.109476e+00 3.226151e+00 3.059322e+00 3.416861e+00 3.067046e+00 2.565334e+00 2.604447e+00 2.074769e+00 1.511595e+00
<GCONST> 1.047959e+02
<STATE> 4
<MEAN> 25
 5.395740e-02 3.561260e+00 1.022384e+01 5.214199e-01 -5.190231e+00 -2.429707e+00 -3.555594e+00 -4.555757e+00 -2.643475e+00 -5.307180e-02 -3.738634e-01 2.529621e-01 -1.358006e-01 2.389175e-01 -1.027594e+00 5.737022e-01 9.731715e-01 3.468394e-01 4.573194e-01 3.106416e-01 4.084256e-01 -8.564679e-02 -2.074094e-01 1.476304e-01 -8.921030e-01
<VARIANCE> 25
 2.041469e+01 4.425485e+01 4.556149e+01 1.076000e+02 7.444460e+01 6.768149e+01 6.594299e+01 5.580161e+01 5.273103e+01 4.676664e+01 4.716227e+01 3.777373e+01 9.617295e-01 1.648692e+00 2.203293e+00 2.674454e+00 3.080346e+00 2.830717e+00 2.941836e+00 2.813369e+00 2.727009e+00 2.586329e+00 2.529064e+00 1.971236e+00 1.214528e+00
<GCONST> 1.035496e+02
<TRANSP> 5
 0.000000e+00 1.000000e+00 0.000000e+00 0.000000e+00 0.000000e+00
 0.000000e+00 5.351934e-01 4.648066e-01 0.000000e+00 0.000000e+00
 0.000000e+00 0.000000e+00 6.801699e-01 3.198301e-01 0.000000e+00
 0.000000e+00 0.000000e+00 0.000000e+00 7.506483e-01 2.493518e-01
 0.000000e+00 0.000000e+00 0.000000e+00 0.000000e+00 0.000000e+00
<ENDHMM>
~h "j"
<BEGINHMM>
<NUMSTATES> 5
<STATE> 2
<MEAN> 25
 -2.772866e+00 7.304766e+00 5.202120e+00 3.867123e+00 2.208095e+00 -1.060402e+00 6.045520e-01 -6.799603e-01 -6.174312e-01 -2.211235e+00 -4.054975e-01 5.731395e-01 -1.480097e+00 4.931833e-01 6.284983e-01 -4.391204e-01 1.889547e-01 -9.262994e-02 2.343315e-01 -3.783526e-01 4.712006e-02 -2.560335e-02 3.055999e-01 1.827613e-01 6.547911e-01
<VARIANCE> 25
 6.994785e+01 5.000546e+01 5.245081e+01 4.937984e+01 5.687802e+01 5.701056e+01 4.532265e+01 4.289337e+01 3.948040e+01 3.428194e+01 3.245785e+01 2.883688e+01 5.833592e+00 5.069693e+00 4.653396e+00 5.284472e+00 5.838463e+00 5.737943e+00 4.523847e+00 4.224864e+00 4.024675e+00 3.647722e+00 3.370693e+00 2.676483e+00 5.485055e+00
<GCONST> 1.113143e+02
<STATE> 3
<MEAN> 25
 -4.847697e+00 3.934933e+00 1.174127e+01 1.387103e+00 -3.466446e+00 -4.204319e+00 -1.677213e+00 -3.734624e+00 -2.554672e+00 -2.242671e+00 2.305967e+00 2.154268e+00 1.749717e+00 -1.868557e+00 1.173207e+00 -4.796333e-01 -2.812840e+00 -1.965574e+00 -1.597741e+00 -1.785422e-02 -6.786924e-01 2.733125e-02 8.504473e-01 3.225273e-01 1.877227e+00
<VARIANCE> 25
 4.655367e+01 8.126577e+01 6.208792e+01 6.312450e+01 7.580503e+01 8.325675e+01 5.884780e+01 4.959249e+01 4.488966e+01 4.554248e+01 3.614843e+01 3.636185e+01 6.016603e+00 6.592281e+00 7.015353e+00 5.929624e+00 7.813129e+00 6.067649e+00 6.047410e+00 6.343241e+00 4.983287e+00 5.432131e+00 4.186768e+00 3.398311e+00 2.341443e+00
<GCONST> 1.157105e+02
<STATE> 4
<MEAN> 25
 1.810197e+00 -1.254020e+00 1.019909e+01 -8.637126e-01 -9.765295e+00 -9.124418e+00 -5.221381e+00 1.264817e+00 -1.978641e+00 -1.015840e+00 3.734339e+00 2.280490e+00 1.074236e+00 -1.129397e+00 -1.476122e+00 -4.752163e-01 1.264416e-01 1.084822e-01 -2.027904e-01 1.106828e+00 8.167278e-01 4.078357e-01 -3.611830e-01 -6.786516e-01 3.667063e-01
<VARIANCE> 25
 1.525587e+01 3.224318e+01 4.260597e+01 6.177071e+01 5.734359e+01 4.758276e+01 6.292855e+01 7.294277e+01 5.298302e+01 5.358414e+01 4.143269e+01 3.539631e+01 1.477704e+00 3.271847e+00 3.007848e+00 2.830433e+00 5.205436e+00 4.011700e+00 5.001881e+00 4.725121e+00 3.619326e+00 3.405941e+00 3.651478e+00 3.204821e+00 1.479964e+00
<GCONST> 1.068885e+02
<TRANSP> 5
 0.000000e+00 1.000000e+00 0.000000e+00 0.000000e+00 0.000000e+00
 0.000000e+00 7.552000e-01 2.448000e-01 0.000000e+00 0.000000e+00
 0.000000e+00 0.000000e+00 6.166101e-01 3.833900e-01 0.000000e+00
 0.000000e+00 0.000000e+00 0.000000e+00 6.307417e-01 3.692583e-01
 0.000000e+00 0.000000e+00 0.000000e+00 0.000000e+00 0.000000e+00
<ENDHMM>
~h "k"
<BEGINHMM>
<NUMSTATES> 5
<STATE> 2
<MEAN> 25
 -3.134626e+00 1.803790e+00 -2.046485e+00 2.285936e+00 3.165433e+00 1.826698e+00 1.699099e+00 6.279295e-01 1.216582e+00 1.765729e+00 1.115252e+00 9.494581e-01 -1.044516e+00 -5.837287e-01 -7.909629e-01 1.676887e-03 7.318598e-01 -5.688547e-02 1.063203e-01 3.891459e-01 4.132191e-01 3.915619e-01 1.841486e-01 3.577838e-01 -9.183304e-02
<VARIANCE> 25
 4.016481e+01 4.097184e+01 5.260793e+01 4.825122e+01 6.265547e+01 5.730029e+01 4.783089e+01 4.866137e+01 4.740305e+01 4.031082e+01 3.887872e+01 3.216658e+01 3.101470e+00 4.805276e+00 4.836192e+00 4.944675e+00 5.736960e+00 5.654748e+00 4.983001e+00 4.728774e+00 4.730530e+00 4.031939e+00 3.756764e+00 3.160336e+00 6.035347e+00
<GCONST> 1.115526e+02
<STATE> 3
<MEAN> 25
 -4.692777e+00 -2.870286e+00 -4.717935e+00 -7.861454e-01 4.549560e+00 1.198848e+00 8.087840e-01 1.347244e+00 1.628623e+00 2.956308e+00 1.072872e+00 1.217274e+00 6.470920e-01 -1.227101e+00 -3.129501e-01 -1.219531e+00 -2.894607e-01 -7.955236e-01 -2.324027e-01 6.155038e-02 5.638740e-03 2.314533e-02 -1.821452e-01 -3.741583e-01 2.324920e+00
<VARIANCE> 25
 5.327652e+01 7.181591e+01 1.032163e+02 9.198669e+01 1.211429e+02 1.118266e+02 8.152310e+01 7.906291e+01 7.431434e+01 6.271991e+01 5.614072e+01 4.899145e+01 5.876421e+00 6.715842e+00 7.764195e+00 7.883593e+00 9.871147e+00 8.985788e+00 7.356151e+00 7.114121e+00 6.907197e+00 6.537507e+00 5.545507e+00 4.899950e+00 6.706758e+00
<GCONST> 1.232546e+02
<STATE> 4
<MEAN> 25
 -7.222510e-01 -3.628524e+00 -3.949719e+00 -2.499819e+00 1.849907e+00 -1.507894e+00 7.684761e-01 1.031855e+00 9.440800e-01 1.602881e+00 -2.814172e-01 -3.929575e-01 1.939555e+00 -1.000084e-01 6.080229e-01 -9.297685e-01 -1.530581e+00 -4.351134e-01 -2.192082e-01 -4.149202e-01 -5.967372e-01 -6.508928e-01 -3.734685e-01 -8.400402e-01 1.666099e+00
<VARIANCE> 25
 4.207463e+01 4.762301e+01 6.239904e+01 5.478239e+01 7.212589e+01 6.969813e+01 5.192909e+01 5.716352e+01 5.289520e+01 4.489228e+01 4.220947e+01 3.820660e+01 4.127168e+00 4.602095e+00 5.332667e+00 5.346793e+00 6.120704e+00 6.049214e+00 5.666755e+00 5.723770e+00 5.753439e+00 5.030838e+00 4.824053e+00 3.937442e+00 3.090976e+00
<GCONST> 1.141865e+02
<TRANSP> 5
 0.000000e+00 1.000000e+00 0.000000e+00 0.000000e+00 0.000000e+00
 0.000000e+00 5.887788e-01 4.112212e-01 0.000000e+00 0.000000e+00
 0.000000e+00 0.000000e+00 5.287199e-01 4.712801e-01 0.000000e+00
 0.000000e+00 0.000000e+00 0.000000e+00 3.513918e-01 6.486082e-01
 0.000000e+00 0.000000e+00 0.000000e+00 0.000000e+00 0.000000e+00
<ENDHMM>
~h "l"
<BEGINHMM>
<NUMSTATES> 5
<STATE> 2
<MEAN> 25
 6.340044e+00 -3.132554e+00 -1.793183e+00 -3.274617e+00 -2.112546e+00 -1.111076e+00 -4.612872e+00 -3.630046e+00 2.658458e+00 2.508290e+00 -6.766588e-01 -2.083759e+00 3.281370e-01 -1.295883e-01 -8.709772e-02 -2.947347e-01 -2.439513e-02 8.790315e-02 -6.948649e-01 -3.804799e-01 4.218390e-01 6.564652e-01 -1.075762e-01 -2.320089e-01 2.645272e-02
<VARIANCE> 25
 2.069721e+01 3.563830e+01 4.837321e+01 6.315851e+01 6.018242e+01 8.024442e+01 6.713001e+01 7.830755e+01 5.938846e+01 7.217982e+01 5.186498e+01 3.859817e+01 9.171892e-01 2.057725e+00 2.773338e+00 3.662344e+00 3.933070e+00 4.512202e+00 4.360636e+00 5.470325e+00 4.089105e+00 4.052214e+00 3.629841e+00 3.096391e+00 1.107214e+00
<GCONST> 1.079201e+02
<STATE> 3
<MEAN> 25
 6.665200e+00 -3.369798e+00 -2.589796e+00 -5.481812e+00 -1.869057e+00 3.429878e-01 -5.894542e+00 -4.387355e+00 3.862356e+00 4.650228e+00 -5.803542e-01 -2.877311e+00 -2.593379e-02 -5.905305e-02 -6.321460e-02 -2.232964e-01 1.626412e-01 6.071024e-02 -4.217860e-02 3.762011e-01 6.039932e-02 -1.145637e-01 -1.556401e-01 -9.541907e-02 2.713508e-02
<VARIANCE> 25
 1.679783e+01 3.092579e+01 4.267874e+01 6.336769e+01 5.237003e+01 7.736917e+01 6.551050e+01 7.230018e+01 5.845031e+01 6.786277e+01 5.270818e+01 3.938630e+01 3.540074e-01 1.188074e+00 1.565065e+00 2.061380e+00 2.176274e+00 2.719932e+00 2.726807e+00 3.605420e+00 2.528107e+00 2.531997e+00 2.535653e+00 1.984078e+00 5.011789e-01
<GCONST> 9.994652e+01
<STATE> 4
<MEAN> 25
 6.545233e+00 -2.076867e+00 -2.693748e+00 -4.164416e+00 -2.166068e+00 -2.193473e+00 -3.968357e+00 -6.709591e-01 2.881477e+00 2.291406e-01 -1.938017e+00 -2.151685e+00 -2.515009e-01 1.156522e-01 1.390447e-01 1.711719e-01 1.070619e-01 3.075512e-02 3.959586e-01 4.005994e-01 -3.522611e-01 -3.517132e-01 3.984517e-02 1.309349e-01 -1.915874e-01
<VARIANCE> 25
 2.044056e+01 3.923360e+01 5.695517e+01 6.920595e+01 8.838627e+01 9.449627e+01 7.061215e+01 7.870078e+01 5.883064e+01 8.974782e+01 6.044812e+01 4.248655e+01 4.698204e-01 1.380775e+00 1.688716e+00 2.171945e+00 2.452950e+00 2.740254e+00 2.608255e+00 2.980226e+00 2.601851e+00 2.726400e+00 2.549892e+00 1.950607e+00 7.988393e-01
<GCONST> 1.031508e+02
<TRANSP> 5
 0.000000e+00 1.000000e+00 0.000000e+00 0.000000e+00 0.000000e+00
 0.000000e+00 3.672123e-01 6.327877e-01 0.000000e+00 0.000000e+00
 0.000000e+00 0.000000e+00 4.382605e-01 5.617395e-01 0.000000e+00
 0.000000e+00 0.000000e+00 0.000000e+00 5.540905e-01 4.459095e-01
 0.000000e+00 0.000000e+00 0.000000e+00 0.000000e+00 0.000000e+00
<ENDHMM>
~h "m"
<BEGINHMM>
<NUMSTATES> 5
<STATE> 2
<MEAN> 25
 6.025378e+00 1.876323e+00 -4.828344e-01 6.661627e-01 5.642971e-01 2.642909e+00 -1.496518e+00 -4.443655e+00 -3.518489e+00 -1.743974e-01 -5.458850e-01 -1.907568e+00 -3.536511e-02 1.080404e+00 1.043190e+00 1.529254e+00 2.769602e-01 3.001158e-01 1.728051e-01 -1.425292e+00 -1.316149e+00 -2.370208e-01 -5.625722e-01 -5.679904e-02 -9.069649e-01
<VARIANCE> 25
 2.245573e+01 3.452264e+01 3.704768e+01 4.450490e+01 3.907755e+01 5.049903e+01 4.366939e+01 4.745378e+01 4.807511e+01 3.815501e+01 3.701128e+01 2.980396e+01 1.124551e+00 2.055702e+00 2.815400e+00 3.360879e+00 3.114356e+00 3.340949e+00 3.709586e+00 3.713032e+00 4.030404e+00 3.260057e+00 3.395903e+00 2.635564e+00 1.551794e+00
<GCONST> 1.030091e+02
<STATE> 3
<MEAN> 25
 5.325471e+00 3.633879e+00 2.361611e+00 3.237942e+00 5.665866e-01 2.688046e+00 -1.390035e+00 -6.718893e+00 -5.855368e+00 -9.910420e-01 -2.156211e+00 -1.976971e+00 2.389919e-03 1.771531e-01 9.094636e-02 1.220569e-01 -9.169208e-03 1.033196e-01 9.633072e-02 -8.438118e-02 -1.399227e-01 -7.994063e-02 -1.163146e-01 -5.714620e-02 -1.266563e-01
<VARIANCE> 25
 1.617206e+01 3.097028e+01 2.947139e+01 3.183587e+01 3.730099e+01 4.903132e+01 4.642160e+01 4.958212e+01 5.498045e+01 4.361017e+01 3.801872e+01 3.127246e+01 4.426261e-01 8.765304e-01 1.192627e+00 1.398952e+00 1.480625e+00 1.669964e+00 1.655395e+00 1.804888e+00 1.936904e+00 1.756779e+00 1.706917e+00 1.452806e+00 5.295452e-01
<GCONST> 9.218511e+01
<STATE> 4
<MEAN> 25
 5.733820e+00 3.143373e+00 2.169580e-01 1.121652e+00 1.073458e-01 2.686955e+00 -7.901346e-01 -4.615327e+00 -4.179391e+00 -8.459044e-01 -1.501045e+00 -2.128273e+00 2.112778e-01 -6.763593e-01 -1.069606e+00 -1.241087e+00 -2.435717e-01 5.634475e-03 2.343794e-02 1.027797e+00 1.009229e+00 1.843178e-01 4.024500e-01 -5.345077e-02 6.470050e-01
<VARIANCE> 25
 2.111487e+01 3.394195e+01 3.744513e+01 4.481425e+01 4.358070e+01 5.198076e+01 4.444298e+01 5.078475e+01 5.398617e+01 3.916527e+01 3.832193e+01 3.145358e+01 8.913835e-01 1.895040e+00 2.982152e+00 3.430881e+00 3.010327e+00 3.244804e+00 2.909793e+00 3.176194e+00 3.757391e+00 2.810225e+00 2.630474e+00 2.442337e+00 1.131955e+00
<GCONST> 1.018389e+02
<TRANSP> 5
 0.000000e+00 1.000000e+00 0.000000e+00 0.000000e+00 0.000000e+00
 0.000000e+00 4.941956e-01 5.058044e-01 0.000000e+00 0.000000e+00
 0.000000e+00 0.000000e+00 6.220322e-01 3.779678e-01 0.000000e+00
 0.000000e+00 0.000000e+00 0.000000e+00 4.821552e-01 5.178448e-01
 0.000000e+00 0.000000e+00 0.000000e+00 0.000000e+00 0.000000e+00
<ENDHMM>
~h "n"
<BEGINHMM>
<NUMSTATES> 5
<STATE> 2
<MEAN> 25
 5.761930e+00 -1.478344e+00 1.519613e+00 1.260914e+00 -1.725360e+00 -1.664636e+00 -2.234824e+00 -3.143851e-01 -7.035993e-01 -8.483316e-01 -2.891074e+00 -1.283515e+00 2.501829e-01 1.881733e+00 7.387326e-01 1.610863e+00 -3.158415e-02 3.370053e-01 -1.367050e-01 -1.650328e+00 -2.440172e-01 7.434029e-02 -5.495077e-01 1.204697e-01 -1.707564e+00
<VARIANCE> 25
 1.548156e+01 4.158533e+01 4.239791e+01 4.328722e+01 5.422876e+01 5.365327e+01 4.848061e+01 6.323230e+01 5.169744e+01 4.780093e+01 4.422009e+01 3.458294e+01 1.049997e+00 2.287577e+00 3.232418e+00 3.182907e+00 4.588588e+00 4.352990e+00 4.254925e+00 5.200111e+00 4.167144e+00 3.847779e+00 3.787694e+00 3.003426e+00 1.290821e+00
<GCONST> 1.058380e+02
<STATE> 3
<MEAN> 25
 5.992671e+00 2.490382e+00 3.059420e+00 3.927034e+00 -2.405845e+00 -7.981033e-01 -2.370012e+00 -4.510293e+00 -1.562362e+00 -6.713228e-01 -4.518725e+00 -1.394538e+00 -8.101854e-02 1.060620e+00 2.683174e-01 5.245134e-01 2.514622e-01 2.477020e-01 7.020335e-02 -5.205371e-01 -2.385840e-01 -4.848908e-02 -1.186609e-01 9.741469e-03 -8.406135e-01
<VARIANCE> 25
 1.365519e+01 3.145198e+01 3.402533e+01 3.678838e+01 5.298951e+01 5.144041e+01 4.327523e+01 5.010964e+01 4.579819e+01 5.128270e+01 4.516632e+01 3.390638e+01 4.947461e-01 1.176050e+00 1.510151e+00 1.564275e+00 2.172878e+00 2.246095e+00 2.270228e+00 2.656891e+00 2.434766e+00 2.233252e+00 2.196965e+00 1.776265e+00 5.554003e-01
<GCONST> 9.599686e+01
<STATE> 4
<MEAN> 25
 3.398619e+00 5.105847e+00 3.069077e+00 4.247939e+00 4.502361e-01 1.860416e-01 -1.200755e+00 -2.904273e+00 -1.663611e+00 -1.140607e+00 -2.851556e+00 -1.100100e+00 -4.769232e-01 6.108307e-02 -1.787748e-02 6.527973e-03 2.686412e-01 1.567004e-01 2.480500e-01 2.970941e-01 4.915848e-02 6.590044e-02 2.708324e-01 7.997486e-02 -3.484956e-01
<VARIANCE> 25
 1.842804e+01 2.928519e+01 2.638413e+01 3.343812e+01 4.368121e+01 3.934454e+01 3.596378e+01 3.787291e+01 3.513858e+01 3.473175e+01 3.273080e+01 2.649506e+01 7.531838e-01 1.263745e+00 1.292122e+00 1.511107e+00 1.938687e+00 1.974395e+00 2.006126e+00 2.230007e+00 2.112944e+00 2.061141e+00 1.913654e+00 1.586857e+00 6.935061e-01
<GCONST> 9.323495e+01
<TRANSP> 5
 0.000000e+00 1.000000e+00 0.000000e+00 0.000000e+00 0.000000e+00
 0.000000e+00 4.781018e-01 5.218982e-01 0.000000e+00 0.000000e+00
 0.000000e+00 0.000000e+00 5.015165e-01 4.984835e-01 0.000000e+00
 0.000000e+00 0.000000e+00 0.000000e+00 6.797102e-01 3.202899e-01
 0.000000e+00 0.000000e+00 0.000000e+00 0.000000e+00 0.000000e+00
<ENDHMM>
~h "o"
<BEGINHMM>
<NUMSTATES> 5
<STATE> 2
<MEAN> 25
 5.681935e+00 -3.610876e-01 -5.571009e+00 -7.583867e+00 -1.680771e+00 2.588048e+00 -1.889856e+00 -1.417453e+00 1.275237e+00 1.607128e+00 2.010145e+00 -1.193425e+00 1.184975e+00 -5.100396e-01 -9.167600e-01 -1.886111e+00 -2.150467e-01 9.881536e-01 -1.362403e-01 -2.236193e-01 -1.275951e-01 2.690474e-01 4.736527e-01 -4.441432e-01 1.228947e+00
<VARIANCE> 25
 3.711015e+01 3.934959e+01 4.711769e+01 8.544628e+01 7.352215e+01 1.027539e+02 6.791804e+01 6.336728e+01 6.387317e+01 6.356091e+01 5.481050e+01 3.964133e+01 3.612714e+00 3.368992e+00 4.090822e+00 6.834763e+00 6.398902e+00 7.336862e+00 5.789468e+00 5.496281e+00 5.546544e+00 5.083694e+00 4.635321e+00 3.691605e+00 3.917833e+00
<GCONST> 1.155072e+02
<STATE> 3
<MEAN> 25
 7.638286e+00 -1.304886e+00 -7.415157e+00 -1.107507e+01 -8.365839e-01 6.173656e+00 -2.020444e+00 -2.774115e+00 2.021146e-01 2.425566e+00 3.664221e+00 -1.703517e+00 -1.498212e-01 3.041500e-01 3.594107e-02 6.461672e-01 3.447240e-01 5.705201e-02 2.229354e-01 4.313388e-03 -8.327990e-02 -4.167212e-02 -2.353883e-01 1.067121e-01 -6.960947e-01
<VARIANCE> 25
 1.937149e+01 3.742675e+01 3.991940e+01 7.579097e+01 6.750712e+01 9.349764e+01 6.687932e+01 5.741507e+01 6.539444e+01 6.544024e+01 5.481150e+01 4.360098e+01 9.772369e-01 2.065111e+00 1.803795e+00 4.199380e+00 2.996682e+00 4.082529e+00 3.515507e+00 3.142514e+00 3.848667e+00 3.404685e+00 3.101352e+00 2.713480e+00 1.985397e+00
<GCONST> 1.067140e+02
<STATE> 4
<MEAN> 25
 4.531415e+00 8.240098e-01 -5.650151e+00 -6.996377e+00 -8.019691e-01 3.702079e+00 -2.786253e-02 -1.316734e+00 2.125275e-01 1.258989e+00 1.089326e+00 -4.284203e-01 -3.556083e-01 1.758357e-01 3.436963e-01 6.823697e-01 1.769669e-01 -1.832085e-01 1.116185e-01 5.320923e-02 -4.298522e-03 -1.027257e-01 -1.911102e-01 7.247366e-02 -4.849073e-01
<VARIANCE> 25
 2.663444e+01 2.824052e+01 3.008958e+01 5.970269e+01 4.445436e+01 6.125006e+01 4.371590e+01 4.082473e+01 4.025918e+01 4.095226e+01 3.554823e+01 3.230644e+01 5.030421e-01 7.716767e-01 1.099591e+00 1.751307e+00 1.544158e+00 1.901811e+00 1.764177e+00 1.786285e+00 1.918660e+00 1.863567e+00 1.691060e+00 1.508090e+00 4.672131e-01
<GCONST> 9.329727e+01
<TRANSP> 5
 0.000000e+00 1.000000e+00 0.000000e+00 0.000000e+00 0.000000e+00
 0.000000e+00 5.330279e-01 4.669721e-01 0.000000e+00 0.000000e+00
 0.000000e+00 0.000000e+00 6.941150e-01 3.058850e-01 0.000000e+00
 0.000000e+00 0.000000e+00 0.000000e+00 7.748644e-01 2.251356e-01
 0.000000e+00 0.000000e+00 0.000000e+00 0.000000e+00 0.000000e+00
<ENDHMM>
~h "p"
<BEGINHMM>
<NUMSTATES> 5
<STATE> 2
<MEAN> 25
 -2.122265e+00 3.212864e+00 -2.321458e+00 2.546542e+00 2.356647e+00 2.270020e+00 2.145208e+00 7.719771e-01 1.575437e+00 1.715268e+00 1.178648e+00 9.600490e-01 -7.553257e-01 -3.071283e-01 -2.783087e-01 9.089723e-03 -3.837341e-02 -5.896205e-02 2.579971e-01 1.282395e-01 3.026013e-01 2.278914e-01 3.028658e-01 3.511623e-01 -1.595415e-01
<VARIANCE> 25
 4.428417e+01 3.125280e+01 3.766920e+01 3.698624e+01 3.586293e+01 4.229193e+01 3.520285e+01 3.782859e+01 3.725724e+01 3.411787e+01 3.032606e+01 2.618032e+01 3.611570e+00 3.381758e+00 3.017011e+00 3.754337e+00 3.272832e+00 3.892638e+00 3.271151e+00 3.539613e+00 3.518210e+00 3.101823e+00 2.814621e+00 2.399656e+00 6.127335e+00
<GCONST> 1.047987e+02
<STATE> 3
<MEAN> 25
 -1.389526e+00 5.802772e-01 -3.235139e+00 5.621839e-01 1.160104e+00 9.291781e-01 1.850269e+00 -3.392564e-01 1.525485e+00 1.814810e+00 1.734781e+00 1.174976e+00 2.228186e+00 -1.836392e+00 -8.470805e-01 -2.257307e+00 -9.332937e-01 -2.210533e-01 -7.126989e-01 -7.200989e-01 5.813958e-02 7.543937e-02 1.546597e-01 -9.029878e-01 3.860569e+00
<VARIANCE> 25
 3.667118e+01 3.222474e+01 3.500114e+01 4.565409e+01 3.770241e+01 4.694847e+01 3.612910e+01 3.914313e+01 3.634142e+01 3.146180e+01 3.056558e+01 2.495963e+01 5.673142e+00 5.565779e+00 6.310002e+00 7.104116e+00 6.624006e+00 8.905432e+00 5.994978e+00 5.838884e+00 6.012948e+00 5.698605e+00 5.393920e+00 4.639166e+00 6.802742e+00
<GCONST> 1.123694e+02
<STATE> 4
<MEAN> 25
 4.849341e+00 -3.459093e+00 -5.805567e+00 -4.843050e+00 -9.092947e-01 1.954082e+00 -4.232093e-01 -1.935008e+00 1.724371e+00 1.899376e+00 1.669730e+00 -1.976643e+00 1.780506e+00 -1.392308e+00 -3.929175e-01 -1.430378e+00 -7.588109e-01 -2.264394e-01 -7.637044e-01 -7.057118e-02 9.027375e-04 -1.470681e-01 -3.069161e-01 -9.412282e-01 2.551547e+00
<VARIANCE> 25
 3.879086e+01 4.629343e+01 5.160738e+01 6.642519e+01 5.242877e+01 8.015759e+01 5.053389e+01 4.791473e+01 4.711258e+01 4.523759e+01 4.319997e+01 4.125502e+01 4.563468e+00 5.771090e+00 6.836149e+00 7.425628e+00 7.091966e+00 9.385472e+00 6.205711e+00 6.118336e+00 6.244280e+00 5.686728e+00 5.726424e+00 4.788788e+00 5.854292e+00
<GCONST> 1.165468e+02
<TRANSP> 5
 0.000000e+00 1.000000e+00 0.000000e+00 0.000000e+00 0.000000e+00
 0.000000e+00 6.313538e-01 3.686462e-01 0.000000e+00 0.000000e+00
 0.000000e+00 0.000000e+00 3.613793e-01 6.386207e-01 0.000000e+00
 0.000000e+00 0.000000e+00 0.000000e+00 2.688513e-01 7.311488e-01
 0.000000e+00 0.000000e+00 0.000000e+00 0.000000e+00 0.000000e+00
<ENDHMM>
~h "r"
<BEGINHMM>
<NUMSTATES> 5
<STATE> 2
<MEAN> 25
 5.180320e+00 -4.327530e+00 -2.846318e+00 3.487760e-01 -2.442950e+00 -2.290626e+00 -2.627463e+00 4.206057e-01 3.679225e+00 8.246353e-02 -2.794693e-01 -8.744155e-01 -6.566180e-02 1.129328e-01 3.238057e-01 1.062932e+00 -9.247372e-02 -1.770711e-01 -1.663088e-01 7.169020e-02 1.526616e-01 -2.442458e-01 2.064307e-01 3.987544e-01 -6.429757e-01
<VARIANCE> 25
 2.551819e+01 3.791251e+01 5.030608e+01 4.727142e+01 5.968196e+01 5.885234e+01 5.857781e+01 6.186747e+01 5.906236e+01 5.136686e+01 4.573607e+01 3.984202e+01 2.622228e+00 3.637374e+00 3.665354e+00 4.478133e+00 5.136229e+00 5.253520e+00 4.869999e+00 4.983052e+00 4.714337e+00 4.584945e+00 4.333511e+00 3.799953e+00 3.257009e+00
<GCONST> 1.110738e+02
<STATE> 3
<MEAN> 25
 4.712892e+00 -3.585312e+00 -1.884337e+00 2.075580e+00 -2.298180e+00 -2.694981e+00 -2.690800e+00 5.544074e-01 3.242851e+00 -1.967664e-01 3.246134e-01 -1.527721e-01 -3.108873e-01 3.016261e-01 5.022089e-01 5.006165e-01 1.362421e-01 3.283518e-02 1.235845e-01 -7.058874e-03 -4.832660e-01 -7.730854e-02 3.012420e-01 2.494636e-01 -5.847884e-01
<VARIANCE> 25
 2.606266e+01 3.661241e+01 5.169058e+01 4.339558e+01 5.743194e+01 5.500237e+01 5.388219e+01 5.731056e+01 5.437790e+01 4.637017e+01 4.126766e+01 3.531696e+01 2.349657e+00 3.163550e+00 3.483385e+00 3.430020e+00 4.430055e+00 4.440501e+00 4.245527e+00 4.539303e+00 4.086803e+00 4.026863e+00 3.830205e+00 3.390278e+00 2.369745e+00
<GCONST> 1.083855e+02
<STATE> 4
<MEAN> 25
 3.721525e+00 -2.824901e+00 -9.329350e-01 2.749120e+00 -1.745584e+00 -2.616400e+00 -1.810375e+00 6.285359e-01 1.440132e+00 -5.896758e-01 8.363866e-01 9.584638e-02 -3.011839e-01 4.117036e-01 3.716319e-01 -6.975877e-02 1.504579e-01 2.178699e-01 2.634276e-01 -1.134861e-01 -6.247784e-01 8.603071e-02 1.035748e-01 -1.788746e-02 -4.313666e-01
<VARIANCE> 25
 3.297427e+01 4.281670e+01 5.703709e+01 4.493147e+01 5.833836e+01 5.972540e+01 5.430801e+01 5.972410e+01 5.267676e+01 4.498952e+01 4.270308e+01 3.549501e+01 1.571733e+00 2.361843e+00 2.662539e+00 2.348119e+00 3.412133e+00 3.226975e+00 3.113719e+00 3.391090e+00 3.363142e+00 2.948436e+00 2.869591e+00 2.342532e+00 1.623657e+00
<GCONST> 1.049677e+02
<TRANSP> 5
 0.000000e+00 1.000000e+00 0.000000e+00 0.000000e+00 0.000000e+00
 0.000000e+00 2.907151e-01 7.092849e-01 0.000000e+00 0.000000e+00
 0.000000e+00 0.000000e+00 1.340825e-01 8.659174e-01 0.000000e+00
 0.000000e+00 0.000000e+00 0.000000e+00 4.534333e-01 5.465667e-01
 0.000000e+00 0.000000e+00 0.000000e+00 0.000000e+00 0.000000e+00
<ENDHMM>
~h "s"
<BEGINHMM>
<NUMSTATES> 5
<STATE> 2
<MEAN> 25
 -6.245046e+00 3.894499e+00 1.812418e+00 1.330499e+00 3.992869e+00 -2.586194e+00 3.474216e+00 8.199417e-01 8.118008e-01 -6.639326e-01 4.275125e-01 1.254208e+00 -3.605547e+00 1.256344e+00 -4.333408e-02 8.485473e-02 1.281141e+00 -1.308154e-02 1.332843e+00 3.603804e-01 5.204605e-01 -9.590044e-02 8.811693e-01 4.823577e-01 1.003942e-01
<VARIANCE> 25
 6.530733e+01 6.859994e+01 8.521970e+01 5.628789e+01 8.233688e+01 8.454037e+01 6.812606e+01 6.212322e+01 5.376485e+01 4.719542e+01 4.671411e+01 3.425177e+01 3.512113e+00 6.365803e+00 7.255964e+00 5.405661e+00 5.918397e+00 6.237838e+00 5.279906e+00 5.194824e+00 4.487477e+00 4.945404e+00 3.901411e+00 3.089055e+00 1.837361e+00
<GCONST> 1.151392e+02
<STATE> 3
<MEAN> 25
 -1.697456e+01 5.064091e+00 2.478702e-01 3.542112e-01 5.688197e+00 -1.782437e+00 5.717393e+00 1.469801e+00 1.852589e+00 -2.375841e-01 3.062442e+00 2.735136e+00 -2.395019e-01 -4.011219e-01 -7.150813e-02 -6.737065e-02 -1.681510e-01 7.215459e-02 -7.414712e-03 5.692169e-02 7.367723e-02 4.711217e-02 6.161531e-02 1.144060e-01 -3.219874e-01
<VARIANCE> 25
 3.948290e+01 9.617135e+01 1.095153e+02 7.451474e+01 7.753870e+01 8.864261e+01 5.449801e+01 5.551135e+01 4.462215e+01 4.548937e+01 3.625898e+01 3.200446e+01 2.643140e+00 1.810583e+00 1.965280e+00 1.726815e+00 2.058355e+00 2.180154e+00 2.255867e+00 2.362405e+00 2.289690e+00 2.128733e+00 1.965937e+00 1.716992e+00 8.202260e-01
<GCONST> 1.032828e+02
<STATE> 4
<MEAN> 25
 -9.568760e+00 1.452864e+00 1.286766e+00 -7.104171e-02 2.785068e+00 -2.231152e+00 3.444173e+00 8.332659e-01 1.841008e+00 -4.548485e-01 1.283878e+00 2.166261e+00 3.808247e+00 -6.218426e-01 -1.139604e-01 -3.947067e-01 -1.399125e+00 -5.018296e-01 -1.538900e+00 -8.036435e-01 -3.567282e-01 -1.522406e-01 -9.511292e-01 -7.172926e-01 7.264434e-01
<VARIANCE> 25
 7.446906e+01 8.390818e+01 8.870667e+01 5.874967e+01 7.228685e+01 9.051318e+01 6.153033e+01 5.841666e+01 4.672491e+01 4.315462e+01 4.217838e+01 3.227725e+01 5.407174e+00 7.153845e+00 7.431105e+00 5.408772e+00 5.967803e+00 6.450197e+00 5.493527e+00 5.808316e+00 5.158819e+00 5.109418e+00 4.353602e+00 3.551362e+00 3.511700e+00
<GCONST> 1.167729e+02
<TRANSP> 5
 0.000000e+00 1.000000e+00 0.000000e+00 0.000000e+00 0.000000e+00
 0.000000e+00 6.870428e-01 3.129571e-01 0.000000e+00 0.000000e+00
 0.000000e+00 0.000000e+00 7.946469e-01 2.053531e-01 0.000000e+00
 0.000000e+00 0.000000e+00 0.000000e+00 6.282753e-01 3.717248e-01
 0.000000e+00 0.000000e+00 0.000000e+00 0.000000e+00 0.000000e+00
<ENDHMM>
~h "t"
<BEGINHMM>
<NUMSTATES> 5
<STATE> 2
<MEAN> 25
 -2.487096e+00 3.442924e+00 -6.311470e-01 3.301250e+00 1.799918e+00 2.812765e-01 1.362518e+00 4.020213e-01 1.726395e+00 1.294953e+00 9.889473e-01 1.337950e+00 -1.167492e+00 -1.755276e-01 -4.276754e-01 1.316878e-02 3.311412e-01 2.260646e-01 5.569066e-01 2.728705e-01 3.652825e-01 1.294804e-01 4.415633e-01 3.845285e-01 -5.989218e-01
<VARIANCE> 25
 3.577662e+01 2.952026e+01 3.961558e+01 3.401024e+01 4.100383e+01 4.554093e+01 3.868316e+01 4.052213e+01 3.992365e+01 3.532657e+01 3.427624e+01 2.595145e+01 2.558570e+00 3.440531e+00 3.163039e+00 3.814232e+00 3.917043e+00 4.549275e+00 3.756333e+00 3.772077e+00 3.623848e+00 3.319758e+00 3.048252e+00 2.424659e+00 5.801219e+00
<GCONST> 1.054895e+02
<STATE> 3
<MEAN> 25
 -5.531250e+00 5.537986e-01 -1.934246e+00 9.829176e-01 2.192700e+00 -1.119578e+00 2.950506e+00 6.031864e-01 2.003554e+00 9.731149e-01 1.811728e+00 2.387972e+00 2.901605e-01 -1.633138e+00 -1.261339e-01 -1.846688e+00 -5.408550e-01 -1.286772e+00 -4.350710e-01 -2.475577e-01 3.151450e-01 -2.437092e-01 -9.568888e-02 -1.924908e-01 3.362094e+00
<VARIANCE> 25
 3.509816e+01 3.919618e+01 4.442052e+01 4.421776e+01 4.749944e+01 6.443151e+01 4.322721e+01 4.435818e+01 4.107559e+01 3.870632e+01 3.691681e+01 2.820012e+01 5.564624e+00 5.393126e+00 6.146716e+00 5.867880e+00 7.174839e+00 7.313300e+00 6.471783e+00 6.614334e+00 6.309700e+00 5.337809e+00 5.435160e+00 4.305017e+00 7.193424e+00
<GCONST> 1.140077e+02
<STATE> 4
<MEAN> 25
 -1.764238e+00 -2.223210e+00 -1.083120e+00 -2.701823e+00 -3.563321e-01 -3.459898e+00 -3.387250e-01 -5.518797e-01 2.395331e+00 2.336929e-01 2.723004e-01 6.096936e-01 2.149265e+00 -7.300245e-01 2.994215e-01 -1.299854e+00 -1.012940e+00 -5.791538e-01 -1.621320e+00 -4.504215e-01 -2.129463e-01 -9.357143e-02 -4.825926e-01 -9.807170e-01 2.532562e+00
<VARIANCE> 25
 3.791916e+01 4.458215e+01 5.099729e+01 4.950875e+01 5.854113e+01 6.961639e+01 6.083982e+01 5.398478e+01 4.966813e+01 4.345075e+01 4.151121e+01 3.474419e+01 4.979305e+00 5.689333e+00 7.236433e+00 6.517989e+00 7.277544e+00 8.487226e+00 7.476842e+00 7.341506e+00 7.005552e+00 6.788918e+00 6.302152e+00 4.773802e+00 5.361585e+00
<GCONST> 1.168459e+02
<TRANSP> 5
 0.000000e+00 1.000000e+00 0.000000e+00 0.000000e+00 0.000000e+00
 0.000000e+00 6.449569e-01 3.550431e-01 0.000000e+00 0.000000e+00
 0.000000e+00 0.000000e+00 3.710626e-01 6.289374e-01 0.000000e+00
 0.000000e+00 0.000000e+00 0.000000e+00 2.763998e-01 7.236001e-01
 0.000000e+00 0.000000e+00 0.000000e+00 0.000000e+00 0.000000e+00
<ENDHMM>
~h "u"
<BEGINHMM>
<NUMSTATES> 5
<STATE> 2
<MEAN> 25
 5.908020e+00 3.082461e+00 -1.478425e+00 -4.521661e+00 -2.115391e+00 5.216891e-02 -5.645476e+00 -4.221122e+00 -1.971507e+00 -1.208398e-01 2.304398e+00 7.977585e-02 1.375933e+00 4.228433e-01 -4.454288e-01 -1.452955e+00 -6.648769e-01 8.175084e-01 -9.823226e-01 -9.350647e-01 -7.428558e-01 1.763583e-01 8.710548e-01 5.195441e-02 6.213287e-01
<VARIANCE> 25
 2.858470e+01 4.310173e+01 5.041426e+01 7.617907e+01 6.173693e+01 7.825031e+01 7.445509e+01 6.767442e+01 6.215408e+01 6.780329e+01 5.243996e+01 3.983899e+01 3.230015e+00 3.868809e+00 4.223537e+00 5.641881e+00 5.972102e+00 7.345380e+00 6.312438e+00 6.081058e+00 5.850455e+00 5.841342e+00 4.787677e+00 3.811075e+00 2.852106e+00
<GCONST> 1.149239e+02
<STATE> 3
<MEAN> 25
 7.770247e+00 3.035131e+00 -2.388752e+00 -8.117415e+00 -3.143007e+00 4.104039e+00 -7.150965e+00 -6.563527e+00 -2.867162e+00 3.206565e-01 4.836493e+00 6.271856e-02 1.972984e-02 6.672028e-02 -4.358030e-02 3.132841e-01 2.534983e-01 1.056727e-01 1.115415e-01 3.838359e-02 1.922568e-01 2.104940e-01 -1.990604e-01 -1.010352e-01 -3.597251e-01
<VARIANCE> 25
 1.882799e+01 3.847171e+01 4.603633e+01 8.017229e+01 6.389434e+01 9.836151e+01 7.382300e+01 8.113490e+01 7.172591e+01 8.538580e+01 6.461288e+01 4.757435e+01 8.741828e-01 2.916208e+00 2.249094e+00 4.789907e+00 3.890051e+00 4.525146e+00 4.870028e+00 4.387192e+00 5.043904e+00 4.791337e+00 4.059877e+00 3.599918e+00 2.061168e+00
<GCONST> 1.107732e+02
<STATE> 4
<MEAN> 25
 5.802019e+00 5.010792e+00 -2.342728e+00 -5.078675e+00 -1.552305e+00 1.051065e+00 -4.191776e+00 -3.971657e+00 -3.227043e+00 1.903786e-01 2.304772e+00 9.128641e-01 -5.612621e-01 3.062068e-02 3.023275e-01 8.957778e-01 3.862876e-01 -8.501163e-02 4.862202e-01 3.822521e-01 3.085634e-01 -7.849748e-02 -3.772684e-01 -3.297372e-02 -6.483151e-01
<VARIANCE> 25
 2.266971e+01 3.483620e+01 3.953488e+01 6.821912e+01 4.850134e+01 5.844861e+01 5.015489e+01 4.619510e+01 5.201658e+01 5.358245e+01 4.086379e+01 3.833695e+01 8.180337e-01 1.336532e+00 1.553653e+00 2.504475e+00 2.295771e+00 2.653290e+00 2.540600e+00 2.513026e+00 2.632306e+00 2.580261e+00 2.474857e+00 2.003140e+00 9.516162e-01
<GCONST> 1.000814e+02
<TRANSP> 5
 0.000000e+00 1.000000e+00 0.000000e+00 0.000000e+00 0.000000e+00
 0.000000e+00 4.367954e-01 5.632046e-01 0.000000e+00 0.000000e+00
 0.000000e+00 0.000000e+00 5.580027e-01 4.419973e-01 0.000000e+00
 0.000000e+00 0.000000e+00 0.000000e+00 7.271395e-01 2.728605e-01
 0.000000e+00 0.000000e+00 0.000000e+00 0.000000e+00 0.000000e+00
<ENDHMM>
~h "w"
<BEGINHMM>
<NUMSTATES> 5
<STATE> 2
<MEAN> 25
 6.383726e+00 4.422346e+00 -3.419579e+00 -6.704696e+00 -2.584457e+00 1.108867e+00 -1.625983e+00 -1.358061e+00 -1.301102e+00 1.497218e-01 1.875202e+00 -6.320412e-01 1.593977e+00 5.474757e-01 -7.995687e-01 -1.909702e+00 -1.160992e+00 2.746127e-01 -4.776318e-02 -2.738601e-01 -5.980457e-01 -2.390857e-01 5.969918e-01 1.811875e-01 9.294538e-01
<VARIANCE> 25
 4.840430e+01 6.416386e+01 4.480542e+01 7.763046e+01 6.334825e+01 1.116168e+02 6.497395e+01 5.716680e+01 5.177541e+01 4.831455e+01 4.350550e+01 4.118157e+01 3.754392e+00 4.773363e+00 3.599329e+00 5.397743e+00 5.027066e+00 6.519646e+00 4.941770e+00 4.733821e+00 4.479789e+00 4.417517e+00 4.181661e+00 4.122396e+00 4.536669e+00
<GCONST> 1.143808e+02
<STATE> 3
<MEAN> 25
 9.873788e+00 2.946524e+00 -6.646835e+00 -1.457174e+01 -5.347670e+00 6.056241e+00 -1.185259e+00 -2.440173e+00 -2.628185e+00 2.511032e-01 4.878649e+00 8.053535e-01 -5.709119e-02 -9.603226e-01 -5.212463e-01 -4.953911e-01 5.304918e-01 7.066119e-01 7.007118e-03 -2.146758e-01 3.785428e-01 5.800087e-01 2.377615e-01 -5.254095e-01 6.452224e-01
<VARIANCE> 25
 1.413675e+01 3.078845e+01 2.964996e+01 5.408891e+01 4.282437e+01 8.039722e+01 4.744363e+01 4.183896e+01 4.320009e+01 4.529571e+01 4.127803e+01 3.487632e+01 5.495526e-01 3.045592e+00 1.442066e+00 2.452988e+00 3.106227e+00 2.967277e+00 3.014641e+00 2.635078e+00 2.775319e+00 2.965916e+00 2.349255e+00 3.353791e+00 1.242915e+00
<GCONST> 1.004531e+02
<STATE> 4
<MEAN> 25
 7.495941e+00 -3.779933e+00 -8.298119e+00 -1.191906e+01 1.148655e+00 7.160525e+00 -2.494990e+00 -3.258521e+00 1.659927e+00 4.166790e+00 2.401171e+00 -5.349478e+00 -4.688430e-01 -8.288193e-01 1.353581e-01 1.120523e+00 7.245263e-01 -7.355880e-01 3.664076e-02 5.206410e-01 7.382228e-01 -1.394951e-01 -1.097524e+00 -5.772655e-01 1.801093e-01
<VARIANCE> 25
 1.489826e+01 3.448136e+01 2.814437e+01 5.329182e+01 4.743355e+01 7.801526e+01 5.363116e+01 4.038498e+01 4.646551e+01 4.745867e+01 5.076615e+01 3.900895e+01 4.967668e-01 2.190300e+00 1.197954e+00 2.482389e+00 2.324668e+00 2.808161e+00 2.628105e+00 2.620945e+00 2.649058e+00 2.511463e+00 2.770390e+00 3.067597e+00 1.089262e+00
<GCONST> 9.978873e+01
<TRANSP> 5
 0.000000e+00 1.000000e+00 0.000000e+00 0.000000e+00 0.000000e+00
 0.000000e+00 6.204118e-01 3.795883e-01 0.000000e+00 0.000000e+00
 0.000000e+00 0.000000e+00 7.156503e-01 2.843497e-01 0.000000e+00
 0.000000e+00 0.000000e+00 0.000000e+00 6.999694e-01 3.000305e-01
 0.000000e+00 0.000000e+00 0.000000e+00 0.000000e+00 0.000000e+00
<ENDHMM>
~h "y"
<BEGINHMM>
<NUMSTATES> 5
<STATE> 2
<MEAN> 25
 1.296251e+00 -9.363073e-02 9.286153e+00 -2.889140e+00 -6.971682e+00 -3.177284e+00 -1.477425e+00 -7.166132e-01 -3.297297e+00 4.768220e-01 1.517102e+00 -5.687694e-02 -1.338938e-02 -9.889752e-01 6.777833e-01 -8.617886e-01 -1.146541e+00 -3.992703e-01 2.966507e-01 6.442339e-01 -2.727691e-01 5.214633e-02 4.593311e-01 1.736913e-03 1.184752e+00
<VARIANCE> 25
 2.564166e+01 5.468092e+01 7.284864e+01 8.808517e+01 7.976825e+01 7.361467e+01 6.974538e+01 7.333717e+01 5.786980e+01 5.467968e+01 5.594531e+01 4.065146e+01 2.029408e+00 4.020181e+00 6.295988e+00 5.239320e+00 5.227845e+00 5.150871e+00 5.563084e+00 6.007221e+00 4.606692e+00 4.396122e+00 4.258853e+00 3.039668e+00 2.374884e+00
<GCONST> 1.137977e+02
<STATE> 3
<MEAN> 25
 2.275790e+00 -6.213610e+00 6.966746e+00 -4.370131e+00 -9.620666e+00 -5.670241e+00 1.659507e+00 5.732897e+00 -2.297415e+00 -9.531085e-01 1.546608e+00 -5.064232e-01 1.849414e-01 -7.165918e-01 -1.117327e+00 1.977827e-01 8.698024e-01 9.712847e-02 2.819050e-01 7.114491e-01 4.089513e-01 -5.036813e-01 -7.217700e-01 -1.264229e-01 1.917292e-01
<VARIANCE> 25
 1.495509e+01 3.238287e+01 4.535326e+01 4.450906e+01 5.565806e+01 6.336497e+01 6.401942e+01 8.601048e+01 5.052510e+01 4.724359e+01 5.084422e+01 3.348681e+01 3.270241e-01 1.257102e+00 2.134096e+00 1.552313e+00 2.812108e+00 2.004332e+00 2.366220e+00 2.752340e+00 2.442400e+00 2.283824e+00 2.649402e+00 1.754282e+00 3.951415e-01
<GCONST> 9.797786e+01
<STATE> 4
<MEAN> 25
 1.727662e+00 -4.331989e+00 -1.979764e-01 -1.483561e+00 -2.226688e+00 -2.129910e+00 1.213794e+00 2.447281e+00 -1.022984e+00 -1.956421e+00 -9.697753e-01 -4.693073e-02 7.231318e-02 -9.886809e-04 -4.114895e-01 9.717107e-02 4.566770e-01 1.564265e-01 -9.484150e-02 -7.041133e-02 1.218668e-01 -3.919537e-02 -1.912387e-01 -6.232204e-02 -1.688497e-01
<VARIANCE> 25
 1.990042e+01 3.357021e+01 3.466762e+01 3.324585e+01 4.919727e+01 3.889330e+01 5.017383e+01 5.852760e+01 3.911678e+01 4.007734e+01 3.948581e+01 2.685610e+01 2.441478e-01 5.377933e-01 1.100211e+00 9.936920e-01 1.722265e+00 1.370897e+00 1.548868e+00 1.650229e+00 1.537083e+00 1.587022e+00 1.516936e+00 1.286906e+00 2.244574e-01
<GCONST> 8.928957e+01
<TRANSP> 5
 0.000000e+00 1.000000e+00 0.000000e+00 0.000000e+00 0.000000e+00
 0.000000e+00 7.121232e-01 2.878768e-01 0.000000e+00 0.000000e+00
 0.000000e+00 0.000000e+00 6.923501e-01 3.076499e-01 0.000000e+00
 0.000000e+00 0.000000e+00 0.000000e+00 7.380990e-01 2.619010e-01
 0.000000e+00 0.000000e+00 0.000000e+00 0.000000e+00 0.000000e+00
<ENDHMM>
~h "z"
<BEGINHMM>
<NUMSTATES> 5
<STATE> 2
<MEAN> 25
 -7.899828e+00 1.281779e+01 3.877003e+00 7.442373e+00 -8.204561e-02 -7.071163e+00 5.774376e+00 -7.086503e+00 -4.012384e-01 -4.467711e+00 2.573475e+00 7.326720e-01 -1.025526e+00 5.481604e-01 -3.786617e-01 4.181490e-01 5.591757e-01 -2.358626e-01 3.675111e-01 -1.194414e-01 6.072277e-01 -2.371743e-01 2.365566e-01 1.514374e-01 -2.559964e-02
<VARIANCE> 25
 3.849487e+01 5.248347e+01 5.418970e+01 3.917699e+01 5.703904e+01 4.499366e+01 5.737260e+01 3.417683e+01 4.884867e+01 3.747753e+01 2.560326e+01 2.876934e+01 4.310200e+00 4.664577e+00 3.653177e+00 3.157426e+00 5.596172e+00 4.110304e+00 4.960932e+00 3.072823e+00 4.926662e+00 2.865236e+00 3.011198e+00 1.845362e+00 9.630440e-01
<GCONST> 1.063952e+02
<STATE> 3
<MEAN> 25
 -2.420404e+00 -5.381406e+00 1.365885e+01 6.286026e+00 -6.212139e-01 7.878714e+00 -4.982520e+00 -1.172771e+01 -1.680591e-01 -1.806991e+00 7.248672e-01 -2.481246e-01 5.080944e-01 -7.551215e-01 6.853014e-02 -4.870928e-01 -6.870164e-01 -4.261003e-02 -3.443977e-01 1.221241e-01 -3.665637e-02 3.493521e-02 2.205699e-01 1.950406e-01 5.374756e-01
<VARIANCE> 25
 5.543374e+01 9.837301e+01 1.400081e+02 1.207244e+02 9.523228e+01 2.052199e+02 7.073926e+01 6.906509e+01 5.954794e+01 5.347547e+01 4.058480e+01 5.936863e+01 4.188367e+00 4.512242e+00 1.082412e+01 5.669770e+00 4.989757e+00 9.654079e+00 4.551106e+00 5.201557e+00 5.779508e+00 4.409927e+00 3.536166e+00 3.349117e+00 1.956884e+00
<GCONST> 1.189901e+02
<STATE> 4
<MEAN> 25
 3.760253e-01 5.259905e-01 6.373351e+00 3.294059e+00 -7.448588e+00 -4.137234e+00 -2.638247e+00 -5.635641e+00 -7.625312e+00 -2.009710e+00 6.635337e+00 7.920227e-01 3.133156e-01 -2.678348e-01 -1.649082e-01 -2.973886e-01 -1.658946e-01 -9.172748e-02 -1.012203e-01 4.360510e-01 -6.449141e-03 2.930118e-01 -1.751822e-02 2.150809e-02 3.137581e-02
<VARIANCE> 25
 4.025441e+01 7.329433e+01 1.214628e+02 4.870893e+01 6.649151e+01 4.209943e+01 5.812157e+01 3.882611e+01 7.239014e+01 3.730576e+01 3.929439e+01 3.426903e+01 6.204663e-01 1.339268e+00 1.731263e+00 1.441941e+00 1.947221e+00 1.920025e+00 2.063677e+00 1.947055e+00 1.942060e+00 1.568663e+00 1.387900e+00 1.021916e+00 6.056496e-01
<GCONST> 9.778860e+01
<TRANSP> 5
 0.000000e+00 1.000000e+00 0.000000e+00 0.000000e+00 0.000000e+00
 0.000000e+00 8.124171e-01 1.875829e-01 0.000000e+00 0.000000e+00
 0.000000e+00 0.000000e+00 8.132338e-01 1.867662e-01 0.000000e+00
 0.000000e+00 0.000000e+00 0.000000e+00 7.637427e-01 2.362572e-01
 0.000000e+00 0.000000e+00 0.000000e+00 0.000000e+00 0.000000e+00
<ENDHMM>
~h "aw"
<BEGINHMM>
<NUMSTATES> 5
<STATE> 2
<MEAN> 25
 5.594297e+00 -6.030027e+00 -8.327529e+00 -6.189678e+00 2.182065e+00 8.517442e+00 3.152639e+00 -4.381366e+00 1.538064e+01 -3.111718e+00 -5.446634e+00 -4.429839e+00 3.845811e-01 -3.558113e-01 -9.904859e-02 -1.484943e+00 5.437040e-01 1.767700e+00 -3.683995e-03 -2.471235e-01 -8.525681e-01 3.859117e-01 2.236392e-01 -4.141909e-01 -3.863202e-01
<VARIANCE> 25
 2.750721e+01 1.009882e+02 2.123143e+01 5.873262e+01 1.351191e+02 7.813722e+01 5.999561e+01 8.830757e+01 6.393163e+01 9.616261e+01 1.413079e+02 6.655755e+01 1.097918e+00 2.821823e+00 3.052454e+00 4.754380e+00 4.368898e+00 4.427943e+00 2.841070e+00 6.991503e+00 3.592630e+00 3.317974e+00 3.670256e+00 3.388270e+00 2.669538e+00
<GCONST> 1.124553e+02
<STATE> 3
<MEAN> 25
 9.003625e+00 -2.154603e+00 -4.430932e+00 -1.815475e+01 -4.678813e+00 1.349328e+01 -3.008518e+00 -1.256203e+00 1.777644e+00 1.100713e+00 3.186030e+00 1.964580e+00 1.879436e-01 1.081493e+00 6.934916e-02 -1.656295e-02 -3.792710e-01 -1.765177e-01 4.138090e-01 -1.559430e-01 -5.921590e-01 -3.800191e-01 1.920246e-01 3.782516e-01 -9.225730e-01
<VARIANCE> 25
 1.691133e+01 1.219436e+02 2.449150e+01 5.635150e+01 3.554195e+01 3.796504e+01 5.007492e+01 2.795066e+01 4.048959e+01 3.774351e+01 3.343067e+01 2.553908e+01 9.470732e-01 2.397144e+00 1.632732e+00 2.886063e+00 1.748772e+00 2.183015e+00 2.167161e+00 1.649690e+00 2.339028e+00 2.203793e+00 1.703613e+00 3.286275e+00 7.711984e-01
<GCONST> 9.742757e+01
<STATE> 4
<MEAN> 25
 -7.606944e+00 3.435318e+00 2.081360e+00 6.943699e+00 -2.261780e+00 2.568880e-01 -2.175606e+00 5.112119e+00 -1.912852e+00 -4.907696e+00 1.394271e+00 -4.163482e+00 -6.087868e-01 -5.213751e-01 -2.682832e-01 5.591645e-01 4.869978e-01 -2.532540e-01 1.683120e-01 -2.194421e-01 1.064177e-01 4.226762e-02 -2.411605e-01 9.152436e-02 5.474695e-02
<VARIANCE> 25
 1.345454e+02 3.832180e+01 9.683060e+01 1.992305e+02 1.214075e+02 3.165084e+02 1.136992e+02 4.552436e+01 7.542303e+01 6.374863e+01 6.574517e+01 6.037388e+01 1.772203e+00 1.153228e+00 4.586195e+00 3.580791e+00 4.754228e+00 4.651707e+00 5.046174e+00 3.073381e+00 4.510249e+00 4.183569e+00 4.276917e+00 4.129664e+00 1.080562e+00
<GCONST> 1.154725e+02
<TRANSP> 5
 0.000000e+00 1.000000e+00 0.000000e+00 0.000000e+00 0.000000e+00
 0.000000e+00 8.281733e-01 1.718267e-01 0.000000e+00 0.000000e+00
 0.000000e+00 0.000000e+00 8.926960e-01 1.073040e-01 0.000000e+00
 0.000000e+00 0.000000e+00 0.000000e+00 8.204933e-01 1.795067e-01
 0.000000e+00 0.000000e+00 0.000000e+00 0.000000e+00 0.000000e+00
<ENDHMM>
~h "ay"
<BEGINHMM>
<NUMSTATES> 5
<STATE> 2
<MEAN> 25
 3.760393e+00 -1.066129e+01 -2.557960e+00 -3.772513e+00 -4.004285e+00 -4.390243e+00 4.963561e+00 7.376808e+00 2.867099e+00 -3.781114e+00 -2.068196e+00 -1.788023e+00 -1.891918e-01 -1.225585e-01 1.395352e+00 3.743786e-03 -1.303436e+00 -5.750387e-01 7.451854e-01 2.243006e-01 -7.676026e-01 -5.230627e-02 5.930840e-01 3.605607e-01 7.078248e-03
<VARIANCE> 25
 1.783469e+01 2.212054e+01 4.479730e+01 2.817808e+01 3.904685e+01 4.025072e+01 5.267247e+01 4.517770e+01 5.089060e+01 4.301710e+01 5.108829e+01 3.575322e+01 5.795645e-01 1.762668e+00 3.258349e+00 2.003208e+00 3.909462e+00 2.825627e+00 2.633677e+00 3.780115e+00 2.415998e+00 4.399930e+00 3.479831e+00 2.139141e+00 4.666319e-01
<GCONST> 9.960779e+01
<STATE> 3
<MEAN> 25
 2.121485e+00 -4.201963e+00 9.695817e+00 -5.630177e+00 -1.255184e+01 -5.610899e+00 2.946679e+00 9.979129e-01 -1.672338e+00 2.365629e+00 3.025867e+00 -7.450340e-01 -2.264888e-01 1.470557e+00 9.437032e-01 3.325239e-01 -2.171813e-01 2.807175e-01 -5.847905e-01 -1.278782e+00 -2.163443e-01 5.653452e-01 1.510705e-01 3.999864e-01 -1.071208e+00
<VARIANCE> 25
 1.445695e+01 3.282404e+01 5.049149e+01 3.657618e+01 3.788289e+01 6.106797e+01 5.114270e+01 6.903719e+01 4.800785e+01 4.490466e+01 5.352010e+01 2.431269e+01 5.195383e-01 1.071970e+00 3.062847e+00 2.704302e+00 2.548197e+00 2.254373e+00 3.347343e+00 3.958396e+00 3.695059e+00 3.135995e+00 2.737933e+00 2.080373e+00 1.105263e+00
<GCONST> 1.005441e+02
<STATE> 4
<MEAN> 25
 -9.687114e-01 1.765897e+00 3.991725e+00 2.344411e+00 -6.743265e+00 -1.048061e+00 -1.730089e-01 -2.449519e-01 9.653983e-02 7.119659e-01 3.015305e+00 2.102794e+00 -4.395021e-01 3.028524e-01 -6.173618e-01 5.486271e-01 8.393481e-01 5.339832e-01 -1.948691e-01 3.072622e-01 3.232334e-01 -1.711384e-01 -6.170258e-02 1.808996e-01 -1.019303e+00
<VARIANCE> 25
 3.959919e+01 4.933367e+01 5.219149e+01 4.146195e+01 5.945852e+01 7.609584e+01 5.477363e+01 5.727476e+01 6.546635e+01 3.358039e+01 4.550467e+01 2.867484e+01 5.298592e-01 9.909237e-01 2.638329e+00 2.085834e+00 2.483245e+00 2.701601e+00 2.108433e+00 2.782297e+00 2.655943e+00 2.542329e+00 2.069643e+00 1.919309e+00 1.170565e+00
<GCONST> 1.007221e+02
<TRANSP> 5
 0.000000e+00 1.000000e+00 0.000000e+00 0.000000e+00 0.000000e+00
 0.000000e+00 7.821705e-01 2.178295e-01 0.000000e+00 0.000000e+00
 0.000000e+00 0.000000e+00 7.930285e-01 2.069715e-01 0.000000e+00
 0.000000e+00 0.000000e+00 0.000000e+00 8.155312e-01 1.844688e-01
 0.000000e+00 0.000000e+00 0.000000e+00 0.000000e+00 0.000000e+00
<ENDHMM>
~h "kh"
<BEGINHMM>
<NUMSTATES> 5
<STATE> 2
<MEAN> 25
 -2.235555e+01 -4.147773e+00 4.674366e+00 1.162520e+01 8.988127e-01 1.204595e+01 1.400564e+01 1.202634e+01 1.187553e+00 -3.674627e+00 4.528023e+00 8.048251e+00 -5.935565e-01 -6.238227e-02 3.632192e-01 -2.585661e-01 -5.439798e-01 1.298989e-01 6.704955e-01 1.859063e-01 1.264089e-01 7.922043e-01 8.869169e-01 6.037799e-01 -6.878720e-02
<VARIANCE> 25
 1.018039e+02 1.349600e+01 4.539459e+01 2.837119e+01 4.881632e+01 3.614548e+01 2.910887e+01 7.403217e+01 2.122898e+01 4.903657e+01 6.375039e+01 5.263614e+01 1.657323e+00 1.037907e+00 2.477165e+00 2.473107e+00 2.350965e+00 4.410035e+00 4.536407e+00 2.690032e+00 2.087924e+00 3.341898e+00 3.736022e+00 1.074327e+00 9.898956e-01
<GCONST> 1.010683e+02
<STATE> 3
<MEAN> 25
 -1.502731e+00 4.744349e+00 -2.462204e+00 3.000065e+00 1.536018e+00 6.512142e+00 2.988017e+00 -7.146694e+00 1.506730e-01 4.708541e+00 2.578852e+00 5.332283e+00 2.022444e+00 1.538781e-01 -6.000612e-01 -5.921874e-01 1.016777e+00 -5.188645e-01 -1.188257e+00 -1.172933e+00 1.437307e-01 -6.152681e-02 -5.691088e-01 -2.422156e+00 2.476490e+00
<VARIANCE> 25
 1.230373e+02 1.585689e+02 8.240353e+01 3.762235e+01 8.674000e+01 1.027466e+02 5.231760e+01 1.032418e+02 2.434332e+01 2.574493e+01 3.879214e+01 8.966690e+01 1.237147e+01 1.109558e+01 1.054636e+01 2.586197e+00 1.308666e+01 9.095863e+00 6.900895e+00 1.109341e+01 7.422996e+00 3.171121e+00 7.548742e+00 2.750707e+00 3.002014e+00
<GCONST> 1.207857e+02
<STATE> 4
<MEAN> 25
 2.714132e+00 -4.938290e+00 -6.487113e+00 -2.149859e+00 6.916616e+00 8.371047e-01 1.524142e+00 2.369982e+00 5.942592e+00 -4.342445e-01 2.774144e+00 -7.231495e+00 -5.556009e-01 -1.203262e-02 5.933641e-01 -1.818556e-01 -3.858523e-01 -1.047710e-01 3.937956e-01 4.658436e-01 -3.812732e-01 -3.362053e-01 1.483199e-01 5.689020e-02 1.245735e-01
<VARIANCE> 25
 6.898109e+01 4.377031e+01 8.947169e+01 7.481441e+01 8.854170e+01 5.107011e+01 9.218657e+01 2.785846e+01 3.297929e+01 4.412036e+01 3.344997e+01 6.228986e+01 3.661622e+00 4.590809e+00 4.547757e+00 3.845181e+00 6.900005e+00 5.102049e+00 4.411500e+00 1.751287e+00 3.129400e+00 4.252181e+00 2.930079e+00 2.117718e+00 4.301656e+00
<GCONST> 1.111227e+02
<TRANSP> 5
 0.000000e+00 1.000000e+00 0.000000e+00 0.000000e+00 0.000000e+00
 0.000000e+00 8.762994e-01 1.237006e-01 0.000000e+00 0.000000e+00
 0.000000e+00 0.000000e+00 8.060285e-01 1.939714e-01 0.000000e+00
 0.000000e+00 0.000000e+00 0.000000e+00 9.385772e-01 6.142274e-02
 0.000000e+00 0.000000e+00 0.000000e+00 0.000000e+00 0.000000e+00
<ENDHMM>
~h "ng"
<BEGINHMM>
<NUMSTATES> 5
<STATE> 2
<MEAN> 25
 6.560615e+00 -6.000338e-01 -1.832342e+00 -3.588870e+00 3.390154e-01 3.878739e+00 -2.385670e+00 -2.310988e+00 -1.307337e+00 -1.900147e-01 -1.684721e+00 -3.399441e+00 -2.690442e-02 1.103692e+00 6.752674e-01 8.668770e-01 -3.468313e-01 5.318391e-02 2.786945e-01 -7.562922e-01 -2.629503e-01 2.082554e-01 -3.237878e-01 6.922595e-02 -9.590894e-01
<VARIANCE> 25
 1.182575e+01 3.756932e+01 3.979457e+01 5.090946e+01 6.511301e+01 7.595473e+01 6.080655e+01 5.119527e+01 6.197504e+01 5.242878e+01 4.494337e+01 4.305310e+01 4.583070e-01 1.368469e+00 2.144656e+00 2.199925e+00 3.496342e+00 3.056522e+00 3.394951e+00 3.044551e+00 3.419574e+00 2.661208e+00 2.993976e+00 2.346376e+00 6.336439e-01
<GCONST> 1.013518e+02
<STATE> 3
<MEAN> 25
 6.033704e+00 3.035310e+00 1.150095e+00 -9.410770e-01 -2.037124e+00 3.154833e+00 -9.846854e-01 -4.933095e+00 -2.459571e+00 3.293599e-01 -2.801857e+00 -2.635701e+00 -1.504725e-01 6.192357e-01 4.268806e-01 5.025965e-01 -8.231785e-02 -1.594611e-01 1.077096e-01 -1.714255e-01 -4.765411e-02 -4.799196e-03 -1.827823e-01 3.503047e-02 -5.075306e-01
<VARIANCE> 25
 1.176702e+01 2.984653e+01 3.794733e+01 3.461627e+01 5.860239e+01 5.531362e+01 4.723258e+01 5.161111e+01 5.165705e+01 4.928855e+01 3.819862e+01 3.444347e+01 3.106845e-01 7.694985e-01 1.182788e+00 1.215204e+00 1.753806e+00 1.648463e+00 1.804285e+00 1.826425e+00 1.859853e+00 1.725592e+00 1.626994e+00 1.373614e+00 3.730617e-01
<GCONST> 9.206606e+01
<STATE> 4
<MEAN> 25
 3.418962e+00 3.733382e+00 1.263596e+00 9.535847e-01 7.083272e-01 1.419610e+00 -6.191558e-01 -2.866909e+00 -2.175668e+00 -1.173043e+00 -2.335772e+00 -1.951201e+00 -3.630667e-01 -1.049668e-01 -5.912669e-02 1.830893e-01 2.543803e-01 -5.781895e-02 1.993203e-01 3.258743e-01 1.375790e-01 6.830384e-02 2.019951e-01 1.468331e-01 -1.726080e-01
<VARIANCE> 25
 1.707369e+01 2.607741e+01 2.660871e+01 3.066386e+01 4.661006e+01 3.831805e+01 3.718475e+01 3.571070e+01 3.729831e+01 3.833545e+01 3.070064e+01 2.660723e+01 5.998362e-01 1.033875e+00 1.197839e+00 1.431469e+00 1.819982e+00 1.741802e+00 1.864964e+00 1.940832e+00 2.028300e+00 2.051595e+00 1.732166e+00 1.532581e+00 5.975284e-01
<GCONST> 9.178848e+01
<TRANSP> 5
 0.000000e+00 1.000000e+00 0.000000e+00 0.000000e+00 0.000000e+00
 0.000000e+00 5.240642e-01 4.759358e-01 0.000000e+00 0.000000e+00
 0.000000e+00 0.000000e+00 5.731150e-01 4.268850e-01 0.000000e+00
 0.000000e+00 0.000000e+00 0.000000e+00 6.861271e-01 3.138728e-01
 0.000000e+00 0.000000e+00 0.000000e+00 0.000000e+00 0.000000e+00
<ENDHMM>
~h "ny"
<BEGINHMM>
<NUMSTATES> 5
<STATE> 2
<MEAN> 25
 2.803287e+00 2.040162e+00 8.789370e+00 -3.370471e+00 -5.388468e+00 -9.378805e-01 -4.156956e-01 -1.961629e+00 -4.718170e+00 1.349037e-01 4.616765e-01 -1.018071e+00 -4.489864e-01 -1.456822e+00 8.822476e-01 -1.184364e+00 -1.067698e+00 2.617014e-01 7.135419e-01 9.511440e-01 -4.408668e-01 -1.329844e-01 3.876800e-01 -1.573596e-01 1.261341e+00
<VARIANCE> 25
 1.906383e+01 5.044055e+01 5.080244e+01 7.899503e+01 5.101884e+01 6.166401e+01 4.987344e+01 6.590895e+01 5.065354e+01 4.930812e+01 5.221362e+01 4.211578e+01 1.608502e+00 3.936408e+00 4.095006e+00 5.996294e+00 4.217030e+00 4.957320e+00 4.844765e+00 5.865883e+00 4.264396e+00 4.454826e+00 3.738945e+00 2.765822e+00 1.711085e+00
<GCONST> 1.100345e+02
<STATE> 3
<MEAN> 25
 2.037489e+00 -6.886320e+00 7.865735e+00 -4.277618e+00 -7.627350e+00 -1.381320e+00 3.013114e+00 5.203949e+00 -4.895307e+00 -4.007134e+00 2.856991e-01 -9.645841e-01 2.305901e-01 -1.087344e+00 -1.348904e+00 6.697987e-01 1.002111e+00 -4.322745e-01 -4.984846e-02 8.619765e-01 5.886351e-01 -9.598795e-01 -7.582169e-01 1.832688e-01 3.084862e-01
<VARIANCE> 25
 1.424508e+01 3.688659e+01 3.962214e+01 4.692166e+01 4.971750e+01 5.313688e+01 5.351510e+01 6.980332e+01 5.590858e+01 5.143789e+01 4.632462e+01 3.935555e+01 3.565172e-01 1.461233e+00 1.617123e+00 1.811501e+00 2.507094e+00 2.274337e+00 2.675686e+00 2.619507e+00 2.493064e+00 2.315899e+00 2.450990e+00 1.754038e+00 5.192502e-01
<GCONST> 9.798340e+01
<STATE> 4
<MEAN> 25
 2.274249e+00 -5.929577e+00 1.502643e+00 2.146557e-01 -4.378440e-01 -1.717844e+00 4.645933e-01 4.167654e+00 -2.608838e+00 -6.563545e+00 -2.707618e+00 5.365506e-01 2.825098e-02 1.413354e-01 -5.745004e-01 2.965606e-01 6.259319e-01 8.085795e-02 -2.106292e-01 -1.097765e-01 2.775968e-01 3.883357e-02 -2.496342e-01 -7.825052e-03 -4.771954e-01
<VARIANCE> 25
 1.602706e+01 3.701475e+01 2.929546e+01 4.696006e+01 4.474799e+01 4.562862e+01 5.034041e+01 5.954145e+01 5.132911e+01 5.503045e+01 5.637100e+01 3.878230e+01 3.816895e-01 8.508129e-01 1.302570e+00 1.462205e+00 1.824866e+00 1.539324e+00 1.813296e+00 1.761711e+00 1.760612e+00 1.826440e+00 1.717242e+00 1.355484e+00 5.313699e-01
<GCONST> 9.391684e+01
<TRANSP> 5
 0.000000e+00 1.000000e+00 0.000000e+00 0.000000e+00 0.000000e+00
 0.000000e+00 7.436526e-01 2.563474e-01 0.000000e+00 0.000000e+00
 0.000000e+00 0.000000e+00 6.831945e-01 3.168055e-01 0.000000e+00
 0.000000e+00 0.000000e+00 0.000000e+00 7.473122e-01 2.526878e-01
 0.000000e+00 0.000000e+00 0.000000e+00 0.000000e+00 0.000000e+00
<ENDHMM>
~h "sp"
<BEGINHMM>
<NUMSTATES> 3
<STATE> 2
~s "silst"
<TRANSP> 3
 0.000000e+00 2.318723e-01 7.681276e-01
 0.000000e+00 9.484318e-01 5.156819e-02
 0.000000e+00 0.000000e+00 0.000000e+00
<ENDHMM>
~h "sy"
<BEGINHMM>
<NUMSTATES> 5
<STATE> 2
<MEAN> 25
 -1.226594e+01 3.218216e+00 1.296941e+01 -1.407166e+00 -3.914648e+00 1.693644e+00 -7.118118e-01 6.183559e-02 3.043035e+00 -1.295589e+00 3.064576e+00 -2.517899e-01 -5.945034e-01 -1.217185e-01 2.351207e-01 1.022983e-01 -3.755921e-02 8.726840e-02 4.545939e-01 -1.380256e-01 -2.484841e-01 8.206268e-02 -1.147813e-01 -2.190016e-01 -1.693756e-01
<VARIANCE> 25
 1.513651e+02 4.250042e+01 3.540318e+01 2.356759e+01 6.525109e+01 5.273923e+01 2.919068e+01 2.652689e+01 3.678098e+01 6.485092e+01 3.711731e+01 2.472025e+01 1.192760e+01 3.929536e+00 2.759677e+00 2.145399e+00 6.471197e+00 5.103233e+00 2.913115e+00 1.320355e+00 3.517601e+00 3.077739e+00 4.175610e+00 1.898681e+00 7.819474e-01
<GCONST> 1.055138e+02
<STATE> 3
<MEAN> 25
 -5.649667e+00 2.128226e+00 -1.899459e-01 1.932787e+00 9.864421e-02 6.559465e+00 2.146739e+00 -7.277902e-01 1.281872e+00 2.027833e-01 3.409140e+00 3.236705e+00 7.688990e-02 -1.161699e-02 1.459419e-01 2.422314e-01 5.711433e-02 -1.212131e-01 1.069565e-01 2.244719e-01 6.379137e-02 -1.922981e-01 -6.825031e-02 8.143786e-02 -1.032856e-01
<VARIANCE> 25
 2.392814e+01 3.714154e+00 2.283347e+01 8.312156e+00 8.194644e+00 2.683310e+01 1.803620e+01 1.058292e+01 1.978389e+01 5.866502e+01 2.358202e+01 1.422899e+01 2.049772e+00 2.148697e-01 3.968566e-01 9.809739e-01 1.412146e+00 1.400864e+00 8.307885e-01 7.969589e-01 7.192267e-01 6.967357e-01 1.000601e+00 9.453341e-01 3.192086e-01
<GCONST> 7.581534e+01
<STATE> 4
<MEAN> 25
 2.551717e+00 -3.423218e+00 3.998927e+00 -1.881445e+00 -8.424977e+00 -4.091156e+00 1.679549e+00 4.792757e+00 -4.026698e-01 -3.958394e+00 -2.923079e-01 -1.524695e-01 6.301045e-01 -1.788044e-01 -8.740183e-01 4.077940e-01 -2.227168e-01 -4.213051e-01 1.539178e-01 5.389500e-01 -2.368898e-01 -1.296727e-01 4.121705e-02 8.135958e-02 -1.646522e-01
<VARIANCE> 25
 4.197474e+01 4.231172e+01 3.674897e+01 6.728987e+01 7.160618e+01 4.557398e+01 3.131694e+01 1.954477e+01 1.090149e+01 3.399660e+01 1.988428e+01 1.063235e+01 3.335794e+00 3.182796e+00 5.036626e-01 1.403459e+00 2.174488e+00 2.488963e+00 5.660458e+00 2.963426e+00 1.187654e+00 4.048490e+00 2.434108e+00 9.874725e-01 1.229778e+00
<GCONST> 9.619677e+01
<TRANSP> 5
 0.000000e+00 1.000000e+00 0.000000e+00 0.000000e+00 0.000000e+00
 0.000000e+00 9.003964e-01 9.960361e-02 0.000000e+00 0.000000e+00
 0.000000e+00 0.000000e+00 8.882574e-01 1.117425e-01 0.000000e+00
 0.000000e+00 0.000000e+00 0.000000e+00 7.830967e-01 2.169033e-01
 0.000000e+00 0.000000e+00 0.000000e+00 0.000000e+00 0.000000e+00
<ENDHMM>
~h "sil"
<BEGINHMM>
<NUMSTATES> 5
<STATE> 2
<MEAN> 25
 -5.689783e+00 1.397372e+00 -2.169712e+00 2.688167e+00 2.114490e+00 2.662649e+00 2.434231e+00 1.031487e+00 4.446280e-01 -1.666677e-01 3.949224e-01 1.738912e+00 -3.527419e-02 1.386600e-02 -7.924099e-03 1.114016e-02 1.361739e-02 1.931500e-02 6.147368e-03 5.641538e-04 1.643416e-03 1.132018e-03 1.378511e-02 3.687945e-03 -5.086787e-02
<VARIANCE> 25
 2.102628e+01 1.897782e+01 2.135315e+01 2.637150e+01 2.293435e+01 2.553215e+01 2.218103e+01 2.463046e+01 2.518717e+01 2.622115e+01 2.177046e+01 1.768326e+01 1.451831e-01 2.916489e-01 4.636962e-01 6.566295e-01 8.667517e-01 1.035693e+00 1.177648e+00 1.296136e+00 1.343810e+00 1.326003e+00 1.263091e+00 1.164763e+00 8.741502e-02
<GCONST> 7.788183e+01
<STATE> 3
~s "silst"
<STATE> 4
<MEAN> 25
 -3.371271e+00 3.209528e-02 -4.024290e-01 3.512360e-01 1.009219e+00 6.594718e-01 9.213680e-01 5.718619e-01 -2.586663e-02 6.580105e-01 -2.866489e-02 6.285550e-01 1.857274e-01 -6.326596e-02 4.011586e-02 -1.095815e-01 -6.485713e-03 -9.483740e-02 -5.640455e-02 -4.756516e-02 -5.577107e-02 -2.654933e-02 -4.858762e-02 -6.323949e-02 3.482515e-01
<VARIANCE> 25
 7.349642e+01 6.711051e+01 7.981471e+01 7.755333e+01 7.690667e+01 7.842908e+01 6.149562e+01 7.181278e+01 6.665916e+01 5.470987e+01 5.266125e+01 4.546266e+01 2.869715e+00 3.224195e+00 3.372819e+00 3.812807e+00 4.133335e+00 4.052470e+00 3.731951e+00 4.176659e+00 3.750591e+00 3.406130e+00 3.232649e+00 2.786509e+00 3.799551e+00
<GCONST> 1.126858e+02
<TRANSP> 5
 0.000000e+00 1.000000e+00 0.000000e+00 0.000000e+00 0.000000e+00
 0.000000e+00 9.288191e-01 2.269361e-02 4.848730e-02 0.000000e+00
 0.000000e+00 0.000000e+00 8.953253e-01 1.046747e-01 0.000000e+00
 0.000000e+00 6.327998e-02 0.000000e+00 7.989255e-01 1.377945e-01
 0.000000e+00 0.000000e+00 0.000000e+00 0.000000e+00 0.000000e+00
<ENDHMM>
