~o
<STREAMINFO> 1 25
<VECSIZE> 25<NULLD><MFCC_D_N_Z_0><DIAGC>
~s "silst"
<MEAN> 25
 -6.915219e+00 1.948233e+00 -1.616677e+00 4.184456e+00 3.945872e+00 3.279246e+00 3.415402e+00 2.391200e+00 1.386840e+00 1.245569e+00 1.562777e+00 3.079013e+00 -1.192718e-01 1.804641e-02 -9.097476e-03 3.143235e-02 3.641967e-02 4.097798e-02 3.009756e-02 1.403637e-02 1.122272e-02 2.975794e-02 3.635024e-02 2.133239e-02 -1.335120e-01
<VARIANCE> 25
 2.853443e+01 2.874651e+01 2.604570e+01 2.844794e+01 3.199412e+01 3.466624e+01 2.860842e+01 3.210825e+01 3.183362e+01 3.698779e+01 2.885935e+01 2.239217e+01 3.328871e-01 5.856051e-01 7.469339e-01 9.239747e-01 1.187914e+00 1.389482e+00 1.470202e+00 1.602417e+00 1.628026e+00 1.608465e+00 1.481317e+00 1.340450e+00 2.374326e-01
<GCONST> 8.620371e+01
~h "@"
<BEGINHMM>
<NUMSTATES> 5
<STATE> 2
<MEAN> 25
 3.498381e+00 -9.396155e-01 -7.599366e-01 -1.573834e+00 -1.429624e+00 -2.045161e+00 -2.595852e+00 -1.318898e+00 8.241640e-01 6.842126e-01 3.730870e-02 -1.095019e+00 1.563058e+00 -6.721530e-01 -1.287463e-01 -7.496117e-01 -7.663198e-01 -3.978083e-01 -8.182840e-01 2.034491e-01 1.594857e-01 -8.118591e-02 -2.063509e-01 -5.132120e-01 1.311907e+00
<VARIANCE> 25
 3.996060e+01 4.826361e+01 5.311380e+01 5.482768e+01 6.406023e+01 7.577347e+01 6.178048e+01 6.392189e+01 6.019087e+01 5.297089e+01 4.694046e+01 3.799602e+01 4.895303e+00 5.556661e+00 5.168561e+00 5.859719e+00 6.241104e+00 7.198766e+00 6.554400e+00 7.159521e+00 6.499616e+00 5.840790e+00 5.235443e+00 4.132930e+00 4.298628e+00
<GCONST> 1.163475e+02
<STATE> 3
<MEAN> 25
 5.126462e+00 -2.453702e+00 -1.235361e+00 -2.660522e+00 -2.285467e+00 -2.752166e+00 -3.682854e+00 -4.828588e-01 1.242509e+00 6.504329e-01 -3.890093e-02 -1.608019e+00 7.228019e-01 -7.970460e-02 1.348357e-01 1.042902e-01 -2.216001e-01 9.830590e-02 -1.699703e-01 1.345183e-01 -4.954831e-02 -7.798644e-02 -2.295849e-01 -1.796143e-01 8.228415e-02
<VARIANCE> 25
 2.730817e+01 4.379572e+01 5.145864e+01 5.296228e+01 6.249995e+01 7.245849e+01 5.884630e+01 6.285488e+01 5.896604e+01 5.779259e+01 4.824944e+01 3.856950e+01 2.411035e+00 3.547977e+00 3.480805e+00 4.360857e+00 4.320045e+00 4.922121e+00 4.500198e+00 5.313073e+00 4.580554e+00 4.234844e+00 3.839582e+00 3.074469e+00 2.617882e+00
<GCONST> 1.107343e+02
<STATE> 4
<MEAN> 25
 4.843777e+00 -1.930928e+00 2.052102e-01 -1.706245e+00 -2.741847e+00 -3.175175e+00 -2.786829e+00 3.905260e-01 5.539317e-01 6.704939e-01 -1.836905e-01 -1.636374e+00 -1.408933e-01 6.272235e-01 2.448312e-01 7.011254e-01 3.689846e-01 4.334462e-01 3.200174e-01 -1.562998e-01 -1.503564e-01 -7.312754e-02 -1.536582e-01 1.045485e-01 -8.677091e-01
<VARIANCE> 25
 2.387690e+01 4.885727e+01 5.663594e+01 5.371035e+01 6.940112e+01 6.900815e+01 6.030205e+01 6.916690e+01 5.912490e+01 5.815995e+01 4.743140e+01 3.940699e+01 1.135988e+00 2.254402e+00 2.149097e+00 2.719642e+00 3.042841e+00 3.167658e+00 3.017185e+00 3.235672e+00 3.117098e+00 2.918234e+00 2.651861e+00 2.254874e+00 1.858258e+00
<GCONST> 1.053812e+02
<TRANSP> 5
 0.000000e+00 1.000000e+00 0.000000e+00 0.000000e+00 0.000000e+00
 0.000000e+00 2.370974e-01 7.629026e-01 0.000000e+00 0.000000e+00
 0.000000e+00 0.000000e+00 6.307810e-02 9.369219e-01 0.000000e+00
 0.000000e+00 0.000000e+00 0.000000e+00 5.360046e-01 4.639954e-01
 0.000000e+00 0.000000e+00 0.000000e+00 0.000000e+00 0.000000e+00
<ENDHMM>
~h "a"
<BEGINHMM>
<NUMSTATES> 5
<STATE> 2
<MEAN> 25
 4.826674e+00 -6.762180e+00 -4.114095e+00 -4.472410e+00 -4.310618e-01 -9.004513e-01 -4.044600e-01 2.776712e+00 2.290468e+00 -2.303061e-01 -2.172054e+00 -2.701468e+00 3.181839e-01 -1.198377e+00 -7.248231e-01 -5.398253e-01 5.237387e-01 2.548003e-01 3.019769e-01 7.344975e-01 2.090292e-01 -4.104261e-01 -6.914324e-01 -4.552061e-01 8.882591e-01
<VARIANCE> 25
 2.383604e+01 3.935875e+01 4.911042e+01 4.956347e+01 6.805940e+01 7.440781e+01 6.136848e+01 6.495136e+01 5.556914e+01 5.308242e+01 5.172321e+01 4.505109e+01 1.693995e+00 2.842149e+00 3.119590e+00 3.402296e+00 4.367158e+00 4.341227e+00 4.275266e+00 4.921343e+00 4.237034e+00 3.969876e+00 3.914219e+00 3.231636e+00 2.209855e+00
<GCONST> 1.092275e+02
<STATE> 3
<MEAN> 25
 5.096170e+00 -8.868082e+00 -5.066648e+00 -5.529193e+00 8.597573e-01 -5.128858e-01 -1.646963e-01 3.784306e+00 2.547168e+00 -6.202841e-01 -3.769922e+00 -3.803602e+00 -1.290361e-02 4.544506e-01 3.999926e-02 4.734836e-01 1.525211e-01 4.385203e-02 1.142657e-01 -1.701728e-01 -1.647235e-01 -1.835611e-02 -6.289950e-02 2.416227e-01 -5.812376e-01
<VARIANCE> 25
 1.570220e+01 3.306325e+01 4.200392e+01 3.925451e+01 6.237000e+01 6.719692e+01 5.838370e+01 6.176052e+01 5.588920e+01 5.426168e+01 5.345031e+01 4.626404e+01 5.023697e-01 1.520551e+00 1.460421e+00 1.752531e+00 2.313403e+00 2.574146e+00 2.446993e+00 2.658100e+00 2.316444e+00 2.381184e+00 2.326561e+00 2.000766e+00 1.109259e+00
<GCONST> 9.964469e+01
<STATE> 4
<MEAN> 25
 3.191435e+00 -3.307291e+00 -4.235873e+00 -7.765618e-01 1.369013e+00 5.277443e-02 1.362717e+00 2.140649e+00 1.031886e+00 -1.085247e+00 -2.448838e+00 -8.531254e-01 -3.839130e-01 9.358044e-01 4.758272e-01 6.391248e-01 8.254370e-02 1.866404e-01 3.646505e-02 -2.852781e-01 -1.410035e-01 1.123419e-01 2.521634e-01 2.545169e-01 -1.091351e+00
<VARIANCE> 25
 2.166507e+01 3.208273e+01 3.748778e+01 4.127526e+01 5.044242e+01 5.096478e+01 4.377140e+01 4.448229e+01 4.484843e+01 4.495790e+01 4.348784e+01 3.090507e+01 8.450106e-01 1.450572e+00 1.566312e+00 1.860577e+00 2.305205e+00 2.318226e+00 2.419596e+00 2.585355e+00 2.442360e+00 2.399621e+00 2.255806e+00 1.936669e+00 9.592773e-01
<GCONST> 9.805747e+01
<TRANSP> 5
 0.000000e+00 1.000000e+00 0.000000e+00 0.000000e+00 0.000000e+00
 0.000000e+00 4.880638e-01 5.119362e-01 0.000000e+00 0.000000e+00
 0.000000e+00 0.000000e+00 6.493406e-01 3.506594e-01 0.000000e+00
 0.000000e+00 0.000000e+00 0.000000e+00 6.701552e-01 3.298448e-01
 0.000000e+00 0.000000e+00 0.000000e+00 0.000000e+00 0.000000e+00
<ENDHMM>
~h "b"
<BEGINHMM>
<NUMSTATES> 5
<STATE> 2
<MEAN> 25
 4.334814e+00 8.347081e+00 2.709160e+00 4.537015e+00 2.002948e+00 1.491875e+00 -7.582318e-01 -2.948984e+00 -2.613471e+00 -1.890837e+00 -1.542949e+00 -1.623141e+00 9.897424e-02 8.123655e-01 2.519893e-01 5.081703e-01 3.304620e-01 6.955428e-02 1.784166e-01 -1.575481e-01 -1.690276e-01 -2.243208e-01 -1.264180e-01 -2.915574e-02 -3.755490e-01
<VARIANCE> 25
 2.695601e+01 3.531436e+01 2.986563e+01 3.315865e+01 3.183852e+01 3.877419e+01 3.680310e+01 3.971278e+01 3.716398e+01 3.437831e+01 2.998661e+01 2.734293e+01 1.658916e+00 2.866207e+00 2.299842e+00 3.072150e+00 2.591533e+00 2.905186e+00 3.058445e+00 2.887523e+00 2.892880e+00 2.893185e+00 2.669651e+00 2.132350e+00 2.431831e+00
<GCONST> 1.004349e+02
<STATE> 3
<MEAN> 25
 4.740316e+00 7.755814e+00 1.887771e+00 3.806834e+00 1.981896e+00 1.256031e+00 -1.041582e+00 -3.996778e+00 -3.039918e+00 -1.372729e+00 -4.116085e-01 -7.978135e-01 7.446859e-01 -2.036670e+00 -1.209617e+00 -2.094414e+00 -1.141318e+00 -1.041489e+00 -1.488668e+00 -2.417204e-01 7.273890e-01 9.861377e-01 1.257729e+00 6.313706e-02 2.559768e+00
<VARIANCE> 25
 2.406804e+01 4.158047e+01 3.142563e+01 3.913079e+01 3.368355e+01 4.086291e+01 3.814110e+01 4.037201e+01 3.742160e+01 3.543341e+01 3.420271e+01 2.878718e+01 3.123464e+00 4.951109e+00 4.961480e+00 6.344380e+00 5.087927e+00 6.082732e+00 5.626397e+00 5.564417e+00 6.576454e+00 7.447808e+00 5.302342e+00 4.383533e+00 3.526861e+00
<GCONST> 1.099806e+02
<STATE> 4
<MEAN> 25
 6.568331e+00 1.473675e+00 -8.636263e-01 -1.532397e+00 -1.185916e+00 -1.210378e+00 -5.900319e+00 -3.091611e+00 6.157161e-01 1.322626e+00 2.670666e+00 -2.029222e+00 1.817685e-01 -2.194270e+00 -5.164525e-01 -1.504845e+00 -1.083176e+00 -8.744702e-01 -7.443511e-01 9.148294e-01 1.069264e+00 4.794158e-01 2.987357e-01 -3.583816e-01 2.135402e+00
<VARIANCE> 25
 3.206085e+01 5.993502e+01 6.110341e+01 9.504800e+01 6.894910e+01 9.620135e+01 7.143807e+01 7.962844e+01 7.489006e+01 1.018522e+02 7.052809e+01 5.399648e+01 2.546762e+00 5.657595e+00 5.936812e+00 7.510907e+00 6.809202e+00 8.226865e+00 7.906724e+00 8.509118e+00 8.534122e+00 8.156262e+00 7.005912e+00 6.556522e+00 3.945174e+00
<GCONST> 1.209477e+02
<TRANSP> 5
 0.000000e+00 1.000000e+00 0.000000e+00 0.000000e+00 0.000000e+00
 0.000000e+00 6.640336e-01 3.359664e-01 0.000000e+00 0.000000e+00
 0.000000e+00 0.000000e+00 3.811597e-01 6.188403e-01 0.000000e+00
 0.000000e+00 0.000000e+00 0.000000e+00 4.373908e-01 5.626092e-01
 0.000000e+00 0.000000e+00 0.000000e+00 0.000000e+00 0.000000e+00
<ENDHMM>
~h "c"
<BEGINHMM>
<NUMSTATES> 5
<STATE> 2
<MEAN> 25
 -8.033515e+00 5.275358e+00 5.733166e-01 1.558841e+00 3.317811e+00 -3.814603e-01 2.277170e+00 -3.222286e-01 1.467291e+00 4.691730e-02 1.755858e+00 1.803174e+00 -2.497939e+00 2.091875e-01 -1.166135e-01 -8.793017e-01 3.590803e-01 2.679267e-02 6.443136e-01 -6.695350e-02 5.145867e-01 1.431184e-01 5.236410e-01 2.601502e-01 8.868822e-01
<VARIANCE> 25
 7.323463e+01 4.826161e+01 5.203890e+01 4.859372e+01 4.944699e+01 5.996722e+01 5.033088e+01 5.402167e+01 4.747606e+01 3.742179e+01 3.809927e+01 3.047631e+01 5.344239e+00 4.712548e+00 5.202609e+00 5.017184e+00 5.082452e+00 5.337641e+00 4.328323e+00 4.997967e+00 4.074515e+00 3.667744e+00 3.331560e+00 2.600534e+00 6.623417e+00
<GCONST> 1.120122e+02
<STATE> 3
<MEAN> 25
 -1.464637e+01 1.354154e+00 5.151068e+00 -2.256976e+00 4.850465e-02 4.246838e-01 3.844737e+00 -8.053070e-01 2.239504e+00 1.949930e-01 3.099866e+00 2.724887e+00 1.960641e+00 -1.691653e+00 1.282478e+00 -2.695244e-02 -2.070131e+00 -1.350746e+00 -7.970148e-01 8.221909e-03 -2.064642e-01 -5.363252e-01 -2.125104e-01 -1.138534e-01 1.777281e+00
<VARIANCE> 25
 5.656992e+01 1.142606e+02 9.958890e+01 6.445993e+01 7.479002e+01 1.157637e+02 5.772857e+01 6.124335e+01 4.364690e+01 5.077109e+01 4.073382e+01 3.466628e+01 9.903152e+00 7.213749e+00 6.936734e+00 5.711558e+00 6.277195e+00 6.521193e+00 5.149527e+00 5.435918e+00 4.884570e+00 4.293698e+00 4.146819e+00 2.991440e+00 3.526527e+00
<GCONST> 1.174948e+02
<STATE> 4
<MEAN> 25
 -1.577062e+00 -2.452131e+00 4.964637e+00 -5.382476e-01 -4.593513e+00 -5.034554e+00 -1.374649e+00 -7.655866e-01 1.248432e+00 -2.212905e+00 4.102269e-01 1.419611e+00 4.190562e+00 -1.128346e+00 -1.201043e+00 -2.092717e-01 -8.272439e-01 -1.131909e+00 -1.151548e+00 1.656609e-01 -3.779829e-01 -1.936516e-01 -7.674037e-01 -7.598588e-01 1.334360e+00
<VARIANCE> 25
 3.868357e+01 6.753126e+01 5.323555e+01 4.937777e+01 5.725120e+01 7.977496e+01 5.712548e+01 6.550438e+01 4.887209e+01 4.009785e+01 3.817081e+01 2.925888e+01 4.428470e+00 9.557413e+00 8.874008e+00 4.907249e+00 7.401894e+00 7.189522e+00 5.983767e+00 6.786887e+00 5.648243e+00 6.022222e+00 5.150869e+00 3.543111e+00 2.086203e+00
<GCONST> 1.153059e+02
<TRANSP> 5
 0.000000e+00 1.000000e+00 0.000000e+00 0.000000e+00 0.000000e+00
 0.000000e+00 7.587165e-01 2.412836e-01 0.000000e+00 0.000000e+00
 0.000000e+00 0.000000e+00 5.737813e-01 4.262187e-01 0.000000e+00
 0.000000e+00 0.000000e+00 0.000000e+00 4.627396e-01 5.372604e-01
 0.000000e+00 0.000000e+00 0.000000e+00 0.000000e+00 0.000000e+00
<ENDHMM>
~h "d"
<BEGINHMM>
<NUMSTATES> 5
<STATE> 2
<MEAN> 25
 3.251619e+00 5.150757e+00 4.005051e+00 6.315434e+00 9.041163e-01 -8.071629e-01 -1.678770e+00 -1.045979e+00 -2.370795e-01 -2.085414e+00 -2.398894e+00 -5.798222e-01 1.540248e-01 2.921463e-01 6.254048e-01 4.594643e-01 2.557409e-02 -3.056374e-01 -2.126184e-01 -1.856657e-01 -2.220654e-01 -3.861552e-01 4.840193e-02 7.104187e-02 1.717237e-01
<VARIANCE> 25
 3.758559e+01 5.977565e+01 4.061988e+01 4.882018e+01 6.098816e+01 5.497277e+01 5.114158e+01 4.940837e+01 4.427544e+01 4.029006e+01 4.103085e+01 3.157160e+01 3.194393e+00 6.911767e+00 3.572143e+00 5.274954e+00 5.407302e+00 5.644987e+00 5.505733e+00 5.075230e+00 4.542066e+00 4.345075e+00 4.060585e+00 3.331072e+00 6.125366e+00
<GCONST> 1.120408e+02
<STATE> 3
<MEAN> 25
 3.098461e+00 8.287858e-01 5.634309e+00 3.976492e+00 -1.755182e+00 -3.507599e+00 -3.526127e+00 -9.545779e-01 -7.341944e-01 -3.012612e+00 -6.909204e-02 1.240856e+00 -2.410484e-02 -2.600749e+00 4.145962e-01 -2.143394e+00 -2.134687e+00 -1.552972e+00 -1.212927e+00 8.319793e-01 2.370872e-01 2.001483e-01 1.426864e+00 5.136744e-01 3.061067e+00
<VARIANCE> 25
 2.204693e+01 4.951237e+01 4.250309e+01 5.395687e+01 6.854058e+01 6.504549e+01 5.957133e+01 5.641365e+01 5.474245e+01 4.251944e+01 4.199977e+01 3.867056e+01 3.192958e+00 4.958487e+00 5.723424e+00 5.526867e+00 6.628475e+00 7.373654e+00 7.648762e+00 8.766068e+00 7.413978e+00 6.385136e+00 5.451208e+00 4.221909e+00 3.879347e+00
<GCONST> 1.150079e+02
<STATE> 4
<MEAN> 25
 3.949171e+00 -3.192358e+00 5.910690e+00 -8.657626e-02 -6.541520e+00 -6.590685e+00 -6.020755e+00 2.106000e+00 4.920157e-01 -1.957621e+00 2.156308e+00 6.668957e-01 6.718002e-02 -7.969616e-01 -2.725758e-01 -1.365593e+00 -8.941350e-01 -2.571282e-01 1.070622e-02 6.097814e-01 2.097106e-01 6.038719e-01 2.519918e-01 -4.854537e-01 1.153835e+00
<VARIANCE> 25
 2.318097e+01 3.952470e+01 5.667316e+01 6.695979e+01 8.177491e+01 6.535297e+01 7.986012e+01 9.163850e+01 7.718409e+01 6.530301e+01 5.689079e+01 4.213485e+01 1.393205e+00 2.757715e+00 4.775996e+00 3.974983e+00 5.735150e+00 4.795991e+00 5.439037e+00 5.706986e+00 5.087869e+00 4.212731e+00 4.907774e+00 3.780419e+00 2.505087e+00
<GCONST> 1.127410e+02
<TRANSP> 5
 0.000000e+00 1.000000e+00 0.000000e+00 0.000000e+00 0.000000e+00
 0.000000e+00 5.797966e-01 4.202034e-01 0.000000e+00 0.000000e+00
 0.000000e+00 0.000000e+00 4.139761e-01 5.860239e-01 0.000000e+00
 0.000000e+00 0.000000e+00 0.000000e+00 4.027152e-01 5.972848e-01
 0.000000e+00 0.000000e+00 0.000000e+00 0.000000e+00 0.000000e+00
<ENDHMM>
~h "e"
<BEGINHMM>
<NUMSTATES> 5
<STATE> 2
<MEAN> 25
 3.188917e+00 -4.180818e+00 9.854600e-01 -6.178159e-01 -4.894682e+00 -4.924440e+00 7.542422e-02 2.997893e+00 5.193335e-02 2.595205e-01 5.828684e-01 -4.734270e-01 7.182792e-01 -1.229244e+00 3.791478e-01 -7.490711e-01 -1.152647e+00 -6.874225e-01 4.177653e-01 9.107563e-01 -4.450064e-01 -1.272510e-01 1.901046e-01 -2.319108e-01 1.507116e+00
<VARIANCE> 25
 4.121637e+01 5.432923e+01 6.389458e+01 5.576172e+01 7.110836e+01 8.701853e+01 7.038663e+01 7.860775e+01 6.007238e+01 5.132529e+01 4.979789e+01 3.679306e+01 4.167385e+00 4.317263e+00 5.090379e+00 5.296282e+00 5.763082e+00 6.646030e+00 5.811211e+00 7.037544e+00 5.570770e+00 4.760606e+00 4.547412e+00 3.436600e+00 3.979553e+00
<GCONST> 1.156839e+02
<STATE> 3
<MEAN> 25
 3.562141e+00 -5.987448e+00 4.396274e+00 -1.335828e+00 -8.629068e+00 -7.619478e+00 1.639214e+00 4.890886e+00 -2.318764e+00 4.914830e-01 1.929675e+00 -1.176721e+00 -1.457486e-01 5.752885e-01 -9.502627e-02 3.672385e-01 3.894767e-01 3.702653e-01 2.528785e-01 -3.193446e-01 -3.405851e-02 6.850333e-02 -1.388504e-01 8.272040e-02 -6.918102e-01
<VARIANCE> 25
 1.992190e+01 4.188593e+01 7.265756e+01 5.619625e+01 6.139907e+01 7.851515e+01 7.681885e+01 8.685616e+01 6.649591e+01 4.949179e+01 5.062170e+01 3.422232e+01 8.596387e-01 1.917626e+00 2.129471e+00 2.276098e+00 2.787539e+00 2.755866e+00 2.862162e+00 2.908216e+00 2.837390e+00 2.530832e+00 2.519428e+00 1.907688e+00 1.944363e+00
<GCONST> 1.042734e+02
<STATE> 4
<MEAN> 25
 1.889526e+00 -2.196528e+00 7.893696e-01 1.383561e-01 -3.593954e+00 -3.368037e+00 1.630487e+00 1.619453e+00 -3.966421e-01 8.434196e-01 5.074595e-01 -1.401755e-02 -2.200858e-01 4.918063e-01 -1.372472e-01 2.637125e-01 6.069973e-01 3.914453e-01 -4.643110e-02 -2.157666e-01 4.471193e-02 -4.574250e-02 -1.052506e-01 6.940030e-02 -5.992476e-01
<VARIANCE> 25
 2.580846e+01 3.621101e+01 4.531755e+01 4.526186e+01 5.341100e+01 5.592037e+01 5.412845e+01 5.435551e+01 4.747962e+01 3.931538e+01 3.423075e+01 2.776921e+01 5.956058e-01 1.075697e+00 1.129274e+00 1.269340e+00 2.007597e+00 1.901608e+00 1.863360e+00 2.064347e+00 1.957958e+00 1.867773e+00 1.679532e+00 1.468187e+00 6.371064e-01
<GCONST> 9.514104e+01
<TRANSP> 5
 0.000000e+00 1.000000e+00 0.000000e+00 0.000000e+00 0.000000e+00
 0.000000e+00 5.504135e-01 4.495865e-01 0.000000e+00 0.000000e+00
 0.000000e+00 0.000000e+00 6.861374e-01 3.138626e-01 0.000000e+00
 0.000000e+00 0.000000e+00 0.000000e+00 7.046766e-01 2.953234e-01
 0.000000e+00 0.000000e+00 0.000000e+00 0.000000e+00 0.000000e+00
<ENDHMM>
~h "f"
<BEGINHMM>
<NUMSTATES> 5
<STATE> 2
<MEAN> 25
 -4.315077e+00 1.941003e+00 1.632581e+00 5.469972e+00 2.788090e+00 -3.244700e-01 2.168206e+00 -6.528087e-03 1.038792e+00 3.810939e-01 1.131158e+00 9.805452e-01 -2.090652e+00 -2.548907e-01 -4.765749e-01 4.848573e-01 8.201184e-01 1.727502e-01 4.619956e-01 3.524720e-01 8.562887e-01 2.305276e-01 2.392612e-01 3.886630e-01 -6.235369e-01
<VARIANCE> 25
 4.357903e+01 2.587118e+01 4.917070e+01 4.836726e+01 4.471391e+01 5.367464e+01 3.799798e+01 4.303325e+01 3.334955e+01 3.149796e+01 2.803779e+01 2.771936e+01 2.961623e+00 2.928020e+00 2.962708e+00 4.050244e+00 4.420557e+00 4.370659e+00 3.464219e+00 3.604519e+00 3.457415e+00 3.102047e+00 2.904791e+00 2.227033e+00 1.656583e+00
<GCONST> 1.044193e+02
<STATE> 3
<MEAN> 25
 -9.360808e+00 -1.468872e+00 -1.265137e-01 4.229681e+00 3.481654e+00 -5.699720e-01 2.980115e+00 6.443639e-01 2.573173e+00 1.413992e+00 1.761495e+00 2.058556e+00 5.321585e-01 -4.857194e-01 4.656626e-02 -4.530616e-01 -5.202950e-01 -3.527744e-01 -1.967390e-01 -2.057791e-01 -4.170726e-01 -1.451026e-01 -7.111293e-02 -4.980318e-02 2.399938e-01
<VARIANCE> 25
 3.249258e+01 2.828872e+01 3.683295e+01 4.330454e+01 3.644935e+01 5.166660e+01 3.054308e+01 3.253106e+01 3.118652e+01 2.617583e+01 2.429703e+01 2.229184e+01 3.861465e+00 2.444400e+00 2.687605e+00 2.607044e+00 2.625245e+00 3.349151e+00 2.666915e+00 2.559546e+00 2.897744e+00 2.320055e+00 2.125576e+00 1.921995e+00 1.655175e+00
<GCONST> 9.968968e+01
<STATE> 4
<MEAN> 25
 -4.879363e+00 -2.680523e+00 1.279921e+00 1.756209e+00 2.512258e+00 3.046910e+00 1.517103e-02 -2.218318e+00 5.406034e-02 4.750214e-01 4.665560e-01 5.846795e-01 2.312996e+00 1.063813e-01 3.588277e-01 -1.039445e+00 -1.340754e+00 -4.727528e-01 -8.823678e-01 -5.253038e-01 -9.301788e-01 -3.009616e-01 -9.495687e-02 -5.766838e-01 1.222672e+00
<VARIANCE> 25
 7.415182e+01 7.332613e+01 1.067682e+02 1.213638e+02 8.571913e+01 1.470920e+02 8.001353e+01 6.830173e+01 5.609686e+01 5.126979e+01 3.910607e+01 3.512421e+01 7.213758e+00 6.368258e+00 7.829770e+00 9.195224e+00 7.744024e+00 1.024753e+01 5.367990e+00 5.639695e+00 6.257068e+00 4.683772e+00 4.541854e+00 3.720144e+00 4.018577e+00
<GCONST> 1.207390e+02
<TRANSP> 5
 0.000000e+00 1.000000e+00 0.000000e+00 0.000000e+00 0.000000e+00
 0.000000e+00 7.011362e-01 2.988637e-01 0.000000e+00 0.000000e+00
 0.000000e+00 0.000000e+00 6.428766e-01 3.571235e-01 0.000000e+00
 0.000000e+00 0.000000e+00 0.000000e+00 5.264098e-01 4.735902e-01
 0.000000e+00 0.000000e+00 0.000000e+00 0.000000e+00 0.000000e+00
<ENDHMM>
~h "g"
<BEGINHMM>
<NUMSTATES> 5
<STATE> 2
<MEAN> 25
 2.896554e+00 4.626233e+00 3.374876e+00 3.650979e+00 6.267824e-01 1.408071e-01 -1.092234e+00 -2.501169e+00 -2.227518e+00 -2.708571e-01 -1.144616e+00 -1.539822e+00 -3.697710e-01 -1.247203e-01 1.716830e-03 1.933525e-01 4.387961e-01 -3.785363e-01 -1.282203e-01 1.073833e-01 -4.845569e-02 2.631462e-02 1.229262e-01 6.191609e-02 1.704479e-01
<VARIANCE> 25
 3.428910e+01 5.296119e+01 4.445800e+01 4.687839e+01 6.168962e+01 6.043382e+01 5.383664e+01 5.169864e+01 4.979726e+01 4.293183e+01 3.674929e+01 3.265414e+01 3.166751e+00 5.608754e+00 4.396967e+00 4.605826e+00 5.757875e+00 5.724662e+00 5.442512e+00 4.983260e+00 4.826171e+00 4.263529e+00 3.674489e+00 3.201242e+00 4.406829e+00
<GCONST> 1.116593e+02
<STATE> 3
<MEAN> 25
 2.766390e+00 1.525237e+00 2.560069e+00 2.391252e+00 6.879181e-01 -2.986561e+00 -3.361215e+00 -9.870422e-01 -2.098593e+00 3.274956e-01 1.257375e-01 -1.269322e+00 -1.332547e-02 -1.312614e+00 -1.527217e-01 -1.190189e+00 -6.966571e-01 -1.090133e+00 -6.485912e-01 9.041968e-01 4.116697e-01 1.322648e-01 6.202947e-01 4.560946e-02 1.625283e+00
<VARIANCE> 25
 2.774939e+01 5.027386e+01 5.592109e+01 5.675548e+01 8.172463e+01 8.023689e+01 7.287244e+01 6.110743e+01 5.504369e+01 5.470047e+01 5.080097e+01 3.942287e+01 2.998204e+00 5.175181e+00 5.796326e+00 5.812542e+00 9.338525e+00 6.938379e+00 6.867913e+00 6.796236e+00 6.263075e+00 5.940660e+00 5.352822e+00 4.437793e+00 3.742460e+00
<GCONST> 1.164299e+02
<STATE> 4
<MEAN> 25
 3.415873e+00 1.253184e-01 2.641073e+00 5.855885e-01 -1.638229e+00 -3.937129e+00 -3.576774e+00 8.104790e-01 -7.531066e-01 -6.753210e-01 4.308525e-01 -1.506527e+00 -1.386169e-01 -5.712578e-01 -2.593975e-01 -8.198837e-01 -3.147604e-01 6.225275e-02 1.849686e-01 4.179712e-01 3.342742e-01 1.291628e-02 7.049091e-02 2.926526e-02 6.358844e-01
<VARIANCE> 25
 3.942205e+01 5.811888e+01 6.198751e+01 8.052203e+01 8.641149e+01 9.179665e+01 7.922923e+01 7.833730e+01 7.122366e+01 7.934820e+01 6.317739e+01 4.587197e+01 1.809562e+00 3.056192e+00 3.941198e+00 3.680600e+00 4.406854e+00 4.196305e+00 4.267505e+00 4.505367e+00 4.349720e+00 3.920775e+00 3.941698e+00 3.094163e+00 1.994216e+00
<GCONST> 1.128090e+02
<TRANSP> 5
 0.000000e+00 1.000000e+00 0.000000e+00 0.000000e+00 0.000000e+00
 0.000000e+00 4.267716e-01 5.732284e-01 0.000000e+00 0.000000e+00
 0.000000e+00 0.000000e+00 3.790103e-01 6.209897e-01 0.000000e+00
 0.000000e+00 0.000000e+00 0.000000e+00 3.789702e-01 6.210299e-01
 0.000000e+00 0.000000e+00 0.000000e+00 0.000000e+00 0.000000e+00
<ENDHMM>
~h "h"
<BEGINHMM>
<NUMSTATES> 5
<STATE> 2
<MEAN> 25
 9.032717e-01 -2.980284e+00 -1.177933e+00 2.292625e-01 3.459247e+00 1.531158e+00 3.186818e+00 1.116392e+00 4.764528e-01 -1.038241e+00 -1.478691e+00 2.119137e-01 -7.807205e-01 2.106202e-01 6.619969e-02 6.670582e-01 7.557371e-01 4.252692e-01 5.725244e-01 1.558442e-01 1.280752e-01 -3.430527e-02 1.091150e-01 3.134946e-01 -8.365253e-01
<VARIANCE> 25
 3.677032e+01 5.092675e+01 6.521239e+01 5.990371e+01 9.744627e+01 7.583247e+01 7.352962e+01 6.405289e+01 5.722627e+01 6.658024e+01 5.442086e+01 4.035748e+01 2.142414e+00 3.561598e+00 3.542754e+00 3.604548e+00 4.667092e+00 4.345854e+00 4.572856e+00 4.238465e+00 3.990132e+00 4.073930e+00 3.585097e+00 2.994197e+00 2.539366e+00
<GCONST> 1.117047e+02
<STATE> 3
<MEAN> 25
 -1.069524e+00 -3.219841e+00 -1.414106e+00 1.337132e+00 4.135701e+00 2.096310e+00 4.064366e+00 1.715635e+00 1.222623e-01 -1.494299e+00 -1.246167e+00 7.024245e-01 -4.314736e-01 2.674975e-01 -6.429050e-02 2.252086e-01 1.012642e-01 1.398462e-01 2.657744e-02 -4.467295e-02 5.179635e-02 1.261768e-01 1.030749e-01 1.239667e-01 -7.211764e-01
<VARIANCE> 25
 4.066247e+01 5.759236e+01 6.182485e+01 5.714854e+01 8.882148e+01 6.213254e+01 6.698281e+01 6.239229e+01 5.395445e+01 5.135566e+01 4.814862e+01 3.761439e+01 9.493684e-01 1.651614e+00 1.971915e+00 2.073618e+00 2.743909e+00 2.620395e+00 2.772430e+00 2.782787e+00 2.638812e+00 2.550513e+00 2.373406e+00 2.040962e+00 9.871790e-01
<GCONST> 1.036034e+02
<STATE> 4
<MEAN> 25
 -1.661475e+00 -1.877237e+00 -2.065294e+00 1.058551e+00 2.675411e+00 1.604235e+00 2.268972e+00 6.358564e-01 5.013883e-01 -4.568665e-01 -6.098117e-01 5.887390e-01 -6.946296e-02 1.458084e-01 8.691723e-03 1.778821e-02 -6.766804e-02 -3.978632e-02 -6.875092e-02 -6.862022e-02 -4.074503e-02 2.856554e-02 1.669879e-02 -2.055435e-03 -2.186803e-01
<VARIANCE> 25
 2.839260e+01 3.564450e+01 3.797570e+01 3.440818e+01 4.466958e+01 3.536845e+01 3.557798e+01 3.526055e+01 3.248431e+01 3.556851e+01 3.303056e+01 2.530238e+01 4.043320e-01 6.848562e-01 9.277444e-01 1.020900e+00 1.339498e+00 1.440835e+00 1.564057e+00 1.668970e+00 1.629027e+00 1.618441e+00 1.512402e+00 1.344967e+00 3.365226e-01
<GCONST> 8.919110e+01
<TRANSP> 5
 0.000000e+00 1.000000e+00 0.000000e+00 0.000000e+00 0.000000e+00
 0.000000e+00 5.042537e-01 4.957463e-01 0.000000e+00 0.000000e+00
 0.000000e+00 0.000000e+00 4.381344e-01 5.618656e-01 0.000000e+00
 0.000000e+00 0.000000e+00 0.000000e+00 7.680559e-01 2.319441e-01
 0.000000e+00 0.000000e+00 0.000000e+00 0.000000e+00 0.000000e+00
<ENDHMM>
~h "i"
<BEGINHMM>
<NUMSTATES> 5
<STATE> 2
<MEAN> 25
 4.136930e-01 8.156264e-01 1.121387e+01 8.333205e-01 -6.892958e+00 -4.595408e+00 -2.714546e+00 -3.651499e+00 -4.257959e+00 -6.061031e-01 2.148242e+00 -2.130829e-01 3.991804e-01 -2.091523e-01 2.299650e+00 -9.429971e-01 -2.051454e+00 -3.802624e-01 -9.546866e-01 -4.598312e-01 -1.131256e+00 1.313794e-01 6.428078e-01 -2.812134e-01 1.175569e+00
<VARIANCE> 25
 3.220818e+01 5.441621e+01 7.216595e+01 8.093717e+01 9.043723e+01 8.261213e+01 6.653377e+01 7.162440e+01 6.290187e+01 5.164094e+01 5.311321e+01 3.861789e+01 4.225898e+00 3.930578e+00 6.421717e+00 7.088335e+00 7.061005e+00 7.393744e+00 6.520065e+00 6.459968e+00 6.234550e+00 5.309877e+00 5.667485e+00 3.883458e+00 2.538907e+00
<GCONST> 1.170352e+02
<STATE> 3
<MEAN> 25
 5.604969e-01 1.127019e+00 1.661813e+01 -1.712448e+00 -1.255913e+01 -4.478555e+00 -4.183408e+00 -3.558305e+00 -7.681153e+00 -3.576137e-01 4.998356e+00 -1.508434e+00 1.171987e-01 2.630447e-01 -2.695920e-01 1.113272e-01 1.588861e-01 9.663057e-02 7.485951e-02 4.908299e-02 2.086874e-01 1.512554e-01 -2.425697e-01 8.612414e-02 -3.892786e-01
<VARIANCE> 25
 1.519188e+01 3.728888e+01 6.254030e+01 7.078670e+01 6.366511e+01 7.862376e+01 5.543779e+01 6.536095e+01 6.191621e+01 6.158939e+01 6.055550e+01 4.218251e+01 8.542848e-01 1.849042e+00 2.843565e+00 2.728064e+00 3.151941e+00 3.232603e+00 3.074059e+00 3.400079e+00 3.084826e+00 2.584526e+00 2.601573e+00 2.081530e+00 1.570081e+00
<GCONST> 1.048775e+02
<STATE> 4
<MEAN> 25
 6.165716e-02 3.622235e+00 1.002167e+01 6.445594e-01 -4.955660e+00 -2.362238e+00 -3.580547e+00 -4.572490e+00 -2.547594e+00 -1.227719e-01 -4.434166e-01 2.563743e-01 -1.429571e-01 2.231868e-01 -1.011672e+00 5.560596e-01 9.563566e-01 3.425476e-01 4.536089e-01 3.095426e-01 3.934882e-01 -8.239326e-02 -1.941597e-01 1.408336e-01 -8.668427e-01
<VARIANCE> 25
 2.066261e+01 4.408797e+01 4.521041e+01 1.067167e+02 7.362680e+01 6.672356e+01 6.524267e+01 5.513959e+01 5.243678e+01 4.632263e+01 4.680502e+01 3.733366e+01 9.590668e-01 1.629934e+00 2.183123e+00 2.657608e+00 3.057512e+00 2.812688e+00 2.911734e+00 2.781678e+00 2.704336e+00 2.570774e+00 2.509204e+00 1.959504e+00 1.187921e+00
<GCONST> 1.033440e+02
<TRANSP> 5
 0.000000e+00 1.000000e+00 0.000000e+00 0.000000e+00 0.000000e+00
 0.000000e+00 5.344599e-01 4.655401e-01 0.000000e+00 0.000000e+00
 0.000000e+00 0.000000e+00 6.855546e-01 3.144454e-01 0.000000e+00
 0.000000e+00 0.000000e+00 0.000000e+00 7.522891e-01 2.477109e-01
 0.000000e+00 0.000000e+00 0.000000e+00 0.000000e+00 0.000000e+00
<ENDHMM>
~h "j"
<BEGINHMM>
<NUMSTATES> 5
<STATE> 2
<MEAN> 25
 -2.937646e+00 7.329759e+00 5.223016e+00 3.787271e+00 2.229584e+00 -9.949196e-01 6.988927e-01 -7.107526e-01 -6.181867e-01 -2.170445e+00 -3.444401e-01 5.710620e-01 -1.480271e+00 4.651802e-01 6.417416e-01 -4.530460e-01 1.522341e-01 -1.247911e-01 2.122208e-01 -3.901593e-01 4.472137e-02 -3.046595e-02 3.135940e-01 1.928432e-01 6.959230e-01
<VARIANCE> 25
 7.091248e+01 5.067652e+01 5.322303e+01 4.983891e+01 5.697806e+01 5.714297e+01 4.521458e+01 4.300872e+01 3.957060e+01 3.447641e+01 3.251685e+01 2.890473e+01 5.903419e+00 5.122819e+00 4.699074e+00 5.311325e+00 5.933055e+00 5.778618e+00 4.531706e+00 4.243420e+00 4.055213e+00 3.684124e+00 3.398875e+00 2.683110e+00 5.481680e+00
<GCONST> 1.114758e+02
<STATE> 3
<MEAN> 25
 -4.668269e+00 3.878858e+00 1.174800e+01 1.414536e+00 -3.628695e+00 -4.337321e+00 -1.787143e+00 -3.786191e+00 -2.595543e+00 -2.248912e+00 2.341984e+00 2.156670e+00 1.802644e+00 -1.879040e+00 1.125617e+00 -4.743756e-01 -2.803113e+00 -1.964928e+00 -1.605555e+00 2.456143e-03 -6.714774e-01 3.603894e-02 8.398921e-01 3.112429e-01 1.861312e+00
<VARIANCE> 25
 4.658272e+01 7.974644e+01 6.161705e+01 6.357064e+01 7.562082e+01 8.273228e+01 5.947504e+01 4.992644e+01 4.497368e+01 4.568464e+01 3.623246e+01 3.669852e+01 5.869202e+00 6.598704e+00 7.063329e+00 5.909377e+00 7.841278e+00 6.079071e+00 6.080094e+00 6.396526e+00 5.022443e+00 5.461926e+00 4.195225e+00 3.430469e+00 2.340577e+00
<GCONST> 1.157399e+02
<STATE> 4
<MEAN> 25
 1.861351e+00 -1.266724e+00 1.006243e+01 -9.540930e-01 -9.724610e+00 -9.085844e+00 -5.174922e+00 1.308542e+00 -1.898675e+00 -9.891367e-01 3.709539e+00 2.284805e+00 1.057521e+00 -1.105926e+00 -1.485589e+00 -4.593941e-01 1.656161e-01 1.408857e-01 -1.892186e-01 1.092890e+00 8.167930e-01 4.004062e-01 -3.791632e-01 -6.948611e-01 3.427508e-01
<VARIANCE> 25
 1.543103e+01 3.231854e+01 4.317030e+01 6.029583e+01 5.663696e+01 4.712510e+01 6.320254e+01 7.253242e+01 5.299775e+01 5.338061e+01 4.152324e+01 3.528777e+01 1.449967e+00 3.239601e+00 2.994315e+00 2.812686e+00 5.108753e+00 3.986180e+00 5.005405e+00 4.724055e+00 3.600435e+00 3.412006e+00 3.622129e+00 3.188473e+00 1.479557e+00
<GCONST> 1.067822e+02
<TRANSP> 5
 0.000000e+00 1.000000e+00 0.000000e+00 0.000000e+00 0.000000e+00
 0.000000e+00 7.540938e-01 2.459062e-01 0.000000e+00 0.000000e+00
 0.000000e+00 0.000000e+00 6.153738e-01 3.846262e-01 0.000000e+00
 0.000000e+00 0.000000e+00 0.000000e+00 6.288046e-01 3.711955e-01
 0.000000e+00 0.000000e+00 0.000000e+00 0.000000e+00 0.000000e+00
<ENDHMM>
~h "k"
<BEGINHMM>
<NUMSTATES> 5
<STATE> 2
<MEAN> 25
 -3.157861e+00 1.807424e+00 -2.044856e+00 2.254076e+00 3.159362e+00 1.840397e+00 1.708617e+00 6.250393e-01 1.228070e+00 1.771661e+00 1.112077e+00 9.529923e-01 -1.037484e+00 -5.990769e-01 -7.988542e-01 -1.150027e-02 7.336453e-01 -6.228955e-02 9.821267e-02 3.820331e-01 4.091432e-01 3.930647e-01 1.838804e-01 3.514645e-01 -6.682082e-02
<VARIANCE> 25
 4.018645e+01 4.086849e+01 5.228444e+01 4.821510e+01 6.223256e+01 5.709566e+01 4.779305e+01 4.841251e+01 4.706976e+01 4.019224e+01 3.852722e+01 3.211697e+01 3.124206e+00 4.802153e+00 4.835208e+00 4.977724e+00 5.744341e+00 5.632680e+00 4.987784e+00 4.736563e+00 4.733877e+00 4.037488e+00 3.751871e+00 3.154710e+00 6.030652e+00
<GCONST> 1.115181e+02
<STATE> 3
<MEAN> 25
 -4.630189e+00 -2.857489e+00 -4.794689e+00 -8.530272e-01 4.566001e+00 1.187927e+00 7.715926e-01 1.333990e+00 1.622027e+00 2.949707e+00 1.092585e+00 1.220933e+00 6.701768e-01 -1.222016e+00 -3.099178e-01 -1.228326e+00 -2.992490e-01 -7.840500e-01 -2.409801e-01 5.632126e-02 2.125990e-03 2.564598e-02 -1.787739e-01 -3.836240e-01 2.329765e+00
<VARIANCE> 25
 5.319628e+01 7.142654e+01 1.026297e+02 9.197456e+01 1.209025e+02 1.108530e+02 8.176498e+01 7.855603e+01 7.489257e+01 6.299631e+01 5.548191e+01 4.874451e+01 5.922416e+00 6.724987e+00 7.814218e+00 7.905777e+00 9.919768e+00 9.003201e+00 7.374387e+00 7.133489e+00 6.951238e+00 6.579906e+00 5.557576e+00 4.881528e+00 6.659262e+00
<GCONST> 1.232575e+02
<STATE> 4
<MEAN> 25
 -6.495631e-01 -3.573271e+00 -3.899345e+00 -2.516285e+00 1.762275e+00 -1.501293e+00 7.481089e-01 9.915489e-01 9.026882e-01 1.595763e+00 -2.914209e-01 -4.151126e-01 1.948489e+00 -1.091009e-01 6.222042e-01 -9.346373e-01 -1.541840e+00 -4.357132e-01 -2.222912e-01 -4.157967e-01 -6.037728e-01 -6.534473e-01 -3.649123e-01 -8.485478e-01 1.675693e+00
<VARIANCE> 25
 4.229253e+01 4.779871e+01 6.175806e+01 5.470615e+01 7.180676e+01 7.004597e+01 5.188350e+01 5.715509e+01 5.302686e+01 4.474825e+01 4.221490e+01 3.815993e+01 4.105326e+00 4.617245e+00 5.373333e+00 5.355923e+00 6.112557e+00 6.075290e+00 5.678877e+00 5.758386e+00 5.780543e+00 5.033662e+00 4.843567e+00 3.929620e+00 3.049502e+00
<GCONST> 1.141936e+02
<TRANSP> 5
 0.000000e+00 1.000000e+00 0.000000e+00 0.000000e+00 0.000000e+00
 0.000000e+00 5.904804e-01 4.095196e-01 0.000000e+00 0.000000e+00
 0.000000e+00 0.000000e+00 5.304694e-01 4.695306e-01 0.000000e+00
 0.000000e+00 0.000000e+00 0.000000e+00 3.537335e-01 6.462665e-01
 0.000000e+00 0.000000e+00 0.000000e+00 0.000000e+00 0.000000e+00
<ENDHMM>
~h "l"
<BEGINHMM>
<NUMSTATES> 5
<STATE> 2
<MEAN> 25
 6.343338e+00 -3.085298e+00 -1.757515e+00 -3.194693e+00 -2.117952e+00 -1.087286e+00 -4.624491e+00 -3.716438e+00 2.686632e+00 2.498327e+00 -6.833817e-01 -2.047596e+00 3.297705e-01 -1.353963e-01 -8.952926e-02 -3.062193e-01 -3.420190e-02 1.101269e-01 -7.045758e-01 -3.818553e-01 4.386496e-01 6.541178e-01 -1.014517e-01 -2.312921e-01 3.155795e-02
<VARIANCE> 25
 2.052878e+01 3.561231e+01 4.809494e+01 6.359970e+01 5.959479e+01 8.001186e+01 6.678558e+01 7.768900e+01 5.951088e+01 7.237652e+01 5.176384e+01 3.875271e+01 9.118026e-01 2.032653e+00 2.790169e+00 3.647345e+00 3.918270e+00 4.531051e+00 4.354959e+00 5.418897e+00 4.084623e+00 4.079943e+00 3.661102e+00 3.103873e+00 1.105676e+00
<GCONST> 1.078822e+02
<STATE> 3
<MEAN> 25
 6.664579e+00 -3.331300e+00 -2.577349e+00 -5.489419e+00 -1.870670e+00 3.836690e-01 -5.942309e+00 -4.391743e+00 3.881390e+00 4.653079e+00 -5.697364e-01 -2.866205e+00 -3.106834e-02 -6.924158e-02 -6.797367e-02 -2.292721e-01 1.637039e-01 5.711798e-02 -3.511857e-02 4.008763e-01 5.468062e-02 -1.277409e-01 -1.515242e-01 -1.011066e-01 3.508352e-02
<VARIANCE> 25
 1.677348e+01 3.107898e+01 4.258668e+01 6.336273e+01 5.200188e+01 7.722115e+01 6.550541e+01 7.184424e+01 5.803288e+01 6.768326e+01 5.228067e+01 3.939294e+01 3.579523e-01 1.204252e+00 1.588582e+00 2.083349e+00 2.201095e+00 2.746053e+00 2.764661e+00 3.658623e+00 2.547171e+00 2.558233e+00 2.569861e+00 2.001543e+00 5.087119e-01
<GCONST> 1.000690e+02
<STATE> 4
<MEAN> 25
 6.559862e+00 -2.092277e+00 -2.673259e+00 -4.041218e+00 -2.196346e+00 -2.307909e+00 -3.967352e+00 -6.186137e-01 2.823349e+00 1.511139e-01 -1.849748e+00 -2.154699e+00 -2.594102e-01 1.101264e-01 1.397122e-01 1.595758e-01 1.095818e-01 3.119268e-02 4.083843e-01 4.122579e-01 -3.593470e-01 -3.541074e-01 4.789343e-02 1.318557e-01 -1.867754e-01
<VARIANCE> 25
 2.065605e+01 3.943565e+01 5.720108e+01 6.986446e+01 8.862116e+01 9.531908e+01 7.044880e+01 7.919230e+01 5.971663e+01 9.041011e+01 6.060499e+01 4.250068e+01 4.795018e-01 1.408595e+00 1.715573e+00 2.201229e+00 2.499651e+00 2.760584e+00 2.645432e+00 3.031803e+00 2.639387e+00 2.766025e+00 2.591621e+00 1.969619e+00 8.213701e-01
<GCONST> 1.034302e+02
<TRANSP> 5
 0.000000e+00 1.000000e+00 0.000000e+00 0.000000e+00 0.000000e+00
 0.000000e+00 3.705572e-01 6.294428e-01 0.000000e+00 0.000000e+00
 0.000000e+00 0.000000e+00 4.375629e-01 5.624371e-01 0.000000e+00
 0.000000e+00 0.000000e+00 0.000000e+00 5.505934e-01 4.494066e-01
 0.000000e+00 0.000000e+00 0.000000e+00 0.000000e+00 0.000000e+00
<ENDHMM>
~h "m"
<BEGINHMM>
<NUMSTATES> 5
<STATE> 2
<MEAN> 25
 6.015481e+00 1.916754e+00 -4.378502e-01 7.062286e-01 5.522538e-01 2.673049e+00 -1.493948e+00 -4.488949e+00 -3.543090e+00 -1.775774e-01 -5.473957e-01 -1.899084e+00 -2.920065e-02 1.069660e+00 1.037369e+00 1.524150e+00 2.734601e-01 2.964121e-01 1.689304e-01 -1.431692e+00 -1.317904e+00 -2.366470e-01 -5.663471e-01 -6.290260e-02 -8.940682e-01
<VARIANCE> 25
 2.244643e+01 3.454122e+01 3.717622e+01 4.437899e+01 3.896484e+01 5.028279e+01 4.388687e+01 4.710456e+01 4.801161e+01 3.819236e+01 3.706697e+01 2.982967e+01 1.152823e+00 2.065828e+00 2.840223e+00 3.384439e+00 3.124054e+00 3.358452e+00 3.706057e+00 3.708345e+00 4.037427e+00 3.264574e+00 3.402627e+00 2.636733e+00 1.587078e+00
<GCONST> 1.030820e+02
<STATE> 3
<MEAN> 25
 5.345332e+00 3.647565e+00 2.389489e+00 3.287498e+00 5.790909e-01 2.762892e+00 -1.350969e+00 -6.802717e+00 -5.935044e+00 -9.558918e-01 -2.142981e+00 -1.966147e+00 3.462434e-03 1.742926e-01 8.817486e-02 1.179485e-01 -9.659754e-03 1.043232e-01 9.711378e-02 -8.352344e-02 -1.413775e-01 -8.174051e-02 -1.185405e-01 -5.939031e-02 -1.223860e-01
<VARIANCE> 25
 1.618574e+01 3.104589e+01 2.976632e+01 3.184770e+01 3.739643e+01 4.889032e+01 4.658890e+01 4.949149e+01 5.511954e+01 4.398116e+01 3.837735e+01 3.143219e+01 4.506247e-01 8.877856e-01 1.210295e+00 1.418821e+00 1.499812e+00 1.694625e+00 1.672729e+00 1.820360e+00 1.960375e+00 1.768059e+00 1.721413e+00 1.468968e+00 5.426562e-01
<GCONST> 9.239403e+01
<STATE> 4
<MEAN> 25
 5.728347e+00 3.174492e+00 2.357184e-01 1.110887e+00 1.038424e-01 2.663896e+00 -7.984630e-01 -4.594151e+00 -4.133606e+00 -8.437157e-01 -1.537714e+00 -2.159870e+00 2.071445e-01 -6.670458e-01 -1.055447e+00 -1.234654e+00 -2.524492e-01 4.687570e-04 2.777945e-02 1.022416e+00 1.001056e+00 1.860204e-01 4.023199e-01 -4.941226e-02 6.384622e-01
<VARIANCE> 25
 2.090540e+01 3.347110e+01 3.725767e+01 4.442645e+01 4.342904e+01 5.156868e+01 4.436329e+01 5.002481e+01 5.361803e+01 3.904909e+01 3.810910e+01 3.129264e+01 8.681259e-01 1.870457e+00 2.945961e+00 3.397622e+00 2.983001e+00 3.226512e+00 2.886954e+00 3.126215e+00 3.711081e+00 2.793861e+00 2.608502e+00 2.426453e+00 1.115718e+00
<GCONST> 1.016049e+02
<TRANSP> 5
 0.000000e+00 1.000000e+00 0.000000e+00 0.000000e+00 0.000000e+00
 0.000000e+00 4.926589e-01 5.073410e-01 0.000000e+00 0.000000e+00
 0.000000e+00 0.000000e+00 6.149026e-01 3.850974e-01 0.000000e+00
 0.000000e+00 0.000000e+00 0.000000e+00 4.908491e-01 5.091509e-01
 0.000000e+00 0.000000e+00 0.000000e+00 0.000000e+00 0.000000e+00
<ENDHMM>
~h "n"
<BEGINHMM>
<NUMSTATES> 5
<STATE> 2
<MEAN> 25
 5.916819e+00 -1.595478e+00 1.543285e+00 1.615646e+00 -1.701855e+00 -1.797856e+00 -2.402113e+00 -3.762184e-01 -6.167055e-01 -9.269351e-01 -3.204914e+00 -1.309579e+00 2.541993e-01 1.964632e+00 7.836978e-01 1.682554e+00 -3.381320e-02 3.284356e-01 -1.544519e-01 -1.754238e+00 -2.398986e-01 9.930478e-02 -5.694150e-01 1.236855e-01 -1.772131e+00
<VARIANCE> 25
 1.450114e+01 4.082150e+01 3.994188e+01 4.090421e+01 5.288064e+01 5.134771e+01 4.651035e+01 6.338526e+01 5.079963e+01 4.795610e+01 4.328159e+01 3.386345e+01 9.930189e-01 2.165329e+00 3.133190e+00 3.056683e+00 4.548970e+00 4.311561e+00 4.165215e+00 5.129673e+00 4.151099e+00 3.831874e+00 3.763710e+00 3.005557e+00 1.204347e+00
<GCONST> 1.051543e+02
<STATE> 3
<MEAN> 25
 5.904780e+00 2.997151e+00 3.191390e+00 4.241971e+00 -2.171669e+00 -9.746811e-01 -2.473616e+00 -4.547597e+00 -1.586824e+00 -7.771270e-01 -4.650475e+00 -1.425361e+00 -1.067811e-01 9.397506e-01 2.229587e-01 4.308659e-01 2.636111e-01 2.187723e-01 6.418682e-02 -3.886937e-01 -2.074450e-01 -4.902878e-02 -5.809369e-02 -5.371237e-03 -7.514898e-01
<VARIANCE> 25
 1.193297e+01 2.861108e+01 2.949096e+01 3.300623e+01 4.961892e+01 4.655455e+01 3.950980e+01 4.535117e+01 4.206846e+01 4.752110e+01 4.103414e+01 3.128143e+01 4.148288e-01 1.044973e+00 1.239405e+00 1.313396e+00 1.838348e+00 1.927845e+00 1.964850e+00 2.289296e+00 2.150319e+00 1.995135e+00 1.927823e+00 1.588730e+00 4.889064e-01
<GCONST> 9.293504e+01
<STATE> 4
<MEAN> 25
 3.014383e+00 5.438982e+00 3.083315e+00 5.013380e+00 1.112872e+00 3.609568e-01 -9.342731e-01 -2.650010e+00 -1.623274e+00 -1.174503e+00 -2.840681e+00 -1.004561e+00 -6.619045e-01 -1.046898e-01 -1.080519e-01 -8.229102e-02 3.387094e-01 1.833215e-01 3.507447e-01 4.895973e-01 1.090815e-01 1.023586e-01 4.059776e-01 1.340479e-01 -3.422384e-01
<VARIANCE> 25
 2.148970e+01 3.310547e+01 2.831878e+01 3.296720e+01 4.592645e+01 4.057769e+01 3.747324e+01 4.122139e+01 3.659978e+01 3.625269e+01 3.369384e+01 2.782315e+01 9.715868e-01 1.614640e+00 1.619718e+00 1.816262e+00 2.345085e+00 2.351346e+00 2.361796e+00 2.657695e+00 2.473306e+00 2.408990e+00 2.198554e+00 1.809346e+00 9.441931e-01
<GCONST> 9.644144e+01
<TRANSP> 5
 0.000000e+00 1.000000e+00 0.000000e+00 0.000000e+00 0.000000e+00
 0.000000e+00 5.129415e-01 4.870585e-01 0.000000e+00 0.000000e+00
 0.000000e+00 0.000000e+00 6.214584e-01 3.785416e-01 0.000000e+00
 0.000000e+00 0.000000e+00 0.000000e+00 6.135392e-01 3.864608e-01
 0.000000e+00 0.000000e+00 0.000000e+00 0.000000e+00 0.000000e+00
<ENDHMM>
~h "o"
<BEGINHMM>
<NUMSTATES> 5
<STATE> 2
<MEAN> 25
 5.704729e+00 -3.976891e-01 -5.558323e+00 -7.640686e+00 -1.695943e+00 2.606016e+00 -1.850354e+00 -1.448436e+00 1.316078e+00 1.540094e+00 1.981068e+00 -1.201750e+00 1.163552e+00 -5.103611e-01 -9.257571e-01 -1.894264e+00 -2.148279e-01 9.954925e-01 -1.090941e-01 -2.235579e-01 -1.393700e-01 2.656777e-01 4.895585e-01 -4.378085e-01 1.223520e+00
<VARIANCE> 25
 3.557793e+01 3.883682e+01 4.555435e+01 8.366977e+01 7.184676e+01 1.005016e+02 6.746031e+01 6.229667e+01 6.265506e+01 6.141342e+01 5.437141e+01 3.929614e+01 3.516276e+00 3.323117e+00 3.914009e+00 6.643154e+00 6.314690e+00 7.153259e+00 5.640910e+00 5.389242e+00 5.437412e+00 4.985178e+00 4.538939e+00 3.624676e+00 3.847505e+00
<GCONST> 1.149632e+02
<STATE> 3
<MEAN> 25
 7.579711e+00 -1.259307e+00 -7.393951e+00 -1.110776e+01 -8.093103e-01 6.223682e+00 -1.918378e+00 -2.801332e+00 1.970943e-01 2.450428e+00 3.671218e+00 -1.637880e+00 -1.644540e-01 3.090728e-01 4.748691e-02 6.751983e-01 3.433028e-01 4.572073e-02 2.179414e-01 1.393115e-02 -7.125515e-02 -4.298799e-02 -2.327380e-01 1.098430e-01 -7.072273e-01
<VARIANCE> 25
 1.944951e+01 3.757522e+01 3.997617e+01 7.558570e+01 6.725689e+01 9.238558e+01 6.653257e+01 5.686536e+01 6.468919e+01 6.458685e+01 5.457415e+01 4.338395e+01 9.785834e-01 2.060612e+00 1.796124e+00 4.146896e+00 2.982357e+00 4.029330e+00 3.500937e+00 3.110795e+00 3.814103e+00 3.396705e+00 3.062427e+00 2.681109e+00 1.982992e+00
<GCONST> 1.065699e+02
<STATE> 4
<MEAN> 25
 4.339130e+00 7.962474e-01 -5.613157e+00 -6.835350e+00 -7.722637e-01 3.635108e+00 -4.677418e-02 -1.339184e+00 2.207408e-01 1.234207e+00 1.121466e+00 -3.846094e-01 -3.543903e-01 1.698089e-01 3.394833e-01 6.742232e-01 1.755614e-01 -1.824986e-01 1.065788e-01 5.981066e-02 -7.963391e-03 -1.010436e-01 -1.877945e-01 7.026035e-02 -4.772846e-01
<VARIANCE> 25
 2.787829e+01 2.832286e+01 3.015141e+01 6.015644e+01 4.435893e+01 6.066115e+01 4.337459e+01 4.026571e+01 3.992103e+01 4.060904e+01 3.535356e+01 3.198326e+01 5.015721e-01 7.592360e-01 1.086964e+00 1.729294e+00 1.537118e+00 1.895394e+00 1.751363e+00 1.769840e+00 1.904261e+00 1.856119e+00 1.683956e+00 1.502362e+00 4.597343e-01
<GCONST> 9.318604e+01
<TRANSP> 5
 0.000000e+00 1.000000e+00 0.000000e+00 0.000000e+00 0.000000e+00
 0.000000e+00 5.351000e-01 4.649000e-01 0.000000e+00 0.000000e+00
 0.000000e+00 0.000000e+00 6.991150e-01 3.008850e-01 0.000000e+00
 0.000000e+00 0.000000e+00 0.000000e+00 7.755929e-01 2.244072e-01
 0.000000e+00 0.000000e+00 0.000000e+00 0.000000e+00 0.000000e+00
<ENDHMM>
~h "p"
<BEGINHMM>
<NUMSTATES> 5
<STATE> 2
<MEAN> 25
 -2.230379e+00 3.176035e+00 -2.315410e+00 2.529515e+00 2.341501e+00 2.325536e+00 2.198456e+00 7.720471e-01 1.582301e+00 1.703061e+00 1.211510e+00 9.829752e-01 -7.244903e-01 -3.300768e-01 -2.827140e-01 -1.147531e-02 -5.345563e-02 -7.231151e-02 2.425314e-01 1.127091e-01 3.018818e-01 2.228865e-01 2.986680e-01 3.404430e-01 -9.595478e-02
<VARIANCE> 25
 4.478701e+01 3.139482e+01 3.791817e+01 3.708656e+01 3.593281e+01 4.251424e+01 3.518778e+01 3.796183e+01 3.734282e+01 3.425558e+01 3.040513e+01 2.609782e+01 3.732410e+00 3.432882e+00 3.100721e+00 3.827552e+00 3.318895e+00 3.953858e+00 3.310989e+00 3.568249e+00 3.562886e+00 3.135983e+00 2.838726e+00 2.420644e+00 6.284156e+00
<GCONST> 1.050503e+02
<STATE> 3
<MEAN> 25
 -1.326211e+00 5.350569e-01 -3.255416e+00 5.060851e-01 1.126584e+00 9.215431e-01 1.824536e+00 -3.732746e-01 1.529420e+00 1.805241e+00 1.732042e+00 1.162274e+00 2.258958e+00 -1.835774e+00 -8.389171e-01 -2.272525e+00 -9.466309e-01 -2.153850e-01 -7.305359e-01 -7.276812e-01 5.713832e-02 6.778114e-02 1.475727e-01 -9.201415e-01 3.869226e+00
<VARIANCE> 25
 3.672514e+01 3.258666e+01 3.513583e+01 4.593378e+01 3.772526e+01 4.696288e+01 3.603857e+01 3.899171e+01 3.624551e+01 3.157172e+01 3.064728e+01 2.494419e+01 5.617560e+00 5.634733e+00 6.338370e+00 7.147442e+00 6.649804e+00 8.949746e+00 5.982211e+00 5.837760e+00 6.037951e+00 5.736771e+00 5.397213e+00 4.647433e+00 6.789562e+00
<GCONST> 1.124202e+02
<STATE> 4
<MEAN> 25
 4.952868e+00 -3.457607e+00 -5.752959e+00 -4.825880e+00 -9.629811e-01 1.955554e+00 -4.924908e-01 -1.982993e+00 1.692511e+00 1.864843e+00 1.663043e+00 -1.969119e+00 1.755318e+00 -1.368717e+00 -3.699093e-01 -1.405507e+00 -7.544299e-01 -2.296150e-01 -7.535701e-01 -6.619631e-02 4.063213e-03 -1.467584e-01 -3.089320e-01 -9.276335e-01 2.511188e+00
<VARIANCE> 25
 3.898046e+01 4.699321e+01 5.295517e+01 6.768085e+01 5.272495e+01 8.148968e+01 5.137538e+01 4.844698e+01 4.747263e+01 4.606506e+01 4.373697e+01 4.184182e+01 4.613801e+00 5.757530e+00 6.885790e+00 7.484854e+00 7.056037e+00 9.419662e+00 6.204549e+00 6.087489e+00 6.234079e+00 5.692573e+00 5.725095e+00 4.786110e+00 5.842011e+00
<GCONST> 1.167267e+02
<TRANSP> 5
 0.000000e+00 1.000000e+00 0.000000e+00 0.000000e+00 0.000000e+00
 0.000000e+00 6.243667e-01 3.756334e-01 0.000000e+00 0.000000e+00
 0.000000e+00 0.000000e+00 3.600264e-01 6.399736e-01 0.000000e+00
 0.000000e+00 0.000000e+00 0.000000e+00 2.758961e-01 7.241039e-01
 0.000000e+00 0.000000e+00 0.000000e+00 0.000000e+00 0.000000e+00
<ENDHMM>
~h "r"
<BEGINHMM>
<NUMSTATES> 5
<STATE> 2
<MEAN> 25
 5.189588e+00 -4.285751e+00 -2.886021e+00 3.804109e-01 -2.438928e+00 -2.297619e+00 -2.682845e+00 3.939438e-01 3.697551e+00 1.226337e-01 -2.753837e-01 -8.710778e-01 -5.618960e-02 1.144886e-01 3.303536e-01 1.052186e+00 -1.038216e-01 -1.646986e-01 -1.685197e-01 6.869826e-02 1.510851e-01 -2.399560e-01 2.010854e-01 3.974842e-01 -6.418963e-01
<VARIANCE> 25
 2.516533e+01 3.792255e+01 4.999153e+01 4.723182e+01 5.916862e+01 5.844729e+01 5.872832e+01 6.133032e+01 5.901590e+01 5.096018e+01 4.532927e+01 3.964183e+01 2.613463e+00 3.632901e+00 3.655232e+00 4.469959e+00 5.094930e+00 5.223030e+00 4.872589e+00 4.957654e+00 4.692575e+00 4.558934e+00 4.276481e+00 3.777334e+00 3.234656e+00
<GCONST> 1.109445e+02
<STATE> 3
<MEAN> 25
 4.741264e+00 -3.555354e+00 -1.870382e+00 2.097518e+00 -2.311017e+00 -2.679806e+00 -2.701549e+00 5.464685e-01 3.229567e+00 -1.700875e-01 3.373344e-01 -1.365098e-01 -3.194740e-01 2.943811e-01 5.157567e-01 4.812688e-01 1.313803e-01 3.603608e-02 1.351317e-01 6.236625e-03 -4.912111e-01 -7.749683e-02 3.080229e-01 2.523781e-01 -5.748628e-01
<VARIANCE> 25
 2.600920e+01 3.705467e+01 5.148293e+01 4.324483e+01 5.773532e+01 5.507721e+01 5.418030e+01 5.739308e+01 5.450748e+01 4.634441e+01 4.110862e+01 3.517943e+01 2.384412e+00 3.217183e+00 3.516309e+00 3.489841e+00 4.468653e+00 4.501950e+00 4.295706e+00 4.584565e+00 4.126377e+00 4.058533e+00 3.868950e+00 3.417326e+00 2.416792e+00
<GCONST> 1.085530e+02
<STATE> 4
<MEAN> 25
 3.669016e+00 -2.769413e+00 -8.603384e-01 2.774832e+00 -1.702117e+00 -2.572405e+00 -1.804437e+00 6.775531e-01 1.409467e+00 -6.399734e-01 8.481477e-01 1.625660e-01 -3.079949e-01 4.086598e-01 3.741221e-01 -8.130305e-02 1.522855e-01 2.140755e-01 2.646710e-01 -1.088950e-01 -6.264265e-01 8.523642e-02 1.037941e-01 -2.050733e-02 -4.282082e-01
<VARIANCE> 25
 3.388742e+01 4.404399e+01 5.759245e+01 4.548570e+01 5.940873e+01 6.082390e+01 5.506780e+01 6.066515e+01 5.316084e+01 4.528268e+01 4.271933e+01 3.564639e+01 1.582129e+00 2.368264e+00 2.677916e+00 2.376378e+00 3.416616e+00 3.240367e+00 3.135612e+00 3.412557e+00 3.393096e+00 2.957062e+00 2.879947e+00 2.346498e+00 1.619202e+00
<GCONST> 1.051916e+02
<TRANSP> 5
 0.000000e+00 1.000000e+00 0.000000e+00 0.000000e+00 0.000000e+00
 0.000000e+00 2.910891e-01 7.089109e-01 0.000000e+00 0.000000e+00
 0.000000e+00 0.000000e+00 1.375795e-01 8.624206e-01 0.000000e+00
 0.000000e+00 0.000000e+00 0.000000e+00 4.564786e-01 5.435215e-01
 0.000000e+00 0.000000e+00 0.000000e+00 0.000000e+00 0.000000e+00
<ENDHMM>
~h "s"
<BEGINHMM>
<NUMSTATES> 5
<STATE> 2
<MEAN> 25
 -6.249494e+00 3.887277e+00 1.817322e+00 1.308437e+00 3.965696e+00 -2.519696e+00 3.468389e+00 7.838020e-01 7.985619e-01 -6.364993e-01 4.484461e-01 1.235155e+00 -3.593959e+00 1.244613e+00 -3.337426e-02 8.432113e-02 1.274182e+00 -9.874457e-03 1.327948e+00 3.612736e-01 5.228211e-01 -9.841269e-02 8.773721e-01 4.864367e-01 9.954839e-02
<VARIANCE> 25
 6.554829e+01 6.905532e+01 8.531370e+01 5.642398e+01 8.279016e+01 8.530154e+01 6.824687e+01 6.269712e+01 5.432432e+01 4.746345e+01 4.690361e+01 3.450576e+01 3.550579e+00 6.387271e+00 7.291090e+00 5.410904e+00 5.961697e+00 6.293350e+00 5.281184e+00 5.211580e+00 4.503949e+00 4.947546e+00 3.924819e+00 3.092430e+00 1.829180e+00
<GCONST> 1.152523e+02
<STATE> 3
<MEAN> 25
 -1.697236e+01 5.007896e+00 3.096125e-01 3.211467e-01 5.629639e+00 -1.711626e+00 5.728908e+00 1.451269e+00 1.869704e+00 -2.004634e-01 3.054373e+00 2.736648e+00 -2.291044e-01 -4.028730e-01 -7.497706e-02 -6.506848e-02 -1.693301e-01 7.101431e-02 -1.080542e-02 5.696387e-02 7.384820e-02 4.695038e-02 5.932917e-02 1.134341e-01 -3.250489e-01
<VARIANCE> 25
 3.955365e+01 9.682642e+01 1.102735e+02 7.473418e+01 7.836568e+01 9.064428e+01 5.454932e+01 5.596572e+01 4.497696e+01 4.611163e+01 3.651947e+01 3.202657e+01 2.651381e+00 1.814684e+00 1.974209e+00 1.732059e+00 2.069855e+00 2.190940e+00 2.265556e+00 2.371598e+00 2.298806e+00 2.134013e+00 1.970732e+00 1.718492e+00 8.249897e-01
<GCONST> 1.034197e+02
<STATE> 4
<MEAN> 25
 -9.454331e+00 1.495856e+00 1.238089e+00 -4.907262e-02 2.772967e+00 -2.237110e+00 3.381141e+00 8.041791e-01 1.858673e+00 -4.775802e-01 1.233608e+00 2.127742e+00 3.826593e+00 -6.145571e-01 -1.147576e-01 -4.018633e-01 -1.401035e+00 -5.146718e-01 -1.553187e+00 -8.123534e-01 -3.698915e-01 -1.509278e-01 -9.563177e-01 -7.242961e-01 7.351801e-01
<VARIANCE> 25
 7.438860e+01 8.270975e+01 8.768987e+01 5.885106e+01 7.157841e+01 9.033523e+01 6.163559e+01 5.821051e+01 4.686153e+01 4.325426e+01 4.227035e+01 3.225199e+01 5.341166e+00 7.170626e+00 7.399346e+00 5.442205e+00 5.994587e+00 6.489847e+00 5.518126e+00 5.842840e+00 5.193872e+00 5.162450e+00 4.376485e+00 3.559140e+00 3.517716e+00
<GCONST> 1.167798e+02
<TRANSP> 5
 0.000000e+00 1.000000e+00 0.000000e+00 0.000000e+00 0.000000e+00
 0.000000e+00 6.879519e-01 3.120481e-01 0.000000e+00 0.000000e+00
 0.000000e+00 0.000000e+00 7.951593e-01 2.048406e-01 0.000000e+00
 0.000000e+00 0.000000e+00 0.000000e+00 6.283548e-01 3.716452e-01
 0.000000e+00 0.000000e+00 0.000000e+00 0.000000e+00 0.000000e+00
<ENDHMM>
~h "t"
<BEGINHMM>
<NUMSTATES> 5
<STATE> 2
<MEAN> 25
 -2.602494e+00 3.394100e+00 -7.440701e-01 3.264613e+00 1.813831e+00 2.952395e-01 1.431074e+00 4.360208e-01 1.775592e+00 1.302634e+00 1.027871e+00 1.382832e+00 -1.162297e+00 -2.011221e-01 -4.233945e-01 -1.691166e-02 3.072174e-01 1.987766e-01 5.477813e-01 2.619945e-01 3.664717e-01 1.247003e-01 4.384764e-01 3.867766e-01 -5.302973e-01
<VARIANCE> 25
 3.585383e+01 2.928876e+01 3.943636e+01 3.398886e+01 4.099027e+01 4.605686e+01 3.875107e+01 4.045119e+01 4.003853e+01 3.533478e+01 3.413363e+01 2.608569e+01 2.631363e+00 3.512392e+00 3.228002e+00 3.915188e+00 3.962154e+00 4.643752e+00 3.823781e+00 3.816158e+00 3.665760e+00 3.344542e+00 3.073107e+00 2.459991e+00 6.034697e+00
<GCONST> 1.057312e+02
<STATE> 3
<MEAN> 25
 -5.585273e+00 4.016424e-01 -1.966197e+00 8.100666e-01 2.169372e+00 -1.233216e+00 2.965519e+00 5.987542e-01 2.044676e+00 9.537606e-01 1.818028e+00 2.412388e+00 3.819751e-01 -1.636345e+00 -9.220438e-02 -1.866091e+00 -5.679436e-01 -1.293530e+00 -4.915444e-01 -2.646329e-01 3.080994e-01 -2.503899e-01 -1.198785e-01 -2.300121e-01 3.417272e+00
<VARIANCE> 25
 3.477904e+01 3.956476e+01 4.453411e+01 4.492413e+01 4.819703e+01 6.543029e+01 4.361131e+01 4.464924e+01 4.147100e+01 3.877494e+01 3.675845e+01 2.823155e+01 5.602895e+00 5.407675e+00 6.240881e+00 5.934291e+00 7.228536e+00 7.364211e+00 6.571249e+00 6.648315e+00 6.381000e+00 5.403862e+00 5.491784e+00 4.395814e+00 7.106855e+00
<GCONST> 1.141932e+02
<STATE> 4
<MEAN> 25
 -1.562541e+00 -2.197766e+00 -1.004624e+00 -2.724495e+00 -4.091382e-01 -3.490011e+00 -4.892054e-01 -6.147221e-01 2.369346e+00 2.083239e-01 2.091173e-01 5.062938e-01 2.171483e+00 -7.083161e-01 3.071041e-01 -1.277627e+00 -1.014024e+00 -5.513978e-01 -1.641156e+00 -4.501507e-01 -2.334086e-01 -9.229255e-02 -4.749382e-01 -9.878306e-01 2.495657e+00
<VARIANCE> 25
 3.797486e+01 4.454162e+01 5.134055e+01 4.998624e+01 5.849293e+01 6.954374e+01 6.156867e+01 5.417392e+01 5.000280e+01 4.382890e+01 4.163519e+01 3.507480e+01 4.937566e+00 5.683874e+00 7.325792e+00 6.538410e+00 7.283823e+00 8.534698e+00 7.476882e+00 7.366463e+00 7.044096e+00 6.872012e+00 6.308410e+00 4.778703e+00 5.157255e+00
<GCONST> 1.169008e+02
<TRANSP> 5
 0.000000e+00 1.000000e+00 0.000000e+00 0.000000e+00 0.000000e+00
 0.000000e+00 6.407402e-01 3.592598e-01 0.000000e+00 0.000000e+00
 0.000000e+00 0.000000e+00 3.737876e-01 6.262124e-01 0.000000e+00
 0.000000e+00 0.000000e+00 0.000000e+00 2.684270e-01 7.315730e-01
 0.000000e+00 0.000000e+00 0.000000e+00 0.000000e+00 0.000000e+00
<ENDHMM>
~h "u"
<BEGINHMM>
<NUMSTATES> 5
<STATE> 2
<MEAN> 25
 5.948387e+00 3.078562e+00 -1.514770e+00 -4.653396e+00 -2.210606e+00 8.911815e-02 -5.700757e+00 -4.223788e+00 -1.941670e+00 -9.343104e-02 2.342095e+00 4.873360e-02 1.344001e+00 4.416307e-01 -4.447122e-01 -1.446206e+00 -6.451664e-01 8.446736e-01 -9.384261e-01 -9.185246e-01 -7.477730e-01 1.839028e-01 8.660145e-01 5.732247e-02 5.828573e-01
<VARIANCE> 25
 2.804394e+01 4.226556e+01 4.932208e+01 7.478141e+01 6.092610e+01 7.733330e+01 7.417456e+01 6.786458e+01 6.164939e+01 6.764679e+01 5.248013e+01 4.005752e+01 3.160739e+00 3.756086e+00 4.111979e+00 5.529104e+00 5.906624e+00 7.222106e+00 6.218374e+00 6.010324e+00 5.764349e+00 5.709381e+00 4.688830e+00 3.747242e+00 2.788140e+00
<GCONST> 1.145636e+02
<STATE> 3
<MEAN> 25
 7.735641e+00 3.122054e+00 -2.395905e+00 -8.107852e+00 -3.078370e+00 4.169613e+00 -7.069847e+00 -6.524056e+00 -2.913127e+00 3.620462e-01 4.807400e+00 7.439019e-02 -2.945406e-03 9.331749e-02 -3.033690e-02 3.861754e-01 2.769712e-01 7.815944e-02 1.591551e-01 4.912150e-02 1.953280e-01 1.950239e-01 -2.368573e-01 -9.273782e-02 -4.107423e-01
<VARIANCE> 25
 1.878374e+01 3.845983e+01 4.607818e+01 8.068593e+01 6.375601e+01 9.783893e+01 7.346623e+01 8.002868e+01 7.124767e+01 8.415284e+01 6.337994e+01 4.734319e+01 8.759036e-01 2.873214e+00 2.250980e+00 4.778186e+00 3.876664e+00 4.494606e+00 4.859492e+00 4.352631e+00 4.966413e+00 4.749781e+00 4.023141e+00 3.578284e+00 2.091247e+00
<GCONST> 1.106468e+02
<STATE> 4
<MEAN> 25
 5.679988e+00 5.061085e+00 -2.220591e+00 -4.802059e+00 -1.511752e+00 9.134578e-01 -4.110411e+00 -3.932948e+00 -3.160345e+00 1.482794e-01 2.212525e+00 9.368383e-01 -5.630245e-01 2.217365e-02 2.966042e-01 8.747829e-01 3.878821e-01 -7.078771e-02 4.779688e-01 3.751792e-01 3.014619e-01 -7.457955e-02 -3.645011e-01 -3.357748e-02 -6.353781e-01
<VARIANCE> 25
 2.299726e+01 3.451823e+01 3.982175e+01 6.800087e+01 4.799663e+01 5.693462e+01 4.909756e+01 4.555491e+01 5.106059e+01 5.247990e+01 4.022635e+01 3.758929e+01 8.154859e-01 1.314331e+00 1.540128e+00 2.455841e+00 2.262257e+00 2.614715e+00 2.509621e+00 2.481787e+00 2.596870e+00 2.549595e+00 2.434784e+00 1.975602e+00 9.233298e-01
<GCONST> 9.975569e+01
<TRANSP> 5
 0.000000e+00 1.000000e+00 0.000000e+00 0.000000e+00 0.000000e+00
 0.000000e+00 4.381981e-01 5.618019e-01 0.000000e+00 0.000000e+00
 0.000000e+00 0.000000e+00 5.646552e-01 4.353448e-01 0.000000e+00
 0.000000e+00 0.000000e+00 0.000000e+00 7.285298e-01 2.714702e-01
 0.000000e+00 0.000000e+00 0.000000e+00 0.000000e+00 0.000000e+00
<ENDHMM>
~h "v"
<BEGINHMM>
<NUMSTATES> 5
<STATE> 2
<MEAN> 25
 -1.104035e+00 5.718714e-01 -2.233897e-01 3.042559e+00 1.680362e+00 1.344375e-01 4.534196e-01 3.143837e+00 3.380186e+00 -1.153636e+00 4.190089e-01 7.274939e-01 -2.638996e+00 7.312154e-01 1.891169e-01 1.000949e+00 9.223471e-01 8.843086e-01 6.361431e-01 3.282929e-01 1.119430e+00 5.599027e-01 4.130228e-01 3.810814e-01 -1.037671e+00
<VARIANCE> 25
 5.227790e+01 3.182942e+01 3.480385e+01 5.896580e+01 2.768124e+01 5.102370e+01 3.373400e+01 3.200439e+01 5.432904e+01 3.506743e+01 2.675865e+01 2.891342e+01 3.259958e+00 3.339476e+00 2.956775e+00 2.929686e+00 3.182963e+00 5.525122e+00 3.652485e+00 4.512010e+00 5.076679e+00 4.651546e+00 3.934578e+00 2.433292e+00 1.565621e+00
<GCONST> 1.055165e+02
<STATE> 3
<MEAN> 25
 -9.812524e+00 1.660078e+00 -1.036442e+00 3.587132e+00 3.453941e+00 9.458138e-01 2.789147e+00 2.773476e+00 2.933371e+00 1.750863e+00 1.511853e+00 1.133877e+00 -1.911513e-01 -2.256621e-01 -2.257834e-01 -4.794808e-02 4.406571e-04 -5.643104e-02 1.989937e-01 -5.562531e-02 -7.426384e-03 1.696399e-01 5.226729e-03 2.052510e-02 -1.427759e-01
<VARIANCE> 25
 5.214105e+01 2.444009e+01 2.116147e+01 4.857787e+01 2.105765e+01 3.898486e+01 2.819432e+01 2.920648e+01 2.493669e+01 2.813245e+01 2.219789e+01 1.988114e+01 2.259648e+00 1.449966e+00 1.336809e+00 1.440739e+00 1.530733e+00 2.602283e+00 2.022567e+00 1.899674e+00 2.266576e+00 2.088560e+00 1.477432e+00 1.815984e+00 9.603087e-01
<GCONST> 9.317097e+01
<STATE> 4
<MEAN> 25
 -2.534602e+00 2.495693e-01 -3.307405e+00 2.702981e+00 2.147591e+00 -5.194744e-01 2.006211e+00 1.424379e+00 3.047800e+00 1.486795e+00 1.578791e+00 5.135080e-01 3.501160e+00 -9.199256e-01 -1.099784e+00 -1.775725e+00 -1.637963e+00 -9.364371e-01 -5.808693e-01 -5.286823e-01 -5.227024e-01 5.982242e-02 -4.592496e-01 -1.010819e+00 1.943430e+00
<VARIANCE> 25
 6.503760e+01 2.682721e+01 3.955249e+01 5.553532e+01 2.967539e+01 4.619124e+01 3.367253e+01 3.171365e+01 2.936928e+01 2.775423e+01 2.601249e+01 2.521742e+01 4.163197e+00 4.157014e+00 7.819024e+00 6.115611e+00 4.519704e+00 7.150725e+00 4.336774e+00 4.967482e+00 6.168514e+00 3.675752e+00 4.262039e+00 4.412117e+00 2.623053e+00
<GCONST> 1.087758e+02
<TRANSP> 5
 0.000000e+00 1.000000e+00 0.000000e+00 0.000000e+00 0.000000e+00
 0.000000e+00 6.187904e-01 3.812095e-01 0.000000e+00 0.000000e+00
 0.000000e+00 0.000000e+00 7.430432e-01 2.569568e-01 0.000000e+00
 0.000000e+00 0.000000e+00 0.000000e+00 5.848460e-01 4.151540e-01
 0.000000e+00 0.000000e+00 0.000000e+00 0.000000e+00 0.000000e+00
<ENDHMM>
~h "w"
<BEGINHMM>
<NUMSTATES> 5
<STATE> 2
<MEAN> 25
 6.917134e+00 4.780147e+00 -3.488190e+00 -6.841323e+00 -2.907969e+00 8.023651e-01 -1.573863e+00 -1.322500e+00 -1.410542e+00 -9.322801e-02 1.788265e+00 -6.037582e-01 1.505383e+00 3.935066e-01 -8.332313e-01 -1.857275e+00 -1.097145e+00 3.250002e-01 -5.060018e-02 -3.008853e-01 -5.873075e-01 -2.213608e-01 6.450535e-01 2.080241e-01 9.633545e-01
<VARIANCE> 25
 4.427916e+01 6.558577e+01 4.310272e+01 7.518797e+01 6.131134e+01 1.090969e+02 6.380554e+01 5.749878e+01 5.318379e+01 4.858938e+01 4.419343e+01 4.069652e+01 3.562803e+00 4.904568e+00 3.554083e+00 5.340992e+00 4.937681e+00 6.406658e+00 4.966970e+00 4.680128e+00 4.512511e+00 4.431046e+00 4.345689e+00 4.077878e+00 4.383082e+00
<GCONST> 1.141247e+02
<STATE> 3
<MEAN> 25
 9.846453e+00 2.535962e+00 -6.892267e+00 -1.477827e+01 -4.942991e+00 6.586126e+00 -1.288363e+00 -2.919274e+00 -2.720439e+00 6.837642e-01 5.296089e+00 6.985061e-01 -1.025627e-01 -1.042295e+00 -4.745218e-01 -3.795632e-01 5.905530e-01 6.431715e-01 -7.794550e-02 -1.982969e-01 4.823314e-01 6.617593e-01 1.858214e-01 -6.661212e-01 6.630491e-01
<VARIANCE> 25
 1.494626e+01 2.989607e+01 2.895797e+01 5.242039e+01 4.243735e+01 7.484756e+01 4.784088e+01 4.331493e+01 4.368168e+01 4.595086e+01 4.210334e+01 3.530907e+01 5.337579e-01 3.015878e+00 1.394606e+00 2.488618e+00 3.046800e+00 2.869594e+00 3.082787e+00 2.669677e+00 2.919833e+00 3.063592e+00 2.588859e+00 3.432039e+00 1.210681e+00
<GCONST> 1.005460e+02
<STATE> 4
<MEAN> 25
 7.600272e+00 -4.095673e+00 -8.074018e+00 -1.128018e+01 1.100572e+00 6.614209e+00 -3.110430e+00 -3.173593e+00 2.310821e+00 4.195578e+00 2.003582e+00 -5.729078e+00 -5.061263e-01 -8.143671e-01 2.553250e-01 1.243768e+00 6.399586e-01 -8.811723e-01 5.695685e-02 6.619270e-01 7.397913e-01 -2.641401e-01 -1.203912e+00 -4.831024e-01 1.362897e-01
<VARIANCE> 25
 1.621415e+01 3.596656e+01 2.919919e+01 5.599760e+01 5.039247e+01 8.245611e+01 6.123779e+01 4.332064e+01 4.901153e+01 5.070182e+01 5.474429e+01 3.890681e+01 5.067043e-01 2.279011e+00 1.353083e+00 2.584909e+00 2.508537e+00 3.106423e+00 2.813347e+00 2.933038e+00 2.842725e+00 2.673314e+00 2.950325e+00 3.068106e+00 1.167586e+00
<GCONST> 1.013578e+02
<TRANSP> 5
 0.000000e+00 1.000000e+00 0.000000e+00 0.000000e+00 0.000000e+00
 0.000000e+00 6.327617e-01 3.672382e-01 0.000000e+00 0.000000e+00
 0.000000e+00 0.000000e+00 7.172284e-01 2.827716e-01 0.000000e+00
 0.000000e+00 0.000000e+00 0.000000e+00 6.806296e-01 3.193704e-01
 0.000000e+00 0.000000e+00 0.000000e+00 0.000000e+00 0.000000e+00
<ENDHMM>
~h "x"
<BEGINHMM>
<NUMSTATES> 5
<STATE> 2
<MEAN> 25
 1.994893e+00 6.267977e+00 1.192800e+01 3.223861e+00 -1.656045e+01 2.796913e+00 -5.064009e+00 -8.637947e+00 -4.408927e+00 -3.761899e+00 6.634638e-01 -4.952199e+00 -3.078786e-01 4.610274e-01 -4.214830e-01 2.465935e-01 6.814600e-01 3.232889e-02 -1.340715e-01 -1.491229e-01 1.067495e-02 2.212634e-01 -1.943664e-01 4.769628e-02 -4.421617e-01
<VARIANCE> 25
 2.052841e+01 1.577254e+01 2.578774e+01 1.556210e+01 5.032916e+01 4.976966e+01 2.954805e+01 2.221147e+01 1.910181e+01 2.106279e+01 1.261105e+01 1.425392e+01 3.230044e-01 4.512813e-01 1.560441e+00 8.284714e-01 2.766905e+00 1.687709e+00 1.463073e+00 8.987007e-01 1.712953e+00 1.765827e+00 1.948005e+00 8.987287e-01 3.607988e-01
<GCONST> 8.401657e+01
<STATE> 3
<MEAN> 25
 1.440480e+00 5.884946e+00 8.467978e-01 3.269820e+00 1.487915e+00 -2.121406e+00 -2.374804e+00 -5.277313e+00 -3.205315e+00 -2.036335e-01 3.188829e-01 2.315326e+00 -6.961203e-01 -3.626242e-01 -1.097704e-01 3.321512e-01 2.077482e-01 -3.802374e-01 6.172078e-02 3.457303e-01 1.039737e-01 9.180060e-02 1.729935e-02 -1.787728e-02 -4.536377e-01
<VARIANCE> 25
 5.277591e+01 1.469958e+01 3.007207e+01 3.233063e+01 1.318425e+01 3.205037e+01 2.513881e+01 3.382769e+01 2.396671e+01 1.605373e+01 1.243516e+01 1.497650e+01 3.118105e-01 3.552251e-01 1.568622e+00 6.511588e-01 9.292348e-01 1.366601e+00 2.027618e+00 1.923015e+00 1.954657e+00 2.370417e+00 1.542297e+00 2.661358e+00 1.836219e-01
<GCONST> 8.412308e+01
<STATE> 4
<MEAN> 25
 -2.844382e+00 8.125831e-01 -9.377935e-01 6.294134e+00 2.264560e+00 3.336144e+00 3.777483e+00 -2.088636e-01 2.864475e+00 1.932551e+00 4.412222e+00 5.648612e+00 2.626770e-02 -6.338234e-02 -1.988029e-01 -1.033289e-01 -1.018373e-02 -1.886675e-03 1.544011e-01 1.290896e-01 -5.710649e-02 -1.590533e-01 -3.305494e-02 8.616711e-02 1.234095e-02
<VARIANCE> 25
 9.194448e+00 2.071088e+01 8.712681e+00 7.863290e+00 2.028226e+01 1.403607e+01 2.900359e+01 1.991283e+01 1.878209e+01 1.371367e+01 1.328138e+01 1.410614e+01 1.761476e-01 3.960269e-01 7.610487e-01 4.215574e-01 9.328285e-01 1.046917e+00 1.398571e+00 1.523571e+00 1.210927e+00 1.857398e+00 1.096517e+00 7.957985e-01 1.112322e-01
<GCONST> 7.362902e+01
<TRANSP> 5
 0.000000e+00 1.000000e+00 0.000000e+00 0.000000e+00 0.000000e+00
 0.000000e+00 8.779917e-01 1.220083e-01 0.000000e+00 0.000000e+00
 0.000000e+00 0.000000e+00 8.246791e-01 1.753209e-01 0.000000e+00
 0.000000e+00 0.000000e+00 0.000000e+00 9.099935e-01 9.000649e-02
 0.000000e+00 0.000000e+00 0.000000e+00 0.000000e+00 0.000000e+00
<ENDHMM>
~h "y"
<BEGINHMM>
<NUMSTATES> 5
<STATE> 2
<MEAN> 25
 9.720014e-01 -5.404484e-01 8.859742e+00 -2.031173e+00 -6.412781e+00 -3.592998e+00 -2.170320e+00 -5.549759e-01 -2.753894e+00 2.226022e-01 1.530988e+00 2.816862e-01 1.424192e-01 -6.493118e-01 9.121405e-01 -8.772755e-01 -1.278567e+00 -5.197025e-01 6.197187e-02 3.406658e-01 -3.449356e-01 1.442339e-01 5.376357e-01 6.193079e-02 1.186873e+00
<VARIANCE> 25
 3.080247e+01 6.108572e+01 8.071696e+01 9.139371e+01 8.595606e+01 7.726003e+01 7.480513e+01 7.605351e+01 5.883931e+01 5.491798e+01 5.801155e+01 4.176084e+01 2.524640e+00 4.414793e+00 6.894650e+00 5.333673e+00 5.544973e+00 5.305475e+00 5.927671e+00 6.172938e+00 4.790933e+00 4.508537e+00 4.365379e+00 3.217273e+00 3.113436e+00
<GCONST> 1.155615e+02
<STATE> 3
<MEAN> 25
 2.012132e+00 -5.273031e+00 8.347385e+00 -5.085244e+00 -1.089700e+01 -6.382812e+00 8.237521e-01 4.782806e+00 -2.210704e+00 2.639003e-01 2.540514e+00 -2.230859e-01 1.872678e-01 -7.784826e-01 -1.091748e+00 7.910129e-02 7.105096e-01 1.062692e-01 5.063078e-01 8.712380e-01 4.333514e-01 -4.353620e-01 -6.817027e-01 -2.049363e-01 2.621481e-01
<VARIANCE> 25
 1.439844e+01 3.260228e+01 4.977280e+01 4.636671e+01 5.372934e+01 6.209066e+01 6.302462e+01 9.013855e+01 4.957700e+01 4.623313e+01 5.171314e+01 3.315212e+01 3.680671e-01 1.485910e+00 2.654910e+00 1.635274e+00 3.177136e+00 2.094959e+00 2.595578e+00 3.090321e+00 2.755034e+00 2.520235e+00 2.933360e+00 1.827601e+00 4.535869e-01
<GCONST> 9.945267e+01
<STATE> 4
<MEAN> 25
 2.552820e+00 -5.373290e+00 9.680535e-02 -2.496916e+00 -3.651957e+00 -3.403289e+00 1.646702e+00 3.050503e+00 -7.808000e-01 -1.515804e+00 -9.967483e-01 -3.208508e-01 1.024188e-01 -3.707393e-02 -4.950738e-01 9.387308e-02 5.640318e-01 2.249416e-01 -8.566416e-02 -6.189336e-02 1.085016e-01 -8.377471e-02 -2.694681e-01 -9.242000e-02 -1.531364e-01
<VARIANCE> 25
 1.999857e+01 3.342282e+01 3.614594e+01 3.651961e+01 5.574018e+01 4.452260e+01 6.012239e+01 7.006442e+01 4.190344e+01 4.076973e+01 4.215422e+01 2.978994e+01 2.365866e-01 5.815467e-01 1.224684e+00 1.037867e+00 1.937791e+00 1.424289e+00 1.636870e+00 1.682539e+00 1.558866e+00 1.605811e+00 1.607618e+00 1.310848e+00 2.191397e-01
<GCONST> 9.080818e+01
<TRANSP> 5
 0.000000e+00 1.000000e+00 0.000000e+00 0.000000e+00 0.000000e+00
 0.000000e+00 6.909131e-01 3.090869e-01 0.000000e+00 0.000000e+00
 0.000000e+00 0.000000e+00 6.943269e-01 3.056731e-01 0.000000e+00
 0.000000e+00 0.000000e+00 0.000000e+00 7.354690e-01 2.645309e-01
 0.000000e+00 0.000000e+00 0.000000e+00 0.000000e+00 0.000000e+00
<ENDHMM>
~h "z"
<BEGINHMM>
<NUMSTATES> 5
<STATE> 2
<MEAN> 25
 -7.414015e+00 1.235482e+01 3.404671e+00 7.711527e+00 3.598953e-01 -7.079382e+00 5.122630e+00 -6.554567e+00 -4.290362e-01 -4.461089e+00 2.508684e+00 7.346748e-01 -1.181507e+00 6.666418e-01 -4.424012e-01 5.063565e-01 6.707801e-01 -2.892048e-01 4.840026e-01 -1.563385e-01 7.743608e-01 -2.305219e-01 2.654794e-01 1.603867e-01 -3.433005e-02
<VARIANCE> 25
 4.214399e+01 6.339623e+01 5.211420e+01 4.896734e+01 6.078878e+01 4.686289e+01 6.238484e+01 3.416866e+01 5.475222e+01 4.348085e+01 2.684711e+01 3.119175e+01 4.136508e+00 4.705339e+00 3.684659e+00 3.307248e+00 5.860285e+00 4.466542e+00 5.060802e+00 3.276869e+00 4.826072e+00 3.225712e+00 3.161371e+00 1.920407e+00 1.033566e+00
<GCONST> 1.079305e+02
<STATE> 3
<MEAN> 25
 -2.679786e+00 -5.602379e+00 1.346786e+01 6.293691e+00 -5.438306e-01 8.062767e+00 -4.641342e+00 -1.191328e+01 -9.771356e-02 -1.869999e+00 6.075814e-01 -1.020318e-01 4.940342e-01 -6.589927e-01 -4.246295e-02 -5.345469e-01 -6.896746e-01 -8.599744e-02 -1.847294e-01 5.602931e-02 -3.674143e-02 -2.567019e-03 2.380667e-01 2.790247e-01 5.259200e-01
<VARIANCE> 25
 5.666368e+01 1.083788e+02 1.326242e+02 1.188010e+02 9.514793e+01 2.098493e+02 7.383271e+01 6.696295e+01 5.708311e+01 5.175362e+01 4.127443e+01 5.984472e+01 4.238752e+00 4.472391e+00 1.056802e+01 5.353619e+00 4.968980e+00 9.979660e+00 4.253439e+00 5.190860e+00 5.535497e+00 4.130872e+00 3.633187e+00 3.253912e+00 1.905265e+00
<GCONST> 1.187659e+02
<STATE> 4
<MEAN> 25
 -5.142059e-01 1.770064e+00 6.127178e+00 4.209008e+00 -6.637936e+00 -4.687642e+00 -1.293178e+00 -6.384485e+00 -6.804186e+00 -2.376408e+00 6.281501e+00 1.028335e+00 2.925107e-01 -2.216711e-01 -6.486771e-02 -3.031202e-01 -1.453143e-01 -3.763986e-02 -1.035836e-01 3.535169e-01 -4.165448e-02 2.369024e-01 -7.089820e-02 1.681417e-03 2.612201e-02
<VARIANCE> 25
 4.682656e+01 8.438518e+01 1.128753e+02 5.328854e+01 6.717493e+01 4.533264e+01 6.642022e+01 3.566056e+01 6.581703e+01 3.683401e+01 3.775750e+01 3.444877e+01 6.863270e-01 1.401937e+00 1.722037e+00 1.515159e+00 1.981164e+00 1.912609e+00 2.057831e+00 1.951377e+00 1.988103e+00 1.489224e+00 1.394148e+00 1.136148e+00 6.192828e-01
<GCONST> 9.839508e+01
<TRANSP> 5
 0.000000e+00 1.000000e+00 0.000000e+00 0.000000e+00 0.000000e+00
 0.000000e+00 7.918712e-01 2.081288e-01 0.000000e+00 0.000000e+00
 0.000000e+00 0.000000e+00 8.103557e-01 1.896442e-01 0.000000e+00
 0.000000e+00 0.000000e+00 0.000000e+00 7.648913e-01 2.351087e-01
 0.000000e+00 0.000000e+00 0.000000e+00 0.000000e+00 0.000000e+00
<ENDHMM>
~h "@h"
<BEGINHMM>
<NUMSTATES> 5
<STATE> 2
<MEAN> 25
 2.191768e+00 -4.369030e+00 -1.967216e+00 -2.781048e-01 -4.317815e+00 9.002194e-01 -1.682870e-01 -5.044621e+00 -2.213045e+00 3.375897e+00 -6.002364e+00 -9.751316e+00 -6.788418e-01 6.820120e-01 4.367531e-01 -3.728946e-01 1.960821e-01 6.059967e-01 -4.645939e-01 -4.511943e-01 8.187708e-01 4.157048e-02 4.338760e-01 1.316192e+00 -9.776275e-01
<VARIANCE> 25
 1.174377e+01 3.249128e+01 2.448355e+01 3.027283e+01 2.493032e+01 1.346555e+01 1.246893e+01 4.350150e+01 6.139454e+01 4.705409e+01 1.764201e+01 9.332773e+01 3.206263e-01 1.787687e+00 2.019254e+00 1.313365e+00 2.529313e+00 9.675607e-01 9.480675e-01 4.369747e+00 1.496727e+00 5.526192e+00 1.464069e+00 3.557961e+00 2.696829e-01
<GCONST> 9.117454e+01
<STATE> 3
<MEAN> 25
 3.072394e-01 -1.292099e+01 -6.168022e-01 -1.214172e+01 8.074035e+00 3.526661e+00 2.128012e+00 -2.755193e-01 1.016112e+01 -5.494330e+00 3.029905e+00 -8.895874e+00 -5.893836e-02 -1.429339e-01 -2.730121e-01 -1.426637e-01 3.216345e-01 2.563306e-01 -7.819320e-02 3.756234e-02 -3.235823e-01 2.115173e-01 4.725160e-02 3.335614e-01 -1.666132e-01
<VARIANCE> 25
 3.692606e+00 8.157306e+00 2.399991e+00 1.668308e+01 1.330275e+01 1.058504e+01 5.758967e+00 2.979528e+00 1.278497e+01 7.862034e+00 3.603868e+00 9.531135e+00 1.224040e-01 2.112497e-01 2.715464e-01 1.272700e-01 3.799631e-01 2.383724e-01 2.466387e-01 3.419608e-01 2.909365e-01 7.852407e-01 3.687522e-01 3.690136e-01 9.685808e-02
<GCONST> 5.127869e+01
<STATE> 4
<MEAN> 25
 4.374549e+00 -6.198958e+00 -2.749330e+00 -2.144497e+00 7.727462e+00 5.270951e+00 -5.891232e+00 1.120972e+01 8.591671e+00 -1.109824e+00 -2.324174e+00 -8.827693e+00 1.610097e-01 -3.487666e-02 8.752773e-02 4.340148e-01 4.063994e-01 5.216219e-02 1.432091e-01 2.832494e-01 5.586583e-02 -2.307090e-01 -2.101382e-01 5.879270e-02 -1.123265e-01
<VARIANCE> 25
 2.899508e+01 1.988068e+01 1.691907e+01 4.336337e+01 1.555211e+01 1.903519e+01 5.803022e+01 2.260824e+01 2.866500e+01 1.298393e+01 3.170980e+01 4.239198e+01 1.120673e+00 8.237875e-01 2.084876e+00 9.544086e-01 2.088916e+00 1.503559e+00 2.076504e+00 2.736343e+00 3.838447e+00 9.672930e-01 3.214602e+00 1.762989e+00 1.558434e+00
<GCONST> 9.187473e+01
<TRANSP> 5
 0.000000e+00 1.000000e+00 0.000000e+00 0.000000e+00 0.000000e+00
 0.000000e+00 8.527498e-01 1.472502e-01 0.000000e+00 0.000000e+00
 0.000000e+00 0.000000e+00 9.090786e-01 9.092137e-02 0.000000e+00
 0.000000e+00 0.000000e+00 0.000000e+00 9.309415e-01 6.905849e-02
 0.000000e+00 0.000000e+00 0.000000e+00 0.000000e+00 0.000000e+00
<ENDHMM>
~h "@y"
<BEGINHMM>
<NUMSTATES> 5
<STATE> 2
<MEAN> 25
 1.708972e-09 1.090385e-09 9.580507e-09 -2.513088e-08 5.650978e-09 7.824450e-09 -1.173420e-08 8.080536e-09 -1.223684e-08 -1.003294e-08 -1.228346e-09 7.471072e-09 2.588070e-03 5.406653e-06 1.165406e-03 -2.750418e-04 1.179288e-03 -2.015027e-04 3.669178e-04 -4.334864e-04 -1.182183e-03 -4.313851e-04 -6.009767e-04 -5.740453e-04 3.089256e-03
<VARIANCE> 25
 5.950132e+01 5.523875e+01 6.957190e+01 6.306453e+01 6.882129e+01 6.596412e+01 5.749057e+01 5.935612e+01 5.307150e+01 4.762954e+01 4.650915e+01 3.710306e+01 2.306587e+00 2.816560e+00 2.879318e+00 3.320077e+00 3.620080e+00 3.535859e+00 3.444255e+00 3.604912e+00 3.328778e+00 3.069351e+00 2.973025e+00 2.428180e+00 2.668494e+00
<GCONST> 1.087549e+02
<STATE> 3
<MEAN> 25
 1.708972e-09 1.090385e-09 9.580507e-09 -2.513088e-08 5.650978e-09 7.824450e-09 -1.173420e-08 8.080536e-09 -1.223684e-08 -1.003294e-08 -1.228346e-09 7.471072e-09 2.588070e-03 5.406653e-06 1.165406e-03 -2.750418e-04 1.179288e-03 -2.015027e-04 3.669178e-04 -4.334864e-04 -1.182183e-03 -4.313851e-04 -6.009767e-04 -5.740453e-04 3.089256e-03
<VARIANCE> 25
 5.950132e+01 5.523875e+01 6.957190e+01 6.306453e+01 6.882129e+01 6.596412e+01 5.749057e+01 5.935612e+01 5.307150e+01 4.762954e+01 4.650915e+01 3.710306e+01 2.306587e+00 2.816560e+00 2.879318e+00 3.320077e+00 3.620080e+00 3.535859e+00 3.444255e+00 3.604912e+00 3.328778e+00 3.069351e+00 2.973025e+00 2.428180e+00 2.668494e+00
<GCONST> 1.087549e+02
<STATE> 4
<MEAN> 25
 1.708972e-09 1.090385e-09 9.580507e-09 -2.513088e-08 5.650978e-09 7.824450e-09 -1.173420e-08 8.080536e-09 -1.223684e-08 -1.003294e-08 -1.228346e-09 7.471072e-09 2.588070e-03 5.406653e-06 1.165406e-03 -2.750418e-04 1.179288e-03 -2.015027e-04 3.669178e-04 -4.334864e-04 -1.182183e-03 -4.313851e-04 -6.009767e-04 -5.740453e-04 3.089256e-03
<VARIANCE> 25
 5.950132e+01 5.523875e+01 6.957190e+01 6.306453e+01 6.882129e+01 6.596412e+01 5.749057e+01 5.935612e+01 5.307150e+01 4.762954e+01 4.650915e+01 3.710306e+01 2.306587e+00 2.816560e+00 2.879318e+00 3.320077e+00 3.620080e+00 3.535859e+00 3.444255e+00 3.604912e+00 3.328778e+00 3.069351e+00 2.973025e+00 2.428180e+00 2.668494e+00
<GCONST> 1.087549e+02
<TRANSP> 5
 0.000000e+00 1.000000e+00 0.000000e+00 0.000000e+00 0.000000e+00
 0.000000e+00 6.000000e-01 4.000000e-01 0.000000e+00 0.000000e+00
 0.000000e+00 0.000000e+00 6.000000e-01 4.000000e-01 0.000000e+00
 0.000000e+00 0.000000e+00 0.000000e+00 7.000000e-01 3.000000e-01
 0.000000e+00 0.000000e+00 0.000000e+00 0.000000e+00 0.000000e+00
<ENDHMM>
~h "ai"
<BEGINHMM>
<NUMSTATES> 5
<STATE> 2
<MEAN> 25
 3.963673e+00 -4.459863e+00 3.957007e+00 -1.133100e+00 -7.882659e+00 -7.652694e+00 1.318546e+00 1.025622e+01 -2.973518e+00 -2.870318e+00 3.708729e+00 -2.318159e+00 -2.540336e-01 5.482050e-01 6.286515e-01 3.501676e-01 2.822329e-01 -1.304218e-01 2.866697e-01 -3.482656e-01 -8.095497e-01 5.000744e-01 2.198581e-01 3.772599e-01 -3.652066e-01
<VARIANCE> 25
 9.136349e+00 5.578405e+01 3.108272e+01 9.594663e+00 2.293237e+01 2.915725e+01 2.930971e+01 5.266813e+01 3.255462e+01 2.514809e+01 5.507433e+01 2.024121e+01 2.343877e-01 8.229354e-01 1.650432e+00 1.200103e+00 3.781841e+00 1.538783e+00 1.280817e+00 2.264536e+00 1.461035e+00 1.593629e+00 2.667216e+00 2.278255e+00 3.306932e-01
<GCONST> 8.885671e+01
<STATE> 3
<MEAN> 25
 5.194930e+00 -3.183691e+00 7.223061e-01 1.156622e+00 -1.047418e+00 6.166969e-01 -1.667071e+00 1.002854e+00 7.088024e+00 1.132600e-01 -3.493827e+00 -1.197639e-02 -2.217273e-01 5.059134e-01 -1.020847e+00 3.645285e-01 7.673734e-01 2.945138e-01 2.868332e-01 -5.475296e-01 1.627869e+00 4.795670e-01 -7.263100e-01 4.665551e-01 -6.343374e-01
<VARIANCE> 25
 1.647775e+01 3.318186e+01 6.564790e+01 1.730860e+01 1.787738e+01 5.595160e+01 2.580475e+01 9.992455e+01 1.128869e+02 2.066005e+01 7.556216e+01 2.150175e+01 1.148187e+00 3.466753e+00 2.682673e+00 1.830744e+00 2.374990e+00 1.196255e+00 3.114405e+00 1.413775e+00 5.130062e+00 1.609218e+00 3.821186e+00 2.018525e+00 1.826755e+00
<GCONST> 9.945289e+01
<STATE> 4
<MEAN> 25
 -4.200516e+00 2.403668e+00 -5.794661e+00 1.418263e+00 -2.565477e+00 -5.663624e+00 5.249836e+00 6.973650e+00 1.052101e+01 7.115044e+00 3.250301e-03 3.897230e+00 -6.167498e-01 5.269579e-01 -6.077107e-01 -7.245783e-01 -5.979840e-01 7.522833e-02 -1.521865e-01 -7.176205e-01 2.719186e-01 -1.533298e-01 -3.244977e-01 2.971137e-01 -1.069034e+00
<VARIANCE> 25
 2.292352e+01 5.476684e+00 4.589140e+01 3.708179e+01 2.154618e+01 2.498055e+01 2.495579e+01 4.283247e+01 3.691117e+01 2.634519e+01 3.381887e+01 2.357941e+01 2.393285e+00 1.331541e+00 2.365321e+00 2.035181e+00 2.871075e+00 1.355981e+00 4.189704e+00 3.175192e+00 5.837349e+00 4.298289e+00 4.630640e+00 2.061049e+00 1.025790e+00
<GCONST> 9.722446e+01
<TRANSP> 5
 0.000000e+00 1.000000e+00 0.000000e+00 0.000000e+00 0.000000e+00
 0.000000e+00 9.059023e-01 9.409770e-02 0.000000e+00 0.000000e+00
 0.000000e+00 0.000000e+00 8.412881e-01 1.587119e-01 0.000000e+00
 0.000000e+00 0.000000e+00 0.000000e+00 7.925702e-01 2.074298e-01
 0.000000e+00 0.000000e+00 0.000000e+00 0.000000e+00 0.000000e+00
<ENDHMM>
~h "am"
<BEGINHMM>
<NUMSTATES> 5
<STATE> 2
<MEAN> 25
 1.708972e-09 1.090385e-09 9.580507e-09 -2.513088e-08 5.650978e-09 7.824450e-09 -1.173420e-08 8.080536e-09 -1.223684e-08 -1.003294e-08 -1.228346e-09 7.471072e-09 2.588070e-03 5.406653e-06 1.165406e-03 -2.750418e-04 1.179288e-03 -2.015027e-04 3.669178e-04 -4.334864e-04 -1.182183e-03 -4.313851e-04 -6.009767e-04 -5.740453e-04 3.089256e-03
<VARIANCE> 25
 5.950132e+01 5.523875e+01 6.957190e+01 6.306453e+01 6.882129e+01 6.596412e+01 5.749057e+01 5.935612e+01 5.307150e+01 4.762954e+01 4.650915e+01 3.710306e+01 2.306587e+00 2.816560e+00 2.879318e+00 3.320077e+00 3.620080e+00 3.535859e+00 3.444255e+00 3.604912e+00 3.328778e+00 3.069351e+00 2.973025e+00 2.428180e+00 2.668494e+00
<GCONST> 1.087549e+02
<STATE> 3
<MEAN> 25
 1.708972e-09 1.090385e-09 9.580507e-09 -2.513088e-08 5.650978e-09 7.824450e-09 -1.173420e-08 8.080536e-09 -1.223684e-08 -1.003294e-08 -1.228346e-09 7.471072e-09 2.588070e-03 5.406653e-06 1.165406e-03 -2.750418e-04 1.179288e-03 -2.015027e-04 3.669178e-04 -4.334864e-04 -1.182183e-03 -4.313851e-04 -6.009767e-04 -5.740453e-04 3.089256e-03
<VARIANCE> 25
 5.950132e+01 5.523875e+01 6.957190e+01 6.306453e+01 6.882129e+01 6.596412e+01 5.749057e+01 5.935612e+01 5.307150e+01 4.762954e+01 4.650915e+01 3.710306e+01 2.306587e+00 2.816560e+00 2.879318e+00 3.320077e+00 3.620080e+00 3.535859e+00 3.444255e+00 3.604912e+00 3.328778e+00 3.069351e+00 2.973025e+00 2.428180e+00 2.668494e+00
<GCONST> 1.087549e+02
<STATE> 4
<MEAN> 25
 1.708972e-09 1.090385e-09 9.580507e-09 -2.513088e-08 5.650978e-09 7.824450e-09 -1.173420e-08 8.080536e-09 -1.223684e-08 -1.003294e-08 -1.228346e-09 7.471072e-09 2.588070e-03 5.406653e-06 1.165406e-03 -2.750418e-04 1.179288e-03 -2.015027e-04 3.669178e-04 -4.334864e-04 -1.182183e-03 -4.313851e-04 -6.009767e-04 -5.740453e-04 3.089256e-03
<VARIANCE> 25
 5.950132e+01 5.523875e+01 6.957190e+01 6.306453e+01 6.882129e+01 6.596412e+01 5.749057e+01 5.935612e+01 5.307150e+01 4.762954e+01 4.650915e+01 3.710306e+01 2.306587e+00 2.816560e+00 2.879318e+00 3.320077e+00 3.620080e+00 3.535859e+00 3.444255e+00 3.604912e+00 3.328778e+00 3.069351e+00 2.973025e+00 2.428180e+00 2.668494e+00
<GCONST> 1.087549e+02
<TRANSP> 5
 0.000000e+00 1.000000e+00 0.000000e+00 0.000000e+00 0.000000e+00
 0.000000e+00 6.000000e-01 4.000000e-01 0.000000e+00 0.000000e+00
 0.000000e+00 0.000000e+00 6.000000e-01 4.000000e-01 0.000000e+00
 0.000000e+00 0.000000e+00 0.000000e+00 7.000000e-01 3.000000e-01
 0.000000e+00 0.000000e+00 0.000000e+00 0.000000e+00 0.000000e+00
<ENDHMM>
~h "an"
<BEGINHMM>
<NUMSTATES> 5
<STATE> 2
<MEAN> 25
 1.708972e-09 1.090385e-09 9.580507e-09 -2.513088e-08 5.650978e-09 7.824450e-09 -1.173420e-08 8.080536e-09 -1.223684e-08 -1.003294e-08 -1.228346e-09 7.471072e-09 2.588070e-03 5.406653e-06 1.165406e-03 -2.750418e-04 1.179288e-03 -2.015027e-04 3.669178e-04 -4.334864e-04 -1.182183e-03 -4.313851e-04 -6.009767e-04 -5.740453e-04 3.089256e-03
<VARIANCE> 25
 5.950132e+01 5.523875e+01 6.957190e+01 6.306453e+01 6.882129e+01 6.596412e+01 5.749057e+01 5.935612e+01 5.307150e+01 4.762954e+01 4.650915e+01 3.710306e+01 2.306587e+00 2.816560e+00 2.879318e+00 3.320077e+00 3.620080e+00 3.535859e+00 3.444255e+00 3.604912e+00 3.328778e+00 3.069351e+00 2.973025e+00 2.428180e+00 2.668494e+00
<GCONST> 1.087549e+02
<STATE> 3
<MEAN> 25
 1.708972e-09 1.090385e-09 9.580507e-09 -2.513088e-08 5.650978e-09 7.824450e-09 -1.173420e-08 8.080536e-09 -1.223684e-08 -1.003294e-08 -1.228346e-09 7.471072e-09 2.588070e-03 5.406653e-06 1.165406e-03 -2.750418e-04 1.179288e-03 -2.015027e-04 3.669178e-04 -4.334864e-04 -1.182183e-03 -4.313851e-04 -6.009767e-04 -5.740453e-04 3.089256e-03
<VARIANCE> 25
 5.950132e+01 5.523875e+01 6.957190e+01 6.306453e+01 6.882129e+01 6.596412e+01 5.749057e+01 5.935612e+01 5.307150e+01 4.762954e+01 4.650915e+01 3.710306e+01 2.306587e+00 2.816560e+00 2.879318e+00 3.320077e+00 3.620080e+00 3.535859e+00 3.444255e+00 3.604912e+00 3.328778e+00 3.069351e+00 2.973025e+00 2.428180e+00 2.668494e+00
<GCONST> 1.087549e+02
<STATE> 4
<MEAN> 25
 1.708972e-09 1.090385e-09 9.580507e-09 -2.513088e-08 5.650978e-09 7.824450e-09 -1.173420e-08 8.080536e-09 -1.223684e-08 -1.003294e-08 -1.228346e-09 7.471072e-09 2.588070e-03 5.406653e-06 1.165406e-03 -2.750418e-04 1.179288e-03 -2.015027e-04 3.669178e-04 -4.334864e-04 -1.182183e-03 -4.313851e-04 -6.009767e-04 -5.740453e-04 3.089256e-03
<VARIANCE> 25
 5.950132e+01 5.523875e+01 6.957190e+01 6.306453e+01 6.882129e+01 6.596412e+01 5.749057e+01 5.935612e+01 5.307150e+01 4.762954e+01 4.650915e+01 3.710306e+01 2.306587e+00 2.816560e+00 2.879318e+00 3.320077e+00 3.620080e+00 3.535859e+00 3.444255e+00 3.604912e+00 3.328778e+00 3.069351e+00 2.973025e+00 2.428180e+00 2.668494e+00
<GCONST> 1.087549e+02
<TRANSP> 5
 0.000000e+00 1.000000e+00 0.000000e+00 0.000000e+00 0.000000e+00
 0.000000e+00 6.000000e-01 4.000000e-01 0.000000e+00 0.000000e+00
 0.000000e+00 0.000000e+00 6.000000e-01 4.000000e-01 0.000000e+00
 0.000000e+00 0.000000e+00 0.000000e+00 7.000000e-01 3.000000e-01
 0.000000e+00 0.000000e+00 0.000000e+00 0.000000e+00 0.000000e+00
<ENDHMM>
~h "ap"
<BEGINHMM>
<NUMSTATES> 5
<STATE> 2
<MEAN> 25
 1.708972e-09 1.090385e-09 9.580507e-09 -2.513088e-08 5.650978e-09 7.824450e-09 -1.173420e-08 8.080536e-09 -1.223684e-08 -1.003294e-08 -1.228346e-09 7.471072e-09 2.588070e-03 5.406653e-06 1.165406e-03 -2.750418e-04 1.179288e-03 -2.015027e-04 3.669178e-04 -4.334864e-04 -1.182183e-03 -4.313851e-04 -6.009767e-04 -5.740453e-04 3.089256e-03
<VARIANCE> 25
 5.950132e+01 5.523875e+01 6.957190e+01 6.306453e+01 6.882129e+01 6.596412e+01 5.749057e+01 5.935612e+01 5.307150e+01 4.762954e+01 4.650915e+01 3.710306e+01 2.306587e+00 2.816560e+00 2.879318e+00 3.320077e+00 3.620080e+00 3.535859e+00 3.444255e+00 3.604912e+00 3.328778e+00 3.069351e+00 2.973025e+00 2.428180e+00 2.668494e+00
<GCONST> 1.087549e+02
<STATE> 3
<MEAN> 25
 1.708972e-09 1.090385e-09 9.580507e-09 -2.513088e-08 5.650978e-09 7.824450e-09 -1.173420e-08 8.080536e-09 -1.223684e-08 -1.003294e-08 -1.228346e-09 7.471072e-09 2.588070e-03 5.406653e-06 1.165406e-03 -2.750418e-04 1.179288e-03 -2.015027e-04 3.669178e-04 -4.334864e-04 -1.182183e-03 -4.313851e-04 -6.009767e-04 -5.740453e-04 3.089256e-03
<VARIANCE> 25
 5.950132e+01 5.523875e+01 6.957190e+01 6.306453e+01 6.882129e+01 6.596412e+01 5.749057e+01 5.935612e+01 5.307150e+01 4.762954e+01 4.650915e+01 3.710306e+01 2.306587e+00 2.816560e+00 2.879318e+00 3.320077e+00 3.620080e+00 3.535859e+00 3.444255e+00 3.604912e+00 3.328778e+00 3.069351e+00 2.973025e+00 2.428180e+00 2.668494e+00
<GCONST> 1.087549e+02
<STATE> 4
<MEAN> 25
 1.708972e-09 1.090385e-09 9.580507e-09 -2.513088e-08 5.650978e-09 7.824450e-09 -1.173420e-08 8.080536e-09 -1.223684e-08 -1.003294e-08 -1.228346e-09 7.471072e-09 2.588070e-03 5.406653e-06 1.165406e-03 -2.750418e-04 1.179288e-03 -2.015027e-04 3.669178e-04 -4.334864e-04 -1.182183e-03 -4.313851e-04 -6.009767e-04 -5.740453e-04 3.089256e-03
<VARIANCE> 25
 5.950132e+01 5.523875e+01 6.957190e+01 6.306453e+01 6.882129e+01 6.596412e+01 5.749057e+01 5.935612e+01 5.307150e+01 4.762954e+01 4.650915e+01 3.710306e+01 2.306587e+00 2.816560e+00 2.879318e+00 3.320077e+00 3.620080e+00 3.535859e+00 3.444255e+00 3.604912e+00 3.328778e+00 3.069351e+00 2.973025e+00 2.428180e+00 2.668494e+00
<GCONST> 1.087549e+02
<TRANSP> 5
 0.000000e+00 1.000000e+00 0.000000e+00 0.000000e+00 0.000000e+00
 0.000000e+00 6.000000e-01 4.000000e-01 0.000000e+00 0.000000e+00
 0.000000e+00 0.000000e+00 6.000000e-01 4.000000e-01 0.000000e+00
 0.000000e+00 0.000000e+00 0.000000e+00 7.000000e-01 3.000000e-01
 0.000000e+00 0.000000e+00 0.000000e+00 0.000000e+00 0.000000e+00
<ENDHMM>
~h "at"
<BEGINHMM>
<NUMSTATES> 5
<STATE> 2
<MEAN> 25
 1.708972e-09 1.090385e-09 9.580507e-09 -2.513088e-08 5.650978e-09 7.824450e-09 -1.173420e-08 8.080536e-09 -1.223684e-08 -1.003294e-08 -1.228346e-09 7.471072e-09 2.588070e-03 5.406653e-06 1.165406e-03 -2.750418e-04 1.179288e-03 -2.015027e-04 3.669178e-04 -4.334864e-04 -1.182183e-03 -4.313851e-04 -6.009767e-04 -5.740453e-04 3.089256e-03
<VARIANCE> 25
 5.950132e+01 5.523875e+01 6.957190e+01 6.306453e+01 6.882129e+01 6.596412e+01 5.749057e+01 5.935612e+01 5.307150e+01 4.762954e+01 4.650915e+01 3.710306e+01 2.306587e+00 2.816560e+00 2.879318e+00 3.320077e+00 3.620080e+00 3.535859e+00 3.444255e+00 3.604912e+00 3.328778e+00 3.069351e+00 2.973025e+00 2.428180e+00 2.668494e+00
<GCONST> 1.087549e+02
<STATE> 3
<MEAN> 25
 1.708972e-09 1.090385e-09 9.580507e-09 -2.513088e-08 5.650978e-09 7.824450e-09 -1.173420e-08 8.080536e-09 -1.223684e-08 -1.003294e-08 -1.228346e-09 7.471072e-09 2.588070e-03 5.406653e-06 1.165406e-03 -2.750418e-04 1.179288e-03 -2.015027e-04 3.669178e-04 -4.334864e-04 -1.182183e-03 -4.313851e-04 -6.009767e-04 -5.740453e-04 3.089256e-03
<VARIANCE> 25
 5.950132e+01 5.523875e+01 6.957190e+01 6.306453e+01 6.882129e+01 6.596412e+01 5.749057e+01 5.935612e+01 5.307150e+01 4.762954e+01 4.650915e+01 3.710306e+01 2.306587e+00 2.816560e+00 2.879318e+00 3.320077e+00 3.620080e+00 3.535859e+00 3.444255e+00 3.604912e+00 3.328778e+00 3.069351e+00 2.973025e+00 2.428180e+00 2.668494e+00
<GCONST> 1.087549e+02
<STATE> 4
<MEAN> 25
 1.708972e-09 1.090385e-09 9.580507e-09 -2.513088e-08 5.650978e-09 7.824450e-09 -1.173420e-08 8.080536e-09 -1.223684e-08 -1.003294e-08 -1.228346e-09 7.471072e-09 2.588070e-03 5.406653e-06 1.165406e-03 -2.750418e-04 1.179288e-03 -2.015027e-04 3.669178e-04 -4.334864e-04 -1.182183e-03 -4.313851e-04 -6.009767e-04 -5.740453e-04 3.089256e-03
<VARIANCE> 25
 5.950132e+01 5.523875e+01 6.957190e+01 6.306453e+01 6.882129e+01 6.596412e+01 5.749057e+01 5.935612e+01 5.307150e+01 4.762954e+01 4.650915e+01 3.710306e+01 2.306587e+00 2.816560e+00 2.879318e+00 3.320077e+00 3.620080e+00 3.535859e+00 3.444255e+00 3.604912e+00 3.328778e+00 3.069351e+00 2.973025e+00 2.428180e+00 2.668494e+00
<GCONST> 1.087549e+02
<TRANSP> 5
 0.000000e+00 1.000000e+00 0.000000e+00 0.000000e+00 0.000000e+00
 0.000000e+00 6.000000e-01 4.000000e-01 0.000000e+00 0.000000e+00
 0.000000e+00 0.000000e+00 6.000000e-01 4.000000e-01 0.000000e+00
 0.000000e+00 0.000000e+00 0.000000e+00 7.000000e-01 3.000000e-01
 0.000000e+00 0.000000e+00 0.000000e+00 0.000000e+00 0.000000e+00
<ENDHMM>
~h "au"
<BEGINHMM>
<NUMSTATES> 5
<STATE> 2
<MEAN> 25
 1.708972e-09 1.090385e-09 9.580507e-09 -2.513088e-08 5.650978e-09 7.824450e-09 -1.173420e-08 8.080536e-09 -1.223684e-08 -1.003294e-08 -1.228346e-09 7.471072e-09 2.588070e-03 5.406653e-06 1.165406e-03 -2.750418e-04 1.179288e-03 -2.015027e-04 3.669178e-04 -4.334864e-04 -1.182183e-03 -4.313851e-04 -6.009767e-04 -5.740453e-04 3.089256e-03
<VARIANCE> 25
 5.950132e+01 5.523875e+01 6.957190e+01 6.306453e+01 6.882129e+01 6.596412e+01 5.749057e+01 5.935612e+01 5.307150e+01 4.762954e+01 4.650915e+01 3.710306e+01 2.306587e+00 2.816560e+00 2.879318e+00 3.320077e+00 3.620080e+00 3.535859e+00 3.444255e+00 3.604912e+00 3.328778e+00 3.069351e+00 2.973025e+00 2.428180e+00 2.668494e+00
<GCONST> 1.087549e+02
<STATE> 3
<MEAN> 25
 1.708972e-09 1.090385e-09 9.580507e-09 -2.513088e-08 5.650978e-09 7.824450e-09 -1.173420e-08 8.080536e-09 -1.223684e-08 -1.003294e-08 -1.228346e-09 7.471072e-09 2.588070e-03 5.406653e-06 1.165406e-03 -2.750418e-04 1.179288e-03 -2.015027e-04 3.669178e-04 -4.334864e-04 -1.182183e-03 -4.313851e-04 -6.009767e-04 -5.740453e-04 3.089256e-03
<VARIANCE> 25
 5.950132e+01 5.523875e+01 6.957190e+01 6.306453e+01 6.882129e+01 6.596412e+01 5.749057e+01 5.935612e+01 5.307150e+01 4.762954e+01 4.650915e+01 3.710306e+01 2.306587e+00 2.816560e+00 2.879318e+00 3.320077e+00 3.620080e+00 3.535859e+00 3.444255e+00 3.604912e+00 3.328778e+00 3.069351e+00 2.973025e+00 2.428180e+00 2.668494e+00
<GCONST> 1.087549e+02
<STATE> 4
<MEAN> 25
 1.708972e-09 1.090385e-09 9.580507e-09 -2.513088e-08 5.650978e-09 7.824450e-09 -1.173420e-08 8.080536e-09 -1.223684e-08 -1.003294e-08 -1.228346e-09 7.471072e-09 2.588070e-03 5.406653e-06 1.165406e-03 -2.750418e-04 1.179288e-03 -2.015027e-04 3.669178e-04 -4.334864e-04 -1.182183e-03 -4.313851e-04 -6.009767e-04 -5.740453e-04 3.089256e-03
<VARIANCE> 25
 5.950132e+01 5.523875e+01 6.957190e+01 6.306453e+01 6.882129e+01 6.596412e+01 5.749057e+01 5.935612e+01 5.307150e+01 4.762954e+01 4.650915e+01 3.710306e+01 2.306587e+00 2.816560e+00 2.879318e+00 3.320077e+00 3.620080e+00 3.535859e+00 3.444255e+00 3.604912e+00 3.328778e+00 3.069351e+00 2.973025e+00 2.428180e+00 2.668494e+00
<GCONST> 1.087549e+02
<TRANSP> 5
 0.000000e+00 1.000000e+00 0.000000e+00 0.000000e+00 0.000000e+00
 0.000000e+00 6.000000e-01 4.000000e-01 0.000000e+00 0.000000e+00
 0.000000e+00 0.000000e+00 6.000000e-01 4.000000e-01 0.000000e+00
 0.000000e+00 0.000000e+00 0.000000e+00 7.000000e-01 3.000000e-01
 0.000000e+00 0.000000e+00 0.000000e+00 0.000000e+00 0.000000e+00
<ENDHMM>
~h "aw"
<BEGINHMM>
<NUMSTATES> 5
<STATE> 2
<MEAN> 25
 3.393640e+00 -7.074153e+00 -3.242550e+00 -9.351118e+00 -3.950673e+00 2.876994e+00 2.330068e+00 1.971238e-01 5.166157e+00 5.401432e+00 -2.103550e+00 -4.380808e+00 3.781229e-01 2.836597e-01 -1.680854e-01 -1.201490e+00 2.887249e-01 1.364782e+00 -3.700284e-01 -6.979220e-01 -4.503500e-01 5.536406e-01 3.878097e-01 -4.379684e-01 -1.985898e-01
<VARIANCE> 25
 4.453190e+01 7.647648e+01 7.646441e+01 5.991169e+01 8.881052e+01 7.794064e+01 1.015571e+02 4.280819e+01 6.497638e+01 6.387828e+01 4.844545e+01 3.037022e+01 1.228063e+00 1.824556e+00 2.746404e+00 2.884921e+00 3.444584e+00 3.569522e+00 2.866398e+00 4.193395e+00 3.217305e+00 2.616990e+00 3.106723e+00 2.994986e+00 1.136675e+00
<GCONST> 1.077161e+02
<STATE> 3
<MEAN> 25
 7.491147e+00 1.528335e+00 -4.355108e+00 -1.356224e+01 -4.281290e+00 9.688207e+00 -2.909792e+00 -3.683842e+00 -6.469977e-01 1.630351e+00 2.737739e+00 1.228136e+00 1.092168e-01 9.338622e-01 -2.838336e-03 6.232888e-01 -1.121886e-01 -1.680460e-01 2.850013e-01 -2.212057e-01 -2.395058e-01 -5.083104e-01 1.563850e-02 3.753352e-01 -9.886821e-01
<VARIANCE> 25
 1.800996e+01 4.065121e+01 4.832866e+01 7.850780e+01 4.862113e+01 6.063523e+01 5.216463e+01 2.599308e+01 4.048024e+01 3.628026e+01 3.647143e+01 2.910354e+01 6.707196e-01 1.488239e+00 1.302490e+00 3.290266e+00 2.173525e+00 2.248415e+00 2.536755e+00 1.930657e+00 2.953971e+00 2.218978e+00 1.840551e+00 2.496194e+00 5.341713e-01
<GCONST> 9.765147e+01
<STATE> 4
<MEAN> 25
 -2.016946e+00 2.253750e+00 -2.210016e+00 4.374749e+00 4.948399e+00 5.310385e+00 2.444373e+00 -1.090537e+00 7.156452e-01 -1.084144e+00 -9.913996e-01 -2.260568e+00 -4.677542e-01 -1.030305e-01 1.028393e-01 4.008862e-01 4.168625e-01 -1.792532e-01 3.576934e-01 2.821433e-01 -9.373719e-02 7.576118e-02 -4.739671e-02 1.313950e-01 -2.590078e-01
<VARIANCE> 25
 1.865709e+02 4.279480e+01 1.089127e+02 1.323607e+02 1.752195e+02 2.104400e+02 1.403870e+02 7.315694e+01 9.572633e+01 1.161688e+02 1.475240e+02 5.134319e+01 1.209905e+00 1.500758e+00 2.757809e+00 3.036251e+00 4.348950e+00 3.746590e+00 4.306661e+00 4.041741e+00 3.848923e+00 3.318828e+00 5.136393e+00 3.189611e+00 1.671243e+00
<GCONST> 1.167359e+02
<TRANSP> 5
 0.000000e+00 1.000000e+00 0.000000e+00 0.000000e+00 0.000000e+00
 0.000000e+00 7.744711e-01 2.255289e-01 0.000000e+00 0.000000e+00
 0.000000e+00 0.000000e+00 8.389031e-01 1.610968e-01 0.000000e+00
 0.000000e+00 0.000000e+00 0.000000e+00 8.349684e-01 1.650316e-01
 0.000000e+00 0.000000e+00 0.000000e+00 0.000000e+00 0.000000e+00
<ENDHMM>
~h "ay"
<BEGINHMM>
<NUMSTATES> 5
<STATE> 2
<MEAN> 25
 3.693118e+00 -1.028038e+01 -1.716713e+00 -3.741203e+00 -4.536016e+00 -5.129691e+00 4.449884e+00 7.305878e+00 2.433279e+00 -3.574178e+00 -1.494460e+00 -1.725400e+00 -2.242212e-01 1.468329e-01 1.272457e+00 2.848371e-02 -1.243938e+00 -6.399174e-01 5.430579e-01 1.675365e-01 -6.573067e-01 9.419288e-02 7.244134e-01 3.375507e-01 -8.039527e-02
<VARIANCE> 25
 1.494927e+01 2.065985e+01 4.820434e+01 2.653510e+01 4.292055e+01 4.309814e+01 4.596470e+01 4.709380e+01 4.614711e+01 4.229136e+01 4.367979e+01 3.070314e+01 4.129365e-01 1.461559e+00 2.739052e+00 1.785651e+00 3.110818e+00 2.330669e+00 2.424895e+00 3.354839e+00 2.312314e+00 3.358352e+00 2.852185e+00 1.916510e+00 4.189615e-01
<GCONST> 9.685219e+01
<STATE> 3
<MEAN> 25
 1.425520e+00 -1.711149e+00 8.911340e+00 -3.178080e+00 -1.148234e+01 -4.720388e+00 1.695125e+00 7.375676e-01 -1.247229e+00 7.128516e-01 3.256395e+00 2.871026e-01 -2.369227e-01 1.099617e+00 1.762291e-01 4.002967e-01 3.478575e-01 5.190544e-01 -4.489546e-01 -6.770172e-01 -3.542176e-02 2.237707e-01 -3.980955e-02 2.864335e-01 -1.157541e+00
<VARIANCE> 25
 1.570796e+01 4.128864e+01 6.730738e+01 3.694202e+01 4.233220e+01 5.247707e+01 5.625969e+01 6.651613e+01 4.766862e+01 4.362193e+01 4.484689e+01 2.419660e+01 5.357498e-01 1.106330e+00 3.458694e+00 2.202868e+00 2.757822e+00 2.175395e+00 2.811660e+00 4.271493e+00 3.226564e+00 2.874522e+00 2.466033e+00 1.973822e+00 1.014558e+00
<GCONST> 1.004123e+02
<STATE> 4
<MEAN> 25
 -1.261170e+00 1.967099e+00 1.176100e+00 1.494882e+00 -3.468935e-01 3.104309e-01 1.023107e+00 -2.909302e-01 -2.546392e-01 5.004740e-01 6.190078e-01 2.068613e+00 -1.191729e-01 5.621338e-02 -1.554490e-01 1.381965e-01 2.426827e-01 1.406102e-01 -7.014686e-02 2.648159e-02 6.605510e-02 -5.463957e-03 -4.053935e-02 3.818142e-02 -2.722599e-01
<VARIANCE> 25
 1.500380e+01 2.114150e+01 2.123321e+01 2.318687e+01 4.423149e+01 2.774685e+01 3.100515e+01 3.528748e+01 2.787706e+01 2.403238e+01 2.589382e+01 1.812066e+01 2.389527e-01 5.987998e-01 9.332002e-01 9.333754e-01 1.464384e+00 1.402752e+00 1.551115e+00 1.612980e+00 1.612939e+00 1.851722e+00 1.684333e+00 1.152478e+00 2.982748e-01
<GCONST> 8.477636e+01
<TRANSP> 5
 0.000000e+00 1.000000e+00 0.000000e+00 0.000000e+00 0.000000e+00
 0.000000e+00 7.843324e-01 2.156677e-01 0.000000e+00 0.000000e+00
 0.000000e+00 0.000000e+00 8.452717e-01 1.547283e-01 0.000000e+00
 0.000000e+00 0.000000e+00 0.000000e+00 8.684145e-01 1.315855e-01
 0.000000e+00 0.000000e+00 0.000000e+00 0.000000e+00 0.000000e+00
<ENDHMM>
~h "be"
<BEGINHMM>
<NUMSTATES> 5
<STATE> 2
<MEAN> 25
 2.375884e+00 3.795054e-01 -1.985343e+00 -4.099190e+00 -5.692396e+00 -4.863568e+00 6.834845e-01 4.817573e+00 3.033318e+00 -1.179030e+00 -2.732774e+00 -2.635209e+00 -1.736804e-01 -2.553660e-01 -2.489668e-01 -1.445704e-01 3.044719e-02 8.128120e-02 2.663259e-02 -3.176891e-02 -1.176978e-01 -1.313311e-01 -2.454125e-01 -1.759763e-01 -7.122625e-02
<VARIANCE> 25
 2.654488e+01 2.664045e+01 3.686234e+01 2.532884e+01 3.566215e+01 3.985510e+01 2.310813e+01 4.256480e+01 4.866561e+01 4.642168e+01 8.923669e+01 4.142061e+01 8.798790e-01 5.630465e-01 8.769483e-01 1.142048e+00 2.792815e+00 3.959327e+00 2.528041e+00 4.042598e+00 2.169336e+00 2.965544e+00 2.929644e+00 1.675265e+00 2.682292e-01
<GCONST> 9.559872e+01
<STATE> 3
<MEAN> 25
 2.132657e+00 3.348154e+00 3.530003e+00 7.681171e-01 -3.897190e+00 -4.105711e+00 -1.326351e-01 9.069381e-01 5.588182e-01 1.933151e+00 2.908731e+00 2.488807e+00 -1.193390e-01 -1.071456e-01 -9.767632e-02 1.607906e-03 1.045921e-01 1.008047e-01 1.680756e-01 3.058120e-01 2.483277e-01 -5.004211e-02 -1.117535e-01 1.663183e-02 -5.990902e-02
<VARIANCE> 25
 1.418014e+01 7.469767e+00 1.183552e+01 1.445419e+01 6.148295e+01 4.990526e+01 3.015130e+01 5.579494e+01 2.794260e+01 2.322182e+01 2.612413e+01 1.753785e+01 7.041267e-01 3.810476e-01 7.057179e-01 8.348336e-01 2.704978e+00 2.711372e+00 2.581011e+00 2.638272e+00 2.141471e+00 2.665038e+00 1.694641e+00 1.299012e+00 2.694361e-01
<GCONST> 8.709652e+01
<STATE> 4
<MEAN> 25
 -1.179089e+01 1.140426e+00 -3.153396e+00 8.195825e+00 6.999079e+00 -1.780145e-03 7.850069e+00 2.574668e+00 1.206507e+00 -7.513094e-01 -1.808221e-01 4.104128e+00 -9.895789e-03 1.158064e-01 1.582723e-01 1.784075e-01 1.278746e-01 2.760785e-01 2.067052e-01 -6.973746e-02 -1.894067e-01 -2.161144e-01 -1.591283e-01 -1.369159e-01 -4.404512e-02
<VARIANCE> 25
 3.561951e+01 2.928961e+00 2.916010e+00 2.279473e+01 1.645025e+01 1.221435e+01 2.644045e+01 1.829198e+01 2.085275e+01 7.306719e+00 1.364605e+01 1.317972e+01 1.843326e-01 3.246834e-01 3.882757e-01 6.367456e-01 6.289099e-01 7.012305e-01 1.293700e+00 1.123571e+00 7.590546e-01 4.620847e-01 1.196767e+00 1.199010e+00 3.738927e-02
<GCONST> 6.786298e+01
<TRANSP> 5
 0.000000e+00 1.000000e+00 0.000000e+00 0.000000e+00 0.000000e+00
 0.000000e+00 9.417832e-01 5.821673e-02 0.000000e+00 0.000000e+00
 0.000000e+00 0.000000e+00 9.530565e-01 4.694349e-02 0.000000e+00
 0.000000e+00 0.000000e+00 0.000000e+00 7.366789e-01 2.633211e-01
 0.000000e+00 0.000000e+00 0.000000e+00 0.000000e+00 0.000000e+00
<ENDHMM>
~h "br"
<BEGINHMM>
<NUMSTATES> 5
<STATE> 2
<MEAN> 25
 1.708972e-09 1.090385e-09 9.580507e-09 -2.513088e-08 5.650978e-09 7.824450e-09 -1.173420e-08 8.080536e-09 -1.223684e-08 -1.003294e-08 -1.228346e-09 7.471072e-09 2.588070e-03 5.406653e-06 1.165406e-03 -2.750418e-04 1.179288e-03 -2.015027e-04 3.669178e-04 -4.334864e-04 -1.182183e-03 -4.313851e-04 -6.009767e-04 -5.740453e-04 3.089256e-03
<VARIANCE> 25
 5.950132e+01 5.523875e+01 6.957190e+01 6.306453e+01 6.882129e+01 6.596412e+01 5.749057e+01 5.935612e+01 5.307150e+01 4.762954e+01 4.650915e+01 3.710306e+01 2.306587e+00 2.816560e+00 2.879318e+00 3.320077e+00 3.620080e+00 3.535859e+00 3.444255e+00 3.604912e+00 3.328778e+00 3.069351e+00 2.973025e+00 2.428180e+00 2.668494e+00
<GCONST> 1.087549e+02
<STATE> 3
<MEAN> 25
 1.708972e-09 1.090385e-09 9.580507e-09 -2.513088e-08 5.650978e-09 7.824450e-09 -1.173420e-08 8.080536e-09 -1.223684e-08 -1.003294e-08 -1.228346e-09 7.471072e-09 2.588070e-03 5.406653e-06 1.165406e-03 -2.750418e-04 1.179288e-03 -2.015027e-04 3.669178e-04 -4.334864e-04 -1.182183e-03 -4.313851e-04 -6.009767e-04 -5.740453e-04 3.089256e-03
<VARIANCE> 25
 5.950132e+01 5.523875e+01 6.957190e+01 6.306453e+01 6.882129e+01 6.596412e+01 5.749057e+01 5.935612e+01 5.307150e+01 4.762954e+01 4.650915e+01 3.710306e+01 2.306587e+00 2.816560e+00 2.879318e+00 3.320077e+00 3.620080e+00 3.535859e+00 3.444255e+00 3.604912e+00 3.328778e+00 3.069351e+00 2.973025e+00 2.428180e+00 2.668494e+00
<GCONST> 1.087549e+02
<STATE> 4
<MEAN> 25
 1.708972e-09 1.090385e-09 9.580507e-09 -2.513088e-08 5.650978e-09 7.824450e-09 -1.173420e-08 8.080536e-09 -1.223684e-08 -1.003294e-08 -1.228346e-09 7.471072e-09 2.588070e-03 5.406653e-06 1.165406e-03 -2.750418e-04 1.179288e-03 -2.015027e-04 3.669178e-04 -4.334864e-04 -1.182183e-03 -4.313851e-04 -6.009767e-04 -5.740453e-04 3.089256e-03
<VARIANCE> 25
 5.950132e+01 5.523875e+01 6.957190e+01 6.306453e+01 6.882129e+01 6.596412e+01 5.749057e+01 5.935612e+01 5.307150e+01 4.762954e+01 4.650915e+01 3.710306e+01 2.306587e+00 2.816560e+00 2.879318e+00 3.320077e+00 3.620080e+00 3.535859e+00 3.444255e+00 3.604912e+00 3.328778e+00 3.069351e+00 2.973025e+00 2.428180e+00 2.668494e+00
<GCONST> 1.087549e+02
<TRANSP> 5
 0.000000e+00 1.000000e+00 0.000000e+00 0.000000e+00 0.000000e+00
 0.000000e+00 6.000000e-01 4.000000e-01 0.000000e+00 0.000000e+00
 0.000000e+00 0.000000e+00 6.000000e-01 4.000000e-01 0.000000e+00
 0.000000e+00 0.000000e+00 0.000000e+00 7.000000e-01 3.000000e-01
 0.000000e+00 0.000000e+00 0.000000e+00 0.000000e+00 0.000000e+00
<ENDHMM>
~h "bu"
<BEGINHMM>
<NUMSTATES> 5
<STATE> 2
<MEAN> 25
 1.708972e-09 1.090385e-09 9.580507e-09 -2.513088e-08 5.650978e-09 7.824450e-09 -1.173420e-08 8.080536e-09 -1.223684e-08 -1.003294e-08 -1.228346e-09 7.471072e-09 2.588070e-03 5.406653e-06 1.165406e-03 -2.750418e-04 1.179288e-03 -2.015027e-04 3.669178e-04 -4.334864e-04 -1.182183e-03 -4.313851e-04 -6.009767e-04 -5.740453e-04 3.089256e-03
<VARIANCE> 25
 5.950132e+01 5.523875e+01 6.957190e+01 6.306453e+01 6.882129e+01 6.596412e+01 5.749057e+01 5.935612e+01 5.307150e+01 4.762954e+01 4.650915e+01 3.710306e+01 2.306587e+00 2.816560e+00 2.879318e+00 3.320077e+00 3.620080e+00 3.535859e+00 3.444255e+00 3.604912e+00 3.328778e+00 3.069351e+00 2.973025e+00 2.428180e+00 2.668494e+00
<GCONST> 1.087549e+02
<STATE> 3
<MEAN> 25
 1.708972e-09 1.090385e-09 9.580507e-09 -2.513088e-08 5.650978e-09 7.824450e-09 -1.173420e-08 8.080536e-09 -1.223684e-08 -1.003294e-08 -1.228346e-09 7.471072e-09 2.588070e-03 5.406653e-06 1.165406e-03 -2.750418e-04 1.179288e-03 -2.015027e-04 3.669178e-04 -4.334864e-04 -1.182183e-03 -4.313851e-04 -6.009767e-04 -5.740453e-04 3.089256e-03
<VARIANCE> 25
 5.950132e+01 5.523875e+01 6.957190e+01 6.306453e+01 6.882129e+01 6.596412e+01 5.749057e+01 5.935612e+01 5.307150e+01 4.762954e+01 4.650915e+01 3.710306e+01 2.306587e+00 2.816560e+00 2.879318e+00 3.320077e+00 3.620080e+00 3.535859e+00 3.444255e+00 3.604912e+00 3.328778e+00 3.069351e+00 2.973025e+00 2.428180e+00 2.668494e+00
<GCONST> 1.087549e+02
<STATE> 4
<MEAN> 25
 1.708972e-09 1.090385e-09 9.580507e-09 -2.513088e-08 5.650978e-09 7.824450e-09 -1.173420e-08 8.080536e-09 -1.223684e-08 -1.003294e-08 -1.228346e-09 7.471072e-09 2.588070e-03 5.406653e-06 1.165406e-03 -2.750418e-04 1.179288e-03 -2.015027e-04 3.669178e-04 -4.334864e-04 -1.182183e-03 -4.313851e-04 -6.009767e-04 -5.740453e-04 3.089256e-03
<VARIANCE> 25
 5.950132e+01 5.523875e+01 6.957190e+01 6.306453e+01 6.882129e+01 6.596412e+01 5.749057e+01 5.935612e+01 5.307150e+01 4.762954e+01 4.650915e+01 3.710306e+01 2.306587e+00 2.816560e+00 2.879318e+00 3.320077e+00 3.620080e+00 3.535859e+00 3.444255e+00 3.604912e+00 3.328778e+00 3.069351e+00 2.973025e+00 2.428180e+00 2.668494e+00
<GCONST> 1.087549e+02
<TRANSP> 5
 0.000000e+00 1.000000e+00 0.000000e+00 0.000000e+00 0.000000e+00
 0.000000e+00 6.000000e-01 4.000000e-01 0.000000e+00 0.000000e+00
 0.000000e+00 0.000000e+00 6.000000e-01 4.000000e-01 0.000000e+00
 0.000000e+00 0.000000e+00 0.000000e+00 7.000000e-01 3.000000e-01
 0.000000e+00 0.000000e+00 0.000000e+00 0.000000e+00 0.000000e+00
<ENDHMM>
~h "ce"
<BEGINHMM>
<NUMSTATES> 5
