~o
<STREAMINFO> 1 25
<VECSIZE> 25<NULLD><MFCC_D_N_Z_0><DIAGC>
~h "@"
<BEGINHMM>
<NUMSTATES> 5
<STATE> 2
<MEAN> 25
 3.789584e-01 -2.514682e-02 -1.645848e-02 -2.647478e-02 -1.014675e-01 -3.042428e-01 -2.384611e-01 -1.938668e-01 1.507201e-01 9.950610e-02 -2.706419e-02 -1.317615e-01 2.002764e-02 -8.771063e-03 6.925540e-03 -4.550608e-03 -8.353725e-03 -7.955804e-03 -1.519882e-03 -1.660824e-03 -5.883665e-03 -3.092824e-03 -7.315846e-03 -6.961482e-03 2.456547e-02
<VARIANCE> 25
 6.013797e+01 5.598051e+01 6.732151e+01 6.102628e+01 6.824863e+01 6.684335e+01 5.852259e+01 5.975361e+01 5.323410e+01 4.776442e+01 4.636518e+01 3.715133e+01 2.591296e+00 3.068485e+00 2.987087e+00 3.492391e+00 3.781463e+00 3.758150e+00 3.647189e+00 3.781354e+00 3.469243e+00 3.207935e+00 3.081392e+00 2.508534e+00 2.960493e+00
<GCONST> 1.095034e+02
<STATE> 3
<MEAN> 25
 4.255742e-01 -4.538864e-02 1.006953e-04 -3.641378e-02 -1.157943e-01 -3.210422e-01 -2.389803e-01 -1.958577e-01 1.350062e-01 9.222948e-02 -4.461729e-02 -1.473779e-01 1.662935e-02 -7.797436e-03 5.566267e-03 -4.279073e-03 -4.904325e-03 -5.136629e-03 2.750978e-04 -4.068198e-04 -6.078438e-03 -2.951467e-03 -6.703118e-03 -5.434365e-03 1.999841e-02
<VARIANCE> 25
 5.963535e+01 5.603793e+01 6.743781e+01 6.087783e+01 6.826795e+01 6.674042e+01 5.851515e+01 5.980525e+01 5.332413e+01 4.781937e+01 4.642717e+01 3.715416e+01 2.578740e+00 3.067090e+00 2.989810e+00 3.492640e+00 3.778755e+00 3.754933e+00 3.643222e+00 3.781800e+00 3.467478e+00 3.209179e+00 3.082218e+00 2.508088e+00 2.952881e+00
<GCONST> 1.094895e+02
<STATE> 4
<MEAN> 25
 4.955105e-01 -8.614384e-02 4.464054e-02 -5.349841e-02 -1.283595e-01 -3.434666e-01 -2.345501e-01 -1.869102e-01 1.029378e-01 8.582389e-02 -7.060497e-02 -1.636622e-01 1.128995e-02 -5.600823e-03 3.596413e-03 -2.526356e-03 -4.077610e-04 -1.116077e-03 2.196977e-03 8.020666e-04 -5.504031e-03 -2.673669e-03 -5.619440e-03 -3.310780e-03 1.284975e-02
<VARIANCE> 25
 5.885995e+01 5.599792e+01 6.762437e+01 6.087766e+01 6.825600e+01 6.636808e+01 5.830972e+01 5.936421e+01 5.332891e+01 4.789478e+01 4.628806e+01 3.717136e+01 2.500809e+00 3.013928e+00 2.947029e+00 3.434011e+00 3.714681e+00 3.697658e+00 3.590275e+00 3.717434e+00 3.420553e+00 3.170341e+00 3.039225e+00 2.480758e+00 2.902837e+00
<GCONST> 1.092492e+02
<TRANSP> 5
 0.000000e+00 1.000000e+00 0.000000e+00 0.000000e+00 0.000000e+00
 0.000000e+00 6.165153e-01 3.834846e-01 0.000000e+00 0.000000e+00
 0.000000e+00 0.000000e+00 6.165172e-01 3.834828e-01 0.000000e+00
 0.000000e+00 0.000000e+00 0.000000e+00 7.305006e-01 2.694993e-01
 0.000000e+00 0.000000e+00 0.000000e+00 0.000000e+00 0.000000e+00
<ENDHMM>
~h "a"
<BEGINHMM>
<NUMSTATES> 5
<STATE> 2
<MEAN> 25
 4.157983e-01 -6.243267e-01 -3.954478e-01 -2.693518e-01 1.095904e-01 -5.504490e-02 1.235863e-01 3.515032e-01 1.696113e-01 -1.107135e-01 -3.434004e-01 -2.157320e-01 3.578651e-04 5.960427e-03 2.038606e-03 4.520780e-03 3.179611e-03 6.925708e-04 1.520162e-03 -4.077904e-03 -2.032189e-03 -5.020214e-04 1.221531e-03 1.521380e-03 -5.066440e-03
<VARIANCE> 25
 5.680231e+01 5.665714e+01 6.860955e+01 6.141576e+01 6.851137e+01 6.479858e+01 5.673558e+01 5.950740e+01 5.262141e+01 4.772146e+01 4.710719e+01 3.744434e+01 2.314872e+00 2.943738e+00 2.888778e+00 3.308315e+00 3.611314e+00 3.518762e+00 3.429747e+00 3.660039e+00 3.342798e+00 3.092541e+00 3.012487e+00 2.461381e+00 2.744458e+00
<GCONST> 1.087935e+02
<STATE> 3
<MEAN> 25
 4.120360e-01 -6.041020e-01 -3.899131e-01 -2.534951e-01 1.190813e-01 -5.176134e-02 1.266260e-01 3.399229e-01 1.634112e-01 -1.104293e-01 -3.379737e-01 -2.094493e-01 -3.753105e-03 1.073887e-02 3.521208e-03 7.116220e-03 3.146697e-03 1.547216e-03 1.161227e-03 -5.872243e-03 -3.049925e-03 6.698107e-04 4.124048e-03 3.278696e-03 -1.247002e-02
<VARIANCE> 25
 5.662072e+01 5.655927e+01 6.861543e+01 6.140165e+01 6.850095e+01 6.473164e+01 5.674995e+01 5.945362e+01 5.259736e+01 4.771997e+01 4.707933e+01 3.740667e+01 2.308834e+00 2.930316e+00 2.882396e+00 3.299857e+00 3.601923e+00 3.511724e+00 3.426631e+00 3.652410e+00 3.339879e+00 3.088209e+00 3.008170e+00 2.458218e+00 2.730006e+00
<GCONST> 1.087547e+02
<STATE> 4
<MEAN> 25
 4.125960e-01 -5.561950e-01 -3.553488e-01 -2.372677e-01 1.221350e-01 -6.119444e-02 1.061538e-01 2.963931e-01 1.509838e-01 -1.011131e-01 -3.168045e-01 -1.913647e-01 -7.883624e-03 1.382079e-02 4.489022e-03 8.705090e-03 3.043388e-03 2.409124e-03 8.668272e-04 -6.913652e-03 -3.643948e-03 1.774991e-03 6.077604e-03 4.834012e-03 -1.852796e-02
<VARIANCE> 25
 5.680059e+01 5.705408e+01 6.899142e+01 6.225262e+01 6.843205e+01 6.485227e+01 5.675911e+01 5.950957e+01 5.300145e+01 4.809276e+01 4.727740e+01 3.772948e+01 2.248558e+00 2.875345e+00 2.852553e+00 3.260644e+00 3.543878e+00 3.474051e+00 3.390564e+00 3.611291e+00 3.308367e+00 3.065818e+00 2.981787e+00 2.440539e+00 2.680022e+00
<GCONST> 1.086480e+02
<TRANSP> 5
 0.000000e+00 1.000000e+00 0.000000e+00 0.000000e+00 0.000000e+00
 0.000000e+00 6.197478e-01 3.802522e-01 0.000000e+00 0.000000e+00
 0.000000e+00 0.000000e+00 6.197550e-01 3.802450e-01 0.000000e+00
 0.000000e+00 0.000000e+00 0.000000e+00 7.403747e-01 2.596253e-01
 0.000000e+00 0.000000e+00 0.000000e+00 0.000000e+00 0.000000e+00
<ENDHMM>
~h "b"
<BEGINHMM>
<NUMSTATES> 5
<STATE> 2
<MEAN> 25
 6.935044e-01 5.336314e-01 9.890267e-02 -6.376033e-02 -1.675111e-01 -1.077244e-01 -6.087931e-01 -3.289937e-01 -4.129435e-02 1.276877e-02 1.245597e-01 -1.965838e-01 1.553149e-02 -1.133205e-03 8.892789e-03 -3.408791e-03 -1.653830e-02 -1.080666e-02 -8.781506e-03 7.737512e-05 2.786748e-03 -9.417027e-04 -1.689962e-03 -5.683121e-03 2.318369e-02
<VARIANCE> 25
 5.903181e+01 5.610146e+01 6.650265e+01 6.392678e+01 6.568794e+01 6.593779e+01 5.856356e+01 5.975012e+01 5.361510e+01 4.935568e+01 4.623477e+01 3.745649e+01 2.225982e+00 3.073066e+00 2.916713e+00 3.549206e+00 3.685797e+00 3.634161e+00 3.676650e+00 3.762450e+00 3.519730e+00 3.317184e+00 3.137439e+00 2.555630e+00 2.786909e+00
<GCONST> 1.093250e+02
<STATE> 3
<MEAN> 25
 7.325957e-01 5.277593e-01 1.199919e-01 -7.219587e-02 -2.081068e-01 -1.347716e-01 -6.274571e-01 -3.298855e-01 -3.449805e-02 1.248885e-02 1.184131e-01 -2.109376e-01 1.135572e-02 -3.915011e-03 7.582339e-03 -3.355562e-03 -1.566438e-02 -9.695768e-03 -4.990371e-03 1.307466e-03 2.709982e-03 2.831628e-04 -2.217002e-03 -4.705857e-03 2.179568e-02
<VARIANCE> 25
 5.853178e+01 5.618175e+01 6.639560e+01 6.378915e+01 6.566122e+01 6.581567e+01 5.865762e+01 5.976430e+01 5.362756e+01 4.940458e+01 4.637515e+01 3.756250e+01 2.225503e+00 3.077765e+00 2.920024e+00 3.555091e+00 3.685057e+00 3.636971e+00 3.674714e+00 3.767271e+00 3.526169e+00 3.325147e+00 3.140635e+00 2.566110e+00 2.790359e+00
<GCONST> 1.093368e+02
<STATE> 4
<MEAN> 25
 6.622504e-01 4.214685e-01 1.357518e-01 -5.740791e-02 -2.149041e-01 -1.920804e-01 -5.287150e-01 -3.282724e-01 -2.663824e-03 -2.127871e-02 6.027880e-02 -1.826827e-01 7.382349e-03 -5.710157e-03 4.645542e-03 -2.310821e-03 -1.003157e-02 -7.583074e-03 -5.360139e-04 3.018812e-03 2.411348e-03 1.138275e-03 -2.704901e-03 -2.910199e-03 1.738677e-02
<VARIANCE> 25
 5.943447e+01 6.032886e+01 7.065852e+01 6.796139e+01 6.655719e+01 6.914842e+01 5.833300e+01 6.466078e+01 5.839306e+01 5.034915e+01 4.865559e+01 4.103959e+01 2.196525e+00 3.031580e+00 2.945507e+00 3.561409e+00 3.617214e+00 3.604636e+00 3.606019e+00 3.855757e+00 3.494031e+00 3.292348e+00 3.153750e+00 2.622488e+00 2.796939e+00
<GCONST> 1.098939e+02
<TRANSP> 5
 0.000000e+00 1.000000e+00 0.000000e+00 0.000000e+00 0.000000e+00
 0.000000e+00 6.186936e-01 3.813063e-01 0.000000e+00 0.000000e+00
 0.000000e+00 0.000000e+00 6.186869e-01 3.813131e-01 0.000000e+00
 0.000000e+00 0.000000e+00 0.000000e+00 7.691246e-01 2.308754e-01
 0.000000e+00 0.000000e+00 0.000000e+00 0.000000e+00 0.000000e+00
<ENDHMM>
~h "c"
<BEGINHMM>
<NUMSTATES> 5
<STATE> 2
<MEAN> 25
 -6.456196e-01 4.424070e-02 3.096622e-01 -5.438912e-02 -2.499385e-01 -5.483873e-01 2.540725e-01 -1.747332e-02 1.212502e-01 -2.985099e-02 2.058304e-01 1.734419e-01 3.245933e-02 -1.414111e-02 -8.249560e-03 -1.501930e-02 -1.562010e-02 -1.949345e-03 -1.814371e-03 1.107138e-03 -1.690217e-03 -1.076157e-02 -1.244499e-02 -1.276468e-02 2.595429e-02
<VARIANCE> 25
 6.530475e+01 6.161784e+01 6.971734e+01 6.100315e+01 6.891702e+01 6.724691e+01 5.684868e+01 6.011593e+01 5.395646e+01 4.767748e+01 4.893625e+01 3.667817e+01 3.585255e+00 3.362856e+00 3.348012e+00 3.476513e+00 3.840965e+00 3.866056e+00 3.509339e+00 3.725364e+00 3.445285e+00 3.194317e+00 3.065905e+00 2.473569e+00 3.075197e+00
<GCONST> 1.102859e+02
<STATE> 3
<MEAN> 25
 -5.525357e-01 1.087469e-02 2.897703e-01 -8.876067e-02 -2.929409e-01 -5.566896e-01 2.557017e-01 -1.699731e-02 1.150787e-01 -5.523324e-02 1.740652e-01 1.388987e-01 3.889712e-02 -1.769522e-02 -1.035965e-02 -1.119652e-02 -1.614334e-02 1.549972e-03 -1.975608e-03 1.194241e-03 -3.033974e-04 -1.139249e-02 -1.637036e-02 -1.320304e-02 1.743409e-02
<VARIANCE> 25
 6.455682e+01 6.181271e+01 6.982263e+01 6.095036e+01 6.873139e+01 6.745349e+01 5.668489e+01 6.026339e+01 5.404279e+01 4.776543e+01 4.900165e+01 3.664022e+01 3.553706e+00 3.382322e+00 3.339767e+00 3.473326e+00 3.834233e+00 3.855566e+00 3.503369e+00 3.727997e+00 3.445853e+00 3.200682e+00 3.068766e+00 2.464931e+00 3.045188e+00
<GCONST> 1.102597e+02
<STATE> 4
<MEAN> 25
 -3.258398e-01 -3.835205e-02 3.155164e-01 -8.662266e-02 -4.187612e-01 -5.671373e-01 2.320190e-01 -9.444296e-02 7.455349e-02 -7.533988e-02 1.304148e-01 7.602473e-02 3.880873e-02 -1.726416e-02 -1.291126e-02 -9.352854e-03 -1.334668e-02 6.170198e-03 -1.818194e-03 2.000125e-03 1.990540e-03 -5.935323e-03 -1.594884e-02 -1.157461e-02 8.179693e-03
<VARIANCE> 25
 6.312718e+01 6.161166e+01 6.969437e+01 6.079473e+01 7.020864e+01 6.884128e+01 5.675058e+01 5.990876e+01 5.439271e+01 4.781879e+01 4.879535e+01 3.685313e+01 3.371872e+00 3.322696e+00 3.272046e+00 3.405663e+00 3.781986e+00 3.798404e+00 3.456189e+00 3.668568e+00 3.411450e+00 3.164886e+00 3.026715e+00 2.440554e+00 2.956049e+00
<GCONST> 1.100322e+02
<TRANSP> 5
 0.000000e+00 1.000000e+00 0.000000e+00 0.000000e+00 0.000000e+00
 0.000000e+00 6.194660e-01 3.805340e-01 0.000000e+00 0.000000e+00
 0.000000e+00 0.000000e+00 6.194651e-01 3.805349e-01 0.000000e+00
 0.000000e+00 0.000000e+00 0.000000e+00 7.343603e-01 2.656397e-01
 0.000000e+00 0.000000e+00 0.000000e+00 0.000000e+00 0.000000e+00
<ENDHMM>
~h "d"
<BEGINHMM>
<NUMSTATES> 5
<STATE> 2
<MEAN> 25
 4.985783e-01 -1.619884e-02 9.681299e-01 1.849178e-01 -8.316674e-01 -6.869887e-01 -5.621019e-01 -4.401759e-03 -1.300992e-01 -2.380516e-01 6.540867e-02 -2.577156e-02 8.080795e-03 -3.618111e-03 4.616326e-03 -7.627528e-03 -3.923986e-03 -4.096659e-03 -1.402388e-03 1.925631e-03 -1.536376e-03 2.870059e-03 -6.895642e-04 -3.886092e-03 1.861455e-02
<VARIANCE> 25
 5.462817e+01 5.503465e+01 7.370844e+01 6.326817e+01 7.195087e+01 6.471108e+01 6.017637e+01 6.300377e+01 5.487687e+01 4.896789e+01 4.851354e+01 3.785355e+01 2.170587e+00 3.049965e+00 3.016100e+00 3.509310e+00 3.944922e+00 3.659842e+00 3.669944e+00 3.813582e+00 3.460856e+00 3.192816e+00 3.150487e+00 2.538725e+00 2.947198e+00
<GCONST> 1.096218e+02
<STATE> 3
<MEAN> 25
 5.134549e-01 -2.480076e-02 9.720686e-01 1.697568e-01 -8.383081e-01 -6.920609e-01 -5.622810e-01 -1.253786e-04 -1.312797e-01 -2.279164e-01 6.405681e-02 -3.520636e-02 3.352491e-03 -3.420682e-03 -9.678173e-04 -5.963642e-03 5.962450e-04 9.646756e-06 2.047763e-03 2.133143e-03 5.057472e-04 4.451653e-03 -2.544517e-04 -3.245966e-03 1.167120e-02
<VARIANCE> 25
 5.430524e+01 5.500385e+01 7.384524e+01 6.324268e+01 7.186929e+01 6.473502e+01 6.012341e+01 6.310003e+01 5.488950e+01 4.902430e+01 4.859843e+01 3.786511e+01 2.169115e+00 3.041426e+00 3.014429e+00 3.505541e+00 3.938939e+00 3.660321e+00 3.671156e+00 3.813365e+00 3.459048e+00 3.194641e+00 3.150072e+00 2.538315e+00 2.934047e+00
<GCONST> 1.096091e+02
<STATE> 4
<MEAN> 25
 5.452358e-01 -3.594849e-02 9.304454e-01 1.399507e-01 -8.163320e-01 -6.732864e-01 -5.439224e-01 -5.566764e-03 -1.299905e-01 -2.069149e-01 5.961408e-02 -6.022786e-02 -1.875476e-03 -1.839986e-03 -7.311962e-03 -2.324305e-03 6.083909e-03 3.841029e-03 5.410508e-03 1.914149e-03 2.104339e-03 4.986505e-03 4.361119e-04 -2.033904e-03 2.695186e-03
<VARIANCE> 25
 5.427091e+01 5.491265e+01 7.383868e+01 6.343505e+01 7.150617e+01 6.446449e+01 5.985040e+01 6.262946e+01 5.459840e+01 4.912128e+01 4.831427e+01 3.778550e+01 2.128183e+00 2.982091e+00 2.966698e+00 3.448085e+00 3.861131e+00 3.619068e+00 3.625994e+00 3.746384e+00 3.414656e+00 3.160606e+00 3.102154e+00 2.507897e+00 2.880549e+00
<GCONST> 1.093751e+02
<TRANSP> 5
 0.000000e+00 1.000000e+00 0.000000e+00 0.000000e+00 0.000000e+00
 0.000000e+00 6.206355e-01 3.793644e-01 0.000000e+00 0.000000e+00
 0.000000e+00 0.000000e+00 6.206362e-01 3.793638e-01 0.000000e+00
 0.000000e+00 0.000000e+00 0.000000e+00 7.350797e-01 2.649203e-01
 0.000000e+00 0.000000e+00 0.000000e+00 0.000000e+00 0.000000e+00
<ENDHMM>
~h "e"
<BEGINHMM>
<NUMSTATES> 5
<STATE> 2
<MEAN> 25
 -2.613419e-01 -2.290966e-01 2.248211e-01 2.310773e-01 -5.313718e-01 -5.148429e-01 5.932826e-01 3.560736e-01 -8.956816e-02 1.522500e-01 2.563171e-01 1.785633e-01 1.805798e-02 -1.411981e-03 3.959463e-03 -1.425496e-02 -1.886121e-03 4.586539e-03 -4.845734e-03 -6.615741e-03 -8.246941e-03 -7.429178e-05 4.031930e-03 -1.057440e-02 1.754995e-02
<VARIANCE> 25
 6.177680e+01 5.454816e+01 6.903842e+01 6.317540e+01 7.155032e+01 7.503593e+01 5.753173e+01 6.006384e+01 5.307718e+01 4.560624e+01 4.499068e+01 3.602203e+01 2.426369e+00 2.893431e+00 2.832841e+00 3.270522e+00 3.698973e+00 3.637934e+00 3.274969e+00 3.539100e+00 3.321904e+00 2.994805e+00 2.864938e+00 2.350730e+00 2.654361e+00
<GCONST> 1.087742e+02
<STATE> 3
<MEAN> 25
 -2.087657e-01 -2.275477e-01 2.318514e-01 1.968405e-01 -5.305812e-01 -5.051093e-01 5.772018e-01 3.352412e-01 -1.136131e-01 1.485664e-01 2.651302e-01 1.532718e-01 1.663703e-02 1.441917e-03 1.942456e-03 -1.084566e-02 1.577088e-03 6.453037e-03 -6.163362e-03 -7.023941e-03 -7.187281e-03 -9.213092e-04 2.756541e-03 -9.298729e-03 1.225711e-02
<VARIANCE> 25
 6.130735e+01 5.447492e+01 6.915637e+01 6.362507e+01 7.134308e+01 7.541816e+01 5.753633e+01 6.014006e+01 5.312852e+01 4.555458e+01 4.504320e+01 3.599610e+01 2.422826e+00 2.887935e+00 2.834032e+00 3.261430e+00 3.680731e+00 3.626994e+00 3.270323e+00 3.535868e+00 3.324236e+00 2.987967e+00 2.855966e+00 2.345690e+00 2.638295e+00
<GCONST> 1.087489e+02
<STATE> 4
<MEAN> 25
 -8.538511e-02 -2.117917e-01 2.181052e-01 1.381159e-01 -4.899822e-01 -4.704277e-01 5.145268e-01 2.643422e-01 -1.513771e-01 1.420969e-01 2.737097e-01 1.189822e-01 1.397054e-02 4.082365e-03 -6.453629e-04 -6.376837e-03 4.802446e-03 4.594572e-03 -8.459261e-03 -7.421331e-03 -7.701645e-03 -1.295265e-03 2.334772e-03 -5.737217e-03 5.972981e-03
<VARIANCE> 25
 6.099720e+01 5.412297e+01 6.937263e+01 6.447540e+01 7.079810e+01 7.531902e+01 5.725124e+01 5.985644e+01 5.316654e+01 4.562873e+01 4.496504e+01 3.586464e+01 2.345453e+00 2.817421e+00 2.782959e+00 3.186098e+00 3.577588e+00 3.561323e+00 3.216220e+00 3.461447e+00 3.283332e+00 2.948134e+00 2.812731e+00 2.309401e+00 2.561757e+00
<GCONST> 1.084625e+02
<TRANSP> 5
 0.000000e+00 1.000000e+00 0.000000e+00 0.000000e+00 0.000000e+00
 0.000000e+00 6.248491e-01 3.751509e-01 0.000000e+00 0.000000e+00
 0.000000e+00 0.000000e+00 6.248503e-01 3.751497e-01 0.000000e+00
 0.000000e+00 0.000000e+00 0.000000e+00 7.404422e-01 2.595578e-01
 0.000000e+00 0.000000e+00 0.000000e+00 0.000000e+00 0.000000e+00
<ENDHMM>
~h "f"
<BEGINHMM>
<NUMSTATES> 5
<STATE> 2
<MEAN> 25
 -5.368435e-01 -3.175725e-05 9.043535e-01 3.331294e-01 -3.514670e-01 -6.237452e-01 8.571831e-02 -3.129289e-01 -3.110228e-01 2.469354e-02 5.383000e-01 1.086593e-01 -6.681700e-03 7.466964e-03 8.052749e-03 5.325747e-03 3.348834e-03 -6.699867e-04 2.112505e-03 4.708069e-03 -3.562390e-03 -6.421136e-03 4.131687e-03 2.295814e-03 -4.314406e-03
<VARIANCE> 25
 6.490553e+01 5.416928e+01 8.486397e+01 6.788517e+01 7.472903e+01 7.314338e+01 5.757906e+01 5.999421e+01 5.671929e+01 4.596819e+01 4.655455e+01 3.633667e+01 3.115667e+00 2.947659e+00 3.346425e+00 3.747221e+00 4.216191e+00 3.897988e+00 3.567948e+00 3.654956e+00 3.594352e+00 3.097521e+00 3.020534e+00 2.427124e+00 2.783100e+00
<GCONST> 1.103635e+02
<STATE> 3
<MEAN> 25
 -5.545242e-01 1.437172e-02 9.092738e-01 3.471097e-01 -3.346051e-01 -6.234969e-01 1.015340e-01 -3.003245e-01 -3.103864e-01 1.351110e-02 5.468433e-01 1.149833e-01 -5.734101e-03 6.035919e-03 9.145699e-04 6.487197e-03 6.606395e-03 2.809412e-03 7.707772e-03 7.397553e-03 1.305957e-03 -4.668511e-03 2.258269e-03 1.782579e-03 -6.896428e-03
<VARIANCE> 25
 6.491001e+01 5.431731e+01 8.483832e+01 6.816032e+01 7.498476e+01 7.331895e+01 5.749101e+01 6.012143e+01 5.666240e+01 4.600190e+01 4.653878e+01 3.635715e+01 3.115090e+00 2.957019e+00 3.326298e+00 3.729756e+00 4.208586e+00 3.893172e+00 3.561011e+00 3.643061e+00 3.588478e+00 3.095534e+00 3.017063e+00 2.422780e+00 2.768479e+00
<GCONST> 1.103500e+02
<STATE> 4
<MEAN> 25
 -4.984295e-01 -2.729991e-03 8.894814e-01 3.242359e-01 -2.939308e-01 -6.384279e-01 1.347825e-01 -2.775185e-01 -3.086610e-01 -1.291921e-02 5.264928e-01 1.209885e-01 -3.812281e-03 2.580573e-03 -6.454923e-03 4.481629e-03 9.056225e-03 4.501061e-03 1.247023e-02 8.708565e-03 3.898982e-03 -2.224506e-03 -6.851465e-04 2.715952e-03 -9.391803e-03
<VARIANCE> 25
 6.446046e+01 5.431272e+01 8.422481e+01 6.832499e+01 7.478242e+01 7.298065e+01 5.752109e+01 5.981354e+01 5.647801e+01 4.599209e+01 4.635297e+01 3.651308e+01 3.040447e+00 2.923825e+00 3.267779e+00 3.661164e+00 4.133850e+00 3.858125e+00 3.524850e+00 3.589810e+00 3.562733e+00 3.068639e+00 2.985710e+00 2.407449e+00 2.728333e+00
<GCONST> 1.101519e+02
<TRANSP> 5
 0.000000e+00 1.000000e+00 0.000000e+00 0.000000e+00 0.000000e+00
 0.000000e+00 6.218784e-01 3.781216e-01 0.000000e+00 0.000000e+00
 0.000000e+00 0.000000e+00 6.218760e-01 3.781239e-01 0.000000e+00
 0.000000e+00 0.000000e+00 0.000000e+00 7.338836e-01 2.661165e-01
 0.000000e+00 0.000000e+00 0.000000e+00 0.000000e+00 0.000000e+00
<ENDHMM>
~h "g"
<BEGINHMM>
<NUMSTATES> 5
<STATE> 2
<MEAN> 25
 7.119386e-01 3.391839e-01 8.755271e-01 -1.114623e-01 -5.621887e-01 -4.056987e-01 -6.050026e-01 -3.981368e-01 -4.812324e-01 -1.657721e-02 5.359625e-03 -3.145063e-01 1.803259e-03 4.458363e-04 -5.017387e-03 1.977047e-03 5.336388e-03 3.159986e-03 -2.730358e-03 2.340120e-03 5.148785e-03 3.001010e-03 3.288204e-03 2.652285e-03 3.503296e-04
<VARIANCE> 25
 5.604482e+01 5.524175e+01 7.254751e+01 6.273699e+01 7.067230e+01 6.779565e+01 6.038287e+01 6.170156e+01 5.581832e+01 4.934016e+01 4.847756e+01 3.814610e+01 2.164280e+00 2.894977e+00 3.034557e+00 3.415196e+00 3.901412e+00 3.744140e+00 3.646676e+00 3.801502e+00 3.504963e+00 3.214941e+00 3.138599e+00 2.526986e+00 2.598986e+00
<GCONST> 1.094809e+02
<STATE> 3
<MEAN> 25
 7.154573e-01 3.367567e-01 8.558367e-01 -1.095997e-01 -5.449978e-01 -3.939348e-01 -6.078389e-01 -3.890664e-01 -4.661672e-01 -9.450701e-03 1.502682e-02 -3.066325e-01 -6.344521e-04 -1.616283e-03 -1.088384e-02 2.069571e-03 9.712075e-03 6.310362e-03 -6.291175e-04 4.427297e-03 7.951125e-03 2.587789e-03 2.817186e-03 3.491352e-03 -3.556360e-03
<VARIANCE> 25
 5.597265e+01 5.522825e+01 7.233344e+01 6.280981e+01 7.065984e+01 6.772780e+01 6.044329e+01 6.174728e+01 5.572999e+01 4.943161e+01 4.854293e+01 3.812542e+01 2.161228e+00 2.885730e+00 3.017067e+00 3.415117e+00 3.889028e+00 3.731176e+00 3.644152e+00 3.797778e+00 3.496279e+00 3.212559e+00 3.134936e+00 2.523296e+00 2.585532e+00
<GCONST> 1.094495e+02
<STATE> 4
<MEAN> 25
 7.402309e-01 3.053912e-01 8.066945e-01 -1.137247e-01 -4.970108e-01 -3.736508e-01 -6.040159e-01 -3.697907e-01 -4.292824e-01 -1.275911e-02 2.694960e-02 -2.944916e-01 -2.633160e-03 -3.459365e-03 -1.547262e-02 2.373513e-03 1.272152e-02 8.541152e-03 2.364926e-03 6.208082e-03 9.707830e-03 1.788229e-03 2.613850e-03 4.267057e-03 -7.412775e-03
<VARIANCE> 25
 5.661172e+01 5.546960e+01 7.221526e+01 6.310833e+01 7.046397e+01 6.726402e+01 6.025846e+01 6.130693e+01 5.546648e+01 4.974549e+01 4.835942e+01 3.806691e+01 2.119066e+00 2.842777e+00 2.960438e+00 3.362245e+00 3.809703e+00 3.667615e+00 3.593560e+00 3.724262e+00 3.444028e+00 3.176552e+00 3.086422e+00 2.492512e+00 2.545892e+00
<GCONST> 1.092345e+02
<TRANSP> 5
 0.000000e+00 1.000000e+00 0.000000e+00 0.000000e+00 0.000000e+00
 0.000000e+00 6.170391e-01 3.829609e-01 0.000000e+00 0.000000e+00
 0.000000e+00 0.000000e+00 6.170335e-01 3.829666e-01 0.000000e+00
 0.000000e+00 0.000000e+00 0.000000e+00 7.309219e-01 2.690781e-01
 0.000000e+00 0.000000e+00 0.000000e+00 0.000000e+00 0.000000e+00
<ENDHMM>
~h "h"
<BEGINHMM>
<NUMSTATES> 5
<STATE> 2
<MEAN> 25
 1.762580e-01 -5.784789e-01 -3.443893e-01 -5.233839e-01 2.915384e-01 3.367474e-01 3.306659e-01 1.376127e-01 1.345336e-01 -8.142580e-02 -1.388044e-01 -5.449952e-02 9.018268e-03 1.601442e-03 8.935499e-03 6.064169e-03 -1.844264e-03 -1.116363e-02 -2.869171e-03 -2.531778e-03 -9.547106e-03 -4.903854e-03 2.266833e-03 -3.492025e-03 1.183720e-02
<VARIANCE> 25
 5.937560e+01 5.587045e+01 6.936625e+01 6.601517e+01 7.215040e+01 6.872020e+01 5.953881e+01 5.922589e+01 5.212462e+01 4.875717e+01 4.694316e+01 3.692565e+01 2.228375e+00 2.692714e+00 2.763449e+00 3.266409e+00 3.635270e+00 3.498301e+00 3.481085e+00 3.503171e+00 3.228114e+00 3.044915e+00 2.915204e+00 2.406596e+00 2.597397e+00
<GCONST> 1.086822e+02
<STATE> 3
<MEAN> 25
 1.971614e-01 -5.652966e-01 -3.168377e-01 -4.989134e-01 2.886941e-01 3.056086e-01 3.183459e-01 1.277398e-01 1.129644e-01 -9.158295e-02 -1.306691e-01 -6.057274e-02 4.760095e-03 8.532742e-03 1.073272e-02 1.060517e-02 -1.854269e-03 -1.058922e-02 -4.743965e-03 -4.887858e-03 -7.854468e-03 -2.020872e-03 3.153051e-03 -1.281218e-03 2.285923e-03
<VARIANCE> 25
 5.901308e+01 5.590046e+01 6.955209e+01 6.574686e+01 7.207333e+01 6.849894e+01 5.947436e+01 5.927843e+01 5.215590e+01 4.884915e+01 4.699958e+01 3.693811e+01 2.219066e+00 2.689697e+00 2.764342e+00 3.247512e+00 3.621918e+00 3.490327e+00 3.475642e+00 3.502947e+00 3.226501e+00 3.046789e+00 2.907753e+00 2.406242e+00 2.578435e+00
<GCONST> 1.086465e+02
<STATE> 4
<MEAN> 25
 2.281173e-01 -5.253714e-01 -2.617130e-01 -4.561978e-01 2.918302e-01 2.696404e-01 2.908462e-01 1.048614e-01 8.518010e-02 -9.053025e-02 -1.035307e-01 -6.876215e-02 1.748381e-04 1.455627e-02 1.173000e-02 1.476936e-02 -1.704645e-03 -9.245424e-03 -6.452769e-03 -6.555161e-03 -5.795873e-03 5.711147e-04 4.987420e-03 1.013987e-03 -6.832983e-03
<VARIANCE> 25
 5.905872e+01 5.604139e+01 6.943986e+01 6.592383e+01 7.158795e+01 6.791938e+01 5.879757e+01 5.878332e+01 5.200394e+01 4.885014e+01 4.664140e+01 3.673257e+01 2.151952e+00 2.633298e+00 2.714841e+00 3.174255e+00 3.536427e+00 3.431277e+00 3.401700e+00 3.443663e+00 3.179713e+00 3.005439e+00 2.853745e+00 2.370868e+00 2.513780e+00
<GCONST> 1.083401e+02
<TRANSP> 5
 0.000000e+00 1.000000e+00 0.000000e+00 0.000000e+00 0.000000e+00
 0.000000e+00 6.230018e-01 3.769982e-01 0.000000e+00 0.000000e+00
 0.000000e+00 0.000000e+00 6.229996e-01 3.770004e-01 0.000000e+00
 0.000000e+00 0.000000e+00 0.000000e+00 7.407475e-01 2.592525e-01
 0.000000e+00 0.000000e+00 0.000000e+00 0.000000e+00 0.000000e+00
<ENDHMM>
~h "i"
<BEGINHMM>
<NUMSTATES> 5
<STATE> 2
<MEAN> 25
 -3.219800e-01 4.958377e-01 1.806701e+00 2.843430e-01 -1.007665e+00 -6.725514e-01 -2.760044e-01 -5.208526e-01 -6.615392e-01 -3.482989e-02 3.444811e-01 7.723352e-02 1.701848e-03 -4.114703e-03 -1.462902e-02 -3.240546e-03 7.387768e-03 6.175714e-03 7.586718e-04 3.918652e-03 7.385025e-03 -4.704877e-04 -4.901752e-03 7.828287e-04 -3.238998e-03
<VARIANCE> 25
 5.631089e+01 5.467378e+01 8.401073e+01 6.567095e+01 7.657178e+01 6.827873e+01 6.020447e+01 6.138324e+01 5.599568e+01 4.774535e+01 4.806577e+01 3.722293e+01 2.333222e+00 2.770326e+00 3.293700e+00 3.418198e+00 3.952011e+00 3.654872e+00 3.584604e+00 3.667658e+00 3.456409e+00 3.086498e+00 3.042614e+00 2.440099e+00 2.646598e+00
<GCONST> 1.096313e+02
<STATE> 3
<MEAN> 25
 -3.177594e-01 4.831550e-01 1.758791e+00 2.776145e-01 -9.806550e-01 -6.554248e-01 -2.712428e-01 -5.065410e-01 -6.385579e-01 -3.694959e-02 3.305096e-01 8.006508e-02 1.091012e-03 -7.050670e-03 -2.515834e-02 -2.044308e-03 1.476427e-02 9.708126e-03 3.523475e-03 7.613499e-03 1.162291e-02 -1.133856e-03 -7.058510e-03 1.770929e-03 -7.259136e-03
<VARIANCE> 25
 5.618231e+01 5.471045e+01 8.371622e+01 6.568296e+01 7.639486e+01 6.824332e+01 6.021281e+01 6.136303e+01 5.595191e+01 4.774094e+01 4.801658e+01 3.720638e+01 2.324490e+00 2.768742e+00 3.273880e+00 3.412437e+00 3.936250e+00 3.645912e+00 3.581316e+00 3.662876e+00 3.450451e+00 3.083721e+00 3.039906e+00 2.439083e+00 2.636883e+00
<GCONST> 1.095926e+02
<STATE> 4
<MEAN> 25
 -2.539428e-01 4.364050e-01 1.610590e+00 2.258166e-01 -8.824233e-01 -6.106070e-01 -2.794440e-01 -4.725978e-01 -5.706120e-01 -2.302140e-02 2.875943e-01 6.190365e-02 -7.540733e-05 -8.793979e-03 -3.229793e-02 5.657456e-05 2.051512e-02 1.231944e-02 5.973493e-03 1.048589e-02 1.379865e-02 -1.805544e-03 -7.367445e-03 2.814331e-03 -1.102667e-02
<VARIANCE> 25
 5.608281e+01 5.510342e+01 8.313497e+01 6.634777e+01 7.585699e+01 6.797909e+01 6.018293e+01 6.117500e+01 5.583308e+01 4.782696e+01 4.788418e+01 3.738819e+01 2.252252e+00 2.719035e+00 3.194325e+00 3.354806e+00 3.840049e+00 3.584402e+00 3.528220e+00 3.609232e+00 3.403917e+00 3.046230e+00 2.996612e+00 2.418723e+00 2.579654e+00
<GCONST> 1.093552e+02
<TRANSP> 5
 0.000000e+00 1.000000e+00 0.000000e+00 0.000000e+00 0.000000e+00
 0.000000e+00 6.225336e-01 3.774665e-01 0.000000e+00 0.000000e+00
 0.000000e+00 0.000000e+00 6.225262e-01 3.774737e-01 0.000000e+00
 0.000000e+00 0.000000e+00 0.000000e+00 7.413258e-01 2.586742e-01
 0.000000e+00 0.000000e+00 0.000000e+00 0.000000e+00 0.000000e+00
<ENDHMM>
~h "j"
<BEGINHMM>
<NUMSTATES> 5
<STATE> 2
<MEAN> 25
 -7.714323e-02 4.579415e-01 1.301880e+00 3.872439e-01 -6.438292e-01 -9.880213e-01 -4.902576e-01 4.224007e-02 -1.635346e-01 -2.989520e-01 2.446502e-01 1.976971e-01 1.499893e-02 1.973823e-03 1.778207e-02 -5.568415e-03 -6.234782e-03 -6.114931e-03 -6.817710e-03 2.548872e-03 -5.045502e-03 -6.973639e-04 -8.707747e-03 -7.183684e-03 2.182423e-02
<VARIANCE> 25
 5.432325e+01 5.506868e+01 7.127059e+01 5.860527e+01 6.836071e+01 6.504604e+01 5.995601e+01 5.903041e+01 5.246114e+01 4.686718e+01 4.469765e+01 3.718578e+01 2.532562e+00 3.087654e+00 3.136459e+00 3.301145e+00 4.113202e+00 3.761583e+00 3.705446e+00 3.712214e+00 3.409301e+00 3.133052e+00 3.006485e+00 2.490558e+00 2.746306e+00
<GCONST> 1.092291e+02
<STATE> 3
<MEAN> 25
 -4.400857e-02 4.598273e-01 1.344818e+00 3.776421e-01 -6.566460e-01 -9.978598e-01 -5.039762e-01 4.675304e-02 -1.799609e-01 -2.987679e-01 2.203338e-01 1.799406e-01 1.355237e-02 -2.611149e-03 1.293823e-02 -2.728292e-03 -1.293577e-03 -2.052941e-04 -4.369095e-03 3.412661e-03 -6.509563e-03 1.834230e-03 -9.868690e-03 -7.355521e-03 1.311242e-02
<VARIANCE> 25
 5.363488e+01 5.501595e+01 7.184791e+01 5.889216e+01 6.838837e+01 6.493761e+01 5.994707e+01 5.894753e+01 5.258653e+01 4.696484e+01 4.489154e+01 3.709825e+01 2.503153e+00 3.075904e+00 3.141065e+00 3.305702e+00 4.103773e+00 3.760080e+00 3.695344e+00 3.698116e+00 3.409151e+00 3.126948e+00 3.002143e+00 2.484396e+00 2.741550e+00
<GCONST> 1.092024e+02
<STATE> 4
<MEAN> 25
 8.606502e-03 4.066734e-01 1.329898e+00 3.343126e-01 -6.179813e-01 -9.743316e-01 -4.843100e-01 2.509811e-02 -2.402858e-01 -2.838048e-01 1.910665e-01 1.191988e-01 7.737346e-03 -3.285201e-03 5.829992e-03 4.654795e-04 5.967400e-03 7.559348e-03 -1.794689e-03 3.302638e-03 -7.067602e-03 3.871296e-03 -8.857724e-03 -6.172467e-03 -6.046502e-04
<VARIANCE> 25
 5.262189e+01 5.490688e+01 7.242069e+01 5.998132e+01 6.851722e+01 6.459528e+01 5.936349e+01 5.852288e+01 5.292896e+01 4.732730e+01 4.489680e+01 3.695331e+01 2.392154e+00 2.993435e+00 3.081114e+00 3.255532e+00 4.005584e+00 3.697902e+00 3.623323e+00 3.636279e+00 3.375222e+00 3.089938e+00 2.960942e+00 2.440576e+00 2.681298e+00
<GCONST> 1.089373e+02
<TRANSP> 5
 0.000000e+00 1.000000e+00 0.000000e+00 0.000000e+00 0.000000e+00
 0.000000e+00 6.219451e-01 3.780549e-01 0.000000e+00 0.000000e+00
 0.000000e+00 0.000000e+00 6.219453e-01 3.780547e-01 0.000000e+00
 0.000000e+00 0.000000e+00 0.000000e+00 7.405730e-01 2.594270e-01
 0.000000e+00 0.000000e+00 0.000000e+00 0.000000e+00 0.000000e+00
<ENDHMM>
~h "k"
<BEGINHMM>
<NUMSTATES> 5
<STATE> 2
<MEAN> 25
 2.364591e-04 -3.138693e-01 -6.062716e-01 -2.419274e-01 2.462889e-01 7.487892e-02 2.158992e-01 7.804687e-02 1.041391e-01 2.054284e-01 1.348041e-02 -7.840989e-02 1.487446e-02 -3.066869e-03 6.112876e-04 -2.876928e-03 -7.681212e-03 -6.473602e-03 -1.910644e-03 -7.771033e-03 -8.801212e-04 -1.945782e-04 -2.591178e-03 -4.764015e-03 1.858104e-02
<VARIANCE> 25
 5.679592e+01 5.525187e+01 6.931263e+01 6.376120e+01 7.004440e+01 6.701809e+01 5.592025e+01 5.791004e+01 5.193269e+01 4.755921e+01 4.644646e+01 3.707455e+01 2.470994e+00 2.992022e+00 3.060838e+00 3.570328e+00 3.900706e+00 3.754261e+00 3.570167e+00 3.705162e+00 3.473996e+00 3.208251e+00 3.075924e+00 2.544276e+00 3.083267e+00
<GCONST> 1.094449e+02
<STATE> 3
<MEAN> 25
 3.439172e-02 -3.225492e-01 -5.979687e-01 -2.437067e-01 2.243810e-01 5.750558e-02 2.112083e-01 5.923379e-02 1.008276e-01 2.011763e-01 3.128783e-03 -8.994801e-02 1.346886e-02 -2.456666e-03 5.259242e-03 1.931225e-05 -9.761192e-03 -5.200690e-03 -2.740185e-03 -8.307250e-03 -1.687683e-03 -2.857536e-03 -3.529498e-03 -4.344349e-03 1.548057e-02
<VARIANCE> 25
 5.648193e+01 5.527671e+01 6.923296e+01 6.367358e+01 6.993948e+01 6.692269e+01 5.597043e+01 5.797448e+01 5.199091e+01 4.757399e+01 4.653513e+01 3.707983e+01 2.465099e+00 2.988111e+00 3.057420e+00 3.563539e+00 3.898045e+00 3.752936e+00 3.565160e+00 3.710506e+00 3.479052e+00 3.207045e+00 3.080503e+00 2.542609e+00 3.060684e+00
<GCONST> 1.094267e+02
<STATE> 4
<MEAN> 25
 7.688504e-02 -3.007603e-01 -5.433442e-01 -2.190908e-01 1.659963e-01 3.848111e-02 1.907964e-01 3.205713e-02 9.591743e-02 1.741308e-01 -1.686710e-02 -1.002658e-01 9.308821e-03 -1.316177e-03 8.211159e-03 3.775346e-03 -8.422070e-03 -2.935142e-03 -3.406139e-03 -6.504371e-03 -1.304290e-03 -3.735408e-03 -3.943012e-03 -3.309660e-03 9.301652e-03
<VARIANCE> 25
 5.595924e+01 5.522666e+01 6.877232e+01 6.358687e+01 6.938132e+01 6.621072e+01 5.581511e+01 5.742390e+01 5.187851e+01 4.752011e+01 4.631173e+01 3.688540e+01 2.386803e+00 2.928514e+00 2.993678e+00 3.485089e+00 3.804399e+00 3.684322e+00 3.507895e+00 3.646192e+00 3.432899e+00 3.162088e+00 3.037339e+00 2.503131e+00 2.970487e+00
<GCONST> 1.091047e+02
<TRANSP> 5
 0.000000e+00 1.000000e+00 0.000000e+00 0.000000e+00 0.000000e+00
 0.000000e+00 6.201339e-01 3.798661e-01 0.000000e+00 0.000000e+00
 0.000000e+00 0.000000e+00 6.201328e-01 3.798671e-01 0.000000e+00
 0.000000e+00 0.000000e+00 0.000000e+00 7.363148e-01 2.636853e-01
 0.000000e+00 0.000000e+00 0.000000e+00 0.000000e+00 0.000000e+00
<ENDHMM>
~h "l"
<BEGINHMM>
<NUMSTATES> 5
<STATE> 2
<MEAN> 25
 6.895213e-01 -2.560898e-01 -3.414606e-01 -6.200882e-01 -2.356574e-02 -7.570195e-03 -4.476103e-01 -3.395962e-01 2.884665e-01 1.520660e-01 -1.850298e-01 -2.527456e-01 -2.785095e-03 4.691719e-03 1.295685e-02 7.735111e-03 2.630132e-03 -4.864489e-03 3.419307e-03 -1.249761e-03 -5.732748e-03 -2.276325e-03 3.010239e-03 1.513142e-03 -1.408095e-04
<VARIANCE> 25
 5.975047e+01 5.483790e+01 6.890879e+01 6.546819e+01 6.966711e+01 6.841633e+01 6.054978e+01 6.263755e+01 5.445169e+01 5.083372e+01 4.838910e+01 3.804120e+01 2.234382e+00 2.749546e+00 2.825525e+00 3.358544e+00 3.641243e+00 3.632170e+00 3.553340e+00 3.723049e+00 3.403385e+00 3.168287e+00 3.018357e+00 2.459553e+00 2.476418e+00
<GCONST> 1.091295e+02
<STATE> 3
<MEAN> 25
 6.745352e-01 -2.443455e-01 -3.081833e-01 -5.956252e-01 -1.584895e-02 -1.680250e-02 -4.342557e-01 -3.405906e-01 2.724484e-01 1.451838e-01 -1.757699e-01 -2.445398e-01 -8.909871e-03 6.001968e-03 1.370843e-02 1.085164e-02 3.078137e-03 -3.599133e-03 7.760782e-03 8.368940e-04 -7.500120e-03 -3.320508e-03 4.681658e-03 3.549689e-03 -7.347589e-03
<VARIANCE> 25
 5.933332e+01 5.474580e+01 6.908986e+01 6.538557e+01 6.976093e+01 6.841082e+01 6.054718e+01 6.262559e+01 5.442193e+01 5.083456e+01 4.841551e+01 3.803139e+01 2.224806e+00 2.743614e+00 2.827739e+00 3.355820e+00 3.641459e+00 3.628149e+00 3.550615e+00 3.716038e+00 3.398108e+00 3.162496e+00 3.018312e+00 2.456842e+00 2.468574e+00
<GCONST> 1.091051e+02
<STATE> 4
<MEAN> 25
 6.571941e-01 -2.352364e-01 -2.447819e-01 -5.512410e-01 -1.944269e-02 -4.006184e-02 -4.097736e-01 -3.309175e-01 2.334343e-01 1.233740e-01 -1.546402e-01 -2.270397e-01 -1.434893e-02 6.846097e-03 1.257218e-02 1.400079e-02 3.950474e-03 -4.996492e-04 1.124612e-02 3.127463e-03 -8.629633e-03 -3.965575e-03 6.304063e-03 5.769167e-03 -1.482850e-02
<VARIANCE> 25
 5.924904e+01 5.475705e+01 6.935384e+01 6.541795e+01 6.983468e+01 6.803928e+01 6.039342e+01 6.224264e+01 5.420037e+01 5.095838e+01 4.825676e+01 3.799759e+01 2.177022e+00 2.710512e+00 2.799748e+00 3.313382e+00 3.591337e+00 3.584710e+00 3.506482e+00 3.656778e+00 3.356525e+00 3.131727e+00 2.986276e+00 2.433821e+00 2.439209e+00
<GCONST> 1.089241e+02
<TRANSP> 5
 0.000000e+00 1.000000e+00 0.000000e+00 0.000000e+00 0.000000e+00
 0.000000e+00 6.175128e-01 3.824873e-01 0.000000e+00 0.000000e+00
 0.000000e+00 0.000000e+00 6.175143e-01 3.824858e-01 0.000000e+00
 0.000000e+00 0.000000e+00 0.000000e+00 7.303439e-01 2.696561e-01
 0.000000e+00 0.000000e+00 0.000000e+00 0.000000e+00 0.000000e+00
<ENDHMM>
~h "m"
<BEGINHMM>
<NUMSTATES> 5
<STATE> 2
<MEAN> 25
 9.670299e-01 5.283979e-02 -1.898609e-01 -1.391937e-01 1.927630e-01 3.511913e-01 -2.481024e-01 -4.000255e-01 -2.623644e-01 -1.784679e-01 -2.703977e-01 -3.810052e-01 6.768071e-03 -7.582599e-04 3.243838e-03 1.050817e-03 1.079444e-03 -5.321551e-03 2.501752e-03 4.722901e-03 -6.134713e-03 -4.614555e-03 -8.960064e-03 -3.273264e-03 1.362859e-02
<VARIANCE> 25
 5.822422e+01 5.496010e+01 6.642795e+01 6.162069e+01 6.780835e+01 6.606035e+01 5.715136e+01 6.052983e+01 5.462710e+01 4.790367e+01 4.640270e+01 3.732041e+01 2.287583e+00 2.914036e+00 2.982117e+00 3.524880e+00 3.653453e+00 3.636133e+00 3.476997e+00 3.784667e+00 3.499352e+00 3.109914e+00 3.059038e+00 2.460565e+00 2.568264e+00
<GCONST> 1.089798e+02
<STATE> 3
<MEAN> 25
 9.781162e-01 5.209855e-02 -1.819742e-01 -1.351890e-01 1.938691e-01 3.354897e-01 -2.399999e-01 -3.863151e-01 -2.792978e-01 -1.897047e-01 -2.899679e-01 -3.888477e-01 -1.121622e-03 1.567479e-04 3.974570e-03 1.390287e-03 9.489676e-05 -8.032908e-03 4.343151e-03 7.607182e-03 -4.638446e-03 -3.295580e-03 -6.554202e-03 -7.897277e-04 9.864434e-03
<VARIANCE> 25
 5.809581e+01 5.498862e+01 6.652351e+01 6.160695e+01 6.785464e+01 6.602182e+01 5.726301e+01 6.059784e+01 5.467783e+01 4.789965e+01 4.641326e+01 3.739706e+01 2.291701e+00 2.911884e+00 2.985342e+00 3.523662e+00 3.656213e+00 3.632739e+00 3.478561e+00 3.785604e+00 3.500099e+00 3.110025e+00 3.057535e+00 2.462080e+00 2.558338e+00
<GCONST> 1.089844e+02
<STATE> 4
<MEAN> 25
 9.684354e-01 4.368280e-02 -1.498408e-01 -1.235423e-01 1.779101e-01 2.776546e-01 -2.252958e-01 -3.500644e-01 -2.841822e-01 -1.957204e-01 -2.930096e-01 -3.951480e-01 -7.584989e-03 9.865161e-04 4.468596e-03 2.101869e-03 -1.350893e-03 -9.177024e-03 5.974545e-03 9.074761e-03 -2.126303e-03 -1.263552e-03 -2.725269e-03 1.352667e-03 4.520666e-03
<VARIANCE> 25
 5.833989e+01 5.513730e+01 6.673505e+01 6.162197e+01 6.799418e+01 6.583076e+01 5.735770e+01 6.033324e+01 5.460485e+01 4.804179e+01 4.622998e+01 3.749450e+01 2.251015e+00 2.869084e+00 2.944411e+00 3.460408e+00 3.608547e+00 3.589751e+00 3.441812e+00 3.725184e+00 3.455630e+00 3.078971e+00 3.012208e+00 2.441831e+00 2.515753e+00
<GCONST> 1.088123e+02
<TRANSP> 5
 0.000000e+00 1.000000e+00 0.000000e+00 0.000000e+00 0.000000e+00
 0.000000e+00 6.176460e-01 3.823539e-01 0.000000e+00 0.000000e+00
 0.000000e+00 0.000000e+00 6.176393e-01 3.823607e-01 0.000000e+00
 0.000000e+00 0.000000e+00 0.000000e+00 7.310745e-01 2.689255e-01
 0.000000e+00 0.000000e+00 0.000000e+00 0.000000e+00 0.000000e+00
<ENDHMM>
~h "n"
<BEGINHMM>
<NUMSTATES> 5
<STATE> 2
<MEAN> 25
 6.330848e-01 -6.567030e-02 3.844263e-01 2.015440e-01 -1.603397e-01 -7.099526e-02 -1.652928e-01 -1.253013e-01 -2.351601e-01 -1.659564e-01 -4.095962e-01 -2.022952e-01 -1.207916e-02 6.656920e-03 -2.030752e-03 1.127911e-03 8.454069e-03 5.885781e-03 4.369799e-03 1.529105e-03 -2.665677e-03 -1.025448e-03 4.698303e-03 6.821703e-03 -1.280512e-02
<VARIANCE> 25
 5.482278e+01 5.645312e+01 6.953880e+01 6.182275e+01 6.911281e+01 6.416203e+01 5.704984e+01 6.039059e+01 5.284835e+01 4.754241e+01 4.761070e+01 3.671872e+01 2.265397e+00 3.001026e+00 2.975196e+00 3.466733e+00 3.703701e+00 3.603570e+00 3.500360e+00 3.861035e+00 3.397261e+00 3.135727e+00 3.062398e+00 2.454834e+00 2.715064e+00
<GCONST> 1.090151e+02
<STATE> 3
<MEAN> 25
 5.953657e-01 -4.811923e-02 3.759942e-01 2.055449e-01 -1.373538e-01 -5.297529e-02 -1.518492e-01 -1.209212e-01 -2.398226e-01 -1.653044e-01 -3.931634e-01 -1.827417e-01 -1.654010e-02 6.723715e-03 -5.294262e-03 8.061929e-04 9.385474e-03 6.861982e-03 5.609089e-03 2.272296e-03 -1.332491e-03 4.915078e-04 8.241496e-03 8.555482e-03 -1.709983e-02
<VARIANCE> 25
 5.489922e+01 5.642069e+01 6.935390e+01 6.180618e+01 6.919480e+01 6.413704e+01 5.706665e+01 6.034968e+01 5.283620e+01 4.749987e+01 4.754541e+01 3.672517e+01 2.261915e+00 2.989257e+00 2.963128e+00 3.456432e+00 3.696423e+00 3.597854e+00 3.497018e+00 3.849048e+00 3.390345e+00 3.127347e+00 3.055623e+00 2.451231e+00 2.701118e+00
<GCONST> 1.089774e+02
<STATE> 4
<MEAN> 25
 5.533237e-01 -3.057658e-02 3.531343e-01 1.994210e-01 -1.133500e-01 -3.706862e-02 -1.393249e-01 -1.169140e-01 -2.385202e-01 -1.524815e-01 -3.527334e-01 -1.600008e-01 -1.941006e-02 6.288077e-03 -7.496985e-03 1.122692e-03 8.899721e-03 7.352619e-03 6.134339e-03 2.711994e-03 1.322360e-04 2.318455e-03 1.063730e-02 9.353312e-03 -2.087353e-02
<VARIANCE> 25
 5.509876e+01 5.635391e+01 6.919942e+01 6.183258e+01 6.922799e+01 6.385958e+01 5.699483e+01 5.974312e+01 5.261065e+01 4.738926e+01 4.724332e+01 3.675391e+01 2.215946e+00 2.931344e+00 2.910647e+00 3.392913e+00 3.638112e+00 3.554175e+00 3.455449e+00 3.770505e+00 3.345935e+00 3.085402e+00 3.010793e+00 2.424421e+00 2.654525e+00
<GCONST> 1.087435e+02
<TRANSP> 5
 0.000000e+00 1.000000e+00 0.000000e+00 0.000000e+00 0.000000e+00
 0.000000e+00 6.155204e-01 3.844796e-01 0.000000e+00 0.000000e+00
 0.000000e+00 0.000000e+00 6.155355e-01 3.844646e-01 0.000000e+00
 0.000000e+00 0.000000e+00 0.000000e+00 7.286018e-01 2.713982e-01
 0.000000e+00 0.000000e+00 0.000000e+00 0.000000e+00 0.000000e+00
<ENDHMM>
~h "o"
<BEGINHMM>
<NUMSTATES> 5
<STATE> 2
<MEAN> 25
 6.241181e-01 1.778406e-01 -1.110219e+00 -1.187893e+00 1.106086e-01 8.065277e-01 -7.847156e-02 -2.214865e-01 2.984444e-01 3.423102e-01 2.854749e-01 -1.204222e-01 6.744817e-03 -5.293950e-03 4.984982e-03 -9.291956e-03 -3.144197e-03 -2.646279e-03 1.096049e-02 2.777793e-03 -8.505237e-03 -2.021448e-04 -3.796809e-03 -6.333762e-03 1.506084e-02
<VARIANCE> 25
 6.129338e+01 4.975053e+01 6.451179e+01 7.330386e+01 6.823332e+01 7.118556e+01 5.712962e+01 5.782066e+01 5.200820e+01 5.055429e+01 4.524716e+01 3.641901e+01 2.353543e+00 2.614395e+00 2.748705e+00 3.739027e+00 3.609821e+00 3.650760e+00 3.420523e+00 3.490298e+00 3.302382e+00 3.126121e+00 2.933009e+00 2.426899e+00 2.621739e+00
<GCONST> 1.087698e+02
<STATE> 3
<MEAN> 25
 6.227010e-01 1.697658e-01 -1.087907e+00 -1.192231e+00 1.053449e-01 7.870963e-01 -4.754957e-02 -2.062208e-01 2.694651e-01 3.431297e-01 2.814954e-01 -1.325780e-01 -5.532549e-03 -3.450519e-03 1.328176e-02 6.021656e-03 -2.948341e-03 -9.822431e-03 1.361327e-02 7.501444e-03 -9.828797e-03 -1.490811e-03 -2.202848e-03 -2.003836e-03 4.173427e-03
<VARIANCE> 25
 6.091280e+01 4.975632e+01 6.479031e+01 7.320762e+01 6.830820e+01 7.120213e+01 5.697511e+01 5.799946e+01 5.190166e+01 5.057413e+01 4.530445e+01 3.640506e+01 2.336174e+00 2.607141e+00 2.748927e+00 3.700708e+00 3.607843e+00 3.647783e+00 3.418273e+00 3.489963e+00 3.290353e+00 3.120933e+00 2.933888e+00 2.420726e+00 2.596761e+00
<GCONST> 1.087280e+02
<STATE> 4
<MEAN> 25
 5.760358e-01 1.779831e-01 -9.599173e-01 -1.109082e+00 3.874100e-02 6.806635e-01 -3.203587e-02 -1.627437e-01 2.042854e-01 3.200212e-01 2.857604e-01 -1.406474e-01 -1.780855e-02 -1.731517e-03 2.235823e-02 2.097762e-02 -3.859038e-03 -1.598809e-02 1.428381e-02 1.057453e-02 -1.020599e-02 -3.591829e-03 6.706741e-04 9.814815e-04 -7.118871e-03
<VARIANCE> 25
 5.971330e+01 4.929274e+01 6.476096e+01 7.309239e+01 6.833028e+01 7.022356e+01 5.608508e+01 5.742063e+01 5.139841e+01 5.026494e+01 4.458526e+01 3.629769e+01 2.212804e+00 2.504146e+00 2.675318e+00 3.538182e+00 3.519603e+00 3.563328e+00 3.325175e+00 3.416876e+00 3.222159e+00 3.057017e+00 2.871622e+00 2.370410e+00 2.488024e+00
<GCONST> 1.082322e+02
<TRANSP> 5
 0.000000e+00 1.000000e+00 0.000000e+00 0.000000e+00 0.000000e+00
 0.000000e+00 6.280706e-01 3.719295e-01 0.000000e+00 0.000000e+00
 0.000000e+00 0.000000e+00 6.280664e-01 3.719336e-01 0.000000e+00
 0.000000e+00 0.000000e+00 0.000000e+00 7.522381e-01 2.477618e-01
 0.000000e+00 0.000000e+00 0.000000e+00 0.000000e+00 0.000000e+00
<ENDHMM>
~h "p"
<BEGINHMM>
<NUMSTATES> 5
<STATE> 2
<MEAN> 25
 4.264087e-01 -2.760688e-01 -8.343306e-01 -2.546423e-01 5.633151e-02 2.356019e-01 6.718711e-02 -2.899353e-02 2.652483e-01 2.037280e-01 9.779791e-03 -2.084140e-01 9.796700e-03 -2.115989e-03 5.860108e-03 -4.694825e-03 -9.786633e-03 -2.388393e-03 1.404891e-03 -8.427222e-03 -5.225625e-03 9.873373e-05 -4.673881e-03 -6.099786e-03 1.339289e-02
<VARIANCE> 25
 5.900146e+01 5.579560e+01 6.915399e+01 6.308394e+01 6.552426e+01 6.415915e+01 5.624212e+01 5.805826e+01 5.183555e+01 4.727991e+01 4.594896e+01 3.705093e+01 2.625240e+00 3.096785e+00 3.061609e+00 3.657231e+00 3.692418e+00 3.755930e+00 3.556276e+00 3.701591e+00 3.428914e+00 3.211582e+00 3.115352e+00 2.568163e+00 3.398933e+00
<GCONST> 1.095262e+02
<STATE> 3
<MEAN> 25
 4.426779e-01 -2.780224e-01 -8.127335e-01 -2.632389e-01 3.318675e-02 2.296046e-01 7.207517e-02 -4.824311e-02 2.517287e-01 2.019858e-01 -5.479719e-04 -2.189869e-01 4.764403e-03 1.221257e-03 1.089059e-02 -2.825997e-03 -9.766111e-03 -3.402948e-03 2.958828e-03 -7.799618e-03 -6.385447e-03 -9.305873e-04 -3.728534e-03 -3.166159e-03 1.085112e-02
<VARIANCE> 25
 5.862042e+01 5.574230e+01 6.935512e+01 6.303239e+01 6.566443e+01 6.411869e+01 5.623517e+01 5.814195e+01 5.195022e+01 4.727649e+01 4.592912e+01 3.702944e+01 2.620935e+00 3.094989e+00 3.069466e+00 3.657036e+00 3.697598e+00 3.759868e+00 3.553329e+00 3.704987e+00 3.430506e+00 3.215557e+00 3.116194e+00 2.567821e+00 3.388198e+00
<GCONST> 1.095263e+02
<STATE> 4
<MEAN> 25
 4.587883e-01 -2.673819e-01 -7.463149e-01 -2.605518e-01 -3.868136e-03 1.990846e-01 6.123995e-02 -6.848662e-02 2.255590e-01 1.780569e-01 -1.415196e-02 -2.150501e-01 -1.384755e-03 3.958392e-03 1.377796e-02 -1.058821e-03 -7.997723e-03 -3.300307e-03 3.971661e-03 -5.513259e-03 -5.804949e-03 -1.963156e-03 -1.842554e-03 3.034456e-04 5.714174e-03
<VARIANCE> 25
 5.842280e+01 5.578749e+01 6.987878e+01 6.317546e+01 6.582942e+01 6.374434e+01 5.633895e+01 5.790873e+01 5.189470e+01 4.743223e+01 4.570582e+01 3.700716e+01 2.552764e+00 3.038843e+00 3.029350e+00 3.595369e+00 3.644432e+00 3.708502e+00 3.512859e+00 3.649440e+00 3.387664e+00 3.181867e+00 3.073425e+00 2.538774e+00 3.301506e+00
<GCONST> 1.093209e+02
<TRANSP> 5
 0.000000e+00 1.000000e+00 0.000000e+00 0.000000e+00 0.000000e+00
 0.000000e+00 6.172876e-01 3.827124e-01 0.000000e+00 0.000000e+00
 0.000000e+00 0.000000e+00 6.172841e-01 3.827159e-01 0.000000e+00
 0.000000e+00 0.000000e+00 0.000000e+00 7.315050e-01 2.684950e-01
 0.000000e+00 0.000000e+00 0.000000e+00 0.000000e+00 0.000000e+00
<ENDHMM>
~h "r"
<BEGINHMM>
<NUMSTATES> 5
<STATE> 2
<MEAN> 25
 6.125877e-01 -5.708718e-01 -2.294239e-01 7.620294e-03 -2.671235e-01 -3.636207e-01 -1.383472e-01 9.357415e-02 1.570797e-01 7.864393e-02 3.072758e-02 -1.081644e-01 -2.830431e-03 3.633352e-03 6.980684e-03 1.272193e-03 2.742424e-03 3.566196e-03 3.391236e-03 1.798621e-03 -8.840666e-03 -4.965756e-03 -6.459483e-04 1.310613e-03 -6.057439e-03
<VARIANCE> 25
 5.804442e+01 5.717896e+01 7.127129e+01 6.062093e+01 6.933191e+01 6.537846e+01 5.822594e+01 6.027243e+01 5.466337e+01 4.801871e+01 4.720332e+01 3.730145e+01 2.503950e+00 3.025367e+00 3.008298e+00 3.425799e+00 3.782549e+00 3.661215e+00 3.552781e+00 3.755312e+00 3.515574e+00 3.186956e+00 3.098349e+00 2.528119e+00 2.885719e+00
<GCONST> 1.094651e+02
<STATE> 3
<MEAN> 25
 6.021944e-01 -5.589897e-01 -2.134436e-01 1.036435e-02 -2.589917e-01 -3.528115e-01 -1.286283e-01 9.746172e-02 1.369851e-01 6.650715e-02 2.974539e-02 -1.046598e-01 -5.717188e-03 7.343980e-03 6.198220e-03 8.738141e-04 4.906263e-03 5.285719e-03 4.305551e-03 1.253108e-03 -9.017512e-03 -5.514277e-03 7.919275e-05 1.985356e-03 -1.086160e-02
<VARIANCE> 25
 5.796432e+01 5.720587e+01 7.142499e+01 6.065286e+01 6.938921e+01 6.539976e+01 5.825282e+01 6.024458e+01 5.460600e+01 4.804733e+01 4.718062e+01 3.727054e+01 2.494278e+00 3.019435e+00 3.003575e+00 3.417045e+00 3.777071e+00 3.655226e+00 3.547212e+00 3.744582e+00 3.505101e+00 3.183762e+00 3.091126e+00 2.520916e+00 2.870057e+00
<GCONST> 1.094342e+02
<STATE> 4
<MEAN> 25
 6.020337e-01 -5.212029e-01 -1.664908e-01 -7.585176e-03 -2.530895e-01 -3.292344e-01 -1.393107e-01 9.356163e-02 1.070312e-01 5.394305e-02 2.936989e-02 -1.068062e-01 -8.745081e-03 1.004593e-02 4.759572e-03 9.850239e-04 6.337651e-03 6.542566e-03 5.472443e-03 5.684361e-04 -7.554940e-03 -5.045991e-03 5.163311e-04 2.419886e-03 -1.486221e-02
<VARIANCE> 25
 5.757188e+01 5.717500e+01 7.137580e+01 6.108062e+01 6.925912e+01 6.528017e+01 5.818748e+01 5.980894e+01 5.448137e+01 4.810765e+01 4.683977e+01 3.728008e+01 2.421151e+00 2.957382e+00 2.954068e+00 3.358278e+00 3.714432e+00 3.613068e+00 3.503083e+00 3.685175e+00 3.458072e+00 3.148294e+00 3.042483e+00 2.487496e+00 2.811017e+00
<GCONST> 1.091971e+02
<TRANSP> 5
 0.000000e+00 1.000000e+00 0.000000e+00 0.000000e+00 0.000000e+00
 0.000000e+00 6.146427e-01 3.853573e-01 0.000000e+00 0.000000e+00
 0.000000e+00 0.000000e+00 6.146429e-01 3.853571e-01 0.000000e+00
 0.000000e+00 0.000000e+00 0.000000e+00 7.297658e-01 2.702342e-01
 0.000000e+00 0.000000e+00 0.000000e+00 0.000000e+00 0.000000e+00
<ENDHMM>
~h "s"
<BEGINHMM>
<NUMSTATES> 5
<STATE> 2
<MEAN> 25
 -1.301751e+00 3.586409e-01 1.810397e-01 6.987314e-02 3.529671e-01 -5.565572e-01 4.385477e-01 2.866950e-02 1.363282e-01 -4.665462e-02 2.272333e-01 2.209620e-01 1.325166e-02 -5.352943e-03 4.293558e-03 -4.219733e-03 -5.331866e-03 -2.679781e-03 -2.036408e-03 -7.917582e-04 -4.332127e-03 -4.518983e-03 -4.693788e-03 -3.567686e-03 7.272769e-03
<VARIANCE> 25
 7.560187e+01 6.038334e+01 7.473970e+01 6.261009e+01 7.317976e+01 6.972850e+01 6.080711e+01 6.044999e+01 5.309553e+01 4.701961e+01 4.611320e+01 3.677181e+01 3.433943e+00 3.060908e+00 3.139023e+00 3.314637e+00 3.816760e+00 3.665166e+00 3.640444e+00 3.623763e+00 3.362667e+00 3.107336e+00 3.017524e+00 2.431552e+00 2.450338e+00
<GCONST> 1.099779e+02
<STATE> 3
<MEAN> 25
 -1.261174e+00 3.393092e-01 1.926810e-01 5.631117e-02 3.401184e-01 -5.566340e-01 4.315148e-01 2.606747e-02 1.250002e-01 -5.763222e-02 2.151302e-01 2.105586e-01 2.181612e-02 -9.445416e-03 4.147841e-03 -4.413053e-03 -7.382235e-03 1.810822e-03 -4.522751e-03 -1.760573e-03 -5.170485e-03 -3.447790e-03 -5.407559e-03 -4.983073e-03 3.286487e-03
<VARIANCE> 25
 7.508932e+01 6.021378e+01 7.464960e+01 6.249503e+01 7.301631e+01 6.957711e+01 6.069282e+01 6.042896e+01 5.304486e+01 4.692583e+01 4.605713e+01 3.673177e+01 3.417831e+00 3.057441e+00 3.133362e+00 3.310981e+00 3.808622e+00 3.663583e+00 3.637038e+00 3.623960e+00 3.364553e+00 3.104533e+00 3.013699e+00 2.428228e+00 2.455986e+00
<GCONST> 1.099404e+02
<STATE> 4
<MEAN> 25
 -1.096938e+00 2.636778e-01 2.088733e-01 1.203964e-02 2.940219e-01 -5.258508e-01 3.833464e-01 1.040689e-03 9.405600e-02 -5.987524e-02 1.838959e-01 1.677513e-01 2.612900e-02 -1.180471e-02 3.101177e-03 -4.516906e-03 -6.886371e-03 5.812993e-03 -6.151785e-03 -1.610845e-03 -5.176942e-03 -1.389630e-03 -5.802430e-03 -5.149644e-03 -1.040352e-03
<VARIANCE> 25
 7.322548e+01 5.995577e+01 7.451369e+01 6.282854e+01 7.241177e+01 6.908094e+01 6.031108e+01 5.991545e+01 5.291396e+01 4.691017e+01 4.577858e+01 3.670636e+01 3.271484e+00 2.993934e+00 3.085905e+00 3.262023e+00 3.732473e+00 3.617481e+00 3.581481e+00 3.572581e+00 3.331536e+00 3.068888e+00 2.970380e+00 2.400162e+00 2.432265e+00
<GCONST> 1.096600e+02
<TRANSP> 5
 0.000000e+00 1.000000e+00 0.000000e+00 0.000000e+00 0.000000e+00
 0.000000e+00 6.188915e-01 3.811084e-01 0.000000e+00 0.000000e+00
 0.000000e+00 0.000000e+00 6.188953e-01 3.811047e-01 0.000000e+00
 0.000000e+00 0.000000e+00 0.000000e+00 7.345566e-01 2.654434e-01
 0.000000e+00 0.000000e+00 0.000000e+00 0.000000e+00 0.000000e+00
<ENDHMM>
~h "t"
<BEGINHMM>
<NUMSTATES> 5
<STATE> 2
<MEAN> 25
 5.263818e-03 1.152859e-01 -1.207483e-01 -2.246096e-01 -7.938201e-02 -1.868962e-01 -1.635050e-01 -1.172829e-01 9.941681e-02 1.678738e-01 1.370445e-01 8.647943e-02 1.241656e-02 -7.583211e-03 3.014850e-03 -6.632305e-03 -1.467667e-03 2.066587e-03 -7.311994e-03 -5.437313e-04 -1.706031e-03 3.611715e-04 -4.023394e-03 -3.344997e-03 1.568631e-02
<VARIANCE> 25
 5.617694e+01 5.388167e+01 6.958128e+01 6.303766e+01 6.743098e+01 6.533530e+01 5.807358e+01 5.803766e+01 5.325151e+01 4.731294e+01 4.642171e+01 3.634054e+01 2.542278e+00 2.965463e+00 3.038201e+00 3.530684e+00 3.744486e+00 3.813522e+00 3.666467e+00 3.675087e+00 3.473359e+00 3.187005e+00 3.095619e+00 2.509846e+00 3.319893e+00
<GCONST> 1.094312e+02
<STATE> 3
<MEAN> 25
 3.142931e-02 1.003321e-01 -1.155418e-01 -2.370197e-01 -8.127286e-02 -1.799852e-01 -1.793388e-01 -1.211526e-01 9.338389e-02 1.671252e-01 1.257135e-01 7.973658e-02 1.014966e-02 -6.647869e-03 2.504409e-03 -2.946978e-03 -3.963073e-04 4.191859e-03 -5.986754e-03 -9.945219e-04 -2.276288e-03 -4.747869e-04 -4.018507e-03 -3.101083e-03 1.001009e-02
<VARIANCE> 25
 5.589056e+01 5.397518e+01 6.957459e+01 6.296384e+01 6.747130e+01 6.531037e+01 5.806967e+01 5.812328e+01 5.326210e+01 4.736974e+01 4.642229e+01 3.636203e+01 2.532022e+00 2.954656e+00 3.028430e+00 3.523671e+00 3.736725e+00 3.799919e+00 3.658695e+00 3.670791e+00 3.469182e+00 3.187840e+00 3.092459e+00 2.505548e+00 3.288085e+00
<GCONST> 1.093951e+02
<STATE> 4
<MEAN> 25
 8.064743e-02 8.429329e-02 -9.589151e-02 -2.331000e-01 -9.082182e-02 -1.643881e-01 -2.037068e-01 -1.261333e-01 7.946730e-02 1.482755e-01 9.823114e-02 7.502118e-02 4.793886e-03 -3.590419e-03 1.595184e-03 1.492668e-03 2.000668e-03 6.089726e-03 -3.087566e-03 -1.368263e-03 -2.295703e-03 -1.171323e-03 -3.334763e-03 -1.926684e-03 1.495888e-03
<VARIANCE> 25
 5.546232e+01 5.406203e+01 6.938031e+01 6.312201e+01 6.727524e+01 6.497178e+01 5.780871e+01 5.779436e+01 5.321895e+01 4.739367e+01 4.611283e+01 3.632313e+01 2.452342e+00 2.890741e+00 2.978596e+00 3.458833e+00 3.666929e+00 3.731486e+00 3.596913e+00 3.612022e+00 3.426481e+00 3.152034e+00 3.044604e+00 2.470440e+00 3.188749e+00
<GCONST> 1.091191e+02
<TRANSP> 5
 0.000000e+00 1.000000e+00 0.000000e+00 0.000000e+00 0.000000e+00
 0.000000e+00 6.178254e-01 3.821746e-01 0.000000e+00 0.000000e+00
 0.000000e+00 0.000000e+00 6.178169e-01 3.821831e-01 0.000000e+00
 0.000000e+00 0.000000e+00 0.000000e+00 7.328889e-01 2.671111e-01
 0.000000e+00 0.000000e+00 0.000000e+00 0.000000e+00 0.000000e+00
<ENDHMM>
~h "u"
<BEGINHMM>
<NUMSTATES> 5
<STATE> 2
<MEAN> 25
 5.180052e-01 7.319766e-01 -1.640329e-01 -5.920084e-01 6.471058e-02 3.038054e-01 -8.480936e-01 -6.718448e-01 -2.011997e-01 3.564490e-02 3.514523e-01 5.115157e-02 1.442531e-03 -6.069025e-03 1.450663e-03 6.079203e-03 7.166850e-04 -1.621864e-03 4.846593e-03 7.760136e-03 4.524835e-03 1.464381e-03 -5.042746e-03 -4.004526e-04 9.476150e-03
<VARIANCE> 25
 6.033395e+01 5.432661e+01 6.572695e+01 6.626059e+01 6.771696e+01 6.693078e+01 6.084736e+01 6.132463e+01 5.452266e+01 5.021198e+01 4.734951e+01 3.770143e+01 2.461415e+00 2.813240e+00 2.862786e+00 3.613849e+00 3.734340e+00 3.744810e+00 3.703938e+00 3.727677e+00 3.493654e+00 3.267085e+00 3.106876e+00 2.529032e+00 2.681636e+00
<GCONST> 1.094841e+02
<STATE> 3
<MEAN> 25
 5.174218e-01 7.124218e-01 -1.583648e-01 -5.702946e-01 6.480841e-02 2.991565e-01 -8.306501e-01 -6.489721e-01 -1.870636e-01 3.890370e-02 3.386626e-01 5.093151e-02 -3.442890e-03 -1.009149e-02 2.674059e-03 1.048437e-02 8.699885e-04 -2.978767e-03 8.997538e-03 1.138073e-02 6.074663e-03 1.867442e-03 -5.736356e-03 6.460241e-05 5.995333e-03
<VARIANCE> 25
 6.014084e+01 5.432228e+01 6.565710e+01 6.617662e+01 6.768874e+01 6.693419e+01 6.085234e+01 6.139719e+01 5.446614e+01 5.019104e+01 4.740389e+01 3.774711e+01 2.451870e+00 2.813946e+00 2.861205e+00 3.602371e+00 3.729825e+00 3.744233e+00 3.696787e+00 3.728344e+00 3.488193e+00 3.264062e+00 3.107862e+00 2.527805e+00 2.665777e+00
<GCONST> 1.094612e+02
<STATE> 4
<MEAN> 25
 5.197990e-01 6.508551e-01 -1.280853e-01 -5.308332e-01 4.680143e-02 2.606876e-01 -7.726361e-01 -5.979447e-01 -1.812512e-01 3.167661e-02 3.093827e-01 4.340309e-02 -8.210518e-03 -1.311133e-02 3.650416e-03 1.389469e-02 9.749344e-04 -3.197920e-03 1.253649e-02 1.463179e-02 6.876151e-03 9.942550e-04 -5.533293e-03 2.953949e-04 1.372586e-03
<VARIANCE> 25
 6.000439e+01 5.445347e+01 6.554214e+01 6.638351e+01 6.759821e+01 6.660238e+01 6.055684e+01 6.093486e+01 5.436957e+01 5.025313e+01 4.723747e+01 3.779234e+01 2.386447e+00 2.779534e+00 2.822369e+00 3.527161e+00 3.667897e+00 3.691385e+00 3.634041e+00 3.669706e+00 3.443211e+00 3.226628e+00 3.067262e+00 2.496941e+00 2.617757e+00
<GCONST> 1.092350e+02
<TRANSP> 5
 0.000000e+00 1.000000e+00 0.000000e+00 0.000000e+00 0.000000e+00
 0.000000e+00 6.202963e-01 3.797037e-01 0.000000e+00 0.000000e+00
 0.000000e+00 0.000000e+00 6.202873e-01 3.797127e-01 0.000000e+00
 0.000000e+00 0.000000e+00 0.000000e+00 7.361593e-01 2.638407e-01
 0.000000e+00 0.000000e+00 0.000000e+00 0.000000e+00 0.000000e+00
<ENDHMM>
~h "v"
<BEGINHMM>
<NUMSTATES> 5
<STATE> 2
<MEAN> 25
 -5.570574e-01 -1.405715e-01 9.387172e-01 2.915119e-01 -7.416533e-01 2.248636e-01 5.547417e-01 -1.178968e-01 -1.205606e-01 5.931248e-01 4.752747e-01 -1.114423e-01 -3.017446e-02 4.281623e-02 7.753607e-03 -1.249042e-02 -2.104981e-02 -5.315148e-03 2.801937e-02 1.044655e-03 -2.129217e-03 2.328223e-02 8.876236e-03 1.972006e-03 -9.797698e-03
<VARIANCE> 25
 6.294432e+01 4.923870e+01 6.939368e+01 6.555799e+01 6.924870e+01 7.381528e+01 5.255795e+01 5.237757e+01 5.176667e+01 4.461022e+01 4.889662e+01 3.345293e+01 2.896404e+00 2.515349e+00 2.669461e+00 3.289222e+00 3.578773e+00 3.660233e+00 3.420886e+00 3.377249e+00 3.475207e+00 3.046840e+00 2.894108e+00 2.208734e+00 2.136129e+00
<GCONST> 1.081646e+02
<STATE> 3
<MEAN> 25
 -6.290607e-01 -3.331960e-02 9.374382e-01 2.170897e-01 -8.013775e-01 1.914382e-01 6.471335e-01 -9.872899e-02 -1.118779e-01 6.405234e-01 4.803609e-01 -1.080365e-01 -3.300897e-02 4.427479e-02 6.569095e-03 -2.209812e-02 -2.240259e-02 -1.519373e-02 2.355290e-02 7.731506e-03 1.569995e-03 1.821921e-02 -2.658242e-03 3.427049e-03 -6.125298e-03
<VARIANCE> 25
 6.427639e+01 4.977047e+01 6.923659e+01 6.665403e+01 6.985704e+01 7.422759e+01 5.199211e+01 5.207532e+01 5.143521e+01 4.478204e+01 4.883890e+01 3.374609e+01 2.960408e+00 2.506642e+00 2.714788e+00 3.306655e+00 3.568820e+00 3.644533e+00 3.384422e+00 3.358454e+00 3.456133e+00 3.034237e+00 2.890831e+00 2.204644e+00 2.133143e+00
<GCONST> 1.082163e+02
<STATE> 4
<MEAN> 25
 -4.706805e-01 1.391617e-01 8.593363e-01 -1.989874e-02 -8.766252e-01 2.034437e-01 7.616662e-01 -1.220722e-01 1.260044e-02 7.599106e-01 3.313128e-01 -1.942542e-01 -2.556112e-02 4.338298e-02 4.437603e-03 -2.529874e-02 -1.822532e-02 -2.831844e-02 2.758753e-02 9.683132e-03 8.258822e-03 1.475419e-02 -1.446571e-02 -1.083139e-03 3.877271e-03
<VARIANCE> 25
 6.551571e+01 4.972553e+01 7.162698e+01 6.854227e+01 7.128847e+01 7.586740e+01 5.158180e+01 5.096576e+01 5.301125e+01 4.452862e+01 4.947439e+01 3.532688e+01 2.956799e+00 2.405076e+00 2.789788e+00 3.266917e+00 3.492238e+00 3.604409e+00 3.310235e+00 3.247843e+00 3.403240e+00 2.952472e+00 2.893585e+00 2.232113e+00 2.111847e+00
<GCONST> 1.082370e+02
<TRANSP> 5
 0.000000e+00 1.000000e+00 0.000000e+00 0.000000e+00 0.000000e+00
 0.000000e+00 6.340004e-01 3.659996e-01 0.000000e+00 0.000000e+00
 0.000000e+00 0.000000e+00 6.340008e-01 3.659993e-01 0.000000e+00
 0.000000e+00 0.000000e+00 0.000000e+00 7.510586e-01 2.489413e-01
 0.000000e+00 0.000000e+00 0.000000e+00 0.000000e+00 0.000000e+00
<ENDHMM>
~h "w"
<BEGINHMM>
<NUMSTATES> 5
<STATE> 2
<MEAN> 25
 6.179311e-01 1.375914e-01 -1.076876e+00 -1.459231e+00 -6.637007e-02 8.973512e-01 -1.792973e-01 1.037212e-01 3.705796e-02 4.595387e-01 3.871145e-01 -9.140462e-02 2.628988e-02 -2.298045e-02 -8.946146e-03 -6.286439e-03 5.428887e-03 -9.891040e-03 -4.503642e-03 -8.051852e-03 5.009284e-03 4.729792e-03 -4.002097e-03 -7.100625e-03 4.148019e-02
<VARIANCE> 25
 7.271795e+01 5.679209e+01 6.615365e+01 7.565642e+01 7.044146e+01 7.199426e+01 5.966625e+01 5.761354e+01 5.185553e+01 4.768304e+01 4.653240e+01 3.976066e+01 2.281924e+00 2.919673e+00 2.705401e+00 3.393585e+00 3.587698e+00 3.567104e+00 3.367855e+00 3.499834e+00 3.295655e+00 3.061272e+00 3.022132e+00 2.601058e+00 2.662078e+00
<GCONST> 1.092834e+02
<STATE> 3
<MEAN> 25
 6.938202e-01 7.856715e-02 -1.101922e+00 -1.468501e+00 -3.839913e-02 8.576512e-01 -1.870770e-01 7.834360e-02 4.413617e-02 4.563426e-01 3.617981e-01 -1.240419e-01 2.107614e-02 -2.216030e-02 -7.449036e-03 5.800545e-03 9.839217e-03 -1.523393e-02 3.874531e-04 -4.758779e-03 4.933220e-03 -1.124557e-03 -1.057562e-02 -1.033776e-02 3.307164e-02
<VARIANCE> 25
 7.146553e+01 5.694762e+01 6.625660e+01 7.549737e+01 6.991598e+01 7.181760e+01 5.975009e+01 5.742592e+01 5.193645e+01 4.767236e+01 4.668366e+01 3.990685e+01 2.298917e+00 2.939377e+00 2.724200e+00 3.397333e+00 3.590012e+00 3.578310e+00 3.387695e+00 3.508576e+00 3.301927e+00 3.076580e+00 3.028994e+00 2.615672e+00 2.660650e+00
<GCONST> 1.093131e+02
<STATE> 4
<MEAN> 25
 8.322967e-01 3.086529e-02 -1.070757e+00 -1.402926e+00 -4.278998e-03 7.052318e-01 -2.013834e-01 5.268111e-02 -7.050817e-03 4.302815e-01 2.983031e-01 -1.922441e-01 1.540615e-02 -1.921039e-02 -5.771191e-03 1.669434e-02 1.374492e-02 -1.705926e-02 4.403023e-03 2.243945e-03 1.533701e-03 -7.295473e-03 -1.234223e-02 -1.050328e-02 2.057474e-02
<VARIANCE> 25
 7.122028e+01 5.811777e+01 6.681916e+01 7.520338e+01 6.999710e+01 7.131213e+01 5.993628e+01 5.737728e+01 5.173601e+01 4.819613e+01 4.688525e+01 3.999759e+01 2.268717e+00 2.944655e+00 2.736773e+00 3.350747e+00 3.547682e+00 3.547325e+00 3.363501e+00 3.459909e+00 3.268154e+00 3.056066e+00 2.982990e+00 2.583564e+00 2.610972e+00
<GCONST> 1.092188e+02
<TRANSP> 5
 0.000000e+00 1.000000e+00 0.000000e+00 0.000000e+00 0.000000e+00
 0.000000e+00 6.305300e-01 3.694699e-01 0.000000e+00 0.000000e+00
 0.000000e+00 0.000000e+00 6.305308e-01 3.694692e-01 0.000000e+00
 0.000000e+00 0.000000e+00 0.000000e+00 7.468200e-01 2.531800e-01
 0.000000e+00 0.000000e+00 0.000000e+00 0.000000e+00 0.000000e+00
<ENDHMM>
~h "x"
<BEGINHMM>
<NUMSTATES> 5
<STATE> 2
<MEAN> 25
 1.216690e+00 8.248369e-01 1.615369e+00 1.458630e+00 -1.780084e+00 3.381044e-01 -7.280111e-01 -1.004376e+00 -3.097685e-01 -1.071994e+00 -8.176048e-01 -4.003892e-01 -1.141296e-02 -3.574614e-03 -1.192201e-01 2.248955e-02 1.417392e-01 7.154804e-02 1.740676e-02 3.707086e-02 5.607281e-02 5.090395e-02 1.398315e-02 -1.053178e-03 -7.604427e-02
<VARIANCE> 25
 3.686246e+01 4.026371e+01 4.818328e+01 4.295592e+01 7.074832e+01 7.462019e+01 3.425697e+01 3.959836e+01 4.504281e+01 3.659604e+01 3.016829e+01 3.918705e+01 1.043277e+00 1.739120e+00 1.831715e+00 2.465254e+00 2.043620e+00 1.872223e+00 2.117191e+00 2.097003e+00 3.057069e+00 2.386384e+00 1.791945e+00 1.920648e+00 7.749981e-01
<GCONST> 9.905569e+01
<STATE> 3
<MEAN> 25
 1.181879e+00 8.017492e-01 1.145784e+00 1.439541e+00 -1.246896e+00 6.319421e-01 -6.471430e-01 -8.905567e-01 -9.011003e-02 -8.937564e-01 -7.646693e-01 -3.611460e-01 3.260244e-04 -1.911885e-02 -1.359653e-01 -1.242163e-02 1.414233e-01 9.734275e-02 3.063801e-02 2.523463e-02 6.421690e-02 4.924458e-02 1.322732e-02 1.787772e-02 -6.706909e-02
<VARIANCE> 25
 3.513311e+01 3.948904e+01 4.475510e+01 4.440975e+01 6.800964e+01 7.282169e+01 3.527045e+01 3.922212e+01 4.353526e+01 3.789590e+01 3.035104e+01 4.095929e+01 1.037888e+00 1.645820e+00 1.698551e+00 2.536629e+00 1.970675e+00 1.876106e+00 2.089391e+00 2.013541e+00 3.003276e+00 2.354212e+00 1.747918e+00 1.905142e+00 7.679108e-01
<GCONST> 9.868572e+01
<STATE> 4
<MEAN> 25
 1.102423e+00 9.106745e-01 3.218890e-01 1.083081e+00 -4.229792e-01 1.013336e+00 -5.430632e-01 -9.235566e-01 3.226996e-01 -5.732142e-01 -6.960943e-01 4.161275e-02 4.050690e-03 -3.189865e-02 -1.355990e-01 -6.045058e-02 1.221702e-01 1.245462e-01 5.553492e-02 1.552604e-02 7.164380e-02 3.023722e-02 1.492156e-02 5.831715e-02 -5.656364e-02
<VARIANCE> 25
 3.259610e+01 3.483091e+01 3.835435e+01 4.792304e+01 6.084365e+01 6.846709e+01 3.531565e+01 3.741034e+01 3.936613e+01 3.876922e+01 2.919710e+01 4.076349e+01 9.986562e-01 1.402450e+00 1.492442e+00 2.543774e+00 1.827361e+00 1.891396e+00 1.948891e+00 1.833434e+00 2.814836e+00 2.329771e+00 1.625300e+00 1.852514e+00 7.049190e-01
<GCONST> 9.724924e+01
<TRANSP> 5
 0.000000e+00 1.000000e+00 0.000000e+00 0.000000e+00 0.000000e+00
 0.000000e+00 7.023702e-01 2.976298e-01 0.000000e+00 0.000000e+00
 0.000000e+00 0.000000e+00 7.023702e-01 2.976297e-01 0.000000e+00
 0.000000e+00 0.000000e+00 0.000000e+00 8.210844e-01 1.789156e-01
 0.000000e+00 0.000000e+00 0.000000e+00 0.000000e+00 0.000000e+00
<ENDHMM>
~h "y"
<BEGINHMM>
<NUMSTATES> 5
<STATE> 2
<MEAN> 25
 -2.228206e-03 -6.977189e-01 5.430729e-01 -3.851156e-01 -5.968537e-01 -5.406873e-01 3.869519e-01 6.143358e-01 -2.123693e-01 -1.051114e-01 -8.136379e-02 -9.395221e-03 9.201959e-03 1.417839e-03 -5.214363e-03 -1.473833e-03 7.573776e-03 5.206106e-03 4.792347e-03 1.034280e-03 -1.014757e-05 -4.057743e-03 -1.713516e-02 4.303228e-03 4.128499e-03
<VARIANCE> 25
 5.548065e+01 5.462213e+01 7.081306e+01 6.302635e+01 7.353715e+01 6.714339e+01 5.858792e+01 6.300179e+01 5.254892e+01 4.807767e+01 4.743533e+01 3.682426e+01 2.097547e+00 2.665015e+00 2.992112e+00 3.180362e+00 3.652987e+00 3.381467e+00 3.380680e+00 3.611586e+00 3.212215e+00 3.021024e+00 2.940813e+00 2.340963e+00 2.394292e+00
<GCONST> 1.084503e+02
<STATE> 3
<MEAN> 25
 1.992584e-02 -6.950559e-01 5.192199e-01 -3.823931e-01 -5.693497e-01 -5.255268e-01 4.019842e-01 6.164417e-01 -2.091753e-01 -1.173806e-01 -1.222413e-01 3.562070e-03 6.443169e-03 4.714441e-03 -1.292182e-02 5.155198e-03 1.467582e-02 9.018249e-03 5.212824e-03 -2.564511e-03 2.698617e-03 -3.480407e-03 -1.641333e-02 5.534558e-03 -5.336880e-03
<VARIANCE> 25
 5.505235e+01 5.458363e+01 7.032258e+01 6.281244e+01 7.302608e+01 6.688762e+01 5.848433e+01 6.291803e+01 5.239649e+01 4.799601e+01 4.741157e+01 3.679210e+01 2.092227e+00 2.664142e+00 2.974971e+00 3.175329e+00 3.644537e+00 3.373795e+00 3.375757e+00 3.602116e+00 3.211827e+00 3.015939e+00 2.933596e+00 2.341681e+00 2.385875e+00
<GCONST> 1.083853e+02
<STATE> 4
<MEAN> 25
 3.278110e-02 -6.973123e-01 4.517674e-01 -3.538043e-01 -4.378987e-01 -4.960355e-01 4.172838e-01 5.903445e-01 -1.792352e-01 -9.615538e-02 -1.848798e-01 4.343306e-02 2.707463e-03 8.188791e-03 -1.916744e-02 1.282765e-02 2.184732e-02 1.136906e-02 3.843167e-03 -5.290111e-03 4.924375e-03 -3.390508e-03 -1.099446e-02 6.452228e-03 -1.672431e-02
<VARIANCE> 25
 5.482245e+01 5.480352e+01 6.928500e+01 6.312918e+01 7.205885e+01 6.642062e+01 5.813895e+01 6.234060e+01 5.212041e+01 4.789875e+01 4.721912e+01 3.671029e+01 2.040599e+00 2.608549e+00 2.895771e+00 3.109618e+00 3.550713e+00 3.315286e+00 3.316005e+00 3.525435e+00 3.166389e+00 2.974298e+00 2.875570e+00 2.316724e+00 2.319898e+00
<GCONST> 1.080624e+02
<TRANSP> 5
 0.000000e+00 1.000000e+00 0.000000e+00 0.000000e+00 0.000000e+00
 0.000000e+00 6.196001e-01 3.804000e-01 0.000000e+00 0.000000e+00
 0.000000e+00 0.000000e+00 6.195970e-01 3.804031e-01 0.000000e+00
 0.000000e+00 0.000000e+00 0.000000e+00 7.375215e-01 2.624786e-01
 0.000000e+00 0.000000e+00 0.000000e+00 0.000000e+00 0.000000e+00
<ENDHMM>
~h "z"
<BEGINHMM>
<NUMSTATES> 5
<STATE> 2
<MEAN> 25
 -2.145737e-01 1.173802e+00 2.132509e+00 7.844682e-01 -8.850386e-01 -1.469012e-01 3.928121e-01 -1.637841e+00 -1.227661e+00 -6.372018e-01 3.562601e-01 -2.046560e-02 4.524171e-02 -3.253405e-02 -1.558300e-02 -2.149928e-02 4.607722e-02 4.058178e-02 -1.563440e-02 7.052483e-03 1.038104e-02 -1.659475e-02 -4.208311e-02 -1.967307e-02 2.019949e-02
<VARIANCE> 25
 5.132114e+01 6.424170e+01 9.145778e+01 8.515655e+01 7.740958e+01 7.335636e+01 5.920396e+01 6.494267e+01 6.974841e+01 6.004101e+01 5.137209e+01 3.830991e+01 2.081471e+00 2.499677e+00 3.084750e+00 3.663884e+00 3.730282e+00 3.582939e+00 3.567072e+00 3.515105e+00 3.486524e+00 3.256760e+00 2.900244e+00 2.226334e+00 2.503676e+00
<GCONST> 1.102400e+02
<STATE> 3
<MEAN> 25
 -7.508674e-02 1.090035e+00 2.063647e+00 7.679906e-01 -7.494475e-01 -2.962991e-02 3.481067e-01 -1.594251e+00 -1.190685e+00 -6.988098e-01 2.291262e-01 -5.955855e-02 4.722043e-02 -2.830638e-02 -3.291141e-02 -9.942652e-03 5.475345e-02 4.745119e-02 -1.237544e-02 1.824905e-02 2.423183e-02 -2.281869e-02 -5.226921e-02 -1.177696e-02 4.737309e-03
<VARIANCE> 25
 5.103172e+01 6.400832e+01 9.127641e+01 8.532537e+01 7.735902e+01 7.236230e+01 5.868174e+01 6.481924e+01 6.852907e+01 5.957914e+01 5.127148e+01 3.772553e+01 2.048029e+00 2.489100e+00 3.053469e+00 3.639326e+00 3.721176e+00 3.560041e+00 3.544518e+00 3.538017e+00 3.461119e+00 3.238685e+00 2.882151e+00 2.206429e+00 2.505950e+00
<GCONST> 1.100897e+02
<STATE> 4
<MEAN> 25
 1.285247e-01 8.620784e-01 1.798695e+00 8.990938e-01 -5.105845e-01 2.051292e-01 2.632864e-01 -1.357655e+00 -1.060989e+00 -9.607388e-01 -1.643916e-02 -1.200639e-02 4.698511e-02 -1.239376e-02 -4.944813e-02 6.504341e-03 5.282408e-02 4.966944e-02 -1.005060e-02 2.817147e-02 3.045230e-02 -1.951225e-02 -5.783840e-02 -3.990575e-03 -2.190340e-02
<VARIANCE> 25
 4.821260e+01 6.195697e+01 8.763123e+01 8.309315e+01 7.368233e+01 6.703055e+01 5.586193e+01 6.362455e+01 6.648201e+01 5.786155e+01 4.979393e+01 3.596645e+01 1.897631e+00 2.356718e+00 2.879100e+00 3.513517e+00 3.522892e+00 3.393758e+00 3.426231e+00 3.486695e+00 3.338727e+00 3.129696e+00 2.820767e+00 2.139699e+00 2.424364e+00
<GCONST> 1.090717e+02
<TRANSP> 5
 0.000000e+00 1.000000e+00 0.000000e+00 0.000000e+00 0.000000e+00
 0.000000e+00 6.689550e-01 3.310451e-01 0.000000e+00 0.000000e+00
 0.000000e+00 0.000000e+00 6.689563e-01 3.310437e-01 0.000000e+00
 0.000000e+00 0.000000e+00 0.000000e+00 7.949307e-01 2.050693e-01
 0.000000e+00 0.000000e+00 0.000000e+00 0.000000e+00 0.000000e+00
<ENDHMM>
~h "@h"
<BEGINHMM>
<NUMSTATES> 5
<STATE> 2
<MEAN> 25
 -1.153303e+00 -3.635571e+00 1.223820e+00 4.014395e+00 -1.367123e+00 2.122971e+00 -2.550560e+00 6.000603e+00 -6.284121e-02 1.271921e-01 -4.003522e+00 -5.281004e+00 -4.713801e-02 5.005911e-02 -4.013621e-03 1.142222e-02 1.532455e-01 3.716309e-02 1.116979e-02 4.329197e-02 1.682022e-01 -1.309102e-01 -7.317536e-02 -9.921514e-02 6.230771e-02
<VARIANCE> 25
 5.552100e+01 3.914727e+01 3.017453e+01 4.104715e+01 4.011240e+01 1.930003e+01 4.999973e+01 5.720003e+01 5.901460e+01 2.503173e+01 2.482291e+01 5.125983e+01 6.035285e-01 7.705342e-01 1.399568e+00 1.413768e+00 1.332418e+00 1.657377e+00 1.919190e+00 2.998327e+00 3.396640e+00 1.827660e+00 2.125615e+00 2.324729e+00 1.308084e+00
<GCONST> 9.596073e+01
<STATE> 3
<MEAN> 25
 -1.227201e+00 -3.521698e+00 1.099277e+00 4.124983e+00 -8.920121e-01 2.211662e+00 -2.516318e+00 6.170614e+00 5.467968e-01 -3.132327e-01 -4.234640e+00 -5.635944e+00 -3.825701e-02 5.044700e-02 -3.652206e-02 3.673984e-02 1.518205e-01 4.144624e-02 -1.019372e-02 5.494874e-02 1.774747e-01 -1.291251e-01 -4.607454e-02 -6.816462e-02 7.922713e-02
<VARIANCE> 25
 5.444482e+01 3.825282e+01 2.989748e+01 4.413301e+01 4.176778e+01 2.166705e+01 5.108382e+01 5.619119e+01 5.954709e+01 2.497923e+01 2.550642e+01 4.914265e+01 6.745595e-01 7.421468e-01 1.591937e+00 1.487630e+00 1.314020e+00 1.633278e+00 2.166630e+00 3.040543e+00 3.480573e+00 1.894135e+00 2.285855e+00 2.278218e+00 1.604667e+00
<GCONST> 9.681007e+01
<STATE> 4
<MEAN> 25
 -1.605651e+00 -3.225869e+00 8.442308e-01 4.583989e+00 -7.630872e-01 1.952725e+00 -2.632940e+00 6.156905e+00 1.466349e+00 -8.460301e-01 -4.211310e+00 -5.655391e+00 6.783340e-03 3.684555e-02 -9.225370e-02 3.541413e-02 1.288649e-01 -1.348009e-02 3.585102e-02 4.069101e-02 1.210611e-01 -7.874404e-02 1.923246e-02 2.666552e-02 2.202076e-01
<VARIANCE> 25
 5.235046e+01 3.563876e+01 3.181174e+01 4.604382e+01 4.578271e+01 3.028815e+01 5.759011e+01 5.257412e+01 5.610891e+01 2.496677e+01 2.708346e+01 4.760485e+01 8.718383e-01 8.239650e-01 2.346271e+00 1.581198e+00 1.387182e+00 1.865220e+00 2.520475e+00 3.108030e+00 3.555397e+00 2.160539e+00 2.388196e+00 2.275942e+00 2.630130e+00
<GCONST> 9.911280e+01
<TRANSP> 5
 0.000000e+00 1.000000e+00 0.000000e+00 0.000000e+00 0.000000e+00
 0.000000e+00 6.976745e-01 3.023255e-01 0.000000e+00 0.000000e+00
 0.000000e+00 0.000000e+00 6.976743e-01 3.023258e-01 0.000000e+00
 0.000000e+00 0.000000e+00 0.000000e+00 8.173787e-01 1.826213e-01
 0.000000e+00 0.000000e+00 0.000000e+00 0.000000e+00 0.000000e+00
<ENDHMM>
~h "@y"
<BEGINHMM>
<NUMSTATES> 5
<STATE> 2
<MEAN> 25
 1.708972e-09 1.090385e-09 9.580507e-09 -2.513088e-08 5.650978e-09 7.824450e-09 -1.173420e-08 8.080536e-09 -1.223684e-08 -1.003294e-08 -1.228346e-09 7.471072e-09 2.588070e-03 5.406653e-06 1.165406e-03 -2.750418e-04 1.179288e-03 -2.015027e-04 3.669178e-04 -4.334864e-04 -1.182183e-03 -4.313851e-04 -6.009767e-04 -5.740453e-04 3.089256e-03
<VARIANCE> 25
 5.950132e+01 5.523875e+01 6.957190e+01 6.306453e+01 6.882129e+01 6.596412e+01 5.749057e+01 5.935612e+01 5.307150e+01 4.762954e+01 4.650915e+01 3.710306e+01 2.306587e+00 2.816560e+00 2.879318e+00 3.320077e+00 3.620080e+00 3.535859e+00 3.444255e+00 3.604912e+00 3.328778e+00 3.069351e+00 2.973025e+00 2.428180e+00 2.668494e+00
<GCONST> 1.087549e+02
<STATE> 3
<MEAN> 25
 1.708972e-09 1.090385e-09 9.580507e-09 -2.513088e-08 5.650978e-09 7.824450e-09 -1.173420e-08 8.080536e-09 -1.223684e-08 -1.003294e-08 -1.228346e-09 7.471072e-09 2.588070e-03 5.406653e-06 1.165406e-03 -2.750418e-04 1.179288e-03 -2.015027e-04 3.669178e-04 -4.334864e-04 -1.182183e-03 -4.313851e-04 -6.009767e-04 -5.740453e-04 3.089256e-03
<VARIANCE> 25
 5.950132e+01 5.523875e+01 6.957190e+01 6.306453e+01 6.882129e+01 6.596412e+01 5.749057e+01 5.935612e+01 5.307150e+01 4.762954e+01 4.650915e+01 3.710306e+01 2.306587e+00 2.816560e+00 2.879318e+00 3.320077e+00 3.620080e+00 3.535859e+00 3.444255e+00 3.604912e+00 3.328778e+00 3.069351e+00 2.973025e+00 2.428180e+00 2.668494e+00
<GCONST> 1.087549e+02
<STATE> 4
<MEAN> 25
 1.708972e-09 1.090385e-09 9.580507e-09 -2.513088e-08 5.650978e-09 7.824450e-09 -1.173420e-08 8.080536e-09 -1.223684e-08 -1.003294e-08 -1.228346e-09 7.471072e-09 2.588070e-03 5.406653e-06 1.165406e-03 -2.750418e-04 1.179288e-03 -2.015027e-04 3.669178e-04 -4.334864e-04 -1.182183e-03 -4.313851e-04 -6.009767e-04 -5.740453e-04 3.089256e-03
<VARIANCE> 25
 5.950132e+01 5.523875e+01 6.957190e+01 6.306453e+01 6.882129e+01 6.596412e+01 5.749057e+01 5.935612e+01 5.307150e+01 4.762954e+01 4.650915e+01 3.710306e+01 2.306587e+00 2.816560e+00 2.879318e+00 3.320077e+00 3.620080e+00 3.535859e+00 3.444255e+00 3.604912e+00 3.328778e+00 3.069351e+00 2.973025e+00 2.428180e+00 2.668494e+00
<GCONST> 1.087549e+02
<TRANSP> 5
 0.000000e+00 1.000000e+00 0.000000e+00 0.000000e+00 0.000000e+00
 0.000000e+00 6.000000e-01 4.000000e-01 0.000000e+00 0.000000e+00
 0.000000e+00 0.000000e+00 6.000000e-01 4.000000e-01 0.000000e+00
 0.000000e+00 0.000000e+00 0.000000e+00 7.000000e-01 3.000000e-01
 0.000000e+00 0.000000e+00 0.000000e+00 0.000000e+00 0.000000e+00
<ENDHMM>
~h "ai"
<BEGINHMM>
<NUMSTATES> 5
<STATE> 2
<MEAN> 25
 6.548668e-01 -4.237150e-01 7.650586e-01 -2.466796e-03 -2.990692e+00 -2.278097e+00 -6.817283e-02 1.585946e+00 1.583787e+00 1.103565e-01 1.627795e+00 -1.017981e+00 -2.273446e-01 1.422980e-01 -9.271979e-02 -3.715469e-04 2.554773e-01 2.483342e-01 8.710983e-02 -2.500908e-01 -1.431136e-02 8.518891e-02 -1.366304e-02 4.676724e-03 -2.429756e-01
<VARIANCE> 25
 6.177869e+01 6.014366e+01 8.151617e+01 5.487419e+01 6.781332e+01 6.094068e+01 5.007101e+01 9.058164e+01 9.982094e+01 3.797967e+01 5.976255e+01 4.559910e+01 2.091663e+00 2.361001e+00 2.509475e+00 2.885314e+00 4.079071e+00 2.943301e+00 3.876701e+00 3.507751e+00 5.808700e+00 3.217016e+00 3.797256e+00 2.880938e+00 2.041629e+00
<GCONST> 1.101762e+02
<STATE> 3
<MEAN> 25
 -6.577373e-02 -3.643053e-02 4.206572e-01 4.808247e-02 -2.175003e+00 -1.556242e+00 1.893185e-01 7.679935e-01 1.510134e+00 3.448698e-01 1.576822e+00 -9.896987e-01 -2.286908e-01 1.147131e-01 -9.444688e-02 1.117029e-02 2.557342e-01 2.432198e-01 1.142660e-01 -2.326261e-01 -3.609449e-02 7.060243e-02 -2.135441e-02 2.396744e-02 -2.767338e-01
<VARIANCE> 25
 6.630975e+01 5.933574e+01 7.998724e+01 5.644306e+01 6.733141e+01 5.837020e+01 5.316740e+01 8.855366e+01 9.655678e+01 3.793599e+01 5.456167e+01 4.699567e+01 2.148587e+00 2.369175e+00 2.404777e+00 2.896028e+00 4.258209e+00 2.978258e+00 4.018499e+00 3.666934e+00 5.632049e+00 3.231306e+00 3.755905e+00 2.911522e+00 2.094829e+00
<GCONST> 1.102599e+02
<STATE> 4
<MEAN> 25
 -1.018538e+00 2.356215e-01 -1.075968e-01 2.010948e-01 -1.122925e+00 -7.092658e-01 6.018541e-01 -2.411952e-01 1.304600e+00 5.556023e-01 1.572919e+00 -8.886012e-01 -1.934320e-01 5.514483e-02 -9.461874e-02 8.059090e-03 2.384930e-01 2.110819e-01 1.228219e-01 -1.733355e-01 -7.592040e-02 7.162663e-02 -2.135787e-02 5.800858e-02 -2.890354e-01
<VARIANCE> 25
 7.192925e+01 5.723221e+01 7.684881e+01 5.808539e+01 6.615466e+01 5.494050e+01 5.783863e+01 8.267249e+01 9.333771e+01 3.885721e+01 5.048167e+01 4.870870e+01 2.227400e+00 2.299700e+00 2.226195e+00 2.893420e+00 4.415508e+00 3.038758e+00 4.097212e+00 3.953066e+00 5.463600e+00 3.269554e+00 3.696546e+00 3.002840e+00 2.137235e+00
<GCONST> 1.102748e+02
<TRANSP> 5
 0.000000e+00 1.000000e+00 0.000000e+00 0.000000e+00 0.000000e+00
 0.000000e+00 6.745400e-01 3.254600e-01 0.000000e+00 0.000000e+00
 0.000000e+00 0.000000e+00 6.745401e-01 3.254598e-01 0.000000e+00
 0.000000e+00 0.000000e+00 0.000000e+00 7.904268e-01 2.095732e-01
 0.000000e+00 0.000000e+00 0.000000e+00 0.000000e+00 0.000000e+00
<ENDHMM>
~h "am"
<BEGINHMM>
<NUMSTATES> 5
<STATE> 2
<MEAN> 25
 1.708972e-09 1.090385e-09 9.580507e-09 -2.513088e-08 5.650978e-09 7.824450e-09 -1.173420e-08 8.080536e-09 -1.223684e-08 -1.003294e-08 -1.228346e-09 7.471072e-09 2.588070e-03 5.406653e-06 1.165406e-03 -2.750418e-04 1.179288e-03 -2.015027e-04 3.669178e-04 -4.334864e-04 -1.182183e-03 -4.313851e-04 -6.009767e-04 -5.740453e-04 3.089256e-03
<VARIANCE> 25
 5.950132e+01 5.523875e+01 6.957190e+01 6.306453e+01 6.882129e+01 6.596412e+01 5.749057e+01 5.935612e+01 5.307150e+01 4.762954e+01 4.650915e+01 3.710306e+01 2.306587e+00 2.816560e+00 2.879318e+00 3.320077e+00 3.620080e+00 3.535859e+00 3.444255e+00 3.604912e+00 3.328778e+00 3.069351e+00 2.973025e+00 2.428180e+00 2.668494e+00
<GCONST> 1.087549e+02
<STATE> 3
<MEAN> 25
 1.708972e-09 1.090385e-09 9.580507e-09 -2.513088e-08 5.650978e-09 7.824450e-09 -1.173420e-08 8.080536e-09 -1.223684e-08 -1.003294e-08 -1.228346e-09 7.471072e-09 2.588070e-03 5.406653e-06 1.165406e-03 -2.750418e-04 1.179288e-03 -2.015027e-04 3.669178e-04 -4.334864e-04 -1.182183e-03 -4.313851e-04 -6.009767e-04 -5.740453e-04 3.089256e-03
<VARIANCE> 25
 5.950132e+01 5.523875e+01 6.957190e+01 6.306453e+01 6.882129e+01 6.596412e+01 5.749057e+01 5.935612e+01 5.307150e+01 4.762954e+01 4.650915e+01 3.710306e+01 2.306587e+00 2.816560e+00 2.879318e+00 3.320077e+00 3.620080e+00 3.535859e+00 3.444255e+00 3.604912e+00 3.328778e+00 3.069351e+00 2.973025e+00 2.428180e+00 2.668494e+00
<GCONST> 1.087549e+02
<STATE> 4
<MEAN> 25
 1.708972e-09 1.090385e-09 9.580507e-09 -2.513088e-08 5.650978e-09 7.824450e-09 -1.173420e-08 8.080536e-09 -1.223684e-08 -1.003294e-08 -1.228346e-09 7.471072e-09 2.588070e-03 5.406653e-06 1.165406e-03 -2.750418e-04 1.179288e-03 -2.015027e-04 3.669178e-04 -4.334864e-04 -1.182183e-03 -4.313851e-04 -6.009767e-04 -5.740453e-04 3.089256e-03
<VARIANCE> 25
 5.950132e+01 5.523875e+01 6.957190e+01 6.306453e+01 6.882129e+01 6.596412e+01 5.749057e+01 5.935612e+01 5.307150e+01 4.762954e+01 4.650915e+01 3.710306e+01 2.306587e+00 2.816560e+00 2.879318e+00 3.320077e+00 3.620080e+00 3.535859e+00 3.444255e+00 3.604912e+00 3.328778e+00 3.069351e+00 2.973025e+00 2.428180e+00 2.668494e+00
<GCONST> 1.087549e+02
<TRANSP> 5
 0.000000e+00 1.000000e+00 0.000000e+00 0.000000e+00 0.000000e+00
 0.000000e+00 6.000000e-01 4.000000e-01 0.000000e+00 0.000000e+00
 0.000000e+00 0.000000e+00 6.000000e-01 4.000000e-01 0.000000e+00
 0.000000e+00 0.000000e+00 0.000000e+00 7.000000e-01 3.000000e-01
 0.000000e+00 0.000000e+00 0.000000e+00 0.000000e+00 0.000000e+00
<ENDHMM>
~h "an"
<BEGINHMM>
<NUMSTATES> 5
<STATE> 2
<MEAN> 25
 1.708972e-09 1.090385e-09 9.580507e-09 -2.513088e-08 5.650978e-09 7.824450e-09 -1.173420e-08 8.080536e-09 -1.223684e-08 -1.003294e-08 -1.228346e-09 7.471072e-09 2.588070e-03 5.406653e-06 1.165406e-03 -2.750418e-04 1.179288e-03 -2.015027e-04 3.669178e-04 -4.334864e-04 -1.182183e-03 -4.313851e-04 -6.009767e-04 -5.740453e-04 3.089256e-03
<VARIANCE> 25
 5.950132e+01 5.523875e+01 6.957190e+01 6.306453e+01 6.882129e+01 6.596412e+01 5.749057e+01 5.935612e+01 5.307150e+01 4.762954e+01 4.650915e+01 3.710306e+01 2.306587e+00 2.816560e+00 2.879318e+00 3.320077e+00 3.620080e+00 3.535859e+00 3.444255e+00 3.604912e+00 3.328778e+00 3.069351e+00 2.973025e+00 2.428180e+00 2.668494e+00
<GCONST> 1.087549e+02
<STATE> 3
<MEAN> 25
 1.708972e-09 1.090385e-09 9.580507e-09 -2.513088e-08 5.650978e-09 7.824450e-09 -1.173420e-08 8.080536e-09 -1.223684e-08 -1.003294e-08 -1.228346e-09 7.471072e-09 2.588070e-03 5.406653e-06 1.165406e-03 -2.750418e-04 1.179288e-03 -2.015027e-04 3.669178e-04 -4.334864e-04 -1.182183e-03 -4.313851e-04 -6.009767e-04 -5.740453e-04 3.089256e-03
<VARIANCE> 25
 5.950132e+01 5.523875e+01 6.957190e+01 6.306453e+01 6.882129e+01 6.596412e+01 5.749057e+01 5.935612e+01 5.307150e+01 4.762954e+01 4.650915e+01 3.710306e+01 2.306587e+00 2.816560e+00 2.879318e+00 3.320077e+00 3.620080e+00 3.535859e+00 3.444255e+00 3.604912e+00 3.328778e+00 3.069351e+00 2.973025e+00 2.428180e+00 2.668494e+00
<GCONST> 1.087549e+02
<STATE> 4
<MEAN> 25
 1.708972e-09 1.090385e-09 9.580507e-09 -2.513088e-08 5.650978e-09 7.824450e-09 -1.173420e-08 8.080536e-09 -1.223684e-08 -1.003294e-08 -1.228346e-09 7.471072e-09 2.588070e-03 5.406653e-06 1.165406e-03 -2.750418e-04 1.179288e-03 -2.015027e-04 3.669178e-04 -4.334864e-04 -1.182183e-03 -4.313851e-04 -6.009767e-04 -5.740453e-04 3.089256e-03
<VARIANCE> 25
 5.950132e+01 5.523875e+01 6.957190e+01 6.306453e+01 6.882129e+01 6.596412e+01 5.749057e+01 5.935612e+01 5.307150e+01 4.762954e+01 4.650915e+01 3.710306e+01 2.306587e+00 2.816560e+00 2.879318e+00 3.320077e+00 3.620080e+00 3.535859e+00 3.444255e+00 3.604912e+00 3.328778e+00 3.069351e+00 2.973025e+00 2.428180e+00 2.668494e+00
<GCONST> 1.087549e+02
<TRANSP> 5
 0.000000e+00 1.000000e+00 0.000000e+00 0.000000e+00 0.000000e+00
 0.000000e+00 6.000000e-01 4.000000e-01 0.000000e+00 0.000000e+00
 0.000000e+00 0.000000e+00 6.000000e-01 4.000000e-01 0.000000e+00
 0.000000e+00 0.000000e+00 0.000000e+00 7.000000e-01 3.000000e-01
 0.000000e+00 0.000000e+00 0.000000e+00 0.000000e+00 0.000000e+00
<ENDHMM>
~h "ap"
<BEGINHMM>
<NUMSTATES> 5
<STATE> 2
<MEAN> 25
 1.708972e-09 1.090385e-09 9.580507e-09 -2.513088e-08 5.650978e-09 7.824450e-09 -1.173420e-08 8.080536e-09 -1.223684e-08 -1.003294e-08 -1.228346e-09 7.471072e-09 2.588070e-03 5.406653e-06 1.165406e-03 -2.750418e-04 1.179288e-03 -2.015027e-04 3.669178e-04 -4.334864e-04 -1.182183e-03 -4.313851e-04 -6.009767e-04 -5.740453e-04 3.089256e-03
<VARIANCE> 25
 5.950132e+01 5.523875e+01 6.957190e+01 6.306453e+01 6.882129e+01 6.596412e+01 5.749057e+01 5.935612e+01 5.307150e+01 4.762954e+01 4.650915e+01 3.710306e+01 2.306587e+00 2.816560e+00 2.879318e+00 3.320077e+00 3.620080e+00 3.535859e+00 3.444255e+00 3.604912e+00 3.328778e+00 3.069351e+00 2.973025e+00 2.428180e+00 2.668494e+00
<GCONST> 1.087549e+02
<STATE> 3
<MEAN> 25
 1.708972e-09 1.090385e-09 9.580507e-09 -2.513088e-08 5.650978e-09 7.824450e-09 -1.173420e-08 8.080536e-09 -1.223684e-08 -1.003294e-08 -1.228346e-09 7.471072e-09 2.588070e-03 5.406653e-06 1.165406e-03 -2.750418e-04 1.179288e-03 -2.015027e-04 3.669178e-04 -4.334864e-04 -1.182183e-03 -4.313851e-04 -6.009767e-04 -5.740453e-04 3.089256e-03
<VARIANCE> 25
 5.950132e+01 5.523875e+01 6.957190e+01 6.306453e+01 6.882129e+01 6.596412e+01 5.749057e+01 5.935612e+01 5.307150e+01 4.762954e+01 4.650915e+01 3.710306e+01 2.306587e+00 2.816560e+00 2.879318e+00 3.320077e+00 3.620080e+00 3.535859e+00 3.444255e+00 3.604912e+00 3.328778e+00 3.069351e+00 2.973025e+00 2.428180e+00 2.668494e+00
<GCONST> 1.087549e+02
<STATE> 4
<MEAN> 25
 1.708972e-09 1.090385e-09 9.580507e-09 -2.513088e-08 5.650978e-09 7.824450e-09 -1.173420e-08 8.080536e-09 -1.223684e-08 -1.003294e-08 -1.228346e-09 7.471072e-09 2.588070e-03 5.406653e-06 1.165406e-03 -2.750418e-04 1.179288e-03 -2.015027e-04 3.669178e-04 -4.334864e-04 -1.182183e-03 -4.313851e-04 -6.009767e-04 -5.740453e-04 3.089256e-03
<VARIANCE> 25
 5.950132e+01 5.523875e+01 6.957190e+01 6.306453e+01 6.882129e+01 6.596412e+01 5.749057e+01 5.935612e+01 5.307150e+01 4.762954e+01 4.650915e+01 3.710306e+01 2.306587e+00 2.816560e+00 2.879318e+00 3.320077e+00 3.620080e+00 3.535859e+00 3.444255e+00 3.604912e+00 3.328778e+00 3.069351e+00 2.973025e+00 2.428180e+00 2.668494e+00
<GCONST> 1.087549e+02
<TRANSP> 5
 0.000000e+00 1.000000e+00 0.000000e+00 0.000000e+00 0.000000e+00
 0.000000e+00 6.000000e-01 4.000000e-01 0.000000e+00 0.000000e+00
 0.000000e+00 0.000000e+00 6.000000e-01 4.000000e-01 0.000000e+00
 0.000000e+00 0.000000e+00 0.000000e+00 7.000000e-01 3.000000e-01
 0.000000e+00 0.000000e+00 0.000000e+00 0.000000e+00 0.000000e+00
<ENDHMM>
~h "at"
<BEGINHMM>
<NUMSTATES> 5
<STATE> 2
<MEAN> 25
 1.708972e-09 1.090385e-09 9.580507e-09 -2.513088e-08 5.650978e-09 7.824450e-09 -1.173420e-08 8.080536e-09 -1.223684e-08 -1.003294e-08 -1.228346e-09 7.471072e-09 2.588070e-03 5.406653e-06 1.165406e-03 -2.750418e-04 1.179288e-03 -2.015027e-04 3.669178e-04 -4.334864e-04 -1.182183e-03 -4.313851e-04 -6.009767e-04 -5.740453e-04 3.089256e-03
<VARIANCE> 25
 5.950132e+01 5.523875e+01 6.957190e+01 6.306453e+01 6.882129e+01 6.596412e+01 5.749057e+01 5.935612e+01 5.307150e+01 4.762954e+01 4.650915e+01 3.710306e+01 2.306587e+00 2.816560e+00 2.879318e+00 3.320077e+00 3.620080e+00 3.535859e+00 3.444255e+00 3.604912e+00 3.328778e+00 3.069351e+00 2.973025e+00 2.428180e+00 2.668494e+00
<GCONST> 1.087549e+02
<STATE> 3
<MEAN> 25
 1.708972e-09 1.090385e-09 9.580507e-09 -2.513088e-08 5.650978e-09 7.824450e-09 -1.173420e-08 8.080536e-09 -1.223684e-08 -1.003294e-08 -1.228346e-09 7.471072e-09 2.588070e-03 5.406653e-06 1.165406e-03 -2.750418e-04 1.179288e-03 -2.015027e-04 3.669178e-04 -4.334864e-04 -1.182183e-03 -4.313851e-04 -6.009767e-04 -5.740453e-04 3.089256e-03
<VARIANCE> 25
 5.950132e+01 5.523875e+01 6.957190e+01 6.306453e+01 6.882129e+01 6.596412e+01 5.749057e+01 5.935612e+01 5.307150e+01 4.762954e+01 4.650915e+01 3.710306e+01 2.306587e+00 2.816560e+00 2.879318e+00 3.320077e+00 3.620080e+00 3.535859e+00 3.444255e+00 3.604912e+00 3.328778e+00 3.069351e+00 2.973025e+00 2.428180e+00 2.668494e+00
<GCONST> 1.087549e+02
<STATE> 4
<MEAN> 25
 1.708972e-09 1.090385e-09 9.580507e-09 -2.513088e-08 5.650978e-09 7.824450e-09 -1.173420e-08 8.080536e-09 -1.223684e-08 -1.003294e-08 -1.228346e-09 7.471072e-09 2.588070e-03 5.406653e-06 1.165406e-03 -2.750418e-04 1.179288e-03 -2.015027e-04 3.669178e-04 -4.334864e-04 -1.182183e-03 -4.313851e-04 -6.009767e-04 -5.740453e-04 3.089256e-03
<VARIANCE> 25
 5.950132e+01 5.523875e+01 6.957190e+01 6.306453e+01 6.882129e+01 6.596412e+01 5.749057e+01 5.935612e+01 5.307150e+01 4.762954e+01 4.650915e+01 3.710306e+01 2.306587e+00 2.816560e+00 2.879318e+00 3.320077e+00 3.620080e+00 3.535859e+00 3.444255e+00 3.604912e+00 3.328778e+00 3.069351e+00 2.973025e+00 2.428180e+00 2.668494e+00
<GCONST> 1.087549e+02
<TRANSP> 5
 0.000000e+00 1.000000e+00 0.000000e+00 0.000000e+00 0.000000e+00
 0.000000e+00 6.000000e-01 4.000000e-01 0.000000e+00 0.000000e+00
 0.000000e+00 0.000000e+00 6.000000e-01 4.000000e-01 0.000000e+00
 0.000000e+00 0.000000e+00 0.000000e+00 7.000000e-01 3.000000e-01
 0.000000e+00 0.000000e+00 0.000000e+00 0.000000e+00 0.000000e+00
<ENDHMM>
~h "au"
<BEGINHMM>
<NUMSTATES> 5
<STATE> 2
<MEAN> 25
 1.708972e-09 1.090385e-09 9.580507e-09 -2.513088e-08 5.650978e-09 7.824450e-09 -1.173420e-08 8.080536e-09 -1.223684e-08 -1.003294e-08 -1.228346e-09 7.471072e-09 2.588070e-03 5.406653e-06 1.165406e-03 -2.750418e-04 1.179288e-03 -2.015027e-04 3.669178e-04 -4.334864e-04 -1.182183e-03 -4.313851e-04 -6.009767e-04 -5.740453e-04 3.089256e-03
<VARIANCE> 25
 5.950132e+01 5.523875e+01 6.957190e+01 6.306453e+01 6.882129e+01 6.596412e+01 5.749057e+01 5.935612e+01 5.307150e+01 4.762954e+01 4.650915e+01 3.710306e+01 2.306587e+00 2.816560e+00 2.879318e+00 3.320077e+00 3.620080e+00 3.535859e+00 3.444255e+00 3.604912e+00 3.328778e+00 3.069351e+00 2.973025e+00 2.428180e+00 2.668494e+00
<GCONST> 1.087549e+02
<STATE> 3
<MEAN> 25
 1.708972e-09 1.090385e-09 9.580507e-09 -2.513088e-08 5.650978e-09 7.824450e-09 -1.173420e-08 8.080536e-09 -1.223684e-08 -1.003294e-08 -1.228346e-09 7.471072e-09 2.588070e-03 5.406653e-06 1.165406e-03 -2.750418e-04 1.179288e-03 -2.015027e-04 3.669178e-04 -4.334864e-04 -1.182183e-03 -4.313851e-04 -6.009767e-04 -5.740453e-04 3.089256e-03
<VARIANCE> 25
 5.950132e+01 5.523875e+01 6.957190e+01 6.306453e+01 6.882129e+01 6.596412e+01 5.749057e+01 5.935612e+01 5.307150e+01 4.762954e+01 4.650915e+01 3.710306e+01 2.306587e+00 2.816560e+00 2.879318e+00 3.320077e+00 3.620080e+00 3.535859e+00 3.444255e+00 3.604912e+00 3.328778e+00 3.069351e+00 2.973025e+00 2.428180e+00 2.668494e+00
<GCONST> 1.087549e+02
<STATE> 4
<MEAN> 25
 1.708972e-09 1.090385e-09 9.580507e-09 -2.513088e-08 5.650978e-09 7.824450e-09 -1.173420e-08 8.080536e-09 -1.223684e-08 -1.003294e-08 -1.228346e-09 7.471072e-09 2.588070e-03 5.406653e-06 1.165406e-03 -2.750418e-04 1.179288e-03 -2.015027e-04 3.669178e-04 -4.334864e-04 -1.182183e-03 -4.313851e-04 -6.009767e-04 -5.740453e-04 3.089256e-03
<VARIANCE> 25
 5.950132e+01 5.523875e+01 6.957190e+01 6.306453e+01 6.882129e+01 6.596412e+01 5.749057e+01 5.935612e+01 5.307150e+01 4.762954e+01 4.650915e+01 3.710306e+01 2.306587e+00 2.816560e+00 2.879318e+00 3.320077e+00 3.620080e+00 3.535859e+00 3.444255e+00 3.604912e+00 3.328778e+00 3.069351e+00 2.973025e+00 2.428180e+00 2.668494e+00
<GCONST> 1.087549e+02
<TRANSP> 5
 0.000000e+00 1.000000e+00 0.000000e+00 0.000000e+00 0.000000e+00
 0.000000e+00 6.000000e-01 4.000000e-01 0.000000e+00 0.000000e+00
 0.000000e+00 0.000000e+00 6.000000e-01 4.000000e-01 0.000000e+00
 0.000000e+00 0.000000e+00 0.000000e+00 7.000000e-01 3.000000e-01
 0.000000e+00 0.000000e+00 0.000000e+00 0.000000e+00 0.000000e+00
<ENDHMM>
~h "aw"
<BEGINHMM>
<NUMSTATES> 5
<STATE> 2
<MEAN> 25
 -8.149997e-02 7.357519e-01 6.210366e-01 -2.087055e+00 -2.616038e+00 9.294127e-01 6.263589e-01 -1.006052e+00 -1.117526e+00 1.286243e+00 6.365556e-01 5.019444e-02 2.727899e-03 5.617214e-02 2.805020e-02 2.606612e-02 7.967842e-02 3.451404e-02 -1.426569e-02 2.107306e-02 -2.964791e-02 -1.323832e-02 -6.257343e-03 1.799408e-03 -7.783536e-02
<VARIANCE> 25
 6.214414e+01 5.222826e+01 9.423984e+01 8.904234e+01 7.934876e+01 8.050236e+01 6.653835e+01 5.664380e+01 5.661920e+01 5.817442e+01 5.054611e+01 4.037470e+01 1.869389e+00 2.455724e+00 2.682186e+00 3.586070e+00 4.302168e+00 3.571100e+00 3.692491e+00 3.857261e+00 3.813328e+00 3.430306e+00 2.977247e+00 2.471793e+00 2.113266e+00
<GCONST> 1.102758e+02
<STATE> 3
<MEAN> 25
 -8.963639e-02 8.529818e-01 6.760113e-01 -1.993404e+00 -2.363681e+00 1.006059e+00 5.412691e-01 -9.261614e-01 -1.164402e+00 1.240675e+00 5.983086e-01 6.438984e-02 1.294542e-03 4.395826e-02 1.226111e-02 4.160643e-02 1.147017e-01 1.690951e-02 -3.486107e-02 3.130639e-02 -4.280380e-03 -3.577860e-02 -2.167866e-02 2.907295e-03 -8.558945e-02
<VARIANCE> 25
 6.205885e+01 5.072462e+01 9.445460e+01 9.137167e+01 7.800304e+01 8.081833e+01 6.703871e+01 5.666739e+01 5.613086e+01 5.755230e+01 5.195306e+01 4.117368e+01 1.858892e+00 2.451330e+00 2.713239e+00 3.566968e+00 4.221478e+00 3.552475e+00 3.686393e+00 3.827080e+00 3.784091e+00 3.392446e+00 3.113780e+00 2.546578e+00 2.083633e+00
<GCONST> 1.103025e+02
<STATE> 4
<MEAN> 25
 -4.484133e-02 9.001796e-01 5.121437e-01 -1.869421e+00 -1.966311e+00 1.003586e+00 4.148974e-01 -7.123587e-01 -1.151864e+00 1.127962e+00 5.719151e-01 6.643137e-02 2.413928e-03 2.377422e-02 -9.380405e-03 5.312275e-02 1.245723e-01 -7.744764e-03 -4.691772e-02 3.425652e-02 2.772675e-02 -4.857628e-02 -3.399378e-02 -5.498387e-04 -8.466661e-02
<VARIANCE> 25
 6.291449e+01 4.936676e+01 9.373546e+01 9.453240e+01 7.599004e+01 8.377251e+01 6.617411e+01 5.703547e+01 5.562663e+01 5.605804e+01 5.395955e+01 4.278134e+01 1.857025e+00 2.425146e+00 2.728626e+00 3.522571e+00 4.052036e+00 3.551528e+00 3.626686e+00 3.762197e+00 3.712069e+00 3.290135e+00 3.250443e+00 2.642189e+00 2.055484e+00
<GCONST> 1.102827e+02
<TRANSP> 5
 0.000000e+00 1.000000e+00 0.000000e+00 0.000000e+00 0.000000e+00
 0.000000e+00 6.062178e-01 3.937822e-01 0.000000e+00 0.000000e+00
 0.000000e+00 0.000000e+00 6.062172e-01 3.937828e-01 0.000000e+00
 0.000000e+00 0.000000e+00 0.000000e+00 7.120258e-01 2.879742e-01
 0.000000e+00 0.000000e+00 0.000000e+00 0.000000e+00 0.000000e+00
<ENDHMM>
~h "ay"
<BEGINHMM>
<NUMSTATES> 5
<STATE> 2
<MEAN> 25
 -4.841682e-02 -2.080400e-01 1.246518e+00 1.813519e-01 -9.677124e-01 -4.201309e-01 9.935499e-01 1.335174e-01 -7.610709e-02 2.439169e-01 1.542972e-01 2.377896e-01 7.698393e-03 2.101554e-02 -1.866232e-02 5.198932e-02 -2.861905e-03 -2.667622e-02 -3.093313e-03 -2.677389e-03 -3.176925e-02 -2.257155e-02 1.043520e-02 2.887052e-02 -5.759154e-02
<VARIANCE> 25
 5.024955e+01 5.418067e+01 8.185110e+01 5.853362e+01 6.839160e+01 7.203393e+01 5.531113e+01 5.975385e+01 5.330356e+01 4.775614e+01 4.596379e+01 3.274228e+01 2.001122e+00 2.690995e+00 3.219705e+00 3.248761e+00 3.454618e+00 3.747895e+00 3.290757e+00 3.811500e+00 3.210247e+00 3.244112e+00 3.101907e+00 2.279556e+00 1.962555e+00
<GCONST> 1.081897e+02
<STATE> 3
<MEAN> 25
 -3.258818e-02 -1.425209e-01 1.173868e+00 3.240140e-01 -9.608215e-01 -4.749448e-01 9.907015e-01 1.250955e-01 -1.927992e-01 1.927817e-01 1.827422e-01 3.141130e-01 4.896680e-03 3.356597e-02 -2.633250e-02 5.156875e-02 1.051443e-02 -2.618621e-02 -1.301669e-02 -7.136173e-03 -4.009195e-02 -1.429367e-02 1.266351e-02 2.731757e-02 -6.440641e-02
<VARIANCE> 25
 5.012662e+01 5.363300e+01 7.987073e+01 5.834216e+01 6.896609e+01 7.113693e+01 5.519379e+01 5.948883e+01 5.325275e+01 4.742683e+01 4.616717e+01 3.278186e+01 1.975292e+00 2.662283e+00 3.126873e+00 3.178079e+00 3.453086e+00 3.740781e+00 3.276922e+00 3.778485e+00 3.190900e+00 3.169267e+00 3.084239e+00 2.247890e+00 1.925217e+00
<GCONST> 1.079778e+02
<STATE> 4
<MEAN> 25
 -9.820594e-03 -2.372525e-02 1.006586e+00 4.345630e-01 -9.119884e-01 -5.218120e-01 9.654639e-01 1.074725e-01 -3.502816e-01 1.465215e-01 2.298060e-01 3.904181e-01 -3.630185e-03 3.904333e-02 -3.520886e-02 4.428532e-02 2.301767e-02 -1.452960e-02 -8.847244e-03 1.561964e-03 -3.847794e-02 -1.655541e-04 1.643451e-02 2.504462e-02 -6.994322e-02
<VARIANCE> 25
 5.036407e+01 5.322923e+01 7.851775e+01 5.816680e+01 6.888110e+01 6.946201e+01 5.439832e+01 5.884568e+01 5.319849e+01 4.663700e+01 4.613112e+01 3.278433e+01 1.901959e+00 2.599785e+00 2.999678e+00 3.057832e+00 3.394444e+00 3.649318e+00 3.190611e+00 3.696147e+00 3.166771e+00 3.063537e+00 3.013326e+00 2.184821e+00 1.853765e+00
<GCONST> 1.075225e+02
<TRANSP> 5
 0.000000e+00 1.000000e+00 0.000000e+00 0.000000e+00 0.000000e+00
 0.000000e+00 6.264834e-01 3.735166e-01 0.000000e+00 0.000000e+00
 0.000000e+00 0.000000e+00 6.264837e-01 3.735162e-01 0.000000e+00
 0.000000e+00 0.000000e+00 0.000000e+00 7.378356e-01 2.621643e-01
 0.000000e+00 0.000000e+00 0.000000e+00 0.000000e+00 0.000000e+00
<ENDHMM>
~h "be"
<BEGINHMM>
<NUMSTATES> 5
<STATE> 2
<MEAN> 25
 -1.504180e+00 -2.021353e+00 -4.784071e-01 -8.840203e-01 -1.575912e+00 -5.599608e-01 9.013126e-01 2.094790e+00 -5.427220e-01 -1.616133e+00 -7.494737e-01 -4.642971e-01 -1.076684e-01 -5.935465e-02 -1.180741e-02 7.489149e-02 9.428947e-02 3.258371e-02 4.522640e-03 -2.746747e-02 -6.827530e-02 -2.609137e-02 8.851358e-02 8.772859e-02 -7.373387e-02
<VARIANCE> 25
 3.423385e+01 2.808118e+01 1.527559e+01 2.701499e+01 4.125310e+01 4.019893e+01 3.140524e+01 5.423232e+01 3.922084e+01 2.447152e+01 2.709826e+01 2.447714e+01 7.908956e-01 1.502397e+00 6.822640e-01 1.633714e+00 1.793787e+00 2.135258e+00 2.148984e+00 3.097437e+00 2.593427e+00 2.362685e+00 1.936490e+00 1.571394e+00 7.962737e-01
<GCONST> 9.327292e+01
<STATE> 3
<MEAN> 25
 -1.859636e+00 -2.232257e+00 -5.243114e-01 -6.828438e-01 -1.329856e+00 -4.491046e-01 9.527833e-01 2.029836e+00 -7.399077e-01 -1.669762e+00 -4.440626e-01 -1.735571e-01 -1.064943e-01 -5.931960e-02 -1.780373e-02 5.983559e-02 8.767486e-02 5.053000e-02 1.801673e-02 -3.030483e-02 -4.996156e-02 -8.683732e-03 7.766488e-02 7.332211e-02 -7.244904e-02
<VARIANCE> 25
 3.474406e+01 2.626727e+01 1.388645e+01 2.584791e+01 3.979491e+01 3.986730e+01 2.931516e+01 5.237509e+01 3.822355e+01 2.293227e+01 2.416606e+01 2.338928e+01 7.631336e-01 1.420818e+00 6.598552e-01 1.602546e+00 1.733251e+00 2.044103e+00 1.965045e+00 2.961801e+00 2.501673e+00 2.346157e+00 1.846502e+00 1.577708e+00 7.783883e-01
<GCONST> 9.221698e+01
<STATE> 4
<MEAN> 25
 -2.559895e+00 -2.511072e+00 -8.599730e-01 -6.652035e-01 -9.154171e-01 2.219552e-01 1.324163e+00 1.496581e+00 -1.051702e+00 -1.415613e+00 4.321437e-02 1.395742e-01 -9.145530e-02 -5.742851e-02 -2.541054e-02 3.027223e-02 7.635505e-02 8.002954e-02 4.468052e-02 -2.011312e-02 -2.089108e-02 3.832282e-03 4.808063e-02 4.448045e-02 -5.891808e-02
<VARIANCE> 25
 3.019999e+01 1.988219e+01 1.157763e+01 2.033667e+01 3.296993e+01 3.761978e+01 2.417350e+01 4.562640e+01 3.399426e+01 2.006595e+01 2.108608e+01 2.075993e+01 6.208380e-01 1.061962e+00 6.057372e-01 1.317228e+00 1.537321e+00 1.780376e+00 1.588081e+00 2.471721e+00 2.175765e+00 2.216952e+00 1.668753e+00 1.461322e+00 5.884337e-01
<GCONST> 8.820842e+01
<TRANSP> 5
 0.000000e+00 1.000000e+00 0.000000e+00 0.000000e+00 0.000000e+00
 0.000000e+00 7.128699e-01 2.871301e-01 0.000000e+00 0.000000e+00
 0.000000e+00 0.000000e+00 7.128701e-01 2.871299e-01 0.000000e+00
 0.000000e+00 0.000000e+00 0.000000e+00 8.460562e-01 1.539438e-01
 0.000000e+00 0.000000e+00 0.000000e+00 0.000000e+00 0.000000e+00
<ENDHMM>
~h "br"
<BEGINHMM>
<NUMSTATES> 5
<STATE> 2
<MEAN> 25
 1.708972e-09 1.090385e-09 9.580507e-09 -2.513088e-08 5.650978e-09 7.824450e-09 -1.173420e-08 8.080536e-09 -1.223684e-08 -1.003294e-08 -1.228346e-09 7.471072e-09 2.588070e-03 5.406653e-06 1.165406e-03 -2.750418e-04 1.179288e-03 -2.015027e-04 3.669178e-04 -4.334864e-04 -1.182183e-03 -4.313851e-04 -6.009767e-04 -5.740453e-04 3.089256e-03
<VARIANCE> 25
 5.950132e+01 5.523875e+01 6.957190e+01 6.306453e+01 6.882129e+01 6.596412e+01 5.749057e+01 5.935612e+01 5.307150e+01 4.762954e+01 4.650915e+01 3.710306e+01 2.306587e+00 2.816560e+00 2.879318e+00 3.320077e+00 3.620080e+00 3.535859e+00 3.444255e+00 3.604912e+00 3.328778e+00 3.069351e+00 2.973025e+00 2.428180e+00 2.668494e+00
<GCONST> 1.087549e+02
<STATE> 3
<MEAN> 25
 1.708972e-09 1.090385e-09 9.580507e-09 -2.513088e-08 5.650978e-09 7.824450e-09 -1.173420e-08 8.080536e-09 -1.223684e-08 -1.003294e-08 -1.228346e-09 7.471072e-09 2.588070e-03 5.406653e-06 1.165406e-03 -2.750418e-04 1.179288e-03 -2.015027e-04 3.669178e-04 -4.334864e-04 -1.182183e-03 -4.313851e-04 -6.009767e-04 -5.740453e-04 3.089256e-03
<VARIANCE> 25
 5.950132e+01 5.523875e+01 6.957190e+01 6.306453e+01 6.882129e+01 6.596412e+01 5.749057e+01 5.935612e+01 5.307150e+01 4.762954e+01 4.650915e+01 3.710306e+01 2.306587e+00 2.816560e+00 2.879318e+00 3.320077e+00 3.620080e+00 3.535859e+00 3.444255e+00 3.604912e+00 3.328778e+00 3.069351e+00 2.973025e+00 2.428180e+00 2.668494e+00
<GCONST> 1.087549e+02
<STATE> 4
<MEAN> 25
 1.708972e-09 1.090385e-09 9.580507e-09 -2.513088e-08 5.650978e-09 7.824450e-09 -1.173420e-08 8.080536e-09 -1.223684e-08 -1.003294e-08 -1.228346e-09 7.471072e-09 2.588070e-03 5.406653e-06 1.165406e-03 -2.750418e-04 1.179288e-03 -2.015027e-04 3.669178e-04 -4.334864e-04 -1.182183e-03 -4.313851e-04 -6.009767e-04 -5.740453e-04 3.089256e-03
<VARIANCE> 25
 5.950132e+01 5.523875e+01 6.957190e+01 6.306453e+01 6.882129e+01 6.596412e+01 5.749057e+01 5.935612e+01 5.307150e+01 4.762954e+01 4.650915e+01 3.710306e+01 2.306587e+00 2.816560e+00 2.879318e+00 3.320077e+00 3.620080e+00 3.535859e+00 3.444255e+00 3.604912e+00 3.328778e+00 3.069351e+00 2.973025e+00 2.428180e+00 2.668494e+00
<GCONST> 1.087549e+02
<TRANSP> 5
 0.000000e+00 1.000000e+00 0.000000e+00 0.000000e+00 0.000000e+00
 0.000000e+00 6.000000e-01 4.000000e-01 0.000000e+00 0.000000e+00
 0.000000e+00 0.000000e+00 6.000000e-01 4.000000e-01 0.000000e+00
 0.000000e+00 0.000000e+00 0.000000e+00 7.000000e-01 3.000000e-01
 0.000000e+00 0.000000e+00 0.000000e+00 0.000000e+00 0.000000e+00
<ENDHMM>
~h "bu"
<BEGINHMM>
<NUMSTATES> 5
<STATE> 2
<MEAN> 25
 1.708972e-09 1.090385e-09 9.580507e-09 -2.513088e-08 5.650978e-09 7.824450e-09 -1.173420e-08 8.080536e-09 -1.223684e-08 -1.003294e-08 -1.228346e-09 7.471072e-09 2.588070e-03 5.406653e-06 1.165406e-03 -2.750418e-04 1.179288e-03 -2.015027e-04 3.669178e-04 -4.334864e-04 -1.182183e-03 -4.313851e-04 -6.009767e-04 -5.740453e-04 3.089256e-03
<VARIANCE> 25
 5.950132e+01 5.523875e+01 6.957190e+01 6.306453e+01 6.882129e+01 6.596412e+01 5.749057e+01 5.935612e+01 5.307150e+01 4.762954e+01 4.650915e+01 3.710306e+01 2.306587e+00 2.816560e+00 2.879318e+00 3.320077e+00 3.620080e+00 3.535859e+00 3.444255e+00 3.604912e+00 3.328778e+00 3.069351e+00 2.973025e+00 2.428180e+00 2.668494e+00
<GCONST> 1.087549e+02
<STATE> 3
<MEAN> 25
 1.708972e-09 1.090385e-09 9.580507e-09 -2.513088e-08 5.650978e-09 7.824450e-09 -1.173420e-08 8.080536e-09 -1.223684e-08 -1.003294e-08 -1.228346e-09 7.471072e-09 2.588070e-03 5.406653e-06 1.165406e-03 -2.750418e-04 1.179288e-03 -2.015027e-04 3.669178e-04 -4.334864e-04 -1.182183e-03 -4.313851e-04 -6.009767e-04 -5.740453e-04 3.089256e-03
<VARIANCE> 25
 5.950132e+01 5.523875e+01 6.957190e+01 6.306453e+01 6.882129e+01 6.596412e+01 5.749057e+01 5.935612e+01 5.307150e+01 4.762954e+01 4.650915e+01 3.710306e+01 2.306587e+00 2.816560e+00 2.879318e+00 3.320077e+00 3.620080e+00 3.535859e+00 3.444255e+00 3.604912e+00 3.328778e+00 3.069351e+00 2.973025e+00 2.428180e+00 2.668494e+00
<GCONST> 1.087549e+02
<STATE> 4
<MEAN> 25
 1.708972e-09 1.090385e-09 9.580507e-09 -2.513088e-08 5.650978e-09 7.824450e-09 -1.173420e-08 8.080536e-09 -1.223684e-08 -1.003294e-08 -1.228346e-09 7.471072e-09 2.588070e-03 5.406653e-06 1.165406e-03 -2.750418e-04 1.179288e-03 -2.015027e-04 3.669178e-04 -4.334864e-04 -1.182183e-03 -4.313851e-04 -6.009767e-04 -5.740453e-04 3.089256e-03
<VARIANCE> 25
 5.950132e+01 5.523875e+01 6.957190e+01 6.306453e+01 6.882129e+01 6.596412e+01 5.749057e+01 5.935612e+01 5.307150e+01 4.762954e+01 4.650915e+01 3.710306e+01 2.306587e+00 2.816560e+00 2.879318e+00 3.320077e+00 3.620080e+00 3.535859e+00 3.444255e+00 3.604912e+00 3.328778e+00 3.069351e+00 2.973025e+00 2.428180e+00 2.668494e+00
<GCONST> 1.087549e+02
<TRANSP> 5
 0.000000e+00 1.000000e+00 0.000000e+00 0.000000e+00 0.000000e+00
 0.000000e+00 6.000000e-01 4.000000e-01 0.000000e+00 0.000000e+00
 0.000000e+00 0.000000e+00 6.000000e-01 4.000000e-01 0.000000e+00
 0.000000e+00 0.000000e+00 0.000000e+00 7.000000e-01 3.000000e-01
 0.000000e+00 0.000000e+00 0.000000e+00 0.000000e+00 0.000000e+00
<ENDHMM>
~h "ce"
<BEGINHMM>
<NUMSTATES> 5
<STATE> 2
<MEAN> 25
 -3.602705e+00 -2.470077e+00 -1.197574e+00 -7.938862e-01 -3.332267e-01 6.344610e-01 1.554155e+00 1.407610e+00 -1.325981e+00 -1.757027e+00 4.428049e-01 7.052810e-01 -8.806247e-02 -7.913706e-02 -3.648654e-02 3.660229e-03 1.021925e-01 1.527404e-01 6.482604e-02 -2.904594e-02 -3.256338e-03 3.854762e-03 5.926838e-03 7.859491e-03 -3.988516e-02
<VARIANCE> 25
