~o
<STREAMINFO> 1 25
<VECSIZE> 25<NULLD><MFCC_D_N_Z_0><DIAGC>
~h "proto"
<BEGINHMM>
<NUMSTATES> 5
<STATE> 2
<MEAN> 25
 1.708972e-09 1.090385e-09 9.580507e-09 -2.513088e-08 5.650978e-09 7.824450e-09 -1.173420e-08 8.080536e-09 -1.223684e-08 -1.003294e-08 -1.228346e-09 7.471072e-09 2.588070e-03 5.406653e-06 1.165406e-03 -2.750418e-04 1.179288e-03 -2.015027e-04 3.669178e-04 -4.334864e-04 -1.182183e-03 -4.313851e-04 -6.009767e-04 -5.740453e-04 3.089256e-03
<VARIANCE> 25
 5.950132e+01 5.523875e+01 6.957190e+01 6.306453e+01 6.882129e+01 6.596412e+01 5.749057e+01 5.935612e+01 5.307149e+01 4.762954e+01 4.650915e+01 3.710306e+01 2.306587e+00 2.816560e+00 2.879318e+00 3.320077e+00 3.620080e+00 3.535859e+00 3.444255e+00 3.604912e+00 3.328778e+00 3.069351e+00 2.973025e+00 2.428180e+00 2.668494e+00
<GCONST> 1.087549e+02
<STATE> 3
<MEAN> 25
 1.708972e-09 1.090385e-09 9.580507e-09 -2.513088e-08 5.650978e-09 7.824450e-09 -1.173420e-08 8.080536e-09 -1.223684e-08 -1.003294e-08 -1.228346e-09 7.471072e-09 2.588070e-03 5.406653e-06 1.165406e-03 -2.750418e-04 1.179288e-03 -2.015027e-04 3.669178e-04 -4.334864e-04 -1.182183e-03 -4.313851e-04 -6.009767e-04 -5.740453e-04 3.089256e-03
<VARIANCE> 25
 5.950132e+01 5.523875e+01 6.957190e+01 6.306453e+01 6.882129e+01 6.596412e+01 5.749057e+01 5.935612e+01 5.307149e+01 4.762954e+01 4.650915e+01 3.710306e+01 2.306587e+00 2.816560e+00 2.879318e+00 3.320077e+00 3.620080e+00 3.535859e+00 3.444255e+00 3.604912e+00 3.328778e+00 3.069351e+00 2.973025e+00 2.428180e+00 2.668494e+00
<GCONST> 1.087549e+02
<STATE> 4
<MEAN> 25
 1.708972e-09 1.090385e-09 9.580507e-09 -2.513088e-08 5.650978e-09 7.824450e-09 -1.173420e-08 8.080536e-09 -1.223684e-08 -1.003294e-08 -1.228346e-09 7.471072e-09 2.588070e-03 5.406653e-06 1.165406e-03 -2.750418e-04 1.179288e-03 -2.015027e-04 3.669178e-04 -4.334864e-04 -1.182183e-03 -4.313851e-04 -6.009767e-04 -5.740453e-04 3.089256e-03
<VARIANCE> 25
 5.950132e+01 5.523875e+01 6.957190e+01 6.306453e+01 6.882129e+01 6.596412e+01 5.749057e+01 5.935612e+01 5.307149e+01 4.762954e+01 4.650915e+01 3.710306e+01 2.306587e+00 2.816560e+00 2.879318e+00 3.320077e+00 3.620080e+00 3.535859e+00 3.444255e+00 3.604912e+00 3.328778e+00 3.069351e+00 2.973025e+00 2.428180e+00 2.668494e+00
<GCONST> 1.087549e+02
<TRANSP> 5
 0.000000e+00 1.000000e+00 0.000000e+00 0.000000e+00 0.000000e+00
 0.000000e+00 6.000000e-01 4.000000e-01 0.000000e+00 0.000000e+00
 0.000000e+00 0.000000e+00 6.000000e-01 4.000000e-01 0.000000e+00
 0.000000e+00 0.000000e+00 0.000000e+00 7.000000e-01 3.000000e-01
 0.000000e+00 0.000000e+00 0.000000e+00 0.000000e+00 0.000000e+00
<ENDHMM>
